1341846647.802247 0.000000000 0.000000000 0.000000000 0.000000000 0.000000000 0.000000000 1.000000000
1341846647.834093 0.002397230 -0.003013402 -0.001419959 0.000274499 0.000017781 0.000555226 0.999999821
1341846647.866652 0.006025553 -0.007144397 -0.005048484 0.000895536 0.001752602 0.002277534 0.999995470
1341846647.901972 0.008672295 -0.008241023 -0.006591749 0.000761416 0.003785360 0.002973810 0.999988139
1341846647.934224 0.011432325 -0.009559171 -0.008231824 -0.000918494 0.003300203 0.003470530 0.999988079
1341846647.970225 0.013952007 -0.011021500 -0.007597183 -0.001545319 0.001472625 0.004370483 0.999988139
1341846648.002341 0.011214650 -0.010385195 -0.007947257 -0.002260141 0.001635228 0.004479749 0.999986053
1341846648.034343 0.012817753 -0.012803260 -0.012134541 -0.004959812 -0.000296561 0.003822912 0.999980330
1341846648.070164 0.012720075 -0.013326793 -0.011166934 -0.006162927 -0.003249917 0.004462451 0.999965787
1341846648.102152 0.012080749 -0.014658919 -0.011449215 -0.005869162 -0.006196179 0.004514854 0.999953389
1341846648.138185 0.012180557 -0.014919640 -0.013769047 -0.006387259 -0.007588521 0.004245603 0.999941766
1341846648.170568 0.011815040 -0.017146973 -0.016154265 -0.009863939 -0.009143443 0.003522999 0.999903321
1341846648.202106 0.011211919 -0.016973788 -0.013566690 -0.010983839 -0.013246528 0.003292452 0.999846518
1341846648.238157 0.010910587 -0.018771894 -0.015075256 -0.010656447 -0.018121643 0.003347442 0.999773383
1341846648.270152 0.015639260 -0.013573158 -0.021526501 -0.012030373 -0.023946861 0.001405699 0.999639869
1341846648.302183 0.014712780 -0.013405846 -0.022992333 -0.017270496 -0.028368713 -0.003475403 0.999442279
1341846648.338170 0.015801683 -0.013857937 -0.023474248 -0.020525461 -0.033214673 -0.006393238 0.999217033
1341846648.370216 0.014830367 -0.013704140 -0.020346610 -0.022434784 -0.040085033 -0.006823224 0.998921037
1341846648.406052 0.014989163 -0.013624306 -0.020818109 -0.023809055 -0.050606430 -0.005770693 0.998418152
1341846648.438342 0.014990151 -0.015017920 -0.024315970 -0.023947623 -0.055497777 -0.004360919 0.998162031
1341846648.470076 0.016294129 -0.012505002 -0.023180902 -0.024512384 -0.061115228 -0.002710428 0.997825980
1341846648.506263 0.015425786 -0.013825337 -0.022147041 -0.028328402 -0.066976964 -0.003410237 0.997346461
1341846648.538249 0.015380611 -0.013892737 -0.022452287 -0.031354032 -0.072879121 -0.005278974 0.996833801
1341846648.570179 0.015360589 -0.013705232 -0.022173926 -0.034084979 -0.075924844 -0.008263128 0.996496558
1341846648.606081 0.015357247 -0.013706297 -0.022167914 -0.036419459 -0.080461226 -0.008831652 0.996052980
1341846648.638395 0.015603982 -0.013629545 -0.022764893 -0.035779905 -0.090093836 -0.012919879 0.995206475
1341846648.674053 0.015316037 -0.013716290 -0.022144053 -0.034065593 -0.092979431 -0.013060148 0.994999409
1341846648.706058 0.015355685 -0.013706388 -0.022167617 -0.035468925 -0.099934995 -0.011276640 0.994297624
1341846648.738116 0.015415299 -0.013686493 -0.022305485 -0.034866467 -0.108567618 -0.013797528 0.993381619
1341846648.774049 0.015267475 -0.013722813 -0.022057662 -0.030913286 -0.110024743 -0.018146103 0.993282259
1341846648.805941 0.015408783 -0.013763279 -0.022271032 -0.030907022 -0.113704652 -0.011461720 0.992967606
1341846648.838602 0.015419194 -0.013760911 -0.022272544 -0.031741913 -0.121326029 -0.012001954 0.992032468
1341846648.874088 0.015277086 -0.013727301 -0.022083052 -0.032721821 -0.123014659 -0.015173537 0.991749167
1341846648.906165 0.015352471 -0.013706414 -0.022167722 -0.035472997 -0.129215926 -0.010512233 0.990926027
1341846648.942154 0.015352835 -0.013703962 -0.022169989 -0.035554811 -0.145195067 -0.005703352 0.988747537
1341846648.974090 0.015359472 -0.013708659 -0.022191625 -0.037283625 -0.155058905 -0.014981917 0.987087727
1341846649.006157 0.015272015 -0.013721807 -0.022124749 -0.039924242 -0.157217354 -0.019487079 0.986564219
1341846649.042101 0.015342904 -0.013701035 -0.022239536 -0.039808445 -0.164689243 -0.013833326 0.985444725
1341846649.074128 0.015351610 -0.013707027 -0.022168992 -0.042317141 -0.172476217 -0.026058111 0.983759224
1341846649.106188 0.015352299 -0.013706043 -0.022172749 -0.044765074 -0.172945470 -0.037914146 0.983182847
1341846649.142042 0.015352286 -0.013706089 -0.022168461 -0.047517922 -0.174795762 -0.038398176 0.982707500
1341846649.174442 0.015353680 -0.013705105 -0.022174463 -0.049635168 -0.180180669 -0.044119585 0.981389225
1341846649.216152 0.015350682 -0.013706513 -0.022169083 -0.050187215 -0.180365071 -0.050161660 0.981036901
1341846649.248048 0.015349773 -0.013706731 -0.022168610 -0.052478440 -0.179371327 -0.045649119 0.981319547
1341846649.280075 0.015350697 -0.013706999 -0.022170432 -0.056528427 -0.181541070 -0.045296378 0.980711758
1341846649.316071 0.015350078 -0.013707076 -0.022169761 -0.061196551 -0.182324380 -0.046499163 0.980229914
1341846649.348041 0.015349698 -0.013705093 -0.022171373 -0.062901333 -0.183931857 -0.043335274 0.979966581
1341846649.383973 0.015350610 -0.013705587 -0.022173904 -0.061512865 -0.188125461 -0.038554844 0.979458272
1341846649.416053 0.015346733 -0.013708940 -0.022171281 -0.062466331 -0.187991187 -0.041666236 0.979296267
1341846649.448084 0.015348583 -0.013707129 -0.022169717 -0.066958450 -0.183318675 -0.045358479 0.979721129
1341846649.484154 0.015348196 -0.013707028 -0.022167930 -0.069070093 -0.185456976 -0.045794722 0.979151607
1341846649.516198 0.015348818 -0.013707657 -0.022170730 -0.068541735 -0.186874732 -0.046947293 0.978864551
1341846649.552101 0.015349596 -0.013708103 -0.022173423 -0.066982508 -0.184278980 -0.050211806 0.979302466
1341846649.616167 0.015349354 -0.013706704 -0.022175297 -0.066126339 -0.186526239 -0.045199785 0.979179382
1341846649.678101 0.015346334 -0.013706524 -0.022170227 -0.064198479 -0.186844081 -0.048356216 0.979096293
1341846649.710937 0.015348502 -0.013705393 -0.022175469 -0.062821724 -0.192122519 -0.047061600 0.978226781
1341846649.746112 0.015348447 -0.013706957 -0.022177465 -0.061394595 -0.198190272 -0.050868638 0.976915419
1341846649.778019 0.015347482 -0.013705954 -0.022177385 -0.059587639 -0.202023372 -0.052021734 0.976181149
1341846649.810257 0.015348257 -0.013704375 -0.022177083 -0.058668558 -0.209656119 -0.050542183 0.974703968
1341846649.846059 0.015350726 -0.013707608 -0.022188479 -0.061368499 -0.217570946 -0.052717727 0.972685814
1341846649.878137 0.015350487 -0.013707888 -0.022188291 -0.065821350 -0.221963570 -0.056384392 0.971195400
1341846649.914184 0.015349433 -0.013708959 -0.022189474 -0.065203339 -0.227354348 -0.054316465 0.970107317
1341846649.952612 0.015344554 -0.013707316 -0.022172643 -0.063159212 -0.228952780 -0.050824169 0.970055878
1341846650.014156 0.015344385 -0.013706836 -0.022175515 -0.062466461 -0.230325803 -0.043690093 0.970123231
1341846650.046184 0.015344755 -0.013708577 -0.022177590 -0.061883032 -0.232448786 -0.042596675 0.969702840
1341846650.078250 0.015343873 -0.013709034 -0.022177232 -0.060616482 -0.231273592 -0.042797815 0.970054924
1341846650.114215 0.015341196 -0.013707357 -0.022176070 -0.058434401 -0.229942724 -0.039994139 0.970624626
1341846650.146137 0.015340670 -0.013706347 -0.022176096 -0.057253320 -0.232531875 -0.034940246 0.970273256
1341846650.182236 0.015339819 -0.013707796 -0.022176009 -0.053176403 -0.231653482 -0.037708305 0.970611691
1341846650.214164 0.015342226 -0.013707418 -0.022173982 -0.050571296 -0.228980958 -0.040020574 0.971292257
1341846650.246084 0.015342257 -0.013707305 -0.022174567 -0.052257560 -0.229220673 -0.040400848 0.971130669
1341846650.282167 0.015341383 -0.013707088 -0.022173613 -0.049934078 -0.228151798 -0.041472618 0.971459389
1341846650.314158 0.015341812 -0.013706885 -0.022173990 -0.046194196 -0.224229962 -0.044961840 0.972401917
1341846650.350453 0.015342019 -0.013706599 -0.022174556 -0.047691807 -0.223501638 -0.045902070 0.972453356
1341846650.382075 0.015341391 -0.013706684 -0.022174150 -0.049643055 -0.223209798 -0.048342019 0.972304463
1341846650.414224 0.015340956 -0.013706638 -0.022173660 -0.047127254 -0.218973428 -0.049040113 0.973357439
1341846650.450353 0.015341399 -0.013706536 -0.022173744 -0.045362342 -0.213968724 -0.046998791 0.974654198
1341846650.484849 0.015341411 -0.013706676 -0.022174014 -0.047241911 -0.210918754 -0.049244355 0.975118697
1341846650.514091 0.015341319 -0.013706816 -0.022173671 -0.047423944 -0.205342323 -0.052047301 0.976153970
1341846650.550746 0.015341290 -0.013706605 -0.022173218 -0.041744087 -0.199081019 -0.050961040 0.977766395
1341846650.582069 0.015341708 -0.013706680 -0.022173073 -0.037336782 -0.193518549 -0.050761119 0.979070902
1341846650.618092 0.015341899 -0.013706734 -0.022172719 -0.037084177 -0.188566670 -0.054256581 0.979858994
1341846650.650422 0.015342363 -0.013706340 -0.022172408 -0.035965040 -0.182862535 -0.055940159 0.980886579
1341846650.682114 0.015342372 -0.013706569 -0.022171993 -0.034393918 -0.176064536 -0.059657536 0.981967092
1341846650.718110 0.015342791 -0.013706703 -0.022171658 -0.033816107 -0.172005609 -0.062709689 0.982516170
1341846650.750112 0.015342839 -0.013706763 -0.022171283 -0.032335158 -0.166390628 -0.065790005 0.983331203
1341846650.782116 0.015342562 -0.013706959 -0.022169430 -0.030120052 -0.157349125 -0.066372737 0.984849572
1341846650.818115 0.015344548 -0.013706565 -0.022170203 -0.027025988 -0.155627042 -0.063374922 0.985410273
1341846650.850139 0.015344544 -0.013706799 -0.022169868 -0.026510552 -0.152881354 -0.063238271 0.985862792
1341846650.886238 0.015344958 -0.013706534 -0.022170691 -0.027141433 -0.142006963 -0.064851433 0.987366021
1341846650.918288 0.015345416 -0.013706251 -0.022168014 -0.026889622 -0.134039938 -0.061985485 0.988669813
1341846650.950233 0.015345330 -0.013706217 -0.022167232 -0.027152617 -0.129166737 -0.057266578 0.989595473
1341846650.986247 0.015344420 -0.013706338 -0.022166619 -0.027888283 -0.119752258 -0.055739149 0.990845501
1341846651.050482 0.015344477 -0.013705734 -0.022163089 -0.026382059 -0.106448554 -0.042149790 0.993074059
1341846651.086169 0.015344461 -0.013705635 -0.022162752 -0.030999051 -0.100531921 -0.039021540 0.993684888
1341846651.118423 0.015343433 -0.013705863 -0.022161257 -0.029792365 -0.092612877 -0.035959613 0.994606555
1341846651.154189 0.015344029 -0.013705773 -0.022162085 -0.025477033 -0.087582886 -0.030998867 0.995348811
1341846651.186391 0.015343643 -0.013705755 -0.022161482 -0.026903778 -0.083290406 -0.028253458 0.995761335
1341846651.218036 0.015343559 -0.013705825 -0.022161206 -0.029258372 -0.079745635 -0.025857510 0.996050179
1341846651.254031 0.015343348 -0.013705897 -0.022160944 -0.030074436 -0.076101482 -0.023000533 0.996380985
1341846651.286406 0.015343255 -0.013705874 -0.022160530 -0.032423697 -0.073011234 -0.023172822 0.996534526
1341846651.318309 0.015342982 -0.013705933 -0.022159182 -0.034146354 -0.070070498 -0.024588721 0.996654153
1341846651.354135 0.015342722 -0.013705586 -0.022158425 -0.032201905 -0.066116869 -0.028775238 0.996876895
1341846651.386180 0.015342498 -0.013705095 -0.022156376 -0.030654097 -0.061703239 -0.033589583 0.997058094
1341846651.422237 0.015341742 -0.013705642 -0.022158716 -0.030439384 -0.061413433 -0.032786824 0.997109234
1341846651.492135 0.015341610 -0.013705476 -0.022156717 -0.034333561 -0.054732043 -0.036556538 0.997240841
1341846651.560316 0.015339958 -0.013706662 -0.022156861 -0.032015208 -0.040278360 -0.031710185 0.998171926
1341846651.622176 0.015338334 -0.013707560 -0.022156930 -0.025463127 -0.033620663 -0.027548810 0.998730361
1341846651.654223 0.015337783 -0.013707348 -0.022151774 -0.021309050 -0.031060185 -0.029652456 0.998850286
1341846651.690127 0.015336774 -0.013707736 -0.022156963 -0.017330887 -0.030590083 -0.025473826 0.999057055
1341846651.722318 0.015335878 -0.013707911 -0.022157418 -0.014137389 -0.028312711 -0.023009440 0.999234259
1341846651.754212 0.015334976 -0.013708030 -0.022158220 -0.012335997 -0.026703613 -0.021974321 0.999325693
1341846651.790200 0.015334332 -0.013707968 -0.022158643 -0.013461796 -0.023786290 -0.022499621 0.999373198
1341846651.822233 0.015334647 -0.013707495 -0.022156075 -0.012549082 -0.019312143 -0.022840599 0.999473751
1341846651.858213 0.015335930 -0.013707056 -0.022160811 -0.003445910 -0.016050758 -0.019792661 0.999669313
1341846651.890237 0.015337343 -0.013706831 -0.022161642 0.003448236 -0.013427488 -0.012653193 0.999823809
1341846651.922186 0.015336700 -0.013706460 -0.022160441 0.003940194 -0.010626776 -0.008618632 0.999898672
1341846651.958047 0.015336574 -0.013706886 -0.022161383 0.007085575 -0.009719367 -0.006626139 0.999905705
1341846651.990020 0.015336456 -0.013706921 -0.022161592 0.013890052 -0.005743945 -0.001580394 0.999885798
1341846652.022081 0.015336858 -0.013706691 -0.022162581 0.018990040 -0.003044791 0.003476315 0.999808967
1341846652.058058 0.015336718 -0.013706913 -0.022162402 0.017376205 -0.003403199 0.007604625 0.999814332
1341846652.090106 0.015336758 -0.013706852 -0.022162490 0.014418158 -0.002462377 0.009487897 0.999848008
1341846652.126257 0.015336834 -0.013706858 -0.022162490 0.012163549 0.000060746 0.010814620 0.999867499
1341846652.158232 0.015336771 -0.013706866 -0.022162380 0.010434187 0.000116384 0.011738695 0.999876618
1341846652.190049 0.015336801 -0.013706885 -0.022162400 0.008706233 0.000172892 0.012662501 0.999881923
1341846652.225981 0.015336861 -0.013706926 -0.022162253 0.009482227 0.004945139 0.013097889 0.999857008
1341846652.258089 0.015336842 -0.013706884 -0.022162212 0.012157215 0.009905390 0.013929506 0.999779999
1341846652.290189 0.015336736 -0.013706913 -0.022162184 0.015281660 0.011720901 0.014920557 0.999703169
1341846652.326148 0.015336733 -0.013706933 -0.022162311 0.018407520 0.013534965 0.015911449 0.999612331
1341846652.358184 0.015336732 -0.013706931 -0.022162294 0.021533558 0.015348734 0.016902192 0.999507368
1341846652.394279 0.015336688 -0.013706908 -0.022162233 0.024659293 0.017161926 0.017892705 0.999388397
1341846652.426287 0.015336690 -0.013706882 -0.022162275 0.027784623 0.018974660 0.018882969 0.999255419
1341846652.458277 0.015336725 -0.013706876 -0.022162357 0.030909576 0.020787016 0.019872958 0.999108374
1341846652.494100 0.015336731 -0.013706862 -0.022162374 0.034034107 0.022598980 0.020862661 0.998947322
1341846652.526469 0.015336731 -0.013706816 -0.022162348 0.037158106 0.024410628 0.021852078 0.998772204
1341846652.562089 0.015336801 -0.013706777 -0.022162370 0.040281508 0.026221976 0.022841204 0.998583019
1341846652.594254 0.015336921 -0.013706763 -0.022162428 0.043404322 0.028032985 0.023830004 0.998379886
1341846652.626356 0.015337031 -0.013706744 -0.022162450 0.046526521 0.029843606 0.024818478 0.998162627
1341846652.662152 0.015337336 -0.013706713 -0.022162486 0.049648050 0.031653829 0.025806613 0.997931421
1341846652.694113 0.015345318 -0.013709759 -0.022190558 0.046069141 0.031254902 0.026927788 0.998085976
1341846652.694113 0.015345318 -0.013709759 -0.022190558 0.046069141 0.031254902 0.026927788 0.998085976
1341846652.694113 0.015345318 -0.013709759 -0.022190558 0.046069141 0.031254902 0.026927788 0.998085976
1341846652.694113 0.015345318 -0.013709759 -0.022190558 0.046069141 0.031254902 0.026927788 0.998085976
1341846652.694113 0.015345318 -0.013709759 -0.022190558 0.046069141 0.031254902 0.026927788 0.998085976
1341846652.694113 0.015345318 -0.013709759 -0.022190558 0.046069141 0.031254902 0.026927788 0.998085976
1341846652.694113 0.015345318 -0.013709759 -0.022190558 0.046069141 0.031254902 0.026927788 0.998085976
1341846652.694113 0.015345318 -0.013709759 -0.022190558 0.046069141 0.031254902 0.026927788 0.998085976
1341846652.694113 0.015345318 -0.013709759 -0.022190558 0.046069141 0.031254902 0.026927788 0.998085976
1341846652.694113 0.015345318 -0.013709759 -0.022190558 0.046069141 0.031254902 0.026927788 0.998085976
1341846652.694113 0.015345318 -0.013709759 -0.022190558 0.046069141 0.031254902 0.026927788 0.998085976
1341846652.694113 0.015345318 -0.013709759 -0.022190558 0.046069141 0.031254902 0.026927788 0.998085976
1341846652.694113 0.015345318 -0.013709759 -0.022190558 0.046069141 0.031254902 0.026927788 0.998085976
1341846652.694113 0.015345318 -0.013709759 -0.022190558 0.046069141 0.031254902 0.026927788 0.998085976
1341846652.694113 0.015345318 -0.013709759 -0.022190558 0.046069141 0.031254902 0.026927788 0.998085976
1341846652.694113 0.015345318 -0.013709759 -0.022190558 0.046069141 0.031254902 0.026927788 0.998085976
1341846652.694113 0.015345318 -0.013709759 -0.022190558 0.046069141 0.031254902 0.026927788 0.998085976
1341846652.694113 0.015345318 -0.013709759 -0.022190558 0.046069141 0.031254902 0.026927788 0.998085976
1341846652.694113 0.015345318 -0.013709759 -0.022190558 0.046069141 0.031254902 0.026927788 0.998085976
1341846652.694113 0.015345318 -0.013709759 -0.022190558 0.046069141 0.031254902 0.026927788 0.998085976
1341846652.694113 0.015345318 -0.013709759 -0.022190558 0.046069141 0.031254902 0.026927788 0.998085976
1341846652.694113 0.015345318 -0.013709759 -0.022190558 0.046069141 0.031254902 0.026927788 0.998085976
1341846652.694113 0.015345318 -0.013709759 -0.022190558 0.046069141 0.031254902 0.026927788 0.998085976
1341846652.694113 0.015345318 -0.013709759 -0.022190558 0.046069141 0.031254902 0.026927788 0.998085976
1341846652.694113 0.015345318 -0.013709759 -0.022190558 0.046069141 0.031254902 0.026927788 0.998085976
1341846652.694113 0.015345318 -0.013709759 -0.022190558 0.046069141 0.031254902 0.026927788 0.998085976
1341846652.694113 0.015345318 -0.013709759 -0.022190558 0.046069141 0.031254902 0.026927788 0.998085976
1341846652.694113 0.015345318 -0.013709759 -0.022190558 0.046069141 0.031254902 0.026927788 0.998085976
1341846652.694113 0.015345318 -0.013709759 -0.022190558 0.046069141 0.031254902 0.026927788 0.998085976
1341846652.694113 0.015345318 -0.013709759 -0.022190558 0.046069141 0.031254902 0.026927788 0.998085976
1341846652.694113 0.015345318 -0.013709759 -0.022190558 0.046069141 0.031254902 0.026927788 0.998085976
1341846652.694113 0.015345318 -0.013709759 -0.022190558 0.046069141 0.031254902 0.026927788 0.998085976
1341846652.694113 0.015345318 -0.013709759 -0.022190558 0.046069141 0.031254902 0.026927788 0.998085976
1341846652.694113 0.015345318 -0.013709759 -0.022190558 0.046069141 0.031254902 0.026927788 0.998085976
1341846652.694113 0.015345318 -0.013709759 -0.022190558 0.046069141 0.031254902 0.026927788 0.998085976
1341846652.694113 0.015345318 -0.013709759 -0.022190558 0.046069141 0.031254902 0.026927788 0.998085976
1341846652.694113 0.015345318 -0.013709759 -0.022190558 0.046069141 0.031254902 0.026927788 0.998085976
1341846652.694113 0.015345318 -0.013709759 -0.022190558 0.046069141 0.031254902 0.026927788 0.998085976
1341846652.694113 0.015345318 -0.013709759 -0.022190558 0.046069141 0.031254902 0.026927788 0.998085976
1341846652.694113 0.015345318 -0.013709759 -0.022190558 0.046069141 0.031254902 0.026927788 0.998085976
1341846652.694113 0.015345318 -0.013709759 -0.022190558 0.046069141 0.031254902 0.026927788 0.998085976
1341846652.694113 0.015345318 -0.013709759 -0.022190558 0.046069141 0.031254902 0.026927788 0.998085976
1341846652.694113 0.015345318 -0.013709759 -0.022190558 0.046069141 0.031254902 0.026927788 0.998085976
1341846652.694113 0.015345318 -0.013709759 -0.022190558 0.046069141 0.031254902 0.026927788 0.998085976
1341846652.694113 0.015345318 -0.013709759 -0.022190558 0.046069141 0.031254902 0.026927788 0.998085976
1341846652.694113 0.015345318 -0.013709759 -0.022190558 0.046069141 0.031254902 0.026927788 0.998085976
1341846652.694113 0.015345318 -0.013709759 -0.022190558 0.046069141 0.031254902 0.026927788 0.998085976
1341846652.694113 0.015345318 -0.013709759 -0.022190558 0.046069141 0.031254902 0.026927788 0.998085976
1341846652.694113 0.015345318 -0.013709759 -0.022190558 0.046069141 0.031254902 0.026927788 0.998085976
1341846652.694113 0.015345318 -0.013709759 -0.022190558 0.046069141 0.031254902 0.026927788 0.998085976
1341846652.694113 0.015345318 -0.013709759 -0.022190558 0.046069141 0.031254902 0.026927788 0.998085976
1341846652.694113 0.015345318 -0.013709759 -0.022190558 0.046069141 0.031254902 0.026927788 0.998085976
1341846652.694113 0.015345318 -0.013709759 -0.022190558 0.046069141 0.031254902 0.026927788 0.998085976
1341846652.694113 0.015345318 -0.013709759 -0.022190558 0.046069141 0.031254902 0.026927788 0.998085976
1341846652.694113 0.015345318 -0.013709759 -0.022190558 0.046069141 0.031254902 0.026927788 0.998085976
1341846652.694113 0.015345318 -0.013709759 -0.022190558 0.046069141 0.031254902 0.026927788 0.998085976
1341846652.694113 0.015345318 -0.013709759 -0.022190558 0.046069141 0.031254902 0.026927788 0.998085976
1341846652.694113 0.015345318 -0.013709759 -0.022190558 0.046069141 0.031254902 0.026927788 0.998085976
1341846654.738497 0.000000000 0.000000000 0.000000000 0.000000000 0.000000000 0.000000000 1.000000000
1341846654.774056 0.017689046 0.007092868 -0.001533823 0.001231164 -0.008711920 0.000795502 0.999960959
1341846654.806040 0.016841343 0.010901824 0.007453869 -0.000770990 -0.018983679 0.002251721 0.999816954
1341846654.838060 0.016951010 0.006726072 -0.001241265 -0.001014540 -0.035181295 0.002872349 0.999376297
1341846654.874136 0.020437989 0.008643009 -0.004266210 -0.002418236 -0.047319170 0.000104368 0.998876870
1341846654.906209 0.029028600 0.007660872 -0.000816245 -0.006242776 -0.058893379 -0.000339925 0.998244703
1341846654.938214 0.036546145 0.007128171 0.013339142 -0.004741143 -0.076544754 0.002743214 0.997051120
1341846654.974334 0.024256628 0.007492518 0.004714280 -0.000771613 -0.091056243 0.002556447 0.995842159
1341846655.006124 0.023226595 0.007728720 -0.007609204 -0.002254204 -0.102918960 -0.000450949 0.994687080
1341846655.042239 0.021842595 0.007442770 -0.000140610 -0.004024887 -0.119299114 0.005709944 0.992833793
1341846655.074179 0.023197863 0.007895583 0.003525605 -0.001846348 -0.140813634 0.005263867 0.990020394
1341846655.106132 0.020835241 0.008132109 -0.003188601 -0.001483778 -0.151842207 0.002250305 0.988401055
1341846655.142070 0.022400491 0.007907085 -0.002877704 -0.002159152 -0.172951877 0.006080297 0.984909117
1341846655.174000 0.020141460 0.006888994 -0.001199500 -0.004753028 -0.191441312 -0.002527043 0.981489301
1341846655.206124 0.019734556 0.007443713 -0.001600381 -0.006602594 -0.200142771 -0.003374645 0.979738712
1341846655.242079 0.019847754 0.007647683 0.001317783 -0.004639467 -0.212544680 -0.002143817 0.977137983
1341846655.274211 0.018026995 0.007475027 -0.000236981 -0.001701424 -0.216894448 -0.001989620 0.976191521
1341846655.310175 0.017731585 0.007605094 0.000705688 0.003704450 -0.217201635 0.002210912 0.976117253
1341846655.342236 0.017878115 0.007560736 0.000410947 0.009934586 -0.221706972 0.007889403 0.975030839
1341846655.374134 0.017434567 0.007401889 0.000358055 0.011536229 -0.222638831 0.007878601 0.974800885
1341846655.410207 0.017513141 0.007523896 0.000222570 0.013731570 -0.223261476 0.010655838 0.974603653
1341846655.442262 0.017970368 0.007535731 0.000156623 0.017702851 -0.232755601 0.013991053 0.972273469
1341846655.474205 0.018108211 0.007356250 -0.000326272 0.017164176 -0.241865799 0.011961448 0.970084131
1341846655.510277 0.018284984 0.007309626 -0.000562960 0.013159760 -0.252167344 0.008511378 0.967556715
1341846655.542135 0.018063551 0.007481175 -0.000189835 0.009243637 -0.259384871 0.007419605 0.965701282
1341846655.578132 0.018106589 0.007471956 -0.000165824 0.006898649 -0.266458690 0.006404571 0.963800371
1341846655.642348 0.018145055 0.007448267 -0.000238840 0.000162232 -0.284399360 0.004074326 0.958697259
1341846655.678110 0.018091708 0.007494437 -0.000078601 0.000398764 -0.293896735 0.007396340 0.955808461
1341846655.710074 0.018088443 0.007492870 -0.000080800 0.001252702 -0.303950459 0.008147384 0.952652156
1341846655.748050 0.018104935 0.007476555 -0.000157310 -0.002688385 -0.313824505 0.006011871 0.949458182
1341846655.810222 0.018101418 0.007476658 -0.000138195 -0.006051602 -0.330837190 0.009605224 0.943619549
1341846655.846257 0.018105933 0.007476108 -0.000154243 -0.009069921 -0.339853734 0.008336328 0.940397620
1341846655.910355 0.018151268 0.007459943 -0.000253632 -0.014832660 -0.357470810 0.006065479 0.933786809
1341846655.946240 0.018150551 0.007456132 -0.000254144 -0.016667910 -0.367120236 0.003383728 0.930018008
1341846655.978412 0.018109137 0.007477302 -0.000163621 -0.019879358 -0.372282833 0.002087595 0.927904069
1341846656.014188 0.018111411 0.007476863 -0.000166152 -0.022432916 -0.374633521 0.001427386 0.926900446
1341846656.046211 0.018140826 0.007462853 -0.000240022 -0.023963466 -0.377352655 0.001309034 0.925758600
1341846656.078165 0.018138660 0.007462094 -0.000238042 -0.024919920 -0.381077141 0.002958814 0.924202561
1341846656.114220 0.018140910 0.007462553 -0.000240271 -0.027335934 -0.385315537 0.003502631 0.922373235
1341846656.146158 0.018140653 0.007462974 -0.000240114 -0.028919414 -0.390543163 0.003139535 0.920124948
1341846656.178154 0.018140826 0.007462785 -0.000240420 -0.028850161 -0.396200985 0.003123741 0.917705119
1341846656.214132 0.018141201 0.007462819 -0.000240805 -0.028948776 -0.401203126 0.001584983 0.915530205
1341846656.246093 0.018140448 0.007462735 -0.000241388 -0.028823609 -0.403691351 0.002576215 0.914437413
1341846656.282181 0.018140372 0.007462789 -0.000241210 -0.029828075 -0.406206429 0.003235170 0.913288653
1341846656.314258 0.018140405 0.007462771 -0.000241224 -0.031348705 -0.410398126 0.001803091 0.911365688
1341846656.346094 0.018140692 0.007462713 -0.000241652 -0.033092849 -0.413966894 0.000017238 0.909690201
1341846656.382222 0.018140383 0.007462829 -0.000241104 -0.035311796 -0.417741001 -0.001243536 0.907878816
1341846656.414253 0.018140793 0.007462747 -0.000240883 -0.034022287 -0.426463008 0.000290699 0.903864861
1341846656.446177 0.018142326 0.007462236 -0.000242641 -0.037763920 -0.433935165 -0.000336153 0.900152206
1341846656.482260 0.018140502 0.007462767 -0.000241258 -0.042083915 -0.439360410 -0.001685028 0.897323012
1341846656.519461 0.018140407 0.007462769 -0.000241141 -0.041842990 -0.446464360 -0.001027037 0.893821955
1341846656.582247 0.018140519 0.007462669 -0.000241967 -0.047584616 -0.450740129 -0.002136751 0.891383469
1341846656.614195 0.018140474 0.007462687 -0.000241914 -0.048804276 -0.453214735 -0.001696163 0.890062749
1341846656.649995 0.018140480 0.007462678 -0.000241903 -0.049027462 -0.454272956 -0.001665538 0.889510870
1341846656.682076 0.018140417 0.007462673 -0.000241826 -0.049909003 -0.458070338 -0.001861125 0.887511790
1341846656.714216 0.018140571 0.007462696 -0.000242022 -0.050792981 -0.461862803 -0.002056820 0.885493457
1341846656.749974 0.018140592 0.007462706 -0.000241958 -0.053388346 -0.463549674 -0.002459432 0.884457648
1341846656.782653 0.018140521 0.007462665 -0.000241945 -0.053877946 -0.465349317 -0.001866910 0.883483827
1341846656.824388 0.018140512 0.007462669 -0.000241967 -0.054417029 -0.467985630 -0.001068446 0.882058442
1341846656.856226 0.018140512 0.007462716 -0.000241932 -0.056144312 -0.469319522 -0.001059858 0.881241143
1341846656.892050 0.018140521 0.007462674 -0.000241936 -0.058714509 -0.466914117 -0.001788705 0.882349491
1341846656.924099 0.018140500 0.007462644 -0.000241955 -0.060243517 -0.465238243 -0.002049135 0.883130729
1341846656.956112 0.018140567 0.007462658 -0.000241913 -0.061360236 -0.461016685 -0.002314969 0.885264456
1341846656.992122 0.018140536 0.007462668 -0.000241921 -0.062308766 -0.454537123 -0.002635416 0.888541877
1341846657.024108 0.018140480 0.007462650 -0.000241965 -0.062832944 -0.449592441 -0.002617131 0.891017318
1341846657.056121 0.018140554 0.007462637 -0.000241955 -0.063347310 -0.444637388 -0.002595621 0.893464029
1341846657.092006 0.018140400 0.007462536 -0.000241705 -0.063851304 -0.439652622 -0.002572500 0.895891726
1341846657.124027 0.018140607 0.007462313 -0.000241609 -0.064360507 -0.434661418 -0.002551664 0.898287654
1341846657.155973 0.018140787 0.007462211 -0.000241544 -0.064864352 -0.429656029 -0.002529958 0.900656402
1341846657.192094 0.018141055 0.007462152 -0.000241255 -0.064866252 -0.429654628 -0.002530768 0.900656879
1341846657.224195 0.018141262 0.007462106 -0.000241067 -0.064866215 -0.429654419 -0.002530696 0.900656998
1341846657.292164 0.018141421 0.007462153 -0.000240553 -0.064865515 -0.429654747 -0.002530498 0.900656879
1341846657.354367 0.018141493 0.007462244 -0.000240065 -0.064864993 -0.429654837 -0.002530157 0.900656939
1341846657.386193 0.018141638 0.007462263 -0.000239821 -0.064864948 -0.429654539 -0.002530047 0.900657058
1341846657.418105 0.018141532 0.007462240 -0.000239476 -0.064865209 -0.429654390 -0.002528975 0.900657117
1341846657.454277 0.018141726 0.007462201 -0.000239275 -0.064865157 -0.429654121 -0.002528882 0.900657237
1341846657.486117 0.018141953 0.007462195 -0.000239049 -0.064864472 -0.429653287 -0.002530060 0.900657713
1341846657.522092 0.018142166 0.007462122 -0.000238807 -0.064864606 -0.429652840 -0.002529355 0.900657892
1341846657.554062 0.018142296 0.007462071 -0.000238652 -0.064864472 -0.429652542 -0.002529291 0.900658071
1341846657.586078 0.018142616 0.007462068 -0.000238560 -0.064863980 -0.429652870 -0.002529943 0.900657892
1341846657.622205 0.018142799 0.007462061 -0.000238329 -0.064863794 -0.429652512 -0.002529975 0.900658071
1341846657.654161 0.018142916 0.007462030 -0.000238217 -0.064864114 -0.429651588 -0.002529054 0.900658488
1341846657.686517 0.018143149 0.007462020 -0.000238019 -0.064864203 -0.429651707 -0.002530759 0.900658429
1341846657.722061 0.018143309 0.007461996 -0.000237717 -0.064864025 -0.429651231 -0.002530840 0.900658667
1341846657.754104 0.018143564 0.007461996 -0.000237596 -0.064863577 -0.429650187 -0.002529332 0.900659263
1341846657.790066 0.018143769 0.007462119 -0.000237397 -0.064862564 -0.429650515 -0.002530628 0.900659144
1341846657.822089 0.018143799 0.007462150 -0.000236896 -0.064863428 -0.429649711 -0.002531487 0.900659442
1341846657.853972 0.018143989 0.007462070 -0.000236724 -0.064863235 -0.429649115 -0.002531603 0.900659740
1341846657.889993 0.018144220 0.007462125 -0.000236531 -0.064862795 -0.429648280 -0.002531319 0.900660157
1341846657.922046 0.018144345 0.007462130 -0.000236208 -0.064861231 -0.429648042 -0.002530461 0.900660396
1341846657.954192 0.018144550 0.007462116 -0.000236148 -0.064862825 -0.429647356 -0.002529477 0.900660574
1341846657.990141 0.018144567 0.007462229 -0.000235854 -0.064862669 -0.429646522 -0.002529450 0.900661051
1341846658.022419 0.018144773 0.007462164 -0.000235714 -0.064860784 -0.429645479 -0.002530390 0.900661647
1341846658.090215 0.018145073 0.007462143 -0.000235501 -0.064860635 -0.429644525 -0.002530363 0.900662124
1341846658.122355 0.018145053 0.007462210 -0.000235325 -0.064865611 -0.429642409 -0.002525278 0.900662839
1341846658.158136 0.018145107 0.007462259 -0.000235265 -0.064864166 -0.429640561 -0.002524655 0.900663793
1341846658.190098 0.018145284 0.007462293 -0.000235146 -0.064860225 -0.429641455 -0.002530379 0.900663614
1341846658.226027 0.018145226 0.007462285 -0.000235002 -0.064865194 -0.429639190 -0.002525346 0.900664389
1341846658.258133 0.018145364 0.007462231 -0.000235004 -0.064865015 -0.429638028 -0.002525446 0.900664926
1341846658.290020 0.018145408 0.007462272 -0.000234898 -0.064864784 -0.429636806 -0.002525623 0.900665522
1341846658.326239 0.018145401 0.007462276 -0.000234842 -0.064858630 -0.429634809 -0.002530633 0.900666893
1341846658.358248 0.018145453 0.007462351 -0.000234898 -0.064859070 -0.429633856 -0.002532121 0.900667369
1341846658.390215 0.018145453 0.007462488 -0.000234891 -0.064856082 -0.429633588 -0.002539506 0.900667667
1341846658.426300 0.018145472 0.007462563 -0.000234768 -0.064863689 -0.429631948 -0.002527062 0.900667906
1341846658.458168 0.018145449 0.007462491 -0.000234850 -0.064863406 -0.429630697 -0.002527534 0.900668502
1341846658.494176 0.018145384 0.007462563 -0.000235000 -0.064858668 -0.429629117 -0.002533154 0.900669575
1341846658.526214 0.018145386 0.007462805 -0.000235053 -0.064859316 -0.429627299 -0.002534106 0.900670409
1341846658.558129 0.018145325 0.007463046 -0.000235120 -0.064858973 -0.429626912 -0.002534465 0.900670648
1341846658.594206 0.018145306 0.007463593 -0.000235287 -0.064858921 -0.429625660 -0.002535299 0.900671244
1341846658.626105 0.018145202 0.007463960 -0.000235407 -0.064858034 -0.429624707 -0.002537397 0.900671780
1341846658.658181 0.018145137 0.007464068 -0.000235478 -0.064856708 -0.429624856 -0.002538773 0.900671780
1341846658.694141 0.018145146 0.007464412 -0.000235538 -0.064859368 -0.429621845 -0.002536980 0.900673032
1341846658.726153 0.018145083 0.007464667 -0.000235604 -0.064858206 -0.429619700 -0.002539193 0.900674105
1341846658.762100 0.018145004 0.007464702 -0.000235746 -0.064855121 -0.429621875 -0.002540421 0.900673270
1341846658.794185 0.018145029 0.007464815 -0.000235767 -0.064859480 -0.429619670 -0.002538298 0.900674045
1341846658.826155 0.018145086 0.007465095 -0.000235756 -0.064858787 -0.429617137 -0.002542848 0.900675297
1341846658.862197 0.018145019 0.007465182 -0.000235833 -0.064860038 -0.429620653 -0.002548980 0.900673509
1341846658.894170 0.018145029 0.007465242 -0.000235791 -0.064862758 -0.429615378 -0.002542522 0.900675833
1341846658.962404 0.018145133 0.007465603 -0.000235776 -0.064863585 -0.429613590 -0.002542187 0.900676668
1341846658.994217 0.018145110 0.007465645 -0.000235810 -0.064855836 -0.429614216 -0.002543961 0.900676906
1341846659.030070 0.018145118 0.007465578 -0.000235758 -0.064856037 -0.429612905 -0.002544494 0.900677502
1341846659.062007 0.018145116 0.007465447 -0.000235787 -0.064860940 -0.429614186 -0.002551752 0.900676548
1341846659.094100 0.018145116 0.007465431 -0.000235827 -0.064864449 -0.429608375 -0.002544277 0.900679052
1341846659.130368 0.018145127 0.007465478 -0.000235704 -0.064861447 -0.429611534 -0.002552761 0.900677741
1341846659.162537 0.018145151 0.007465377 -0.000235739 -0.064865008 -0.429605722 -0.002545259 0.900680304
1341846659.198696 0.018145138 0.007465334 -0.000235761 -0.064865321 -0.429604411 -0.002545730 0.900680900
1341846659.231286 0.018145198 0.007465382 -0.000235637 -0.064865634 -0.429603100 -0.002546194 0.900681496
1341846659.263549 0.018145218 0.007465375 -0.000235643 -0.064865991 -0.429601759 -0.002546599 0.900682092
1341846659.298797 0.018145207 0.007465388 -0.000235682 -0.064866357 -0.429600418 -0.002546991 0.900682688
1341846659.331074 0.018145222 0.007465425 -0.000235622 -0.064866744 -0.429599077 -0.002547360 0.900683343
1341846659.362420 0.018145246 0.007465419 -0.000235582 -0.064867154 -0.429597676 -0.002547682 0.900683939
1341846659.398303 0.018145237 0.007465375 -0.000235605 -0.064868078 -0.429587752 -0.002525895 0.900688708
1341846659.430262 0.018145248 0.007465406 -0.000235593 -0.064860210 -0.429596663 -0.002549241 0.900684953
1341846659.466583 0.018145271 0.007465428 -0.000235514 -0.064860731 -0.429595262 -0.002549327 0.900685549
1341846659.498531 0.018145280 0.007465349 -0.000235575 -0.064869642 -0.429583520 -0.002526128 0.900690615
1341846659.530267 0.018145263 0.007465308 -0.000235599 -0.064870209 -0.429582119 -0.002526069 0.900691211
1341846659.566571 0.018145312 0.007465298 -0.000235535 -0.064870782 -0.429580718 -0.002525997 0.900691807
1341846659.598122 0.018145332 0.007465253 -0.000235493 -0.064871371 -0.429579288 -0.002525864 0.900692463
1341846659.630209 0.018145297 0.007465189 -0.000235563 -0.064871982 -0.429577857 -0.002525649 0.900693119
1341846659.666409 0.018145310 0.007465206 -0.000235559 -0.064872585 -0.429576367 -0.002525409 0.900693774
1341846659.698237 0.018145308 0.007465213 -0.000235544 -0.064873196 -0.429574907 -0.002525130 0.900694430
1341846659.734169 0.018145224 0.007465178 -0.000235673 -0.064873822 -0.429573417 -0.002524793 0.900695086
1341846659.766421 0.018145209 0.007465181 -0.000235714 -0.064874448 -0.429571927 -0.002524468 0.900695801
1341846659.798087 0.018145205 0.007465170 -0.000235699 -0.064875066 -0.429570407 -0.002524142 0.900696456
1341846659.834075 0.018145151 0.007465119 -0.000235780 -0.064875707 -0.429568946 -0.002523785 0.900697112
1341846659.866481 0.018145107 0.007465121 -0.000235855 -0.064876340 -0.429567486 -0.002523421 0.900697768
1341846659.898128 0.018145081 0.007465110 -0.000235865 -0.064876989 -0.429566085 -0.002523032 0.900698364
1341846659.934286 0.018145015 0.007465036 -0.000235890 -0.064877592 -0.429564923 -0.002522758 0.900698900
1341846659.966354 0.018144958 0.007464987 -0.000235969 -0.064878263 -0.429563493 -0.002522263 0.900699556
1341846660.002267 0.018144952 0.007464965 -0.000235992 -0.064878590 -0.429561943 -0.002522779 0.900700212
1341846660.034581 0.018144934 0.007464912 -0.000236001 -0.064879596 -0.429560453 -0.002521297 0.900700867
1341846660.066206 0.018144852 0.007464803 -0.000236095 -0.064880252 -0.429558933 -0.002520821 0.900701582
1341846660.102245 0.018144835 0.007464720 -0.000236145 -0.064880900 -0.429557353 -0.002520392 0.900702298
1341846660.140244 0.018144852 0.007464706 -0.000236128 -0.064881518 -0.429555774 -0.002519984 0.900703013
1341846660.202316 0.018144729 0.007464586 -0.000236249 -0.064882129 -0.429554164 -0.002519605 0.900703728
1341846660.234105 0.018144742 0.007464517 -0.000236214 -0.064882725 -0.429552585 -0.002519251 0.900704443
1341846660.270168 0.018144678 0.007464356 -0.000236204 -0.064883031 -0.429550916 -0.002519569 0.900705159
1341846660.302258 0.018144572 0.007464000 -0.000236254 -0.064883515 -0.429549307 -0.002519150 0.900705934
1341846660.334349 0.018144567 0.007463782 -0.000236222 -0.064883910 -0.429547817 -0.002519059 0.900706589
1341846660.370214 0.018144619 0.007463681 -0.000236198 -0.064884521 -0.429546148 -0.002518770 0.900707364
1341846660.401986 0.018144593 0.007463682 -0.000236260 -0.064884998 -0.429544598 -0.002518497 0.900708079
1341846660.438062 0.018144550 0.007463678 -0.000236257 -0.064885348 -0.429543197 -0.002518263 0.900708735
1341846660.470191 0.018144546 0.007463607 -0.000236255 -0.064885765 -0.429541647 -0.002518047 0.900709450
1341846660.502233 0.018144513 0.007463564 -0.000236296 -0.064886175 -0.429540098 -0.002517849 0.900710166
1341846660.537985 0.018144509 0.007463578 -0.000236296 -0.064886548 -0.429538578 -0.002517679 0.900710821
1341846660.570279 0.018144514 0.007463539 -0.000236266 -0.064886913 -0.429536998 -0.002517504 0.900711536
1341846660.602130 0.018144464 0.007463436 -0.000236326 -0.064887278 -0.429535419 -0.002517313 0.900712252
1341846660.638256 0.018144470 0.007463440 -0.000236359 -0.064887635 -0.429533869 -0.002517119 0.900713027
1341846660.670338 0.018144516 0.007463451 -0.000236273 -0.064887986 -0.429532260 -0.002516918 0.900713742
1341846660.706457 0.018144524 0.007463303 -0.000236250 -0.064888611 -0.429530591 -0.002516374 0.900714517
1341846660.738241 0.018144531 0.007463149 -0.000236309 -0.064888835 -0.429528952 -0.002516333 0.900715292
1341846660.770121 0.018144609 0.007463118 -0.000236217 -0.064889185 -0.429527372 -0.002516062 0.900716007
1341846660.806117 0.018144634 0.007463011 -0.000236133 -0.064889647 -0.429525852 -0.002515554 0.900716662
1341846660.838338 0.018144578 0.007462793 -0.000236115 -0.064889997 -0.429524332 -0.002515238 0.900717378
1341846660.870203 0.018144628 0.007462624 -0.000236096 -0.064890340 -0.429522783 -0.002514921 0.900718093
1341846660.906366 0.018144708 0.007462509 -0.000235961 -0.064890675 -0.429521233 -0.002514598 0.900718808
1341846660.938063 0.018144684 0.007462279 -0.000235889 -0.064891152 -0.429519534 -0.002514057 0.900719583
1341846660.974147 0.018144662 0.007462009 -0.000235861 -0.064891517 -0.429518074 -0.002513631 0.900720298
1341846661.006234 0.018144730 0.007461961 -0.000235772 -0.064891919 -0.429516405 -0.002513169 0.900721073
1341846661.038225 0.018144704 0.007461842 -0.000235774 -0.064891972 -0.429514825 -0.002513363 0.900721788
1341846661.074059 0.018144587 0.007461557 -0.000235745 -0.064892329 -0.429513216 -0.002512970 0.900722504
1341846661.106184 0.018144693 0.007461405 -0.000235714 -0.064892910 -0.429511577 -0.002512089 0.900723279
1341846661.138209 0.018144688 0.007461479 -0.000235706 -0.064893238 -0.429509878 -0.002511669 0.900724053
1341846661.174244 0.018144690 0.007461428 -0.000235689 -0.064893581 -0.429508179 -0.002511137 0.900724828
1341846661.206205 0.018144680 0.007461351 -0.000235659 -0.064893842 -0.429506540 -0.002510685 0.900725663
1341846661.242184 0.018144676 0.007461350 -0.000235657 -0.064894110 -0.429504812 -0.002510234 0.900726438
1341846661.274177 0.018144703 0.007461390 -0.000235652 -0.064894363 -0.429503083 -0.002509776 0.900727212
1341846661.308814 0.018144697 0.007461417 -0.000235667 -0.064894617 -0.429501355 -0.002509303 0.900728047
1341846661.342489 0.018144690 0.007461433 -0.000235681 -0.064894862 -0.429499596 -0.002508815 0.900728881
1341846661.374640 0.018144701 0.007461444 -0.000235679 -0.064895108 -0.429497808 -0.002508313 0.900729716
1341846661.410178 0.018144634 0.007461344 -0.000235686 -0.064895228 -0.429495990 -0.002507897 0.900730550
1341846661.442211 0.018144639 0.007461264 -0.000235723 -0.064895436 -0.429494172 -0.002507366 0.900731385
1341846661.474354 0.018144667 0.007461285 -0.000235694 -0.064895719 -0.429492354 -0.002506897 0.900732279
1341846661.510169 0.018144628 0.007461354 -0.000235751 -0.064895950 -0.429490507 -0.002506208 0.900733113
1341846661.542767 0.018144660 0.007461448 -0.000235787 -0.064896099 -0.429488748 -0.002505773 0.900733948
1341846661.574217 0.018144667 0.007461455 -0.000235768 -0.064896286 -0.429486930 -0.002505227 0.900734782
1341846661.610041 0.018144585 0.007461402 -0.000235813 -0.064896457 -0.429485172 -0.002504660 0.900735617
1341846661.642253 0.018144565 0.007461525 -0.000235889 -0.064896561 -0.429483443 -0.002504057 0.900736451
1341846661.678078 0.018144537 0.007461507 -0.000235789 -0.064896815 -0.429481685 -0.002503502 0.900737226
1341846661.710142 0.018144442 0.007461418 -0.000235771 -0.064896971 -0.429479986 -0.002502984 0.900738060
1341846661.742341 0.018144388 0.007461232 -0.000235733 -0.064896934 -0.429478347 -0.002502724 0.900738835
1341846661.778063 0.018144390 0.007461008 -0.000235699 -0.064896926 -0.429476619 -0.002502296 0.900739670
1341846661.810103 0.018144399 0.007460834 -0.000235692 -0.064896993 -0.429474920 -0.002501788 0.900740445
1341846661.842216 0.018144369 0.007460651 -0.000235664 -0.064897045 -0.429473221 -0.002501272 0.900741279
1341846661.878157 0.018144403 0.007460535 -0.000235632 -0.064897083 -0.429471523 -0.002500782 0.900742114
1341846661.910222 0.018144466 0.007460490 -0.000235618 -0.064897090 -0.429469764 -0.002500237 0.900742948
1341846661.946090 0.018144447 0.007460409 -0.000235597 -0.064897075 -0.429468095 -0.002499685 0.900743723
1341846662.010311 0.018144423 0.007460057 -0.000235531 -0.064897150 -0.429466307 -0.002499138 0.900744557
1341846662.046195 0.018144367 0.007459856 -0.000235542 -0.064897120 -0.429464638 -0.002498578 0.900745392
1341846662.078099 0.018144367 0.007459715 -0.000235536 -0.064897150 -0.429462969 -0.002498022 0.900746167
1341846662.110672 0.018144399 0.007459581 -0.000235508 -0.064897113 -0.429461211 -0.002497401 0.900747001
1341846662.146166 0.018144401 0.007459386 -0.000235570 -0.064897060 -0.429459482 -0.002496686 0.900747836
1341846662.178168 0.018144477 0.007459223 -0.000235626 -0.064897001 -0.429457784 -0.002495960 0.900748670
1341846662.214136 0.018144412 0.007458962 -0.000235474 -0.064896956 -0.429455996 -0.002495193 0.900749505
1341846662.246167 0.018144408 0.007458742 -0.000235490 -0.064896964 -0.429454327 -0.002494360 0.900750339
1341846662.278007 0.018144406 0.007458644 -0.000235463 -0.064896792 -0.429452479 -0.002493529 0.900751233
1341846662.314144 0.018144423 0.007458508 -0.000235398 -0.064896725 -0.429450661 -0.002492664 0.900752127
1341846662.346164 0.018144401 0.007458405 -0.000235424 -0.064896524 -0.429448843 -0.002491709 0.900752962
1341846662.378069 0.018144364 0.007458267 -0.000235376 -0.064896397 -0.429447085 -0.002490746 0.900753796
1341846662.414229 0.018144371 0.007458114 -0.000235322 -0.064896256 -0.429445207 -0.002489764 0.900754690
1341846662.446102 0.018144328 0.007457972 -0.000235324 -0.064896174 -0.429443419 -0.002488684 0.900755584
1341846662.482229 0.018144287 0.007457793 -0.000235286 -0.064896017 -0.429441601 -0.002487589 0.900756478
1341846662.514117 0.018144421 0.007457629 -0.000235333 -0.064896092 -0.429439694 -0.002486136 0.900757372
1341846662.546261 0.018144229 0.007457404 -0.000235186 -0.064895749 -0.429437816 -0.002485276 0.900758266
1341846662.582101 0.018144278 0.007457353 -0.000235143 -0.064895369 -0.429435879 -0.002484199 0.900759220
1341846662.620264 0.018144321 0.007457250 -0.000235151 -0.064895190 -0.429433882 -0.002482960 0.900760233
1341846662.682024 0.018144241 0.007457085 -0.000235110 -0.064894952 -0.429431856 -0.002481761 0.900761247
1341846662.714075 0.018144250 0.007457039 -0.000235080 -0.064893961 -0.429429531 -0.002480425 0.900762439
1341846662.750127 0.018144224 0.007456922 -0.000235086 -0.064893045 -0.429427117 -0.002479061 0.900763631
1341846662.782002 0.018144211 0.007456851 -0.000235078 -0.064891152 -0.429425091 -0.002477594 0.900764704
1341846662.814097 0.018144358 0.007456866 -0.000235194 -0.064889677 -0.429423183 -0.002476101 0.900765777
1341846662.850193 0.018144174 0.007456865 -0.000235114 -0.064888187 -0.429421753 -0.002474436 0.900766492
1341846662.882162 0.018144157 0.007456828 -0.000235112 -0.064886354 -0.429420590 -0.002472547 0.900767207
1341846662.918191 0.018144181 0.007456852 -0.000235163 -0.064884797 -0.429419488 -0.002470706 0.900767863
1341846662.956034 0.018144185 0.007456836 -0.000235158 -0.064883098 -0.429418474 -0.002468831 0.900768459
1341846663.018208 0.018144097 0.007456704 -0.000235210 -0.064881377 -0.429417580 -0.002466857 0.900769055
1341846663.049994 0.018144097 0.007456738 -0.000235208 -0.064879671 -0.429416746 -0.002464948 0.900769532
1341846663.118078 0.018144084 0.007456691 -0.000235203 -0.064877756 -0.429415822 -0.002462983 0.900770128
1341846663.150227 0.018144097 0.007456661 -0.000235175 -0.064875752 -0.429414928 -0.002461045 0.900770724
1341846663.186300 0.018144095 0.007456696 -0.000235167 -0.064873904 -0.429413766 -0.002459240 0.900771439
1341846663.218442 0.018144144 0.007456786 -0.000235210 -0.064872064 -0.429412723 -0.002457498 0.900772035
1341846663.250380 0.018144161 0.007456926 -0.000235223 -0.064870261 -0.429411829 -0.002455835 0.900772572
1341846663.286056 0.018144192 0.007457048 -0.000235258 -0.064868532 -0.429410875 -0.002454176 0.900773168
1341846663.318060 0.018144201 0.007457267 -0.000235319 -0.064866796 -0.429409862 -0.002452468 0.900773823
1341846663.350114 0.018144220 0.007457518 -0.000235379 -0.064865001 -0.429408938 -0.002450787 0.900774360
1341846663.385985 0.018144177 0.007457684 -0.000235325 -0.064863198 -0.429408014 -0.002449127 0.900774956
1341846663.418056 0.018144140 0.007457787 -0.000235367 -0.064861521 -0.429407090 -0.002447476 0.900775492
1341846663.454044 0.018144216 0.007457991 -0.000235528 -0.064859912 -0.429406136 -0.002445803 0.900776088
1341846663.486091 0.018144263 0.007458153 -0.000235608 -0.064858273 -0.429405212 -0.002444161 0.900776684
1341846663.518394 0.018144263 0.007458328 -0.000235678 -0.064856686 -0.429404318 -0.002442421 0.900777221
1341846663.554251 0.018144270 0.007458468 -0.000235702 -0.064855099 -0.429403424 -0.002440766 0.900777757
1341846663.586143 0.018144287 0.007458659 -0.000235734 -0.064853527 -0.429402530 -0.002439100 0.900778294
1341846663.622145 0.018144235 0.007458820 -0.000235722 -0.064851917 -0.429401606 -0.002437544 0.900778890
1341846663.654099 0.018144183 0.007458957 -0.000235701 -0.064850330 -0.429400653 -0.002435833 0.900779426
1341846663.686099 0.018144278 0.007459202 -0.000235851 -0.064848788 -0.429399759 -0.002434139 0.900779963
1341846663.722109 0.018144276 0.007459378 -0.000235887 -0.064847268 -0.429398835 -0.002432450 0.900780499
1341846663.755694 0.018144211 0.007459511 -0.000235834 -0.064845681 -0.429397941 -0.002430799 0.900781035
1341846663.786304 0.018144380 0.007459796 -0.000235905 -0.064844064 -0.429396957 -0.002429224 0.900781631
1341846663.822090 0.018144341 0.007460202 -0.000235905 -0.064842522 -0.429396003 -0.002427569 0.900782228
1341846663.854115 0.018144380 0.007460396 -0.000235931 -0.064840846 -0.429395109 -0.002425886 0.900782824
1341846663.890140 0.018144378 0.007460594 -0.000235922 -0.064839333 -0.429394156 -0.002424303 0.900783360
1341846663.921987 0.018144527 0.007461128 -0.000235992 -0.064837620 -0.429393262 -0.002422796 0.900783896
1341846663.954282 0.018144561 0.007461452 -0.000236005 -0.064836174 -0.429392219 -0.002420900 0.900784492
1341846663.990370 0.018144593 0.007461671 -0.000235972 -0.064834259 -0.429391474 -0.002419865 0.900784969
1341846664.022124 0.018144721 0.007462021 -0.000235993 -0.064832777 -0.429390460 -0.002417950 0.900785625
1341846664.054171 0.018144706 0.007462383 -0.000235985 -0.064830802 -0.429389715 -0.002417010 0.900786102
1341846664.090250 0.018144790 0.007462631 -0.000235985 -0.064829275 -0.429388791 -0.002415249 0.900786638
1341846664.122237 0.018144773 0.007462780 -0.000235972 -0.064827546 -0.429387927 -0.002413783 0.900787175
1341846664.158241 0.018144717 0.007462910 -0.000235987 -0.064825580 -0.429387301 -0.002412979 0.900787652
1341846664.190141 0.018144814 0.007463130 -0.000236034 -0.064823940 -0.429386348 -0.002411275 0.900788188
1341846664.222189 0.018144809 0.007463324 -0.000236003 -0.064822130 -0.429385573 -0.002410021 0.900788724
1341846664.258172 0.018144812 0.007463438 -0.000236026 -0.064820349 -0.429384708 -0.002408687 0.900789261
1341846664.290022 0.018144866 0.007463588 -0.000236032 -0.064818256 -0.429384023 -0.002407921 0.900789738
1341846664.322491 0.018144906 0.007463822 -0.000236020 -0.064816408 -0.429383278 -0.002406763 0.900790215
1341846664.358302 0.018144907 0.007463993 -0.000236040 -0.064814530 -0.429382563 -0.002405652 0.900790691
1341846664.390101 0.018144941 0.007464177 -0.000236069 -0.064812645 -0.429381818 -0.002404561 0.900791228
1341846664.426143 0.018144971 0.007464368 -0.000236069 -0.064810753 -0.429381102 -0.002403523 0.900791705
1341846664.458304 0.018145019 0.007464578 -0.000236103 -0.064808831 -0.429380387 -0.002402541 0.900792181
1341846664.490116 0.018145075 0.007464788 -0.000236093 -0.064806886 -0.429379702 -0.002401629 0.900792658
1341846664.526173 0.018145075 0.007464980 -0.000236093 -0.064804897 -0.429378957 -0.002400789 0.900793135
1341846664.558129 0.018145077 0.007465173 -0.000236116 -0.064802893 -0.429378271 -0.002400014 0.900793612
1341846664.590129 0.018145118 0.007465329 -0.000236081 -0.064800866 -0.429377526 -0.002399285 0.900794089
1341846664.626196 0.018145127 0.007465385 -0.000236046 -0.064798832 -0.429376841 -0.002398653 0.900794625
1341846664.658276 0.018145086 0.007465309 -0.000236043 -0.064796694 -0.429376066 -0.002398070 0.900795102
1341846664.694136 0.018145114 0.007465296 -0.000236037 -0.064794593 -0.429375380 -0.002397591 0.900795579
1341846664.726667 0.018145168 0.007465390 -0.000235976 -0.064792402 -0.429374635 -0.002397142 0.900796115
1341846664.758141 0.018145161 0.007465415 -0.000235995 -0.064790212 -0.429373920 -0.002396762 0.900796592
1341846664.794104 0.018145142 0.007465444 -0.000236024 -0.064788014 -0.429373145 -0.002396421 0.900797129
1341846664.826123 0.018145168 0.007465500 -0.000235998 -0.064785786 -0.429372370 -0.002396132 0.900797665
1341846664.862093 0.018145151 0.007465523 -0.000236033 -0.064783536 -0.429371595 -0.002395894 0.900798202
1341846664.894198 0.018145146 0.007465539 -0.000236043 -0.064781271 -0.429370791 -0.002395690 0.900798738
1341846664.926270 0.018145202 0.007465578 -0.000235986 -0.064778984 -0.429370046 -0.002395542 0.900799274
1341846664.962375 0.018145205 0.007465624 -0.000235992 -0.064776681 -0.429369271 -0.002395437 0.900799751
1341846664.997077 0.018145204 0.007465689 -0.000235993 -0.064774372 -0.429368466 -0.002395385 0.900800347
1341846665.026380 0.018145204 0.007465758 -0.000235955 -0.064772032 -0.429367632 -0.002395377 0.900800884
1341846665.062417 0.018145220 0.007465782 -0.000235976 -0.064769678 -0.429366827 -0.002395418 0.900801480
1341846665.094077 0.018145232 0.007465851 -0.000236000 -0.064767309 -0.429365993 -0.002395498 0.900802016
1341846665.130160 0.018145300 0.007465979 -0.000235955 -0.064764932 -0.429365158 -0.002395617 0.900802612
1341846665.162114 0.018145232 0.007466042 -0.000235964 -0.064762577 -0.429364264 -0.002395671 0.900803208
1341846665.194100 0.018145243 0.007466109 -0.000236005 -0.064760156 -0.429363370 -0.002395971 0.900803804
1341846665.230221 0.018145351 0.007466267 -0.000235993 -0.064757757 -0.429362446 -0.002396222 0.900804400
1341846665.262005 0.018145341 0.007466499 -0.000235989 -0.064755343 -0.429361552 -0.002396530 0.900804996
1341846665.300077 0.018145341 0.007466671 -0.000236011 -0.064752914 -0.429360628 -0.002396880 0.900805593
1341846665.362294 0.018145327 0.007466882 -0.000235881 -0.064750485 -0.429359794 -0.002397262 0.900806189
1341846665.398079 0.018145276 0.007466960 -0.000235938 -0.064748056 -0.429358959 -0.002397663 0.900806785
1341846665.430162 0.018145347 0.007467199 -0.000235936 -0.064745620 -0.429358125 -0.002398089 0.900807321
1341846665.462226 0.018145371 0.007467452 -0.000235860 -0.064743184 -0.429357320 -0.002398532 0.900807917
1341846665.498226 0.018145287 0.007467560 -0.000235888 -0.064740747 -0.429356545 -0.002399007 0.900808454
1341846665.530109 0.018145276 0.007467587 -0.000235886 -0.064738356 -0.429355770 -0.002399517 0.900808990
1341846665.562222 0.018145312 0.007467614 -0.000235857 -0.064735994 -0.429354966 -0.002400063 0.900809586
1341846665.598196 0.018145304 0.007467650 -0.000235890 -0.064733647 -0.429354131 -0.002400640 0.900810122
1341846665.630107 0.018145306 0.007467737 -0.000235886 -0.064731322 -0.429353297 -0.002401240 0.900810659
1341846665.666289 0.018145358 0.007467840 -0.000235854 -0.064728998 -0.429352432 -0.002401841 0.900811255
1341846665.698060 0.018145317 0.007467909 -0.000235859 -0.064726703 -0.429351538 -0.002402457 0.900811851
1341846665.730361 0.018145315 0.007467971 -0.000235890 -0.064724430 -0.429350644 -0.002403089 0.900812387
1341846665.766193 0.018145349 0.007468078 -0.000235853 -0.064722158 -0.429349691 -0.002403736 0.900813043
1341846665.798338 0.018145358 0.007468170 -0.000235839 -0.064719893 -0.429348737 -0.002404392 0.900813639
1341846665.834237 0.018145354 0.007468264 -0.000235832 -0.064717628 -0.429347783 -0.002405047 0.900814235
1341846665.866106 0.018145433 0.007468423 -0.000235811 -0.064715363 -0.429346800 -0.002405701 0.900814891
1341846665.898073 0.018145462 0.007468611 -0.000235751 -0.064713098 -0.429345816 -0.002406365 0.900815547
1341846665.934076 0.018145418 0.007468725 -0.000235756 -0.064710848 -0.429344803 -0.002407027 0.900816143
1341846665.966137 0.018145435 0.007468816 -0.000235777 -0.064708598 -0.429343790 -0.002407692 0.900816798
1341846665.998149 0.018145453 0.007468940 -0.000235699 -0.064706348 -0.429342717 -0.002408364 0.900817454
1341846666.034210 0.018145438 0.007468935 -0.000235691 -0.064704113 -0.429341763 -0.002409028 0.900818110
1341846666.072502 0.018145444 0.007468962 -0.000235727 -0.064701907 -0.429340750 -0.002409691 0.900818706
1341846666.134147 0.018145505 0.007469166 -0.000235705 -0.064699709 -0.429339767 -0.002410347 0.900819302
1341846666.166356 0.018145487 0.007469194 -0.000235739 -0.064697556 -0.429338843 -0.002411021 0.900819957
1341846666.202327 0.018145515 0.007469249 -0.000235694 -0.064695410 -0.429337829 -0.002411704 0.900820553
1341846666.234319 0.018145518 0.007469317 -0.000235734 -0.064693324 -0.429336846 -0.002412384 0.900821209
1341846666.266322 0.018145550 0.007469415 -0.000235829 -0.064691246 -0.429335892 -0.002413063 0.900821805
1341846666.302195 0.018145608 0.007469678 -0.000235820 -0.064689174 -0.429334939 -0.002413738 0.900822401
1341846666.335080 0.018145612 0.007469936 -0.000235803 -0.064687096 -0.429333925 -0.002414415 0.900822997
1341846666.370216 0.018145550 0.007470073 -0.000235873 -0.064685084 -0.429332972 -0.002415095 0.900823653
1341846666.402019 0.018145557 0.007470236 -0.000235863 -0.064683162 -0.429331899 -0.002415751 0.900824249
1341846666.434088 0.018145587 0.007470376 -0.000235876 -0.064681292 -0.429330885 -0.002416395 0.900824904
1341846666.470060 0.018145557 0.007470394 -0.000235926 -0.064679451 -0.429329813 -0.002417034 0.900825500
1341846666.502190 0.018145565 0.007470549 -0.000235908 -0.064677648 -0.429328799 -0.002417687 0.900826156
1341846666.534121 0.018145582 0.007470788 -0.000235844 -0.064675853 -0.429327756 -0.002418349 0.900826812
1341846666.570131 0.018145528 0.007470951 -0.000235854 -0.064674057 -0.429326713 -0.002419017 0.900827408
1341846666.602180 0.018145679 0.007471127 -0.000236016 -0.064672329 -0.429325700 -0.002419711 0.900828004
1341846666.638072 0.018145831 0.007471285 -0.000236096 -0.064670593 -0.429324806 -0.002420401 0.900828540
1341846666.670134 0.018145645 0.007471358 -0.000235988 -0.064669877 -0.429325074 -0.002421419 0.900828421
1341846666.738266 0.018145554 0.007471442 -0.000235984 -0.064669214 -0.429325432 -0.002422434 0.900828362
1341846666.770390 0.018145487 0.007471518 -0.000235985 -0.064668618 -0.429325849 -0.002423479 0.900828183
1341846666.802119 0.018145595 0.007471578 -0.000236205 -0.064668044 -0.429326296 -0.002424519 0.900828004
1341846666.838108 0.018145466 0.007471607 -0.000236118 -0.064667657 -0.429326862 -0.002425609 0.900827765
1341846666.870483 0.018145479 0.007471656 -0.000236123 -0.064667322 -0.429327488 -0.002426684 0.900827467
1341846666.906019 0.018145490 0.007471743 -0.000236182 -0.064667001 -0.429328084 -0.002427770 0.900827229
1341846666.937989 0.018145503 0.007471830 -0.000236262 -0.064666711 -0.429328680 -0.002428874 0.900826931
1341846666.970036 0.018145429 0.007471844 -0.000236161 -0.064666428 -0.429329276 -0.002429974 0.900826693
1341846667.006200 0.018145554 0.007471920 -0.000236313 -0.064666443 -0.429329932 -0.002431134 0.900826395
1341846667.038153 0.018145569 0.007471988 -0.000236459 -0.064666457 -0.429330528 -0.002432300 0.900826097
1341846667.038153 0.018145569 0.007471988 -0.000236459 -0.064666457 -0.429330528 -0.002432300 0.900826097
1341846667.038153 0.018145569 0.007471988 -0.000236459 -0.064666457 -0.429330528 -0.002432300 0.900826097
1341846667.038153 0.018145569 0.007471988 -0.000236459 -0.064666457 -0.429330528 -0.002432300 0.900826097
1341846667.038153 0.018145569 0.007471988 -0.000236459 -0.064666457 -0.429330528 -0.002432300 0.900826097
1341846667.038153 0.018145569 0.007471988 -0.000236459 -0.064666457 -0.429330528 -0.002432300 0.900826097
1341846667.038153 0.018145569 0.007471988 -0.000236459 -0.064666457 -0.429330528 -0.002432300 0.900826097
1341846667.038153 0.018145569 0.007471988 -0.000236459 -0.064666457 -0.429330528 -0.002432300 0.900826097
1341846667.038153 0.018145569 0.007471988 -0.000236459 -0.064666457 -0.429330528 -0.002432300 0.900826097
1341846667.038153 0.018145569 0.007471988 -0.000236459 -0.064666457 -0.429330528 -0.002432300 0.900826097
1341846667.038153 0.018145569 0.007471988 -0.000236459 -0.064666457 -0.429330528 -0.002432300 0.900826097
1341846667.038153 0.018145569 0.007471988 -0.000236459 -0.064666457 -0.429330528 -0.002432300 0.900826097
1341846667.038153 0.018145569 0.007471988 -0.000236459 -0.064666457 -0.429330528 -0.002432300 0.900826097
1341846667.038153 0.018145569 0.007471988 -0.000236459 -0.064666457 -0.429330528 -0.002432300 0.900826097
1341846667.038153 0.018145569 0.007471988 -0.000236459 -0.064666457 -0.429330528 -0.002432300 0.900826097
1341846667.038153 0.018145569 0.007471988 -0.000236459 -0.064666457 -0.429330528 -0.002432300 0.900826097
1341846667.038153 0.018145569 0.007471988 -0.000236459 -0.064666457 -0.429330528 -0.002432300 0.900826097
1341846667.038153 0.018145569 0.007471988 -0.000236459 -0.064666457 -0.429330528 -0.002432300 0.900826097
1341846667.038153 0.018145569 0.007471988 -0.000236459 -0.064666457 -0.429330528 -0.002432300 0.900826097
1341846667.038153 0.018145569 0.007471988 -0.000236459 -0.064666457 -0.429330528 -0.002432300 0.900826097
1341846667.038153 0.018145569 0.007471988 -0.000236459 -0.064666457 -0.429330528 -0.002432300 0.900826097
1341846667.038153 0.018145569 0.007471988 -0.000236459 -0.064666457 -0.429330528 -0.002432300 0.900826097
1341846667.038153 0.018145569 0.007471988 -0.000236459 -0.064666457 -0.429330528 -0.002432300 0.900826097
1341846667.038153 0.018145569 0.007471988 -0.000236459 -0.064666457 -0.429330528 -0.002432300 0.900826097
1341846667.038153 0.018145569 0.007471988 -0.000236459 -0.064666457 -0.429330528 -0.002432300 0.900826097
1341846667.038153 0.018145569 0.007471988 -0.000236459 -0.064666457 -0.429330528 -0.002432300 0.900826097
1341846667.038153 0.018145569 0.007471988 -0.000236459 -0.064666457 -0.429330528 -0.002432300 0.900826097
1341846667.038153 0.018145569 0.007471988 -0.000236459 -0.064666457 -0.429330528 -0.002432300 0.900826097
1341846667.038153 0.018145569 0.007471988 -0.000236459 -0.064666457 -0.429330528 -0.002432300 0.900826097
1341846667.038153 0.018145569 0.007471988 -0.000236459 -0.064666457 -0.429330528 -0.002432300 0.900826097
1341846667.038153 0.018145569 0.007471988 -0.000236459 -0.064666457 -0.429330528 -0.002432300 0.900826097
1341846667.038153 0.018145569 0.007471988 -0.000236459 -0.064666457 -0.429330528 -0.002432300 0.900826097
1341846667.038153 0.018145569 0.007471988 -0.000236459 -0.064666457 -0.429330528 -0.002432300 0.900826097
1341846667.038153 0.018145569 0.007471988 -0.000236459 -0.064666457 -0.429330528 -0.002432300 0.900826097
1341846667.038153 0.018145569 0.007471988 -0.000236459 -0.064666457 -0.429330528 -0.002432300 0.900826097
1341846667.038153 0.018145569 0.007471988 -0.000236459 -0.064666457 -0.429330528 -0.002432300 0.900826097
1341846667.038153 0.018145569 0.007471988 -0.000236459 -0.064666457 -0.429330528 -0.002432300 0.900826097
1341846667.038153 0.018145569 0.007471988 -0.000236459 -0.064666457 -0.429330528 -0.002432300 0.900826097
1341846667.038153 0.018145569 0.007471988 -0.000236459 -0.064666457 -0.429330528 -0.002432300 0.900826097
1341846667.038153 0.018145569 0.007471988 -0.000236459 -0.064666457 -0.429330528 -0.002432300 0.900826097
1341846667.038153 0.018145569 0.007471988 -0.000236459 -0.064666457 -0.429330528 -0.002432300 0.900826097
1341846667.038153 0.018145569 0.007471988 -0.000236459 -0.064666457 -0.429330528 -0.002432300 0.900826097
1341846667.038153 0.018145569 0.007471988 -0.000236459 -0.064666457 -0.429330528 -0.002432300 0.900826097
1341846667.038153 0.018145569 0.007471988 -0.000236459 -0.064666457 -0.429330528 -0.002432300 0.900826097
1341846667.038153 0.018145569 0.007471988 -0.000236459 -0.064666457 -0.429330528 -0.002432300 0.900826097
1341846667.038153 0.018145569 0.007471988 -0.000236459 -0.064666457 -0.429330528 -0.002432300 0.900826097
1341846667.038153 0.018145569 0.007471988 -0.000236459 -0.064666457 -0.429330528 -0.002432300 0.900826097
1341846667.038153 0.018145569 0.007471988 -0.000236459 -0.064666457 -0.429330528 -0.002432300 0.900826097
1341846667.038153 0.018145569 0.007471988 -0.000236459 -0.064666457 -0.429330528 -0.002432300 0.900826097
1341846667.038153 0.018145569 0.007471988 -0.000236459 -0.064666457 -0.429330528 -0.002432300 0.900826097
1341846667.038153 0.018145569 0.007471988 -0.000236459 -0.064666457 -0.429330528 -0.002432300 0.900826097
1341846667.038153 0.018145569 0.007471988 -0.000236459 -0.064666457 -0.429330528 -0.002432300 0.900826097
1341846667.038153 0.018145569 0.007471988 -0.000236459 -0.064666457 -0.429330528 -0.002432300 0.900826097
1341846667.038153 0.018145569 0.007471988 -0.000236459 -0.064666457 -0.429330528 -0.002432300 0.900826097
1341846667.038153 0.018145569 0.007471988 -0.000236459 -0.064666457 -0.429330528 -0.002432300 0.900826097
1341846667.038153 0.018145569 0.007471988 -0.000236459 -0.064666457 -0.429330528 -0.002432300 0.900826097
1341846667.038153 0.018145569 0.007471988 -0.000236459 -0.064666457 -0.429330528 -0.002432300 0.900826097
1341846667.038153 0.018145569 0.007471988 -0.000236459 -0.064666457 -0.429330528 -0.002432300 0.900826097
1341846667.038153 0.018145569 0.007471988 -0.000236459 -0.064666457 -0.429330528 -0.002432300 0.900826097
1341846667.038153 0.018145569 0.007471988 -0.000236459 -0.064666457 -0.429330528 -0.002432300 0.900826097
1341846669.082525 0.000000000 0.000000000 0.000000000 0.000000000 0.000000000 0.000000000 1.000000000
1341846669.118346 0.002639175 0.006734747 -0.000753832 -0.007970533 -0.001552693 -0.009247057 0.999924242
1341846669.150086 -0.007315477 -0.008240562 0.014276450 -0.015895337 -0.003237938 -0.017879179 0.999708593
1341846669.182477 -0.000097529 -0.005528504 0.004313956 -0.016861230 -0.008662491 -0.024846079 0.999511540
1341846669.218046 0.003290945 0.002549085 0.000254008 -0.022363879 -0.008687076 -0.033011097 0.999166965
1341846669.250205 -0.003605305 -0.005874945 0.007360075 -0.028125381 -0.010147922 -0.038785629 0.998800099
1341846669.286114 0.003197409 0.001656324 0.000605064 -0.027281448 -0.013239803 -0.042883664 0.998619735
1341846669.318030 0.003075642 0.001913797 -0.000211125 -0.029615607 -0.011773385 -0.048847634 0.998297632
1341846669.350255 0.000061797 -0.004648541 0.008570794 -0.031845849 -0.014091664 -0.054295748 0.997917473
1341846669.418200 0.003248868 0.001695012 0.000798125 -0.039669786 -0.017747188 -0.075278342 0.996215105
1341846669.450219 0.001766793 0.000527404 0.005591440 -0.043178648 -0.019534944 -0.084917605 0.995260239
1341846669.486175 0.002340398 0.001436121 -0.000015954 -0.046762213 -0.022531813 -0.096625112 0.993966401
1341846669.518033 0.003212231 0.001650610 0.000273067 -0.053852171 -0.020719018 -0.109926790 0.992263436
1341846669.554159 0.003464903 0.001795177 0.002101253 -0.058468960 -0.020254053 -0.118958570 0.990969241
1341846669.586348 0.003303899 0.001749551 0.000973489 -0.063275941 -0.021198710 -0.128492430 0.989462674
1341846669.617976 0.003247642 0.001624959 0.000244709 -0.071250468 -0.017914129 -0.139743760 0.987458408
1341846669.654096 0.003214166 0.001654435 0.000433235 -0.074622855 -0.015056545 -0.146925732 0.986213744
1341846669.686069 0.003358681 0.001747234 0.000975172 -0.074556448 -0.014034526 -0.152553752 0.985378981
1341846669.718075 0.002987163 0.001508247 -0.000374737 -0.078016996 -0.012122772 -0.161178961 0.983762026
1341846669.754171 0.003182746 0.001623074 0.000082855 -0.084601298 -0.008871922 -0.170526415 0.981674433
1341846669.786139 0.003207707 0.001645578 0.000287563 -0.088518023 -0.007163220 -0.178525537 0.979919314
1341846669.822151 0.003212502 0.001654400 0.000431191 -0.090948127 -0.006026496 -0.186697453 0.978180051
1341846669.854118 0.003204922 0.001645367 0.000301579 -0.096673049 -0.004512996 -0.195091471 0.975998640
1341846669.886219 0.003230684 0.001661789 0.000498653 -0.102149449 -0.002319876 -0.204399914 0.973540366
1341846669.922050 0.003228192 0.001663064 0.000503877 -0.104187265 -0.001109736 -0.212563708 0.971576273
1341846669.954047 0.003215125 0.001653663 0.000425981 -0.108902685 0.000621228 -0.220754698 0.969230175
1341846669.986285 0.003219756 0.001653086 0.000442764 -0.116368905 0.004068384 -0.229701564 0.966270626
1341846670.022242 0.003214433 0.001654485 0.000430276 -0.119118653 0.007194119 -0.239202246 0.963608444
1341846670.054135 0.003203423 0.001646071 0.000405943 -0.122206427 0.010051555 -0.245846421 0.961521745
1341846670.090228 0.003195761 0.001642584 0.000332140 -0.127520859 0.013155771 -0.256299555 0.958058417
1341846670.121996 0.003213021 0.001654064 0.000428858 -0.131155059 0.018037975 -0.268552512 0.954123974
1341846670.154057 0.003212485 0.001653463 0.000424186 -0.135436729 0.022876069 -0.277505130 0.950854599
1341846670.190103 0.003212231 0.001652710 0.000420582 -0.139243662 0.025125075 -0.287114978 0.947388470
1341846670.222197 0.003214264 0.001653809 0.000426149 -0.140496448 0.029067460 -0.299282938 0.943316221
1341846670.258571 0.003213329 0.001653795 0.000425590 -0.142311469 0.034617472 -0.306406051 0.940566003
1341846670.290254 0.003213851 0.001654621 0.000430564 -0.143839240 0.037018921 -0.312739938 0.938154340
1341846670.358377 0.003212057 0.001655706 0.000437525 -0.141269892 0.049989663 -0.330757201 0.931742191
1341846670.390114 0.003213034 0.001655465 0.000434818 -0.139837965 0.057572812 -0.338357627 0.928786755
1341846670.422206 0.003213929 0.001654896 0.000431819 -0.136083230 0.064593345 -0.346312016 0.925946534
1341846670.464003 0.003214615 0.001653509 0.000424780 -0.129662827 0.073763102 -0.355481714 0.922702134
1341846670.526271 0.003209642 0.001655789 0.000456623 -0.122874498 0.089584924 -0.370578647 0.916268468
1341846670.566977 0.003214337 0.001654596 0.000425954 -0.121061593 0.094309784 -0.375901043 0.913864434
1341846670.596103 0.003213196 0.001654641 0.000423113 -0.118051589 0.097183444 -0.380230010 0.912164629
1341846670.628412 0.003204203 0.001647154 0.000381449 -0.115476571 0.100463122 -0.384976923 0.910145640
1341846670.664027 0.003204064 0.001646365 0.000379134 -0.111163855 0.104271747 -0.390112370 0.908065200
1341846670.696002 0.003213502 0.001652232 0.000421924 -0.104626171 0.109731950 -0.395127296 0.906027973
1341846670.728093 0.003216501 0.001653990 0.000428915 -0.098412484 0.114700906 -0.400656849 0.903677344
1341846670.764128 0.003214128 0.001653878 0.000425991 -0.094079643 0.121267051 -0.407105654 0.900393426
1341846670.796059 0.003214238 0.001654944 0.000425730 -0.088793896 0.128727943 -0.411642879 0.897827864
1341846670.832246 0.003212448 0.001652309 0.000420352 -0.080871522 0.132871494 -0.412011266 0.897803783
1341846670.863970 0.003212458 0.001651713 0.000419950 -0.076384053 0.134141341 -0.409345299 0.899226308
1341846670.896139 0.003214666 0.001654901 0.000424874 -0.071021587 0.140399903 -0.410737157 0.898075044
1341846670.932028 0.003213327 0.001655767 0.000429143 -0.061081231 0.146844432 -0.406587750 0.899662256
1341846670.964063 0.003218449 0.001656906 0.000426266 -0.049592465 0.147399202 -0.399600685 0.903401017
1341846671.000270 0.003212326 0.001658085 0.000416685 -0.041892614 0.148208395 -0.399430811 0.903733552
1341846671.032112 0.003214560 0.001655080 0.000424046 -0.033973817 0.154911101 -0.401227385 0.902144611
1341846671.064030 0.003215086 0.001654305 0.000426660 -0.025672706 0.159449562 -0.406453133 0.899284482
1341846671.101398 0.003212640 0.001655729 0.000427888 -0.017988406 0.160092518 -0.412905544 0.896412790
1341846671.132289 0.003213886 0.001655242 0.000426706 -0.007509027 0.162955388 -0.418981045 0.893221140
1341846671.168159 0.003218194 0.001653222 0.000436296 0.005269422 0.161324307 -0.421720892 0.892243326
1341846671.200149 0.003215277 0.001653143 0.000435640 0.016202502 0.156740934 -0.424161106 0.891771913
1341846671.232280 0.003215045 0.001654665 0.000427252 0.026757419 0.156861499 -0.426904887 0.890185773
1341846671.268147 0.003215480 0.001654356 0.000427527 0.037011601 0.159338981 -0.432229906 0.886802435
1341846671.300337 0.003213539 0.001654857 0.000425522 0.044877879 0.156738356 -0.431576103 0.887221038
1341846671.336125 0.003214324 0.001654822 0.000426449 0.051802661 0.154358998 -0.436606348 0.884796381
1341846671.368236 0.003212490 0.001663792 0.000323074 0.057512823 0.155840218 -0.439395875 0.882800817
1341846671.400327 0.003211178 0.001658042 0.000423146 0.062654212 0.152180225 -0.441903174 0.881837368
1341846671.436064 0.003214402 0.001655727 0.000427187 0.068642460 0.148752317 -0.448124021 0.878832102
1341846671.468197 0.003214020 0.001655263 0.000427285 0.073746234 0.148901328 -0.453644276 0.875555098
1341846671.504294 0.003214969 0.001654566 0.000430139 0.076391794 0.142729655 -0.458131224 0.874018490
1341846671.536197 0.003215356 0.001654917 0.000430502 0.082214490 0.135228962 -0.467107952 0.869921863
1341846671.568120 0.003215819 0.001655761 0.000430432 0.089651704 0.132234380 -0.474908739 0.865412235
1341846671.604188 0.003214552 0.001654366 0.000428780 0.095224872 0.126737997 -0.480093420 0.862774611
1341846671.636057 0.003214585 0.001654506 0.000428890 0.102521785 0.118526511 -0.487318158 0.859046996
1341846671.672157 0.003214807 0.001654714 0.000427570 0.112780318 0.110398397 -0.489326239 0.857701957
1341846671.704027 0.003214475 0.001654944 0.000426825 0.114593625 0.106952257 -0.492741734 0.855941057
1341846671.736479 0.003215258 0.001654734 0.000427966 0.114159040 0.103674531 -0.498647451 0.852977157
1341846671.774745 0.003215001 0.001654660 0.000427538 0.116740078 0.099782176 -0.504026771 0.849924862
1341846671.804605 0.003214880 0.001654871 0.000426668 0.118900307 0.094529055 -0.508030951 0.847839355
1341846671.840252 0.003214798 0.001654996 0.000426336 0.119170249 0.090693302 -0.512709260 0.845400691
1341846671.872106 0.003214793 0.001655179 0.000425585 0.121268377 0.088939540 -0.517094910 0.842612982
1341846671.904035 0.003214692 0.001655198 0.000425549 0.120688237 0.086665452 -0.519899726 0.841206074
1341846671.972239 0.003214713 0.001655015 0.000426199 0.119756818 0.084928542 -0.529086769 0.835770667
1341846672.034218 0.003214691 0.001655111 0.000425172 0.118296042 0.080996476 -0.540706515 0.828904092
1341846672.066227 0.003214694 0.001655096 0.000425922 0.118423112 0.080674499 -0.550189376 0.822653770
1341846672.098024 0.003214815 0.001655032 0.000426336 0.118592530 0.077410914 -0.556238353 0.818866432
1341846672.134061 0.003214772 0.001654947 0.000426289 0.119157612 0.074870840 -0.562285423 0.814880908
1341846672.166000 0.003214749 0.001655008 0.000425980 0.118393138 0.075442716 -0.567570388 0.811267674
1341846672.198405 0.003214759 0.001654957 0.000426137 0.118371278 0.074787803 -0.572199762 0.808073282
1341846672.234130 0.003214796 0.001654891 0.000426404 0.119986326 0.072021835 -0.575735927 0.805570781
1341846672.266403 0.003214766 0.001654936 0.000426097 0.122672185 0.071111955 -0.578641176 0.803161860
1341846672.302710 0.003214727 0.001654961 0.000426080 0.122027561 0.070443898 -0.581321537 0.801381469
1341846672.335022 0.003214709 0.001654940 0.000426151 0.120040841 0.068737090 -0.583950758 0.799916804
1341846672.366487 0.003214769 0.001655007 0.000426040 0.120804422 0.069419131 -0.585863173 0.798343062
1341846672.402478 0.003214743 0.001655017 0.000426093 0.121568069 0.070101634 -0.587768912 0.796765149
1341846672.434330 0.003214800 0.001655109 0.000425921 0.122213826 0.070027024 -0.589442432 0.795435488
1341846672.472323 0.003214795 0.001655126 0.000425912 0.122859083 0.069950715 -0.591112673 0.794102252
1341846672.534812 0.003214763 0.001655222 0.000425836 0.123503312 0.069870561 -0.592779458 0.792765796
1341846672.570153 0.003214768 0.001655266 0.000425819 0.122676224 0.068652533 -0.594456911 0.791743875
1341846672.608881 0.003214767 0.001655290 0.000425794 0.121864125 0.067425311 -0.596129119 0.790716767
1341846672.640836 0.003214726 0.001655374 0.000425729 0.121042453 0.066210568 -0.597798705 0.789684474
1341846672.708152 0.003214654 0.001655478 0.000425736 0.120221913 0.064990073 -0.599465907 0.788646698
1341846672.770288 0.003214656 0.001655670 0.000425580 0.119400091 0.063768029 -0.601128399 0.787605166
1341846672.803280 0.003214558 0.001655706 0.000425568 0.118577361 0.062544823 -0.602787137 0.786559105
1341846672.838034 0.003214589 0.001655789 0.000425577 0.117753997 0.061321046 -0.604442239 0.785508335
1341846672.870092 0.003214576 0.001656040 0.000425124 0.116929926 0.060096566 -0.606093645 0.784452856
1341846672.902275 0.003214563 0.001656092 0.000425237 0.116105199 0.058871102 -0.607741475 0.783392668
1341846672.938315 0.003214502 0.001656403 0.000424858 0.115280002 0.057645176 -0.609385610 0.782327771
1341846672.970326 0.003214642 0.001656417 0.000424930 0.114454672 0.056415591 -0.611026168 0.781258225
1341846673.008221 0.003214641 0.001656441 0.000425246 0.113627464 0.055191748 -0.612662852 0.780183911
1341846673.070235 0.003214860 0.001656687 0.000425286 0.112800322 0.053963877 -0.614296079 0.779104769
1341846673.106189 0.003214986 0.001656701 0.000425099 0.110491805 0.047668342 -0.615338743 0.779023409
1341846673.138104 0.003215209 0.001656448 0.000425606 0.108000189 0.040668026 -0.616245687 0.779052854
1341846673.170298 0.003215268 0.001656469 0.000425365 0.105453521 0.034535028 -0.617122233 0.779003859
1341846673.206489 0.003215396 0.001656240 0.000425667 0.102913521 0.028397175 -0.617972076 0.778917789
1341846673.238153 0.003215424 0.001656035 0.000426379 0.100367598 0.022257706 -0.618794441 0.778796732
1341846673.274220 0.003215490 0.001656144 0.000425700 0.097821347 0.016117422 -0.619589269 0.778640032
1341846673.306107 0.003215629 0.001656048 0.000425491 0.097191498 0.009864613 -0.620679140 0.777954936
1341846673.338187 0.003215890 0.001656021 0.000425124 0.096517161 0.002788601 -0.621445358 0.777484596
1341846673.374098 0.003215985 0.001656063 0.000424762 0.096440189 -0.002978353 -0.622347236 0.776771724
1341846673.406266 0.003216156 0.001656162 0.000424172 0.096356682 -0.008746409 -0.623226881 0.776032925
1341846673.438267 0.003216178 0.001656076 0.000424048 0.094284423 -0.016184580 -0.623541832 0.775914967
1341846673.474135 0.003216254 0.001656021 0.000424121 0.092766419 -0.021362891 -0.623885095 0.775696754
1341846673.506260 0.003216547 0.001656107 0.000423482 0.091374867 -0.028002575 -0.623623252 0.775861144
1341846673.542168 0.003216599 0.001656134 0.000423078 0.086632386 -0.033958536 -0.622380137 0.777164459
1341846673.574072 0.003216728 0.001655932 0.000423520 0.081369497 -0.038544420 -0.620924056 0.778682649
1341846673.606102 0.003217084 0.001655828 0.000423434 0.075862944 -0.043658387 -0.619321644 0.780243158
1341846673.648026 0.003217073 0.001655738 0.000423671 0.069046803 -0.048963673 -0.617246568 0.782203138
1341846673.710162 0.003217636 0.001657333 0.000420805 0.062221274 -0.054270912 -0.615119815 0.784098685
1341846673.742225 0.003217737 0.001657142 0.000421192 0.051907305 -0.060264956 -0.611121655 0.787530363
1341846673.774298 0.003217702 0.001656919 0.000421302 0.042375416 -0.066219240 -0.606918752 0.790865958
1341846673.810154 0.003217956 0.001656703 0.000421979 0.034138270 -0.071280815 -0.603012264 0.793807149
1341846673.842305 0.003218248 0.001656483 0.000422727 0.025897020 -0.076334052 -0.599035025 0.796655118
1341846673.842305 0.003218248 0.001656483 0.000422727 0.025897020 -0.076334052 -0.599035025 0.796655118
1341846673.842305 0.003218248 0.001656483 0.000422727 0.025897020 -0.076334052 -0.599035025 0.796655118
1341846673.842305 0.003218248 0.001656483 0.000422727 0.025897020 -0.076334052 -0.599035025 0.796655118
1341846673.842305 0.003218248 0.001656483 0.000422727 0.025897020 -0.076334052 -0.599035025 0.796655118
1341846673.842305 0.003218248 0.001656483 0.000422727 0.025897020 -0.076334052 -0.599035025 0.796655118
1341846673.842305 0.003218248 0.001656483 0.000422727 0.025897020 -0.076334052 -0.599035025 0.796655118
1341846673.842305 0.003218248 0.001656483 0.000422727 0.025897020 -0.076334052 -0.599035025 0.796655118
1341846673.842305 0.003218248 0.001656483 0.000422727 0.025897020 -0.076334052 -0.599035025 0.796655118
1341846673.842305 0.003218248 0.001656483 0.000422727 0.025897020 -0.076334052 -0.599035025 0.796655118
1341846673.842305 0.003218248 0.001656483 0.000422727 0.025897020 -0.076334052 -0.599035025 0.796655118
1341846673.842305 0.003218248 0.001656483 0.000422727 0.025897020 -0.076334052 -0.599035025 0.796655118
1341846673.842305 0.003218248 0.001656483 0.000422727 0.025897020 -0.076334052 -0.599035025 0.796655118
1341846673.842305 0.003218248 0.001656483 0.000422727 0.025897020 -0.076334052 -0.599035025 0.796655118
1341846673.842305 0.003218248 0.001656483 0.000422727 0.025897020 -0.076334052 -0.599035025 0.796655118
1341846673.842305 0.003218248 0.001656483 0.000422727 0.025897020 -0.076334052 -0.599035025 0.796655118
1341846673.842305 0.003218248 0.001656483 0.000422727 0.025897020 -0.076334052 -0.599035025 0.796655118
1341846673.842305 0.003218248 0.001656483 0.000422727 0.025897020 -0.076334052 -0.599035025 0.796655118
1341846673.842305 0.003218248 0.001656483 0.000422727 0.025897020 -0.076334052 -0.599035025 0.796655118
1341846673.842305 0.003218248 0.001656483 0.000422727 0.025897020 -0.076334052 -0.599035025 0.796655118
1341846673.842305 0.003218248 0.001656483 0.000422727 0.025897020 -0.076334052 -0.599035025 0.796655118
1341846673.842305 0.003218248 0.001656483 0.000422727 0.025897020 -0.076334052 -0.599035025 0.796655118
1341846673.842305 0.003218248 0.001656483 0.000422727 0.025897020 -0.076334052 -0.599035025 0.796655118
1341846673.842305 0.003218248 0.001656483 0.000422727 0.025897020 -0.076334052 -0.599035025 0.796655118
1341846673.842305 0.003218248 0.001656483 0.000422727 0.025897020 -0.076334052 -0.599035025 0.796655118
1341846673.842305 0.003218248 0.001656483 0.000422727 0.025897020 -0.076334052 -0.599035025 0.796655118
1341846673.842305 0.003218248 0.001656483 0.000422727 0.025897020 -0.076334052 -0.599035025 0.796655118
1341846673.842305 0.003218248 0.001656483 0.000422727 0.025897020 -0.076334052 -0.599035025 0.796655118
1341846673.842305 0.003218248 0.001656483 0.000422727 0.025897020 -0.076334052 -0.599035025 0.796655118
1341846673.842305 0.003218248 0.001656483 0.000422727 0.025897020 -0.076334052 -0.599035025 0.796655118
1341846673.842305 0.003218248 0.001656483 0.000422727 0.025897020 -0.076334052 -0.599035025 0.796655118
1341846673.842305 0.003218248 0.001656483 0.000422727 0.025897020 -0.076334052 -0.599035025 0.796655118
1341846673.842305 0.003218248 0.001656483 0.000422727 0.025897020 -0.076334052 -0.599035025 0.796655118
1341846673.842305 0.003218248 0.001656483 0.000422727 0.025897020 -0.076334052 -0.599035025 0.796655118
1341846673.842305 0.003218248 0.001656483 0.000422727 0.025897020 -0.076334052 -0.599035025 0.796655118
1341846673.842305 0.003218248 0.001656483 0.000422727 0.025897020 -0.076334052 -0.599035025 0.796655118
1341846673.842305 0.003218248 0.001656483 0.000422727 0.025897020 -0.076334052 -0.599035025 0.796655118
1341846673.842305 0.003218248 0.001656483 0.000422727 0.025897020 -0.076334052 -0.599035025 0.796655118
1341846673.842305 0.003218248 0.001656483 0.000422727 0.025897020 -0.076334052 -0.599035025 0.796655118
1341846673.842305 0.003218248 0.001656483 0.000422727 0.025897020 -0.076334052 -0.599035025 0.796655118
1341846675.350149 0.020403128 0.019004552 -0.057881638 -0.033732273 -0.096545830 0.102365822 0.989475787
1341846675.382271 0.056983281 -0.015265318 -0.004635996 -0.050575525 -0.102319755 0.103522263 0.988056660
1341846675.450238 -0.002562363 0.003642815 -0.000131009 -0.052148197 -0.083543226 0.111395329 0.988884330
1341846675.486165 -0.012294932 -0.001291145 -0.001191236 -0.043641046 -0.079368010 0.120982617 0.988513708
1341846675.518083 -0.009584750 -0.004835787 0.003296261 -0.035653815 -0.078429997 0.129596427 0.987816930
1341846675.550092 -0.009666977 0.002440399 0.012407791 -0.027869619 -0.078440428 0.137762457 0.986960948
1341846675.586070 -0.005732437 0.000949079 0.013767679 -0.024972480 -0.077418990 0.141767979 0.986551821
1341846675.618075 -0.005306473 0.000922012 0.016351582 -0.019659216 -0.074215971 0.144371241 0.986540675
1341846675.650024 -0.002898840 0.002513314 0.014349525 -0.013209252 -0.074584700 0.147852987 0.986104548
1341846675.686118 -0.001684940 0.001078891 0.014130409 -0.009837294 -0.075934261 0.147591785 0.986080050
1341846675.718055 -0.002644510 0.000543936 0.016320210 -0.005599242 -0.072489738 0.144396603 0.986845195
1341846675.754170 -0.002421699 0.000952173 0.015695943 0.001400880 -0.070877321 0.143372089 0.987126589
1341846675.786330 -0.002994510 0.000979006 0.016654508 0.005370194 -0.069193751 0.143046543 0.987279654
1341846675.818106 -0.003797369 0.000791870 0.018419469 0.008625816 -0.064247780 0.140574723 0.987945616
1341846675.854095 -0.003136614 0.000693411 0.017065980 0.012756090 -0.062194701 0.139331207 0.988208413
1341846675.886163 -0.000870821 0.001297834 0.011188561 0.018742813 -0.063288398 0.139667004 0.987996161
1341846675.922346 0.000706285 0.001520694 0.006830740 0.029517677 -0.061741676 0.140342221 0.987735152
1341846675.961651 0.002184195 0.001508623 0.003013549 0.038243290 -0.060792677 0.139057577 0.987676382
1341846676.028080 0.003092414 0.001596662 0.000730996 0.060434952 -0.062119443 0.139051229 0.986485481
1341846676.122163 0.003540362 0.001337675 -0.000750423 0.064350650 -0.064079687 0.127387345 0.987686813
1341846676.154447 0.003192588 0.001642567 0.000373867 0.063187838 -0.063119076 0.126859814 0.987891614
1341846676.190230 0.003193324 0.001652375 0.000465694 0.062979378 -0.064355046 0.126254603 0.987902761
1341846676.222476 0.003205186 0.001626440 0.000427563 0.055331986 -0.062247843 0.119516559 0.989332795
1341846676.257017 0.003199152 0.001628686 0.000450539 0.049369410 -0.058541883 0.123785876 0.989349544
1341846676.290401 0.003189760 0.001643086 0.000415765 0.048188955 -0.056921192 0.125210211 0.989323080
1341846676.322689 0.003170482 0.001636995 0.000358728 0.042286985 -0.052775737 0.118177347 0.990686953
1341846676.360815 0.003153522 0.001625155 0.000291258 0.027857866 -0.047023177 0.116605155 0.991673350
1341846676.390851 0.003165180 0.001643695 0.000352213 0.024183862 -0.043435439 0.118718810 0.991682589
1341846676.424250 0.003228947 0.001645848 0.000508566 0.026239645 -0.039425474 0.120048255 0.991637766
1341846676.459033 0.003180187 0.001544732 -0.000503311 0.021659166 -0.034271024 0.118099600 0.992173791
1341846676.490669 0.003183987 0.001581000 -0.000354266 0.018331071 -0.029460941 0.122773796 0.991827905
1341846676.532743 0.003189245 0.001609845 0.000052777 0.016775673 -0.023444891 0.122309528 0.992073238
1341846676.564052 0.003191232 0.001605633 0.000002772 0.013428961 -0.018660802 0.121430933 0.992333591
1341846676.596566 0.003162763 0.001584554 -0.000237772 0.009733800 -0.016188592 0.121329941 0.992432475
1341846676.632057 0.003168474 0.001561763 -0.000432403 0.008917668 -0.012403768 0.118902706 0.992788374
1341846676.690079 0.003176347 0.001569876 -0.000484138 0.008314456 -0.006672897 0.116172984 0.993171751
1341846676.726102 0.003178898 0.001563599 -0.000476937 0.008986971 -0.002489535 0.114346609 0.993397117
1341846676.758419 0.003182903 0.001552727 -0.000518279 0.011548350 0.002108792 0.112426475 0.993590713
1341846676.790227 0.003178522 0.001559188 -0.000553737 0.012220838 0.003619162 0.112593643 0.993559361
1341846676.826179 0.003215325 0.001550415 -0.000632492 0.012550668 0.008480211 0.111580245 0.993639946
1341846676.858331 0.003195763 0.001567661 -0.000606114 0.014153139 0.012692953 0.111557417 0.993576109
1341846676.894086 0.003171993 0.001561070 -0.000604743 0.014020463 0.011892810 0.113879949 0.993324399
1341846676.926062 0.003161947 0.001552937 -0.000584039 0.013191780 0.013274082 0.111724377 0.993562996
1341846676.958080 0.003174007 0.001549188 -0.000595738 0.013565523 0.015390398 0.112277970 0.993465006
1341846676.994140 0.003158180 0.001550976 -0.000577012 0.014938439 0.013921368 0.113121510 0.993371308
1341846677.026242 0.003155232 0.001547607 -0.000570140 0.014942893 0.013523212 0.112250313 0.993475556
1341846677.094244 0.003155232 0.001548107 -0.000574544 0.012812494 0.013031070 0.111535177 0.993592441
1341846677.126108 0.003146429 0.001546036 -0.000556975 0.014800703 0.012028496 0.113045000 0.993406832
1341846677.162066 0.003145996 0.001544450 -0.000560183 0.016600668 0.012921610 0.112093009 0.993475020
1341846677.194068 0.003160268 0.001554452 -0.000591149 0.015430801 0.012041050 0.111931019 0.993523180
1341846677.226206 0.003138314 0.001542373 -0.000543221 0.015467781 0.012855994 0.112158194 0.993486822
1341846677.262033 0.003144164 0.001549560 -0.000562315 0.018184403 0.016088119 0.112386771 0.993367910
1341846677.294125 0.003150875 0.001550389 -0.000578789 0.018947259 0.014666135 0.112422518 0.993371546
1341846677.326503 0.003143493 0.001548264 -0.000564854 0.017249376 0.015764099 0.111512020 0.993488312
1341846677.362194 0.003143585 0.001549819 -0.000564367 0.017888937 0.019034062 0.111720957 0.993396223
1341846677.394280 0.003142959 0.001550194 -0.000566535 0.019267563 0.019268539 0.112743922 0.993250370
1341846677.430058 0.003138201 0.001548840 -0.000557008 0.019412464 0.020679379 0.111804269 0.993325412
1341846677.468326 0.003138233 0.001548419 -0.000559281 0.020409487 0.023936622 0.110695802 0.993356407
1341846677.530161 0.003134810 0.001547410 -0.000553671 0.024716657 0.027329430 0.109343641 0.993320763
1341846677.562051 0.003134807 0.001547400 -0.000554452 0.025689892 0.030486165 0.107613333 0.993393183
1341846677.594105 0.003135257 0.001547491 -0.000560357 0.025958598 0.031622827 0.106942154 0.993423104
1341846677.630227 0.003135266 0.001547766 -0.000558862 0.026654122 0.032439753 0.106015161 0.993477762
1341846677.662033 0.003135683 0.001547820 -0.000560747 0.027218277 0.034146901 0.105932027 0.993414104
1341846677.730320 0.003135741 0.001548238 -0.000562147 0.026691163 0.034314845 0.106106617 0.993403971
1341846677.763691 0.003135097 0.001548756 -0.000560353 0.028280392 0.035166282 0.106227860 0.993317246
1341846677.798630 0.003136280 0.001548972 -0.000563971 0.027768860 0.033482254 0.105745427 0.993441343
1341846677.830104 0.003134564 0.001548064 -0.000561211 0.027593754 0.034564778 0.104407310 0.993550718
1341846677.862185 0.003134625 0.001549153 -0.000561585 0.030828934 0.037082858 0.103322215 0.993478179
1341846677.898344 0.003134876 0.001549529 -0.000561937 0.034154952 0.036531962 0.103929885 0.993326485
1341846677.930181 0.003132437 0.001548508 -0.000561708 0.036024153 0.037527390 0.102649204 0.993356466
1341846677.966256 0.003130594 0.001551241 -0.000558172 0.039312664 0.039833084 0.102324829 0.993175447
1341846677.998516 0.003133307 0.001551580 -0.000561540 0.044143192 0.039119739 0.103464246 0.992882788
1341846678.030368 0.003132416 0.001549160 -0.000562346 0.046737768 0.037408233 0.103682317 0.992807209
1341846678.066187 0.003132135 0.001548855 -0.000561945 0.048269220 0.039154172 0.101811394 0.992860258
1341846678.098076 0.003132419 0.001549614 -0.000562803 0.050224576 0.038867284 0.102914907 0.992660761
1341846678.134082 0.003132342 0.001549434 -0.000562776 0.052142840 0.035992976 0.103385761 0.992621303
1341846678.166092 0.003131648 0.001549580 -0.000562668 0.053301454 0.037032377 0.101838894 0.992681384
1341846678.204293 0.003132118 0.001549827 -0.000562724 0.055026613 0.037277646 0.102672435 0.992492259
1341846678.266209 0.003131003 0.001550447 -0.000563756 0.059399258 0.034677058 0.102405928 0.992361963
1341846678.298316 0.003132252 0.001549189 -0.000562933 0.059528232 0.033150658 0.102903739 0.992354870
1341846678.334135 0.003131612 0.001550002 -0.000563568 0.059838060 0.031296138 0.102747478 0.992412686
1341846678.366593 0.003131380 0.001550444 -0.000562959 0.061682995 0.032025255 0.102305688 0.992322087
1341846678.402292 0.003131217 0.001550238 -0.000563753 0.063026577 0.031929132 0.102753893 0.992194474
1341846678.439991 0.003131071 0.001550438 -0.000563402 0.063959785 0.032168165 0.102178261 0.992186427
