1341846226.817920 0.0000000 0.0000000 0.0000000 0.0000000 0.0000000 0.0000000 1.0000000
1341846227.721966 0.0158761 -0.0069798 0.0006413 0.0093571 -0.0236292 -0.0309224 0.9991986
1341846227.789951 0.0158760 -0.0069808 0.0006434 0.0120300 -0.0190516 -0.0294459 0.9993124
1341846227.921967 0.0158770 -0.0069804 0.0006481 0.0130874 -0.0124605 -0.0276060 0.9994555
1341846228.058222 0.0158767 -0.0069810 0.0006471 0.0151449 -0.0078267 -0.0278881 0.9994656
1341846228.326018 0.0158764 -0.0069808 0.0006472 0.0067545 -0.0052305 -0.0234608 0.9996883
1341846228.825934 0.0158762 -0.0069810 0.0006471 0.0065042 -0.0001830 -0.0151557 0.9998640
1341846228.994040 0.0158763 -0.0069810 0.0006469 0.0055705 -0.0005435 -0.0133152 0.9998957
1341846229.229812 0.0158762 -0.0069806 0.0006466 0.0076255 0.0006376 -0.0114269 0.9999054
1341846229.430182 0.0158761 -0.0069804 0.0006467 0.0142068 -0.0012106 -0.0121974 0.9998239
1341846229.698150 0.0158759 -0.0069797 0.0006465 0.0206645 0.0025034 -0.0036272 0.9997767
1341846230.469920 0.0158758 -0.0069802 0.0006468 0.0251397 0.0143358 -0.0050369 0.9995685
1341846230.869829 0.0158753 -0.0069797 0.0006463 0.0307465 0.0102259 -0.0057281 0.9994585
1341846231.205909 0.0158755 -0.0069795 0.0006464 0.0359330 0.0054518 -0.0067238 0.9993167
1341846231.615993 0.0158756 -0.0069797 0.0006464 0.0281891 0.0072466 -0.0113328 0.9995121
1341846231.716153 0.0062587 -0.0084719 0.0815328 0.0427235 0.0059062 -0.0121924 0.9989951
1341846231.783993 0.0214976 -0.0108553 0.1184200 0.0463518 0.0013744 -0.0124925 0.9988461
1341846232.009966 0.0158754 -0.0069798 0.0006458 0.0393758 -0.0018663 -0.0120950 0.9991495
1341846232.283944 0.0158751 -0.0069792 0.0006464 0.0408742 -0.0038791 -0.0089417 0.9991168
1341846232.351854 0.0158754 -0.0069789 0.0006461 0.0388096 -0.0034810 -0.0096935 0.9991935
1341846232.419782 0.0158752 -0.0069783 0.0006464 0.0369950 -0.0044331 -0.0129546 0.9992216
1341846232.519889 0.0158749 -0.0069788 0.0006460 0.0392805 -0.0044703 -0.0120537 0.9991455
1341846232.651799 0.0158750 -0.0069791 0.0006468 0.0440302 -0.0031680 -0.0114561 0.9989595
1341846232.787894 0.0158752 -0.0069789 0.0006472 0.0515428 -0.0003309 -0.0141326 0.9985707
1341846232.855850 0.0158753 -0.0069793 0.0006472 0.0551344 0.0010314 -0.0150591 0.9983649
1341846232.919822 0.0158754 -0.0069793 0.0006471 0.0570761 0.0022757 -0.0162343 0.9982352
1341846233.023868 0.0158757 -0.0069792 0.0006465 0.0565290 0.0047485 -0.0165197 0.9982530
1341846233.087872 0.0158754 -0.0069791 0.0006472 0.0545978 0.0066749 -0.0173647 0.9983351
1341846233.218177 0.0158752 -0.0069791 0.0006469 0.0614877 0.0040761 -0.0213601 0.9978709
1341846233.286015 0.0158750 -0.0069792 0.0006473 0.0591563 0.0046707 -0.0237990 0.9979541
1341846233.585968 0.0158748 -0.0069787 0.0006478 0.0639710 0.0008159 -0.0228055 0.9976908
1341846233.721879 0.0158749 -0.0069788 0.0006473 0.0632496 0.0032228 -0.0238125 0.9977084
1341846233.822009 0.0158747 -0.0069788 0.0006473 0.0614223 0.0048809 -0.0220732 0.9978558
1341846233.922045 0.0158749 -0.0069789 0.0006472 0.0587554 0.0040503 -0.0226735 0.9980066
1341846234.053904 0.0158747 -0.0069786 0.0006473 0.0567337 0.0016661 -0.0229708 0.9981236
1341846234.257875 0.0158742 -0.0069790 0.0006472 0.0552712 0.0037751 -0.0216080 0.9982304
1341846234.593900 0.0158737 -0.0069794 0.0006472 0.0517783 0.0025363 -0.0184683 0.9984846
1341846234.758643 0.0158735 -0.0069789 0.0006477 0.0520527 -0.0029531 -0.0140567 0.9985411
1341846235.061915 0.0158736 -0.0069793 0.0006474 0.0503245 -0.0049289 -0.0174776 0.9985678
1341846235.361974 0.0158736 -0.0069794 0.0006471 0.0523905 -0.0064181 -0.0207444 0.9983906
1341846235.498142 0.0158737 -0.0069794 0.0006473 0.0492785 -0.0062883 -0.0246133 0.9984620
1341846235.667679 0.0158737 -0.0069789 0.0006479 0.0496542 -0.0081925 -0.0259843 0.9983948
1341846235.797942 0.0158739 -0.0069789 0.0006477 0.0537591 -0.0089539 -0.0281549 0.9981168
1341846236.233893 0.0158737 -0.0069793 0.0006472 0.0552804 -0.0042020 -0.0242593 0.9981673
1341846236.637896 0.0158735 -0.0069793 0.0006469 0.0551778 0.0013629 -0.0200994 0.9982733
1341846236.911899 0.0158735 -0.0069789 0.0006469 0.0648589 0.0023558 -0.0212462 0.9976655
1341846237.411962 0.0158736 -0.0069786 0.0006469 0.0686523 0.0027163 -0.0128329 0.9975544
1341846237.647976 0.0158737 -0.0069786 0.0006473 0.0609901 -0.0000497 -0.0155979 0.9980165
1341846240.053998 0.0158740 -0.0069789 0.0006479 0.0549438 -0.0049530 -0.0187434 0.9983012
1341846240.490243 0.0158743 -0.0069788 0.0006474 0.0616221 -0.0078991 -0.0203732 0.9978603
1341846240.794024 0.0158742 -0.0069783 0.0006477 0.0670957 -0.0107347 -0.0232472 0.9974179
1341846241.026041 0.0158743 -0.0069785 0.0006475 0.0654912 -0.0105984 -0.0237548 0.9975141
1341846241.295211 0.0158746 -0.0069788 0.0006472 0.0659564 -0.0105406 -0.0276514 0.9973836
1341846241.497907 0.0158745 -0.0069786 0.0006471 0.0654242 -0.0099046 -0.0291952 0.9973812
1341846241.797970 0.0158746 -0.0069786 0.0006470 0.0659505 -0.0099457 -0.0299456 0.9973239
1341846242.066365 0.0158748 -0.0069786 0.0006474 0.0673032 -0.0100210 -0.0305605 0.9972141
1341846242.301972 0.0158747 -0.0069788 0.0006469 0.0715199 -0.0091181 -0.0311277 0.9969116
1341846242.634077 0.0158746 -0.0069791 0.0006466 0.0720473 -0.0080339 -0.0318726 0.9968595
1341846244.851973 0.0158731 -0.0069781 0.0006473 0.0803020 -0.0012772 -0.0258401 0.9964347
1341846245.791914 0.0158734 -0.0069785 0.0006470 0.0834784 0.0059005 -0.0272067 0.9961206
1341846246.789989 0.0158739 -0.0069790 0.0006472 0.0804236 0.0117312 -0.0288510 0.9962741
1341846247.194072 0.0158736 -0.0069781 0.0006475 0.0868665 0.0092398 -0.0272342 0.9958048
1341846247.562209 0.0158733 -0.0069778 0.0006481 0.0930715 0.0080714 -0.0262362 0.9952810
1341846248.869901 0.0158724 -0.0069788 0.0006486 0.0997426 0.0114580 -0.0284446 0.9945406
1341846249.538288 0.0158719 -0.0069792 0.0006484 0.0963746 0.0192074 -0.0268592 0.9947973
1341846250.177803 0.0158697 -0.0069803 0.0006474 0.0878166 0.0002862 -0.0058742 0.9961193
1341846251.181983 0.0158694 -0.0069803 0.0006472 0.0905171 0.0054650 -0.0076072 0.9958509
