1341845820.751833 0.000000000 0.000000000 0.000000000 0.000000000 0.000000000 0.000000000 1.000000000
1341845820.787768 0.002514707 -0.006349661 0.000701461 -0.000556830 -0.001467456 -0.002263145 0.999996185
1341845820.819654 0.005623130 -0.003116532 -0.002497119 0.000439607 -0.001458915 -0.004046164 0.999990642
1341845820.851997 0.004717568 -0.003800008 -0.000848684 0.000268168 -0.001030786 -0.004630237 0.999988735
1341845820.887882 0.004603533 -0.003091620 -0.001854154 0.000522293 -0.000937073 -0.005424353 0.999984682
1341845820.920082 0.001858682 0.001711252 -0.002424477 0.000260421 -0.000912867 -0.006305121 0.999979675
1341845820.955790 0.001767774 0.000859243 -0.004435328 -0.001230779 -0.001687742 -0.006504756 0.999976635
1341845820.987817 0.002878953 -0.001347359 -0.002408137 -0.002100091 -0.002108657 -0.006914463 0.999971688
1341845821.019783 0.001468364 -0.002492942 -0.001698185 -0.002348017 -0.002197560 -0.006990533 0.999970376
1341845821.055706 -0.000481785 -0.002098534 -0.001712708 -0.001790794 -0.002479411 -0.005487433 0.999980271
1341845821.087831 0.001244465 -0.005311423 -0.001711968 -0.001144539 -0.004119589 -0.003005062 0.999986351
1341845821.119871 0.008550245 -0.003224695 -0.003934720 0.001173282 -0.004027752 -0.001595296 0.999989927
1341845821.155881 0.008813975 0.000474321 -0.005373512 0.001530715 -0.001148315 -0.000391139 0.999998093
1341845821.188556 0.004055541 -0.005531122 -0.001772368 0.000709801 0.001269209 0.001675981 0.999997556
1341845821.223751 0.007575123 -0.010334068 -0.001411313 0.003200919 0.001155845 0.003940507 0.999986410
1341845821.256005 0.014715025 0.002256649 -0.005260319 0.005520001 0.001727773 0.003963382 0.999975383
1341845821.287883 0.011144833 -0.001382537 -0.002769809 0.003431119 0.004929587 0.002178610 0.999979615
1341845821.323879 0.014170834 -0.005354507 -0.003778187 0.003316920 0.006711939 0.000628702 0.999971747
1341845821.355690 0.009195482 -0.002842519 -0.001911516 0.004296127 0.009681916 0.000786159 0.999943614
1341845821.388161 0.009191189 -0.005319588 -0.001733884 0.004070798 0.010022412 0.002435029 0.999938548
1341845821.424470 0.014705863 -0.009052194 -0.001370832 0.005434580 0.010910030 0.003068507 0.999921024
1341845821.455778 0.012706976 -0.003485180 -0.004544171 0.006312912 0.013642748 0.002093945 0.999884844
1341845821.488014 0.009889701 -0.008895860 -0.002303999 0.005631316 0.014861719 0.002462239 0.999870658
1341845821.524370 0.012137270 -0.011060051 -0.002343356 0.007297136 0.015451518 0.003128503 0.999849081
1341845821.555644 0.009432314 -0.005543270 -0.002035946 0.009584740 0.017002409 0.002792741 0.999805629
1341845821.587677 0.007735020 -0.003650504 -0.005272381 0.009612408 0.016962036 0.002711434 0.999806225
1341845821.623761 0.009220708 -0.003232796 -0.002974871 0.009253151 0.015913155 0.001693143 0.999829113
1341845821.655725 0.010935795 -0.004137620 -0.004168335 0.008922373 0.015585735 0.000389797 0.999838650
1341845821.691884 0.007520328 -0.002813862 -0.003820377 0.007993705 0.016087966 -0.000435597 0.999838531
1341845821.724228 0.005796241 -0.007250012 -0.002705473 0.007383983 0.015389571 -0.000198721 0.999854267
1341845821.755681 0.005322516 -0.007377489 -0.003829913 0.008277604 0.014228723 0.000748783 0.999864221
1341845821.791636 0.007880233 -0.007016125 -0.003154801 0.009572607 0.013417650 0.001163604 0.999863505
1341845821.823697 0.009134354 -0.005268217 -0.003914896 0.010233522 0.013903065 -0.000300747 0.999850929
1341845821.855574 0.006645316 -0.005225532 -0.004593792 0.009339586 0.015011861 -0.001802924 0.999842048
1341845821.891741 0.003012090 -0.011235312 -0.002730286 0.009292285 0.015139931 -0.002432829 0.999839246
1341845821.923730 0.005476154 -0.010489317 -0.003303730 0.010866265 0.014791707 -0.002134324 0.999829292
1341845821.955750 0.004620272 -0.005419767 -0.004983357 0.012290764 0.015362584 -0.001517412 0.999805272
1341845821.991786 0.004212824 -0.004419602 -0.005503963 0.011751562 0.015849823 -0.002193160 0.999802947
1341845822.023863 -0.000092001 -0.007994289 -0.003462012 0.011241741 0.016771676 -0.002832839 0.999792159
1341845822.059759 0.000605297 -0.006480338 -0.007297452 0.011366464 0.016520763 -0.002445612 0.999795914
1341845822.091719 -0.000472911 -0.012937428 -0.002357515 0.010580880 0.016836528 -0.002851620 0.999798238
1341845822.123689 -0.000961540 -0.011825114 -0.003745393 0.012638879 0.017886087 -0.002914291 0.999755919
1341845822.185916 -0.011658626 -0.011970380 -0.003416056 0.011596026 0.018702980 -0.001803791 0.999756217
1341845822.221838 -0.012017479 -0.011394192 -0.002275913 0.013487509 0.016939741 -0.001242275 0.999764740
1341845822.254004 -0.011777747 -0.005662081 -0.003972123 0.013558678 0.016071867 -0.001184198 0.999778211
1341845822.289876 -0.016638657 -0.010995845 -0.002769523 0.012129365 0.015701950 -0.002291386 0.999800503
1341845822.321804 -0.018500056 -0.011869838 -0.002404691 0.013198394 0.015414231 -0.003288097 0.999788702
1341845822.353784 -0.021634966 -0.013350886 -0.001649651 0.013584482 0.015701253 -0.003753691 0.999777377
1341845822.391662 -0.025099160 -0.014712839 0.001003604 0.014275020 0.016201865 -0.003922990 0.999759138
1341845822.428074 -0.029414969 -0.011930877 0.000867035 0.015078378 0.016019309 -0.003567557 0.999751627
1341845822.459970 -0.035490248 -0.010013451 0.000668792 0.014767108 0.015942117 -0.003828202 0.999756515
1341845822.495728 -0.039970070 -0.013612965 0.001753180 0.014509630 0.015609453 -0.003762660 0.999765813
1341845822.527724 -0.042996679 -0.010739480 0.000944120 0.014879563 0.014923583 -0.003811403 0.999770641
1341845822.559648 -0.048131485 -0.011218823 0.002371194 0.013626166 0.014420194 -0.002765532 0.999799371
1341845822.595852 -0.047616966 -0.012684036 0.002886694 0.013436763 0.013810746 -0.002463038 0.999811292
1341845822.627724 -0.056854919 -0.009082825 0.003164901 0.012868922 0.015158096 -0.002340274 0.999799550
1341845822.663716 -0.062478818 -0.019321809 0.005842200 0.011757750 0.013892718 0.000255626 0.999834299
1341845822.695601 -0.058902673 -0.023878817 0.001572881 0.015482368 0.010362617 0.004015325 0.999818385
1341845822.731816 -0.065173358 -0.016163804 0.006236328 0.018525206 0.010459278 0.004709563 0.999762595
1341845822.789911 -0.067951202 -0.016790604 0.005623674 0.019339280 0.010880664 0.005119774 0.999740660
1341845822.825897 -0.074021809 -0.015153583 0.009096458 0.018759837 0.012186073 0.005125625 0.999736607
1341845822.859721 -0.084303185 -0.023751963 0.011905090 0.018810159 0.012275863 0.006399367 0.999727249
1341845822.889712 -0.084137261 -0.023457767 0.009641626 0.021102160 0.010162129 0.008591116 0.999688745
1341845822.925900 -0.085308306 -0.019150818 0.007321294 0.022611927 0.009204013 0.008372623 0.999666870
1341845822.957708 -0.086681761 -0.022231022 0.009503748 0.022534871 0.009692898 0.005639469 0.999683142
1341845822.989939 -0.094946086 -0.024054952 0.009757034 0.023584675 0.010768725 0.005147700 0.999650598
1341845823.025889 -0.095764458 -0.023825992 0.008985657 0.025843371 0.010303577 0.005511158 0.999597728
1341845823.057775 -0.094363093 -0.024266839 0.010766918 0.027260771 0.011579287 0.004978173 0.999548912
1341845823.093671 -0.095669493 -0.023416027 0.007924754 0.028698577 0.013646849 0.005865643 0.999477744
1341845823.125951 -0.097393431 -0.022556804 0.005593593 0.029514214 0.014405673 0.007078610 0.999435484
1341845823.157773 -0.106781535 -0.024673028 0.011227537 0.029867902 0.016521810 0.006005046 0.999399245
1341845823.193885 -0.110262103 -0.019647982 0.008829009 0.030647520 0.016660688 0.006108969 0.999372721
1341845823.225800 -0.115900479 -0.017497998 0.013336590 0.029092062 0.015459349 0.005950176 0.999439478
1341845823.261842 -0.116941549 -0.021836912 0.011605338 0.028163906 0.014218617 0.005223486 0.999488533
1341845823.293622 -0.113079809 -0.012917309 0.007059577 0.027999246 0.013540472 0.004928300 0.999504089
1341845823.325746 -0.110909902 -0.014661190 0.012217359 0.024359407 0.015262480 0.005018740 0.999574184
1341845823.361852 -0.109491974 -0.017338004 0.018613687 0.024815893 0.018083418 0.006409256 0.999507904
1341845823.394013 -0.120282844 -0.021658553 0.017233446 0.026513476 0.021731082 0.008754265 0.999373913
1341845823.426028 -0.137565553 -0.024591807 0.016980752 0.027262446 0.024723917 0.010074279 0.999271750
1341845823.461869 -0.137966022 -0.023859292 0.015065727 0.028269017 0.023401827 0.012100089 0.999253154
1341845823.493758 -0.138498455 -0.025375281 0.012667626 0.028404193 0.024277747 0.011589806 0.999234438
1341845823.529780 -0.146305710 -0.026641205 0.016079813 0.028332129 0.026504645 0.011896138 0.999176264
1341845823.561916 -0.158794880 -0.027922416 0.018124502 0.028548721 0.026109770 0.012833100 0.999168932
1341845823.593678 -0.156931892 -0.025907774 0.018235488 0.029168516 0.022323554 0.014768614 0.999216080
1341845823.629815 -0.153540343 -0.027672656 0.015931576 0.028780716 0.021895085 0.014870445 0.999235272
1341845823.661750 -0.167939037 -0.030515594 0.017145045 0.027971411 0.024149274 0.013713290 0.999222875
1341845823.695523 -0.173810109 -0.037741896 0.017833445 0.029378640 0.022170898 0.015973959 0.999194741
1341845823.729635 -0.179605663 -0.040302768 0.020219596 0.032912094 0.019333407 0.016825741 0.999129593
1341845823.761810 -0.181491241 -0.036922731 0.019880531 0.035630394 0.017177375 0.017319502 0.999067307
1341845823.797871 -0.187851384 -0.036373116 0.018578842 0.035849947 0.014312559 0.017212588 0.999106467
1341845823.829660 -0.191844448 -0.037479047 0.020712599 0.035357591 0.010862162 0.014764399 0.999206603
1341845823.861808 -0.202376470 -0.041582007 0.018359784 0.035859339 0.008467375 0.012461183 0.999243259
1341845823.929826 -0.207235456 -0.040898565 0.018173475 0.036084928 0.001188679 0.009402671 0.999303818
1341845823.961797 -0.211049005 -0.038575862 0.019768903 0.035032187 0.000365341 0.005797768 0.999369264
1341845823.998070 -0.216362357 -0.045300301 0.021899251 0.033190601 0.000082859 0.003417369 0.999443173
1341845824.029656 -0.217138693 -0.043526441 0.021675121 0.034283087 -0.000579527 0.004502528 0.999401867
1341845824.065768 -0.220516101 -0.044228874 0.020712545 0.034166060 0.001398929 0.006307304 0.999395251
1341845824.097956 -0.205222562 -0.039522916 0.019007886 0.033156700 0.004310839 0.006544248 0.999419451
1341845824.130299 -0.174961746 -0.029158888 0.005705403 0.028948730 0.018081496 0.007355854 0.999390304
1341845824.165751 -0.207951590 -0.029613940 0.025306538 0.023282440 0.034824256 0.008281872 0.999087930
1341845824.197930 -0.237918764 -0.051303316 0.021105228 0.019607445 0.039768368 0.006721865 0.998993933
1341845824.229907 -0.245328382 -0.055304889 0.016097125 0.023852741 0.040048670 0.007364772 0.998885810
1341845824.265800 -0.259138733 -0.051548637 0.011750860 0.026919996 0.037166011 0.007553300 0.998917878
1341845824.298080 -0.260113031 -0.049746707 0.021491122 0.028269596 0.028525598 0.007600161 0.999164343
1341845824.333783 -0.251450419 -0.055717364 0.024666062 0.030593222 0.023668917 0.007337062 0.999224663
1341845824.365821 -0.254320920 -0.052174192 0.012789431 0.033059217 0.024465224 0.006955670 0.999129713
1341845824.398039 -0.268809915 -0.053017613 0.007713075 0.032123625 0.024693605 0.005498741 0.999163687
1341845824.433843 -0.272847086 -0.053777974 0.013627646 0.032002337 0.020823007 0.006333087 0.999250770
1341845824.465921 -0.272746146 -0.055928469 0.011478489 0.033271361 0.016206674 0.010981039 0.999254584
1341845824.501802 -0.285237759 -0.049958356 0.011035126 0.033510525 0.015273717 0.014631863 0.999214530
1341845824.533723 -0.289771557 -0.050850514 0.011625675 0.031302273 0.012752822 0.018874429 0.999250352
1341845824.565735 -0.294789135 -0.052507810 0.014980195 0.029150471 0.009955317 0.021696730 0.999289930
1341845824.601758 -0.297054768 -0.055610768 0.014911344 0.028608497 0.007749558 0.026118588 0.999219358
1341845824.633861 -0.305096567 -0.053848762 0.011335439 0.028207131 0.006232384 0.029200584 0.999156058
1341845824.665789 -0.311516702 -0.056043740 0.012755247 0.027748831 0.004538447 0.031951245 0.999093831
1341845824.701769 -0.316650391 -0.058795698 0.011388220 0.028191941 0.001639266 0.034719013 0.998998046
1341845824.733585 -0.319084823 -0.058763500 0.013458735 0.029349061 -0.000897247 0.036689922 0.998895228
1341845824.769643 -0.326756358 -0.045558739 0.012166681 0.028823340 -0.001972795 0.036657743 0.998910189
1341845824.801632 -0.334616601 -0.052866012 0.012895153 0.024316669 -0.005032589 0.036066510 0.999040842
1341845824.833654 -0.331695795 -0.063624777 0.016536867 0.025022248 -0.008108728 0.036091961 0.999002278
1341845824.869926 -0.336015433 -0.057904840 0.012704068 0.029422848 -0.008112201 0.037199311 0.998841703
1341845824.902071 -0.345379800 -0.054946639 0.013283107 0.028566405 -0.008305354 0.036630586 0.998885989
1341845824.933752 -0.343639433 -0.062939055 0.013385340 0.028125670 -0.009160625 0.034117505 0.998979986
1341845824.969855 -0.344969183 -0.055813402 0.009279621 0.029167036 -0.007723875 0.032154113 0.999027371
1341845825.001907 -0.347841829 -0.057416294 0.009150130 0.027461220 -0.004922850 0.031624805 0.999110341
1341845825.037975 -0.355121195 -0.061333057 0.012184617 0.026749140 -0.001579358 0.030468797 0.999176443
1341845825.075793 -0.365334511 -0.069740221 0.011219301 0.028847646 -0.002147769 0.032613769 0.999049306
1341845825.107881 -0.364656299 -0.070582844 0.009695657 0.034446742 -0.002618620 0.034979068 0.998790801
1341845825.143675 -0.369718611 -0.066113897 0.008294253 0.037591793 -0.000490668 0.032293830 0.998771131
1341845825.175707 -0.374892801 -0.067533590 0.004108446 0.038380280 0.000880706 0.029131379 0.998838067
1341845825.211865 -0.376932710 -0.066139817 0.004676034 0.039774939 0.000993996 0.028905960 0.998789966
1341845825.243814 -0.377463430 -0.073032133 0.004343538 0.041199286 0.002546949 0.030790554 0.998673141
1341845825.275795 -0.385398328 -0.068130538 0.002814432 0.044331219 0.004135942 0.030927215 0.998529494
1341845825.311665 -0.395849377 -0.069425270 -0.000358964 0.044587519 0.003074467 0.031426895 0.998506308
1341845825.343650 -0.394121140 -0.063091688 -0.003573053 0.044853158 0.000706495 0.033053834 0.998446345
1341845825.379771 -0.399503201 -0.068247385 0.005534958 0.042121489 0.001007224 0.033866256 0.998537838
1341845825.411924 -0.404499263 -0.066497333 0.001814247 0.043270323 -0.000402282 0.035441913 0.998434484
1341845825.443786 -0.416605055 -0.059226915 -0.006604522 0.040297654 -0.002228685 0.035559289 0.998552263
1341845825.480278 -0.421067834 -0.067671947 -0.003607870 0.036029402 -0.006118591 0.039356709 0.998556674
1341845825.511636 -0.429013669 -0.074815914 -0.007686116 0.033651266 -0.008954369 0.039994393 0.998592913
1341845825.547911 -0.425725013 -0.063418619 -0.003111066 0.032678645 -0.012365661 0.041587338 0.998523772
1341845825.579744 -0.423462719 -0.066311233 0.005117971 0.031766493 -0.014171792 0.046310451 0.998321295
1341845825.611784 -0.429473013 -0.066167988 0.003593996 0.033480991 -0.015257679 0.049495846 0.998096406
1341845825.648004 -0.425294757 -0.066723645 0.007668164 0.034169242 -0.015759841 0.046239369 0.998221397
1341845825.679708 -0.431015313 -0.068831317 0.004941136 0.035575505 -0.013459155 0.046996824 0.998170555
1341845825.711937 -0.440749675 -0.067916669 0.002476395 0.036022302 -0.015864132 0.046798848 0.998128533
1341845825.747617 -0.437570244 -0.061902199 0.003085317 0.035083868 -0.018417798 0.044610731 0.998218298
1341845825.779688 -0.450608224 -0.064309143 0.002101269 0.031993922 -0.020020328 0.041806344 0.998412609
1341845825.815954 -0.450456828 -0.065329708 0.004300374 0.029333692 -0.022757316 0.038520388 0.998567879
1341845825.847829 -0.452802718 -0.063041188 0.009655472 0.027902279 -0.023730213 0.036430810 0.998664677
1341845825.879767 -0.464394987 -0.068855830 0.005346062 0.027163999 -0.026075292 0.037423246 0.998589873
1341845825.915646 -0.463642865 -0.063934982 0.006657590 0.027690552 -0.027474096 0.038051270 0.998514116
1341845825.947881 -0.469915718 -0.064192839 0.004963800 0.026876247 -0.027109612 0.039247613 0.998500049
1341845825.979700 -0.473756164 -0.066567242 0.005379941 0.026204789 -0.028536495 0.041751839 0.998376548
1341845826.015845 -0.474706471 -0.064683042 0.000743726 0.026065221 -0.029818397 0.042911168 0.998293579
1341845826.047945 -0.474840462 -0.068639278 0.005614947 0.025460748 -0.030213797 0.042656023 0.998308241
1341845826.079731 -0.483425856 -0.065594599 0.000876438 0.026986917 -0.030588135 0.044731453 0.998165905
1341845826.115655 -0.477938294 -0.067636617 0.005129355 0.026476786 -0.033498418 0.045405604 0.998055696
1341845826.147949 -0.477105439 -0.066341422 -0.002881404 0.027057197 -0.032828398 0.040634986 0.998268008
1341845826.183767 -0.483503401 -0.064433791 -0.000831030 0.025953365 -0.032177217 0.035869207 0.998501122
1341845826.215780 -0.485022992 -0.064870760 -0.000460518 0.024688682 -0.033477981 0.035166942 0.998515368
1341845826.247732 -0.488147169 -0.062088054 0.001770967 0.024828533 -0.034198746 0.039911043 0.998309135
1341845826.283763 -0.493036926 -0.066460192 -0.007599195 0.023483610 -0.036455937 0.044851173 0.998052061
1341845826.315658 -0.489625812 -0.066512845 0.000513913 0.023109227 -0.040172957 0.046378721 0.997848272
1341845826.347773 -0.494844705 -0.065575883 -0.003389776 0.022097385 -0.041372355 0.046214078 0.997829795
1341845826.383718 -0.493934602 -0.067311518 -0.000585420 0.020763913 -0.044556074 0.047488492 0.997661471
1341845826.415712 -0.493993133 -0.072682209 -0.002701162 0.020499106 -0.047259085 0.049372975 0.997451067
1341845826.447806 -0.495410502 -0.070864737 -0.003253538 0.021701748 -0.049432863 0.049081054 0.997334659
1341845826.483677 -0.497682124 -0.067749053 -0.001999036 0.021587132 -0.049914550 0.048844140 0.997324824
1341845826.515677 -0.501187027 -0.069545843 -0.005205211 0.021146534 -0.050878339 0.052393120 0.997105420
1341845826.551684 -0.495411396 -0.067858525 -0.002830676 0.019696396 -0.051901139 0.050319500 0.997189164
1341845826.583716 -0.501000285 -0.070664547 -0.005196740 0.018021440 -0.050702218 0.048561271 0.997369707
1341845826.615875 -0.503879905 -0.071507409 -0.003750987 0.016757511 -0.053576052 0.052737817 0.997029305
1341845826.651722 -0.498906136 -0.069366008 -0.006612891 0.016955988 -0.054551672 0.055753008 0.996809006
1341845826.683753 -0.504141867 -0.063558161 -0.006389789 0.014240277 -0.054553717 0.052771918 0.997013628
1341845826.715643 -0.502188981 -0.064528964 -0.002075184 0.010231587 -0.055713844 0.049773067 0.997152925
1341845826.751884 -0.505494297 -0.061270267 -0.010494264 0.007136206 -0.054757278 0.051184539 0.997161388
1341845826.783713 -0.504737675 -0.062030040 -0.007010988 0.003749828 -0.056374583 0.053153343 0.996986747
1341845826.819713 -0.496397257 -0.056391023 -0.011528084 0.000441332 -0.055055834 0.049838141 0.997238636
1341845826.851701 -0.503386319 -0.058943212 0.001301473 -0.004844839 -0.051429521 0.050168555 0.997403979
1341845826.884460 -0.503192484 -0.058522128 0.004543400 -0.005917641 -0.053432550 0.056382935 0.996960819
1341845826.945792 -0.501227558 -0.049642120 0.001885674 -0.016793016 -0.045609139 0.046834849 0.997719526
1341845826.981873 -0.507786632 -0.057052471 0.006517722 -0.020885816 -0.046934765 0.052215949 0.997313619
1341845827.013745 -0.501033902 -0.045030832 0.000783781 -0.020981528 -0.048091862 0.058446098 0.996910751
1341845827.045694 -0.486713320 -0.031622600 -0.009249053 -0.026702443 -0.044621393 0.060553309 0.996809483
1341845827.082458 -0.504182875 -0.039802257 0.008586075 -0.035874922 -0.039637499 0.053071041 0.997158647
1341845827.113645 -0.502214372 -0.048753601 0.012978674 -0.036993425 -0.042737424 0.058301836 0.996697485
1341845827.145773 -0.492719531 -0.039805021 0.003832892 -0.036787353 -0.042490620 0.059009470 0.996674001
1341845827.182474 -0.500307858 -0.042468723 0.017441405 -0.042077232 -0.038058061 0.051734284 0.997047961
1341845827.213974 -0.499243945 -0.052136239 0.021065537 -0.041746989 -0.038442805 0.053016268 0.996979773
1341845827.251751 -0.495287001 -0.043129198 0.018141100 -0.037675623 -0.038427338 0.056651037 0.996942639
1341845827.313888 -0.496114701 -0.050073985 0.024084266 -0.047951311 -0.031587817 0.054544251 0.996858954
1341845827.349700 -0.494661987 -0.047528852 0.023181109 -0.042501517 -0.034512658 0.060236115 0.996681571
1341845827.381963 -0.489052773 -0.038884420 0.025205849 -0.041725297 -0.034474179 0.059018545 0.996788502
1341845827.413850 -0.489202321 -0.045438357 0.026679562 -0.043711737 -0.032090779 0.055132139 0.997005463
1341845827.449725 -0.491949111 -0.048600730 0.024292592 -0.042499904 -0.031619806 0.053310007 0.997171998
1341845827.488394 -0.490872622 -0.047516733 0.028140277 -0.039143857 -0.033785783 0.055562824 0.997115374
1341845827.555964 -0.486153901 -0.044106368 0.031069474 -0.037166607 -0.032056276 0.051937923 0.997443497
1341845827.623688 -0.482533067 -0.047633711 0.025933115 -0.033399567 -0.032247487 0.056421064 0.997327030
1341845827.656212 -0.479385138 -0.039989077 0.020615106 -0.034080397 -0.031774960 0.053595461 0.997475028
1341845827.687624 -0.476355046 -0.041892201 0.029299816 -0.037941273 -0.028860087 0.045448229 0.997828662
1341845827.723697 -0.476307958 -0.051141731 0.027382525 -0.037539694 -0.026362834 0.048732877 0.997757912
1341845827.755778 -0.473221570 -0.044731706 0.031691659 -0.034962215 -0.025961703 0.051996678 0.997697353
1341845827.791657 -0.463969886 -0.045417804 0.027553137 -0.035161637 -0.023659503 0.051193297 0.997789145
1341845827.823845 -0.465285808 -0.046751872 0.034573164 -0.035627257 -0.019427704 0.049938459 0.997927547
1341845827.855606 -0.462632507 -0.049741689 0.033384003 -0.033689182 -0.018499978 0.052223016 0.997895539
1341845827.891685 -0.452012599 -0.049580205 0.029565662 -0.031139111 -0.016365707 0.053592205 0.997943103
1341845827.923824 -0.451968163 -0.044103082 0.033215690 -0.029894719 -0.011520223 0.052484769 0.998107672
1341845827.959777 -0.449369788 -0.048163671 0.036854770 -0.030011645 -0.008686369 0.053196143 0.998095214
1341845827.991672 -0.444247663 -0.044032753 0.034942582 -0.028250650 -0.006518607 0.055073414 0.998061299
1341845828.023726 -0.438774198 -0.043093257 0.036994137 -0.029859321 -0.002684376 0.054143582 0.998082995
1341845828.059622 -0.437966883 -0.044115830 0.040589076 -0.030636815 0.001039277 0.054161604 0.998061538
1341845828.091720 -0.433681846 -0.043618653 0.045755755 -0.030502051 0.002878632 0.054682497 0.998033643
1341845828.127612 -0.428677619 -0.040935375 0.042064626 -0.030544495 0.004162480 0.055635884 0.997975111
1341845828.159638 -0.425667018 -0.040661141 0.042949185 -0.031789035 0.006480489 0.055628665 0.997924268
1341845828.191711 -0.416000962 -0.043424916 0.049924627 -0.032063384 0.008507676 0.053479873 0.998017788
1341845828.227644 -0.409941137 -0.043057095 0.044548098 -0.030762866 0.009738421 0.054040760 0.998017251
1341845828.259785 -0.408346951 -0.040082436 0.048911672 -0.030154489 0.012631807 0.056752395 0.997852862
1341845828.291687 -0.405544400 -0.043121394 0.051673878 -0.029158419 0.014251735 0.059480473 0.997701764
1341845828.327803 -0.400120139 -0.039717980 0.047137856 -0.028210506 0.015937334 0.058540232 0.997759104
1341845828.359694 -0.395350486 -0.037996583 0.051587902 -0.029195292 0.017644968 0.058746394 0.997689903
1341845828.395928 -0.392087013 -0.040717643 0.051101349 -0.029201528 0.020340186 0.060278881 0.997547030
1341845828.427803 -0.389931560 -0.038369562 0.052757233 -0.028998673 0.021835072 0.059590619 0.997562647
1341845828.459660 -0.384299278 -0.039689757 0.050437026 -0.028623886 0.023041096 0.060268205 0.997505665
1341845828.495761 -0.378848523 -0.036246080 0.051095307 -0.027654303 0.025013492 0.061292812 0.997423053
1341845828.527686 -0.376190841 -0.029787980 0.056134883 -0.029086951 0.026506197 0.060442358 0.997395694
1341845828.595750 -0.366076559 -0.035335094 0.056622587 -0.029956980 0.028886458 0.060554303 0.997297049
1341845828.654055 -0.357027292 -0.036556542 0.057393383 -0.032368574 0.032178719 0.061276529 0.997076750
1341845828.689681 -0.353866637 -0.030000051 0.058722474 -0.030163828 0.033336829 0.061140388 0.997116148
1341845828.721870 -0.350737095 -0.025584124 0.059820510 -0.030415079 0.033495024 0.061449509 0.997084260
1341845828.757706 -0.346367657 -0.028714912 0.060711149 -0.031385459 0.034492090 0.063817598 0.996871412
1341845828.789650 -0.346249014 -0.029742120 0.061876372 -0.030706655 0.034975078 0.067104340 0.996659875
1341845828.821914 -0.341337204 -0.024382666 0.059538543 -0.029813327 0.033379048 0.068760149 0.996628821
1341845828.857781 -0.335811645 -0.022587420 0.060295671 -0.030481290 0.032713499 0.069844931 0.996555269
1341845828.889770 -0.330994219 -0.025319016 0.059714664 -0.030787550 0.032417502 0.070674889 0.996497035
1341845828.931671 -0.332898200 -0.023890410 0.061166868 -0.030651951 0.031983230 0.070387669 0.996535540
1341845828.989696 -0.321010977 -0.026555084 0.057780195 -0.028987151 0.028704468 0.069656365 0.996736586
1341845829.025626 -0.317523569 -0.020096777 0.054758541 -0.028310915 0.027647380 0.067720018 0.996919334
1341845829.063840 -0.309795171 -0.020202020 0.056123491 -0.029264305 0.027457478 0.065874502 0.997020662
1341845829.089737 -0.305477768 -0.018335890 0.055452421 -0.029219963 0.028051132 0.066665456 0.996952891
1341845829.125754 -0.299136370 -0.020843295 0.052600220 -0.029988945 0.027484113 0.067017727 0.996922195
1341845829.158048 -0.287003577 -0.020664237 0.051380374 -0.029371923 0.028080797 0.065847337 0.997001946
1341845829.193669 -0.287237763 -0.024198720 0.053398006 -0.027663544 0.030304775 0.068053730 0.996837497
1341845829.225742 -0.281316310 -0.024950571 0.052471031 -0.024067447 0.029943150 0.070967197 0.996738613
1341845829.257763 -0.278253406 -0.023140367 0.052736569 -0.021171825 0.029463004 0.071093068 0.996809661
1341845829.293851 -0.271591932 -0.022172278 0.048787568 -0.018849632 0.028748116 0.069647662 0.996979177
1341845829.325861 -0.270243406 -0.024324710 0.047893506 -0.016719528 0.028086182 0.068968385 0.997083247
1341845829.357901 -0.264046937 -0.024600521 0.047012869 -0.013594514 0.024991198 0.068698168 0.997231781
1341845829.393704 -0.256499767 -0.022295099 0.040707704 -0.011640864 0.023542726 0.066541187 0.997437954
1341845829.425831 -0.255228400 -0.018776026 0.041316811 -0.011536286 0.022671293 0.064056590 0.997622013
1341845829.461720 -0.246049464 -0.029172732 0.041995134 -0.012567099 0.020790031 0.064795136 0.997602820
1341845829.493662 -0.245188519 -0.029360801 0.041321635 -0.006657398 0.018662693 0.068848930 0.997430325
1341845829.525846 -0.241578385 -0.013946272 0.038035117 -0.004480853 0.016658073 0.066034086 0.997668266
1341845829.561864 -0.233256772 -0.012163149 0.037654165 -0.007209480 0.016690990 0.063235112 0.997833014
1341845829.593763 -0.229679152 -0.021910192 0.041106250 -0.008891438 0.017720168 0.063719317 0.997770905
1341845829.625785 -0.224929586 -0.028347218 0.041279647 -0.004622785 0.016478248 0.065936461 0.997677028
1341845829.661787 -0.222210929 -0.014499384 0.035022836 -0.000784965 0.014104327 0.065625399 0.997744322
1341845829.693835 -0.210951090 -0.005740935 0.035162080 -0.003882509 0.015560958 0.059863545 0.998077750
1341845829.729747 -0.213429004 -0.015631856 0.038911052 -0.007124792 0.017607970 0.056335542 0.998231232
1341845829.761817 -0.213567615 -0.023929283 0.033347361 -0.003489369 0.012419864 0.057858270 0.998241425
1341845829.793840 -0.203917384 -0.016390583 0.034538951 0.000263742 0.006617728 0.057136353 0.998344421
1341845829.829803 -0.191543221 -0.013850913 0.035182122 0.000460343 0.007300945 0.052615009 0.998588085
1341845829.861640 -0.206233323 -0.013044112 0.030107463 -0.000342841 0.006868424 0.051262442 0.998661518
1341845829.897840 -0.188601851 -0.020620909 0.037204877 0.000889364 -0.000171781 0.054053087 0.998537660
1341845829.929703 -0.176485762 -0.010572668 0.031313255 0.004906501 -0.000080150 0.054866284 0.998481631
1341845829.962023 -0.184862986 -0.013012525 0.027354032 0.002673019 0.002149479 0.055353209 0.998460948
1341845829.997954 -0.173977032 -0.022335852 0.032875679 0.004310584 -0.002654540 0.058248457 0.998289287
1341845830.029819 -0.162560716 -0.017553814 0.034437802 0.011266303 -0.003436568 0.057332434 0.998285651
1341845830.061836 -0.165289268 -0.006304748 0.027716847 0.011924211 -0.001011675 0.057257757 0.998287678
1341845830.097885 -0.158663660 -0.017178880 0.031003764 0.009307010 -0.000847033 0.057558507 0.998298347
1341845830.129668 -0.154270381 -0.018109219 0.032325104 0.015210783 -0.000005062 0.059983455 0.998083472
1341845830.165590 -0.158271551 -0.011912594 0.024548983 0.018524867 -0.001424288 0.062419500 0.997877061
1341845830.197779 -0.148780301 -0.014608590 0.031152492 0.016983654 -0.007604672 0.066744432 0.997596562
1341845830.229883 -0.137009934 -0.011339431 0.028576942 0.019427659 -0.006866997 0.066829510 0.997551620
1341845830.265730 -0.145050973 -0.005288911 0.025407003 0.018214878 -0.005230921 0.066812128 0.997585595
1341845830.297873 -0.136798844 -0.015872501 0.027579438 0.017506083 -0.008774245 0.071140066 0.997274101
1341845830.329863 -0.126590878 -0.012963030 0.024760807 0.020543050 -0.009973196 0.071921706 0.997148812
1341845830.365740 -0.128022090 -0.006216128 0.027935192 0.020433675 -0.009603215 0.071869008 0.997158527
1341845830.397779 -0.118795082 -0.009362349 0.024324605 0.019087195 -0.012341204 0.071123369 0.997208536
1341845830.433725 -0.103379317 -0.012955632 0.022225579 0.019511148 -0.012075471 0.067996033 0.997421682
1341845830.465762 -0.105054326 -0.008788818 0.022544576 0.020633174 -0.010526848 0.067150787 0.997473955
1341845830.507859 -0.101009503 -0.013168050 0.026895758 0.021633361 -0.012877117 0.068798579 0.997312844
1341845830.565943 -0.084048130 -0.002970016 0.020389626 0.023722924 -0.007319102 0.066459082 0.997480273
1341845830.597841 -0.079063542 -0.005908441 0.023869554 0.022908142 -0.008606087 0.069257967 0.997298598
1341845830.633627 -0.062075377 -0.009605989 0.020078642 0.024397051 -0.009660793 0.070318714 0.997179389
1341845830.665700 -0.061579503 -0.002115904 0.017556498 0.025454530 -0.007277566 0.068857536 0.997275174
1341845830.701788 -0.054933053 -0.000824786 0.020059764 0.024387430 -0.006672713 0.067739993 0.997382581
1341845830.733901 -0.044058319 0.003050047 0.016023317 0.023119187 -0.004724086 0.063612841 0.997695684
1341845830.765759 -0.040075317 0.002391344 0.016803790 0.020915290 -0.002590822 0.059794057 0.997988224
1341845830.801839 -0.029641761 -0.003888270 0.017557828 0.019757645 -0.000440507 0.057967339 0.998122871
1341845830.833774 -0.032862134 -0.002009433 0.022921192 0.021868097 0.002738278 0.057734236 0.998088717
1341845830.865751 -0.026485605 0.001041873 0.015798239 0.022300832 0.003344484 0.055937737 0.998179555
1341845830.901883 -0.018973881 -0.003043945 0.019448038 0.020084186 0.005871903 0.051695559 0.998443663
1341845830.933811 -0.018964924 -0.003164297 0.018034620 0.021323700 0.007786144 0.052045077 0.998386681
1341845830.969705 -0.015645865 0.003791934 0.014680100 0.023146657 0.007125929 0.051815618 0.998362958
1341845831.001855 -0.009945436 0.006181672 0.014302674 0.021632850 0.006981426 0.048437811 0.998567522
1341845831.033886 -0.003931625 0.002906851 0.018466864 0.020370932 0.008097304 0.045282092 0.998733699
1341845831.069727 -0.002008230 0.000756974 0.018132733 0.020802621 0.009330318 0.044820745 0.998734832
1341845831.101853 0.002429386 0.003396489 0.013169933 0.021540847 0.009397367 0.044904280 0.998714805
1341845831.137817 0.015129474 0.007089519 0.012525687 0.020530600 0.010454013 0.043738853 0.998777330
1341845831.169942 0.011619534 0.003262816 0.015417253 0.019289883 0.013108624 0.042368505 0.998829782
1341845831.201715 0.016899919 -0.001261341 0.015227704 0.020703606 0.012177702 0.044961732 0.998699903
1341845831.237723 0.025523124 0.001807708 0.009981798 0.023248231 0.011719651 0.045380466 0.998630464
1341845831.269903 0.029387278 0.004458009 0.007812642 0.022645412 0.011785508 0.044742092 0.998672307
1341845831.301755 0.030877531 0.002765137 0.009319289 0.021887992 0.008850798 0.045336664 0.998692751
1341845831.337779 0.037731268 -0.000475106 0.008143644 0.022578789 0.005038326 0.044981416 0.998719931
1341845831.369742 0.045449566 0.002692639 0.005786760 0.023937354 0.001382837 0.043972682 0.998744965
1341845831.405710 0.056779962 0.009265237 0.006314780 0.023169776 0.000718986 0.041839834 0.998855352
1341845831.437646 0.059843585 0.003370794 0.004380055 0.021061366 0.003338107 0.038916718 0.999014914
1341845831.469752 0.061074845 -0.005058148 0.001629390 0.021194469 0.003497111 0.039888408 0.998973191
1341845831.505745 0.071628369 0.002057986 -0.001892338 0.022503832 0.001808676 0.039630830 0.998959303
1341845831.537844 0.082212798 0.006770709 -0.001836892 0.019316902 0.004916269 0.035005391 0.999188304
1341845831.569610 0.080264561 0.003660001 0.003015794 0.016354520 0.007737936 0.034212913 0.999250770
1341845831.605848 0.080966540 0.000247641 0.000631121 0.016053608 0.008227959 0.034578934 0.999239147
1341845831.637789 0.091991253 0.011179745 -0.006513954 0.015215103 0.008561155 0.034748834 0.999243557
1341845831.673597 0.110557131 0.012391629 -0.002271989 0.009538131 0.010769410 0.033379931 0.999339163
1341845831.705652 0.110252127 0.002656651 0.004655428 0.005885208 0.015872588 0.034612354 0.999257445
1341845831.737705 0.108784504 0.002641341 0.004900336 0.006304716 0.018941397 0.038579412 0.999056101
1341845831.773629 0.114273004 0.008291047 0.001054268 0.006131806 0.020312281 0.041702278 0.998904765
1341845831.805810 0.119624443 0.012784430 -0.001140208 0.003931348 0.022722324 0.042507645 0.998829961
1341845831.837719 0.117968909 0.012456514 0.001714831 0.001061505 0.024185993 0.043782003 0.998747766
1341845831.873791 0.128646612 0.011827652 0.003097247 0.000077223 0.022834506 0.045369059 0.998709261
1341845831.905728 0.136264995 0.015120837 -0.000200824 -0.002619058 0.024650460 0.043060400 0.998764873
1341845831.941628 0.138739124 0.011257930 0.000849447 -0.004593821 0.026378896 0.042052694 0.998756528
1341845831.973784 0.150334686 0.013973327 0.003622930 -0.004779418 0.027803265 0.042044081 0.998717368
1341845832.005729 0.156417206 0.011499295 -0.002136844 -0.004954948 0.029967746 0.040362723 0.998723269
1341845832.041627 0.160588980 0.018126337 -0.000318693 -0.005478450 0.032908205 0.038560849 0.998699188
1341845832.073865 0.160921052 0.014431591 -0.001495933 -0.007524879 0.036364440 0.036574915 0.998640716
1341845832.109730 0.161134347 0.012917243 -0.000574494 -0.006942635 0.036238648 0.038089003 0.998592913
1341845832.141683 0.173876360 0.017905686 -0.004106814 -0.004477878 0.034836784 0.038745157 0.998631656
1341845832.173988 0.175143212 0.024662681 -0.006664469 -0.005171307 0.037455380 0.036562093 0.998615861
1341845832.209956 0.172793642 0.018218219 -0.005849924 -0.006523176 0.036456499 0.037053611 0.998626769
1341845832.241796 0.185357466 0.024873497 -0.005827801 -0.005126125 0.033313442 0.038685806 0.998682797
1341845832.273776 0.198111460 0.033029456 -0.010222730 -0.005805897 0.033110414 0.037199114 0.998742282
1341845832.309916 0.189916819 0.029246124 -0.013232700 -0.009736679 0.035972908 0.035964761 0.998657942
1341845832.341687 0.191990465 0.027888330 -0.008755310 -0.011295769 0.034678239 0.037281647 0.998639047
1341845832.377708 0.203996181 0.034785792 -0.009083935 -0.011764908 0.032798853 0.038774312 0.998640239
1341845832.409802 0.204700857 0.033425678 -0.012391808 -0.014161069 0.032840844 0.038774256 0.998607755
1341845832.442187 0.216016129 0.030488148 -0.015112686 -0.016048409 0.031263795 0.039793316 0.998589754
1341845832.477743 0.218191788 0.032312024 -0.019525090 -0.016867546 0.031594582 0.039748330 0.998567641
1341845832.509635 0.224555209 0.034579229 -0.017489271 -0.017880147 0.031185422 0.041147731 0.998506188
1341845832.541586 0.230763942 0.034696031 -0.021104040 -0.018950835 0.032008562 0.041837197 0.998431742
1341845832.577871 0.230012402 0.034360185 -0.025898162 -0.019302579 0.032928903 0.042570941 0.998364091
1341845832.609738 0.235847786 0.037189759 -0.024405321 -0.019026665 0.032092839 0.042978294 0.998379171
1341845832.645699 0.240939230 0.040230159 -0.029079381 -0.019572448 0.032840244 0.042483363 0.998365462
1341845832.677817 0.241901025 0.046602983 -0.025746346 -0.021373924 0.033215038 0.043102406 0.998289585
1341845832.710177 0.247801095 0.042422105 -0.019746181 -0.023158327 0.033695851 0.043692451 0.998208046
1341845832.745710 0.252475709 0.042574685 -0.022019990 -0.023424897 0.034770615 0.044568192 0.998126209
1341845832.777849 0.257830948 0.046493322 -0.017435096 -0.024031134 0.036108602 0.046967745 0.997954249
1341845832.810110 0.270147443 0.047025390 -0.023494935 -0.025390379 0.036430687 0.049091108 0.997806728
1341845832.845797 0.272965580 0.049042393 -0.024458496 -0.026988473 0.038630519 0.049107186 0.997681201
1341845832.877696 0.271172285 0.045097955 -0.021891300 -0.027886970 0.040765438 0.049881913 0.997533083
1341845832.913787 0.275375605 0.048242830 -0.025796188 -0.027158910 0.041003812 0.050578654 0.997508347
1341845832.945664 0.275549352 0.048140243 -0.026954699 -0.028746119 0.043435272 0.047861852 0.997494996
1341845832.978015 0.274361432 0.047759462 -0.023142623 -0.029345172 0.044647835 0.048874989 0.997374892
1341845833.045857 0.292860389 0.054944593 -0.027553855 -0.030164998 0.044067528 0.049898930 0.997325540
1341845833.077785 0.293462425 0.053020075 -0.027424753 -0.031995840 0.046417013 0.048569389 0.997227550
1341845833.113636 0.307095945 0.051090896 -0.026207948 -0.032165308 0.047001965 0.049161881 0.997165620
1341845833.145767 0.313521206 0.058091559 -0.039662428 -0.031792846 0.048905171 0.049038786 0.997092128
1341845833.181891 0.323549032 0.061137635 -0.036893465 -0.035584155 0.050687205 0.047081552 0.996969342
1341845833.213878 0.319412738 0.055029634 -0.031761333 -0.037430190 0.053199574 0.047465537 0.996752620
1341845833.245714 0.324012756 0.052200627 -0.038684919 -0.035948332 0.051131915 0.050098881 0.996786535
1341845833.281847 0.340181142 0.049986187 -0.038329784 -0.032598466 0.050656818 0.050953683 0.996882617
1341845833.313771 0.342401683 0.055330426 -0.046565302 -0.030245984 0.054173939 0.049847674 0.996827781
1341845833.349756 0.347007692 0.057055011 -0.048381653 -0.031430341 0.055190124 0.051285774 0.996662438
1341845833.381840 0.357647091 0.057229973 -0.042934079 -0.032055683 0.057032332 0.051288024 0.996538639
1341845833.414644 0.358438909 0.057264864 -0.053936414 -0.032781865 0.060769089 0.049870685 0.996366084
1341845833.449819 0.354032725 0.053351354 -0.050215449 -0.033776335 0.060817681 0.051802881 0.996231318
1341845833.488616 0.368364275 0.056555331 -0.049371623 -0.032311425 0.059740540 0.051992882 0.996335208
1341845833.549835 0.366525531 0.054539230 -0.051602364 -0.036143992 0.061328582 0.051206425 0.996147752
1341845833.581733 0.377694547 0.053811565 -0.053483505 -0.033113241 0.058731351 0.052455634 0.996344626
1341845833.617817 0.374912947 0.063220285 -0.050844669 -0.031919539 0.058685485 0.053012703 0.996356785
1341845833.649899 0.374416560 0.063685291 -0.047270842 -0.034505680 0.057741404 0.052558757 0.996349752
1341845833.681671 0.385092348 0.056293573 -0.046873946 -0.034646366 0.057055905 0.052517358 0.996386588
1341845833.717606 0.380288899 0.062360696 -0.056279525 -0.032747373 0.056253824 0.055222545 0.996350169
1341845833.752940 0.385444999 0.066532329 -0.052083172 -0.034671314 0.053301156 0.053639803 0.996533811
1341845833.817827 0.383806914 0.063090421 -0.049198300 -0.038234647 0.054754343 0.053243831 0.996345878
1341845833.849860 0.387359411 0.061267953 -0.048569366 -0.037945632 0.052933659 0.053580225 0.996437311
1341845833.885667 0.393939346 0.059976093 -0.048274260 -0.037790172 0.053937811 0.051862828 0.996480227
1341845833.917724 0.386606723 0.065056041 -0.046160392 -0.039408561 0.055712625 0.051507574 0.996338308
1341845833.949675 0.390981376 0.058136288 -0.041414898 -0.039783571 0.054226428 0.052868612 0.996334136
1341845833.985662 0.393194050 0.059511181 -0.047246300 -0.037584368 0.055728372 0.050843388 0.996442020
1341845834.018158 0.387760460 0.066338420 -0.049956117 -0.039326768 0.057165448 0.049865428 0.996342778
1341845834.049769 0.383807123 0.057943150 -0.049177069 -0.041450556 0.055982772 0.048636045 0.996384621
1341845834.085753 0.387159914 0.060984511 -0.049183305 -0.040671375 0.055537712 0.046359375 0.996550143
1341845834.153871 0.382005811 0.062356681 -0.047978621 -0.042536583 0.057330173 0.046646360 0.996357381
1341845834.185736 0.380114257 0.060255926 -0.046585590 -0.043542843 0.057773281 0.044153128 0.996401906
1341845834.217802 0.372781038 0.062192947 -0.052327666 -0.044263069 0.058929268 0.042932626 0.996355832
1341845834.253824 0.364267379 0.066268407 -0.055393189 -0.047416922 0.057539746 0.041165072 0.996366501
1341845834.285756 0.362477213 0.057830255 -0.044728186 -0.050973348 0.055187400 0.039762091 0.996380985
1341845834.321783 0.362253338 0.052591052 -0.042889986 -0.049052246 0.054830134 0.040037580 0.996486068
1341845834.355135 0.355317086 0.048162270 -0.041636843 -0.043677386 0.055711448 0.042810425 0.996572018
1341845834.385801 0.353734046 0.059045117 -0.046104312 -0.039766833 0.055823185 0.044137884 0.996671557
1341845834.421748 0.346781015 0.058324464 -0.047156539 -0.040360004 0.057095375 0.042552572 0.996644616
1341845834.453840 0.331769168 0.056748647 -0.045119204 -0.041129414 0.056766853 0.040645018 0.996711552
1341845834.485639 0.330631018 0.054868136 -0.039400429 -0.041359857 0.054451790 0.038474571 0.996917307
1341845834.521785 0.326168746 0.055715524 -0.039560724 -0.040550411 0.054237787 0.037540276 0.996997833
1341845834.553727 0.317190975 0.055143431 -0.041905023 -0.041229427 0.054842182 0.037265245 0.996947229
1341845834.589787 0.305767924 0.049021620 -0.041519478 -0.041706022 0.053149853 0.037482854 0.997010887
1341845834.621791 0.304027051 0.054035265 -0.040729467 -0.039431173 0.050255854 0.038297422 0.997222543
1341845834.653808 0.301470995 0.058863871 -0.046993945 -0.041212507 0.050473969 0.034717277 0.997270584
1341845834.689847 0.287531495 0.053812645 -0.043970726 -0.044797413 0.050659869 0.032178856 0.997191668
1341845834.721856 0.280661255 0.045202054 -0.042157192 -0.045823649 0.047420066 0.032304935 0.997300327
1341845834.753919 0.277793437 0.039775480 -0.035519846 -0.043408498 0.044977672 0.032577004 0.997512639
1341845834.789834 0.272824138 0.049576711 -0.040194418 -0.041211236 0.045535646 0.031757418 0.997606933
1341845834.821826 0.258398235 0.045207400 -0.042086333 -0.043132383 0.045761235 0.031391706 0.997527003
1341845834.857804 0.250086010 0.046203509 -0.031035412 -0.043383107 0.042650674 0.031522904 0.997649789
1341845834.889796 0.242863044 0.041348681 -0.031663544 -0.043945756 0.041443892 0.029605888 0.997734785
1341845834.921771 0.230767548 0.038664468 -0.033040348 -0.043260898 0.040683564 0.029523483 0.997798443
1341845834.957942 0.220577851 0.039361004 -0.033830933 -0.042112719 0.037691794 0.029315092 0.997971177
1341845834.989806 0.214240506 0.039056491 -0.029554229 -0.041278012 0.034928989 0.028591523 0.998127520
1341845835.021804 0.207231984 0.036649361 -0.027480753 -0.040388122 0.032203164 0.029195642 0.998238146
1341845835.058003 0.202234671 0.033060424 -0.036446933 -0.038848579 0.030317415 0.029608587 0.998346090
1341845835.089820 0.186596096 0.039485496 -0.035237957 -0.036508355 0.028652679 0.030595876 0.998453856
1341845835.125663 0.179583639 0.042493828 -0.029653829 -0.036699317 0.025132153 0.031205865 0.998522758
1341845835.157750 0.172838852 0.037247367 -0.031746052 -0.038469121 0.022675501 0.030115945 0.998548448
1341845835.189830 0.159620643 0.025289288 -0.023150625 -0.037694383 0.021280224 0.029451011 0.998628497
1341845835.225912 0.154441014 0.027788395 -0.028058445 -0.033191130 0.017652828 0.031184966 0.998806417
1341845835.258001 0.149700820 0.035748806 -0.029517965 -0.031946450 0.015653767 0.030888665 0.998889506
1341845835.290164 0.136810094 0.029892376 -0.028043639 -0.033578306 0.014264300 0.028785702 0.998919606
1341845835.325788 0.127329960 0.030540559 -0.021502476 -0.031639531 0.010900508 0.030323369 0.998979807
1341845835.363902 0.123399079 0.030341826 -0.023914004 -0.030051386 0.008959680 0.028483361 0.999102235
1341845835.431742 0.098286837 0.028691746 -0.026194084 -0.029804563 0.004602959 0.025679635 0.999215245
1341845835.493790 0.088963076 0.018652892 -0.022429937 -0.027566509 -0.000783447 0.026202681 0.999276161
1341845835.527633 0.073670954 0.025641449 -0.023513781 -0.025802925 -0.002765410 0.028036628 0.999269962
1341845835.561788 0.073084243 0.026165707 -0.025511352 -0.026930287 -0.008338318 0.027592454 0.999221683
1341845835.594173 0.071132265 0.021831052 -0.020567546 -0.028300894 -0.009378739 0.025940342 0.999218762
1341845835.625859 0.059064236 0.018397935 -0.014457864 -0.026194949 -0.008622784 0.027192432 0.999249756
1341845835.661923 0.050881758 0.016174311 -0.021320719 -0.021853320 -0.012043218 0.030747548 0.999215662
1341845835.693994 0.052323651 0.018389998 -0.012308053 -0.019048594 -0.014156700 0.031329874 0.999227285
1341845835.725724 0.044833802 0.017971884 -0.015265872 -0.017261457 -0.011519116 0.031120857 0.999300182
1341845835.761816 0.029076071 0.013637738 -0.018438496 -0.014486263 -0.012193911 0.033884004 0.999246359
1341845835.793927 0.030539751 0.023456225 -0.015211246 -0.011406694 -0.015703700 0.036487687 0.999145627
1341845835.829809 0.029271523 0.023373900 -0.017528296 -0.012151941 -0.015567208 0.035220049 0.999184430
1341845835.868224 0.016744791 0.016203262 -0.018176127 -0.012224752 -0.014472355 0.036368601 0.999158859
1341845835.903857 0.002504505 0.013468442 -0.020839643 -0.009675089 -0.017429156 0.039075378 0.999037385
1341845835.935727 0.011353606 0.020144382 -0.020192599 -0.008484351 -0.019629136 0.039657786 0.998984456
1341845835.967812 0.001696798 0.013500068 -0.019190364 -0.008751700 -0.017228980 0.038064841 0.999088407
1341845836.003789 -0.012181402 0.008834479 -0.018396081 -0.005828300 -0.017142283 0.041605130 0.998970091
1341845836.035920 -0.010293234 0.013953164 -0.021971911 -0.002445243 -0.018673960 0.042227447 0.998930514
1341845836.067671 -0.014607569 0.016917583 -0.017921053 -0.002328895 -0.016729146 0.040213827 0.999048352
1341845836.104034 -0.030009080 0.010932758 -0.018013921 -0.001423522 -0.016622372 0.040805690 0.999027789
1341845836.135769 -0.041019458 0.012601716 -0.020916751 0.001021226 -0.019644227 0.041314945 0.998952508
1341845836.172097 -0.036385804 0.017324664 -0.023821026 0.000940009 -0.023370212 0.040167335 0.998919189
1341845836.203642 -0.038848646 0.012778148 -0.018839518 -0.000754254 -0.022563236 0.039081264 0.998980999
1341845836.235687 -0.054396052 0.005198406 -0.020818187 0.000730265 -0.021943603 0.040495716 0.998938441
1341845836.271774 -0.055946894 0.007639055 -0.024016749 0.003996360 -0.026438024 0.043875460 0.998679101
1341845836.303797 -0.060594350 0.011289551 -0.027105559 0.004881144 -0.027758462 0.043562531 0.998653054
1341845836.335742 -0.059105873 0.010510782 -0.026425529 0.003327175 -0.026712652 0.043409228 0.998694658
1341845836.372549 -0.068284214 0.002531470 -0.023422595 0.004448527 -0.023902487 0.046524394 0.998621225
1341845836.403992 -0.073483974 0.008450158 -0.028659998 0.008425513 -0.023854630 0.049846347 0.998436451
1341845836.435705 -0.072335079 0.008854217 -0.026494712 0.009047358 -0.021914231 0.050867405 0.998423994
1341845836.471817 -0.080417246 0.012528773 -0.030909725 0.009734661 -0.018173115 0.050444093 0.998514116
1341845836.503945 -0.092073090 0.012222546 -0.030984903 0.009917387 -0.017974284 0.052077129 0.998432040
1341845836.539832 -0.095110841 0.014019059 -0.034090351 0.010521268 -0.019795172 0.052589491 0.998364568
1341845836.571973 -0.095120855 0.013125112 -0.035145786 0.009207955 -0.020008737 0.052266207 0.998390257
1341845836.604373 -0.099299967 0.014955864 -0.035840455 0.007594387 -0.019583270 0.051041260 0.998475611
1341845836.639724 -0.103787147 0.006534827 -0.032008044 0.005453911 -0.020016907 0.049693283 0.998548985
1341845836.672049 -0.098739721 -0.000336861 -0.033866312 0.007096302 -0.021119500 0.049342159 0.998533368
1341845836.704020 -0.103940897 -0.003158823 -0.032847017 0.009559453 -0.020440018 0.049024720 0.998542666
1341845836.739779 -0.103795275 -0.017977869 -0.034371890 0.013548840 -0.021078687 0.051826790 0.998341680
1341845836.771652 -0.102520004 -0.017773256 -0.027556498 0.023497280 -0.020779714 0.052300513 0.998138607
1341845836.803601 -0.107826129 -0.015732657 -0.028122656 0.029158819 -0.018911034 0.054417778 0.997913241
1341845836.839643 -0.113991156 -0.022123661 -0.031824023 0.031447016 -0.020019848 0.055182915 0.997780085
1341845836.871771 -0.108459450 -0.024838472 -0.025907900 0.035193507 -0.021764923 0.055722307 0.997588456
1341845836.907663 -0.102995552 -0.025833100 -0.028024429 0.036567416 -0.020173965 0.057524692 0.997470140
1341845836.939824 -0.111798212 -0.037747748 -0.030585092 0.036745459 -0.017859543 0.059812944 0.997373164
1341845836.971802 -0.106463633 -0.039312124 -0.035270505 0.039532959 -0.019582093 0.060457561 0.997195363
1341845837.007714 -0.095229991 -0.028379356 -0.041917328 0.037809677 -0.017430617 0.060921397 0.997273862
1341845837.039752 -0.106948003 -0.048209153 -0.021587590 0.031665757 -0.010451043 0.060552690 0.997607827
1341845837.071715 -0.110008843 -0.062126189 -0.024383401 0.035669979 -0.009732587 0.059970614 0.997515142
1341845837.107691 -0.104967505 -0.056447957 -0.022040138 0.038017120 -0.009012243 0.061462589 0.997344375
1341845837.139763 -0.102975689 -0.070977926 -0.016216651 0.037118189 -0.005722115 0.061473195 0.997401893
1341845837.171636 -0.108943164 -0.081839263 -0.020428043 0.041000947 -0.002667701 0.056841422 0.997537434
1341845837.207675 -0.107161559 -0.082060732 -0.032345671 0.041288517 -0.005540915 0.054077268 0.997667372
1341845837.239749 -0.105265088 -0.096912101 -0.028018959 0.038727116 -0.006115483 0.048343822 0.998060942
1341845837.275755 -0.098414578 -0.108567327 -0.028798742 0.039839491 -0.004836959 0.045278210 0.998167992
1341845837.307686 -0.105338670 -0.122847416 -0.035188939 0.043789979 -0.004776831 0.049786665 0.997788012
1341845837.339628 -0.102373734 -0.129668713 -0.028837051 0.048923705 -0.007171622 0.050539542 0.997497261
1341845837.375710 -0.097433411 -0.134381771 -0.029064763 0.053375434 -0.006188272 0.046922941 0.997452259
1341845837.407709 -0.092589296 -0.123239301 -0.043478094 0.054055039 -0.003430719 0.044695072 0.997531295
1341845837.439656 -0.101759851 -0.132503763 -0.035014760 0.047414705 -0.000139305 0.041381385 0.998017728
1341845837.475671 -0.096242726 -0.152246803 -0.032361448 0.043919086 0.000765313 0.039915752 0.998237073
1341845837.507973 -0.087861083 -0.156034052 -0.040204056 0.043743275 0.004100483 0.038672641 0.998285592
1341845837.543708 -0.096102282 -0.163272023 -0.041197479 0.039771378 0.009126006 0.036358867 0.998505354
1341845837.575706 -0.097251028 -0.175707504 -0.035573013 0.038448602 0.011011042 0.033374783 0.998642385
1341845837.607609 -0.091188848 -0.188654974 -0.039656881 0.038734853 0.013050822 0.030979093 0.998683929
1341845837.643704 -0.093423784 -0.194924146 -0.039312895 0.040326465 0.016060937 0.028828090 0.998641431
1341845837.675706 -0.092792608 -0.201235488 -0.035223912 0.042817272 0.017636020 0.026901592 0.998564959
1341845837.711803 -0.086934805 -0.205838829 -0.042135764 0.044501603 0.019098900 0.025484819 0.998501539
1341845837.743935 -0.086934507 -0.211534917 -0.040896896 0.044463940 0.021849433 0.023589851 0.998493433
1341845837.775698 -0.087303959 -0.218373045 -0.044244561 0.046983745 0.024415370 0.022499960 0.998343706
1341845837.811909 -0.084523544 -0.204230696 -0.045439873 0.049243663 0.026979258 0.022233536 0.998174727
1341845837.843915 -0.088094585 -0.222762689 -0.041587163 0.044450935 0.030210761 0.020269556 0.998348951
1341845837.879790 -0.088937581 -0.236337125 -0.040427830 0.045217182 0.032523341 0.019621097 0.998254776
1341845837.911946 -0.087278351 -0.234942168 -0.041033648 0.050149813 0.032849453 0.023529533 0.997923970
1341845837.946188 -0.087154597 -0.229009539 -0.044564523 0.052919965 0.032566965 0.024838844 0.997758448
1341845837.979709 -0.078908823 -0.231217459 -0.049536914 0.052005123 0.034599323 0.021796539 0.997809231
1341845838.041927 -0.089256167 -0.237262383 -0.046505570 0.045404255 0.039954085 0.017435068 0.998017132
1341845838.073905 -0.088857964 -0.261680812 -0.040015891 0.043106981 0.039410606 0.014420914 0.998188674
1341845838.105792 -0.087854564 -0.260056883 -0.039609253 0.045915365 0.040406384 0.016052412 0.997998714
1341845838.141667 -0.089610890 -0.255762458 -0.038286813 0.046220925 0.040856112 0.015442954 0.997975886
1341845838.173678 -0.084038027 -0.253237903 -0.037538484 0.044061806 0.041110903 0.010601861 0.998126268
1341845838.205767 -0.077476606 -0.253884792 -0.039148517 0.039268102 0.042796616 0.007485601 0.998283744
1341845838.241893 -0.084424354 -0.259651780 -0.039653093 0.032597419 0.046003204 0.004320925 0.998399973
1341845838.273791 -0.090067416 -0.274533391 -0.031443179 0.029779941 0.045516338 0.002239115 0.998517096
1341845838.309852 -0.090550676 -0.275411665 -0.028818244 0.030822126 0.042985853 0.002281647 0.998597503
1341845838.341805 -0.088601321 -0.284555048 -0.028111417 0.029825095 0.041262917 0.004273298 0.998693943
1341845838.373872 -0.083134800 -0.286634982 -0.028063009 0.031864189 0.040900920 0.005835849 0.998637915
1341845838.409713 -0.086330481 -0.285819203 -0.030228613 0.032576025 0.041033737 0.007510993 0.998598337
1341845838.441818 -0.082643010 -0.285003185 -0.031679574 0.030577177 0.039982431 0.009551349 0.998686731
1341845838.473754 -0.080570847 -0.294963390 -0.031985894 0.027533749 0.040332284 0.006982289 0.998782516
1341845838.509713 -0.080411375 -0.302103192 -0.024721066 0.026694719 0.041675322 0.004696169 0.998763502
1341845838.541649 -0.082030840 -0.308849931 -0.025798986 0.026994746 0.041512892 0.005445594 0.998758376
1341845838.577804 -0.080605820 -0.318284750 -0.026258396 0.029252071 0.041214630 0.001656260 0.998720646
1341845838.609807 -0.075888991 -0.316352636 -0.029953199 0.032307025 0.042709678 -0.001571986 0.998563826
1341845838.641690 -0.076779976 -0.322090268 -0.026987700 0.033079602 0.044777647 -0.000715469 0.998448908
1341845838.677850 -0.080723777 -0.316068977 -0.029031260 0.035131343 0.045471899 -0.001696140 0.998346269
1341845838.709635 -0.073012069 -0.317590863 -0.038734078 0.034433167 0.045450110 -0.002654558 0.998369455
1341845838.745913 -0.057336763 -0.313814014 -0.050788779 0.029038148 0.048389595 -0.005408264 0.998391747
1341845838.777723 -0.075467460 -0.325693429 -0.030791804 0.021507338 0.053157061 -0.007170062 0.998328745
1341845838.809656 -0.076198362 -0.324229002 -0.028972937 0.020607214 0.051463999 -0.006512838 0.998440981
1341845838.845874 -0.070439711 -0.328890949 -0.031477518 0.020649899 0.050656974 -0.006777297 0.998479605
1341845838.877695 -0.060218390 -0.330352813 -0.040988330 0.015858032 0.053374112 -0.010359799 0.998394907
1341845838.909636 -0.071866952 -0.338307410 -0.028764658 0.011541294 0.057742909 -0.013435487 0.998174369
1341845838.945837 -0.073811963 -0.346759617 -0.026097761 0.011105916 0.057904176 -0.014201377 0.998159349
1341845838.977758 -0.069005378 -0.348097891 -0.026390089 0.012603156 0.057605729 -0.012660785 0.998179555
1341845839.013907 -0.059133880 -0.352902710 -0.033822674 0.012922869 0.059026070 -0.012926619 0.998089075
1341845839.046225 -0.065798156 -0.343823373 -0.035689168 0.012470876 0.062033497 -0.016000548 0.997867882
1341845839.077750 -0.071595915 -0.346581668 -0.028881751 0.009457977 0.060933962 -0.016923670 0.997953534
1341845839.113934 -0.065235063 -0.367392898 -0.027209364 0.008824637 0.058234848 -0.015956162 0.998136401
1341845839.145852 -0.060000576 -0.356025368 -0.029461224 0.013055203 0.057840504 -0.013426524 0.998150170
1341845839.177741 -0.056338802 -0.354302496 -0.033322886 0.012725054 0.058004308 -0.012075715 0.998162150
1341845839.214000 -0.050197832 -0.369771630 -0.031803999 0.011681311 0.059350885 -0.013543934 0.998076916
1341845839.246198 -0.049117319 -0.367130905 -0.028392836 0.014697711 0.061382845 -0.011716941 0.997937322
1341845839.281774 -0.045517404 -0.365768552 -0.031895734 0.015170561 0.062827051 -0.010200988 0.997856975
1341845839.314004 -0.037924048 -0.374468893 -0.033805605 0.014373680 0.064948089 -0.012573234 0.997705877
1341845839.345945 -0.041026723 -0.371154785 -0.034075338 0.015947333 0.067427218 -0.011564391 0.997529685
1341845839.381741 -0.037607715 -0.371742666 -0.035875455 0.017954800 0.066546284 -0.007003788 0.997597218
1341845839.413801 -0.032778569 -0.379516125 -0.041077256 0.019522835 0.067099191 -0.006517558 0.997533977
1341845839.445714 -0.030354682 -0.372594327 -0.037725028 0.021355538 0.069154143 -0.006219280 0.997358024
1341845839.481741 -0.032470405 -0.370741457 -0.041383468 0.020189052 0.070317253 -0.007061348 0.997295380
1341845839.514001 -0.027522614 -0.377698541 -0.036380246 0.018147605 0.071637623 -0.007844950 0.997234762
1341845839.549791 -0.029818218 -0.382982433 -0.032537296 0.019516218 0.073817007 -0.007037894 0.997056007
1341845839.587666 -0.027898585 -0.374406844 -0.037219021 0.021250656 0.073343858 -0.005711291 0.997063935
1341845839.681817 -0.028060775 -0.368759632 -0.036829788 0.021219950 0.076114982 -0.005167060 0.996859848
1341845839.713876 -0.022794241 -0.369546473 -0.035840575 0.020483768 0.074520878 -0.006401215 0.996988535
1341845839.749808 -0.021556087 -0.375643224 -0.036677781 0.019343553 0.075887389 -0.007585435 0.996899903
1341845839.781785 -0.026706370 -0.366057426 -0.036107522 0.019096134 0.076707214 -0.005018171 0.996858120
1341845839.817825 -0.030272832 -0.368380874 -0.036021318 0.017203493 0.075404175 -0.006040004 0.996986389
1341845839.849994 -0.023850603 -0.362558961 -0.033202503 0.016549427 0.074462608 -0.005392952 0.997071862
1341845839.881829 -0.027948625 -0.356833130 -0.034238636 0.014568881 0.074776165 -0.004980052 0.997081459
1341845839.917855 -0.036611032 -0.357366472 -0.031687628 0.012295810 0.073735267 -0.005726133 0.997185588
1341845839.950283 -0.033773448 -0.351095378 -0.029016733 0.010842084 0.070745006 -0.004234768 0.997426510
1341845839.985757 -0.035684634 -0.346771747 -0.030569397 0.008841863 0.069020823 -0.004367283 0.997566462
1341845840.017660 -0.037631020 -0.343815744 -0.026700821 0.004672810 0.067510232 -0.006762324 0.997684717
1341845840.049741 -0.046384726 -0.340682238 -0.024558719 0.000372903 0.067178011 -0.007627744 0.997711778
1341845840.085650 -0.049705900 -0.345628053 -0.019112222 -0.003226702 0.064837687 -0.005957071 0.997872829
1341845840.117698 -0.042772211 -0.336391419 -0.018223945 -0.003979431 0.062125228 -0.003399090 0.998054683
1341845840.149796 -0.045684490 -0.325114846 -0.018698115 -0.006840621 0.061500464 -0.001504689 0.998082459
1341845840.186069 -0.048943806 -0.325978845 -0.015668431 -0.011905034 0.060998343 -0.003474020 0.998060822
1341845840.217657 -0.052691966 -0.316392958 -0.014032635 -0.015521218 0.061960451 -0.003832341 0.997950554
1341845840.253694 -0.064317383 -0.317700446 -0.009385786 -0.019474169 0.062445257 -0.003439566 0.997852445
1341845840.285914 -0.064547978 -0.311278850 -0.008620407 -0.021315770 0.059149977 -0.002302730 0.998018861
1341845840.317753 -0.062116802 -0.305829316 -0.006179684 -0.023970682 0.056906283 -0.000657122 0.998091519
1341845840.353861 -0.060771562 -0.305672556 -0.009339436 -0.026807072 0.056516994 0.000131977 0.998041689
1341845840.385775 -0.062870108 -0.297451138 -0.010817155 -0.029546347 0.057249308 -0.001555782 0.997921407
1341845840.417676 -0.069490656 -0.291543931 -0.008666439 -0.032788314 0.056436639 -0.002426968 0.997864664
1341845840.453598 -0.068628281 -0.290689230 -0.003096791 -0.035163153 0.055126615 -0.002785852 0.997856140
1341845840.485943 -0.068606786 -0.286426902 -0.001956648 -0.035749402 0.055323053 -0.002634900 0.997824848
1341845840.521810 -0.075772658 -0.277719975 -0.000263253 -0.036705807 0.055431295 -0.001064023 0.997786999
1341845840.553677 -0.077289112 -0.272260547 0.000353476 -0.038863968 0.053251207 0.000170445 0.997824550
1341845840.585765 -0.074609593 -0.274150699 0.001543843 -0.040580872 0.051746476 -0.001446443 0.997834384
1341845840.621850 -0.077291258 -0.264623463 -0.001590415 -0.040935334 0.051779669 -0.002182947 0.997816801
1341845840.653789 -0.081707902 -0.260700822 -0.001616042 -0.045135140 0.050639175 -0.003384998 0.997690856
1341845840.685850 -0.086856432 -0.269913912 0.004541414 -0.047685046 0.050170321 -0.007210291 0.997575581
1341845840.721832 -0.091871500 -0.272149861 0.008030341 -0.045864221 0.050064966 -0.007586216 0.997663498
1341845840.753824 -0.098124363 -0.268463433 0.006040575 -0.042262647 0.046677347 -0.003873231 0.998008072
1341845840.789783 -0.092435002 -0.268294483 0.004491389 -0.040044256 0.043620292 -0.004065957 0.998237073
1341845840.821733 -0.090995498 -0.258893132 0.002387538 -0.037937388 0.044857964 -0.005972401 0.998254895
1341845840.853661 -0.099647440 -0.253265291 0.004180677 -0.037691876 0.046530027 -0.004605372 0.998194873
1341845840.889737 -0.097800627 -0.248013124 0.001309657 -0.037524629 0.044196192 -0.001981886 0.998315930
1341845840.921786 -0.089401469 -0.244469002 -0.002513620 -0.038040400 0.044048678 -0.002569454 0.998301566
1341845840.957782 -0.090925694 -0.235548452 -0.002304138 -0.039895706 0.047083642 -0.003628616 0.998087347
1341845840.989777 -0.095678098 -0.234169275 0.002108692 -0.042626020 0.048472367 -0.003648294 0.997907877
1341845841.021755 -0.097499758 -0.235960960 0.008194320 -0.042013310 0.049092803 -0.002714003 0.997906506
1341845841.057797 -0.095485069 -0.238986313 0.008652229 -0.038928367 0.050089553 -0.002458716 0.997982740
1341845841.089861 -0.097817488 -0.223979458 0.001986309 -0.034164231 0.052369431 -0.003222674 0.998037994
1341845841.127763 -0.102260679 -0.220639303 0.005724804 -0.033421911 0.052923977 -0.005874302 0.998021781
1341845841.189794 -0.104157351 -0.218288213 0.011291930 -0.030797219 0.051919214 -0.014268398 0.998074293
1341845841.225871 -0.104789376 -0.212999508 0.013206693 -0.027264357 0.051404715 -0.016333815 0.998172045
1341845841.257769 -0.105425261 -0.205914915 0.013736607 -0.024251206 0.051094349 -0.017407354 0.998247564
1341845841.289834 -0.102640338 -0.187852815 0.009814466 -0.021823114 0.049566656 -0.014766207 0.998423159
1341845841.325856 -0.100657649 -0.176233709 0.003317102 -0.022923967 0.049136072 -0.013502733 0.998437703
1341845841.357778 -0.105333820 -0.175774038 0.012498322 -0.025226209 0.048739120 -0.013786822 0.998397768
1341845841.389747 -0.110561907 -0.183529750 0.015592151 -0.024164824 0.045941811 -0.011697525 0.998583317
1341845841.425648 -0.099846289 -0.180977762 0.013636721 -0.018242177 0.042222012 -0.005803027 0.998924851
1341845841.457784 -0.103033841 -0.173359513 0.015880598 -0.010143768 0.041802607 -0.001425654 0.999073386
1341845841.493636 -0.102175511 -0.150132135 0.014210890 -0.004449738 0.040778622 0.001424957 0.999157310
1341845841.525800 -0.096515983 -0.135348827 0.011032047 -0.006228622 0.040217336 0.003290281 0.999166131
1341845841.557776 -0.101268478 -0.139909059 0.014697942 -0.010078683 0.041398276 0.002615819 0.999088466
1341845841.593697 -0.107051082 -0.143275067 0.022865105 -0.012734433 0.040410593 0.004330648 0.999092638
1341845841.625800 -0.104068913 -0.148009196 0.022651801 -0.011197961 0.038554743 0.005647663 0.999177754
1341845841.657778 -0.102049828 -0.141016066 0.019369783 -0.008267954 0.038685668 0.007184999 0.999191403
1341845841.693890 -0.103963271 -0.130757049 0.021554008 -0.006715341 0.038431823 0.009485955 0.999193609
1341845841.725831 -0.104235344 -0.121603481 0.024004458 -0.007049331 0.037454132 0.010429901 0.999219060
1341845841.761977 -0.105721973 -0.115310043 0.024014216 -0.006167048 0.037242118 0.008426639 0.999251723
1341845841.793705 -0.106193051 -0.104571737 0.022579571 -0.007409902 0.036041189 0.009657345 0.999276161
1341845841.825907 -0.109778330 -0.109505557 0.028451355 -0.010449841 0.034559358 0.009094720 0.999306619
1341845841.862456 -0.104265586 -0.111883841 0.034176707 -0.010080574 0.032574378 0.009518645 0.999373138
1341845841.893840 -0.107451484 -0.111808077 0.035021886 -0.005201214 0.030122245 0.013296273 0.999444246
1341845841.925729 -0.107824512 -0.101866916 0.030859293 -0.001968760 0.028585026 0.015195115 0.999473929
1341845841.961799 -0.101822667 -0.099444866 0.030734600 -0.002078583 0.027622778 0.014727438 0.999507725
1341845841.994063 -0.099454604 -0.091686517 0.027937876 -0.001796981 0.028739944 0.012120563 0.999511778
1341845842.030345 -0.106975086 -0.079776905 0.031010950 -0.003730229 0.029069513 0.013214603 0.999483049
1341845842.061842 -0.105711736 -0.089939289 0.033473488 -0.005896309 0.026809959 0.013747216 0.999528646
1341845842.095648 -0.104897663 -0.083041541 0.032167777 -0.004982009 0.026490405 0.014033509 0.999538183
1341845842.130144 -0.106865779 -0.077984683 0.033159032 -0.005361768 0.027017575 0.015995337 0.999492586
1341845842.168651 -0.104743361 -0.071791269 0.032807853 -0.005861414 0.026989149 0.018265037 0.999451637
1341845842.204415 -0.104905002 -0.072719723 0.035427369 -0.006243139 0.027138475 0.018879222 0.999433875
1341845842.236995 -0.110415742 -0.066157728 0.042358451 -0.004125516 0.026179373 0.021637850 0.999414504
1341845842.298056 -0.103655905 -0.062402356 0.034333270 -0.000890202 0.020616051 0.025154119 0.999470592
1341845842.330531 -0.106172435 -0.049692329 0.034244228 0.001294518 0.022075370 0.025934381 0.999419034
1341845842.362365 -0.107451916 -0.037328463 0.033966798 -0.000251813 0.020357655 0.026974864 0.999428809
1341845842.399606 -0.106615014 -0.042858448 0.036274143 -0.004356151 0.019713314 0.026791416 0.999437153
1341845842.439754 -0.102630094 -0.044083782 0.037450548 -0.005583798 0.020277398 0.026574757 0.999425530
1341845842.472222 -0.107878871 -0.036824126 0.042420842 -0.005228629 0.020591654 0.027855095 0.999386191
1341845842.506051 -0.109186351 -0.039463837 0.041656584 -0.005575171 0.018331800 0.028408712 0.999412715
1341845842.539739 -0.106305599 -0.039677259 0.038942158 -0.005377115 0.018230978 0.027028553 0.999453962
1341845842.597810 -0.112865768 -0.039073084 0.046000808 -0.003888184 0.018969703 0.025772013 0.999480247
1341845842.671782 -0.107601985 -0.025779851 0.040445738 0.000075945 0.018205522 0.026720311 0.999477148
1341845842.733828 -0.115017004 -0.027457757 0.039212175 0.000920654 0.017116826 0.032775514 0.999315739
1341845842.772554 -0.110765025 -0.014750891 0.040168241 0.002733320 0.016485140 0.035048276 0.999245882
1341845842.803667 -0.114751294 -0.010056279 0.043971188 0.000142709 0.016607849 0.036865167 0.999182224
1341845842.839779 -0.108694501 -0.012499768 0.039104909 -0.001474214 0.016981676 0.035881139 0.999210656
1341845842.871951 -0.115446344 -0.004418733 0.043003533 -0.001098535 0.018506784 0.035588145 0.999194562
1341845842.903766 -0.115671813 0.003518445 0.044046611 -0.002525004 0.017247917 0.035671033 0.999211550
1341845842.939694 -0.108660318 0.003548559 0.045882586 -0.005099344 0.017263234 0.034942459 0.999227226
1341845842.971703 -0.121214941 0.001095143 0.048805445 -0.004983972 0.019039134 0.033474006 0.999245763
1341845843.003637 -0.124439962 0.007788207 0.046495896 -0.004137113 0.017308297 0.036111329 0.999189317
1341845843.039687 -0.114645086 0.011674361 0.052068256 -0.004291492 0.015209653 0.038787037 0.999122500
1341845843.071786 -0.117279895 0.013841407 0.046341471 -0.004282779 0.017789179 0.037607253 0.999125063
1341845843.103725 -0.125993967 0.013883529 0.049839281 -0.004295892 0.017856419 0.040741012 0.999000907
1341845843.139742 -0.125012249 0.021025764 0.047429662 -0.002091901 0.014710720 0.042369001 0.998991489
1341845843.171825 -0.124075510 0.030528290 0.041382845 -0.002833204 0.014434700 0.040170625 0.999084532
1341845843.207907 -0.124459751 0.038982112 0.040531810 -0.005429309 0.015105923 0.037052479 0.999184370
1341845843.240014 -0.130311236 0.038607638 0.044334546 -0.009307239 0.014637214 0.033207737 0.999297917
1341845843.281910 -0.133186296 0.038059168 0.047155462 -0.010532944 0.012789340 0.032175541 0.999344885
1341845843.307930 -0.132396773 0.043661658 0.045074131 -0.010026360 0.011329245 0.032736737 0.999349475
1341845843.339844 -0.131325647 0.044835407 0.053467292 -0.009692384 0.010774266 0.033827502 0.999322593
1341845843.407961 -0.129136354 0.062204771 0.055768840 -0.005259063 0.014188167 0.036253631 0.999228060
1341845843.469698 -0.119347103 0.073320895 0.051169336 -0.007587653 0.015638880 0.036643233 0.999177217
1341845843.501755 -0.128884867 0.083416864 0.061392311 -0.008783213 0.018966705 0.036421400 0.999117911
1341845843.537749 -0.133302465 0.085429139 0.062265243 -0.009476803 0.016900327 0.039887819 0.999016285
1341845843.601912 -0.129279286 0.102591544 0.058451477 -0.014192422 0.017855180 0.037029076 0.999053836
1341845843.637854 -0.127626300 0.106046662 0.065046966 -0.016754312 0.017037455 0.037034199 0.999028265
1341845843.669935 -0.126699388 0.101298012 0.067126624 -0.018224608 0.019028274 0.036536463 0.998984933
1341845843.705705 -0.123425834 0.119910158 0.059251409 -0.016406229 0.021667516 0.039210651 0.998861313
1341845843.738087 -0.124967337 0.120186076 0.062830232 -0.019348012 0.024126733 0.041256905 0.998669863
1341845843.769868 -0.125366032 0.121303864 0.065103158 -0.017613996 0.024923807 0.044003952 0.998565078
1341845843.805741 -0.124087445 0.128544375 0.065650336 -0.016077932 0.026664944 0.045411691 0.998483002
1341845843.837731 -0.120817207 0.132980078 0.064560540 -0.017087368 0.029272569 0.044635188 0.998428226
1341845843.869723 -0.121147178 0.131774157 0.071431838 -0.018713921 0.031894952 0.044590101 0.998320699
1341845843.905817 -0.126728520 0.131977662 0.076055348 -0.015514281 0.033656970 0.046145093 0.998247027
1341845843.937846 -0.118463367 0.142712370 0.076869808 -0.011154940 0.034646768 0.050783813 0.998046160
1341845843.973843 -0.106459774 0.149572045 0.072518684 -0.008918845 0.038240436 0.051648691 0.997893035
1341845844.005877 -0.117565364 0.147047520 0.077570856 -0.009118598 0.042074595 0.052167028 0.997709930
1341845844.037839 -0.117662348 0.151762441 0.070481576 -0.006763517 0.041134574 0.050717808 0.997842610
1341845844.073843 -0.108948670 0.160869226 0.072867215 -0.007249922 0.041771874 0.046713047 0.998008251
1341845844.105844 -0.115377009 0.157330900 0.073831081 -0.007780044 0.045301285 0.043511268 0.997995019
1341845844.137727 -0.119024731 0.160082042 0.074588008 -0.007189672 0.046113957 0.042979442 0.997985244
1341845844.173729 -0.112607911 0.166866645 0.074448481 -0.004860615 0.045282587 0.043550517 0.998012662
1341845844.205772 -0.112202905 0.186415106 0.072543308 -0.004987564 0.046212524 0.042642999 0.998008549
1341845844.241826 -0.118422158 0.171190396 0.080106013 -0.007332892 0.046554379 0.043327391 0.997948766
1341845844.273743 -0.114884779 0.178084388 0.079064205 -0.000225373 0.045336727 0.047342844 0.997849286
1341845844.305737 -0.116617791 0.193394437 0.074465364 0.003136224 0.046119057 0.049873952 0.997685194
1341845844.341702 -0.111980729 0.209954590 0.068534516 0.001822169 0.045015946 0.049436986 0.997760653
1341845844.373700 -0.119019195 0.206461161 0.076690353 -0.003164419 0.045680840 0.047526829 0.997819841
1341845844.409780 -0.120029107 0.216823280 0.077289723 -0.003612381 0.045053367 0.050896782 0.997680664
1341845844.441868 -0.116648950 0.223556384 0.075751252 -0.005553802 0.043853093 0.051540785 0.997692108
1341845844.473633 -0.115607351 0.224358141 0.074990526 -0.008244819 0.045120344 0.051635902 0.997612119
1341845844.509732 -0.119695172 0.227323353 0.072374418 -0.009938427 0.047008429 0.052503966 0.997464180
1341845844.541734 -0.123099707 0.240204901 0.073974796 -0.011598212 0.046098977 0.054609578 0.997375667
1341845844.573798 -0.120116852 0.242917255 0.075727224 -0.014684071 0.044413503 0.054381881 0.997423887
1341845844.609774 -0.122451939 0.247994214 0.078097872 -0.016093861 0.044778533 0.054936405 0.997355402
1341845844.641742 -0.131375328 0.246560380 0.085014977 -0.017318809 0.043740068 0.056658443 0.997284651
1341845844.677619 -0.127742141 0.258468419 0.085511677 -0.013013454 0.037670214 0.061640866 0.997302353
1341845844.709820 -0.129343688 0.276202381 0.080972739 -0.012498921 0.035410251 0.060972530 0.997432828
1341845844.741764 -0.137651563 0.273732990 0.084215805 -0.015821015 0.032610774 0.061520804 0.997447431
1341845844.778110 -0.134524256 0.280663222 0.083302155 -0.017342577 0.028234173 0.060145538 0.997639477
1341845844.811162 -0.150410414 0.271062583 0.083550029 -0.019934643 0.026714023 0.059593238 0.997666061
1341845844.842336 -0.141621947 0.293660104 0.079570659 -0.021136045 0.019105375 0.057057202 0.997964263
1341845844.883762 -0.145439297 0.285712183 0.085445456 -0.024013331 0.017150868 0.053789645 0.998116195
1341845844.947016 -0.147945613 0.295501262 0.085775435 -0.023521680 0.006961708 0.052820113 0.998302698
1341845844.977793 -0.142002001 0.306060106 0.081537493 -0.023246989 0.003675054 0.047750942 0.998581946
1341845845.009670 -0.145595402 0.301502466 0.087831661 -0.025872933 0.003029211 0.044785030 0.998656929
1341845845.045698 -0.153927058 0.309931993 0.086348765 -0.023768159 -0.000535819 0.041623402 0.998850465
1341845845.077748 -0.145878479 0.310195267 0.075899117 -0.025608027 -0.003457313 0.036459696 0.999000967
1341845845.109679 -0.140745386 0.319134384 0.085496895 -0.026641568 -0.002773715 0.032883260 0.999100208
1341845845.145640 -0.141303375 0.317770451 0.087297373 -0.027573032 -0.003167706 0.033829737 0.999042153
1341845845.177719 -0.135121346 0.329794466 0.088727728 -0.025110619 -0.003462162 0.032375891 0.999154270
1341845845.213604 -0.133043125 0.337161064 0.089405119 -0.026309192 -0.000442276 0.031560399 0.999155402
1341845845.245741 -0.135326818 0.335590214 0.089961305 -0.029224733 0.001569119 0.032132562 0.999055028
1341845845.277905 -0.132394746 0.331652462 0.092609473 -0.029340085 0.001443023 0.034014054 0.998989522
1341845845.314159 -0.133510679 0.346898407 0.088979706 -0.026894774 0.001471660 0.032258417 0.999116540
1341845845.345748 -0.135124519 0.349609137 0.090659894 -0.029297974 0.002279846 0.031837579 0.999060929
1341845845.381704 -0.132742360 0.352091759 0.093579784 -0.030628096 0.000795765 0.032799795 0.998992205
1341845845.413648 -0.136957660 0.357318699 0.092279308 -0.031246070 0.000175584 0.032322977 0.998988926
1341845845.445777 -0.134452909 0.373742044 0.090203889 -0.029287167 -0.002874418 0.031351831 0.999075055
1341845845.481809 -0.134118751 0.381914467 0.090349272 -0.032966264 -0.003084166 0.026453622 0.999101520
1341845845.514332 -0.135490179 0.378406733 0.090647124 -0.035993051 -0.003840548 0.025270907 0.999025106
1341845845.545717 -0.137869924 0.385845512 0.088977128 -0.035990737 -0.005959986 0.025701424 0.999003768
1341845845.581658 -0.132599190 0.396226436 0.090970427 -0.037329119 -0.008767525 0.024891732 0.998954475
1341845845.613959 -0.132056504 0.404444367 0.089068949 -0.040354516 -0.007317436 0.021537023 0.998926461
1341845845.649696 -0.133917615 0.395377219 0.091045588 -0.045975499 -0.007317041 0.023427758 0.998641014
1341845845.682034 -0.136442319 0.402752399 0.094013169 -0.043681983 -0.009947095 0.025141668 0.998679519
1341845845.714232 -0.131879151 0.430876821 0.088155560 -0.040530369 -0.010888640 0.023914842 0.998832703
1341845845.751971 -0.131710023 0.429728687 0.091428697 -0.047565747 -0.010051781 0.021174368 0.998593032
1341845845.787747 -0.128525212 0.425966382 0.094945647 -0.050082032 -0.010402582 0.019711079 0.998496413
1341845845.820616 -0.130647734 0.426364750 0.091357358 -0.050647624 -0.010569336 0.021316305 0.998433113
1341845845.887653 -0.127611294 0.447266340 0.095346645 -0.050994657 -0.009851913 0.016980827 0.998505950
1341845845.949895 -0.124176823 0.455272794 0.095343329 -0.050591439 -0.007804413 0.018726639 0.998513341
1341845845.981855 -0.129559547 0.467610121 0.093615882 -0.050469767 -0.004658129 0.018636717 0.998540819
1341845846.017822 -0.130085468 0.467388660 0.096734352 -0.052433919 -0.003717620 0.018654911 0.998443246
1341845846.049788 -0.130263865 0.469117761 0.096710309 -0.051168371 -0.002840072 0.019451711 0.998496532
1341845846.081697 -0.134715930 0.476808071 0.094155997 -0.050788641 -0.002569143 0.019270144 0.998520195
1341845846.117753 -0.132795021 0.478642702 0.094840899 -0.053055760 -0.003897857 0.018477509 0.998412967
1341845846.149729 -0.134469375 0.483405352 0.093749993 -0.053242531 -0.004291038 0.019499335 0.998381972
1341845846.185551 -0.134980634 0.493355870 0.095602967 -0.053608935 -0.005771823 0.022175001 0.998299062
1341845846.217670 -0.132963061 0.497632593 0.093952879 -0.055076558 -0.005817997 0.022790710 0.998205006
1341845846.249670 -0.133470088 0.510904789 0.094321497 -0.057497390 -0.005540077 0.025188444 0.998012483
1341845846.285621 -0.131495640 0.510913312 0.096962228 -0.060162086 -0.006660975 0.026875058 0.997804523
1341845846.318706 -0.130500644 0.521551490 0.094331741 -0.061765529 -0.005613766 0.025491731 0.997749329
1341845846.349746 -0.132220626 0.518706381 0.094565891 -0.066272683 -0.004568773 0.027860252 0.997402072
1341845846.385823 -0.139041841 0.502850711 0.091799490 -0.071757399 -0.003196727 0.028194727 0.997018397
1341845846.417804 -0.132415652 0.516829371 0.092101209 -0.072837666 -0.002696235 0.027713319 0.996955037
1341845846.453757 -0.133440256 0.530906260 0.090646647 -0.073737234 -0.002673256 0.031580575 0.996773958
1341845846.485915 -0.130563572 0.528887689 0.089559317 -0.076596640 -0.004079157 0.032007068 0.996539950
1341845846.517804 -0.120999664 0.549806774 0.090861991 -0.075496413 -0.003037185 0.030002356 0.996689975
1341845846.553866 -0.128757372 0.545964181 0.086989388 -0.081546731 -0.000434538 0.029956974 0.996219099
1341845846.585802 -0.124898583 0.544398785 0.089958176 -0.083073609 -0.002015519 0.030128591 0.996085823
1341845846.621952 -0.122918651 0.552397907 0.086903073 -0.083137333 -0.000742543 0.028345812 0.996134579
1341845846.653735 -0.123800606 0.546860695 0.086309195 -0.087099075 -0.000569464 0.028092433 0.995803297
1341845846.687048 -0.119694337 0.546774328 0.086518630 -0.087110624 -0.000747568 0.026401458 0.995848417
1341845846.721930 -0.118149333 0.545707405 0.085866489 -0.087357722 0.000783704 0.024662783 0.995871365
1341845846.755684 -0.121657945 0.542094648 0.083198920 -0.087933935 0.001139601 0.025607251 0.995796442
1341845846.785987 -0.114476517 0.540350497 0.085640311 -0.086103573 -0.000107300 0.025710234 0.995954394
1341845846.821760 -0.116222464 0.538464367 0.083473548 -0.084620118 0.001964394 0.023695134 0.996129572
1341845846.853756 -0.117632315 0.531916678 0.083653390 -0.083419062 0.002130949 0.023555262 0.996233881
1341845846.889724 -0.119022183 0.521309316 0.085269786 -0.079007357 0.000921209 0.024559453 0.996571064
1341845846.921756 -0.120237708 0.514388204 0.084501542 -0.075582698 0.001643517 0.022489445 0.996884525
1341845846.953776 -0.121873550 0.508322120 0.083058864 -0.073582672 0.002110543 0.022566993 0.997031510
1341845846.989607 -0.129264951 0.487418234 0.081345357 -0.071081765 0.001906180 0.024331944 0.997171879
1341845847.021791 -0.125699684 0.488797456 0.084197588 -0.065561168 0.000432774 0.023187544 0.997579038
1341845847.053671 -0.128303349 0.477497190 0.078879021 -0.065092981 0.000514154 0.022035070 0.997635782
1341845847.089677 -0.129018188 0.454970092 0.081607372 -0.067537211 -0.002513301 0.022180177 0.997467041
1341845847.121825 -0.125000939 0.453594327 0.086709924 -0.059671305 -0.005107801 0.019450136 0.998015523
1341845847.157737 -0.125914663 0.456389934 0.082586914 -0.054395005 -0.003467319 0.019218413 0.998328507
1341845847.189613 -0.126260966 0.453896135 0.081500933 -0.049805302 -0.002478753 0.020937281 0.998536408
1341845847.221790 -0.125277877 0.443965584 0.080998994 -0.046832744 -0.000221716 0.020846916 0.998685181
1341845847.257718 -0.122602701 0.435364485 0.077592224 -0.044514481 0.001267328 0.022710022 0.998749793
1341845847.289652 -0.119296342 0.415436208 0.077362262 -0.045212667 0.000106704 0.024719378 0.998671472
1341845847.321777 -0.115554310 0.406369656 0.077786565 -0.042874757 0.000575004 0.022176607 0.998834133
1341845847.357899 -0.115471184 0.396790922 0.074757777 -0.041295279 0.001881621 0.021691548 0.998909712
1341845847.390176 -0.115715034 0.384580076 0.072225831 -0.040207610 0.002108124 0.020121068 0.998986483
1341845847.425786 -0.111792728 0.377281308 0.070931651 -0.039808366 0.003202522 0.017419472 0.999050319
1341845847.489945 -0.114895366 0.359037489 0.064579837 -0.038508516 0.003625437 0.019120831 0.999068737
1341845847.525805 -0.115524344 0.349853873 0.059964821 -0.039365575 0.001970200 0.017771462 0.999064863
1341845847.557741 -0.116470926 0.351364374 0.053023469 -0.041412015 0.000222848 0.012219485 0.999067366
1341845847.593782 -0.112524308 0.328226596 0.059008829 -0.046828851 -0.002146320 0.010546462 0.998844922
1341845847.625656 -0.112007059 0.320803553 0.056198664 -0.042706884 -0.002111594 0.012220425 0.999010682
1341845847.657670 -0.115800865 0.318966746 0.047013655 -0.039898444 -0.001446297 0.013848864 0.999106705
1341845847.693751 -0.110976264 0.301126838 0.045038026 -0.041170761 -0.001771542 0.014267276 0.999048710
1341845847.725684 -0.106979311 0.291512638 0.041938182 -0.041723769 -0.001032328 0.014079242 0.999029458
1341845847.757787 -0.106077589 0.273699552 0.043412518 -0.042039499 -0.001341601 0.018660042 0.998940766
1341845847.793826 -0.110858917 0.277913809 0.035817645 -0.039248761 -0.002511985 0.019208925 0.999041677
1341845847.825684 -0.109048352 0.270181865 0.034670830 -0.040346414 -0.003117971 0.018458249 0.999010384
1341845847.861928 -0.115524344 0.264898092 0.030436212 -0.040186435 -0.002996751 0.019224664 0.999002755
1341845847.893697 -0.114818439 0.249377117 0.033949450 -0.042032406 -0.005921022 0.023460954 0.998823225
1341845847.925644 -0.108809590 0.250726312 0.031128222 -0.038024314 -0.008752036 0.024550404 0.998936832
1341845847.961946 -0.111011773 0.245258078 0.027726019 -0.038895272 -0.007215715 0.023616565 0.998938084
1341845847.993685 -0.116306797 0.236392558 0.023948347 -0.037945833 -0.007635339 0.026459126 0.998900235
1341845848.025620 -0.111315995 0.232763261 0.023074331 -0.037364230 -0.009471009 0.027062939 0.998890281
1341845848.061715 -0.113195524 0.224857897 0.022147721 -0.036916111 -0.009009627 0.027762342 0.998892009
1341845848.093689 -0.115622684 0.223655477 0.019721650 -0.036768869 -0.010221792 0.028129885 0.998875499
1341845848.132119 -0.114521317 0.215587571 0.018909186 -0.037459854 -0.012943298 0.027166678 0.998844922
1341845848.167711 -0.111050814 0.213433966 0.016685704 -0.036778901 -0.013174477 0.023951512 0.998949468
1341845848.200502 -0.115438707 0.202887312 0.015184576 -0.038212683 -0.012196629 0.023879128 0.998909831
1341845848.232265 -0.116122879 0.197338492 0.012477296 -0.038402848 -0.014038370 0.024697656 0.998858452
1341845848.267873 -0.111632094 0.191614181 0.012099420 -0.037168805 -0.014704459 0.024752492 0.998894155
1341845848.301135 -0.112962462 0.195207253 0.003683233 -0.036768574 -0.013873733 0.024384163 0.998929918
1341845848.335735 -0.113553949 0.183680922 0.003465505 -0.042130981 -0.015814876 0.026544273 0.998634219
1341845848.367757 -0.109800711 0.178974897 0.004358056 -0.042718254 -0.017721880 0.024089510 0.998639464
1341845848.399644 -0.112661369 0.173790917 -0.000031348 -0.043249831 -0.017765630 0.024301315 0.998610675
1341845848.435802 -0.118813425 0.163851812 -0.003523843 -0.044772692 -0.021116434 0.026400086 0.998425007
1341845848.467705 -0.107235827 0.172095045 -0.005179207 -0.043192018 -0.023003174 0.021330997 0.998574138
1341845848.503759 -0.110880181 0.163852125 -0.006392176 -0.045147285 -0.019167755 0.021908844 0.998556137
1341845848.536036 -0.112753689 0.152164385 -0.007171425 -0.046913709 -0.019944407 0.025462763 0.998375177
1341845848.567958 -0.111628868 0.153384298 -0.010365739 -0.045449108 -0.021580027 0.025585772 0.998405755
1341845848.603657 -0.110996142 0.152336463 -0.011579563 -0.045509387 -0.020653958 0.024689903 0.998445153
1341845848.635797 -0.113690943 0.142533749 -0.012879240 -0.047092967 -0.021088358 0.025570285 0.998340487
1341845848.671815 -0.109904326 0.129432857 -0.008611655 -0.046950083 -0.023057228 0.027400803 0.998255074
1341845848.703677 -0.109095506 0.128853574 -0.008450172 -0.041137386 -0.021986898 0.027140141 0.998542786
1341845848.735781 -0.108449966 0.124890491 -0.012967745 -0.037917286 -0.020875616 0.030203152 0.998606145
1341845848.771647 -0.111280598 0.114818506 -0.012843259 -0.036818173 -0.020447960 0.032536011 0.998582900
1341845848.803783 -0.109541662 0.114278287 -0.016049897 -0.034289937 -0.018917589 0.032106049 0.998716950
1341845848.839757 -0.111501358 0.122172050 -0.016061869 -0.034391798 -0.015500126 0.029254064 0.998859942
1341845848.871829 -0.109766863 0.115700983 -0.013077881 -0.039750826 -0.013213149 0.027146732 0.998753369
1341845848.903622 -0.103968419 0.105961271 0.000442563 -0.038492341 -0.009924904 0.027624346 0.998827696
1341845848.940608 -0.097363181 0.097057581 0.004070876 -0.028949354 -0.004333572 0.031617086 0.999071300
1341845848.972843 -0.107469372 0.104976460 0.001408528 -0.023897160 0.000352703 0.033644486 0.999148071
1341845849.008613 -0.107164666 0.103883833 0.002954910 -0.022675658 0.002504674 0.031115685 0.999255419
1341845849.072005 -0.110635482 0.105248705 0.011304836 -0.019379517 0.007047552 0.031054839 0.999304950
1341845849.133777 -0.085959785 0.113909200 0.030325990 -0.020406894 0.010252185 0.025434019 0.999415576
1341845849.165908 -0.100474574 0.108506963 0.039907772 -0.021204807 0.016152220 0.025534088 0.999318480
1341845849.201651 -0.103894986 0.107019179 0.045604769 -0.019236511 0.016530326 0.027543591 0.999298751
1341845849.233648 -0.095806882 0.112177573 0.048650887 -0.018038118 0.016420249 0.027400505 0.999326885
1341845849.265690 -0.098366298 0.117006861 0.055431578 -0.019078821 0.019254819 0.025808774 0.999299347
1341845849.301701 -0.104845747 0.115143396 0.067053594 -0.021632794 0.019638328 0.025281044 0.999253333
1341845849.333730 -0.105728075 0.113365941 0.073248290 -0.022442268 0.018030027 0.024795657 0.999277949
1341845849.369727 -0.103774928 0.115776196 0.083160363 -0.023642499 0.017009536 0.024519196 0.999274969
1341845849.401811 -0.106952541 0.110669948 0.094036639 -0.024314631 0.016728437 0.024634888 0.999260783
1341845849.433692 -0.104795538 0.115682930 0.099917479 -0.022297097 0.016700255 0.023414394 0.999337614
1341845849.469648 -0.109919116 0.118297577 0.108870372 -0.023151087 0.017561167 0.024026791 0.999288917
1341845849.501641 -0.106149934 0.117392361 0.118557818 -0.023704890 0.016351506 0.024382660 0.999287844
1341845849.533689 -0.106447987 0.117995299 0.129744306 -0.023386506 0.017434843 0.023494821 0.999298275
1341845849.569780 -0.108471990 0.125920922 0.135691196 -0.023709651 0.017989874 0.022717893 0.999298811
1341845849.601759 -0.103323460 0.116001628 0.148038656 -0.027053079 0.017619051 0.022134056 0.999233603
1341845849.637837 -0.105679281 0.115241259 0.159136593 -0.025927290 0.020185208 0.021846360 0.999221265
1341845849.669719 -0.105504364 0.118112475 0.171862304 -0.025178885 0.021606013 0.022263464 0.999201417
1341845849.701927 -0.103737973 0.120397314 0.181401327 -0.025309186 0.023236910 0.020747459 0.999194205
1341845849.737804 -0.102851346 0.116611369 0.193088993 -0.026182760 0.025958914 0.020298375 0.999113858
1341845849.769688 -0.115037195 0.120307371 0.202283770 -0.025773982 0.028484881 0.020830983 0.999044716
1341845849.805874 -0.113203615 0.120425425 0.215513527 -0.025853112 0.025873689 0.022299644 0.999082029
1341845849.838002 -0.104683928 0.122451812 0.222878173 -0.026039574 0.024341440 0.020109199 0.999162138
1341845849.873756 -0.109951049 0.127173603 0.231363326 -0.028044229 0.026879380 0.017585119 0.999090493
1341845849.905773 -0.114084363 0.117458597 0.242897853 -0.030532083 0.026705038 0.017781219 0.999018729
1341845849.942380 -0.104654662 0.118330598 0.247274041 -0.028831553 0.025869839 0.017698281 0.999092698
1341845849.969808 -0.107704744 0.123689048 0.258529156 -0.028636537 0.029478019 0.016641770 0.999016523
1341845850.006040 -0.114888810 0.124588959 0.271491140 -0.029381383 0.030038992 0.015426767 0.998997688
1341845850.038041 -0.113282531 0.120549023 0.279380292 -0.030538099 0.029208401 0.013573646 0.999014556
1341845850.073843 -0.111401416 0.118277520 0.286739290 -0.029570142 0.029544055 0.012788276 0.999044180
1341845850.137727 -0.121086426 0.128313437 0.300928205 -0.030267112 0.029024219 0.010318263 0.999067068
1341845850.173748 -0.117655426 0.124235161 0.311949164 -0.032344926 0.025752928 0.008618014 0.999107778
1341845850.205888 -0.117932662 0.121801205 0.320739716 -0.033030815 0.024639981 0.008322831 0.999115884
1341845850.242190 -0.119644970 0.124500319 0.324254930 -0.033346958 0.023392297 0.009299776 0.999126792
1341845850.276369 -0.118725866 0.123072609 0.331590205 -0.034332067 0.021445986 0.008269480 0.999146163
1341845850.311979 -0.118868180 0.126899540 0.340617716 -0.034413707 0.020515479 0.006490509 0.999175966
1341845850.343827 -0.117917754 0.129856333 0.346856177 -0.036232784 0.018716767 0.005733230 0.999151647
1341845850.380151 -0.118190728 0.123415142 0.363263726 -0.038546458 0.018495776 0.003853567 0.999078214
1341845850.412359 -0.117187500 0.123544022 0.368441045 -0.037205145 0.019577008 0.004178650 0.999107122
1341845850.447279 -0.115483761 0.126194775 0.377921194 -0.036553178 0.020713208 0.006558355 0.999095500
1341845850.511722 -0.108509980 0.121353939 0.391054362 -0.033279087 0.022684833 0.011377136 0.999123871
1341845850.573894 -0.111483425 0.119196981 0.404349715 -0.031971555 0.025326898 0.013049523 0.999082625
1341845850.609794 -0.109574005 0.120230518 0.409751832 -0.030037940 0.025366323 0.013824833 0.999131203
1341845850.641744 -0.109367557 0.116514847 0.414872110 -0.030864755 0.024508387 0.013150964 0.999136508
1341845850.673755 -0.105237149 0.114475325 0.418587983 -0.029322967 0.023898460 0.011151730 0.999222040
1341845850.709784 -0.102352470 0.118557490 0.425837606 -0.028572040 0.025245273 0.010604554 0.999216616
1341845850.741802 -0.111455016 0.114933491 0.433698565 -0.028176783 0.025754074 0.012198223 0.999196649
1341845850.777740 -0.103226647 0.116436571 0.438097477 -0.027776025 0.023396021 0.012249671 0.999265254
1341845850.841900 -0.103461236 0.123901255 0.450329959 -0.026493745 0.023657586 0.011907096 0.999298036
1341845850.877766 -0.101313867 0.122011475 0.454302788 -0.027985327 0.022706227 0.011725239 0.999281645
1341845850.909781 -0.099044234 0.124671496 0.464307636 -0.028060999 0.023241993 0.011091620 0.999274433
1341845850.941758 -0.099640287 0.125897303 0.470203102 -0.029027816 0.024036501 0.011355285 0.999225080
1341845850.977762 -0.102914974 0.125345036 0.478477389 -0.029468009 0.023880403 0.014281135 0.999178350
1341845851.009834 -0.100466125 0.129920632 0.485807717 -0.029054577 0.022674570 0.015845453 0.999194980
1341845851.045751 -0.099252172 0.131759837 0.493275076 -0.030358620 0.023261631 0.017105544 0.999121964
1341845851.077894 -0.099981375 0.130215108 0.500871122 -0.029747810 0.024050927 0.019331146 0.999081075
1341845851.109747 -0.099600777 0.132368803 0.505028903 -0.028965900 0.023321804 0.020842919 0.999090910
1341845851.145889 -0.098260328 0.135493726 0.511105120 -0.031719003 0.021681830 0.018894693 0.999082983
1341845851.177904 -0.095076032 0.135155126 0.516637444 -0.033553809 0.022147980 0.015196973 0.999075949
1341845851.209882 -0.098192528 0.137792513 0.522076249 -0.034927275 0.022913370 0.014124609 0.999027312
1341845851.251733 -0.100860521 0.133142635 0.531200051 -0.038222574 0.020103667 0.013432336 0.998976707
1341845851.313813 -0.101971380 0.136797950 0.537906647 -0.034509357 0.023301335 0.012689609 0.999052107
1341845851.345834 -0.105543412 0.134754241 0.547604442 -0.033915989 0.021599162 0.015513706 0.999070823
1341845851.377718 -0.096453950 0.136963174 0.549498200 -0.031274751 0.017522100 0.017629519 0.999201715
1341845851.413805 -0.098611899 0.146536559 0.552843869 -0.030541411 0.017495139 0.017507132 0.999227047
1341845851.445896 -0.100335836 0.145736486 0.558067143 -0.033883747 0.015369914 0.016492909 0.999171495
1341845851.478163 -0.100072362 0.147934586 0.565288961 -0.033580728 0.011894461 0.016654635 0.999226451
1341845851.514640 -0.098819181 0.151648566 0.562258899 -0.035122406 0.012014779 0.016302345 0.999177814
1341845851.546201 -0.102140814 0.150555015 0.570768595 -0.037957117 0.013280862 0.016813209 0.999049664
1341845851.581975 -0.098201513 0.147305742 0.574069381 -0.039125323 0.012952117 0.020320097 0.998943746
1341845851.616214 -0.096767142 0.147980660 0.574744940 -0.036219995 0.013835567 0.025829090 0.998914182
1341845851.681977 -0.098440222 0.149582088 0.583305001 -0.037357457 0.012165465 0.028097009 0.998832822
1341845851.714139 -0.095378332 0.150615111 0.586128891 -0.035720497 0.012544719 0.028176118 0.998885751
1341845851.745927 -0.105513029 0.153223127 0.591286600 -0.036128715 0.012329641 0.029449143 0.998837054
1341845851.781911 -0.098360561 0.152791470 0.594302416 -0.036813289 0.009470230 0.027461322 0.998899877
1341845851.813848 -0.095997125 0.148529083 0.596456885 -0.036786117 0.010891070 0.025642730 0.998934746
1341845851.849910 -0.097026594 0.150695205 0.602855206 -0.036334794 0.010856598 0.024249224 0.998986423
1341845851.881832 -0.092350192 0.143233851 0.602054715 -0.034772430 0.009412646 0.022900885 0.999088526
1341845851.913735 -0.087994613 0.151753798 0.598876536 -0.029918104 0.011554284 0.020056335 0.999284327
1341845851.949904 -0.090834901 0.149420261 0.602824152 -0.032079685 0.013237867 0.016524483 0.999261022
1341845851.982005 -0.086628832 0.149726644 0.595176399 -0.028968737 0.013559144 0.013857932 0.999392271
1341845852.017909 -0.089567348 0.149519309 0.595848501 -0.028428946 0.016859304 0.013067761 0.999368191
1341845852.050012 -0.086352460 0.149794683 0.591701984 -0.028924670 0.018545663 0.010989135 0.999349117
1341845852.082035 -0.082234532 0.145024568 0.588737547 -0.029744903 0.021570720 0.009425174 0.999280274
1341845852.121076 -0.078735605 0.148896292 0.587035239 -0.028173719 0.023643227 0.010415344 0.999269128
1341845852.163838 -0.075541578 0.146795452 0.582224607 -0.029504145 0.026801201 0.011288151 0.999141514
1341845852.190660 -0.077137090 0.146801576 0.582266808 -0.028103923 0.029697970 0.012695175 0.999083102
1341845852.223981 -0.082204603 0.142450124 0.573036671 -0.029321663 0.030780427 0.014268628 0.998994112
1341845852.286726 -0.084037796 0.149385870 0.569223106 -0.026495969 0.030436616 0.015256266 0.999068975
1341845852.349834 -0.084492013 0.142933458 0.558157563 -0.029333267 0.027281467 0.017510366 0.999043882
1341845852.385657 -0.089512452 0.144922808 0.555719078 -0.028325656 0.026245644 0.020009939 0.999053776
1341845852.417731 -0.087578379 0.145358175 0.551179945 -0.029998109 0.022756081 0.020534201 0.999079883
1341845852.449741 -0.085421018 0.139020115 0.545154274 -0.031877741 0.022677045 0.019187149 0.999050260
1341845852.485861 -0.090879366 0.143913835 0.538373530 -0.031342503 0.022191085 0.017642979 0.999106586
1341845852.517876 -0.094020076 0.139883056 0.531381667 -0.034667574 0.020222975 0.015781915 0.999069631
1341845852.553887 -0.095644094 0.137666956 0.524561882 -0.033027425 0.018926907 0.018422920 0.999105394
1341845852.617891 -0.099356838 0.139236182 0.507880270 -0.033917163 0.015189396 0.020360749 0.999101758
1341845852.653840 -0.097718082 0.140686393 0.500707805 -0.033736803 0.013980949 0.018913228 0.999153972
1341845852.685926 -0.102106638 0.138995469 0.491242915 -0.034984510 0.015063423 0.018248335 0.999107718
1341845852.717821 -0.104515336 0.130670026 0.474909604 -0.036808681 0.013204707 0.022078630 0.998991132
1341845852.753958 -0.100903608 0.139647365 0.476620257 -0.034529965 0.012758025 0.023397468 0.999048293
1341845852.785766 -0.104496747 0.140276402 0.466217309 -0.036340937 0.015981577 0.023559475 0.998933852
1341845852.822784 -0.109547906 0.130077869 0.454265922 -0.037935991 0.015708858 0.025853023 0.998822153
1341845852.885924 -0.108928941 0.138691187 0.440850765 -0.036924280 0.017935999 0.024317456 0.998861134
1341845852.921581 -0.111559838 0.141582191 0.434945166 -0.035890099 0.018319810 0.024536105 0.998886526
1341845852.953977 -0.111057885 0.136686340 0.426318944 -0.035297118 0.019610196 0.023347497 0.998911619
1341845852.989721 -0.116708115 0.144345015 0.415584296 -0.031737898 0.022133557 0.022792501 0.998991132
1341845853.021716 -0.123992689 0.146805450 0.411396533 -0.035528969 0.019997777 0.019845761 0.998971462
1341845853.053750 -0.122472718 0.136798218 0.398417622 -0.036496207 0.017729132 0.019087514 0.998994172
1341845853.089814 -0.127161607 0.151207179 0.392919004 -0.034721497 0.018024480 0.018379113 0.999065399
1341845853.121864 -0.129846752 0.140685201 0.378440857 -0.038946152 0.016700130 0.018291773 0.998934269
1341845853.159690 -0.127359509 0.134572566 0.371407151 -0.037735771 0.016157014 0.019257974 0.998971522
1341845853.195824 -0.132939205 0.139183909 0.365871608 -0.035502702 0.016744254 0.019845348 0.999032199
1341845853.227731 -0.133949757 0.141683668 0.357069254 -0.035929769 0.015710089 0.019308163 0.999044240
1341845853.263703 -0.133361816 0.133316413 0.344483346 -0.035866171 0.016440369 0.018718828 0.999046028
1341845853.296490 -0.137436911 0.135630250 0.336833477 -0.033075582 0.017898416 0.018740218 0.999116838
1341845853.327753 -0.143818036 0.139301375 0.327994406 -0.031596672 0.016923076 0.018843457 0.999179780
1341845853.363891 -0.140479043 0.131588280 0.318953872 -0.031795688 0.015701579 0.019440560 0.999181926
1341845853.395726 -0.138392419 0.134646699 0.305213392 -0.029384257 0.017366530 0.018736979 0.999241650
1341845853.463774 -0.149212852 0.132634893 0.289481938 -0.029667553 0.016629936 0.018369306 0.999252617
1341845853.525799 -0.155967087 0.135575041 0.271761566 -0.031070974 0.017300382 0.015285450 0.999250531
1341845853.557770 -0.156925619 0.132209867 0.263786018 -0.030673910 0.015150974 0.016221292 0.999282956
1341845853.589705 -0.153029233 0.135543227 0.252458543 -0.029602263 0.014310775 0.016432397 0.999324203
1341845853.625908 -0.162675351 0.136566743 0.242986083 -0.029529242 0.015075079 0.016867114 0.999307871
1341845853.657783 -0.160526022 0.135247692 0.234474957 -0.030145127 0.013367114 0.017627263 0.999300718
1341845853.689930 -0.159528062 0.133817703 0.224444062 -0.028264210 0.014015398 0.018723140 0.999326825
1341845853.725779 -0.164743677 0.138621509 0.214758292 -0.026906917 0.015740927 0.019107355 0.999331355
1341845853.757962 -0.165043041 0.134120628 0.206396431 -0.027394781 0.015890524 0.021243261 0.999272585
1341845853.793750 -0.164522395 0.136725679 0.197294921 -0.024858968 0.015637601 0.023702642 0.999287605
1341845853.825783 -0.169029534 0.141838282 0.186381727 -0.024448689 0.016351594 0.022410648 0.999316096
1341845853.857700 -0.177986056 0.138172224 0.182685256 -0.025216285 0.016707107 0.021826925 0.999304056
1341845853.893805 -0.180401891 0.139422432 0.173641279 -0.023869846 0.014713562 0.020172410 0.999403238
1341845853.925836 -0.174463555 0.152041405 0.161941797 -0.023831073 0.012857450 0.015967976 0.999505758
1341845853.957735 -0.175154075 0.140004084 0.157826275 -0.027632220 0.014100171 0.012566553 0.999439716
1341845853.993852 -0.182739839 0.135666519 0.152572155 -0.025897602 0.014981392 0.016026800 0.999423862
1341845854.025830 -0.180819660 0.145817831 0.144260824 -0.022956893 0.013112541 0.016852189 0.999508381
1341845854.061903 -0.176365331 0.154297039 0.133811563 -0.025065022 0.013729420 0.012566816 0.999512553
1341845854.093760 -0.185316682 0.141679421 0.134151384 -0.027782023 0.015527228 0.010781251 0.999435246
1341845854.125736 -0.193236411 0.148059264 0.123897858 -0.025003159 0.013305891 0.011720765 0.999530077
1341845854.161837 -0.186896816 0.155197367 0.116752669 -0.025002364 0.009883698 0.010296706 0.999585509
1341845854.193844 -0.182970777 0.160077482 0.112104617 -0.027284926 0.011690103 0.007663384 0.999529958
1341845854.229884 -0.195455834 0.155372366 0.105391547 -0.029490625 0.014024023 0.009733773 0.999419272
1341845854.261692 -0.193376362 0.160507873 0.098801464 -0.028796945 0.011303853 0.014757887 0.999412417
