1341845820.751833 0.0000000 0.0000000 0.0000000 0.0000000 0.0000000 0.0000000 1.0000000
1341845822.627724 -0.0538605 -0.0098465 0.0039262 0.0127519 0.0145523 -0.0021861 0.9998104
1341845822.663716 -0.1055639 -0.0322743 0.0821644 0.0094420 0.0184712 -0.0080064 0.9997528
1341845822.731816 -0.1103587 -0.0246985 0.0946521 0.0162177 0.0152035 -0.0040066 0.9997448
1341845822.989939 -0.1260239 -0.0352656 0.0507699 0.0213741 0.0145417 -0.0022891 0.9996632
1341845823.261842 -0.1496664 -0.0334428 0.0336698 0.0255915 0.0194191 -0.0002165 0.9994838
1341845823.529780 -0.1638901 -0.0326911 0.0241085 0.0274300 0.0289323 0.0078561 0.9991741
1341845823.695523 -0.1958933 -0.0388291 0.0001651 0.0292869 0.0257721 0.0128332 0.9991564
1341845823.797871 -0.2024917 -0.0350932 -0.0058188 0.0365261 0.0171237 0.0162019 0.9990546
1341845824.097956 -0.2036307 -0.0374430 -0.0500140 0.0340955 0.0053251 0.0072405 0.9993781
1341845824.165751 -0.2036287 -0.0374464 -0.0500058 0.0234030 0.0329458 0.0113075 0.9991191
1341845824.229907 -0.2036262 -0.0374448 -0.0500035 0.0282137 0.0339933 0.0150451 0.9989104
1341845824.298080 -0.2036235 -0.0374455 -0.0500037 0.0318117 0.0194824 0.0159956 0.9991760
1341845824.398039 -0.2036231 -0.0374457 -0.0500041 0.0359701 0.0144733 0.0137332 0.9991537
1341845824.501802 -0.2036215 -0.0374455 -0.0500042 0.0368251 0.0026033 0.0216549 0.9990837
1341845824.665789 -0.2036178 -0.0374450 -0.0500036 0.0316659 -0.0130463 0.0390211 0.9986513
1341845824.769643 -0.2036158 -0.0374466 -0.0500036 0.0306935 -0.0219646 0.0434300 0.9983433
1341845824.933752 -0.2036134 -0.0374447 -0.0500024 0.0329601 -0.0323341 0.0403452 0.9981184
1341845825.075793 -0.2036102 -0.0374439 -0.0500017 0.0343726 -0.0290016 0.0365522 0.9983193
1341845825.175707 -0.2036092 -0.0374444 -0.0500019 0.0435651 -0.0274786 0.0349175 0.9980620
1341845825.311665 -0.2036067 -0.0374442 -0.0500011 0.0496840 -0.0284677 0.0362532 0.9977008
1341845825.443786 -0.2036037 -0.0374460 -0.0500017 0.0433154 -0.0372429 0.0395782 0.9975823
1341845825.711937 -0.2036002 -0.0374446 -0.0500007 0.0400853 -0.0549642 0.0496342 0.9964480
1341845826.215780 -0.2035953 -0.0374453 -0.0499992 0.0284642 -0.0798445 0.0369687 0.9957148
1341845826.683753 -0.2035923 -0.0374457 -0.0499995 0.0168520 -0.1040920 0.0534005 0.9929901
1341845826.945792 -0.2035931 -0.0374480 -0.0499984 -0.0164891 -0.0947772 0.0466942 0.9942661
1341845827.113645 -0.2035929 -0.0374475 -0.0499984 -0.0365157 -0.0920288 0.0565108 0.9934807
1341845827.349700 -0.2035942 -0.0374475 -0.0499985 -0.0424775 -0.0820629 0.0587221 0.9939885
1341845827.823845 -0.2035982 -0.0374477 -0.0499986 -0.0351774 -0.0625517 0.0496064 0.9961873
1341845828.259785 -0.2036050 -0.0374479 -0.0499996 -0.0300402 -0.0213543 0.0587165 0.9975941
1341845828.654055 -0.2036111 -0.0374484 -0.0500010 -0.0323816 0.0059899 0.0652644 0.9973245
1341845829.293851 -0.2036234 -0.0374491 -0.0500041 -0.0207593 0.0184914 0.0786812 0.9965121
1341845829.493662 -0.2036271 -0.0374481 -0.0500047 -0.0069842 0.0134596 0.0761992 0.9969773
1341845829.693835 -0.2036308 -0.0374501 -0.0500064 -0.0060699 0.0136334 0.0745891 0.9971027
1341845829.861640 -0.2036324 -0.0374495 -0.0500064 -0.0022076 0.0069684 0.0640212 0.9979218
1341845830.097885 -0.2036378 -0.0374487 -0.0500072 0.0090708 0.0066801 0.0710880 0.9974064
1341845830.265730 -0.2036412 -0.0374514 -0.0500083 0.0148932 0.0066900 0.0809687 0.9965829
1341845830.465762 -0.2036464 -0.0374520 -0.0500087 0.0173264 0.0079333 0.0832592 0.9963457
1341845830.701788 -0.2036534 -0.0374533 -0.0500093 0.0197864 0.0200959 0.0882325 0.9957006
1341845830.901883 -0.2036589 -0.0374543 -0.0500093 0.0147266 0.0388372 0.0754255 0.9962860
1341845831.201715 -0.2036641 -0.0374542 -0.0500090 0.0145599 0.0517916 0.0672018 0.9962879
1341845831.437646 -0.2036702 -0.0374555 -0.0500096 0.0140062 0.0503349 0.0645456 0.9965461
1341845831.637789 -0.2036746 -0.0374568 -0.0500094 0.0065839 0.0610102 0.0622500 0.9961724
1341845831.941628 -0.2036811 -0.0374579 -0.0500086 -0.0137260 0.0867164 0.0714333 0.9935739
1341845832.241796 -0.2036873 -0.0374601 -0.0500078 -0.0170900 0.1012127 0.0694427 0.9922911
1341845832.541586 -0.2036935 -0.0374630 -0.0500083 -0.0328551 0.1071621 0.0751566 0.9908523
1341845832.845797 -0.2036987 -0.0374656 -0.0500078 -0.0430789 0.1205687 0.0851029 0.9881118
1341845833.113636 -0.2037042 -0.0374669 -0.0500066 -0.0493525 0.1349304 0.0877599 0.9857263
1341845833.381840 -0.2037117 -0.0374696 -0.0500057 -0.0515770 0.1542119 0.0928639 0.9823110
1341845833.752940 -0.2037150 -0.0374710 -0.0500045 -0.0555488 0.1548717 0.0967039 0.9816198
1341845834.355135 -0.2037103 -0.0374677 -0.0500050 -0.0618145 0.1511998 0.0828521 0.9830835
1341845835.125663 -0.2036858 -0.0374626 -0.0500091 -0.0520495 0.0901871 0.0642974 0.9924833
1341845835.493790 -0.2036625 -0.0374454 -0.0500539 -0.0373931 0.0480573 0.0584616 0.9964309
1341845835.661923 -0.2036571 -0.0374429 -0.0500561 -0.0306409 0.0309478 0.0644513 0.9969701
1341845836.003789 -0.2036598 -0.0374542 -0.0500139 -0.0136571 0.0159486 0.0669853 0.9975330
1341845836.372549 -0.2036507 -0.0374533 -0.0500113 -0.0014739 -0.0008048 0.0642038 0.9979354
1341845836.771652 -0.2036450 -0.0374499 -0.0500105 0.0206396 -0.0039121 0.0673648 0.9975072
1341845837.207675 -0.2036443 -0.0374431 -0.0500071 0.0492141 0.0109485 0.0695540 0.9963033
1341845837.543708 -0.2036463 -0.0374350 -0.0500038 0.0601762 0.0273873 0.0511490 0.9965001
1341845837.811909 -0.2036470 -0.0374302 -0.0500028 0.0760092 0.0470731 0.0369195 0.9953108
1341845838.273791 -0.2036455 -0.0374216 -0.0499978 0.0692407 0.0650165 0.0148986 0.9953676
1341845838.745913 -0.2036494 -0.0374187 -0.0499967 0.0729887 0.0734941 0.0086330 0.9945837
1341845839.077750 -0.2036474 -0.0374132 -0.0499947 0.0606742 0.0841313 -0.0043735 0.9945961
1341845839.413801 -0.2036520 -0.0374094 -0.0499933 0.0755933 0.0964291 0.0060786 0.9924465
1341845840.485943 -0.2036480 -0.0374199 -0.0499969 0.0059232 0.0780265 0.0097179 0.9968863
1341845840.957782 -0.2036458 -0.0374261 -0.0500000 -0.0075897 0.0657893 0.0097805 0.9977567
1341845841.325856 -0.2036452 -0.0374325 -0.0500018 -0.0008572 0.0669916 -0.0000906 0.9977531
1341845841.893840 -0.2036447 -0.0374387 -0.0500031 0.0080896 0.0472502 0.0253864 0.9985276
1341845843.281910 -0.2036440 -0.0374576 -0.0500091 -0.0228846 0.0271097 0.0499096 0.9981234
1341845843.669935 -0.2036447 -0.0374673 -0.0500111 -0.0426093 0.0355662 0.0528449 0.9970591
1341845844.037839 -0.2036456 -0.0374748 -0.0500130 -0.0415514 0.0599385 0.0668941 0.9950910
1341845844.273743 -0.2036472 -0.0374777 -0.0500127 -0.0402093 0.0655186 0.0636762 0.9950054
1341845844.573798 -0.2036450 -0.0374895 -0.0500165 -0.0695490 0.0640411 0.0666380 0.9932880
1341845844.811162 -0.2036413 -0.0374947 -0.0500164 -0.0810091 0.0404537 0.0731490 0.9932020
1341845845.145640 -0.2036416 -0.0375022 -0.0500202 -0.0992280 0.0110053 0.0508356 0.9937044
1341845845.445777 -0.2036429 -0.0375113 -0.0500266 -0.1138894 0.0121856 0.0512372 0.9920965
1341845845.481809 -0.2036427 -0.0375122 -0.0500275 -0.1201876 0.0114126 0.0471965 0.9915630
1341845845.545717 -0.2036428 -0.0375121 -0.0500275 -0.1234093 0.0080492 0.0492724 0.9910992
1341845845.887653 -0.2036426 -0.0375113 -0.0500267 -0.1495201 0.0047823 0.0412047 0.9878882
1341845846.185551 -0.2036427 -0.0375103 -0.0500262 -0.1597626 0.0081687 0.0451901 0.9860867
1341845846.517804 -0.2036426 -0.0375093 -0.0500264 -0.1898310 0.0135919 0.0515623 0.9803677
1341845847.089677 -0.2036426 -0.0375112 -0.0500272 -0.1668556 0.0114857 0.0438711 0.9849379
1341845847.489945 -0.2036427 -0.0375127 -0.0500285 -0.1214464 0.0208605 0.0373712 0.9916748
1341845847.657670 -0.2036430 -0.0375132 -0.0500294 -0.1153237 0.0152363 0.0229135 0.9929467
1341845847.861928 -0.2036429 -0.0375138 -0.0500300 -0.1062382 0.0138836 0.0326630 0.9937071
1341845848.132119 -0.2036429 -0.0375143 -0.0500302 -0.0956924 0.0044493 0.0437554 0.9944388
1341845848.232265 -0.2036431 -0.0375149 -0.0500310 -0.0938811 0.0031168 0.0380258 0.9948521
1341845848.267873 -0.2036430 -0.0375149 -0.0500310 -0.0918411 0.0033460 0.0376562 0.9950558
1341845848.435802 -0.2036432 -0.0375150 -0.0500314 -0.0941879 -0.0038456 0.0372284 0.9948507
1341845848.671815 -0.2036431 -0.0375153 -0.0500313 -0.0916475 -0.0047030 0.0369570 0.9950944
1341845848.771647 -0.2036430 -0.0375153 -0.0500315 -0.0792527 -0.0022537 0.0425187 0.9959448
1341845848.903622 -0.2036431 -0.0375153 -0.0500308 -0.0795885 0.0088514 0.0383925 0.9960489
1341845848.940608 -0.2036429 -0.0375154 -0.0500313 -0.0698006 0.0145554 0.0393510 0.9966782
1341845849.165908 -0.2036429 -0.0375151 -0.0500305 -0.0625214 0.0361641 0.0409964 0.9965453
1341845849.333730 -0.2036431 -0.0375151 -0.0500301 -0.0644276 0.0389326 0.0362772 0.9965025
1341845849.401811 -0.2036431 -0.0375150 -0.0500294 -0.0665127 0.0381460 0.0360765 0.9964032
1341845849.501641 -0.2036432 -0.0375150 -0.0500295 -0.0658216 0.0393857 0.0357994 0.9964109
1341845849.533689 -0.2036432 -0.0375150 -0.0500291 -0.0659668 0.0396405 0.0357350 0.9963935
1341845849.601759 -0.2036432 -0.0375149 -0.0500290 -0.0680668 0.0411223 0.0348633 0.9962231
1341845849.637837 -0.2036431 -0.0375150 -0.0500288 -0.0700134 0.0423479 0.0340574 0.9960647
1341845849.669719 -0.2036431 -0.0375152 -0.0500287 -0.0719561 0.0435720 0.0332514 0.9959007
1341845849.701927 -0.2036431 -0.0375152 -0.0500286 -0.0738961 0.0447959 0.0324450 0.9957309
1341845849.737804 -0.2036430 -0.0375153 -0.0500286 -0.0758350 0.0460200 0.0316383 0.9955552
1341845849.769688 -0.2036430 -0.0375153 -0.0500285 -0.0765115 0.0467006 0.0312876 0.9954829
1341845849.805874 -0.2036431 -0.0375153 -0.0500284 -0.0771867 0.0473784 0.0309377 0.9954097
1341845849.838002 -0.2036431 -0.0375153 -0.0500284 -0.0778616 0.0480558 0.0305878 0.9953354
1341845849.873756 -0.2036431 -0.0375152 -0.0500284 -0.0785365 0.0487331 0.0302378 0.9952602
1341845849.942380 -0.2036431 -0.0375153 -0.0500283 -0.0798861 0.0500871 0.0295378 0.9951065
1341845849.969808 -0.2036431 -0.0375153 -0.0500283 -0.0805606 0.0507640 0.0291876 0.9950282
1341845850.038041 -0.2036431 -0.0375153 -0.0500281 -0.0819091 0.0521168 0.0284872 0.9948685
1341845850.073843 -0.2036431 -0.0375153 -0.0500282 -0.0825829 0.0527929 0.0281368 0.9947870
1341845850.137727 -0.2036432 -0.0375152 -0.0500281 -0.0832567 0.0534689 0.0277864 0.9947047
1341845850.173748 -0.2036432 -0.0375152 -0.0500281 -0.0839304 0.0541447 0.0274360 0.9946212
1341845850.205888 -0.2036433 -0.0375153 -0.0500282 -0.0846039 0.0548200 0.0270855 0.9945368
1341845850.242190 -0.2036433 -0.0375153 -0.0500281 -0.0852774 0.0554950 0.0267351 0.9944513
1341845850.276369 -0.2036434 -0.0375153 -0.0500281 -0.0859508 0.0561699 0.0263846 0.9943647
1341845850.311979 -0.2036434 -0.0375153 -0.0500281 -0.0866241 0.0568445 0.0260341 0.9942772
1341845850.343827 -0.2036434 -0.0375153 -0.0500281 -0.0872974 0.0575190 0.0256835 0.9941887
1341845850.412359 -0.2036434 -0.0375153 -0.0500281 -0.0886436 0.0588675 0.0249823 0.9940085
1341845850.447279 -0.2036434 -0.0375153 -0.0500281 -0.0893166 0.0595416 0.0246316 0.9939168
1341845850.511722 -0.2036434 -0.0375154 -0.0500281 -0.0899893 0.0602157 0.0242810 0.9938241
1341845850.573894 -0.2036434 -0.0375154 -0.0500281 -0.0906619 0.0608896 0.0239304 0.9937304
1341845850.609794 -0.2036434 -0.0375155 -0.0500281 -0.0913344 0.0615635 0.0235798 0.9936357
1341845850.641744 -0.2036434 -0.0375155 -0.0500280 -0.0920067 0.0622373 0.0232292 0.9935400
1341845850.673755 -0.2036434 -0.0375155 -0.0500280 -0.0926788 0.0629110 0.0228786 0.9934432
1341845850.741802 -0.2036434 -0.0375155 -0.0500280 -0.0940225 0.0642581 0.0221773 0.9932466
1341845850.777740 -0.2036434 -0.0375155 -0.0500280 -0.0946941 0.0649315 0.0218267 0.9931468
1341845850.841900 -0.2036434 -0.0375156 -0.0500280 -0.0953656 0.0656047 0.0214760 0.9930459
1341845850.877766 -0.2036434 -0.0375156 -0.0500280 -0.0960369 0.0662777 0.0211253 0.9929441
1341845850.909781 -0.2036434 -0.0375155 -0.0500279 -0.0967081 0.0669505 0.0207746 0.9928412
1341845850.941758 -0.2036434 -0.0375155 -0.0500279 -0.0973792 0.0676233 0.0204239 0.9927372
1341845850.977762 -0.2036435 -0.0375155 -0.0500279 -0.0980502 0.0682959 0.0200732 0.9926323
1341845851.009834 -0.2036435 -0.0375155 -0.0500279 -0.0987210 0.0689684 0.0197226 0.9925264
1341845851.045751 -0.2036435 -0.0375155 -0.0500279 -0.0993918 0.0696408 0.0193719 0.9924194
1341845851.077894 -0.2036435 -0.0375155 -0.0500278 -0.1000624 0.0703131 0.0190213 0.9923113
1341845851.109747 -0.2036435 -0.0375155 -0.0500279 -0.1007329 0.0709853 0.0186707 0.9922023
1341845851.145889 -0.2036435 -0.0375155 -0.0500279 -0.1014033 0.0716572 0.0183201 0.9920922
1341845851.251733 -0.2036435 -0.0375155 -0.0500278 -0.1034139 0.0736722 0.0172682 0.9917559
1341845851.313813 -0.2036435 -0.0375155 -0.0500278 -0.1040838 0.0743437 0.0169175 0.9916418
1341845851.345834 -0.2036436 -0.0375155 -0.0500278 -0.1047537 0.0750151 0.0165668 0.9915266
1341845851.377718 -0.2036436 -0.0375155 -0.0500278 -0.1054234 0.0756864 0.0162161 0.9914104
1341845851.413805 -0.2036436 -0.0375155 -0.0500278 -0.1060929 0.0763575 0.0158654 0.9912931
1341845851.445896 -0.2036436 -0.0375155 -0.0500277 -0.1067624 0.0770285 0.0155147 0.9911749
1341845851.478163 -0.2036437 -0.0375155 -0.0500277 -0.1074318 0.0776995 0.0151640 0.9910556
1341845851.514640 -0.2036437 -0.0375155 -0.0500277 -0.1081011 0.0783703 0.0148133 0.9909353
1341845851.546201 -0.2036437 -0.0375155 -0.0500277 -0.1087703 0.0790410 0.0144626 0.9908140
1341845851.581975 -0.2036437 -0.0375155 -0.0500277 -0.1094393 0.0797117 0.0141119 0.9906917
1341845851.616214 -0.2036437 -0.0375155 -0.0500277 -0.1101082 0.0803822 0.0137612 0.9905683
1341845851.681977 -0.2036437 -0.0375155 -0.0500277 -0.1107770 0.0810525 0.0134106 0.9904439
1341845851.714139 -0.2036437 -0.0375155 -0.0500276 -0.1114456 0.0817228 0.0130599 0.9903185
1341845851.745927 -0.2036437 -0.0375155 -0.0500277 -0.1121141 0.0823929 0.0127093 0.9901921
1341845851.781911 -0.2036438 -0.0375155 -0.0500276 -0.1127824 0.0830627 0.0123587 0.9900646
1341845851.813848 -0.2036438 -0.0375155 -0.0500276 -0.1134506 0.0837324 0.0120081 0.9899362
1341845851.849910 -0.2036438 -0.0375155 -0.0500276 -0.1141186 0.0844019 0.0116575 0.9898067
1341845851.881832 -0.2036438 -0.0375156 -0.0500276 -0.1147865 0.0850714 0.0113068 0.9896762
1341845851.913735 -0.2036438 -0.0375156 -0.0500276 -0.1154542 0.0857407 0.0109561 0.9895447
1341845851.949904 -0.2036437 -0.0375156 -0.0500276 -0.1161218 0.0864100 0.0106054 0.9894122
1341845851.982005 -0.2036437 -0.0375157 -0.0500276 -0.1167893 0.0870791 0.0102547 0.9892787
1341845852.017909 -0.2036437 -0.0375157 -0.0500276 -0.1174566 0.0877482 0.0099040 0.9891441
1341845852.050012 -0.2036437 -0.0375157 -0.0500276 -0.1181238 0.0884172 0.0095533 0.9890085
1341845852.082035 -0.2036436 -0.0375157 -0.0500276 -0.1187908 0.0890861 0.0092025 0.9888719
1341845852.121076 -0.2036436 -0.0375157 -0.0500276 -0.1194578 0.0897549 0.0088517 0.9887343
1341845852.163838 -0.2036436 -0.0375157 -0.0500276 -0.1201246 0.0904237 0.0085009 0.9885957
1341845852.190660 -0.2036436 -0.0375157 -0.0500276 -0.1207913 0.0910924 0.0081501 0.9884560
1341845852.223981 -0.2036436 -0.0375157 -0.0500276 -0.1214578 0.0917610 0.0077993 0.9883153
1341845852.286726 -0.2036436 -0.0375158 -0.0500276 -0.1221242 0.0924295 0.0074485 0.9881735
1341845852.349834 -0.2036436 -0.0375158 -0.0500277 -0.1227905 0.0930979 0.0070977 0.9880308
1341845852.385657 -0.2036437 -0.0375158 -0.0500277 -0.1234567 0.0937662 0.0067469 0.9878871
1341845852.417731 -0.2036437 -0.0375158 -0.0500277 -0.1241227 0.0944343 0.0063961 0.9877423
1341845852.449741 -0.2036437 -0.0375158 -0.0500277 -0.1247885 0.0951024 0.0060453 0.9875965
1341845852.517876 -0.2036438 -0.0375158 -0.0500277 -0.1261198 0.0964381 0.0053438 0.9873018
1341845852.553887 -0.2036438 -0.0375158 -0.0500277 -0.1267853 0.0971058 0.0049930 0.9871530
1341845852.617891 -0.2036439 -0.0375158 -0.0500278 -0.1274506 0.0977733 0.0046422 0.9870031
1341845852.653840 -0.2036439 -0.0375158 -0.0500278 -0.1281157 0.0984407 0.0042914 0.9868522
1341845852.717821 -0.2036440 -0.0375158 -0.0500278 -0.1294457 0.0997751 0.0035899 0.9865475
1341845852.753958 -0.2036440 -0.0375158 -0.0500278 -0.1301105 0.1004421 0.0032392 0.9863935
1341845852.785766 -0.2036440 -0.0375158 -0.0500278 -0.1307752 0.1011089 0.0028884 0.9862385
1341845852.885924 -0.2036440 -0.0375159 -0.0500279 -0.1321042 0.1024423 0.0021870 0.9859256
1341845852.921581 -0.2036440 -0.0375159 -0.0500280 -0.1327686 0.1031089 0.0018363 0.9857676
1341845852.953977 -0.2036440 -0.0375159 -0.0500280 -0.1334327 0.1037753 0.0014856 0.9856085
1341845852.989721 -0.2036440 -0.0375159 -0.0500280 -0.1340967 0.1044417 0.0011349 0.9854485
1341845853.053750 -0.2036441 -0.0375159 -0.0500280 -0.1354242 0.1057740 0.0004335 0.9851254
1341845853.089814 -0.2036441 -0.0375159 -0.0500280 -0.1360877 0.1064400 0.0000829 0.9849623
1341845853.159690 -0.2036442 -0.0375159 -0.0500280 -0.1374143 0.1077714 -0.0006185 0.9846330
1341845853.195824 -0.2036442 -0.0375159 -0.0500280 -0.1380773 0.1084369 -0.0009692 0.9844669
1341845853.263703 -0.2036442 -0.0375160 -0.0500280 -0.1394030 0.1097674 -0.0016705 0.9841317
1341845853.327753 -0.2036442 -0.0375160 -0.0500281 -0.1407280 0.1110972 -0.0023717 0.9837924
1341845853.363891 -0.2036442 -0.0375161 -0.0500280 -0.1413902 0.1117619 -0.0027223 0.9836212
1341845853.463774 -0.2036443 -0.0375161 -0.0500281 -0.1427142 0.1130910 -0.0034234 0.9832758
1341845853.525799 -0.2036443 -0.0375161 -0.0500282 -0.1433759 0.1137554 -0.0037740 0.9831016
1341845853.557770 -0.2036444 -0.0375161 -0.0500282 -0.1440375 0.1144196 -0.0041246 0.9829264
1341845853.589705 -0.2036444 -0.0375161 -0.0500282 -0.1446990 0.1150836 -0.0044751 0.9827502
1341845853.625908 -0.2036444 -0.0375161 -0.0500282 -0.1453602 0.1157474 -0.0048255 0.9825730
1341845853.689930 -0.2036444 -0.0375162 -0.0500282 -0.1466824 0.1170745 -0.0055264 0.9822155
1341845853.725779 -0.2036445 -0.0375162 -0.0500282 -0.1473432 0.1177378 -0.0058768 0.9820353
1341845853.793750 -0.2036445 -0.0375163 -0.0500283 -0.1486644 0.1190638 -0.0065775 0.9816718
1341845853.857700 -0.2036446 -0.0375163 -0.0500283 -0.1499848 0.1203891 -0.0072782 0.9813043
1341845853.893805 -0.2036446 -0.0375163 -0.0500283 -0.1506448 0.1210514 -0.0076284 0.9811190
1341845853.957735 -0.2036446 -0.0375163 -0.0500283 -0.1519644 0.1223757 -0.0083290 0.9807454
1341845853.993852 -0.2036446 -0.0375163 -0.0500283 -0.1526239 0.1230375 -0.0086793 0.9805572
1341845854.061903 -0.2036446 -0.0375163 -0.0500284 -0.1539424 0.1243607 -0.0093796 0.9801776
1341845854.093760 -0.2036446 -0.0375163 -0.0500284 -0.1546013 0.1250219 -0.0097298 0.9799864
1341845854.161837 -0.2036448 -0.0375164 -0.0500285 -0.1559187 0.1263440 -0.0104301 0.9796008
1341845854.229884 -0.2036447 -0.0375163 -0.0500284 -0.1572355 0.1276657 -0.0111304 0.9792112
1341845854.261692 -0.2036448 -0.0375163 -0.0500285 -0.1578936 0.1283263 -0.0114805 0.9790149
1341845854.330249 -0.2036448 -0.0375163 -0.0500285 -0.1592095 0.1296471 -0.0121805 0.9786192
1341845854.361687 -0.2036448 -0.0375163 -0.0500286 -0.1598672 0.1303073 -0.0125305 0.9784199
1341845854.429762 -0.2036448 -0.0375163 -0.0500286 -0.1611821 0.1316269 -0.0132302 0.9780182
1341845854.497796 -0.2036448 -0.0375164 -0.0500285 -0.1624962 0.1329460 -0.0139299 0.9776126
1341845854.529719 -0.2036448 -0.0375164 -0.0500286 -0.1631529 0.1336054 -0.0142796 0.9774082
1341845854.597860 -0.2036448 -0.0375164 -0.0500286 -0.1644659 0.1349238 -0.0149792 0.9769965
1341845854.629736 -0.2036449 -0.0375164 -0.0500286 -0.1651221 0.1355827 -0.0153289 0.9767891
1341845854.697815 -0.2036449 -0.0375164 -0.0500285 -0.1664339 0.1368998 -0.0160282 0.9763715
1341845854.765688 -0.2036449 -0.0375165 -0.0500286 -0.1677449 0.1382162 -0.0167274 0.9759498
1341845854.829779 -0.2036450 -0.0375165 -0.0500286 -0.1690552 0.1395320 -0.0174266 0.9755242
1341845854.865670 -0.2036450 -0.0375166 -0.0500286 -0.1697100 0.1401896 -0.0177761 0.9753099
1341845854.930302 -0.2036450 -0.0375165 -0.0500286 -0.1710190 0.1415044 -0.0184754 0.9748783
1341845854.997629 -0.2036450 -0.0375166 -0.0500286 -0.1723273 0.1428187 -0.0191745 0.9744427
1341845855.033841 -0.2036450 -0.0375166 -0.0500287 -0.1729812 0.1434756 -0.0195241 0.9742233
1341845855.097795 -0.2036451 -0.0375166 -0.0500287 -0.1742884 0.1447889 -0.0202230 0.9737817
1341845855.165831 -0.2036452 -0.0375166 -0.0500287 -0.1755950 0.1461014 -0.0209218 0.9733360
1341845855.233747 -0.2036453 -0.0375166 -0.0500287 -0.1769009 0.1474132 -0.0216204 0.9728864
1341845855.301716 -0.2036453 -0.0375166 -0.0500286 -0.1782057 0.1487245 -0.0223191 0.9724329
1341845855.333726 -0.2036454 -0.0375166 -0.0500286 -0.1788578 0.1493798 -0.0226684 0.9722046
1341845855.401892 -0.2036454 -0.0375167 -0.0500286 -0.1801614 0.1506900 -0.0233668 0.9717450
1341845855.469817 -0.2036455 -0.0375167 -0.0500285 -0.1814642 0.1519994 -0.0240650 0.9712815
1341845855.533846 -0.2036455 -0.0375168 -0.0500286 -0.1827662 0.1533077 -0.0247630 0.9708141
1341845855.601707 -0.2036456 -0.0375168 -0.0500285 -0.1840672 0.1546151 -0.0254609 0.9703428
1341845855.669628 -0.2036456 -0.0375168 -0.0500285 -0.1853671 0.1559216 -0.0261587 0.9698676
1341845855.701786 -0.2036457 -0.0375168 -0.0500285 -0.1860167 0.1565745 -0.0265076 0.9696286
1341845855.769674 -0.2036457 -0.0375169 -0.0500285 -0.1873153 0.1578797 -0.0272053 0.9691475
1341845855.837801 -0.2036458 -0.0375169 -0.0500285 -0.1886130 0.1591836 -0.0279027 0.9686626
1341845855.901958 -0.2036458 -0.0375169 -0.0500285 -0.1899096 0.1604865 -0.0286001 0.9681738
1341845855.969840 -0.2036458 -0.0375169 -0.0500285 -0.1912053 0.1617884 -0.0292974 0.9676811
1341845856.038077 -0.2036458 -0.0375169 -0.0500284 -0.1918527 0.1624391 -0.0296460 0.9674333
1341845856.105773 -0.2036458 -0.0375170 -0.0500285 -0.1931471 0.1637403 -0.0303431 0.9669346
1341845856.137725 -0.2036459 -0.0375169 -0.0500286 -0.1937940 0.1643905 -0.0306916 0.9666839
1341845856.205833 -0.2036459 -0.0375169 -0.0500286 -0.1950873 0.1656906 -0.0313882 0.9661793
1341845856.273683 -0.2036459 -0.0375169 -0.0500286 -0.1963798 0.1669898 -0.0320846 0.9656707
1341845856.337653 -0.2036459 -0.0375169 -0.0500286 -0.1976717 0.1682883 -0.0327806 0.9651582
1341845856.405678 -0.2036459 -0.0375169 -0.0500286 -0.1989628 0.1695859 -0.0334762 0.9646418
1341845856.473680 -0.2036460 -0.0375169 -0.0500286 -0.2002531 0.1708826 -0.0341715 0.9641214
1341845856.541718 -0.2036460 -0.0375169 -0.0500286 -0.2015426 0.1721783 -0.0348665 0.9635972
1341845856.605758 -0.2036460 -0.0375169 -0.0500286 -0.2028314 0.1734731 -0.0355611 0.9630690
1341845856.673977 -0.2036460 -0.0375170 -0.0500286 -0.2041191 0.1747672 -0.0362556 0.9625369
1341845856.741736 -0.2036461 -0.0375170 -0.0500285 -0.2054060 0.1760606 -0.0369498 0.9620009
1341845856.809797 -0.2036461 -0.0375170 -0.0500286 -0.2066919 0.1773533 -0.0376438 0.9614610
1341845856.873762 -0.2036461 -0.0375170 -0.0500286 -0.2079769 0.1786448 -0.0383374 0.9609172
1341845856.977900 -0.2036461 -0.0375169 -0.0500286 -0.2092611 0.1799354 -0.0390306 0.9603695
1341845857.009735 -0.2036461 -0.0375169 -0.0500286 -0.2099029 0.1805804 -0.0393770 0.9600942
1341845857.077896 -0.2036461 -0.0375170 -0.0500286 -0.2111859 0.1818695 -0.0400696 0.9595407
1341845857.141583 -0.2036462 -0.0375170 -0.0500286 -0.2124678 0.1831577 -0.0407618 0.9589834
1341845857.209846 -0.2036461 -0.0375170 -0.0500286 -0.2137489 0.1844452 -0.0414538 0.9584221
1341845857.277737 -0.2036462 -0.0375170 -0.0500286 -0.2150289 0.1857316 -0.0421456 0.9578570
1341845857.345862 -0.2036462 -0.0375171 -0.0500286 -0.2163079 0.1870171 -0.0428373 0.9572881
1341845857.413693 -0.2036462 -0.0375171 -0.0500286 -0.2175857 0.1883017 -0.0435289 0.9567153
1341845857.477853 -0.2036462 -0.0375171 -0.0500286 -0.2188626 0.1895855 -0.0442202 0.9561386
1341845857.545992 -0.2036463 -0.0375171 -0.0500286 -0.2201384 0.1908685 -0.0449115 0.9555581
1341845857.646056 -0.2036462 -0.0375172 -0.0500286 -0.2214133 0.1921507 -0.0456027 0.9549736
1341845857.713765 -0.2036461 -0.0375173 -0.0500286 -0.2226871 0.1934322 -0.0462937 0.9543853
1341845857.781799 -0.2036461 -0.0375174 -0.0500286 -0.2239598 0.1947131 -0.0469845 0.9537931
1341845857.846046 -0.2036461 -0.0375174 -0.0500286 -0.2252315 0.1959932 -0.0476751 0.9531970
1341845857.913666 -0.2036461 -0.0375174 -0.0500287 -0.2265024 0.1972725 -0.0483655 0.9525970
1341845858.013803 -0.2036462 -0.0375173 -0.0500286 -0.2284068 0.1991899 -0.0494008 0.9516897
1341845858.081715 -0.2036463 -0.0375172 -0.0500287 -0.2296752 0.2004670 -0.0500905 0.9510800
1341845858.149725 -0.2036463 -0.0375172 -0.0500287 -0.2309427 0.2017431 -0.0507800 0.9504665
1341845858.281842 -0.2036464 -0.0375171 -0.0500287 -0.2328423 0.2036556 -0.0518135 0.9495389
1341845858.317768 -0.2036465 -0.0375171 -0.0500287 -0.2334750 0.2042926 -0.0521579 0.9492279
1341845858.417827 -0.2036465 -0.0375171 -0.0500287 -0.2353715 0.2062016 -0.0531905 0.9482889
1341845858.485842 -0.2036465 -0.0375171 -0.0500286 -0.2366344 0.2074731 -0.0538787 0.9476582
1341845858.549803 -0.2036466 -0.0375171 -0.0500286 -0.2378962 0.2087435 -0.0545667 0.9470237
1341845858.654134 -0.2036466 -0.0375172 -0.0500286 -0.2397870 0.2106470 -0.0555982 0.9460649
1341845858.717690 -0.2036466 -0.0375172 -0.0500286 -0.2410464 0.2119146 -0.0562856 0.9454210
1341845858.785618 -0.2036466 -0.0375172 -0.0500287 -0.2423048 0.2131811 -0.0569727 0.9447731
1341845858.885702 -0.2036466 -0.0375172 -0.0500286 -0.2441907 0.2150790 -0.0580029 0.9437943
1341845858.954158 -0.2036466 -0.0375172 -0.0500286 -0.2454466 0.2163431 -0.0586894 0.9431369
1341845859.053720 -0.2036466 -0.0375172 -0.0500287 -0.2473285 0.2182376 -0.0597189 0.9421436
1341845859.121873 -0.2036466 -0.0375172 -0.0500287 -0.2485819 0.2194995 -0.0604051 0.9414766
1341845859.221654 -0.2036466 -0.0375172 -0.0500287 -0.2504602 0.2213906 -0.0614340 0.9404689
1341845859.289745 -0.2036466 -0.0375171 -0.0500288 -0.2517112 0.2226502 -0.0621198 0.9397923
1341845859.389950 -0.2036465 -0.0375172 -0.0500288 -0.2535858 0.2245379 -0.0631481 0.9387701
1341845859.457807 -0.2036465 -0.0375172 -0.0500288 -0.2548341 0.2257953 -0.0638336 0.9380839
1341845859.557712 -0.2036465 -0.0375173 -0.0500288 -0.2567044 0.2276797 -0.0648615 0.9370474
1341845859.625646 -0.2036465 -0.0375173 -0.0500288 -0.2579500 0.2289350 -0.0655466 0.9363515
1341845859.725812 -0.2036464 -0.0375174 -0.0500288 -0.2598162 0.2308162 -0.0665738 0.9353007
1341845859.789818 -0.2036464 -0.0375175 -0.0500288 -0.2610590 0.2320691 -0.0672583 0.9345953
1341845859.893646 -0.2036464 -0.0375177 -0.0500287 -0.2629209 0.2339466 -0.0682846 0.9335303
1341845859.993847 -0.2036464 -0.0375177 -0.0500286 -0.2647804 0.2358216 -0.0693103 0.9324568
1341845860.057745 -0.2036466 -0.0375177 -0.0500285 -0.2660187 0.2370701 -0.0699937 0.9317364
1341845860.161703 -0.2036468 -0.0375178 -0.0500285 -0.2678740 0.2389410 -0.0710183 0.9306487
1341845860.225730 -0.2036469 -0.0375179 -0.0500284 -0.2691095 0.2401870 -0.0717009 0.9299189
1341845860.325872 -0.2036471 -0.0375180 -0.0500283 -0.2709605 0.2420540 -0.0727244 0.9288172
1341845860.429768 -0.2036473 -0.0375180 -0.0500282 -0.2728088 0.2439180 -0.0737471 0.9277072
1341845860.529831 -0.2036474 -0.0375179 -0.0500281 -0.2746545 0.2457795 -0.0747693 0.9265889
1341845860.604131 -0.2036475 -0.0375179 -0.0500281 -0.2758836 0.2470188 -0.0754501 0.9258386
1341845860.706028 -0.2036476 -0.0375179 -0.0500280 -0.2777251 0.2488752 -0.0764704 0.9247065
1341845860.772400 -0.2036477 -0.0375179 -0.0500281 -0.2789515 0.2501112 -0.0771499 0.9239472
1341845860.871717 -0.2036478 -0.0375179 -0.0500280 -0.2801767 0.2513459 -0.0778289 0.9231841
1341845860.965899 -0.2036479 -0.0375178 -0.0500279 -0.2814008 0.2525793 -0.0785074 0.9224174
1341845861.065806 -0.2036479 -0.0375178 -0.0500279 -0.2832345 0.2544270 -0.0795244 0.9212605
1341845861.133786 -0.2036479 -0.0375179 -0.0500279 -0.2844554 0.2556573 -0.0802019 0.9204847
1341845861.233683 -0.2036479 -0.0375179 -0.0500278 -0.2862844 0.2575008 -0.0812176 0.9193140
1341845861.333616 -0.2036479 -0.0375179 -0.0500278 -0.2881106 0.2593415 -0.0822323 0.9181352
1341845861.407792 -0.2036479 -0.0375180 -0.0500278 -0.2893264 0.2605672 -0.0829083 0.9173446
1341845861.507634 -0.2036479 -0.0375180 -0.0500277 -0.2911476 0.2624035 -0.0839216 0.9161521
1341845861.607759 -0.2036480 -0.0375180 -0.0500277 -0.2929656 0.2642370 -0.0849341 0.9149514
1341845861.707829 -0.2036480 -0.0375181 -0.0500276 -0.2947808 0.2660677 -0.0859458 0.9137426
1341845861.807676 -0.2036480 -0.0375181 -0.0500276 -0.2965930 0.2678960 -0.0869569 0.9125255
1341845861.907742 -0.2036480 -0.0375181 -0.0500275 -0.2984024 0.2697214 -0.0879669 0.9113003
1341845862.007930 -0.2036481 -0.0375182 -0.0500275 -0.3002087 0.2715442 -0.0889759 0.9100669
1341845862.107644 -0.2036480 -0.0375183 -0.0500274 -0.3020122 0.2733643 -0.0899842 0.9088253
1341845862.207672 -0.2036480 -0.0375182 -0.0500275 -0.3038130 0.2751820 -0.0909918 0.9075754
1341845862.311739 -0.2036480 -0.0375181 -0.0500275 -0.3056110 0.2769971 -0.0919986 0.9063172
1341845862.375792 -0.2036479 -0.0375182 -0.0500275 -0.3068081 0.2782057 -0.0926693 0.9054738
1341845862.479688 -0.2036478 -0.0375183 -0.0500274 -0.3086013 0.2800168 -0.0936748 0.9042018
1341845862.579869 -0.2036478 -0.0375183 -0.0500274 -0.3103917 0.2818256 -0.0946792 0.9029214
1341845862.679727 -0.2036478 -0.0375184 -0.0500275 -0.3121792 0.2836321 -0.0956829 0.9016328
1341845862.779732 -0.2036477 -0.0375185 -0.0500275 -0.3139635 0.2854362 -0.0966856 0.9003360
1341845862.879714 -0.2036478 -0.0375186 -0.0500275 -0.3157447 0.2872375 -0.0976876 0.8990312
1341845862.983749 -0.2036478 -0.0375186 -0.0500274 -0.3175231 0.2890357 -0.0986883 0.8977183
