1341846672.434330 0.0000000 0.0000000 0.0000000 0.0000000 0.0000000 0.0000000 1.0000000
1341846672.608881 -0.0006478 0.0172840 -0.0063041 0.0025723 -0.0056690 0.0088409 0.9999415
1341846672.640836 -0.0009491 0.0203451 -0.0110361 0.0024726 -0.0079957 0.0144583 0.9998605
1341846672.708152 -0.0016032 0.0221517 -0.0068067 0.0028826 -0.0107314 0.0291887 0.9995121
1341846672.803280 -0.0026479 0.0300189 -0.0002008 0.0080790 -0.0141563 0.0695099 0.9974481
1341846672.938315 -0.0064080 0.0264044 -0.0002453 0.0120197 -0.0236801 0.1109861 0.9934671
1341846673.106189 -0.0101320 0.0260220 0.0140012 0.0068284 -0.0368559 0.1725125 0.9842939
1341846673.274220 -0.0126107 0.0213988 0.0190864 0.0169158 -0.0435079 0.2289355 0.9723217
1341846673.338187 -0.0125812 0.0213891 0.0191270 0.0232784 -0.0441144 0.2496778 0.9670435
1341846673.406266 -0.0125855 0.0213868 0.0191327 0.0282095 -0.0424107 0.2730578 0.9606482
1341846673.438267 -0.0125763 0.0214149 0.0192933 0.0321008 -0.0430043 0.2869964 0.9564273
1341846673.542168 -0.0125616 0.0213863 0.0191225 0.0398541 -0.0447338 0.3293889 0.9422916
1341846673.606102 -0.0125730 0.0213751 0.0191492 0.0416578 -0.0507263 0.3524842 0.9335129
1341846673.648026 -0.0125675 0.0213813 0.0191373 0.0423238 -0.0563865 0.3649715 0.9283453
1341846673.742225 -0.0125670 0.0213805 0.0191255 0.0376883 -0.0752174 0.4040488 0.9108603
1341846673.842305 -0.0125698 0.0213802 0.0191380 0.0377960 -0.0921692 0.4471540 0.8888924
1341846673.942284 -0.0125605 0.0213834 0.0191099 0.0315647 -0.1055210 0.4757940 0.8726334
1341846674.210322 -0.0125554 0.0213868 0.0191007 0.0134042 -0.1072063 0.5321095 0.8397539
1341846674.478198 -0.0125577 0.0213849 0.0191069 0.0009218 -0.1078029 0.5865422 0.8027116
1341846674.814222 -0.0125567 0.0213849 0.0191067 -0.0072856 -0.1016635 0.6385632 0.7627899
1341846674.982342 -0.0125555 0.0213846 0.0191073 -0.0163912 -0.1059489 0.6601242 0.7434663
1341846675.282406 -0.0108444 0.0225056 0.0162159 -0.0832130 -0.1514380 0.6648522 0.7267143
1341846675.350149 -0.0092337 0.0234117 0.0111667 -0.0957873 -0.1538147 0.6667151 0.7229501
1341846675.450238 -0.0118669 0.0224986 0.0217118 -0.1176530 -0.1545942 0.6702476 0.7162587
1341846675.518083 -0.0108649 0.0223767 0.0162368 -0.1063860 -0.1369922 0.6856316 0.7069826
1341846675.686118 -0.0105443 0.0224949 0.0166094 -0.0904662 -0.1182613 0.6980878 0.7003596
1341846675.886163 -0.0108614 0.0224295 0.0165687 -0.0730258 -0.0914579 0.6956691 0.7087646
1341846676.122163 -0.0105664 0.0218660 0.0163998 -0.0355568 -0.0684780 0.6885872 0.7210369
1341846676.222476 -0.0104422 0.0210124 0.0165734 -0.0436501 -0.0712969 0.6863764 0.7224257
1341846676.290401 -0.0106799 0.0208403 0.0163678 -0.0524196 -0.0734233 0.6847355 0.7231863
1341846676.360815 -0.0101468 0.0200884 0.0148422 -0.0728912 -0.0764329 0.6761551 0.7291496
1341846676.424250 -0.0108399 0.0206239 0.0154895 -0.0782237 -0.0745101 0.6730046 0.7317063
1341846676.532743 -0.0107779 0.0204083 0.0147925 -0.0939605 -0.0673337 0.6716096 0.7318320
1341846676.632057 -0.0107493 0.0203457 0.0145298 -0.1056994 -0.0636679 0.6666225 0.7351112
1341846676.726102 -0.0107460 0.0203281 0.0143499 -0.1107710 -0.0565426 0.6595257 0.7413222
1341846676.826179 -0.0107427 0.0203245 0.0143416 -0.1139183 -0.0456919 0.6562811 0.7444662
1341846676.958080 -0.0107414 0.0203293 0.0143386 -0.1165262 -0.0402959 0.6566204 0.7440749
1341846677.162066 -0.0107416 0.0203281 0.0143401 -0.1129113 -0.0403345 0.6568015 0.7444703
1341846677.326503 -0.0107421 0.0203270 0.0143414 -0.1139886 -0.0379081 0.6559374 0.7451951
1341846677.468326 -0.0107424 0.0203269 0.0143418 -0.1159346 -0.0294933 0.6542336 0.7467715
1341846677.594105 -0.0107423 0.0203268 0.0143418 -0.1152686 -0.0210000 0.6506776 0.7502605
1341846677.898344 -0.0107424 0.0203268 0.0143419 -0.1114683 -0.0126067 0.6475336 0.7537348
1341846677.998516 -0.0107424 0.0203268 0.0143419 -0.1049504 -0.0058346 0.6449189 0.7569882
1341846678.066187 -0.0107425 0.0203269 0.0143419 -0.0978980 -0.0045815 0.6461007 0.7569338
1341846678.134082 -0.0107427 0.0203270 0.0143418 -0.0908348 -0.0033359 0.6472510 0.7568383
1341846678.166092 -0.0107427 0.0203272 0.0143418 -0.0872989 -0.0027104 0.6478128 0.7567762
1341846678.204293 -0.0107428 0.0203273 0.0143418 -0.0837666 -0.0020827 0.6483662 0.7567035
1341846678.266209 -0.0107428 0.0203272 0.0143418 -0.0802527 -0.0014556 0.6489061 0.7566229
1341846678.298316 -0.0107429 0.0203273 0.0143418 -0.0767157 -0.0008362 0.6494439 0.7565294
