1341846674.752271 0.0000000 0.0000000 0.0000000 0.0000000 0.0000000 0.0000000 1.0000000
1341846674.982342 -0.0027909 0.0129170 -0.0182664 -0.0051788 0.0030930 0.0451146 0.9989636
1341846675.014137 -0.0009746 0.0204496 -0.0129879 -0.0129918 0.0011965 0.0499977 0.9986641
1341846675.088201 0.0051431 0.0150787 -0.0111524 -0.0285672 -0.0004759 0.0580656 0.9979038
1341846675.150188 0.0029966 0.0533878 -0.0120612 -0.0487641 0.0014862 0.0637038 0.9967756
1341846675.218759 0.0029509 0.0129333 -0.0072779 -0.0749167 0.0057202 0.0667538 0.9949365
1341846675.282406 0.0063142 0.0069506 -0.0125325 -0.0853509 0.0068308 0.0707717 0.9938108
1341846675.350149 0.0073151 0.0255259 -0.0283278 -0.0940485 0.0124075 0.0766638 0.9925339
1341846675.450238 0.0019598 0.0125718 0.0177231 -0.1128407 0.0256115 0.0849846 0.9896407
1341846675.518083 0.0018422 0.0194713 0.0243701 -0.0915909 0.0300732 0.1015692 0.9901466
1341846675.618075 0.0000220 0.0133961 0.0270787 -0.0762510 0.0360317 0.1136527 0.9899346
1341846675.686118 0.0000954 0.0135334 0.0273638 -0.0667066 0.0347784 0.1149381 0.9905200
1341846675.754170 -0.0000091 0.0134625 0.0275458 -0.0556030 0.0394489 0.1102918 0.9915583
1341846675.818106 -0.0000143 0.0134641 0.0275462 -0.0487514 0.0447525 0.1062629 0.9921334
1341846675.922346 -0.0000151 0.0134643 0.0275216 -0.0275290 0.0468553 0.1059769 0.9928825
1341846676.028080 -0.0000267 0.0134533 0.0274517 0.0035101 0.0446534 0.0982041 0.9941578
1341846676.122163 0.0001713 0.0133042 0.0277855 0.0079332 0.0393180 0.0879944 0.9953131
1341846676.222476 -0.0009917 0.0128493 0.0290877 -0.0014418 0.0437640 0.0838749 0.9955137
1341846676.290401 -0.0027842 0.0132230 0.0272940 -0.0101263 0.0487522 0.0809569 0.9954731
1341846676.360815 -0.0040274 0.0124012 0.0235350 -0.0291629 0.0578929 0.0719293 0.9953010
1341846676.490669 -0.0040544 0.0132958 0.0251043 -0.0390681 0.0761762 0.0752345 0.9934841
1341846676.632057 -0.0041543 0.0131633 0.0247885 -0.0476861 0.0933932 0.0721179 0.9918683
1341846676.758419 -0.0042366 0.0131858 0.0245845 -0.0454424 0.1068335 0.0629462 0.9912413
1341846676.826179 -0.0042353 0.0131860 0.0245781 -0.0442808 0.1130935 0.0590615 0.9908384
1341846676.994140 -0.0042352 0.0131857 0.0245782 -0.0417007 0.1174992 0.0603295 0.9903612
1341846677.162066 -0.0042355 0.0131860 0.0245784 -0.0399423 0.1167152 0.0587463 0.9906216
1341846677.226206 -0.0042355 0.0131860 0.0245785 -0.0413171 0.1165736 0.0583828 0.9906033
1341846677.394280 -0.0042356 0.0131860 0.0245786 -0.0371324 0.1222867 0.0581581 0.9900934
1341846677.530161 -0.0042357 0.0131860 0.0245786 -0.0317358 0.1302620 0.0533497 0.9895344
1341846677.862185 -0.0042358 0.0131860 0.0245787 -0.0258024 0.1388288 0.0467625 0.9888752
1341846677.998516 -0.0042358 0.0131859 0.0245787 -0.0139368 0.1406079 0.0424763 0.9890556
1341846678.166092 -0.0042358 0.0131860 0.0245786 -0.0038133 0.1373365 0.0420024 0.9896262
1341846678.334135 -0.0042358 0.0131861 0.0245786 0.0042652 0.1316059 0.0421681 0.9903957
