1341846434.710184 0.0000000 0.0000000 0.0000000 0.0000000 0.0000000 0.0000000 1.0000000
1341846434.878202 0.0384375 -0.0074874 -0.0252831 0.0016233 0.0006294 -0.0079032 0.9999673
1341846434.914148 0.0439274 -0.0087713 -0.0430440 0.0008998 -0.0067761 -0.0181201 0.9998124
1341846434.946443 0.0547066 -0.0175791 -0.0639434 -0.0016865 -0.0204087 -0.0267694 0.9994318
1341846434.978088 0.0607965 -0.0179848 -0.0385710 -0.0010599 -0.0273909 -0.0286524 0.9992135
1341846435.045942 0.0898546 -0.0244874 -0.0439620 0.0017744 -0.0368035 -0.0279481 0.9989300
1341846435.077985 0.1038139 -0.0281094 -0.0434084 0.0036203 -0.0359757 -0.0280595 0.9989521
1341846435.146181 0.1149300 -0.0358634 -0.0501524 0.0102649 -0.0353690 -0.0272798 0.9989492
1341846435.213955 0.1314758 -0.0452474 -0.0600262 0.0138076 -0.0459153 -0.0193661 0.9986622
1341846435.281968 0.1428564 -0.0413188 -0.0636493 0.0182809 -0.0612932 -0.0130936 0.9978665
1341846435.382078 0.1850615 -0.0551125 -0.0579311 0.0126913 -0.0798902 -0.0091649 0.9966807
1341846435.450323 0.2038675 -0.0552491 -0.0638758 0.0184006 -0.0883396 -0.0058128 0.9959035
1341846435.513983 0.2370708 -0.0498472 -0.0526885 0.0195680 -0.0878949 -0.0089763 0.9958971
1341846435.582003 0.2468662 -0.0634478 -0.0634751 0.0154985 -0.0889471 -0.0123167 0.9958396
1341846435.650183 0.2748113 -0.0655632 -0.0616125 0.0219187 -0.1029314 -0.0142402 0.9943449
1341846435.717877 0.3019971 -0.0634202 -0.0630401 0.0257086 -0.1050939 -0.0161138 0.9939994
1341846435.782022 0.3250631 -0.0738580 -0.0710323 0.0260642 -0.1117152 -0.0176634 0.9932414
1341846435.849992 0.3525964 -0.0743644 -0.0670790 0.0276970 -0.1178109 -0.0187288 0.9924730
1341846435.918077 0.3800736 -0.0670210 -0.0716356 0.0286617 -0.1257987 -0.0179172 0.9914798
1341846435.986080 0.4023244 -0.0853308 -0.0759682 0.0287819 -0.1339432 -0.0137449 0.9904756
1341846436.085970 0.4402689 -0.0724306 -0.0698198 0.0276314 -0.1480307 -0.0077557 0.9885663
1341846436.185994 0.4784398 -0.0870746 -0.0624140 0.0272892 -0.1575374 -0.0022124 0.9871334
1341846436.553975 0.5383657 -0.0913939 -0.0354942 0.0230756 -0.1835700 -0.0014758 0.9827347
1341846436.654125 0.5646292 -0.0944003 -0.0047796 0.0183210 -0.1993664 -0.0069058 0.9797294
1341846436.754167 0.5808573 -0.0960547 0.0194522 0.0180401 -0.2191762 -0.0107763 0.9754590
1341846436.858129 0.6275248 -0.0834160 0.0285739 0.0201772 -0.2389978 -0.0123706 0.9707316
1341846436.958108 0.6479605 -0.0949418 0.0412974 0.0168669 -0.2509284 -0.0015236 0.9678575
1341846437.058136 0.6758292 -0.0969641 0.0567382 0.0128365 -0.2631173 0.0024124 0.9646754
1341846437.158050 0.7055212 -0.0795450 0.0667831 0.0041137 -0.2737135 0.0042699 0.9617930
1341846437.258123 0.7264773 -0.0792230 0.0875456 -0.0224795 -0.2819583 0.0020643 0.9591610
1341846437.364153 0.7448370 -0.0840291 0.1154496 -0.0411736 -0.2950767 0.0047607 0.9545742
1341846437.500080 0.7736861 -0.0894585 0.1374775 -0.0601588 -0.3136431 0.0012692 0.9476325
1341846437.632742 0.8107302 -0.0983231 0.1751629 -0.0498944 -0.3255287 0.0041219 0.9442058
1341846437.795294 0.8497247 -0.0969252 0.2058164 -0.0404888 -0.3057370 -0.0177251 0.9510896
1341846437.961942 0.8751293 -0.1114145 0.2168009 -0.0372277 -0.2970173 -0.0059248 0.9541277
1341846438.298333 0.8839824 -0.1058526 0.2794577 -0.0381400 -0.2916644 -0.0118870 0.9556861
1341846438.634113 0.7934589 -0.0797234 0.2905725 -0.0415286 -0.2525782 0.0016763 0.9666834
1341846438.801972 0.7521425 -0.0691059 0.2957198 -0.0482376 -0.2047649 0.0078805 0.9775901
1341846439.001871 0.6851239 -0.0790588 0.3135384 -0.0447888 -0.1722824 0.0022460 0.9840263
1341846439.202174 0.5990855 -0.0787149 0.3035488 -0.0230921 -0.1246502 0.0025591 0.9919287
1341846439.437979 0.4811743 -0.0883970 0.2881327 -0.0024715 -0.0791713 -0.0029163 0.9968537
1341846439.670177 0.3829070 -0.0900344 0.2805920 0.0132313 -0.0555566 -0.0045205 0.9983577
1341846439.906194 0.3055266 -0.0923773 0.2816311 0.0157501 -0.0129572 -0.0069409 0.9997679
1341846440.173898 0.1725270 -0.0870937 0.3017406 0.0107807 0.0446204 0.0023487 0.9989431
1341846440.442063 0.0618878 -0.0802114 0.3040773 0.0275943 0.0778463 0.0053994 0.9965688
1341846440.642042 -0.0451894 -0.0729555 0.2998061 0.0279201 0.1051299 -0.0070723 0.9940413
1341846440.846329 -0.1390647 -0.0749284 0.3031107 0.0154310 0.1301166 -0.0037183 0.9913716
1341846441.052118 -0.2493271 -0.0695322 0.3185362 0.0160736 0.1372593 0.0153627 0.9902856
1341846441.314084 -0.3270102 -0.0631001 0.2986668 0.0151106 0.1560868 0.0097582 0.9875795
1341846441.582260 -0.4440188 -0.0731197 0.3064735 0.0208572 0.1642301 0.0055620 0.9861858
1341846441.850011 -0.5446922 -0.0768356 0.3258822 0.0085085 0.1855637 0.0044899 0.9825851
1341846442.086050 -0.6294559 -0.0862944 0.3778558 -0.0152008 0.1967008 0.0177683 0.9801847
1341846442.254276 -0.6897834 -0.1171261 0.4223365 -0.0124116 0.2102813 0.0182393 0.9773920
1341846442.286112 -0.7071334 -0.1154444 0.3776925 -0.0152300 0.2161913 0.0180943 0.9760645
1341846442.417971 -0.7289817 -0.1240106 0.4483282 -0.0375783 0.2525277 0.0176496 0.9666986
1341846442.522074 -0.7463353 -0.1307510 0.4440917 -0.0443741 0.2710298 0.0303255 0.9610693
1341846442.553917 -0.7527188 -0.1292432 0.4442998 -0.0512391 0.2828695 0.0315538 0.9572689
1341846442.790054 -0.8426253 -0.1293573 0.5459341 -0.0516656 0.3464649 0.0228832 0.9363595
1341846443.090123 -0.9140657 -0.1405349 0.6593276 -0.0470808 0.3619329 0.0364936 0.9302990
1341846443.390137 -0.9768111 -0.1393318 0.7367380 -0.0354019 0.3627012 0.0540834 0.9296610
1341846443.658166 -1.0273026 -0.1233110 0.7824294 -0.0602752 0.4059553 0.0628844 0.9097322
1341846443.900439 -1.0970131 -0.1277505 0.9025899 -0.0796532 0.4211256 0.0673312 0.9009857
1341846444.162326 -1.1312777 -0.1168302 0.9738821 -0.0856546 0.4212529 0.0642124 0.9006032
1341846444.429979 -1.1468298 -0.0986398 1.0001948 -0.0948817 0.3976671 0.0772000 0.9093396
1341846444.734205 -1.1178095 -0.1208764 0.9404266 -0.0892988 0.3727404 0.0703159 0.9209484
1341846445.134054 -1.0271982 -0.1260763 0.7593629 -0.0766476 0.3402705 0.0701353 0.9345706
1341846445.537946 -0.8656065 -0.1191488 0.5887536 -0.0601975 0.2607445 0.0354868 0.9628755
1341846445.670085 -0.8291293 -0.1231137 0.5634728 -0.0530874 0.2412145 0.0270916 0.9686400
1341846446.742013 -0.3495367 -0.0429043 0.3423921 -0.0651804 0.0558568 0.0130633 0.9962233
1341846447.252104 -0.1533263 -0.0202005 0.2699747 -0.0938288 0.0320253 0.0106562 0.9950161
1341846447.756116 -0.1534658 -0.0284762 0.2463936 -0.1289252 0.0288889 0.0230693 0.9909649
1341846448.150222 -0.1554227 -0.0576770 0.2167680 -0.1531296 0.0390212 0.0140559 0.9873354
1341846448.586105 -0.1665023 -0.0886355 0.1984582 -0.1590606 0.0292505 0.0121911 0.9867601
1341846448.954059 -0.1583434 -0.0661574 0.1618057 -0.1851173 0.0316741 0.0003279 0.9822058
1341846449.357984 -0.1598573 -0.1047140 0.1827044 -0.2041888 0.0469593 0.0029287 0.9778002
1341846449.594265 -0.1594710 -0.1409640 0.2226126 -0.1930285 0.0539899 0.0126996 0.9796243
1341846449.658161 -0.1622408 -0.1452876 0.2366432 -0.1882266 0.0548357 0.0094038 0.9805485
1341846449.725937 -0.1661268 -0.1448258 0.2520663 -0.1946925 0.0596050 0.0077532 0.9790209
1341846449.757969 -0.1700289 -0.1409864 0.2590831 -0.1982584 0.0595201 0.0117189 0.9782707
1341846449.861992 -0.1806287 -0.1336411 0.2889240 -0.1976189 0.0595848 0.0066963 0.9784434
1341846449.962133 -0.1918115 -0.1260399 0.3252904 -0.1871634 0.0646900 0.0047178 0.9801851
1341846450.130133 -0.2075204 -0.1129882 0.3621146 -0.1822187 0.0721664 -0.0079513 0.9805739
1341846450.262009 -0.2116868 -0.1126567 0.3924136 -0.1901800 0.0706770 -0.0083483 0.9791663
1341846450.294220 -0.2125937 -0.1116572 0.3971457 -0.1874528 0.0675530 -0.0073535 0.9799204
1341846450.398035 -0.2135654 -0.1112523 0.3989923 -0.1830921 0.0646090 -0.0140071 0.9808704
1341846450.429941 -0.2141208 -0.1106794 0.4010325 -0.1824868 0.0628114 -0.0126443 0.9811184
1341846450.461928 -0.2138535 -0.1108959 0.4003073 -0.1816523 0.0595153 -0.0180343 0.9813945
1341846450.561983 -0.2140701 -0.1105866 0.4014659 -0.1814121 0.0548807 -0.0310438 0.9813837
1341846450.630436 -0.2142122 -0.1104229 0.4019792 -0.1811279 0.0509437 -0.0301857 0.9816752
1341846450.666178 -0.2141887 -0.1104522 0.4019226 -0.1823198 0.0457974 -0.0279004 0.9817758
1341846450.698174 -0.2142355 -0.1104173 0.4020790 -0.1827922 0.0397094 -0.0220914 0.9821009
1341846450.730214 -0.2142243 -0.1104148 0.4020691 -0.1843696 0.0328914 -0.0184901 0.9821324
1341846450.765977 -0.2142357 -0.1104168 0.4020786 -0.1865457 0.0278340 -0.0224623 0.9817950
1341846450.866022 -0.2142357 -0.1104162 0.4020814 -0.1896899 0.0258680 -0.0392321 0.9807189
1341846450.934091 -0.2142393 -0.1104139 0.4020903 -0.1954435 0.0239900 -0.0390866 0.9796420
1341846450.966100 -0.2142362 -0.1104134 0.4020868 -0.1932880 0.0190097 -0.0401953 0.9801341
1341846450.998096 -0.2142377 -0.1104152 0.4020880 -0.1949970 0.0156192 -0.0464928 0.9795768
1341846451.034057 -0.2142383 -0.1104145 0.4020890 -0.1991208 0.0157819 -0.0529299 0.9784172
1341846451.133979 -0.2142384 -0.1104141 0.4020902 -0.2050882 0.0124311 -0.0585402 0.9769121
1341846451.302134 -0.2142386 -0.1104143 0.4020907 -0.2035711 0.0052140 -0.0551186 0.9774935
1341846451.770041 -0.2142376 -0.1104155 0.4020861 -0.1834520 0.0435854 -0.0568186 0.9804169
1341846451.937970 -0.2142374 -0.1104157 0.4020850 -0.1929094 0.0478459 -0.0568854 0.9783971
1341846451.970138 -0.2142374 -0.1104158 0.4020849 -0.1898802 0.0448507 -0.0578032 0.9790775
1341846452.037935 -0.2142371 -0.1104165 0.4020834 -0.1796100 0.0359989 -0.0567066 0.9814422
1341846452.174074 -0.2142370 -0.1104167 0.4020823 -0.1710880 0.0235055 -0.0489442 0.9837585
1341846452.206235 -0.2142369 -0.1104168 0.4020818 -0.1625516 0.0184296 -0.0456796 0.9854698
1341846452.238073 -0.2142369 -0.1104167 0.4020815 -0.1561683 0.0158972 -0.0431208 0.9866607
1341846452.306097 -0.2142368 -0.1104168 0.4020812 -0.1471753 0.0163342 -0.0400811 0.9881630
1341846452.342082 -0.2142369 -0.1104167 0.4020808 -0.1413300 0.0164368 -0.0375813 0.9891124
1341846452.374034 -0.2142368 -0.1104166 0.4020805 -0.1410492 0.0174864 -0.0354013 0.9892149
1341846452.406041 -0.2142367 -0.1104166 0.4020805 -0.1415112 0.0202690 -0.0331096 0.9891751
1341846452.442053 -0.2142371 -0.1104168 0.4020807 -0.1409263 0.0214747 -0.0306478 0.9893125
1341846452.474108 -0.2142377 -0.1104172 0.4020802 -0.1404017 0.0226969 -0.0282042 0.9894325
1341846452.506073 -0.2142377 -0.1104173 0.4020799 -0.1411466 0.0236065 -0.0263303 0.9893569
1341846452.542118 -0.2142377 -0.1104172 0.4020799 -0.1418920 0.0245167 -0.0244568 0.9892762
1341846452.574108 -0.2142380 -0.1104174 0.4020801 -0.1426351 0.0254284 -0.0225827 0.9891909
1341846452.610038 -0.2142382 -0.1104178 0.4020801 -0.1433780 0.0263400 -0.0207088 0.9891006
1341846452.642126 -0.2142382 -0.1104180 0.4020799 -0.1441194 0.0272491 -0.0188344 0.9890057
1341846452.709891 -0.2142381 -0.1104180 0.4020797 -0.1456018 0.0290683 -0.0150861 0.9888011
1341846452.742117 -0.2142381 -0.1104180 0.4020798 -0.1463414 0.0299792 -0.0132122 0.9886915
1341846452.774020 -0.2142380 -0.1104181 0.4020797 -0.1470798 0.0308887 -0.0113379 0.9885772
1341846452.810050 -0.2142379 -0.1104181 0.4020797 -0.1478182 0.0317988 -0.0094636 0.9884579
1341846452.842060 -0.2142379 -0.1104182 0.4020797 -0.1485557 0.0327081 -0.0075894 0.9883338
1341846452.910212 -0.2142377 -0.1104183 0.4020797 -0.1492922 0.0336174 -0.0057149 0.9882050
1341846452.942284 -0.2142378 -0.1104184 0.4020797 -0.1500276 0.0345266 -0.0038404 0.9880713
1341846452.978269 -0.2142379 -0.1104187 0.4020797 -0.1507621 0.0354355 -0.0019659 0.9879328
1341846453.010078 -0.2142378 -0.1104186 0.4020796 -0.1514968 0.0363444 -0.0000918 0.9877893
1341846453.046005 -0.2142377 -0.1104184 0.4020796 -0.1522307 0.0372530 0.0017821 0.9876410
1341846453.078276 -0.2142378 -0.1104184 0.4020796 -0.1529629 0.0381619 0.0036564 0.9874880
1341846453.111410 -0.2142379 -0.1104186 0.4020796 -0.1536945 0.0390706 0.0055307 0.9873302
1341846453.152099 -0.2142378 -0.1104187 0.4020796 -0.1544255 0.0399790 0.0074047 0.9871675
1341846453.210744 -0.2142379 -0.1104190 0.4020797 -0.1551555 0.0408870 0.0092788 0.9870000
1341846453.246368 -0.2142380 -0.1104194 0.4020797 -0.1558847 0.0417953 0.0111527 0.9868276
1341846453.281016 -0.2142380 -0.1104196 0.4020795 -0.1566134 0.0427030 0.0130264 0.9866504
1341846454.524037 -0.3486992 0.0993025 0.2778525 0.0248483 0.0379780 -0.0417052 0.9980987
1341846455.153946 -0.3355947 0.3061167 0.3231320 0.0992889 0.0393981 -0.0036884 0.9942715
1341846455.258176 -0.3360876 0.3428890 0.3272440 0.1053318 0.0371930 0.0032551 0.9937360
1341846455.558173 -0.3261952 0.4334370 0.3496460 0.1041428 0.0200224 0.0110374 0.9942995
1341846455.858084 -0.3339695 0.5373149 0.4207657 0.1448566 0.0097734 0.0056689 0.9893882
1341846456.026027 -0.3281396 0.5828257 0.4282850 0.1754453 0.0136505 -0.0005092 0.9843944
1341846456.061926 -0.3309186 0.5922214 0.4250505 0.1804422 0.0133246 -0.0022570 0.9834927
1341846456.093945 -0.3275175 0.6084576 0.4379271 0.1863165 0.0126604 -0.0078799 0.9823766
1341846456.293900 -0.3198223 0.6745310 0.4566050 0.2073581 0.0180990 -0.0238273 0.9778074
1341846456.394095 -0.3281555 0.7062327 0.4500906 0.2138449 0.0177676 -0.0261248 0.9763566
1341846456.462149 -0.3415826 0.7078429 0.5481523 0.2143235 0.0167966 -0.0344050 0.9760121
1341846456.598113 -0.3420763 0.7688864 0.4997140 0.2159670 0.0116195 -0.0250709 0.9760096
1341846456.898128 -0.3364643 0.8420154 0.5000346 0.2196642 0.0021436 -0.0311650 0.9750753
1341846457.198024 -0.3383655 0.8890238 0.5143306 0.2310406 0.0032000 -0.0294509 0.9724931
1341846457.234155 -0.3413418 0.8986375 0.5094841 0.2338875 0.0048305 -0.0284999 0.9718339
1341846457.365992 -0.3373564 0.9132134 0.5111309 0.2331792 0.0094000 -0.0288623 0.9719599
1341846457.670084 -0.3228369 0.8853198 0.5002722 0.2029576 0.0287391 -0.0298039 0.9783118
1341846457.738024 -0.3222561 0.8591788 0.5031436 0.2020995 0.0367988 -0.0220901 0.9784241
1341846457.838017 -0.3025619 0.8096738 0.5137793 0.2062350 0.0457236 -0.0191747 0.9772455
1341846458.138044 -0.2793989 0.6863248 0.4778341 0.1929275 0.0602212 -0.0091361 0.9793206
1341846458.442040 -0.2738021 0.5288954 0.4354233 0.1570625 0.0598466 -0.0068444 0.9857499
1341846458.741981 -0.2790009 0.3870948 0.3952678 0.1013499 0.0494515 -0.0021577 0.9936187
1341846458.773965 -0.2678762 0.3756098 0.3775323 0.0924013 0.0406511 -0.0024753 0.9948886
1341846459.156583 -0.2795321 0.2530631 0.3370559 0.0340743 0.0324600 -0.0179570 0.9987306
1341846459.682060 -0.2802056 0.1495056 0.2803121 -0.0248947 0.0462031 -0.1471294 0.9877239
1341846459.845917 -0.2892488 0.1393722 0.2951061 -0.0316406 0.0300835 -0.2284535 0.9725754
1341846460.181998 -0.2983619 0.1420184 0.2571453 -0.0773089 -0.0149613 -0.3826122 0.9205474
1341846460.550003 -0.3069980 0.1496108 0.2308030 -0.1250011 -0.0406777 -0.4776760 0.8686458
1341846460.719720 -0.3163396 0.1457898 0.2112241 -0.1479218 -0.0566731 -0.5352134 0.8297312
1341846460.922118 -0.3330581 0.1433133 0.2050304 -0.1830350 -0.0587364 -0.5734262 0.7963860
1341846461.190395 -0.3398539 0.1384733 0.2021149 -0.1895412 -0.0344822 -0.5683683 0.7999016
1341846461.657948 -0.3363546 0.1334829 0.2474954 -0.1389915 -0.0000320 -0.4773822 0.8676333
1341846462.162124 -0.3340908 0.1289987 0.2661223 -0.0419276 0.0148906 -0.2403303 0.9696709
1341846462.535930 -0.3377355 0.1062526 0.2565401 0.0112083 0.0093139 -0.0703849 0.9974135
1341846462.567947 -0.3387277 0.1063781 0.2620296 0.0195654 0.0127791 -0.0531362 0.9983138
1341846463.029970 -0.3335761 0.0511773 0.2311853 0.0655634 0.0216860 0.1467741 0.9867566
1341846463.334210 -0.3207639 0.0448511 0.2322428 0.0762957 0.0289495 0.2708665 0.9591519
1341846463.365995 -0.3121703 0.0530458 0.2653525 0.0843454 0.0279794 0.2812811 0.9555019
1341846463.466070 -0.3111221 0.0360513 0.2214834 0.0966289 0.0349608 0.3045171 0.9469477
1341846463.836811 -0.3037400 0.0475737 0.2222947 0.1139693 0.0505978 0.3988093 0.9085163
1341846464.106086 -0.3139752 0.0490216 0.1923942 0.1137475 0.0705308 0.4935627 0.8593502
1341846465.278006 -0.3456120 0.1226991 0.2088201 0.0491380 0.1308540 0.7009903 0.6993392
1341846465.946253 -0.3267711 0.1358918 0.2032580 0.0371058 0.0901762 0.5152669 0.8514643
1341846466.282054 -0.3414908 0.1298111 0.1962219 0.0087344 0.0680736 0.3834028 0.9210277
1341846466.750165 -0.3356935 0.1293525 0.2354554 0.0185151 0.0689528 0.2268872 0.9713006
1341846467.454073 -0.3097144 0.1452760 0.2460969 -0.0280220 0.0176850 0.0056912 0.9994346
1341846467.622077 -0.2545063 0.1246011 0.1777719 0.0150874 -0.0158225 0.0041761 0.9997523
1341846467.658139 -0.2419291 0.1208607 0.1702337 0.0268496 -0.0211833 0.0103739 0.9993612
1341846467.826009 -0.2019809 0.1731327 0.1404230 0.0524811 -0.0561848 0.0259066 0.9967035
1341846468.194517 -0.0891090 0.2238131 0.0354837 0.0047372 -0.0731258 0.0221252 0.9970660
1341846468.226561 -0.0856769 0.2311850 0.0375647 -0.0086664 -0.0670148 0.0154312 0.9975950
1341846468.258171 -0.0820497 0.2220111 0.0373668 -0.0220725 -0.0611705 0.0098909 0.9978342
1341846469.066173 0.0159087 0.2030474 -0.0128836 -0.0289412 -0.0074376 0.0099625 0.9995038
