1341845948.747856 0.000000000 0.000000000 0.000000000 0.000000000 0.000000000 0.000000000 1.000000000
1341845948.779817 0.005036421 -0.003127245 0.000276288 0.002251078 0.003933784 0.001192080 0.999989033
1341845948.811832 0.004593507 -0.005150596 0.001535330 0.004236075 0.008144005 0.002787454 0.999953985
1341845948.847804 0.003892237 -0.004958366 0.002928708 0.006108575 0.011027980 0.004045854 0.999912322
1341845948.879918 0.010326914 -0.001598262 -0.003472191 0.004895248 0.014164838 0.003543996 0.999881387
1341845948.911866 0.007100001 -0.001788322 0.002789256 0.000737259 0.017861353 0.003753925 0.999833167
1341845948.947808 0.003054057 -0.000499627 0.004148043 -0.003368425 0.019093309 0.005156420 0.999798715
1341845948.979787 0.003457727 -0.005143635 0.005175400 -0.009154233 0.019711733 0.004468635 0.999753773
1341845949.011787 0.011381289 -0.013043611 0.010004109 -0.015832247 0.021497995 0.003652973 0.999636829
1341845949.047774 0.009471497 -0.014005360 0.020628517 -0.018692665 0.023415856 0.008118822 0.999518096
1341845949.079745 0.002864989 -0.035126459 0.031718642 -0.020887574 0.024301574 0.010118369 0.999435186
1341845949.115941 0.003044910 -0.035988562 0.031428635 -0.020970348 0.026617127 0.011316657 0.999361634
1341845949.147691 0.003049584 -0.035415195 0.035378329 -0.022024207 0.030249454 0.013360677 0.999210417
1341845949.179815 0.011888032 -0.053720098 0.043456916 -0.026071910 0.031615168 0.016604064 0.999022007
1341845949.215795 0.009301514 -0.054290961 0.043099541 -0.026068198 0.034937810 0.016116545 0.998919427
1341845949.247763 0.018858569 -0.065571412 0.047420520 -0.030310251 0.037190303 0.017170055 0.998700798
1341845949.283892 0.023990784 -0.078549854 0.056013335 -0.034500014 0.041152295 0.017070582 0.998411179
1341845949.315792 0.024350127 -0.079531245 0.058948454 -0.033685509 0.045358893 0.018457709 0.998232007
1341845949.347811 0.024685051 -0.081931844 0.060580745 -0.031853724 0.048598278 0.018609071 0.998136878
1341845949.383752 0.029004861 -0.094821058 0.070271358 -0.033482626 0.051746044 0.015324888 0.997981131
1341845949.415733 0.028913064 -0.096598491 0.070923410 -0.034907553 0.053364694 0.014922739 0.997853160
1341845949.451907 0.028075077 -0.103782624 0.072720475 -0.038280476 0.053678982 0.014967468 0.997711957
1341845949.483823 0.032199040 -0.107155956 0.077280514 -0.041453451 0.054323502 0.011758920 0.997593224
1341845949.515817 0.028997660 -0.108536921 0.079569817 -0.047887880 0.055640049 0.011598438 0.997234404
1341845949.551896 0.026789319 -0.113227688 0.085718371 -0.054673813 0.053691234 0.008948981 0.997019529
1341845949.583736 0.031434044 -0.113090180 0.092091776 -0.058397066 0.051501069 0.007762623 0.996933877
1341845949.619753 0.028275959 -0.131125242 0.099771358 -0.065455608 0.052634399 0.004485414 0.996456265
1341845949.651764 0.024722982 -0.137206584 0.109909907 -0.068307504 0.051043525 0.004288554 0.996348441
1341845949.683707 0.026407067 -0.132159814 0.110208854 -0.066545390 0.047249604 0.003461916 0.996658027
1341845949.719890 0.030151913 -0.127503350 0.103994057 -0.070190392 0.047065824 0.000937833 0.996422231
1341845949.751778 0.026731234 -0.131723583 0.112844959 -0.078844510 0.048395243 0.000715471 0.995711267
1341845949.787857 0.022924395 -0.133870468 0.119303443 -0.083879963 0.046823617 0.002757931 0.995371342
1341845949.819784 0.018137567 -0.141267464 0.118745372 -0.090428725 0.044824038 0.003251503 0.994888365
1341845949.851908 0.020163758 -0.142643332 0.118047588 -0.101291806 0.043944437 0.002255944 0.993883193
1341845949.887758 0.010869136 -0.135830015 0.138581097 -0.110244021 0.043713324 0.002670071 0.992939174
1341845949.920013 0.008293700 -0.140336707 0.141654149 -0.115206584 0.039869353 0.001219791 0.992540359
1341845949.955673 0.009569798 -0.142592341 0.145715192 -0.118148290 0.037928998 -0.000499634 0.992271185
1341845949.987737 0.011470162 -0.148632750 0.138599172 -0.122613743 0.037689608 -0.002176453 0.991736174
1341845950.019789 0.007467158 -0.167295143 0.145253628 -0.129397660 0.035996906 -0.002212796 0.990936697
1341845950.055847 0.006467221 -0.181702152 0.156063899 -0.132208347 0.033493776 -0.004986040 0.990643322
1341845950.087728 0.005622083 -0.180220097 0.154518887 -0.135704845 0.034183867 -0.007568424 0.990130484
1341845950.124078 0.007795610 -0.185996011 0.160402089 -0.141675293 0.033818480 -0.007875055 0.989304006
1341845950.155757 0.005445445 -0.189908817 0.165069103 -0.144463971 0.033488065 -0.008732076 0.988904655
1341845950.187677 0.003933239 -0.198766991 0.174647257 -0.148267061 0.034975097 -0.012209806 0.988253236
1341845950.223782 0.002235633 -0.201553300 0.179318175 -0.153380156 0.038133513 -0.014987532 0.987317443
1341845950.255885 -0.000262326 -0.211441711 0.186081171 -0.157940254 0.037992205 -0.015063158 0.986602545
1341845950.287784 0.000152673 -0.211147442 0.186148554 -0.158406928 0.037776787 -0.016461913 0.986513674
1341845950.323864 0.005534149 -0.208583698 0.184158087 -0.165309012 0.039754033 -0.017015021 0.985293388
1341845950.355780 -0.000058208 -0.219218120 0.193030998 -0.180274650 0.042165566 -0.019666165 0.982515335
1341845950.387911 -0.002369547 -0.228965402 0.198764533 -0.187851176 0.041278552 -0.022582404 0.981069863
1341845950.424265 0.000406532 -0.231913820 0.204045445 -0.187954769 0.041402247 -0.024837326 0.980990291
1341845950.455762 0.000660438 -0.243651271 0.210115060 -0.187877983 0.042078894 -0.026180092 0.980941296
1341845950.487870 -0.001180437 -0.253844649 0.213119373 -0.186534330 0.041297868 -0.026658798 0.981217980
1341845950.523880 -0.003150721 -0.253671288 0.208055347 -0.186467081 0.041505061 -0.028730609 0.981163561
1341845950.555793 -0.006773720 -0.251362741 0.198697150 -0.194017783 0.044390041 -0.032226522 0.979463160
1341845950.587742 -0.005512049 -0.254844308 0.202766970 -0.207442641 0.043828957 -0.032946814 0.976709306
1341845950.623823 -0.006261899 -0.274750680 0.207351908 -0.221023113 0.043571051 -0.030716173 0.973810494
1341845950.655770 -0.007517070 -0.284829050 0.210637242 -0.229928434 0.042826846 -0.030670347 0.971780896
1341845950.691815 -0.007576461 -0.300008744 0.224401072 -0.237609178 0.041442197 -0.031179957 0.969975412
1341845950.756034 -0.013200528 -0.328905880 0.227097005 -0.243351981 0.044249088 -0.032054931 0.968397796
1341845950.817895 -0.005704197 -0.345659822 0.241316706 -0.248103172 0.044353154 -0.029318424 0.967273474
1341845950.853851 -0.005209646 -0.346520156 0.237483591 -0.247770831 0.045732398 -0.030341128 0.967262924
1341845950.885881 -0.005898060 -0.347100794 0.240835086 -0.248065546 0.047803849 -0.033226565 0.966992378
1341845950.917771 -0.000970959 -0.394958913 0.263188779 -0.256603390 0.048020631 -0.033646490 0.964736581
1341845950.953822 -0.002744635 -0.393724799 0.260276318 -0.252193272 0.051260777 -0.034286074 0.965709746
1341845950.985908 -0.003162118 -0.394743562 0.258784503 -0.250931561 0.053512711 -0.034406349 0.965911984
1341845951.017817 -0.004234428 -0.397148609 0.263192624 -0.253316671 0.054682959 -0.034921858 0.965205133
1341845951.053777 -0.003643790 -0.399430245 0.270293534 -0.255897224 0.055998225 -0.033728201 0.964491189
1341845951.085819 -0.004160483 -0.396164626 0.273260474 -0.256665438 0.058503415 -0.027567793 0.964334071
1341845951.121819 0.003645826 -0.420493454 0.286611170 -0.264052719 0.057419691 -0.023977267 0.962498963
1341845951.153788 0.003838962 -0.419005603 0.293256074 -0.264418989 0.057905905 -0.021564132 0.962426364
1341845951.185690 0.004409661 -0.418925256 0.297187448 -0.263482779 0.057066347 -0.018565230 0.962795734
1341845951.221846 0.007175631 -0.441904277 0.314948380 -0.266589999 0.053979252 -0.015101694 0.962178767
1341845951.253677 0.006181225 -0.440014482 0.321440727 -0.263708711 0.049983911 -0.012233514 0.963228762
1341845951.289833 0.006825129 -0.440742612 0.319045961 -0.255203277 0.045001954 -0.011696042 0.965768754
1341845951.321746 0.016295576 -0.468392104 0.325490415 -0.257780790 0.044094760 -0.005335825 0.965181947
1341845951.353781 0.017588012 -0.467381805 0.329112053 -0.258635372 0.043403123 -0.001953774 0.964997470
1341845951.389710 0.016752267 -0.464046746 0.342081755 -0.256423861 0.040465690 -0.001807194 0.965715289
1341845951.421759 0.021091094 -0.482679993 0.348756433 -0.252257764 0.037479997 0.000048311 0.966933906
1341845951.453714 0.021777716 -0.483532101 0.344545037 -0.246863514 0.036769539 0.002180584 0.968349934
1341845951.489750 0.021277411 -0.484269768 0.341698676 -0.244542465 0.036167230 0.004297009 0.968954325
1341845951.521791 0.021880463 -0.484289408 0.340902090 -0.242022678 0.035931982 0.000102693 0.969605029
1341845951.557734 0.019097071 -0.494770467 0.342978656 -0.245831177 0.038358890 0.001216033 0.968552589
1341845951.621927 0.021437380 -0.516319275 0.365619928 -0.249794483 0.031624820 0.001137384 0.967781663
1341845951.657740 0.019977223 -0.518969357 0.370044649 -0.252521425 0.029878885 0.000714531 0.967129588
1341845951.689997 0.019890552 -0.519425988 0.375392824 -0.253936589 0.027021993 0.000556299 0.966843188
1341845951.721802 0.023575496 -0.550079703 0.396314979 -0.256926000 0.021477977 0.002201365 0.966189861
1341845951.757837 0.030703798 -0.582674026 0.410398126 -0.263091892 0.017442174 0.000002832 0.964613080
1341845951.789992 0.036291052 -0.596345782 0.424539775 -0.273017794 0.017021177 -0.000756022 0.961858094
1341845951.825880 0.037612554 -0.591090918 0.437028289 -0.275312901 0.016243061 -0.000634973 0.961217225
1341845951.857655 0.038883083 -0.549337208 0.401716322 -0.264526218 0.015851775 -0.001566777 0.964246929
1341845951.889934 0.040295854 -0.541725636 0.397335380 -0.265208453 0.015906315 0.000153014 0.964059889
1341845951.925973 0.040572122 -0.553126574 0.412052423 -0.272986561 0.013777360 0.001562260 0.961917937
1341845951.957775 0.042447373 -0.550863802 0.413187802 -0.274210423 0.011651751 0.001365293 0.961598158
1341845951.989866 0.039658833 -0.543533981 0.404351056 -0.278194368 0.010791339 0.000101297 0.960464180
1341845952.026044 0.040028874 -0.563310206 0.431382507 -0.288358569 0.007173010 -0.001386536 0.957494676
1341845952.057894 0.045515627 -0.565089822 0.434184730 -0.289256006 0.003682019 -0.000854776 0.957244337
1341845952.125827 0.039060336 -0.559859395 0.433145374 -0.288337886 0.003451518 -0.003538079 0.957515955
1341845952.157796 0.041264899 -0.565321028 0.440342367 -0.288513869 0.001970083 -0.003255585 0.957468152
1341845952.193712 0.038861439 -0.564277411 0.434871644 -0.287169725 0.002491371 -0.004037769 0.957867980
1341845952.225758 0.038278762 -0.558733046 0.436804652 -0.285199910 0.002674698 -0.006414717 0.958442867
1341845952.261888 0.039382141 -0.560990512 0.438412011 -0.282856584 0.004261515 -0.004810589 0.959140718
1341845952.293773 0.039141916 -0.560841143 0.434692979 -0.279175192 0.006064715 -0.007100672 0.960194767
1341845952.325830 0.038410753 -0.564101398 0.431148291 -0.280950785 0.009826322 -0.008967207 0.959630013
1341845952.361889 0.039043225 -0.559852600 0.433164597 -0.281236500 0.011666420 -0.011804826 0.959494948
1341845952.393746 0.038069282 -0.561802566 0.429333627 -0.281365931 0.016096555 -0.014771752 0.959351838
1341845952.425943 0.038246989 -0.559824765 0.432621181 -0.283086270 0.019526444 -0.015982237 0.958762467
1341845952.461990 0.038417168 -0.559727073 0.433231890 -0.283427924 0.020150056 -0.017156260 0.958628297
1341845952.493879 0.039649710 -0.564191103 0.430094004 -0.285083264 0.020949284 -0.018948188 0.958086431
1341845952.529859 0.039059974 -0.559869647 0.433134615 -0.285571456 0.023838002 -0.020317256 0.957845449
1341845952.561728 0.039003219 -0.559719324 0.433327228 -0.286412448 0.026674012 -0.019818200 0.957529962
1341845952.593773 0.039025199 -0.559832513 0.432976484 -0.289149970 0.028066821 -0.018219473 0.956698835
1341845952.629782 0.039005965 -0.559776962 0.433224589 -0.291420937 0.030253792 -0.018649284 0.955934525
1341845952.661822 0.038845886 -0.559463739 0.433909327 -0.291726977 0.031148100 -0.016472857 0.955852389
1341845952.694133 0.039024070 -0.559827924 0.433294475 -0.291909337 0.029330745 -0.012967501 0.955908179
1341845952.729992 0.039048564 -0.559803665 0.433287561 -0.294068813 0.027766313 -0.013424537 0.955286503
1341845952.761932 0.039030246 -0.559767187 0.433410406 -0.292023569 0.027605064 -0.015934825 0.955879807
1341845952.835955 0.039033365 -0.559866548 0.433175772 -0.288417190 0.030847844 -0.014892414 0.956891954
1341845952.897807 0.039034054 -0.559809446 0.433337301 -0.288063198 0.032791335 -0.020808116 0.956823587
1341845952.929858 0.039068356 -0.559834957 0.433268845 -0.286354870 0.032070637 -0.020635819 0.957364380
1341845952.962152 0.039083272 -0.559873939 0.433151871 -0.285289913 0.031637132 -0.023397889 0.957633197
1341845952.997732 0.039017741 -0.559769928 0.433464676 -0.287411660 0.030598972 -0.022177501 0.957061350
1341845953.029881 0.039049719 -0.559845269 0.433214396 -0.288931310 0.028272334 -0.019939948 0.956724524
1341845953.065883 0.039049637 -0.559847951 0.433181018 -0.286713243 0.026209354 -0.019753870 0.957454085
1341845953.097744 0.039042905 -0.559841573 0.433196485 -0.286658347 0.024533566 -0.017472398 0.957559288
1341845953.130426 0.039063230 -0.559864700 0.433162004 -0.289999306 0.020708244 -0.014279708 0.956696212
1341845953.165700 0.039049674 -0.559848726 0.433190078 -0.288364857 0.018531486 -0.013347627 0.957248211
1341845953.197916 0.039061867 -0.559858263 0.433175921 -0.283491760 0.017278561 -0.017488705 0.958659470
1341845953.230076 0.039050907 -0.559853613 0.433168560 -0.285761893 0.017828140 -0.021511618 0.957893312
1341845953.265747 0.039047062 -0.559848428 0.433203101 -0.289270848 0.020332104 -0.021837551 0.956782162
1341845953.297823 0.039039541 -0.559837103 0.433227599 -0.288510412 0.019808909 -0.021357358 0.957033515
1341845953.333820 0.039047621 -0.559841514 0.433227509 -0.283707559 0.019515635 -0.028727204 0.958281755
1341845953.398118 0.039049063 -0.559849501 0.433203667 -0.279689938 0.023592319 -0.033551693 0.959213853
1341845953.433817 0.039046694 -0.559842110 0.433222204 -0.272186339 0.025283365 -0.037975363 0.961162448
1341845953.465793 0.039046358 -0.559850514 0.433198750 -0.265249074 0.025804661 -0.033592407 0.963248968
1341845953.501850 0.039049268 -0.559848607 0.433200568 -0.257512212 0.025924115 -0.038303532 0.965167463
1341845953.533841 0.039049439 -0.559847653 0.433193833 -0.250385702 0.029326299 -0.039013389 0.966915131
1341845953.565884 0.039049521 -0.559849083 0.433191687 -0.240557849 0.032454461 -0.038030174 0.969346344
1341845953.601851 0.039051048 -0.559849620 0.433195084 -0.232185930 0.033979986 -0.040477127 0.971234620
1341845953.633727 0.039046921 -0.559847653 0.433196574 -0.227535829 0.037919316 -0.038562033 0.972266674
1341845953.665877 0.039046332 -0.559847295 0.433196366 -0.219022498 0.041161776 -0.038942244 0.974073112
1341845953.701988 0.039049607 -0.559854269 0.433180302 -0.216167346 0.041727137 -0.035415616 0.974821150
1341845953.733959 0.039049443 -0.559854388 0.433178604 -0.218495384 0.041418586 -0.035661455 0.974306166
1341845953.769755 0.039049663 -0.559854805 0.433177918 -0.220263720 0.041773919 -0.039693173 0.973736763
1341845953.801776 0.039049607 -0.559854269 0.433179885 -0.219805017 0.043290604 -0.036978461 0.973881006
1341845953.833838 0.039049972 -0.559854984 0.433178306 -0.219990164 0.041667417 -0.036191028 0.973939598
1341845953.869932 0.039049890 -0.559855342 0.433176249 -0.218998894 0.039936263 -0.042903241 0.973962963
1341845953.901831 0.039049614 -0.559854925 0.433179229 -0.220420614 0.039837703 -0.044327971 0.973582447
1341845953.933922 0.039050516 -0.559854686 0.433180600 -0.219603777 0.037006620 -0.043652676 0.973909199
1341845953.969955 0.039049868 -0.559855044 0.433179587 -0.215028882 0.033311740 -0.045599151 0.974973619
1341845954.001752 0.039049946 -0.559855580 0.433179677 -0.214001790 0.030645290 -0.044417944 0.975341558
1341845954.037754 0.039049640 -0.559855700 0.433179051 -0.218150765 0.029229209 -0.043075480 0.974525750
1341845954.069971 0.039049514 -0.559855938 0.433180094 -0.220026106 0.025937539 -0.040647492 0.974301517
1341845954.101821 0.039049897 -0.559855402 0.433179170 -0.217910051 0.022723587 -0.046307646 0.974604785
1341845954.137723 0.039049901 -0.559855580 0.433178812 -0.220173970 0.018167201 -0.043763250 0.974309087
1341845954.169776 0.039049901 -0.559855640 0.433179080 -0.223808348 0.014917947 -0.040965255 0.973657608
1341845954.201769 0.039049979 -0.559855759 0.433179140 -0.225075036 0.013114368 -0.037886471 0.973516226
1341845954.237931 0.039050099 -0.559855759 0.433179200 -0.226127818 0.010523475 -0.035220444 0.973403811
1341845954.269821 0.039050106 -0.559855819 0.433179110 -0.225874975 0.008917536 -0.034463976 0.973505616
1341845954.305896 0.039050080 -0.559855700 0.433179200 -0.226303309 0.008767908 -0.034912296 0.973391533
1341845954.337899 0.039050151 -0.559855819 0.433179200 -0.228262842 0.008160722 -0.034276754 0.972961783
1341845954.370323 0.039050147 -0.559855819 0.433178991 -0.229485467 0.006094276 -0.033154629 0.972728133
1341845954.405781 0.039050195 -0.559855878 0.433179110 -0.228959203 0.004342327 -0.032853637 0.972871780
1341845954.437770 0.039050180 -0.559855938 0.433178693 -0.230181247 0.002633712 -0.031987287 0.972618341
1341845954.473700 0.039050169 -0.559855819 0.433178812 -0.230784029 -0.002703314 -0.031225860 0.972500026
1341845954.505685 0.039050177 -0.559855938 0.433178902 -0.225942433 -0.005503028 -0.031026218 0.973630905
1341845954.537884 0.039050229 -0.559855819 0.433178633 -0.223851517 -0.006306843 -0.031149281 0.974104941
1341845954.574129 0.039050162 -0.559855819 0.433178633 -0.226559684 -0.009031386 -0.031289097 0.973452687
1341845954.605772 0.039050233 -0.559855700 0.433178842 -0.224753246 -0.011367858 -0.030513516 0.973871469
1341845954.637774 0.039050311 -0.559856772 0.433175623 -0.218719944 -0.012759645 -0.029024038 0.975272477
1341845954.673990 0.039050572 -0.559856892 0.433175325 -0.218198597 -0.014345901 -0.024686264 0.975486636
1341845954.705864 0.039050281 -0.559855998 0.433178693 -0.218039036 -0.014922447 -0.020494387 0.975610733
1341845954.741959 0.039050259 -0.559856176 0.433178604 -0.214264244 -0.013582280 -0.018867055 0.976499021
1341845954.779824 0.039050300 -0.559856296 0.433178633 -0.211347550 -0.012896108 -0.019446252 0.977132440
1341845954.815761 0.039050389 -0.559856057 0.433178663 -0.209141731 -0.013476625 -0.020363688 0.977580369
1341845954.847702 0.039050445 -0.559856296 0.433178723 -0.204236001 -0.013155970 -0.021648364 0.978593886
1341845954.879857 0.039050464 -0.559856057 0.433178574 -0.199324891 -0.012831029 -0.022929216 0.979581118
1341845954.915883 0.039050467 -0.559856176 0.433178455 -0.199183419 -0.013977809 -0.023424396 0.979582489
1341845954.947742 0.039050393 -0.559856117 0.433178395 -0.200547159 -0.013966118 -0.022326339 0.979330003
1341845954.979793 0.039050464 -0.559856057 0.433178365 -0.198524639 -0.013202180 -0.019717384 0.979808569
1341845955.015775 0.039050460 -0.559856176 0.433178246 -0.195065096 -0.013483129 -0.015171191 0.980580211
1341845955.047748 0.039050471 -0.559856176 0.433178306 -0.191359863 -0.014889590 -0.009782705 0.981358230
1341845955.079963 0.039050419 -0.559856176 0.433178484 -0.188303754 -0.014197678 -0.007412639 0.981980205
1341845955.115765 0.039050452 -0.559856176 0.433178425 -0.188455179 -0.011662580 -0.007615166 0.981983006
1341845955.147819 0.039050411 -0.559856355 0.433178425 -0.188619241 -0.010991948 -0.008395498 0.981952906
1341845955.179771 0.039050471 -0.559856117 0.433178335 -0.187051132 -0.011042889 -0.009185277 0.982245147
1341845955.215834 0.039050490 -0.559856176 0.433178246 -0.185701028 -0.010037392 -0.009600185 0.982508123
1341845955.247700 0.039050508 -0.559856057 0.433178186 -0.184817627 -0.009781379 -0.009283590 0.982680321
1341845955.283796 0.039050490 -0.559856176 0.433178216 -0.182738975 -0.009410520 -0.009517639 0.983070374
1341845955.315766 0.039050486 -0.559856236 0.433178127 -0.180667982 -0.009021773 -0.009767011 0.983454287
1341845955.347689 0.039050478 -0.559856296 0.433178067 -0.180637851 -0.007548326 -0.010770032 0.983461738
1341845955.383825 0.039050471 -0.559856296 0.433178157 -0.179290026 -0.006553223 -0.011887999 0.983702600
1341845955.415689 0.039050478 -0.559856296 0.433178157 -0.176894322 -0.006882231 -0.012203104 0.984130144
1341845955.447780 0.039050460 -0.559856296 0.433178008 -0.174494475 -0.007209987 -0.012520415 0.984552145
1341845955.483775 0.039050419 -0.559856236 0.433178127 -0.170333609 -0.004497369 -0.014645317 0.985267341
1341845955.515995 0.039050505 -0.559856236 0.433178037 -0.166820943 -0.003794694 -0.016105209 0.985848367
1341845955.547652 0.039050516 -0.559856176 0.433178008 -0.163117677 -0.005353048 -0.017573560 0.986435592
1341845955.583803 0.039050482 -0.559856355 0.433177948 -0.160178393 -0.005431323 -0.019350374 0.986883461
1341845955.645874 0.039050464 -0.559856296 0.433178008 -0.158703193 -0.005933149 -0.021311278 0.987078488
1341845955.677690 0.039050475 -0.559856474 0.433178008 -0.155740336 -0.006204235 -0.022941256 0.987512112
1341845955.713997 0.039050486 -0.559856355 0.433178067 -0.152775109 -0.006474829 -0.024570636 0.987934291
1341845955.745913 0.039050512 -0.559856474 0.433178067 -0.150489256 -0.008687775 -0.025518179 0.988244057
1341845955.777825 0.039050642 -0.559856474 0.433178216 -0.148208007 -0.010868071 -0.026450997 0.988542676
1341845955.814143 0.039050616 -0.559856474 0.433178216 -0.145992026 -0.009030424 -0.026341824 0.988893807
1341845955.845690 0.039050646 -0.559856355 0.433178157 -0.143985063 -0.009167755 -0.024935164 0.989223182
1341845955.877977 0.039050646 -0.559856474 0.433178186 -0.141450137 -0.010688947 -0.022601606 0.989629626
1341845955.913787 0.039050721 -0.559856713 0.433178186 -0.136481941 -0.009087819 -0.019946406 0.990400016
1341845955.945707 0.039050743 -0.559856713 0.433178186 -0.131557360 -0.007491198 -0.017285839 0.991129518
1341845955.981865 0.039050661 -0.559856713 0.433178157 -0.128503338 -0.006558095 -0.014806899 0.991576850
1341845956.013788 0.039050631 -0.559856594 0.433177918 -0.127001837 -0.003893267 -0.012992715 0.991809726
1341845956.045763 0.039050598 -0.559856355 0.433178037 -0.125501797 -0.001223634 -0.011179872 0.992029667
1341845956.081817 0.039050542 -0.559856236 0.433177799 -0.125941709 0.000618064 -0.009536326 0.991991639
1341845956.113872 0.039050471 -0.559856474 0.433178037 -0.125251874 0.002042482 -0.007435396 0.992094994
1341845956.145853 0.039050516 -0.559856534 0.433177978 -0.124556266 0.003467065 -0.005328104 0.992192149
1341845956.181712 0.039050501 -0.559856653 0.433178008 -0.126857579 0.005757809 -0.003635133 0.991897583
1341845956.213966 0.039050519 -0.559856713 0.433177978 -0.129155293 0.008048464 -0.001941662 0.991589785
1341845956.249720 0.039050512 -0.559857011 0.433178097 -0.129042223 0.009968896 0.000355685 0.991588950
1341845956.281792 0.039050471 -0.559856713 0.433177888 -0.130770281 0.010475070 0.002401895 0.991354406
1341845956.313799 0.039050478 -0.559856772 0.433177948 -0.134803295 0.010629413 0.003802713 0.990808070
1341845956.349790 0.039050438 -0.559856474 0.433177769 -0.138851196 0.010772106 0.005195472 0.990240991
1341845956.381671 0.039050512 -0.559856594 0.433177918 -0.143215314 0.007999292 0.007484825 0.989630938
1341845956.414041 0.039050482 -0.559856594 0.433177829 -0.147575170 0.005225845 0.009773265 0.988988757
1341845956.449886 0.039050497 -0.559856594 0.433177888 -0.149978504 0.004317162 0.011100426 0.988617539
1341845956.481751 0.039050516 -0.559856653 0.433177948 -0.150946110 0.002937059 0.011950709 0.988465369
1341845956.517751 0.039050497 -0.559856594 0.433178008 -0.150887147 0.000156321 0.013038902 0.988464952
1341845956.550178 0.039050434 -0.559856474 0.433177948 -0.151042670 -0.000781869 0.013445162 0.988435507
1341845956.581882 0.039050449 -0.559856534 0.433177948 -0.149310321 -0.001379947 0.013624112 0.988695562
1341845956.617921 0.039050534 -0.559856713 0.433177799 -0.144562304 -0.002275673 0.014863160 0.989381433
1341845956.649823 0.039050579 -0.559856832 0.433177829 -0.139809594 -0.003167289 0.016101271 0.990042388
1341845956.686207 0.039050531 -0.559856713 0.433177948 -0.136294022 -0.002128090 0.016814265 0.990523458
1341845956.717815 0.039050467 -0.559856594 0.433177859 -0.135289267 -0.002376690 0.016988553 0.990657628
1341845956.749871 0.039050385 -0.559856474 0.433178097 -0.134561598 -0.004247289 0.016557245 0.990757763
1341845956.785882 0.039050341 -0.559856534 0.433178157 -0.131318673 -0.004654768 0.014974612 0.991216183
1341845956.817915 0.039050430 -0.559856594 0.433178008 -0.129090056 -0.005625353 0.013012078 0.991531551
1341845956.849925 0.039050400 -0.559856534 0.433178216 -0.126860321 -0.006598699 0.011049386 0.991837084
1341845956.885848 0.039050438 -0.559856713 0.433178514 -0.124626532 -0.007571960 0.009087062 0.992133200
1341845956.953936 0.039050691 -0.559857011 0.433178127 -0.122390136 -0.008539677 0.007125559 0.992419720
1341845956.985677 0.039050687 -0.559856772 0.433178127 -0.122866109 -0.007700515 0.004836162 0.992381573
1341845957.017739 0.039050803 -0.559856772 0.433178127 -0.123345621 -0.006857562 0.002546104 0.992336810
1341845957.053817 0.039050736 -0.559856713 0.433178306 -0.123824976 -0.006014739 0.000256527 0.992285788
1341845957.085894 0.039050736 -0.559856713 0.433178246 -0.123475634 -0.004353910 -0.001022102 0.992337525
1341845957.118069 0.039050855 -0.559856832 0.433178246 -0.123127945 -0.002691279 -0.002299461 0.992384493
1341845957.153924 0.039050870 -0.559856832 0.433178306 -0.122777373 -0.001030565 -0.003575245 0.992427230
1341845957.185730 0.039050877 -0.559857070 0.433178306 -0.120393924 0.001159654 -0.004585913 0.992714942
1341845957.222219 0.039050892 -0.559856951 0.433178276 -0.118009910 0.003350626 -0.005596439 0.992990971
1341845957.253784 0.039050888 -0.559856832 0.433178276 -0.115625054 0.005541882 -0.006606885 0.993255496
1341845957.285979 0.039050877 -0.559856653 0.433178276 -0.113241859 0.007733892 -0.007617272 0.993508101
1341845957.321826 0.039050851 -0.559856594 0.433178276 -0.110857807 0.009926300 -0.008627594 0.993749261
1341845957.353642 0.039050799 -0.559856534 0.433178246 -0.108473100 0.012118527 -0.009637863 0.993978798
1341845957.385918 0.039050817 -0.559856534 0.433178365 -0.106088594 0.014312326 -0.010648887 0.994196653
1341845957.421801 0.039050821 -0.559856355 0.433178246 -0.103703275 0.016506284 -0.011659885 0.994402945
1341845957.453856 0.039050758 -0.559856653 0.433178157 -0.101208657 0.017066283 -0.012179366 0.994644284
1341845957.490017 0.039050721 -0.559856653 0.433178186 -0.098713756 0.017626207 -0.012699008 0.994878709
1341845957.521783 0.039050717 -0.559856415 0.433178157 -0.096219920 0.018185651 -0.013219396 0.995106161
1341845957.553863 0.039050657 -0.559856176 0.433178186 -0.094587244 0.016772954 -0.013697600 0.995280981
1341845957.589817 0.039050568 -0.559856236 0.433178127 -0.092953935 0.015359249 -0.014176010 0.995450974
1341845957.621927 0.039050635 -0.559856355 0.433178097 -0.091855757 0.015140234 -0.015633143 0.995534480
1341845957.690210 0.039050568 -0.559856355 0.433178157 -0.089667298 0.013887044 -0.016873406 0.995732009
1341845957.721718 0.039050609 -0.559856474 0.433178157 -0.087477088 0.012634843 -0.018113798 0.995921671
1341845957.757797 0.039050713 -0.559856474 0.433178216 -0.085287020 0.011385917 -0.019354966 0.996103346
1341845957.790095 0.039050810 -0.559856534 0.433178335 -0.083096579 0.010137590 -0.020596199 0.996277094
1341845957.821762 0.039050806 -0.559856653 0.433178335 -0.080905087 0.008889399 -0.021837190 0.996442914
1341845957.858271 0.039050892 -0.559856772 0.433178395 -0.078712776 0.007641245 -0.023077909 0.996600866
1341845957.890302 0.039050974 -0.559856772 0.433178395 -0.076519713 0.006393147 -0.024318373 0.996750951
1341845957.926548 0.039051030 -0.559856951 0.433178365 -0.074326038 0.005145013 -0.025558630 0.996893167
1341845957.963818 0.039051089 -0.559857130 0.433178335 -0.072131738 0.003896857 -0.026798651 0.997027397
1341845957.996582 0.039051194 -0.559857190 0.433178186 -0.069936857 0.002648684 -0.028038459 0.997153819
1341845958.028437 0.039051291 -0.559857130 0.433178186 -0.067741409 0.001400740 -0.029278122 0.997272253
1341845958.064063 0.039051291 -0.559857249 0.433178246 -0.065545335 0.000152879 -0.030517472 0.997382820
1341845958.096285 0.039051373 -0.559857309 0.433178157 -0.063348748 -0.001094960 -0.031756554 0.997485459
1341845958.163750 0.039051499 -0.559857368 0.433178127 -0.061151333 -0.002342623 -0.032995425 0.997580230
1341845958.225916 0.039051514 -0.559857428 0.433178127 -0.058953308 -0.003590083 -0.034234032 0.997667074
1341845958.257855 0.039051510 -0.559857488 0.433178097 -0.056754727 -0.004837524 -0.035472300 0.997746050
1341845958.293941 0.039051492 -0.559857726 0.433178127 -0.054555666 -0.006084996 -0.036710203 0.997817099
1341845958.325982 0.039051495 -0.559857726 0.433178186 -0.052356180 -0.007332268 -0.037947774 0.997880280
1341845958.357886 0.039051596 -0.559857666 0.433178127 -0.050156187 -0.008579341 -0.039184984 0.997935474
1341845958.393794 0.039051615 -0.559857845 0.433178157 -0.047955748 -0.009826336 -0.040421862 0.997982860
1341845958.425833 0.039051600 -0.559857905 0.433178037 -0.045754720 -0.011073320 -0.041658301 0.998022258
1341845958.461910 0.039051656 -0.559857905 0.433178008 -0.043553252 -0.012320043 -0.042894434 0.998053789
1341845958.493906 0.039051719 -0.559857965 0.433177918 -0.041351382 -0.013566666 -0.044130161 0.998077393
1341845958.525948 0.039051685 -0.559858024 0.433177888 -0.039149154 -0.014813231 -0.045365460 0.998093128
1341845958.561735 0.039051700 -0.559858084 0.433177859 -0.036946606 -0.016059654 -0.046600342 0.998100877
1341845958.593854 0.039051734 -0.559858024 0.433177859 -0.034743860 -0.017305860 -0.047834776 0.998100817
1341845958.625936 0.039051760 -0.559857845 0.433177918 -0.032540925 -0.018552041 -0.049068715 0.998092771
1341845958.661751 0.039051723 -0.559857965 0.433177859 -0.030337833 -0.019798659 -0.050301943 0.998076797
1341845958.693866 0.039051786 -0.559857905 0.433177799 -0.028134596 -0.021045044 -0.051534697 0.998052955
1341845958.729747 0.039051786 -0.559857786 0.433177859 -0.025931329 -0.022291284 -0.052766949 0.998021185
1341845958.761798 0.039051823 -0.559857607 0.433177859 -0.023728032 -0.023537364 -0.053998649 0.997981489
1341845958.793976 0.039051868 -0.559857786 0.433177739 -0.021524599 -0.024783218 -0.055229727 0.997933924
1341845958.836099 0.039051920 -0.559857726 0.433177739 -0.019321162 -0.026028719 -0.056460310 0.997878432
1341845958.872548 0.039051980 -0.559857786 0.433177710 -0.017117856 -0.027274031 -0.057690423 0.997815073
1341845958.905812 0.039051984 -0.559857607 0.433177739 -0.014914428 -0.028519180 -0.058919977 0.997743785
1341845958.936045 0.039051976 -0.559857845 0.433177650 -0.012711131 -0.029764114 -0.060149055 0.997664571
1341845958.967857 0.039052006 -0.559857547 0.433177650 -0.010507835 -0.031008745 -0.061377622 0.997577488
1341845959.003881 0.039052054 -0.559857547 0.433177620 -0.008304593 -0.032253120 -0.062605716 0.997482479
1341845959.035807 0.039052077 -0.559857488 0.433177620 -0.006101486 -0.033497248 -0.063833296 0.997379601
1341845959.067708 0.039052147 -0.559857428 0.433177680 -0.003898395 -0.034741033 -0.065060355 0.997268796
1341845959.103767 0.039052267 -0.559857309 0.433177680 -0.001695359 -0.035984490 -0.066286929 0.997150064
1341845959.135750 0.039052270 -0.559857309 0.433177710 0.000507688 -0.037227713 -0.067512892 0.997023523
1341845959.172042 0.039052282 -0.559857368 0.433177680 0.002710688 -0.038470697 -0.068738222 0.996888995
1341845959.203734 0.039052323 -0.559857368 0.433177710 0.004913655 -0.039713282 -0.069962934 0.996746659
1341845959.235702 0.039052408 -0.559857309 0.433177710 0.007116476 -0.040955480 -0.071187086 0.996596396
1341845959.271710 0.039052334 -0.559857309 0.433177680 0.009319157 -0.042197376 -0.072410665 0.996438265
1341845959.303719 0.039052315 -0.559857309 0.433177710 0.011521740 -0.043438911 -0.073633648 0.996272266
1341845959.339991 0.039052416 -0.559857368 0.433177710 0.013724220 -0.044680066 -0.074856080 0.996098340
1341845959.371830 0.039052438 -0.559857309 0.433177710 0.015926577 -0.045920871 -0.076077841 0.995916545
1341845959.403707 0.039052319 -0.559857488 0.433177620 0.018128816 -0.047161274 -0.077298939 0.995726883
1341845959.440061 0.039052416 -0.559857428 0.433177501 0.020330893 -0.048401061 -0.078519411 0.995529354
1341845959.471779 0.039052512 -0.559857607 0.433177471 0.022532849 -0.049640313 -0.079739206 0.995323956
1341845959.507756 0.039052501 -0.559857607 0.433177501 0.024734573 -0.050879300 -0.080958210 0.995110691
1341845959.539837 0.039052539 -0.559857607 0.433177471 0.026936030 -0.052117828 -0.082176432 0.994889557
1341845959.571785 0.039052561 -0.559857666 0.433177441 0.029137230 -0.053355910 -0.083393872 0.994660556
1341845959.607783 0.039052583 -0.559857547 0.433177412 0.031338170 -0.054593842 -0.084610432 0.994423687
1341845959.639762 0.039052583 -0.559857607 0.433177412 0.033538908 -0.055831447 -0.085826129 0.994179010
1341845959.671901 0.039052617 -0.559857607 0.433177382 0.035739262 -0.057068434 -0.087041095 0.993926406
1341845959.707824 0.039052628 -0.559857666 0.433177352 0.037939448 -0.058304928 -0.088255249 0.993665993
1341845959.740041 0.039052621 -0.559857607 0.433177263 0.040139381 -0.059541091 -0.089468554 0.993397713
1341845959.776084 0.039052702 -0.559857488 0.433177203 0.042339023 -0.060776837 -0.090681076 0.993121564
1341845959.807848 0.039052684 -0.559857666 0.433177263 0.044538386 -0.062012065 -0.091892801 0.992837608
1341845959.839796 0.039052732 -0.559857726 0.433177203 0.046737462 -0.063246273 -0.093103789 0.992545843
1341845959.875965 0.039052814 -0.559857607 0.433177024 0.048936032 -0.064479858 -0.094314002 0.992246151
1341845959.907911 0.039052803 -0.559857726 0.433177114 0.051134169 -0.065712899 -0.095523350 0.991938710
1341845959.939861 0.039052885 -0.559857547 0.433177024 0.053331770 -0.066945374 -0.096731901 0.991623402
1341845959.975710 0.039052919 -0.559857547 0.433177054 0.055528872 -0.068177246 -0.097939648 0.991300285
1341845960.007688 0.039052982 -0.559857368 0.433176994 0.057725508 -0.069408536 -0.099146590 0.990969300
1341845960.039963 0.039053041 -0.559857309 0.433177084 0.059921395 -0.070639491 -0.100352578 0.990630507
1341845960.075794 0.039053105 -0.559857368 0.433177084 0.062116761 -0.071869619 -0.101557724 0.990283966
1341845960.107770 0.039053183 -0.559857368 0.433177084 0.064311601 -0.073099121 -0.102762021 0.989929557
1341845960.144033 0.039053243 -0.559857249 0.433177173 0.066505902 -0.074328043 -0.103965461 0.989567339
1341845960.175727 0.039053272 -0.559857249 0.433177114 0.068699718 -0.075556323 -0.105168030 0.989197314
1341845960.207727 0.039053321 -0.559857309 0.433177203 0.070892975 -0.076783903 -0.106369704 0.988819420
1341845960.243768 0.039053414 -0.559857070 0.433177292 0.073085606 -0.078010805 -0.107570544 0.988433778
1341845960.275774 0.039053436 -0.559857070 0.433177322 0.075277679 -0.079236828 -0.108770542 0.988040388
1341845960.307922 0.039053459 -0.559857368 0.433177292 0.077469178 -0.080462150 -0.109969623 0.987639129
1341845960.343783 0.039053515 -0.559857130 0.433177382 0.079660013 -0.081686758 -0.111167796 0.987230122
1341845960.375748 0.039053556 -0.559857190 0.433177382 0.081850149 -0.082910523 -0.112365082 0.986813307
1341845960.407669 0.039053638 -0.559857130 0.433177412 0.084039643 -0.084133454 -0.113561399 0.986388683
1341845960.443816 0.039053667 -0.559857190 0.433177590 0.086228475 -0.085355639 -0.114756741 0.985956371
1341845960.475859 0.039053705 -0.559857130 0.433177471 0.088416360 -0.086576425 -0.115951158 0.985516310
1341845960.507864 0.039053746 -0.559857130 0.433177620 0.090603575 -0.087796472 -0.117144585 0.985068440
1341845960.543808 0.039053772 -0.559857249 0.433177620 0.092790157 -0.089015737 -0.118336976 0.984612882
1341845960.575920 0.039053790 -0.559857190 0.433177531 0.094975986 -0.090234354 -0.119528346 0.984149516
1341845960.611822 0.039053712 -0.559857130 0.433177590 0.097160950 -0.091452360 -0.120718695 0.983678401
1341845960.675868 0.039053693 -0.559857070 0.433177412 0.099345125 -0.092669718 -0.121907972 0.983199477
1341845960.738006 0.039053682 -0.559857011 0.433177441 0.101528466 -0.093886353 -0.123096295 0.982712865
1341845960.773767 0.039053697 -0.559856951 0.433177561 0.103710942 -0.095102273 -0.124283619 0.982218504
1341845960.805854 0.039053757 -0.559856892 0.433177561 0.105892539 -0.096317418 -0.125469908 0.981716335
1341845960.837918 0.039053783 -0.559856892 0.433177650 0.108073264 -0.097531796 -0.126655161 0.981206477
1341845960.873825 0.039053891 -0.559856772 0.433177680 0.110253118 -0.098745331 -0.127839416 0.980688870
1341845960.905884 0.039053954 -0.559856772 0.433177799 0.112432115 -0.099957913 -0.129022643 0.980163574
1341845960.941780 0.039053965 -0.559856892 0.433177859 0.114610150 -0.101169556 -0.130204856 0.979630470
1341845960.973838 0.039054025 -0.559856772 0.433177829 0.116787203 -0.102380283 -0.131386057 0.979089737
1341845961.006150 0.039054051 -0.559856594 0.433177948 0.118963309 -0.103590138 -0.132566139 0.978541255
1341845961.041828 0.039054133 -0.559856772 0.433177859 0.121138468 -0.104799092 -0.133745193 0.977985084
1341845961.073796 0.039054066 -0.559856772 0.433177859 0.123312734 -0.106007129 -0.134923115 0.977421224
1341845961.110987 0.039054118 -0.559856772 0.433177888 0.125486061 -0.107214287 -0.136099890 0.976849616
1341845961.141834 0.039054051 -0.559856713 0.433177948 0.127658531 -0.108420491 -0.137275532 0.976270258
1341845961.173863 0.039054088 -0.559856772 0.433177918 0.129830003 -0.109625719 -0.138450056 0.975683331
1341845961.209891 0.039054099 -0.559856772 0.433177888 0.132000506 -0.110830165 -0.139623433 0.975088656
1341845961.242098 0.039054047 -0.559856892 0.433177859 0.134170100 -0.112033710 -0.140795618 0.974486232
1341845961.273933 0.039054107 -0.559856832 0.433177799 0.136338577 -0.113236092 -0.141966745 0.973876178
1341845961.310022 0.039054103 -0.559856653 0.433177859 0.138505891 -0.114437498 -0.143136755 0.973258495
1341845961.341758 0.039054174 -0.559856594 0.433177948 0.140672073 -0.115637928 -0.144305661 0.972633064
1341845961.378106 0.039054241 -0.559856355 0.433178008 0.142837092 -0.116837405 -0.145473436 0.972000003
1341845961.409796 0.039054263 -0.559856176 0.433177948 0.145000964 -0.118035875 -0.146640122 0.971359313
1341845961.441821 0.039054375 -0.559855938 0.433178127 0.147163585 -0.119233452 -0.147805616 0.970710933
1341845961.477824 0.039054457 -0.559855640 0.433178216 0.149325013 -0.120430104 -0.148969933 0.970054924
1341845961.509791 0.039054532 -0.559855402 0.433178335 0.151484728 -0.121626191 -0.150133148 0.969391286
1341845961.541896 0.039054640 -0.559855223 0.433178335 0.153641179 -0.122822806 -0.151295647 0.968720019
1341845961.577897 0.039054643 -0.559855044 0.433178395 0.154559836 -0.124271028 -0.152733326 0.968163431
1341845961.609802 0.039054666 -0.559854984 0.433178693 0.155477509 -0.125718608 -0.154170319 0.967601717
1341845961.645986 0.039054774 -0.559854627 0.433178633 0.156394184 -0.127165616 -0.155606568 0.967034817
1341845961.677834 0.039054755 -0.559854627 0.433178723 0.157987908 -0.127834439 -0.156700328 0.966510832
1341845961.709764 0.039054874 -0.559854567 0.433178753 0.157524034 -0.128960282 -0.158324853 0.966172159
1341845961.745888 0.039054930 -0.559854507 0.433178693 0.154707447 -0.130191863 -0.160788789 0.966055214
1341845961.778055 0.039054986 -0.559854507 0.433178872 0.154276952 -0.130585119 -0.161987826 0.965870619
1341845961.809850 0.039054994 -0.559854388 0.433178872 0.153485030 -0.129972607 -0.163313031 0.965856254
1341845961.845697 0.039055046 -0.559854388 0.433178931 0.152550876 -0.130634859 -0.164379552 0.965734005
1341845961.877872 0.039055161 -0.559854388 0.433179021 0.152239859 -0.132185444 -0.164828286 0.965495527
1341845961.913718 0.039055165 -0.559854269 0.433178961 0.150585398 -0.131828025 -0.166032895 0.965597451
1341845961.945896 0.039055269 -0.559854209 0.433179051 0.147302076 -0.132410869 -0.167285725 0.965807915
1341845961.977939 0.039055381 -0.559854209 0.433179289 0.146930799 -0.137721375 -0.166563183 0.965246558
1341845962.013984 0.039055444 -0.559854031 0.433179140 0.147490785 -0.137713373 -0.167025551 0.965082347
1341845962.046683 0.039055455 -0.559853971 0.433179140 0.147187129 -0.138001546 -0.168331310 0.964860618
1341845962.078169 0.039055131 -0.559854090 0.433179766 0.147853032 -0.140403032 -0.170967489 0.963948429
1341845962.114007 0.039055228 -0.559853852 0.433179706 0.151890427 -0.140044257 -0.172890618 0.963029444
1341845962.145797 0.039055523 -0.559853911 0.433179468 0.155519694 -0.141096920 -0.174482882 0.962008834
1341845962.182026 0.039055590 -0.559853792 0.433179468 0.156652451 -0.142043367 -0.176653415 0.961289406
1341845962.214096 0.039055698 -0.559853554 0.433179557 0.157492518 -0.141884729 -0.179041043 0.960733652
1341845962.245784 0.039055672 -0.559853613 0.433179498 0.156865552 -0.141709268 -0.181662247 0.960370004
1341845962.281938 0.039055847 -0.559853435 0.433179289 0.156240255 -0.141531363 -0.184281304 0.959999084
1341845962.313944 0.039055858 -0.559853256 0.433179229 0.156701282 -0.140939891 -0.186675370 0.959548295
1341845962.349929 0.039055891 -0.559853315 0.433179229 0.156265065 -0.138876900 -0.189852104 0.959296942
1341845962.381891 0.039055977 -0.559853256 0.433179319 0.156865522 -0.139682010 -0.192103222 0.958633661
1341845962.413742 0.039056022 -0.559853256 0.433179319 0.157466859 -0.140489697 -0.194351539 0.957963645
1341845962.449828 0.039056044 -0.559853077 0.433179200 0.158065587 -0.141299382 -0.196598455 0.957287192
1341845962.487817 0.039056093 -0.559853077 0.433179170 0.157544717 -0.142805159 -0.198903963 0.956673205
1341845962.549874 0.039055917 -0.559853077 0.433179557 0.157153547 -0.142801732 -0.201708764 0.956150591
1341845962.581942 0.039056063 -0.559853137 0.433179617 0.160136148 -0.143581778 -0.202434078 0.955385327
1341845962.617866 0.039056204 -0.559852898 0.433179587 0.163117081 -0.144360244 -0.203157201 0.954609871
1341845962.649869 0.039056141 -0.559852898 0.433179468 0.165884927 -0.144364804 -0.204186916 0.953912318
1341845962.682115 0.039056327 -0.559852898 0.433179528 0.165877163 -0.144566938 -0.206129581 0.953465164
1341845962.717940 0.039056286 -0.559852839 0.433179647 0.166412935 -0.144028708 -0.207749099 0.953101635
1341845962.749929 0.039056238 -0.559853077 0.433179706 0.166204855 -0.142848223 -0.209756568 0.952875912
1341845962.781986 0.039056323 -0.559853017 0.433179766 0.165350556 -0.143682405 -0.210879147 0.952651322
1341845962.817763 0.039056342 -0.559853017 0.433179617 0.165315837 -0.141833946 -0.212652117 0.952540219
1341845962.849755 0.039056316 -0.559852839 0.433179617 0.166372567 -0.140118018 -0.213961944 0.952316821
1341845962.885818 0.039056413 -0.559852958 0.433179706 0.166902959 -0.141144171 -0.214222848 0.952013791
1341845962.918631 0.039056413 -0.559852958 0.433179319 0.165276736 -0.141966194 -0.214756668 0.952055037
1341845962.964414 0.039056510 -0.559852898 0.433179379 0.162887454 -0.138881311 -0.216375500 0.952555120
1341845963.017793 0.039056659 -0.559852779 0.433179289 0.155454963 -0.137573868 -0.219376162 0.953300238
1341845963.085942 0.039056662 -0.559852779 0.433179438 0.148011968 -0.136255994 -0.222362429 0.953981996
1341845963.117888 0.039056867 -0.559852839 0.433179468 0.140559167 -0.134928465 -0.225333869 0.954600513
1341845963.154202 0.039056797 -0.559852898 0.433179349 0.136276215 -0.133326113 -0.226846367 0.955088317
1341845963.185770 0.039056879 -0.559852898 0.433179319 0.133993566 -0.130031720 -0.227963686 0.955599308
1341845963.217782 0.039056715 -0.559852898 0.433179528 0.131708771 -0.126734123 -0.229077026 0.956093609
1341845963.253885 0.039056737 -0.559852898 0.433179498 0.129421517 -0.123434551 -0.230186284 0.956571102
1341845963.285844 0.039056696 -0.559852898 0.433179349 0.127132535 -0.120132804 -0.231291160 0.957031786
1341845963.321913 0.039056662 -0.559852839 0.433179319 0.125257611 -0.115335576 -0.232724756 0.957521498
1341845963.353695 0.039056692 -0.559852839 0.433179349 0.123377807 -0.110535756 -0.234151989 0.957983613
1341845963.385792 0.039056618 -0.559852719 0.433179408 0.121494286 -0.105733000 -0.235572457 0.958418131
1341845963.421875 0.039056528 -0.559852600 0.433179379 0.119607173 -0.100927331 -0.236986175 0.958824933
1341845963.453923 0.039056566 -0.559852660 0.433179498 0.117716283 -0.096116632 -0.238393351 0.959204376
1341845963.485900 0.039056674 -0.559852600 0.433179677 0.115821525 -0.091303594 -0.239793494 0.959556162
1341845963.521709 0.039056715 -0.559852839 0.433179647 0.113924377 -0.086487092 -0.241186395 0.959880352
1341845963.553742 0.039056808 -0.559853017 0.433179528 0.112024002 -0.081668101 -0.242572188 0.960176885
1341845963.589977 0.039056763 -0.559853256 0.433179826 0.110120557 -0.076846361 -0.243951008 0.960445702
1341845963.621850 0.039056923 -0.559853613 0.433179766 0.108214580 -0.072022259 -0.245322645 0.960686862
1341845963.654421 0.039057232 -0.559853613 0.433179617 0.108444989 -0.065728843 -0.246630937 0.960777044
1341845963.690029 0.039057251 -0.559853613 0.433179706 0.110164858 -0.060502738 -0.246439770 0.960973740
1341845963.721864 0.039057285 -0.559853554 0.433179587 0.111882031 -0.055275127 -0.246240765 0.961141288
1341845963.753762 0.039057501 -0.559853554 0.433179498 0.113595359 -0.050045293 -0.246034533 0.961279690
1341845963.753762 0.039057501 -0.559853554 0.433179498 0.113595359 -0.050045293 -0.246034533 0.961279690
1341845963.753762 0.039057501 -0.559853554 0.433179498 0.113595359 -0.050045293 -0.246034533 0.961279690
1341845963.753762 0.039057501 -0.559853554 0.433179498 0.113595359 -0.050045293 -0.246034533 0.961279690
1341845963.753762 0.039057501 -0.559853554 0.433179498 0.113595359 -0.050045293 -0.246034533 0.961279690
1341845963.753762 0.039057501 -0.559853554 0.433179498 0.113595359 -0.050045293 -0.246034533 0.961279690
1341845963.753762 0.039057501 -0.559853554 0.433179498 0.113595359 -0.050045293 -0.246034533 0.961279690
1341845963.753762 0.039057501 -0.559853554 0.433179498 0.113595359 -0.050045293 -0.246034533 0.961279690
1341845963.753762 0.039057501 -0.559853554 0.433179498 0.113595359 -0.050045293 -0.246034533 0.961279690
1341845963.753762 0.039057501 -0.559853554 0.433179498 0.113595359 -0.050045293 -0.246034533 0.961279690
1341845963.753762 0.039057501 -0.559853554 0.433179498 0.113595359 -0.050045293 -0.246034533 0.961279690
1341845963.753762 0.039057501 -0.559853554 0.433179498 0.113595359 -0.050045293 -0.246034533 0.961279690
1341845963.753762 0.039057501 -0.559853554 0.433179498 0.113595359 -0.050045293 -0.246034533 0.961279690
1341845963.753762 0.039057501 -0.559853554 0.433179498 0.113595359 -0.050045293 -0.246034533 0.961279690
1341845963.753762 0.039057501 -0.559853554 0.433179498 0.113595359 -0.050045293 -0.246034533 0.961279690
1341845963.753762 0.039057501 -0.559853554 0.433179498 0.113595359 -0.050045293 -0.246034533 0.961279690
1341845963.753762 0.039057501 -0.559853554 0.433179498 0.113595359 -0.050045293 -0.246034533 0.961279690
1341845963.753762 0.039057501 -0.559853554 0.433179498 0.113595359 -0.050045293 -0.246034533 0.961279690
1341845963.753762 0.039057501 -0.559853554 0.433179498 0.113595359 -0.050045293 -0.246034533 0.961279690
1341845963.753762 0.039057501 -0.559853554 0.433179498 0.113595359 -0.050045293 -0.246034533 0.961279690
1341845963.753762 0.039057501 -0.559853554 0.433179498 0.113595359 -0.050045293 -0.246034533 0.961279690
1341845963.753762 0.039057501 -0.559853554 0.433179498 0.113595359 -0.050045293 -0.246034533 0.961279690
1341845963.753762 0.039057501 -0.559853554 0.433179498 0.113595359 -0.050045293 -0.246034533 0.961279690
1341845963.753762 0.039057501 -0.559853554 0.433179498 0.113595359 -0.050045293 -0.246034533 0.961279690
1341845963.753762 0.039057501 -0.559853554 0.433179498 0.113595359 -0.050045293 -0.246034533 0.961279690
1341845963.753762 0.039057501 -0.559853554 0.433179498 0.113595359 -0.050045293 -0.246034533 0.961279690
1341845963.753762 0.039057501 -0.559853554 0.433179498 0.113595359 -0.050045293 -0.246034533 0.961279690
1341845963.753762 0.039057501 -0.559853554 0.433179498 0.113595359 -0.050045293 -0.246034533 0.961279690
1341845963.753762 0.039057501 -0.559853554 0.433179498 0.113595359 -0.050045293 -0.246034533 0.961279690
1341845963.753762 0.039057501 -0.559853554 0.433179498 0.113595359 -0.050045293 -0.246034533 0.961279690
1341845963.753762 0.039057501 -0.559853554 0.433179498 0.113595359 -0.050045293 -0.246034533 0.961279690
1341845963.753762 0.039057501 -0.559853554 0.433179498 0.113595359 -0.050045293 -0.246034533 0.961279690
1341845963.753762 0.039057501 -0.559853554 0.433179498 0.113595359 -0.050045293 -0.246034533 0.961279690
1341845963.753762 0.039057501 -0.559853554 0.433179498 0.113595359 -0.050045293 -0.246034533 0.961279690
1341845963.753762 0.039057501 -0.559853554 0.433179498 0.113595359 -0.050045293 -0.246034533 0.961279690
1341845963.753762 0.039057501 -0.559853554 0.433179498 0.113595359 -0.050045293 -0.246034533 0.961279690
1341845963.753762 0.039057501 -0.559853554 0.433179498 0.113595359 -0.050045293 -0.246034533 0.961279690
1341845963.753762 0.039057501 -0.559853554 0.433179498 0.113595359 -0.050045293 -0.246034533 0.961279690
1341845963.753762 0.039057501 -0.559853554 0.433179498 0.113595359 -0.050045293 -0.246034533 0.961279690
1341845963.753762 0.039057501 -0.559853554 0.433179498 0.113595359 -0.050045293 -0.246034533 0.961279690
1341845963.753762 0.039057501 -0.559853554 0.433179498 0.113595359 -0.050045293 -0.246034533 0.961279690
1341845963.753762 0.039057501 -0.559853554 0.433179498 0.113595359 -0.050045293 -0.246034533 0.961279690
1341845963.753762 0.039057501 -0.559853554 0.433179498 0.113595359 -0.050045293 -0.246034533 0.961279690
1341845963.753762 0.039057501 -0.559853554 0.433179498 0.113595359 -0.050045293 -0.246034533 0.961279690
1341845963.753762 0.039057501 -0.559853554 0.433179498 0.113595359 -0.050045293 -0.246034533 0.961279690
1341845963.753762 0.039057501 -0.559853554 0.433179498 0.113595359 -0.050045293 -0.246034533 0.961279690
1341845963.753762 0.039057501 -0.559853554 0.433179498 0.113595359 -0.050045293 -0.246034533 0.961279690
1341845963.753762 0.039057501 -0.559853554 0.433179498 0.113595359 -0.050045293 -0.246034533 0.961279690
1341845963.753762 0.039057501 -0.559853554 0.433179498 0.113595359 -0.050045293 -0.246034533 0.961279690
1341845963.753762 0.039057501 -0.559853554 0.433179498 0.113595359 -0.050045293 -0.246034533 0.961279690
1341845963.753762 0.039057501 -0.559853554 0.433179498 0.113595359 -0.050045293 -0.246034533 0.961279690
1341845963.753762 0.039057501 -0.559853554 0.433179498 0.113595359 -0.050045293 -0.246034533 0.961279690
1341845963.753762 0.039057501 -0.559853554 0.433179498 0.113595359 -0.050045293 -0.246034533 0.961279690
1341845963.753762 0.039057501 -0.559853554 0.433179498 0.113595359 -0.050045293 -0.246034533 0.961279690
1341845963.753762 0.039057501 -0.559853554 0.433179498 0.113595359 -0.050045293 -0.246034533 0.961279690
1341845963.753762 0.039057501 -0.559853554 0.433179498 0.113595359 -0.050045293 -0.246034533 0.961279690
1341845963.753762 0.039057501 -0.559853554 0.433179498 0.113595359 -0.050045293 -0.246034533 0.961279690
1341845965.803746 0.000000000 0.000000000 0.000000000 0.000000000 0.000000000 0.000000000 1.000000000
1341845965.840020 -0.011428612 0.000182646 0.003774212 0.000251349 0.002169687 0.001799919 0.999996006
1341845965.871716 -0.010196402 0.002154858 -0.006042171 0.001012375 0.002355335 0.002921009 0.999992430
1341845965.907848 -0.015979813 0.003905885 -0.009335903 -0.000657794 0.005169252 0.000813818 0.999986112
1341845965.939897 -0.033392813 0.005082744 -0.001980183 -0.001136480 0.006525107 0.002127879 0.999975801
1341845965.971777 -0.037602246 0.006032844 -0.001561234 -0.000222763 0.004704390 0.004460899 0.999978960
1341845966.007712 -0.032298058 0.006580304 -0.011975635 -0.000184252 0.005019520 0.003969376 0.999979496
1341845966.039925 -0.044936001 0.013891162 -0.011801237 -0.002097846 0.006039952 0.003817175 0.999972284
1341845966.071842 -0.044944454 0.013917420 -0.012672749 -0.004392563 0.002095120 0.004081895 0.999979854
1341845966.107724 -0.044929933 0.013922922 -0.012651204 -0.005458423 -0.000767872 0.003975949 0.999976873
1341845966.139710 -0.044949077 0.013897682 -0.012651928 -0.006298335 -0.000979838 0.003320507 0.999974191
1341845966.171793 -0.044924892 0.013929325 -0.012743243 -0.006981590 -0.004170511 0.003095909 0.999962151
1341845966.207829 -0.044969991 0.013871456 -0.012256078 -0.009125856 -0.008906721 0.001824350 0.999917030
1341845966.239904 -0.044925757 0.013930214 -0.012739988 -0.009605655 -0.010483458 0.000185370 0.999898911
1341845966.275869 -0.044920519 0.013931843 -0.012751492 -0.010718140 -0.014142163 0.000006301 0.999842525
1341845966.307882 -0.045026824 0.013863952 -0.012627676 -0.015026921 -0.020353453 0.000453748 0.999679804
1341845966.339897 -0.044926398 0.013928159 -0.012738434 -0.017284397 -0.024106411 -0.000068653 0.999559939
1341845966.375773 -0.044908822 0.013947155 -0.012791111 -0.019016288 -0.028975196 0.001609914 0.999397933
1341845966.408401 -0.045243807 0.013795718 -0.012026194 -0.021968888 -0.042163141 0.002982801 0.998864710
1341845966.470009 -0.044908460 0.013943729 -0.012790898 -0.025476435 -0.049105007 -0.002700670 0.998465002
1341845966.502100 -0.044908494 0.013947092 -0.012790712 -0.023387762 -0.055081055 -0.000533375 0.998207808
1341845966.537769 -0.044908989 0.013945452 -0.012787708 -0.021652212 -0.059918113 0.000289326 0.997968435
1341845966.570051 -0.044908430 0.013946999 -0.012790484 -0.021899257 -0.060029093 -0.003355711 0.997950733
1341845966.605694 -0.044907529 0.013948116 -0.012792688 -0.020341225 -0.064371444 -0.005510830 0.997703433
1341845966.637893 -0.044908486 0.013946949 -0.012790092 -0.019011384 -0.073099606 -0.006810296 0.997120142
1341845966.669930 -0.044908449 0.013946920 -0.012789990 -0.019074926 -0.076186776 -0.011896603 0.996840060
1341845966.705984 -0.044908635 0.013946829 -0.012789438 -0.019624043 -0.078677215 -0.019108091 0.996523798
1341845966.737793 -0.044908583 0.013946882 -0.012789113 -0.018853417 -0.086475156 -0.022424988 0.995823145
1341845966.773893 -0.044908665 0.013946852 -0.012788996 -0.018315293 -0.093043245 -0.024038838 0.995203316
1341845966.806068 -0.044908676 0.013946853 -0.012788975 -0.019034807 -0.095830642 -0.029410325 0.994780958
1341845966.837941 -0.044908732 0.013946839 -0.012789024 -0.019994238 -0.102273978 -0.034826983 0.993945360
1341845966.873813 -0.044908706 0.013946848 -0.012789032 -0.022831207 -0.111172549 -0.040925838 0.992695570
1341845966.905683 -0.044908557 0.013946778 -0.012789027 -0.025652936 -0.119889535 -0.047007203 0.991341889
1341845966.937810 -0.044908546 0.013946758 -0.012789010 -0.028483858 -0.128755733 -0.053094205 0.989844263
1341845966.973800 -0.044908423 0.013946528 -0.012789059 -0.031275410 -0.137684196 -0.059183806 0.988211632
1341845967.005805 -0.044908363 0.013946476 -0.012789080 -0.034098357 -0.146516487 -0.065257154 0.986464262
1341845967.042225 -0.044908080 0.013946239 -0.012789154 -0.036887772 -0.155270278 -0.071287669 0.984605730
1341845967.073828 -0.044908062 0.013946219 -0.012789162 -0.039701853 -0.164064601 -0.077343903 0.982611060
1341845967.105887 -0.044907890 0.013946090 -0.012789188 -0.042554960 -0.172791108 -0.083310343 0.980505824
1341845967.141740 -0.044907767 0.013946014 -0.012789208 -0.045358371 -0.181543618 -0.089345738 0.978264689
1341845967.173814 -0.044907812 0.013946016 -0.012789264 -0.048112910 -0.190319121 -0.095450692 0.975885689
1341845967.205958 -0.044907648 0.013945866 -0.012789245 -0.050909489 -0.199025780 -0.101460353 0.973397493
1341845967.241684 -0.044907484 0.013945833 -0.012789297 -0.053695284 -0.207705721 -0.107459851 0.970787048
1341845967.273869 -0.044907328 0.013945743 -0.012789314 -0.056473766 -0.216359600 -0.113446474 0.968054295
1341845967.310009 -0.044907242 0.013945625 -0.012789308 -0.059245851 -0.224986076 -0.119418018 0.965199709
1341845967.341721 -0.044907048 0.013945432 -0.012789307 -0.062010743 -0.233583033 -0.125374153 0.962223947
1341845967.373873 -0.044906870 0.013945354 -0.012789341 -0.064767614 -0.242151678 -0.131314799 0.959126770
1341845967.409855 -0.044906747 0.013945280 -0.012789344 -0.067519814 -0.250688255 -0.137236208 0.955909371
1341845967.441891 -0.044906557 0.013945179 -0.012789305 -0.070260152 -0.259194762 -0.143142864 0.952571094
1341845967.473782 -0.044906139 0.013945076 -0.012789383 -0.072988085 -0.267667353 -0.149034083 0.949113131
1341845967.509844 -0.044905845 0.013944944 -0.012789393 -0.075710312 -0.276107430 -0.154904008 0.945535481
1341845967.541835 -0.044905573 0.013944785 -0.012789410 -0.078424923 -0.284514487 -0.160751045 0.941838741
1341845967.583843 -0.044905119 0.013944628 -0.012789411 -0.081127718 -0.292883933 -0.166581199 0.938023448
1341845967.641865 -0.044904903 0.013944509 -0.012789334 -0.083817214 -0.301215708 -0.172394022 0.934089959
1341845967.677848 -0.044904578 0.013944538 -0.012789308 -0.086499199 -0.309510291 -0.178181589 0.930039048
1341845967.709875 -0.044904076 0.013944541 -0.012789229 -0.089171708 -0.317764550 -0.183947593 0.925871134
1341845967.745878 -0.044903729 0.013944361 -0.012789155 -0.091831662 -0.325980067 -0.189689562 0.921586573
1341845967.778746 -0.044903420 0.013944096 -0.012789126 -0.094480604 -0.334155023 -0.195405483 0.917186201
1341845967.809778 -0.044902992 0.013943909 -0.012789072 -0.097117104 -0.342287481 -0.201098830 0.912670135
1341845967.845933 -0.044902638 0.013943805 -0.012788985 -0.099740468 -0.350377232 -0.206766710 0.908039153
1341845967.878439 -0.044902444 0.013943691 -0.012788943 -0.102352262 -0.358422458 -0.212408513 0.903293967
1341845967.910100 -0.044902142 0.013943582 -0.012788788 -0.104951277 -0.366423428 -0.218024254 0.898434460
1341845967.945831 -0.044901870 0.013943417 -0.012788644 -0.107537128 -0.374377221 -0.223611712 0.893462479
1341845967.977896 -0.044901747 0.013943235 -0.012788564 -0.110111117 -0.382283658 -0.229168937 0.888378501
1341845968.013873 -0.044901647 0.013942978 -0.012788447 -0.112669840 -0.390142232 -0.234698951 0.883182287
1341845968.046014 -0.044901472 0.013942698 -0.012788363 -0.115213409 -0.397949457 -0.240199000 0.877876163
1341845968.077840 -0.044901308 0.013942473 -0.012788274 -0.117743649 -0.405708671 -0.245668992 0.872458398
1341845968.113779 -0.044901215 0.013942338 -0.012788180 -0.120264649 -0.413414150 -0.251103908 0.866932511
1341845968.146343 -0.044901110 0.013942270 -0.012788072 -0.122765243 -0.421070158 -0.256511033 0.861295938
1341845968.178020 -0.044900998 0.013942226 -0.012787969 -0.125249803 -0.428672761 -0.261886448 0.855551064
1341845968.213838 -0.044901002 0.013942146 -0.012787871 -0.127719283 -0.436221600 -0.267228246 0.849698544
1341845968.245986 -0.044900998 0.013942041 -0.012787783 -0.130175382 -0.443716019 -0.272533953 0.843739152
1341845968.281755 -0.044900939 0.013941905 -0.012787673 -0.132612526 -0.451153964 -0.277807683 0.837673485
1341845968.313859 -0.044900887 0.013941731 -0.012787553 -0.135033041 -0.458535135 -0.283046365 0.831502438
1341845968.381845 -0.044901107 0.013941485 -0.012787632 -0.137433127 -0.465859830 -0.288253486 0.825225234
1341845968.413829 -0.044901103 0.013941417 -0.012787575 -0.139819294 -0.473124504 -0.293420434 0.818845630
1341845968.445783 -0.044901177 0.013941384 -0.012787436 -0.142187744 -0.480329633 -0.298550546 0.812363029
1341845968.481950 -0.044901136 0.013941110 -0.012787388 -0.144536719 -0.487473190 -0.303644598 0.805778503
1341845968.513880 -0.044901233 0.013940833 -0.012787408 -0.146868959 -0.494556576 -0.308698893 0.799092174
1341845968.549874 -0.044901211 0.013940704 -0.012787334 -0.149182588 -0.501579762 -0.313713759 0.792304158
1341845968.581797 -0.044900939 0.013940577 -0.012787145 -0.151477441 -0.508538008 -0.318689853 0.785417438
1341845968.613836 -0.044901203 0.013940558 -0.012787012 -0.153754339 -0.515430152 -0.323625326 0.778433084
1341845968.649866 -0.044901136 0.013940200 -0.012786979 -0.156009361 -0.522261381 -0.328521162 0.771348178
1341845968.681800 -0.044901043 0.013939975 -0.012786701 -0.158246145 -0.529025018 -0.333374947 0.764167428
1341845968.713888 -0.044900950 0.013939812 -0.012786427 -0.160462961 -0.535722017 -0.338186532 0.756890655
1341845968.749871 -0.044901021 0.013939565 -0.012786189 -0.162659705 -0.542351604 -0.342955679 0.749518514
1341845968.781921 -0.044901054 0.013939307 -0.012785901 -0.164836019 -0.548912823 -0.347681612 0.742052019
1341845968.817754 -0.044900898 0.013939108 -0.012785554 -0.166993260 -0.555404425 -0.352362990 0.734492660
1341845968.850259 -0.044900957 0.013938957 -0.012785245 -0.169127882 -0.561826527 -0.357000738 0.726840496
1341845968.881826 -0.044901077 0.013938725 -0.012784978 -0.171241343 -0.568177879 -0.361593455 0.719096959
1341845968.917722 -0.044901054 0.013938467 -0.012784663 -0.173334017 -0.574457288 -0.366139889 0.711263478
1341845968.949889 -0.044901043 0.013938305 -0.012784345 -0.175404131 -0.580664754 -0.370640963 0.703339994
1341845968.985958 -0.044901177 0.013938189 -0.012784053 -0.177452281 -0.586799085 -0.375095338 0.695327997
1341845969.017732 -0.044901233 0.013937956 -0.012783734 -0.179478064 -0.592859447 -0.379502475 0.687228560
1341845969.049916 -0.044901282 0.013937830 -0.012783410 -0.181481361 -0.598845303 -0.383861870 0.679042637
1341845969.085845 -0.044901371 0.013937775 -0.012783119 -0.183461890 -0.604755759 -0.388172895 0.670771182
1341845969.117802 -0.044901408 0.013937543 -0.012782777 -0.185420170 -0.610589802 -0.392434478 0.662415743
1341845969.149856 -0.044901580 0.013937327 -0.012782448 -0.187354371 -0.616347194 -0.396647304 0.653976560
1341845969.185864 -0.044901684 0.013937077 -0.012782113 -0.189266339 -0.622026742 -0.400809348 0.645455599
1341845969.217819 -0.044901840 0.013936918 -0.012781770 -0.191153288 -0.627628326 -0.404921681 0.636852860
1341845969.254025 -0.044901997 0.013936706 -0.012781394 -0.193016216 -0.633150935 -0.408983022 0.628169954
1341845969.317925 -0.044902306 0.013936483 -0.012781028 -0.194854319 -0.638594210 -0.412993133 0.619407654
1341845969.353755 -0.044902429 0.013936402 -0.012780724 -0.196668357 -0.643956780 -0.416951120 0.610567689
1341845969.386150 -0.044902526 0.013936421 -0.012780487 -0.198457599 -0.649238408 -0.420856625 0.601650894
1341845969.417886 -0.044902638 0.013936292 -0.012780275 -0.200221106 -0.654438257 -0.424709648 0.592658222
1341845969.453876 -0.044902854 0.013936143 -0.012779996 -0.201959968 -0.659555733 -0.428508759 0.583591104
1341845969.485873 -0.044903077 0.013936002 -0.012779702 -0.203673273 -0.664590240 -0.432254046 0.574450552
1341845969.521785 -0.044903267 0.013935858 -0.012779530 -0.205361366 -0.669540882 -0.435944587 0.565237999
1341845969.553864 -0.044903420 0.013935751 -0.012779416 -0.207023278 -0.674407363 -0.439580590 0.555954218
1341845969.585920 -0.044903520 0.013935696 -0.012779133 -0.208659142 -0.679188848 -0.443161219 0.546600461
1341845969.621808 -0.044903744 0.013935677 -0.012778909 -0.210268840 -0.683884859 -0.446686000 0.537177920
1341845969.653912 -0.044904035 0.013935352 -0.012778771 -0.211852193 -0.688494802 -0.450154543 0.527687788
1341845969.685996 -0.044904474 0.013935093 -0.012778625 -0.213408887 -0.693018138 -0.453566402 0.518131316
1341845969.721838 -0.044904683 0.013934960 -0.012778332 -0.214938819 -0.697454154 -0.456921011 0.508509696
1341845969.753718 -0.044904873 0.013934868 -0.012778182 0.216441855 0.701802373 0.460218251 -0.498824209
1341845969.789954 -0.044905066 0.013934703 -0.012777963 0.217917621 0.706062138 0.463457495 -0.489076018
1341845969.821781 -0.044905238 0.013934629 -0.012777697 0.219366118 0.710233033 0.466638386 -0.479266286
1341845969.853649 -0.044905402 0.013934603 -0.012777471 0.220787168 0.714314461 0.469760507 -0.469396353
1341845969.889965 -0.044905584 0.013934434 -0.012777374 0.222180441 0.718305945 0.472823471 -0.459467471
1341845969.922004 -0.044905819 0.013934338 -0.012777225 0.223545879 0.722207010 0.475826859 -0.449480832
1341845969.957892 -0.044905998 0.013934264 -0.012777163 0.224883184 0.726017296 0.478770047 -0.439437896
1341845969.989937 -0.044906091 0.013934099 -0.012777175 0.226192221 0.729736149 0.481652915 -0.429339796
1341845970.021841 -0.044906173 0.013933803 -0.012776918 0.227472737 0.733363152 0.484475195 -0.419187784
1341845970.057886 -0.044906266 0.013933515 -0.012776619 0.228724584 0.736897886 0.487236500 -0.408983111
1341845970.089962 -0.044906478 0.013933358 -0.012776623 0.229947537 0.740339816 0.489936441 -0.398727149
1341845970.121869 -0.044906721 0.013933083 -0.012776509 0.231141403 0.743688583 0.492574722 -0.388421208
1341845970.158120 -0.044906925 0.013932905 -0.012776297 0.232306167 0.746943831 0.495151043 -0.378066510
1341845970.189970 -0.044907086 0.013932784 -0.012776094 0.233441666 0.750104964 0.497664958 -0.367664367
1341845970.225844 -0.044907283 0.013932649 -0.012775871 0.234547734 0.753171682 0.500116408 -0.357216060
1341845970.258244 -0.044907492 0.013932518 -0.012775770 0.235624298 0.756143689 0.502504885 -0.346722841
1341845970.289882 -0.044907670 0.013932405 -0.012775768 0.236671299 0.759020507 0.504830182 -0.336186111
1341845970.325836 -0.044907790 0.013932316 -0.012775478 0.237688601 0.761801779 0.507091761 -0.325607181
1341845970.357771 -0.044907901 0.013932268 -0.012775235 0.238675937 0.764487207 0.509289801 -0.314987332
1341845970.400198 -0.044907968 0.013932277 -0.012775380 0.239633366 0.767076433 0.511423469 -0.304328084
1341845970.432233 -0.044908017 0.013932089 -0.012775341 0.240560606 0.769569218 0.513492763 -0.293630630
1341845970.464489 -0.044908121 0.013931952 -0.012775030 0.241457567 0.771965206 0.515497446 -0.282896310
1341845970.500675 -0.044908337 0.013931763 -0.012774859 0.242324114 0.774264157 0.517437220 -0.272126406
1341845970.532407 -0.044908371 0.013931664 -0.012775242 0.242324308 0.774264097 0.517437160 -0.272126526
1341845970.532407 -0.044908371 0.013931664 -0.012775242 0.242324308 0.774264097 0.517437160 -0.272126526
1341845970.532407 -0.044908371 0.013931664 -0.012775242 0.242324308 0.774264097 0.517437160 -0.272126526
1341845970.532407 -0.044908371 0.013931664 -0.012775242 0.242324308 0.774264097 0.517437160 -0.272126526
1341845970.532407 -0.044908371 0.013931664 -0.012775242 0.242324308 0.774264097 0.517437160 -0.272126526
1341845970.532407 -0.044908371 0.013931664 -0.012775242 0.242324308 0.774264097 0.517437160 -0.272126526
1341845970.532407 -0.044908371 0.013931664 -0.012775242 0.242324308 0.774264097 0.517437160 -0.272126526
1341845970.532407 -0.044908371 0.013931664 -0.012775242 0.242324308 0.774264097 0.517437160 -0.272126526
1341845970.532407 -0.044908371 0.013931664 -0.012775242 0.242324308 0.774264097 0.517437160 -0.272126526
1341845970.532407 -0.044908371 0.013931664 -0.012775242 0.242324308 0.774264097 0.517437160 -0.272126526
1341845970.532407 -0.044908371 0.013931664 -0.012775242 0.242324308 0.774264097 0.517437160 -0.272126526
1341845970.532407 -0.044908371 0.013931664 -0.012775242 0.242324308 0.774264097 0.517437160 -0.272126526
1341845970.532407 -0.044908371 0.013931664 -0.012775242 0.242324308 0.774264097 0.517437160 -0.272126526
1341845970.532407 -0.044908371 0.013931664 -0.012775242 0.242324308 0.774264097 0.517437160 -0.272126526
1341845970.532407 -0.044908371 0.013931664 -0.012775242 0.242324308 0.774264097 0.517437160 -0.272126526
1341845970.532407 -0.044908371 0.013931664 -0.012775242 0.242324308 0.774264097 0.517437160 -0.272126526
1341845970.532407 -0.044908371 0.013931664 -0.012775242 0.242324308 0.774264097 0.517437160 -0.272126526
1341845970.532407 -0.044908371 0.013931664 -0.012775242 0.242324308 0.774264097 0.517437160 -0.272126526
1341845970.532407 -0.044908371 0.013931664 -0.012775242 0.242324308 0.774264097 0.517437160 -0.272126526
1341845970.532407 -0.044908371 0.013931664 -0.012775242 0.242324308 0.774264097 0.517437160 -0.272126526
1341845970.532407 -0.044908371 0.013931664 -0.012775242 0.242324308 0.774264097 0.517437160 -0.272126526
1341845970.532407 -0.044908371 0.013931664 -0.012775242 0.242324308 0.774264097 0.517437160 -0.272126526
1341845970.532407 -0.044908371 0.013931664 -0.012775242 0.242324308 0.774264097 0.517437160 -0.272126526
1341845970.532407 -0.044908371 0.013931664 -0.012775242 0.242324308 0.774264097 0.517437160 -0.272126526
1341845970.532407 -0.044908371 0.013931664 -0.012775242 0.242324308 0.774264097 0.517437160 -0.272126526
1341845970.532407 -0.044908371 0.013931664 -0.012775242 0.242324308 0.774264097 0.517437160 -0.272126526
1341845970.532407 -0.044908371 0.013931664 -0.012775242 0.242324308 0.774264097 0.517437160 -0.272126526
1341845970.532407 -0.044908371 0.013931664 -0.012775242 0.242324308 0.774264097 0.517437160 -0.272126526
1341845970.532407 -0.044908371 0.013931664 -0.012775242 0.242324308 0.774264097 0.517437160 -0.272126526
1341845970.532407 -0.044908371 0.013931664 -0.012775242 0.242324308 0.774264097 0.517437160 -0.272126526
1341845970.532407 -0.044908371 0.013931664 -0.012775242 0.242324308 0.774264097 0.517437160 -0.272126526
1341845970.532407 -0.044908371 0.013931664 -0.012775242 0.242324308 0.774264097 0.517437160 -0.272126526
1341845970.532407 -0.044908371 0.013931664 -0.012775242 0.242324308 0.774264097 0.517437160 -0.272126526
1341845970.532407 -0.044908371 0.013931664 -0.012775242 0.242324308 0.774264097 0.517437160 -0.272126526
1341845970.532407 -0.044908371 0.013931664 -0.012775242 0.242324308 0.774264097 0.517437160 -0.272126526
1341845970.532407 -0.044908371 0.013931664 -0.012775242 0.242324308 0.774264097 0.517437160 -0.272126526
1341845970.532407 -0.044908371 0.013931664 -0.012775242 0.242324308 0.774264097 0.517437160 -0.272126526
1341845970.532407 -0.044908371 0.013931664 -0.012775242 0.242324308 0.774264097 0.517437160 -0.272126526
1341845970.532407 -0.044908371 0.013931664 -0.012775242 0.242324308 0.774264097 0.517437160 -0.272126526
1341845970.532407 -0.044908371 0.013931664 -0.012775242 0.242324308 0.774264097 0.517437160 -0.272126526
1341845970.532407 -0.044908371 0.013931664 -0.012775242 0.242324308 0.774264097 0.517437160 -0.272126526
1341845970.532407 -0.044908371 0.013931664 -0.012775242 0.242324308 0.774264097 0.517437160 -0.272126526
1341845970.532407 -0.044908371 0.013931664 -0.012775242 0.242324308 0.774264097 0.517437160 -0.272126526
1341845970.532407 -0.044908371 0.013931664 -0.012775242 0.242324308 0.774264097 0.517437160 -0.272126526
1341845970.532407 -0.044908371 0.013931664 -0.012775242 0.242324308 0.774264097 0.517437160 -0.272126526
1341845970.532407 -0.044908371 0.013931664 -0.012775242 0.242324308 0.774264097 0.517437160 -0.272126526
1341845970.532407 -0.044908371 0.013931664 -0.012775242 0.242324308 0.774264097 0.517437160 -0.272126526
1341845970.532407 -0.044908371 0.013931664 -0.012775242 0.242324308 0.774264097 0.517437160 -0.272126526
1341845970.532407 -0.044908371 0.013931664 -0.012775242 0.242324308 0.774264097 0.517437160 -0.272126526
1341845970.532407 -0.044908371 0.013931664 -0.012775242 0.242324308 0.774264097 0.517437160 -0.272126526
1341845970.532407 -0.044908371 0.013931664 -0.012775242 0.242324308 0.774264097 0.517437160 -0.272126526
1341845970.532407 -0.044908371 0.013931664 -0.012775242 0.242324308 0.774264097 0.517437160 -0.272126526
1341845970.532407 -0.044908371 0.013931664 -0.012775242 0.242324308 0.774264097 0.517437160 -0.272126526
1341845970.532407 -0.044908371 0.013931664 -0.012775242 0.242324308 0.774264097 0.517437160 -0.272126526
1341845970.532407 -0.044908371 0.013931664 -0.012775242 0.242324308 0.774264097 0.517437160 -0.272126526
1341845970.532407 -0.044908371 0.013931664 -0.012775242 0.242324308 0.774264097 0.517437160 -0.272126526
1341845970.532407 -0.044908371 0.013931664 -0.012775242 0.242324308 0.774264097 0.517437160 -0.272126526
1341845970.532407 -0.044908371 0.013931664 -0.012775242 0.242324308 0.774264097 0.517437160 -0.272126526
1341845970.532407 -0.044908371 0.013931664 -0.012775242 0.242324308 0.774264097 0.517437160 -0.272126526
1341845972.569894 0.000000000 0.000000000 0.000000000 0.000000000 0.000000000 0.000000000 1.000000000
1341845972.601946 -0.007182228 0.004197227 0.004746958 0.004456419 0.007275890 0.000853513 0.999963224
1341845972.637827 -0.020136233 -0.002218181 0.009355508 0.006236186 0.015775250 0.003005319 0.999851584
1341845972.669939 -0.029556397 -0.009499729 0.012593061 0.010251752 0.020740762 0.005395538 0.999717772
1341845972.705766 -0.036182333 -0.009225985 0.017798491 0.018435519 0.028117977 0.006690906 0.999412179
1341845972.737731 -0.049295194 -0.007339425 0.018271113 0.022065712 0.035833992 0.005978054 0.999096274
1341845972.770011 -0.057138070 -0.010142402 0.025171088 0.024049839 0.040892914 0.008421194 0.998838544
1341845972.805697 -0.069218658 -0.009641524 0.028718634 0.026539549 0.046316244 0.011231900 0.998511016
1341845972.837902 -0.078574799 -0.011482570 0.034587424 0.028773377 0.050206114 0.012954871 0.998240232
1341845972.869858 -0.091822132 -0.011729299 0.039751958 0.031768300 0.053352483 0.017178632 0.997922421
1341845972.905813 -0.098472849 -0.010948478 0.044574767 0.032277856 0.053947307 0.018271619 0.997854710
1341845972.937837 -0.105522498 -0.015339066 0.048679993 0.032326560 0.056520425 0.018779445 0.997701228
1341845973.006643 -0.131458342 -0.015132152 0.055518650 0.033255812 0.059061859 0.019523870 0.997509181
1341845973.037797 -0.131480843 -0.014519683 0.059523329 0.031839151 0.059576631 0.017793469 0.997557163
1341845973.073733 -0.142569214 -0.019673603 0.063455902 0.030865144 0.063282304 0.016709149 0.997378290
1341845973.106021 -0.146661401 -0.024024285 0.065509453 0.033868581 0.065254435 0.017303260 0.997143626
1341845973.137862 -0.156258970 -0.020060660 0.066707850 0.037315596 0.068886898 0.017499408 0.996772766
1341845973.173821 -0.165186450 -0.021034127 0.067502081 0.037235457 0.072215773 0.016220240 0.996561706
1341845973.205866 -0.172864780 -0.025106728 0.073301964 0.038653199 0.074144199 0.015537348 0.996376991
1341845973.241913 -0.176600382 -0.022686576 0.073263168 0.043303642 0.077229410 0.016902411 0.995929062
1341845973.273972 -0.188127935 -0.020994013 0.075342484 0.044335250 0.081477150 0.016135864 0.995557845
1341845973.306456 -0.196784467 -0.024048708 0.077319153 0.044516467 0.082861550 0.015728418 0.995442033
1341845973.341851 -0.202242464 -0.022930389 0.078144193 0.046975326 0.085123688 0.016931867 0.995118380
1341845973.373892 -0.211652935 -0.024628650 0.077961855 0.049583480 0.088922635 0.018102849 0.994638920
1341845973.409787 -0.221037254 -0.026145620 0.081277162 0.054486200 0.091625944 0.020062821 0.994099319
1341845973.441766 -0.228952214 -0.018036937 0.082216516 0.057552069 0.094611153 0.021477835 0.993617237
1341845973.474155 -0.237630874 -0.021173578 0.080835700 0.055899214 0.100045361 0.022337446 0.993160248
1341845973.509824 -0.250432223 -0.028762951 0.079916254 0.058284909 0.105784506 0.023655131 0.992397547
1341845973.541876 -0.256141931 -0.025438312 0.083025783 0.063690394 0.111355968 0.027602233 0.991353393
1341845973.573858 -0.272863209 -0.024519168 0.081751317 0.066248737 0.118777856 0.028262485 0.990305066
1341845973.609706 -0.281910747 -0.028398069 0.081459746 0.069853380 0.124010757 0.029173486 0.989389062
1341845973.641832 -0.298838586 -0.022707555 0.080683187 0.074801967 0.129158303 0.031690408 0.988290727
1341845973.677783 -0.302724451 -0.014290694 0.081463911 0.074019961 0.134001195 0.032803431 0.987668335
1341845973.709911 -0.324210703 -0.025927903 0.083657458 0.071152195 0.140858904 0.033135653 0.986913443
1341845973.741811 -0.329804629 -0.022690479 0.085219681 0.074718587 0.142722800 0.035510764 0.986299276
1341845973.777893 -0.337858617 -0.018559795 0.080597945 0.075604066 0.148051739 0.036540475 0.985408306
1341845973.810234 -0.351568997 -0.016873419 0.079024047 0.074419789 0.155081809 0.036315136 0.984425008
1341845973.841682 -0.362812907 -0.026205756 0.078312814 0.074661456 0.160731703 0.040691689 0.983328640
1341845973.877808 -0.369369507 -0.019625893 0.081856631 0.079854697 0.166792795 0.041155491 0.981890857
1341845973.909935 -0.376426786 -0.016274054 0.073283494 0.078831814 0.173490196 0.042405646 0.980759144
1341845973.946008 -0.390540361 -0.018433375 0.072121292 0.076423518 0.180817470 0.046782512 0.979426324
1341845973.977874 -0.403057158 -0.021573057 0.074294508 0.076594703 0.187620983 0.049738657 0.977986515
1341845974.009966 -0.415848911 -0.021688303 0.073296413 0.079606906 0.192210436 0.052951433 0.976685226
1341845974.045762 -0.424254119 -0.018007042 0.061292015 0.079581313 0.195973516 0.054432981 0.975857675
1341845974.077904 -0.431948930 -0.015742365 0.066538051 0.075317085 0.202751711 0.051501632 0.974970102
1341845974.109840 -0.442017049 -0.016318807 0.066059068 0.070902780 0.208666861 0.048488822 0.974207222
1341845974.145742 -0.453783870 -0.022497449 0.063694268 0.068700485 0.213303968 0.048543569 0.973357677
1341845974.177833 -0.459211975 -0.030362196 0.062944949 0.068568252 0.219009385 0.046485823 0.972199738
1341845974.213769 -0.465797335 -0.030207476 0.059049442 0.069638051 0.226194382 0.044529986 0.970568776
1341845974.245781 -0.476413190 -0.034123950 0.061860412 0.071129218 0.233948484 0.046675112 0.968519568
1341845974.278874 -0.491551131 -0.035002280 0.060035411 0.076714993 0.241253197 0.045027837 0.966376841
1341845974.313829 -0.502699673 -0.029046206 0.060989249 0.079317898 0.243718728 0.046001438 0.965501785
1341845974.345963 -0.512883186 -0.030883059 0.064182647 0.079929225 0.241635486 0.048799921 0.965837538
1341845974.381701 -0.511830270 -0.035260819 0.066597775 0.081798956 0.240530476 0.049363989 0.965928197
1341845974.413828 -0.527690172 -0.028400304 0.056794211 0.082452163 0.240989402 0.048090823 0.965822458
1341845974.445772 -0.538957775 -0.029223537 0.063675806 0.080094203 0.239052504 0.048315473 0.966490746
1341845974.481775 -0.534825087 -0.027543008 0.065460622 0.078188144 0.236159265 0.046970200 0.967424035
1341845974.513798 -0.542004883 -0.034045178 0.073429473 0.074646428 0.239327386 0.039008934 0.967278957
1341845974.545930 -0.553464293 -0.028432155 0.080303214 0.071852289 0.239231631 0.032739900 0.967746675
1341845974.581793 -0.549893737 -0.026168233 0.078491360 0.065345891 0.236499876 0.024998119 0.969109297
1341845974.613863 -0.547405541 -0.032489944 0.083951458 0.055119943 0.242393821 0.010394497 0.968555093
1341845974.649867 -0.556505203 -0.033179354 0.086408935 0.051460471 0.244829789 0.003250129 0.968194008
1341845974.681899 -0.558315158 -0.033908177 0.089148730 0.048160296 0.243700504 -0.002849742 0.968649864
1341845974.713894 -0.554847896 -0.036201153 0.092282392 0.043633562 0.246259004 -0.011724774 0.968150377
1341845974.749846 -0.556906760 -0.036715172 0.099954709 0.039552890 0.251931518 -0.017988691 0.966769099
1341845974.783846 -0.567073882 -0.047174286 0.106383130 0.039005261 0.253223270 -0.018859267 0.966437221
1341845974.815998 -0.565587699 -0.042481355 0.100361340 0.042064503 0.250717610 -0.021308988 0.966911137
1341845974.850024 -0.563875318 -0.032044481 0.102811508 0.035791729 0.254490256 -0.030793579 0.965922058
1341845974.882164 -0.568968236 -0.042202875 0.127101004 0.026850486 0.256135672 -0.037561756 0.965537548
1341845974.918337 -0.576047778 -0.048417173 0.115510724 0.025868682 0.252457947 -0.041366756 0.966377020
1341845974.982668 -0.579514861 -0.042466275 0.123354629 0.011858577 0.252556562 -0.059869271 0.965655327
1341845975.017979 -0.581694365 -0.052482609 0.138586104 0.004516184 0.251986057 -0.070109047 0.965177357
1341845975.051071 -0.582712412 -0.053737469 0.141029805 0.000962203 0.251178145 -0.080432236 0.964592814
1341845975.081985 -0.586116552 -0.057770666 0.123418763 -0.003782970 0.251267523 -0.086750589 0.964014888
1341845975.124057 -0.587504268 -0.068744332 0.140647084 -0.007079017 0.254281908 -0.097669266 0.962159693
1341845975.149794 -0.592616677 -0.072352402 0.144110054 -0.004503506 0.254717797 -0.107283086 0.961035311
1341845975.186157 -0.591894031 -0.061303262 0.143650398 -0.003067524 0.253732502 -0.114180677 0.960506737
1341845975.249885 -0.603989244 -0.066696659 0.142894000 -0.013113982 0.252583474 -0.134391233 0.958106756
1341845975.285858 -0.607565045 -0.066356666 0.144657686 -0.014915129 0.249135569 -0.143386126 0.957679212
1341845975.318226 -0.610586643 -0.072773896 0.139272749 -0.018750522 0.246293724 -0.153949663 0.956706524
1341845975.349820 -0.617229640 -0.078402251 0.144262344 -0.020642390 0.245016441 -0.166709766 0.954855323
1341845975.385748 -0.620098650 -0.068501182 0.144191995 -0.015834754 0.238019094 -0.174755841 0.955278277
1341845975.418586 -0.619712055 -0.064434052 0.117009491 -0.020276964 0.232940897 -0.183085158 0.954885960
1341845975.453683 -0.621627271 -0.070333205 0.142675564 -0.034665141 0.233225852 -0.205017582 0.949932516
1341845975.485815 -0.624768615 -0.069899827 0.142319858 -0.036139652 0.227236062 -0.214516461 0.949231446
1341845975.518370 -0.623117328 -0.068984188 0.141863927 -0.037240721 0.218846276 -0.223694250 0.949041784
1341845975.553830 -0.626850963 -0.065676615 0.118301578 -0.046798944 0.216737494 -0.240264192 0.945043802
1341845975.585815 -0.628890514 -0.067506365 0.144143671 -0.059277546 0.215123877 -0.255871534 0.940604925
1341845975.621790 -0.628630102 -0.068158746 0.149774417 -0.063203722 0.209449157 -0.266024470 0.938811660
1341845975.653892 -0.631702662 -0.070084982 0.139366522 -0.066638753 0.205633610 -0.279201835 0.935585618
1341845975.685822 -0.631121457 -0.067219287 0.138451874 -0.072152086 0.202917740 -0.289777577 0.932548881
1341845975.721839 -0.629789889 -0.067308255 0.146392867 -0.077229716 0.197755963 -0.297413886 0.930845380
1341845975.753916 -0.631770492 -0.070777617 0.139288872 -0.081169136 0.194905818 -0.307334512 0.927884042
1341845975.785898 -0.631176114 -0.067447685 0.141302347 -0.083213829 0.193580925 -0.314388931 0.925614119
1341845975.822033 -0.630912542 -0.066928685 0.141846955 -0.086478241 0.190369189 -0.321740746 0.923452199
1341845975.853847 -0.631269872 -0.067145735 0.139854893 -0.089224704 0.189847663 -0.333709002 0.919040322
1341845975.889898 -0.630118847 -0.067208461 0.143695325 -0.088908210 0.189955145 -0.341472477 0.916192651
1341845975.921738 -0.631808102 -0.067212194 0.141081870 -0.089948401 0.189906463 -0.349565923 0.913043499
1341845975.953818 -0.635729849 -0.071737252 0.130692840 -0.093522266 0.191075191 -0.362899274 0.907219887
1341845975.990225 -0.636046529 -0.071620174 0.131172925 -0.096814267 0.192621663 -0.376082778 0.901157916
1341845976.021756 -0.635984242 -0.071311280 0.131156325 -0.101153642 0.191524535 -0.386031836 0.896697104
1341845976.053955 -0.635359824 -0.071435057 0.132570297 -0.104405761 0.189206839 -0.400173694 0.890596032
1341845976.089793 -0.635622025 -0.071159452 0.131090924 -0.109319441 0.187812611 -0.416393846 0.882831693
1341845976.121752 -0.632203400 -0.066622816 0.131614611 -0.114853509 0.184252173 -0.425776005 0.878393173
1341845976.157709 -0.637099683 -0.067361549 0.136143863 -0.121362261 0.180507883 -0.443828553 0.869312525
1341845976.189850 -0.637784898 -0.071173586 0.131051973 -0.127072573 0.179654792 -0.463606358 0.858280718
1341845976.221929 -0.610660136 -0.074236080 0.153250486 -0.129364818 0.172471672 -0.465948582 0.858143449
1341845976.257665 -0.639510453 -0.068033472 0.142493531 -0.132636517 0.172424555 -0.484945059 0.847056985
1341845976.289829 -0.645869315 -0.063046269 0.148444742 -0.137837693 0.170772016 -0.505423725 0.834496617
1341845976.321779 -0.643861890 -0.068317063 0.134775043 -0.138642192 0.169254005 -0.510605156 0.831512988
1341845976.357875 -0.644278765 -0.059889741 0.146992132 -0.138140365 0.167020261 -0.515721560 0.828886449
1341845976.389787 -0.646691203 -0.063208990 0.137257397 -0.139696166 0.163079813 -0.522347391 0.825253427
1341845976.425771 -0.648911595 -0.062587567 0.136545211 -0.143907174 0.165294707 -0.532557189 0.817527473
1341845976.457783 -0.646449208 -0.059920937 0.148238555 -0.143472061 0.166003108 -0.536673844 0.814763725
1341845976.490566 -0.644985437 -0.061084524 0.144308209 -0.139071241 0.162813157 -0.539014578 0.814625323
1341845976.525853 -0.644562542 -0.060925424 0.138119459 -0.139206827 0.162426054 -0.544924915 0.810738027
1341845976.557683 -0.643749774 -0.059570272 0.139881447 -0.142191365 0.162585542 -0.552401304 0.805108905
1341845976.593985 -0.647564113 -0.058341470 0.137945041 -0.145269305 0.161469936 -0.561209142 0.798666775
1341845976.625785 -0.646042824 -0.056044780 0.134239182 -0.148790672 0.159847587 -0.571146488 0.791265905
1341845976.657816 -0.648668289 -0.053952102 0.130530164 -0.156738162 0.162227213 -0.586852610 0.777637124
1341845976.693834 -0.647649527 -0.053586483 0.133944929 -0.165446967 0.163716838 -0.597299039 0.767501116
1341845976.725744 -0.647628903 -0.054106317 0.134674996 -0.170547023 0.162013650 -0.604028940 0.761455417
1341845976.757761 -0.645254970 -0.054537456 0.137319714 -0.173877418 0.161004454 -0.610737085 0.755542457
1341845976.793836 -0.649095953 -0.053379592 0.135312259 -0.175307095 0.161443532 -0.615693212 0.751082718
1341845976.826300 -0.652554631 -0.057090838 0.134256735 -0.176840454 0.161500216 -0.618784487 0.748165071
1341845976.861779 -0.651009321 -0.051897414 0.142046228 -0.174596071 0.163705945 -0.624133468 0.743756652
1341845976.893752 -0.648901701 -0.049237791 0.137771979 -0.171720177 0.165516898 -0.625052154 0.743253708
1341845976.925967 -0.648309231 -0.050185811 0.139647216 -0.173208416 0.166188359 -0.626363814 0.741652608
1341845976.961807 -0.649525046 -0.049834553 0.139378324 -0.172577441 0.166854680 -0.629402876 0.739072800
1341845976.993832 -0.649488330 -0.050663784 0.135640502 -0.172678173 0.168090284 -0.629426241 0.738749266
1341845977.025851 -0.648933113 -0.050305549 0.134677231 -0.175053358 0.169142380 -0.629628897 0.737776816
1341845977.061870 -0.648422182 -0.052574061 0.139013797 -0.176807076 0.171679944 -0.632270217 0.734506428
1341845977.093926 -0.646342516 -0.052765261 0.143224061 -0.171646088 0.174012572 -0.632641494 0.734861851
1341845977.129845 -0.644012451 -0.052222494 0.140142664 -0.164316997 0.174134791 -0.627684176 0.740735829
1341845977.161883 -0.646038413 -0.054481607 0.132968411 -0.163693443 0.174631730 -0.628300190 0.740234494
1341845977.193791 -0.645942509 -0.054615639 0.137195006 -0.163849667 0.177174658 -0.628751040 0.739212096
1341845977.229795 -0.644594312 -0.054999337 0.137909994 -0.160916865 0.179244131 -0.624224603 0.743183017
1341845977.261832 -0.645566344 -0.055771116 0.139107302 -0.157117456 0.182532132 -0.617941797 0.748427749
1341845977.293884 -0.645520091 -0.063707292 0.135209799 -0.149394393 0.186890259 -0.605850875 0.758747697
1341845977.329839 -0.645124912 -0.064569227 0.133154333 -0.140912667 0.192332610 -0.594597578 0.767857730
1341845977.361782 -0.640022576 -0.064897820 0.138146937 -0.130367473 0.195392400 -0.579884171 0.780102849
1341845977.397810 -0.638906658 -0.067765251 0.131831005 -0.122323610 0.198068634 -0.568913341 0.788760662
1341845977.429761 -0.639305651 -0.062759832 0.137556523 -0.116866350 0.202793285 -0.558873594 0.795535922
1341845977.461824 -0.638105035 -0.069373481 0.135889828 -0.111374445 0.203862637 -0.547441125 0.803955257
1341845977.498015 -0.636200011 -0.071563579 0.134457588 -0.103282012 0.204070717 -0.535586059 0.812917948
1341845977.529931 -0.640252113 -0.073316172 0.124704532 -0.100234516 0.205491453 -0.527501047 0.818210840
1341845977.562577 -0.639385104 -0.073844925 0.129028440 -0.098296680 0.207872525 -0.521102905 0.821935833
1341845977.597887 -0.662837684 -0.088320225 0.090572447 -0.089574866 0.213477716 -0.504576206 0.831749022
1341845977.634076 -0.648801744 -0.082486339 0.121007115 -0.086629018 0.216209918 -0.492699802 0.838448286
1341845977.666205 -0.651194990 -0.084706120 0.103943758 -0.077686794 0.222453997 -0.471694082 0.849696219
1341845977.704065 -0.695664108 -0.097554997 0.057462316 -0.070125036 0.231178433 -0.461748928 0.853479326
1341845977.704065 -0.695664108 -0.097554997 0.057462316 -0.070125036 0.231178433 -0.461748928 0.853479326
1341845977.803839 -0.639410317 -0.077182509 0.120407343 -0.050348558 0.230789021 -0.420822173 0.875848234
1341845977.865926 -0.639871955 -0.073525764 0.124548033 -0.035185214 0.235224828 -0.389071196 0.889974654
1341845977.897857 -0.639640093 -0.074642576 0.115532152 -0.031526979 0.238442019 -0.372705013 0.896237910
1341845977.933745 -0.635906458 -0.076887153 0.121181034 -0.028152250 0.240829334 -0.356498599 0.902284563
1341845977.965785 -0.634548306 -0.076871857 0.120798916 -0.020379435 0.242867962 -0.339867711 0.908344507
1341845977.997875 -0.635513902 -0.074154153 0.119184650 -0.014610758 0.247126594 -0.323791265 0.913167119
1341845978.033893 -0.631195903 -0.075699583 0.122463182 -0.009697524 0.249303669 -0.306348473 0.918642640
1341845978.065776 -0.633376300 -0.076048069 0.121606939 -0.003105289 0.251943320 -0.289205283 0.923512459
1341845978.101685 -0.635591984 -0.075280868 0.122228153 0.003898220 0.255454212 -0.271892548 0.927794397
1341845978.133916 -0.632480025 -0.076499045 0.126122743 0.012864892 0.258137107 -0.253833771 0.932077348
1341845978.166013 -0.625152707 -0.083350562 0.120472617 0.020729128 0.259099841 -0.235259444 0.936531126
1341845978.201775 -0.620969772 -0.066418603 0.133740753 0.029088521 0.263133347 -0.212521479 0.940611124
1341845978.233774 -0.622960627 -0.071997806 0.129908279 0.032710142 0.267170578 -0.193831474 0.943387151
1341845978.266075 -0.623472214 -0.073188335 0.135650054 0.036770653 0.270189285 -0.178417087 0.945416868
1341845978.301839 -0.621431351 -0.074145332 0.139163941 0.043250851 0.271908402 -0.156000733 0.948608994
1341845978.333873 -0.616017103 -0.070468687 0.148333058 0.057156198 0.273892075 -0.126896426 0.951637328
1341845978.369922 -0.605579376 -0.077610038 0.145835504 0.066987626 0.274748653 -0.104439370 0.953476965
1341845978.401825 -0.608357370 -0.077160738 0.143437162 0.073392726 0.276666641 -0.082911566 0.954565227
1341845978.433846 -0.606809855 -0.077499643 0.149931282 0.080433443 0.277854264 -0.062045943 0.955237031
1341845978.469873 -0.613817632 -0.084349364 0.145047516 0.087556459 0.281186283 -0.046973027 0.954495490
1341845978.501917 -0.614690602 -0.074948296 0.152045637 0.094407067 0.282022238 -0.029834906 0.954285383
1341845978.533810 -0.615878344 -0.077351943 0.153658703 0.094866030 0.281160653 -0.014245234 0.954854012
1341845978.569963 -0.606281936 -0.078984767 0.162460536 0.098689370 0.282068729 -0.001734647 0.954303205
1341845978.602229 -0.613038898 -0.083671413 0.164923236 0.105189227 0.284621239 0.011951627 0.952776551
1341845978.638563 -0.611571431 -0.086662211 0.166185096 0.113896489 0.283865809 0.030222751 0.951595724
1341845978.677613 -0.607473731 -0.079414718 0.168051153 0.120027088 0.284383237 0.043041553 0.950193167
1341845978.711940 -0.610604703 -0.075761430 0.170536548 0.122760028 0.286189586 0.054494537 0.948712707
1341845978.744132 -0.616493523 -0.086266495 0.164436683 0.124070823 0.287032902 0.065657660 0.947579861
1341845978.776002 -0.611432672 -0.090599872 0.173153162 0.129873544 0.286858082 0.077437133 0.945964456
1341845978.813431 -0.615665734 -0.084434807 0.169530630 0.134350762 0.288109213 0.086479910 0.944173813
1341845978.871942 -0.615018904 -0.095938489 0.160169050 0.144100860 0.290233791 0.114820287 0.939050376
1341845978.906198 -0.616791308 -0.081468225 0.175156459 0.157916144 0.294265360 0.132826239 0.933181405
1341845978.938406 -0.615793765 -0.091995053 0.169971779 0.163395986 0.295922279 0.151081786 0.928927362
1341845978.970707 -0.613183975 -0.080435343 0.175489739 0.173472613 0.297368407 0.167165682 0.923869550
1341845979.008922 -0.622005343 -0.078656912 0.169506729 0.178294390 0.300973088 0.184395298 0.918490410
1341845979.038481 -0.610863149 -0.081310697 0.165365756 0.184345320 0.301962495 0.203398034 0.912942886
1341845979.106609 -0.617894888 -0.084880374 0.159236684 0.196847647 0.305814862 0.232479677 0.902042985
1341845979.138100 -0.621418536 -0.083971329 0.162122488 0.209775373 0.307732075 0.251595199 0.893305719
1341845979.138100 -0.621418536 -0.083971329 0.162122488 0.209775373 0.307732075 0.251595199 0.893305719
1341845979.138100 -0.621418536 -0.083971329 0.162122488 0.209775373 0.307732075 0.251595199 0.893305719
1341845979.238051 -0.632067561 -0.090555899 0.148958221 0.218788818 0.316156209 0.287301630 0.877288163
1341845979.275090 -0.632973015 -0.089550689 0.144142777 0.228886083 0.318649888 0.301450759 0.869022965
1341845979.306155 -0.637084007 -0.086810432 0.140259534 0.233978227 0.321130574 0.318116099 0.860773802
1341845979.341682 -0.614800096 -0.088443831 0.152367815 0.243509784 0.321846783 0.345011443 0.847398818
1341845979.373833 -0.632583082 -0.091112874 0.138288021 0.254778117 0.326522052 0.357030332 0.837257922
1341845979.405940 -0.630230010 -0.088601261 0.141491994 0.260385484 0.325559050 0.374283999 0.828324914
1341845979.441794 -0.623422563 -0.086830348 0.144484118 0.262697637 0.324787408 0.390251994 0.820491612
1341845979.506448 -0.616644025 -0.090139084 0.147356689 0.280365080 0.325353533 0.421651334 0.798592925
1341845979.541810 -0.619555771 -0.085986748 0.141344815 0.284048676 0.320152998 0.438245207 0.790417373
1341845979.573970 -0.623539031 -0.091746010 0.133508101 0.283791453 0.321461707 0.450870961 0.782841086
1341845979.610159 -0.619600177 -0.087977804 0.140874639 0.287452072 0.319371879 0.469021827 0.771616101
1341845979.641873 -0.618979514 -0.090122044 0.137100860 0.292376399 0.314569235 0.484332293 0.762223363
1341845979.673902 -0.632511079 -0.086447023 0.136679098 0.288881779 0.317028254 0.486433387 0.761198342
1341845979.709834 -0.615644276 -0.085117713 0.142842606 0.286907703 0.312624335 0.511996448 0.746866584
1341845979.741768 -0.613133430 -0.085234433 0.135539994 0.294942945 0.305092663 0.529128432 0.734813035
1341845979.773945 -0.609755397 -0.082233608 0.140802339 0.303372741 0.304574877 0.542306602 0.721874416
1341845979.809735 -0.612995207 -0.081181280 0.142101288 0.304443687 0.303774446 0.555591106 0.711585283
1341845979.841996 -0.612650216 -0.081349157 0.142275512 0.302769005 0.300317138 0.567187130 0.704584479
1341845979.877871 -0.608918488 -0.078513712 0.143676370 0.301062375 0.297002673 0.579580188 0.696590006
1341845979.909740 -0.608333230 -0.078549348 0.142169878 0.301021248 0.295302004 0.591325521 0.687398791
1341845979.942014 -0.616494179 -0.079178959 0.135192975 0.299413413 0.294094354 0.600804508 0.680363119
1341845979.977959 -0.607809186 -0.076327346 0.140154824 0.298674583 0.289659917 0.612805188 0.671833634
1341845980.009881 -0.597934365 -0.072037227 0.151554272 0.300546169 0.288060665 0.621066570 0.664055169
1341845980.045974 -0.601963639 -0.072836362 0.146279380 0.299504191 0.285143226 0.630232453 0.657113075
1341845980.077990 -0.603128016 -0.071396731 0.146771923 0.297388047 0.281699777 0.636707306 0.653306484
1341845980.109753 -0.598859608 -0.068589784 0.151183307 0.297836363 0.280549854 0.643728018 0.646683455
1341845980.145844 -0.590511024 -0.066207372 0.157835335 0.297115475 0.274837136 0.652547896 0.640599906
1341845980.177822 -0.592839241 -0.069815084 0.153731167 0.299092829 0.274436921 0.657412767 0.634851396
1341845980.209884 -0.595862448 -0.071546011 0.144766077 0.299903452 0.272888660 0.665957570 0.626171112
1341845980.246566 -0.598494172 -0.068639182 0.146196678 0.297974497 0.265766144 0.671356082 0.624388158
1341845980.277813 -0.586813450 -0.070234656 0.153962135 0.300246686 0.261960924 0.675349355 0.620589793
1341845980.313780 -0.584577978 -0.069703959 0.158480585 0.307188451 0.263605446 0.677780509 0.613808572
1341845980.345768 -0.586725533 -0.070348099 0.154670015 0.304786980 0.259173453 0.679180920 0.615343213
1341845980.377905 -0.585297644 -0.070935763 0.155883998 0.301397413 0.256603152 0.676244676 0.621295094
1341845980.413651 -0.584513068 -0.071226850 0.157117307 0.304448873 0.261219412 0.674295843 0.620000422
1341845980.445742 -0.581097603 -0.070970885 0.155456096 0.301860571 0.258230895 0.674894392 0.621863842
1341845980.478245 -0.583781481 -0.071515456 0.156464711 0.302765638 0.257757068 0.674058855 0.622526228
1341845980.513799 -0.590624213 -0.072835952 0.149077833 0.305935055 0.261324435 0.675174654 0.618265688
1341845980.546985 -0.591355145 -0.074098952 0.147481948 0.305664808 0.256921977 0.677061379 0.618181109
1341845980.581857 -0.592541575 -0.073635772 0.154940903 0.304809660 0.258394390 0.673863947 0.621474683
1341845980.614011 -0.599439025 -0.076512344 0.152071789 0.302422374 0.262135506 0.668849051 0.626471639
1341845980.646075 -0.598763704 -0.076688223 0.152452797 0.298623621 0.262473404 0.659676850 0.637775898
1341845980.681743 -0.591525733 -0.075182125 0.158848763 0.296561062 0.265598089 0.647537827 0.649772227
1341845980.713878 -0.588684261 -0.077227794 0.160073668 0.297353506 0.278729528 0.624698639 0.666064799
1341845980.745857 -0.598767281 -0.077670738 0.157883689 0.292292714 0.286114573 0.603616416 0.684361458
1341845980.781789 -0.601919293 -0.080109335 0.154961094 0.281506032 0.293833882 0.581875265 0.704157054
1341845980.813856 -0.599021196 -0.077348858 0.157591060 0.274757892 0.310143769 0.554909348 0.721383810
1341845980.849947 -0.597169340 -0.079539426 0.159012333 0.271195203 0.317535311 0.544728398 0.727252007
1341845980.881654 -0.597363830 -0.081037842 0.161851555 0.274106592 0.323219597 0.530577183 0.734086156
1341845980.913789 -0.602743983 -0.078685857 0.160480693 0.279258400 0.326490194 0.521154225 0.737439632
1341845980.949937 -0.608632147 -0.082324058 0.158331648 0.281575352 0.327712655 0.513473153 0.741393983
1341845980.981906 -0.605366647 -0.081016459 0.159283862 0.282221019 0.323846400 0.505667865 0.748181045
1341845981.017867 -0.610668182 -0.082602009 0.160700336 0.280581206 0.324072719 0.491743505 0.757917762
1341845981.049727 -0.633066475 -0.080451846 0.138063520 0.276460558 0.325841337 0.474762022 0.769414067
1341845981.081877 -0.659055054 -0.077653900 0.127528131 0.272504568 0.325823069 0.457345665 0.781290948
1341845981.117941 -0.665927231 -0.079345703 0.126866937 0.266202778 0.325362831 0.436127275 0.795655787
1341845981.150069 -0.665056646 -0.075603746 0.127011508 0.252644628 0.327842951 0.410436839 0.812546194
1341845981.181996 -0.663438320 -0.080670469 0.129069328 0.242883071 0.330554575 0.388286650 0.825212061
1341845981.217830 -0.655396223 -0.087995186 0.139856324 0.236065105 0.329441398 0.363915622 0.838634014
1341845981.249922 -0.654706955 -0.079167709 0.132207006 0.226209700 0.329686671 0.337510824 0.852186799
1341845981.285840 -0.659797907 -0.081970759 0.130661115 0.214571863 0.334310979 0.306278139 0.865094662
1341845981.317832 -0.656511128 -0.088436015 0.137440264 0.203450650 0.332650542 0.280371457 0.877122164
1341845981.349932 -0.643918872 -0.083511077 0.147491693 0.183039203 0.333066553 0.248007715 0.891097903
1341845981.385812 -0.632620871 -0.082976654 0.162519142 0.165499717 0.336255491 0.221576855 0.900247633
1341845981.417735 -0.631823421 -0.085614696 0.165880129 0.158970326 0.336466849 0.203713462 0.905549169
1341845981.449800 -0.629501581 -0.084649794 0.159877852 0.156978965 0.335245669 0.183660492 0.910624385
1341845981.485916 -0.635769188 -0.073923416 0.160624743 0.145157754 0.339870185 0.161118373 0.915127516
1341845981.517844 -0.631272912 -0.079731539 0.157279998 0.136107534 0.339494407 0.146683514 0.919076860
1341845981.553971 -0.634786427 -0.078953378 0.152005956 0.131135032 0.335702389 0.130527273 0.923617959
1341845981.585866 -0.632848024 -0.070758291 0.148469374 0.119159006 0.334653288 0.114323772 0.927759886
1341845981.617907 -0.628196061 -0.081777506 0.147906542 0.110066019 0.333513707 0.104574390 0.930439830
1341845981.653938 -0.623547912 -0.085388362 0.162043780 0.109389037 0.330575019 0.095653743 0.932525873
1341845981.685889 -0.621533513 -0.078650884 0.165948048 0.106745809 0.328980595 0.086721420 0.934267879
1341845981.718038 -0.612424791 -0.087581247 0.170617193 0.100992315 0.329455078 0.079122774 0.935414076
