1341845959.875965 0.0000000 0.0000000 0.0000000 0.0000000 0.0000000 0.0000000 1.0000000
1341845960.207727 0.0066678 0.0819115 -0.0028103 0.0092847 0.0052124 0.0113005 0.9998795
1341845960.243768 0.0036772 0.0803958 -0.0038038 0.0055128 0.0060247 0.0098097 0.9999185
1341845960.407669 0.0129975 0.0938597 0.0058319 0.0118413 0.0088178 0.0141690 0.9997906
1341845960.543808 0.0123283 0.1060036 0.0148762 0.0210366 0.0124367 0.0148244 0.9995914
1341845961.006150 0.0193459 0.0957139 0.0188424 0.0187111 0.0014440 0.0111055 0.9997622
1341845961.173863 0.0051852 0.0699119 0.0309957 0.0297178 0.0013491 0.0029850 0.9995530
1341845961.242098 0.0114846 0.0486961 0.0240568 0.0369952 -0.0011351 0.0017231 0.9993133
1341845961.341758 0.0099767 0.0359571 0.0100670 0.0327483 -0.0029048 -0.0064628 0.9994385
1341845961.378106 0.0084600 0.0390735 0.0157393 0.0259991 -0.0032520 -0.0080476 0.9996243
1341845961.441821 0.0086564 0.0342414 0.0204833 0.0098651 -0.0056106 -0.0094719 0.9998907
1341845961.477824 0.0047935 0.0134454 0.0253577 -0.0014122 -0.0055666 -0.0127474 0.9999022
1341845961.541896 -0.0128164 -0.0159770 0.0328786 -0.0154394 -0.0062484 -0.0113424 0.9997969
1341845961.609802 -0.0098080 -0.0323345 0.0214293 -0.0251679 -0.0077570 -0.0077009 0.9996235
1341845961.677834 -0.0166328 -0.0755164 0.0436350 -0.0423626 -0.0099393 -0.0108151 0.9989944
1341845961.778055 -0.0265671 -0.1150567 0.0369065 -0.0585064 -0.0086900 -0.0103039 0.9981960
1341845961.845697 -0.0355504 -0.1387049 0.0341298 -0.0665205 -0.0055995 -0.0099530 0.9977197
1341845961.913718 -0.0359554 -0.1553980 0.0279901 -0.0744077 -0.0042833 -0.0060720 0.9972002
1341845962.013984 -0.0490199 -0.2002544 0.0423028 -0.0890719 -0.0075543 -0.0067797 0.9959735
1341845962.078169 -0.0615274 -0.2313889 0.0413682 -0.0969795 -0.0067961 -0.0101723 0.9952112
1341845962.145797 -0.0661417 -0.2686112 0.0487406 -0.0998544 -0.0047450 -0.0108707 0.9949313
1341845962.281938 -0.0654235 -0.3137665 0.0515324 -0.1127887 -0.0038186 -0.0145224 0.9935055
1341845962.349929 -0.0684253 -0.3309425 0.0513739 -0.1198282 -0.0001420 -0.0204416 0.9925842
1341845962.449828 -0.0818573 -0.3775729 0.0529351 -0.1271180 -0.0010824 -0.0169691 0.9917418
1341845962.549874 -0.0777033 -0.4169822 0.0550921 -0.1389917 -0.0034282 -0.0195173 0.9900953
1341845962.617866 -0.0793353 -0.4476382 0.0567788 -0.1410140 0.0008180 -0.0172802 0.9898564
1341845962.682115 -0.0834807 -0.4639406 0.0472030 -0.1421667 0.0038627 -0.0173734 0.9896827
1341845962.817763 -0.0820195 -0.4930182 0.0410084 -0.1481539 0.0042582 -0.0257009 0.9886211
1341845962.964414 -0.0781528 -0.5208893 0.0220276 -0.1576819 0.0090456 -0.0271203 0.9870760
1341845963.085942 -0.0825724 -0.5308031 0.0143598 -0.1829478 0.0132931 -0.0290482 0.9826035
1341845963.353695 -0.0896961 -0.5446815 0.0244595 -0.2160054 0.0285812 -0.0408955 0.9751166
1341845963.421875 -0.0912144 -0.5569099 0.0531839 -0.2307637 0.0327270 -0.0421076 0.9715472
1341845963.521709 -0.0897651 -0.5484531 0.0900011 -0.2365759 0.0524998 -0.0415848 0.9693020
1341845963.621850 -0.0894308 -0.5470970 0.0965692 -0.2323074 0.0834787 -0.0467272 0.9679262
1341845963.721864 -0.1102712 -0.5342045 0.1121332 -0.2324356 0.1100050 -0.0509049 0.9650291
1341845963.821840 -0.1364301 -0.5398461 0.1191209 -0.2450804 0.1312539 -0.0542362 0.9590445
1341845963.891494 -0.1448281 -0.5442629 0.1113276 -0.2494661 0.1415123 -0.0530568 0.9565176
1341845963.989918 -0.1441853 -0.5454524 0.1112692 -0.2579835 0.1523240 -0.0537675 0.9525497
1341845964.057871 -0.1438140 -0.5463244 0.1114531 -0.2518426 0.1619305 -0.0486737 0.9528823
1341845964.157672 -0.1428230 -0.5470355 0.1115438 -0.2497000 0.1815399 -0.0471397 0.9499847
1341845964.257798 -0.1429436 -0.5492194 0.1099198 -0.2482806 0.1983326 -0.0482748 0.9469374
1341845964.357836 -0.1417339 -0.5496264 0.1099213 -0.2470045 0.2071494 -0.0416706 0.9456963
1341845964.458009 -0.1399320 -0.5502818 0.1111252 -0.2466551 0.2194006 -0.0360030 0.9432542
1341845964.561820 -0.1399334 -0.5502825 0.1111238 -0.2385602 0.2371687 -0.0341054 0.9411041
1341845964.625703 -0.1399312 -0.5502816 0.1111258 -0.2425903 0.2494208 -0.0358991 0.9368300
1341845964.693836 -0.1399299 -0.5502813 0.1111257 -0.2395105 0.2585052 -0.0371518 0.9351094
1341845964.761841 -0.1399329 -0.5502816 0.1111244 -0.2354396 0.2717722 -0.0402113 0.9322506
1341845964.861928 -0.1399289 -0.5502807 0.1111274 -0.2313767 0.2860573 -0.0443677 0.9287990
1341845965.029810 -0.1399298 -0.5502810 0.1111267 -0.2321029 0.2915634 -0.0420084 0.9270136
1341845965.097818 -0.1399301 -0.5502809 0.1111270 -0.2265670 0.2995919 -0.0456343 0.9256509
1341845965.198514 -0.1399307 -0.5502814 0.1111264 -0.2260283 0.3123839 -0.0516195 0.9212291
1341845965.298444 -0.1399311 -0.5502815 0.1111261 -0.2272016 0.3289530 -0.0533912 0.9150512
1341845965.366018 -0.1399313 -0.5502815 0.1111259 -0.2260653 0.3415608 -0.0502739 0.9108804
1341845965.466122 -0.1399316 -0.5502816 0.1111259 -0.2238091 0.3636117 -0.0495845 0.9029050
1341845965.574497 -0.1399313 -0.5502816 0.1111261 -0.2268819 0.3807952 -0.0430435 0.8953585
1341845965.640215 -0.1399311 -0.5502815 0.1111261 -0.2234490 0.3924029 -0.0346203 0.8915671
1341845965.739932 -0.1399311 -0.5502815 0.1111261 -0.2171985 0.4095874 -0.0269970 0.8856264
1341845965.840020 -0.1399310 -0.5502815 0.1111261 -0.2184263 0.4184141 -0.0276132 0.8811681
1341845965.907848 -0.1399310 -0.5502815 0.1111260 -0.2194441 0.4204744 -0.0292184 0.8798817
1341845966.007712 -0.1399311 -0.5502816 0.1111260 -0.2200300 0.4201361 -0.0273833 0.8799561
1341845966.071842 -0.1399312 -0.5502809 0.1111263 -0.2193464 0.4204201 -0.0268236 0.8800083
1341845966.207829 -0.1399313 -0.5502809 0.1111263 -0.2236592 0.4111379 -0.0235555 0.8833953
1341845966.307882 -0.1399314 -0.5502810 0.1111263 -0.2303337 0.4009865 -0.0200838 0.8864270
1341845966.408401 -0.1399316 -0.5502809 0.1111272 -0.2391717 0.3883730 -0.0151463 0.8897943
1341845966.502100 -0.1399320 -0.5502815 0.1111279 -0.2497814 0.3811935 -0.0137591 0.8900064
1341845966.570051 -0.1399320 -0.5502827 0.1111280 -0.2603335 0.3740250 -0.0124535 0.8900431
1341845966.605694 -0.1399320 -0.5502832 0.1111283 -0.2656285 0.3704941 -0.0117794 0.8899645
1341845966.669930 -0.1399326 -0.5502843 0.1111289 -0.2761689 0.3631276 -0.0104791 0.8898085
1341845966.705984 -0.1399327 -0.5502846 0.1111291 -0.2814115 0.3595867 -0.0101313 0.8896080
1341845966.737793 -0.1399329 -0.5502850 0.1111296 -0.2868304 0.3557301 -0.0093372 0.8894365
1341845966.806068 -0.1399334 -0.5502859 0.1111301 -0.2974569 0.3484642 -0.0084036 0.8888315
1341845966.837941 -0.1399337 -0.5502861 0.1111305 -0.3026818 0.3446824 -0.0076555 0.8885489
1341845966.905683 -0.1399344 -0.5502863 0.1111312 -0.3127405 0.3371031 -0.0063785 0.8879833
1341845967.042225 -0.1399349 -0.5502875 0.1111318 -0.3254337 0.3138755 0.0003872 0.8919501
1341845967.205958 -0.1399356 -0.5502878 0.1111325 -0.3398797 0.2841265 0.0098809 0.8964688
1341845967.310009 -0.1399360 -0.5502877 0.1111327 -0.3438827 0.2694915 0.0127695 0.8994198
1341845967.409855 -0.1399364 -0.5502877 0.1111331 -0.3484885 0.2579456 0.0149459 0.9009975
1341845967.509844 -0.1399369 -0.5502875 0.1111337 -0.3541146 0.2540390 0.0126660 0.8999481
1341845967.641865 -0.1399372 -0.5502872 0.1111345 -0.3613078 0.2523426 0.0056329 0.8976347
1341845967.745878 -0.1399373 -0.5502868 0.1111351 -0.3777730 0.2495659 -0.0054017 0.8916138
1341845967.845933 -0.1399377 -0.5502865 0.1111355 -0.3806854 0.2494074 -0.0062753 0.8904129
1341845967.977896 -0.1399386 -0.5502863 0.1111362 -0.3875186 0.2427269 -0.0057068 0.8893146
1341845968.077840 -0.1399394 -0.5502863 0.1111365 -0.3858460 0.2372886 -0.0064959 0.8915014
1341845968.178020 -0.1399401 -0.5502861 0.1111368 -0.3936429 0.2249524 -0.0080166 0.8912785
1341845968.281755 -0.1399408 -0.5502858 0.1111372 -0.4001220 0.2095213 -0.0113144 0.8921184
1341845968.381845 -0.1399417 -0.5502859 0.1111376 -0.3973512 0.1975392 -0.0122685 0.8960690
1341845968.481950 -0.1399427 -0.5502858 0.1111380 -0.4008854 0.1811627 -0.0197424 0.8978202
1341845968.613836 -0.1399438 -0.5502854 0.1111385 -0.4041301 0.1592565 -0.0284007 0.9002831
1341845968.713888 -0.1399446 -0.5502849 0.1111392 -0.4052948 0.1571468 -0.0368281 0.8998248
1341845968.781921 -0.1399454 -0.5502847 0.1111395 -0.4033945 0.1612721 -0.0376444 0.8999150
1341845968.881826 -0.1399465 -0.5502843 0.1111399 -0.4053258 0.1678719 -0.0424436 0.8976238
1341845968.985958 -0.1399475 -0.5502838 0.1111403 -0.4083576 0.1732856 -0.0487613 0.8948958
1341845969.085845 -0.1399487 -0.5502834 0.1111407 -0.4122649 0.1770454 -0.0569978 0.8918766
1341845969.185864 -0.1399497 -0.5502829 0.1111414 -0.4108543 0.1850575 -0.0623973 0.8905386
1341845969.317925 -0.1399504 -0.5502824 0.1111426 -0.4094960 0.1935899 -0.0716000 0.8886560
1341845969.417886 -0.1399519 -0.5502821 0.1111431 -0.4189502 0.1942175 -0.0819225 0.8832038
1341845969.521785 -0.1399528 -0.5502819 0.1111439 -0.4186950 0.1950786 -0.0873151 0.8826182
1341845969.621808 -0.1399532 -0.5502814 0.1111441 -0.4229927 0.1898404 -0.0891503 0.8815271
1341845969.721838 -0.1399533 -0.5502809 0.1111443 -0.4121310 0.1906428 -0.0816280 0.8872092
1341845969.821781 -0.1399542 -0.5502807 0.1111448 -0.4171405 0.1888890 -0.0819117 0.8852148
1341845969.957892 -0.1399561 -0.5502805 0.1111463 -0.4251108 0.1851688 -0.0791019 0.8824604
1341845970.057886 -0.1399560 -0.5502807 0.1111455 -0.4269665 0.1704822 -0.0718833 0.8851374
1341845970.158120 -0.1399561 -0.5502813 0.1111449 -0.4223551 0.1561494 -0.0727464 0.8899109
1341845970.258244 -0.1399563 -0.5502816 0.1111448 -0.4268123 0.1445336 -0.0787282 0.8892374
1341845970.357771 -0.1399563 -0.5502818 0.1111441 -0.4335079 0.1300914 -0.0817844 0.8879519
1341845970.464489 -0.1399564 -0.5502823 0.1111441 -0.4450889 0.1079706 -0.0761237 0.8856881
1341845970.532407 -0.1399569 -0.5502828 0.1111450 -0.4423158 0.0987763 -0.0739574 0.8883300
1341845970.667826 -0.1399565 -0.5502825 0.1111435 -0.4173321 0.0914963 -0.0631789 0.9019261
1341845970.767731 -0.1399569 -0.5502827 0.1111437 -0.4171281 0.0888095 -0.0571811 0.9026889
1341845970.867820 -0.1399572 -0.5502825 0.1111433 -0.4187616 0.0857067 -0.0573793 0.9022199
1341845970.999794 -0.1399581 -0.5502836 0.1111449 -0.4229240 0.0847662 -0.0654722 0.8998130
1341845971.067826 -0.1399589 -0.5502836 0.1111455 -0.4189883 0.0832079 -0.0695406 0.9014928
1341845971.235879 -0.1399598 -0.5502825 0.1111451 -0.4235693 0.0809363 -0.0776169 0.8988960
1341845971.367721 -0.1399608 -0.5502824 0.1111449 -0.4245687 0.0813133 -0.0703734 0.8989867
1341845971.503829 -0.1399622 -0.5502821 0.1111450 -0.4291875 0.0810174 -0.0672229 0.8970593
1341845971.567956 -0.1399627 -0.5502820 0.1111454 -0.4335122 0.0865448 -0.0757057 0.8937817
1341845971.735710 -0.1399632 -0.5502843 0.1111464 -0.4391311 0.0908808 -0.0896250 0.8893098
1341845971.803762 -0.1399630 -0.5502853 0.1111479 -0.4407326 0.0948811 -0.0965135 0.8873768
1341845971.871793 -0.1399630 -0.5502859 0.1111476 -0.4434254 0.0959619 -0.1035708 0.8851205
1341845971.903763 -0.1399630 -0.5502859 0.1111480 -0.4413475 0.0945065 -0.1041068 0.8862520
1341845972.071849 -0.1399630 -0.5502862 0.1111474 -0.4370064 0.0951241 -0.1040219 0.8883446
1341845972.207893 -0.1399630 -0.5502852 0.1111475 -0.4296846 0.0971142 -0.1042899 0.8916634
1341845972.369757 -0.1399622 -0.5502852 0.1111488 -0.4186441 0.0979858 -0.0930416 0.8980418
1341845972.501817 -0.1399613 -0.5502846 0.1111484 -0.4041421 0.1036148 -0.0809481 0.9051964
1341845972.637827 -0.1399603 -0.5502841 0.1111482 -0.3845805 0.1168384 -0.0750062 0.9125901
1341845972.770011 -0.1399596 -0.5502831 0.1111486 -0.3624712 0.1329639 -0.0717940 0.9196634
1341845972.937837 -0.1399599 -0.5502805 0.1111489 -0.3396013 0.1463954 -0.0633809 0.9269424
1341845973.106021 -0.1399586 -0.5502793 0.1111476 -0.3278348 0.1443530 -0.0455862 0.9325280
1341845973.241913 -0.1399567 -0.5502788 0.1111468 -0.3158848 0.1422820 -0.0278155 0.9376560
1341845973.373892 -0.1399561 -0.5502790 0.1111467 -0.3094785 0.1438124 -0.0276329 0.9395624
1341845973.541876 -0.1399546 -0.5502787 0.1111462 -0.2912793 0.1456388 -0.0313593 0.9449669
1341845973.810234 -0.1399532 -0.5502794 0.1111459 -0.2852059 0.1637564 -0.0304157 0.9438837
1341845974.077904 -0.1399527 -0.5502805 0.1111438 -0.2799483 0.1953190 -0.0245509 0.9396152
1341845974.313829 -0.1399511 -0.5502823 0.1111430 -0.2785228 0.2129385 -0.0270639 0.9361355
1341845974.445772 -0.1399550 -0.5502823 0.1111410 -0.2687067 0.2206860 -0.0251938 0.9372618
1341845974.513798 -0.1399550 -0.5502824 0.1111410 -0.2737576 0.2170359 -0.0318422 0.9364498
1341845974.545930 -0.1399548 -0.5502828 0.1111408 -0.2781771 0.2114308 -0.0363695 0.9362648
1341845974.649867 -0.1399549 -0.5502831 0.1111409 -0.2982041 0.2064467 -0.0635899 0.9297367
1341845974.815998 -0.1399529 -0.5502836 0.1111412 -0.3154201 0.1896760 -0.0977309 0.9246523
1341845974.850024 -0.1399528 -0.5502834 0.1111408 -0.3178431 0.1887919 -0.1052766 0.9231740
1341845975.017979 -0.1399533 -0.5502828 0.1111396 -0.3282252 0.1716781 -0.1260560 0.9202743
1341845975.081985 -0.1399534 -0.5502830 0.1111395 -0.3344860 0.1654641 -0.1431127 0.9166567
1341845975.249885 -0.1399535 -0.5502828 0.1111393 -0.3361082 0.1494866 -0.1837859 0.9115414
1341845975.349820 -0.1399528 -0.5502834 0.1111392 -0.3413505 0.1249163 -0.2096754 0.9076959
1341845975.418586 -0.1399524 -0.5502837 0.1111389 -0.3413656 0.1038016 -0.2231022 0.9071495
1341845975.485815 -0.1399520 -0.5502832 0.1111386 -0.3462441 0.0859008 -0.2480846 0.9006609
1341845975.518370 -0.1399523 -0.5502832 0.1111386 -0.3483186 0.0774081 -0.2563982 0.8982995
1341845975.585815 -0.1399525 -0.5502833 0.1111385 -0.3620936 0.0631352 -0.2826979 0.8859932
1341845975.822033 -0.1399523 -0.5502835 0.1111384 -0.3808604 0.0140166 -0.3432417 0.8584486
1341845976.089793 -0.1399536 -0.5502838 0.1111380 -0.3833525 -0.0084095 -0.4193283 0.8228815
1341845976.121752 -0.1399531 -0.5502833 0.1111385 -0.3873702 -0.0161604 -0.4310998 0.8147613
1341845976.189850 -0.1399535 -0.5502837 0.1111379 -0.3885031 -0.0321261 -0.4637402 0.7955993
1341845976.221929 -0.1398460 -0.5496557 0.1114287 -0.3879805 -0.0426171 -0.4770516 0.7874494
1341845976.321779 -0.1774736 -0.5947207 0.0626966 -0.3864666 -0.0501105 -0.5011000 0.7726780
1341845976.557683 -0.1680488 -0.5963874 0.0619141 -0.3798070 -0.0738105 -0.5387034 0.7483965
1341845976.826300 -0.1732027 -0.5912675 0.0624760 -0.3912641 -0.0934241 -0.6031184 0.6887907
1341845977.061870 -0.1748460 -0.5883851 0.0646729 -0.3880904 -0.0869838 -0.6193509 0.6769226
1341845977.293884 -0.1807240 -0.5766105 0.0654941 -0.3703049 -0.0599337 -0.6033610 0.7037313
1341845977.529931 -0.1874058 -0.5855211 0.0744864 -0.3506757 -0.0140711 -0.5346746 0.7687338
1341845978.871942 -0.2051581 -0.5615034 0.0954495 -0.1825450 0.2912225 0.0586702 0.9372430
1341845982.899816 0.0771603 -0.5700643 0.0015896 -0.2774445 0.0333220 -0.0295916 0.9597076
1341845983.099710 0.0886539 -0.5567307 -0.0407786 -0.3056342 0.0178141 -0.0350251 0.9513378
1341845983.467855 0.1061694 -0.5769825 -0.0980368 -0.3193057 0.0089162 -0.0457112 0.9465067
1341845983.635679 0.1097997 -0.5887480 -0.1388340 -0.3235875 0.0067400 -0.0582654 0.9443786
1341845983.771983 0.1185076 -0.5988035 -0.1664736 -0.3502822 -0.0018492 -0.0733426 0.9337665
1341845983.939732 0.1260812 -0.6113413 -0.2033868 -0.3378076 -0.0068973 -0.0694175 0.9386265
1341845984.071924 0.1399930 -0.6228461 -0.2487510 -0.3333730 -0.0070952 -0.0612067 0.9407794
1341845984.239999 0.1538200 -0.6360078 -0.2851736 -0.3113622 0.0141002 -0.0528720 0.9487146
1341845984.469893 0.1606511 -0.6470699 -0.3331286 -0.2908557 0.0353297 -0.0700034 0.9535483
1341845984.701697 0.1660605 -0.6663958 -0.3362235 -0.2919076 0.0496367 -0.0848299 0.9513832
1341845984.901904 0.1758900 -0.6584048 -0.3468498 -0.2795555 0.0603397 -0.0876796 0.9542118
1341845985.169874 0.1793958 -0.6760893 -0.3417806 -0.2642299 0.0588816 -0.0987043 0.9575871
1341845985.374220 0.1805748 -0.6782910 -0.3444217 -0.2514363 0.0568721 -0.0948089 0.9615387
