1341845972.569894 0.0000000 0.0000000 0.0000000 0.0000000 0.0000000 0.0000000 1.0000000
1341845972.669939 -0.0295564 -0.0094997 0.0125931 0.0102518 0.0207408 0.0053955 0.9997178
1341845972.705766 -0.0361823 -0.0092260 0.0177985 0.0184355 0.0281180 0.0066909 0.9994122
1341845972.737731 -0.0492952 -0.0073394 0.0182711 0.0220657 0.0358340 0.0059781 0.9990962
1341845972.805697 -0.0692187 -0.0096415 0.0287186 0.0265395 0.0463162 0.0112319 0.9985110
1341845972.869858 -0.0918221 -0.0117293 0.0397520 0.0317683 0.0533525 0.0171786 0.9979224
1341845972.937837 -0.1055225 -0.0153391 0.0486800 0.0323266 0.0565204 0.0187794 0.9977012
1341845973.006643 -0.1314583 -0.0151322 0.0555186 0.0332558 0.0590619 0.0195239 0.9975092
1341845973.073733 -0.1425692 -0.0196736 0.0634559 0.0308651 0.0632823 0.0167091 0.9973783
1341845973.137862 -0.1562590 -0.0200607 0.0667079 0.0373156 0.0688869 0.0174994 0.9967728
1341845973.205866 -0.1728648 -0.0251067 0.0733020 0.0386532 0.0741442 0.0155373 0.9963770
1341845973.273972 -0.1881279 -0.0209940 0.0753425 0.0443352 0.0814772 0.0161359 0.9955579
1341845973.341851 -0.2022425 -0.0229304 0.0781442 0.0469753 0.0851237 0.0169319 0.9951184
1341845973.409787 -0.2210373 -0.0261456 0.0812772 0.0544862 0.0916259 0.0200628 0.9940993
1341845973.509824 -0.2504323 -0.0287629 0.0799163 0.0582849 0.1057845 0.0236551 0.9923975
1341845973.609706 -0.2819107 -0.0283981 0.0814597 0.0698534 0.1240107 0.0291735 0.9893891
1341845973.677783 -0.3027245 -0.0142907 0.0814639 0.0740200 0.1340012 0.0328034 0.9876683
1341845973.777893 -0.3378586 -0.0185598 0.0805980 0.0756041 0.1480518 0.0365405 0.9854083
1341845973.877808 -0.3693695 -0.0196259 0.0818566 0.0798547 0.1667928 0.0411555 0.9818909
1341845973.977874 -0.4030572 -0.0215731 0.0742945 0.0765947 0.1876210 0.0497387 0.9779866
1341845974.077904 -0.4319489 -0.0157424 0.0665381 0.0753171 0.2027517 0.0515016 0.9749701
1341845974.177833 -0.4592120 -0.0303622 0.0629449 0.0685683 0.2190094 0.0464858 0.9721997
1341845974.313829 -0.5026997 -0.0290462 0.0609893 0.0793179 0.2437187 0.0460014 0.9655018
1341845974.513798 -0.5420049 -0.0340452 0.0734295 0.0746464 0.2393274 0.0390089 0.9672790
1341845974.613863 -0.5474057 -0.0324899 0.0839515 0.0551199 0.2423938 0.0103945 0.9685551
1341845974.713894 -0.5548479 -0.0362011 0.0922824 0.0436336 0.2462590 -0.0117248 0.9681504
1341845974.850024 -0.5638752 -0.0320445 0.1028115 0.0357917 0.2544902 -0.0307936 0.9659221
1341845974.982668 -0.5795149 -0.0424663 0.1233546 0.0118586 0.2525566 -0.0598693 0.9656553
1341845975.124057 -0.5875044 -0.0687443 0.1406472 -0.0070790 0.2542819 -0.0976693 0.9621597
1341845975.285858 -0.6075650 -0.0663566 0.1446577 -0.0149151 0.2491356 -0.1433861 0.9576792
1341845975.453683 -0.6216273 -0.0703332 0.1426756 -0.0346651 0.2332259 -0.2050176 0.9499325
1341845975.585815 -0.6288905 -0.0675064 0.1441437 -0.0592775 0.2151239 -0.2558715 0.9406049
1341845975.785898 -0.6311761 -0.0674477 0.1413023 -0.0832138 0.1935809 -0.3143889 0.9256141
1341845975.953818 -0.6357298 -0.0717372 0.1306929 -0.0935223 0.1910752 -0.3628993 0.9072199
1341845976.121752 -0.6322035 -0.0666228 0.1316146 -0.1148535 0.1842522 -0.4257760 0.8783932
1341845976.257665 -0.6395105 -0.0680335 0.1424936 -0.1326365 0.1724246 -0.4849451 0.8470570
1341845976.357875 -0.6442788 -0.0598897 0.1469921 -0.1381404 0.1670203 -0.5157216 0.8288864
1341845976.625785 -0.6460429 -0.0560448 0.1342392 -0.1487907 0.1598476 -0.5711465 0.7912659
1341845976.861779 -0.6510093 -0.0518974 0.1420462 -0.1745961 0.1637059 -0.6241335 0.7437567
1341845977.093926 -0.6463425 -0.0527653 0.1432240 -0.1716461 0.1740126 -0.6326415 0.7348619
1341845977.293884 -0.6455201 -0.0637073 0.1352098 -0.1493944 0.1868903 -0.6058509 0.7587477
1341845977.529931 -0.6402520 -0.0733161 0.1247045 -0.1002345 0.2054915 -0.5275010 0.8182108
1341845977.597887 -0.6628377 -0.0883203 0.0905725 -0.0895749 0.2134777 -0.5045762 0.8317490
1341845977.666205 -0.6511950 -0.0847061 0.1039438 -0.0776868 0.2224540 -0.4716941 0.8496962
1341845978.871942 -0.6150190 -0.0959385 0.1601691 0.1441009 0.2902338 0.1148203 0.9390504
1341845979.038481 -0.6108632 -0.0813107 0.1653658 0.1843453 0.3019625 0.2033980 0.9129429
1341845980.277813 -0.5868134 -0.0702347 0.1539622 0.3002467 0.2619609 0.6753494 0.6205898
1341845980.681743 -0.5915258 -0.0751821 0.1588488 0.2965611 0.2655981 0.6475378 0.6497722
1341845980.881654 -0.5973638 -0.0810378 0.1618515 0.2741066 0.3232196 0.5305772 0.7340862
1341845981.081877 -0.6590550 -0.0776540 0.1275281 0.2725046 0.3258231 0.4573457 0.7812909
1341845981.349932 -0.6439189 -0.0835111 0.1474917 0.1830392 0.3330666 0.2480077 0.8910979
1341845981.553971 -0.6347865 -0.0789534 0.1520060 0.1311350 0.3357024 0.1305273 0.9236180
1341845981.753884 -0.6183703 -0.0969912 0.1771863 0.0999272 0.3307794 0.0709102 0.9357197
1341845982.457800 -0.6303386 -0.0624447 0.0950283 0.0781678 0.3103093 0.0374043 0.9466778
1341845982.689935 -0.6489375 -0.0117885 0.0401887 0.0535133 0.2963166 0.0599845 0.9517009
1341845982.899816 -0.6527902 0.0073280 0.0099891 0.0136818 0.2805422 0.0759465 0.9567345
1341845983.199716 -0.6742800 0.0263578 -0.0344842 -0.0294818 0.2593561 0.0705235 0.9627521
1341845983.635679 -0.7063314 0.0634369 -0.1215063 -0.0413878 0.2611293 0.0530671 0.9629551
1341845983.939732 -0.7315382 0.0815727 -0.1836730 -0.0589764 0.2515560 0.0403659 0.9652005
1341845984.203755 -0.7544196 0.1074137 -0.2610898 -0.0299807 0.2650756 0.0559164 0.9621379
1341845984.533876 -0.7769539 0.1313374 -0.3248404 -0.0143803 0.2955037 0.0377932 0.9544854
1341845984.801680 -0.7689289 0.1232182 -0.3275163 -0.0106864 0.3196924 0.0306291 0.9469659
1341845985.205765 -0.7648264 0.1074808 -0.3430749 0.0101988 0.3277605 0.0142602 0.9445981
