1341845688.561749 0.000000000 0.000000000 0.000000000 0.000000000 0.000000000 0.000000000 1.000000000
1341845688.593654 -0.005653101 -0.005523778 -0.003518761 0.000015853 -0.002354980 0.003519921 0.999991000
1341845688.629688 -0.008203588 0.001695638 -0.005534062 0.002542156 -0.007280417 0.007453127 0.999942482
1341845688.663680 -0.008787307 -0.001041415 -0.005912980 0.004091226 -0.012528733 0.012424272 0.999835968
1341845688.697719 -0.014340467 -0.007278466 -0.013897802 0.006324747 -0.017295653 0.018334309 0.999662280
1341845688.729899 -0.009685944 -0.001635700 -0.015145954 0.011389770 -0.024706764 0.021511201 0.999398351
1341845688.761762 -0.004738113 -0.000962305 -0.012732139 0.013930457 -0.028347153 0.021076955 0.999278843
1341845688.797687 -0.005692026 0.001312728 -0.014743207 0.015323578 -0.026850518 0.019108621 0.999339342
1341845688.829892 0.000344716 0.007462337 -0.021291872 0.015793284 -0.025592489 0.018959511 0.999367833
1341845688.865774 -0.007322142 0.006405655 -0.021236224 0.015140464 -0.024315532 0.018462615 0.999419153
1341845688.929779 -0.015821937 0.010228477 -0.029698776 0.015655858 -0.029639577 0.020384016 0.999230146
1341845688.965631 -0.011768648 0.013988180 -0.034362961 0.015955949 -0.033262745 0.019580280 0.999127448
1341845688.997750 -0.010028738 0.020770648 -0.045603689 0.015240842 -0.032851551 0.015506682 0.999223709
1341845689.029751 -0.004200555 0.029497456 -0.038762644 0.012471860 -0.031426366 0.010253620 0.999375641
1341845689.065755 -0.009538079 0.028707208 -0.042858806 0.008371621 -0.029041270 0.007653957 0.999513865
1341845689.097725 -0.009537614 0.027623737 -0.042256963 0.004193914 -0.028654667 0.010687262 0.999523461
1341845689.133718 -0.010072160 0.028377438 -0.044384021 0.001837306 -0.027339036 0.013626870 0.999531627
1341845689.165884 0.000453930 0.023335299 -0.043851268 -0.001839431 -0.028180812 0.018736038 0.999425530
1341845689.198264 -0.008140679 0.029117040 -0.045499615 -0.004730826 -0.026982158 0.020100730 0.999422610
1341845689.234322 -0.001718399 0.021155136 -0.040837314 -0.008324319 -0.026703386 0.023221873 0.999338984
1341845689.265745 -0.003458610 0.022130333 -0.040353384 -0.009468266 -0.026184661 0.024908898 0.999301851
1341845689.297769 0.010483417 0.022344744 -0.049773127 -0.011119402 -0.029071322 0.027942270 0.999124825
1341845689.333650 -0.007282780 0.026588995 -0.048415143 -0.011499626 -0.025023555 0.024237934 0.999326825
1341845689.365881 -0.010261068 0.025141956 -0.043604098 -0.011137627 -0.024340626 0.023500195 0.999365389
1341845689.401592 -0.016233785 0.032251991 -0.049807068 -0.008567121 -0.023950819 0.023236917 0.999406338
1341845689.433744 -0.012960367 0.030257486 -0.049097981 -0.008410497 -0.025598915 0.023720104 0.999355435
1341845689.465651 -0.019096756 0.024940368 -0.050132204 -0.005965092 -0.025950821 0.022501646 0.999392152
1341845689.501840 -0.019858263 0.029387591 -0.050239515 -0.001823401 -0.029299654 0.020266017 0.999363542
1341845689.533687 -0.016103497 0.031205259 -0.050125293 0.000577518 -0.031708550 0.015777102 0.999372482
1341845689.565814 -0.013620348 0.028709587 -0.051316127 0.002512272 -0.032023307 0.012879699 0.999400973
1341845689.601682 -0.023920543 0.027740652 -0.053384759 0.005375158 -0.032175586 0.009146100 0.999425948
1341845689.633591 -0.023138229 0.026552156 -0.051046841 0.007330904 -0.035065167 0.003624285 0.999351561
1341845689.669672 -0.019585259 0.032706536 -0.055683188 0.008980515 -0.037355591 0.004044656 0.999253511
1341845689.701700 -0.023152987 0.031017087 -0.057243854 0.009676595 -0.039323602 0.003616937 0.999173105
1341845689.733773 -0.026898051 0.033288602 -0.060509887 0.010393806 -0.041253246 0.001135469 0.999094009
1341845689.769822 -0.027224459 0.033562411 -0.060582366 0.010620835 -0.042647719 -0.000246223 0.999033689
1341845689.802003 -0.030858690 0.033147786 -0.057365451 0.010787890 -0.043970358 -0.001064446 0.998974025
1341845689.833757 -0.028741777 0.033467796 -0.057218987 0.011766060 -0.047383107 -0.002366413 0.998804688
1341845689.869861 -0.028068792 0.033036038 -0.059351776 0.012506185 -0.049716476 -0.003461915 0.998679042
1341845689.901825 -0.027848739 0.032563973 -0.058874082 0.012564002 -0.051293202 -0.003267420 0.998599291
1341845689.937674 -0.031134497 0.032904591 -0.061017346 0.013620166 -0.053048968 -0.002711449 0.998495340
1341845689.969679 -0.028055707 0.035156731 -0.064141296 0.014259088 -0.054635223 -0.002564905 0.998401225
1341845690.003830 -0.030323720 0.034328263 -0.065638937 0.013818513 -0.054231338 -0.003128676 0.998427868
1341845690.037686 -0.030592583 0.033582821 -0.063170880 0.013877886 -0.054606963 -0.004914859 0.998399377
1341845690.069636 -0.026530392 0.033651516 -0.065259799 0.014229010 -0.054778777 -0.004101644 0.998388708
1341845690.106587 -0.031285770 0.034331895 -0.064806171 0.014214139 -0.054514445 -0.003802495 0.998404562
1341845690.138859 -0.028056933 0.035265833 -0.066104501 0.014204682 -0.055318195 -0.005095474 0.998354733
1341845690.169919 -0.027163692 0.033568259 -0.066515982 0.014029047 -0.054776385 -0.004103898 0.998391628
1341845690.206103 -0.027509362 0.035842780 -0.066815309 0.013918729 -0.054906093 -0.004187065 0.998385727
1341845690.237700 -0.025539175 0.032568123 -0.060971871 0.012704947 -0.056064051 -0.004545140 0.998335958
1341845690.269981 -0.029237362 0.034215458 -0.063540883 0.013763256 -0.056681335 -0.005062549 0.998284578
1341845690.306143 -0.026774671 0.034582693 -0.064281650 0.014015903 -0.058172226 -0.005954239 0.998190403
1341845690.338646 -0.029020630 0.036785502 -0.066390984 0.013564427 -0.058025096 -0.005069687 0.998210073
1341845690.373833 -0.028015325 0.035417721 -0.065194249 0.012290234 -0.058549799 -0.005343692 0.998194516
1341845690.405976 -0.028227637 0.035401795 -0.062393226 0.012429367 -0.058531456 -0.006385246 0.998187780
1341845690.437908 -0.025174418 0.035706930 -0.061616313 0.012678348 -0.058643460 -0.006440863 0.998177707
1341845690.473654 -0.029526852 0.035021614 -0.061368328 0.012325722 -0.058728691 -0.004735838 0.998186648
1341845690.505978 -0.030250181 0.034984890 -0.064091101 0.013127528 -0.060069535 -0.005426951 0.998093128
1341845690.537884 -0.029930213 0.036879912 -0.068013623 0.013674507 -0.060020812 -0.007578087 0.998074710
1341845690.573708 -0.027207607 0.035730530 -0.065491766 0.012498743 -0.059286993 -0.006163401 0.998143673
1341845690.605848 -0.028459985 0.034401082 -0.063080281 0.012270331 -0.058573883 -0.004867319 0.998195827
1341845690.641747 -0.029669754 0.035894044 -0.062219512 0.013517790 -0.058874033 -0.005432174 0.998159111
1341845690.673751 -0.024087217 0.036856744 -0.063607767 0.013556188 -0.058783803 -0.005768378 0.998162031
1341845690.706003 -0.028410019 0.033796974 -0.062135987 0.013436097 -0.056993142 -0.006389842 0.998263717
1341845690.741684 -0.028106695 0.035069998 -0.061759219 0.014463847 -0.056399975 -0.006886107 0.998279750
1341845690.773770 -0.025751282 0.033598609 -0.059978850 0.014415503 -0.056047309 -0.006608144 0.998302162
1341845690.805715 -0.026077036 0.034497455 -0.061640069 0.014943511 -0.054996066 -0.005940525 0.998357058
1341845690.841674 -0.027293529 0.036121543 -0.060224101 0.015428974 -0.054123838 -0.005673863 0.998398900
1341845690.873770 -0.026455749 0.035782319 -0.061840542 0.014922487 -0.053489611 -0.005366614 0.998442471
1341845690.909837 -0.027931908 0.034624331 -0.059265833 0.014523875 -0.052582838 -0.004866682 0.998499036
1341845690.941576 -0.025368182 0.035412654 -0.061575528 0.014471688 -0.052731421 -0.004490034 0.998493791
1341845690.973879 -0.022194425 0.032262225 -0.059764571 0.013960596 -0.052759320 -0.004438958 0.998499811
1341845691.011558 -0.024659418 0.033723637 -0.060487654 0.014018276 -0.051537897 -0.003851299 0.998565197
1341845691.077986 -0.016147027 0.033361729 -0.057435531 0.014428704 -0.053083573 -0.004161164 0.998477161
1341845691.109685 -0.025415810 0.034531876 -0.059762731 0.015161646 -0.050616663 -0.005735354 0.998586595
1341845691.141759 -0.023306044 0.033107232 -0.058467556 0.015545511 -0.049840748 -0.004866468 0.998624325
1341845691.177729 -0.025156371 0.033130795 -0.057518587 0.016241582 -0.050024405 -0.006298666 0.998596072
1341845691.209644 -0.021808809 0.034305450 -0.062373117 0.016482646 -0.050413460 -0.007826351 0.998561740
1341845691.241757 -0.022223532 0.034402471 -0.060487635 0.016366022 -0.049085911 -0.007573532 0.998631775
1341845691.277595 -0.025148761 0.033226203 -0.057488210 0.017077459 -0.049030837 -0.006916722 0.998627305
1341845691.310138 -0.024493890 0.034365095 -0.061370909 0.017607253 -0.051001433 -0.007956627 0.998511672
1341845691.345620 -0.017768780 0.034150630 -0.064328916 0.017507687 -0.051104967 -0.008915746 0.998499990
1341845691.378062 -0.018361699 0.032888919 -0.064937100 0.017923988 -0.049007487 -0.009826658 0.998589218
1341845691.451922 -0.018222842 0.038317751 -0.065957755 0.019115008 -0.048622638 -0.011253570 0.998570859
1341845691.509739 -0.020615038 0.033447910 -0.064377308 0.017666180 -0.046915587 -0.011385675 0.998677731
1341845691.545833 -0.020634996 0.038488626 -0.067729406 0.018433740 -0.047096524 -0.012768344 0.998638630
1341845691.578399 -0.015163882 0.037473828 -0.064656965 0.017318098 -0.046675671 -0.015332246 0.998642266
1341845691.613857 -0.020733166 0.032232624 -0.068264507 0.016872726 -0.042462967 -0.020166539 0.998751998
1341845691.645632 -0.017453387 0.032235850 -0.062484607 0.018302865 -0.040198401 -0.022418294 0.998772502
1341845691.677793 -0.012524654 0.037509508 -0.057162289 0.019654723 -0.041427098 -0.018512614 0.998776674
1341845691.713727 -0.020762311 0.033464503 -0.062286377 0.019557539 -0.041533716 -0.017628312 0.998790085
1341845691.746050 -0.019516774 0.036536384 -0.064471006 0.020593038 -0.041539803 -0.019447837 0.998735249
1341845691.778411 -0.015251176 0.039693583 -0.067677066 0.019637207 -0.039560426 -0.020094784 0.998822093
1341845691.813646 -0.018059921 0.035654973 -0.062803574 0.017821699 -0.038159780 -0.018797945 0.998935878
1341845691.845603 -0.018601162 0.034301758 -0.061138395 0.017859073 -0.039354078 -0.017766669 0.998907685
1341845691.881595 -0.017516017 0.034837112 -0.061931238 0.018136639 -0.040285192 -0.019732894 0.998828709
1341845691.913600 -0.015035976 0.033923540 -0.063128531 0.018110463 -0.039616484 -0.019414522 0.998862147
1341845691.945997 -0.024611810 0.034611274 -0.058571026 0.018822342 -0.038917188 -0.016972950 0.998920977
1341845691.981657 -0.028777709 0.032270227 -0.058869142 0.020461924 -0.042879131 -0.015015635 0.998757839
1341845692.013904 -0.009278313 0.034416910 -0.059866320 0.022331363 -0.049885303 -0.010647956 0.998448491
1341845692.049676 -0.016719710 0.035596471 -0.063145265 0.023174761 -0.049200118 -0.011286349 0.998456240
1341845692.081862 -0.017075183 0.033118155 -0.062348589 0.023218153 -0.050060816 -0.010443894 0.998421609
1341845692.113695 -0.011083195 0.035589814 -0.064813524 0.024099000 -0.052085672 -0.010743454 0.998293996
1341845692.149736 -0.010953153 0.031927772 -0.069116883 0.023188537 -0.051198862 -0.012134011 0.998345494
1341845692.182123 -0.013238944 0.031731050 -0.065974347 0.024333004 -0.049882241 -0.011676366 0.998390377
1341845692.213661 -0.010691056 0.034417085 -0.067232206 0.025636451 -0.050625425 -0.010503028 0.998333395
1341845692.249828 -0.010489710 0.033679664 -0.067540728 0.025319705 -0.050367434 -0.010733209 0.998352051
1341845692.282146 -0.010337220 0.033781644 -0.068909772 0.024821453 -0.049703721 -0.011638539 0.998387694
1341845692.317711 -0.003702005 0.028347977 -0.063476533 0.023844790 -0.051627241 -0.010800609 0.998323321
1341845692.349688 -0.013394131 0.030582095 -0.067877911 0.024749165 -0.051014852 -0.012374399 0.998314500
1341845692.381560 0.014140048 0.028764876 -0.062092759 0.025654968 -0.055526286 -0.010186719 0.998075604
1341845692.417776 -0.002305495 0.026411319 -0.064930260 0.026295943 -0.052444778 -0.013218009 0.998190045
1341845692.449672 0.003200784 0.034327202 -0.067199640 0.027931297 -0.053478602 -0.013556274 0.998086214
1341845692.481594 0.003188605 0.034800947 -0.066972136 0.029037697 -0.053842157 -0.014050344 0.998028278
1341845692.517778 0.004176497 0.031802021 -0.067725703 0.029681087 -0.054312278 -0.014395186 0.997978926
1341845692.549744 0.005807248 0.034590084 -0.069360338 0.031484023 -0.054623522 -0.015090168 0.997896433
1341845692.585822 0.006139499 0.033414841 -0.071590088 0.031511080 -0.054573085 -0.016213642 0.997880757
1341845692.617836 0.005123919 0.034542922 -0.071181700 0.032235023 -0.053459711 -0.015872817 0.997923374
1341845692.649770 0.005296718 0.034026630 -0.075336851 0.032894585 -0.053447951 -0.014732190 0.997919977
1341845692.685749 0.005025583 0.035790130 -0.075694084 0.033388596 -0.054471996 -0.015061384 0.997843266
1341845692.717676 0.006315095 0.035226006 -0.074858993 0.033444587 -0.054218486 -0.015680712 0.997845650
1341845692.749897 0.002309805 0.035214569 -0.075934291 0.033675361 -0.052147288 -0.014798904 0.997961760
1341845692.785833 0.001384473 0.034782931 -0.077971742 0.034515999 -0.052928410 -0.015005468 0.997888803
1341845692.817657 0.003170138 0.033573836 -0.077542745 0.035450574 -0.053885560 -0.019148294 0.997733891
1341845692.853833 0.003710110 0.033887226 -0.078264490 0.036389507 -0.052474696 -0.020573555 0.997746944
1341845692.885614 0.001397132 0.033363257 -0.077988394 0.037991602 -0.052270994 -0.020621561 0.997696877
1341845692.917728 0.003659841 0.032725945 -0.079526775 0.038737535 -0.053273998 -0.021548705 0.997595549
1341845692.953573 0.006727521 0.035674527 -0.078280523 0.040164456 -0.053028535 -0.021956963 0.997543335
1341845692.985667 0.005023491 0.036702529 -0.081327103 0.041375082 -0.052255165 -0.021716710 0.997539937
1341845693.017585 0.007506921 0.038511243 -0.083856389 0.041575629 -0.052739609 -0.022162588 0.997496247
1341845693.053684 0.005921950 0.034617834 -0.081384428 0.041003324 -0.051836643 -0.022639044 0.997556567
1341845693.086059 0.003932054 0.035999704 -0.080247499 0.042168960 -0.051616523 -0.021277642 0.997549355
1341845693.121690 0.004215045 0.036956467 -0.084012426 0.042359907 -0.052732978 -0.019184396 0.997525334
1341845693.153852 0.004025979 0.038468525 -0.085852303 0.041647624 -0.053547069 -0.020056792 0.997494817
1341845693.185655 0.004948737 0.036674459 -0.080444552 0.040887561 -0.052003533 -0.021951459 0.997568011
1341845693.221687 0.002290112 0.035365120 -0.086503617 0.040571589 -0.050979953 -0.018377665 0.997705996
1341845693.254518 0.000650327 0.036386710 -0.084824950 0.041286718 -0.054187868 -0.016271900 0.997544169
1341845693.289735 0.003888671 0.030477323 -0.089819409 0.040571000 -0.054315798 -0.019196311 0.997514546
1341845693.321741 -0.000792725 0.034507137 -0.099083103 0.040585455 -0.048891958 -0.020393029 0.997770786
1341845693.353715 -0.001560849 0.031979252 -0.086591020 0.040566228 -0.045726549 -0.018672377 0.997955322
1341845693.421993 0.008679833 0.036048155 -0.082458287 0.041433111 -0.044251405 -0.017431395 0.998008668
1341845693.453700 0.008356065 0.035046440 -0.085449107 0.041326515 -0.042564925 -0.019401565 0.998050094
1341845693.489783 0.001941327 0.024861393 -0.083184384 0.041279584 -0.040017333 -0.021610325 0.998112023
1341845693.522084 -0.004829847 0.029901704 -0.087942563 0.044005681 -0.039806016 -0.021170685 0.998013437
1341845693.557666 -0.007291127 0.030415472 -0.087184012 0.045855507 -0.040758546 -0.022419833 0.997864366
1341845693.589792 0.008734206 0.031690501 -0.086642995 0.046697989 -0.043806542 -0.021619473 0.997713804
1341845693.622158 0.008071030 0.032449756 -0.086130396 0.046943717 -0.042510927 -0.022743693 0.997733355
1341845693.689929 0.008497548 0.033733599 -0.088484429 0.045880072 -0.041362952 -0.021637749 0.997855663
1341845693.721602 0.009780804 0.034733988 -0.088453330 0.043812171 -0.040014207 -0.022743188 0.997979045
1341845693.757636 0.003143070 0.037369896 -0.084049501 0.042368438 -0.038313270 -0.022809671 0.998106539
1341845693.789776 0.004875252 0.035094406 -0.085052013 0.041224882 -0.039600503 -0.021742718 0.998127997
1341845693.825637 0.006381399 0.037151232 -0.084836580 0.039926063 -0.040174358 -0.021730052 0.998158157
1341845693.857724 0.003658186 0.033358421 -0.080552012 0.038663428 -0.039699316 -0.020631080 0.998250186
1341845693.889741 0.006549451 0.034035910 -0.082128361 0.039223101 -0.039976217 -0.019323364 0.998243451
1341845693.925573 0.004686401 0.034378514 -0.082314707 0.038786974 -0.039334510 -0.018825058 0.998295546
1341845693.957722 0.005608465 0.038828883 -0.079065174 0.040068045 -0.039065026 -0.017206499 0.998284757
1341845693.990410 0.006573834 0.037731342 -0.082714476 0.040625215 -0.038144339 -0.017388150 0.998294711
1341845694.025740 0.006562071 0.033104181 -0.083050638 0.040372003 -0.036670659 -0.018756995 0.998335361
1341845694.057728 0.003844036 0.033971600 -0.079478323 0.041211478 -0.035432205 -0.018814819 0.998344719
1341845694.093631 0.000724277 0.032777119 -0.084325463 0.042490747 -0.034982309 -0.018741999 0.998308301
1341845694.125598 0.004159157 0.032046888 -0.082342990 0.043808427 -0.035788991 -0.018562887 0.998226106
1341845694.157890 0.002647715 0.035486281 -0.084480584 0.044891849 -0.034599762 -0.019451065 0.998202980
1341845694.193528 0.006449977 0.031951007 -0.084976435 0.045367166 -0.034917880 -0.019194562 0.998175383
1341845694.226254 0.006492917 0.033126462 -0.084271200 0.046828222 -0.035115648 -0.019087121 0.998103023
1341845694.261793 0.006579086 0.033360131 -0.085392535 0.047357790 -0.034603275 -0.018555583 0.998106003
1341845694.293655 0.004831051 0.031823903 -0.083448596 0.047636293 -0.034577955 -0.017040601 0.998120606
1341845694.325844 0.002116659 0.032255352 -0.085170753 0.048973929 -0.035819046 -0.014331329 0.998054683
1341845694.361761 0.005466064 0.034934122 -0.084884882 0.050618157 -0.038552862 -0.012002205 0.997901499
1341845694.393754 0.008009643 0.036858879 -0.083936252 0.051859781 -0.040992115 -0.011367951 0.997747958
1341845694.425809 0.006541440 0.036137950 -0.084164485 0.051738143 -0.042192545 -0.012045600 0.997696280
1341845694.461731 0.007114412 0.039678939 -0.085158259 0.051994577 -0.043438248 -0.012671840 0.997621715
1341845694.493931 0.010688847 0.038005386 -0.086207770 0.050399315 -0.043807898 -0.013669067 0.997674286
1341845694.529694 0.008907204 0.036693372 -0.088016011 0.048911776 -0.043106452 -0.014824257 0.997762322
1341845694.561652 0.005078267 0.033358969 -0.082891807 0.048526376 -0.043829039 -0.015233671 0.997743547
1341845694.595586 0.007033932 0.032479763 -0.083915502 0.049225830 -0.045513745 -0.014145609 0.997649848
1341845694.629850 0.008144080 0.034209631 -0.086296007 0.050759286 -0.047497254 -0.012952415 0.997496724
1341845694.661659 0.012966268 0.034342237 -0.087386794 0.052284874 -0.048657678 -0.012007537 0.997373819
1341845694.693720 0.033038467 0.037427951 -0.090955310 0.051843751 -0.047305737 -0.009807082 0.997485936
1341845694.735664 0.028968958 0.038638983 -0.092233233 0.050215427 -0.039426949 -0.009914081 0.997910678
1341845694.767988 0.021742644 0.037985060 -0.087966017 0.048358429 -0.032893497 -0.008341656 0.998253465
1341845694.803611 0.020542810 0.037072387 -0.084008962 0.046283286 -0.027359869 -0.007192733 0.998527706
1341845694.835585 0.011998930 0.037456427 -0.080907486 0.045634277 -0.022191251 -0.006734923 0.998688996
1341845694.867728 0.012665342 0.041282322 -0.079332739 0.045424484 -0.019552937 -0.006154385 0.998757422
1341845694.903566 0.018841673 0.040472142 -0.075121783 0.043594528 -0.018048096 -0.005399116 0.998871684
1341845694.935679 0.014501258 0.034229040 -0.077590227 0.042620391 -0.015520540 -0.005024677 0.998958170
1341845694.967669 0.018113544 0.039031453 -0.074930236 0.043730028 -0.014942459 -0.003289732 0.998926222
1341845695.003730 0.028647382 0.035890363 -0.083021492 0.043135140 -0.014212755 -0.001524878 0.998966992
1341845695.035689 0.025385423 0.035283733 -0.073152907 0.043182891 -0.010601758 -0.001558161 0.999009728
1341845695.072465 0.017707424 0.033730406 -0.072683074 0.043095265 -0.007647846 -0.001337506 0.999040782
1341845695.103895 0.016802661 0.033151370 -0.074770108 0.043218791 -0.009323784 -0.000048667 0.999022126
1341845695.135680 0.015608865 0.029187243 -0.072434090 0.043777924 -0.012561983 -0.000298709 0.998962224
1341845695.172193 0.012974410 0.028336037 -0.082377076 0.046664122 -0.017553469 -0.000238477 0.998756409
1341845695.203618 0.022821544 0.028771758 -0.090975724 0.049182408 -0.027101438 0.001958892 0.998420119
1341845695.235612 0.019390058 0.028043380 -0.084396943 0.052810144 -0.033905827 0.002005091 0.998026788
1341845695.271738 0.018416565 0.030177051 -0.088608913 0.055954400 -0.039131712 -0.000296471 0.997666180
1341845695.303569 0.018822553 0.031793203 -0.081750669 0.057835229 -0.043613970 -0.001135484 0.997372329
1341845695.335657 0.017781198 0.032507647 -0.085604005 0.058528587 -0.046548352 -0.003627948 0.997193336
1341845695.371706 0.020748412 0.034483936 -0.081958868 0.059186332 -0.050053589 -0.005549982 0.996975839
1341845695.403745 0.015245266 0.031957936 -0.083318062 0.059282932 -0.051937874 -0.009174342 0.996846974
1341845695.435657 0.015724644 0.028886370 -0.088659242 0.060197372 -0.055582996 -0.009033594 0.996596813
1341845695.471720 0.013116345 0.032887474 -0.084568545 0.062433641 -0.059290417 -0.008934752 0.996246397
1341845695.503710 0.013882141 0.035770420 -0.086977609 0.062664978 -0.062928341 -0.009039973 0.996007740
1341845695.539693 0.017689668 0.035551380 -0.084016398 0.062374026 -0.065875351 -0.010417202 0.995821953
1341845695.603908 0.014896960 0.034387026 -0.082636081 0.062850788 -0.067789257 -0.013196484 0.995630562
1341845695.665980 0.012974000 0.033754546 -0.085744075 0.061998215 -0.070259556 -0.015337238 0.995482087
1341845695.701693 0.015105152 0.034365650 -0.082478769 0.062250730 -0.071855173 -0.014321408 0.995367587
1341845695.733686 0.020471912 0.037856080 -0.087314762 0.062074125 -0.073590957 -0.013009293 0.995269775
1341845695.769679 0.022243097 0.036798727 -0.086184651 0.061516803 -0.074110441 -0.012652596 0.995270431
1341845695.801697 0.022836100 0.038866296 -0.084992424 0.060631867 -0.073827900 -0.011676105 0.995357633
1341845695.833635 0.022667658 0.034283403 -0.085688785 0.059080392 -0.073635474 -0.011107378 0.995471716
1341845695.869766 0.022310989 0.034265727 -0.084437318 0.058799632 -0.073159814 -0.009641006 0.995538652
1341845695.901827 0.019495683 0.036845244 -0.090318061 0.058150932 -0.072413564 -0.009586803 0.995631874
1341845695.933900 0.013773707 0.036161661 -0.087624647 0.056659453 -0.071457982 -0.009673638 0.995786071
1341845695.969774 0.021926770 0.036622223 -0.082880072 0.055811819 -0.072248891 -0.008681377 0.995786011
1341845696.001940 0.014698787 0.033697318 -0.088023335 0.054784443 -0.069965787 -0.008886775 0.996004283
1341845696.037778 0.020349560 0.037627853 -0.083401546 0.054322720 -0.070414618 -0.006257960 0.996017873
1341845696.069962 0.013336250 0.034826837 -0.083973058 0.053097367 -0.069173731 -0.005174557 0.996177137
1341845696.102048 0.016509483 0.035362769 -0.083296798 0.053117715 -0.070616655 -0.002871895 0.996084094
1341845696.137759 0.019846270 0.037169438 -0.084623560 0.052780841 -0.071239695 -0.002569409 0.996058464
1341845696.169934 0.018600916 0.036944315 -0.085886858 0.051745847 -0.071788222 -0.002830897 0.996072710
1341845696.201602 0.017816503 0.036855981 -0.088711746 0.051102888 -0.071436279 -0.003384472 0.996129453
1341845696.237582 0.016183663 0.037505955 -0.085449792 0.049456518 -0.071200810 -0.004836909 0.996223450
1341845696.269654 0.016563399 0.035605349 -0.085881129 0.047888607 -0.071983248 -0.005210248 0.996241927
1341845696.305713 0.012749680 0.034682468 -0.085344851 0.047435496 -0.072378628 -0.004722627 0.996237397
1341845696.337790 0.019920457 0.035486855 -0.083968066 0.047138520 -0.074125603 -0.002748856 0.996130407
1341845696.369780 0.017923318 0.035245109 -0.085013755 0.046735607 -0.074465208 -0.002566495 0.996124566
1341845696.406019 0.021312227 0.037540328 -0.085694857 0.045811187 -0.075286336 -0.002616640 0.996105671
1341845696.437910 0.016237827 0.036111109 -0.081689596 0.043897439 -0.074656770 -0.002654415 0.996239126
1341845696.473667 0.026739620 0.040174726 -0.082196459 0.043195039 -0.075604632 -0.002016317 0.996199787
1341845696.505801 0.016452065 0.038040716 -0.078273930 0.041181214 -0.073143989 -0.002713140 0.996467113
1341845696.537879 0.016617281 0.034398235 -0.081229016 0.039916601 -0.073143892 -0.001330806 0.996521413
1341845696.573790 0.014873376 0.035745848 -0.079926372 0.040058438 -0.073794723 -0.000484020 0.996468484
1341845696.611644 0.014348462 0.038109995 -0.080834411 0.040152319 -0.074392080 -0.000849767 0.996420026
1341845696.648592 0.022784049 0.037549943 -0.080848344 0.039359331 -0.076336086 0.000570584 0.996304810
1341845696.705640 0.021804672 0.038013399 -0.087603368 0.036873993 -0.074936628 -0.000303651 0.996506274
1341845696.741801 0.018724460 0.035045289 -0.081988283 0.036121905 -0.073260605 -0.000185099 0.996658444
1341845696.773765 0.018648036 0.035937522 -0.085594133 0.035951979 -0.071938679 0.000333199 0.996760845
1341845696.805698 0.017403450 0.037844889 -0.083786458 0.034878548 -0.071679026 0.001146716 0.996817112
1341845696.841908 0.025864093 0.039390769 -0.077598065 0.034724914 -0.072825938 0.003556994 0.996733606
1341845696.873637 0.026873203 0.038626656 -0.082933664 0.033774205 -0.071468860 0.002941476 0.996866524
1341845696.905693 0.023834137 0.043832287 -0.074655257 0.033238303 -0.070520453 0.003670224 0.996949613
1341845696.941841 0.026653131 0.042738400 -0.078353316 0.031658825 -0.070180476 0.004461714 0.997021794
1341845696.973560 0.018822191 0.037013352 -0.079115354 0.030003963 -0.068704501 0.006783693 0.997162700
1341845697.009723 0.017875930 0.041213371 -0.078247420 0.029834980 -0.068168879 0.006670712 0.997205317
1341845697.041678 0.020959610 0.037793063 -0.077282228 0.028186154 -0.067252576 0.006068413 0.997319341
1341845697.073636 0.026786568 0.039730027 -0.073268518 0.028538382 -0.067106307 0.006404262 0.997317016
1341845697.109770 0.027555346 0.039535917 -0.073000595 0.028960435 -0.066834763 0.004864198 0.997331798
1341845697.141787 0.022804188 0.038444731 -0.075862303 0.027976960 -0.065565556 0.003885409 0.997448444
1341845697.173791 0.026463285 0.040229551 -0.076655537 0.028271966 -0.065706223 0.005458947 0.997423470
1341845697.209803 0.028607016 0.042309683 -0.075005621 0.028889097 -0.066075012 0.006560955 0.997374773
1341845697.241685 0.028607151 0.041750666 -0.075453728 0.028329697 -0.065548934 0.006395941 0.997426629
1341845697.277780 0.027299624 0.038658522 -0.074274592 0.027601726 -0.065075777 0.006130422 0.997479677
1341845697.309575 0.027329009 0.041780729 -0.074349776 0.027769687 -0.065456912 0.007441860 0.997441173
1341845697.342252 0.025358025 0.040204652 -0.074081756 0.027267216 -0.065513223 0.007033862 0.997454286
1341845697.377604 0.026205393 0.040344059 -0.071758650 0.027742978 -0.065844923 0.007006864 0.997419477
1341845697.409528 0.028316772 0.041346509 -0.075347818 0.027746426 -0.065650463 0.006116040 0.997438073
1341845697.441666 0.024177818 0.039273005 -0.070407152 0.027451448 -0.064700328 0.005844681 0.997509956
1341845697.477718 0.028038768 0.038234949 -0.078212030 0.028219322 -0.065356091 0.005444425 0.997448027
1341845697.509822 0.031103911 0.044827133 -0.071969248 0.029250685 -0.065915003 0.005486697 0.997381330
1341845697.545892 0.028626418 0.042203363 -0.072743624 0.028862098 -0.065928258 0.005568242 0.997391343
1341845697.577742 0.026308056 0.038836796 -0.073026881 0.029003689 -0.066585727 0.005865214 0.997341812
1341845697.609653 0.026309207 0.040400282 -0.072431222 0.029275296 -0.067078635 0.005910331 0.997300565
1341845697.645769 0.026378093 0.041269083 -0.069202803 0.028931243 -0.067537308 0.006679319 0.997274816
1341845697.677795 0.027201232 0.041067116 -0.072406366 0.028646342 -0.067329243 0.006936429 0.997295380
1341845697.713520 0.029582603 0.040216088 -0.076419607 0.027930290 -0.067526765 0.006277733 0.997306705
1341845697.745975 0.027726641 0.041043844 -0.072089300 0.027653975 -0.067631982 0.007255648 0.997300625
1341845697.777683 0.027762674 0.042781077 -0.080351613 0.027538840 -0.067666292 0.007616918 0.997298777
1341845697.813673 0.029176485 0.039105933 -0.078131109 0.026379710 -0.068044141 0.007701855 0.997303784
1341845697.845793 0.031700876 0.044639047 -0.075387567 0.025765400 -0.067837544 0.007223603 0.997337461
1341845697.877887 0.031673610 0.043235995 -0.073740184 0.024635511 -0.068228640 0.008087158 0.997332692
1341845697.913637 0.032200832 0.043333903 -0.073078237 0.024316590 -0.068359159 0.007922271 0.997332931
1341845697.945734 0.029950649 0.042855129 -0.074750945 0.023602605 -0.067868344 0.007048557 0.997390151
1341845697.981763 0.027215574 0.037800085 -0.075310551 0.022426102 -0.067152798 0.005456051 0.997475684
1341845698.013639 0.020865120 0.037541330 -0.073391192 0.022917572 -0.066065617 0.005348769 0.997537732
1341845698.045700 0.028822925 0.042523537 -0.069377810 0.023836885 -0.067690469 0.006277544 0.997401834
1341845698.081804 0.025735166 0.041949231 -0.070317671 0.023655720 -0.067965157 0.005768935 0.997390509
1341845698.113733 0.027852597 0.041817579 -0.073250316 0.023775483 -0.068566822 0.005584579 0.997347534
1341845698.145605 0.026320130 0.040808391 -0.074459836 0.023981567 -0.068674386 0.004951595 0.997338533
1341845698.181637 0.028269382 0.040638667 -0.077755958 0.023964578 -0.068841837 0.004263825 0.997330606
1341845698.213981 0.017782286 0.034762271 -0.075822152 0.023379598 -0.067982182 0.003567689 0.997406185
1341845698.249641 0.019944469 0.040870178 -0.074970774 0.025092516 -0.069533862 0.003328626 0.997258425
1341845698.281737 0.021297880 0.041785851 -0.075188413 0.023882268 -0.069922961 0.002944394 0.997262120
1341845698.313940 0.027800461 0.041511483 -0.072689928 0.023506513 -0.071342759 0.002922928 0.997170568
1341845698.349629 0.029023575 0.040998071 -0.074950032 0.023681201 -0.071337603 0.002288701 0.997168422
1341845698.381667 0.023272911 0.038494516 -0.079213083 0.023395088 -0.070732281 0.001932889 0.997219086
1341845698.413724 0.029666049 0.043579109 -0.076234512 0.024577342 -0.073635325 0.003672068 0.996975601
1341845698.449543 0.027033746 0.040226642 -0.079021834 0.024395116 -0.074417919 0.003501688 0.996922553
1341845698.481693 0.022862008 0.038340941 -0.079085983 0.024088416 -0.074801698 0.002056562 0.996905327
1341845698.517644 0.025412058 0.037972767 -0.078330331 0.024216633 -0.075813510 0.001948494 0.996826053
1341845698.549633 0.021755552 0.033906400 -0.078975290 0.024281651 -0.075845577 0.000145557 0.996823907
1341845698.581773 0.027245460 0.039242003 -0.077840656 0.025743417 -0.077473097 -0.000509932 0.996661901
1341845698.617608 0.026504876 0.039788965 -0.076591164 0.025994673 -0.077559598 -0.001385281 0.996647835
1341845698.649887 0.027982984 0.038841732 -0.073631831 0.026362147 -0.078359626 -0.001524905 0.996575356
1341845698.685838 0.034627266 0.042265866 -0.074243695 0.027966028 -0.079544462 -0.001271880 0.996438146
1341845698.717744 0.025356827 0.041365344 -0.075892083 0.027599175 -0.077828564 -0.002439263 0.996581674
1341845698.749680 0.030647803 0.039321426 -0.075350791 0.026594147 -0.078345388 -0.001377472 0.996570528
1341845698.785826 0.028489731 0.040709995 -0.075107023 0.026808644 -0.077881195 -0.001666151 0.996600747
1341845698.817603 0.030054603 0.043974828 -0.076688431 0.026641600 -0.078098476 -0.001692379 0.996588171
1341845698.849705 0.029141532 0.043645233 -0.069931701 0.025680305 -0.078213416 -0.000752826 0.996605515
1341845698.885714 0.030673614 0.039828602 -0.075150989 0.024830485 -0.078466095 -0.001446552 0.996606469
1341845698.917723 0.023755329 0.043867167 -0.072873324 0.024591358 -0.076942742 -0.002211989 0.996729732
1341845698.953706 0.018984372 0.036433145 -0.078801356 0.022917403 -0.075161822 -0.003150973 0.996903002
1341845698.985694 0.038513098 0.044630770 -0.077683270 0.023551373 -0.078572132 -0.000627410 0.996630013
1341845699.017571 0.039647985 0.047650564 -0.076369323 0.022973979 -0.079320073 0.000571314 0.996584237
1341845699.053593 0.037098326 0.045819312 -0.078495994 0.021579821 -0.079070918 -0.000027722 0.996635377
1341845699.086340 0.037219033 0.048807573 -0.077565745 0.020215990 -0.078831889 -0.000128478 0.996682882
1341845699.117688 0.037350293 0.047115952 -0.079249904 0.018018382 -0.078552119 -0.000410850 0.996747077
1341845699.153695 0.036915403 0.046263535 -0.078437395 0.016617365 -0.078327559 -0.000972510 0.996788681
1341845699.185845 0.037325930 0.048003122 -0.077660754 0.015860699 -0.077803455 -0.001378549 0.996841550
1341845699.221973 0.037132859 0.047308892 -0.077827692 0.014611113 -0.077354014 -0.001486476 0.996895492
1341845699.253571 0.035795595 0.046240442 -0.075719506 0.014312175 -0.077966414 -0.000742183 0.996852994
1341845699.285622 0.035637893 0.044520166 -0.075745232 0.015119080 -0.079095758 -0.000408483 0.996752262
1341845699.321906 0.037137799 0.045813475 -0.077819929 0.015863331 -0.080280334 0.000558705 0.996645927
1341845699.354916 0.036589433 0.046501238 -0.076546468 0.015936350 -0.080842823 0.001028357 0.996598899
1341845699.385859 0.037426148 0.045630552 -0.076651916 0.016147040 -0.081009403 0.000416167 0.996582448
1341845699.421535 0.038911089 0.044747654 -0.075975887 0.016630039 -0.080856696 -0.000419191 0.996586919
1341845699.454093 0.039474037 0.047118485 -0.077449739 0.016866511 -0.079940766 -0.002203233 0.996654451
1341845699.489836 0.036769502 0.044979159 -0.075927161 0.016132740 -0.078933865 -0.001843644 0.996747613
1341845699.522001 0.036576051 0.044175390 -0.075951986 0.016239174 -0.079580069 -0.000905634 0.996695757
1341845699.556281 0.038104285 0.043703075 -0.076671243 0.017038481 -0.080280006 -0.000349982 0.996626675
1341845699.595416 0.039010223 0.044385143 -0.076589219 0.017496048 -0.079954892 -0.000225589 0.996644914
1341845699.628631 0.042810351 0.047428738 -0.076213926 0.017654825 -0.079458736 -0.000456200 0.996681690
1341845699.663810 0.041134384 0.044184979 -0.073437132 0.016995952 -0.078601204 -0.000106749 0.996761262
1341845699.696113 0.038150892 0.044125699 -0.078445919 0.017782349 -0.077535212 0.001173289 0.996830344
1341845699.727683 0.038721826 0.049091093 -0.080502555 0.017383629 -0.077342167 0.000698588 0.996852756
1341845699.789808 0.040779766 0.044701613 -0.077387236 0.015072023 -0.076663353 -0.000063451 0.996943116
1341845699.821737 0.039084561 0.045301486 -0.077669978 0.015174911 -0.075621672 -0.000455549 0.997020960
1341845699.857825 0.035922978 0.047408514 -0.076256506 0.015224702 -0.075592831 0.000039960 0.997022569
1341845699.889686 0.037801683 0.045041773 -0.076915495 0.015159539 -0.076037638 -0.000352257 0.996989667
1341845699.925749 0.039565474 0.045061845 -0.074918292 0.015448348 -0.075820111 -0.000551625 0.997001648
1341845699.957536 0.038046606 0.044260230 -0.074879713 0.016004937 -0.075378522 -0.000454479 0.997026443
1341845699.989671 0.039372444 0.041916084 -0.075015977 0.016628547 -0.075959347 0.001292649 0.996971369
1341845700.025810 0.040631466 0.043891158 -0.072367288 0.017985499 -0.076209515 0.001771359 0.996928036
1341845700.058133 0.042045087 0.043225583 -0.075094804 0.018515091 -0.075809509 0.000678387 0.996950150
1341845700.090754 0.041232295 0.044916183 -0.072484970 0.018943585 -0.075251855 0.000027840 0.996984601
1341845700.125852 0.037938040 0.043994185 -0.074594282 0.018971564 -0.074836984 -0.000623071 0.997015119
1341845700.157773 0.042111252 0.043880165 -0.071553923 0.019685591 -0.075628728 -0.000456423 0.996941626
1341845700.193533 0.046921294 0.044594664 -0.076853476 0.020016063 -0.075476147 -0.000821970 0.996946335
1341845700.225771 0.043249968 0.044431094 -0.071320727 0.019889101 -0.074239291 -0.000850631 0.997041762
1341845700.257669 0.043598980 0.044477254 -0.071723938 0.020090856 -0.074000455 -0.000079061 0.997055829
1341845700.293641 0.043563765 0.043710399 -0.073271081 0.019839950 -0.073631182 0.000906826 0.997087777
1341845700.325714 0.044813238 0.041213866 -0.073310807 0.019659065 -0.073855102 0.001234596 0.997074425
1341845700.357742 0.047551561 0.043984942 -0.074507311 0.020216536 -0.073499545 0.000600973 0.997090101
1341845700.393681 0.045912143 0.046239048 -0.071041010 0.020061871 -0.072355300 0.000041106 0.997177124
1341845700.425997 0.045651451 0.044909805 -0.072397120 0.019589953 -0.071857810 -0.000657762 0.997222304
1341845700.461682 0.046881277 0.044848673 -0.071188644 0.019433225 -0.071963869 -0.000707008 0.997217655
1341845700.493808 0.046021111 0.046456747 -0.071435563 0.019573035 -0.071589783 -0.000987039 0.997241616
1341845700.526106 0.046970662 0.045828179 -0.068892770 0.019012332 -0.071817599 -0.000782230 0.997236252
1341845700.562458 0.045707799 0.045568682 -0.070429750 0.018813822 -0.071291521 -0.000526670 0.997277915
1341845700.626137 0.045282222 0.045893002 -0.072102122 0.018491058 -0.071362086 -0.000636885 0.997278869
1341845700.661872 0.046007089 0.046729658 -0.072506778 0.018313626 -0.070732966 -0.001745214 0.997325659
1341845700.693861 0.043741629 0.045279257 -0.072586060 0.017500086 -0.069872066 -0.002158568 0.997400105
1341845700.732394 0.044693295 0.044018794 -0.073123485 0.017546220 -0.070891164 -0.001191275 0.997328997
1341845700.767794 0.047293387 0.043960869 -0.069126837 0.017839039 -0.071668796 -0.000633915 0.997268736
1341845700.799058 0.046544768 0.044228327 -0.071233764 0.018217772 -0.071095198 -0.000837704 0.997302830
1341845700.867749 0.047363549 0.046181113 -0.069548957 0.018677289 -0.070798598 -0.001528710 0.997314572
1341845700.930007 0.046282474 0.045104805 -0.067979634 0.019494154 -0.071599141 -0.000958032 0.997242510
1341845700.961797 0.052255526 0.047949113 -0.070270248 0.019945865 -0.072195038 -0.001494532 0.997189939
1341845700.997752 0.048560109 0.046879131 -0.068907574 0.019520007 -0.071675695 -0.002014658 0.997234941
1341845701.029597 0.050854556 0.047916099 -0.067066379 0.019955046 -0.072702527 -0.001942547 0.997152150
1341845701.061618 0.048947394 0.045222543 -0.069955401 0.019761916 -0.072556838 -0.002531750 0.997165263
1341845701.097561 0.045359317 0.044744808 -0.072654687 0.020041304 -0.072105639 -0.002767506 0.997191787
1341845701.129741 0.045761287 0.046124954 -0.071788207 0.020212565 -0.071902066 -0.002376037 0.997204065
1341845701.165734 0.045489587 0.046070531 -0.072816268 0.020022223 -0.071643703 -0.002325695 0.997226596
1341845701.197714 0.045089230 0.042439610 -0.075639784 0.020024935 -0.071960285 -0.002526822 0.997203231
1341845701.230497 0.045251843 0.044404909 -0.074947253 0.020521354 -0.072288245 -0.002745521 0.997168839
1341845701.265852 0.046574220 0.042203527 -0.068803973 0.020413695 -0.073008545 -0.002475191 0.997119308
1341845701.297730 0.045363285 0.044001263 -0.073428050 0.021700928 -0.073575243 -0.002524608 0.997050345
1341845701.329611 0.050708454 0.046866957 -0.070870318 0.021912450 -0.074192919 -0.003308401 0.996997654
1341845701.365791 0.047700591 0.044900466 -0.070141904 0.021175666 -0.073304437 -0.003753842 0.997077703
1341845701.397757 0.048102610 0.046171531 -0.071810104 0.021160569 -0.073169142 -0.004272389 0.997085869
1341845701.433542 0.048677038 0.043578792 -0.070261665 0.020434668 -0.072952569 -0.003636133 0.997119427
1341845701.465617 0.046040725 0.043773364 -0.070884734 0.020592311 -0.072579846 -0.002389472 0.997147143
1341845701.497704 0.046165060 0.044125132 -0.071444169 0.020308729 -0.072616428 -0.001852466 0.997151434
1341845701.533597 0.044482652 0.045525283 -0.071263395 0.020238267 -0.072425842 -0.002042437 0.997166336
1341845701.597762 0.047749698 0.044703748 -0.077774175 0.019983375 -0.071698524 -0.002851360 0.997222066
1341845701.633825 0.042071085 0.041963231 -0.072428472 0.020148033 -0.071470477 -0.003264108 0.997233868
1341845701.665709 0.047824793 0.042813715 -0.071607411 0.020886865 -0.072340153 -0.002879855 0.997157097
1341845701.701676 0.048750393 0.044175223 -0.070318364 0.021744540 -0.072169252 -0.002460813 0.997152328
1341845701.733527 0.051107094 0.044318426 -0.071555704 0.022269562 -0.072382972 -0.002716654 0.997124553
1341845701.765764 0.049744118 0.043336399 -0.072418049 0.022137405 -0.071978591 -0.003165320 0.997155428
1341845701.801701 0.051424507 0.044094585 -0.069912903 0.022282636 -0.072192602 -0.002864379 0.997137666
1341845701.833700 0.048923191 0.044127584 -0.066473871 0.022509640 -0.071915060 -0.002977354 0.997152269
1341845701.865775 0.050801303 0.045669645 -0.068396576 0.023032133 -0.072094746 -0.002658268 0.997128248
1341845701.901711 0.051899988 0.045878194 -0.069403686 0.022791736 -0.072128288 -0.002688146 0.997131288
1341845701.933585 0.048436113 0.044017646 -0.072443783 0.022235796 -0.071051843 -0.003351580 0.997219086
1341845701.969726 0.048842337 0.045262042 -0.072033361 0.022133062 -0.071099401 -0.003026906 0.997219026
1341845702.002544 0.043226480 0.043857168 -0.067350961 0.021974588 -0.070304893 -0.003554153 0.997277141
1341845702.034379 0.048312627 0.040168222 -0.072376572 0.021721225 -0.070511974 -0.004675117 0.997263432
1341845702.101809 0.048185647 0.044177886 -0.067155212 0.022798091 -0.071129590 -0.004155401 0.997197866
1341845702.137663 0.048367903 0.042433124 -0.069869913 0.022658084 -0.071396321 -0.004316319 0.997181296
1341845702.169629 0.048610196 0.043268342 -0.062772468 0.023531882 -0.071903847 -0.005092096 0.997120917
1341845702.201769 0.050877556 0.044289049 -0.066604398 0.023912814 -0.071720198 -0.005697535 0.997121811
1341845702.237691 0.048746005 0.043409448 -0.066552997 0.023796059 -0.070911534 -0.005981909 0.997180820
1341845702.269760 0.044578638 0.040704481 -0.065429777 0.023756556 -0.070423268 -0.006512776 0.997213006
1341845702.301761 0.048632696 0.043882210 -0.068598248 0.024271796 -0.070676319 -0.006603940 0.997182071
1341845702.337713 0.045738578 0.043766435 -0.071491539 0.023828838 -0.069665961 -0.006885323 0.997261941
1341845702.369720 0.047003191 0.043802038 -0.069647066 0.023735402 -0.070531577 -0.006264207 0.997207463
1341845702.405655 0.049438994 0.043793041 -0.068348087 0.023795122 -0.070775770 -0.006545322 0.997186899
1341845702.469691 0.050109260 0.041858438 -0.067288063 0.023635169 -0.069931105 -0.006512681 0.997250497
1341845702.506265 0.043698672 0.038738787 -0.065248683 0.023186862 -0.069027349 -0.006425741 0.997324586
1341845702.569753 0.051990245 0.043047439 -0.063819863 0.023757210 -0.070753016 -0.004028857 0.997202754
1341845702.605685 0.052516114 0.041753605 -0.070704624 0.022967253 -0.070591807 -0.004644781 0.997229993
1341845702.637718 0.046675228 0.043336462 -0.066003583 0.022771183 -0.069714755 -0.004844162 0.997295260
1341845702.673733 0.046473421 0.041638270 -0.066596746 0.022450365 -0.069525093 -0.005562307 0.997312009
1341845702.705735 0.048319083 0.044564351 -0.068599172 0.022271089 -0.069128022 -0.005244579 0.997345388
1341845702.737648 0.050640058 0.048500940 -0.068814240 0.021972710 -0.068919376 -0.006329068 0.997360110
1341845702.773644 0.042728979 0.048429281 -0.063150771 0.020196192 -0.067247733 -0.007988288 0.997499883
1341845702.805893 0.049230721 0.044685986 -0.069179922 0.018440221 -0.067336179 -0.008361769 0.997524858
1341845702.837969 0.045958307 0.049131393 -0.069561034 0.017928181 -0.066091701 -0.009125280 0.997610748
1341845702.874009 0.048823737 0.046331488 -0.069435753 0.015706558 -0.065715283 -0.009473888 0.997669816
1341845702.908704 0.046596527 0.043688890 -0.066975154 0.014963345 -0.065150656 -0.009742406 0.997715652
1341845702.941673 0.048190705 0.042398371 -0.070637330 0.015469623 -0.065728232 -0.008475404 0.997681677
1341845702.973595 0.041334134 0.041201342 -0.057817306 0.017503882 -0.066436298 -0.006733241 0.997614443
1341845703.005769 0.043483630 0.042124745 -0.066423908 0.019221960 -0.067978926 -0.004933807 0.997489333
1341845703.041648 0.047867771 0.044280436 -0.069951303 0.020779587 -0.069314152 -0.005065264 0.997365594
1341845703.073714 0.050965115 0.052106041 -0.071250230 0.021031933 -0.069354877 -0.005829419 0.997353315
1341845703.109699 0.051225219 0.046724115 -0.071588852 0.018010240 -0.067552827 -0.008517588 0.997516751
1341845703.142006 0.050817829 0.047593109 -0.071487710 0.016883247 -0.066109695 -0.009251977 0.997626603
1341845703.173706 0.042170465 0.043808535 -0.064621560 0.014955745 -0.064485721 -0.010388031 0.997752488
1341845703.209732 0.049061246 0.046382401 -0.064928442 0.015326224 -0.065566003 -0.009659640 0.997683764
1341845703.242050 0.049435664 0.042862818 -0.068539575 0.015732495 -0.065743819 -0.009538292 0.997666895
1341845703.273874 0.048811402 0.041486155 -0.071265735 0.016281549 -0.066364981 -0.009216892 0.997619987
1341845703.309758 0.047502872 0.043870602 -0.068086185 0.017490376 -0.067243449 -0.007553745 0.997554660
1341845703.341850 0.051941980 0.045217853 -0.065735266 0.018190272 -0.067944974 -0.007323280 0.997496367
1341845703.377702 0.051736094 0.043287907 -0.067762658 0.018641656 -0.067162342 -0.008455694 0.997532070
1341845703.409585 0.053492375 0.046872638 -0.071262710 0.019436721 -0.067158975 -0.008142564 0.997519732
1341845703.441629 0.050882522 0.046792202 -0.070644319 0.019217918 -0.067137659 -0.008879185 0.997519076
1341845703.477741 0.050860804 0.044154506 -0.069827482 0.018761719 -0.067154408 -0.009542945 0.997520506
1341845703.509995 0.048578832 0.044651221 -0.067311250 0.019223325 -0.066675939 -0.010019505 0.997539163
1341845703.541800 0.046212330 0.042310812 -0.070281267 0.019441698 -0.066137195 -0.010964122 0.997560859
1341845703.577765 0.049285632 0.042891219 -0.069686443 0.019661063 -0.066763453 -0.011698828 0.997506499
1341845703.609650 0.050989337 0.043793220 -0.070512578 0.020321045 -0.067357227 -0.011318606 0.997457743
1341845703.651761 0.046562176 0.044630349 -0.067219101 0.020781735 -0.066946343 -0.011307560 0.997476041
1341845703.709916 0.046232782 0.046329301 -0.071715847 0.020990454 -0.068001382 -0.011335603 0.997399986
1341845703.745719 0.050721575 0.049363367 -0.070827700 0.020303652 -0.068404332 -0.011600665 0.997383595
1341845703.777733 0.051078435 0.047504373 -0.068661056 0.018621117 -0.067498684 -0.012454417 0.997467816
1341845703.809711 0.049842447 0.045327213 -0.070641123 0.018021809 -0.066625245 -0.012268295 0.997539818
1341845703.845769 0.050597724 0.044255570 -0.071235515 0.017914377 -0.066897444 -0.012356427 0.997522473
1341845703.877728 0.053817641 0.046627324 -0.068455026 0.018161133 -0.067496039 -0.012221283 0.997479379
1341845703.913808 0.050994910 0.046685632 -0.069828205 0.017695392 -0.066867866 -0.012170589 0.997530639
1341845703.945653 0.049968056 0.043326091 -0.065144144 0.017425509 -0.066433631 -0.012811990 0.997556388
1341845703.977870 0.048282530 0.045806494 -0.067064255 0.018211016 -0.065771125 -0.012669219 0.997588098
1341845704.013637 0.050018329 0.042481210 -0.065329626 0.018551674 -0.066376619 -0.012622624 0.997542322
1341845704.045703 0.050816938 0.043461554 -0.065853752 0.019714305 -0.066774003 -0.012398216 0.997496307
1341845704.077666 0.053560738 0.044778999 -0.065739192 0.020285908 -0.067395397 -0.011113243 0.997458220
1341845704.113706 0.050736852 0.045811038 -0.068972118 0.020515688 -0.066535406 -0.011435739 0.997507572
1341845704.145681 0.049582534 0.045803003 -0.068161353 0.020071236 -0.065937616 -0.011919539 0.997550666
1341845704.181785 0.052425802 0.046367541 -0.064907521 0.019857856 -0.066110402 -0.011873640 0.997544050
1341845704.213778 0.049452011 0.046360265 -0.065720581 0.019794930 -0.065528974 -0.011892634 0.997583449
1341845704.245863 0.050891887 0.045889668 -0.067486092 0.019561538 -0.065668017 -0.011603381 0.997582257
1341845704.281578 0.050671801 0.047280837 -0.069349334 0.019447448 -0.065289348 -0.011639502 0.997608960
1341845704.313707 0.052099753 0.048945367 -0.063842267 0.018893320 -0.065141119 -0.011250967 0.997633755
1341845704.349873 0.050417524 0.047880005 -0.058520585 0.018040186 -0.063647471 -0.011333074 0.997745037
1341845704.381729 0.053640503 0.047736026 -0.057933114 0.017451504 -0.062556118 -0.011688226 0.997820437
1341845704.413817 0.056177773 0.046950158 -0.065233983 0.017276591 -0.061016522 -0.011421259 0.997921884
1341845704.449837 0.058420941 0.047874577 -0.064206786 0.017233774 -0.060108263 -0.011325959 0.997978806
1341845704.481600 0.052930724 0.046335462 -0.060495555 0.015917784 -0.057738479 -0.011982023 0.998132944
1341845704.513671 0.047126286 0.040854163 -0.052728776 0.016164489 -0.056606136 -0.011398831 0.998200655
1341845704.549869 0.045393687 0.039847393 -0.056482911 0.020513060 -0.057075735 -0.008844294 0.998119891
1341845704.581901 0.046794962 0.044598598 -0.053801630 0.025296863 -0.059715893 -0.006846065 0.997871339
1341845704.617838 0.057892345 0.044530518 -0.065749183 0.026881175 -0.061933167 -0.007596746 0.997689307
1341845704.650477 0.047502216 0.044458088 -0.061427802 0.027532225 -0.060140595 -0.009136372 0.997768283
1341845704.681708 0.044479690 0.041484799 -0.058199506 0.028219242 -0.060380198 -0.009604392 0.997730255
1341845704.717704 0.046997115 0.040312264 -0.063971840 0.029194722 -0.061771873 -0.009549120 0.997617543
1341845704.749702 0.042533979 0.044864688 -0.061893828 0.030158948 -0.061424743 -0.011107008 0.997594118
1341845704.781791 0.043181714 0.042989463 -0.060112294 0.028988317 -0.061055824 -0.013156992 0.997626543
1341845704.817744 0.041280530 0.039949205 -0.064802475 0.029130282 -0.061206125 -0.014113924 0.997600138
1341845704.849705 0.041997872 0.041018583 -0.064992271 0.030861612 -0.063249081 -0.014410113 0.997416377
1341845704.885675 0.043152440 0.042161234 -0.065742791 0.031156607 -0.064381279 -0.014761694 0.997329652
1341845704.917742 0.043345939 0.043667823 -0.068108909 0.030927248 -0.064751253 -0.014881692 0.997311056
1341845704.949746 0.043621175 0.043785289 -0.066614278 0.030204415 -0.065355204 -0.015682077 0.997281551
1341845704.985761 0.041882489 0.043302506 -0.064721294 0.029273083 -0.065510593 -0.017219568 0.997273743
1341845705.017537 0.039327215 0.042916916 -0.064620443 0.028521776 -0.065493345 -0.017788686 0.997286677
1341845705.049660 0.048471346 0.047698423 -0.071111016 0.028406322 -0.067086615 -0.017214913 0.997194111
1341845705.085710 0.046674829 0.046945084 -0.065689176 0.027961012 -0.067547604 -0.017564623 0.997169495
1341845705.117831 0.044877365 0.046662293 -0.071956165 0.027853727 -0.067661479 -0.018219680 0.997153044
1341845705.154005 0.047244426 0.049519245 -0.070448957 0.026984697 -0.068355247 -0.018772507 0.997119367
1341845705.185648 0.045575939 0.045832980 -0.067471676 0.025753075 -0.067786336 -0.019158112 0.997183383
1341845705.217695 0.047404360 0.045420054 -0.068638489 0.025549978 -0.067554444 -0.019140987 0.997204661
1341845705.253735 0.044076517 0.047688238 -0.068275727 0.025240025 -0.066579185 -0.019623473 0.997268796
1341845705.285554 0.045003038 0.044085477 -0.067520484 0.024419151 -0.067029446 -0.018930521 0.997272491
1341845705.321646 0.047959369 0.045981944 -0.068038583 0.025256265 -0.067945205 -0.017601328 0.997214019
1341845705.353674 0.044542231 0.046485491 -0.067345284 0.025373412 -0.067796402 -0.017162235 0.997228801
1341845705.385774 0.047732044 0.046030946 -0.068019234 0.025804035 -0.068300672 -0.017177882 0.997183084
1341845705.421801 0.046440300 0.043189134 -0.065125220 0.026389234 -0.067865968 -0.017980369 0.997183263
1341845705.453568 0.041312493 0.041741926 -0.060479198 0.028348805 -0.067291468 -0.017470701 0.997177482
1341845705.485749 0.045214098 0.044971399 -0.061823253 0.030739030 -0.069099717 -0.015619626 0.997013748
1341845705.521655 0.042169828 0.042367071 -0.064333826 0.031676967 -0.069098197 -0.014863676 0.996996045
1341845705.553548 0.034306172 0.042855516 -0.063838027 0.032522615 -0.067702889 -0.015165514 0.997060001
1341845705.589775 0.042976633 0.045654707 -0.062902674 0.032438681 -0.068759821 -0.014500803 0.997000277
1341845705.621894 0.033575676 0.043182094 -0.064376414 0.032219511 -0.067598246 -0.015367144 0.997073829
1341845705.653569 0.033760238 0.043152321 -0.065170206 0.032164887 -0.070205092 -0.012945856 0.996929824
1341845705.689868 0.046872858 0.046720184 -0.064169765 0.033330087 -0.073665164 -0.013322046 0.996636868
1341845705.721810 0.050325923 0.049060762 -0.066722058 0.033474393 -0.073089428 -0.013295462 0.996674776
1341845705.753738 0.048377335 0.048487715 -0.063808240 0.033331510 -0.072284043 -0.014646057 0.996719360
1341845705.789861 0.054691873 0.049429078 -0.061813518 0.033434875 -0.072413705 -0.013679646 0.996720195
1341845705.821704 0.040935036 0.047618885 -0.058981843 0.032915976 -0.069987617 -0.013811343 0.996908963
1341845705.863629 0.042862497 0.045002144 -0.062572956 0.033096820 -0.070932247 -0.013291517 0.996843278
1341845705.895623 0.035925612 0.043357484 -0.060246766 0.034557696 -0.071584053 -0.012523998 0.996757090
1341845705.931726 0.034399830 0.045132548 -0.059408858 0.036074929 -0.073668286 -0.010973361 0.996569693
1341845705.963641 0.044890817 0.049994908 -0.063982584 0.036636993 -0.076695606 -0.011849491 0.996310711
1341845705.995677 0.051143374 0.053240843 -0.063888878 0.035691939 -0.077079140 -0.015738405 0.996261597
1341845706.031837 0.054210529 0.056227379 -0.058037158 0.033791251 -0.075778857 -0.016507355 0.996415198
1341845706.063631 0.043252282 0.049602438 -0.057289392 0.031989530 -0.074878685 -0.016662166 0.996540129
1341845706.095737 0.044394881 0.051884674 -0.057784148 0.032619216 -0.076688550 -0.018313136 0.996353090
1341845706.131716 0.055812698 0.057247851 -0.054524936 0.032150682 -0.077799357 -0.018436462 0.996279955
1341845706.163718 0.048505757 0.048304096 -0.054282323 0.030251456 -0.075188644 -0.018709246 0.996534765
1341845706.195662 0.052353293 0.054595362 -0.052798357 0.031912778 -0.076512538 -0.017237104 0.996408701
1341845706.231610 0.047357071 0.053833961 -0.047009338 0.030800505 -0.075210541 -0.017013717 0.996546686
1341845706.263724 0.046379741 0.049607571 -0.049735002 0.028990244 -0.073013119 -0.016501216 0.996773005
1341845706.299838 0.037866615 0.048523325 -0.051004454 0.027869860 -0.071429022 -0.015743168 0.996931970
1341845706.331753 0.044569086 0.051729150 -0.051147737 0.027716862 -0.073062867 -0.016286813 0.996809065
1341845706.363574 0.047581621 0.051030084 -0.048581183 0.027418217 -0.073268838 -0.016064316 0.996805847
1341845706.399690 0.047538310 0.052635908 -0.048017789 0.027985906 -0.073882028 -0.015320804 0.996756494
1341845706.431735 0.050361544 0.052637484 -0.045566838 0.028129937 -0.073856503 -0.015454537 0.996752262
1341845706.463612 0.050509904 0.052251600 -0.045123413 0.028115440 -0.073086046 -0.013915012 0.996832132
1341845706.499655 0.041461147 0.049361605 -0.039694235 0.028463898 -0.072665617 -0.012535661 0.996871293
1341845706.531782 0.048468355 0.048274755 -0.041729476 0.029067500 -0.074303903 -0.013267048 0.996723592
1341845706.563559 0.051161580 0.047667198 -0.036783408 0.029343531 -0.072508492 -0.013027024 0.996850908
1341845706.599529 0.042783737 0.045193270 -0.045454599 0.029898586 -0.069759376 -0.012807280 0.997033477
1341845706.631786 0.045576774 0.045870718 -0.041188478 0.031833369 -0.071567386 -0.014057066 0.996828556
1341845706.667647 0.050172634 0.045295853 -0.042730771 0.032312009 -0.071027003 -0.013903909 0.996853948
1341845706.700732 0.048817910 0.048249643 -0.040250670 0.032950703 -0.068693452 -0.013341153 0.997004271
1341845706.732115 0.047154218 0.044040553 -0.045205016 0.033039089 -0.067842513 -0.013144281 0.997062206
1341845706.768143 0.050856821 0.043671548 -0.040572029 0.033726882 -0.068272755 -0.011516749 0.997029960
1341845706.800357 0.048995536 0.042614963 -0.047525644 0.034059685 -0.067078866 -0.010406506 0.997111857
1341845706.832602 0.066406436 0.047920223 -0.048119210 0.034547050 -0.069863334 -0.008168043 0.996924698
1341845706.869449 0.064518005 0.051591933 -0.046765391 0.034594741 -0.069409952 -0.008545537 0.996951580
1341845706.933651 0.063165247 0.051569059 -0.044026576 0.033791777 -0.069829218 -0.007538248 0.996957958
1341845706.994021 0.063725226 0.052664481 -0.046627652 0.032818463 -0.069496803 -0.005592302 0.997026503
1341845707.029674 0.063471861 0.048816163 -0.044805609 0.032890167 -0.069988266 -0.004326137 0.996996045
1341845707.061864 0.065960072 0.049019966 -0.047352083 0.033458170 -0.069884077 -0.004335498 0.996984422
1341845707.097704 0.064559601 0.046408109 -0.043174308 0.033439424 -0.068605334 -0.003717147 0.997076392
1341845707.129770 0.064554766 0.046431176 -0.043420035 0.035658747 -0.068658039 -0.002547110 0.996999502
1341845707.161817 0.065067574 0.046560362 -0.044506244 0.038072586 -0.069244556 -0.002867346 0.996868849
1341845707.197721 0.066877387 0.044819802 -0.043082114 0.038671404 -0.068153679 -0.003126069 0.996920168
1341845707.229795 0.070776574 0.041723255 -0.048051290 0.038851365 -0.067701116 -0.003735422 0.996941924
1341845707.261851 0.070328005 0.040591180 -0.047168680 0.039140366 -0.067581058 -0.002690712 0.996942103
1341845707.297710 0.073158965 0.043838676 -0.051268674 0.039642677 -0.066854306 -0.002990247 0.996970415
1341845707.329761 0.072423510 0.041626345 -0.046233281 0.038774543 -0.065322779 -0.003717061 0.997103631
1341845707.365850 0.076578014 0.040092546 -0.043130804 0.039018601 -0.064469509 -0.001915042 0.997154772
1341845707.397796 0.077500314 0.041439548 -0.042616710 0.040377181 -0.064834565 0.000994644 0.997078359
1341845707.429752 0.075796284 0.037003148 -0.046249248 0.040722083 -0.064196363 0.000872162 0.997105718
1341845707.465767 0.079005755 0.040877264 -0.042640593 0.042242024 -0.063157804 0.000643401 0.997108996
1341845707.497642 0.079488859 0.041247688 -0.043260101 0.042824615 -0.061660673 0.000954433 0.997177601
1341845707.533665 0.079340868 0.036770094 -0.039779060 0.043305054 -0.060388617 0.001106246 0.997234523
1341845707.565754 0.083146639 0.036796041 -0.042407934 0.044275019 -0.058539752 0.000350004 0.997302711
1341845707.597603 0.083971418 0.037445709 -0.043983106 0.044645328 -0.056816593 0.000338247 0.997385859
1341845707.633748 0.078634329 0.040321302 -0.041353334 0.045538623 -0.055876739 0.001439882 0.997397602
1341845707.665870 0.084183849 0.037472621 -0.044101022 0.045579977 -0.056792818 0.002099331 0.997342765
1341845707.698455 0.085454985 0.042209849 -0.037311677 0.045717251 -0.056154218 0.002045736 0.997372806
1341845707.734303 0.081920035 0.040917676 -0.042369552 0.044892110 -0.055034287 0.000905682 0.997474372
1341845707.766259 0.083155185 0.039326347 -0.037744932 0.044755936 -0.055699244 0.001487012 0.997442842
1341845707.836344 0.083224483 0.039476238 -0.042218562 0.046348199 -0.055470515 0.000963071 0.997383535
1341845707.866230 0.082881130 0.039305430 -0.042563871 0.046133656 -0.056075636 0.000765900 0.997359812
1341845707.901694 0.084340475 0.039326463 -0.040436905 0.045652296 -0.056636468 0.002139650 0.997348249
1341845707.933640 0.080823198 0.038586710 -0.037845720 0.045884803 -0.056742221 0.002060479 0.997331798
1341845707.965831 0.087184414 0.040976055 -0.036585312 0.046625692 -0.057834331 0.002104720 0.997234583
1341845708.001954 0.083563194 0.037109189 -0.043027446 0.045918558 -0.056411151 0.001845209 0.997349441
1341845708.034393 0.083453700 0.039572682 -0.038297575 0.046598550 -0.057411134 0.001523932 0.997261345
1341845708.069946 0.085468926 0.040187690 -0.039140191 0.046231464 -0.057584465 0.000743839 0.997269332
1341845708.101700 0.082858555 0.039883591 -0.036961641 0.045755085 -0.057273831 0.000997741 0.997308969
1341845708.133697 0.084154986 0.037552696 -0.043947704 0.045821805 -0.058141820 0.000367837 0.997256100
1341845708.169675 0.081844382 0.039995149 -0.039279193 0.046137113 -0.058315568 0.000125907 0.997231483
1341845708.201793 0.083390422 0.037298035 -0.044226170 0.045437507 -0.058153156 -0.000669060 0.997272849
1341845708.233744 0.083314143 0.037113380 -0.042412151 0.045861706 -0.059281792 -0.000883109 0.997186840
1341845708.269711 0.082687370 0.036584977 -0.040094845 0.046198640 -0.059957102 -0.000327316 0.997131228
1341845708.301629 0.083318271 0.036917739 -0.042610787 0.046434421 -0.060496092 -0.001279396 0.997087002
1341845708.337612 0.083446197 0.036793679 -0.042670567 0.045888342 -0.060278758 -0.003080107 0.997121453
1341845708.369900 0.083670892 0.037021644 -0.043036837 0.045613706 -0.060004637 -0.003620908 0.997148812
1341845708.401883 0.082954608 0.036677673 -0.041936453 0.045793124 -0.060699739 -0.003795916 0.997097850
1341845708.443610 0.083831400 0.037309062 -0.043748923 0.046148237 -0.060768146 -0.004583881 0.997074008
1341845708.501776 0.083745711 0.037313290 -0.043832690 0.045406859 -0.062228084 -0.003268397 0.997023165
1341845708.543852 0.084852822 0.038217932 -0.045720153 0.045862328 -0.064184234 -0.002615259 0.996880233
1341845708.605675 0.086149283 0.039171334 -0.046728507 0.045087997 -0.065610901 -0.005103901 0.996813059
1341845708.637641 0.085425541 0.038817972 -0.047034644 0.044924650 -0.067551695 -0.005040278 0.996691108
1341845708.669692 0.085367814 0.038657788 -0.045485295 0.045169752 -0.069062762 -0.006931661 0.996565104
1341845708.705736 0.082316071 0.043449618 -0.049173001 0.044892315 -0.068058297 -0.008195627 0.996637166
1341845708.738027 0.081537127 0.042924970 -0.047708973 0.044401128 -0.068945333 -0.008104502 0.996598899
1341845708.773829 0.081912898 0.043016277 -0.048154689 0.044443734 -0.071065873 -0.008712975 0.996442914
1341845708.805763 0.082016967 0.043031815 -0.048619043 0.043652833 -0.071155660 -0.009925058 0.996460140
1341845708.838653 0.080051631 0.042956028 -0.047858085 0.043351207 -0.071594320 -0.011097484 0.996429503
1341845708.873912 0.080511734 0.043177187 -0.048523031 0.043414939 -0.072956041 -0.011828336 0.996319532
1341845708.905735 0.080155112 0.042471867 -0.047371376 0.042997181 -0.073076881 -0.012882054 0.996315777
1341845708.938426 0.081304863 0.043481667 -0.049623210 0.043045409 -0.073813617 -0.014425069 0.996238172
1341845708.973642 0.080742292 0.043030210 -0.048704475 0.043034326 -0.074974068 -0.013889595 0.996159613
1341845709.005742 0.080511473 0.043419950 -0.048854537 0.042641025 -0.075719506 -0.014502462 0.996111453
1341845709.041686 0.082289815 0.043552596 -0.050480530 0.042343780 -0.076605447 -0.014388341 0.996058047
1341845709.073656 0.081467114 0.043126658 -0.048871726 0.042076506 -0.077279754 -0.015788604 0.995996058
1341845709.105658 0.081776798 0.044014398 -0.050925463 0.042215984 -0.077980153 -0.016231000 0.995928466
1341845709.141741 0.083399661 0.044083163 -0.050742041 0.042017017 -0.079592861 -0.016586890 0.995803416
1341845709.173646 0.082773000 0.043685146 -0.049570240 0.041529391 -0.079382300 -0.016582118 0.995840728
1341845709.205765 0.082409911 0.044043399 -0.050773155 0.040938318 -0.079445228 -0.016930424 0.995854318
1341845709.241765 0.082733832 0.044051819 -0.051285330 0.040394794 -0.079437785 -0.017112998 0.995873988
1341845709.273754 0.082977571 0.043838181 -0.050022911 0.040035699 -0.079154558 -0.016749244 0.995917261
1341845709.309890 0.083262525 0.044211332 -0.050651677 0.040047288 -0.079432450 -0.015223320 0.995919168
1341845709.341728 0.083922222 0.044463508 -0.051993605 0.039357763 -0.079733811 -0.014770690 0.995929360
1341845709.373776 0.085667461 0.045615602 -0.056598600 0.038391288 -0.079642169 -0.014434723 0.995979369
1341845709.409657 0.086331308 0.046121150 -0.057918720 0.036604699 -0.079796091 -0.013327632 0.996049702
1341845709.442072 0.084829688 0.045045152 -0.054945387 0.034069646 -0.080196798 -0.010539571 0.996140897
1341845709.473660 0.084008500 0.045202836 -0.054288425 0.032687772 -0.080469325 -0.009779129 0.996172965
1341845709.509632 0.079965666 0.052769862 -0.056722984 0.032014661 -0.079572968 -0.009691935 0.996267676
1341845709.541673 0.076843061 0.050492845 -0.053134810 0.029593257 -0.080343306 -0.009583569 0.996281803
1341845709.578645 0.075863793 0.052191574 -0.053922992 0.028915582 -0.081264913 -0.009867396 0.996224165
1341845709.609672 0.076828510 0.050679788 -0.053624406 0.028510507 -0.082788445 -0.010762185 0.996101081
1341845709.642057 0.075905338 0.049785431 -0.051447451 0.028134119 -0.083637387 -0.010376489 0.996044993
1341845709.709730 0.076925151 0.050542310 -0.053575668 0.027132377 -0.084850587 -0.011391505 0.995959103
1341845709.745593 0.077602170 0.051259767 -0.055458099 0.026633555 -0.084819086 -0.011519440 0.995973766
1341845709.777709 0.076590188 0.050517447 -0.053385139 0.026051009 -0.085287184 -0.010039140 0.995965183
1341845709.809687 0.076142155 0.050605290 -0.054852422 0.026294388 -0.085047893 -0.011575199 0.995962620
1341845709.845686 0.080219127 0.054096978 -0.053726736 0.026779402 -0.083975501 -0.013227860 0.996020079
1341845709.878752 0.077060439 0.050595131 -0.053827953 0.026159495 -0.081647024 -0.014807662 0.996207893
1341845709.909693 0.077619039 0.050866634 -0.054522596 0.027041145 -0.081533186 -0.013146268 0.996217012
1341845709.945663 0.076172769 0.049777642 -0.051820811 0.028650459 -0.082614467 -0.012578958 0.996090293
1341845709.977698 0.080095299 0.046261027 -0.055284724 0.029371737 -0.083088860 -0.012134669 0.996035278
1341845710.013739 0.077429093 0.049398765 -0.053795218 0.030666411 -0.081992932 -0.013415843 0.996070683
1341845710.045754 0.079071209 0.047231492 -0.055422649 0.030919047 -0.081730783 -0.013482988 0.996083498
1341845710.077705 0.076146007 0.050786667 -0.054253977 0.031565610 -0.081837751 -0.014157460 0.996045053
1341845710.113730 0.079091698 0.049009126 -0.052112870 0.031347699 -0.081913255 -0.014114110 0.996046364
1341845710.145759 0.077342220 0.051031291 -0.054697961 0.031760361 -0.081740089 -0.013623541 0.996054351
1341845710.177824 0.078031234 0.048006266 -0.054112017 0.031812873 -0.082702257 -0.013241434 0.995978415
1341845710.213581 0.079307832 0.048663445 -0.054287817 0.032288074 -0.082892179 -0.013407709 0.995945096
1341845710.245636 0.078167140 0.046112694 -0.055569910 0.032697096 -0.083018474 -0.013940762 0.995913923
1341845710.281582 0.073730059 0.047061432 -0.057717320 0.034933791 -0.084212795 -0.015924642 0.995707929
1341845710.313617 0.077950671 0.048018835 -0.059096344 0.035434153 -0.085090734 -0.015791096 0.995617688
1341845710.345643 0.074119173 0.047665089 -0.059349716 0.035346329 -0.084068045 -0.014944092 0.995720804
1341845710.381860 0.074921690 0.046187706 -0.059423290 0.035945591 -0.084771261 -0.015243234 0.995635152
1341845710.413817 0.079931967 0.047739215 -0.057626225 0.036354795 -0.085796647 -0.014846201 0.995538473
1341845710.445824 0.080186509 0.047358524 -0.058015008 0.035674650 -0.085130416 -0.013735288 0.995636225
1341845710.481794 0.075992905 0.046971947 -0.058839191 0.035536602 -0.085290402 -0.014242765 0.995620310
1341845710.513650 0.076640666 0.048435535 -0.057580225 0.035880532 -0.085531548 -0.013583239 0.995596528
1341845710.549635 0.074260615 0.045322359 -0.055708237 0.035962094 -0.085334137 -0.013113499 0.995616794
1341845710.581654 0.079665601 0.047506325 -0.060516261 0.037454776 -0.086389810 -0.013110314 0.995470762
1341845710.613694 0.076427832 0.047598947 -0.059277859 0.037309196 -0.085518122 -0.012296032 0.995561898
1341845710.649564 0.079349443 0.045565519 -0.058092643 0.037371509 -0.086025357 -0.011439774 0.995526075
1341845710.681648 0.079970658 0.046395503 -0.058194481 0.038328763 -0.086166106 -0.012217764 0.995468259
1341845710.713728 0.080619544 0.046152353 -0.056226309 0.038490824 -0.085629418 -0.011704275 0.995514452
1341845710.749785 0.079953797 0.045431983 -0.056287710 0.038583290 -0.085016683 -0.010805963 0.995573580
1341845710.781816 0.080817707 0.045859065 -0.057889827 0.039169230 -0.085116386 -0.011274011 0.995536983
1341845710.817567 0.081016898 0.046340100 -0.058591124 0.039355688 -0.084432006 -0.012179238 0.995577276
1341845710.850205 0.081668854 0.047180980 -0.059330054 0.039051328 -0.083802015 -0.010882217 0.995657504
1341845710.882136 0.080263160 0.046935529 -0.059188437 0.038801730 -0.084183559 -0.010035759 0.995643914
1341845710.917631 0.081812456 0.046159528 -0.059167456 0.038667157 -0.084288746 -0.010936892 0.995630801
1341845710.950281 0.079930894 0.046277616 -0.056600749 0.038522072 -0.083339721 -0.010320666 0.995722890
1341845710.985647 0.078842469 0.044652648 -0.059765935 0.039518990 -0.084008798 -0.009726795 0.995633543
1341845711.017722 0.080171436 0.047084007 -0.057959221 0.041240189 -0.085623026 -0.012048220 0.995400846
1341845711.049965 0.086888768 0.047065202 -0.059515294 0.039866049 -0.084467575 -0.013736956 0.995533645
1341845711.085583 0.079337433 0.046024274 -0.055488192 0.038872276 -0.081277348 -0.013130071 0.995846689
1341845711.117670 0.080464743 0.045934420 -0.056789875 0.039662138 -0.082689472 -0.012278533 0.995710075
1341845711.149770 0.080811419 0.046433087 -0.056673873 0.039760411 -0.082881533 -0.012059482 0.995692909
1341845711.191691 0.084231399 0.045124620 -0.055095240 0.038465694 -0.081840359 -0.011928856 0.995831430
1341845711.253627 0.084845386 0.046040211 -0.055417392 0.039612446 -0.084606551 -0.011224332 0.995563447
1341845711.285627 0.084708035 0.045591231 -0.055429429 0.038578913 -0.084552214 -0.012120746 0.995598137
1341845711.317874 0.085186996 0.046014715 -0.056471847 0.037902478 -0.083648890 -0.012608296 0.995694399
1341845711.353756 0.087016471 0.047122456 -0.059803698 0.036728740 -0.083001502 -0.014240848 0.995770514
1341845711.385687 0.085023738 0.045195408 -0.054310512 0.034896310 -0.081106067 -0.014446496 0.995989621
1341845711.417635 0.083957538 0.045525301 -0.053871147 0.034695130 -0.080777936 -0.013073510 0.996042311
1341845711.485895 0.083647788 0.044961322 -0.053711481 0.036440760 -0.082763605 -0.011807421 0.995832741
1341845711.521704 0.083428673 0.044732794 -0.053245928 0.036913525 -0.082055770 -0.011438692 0.995878220
1341845711.553696 0.084003523 0.045153316 -0.054488514 0.037338898 -0.081814215 -0.011411132 0.995882571
1341845711.585708 0.085082881 0.045740284 -0.056240615 0.036459450 -0.081029803 -0.012115235 0.995970964
1341845711.621659 0.083998226 0.045037024 -0.054197434 0.035766616 -0.079795837 -0.011934469 0.996097863
1341845711.653731 0.084067345 0.045097478 -0.054373831 0.035951316 -0.080278143 -0.011251796 0.996060431
1341845711.685758 0.084018387 0.045054853 -0.054132693 0.036086485 -0.080379546 -0.011085645 0.996049225
1341845711.721850 0.083924390 0.045119878 -0.054036658 0.036390528 -0.080105297 -0.009950513 0.996072233
1341845711.754323 0.083872713 0.045250349 -0.054357823 0.036806777 -0.081020735 -0.009081857 0.995991170
1341845711.789716 0.084494621 0.044985898 -0.053272244 0.036984898 -0.081989422 -0.009670831 0.995899737
1341845711.821820 0.084400229 0.045569576 -0.054465529 0.037222505 -0.081542641 -0.009949361 0.995924830
1341845711.854173 0.084557466 0.045405902 -0.055563249 0.037629467 -0.081403226 -0.011328273 0.995906234
1341845711.889875 0.085047945 0.045135893 -0.054414637 0.036950391 -0.079929456 -0.012463439 0.996037483
1341845711.923959 0.085305803 0.046081454 -0.056148939 0.036144178 -0.077773750 -0.011740825 0.996246457
1341845711.957595 0.084897868 0.045642223 -0.055929702 0.035393596 -0.077621095 -0.013182445 0.996267259
1341845711.989820 0.085223474 0.046150394 -0.055931494 0.034814171 -0.076770499 -0.014637787 0.996333301
1341845712.057899 0.085561648 0.046251666 -0.056439951 0.033711895 -0.076792397 -0.012135438 0.996403098
1341845712.090038 0.085891813 0.046193991 -0.057441715 0.032704238 -0.075502515 -0.016162012 0.996478081
1341845712.127587 0.084613755 0.045479644 -0.055055499 0.031216519 -0.073063448 -0.015989726 0.996710420
1341845712.195638 0.082031615 0.047136031 -0.054405771 0.033568840 -0.077929422 -0.013296595 0.996304870
1341845712.257830 0.081892125 0.046922773 -0.053310573 0.032070979 -0.074331626 -0.016485404 0.996581435
1341845712.289935 0.079896837 0.046122804 -0.054942660 0.032265108 -0.074700758 -0.015382679 0.996565163
