1341845688.561749 0.000000000 0.000000000 0.000000000 0.000000000 0.000000000 0.000000000 1.000000000
1341845688.593654 -0.004961949 -0.004805914 -0.002325077 0.000142264 -0.002512660 0.003629792 0.999990225
1341845688.629688 -0.008124930 0.001668069 -0.005413676 0.002539170 -0.007278914 0.007466280 0.999942422
1341845688.663680 -0.011263425 -0.001129375 -0.005267028 0.004071204 -0.012092349 0.012142558 0.999844849
1341845688.697719 -0.016924145 -0.006169944 -0.011211269 0.006505616 -0.016860599 0.017633680 0.999681175
1341845688.729899 -0.015293972 -0.004671381 -0.018910719 0.010984409 -0.023800593 0.020916533 0.999437511
1341845688.761762 0.000622363 0.002857231 -0.016694024 0.014428271 -0.029390961 0.022485472 0.999210894
1341845688.797687 0.003765247 0.004782472 -0.019013345 0.015565006 -0.028144250 0.020996196 0.999262094
1341845688.829892 0.003114190 0.005373591 -0.020020727 0.015414139 -0.025950829 0.019387119 0.999356329
1341845688.865774 0.000041817 0.004773790 -0.022589136 0.014756525 -0.025500719 0.019689426 0.999371946
1341845688.929779 -0.019381862 0.011725173 -0.034488086 0.015827145 -0.029478420 0.020279136 0.999234319
1341845688.965631 -0.014896178 0.012150790 -0.032047201 0.015625695 -0.032894854 0.019050198 0.999155104
1341845688.997750 -0.008206933 0.023128182 -0.044407208 0.015297621 -0.033046722 0.015301486 0.999219596
1341845689.029751 -0.016253334 0.020231219 -0.044938561 0.010862348 -0.029206337 0.008730737 0.999476254
1341845689.065755 -0.015485947 0.023799075 -0.045260224 0.007389158 -0.027889216 0.007363886 0.999556541
1341845689.097725 -0.015817756 0.022640865 -0.042315286 0.003168552 -0.027271083 0.010758257 0.999565125
1341845689.133718 -0.013369847 0.031695373 -0.043554459 0.002292354 -0.026688172 0.012598808 0.999561787
1341845689.165884 -0.016203916 0.041966908 -0.040114090 0.001068281 -0.025534214 0.016840575 0.999531507
1341845689.198264 -0.012545636 0.032278370 -0.044035979 -0.004247325 -0.025937898 0.019463100 0.999465048
1341845689.234322 -0.014836245 0.030354863 -0.044816028 -0.006858624 -0.024541248 0.020885162 0.999457121
1341845689.265745 -0.018859265 0.033391915 -0.043000109 -0.007669330 -0.023632487 0.023499524 0.999415040
1341845689.297769 -0.016972220 0.036331978 -0.045904990 -0.008592313 -0.024363028 0.024050400 0.999376893
1341845689.333650 -0.013757511 0.029887181 -0.044243470 -0.010694016 -0.023948228 0.023715112 0.999374688
1341845689.365881 -0.017028771 0.027736528 -0.045319721 -0.010597895 -0.023023874 0.023025414 0.999413550
1341845689.401592 -0.021016862 0.033857044 -0.052788641 -0.008353085 -0.023191379 0.022100713 0.999451816
1341845689.433744 -0.019046923 0.034602348 -0.052388109 -0.007696497 -0.024564823 0.022166377 0.999422848
1341845689.465651 -0.025431730 0.032007370 -0.051150721 -0.004895850 -0.025019120 0.021300761 0.999448001
1341845689.501840 -0.028428445 0.033498749 -0.056203332 -0.001040921 -0.027919484 0.018119721 0.999445379
1341845689.533687 -0.016843205 0.033174474 -0.048594669 0.000840788 -0.031373184 0.015253713 0.999391019
1341845689.565814 -0.015900318 0.031341333 -0.048413381 0.002901768 -0.031507291 0.012251739 0.999424219
1341845689.601682 -0.023537252 0.027316052 -0.057571426 0.005173413 -0.031981695 0.008871782 0.999435663
1341845689.633591 -0.023650115 0.032728288 -0.054023843 0.007920619 -0.035064578 0.004486143 0.999343574
1341845689.669672 -0.026572451 0.033358522 -0.052930295 0.008975239 -0.036034405 0.002742783 0.999306500
1341845689.701700 -0.033462528 0.036947004 -0.062121134 0.010661999 -0.037672583 0.001782586 0.999231696
1341845689.733773 -0.028201822 0.034151696 -0.065007813 0.010255026 -0.041350637 0.001103449 0.999091446
1341845689.769822 -0.024413522 0.037306949 -0.059092756 0.011118748 -0.043463118 -0.000141900 0.998993158
1341845689.802003 -0.030370096 0.037617944 -0.061199132 0.011404746 -0.044334445 -0.001143106 0.998951018
1341845689.833757 -0.028663224 0.036918238 -0.056779891 0.012118952 -0.047702856 -0.002880393 0.998783886
1341845689.869861 -0.025360303 0.032568827 -0.058199726 0.012251224 -0.050242160 -0.003532825 0.998655677
1341845689.901825 -0.028199578 0.037756432 -0.057821002 0.013245311 -0.051494665 -0.003538851 0.998579144
1341845689.937674 -0.029917507 0.038165692 -0.057771362 0.014429019 -0.053514548 -0.003341579 0.998457253
1341845689.969679 -0.023262192 0.037465833 -0.061118931 0.014255897 -0.055814505 -0.002981100 0.998334944
1341845690.003830 -0.024524771 0.038521886 -0.063163996 0.014203642 -0.055635713 -0.003033566 0.998345494
1341845690.037686 -0.025727088 0.037060466 -0.059428103 0.014144753 -0.055755612 -0.005119751 0.998331130
1341845690.069636 -0.024691885 0.037703011 -0.061499495 0.014666218 -0.055459600 -0.004772784 0.998341799
1341845690.106587 -0.030233862 0.039701533 -0.063768469 0.014843964 -0.055108659 -0.004129784 0.998361468
1341845690.138859 -0.024701506 0.038939945 -0.061931740 0.014464866 -0.056345575 -0.004920750 0.998294413
1341845690.169919 -0.022669990 0.037238978 -0.061848272 0.014388551 -0.055954780 -0.004442122 0.998319745
1341845690.206103 -0.023382783 0.038620297 -0.065733269 0.014120184 -0.055896401 -0.004210989 0.998327851
1341845690.237700 -0.033202969 0.033936076 -0.065175265 0.012463666 -0.055070315 -0.005126283 0.998391509
1341845690.269981 -0.033763729 0.033599962 -0.067366950 0.013229382 -0.056242432 -0.005539404 0.998314142
1341845690.306143 -0.033490423 0.034419324 -0.066965789 0.013654974 -0.057424884 -0.006492527 0.998235345
1341845690.338646 -0.031845797 0.040548861 -0.068645038 0.013790564 -0.057789821 -0.005490607 0.998218417
1341845690.373833 -0.031607453 0.038412318 -0.068585448 0.012417141 -0.058225330 -0.005177339 0.998212814
1341845690.405976 -0.032181129 0.034622621 -0.065149888 0.012009808 -0.058216423 -0.007094363 0.998206556
1341845690.437908 -0.030092038 0.038460229 -0.065281011 0.012635572 -0.058166780 -0.006628518 0.998204887
1341845690.473654 -0.034100603 0.035214014 -0.065129071 0.012053516 -0.058305707 -0.005341995 0.998211741
1341845690.505978 -0.030837491 0.035129782 -0.066663206 0.012635115 -0.060361318 -0.005452227 0.998081744
1341845690.537884 -0.029856598 0.040565394 -0.064046122 0.013760915 -0.060519129 -0.007197694 0.998046219
1341845690.573708 -0.030129377 0.039822213 -0.063444324 0.012869198 -0.059077930 -0.006805774 0.998147190
1341845690.605848 -0.032906547 0.034628391 -0.063985437 0.011979125 -0.058285102 -0.005412981 0.998213470
1341845690.641747 -0.033341449 0.033891954 -0.064676948 0.012687138 -0.058758475 -0.005929929 0.998174012
1341845690.673751 -0.027022045 0.038099200 -0.064864337 0.013274875 -0.058749538 -0.005790124 0.998167694
1341845690.706003 -0.029807109 0.033084709 -0.061980657 0.013007032 -0.057136100 -0.006658947 0.998259485
1341845690.741684 -0.028778575 0.034419913 -0.063368447 0.013932995 -0.056790784 -0.006962928 0.998264611
1341845690.773770 -0.024762398 0.035764527 -0.059752427 0.014382738 -0.056734439 -0.006515024 0.998264432
1341845690.805715 -0.026017509 0.036457580 -0.061763193 0.014915346 -0.055439841 -0.005992258 0.998332620
1341845690.841674 -0.024109988 0.037113730 -0.061715744 0.015229158 -0.055128776 -0.005370435 0.998348653
1341845690.873770 -0.023889983 0.038827993 -0.062250651 0.015061047 -0.054383609 -0.005506173 0.998391330
1341845690.909837 -0.025207454 0.035463519 -0.059753750 0.014204345 -0.053434405 -0.004787319 0.998458862
1341845690.941576 -0.022594243 0.036932837 -0.063286297 0.014223859 -0.053589713 -0.004208563 0.998452842
1341845690.973879 -0.021570880 0.034908980 -0.061327659 0.014057216 -0.053300068 -0.004437767 0.998469710
1341845691.011558 -0.019706560 0.037375011 -0.061148785 0.014159624 -0.052711911 -0.003273709 0.998504043
1341845691.077986 -0.027839718 0.032436389 -0.060577612 0.014041544 -0.051534530 -0.005279696 0.998558581
1341845691.109685 -0.018844472 0.036208563 -0.060627840 0.015008343 -0.052147076 -0.005077926 0.998513699
1341845691.141759 -0.022392478 0.036784537 -0.060816947 0.015608743 -0.050548334 -0.004715784 0.998588502
1341845691.177729 -0.022677353 0.037106000 -0.061420839 0.016494831 -0.050773222 -0.005867720 0.998556733
1341845691.209644 -0.013883664 0.039104808 -0.060981516 0.016722690 -0.052207481 -0.006540965 0.998474836
1341845691.241757 -0.019562980 0.036725834 -0.060097136 0.016253842 -0.049983084 -0.007416360 0.998590291
1341845691.277595 -0.024445418 0.034508843 -0.063246220 0.016887499 -0.049504519 -0.006423802 0.998610437
1341845691.310138 -0.023268254 0.039653387 -0.064442776 0.017961238 -0.051626183 -0.007777605 0.998474658
1341845691.345620 -0.016600939 0.036844891 -0.062102433 0.017498730 -0.051819693 -0.008977398 0.998462796
1341845691.378062 -0.015430741 0.034663033 -0.065209009 0.017680394 -0.049960017 -0.009365830 0.998550773
1341845691.451922 -0.011654611 0.040672876 -0.068549789 0.018917749 -0.050061792 -0.010545244 0.998511255
1341845691.509739 -0.013134302 0.039354432 -0.063739285 0.018022427 -0.048482969 -0.010031397 0.998611033
1341845691.545833 -0.014723271 0.038157478 -0.067706227 0.018011896 -0.048446093 -0.012543632 0.998584628
1341845691.578399 -0.013300571 0.040253121 -0.067536063 0.017350245 -0.047236316 -0.015079651 0.998619199
1341845691.613857 -0.010415937 0.036100592 -0.066752449 0.017011454 -0.044588886 -0.019032732 0.998679221
1341845691.645632 -0.009813690 0.034812428 -0.058835376 0.018340925 -0.041805990 -0.021477163 0.998726487
1341845691.677793 -0.017880397 0.038102347 -0.065527201 0.019504759 -0.040743124 -0.019101499 0.998796642
1341845691.713727 -0.016551849 0.037054677 -0.065763287 0.019654898 -0.042571906 -0.016802469 0.998758733
1341845691.746050 -0.014540400 0.037572052 -0.064974770 0.020156655 -0.042789795 -0.018760014 0.998704553
1341845691.778411 -0.009866332 0.041943029 -0.068626337 0.019454988 -0.040729620 -0.019740913 0.998785734
1341845691.813646 -0.014115396 0.037337951 -0.065539330 0.017775241 -0.039212324 -0.018304620 0.998905122
1341845691.845603 -0.014671819 0.036781672 -0.065343611 0.017734360 -0.040246326 -0.016933810 0.998888850
1341845691.881595 -0.012592535 0.040969238 -0.063544340 0.018560879 -0.041418273 -0.018754903 0.998793423
1341845691.913600 -0.010787132 0.037269786 -0.064113118 0.018218851 -0.040623836 -0.018629871 0.998834670
1341845691.945997 -0.020029413 0.035866771 -0.064944819 0.018580057 -0.040049311 -0.016016407 0.998896539
1341845691.981657 -0.021388819 0.037140645 -0.066163279 0.020748543 -0.044599842 -0.013462656 0.998698711
1341845692.013904 -0.014237103 0.038602516 -0.060357247 0.022757355 -0.049338561 -0.012057114 0.998449981
1341845692.049676 -0.012766926 0.039193321 -0.062436894 0.023257535 -0.050153721 -0.011013949 0.998409927
1341845692.081862 -0.013514436 0.038004775 -0.060526215 0.023631407 -0.050990086 -0.010583107 0.998363435
1341845692.113695 -0.011410892 0.039695088 -0.061743323 0.024458678 -0.052278239 -0.011338505 0.998268604
1341845692.149736 -0.005445479 0.038902294 -0.062816396 0.023971407 -0.052359849 -0.011845155 0.998270214
1341845692.182123 -0.005202275 0.036526978 -0.061498836 0.024693079 -0.051502127 -0.011339098 0.998303115
1341845692.213661 -0.004267554 0.038240667 -0.063842617 0.025854871 -0.052036092 -0.010385464 0.998256445
1341845692.249828 -0.003896513 0.038757320 -0.065070108 0.025727548 -0.051854022 -0.010521162 0.998267770
1341845692.282146 -0.006041356 0.038018472 -0.065389544 0.025081370 -0.050672647 -0.011133822 0.998338223
1341845692.317711 -0.009402569 0.038701795 -0.064094089 0.024922336 -0.050982252 -0.011634042 0.998320758
1341845692.349688 -0.007258896 0.034884896 -0.065491363 0.024922751 -0.052335657 -0.011699869 0.998249948
1341845692.381560 -0.002005392 0.032904111 -0.066705726 0.025921382 -0.053231299 -0.012388246 0.998168826
1341845692.417776 -0.005486060 0.035320535 -0.065993600 0.027210195 -0.052292190 -0.014237425 0.998159528
1341845692.449672 -0.003654374 0.034817431 -0.068089552 0.027802151 -0.052575495 -0.015040238 0.998116553
1341845692.481594 -0.002923845 0.033555139 -0.068307608 0.028592484 -0.052991826 -0.015944337 0.998058140
1341845692.517778 0.001012513 0.032461617 -0.072359905 0.029597253 -0.054005016 -0.015372673 0.997983575
1341845692.549744 0.001423215 0.036088843 -0.073414654 0.031431682 -0.054089144 -0.015846564 0.997915447
1341845692.585822 0.003524335 0.035865914 -0.074840307 0.031581596 -0.054355383 -0.016750490 0.997881532
1341845692.617836 -0.000394080 0.034775738 -0.073794007 0.031908672 -0.052839410 -0.016826434 0.997951269
1341845692.649770 -0.001330257 0.032414436 -0.077775910 0.032354824 -0.052565783 -0.016157577 0.997962356
1341845692.685749 -0.003236235 0.038366411 -0.076432712 0.033415098 -0.053346686 -0.016432546 0.997881532
1341845692.717676 0.002770490 0.035611205 -0.078782335 0.033220008 -0.053832572 -0.016668819 0.997858047
1341845692.749897 -0.000121382 0.033436626 -0.080423005 0.033001401 -0.052018497 -0.015657986 0.997977853
1341845692.785833 -0.003394897 0.034908906 -0.085033596 0.034169056 -0.052340537 -0.016618809 0.997906208
1341845692.817657 0.001811511 0.035129234 -0.083652020 0.035325449 -0.053942248 -0.019357955 0.997731268
1341845692.853833 -0.001276452 0.033438001 -0.084662564 0.035910502 -0.051835034 -0.021748455 0.997772813
1341845692.885614 -0.005397781 0.030445827 -0.080646411 0.037227895 -0.051328558 -0.022396436 0.997736394
1341845692.917728 -0.001729219 0.033153508 -0.085222535 0.038497031 -0.052474044 -0.023104759 0.997612476
1341845692.953573 -0.000230617 0.040172081 -0.079900242 0.040426016 -0.052221261 -0.022923442 0.997553587
1341845692.985667 -0.005856089 0.031135103 -0.083526641 0.040305585 -0.050692011 -0.024085589 0.997609973
1341845693.017585 -0.000527583 0.037590567 -0.086597875 0.041159648 -0.051643208 -0.023436802 0.997541785
1341845693.053684 -0.004327627 0.033431705 -0.080679782 0.040616866 -0.050457679 -0.024188975 0.997606754
1341845693.086059 -0.007883257 0.033257291 -0.086186118 0.041367944 -0.049735934 -0.023335196 0.997632444
1341845693.121690 -0.004950504 0.036541443 -0.089907072 0.041973140 -0.051510144 -0.020977607 0.997569501
1341845693.153852 -0.001941379 0.039505802 -0.091326289 0.041407999 -0.052875225 -0.021205297 0.997516870
1341845693.185655 -0.002309691 0.035872396 -0.086372010 0.040369548 -0.050850563 -0.023419471 0.997615159
1341845693.221687 -0.008266791 0.036099840 -0.085113801 0.040432144 -0.049575552 -0.020472471 0.997741640
1341845693.254518 -0.010970641 0.038514376 -0.087264299 0.041301794 -0.052370895 -0.018567026 0.997600496
1341845693.289735 0.002082485 0.043852989 -0.093879059 0.042059276 -0.054307751 -0.019086516 0.997455418
1341845693.321741 0.004076616 0.038521286 -0.086816996 0.040978033 -0.049576890 -0.020401193 0.997720778
1341845693.353715 0.002068780 0.030895239 -0.093297072 0.039948568 -0.045976926 -0.018455004 0.997972786
1341845693.421993 0.004159787 0.035322413 -0.088524222 0.041113604 -0.043526672 -0.018502714 0.998034418
1341845693.453700 0.002173095 0.034048561 -0.089091405 0.041149668 -0.041438278 -0.020700300 0.998078704
1341845693.489783 0.002819413 0.031585284 -0.087828279 0.041912470 -0.040051054 -0.021299599 0.998090982
1341845693.522084 0.002685454 0.030444976 -0.087554023 0.043704327 -0.040964894 -0.019990593 0.998004079
1341845693.557666 -0.003299372 0.032656245 -0.089586519 0.045620412 -0.041475192 -0.021736369 0.997860730
1341845693.589792 0.002798398 0.036841381 -0.084622264 0.047078341 -0.042894177 -0.022708418 0.997711420
1341845693.622158 0.002221258 0.034623355 -0.086516842 0.046885330 -0.041451808 -0.023373900 0.997766078
1341845693.689929 0.005165208 0.040747568 -0.086667240 0.046576414 -0.040847227 -0.021928424 0.997838318
1341845693.721602 0.003699426 0.039972898 -0.093533210 0.044184480 -0.038841393 -0.023085035 0.998001099
1341845693.757636 0.002666409 0.041748356 -0.085645124 0.042685863 -0.038248941 -0.023453202 0.998080611
1341845693.789776 0.003321989 0.041424152 -0.084529407 0.041745853 -0.039443396 -0.022438033 0.998097241
1341845693.825637 0.004764014 0.045236714 -0.085159697 0.040673897 -0.039848030 -0.022227893 0.998130083
1341845693.857724 -0.000721086 0.036267538 -0.086390510 0.038847152 -0.038856257 -0.021752136 0.998252451
1341845693.889741 -0.001816413 0.043417837 -0.085842907 0.040358976 -0.038491815 -0.020559223 0.998231888
1341845693.925573 0.002021349 0.039474409 -0.085163653 0.039226256 -0.038766284 -0.018855672 0.998300016
1341845693.957722 0.001304800 0.035895959 -0.085862502 0.039362095 -0.038146842 -0.018521989 0.998324752
1341845693.990410 0.004174017 0.040862445 -0.080847248 0.040722426 -0.037832770 -0.018241977 0.998287320
1341845694.025740 0.008107292 0.042348377 -0.082239665 0.041356333 -0.036852989 -0.018909205 0.998285532
1341845694.057728 0.004238439 0.038166922 -0.079073116 0.041403469 -0.035618871 -0.019521128 0.998316586
1341845694.093631 0.004859725 0.038965847 -0.081340924 0.043070406 -0.035763595 -0.019052736 0.998249888
1341845694.125598 0.005451849 0.037828378 -0.081325047 0.044373367 -0.036094017 -0.018914213 0.998183608
1341845694.157890 0.000252336 0.037780125 -0.088774174 0.044793986 -0.034270745 -0.020279720 0.998202264
1341845694.193528 0.001940434 0.034226917 -0.085575171 0.045417283 -0.034205627 -0.019617056 0.998189569
1341845694.226254 -0.000015618 0.036128625 -0.084207334 0.046929516 -0.034215625 -0.020062432 0.998110414
1341845694.261793 -0.000090783 0.036491398 -0.085990742 0.047452994 -0.033724509 -0.019534655 0.998112857
1341845694.293655 0.000766555 0.034337319 -0.085537672 0.047725245 -0.034015056 -0.017763194 0.998123109
1341845694.325844 0.000127294 0.036422528 -0.085958853 0.049210533 -0.035594173 -0.015334943 0.998036146
1341845694.361761 0.002173669 0.036340632 -0.083848126 0.050769996 -0.038148675 -0.013003953 0.997896791
1341845694.393754 0.003737842 0.033847515 -0.085590094 0.051276777 -0.040353011 -0.012415620 0.997791648
1341845694.425809 0.000829892 0.036638491 -0.086006492 0.051619533 -0.041304823 -0.012600525 0.997732699
1341845694.461731 0.001951464 0.038998473 -0.085326336 0.051773980 -0.042667896 -0.013479774 0.997655869
1341845694.493931 0.008012324 0.042367566 -0.087185644 0.050658364 -0.043210056 -0.013875875 0.997684360
1341845694.529694 0.001657617 0.040668119 -0.086692922 0.049298838 -0.041934084 -0.015444532 0.997783840
1341845694.561652 0.000528143 0.037516188 -0.086015023 0.048754644 -0.043126557 -0.015853615 0.997753322
1341845694.595586 0.000196968 0.036790732 -0.087575503 0.049700525 -0.044441912 -0.014891914 0.997663796
1341845694.629850 0.000247038 0.035904184 -0.087861925 0.050818883 -0.046314929 -0.013750218 0.997538626
1341845694.661659 0.007259766 0.039262630 -0.084118694 0.052792482 -0.047828007 -0.012397395 0.997382462
1341845694.693720 0.026124695 0.043824811 -0.083571196 0.052684400 -0.046194427 -0.011401908 0.997476995
1341845694.735664 0.026695963 0.043234721 -0.082046457 0.050635636 -0.039259944 -0.010479952 0.997890174
1341845694.767988 0.027182044 0.044795625 -0.086627774 0.049037080 -0.033676889 -0.007818677 0.998198450
1341845694.803611 0.021607520 0.044462282 -0.077348940 0.047024295 -0.027426729 -0.007405145 0.998489678
1341845694.835585 0.016422749 0.041653186 -0.074752480 0.045919828 -0.022813547 -0.006821512 0.998661280
1341845694.867728 0.016146980 0.041114312 -0.077325448 0.045058973 -0.019943444 -0.006315701 0.998765290
1341845694.903566 0.020885322 0.049091816 -0.067683294 0.044614270 -0.018402394 -0.004797947 0.998823285
1341845694.935679 0.016383586 0.039477490 -0.073548868 0.043058012 -0.015652629 -0.004988398 0.998937547
1341845694.967669 0.016740158 0.039025821 -0.072813004 0.043495085 -0.014565609 -0.003277376 0.998942077
1341845695.003730 0.026898617 0.042704634 -0.068896145 0.044175249 -0.014064345 -0.001735101 0.998923242
1341845695.035689 0.026972366 0.039398562 -0.071553320 0.043562945 -0.010545769 -0.001560169 0.998993814
1341845695.072465 0.019678129 0.037167490 -0.068191588 0.043357655 -0.008040331 -0.001042798 0.999026716
1341845695.103895 0.013676729 0.038020324 -0.070230484 0.043843590 -0.008799933 -0.000862357 0.998999238
1341845695.135680 0.014015466 0.032628674 -0.074822515 0.044094324 -0.012073716 -0.000818418 0.998954058
1341845695.172193 0.019309971 0.028078223 -0.082817324 0.046496607 -0.018398196 -0.000157646 0.998748958
1341845695.203618 0.017408820 0.026935251 -0.086355992 0.049169023 -0.025591873 0.000227183 0.998462558
1341845695.235612 0.015548633 0.027885554 -0.082416631 0.052917972 -0.032886833 0.000359452 0.998057127
1341845695.271738 0.013384839 0.028359592 -0.087238535 0.055657029 -0.037936490 -0.001563935 0.997727752
1341845695.303569 0.016578743 0.032308910 -0.080402255 0.057718147 -0.042823527 -0.001748493 0.997412503
1341845695.335657 0.015488351 0.034641221 -0.075728819 0.058846489 -0.045944758 -0.004327998 0.997199833
1341845695.371706 0.013183805 0.032782987 -0.080683567 0.058782224 -0.048483793 -0.007137099 0.997067213
1341845695.403745 0.014086032 0.029969743 -0.079903990 0.058823138 -0.051768497 -0.009388792 0.996881008
1341845695.435657 0.010930142 0.028022617 -0.079481930 0.060015667 -0.054945286 -0.009897910 0.996634960
1341845695.471720 0.015142700 0.028704902 -0.084992841 0.061475214 -0.059614703 -0.009166981 0.996284544
1341845695.503710 0.011885948 0.035321988 -0.084575646 0.062303998 -0.062452771 -0.009722371 0.996053874
1341845695.539693 0.013254792 0.037766974 -0.081357256 0.062367812 -0.065183252 -0.011617619 0.995854616
1341845695.603908 0.017175857 0.037641540 -0.084810041 0.062885299 -0.068067580 -0.014176932 0.995595932
1341845695.665980 0.014809874 0.038480680 -0.080789261 0.062427845 -0.070906140 -0.015266503 0.995410502
1341845695.701693 0.014900777 0.037561446 -0.080169015 0.062381964 -0.071874700 -0.014704076 0.995352387
1341845695.733686 0.016477739 0.031736359 -0.082000442 0.061216440 -0.072638512 -0.013745169 0.995382965
1341845695.769679 0.016748292 0.036131494 -0.084786907 0.061302390 -0.072841056 -0.013591120 0.995364964
1341845695.801697 0.014778504 0.043614198 -0.079400875 0.060986299 -0.072484940 -0.013336070 0.995413899
1341845695.833635 0.016053934 0.035370838 -0.083010130 0.058913261 -0.072344117 -0.011919023 0.995566905
1341845695.869766 0.019090114 0.037810229 -0.081864521 0.059026498 -0.072567210 -0.011251921 0.995551765
1341845695.901827 0.018615644 0.043047898 -0.089381389 0.058653280 -0.072011635 -0.010888972 0.995618165
1341845695.933900 0.016928637 0.040583752 -0.085822813 0.056895353 -0.072054908 -0.009894726 0.995727420
1341845695.969774 0.021519277 0.040098988 -0.083100148 0.056103222 -0.071935721 -0.008797990 0.995791256
1341845696.001940 0.018930577 0.039141856 -0.082905345 0.055327196 -0.070638709 -0.008948811 0.995926201
1341845696.037778 0.018893873 0.040200129 -0.083074406 0.054447006 -0.069768369 -0.007436020 0.996048510
1341845696.069962 0.015731493 0.038651571 -0.082704395 0.053255443 -0.069575340 -0.005190995 0.996140659
1341845696.102048 0.017161027 0.038412727 -0.083489157 0.053149395 -0.070555307 -0.003279371 0.996085525
1341845696.137759 0.016226839 0.041704271 -0.083424419 0.053004112 -0.070714109 -0.003390445 0.996081591
1341845696.169934 0.018020609 0.038121942 -0.082030535 0.051757138 -0.071499020 -0.002452893 0.996093929
1341845696.201602 0.018581843 0.041809395 -0.086361602 0.051375553 -0.071460523 -0.003871468 0.996111929
1341845696.237582 0.017757399 0.041942682 -0.084383324 0.049815055 -0.071375251 -0.004513673 0.996194601
1341845696.269654 0.017119292 0.038047094 -0.086468168 0.047999088 -0.071986489 -0.005783820 0.996233225
1341845696.305713 0.016986759 0.039393175 -0.080391027 0.047919035 -0.073018037 -0.005000058 0.996166229
1341845696.337790 0.020268658 0.039171919 -0.084310621 0.047426842 -0.073852263 -0.003862229 0.996133327
1341845696.369780 0.018578326 0.042288646 -0.081382625 0.047593080 -0.074350655 -0.003229733 0.996090591
1341845696.406019 0.019995077 0.041785657 -0.087512478 0.046105452 -0.074730136 -0.003936404 0.996129632
1341845696.437910 0.020237690 0.041056544 -0.083037868 0.044357013 -0.075040162 -0.003701665 0.996186614
1341845696.473667 0.025927546 0.042850789 -0.087462917 0.043242894 -0.074806824 -0.003854977 0.996252537
1341845696.505801 0.022161303 0.044841666 -0.078541845 0.041813206 -0.073923491 -0.002992013 0.996382475
1341845696.537879 0.020319583 0.038831249 -0.080197245 0.040244244 -0.073539175 -0.001896724 0.996478200
1341845696.573790 0.020177692 0.038517181 -0.083785690 0.040120792 -0.074209362 -0.001125113 0.996434689
1341845696.611644 0.016455507 0.039351109 -0.083834603 0.039932322 -0.074436456 -0.001394172 0.996424913
1341845696.648592 0.019449575 0.039854325 -0.085385226 0.039421324 -0.075281784 -0.001141437 0.996382117
1341845696.705640 0.025241556 0.042938124 -0.085649125 0.037393481 -0.075090088 -0.001314408 0.996474504
1341845696.741801 0.024458837 0.043008856 -0.080062956 0.036904719 -0.074048355 -0.001051476 0.996571004
1341845696.773765 0.021959469 0.042873088 -0.080949612 0.036515944 -0.072522454 -0.000358488 0.996698022
1341845696.805698 0.022417866 0.045471720 -0.081192926 0.035563506 -0.072307289 0.000687115 0.996747911
1341845696.841908 0.022478731 0.042055406 -0.078963466 0.034654543 -0.072209500 0.002597817 0.996783853
1341845696.873637 0.025620554 0.044588991 -0.077991329 0.034068540 -0.071059555 0.001995609 0.996888101
1341845696.905693 0.026611716 0.046058338 -0.079981692 0.032918990 -0.070571505 0.002681040 0.996959805
1341845696.941841 0.024705982 0.048346926 -0.077348568 0.031941693 -0.069596373 0.004022455 0.997055590
1341845696.973560 0.026259109 0.040946525 -0.080243967 0.030265782 -0.069318980 0.005493742 0.997120202
1341845697.009723 0.022171274 0.047749314 -0.076360226 0.030208824 -0.068710789 0.006100222 0.997160494
1341845697.041678 0.025509128 0.043080274 -0.077325575 0.028497703 -0.067608833 0.005200603 0.997291267
1341845697.073636 0.023510339 0.043360051 -0.073726445 0.028708013 -0.066361211 0.005394380 0.997368038
1341845697.109770 0.028627116 0.045222934 -0.079456121 0.029169688 -0.066485591 0.004785625 0.997349441
1341845697.141787 0.027101122 0.047402952 -0.075247712 0.028983448 -0.065939523 0.004073622 0.997394264
1341845697.173791 0.026604179 0.042327516 -0.072431445 0.028286060 -0.065754525 0.004957702 0.997422516
1341845697.209803 0.026685452 0.044170436 -0.078734480 0.028712239 -0.065349273 0.005437326 0.997434497
1341845697.241685 0.028707031 0.047642209 -0.075051002 0.028810803 -0.065318003 0.005688747 0.997432292
1341845697.277780 0.028304406 0.044553030 -0.075517103 0.028082427 -0.065104224 0.005898812 0.997465789
1341845697.309575 0.029865809 0.046266142 -0.076176643 0.027970860 -0.065655075 0.006801242 0.997427046
1341845697.342252 0.033583160 0.044199739 -0.075714990 0.027521102 -0.066308565 0.007277451 0.997393012
1341845697.377604 0.033391360 0.044203602 -0.076159626 0.027788086 -0.066194057 0.006949668 0.997395515
1341845697.409528 0.028553480 0.049841404 -0.072909378 0.028448623 -0.065290608 0.006268237 0.997440994
1341845697.441666 0.028290058 0.041051619 -0.074458055 0.027398417 -0.064940043 0.005666735 0.997496843
1341845697.477718 0.029169982 0.042933330 -0.075170785 0.028599303 -0.065378487 0.006085211 0.997432053
1341845697.509822 0.028670914 0.045138121 -0.075100377 0.028947990 -0.065083511 0.005409052 0.997445166
1341845697.545892 0.023649123 0.044465769 -0.075231314 0.028853456 -0.064718932 0.005041554 0.997473538
1341845697.577742 0.032089520 0.042053107 -0.075280249 0.028920159 -0.066833213 0.005925049 0.997327328
1341845697.609653 0.028407281 0.048988555 -0.070754603 0.030020162 -0.067014739 0.006361098 0.997279942
1341845697.645769 0.027775710 0.048858982 -0.070151426 0.029542819 -0.067289256 0.006767077 0.997273088
1341845697.677795 0.028255811 0.048019215 -0.069247939 0.029222244 -0.067364514 0.006722492 0.997277737
1341845697.713520 0.028413748 0.048670098 -0.070439257 0.028730601 -0.067182913 0.006681415 0.997304559
1341845697.745975 0.028167741 0.048425969 -0.069836505 0.028292026 -0.067464486 0.007373639 0.997293234
1341845697.777683 0.028620640 0.048778508 -0.071442135 0.028114300 -0.067820407 0.007281055 0.997274756
1341845697.813673 0.031437751 0.046513967 -0.073541753 0.027039917 -0.068120889 0.007565416 0.997281849
1341845697.845793 0.031143080 0.048838101 -0.075464919 0.025959101 -0.067523651 0.007466419 0.997351944
1341845697.877887 0.027839238 0.048749421 -0.068780519 0.025126217 -0.067411043 0.007218110 0.997382760
1341845697.913637 0.028583635 0.048531439 -0.070402734 0.024835441 -0.067586958 0.006902475 0.997380316
1341845697.945734 0.028277487 0.048519280 -0.069846846 0.024260206 -0.067440018 0.006261984 0.997408688
1341845697.981763 0.028443856 0.047868092 -0.069051504 0.023768172 -0.067481302 0.005965819 0.997419536
1341845698.013639 0.027772108 0.046987679 -0.067473821 0.023858806 -0.067245089 0.005517541 0.997435927
1341845698.045700 0.028078511 0.047849886 -0.068637908 0.024354456 -0.067206010 0.005232199 0.997428119
1341845698.081804 0.028323514 0.044489797 -0.070597626 0.023759527 -0.067923456 0.005169944 0.997394204
1341845698.113733 0.029454278 0.046917912 -0.068622999 0.024224512 -0.068648390 0.005179276 0.997333348
1341845698.145605 0.029984299 0.045272708 -0.069090679 0.024433004 -0.068881124 0.004745493 0.997314334
1341845698.181637 0.028013755 0.045163129 -0.072826013 0.024430504 -0.068545260 0.003914024 0.997341156
1341845698.213981 0.028085332 0.043439265 -0.072606392 0.024352159 -0.069450662 0.004033511 0.997279942
1341845698.249641 0.027623968 0.047420412 -0.072903536 0.025487393 -0.070590027 0.003806090 0.997172475
1341845698.281737 0.028137924 0.048788171 -0.072751403 0.024609283 -0.070920154 0.003285750 0.997172952
1341845698.313940 0.027721174 0.048712462 -0.068767235 0.024416169 -0.071050324 0.002695400 0.997170210
1341845698.349629 0.028398493 0.049650569 -0.071632415 0.024836928 -0.070887476 0.001855278 0.997173309
1341845698.381667 0.025041237 0.046171527 -0.070179634 0.024266794 -0.071163930 0.002028453 0.997167349
1341845698.413724 0.027293649 0.048274353 -0.067975342 0.024862159 -0.072831556 0.002468235 0.997031271
1341845698.449543 0.027343078 0.048077513 -0.067281947 0.025299158 -0.074318536 0.003064253 0.996908844
1341845698.481693 0.028225981 0.048905589 -0.071534321 0.025238186 -0.075577937 0.002803405 0.996816516
1341845698.517644 0.028021926 0.048605233 -0.070542261 0.025509695 -0.076130308 0.001762466 0.996769965
1341845698.549633 0.028029980 0.048790250 -0.070577919 0.026188359 -0.076874398 0.000764530 0.996696532
1341845698.581773 0.028666461 0.049440607 -0.073213942 0.026969522 -0.077458061 -0.000844757 0.996630430
1341845698.617608 0.028780747 0.049604625 -0.072957747 0.027239455 -0.077719405 -0.001347777 0.996602178
1341845698.649887 0.032628801 0.042535175 -0.074762717 0.026678916 -0.078677595 -0.001522138 0.996541917
1341845698.685838 0.031800266 0.045997493 -0.075036809 0.028284049 -0.078767024 -0.001759535 0.996490180
1341845698.717744 0.028752904 0.050240252 -0.074149691 0.028460592 -0.078193419 -0.002252611 0.996529341
1341845698.749680 0.028528586 0.048929263 -0.071810037 0.027739631 -0.077768989 -0.001561796 0.996584177
1341845698.785826 0.029084384 0.049816523 -0.073772497 0.027800523 -0.077690601 -0.001511773 0.996588707
1341845698.817603 0.029782921 0.050524786 -0.074773736 0.027335575 -0.077714428 -0.001431542 0.996599793
1341845698.849705 0.028606048 0.049377810 -0.070876360 0.026158728 -0.077582099 -0.001913658 0.996640921
1341845698.885714 0.029217752 0.049789112 -0.072867177 0.025986701 -0.077712655 -0.002398703 0.996634185
1341845698.917723 0.030032819 0.050522450 -0.075189851 0.025309445 -0.077514909 -0.002300512 0.996667206
1341845698.953706 0.029361127 0.049679548 -0.072603188 0.024463208 -0.077130124 -0.002724574 0.996717155
1341845698.985694 0.029487180 0.049406175 -0.074448809 0.023883656 -0.076910391 -0.002492998 0.996748805
1341845699.017571 0.031718787 0.050947651 -0.077560149 0.023181064 -0.077681608 -0.001390289 0.996707678
1341845699.053593 0.034101009 0.051255897 -0.076934621 0.022038393 -0.078481428 -0.001755499 0.996670425
1341845699.086340 0.030662002 0.050956070 -0.080515370 0.020171277 -0.077277571 -0.001874961 0.996803761
1341845699.117688 0.033787221 0.049515575 -0.077605292 0.018131878 -0.077937298 -0.002090386 0.996791184
1341845699.153695 0.033828810 0.050623912 -0.075618207 0.016912671 -0.077672951 -0.002469972 0.996832371
1341845699.185845 0.034571264 0.050732262 -0.075310886 0.015881198 -0.077190310 -0.003503822 0.996883750
1341845699.221973 0.033952046 0.050384454 -0.074537046 0.014739315 -0.076667771 -0.003471148 0.996941686
1341845699.253571 0.033544913 0.049966600 -0.073620610 0.014574549 -0.077456057 -0.002484314 0.996886134
1341845699.285622 0.032022212 0.048898246 -0.070245259 0.015337872 -0.078575343 -0.001539472 0.996788979
1341845699.321906 0.033007547 0.050232265 -0.072916538 0.016113833 -0.079462811 -0.001136439 0.996706903
1341845699.354916 0.030493140 0.049532026 -0.072936930 0.016008796 -0.079736672 -0.000177773 0.996687353
1341845699.385859 0.034574177 0.049272161 -0.071455002 0.016405584 -0.080715872 -0.000825773 0.996601760
1341845699.421535 0.033441361 0.049186945 -0.071687832 0.016931554 -0.080016471 -0.001847100 0.996648014
1341845699.454093 0.034187179 0.050040200 -0.074298844 0.016990822 -0.079094574 -0.003557348 0.996715963
1341845699.489836 0.029540120 0.049229581 -0.071483158 0.016497614 -0.077674724 -0.003179751 0.996837139
1341845699.522001 0.033985894 0.048862807 -0.072758175 0.016630581 -0.079229355 -0.002295030 0.996715069
1341845699.556281 0.033740316 0.048121218 -0.070455670 0.017323071 -0.079595469 -0.001769971 0.996675134
1341845699.595416 0.035591811 0.049708281 -0.075148985 0.017956169 -0.079264276 -0.001602104 0.996690631
1341845699.628631 0.028480524 0.048222173 -0.069688782 0.017379036 -0.076981053 -0.002876819 0.996876895
1341845699.663810 0.028998302 0.047491983 -0.067920469 0.017362164 -0.076411404 -0.001578383 0.996923983
1341845699.696113 0.028463451 0.048144147 -0.069381751 0.018214012 -0.075967751 -0.000395905 0.996943831
1341845699.727683 0.034083888 0.052214075 -0.078191251 0.017362947 -0.076453663 -0.000742272 0.996921659
1341845699.789808 0.027534874 0.047944978 -0.067581035 0.015240044 -0.074446119 -0.001553952 0.997107387
1341845699.821737 0.032863580 0.048406594 -0.069604181 0.015293666 -0.074631371 -0.002201067 0.997091472
1341845699.857825 0.033481829 0.050094929 -0.073315367 0.015214104 -0.074913271 -0.001778046 0.997072399
1341845699.889686 0.032330386 0.048664428 -0.069080196 0.015174231 -0.075179793 -0.001941984 0.997052670
1341845699.925749 0.028298937 0.048061609 -0.068978190 0.015584053 -0.073730312 -0.002123467 0.997154176
1341845699.957536 0.028377086 0.048532940 -0.068812005 0.016363028 -0.073404066 -0.001832162 0.997166336
1341845699.989671 0.027416360 0.047617819 -0.065624014 0.017237486 -0.073763981 -0.000482921 0.997126639
1341845700.025810 0.027911810 0.047771934 -0.067462206 0.018339086 -0.073982120 -0.000217672 0.997090936
1341845700.058133 0.031761419 0.047454782 -0.067036845 0.018806513 -0.074250594 -0.001080222 0.997061670
1341845700.090754 0.040007465 0.051052231 -0.067736551 0.019508766 -0.074935973 -0.000648265 0.996997297
1341845700.125852 0.032894298 0.050396726 -0.066935070 0.019518394 -0.073841155 -0.001235697 0.997078240
1341845700.157773 0.036713373 0.049863435 -0.063686393 0.020140640 -0.074582972 -0.001381533 0.997010410
1341845700.193533 0.039199211 0.050552275 -0.069760054 0.020409582 -0.073902912 -0.001683661 0.997055173
1341845700.225771 0.038834054 0.049585521 -0.065510564 0.020239769 -0.073304459 -0.001745624 0.997102678
1341845700.257669 0.042016476 0.050835039 -0.067185931 0.020646499 -0.073391378 -0.001263846 0.997088671
1341845700.293641 0.042508833 0.051599652 -0.069401555 0.020516500 -0.072968632 0.000070491 0.997123182
1341845700.325714 0.040712133 0.049625225 -0.063673973 0.020645035 -0.073037460 0.000486594 0.997115374
1341845700.357742 0.041637555 0.050909355 -0.065503560 0.020883717 -0.072338372 0.000140472 0.997161448
1341845700.393681 0.043000091 0.049614567 -0.066597745 0.020145506 -0.071499705 -0.000811620 0.997236788
1341845700.425997 0.044277132 0.050686389 -0.066269644 0.019974208 -0.071445644 -0.001007252 0.997243941
1341845700.461682 0.045301817 0.049347866 -0.066362940 0.019721633 -0.071284384 -0.001521992 0.997259855
1341845700.493808 0.042260770 0.051568568 -0.067473955 0.019995740 -0.070491873 -0.002756012 0.997308075
1341845700.526106 0.043791752 0.052375138 -0.064953960 0.019696875 -0.070868179 -0.002001356 0.997289181
1341845700.562458 0.042029150 0.051071100 -0.066994950 0.019360384 -0.070261627 -0.002220086 0.997338235
1341845700.626137 0.042330664 0.050768957 -0.066488303 0.018844925 -0.070550486 -0.001149345 0.997329533
1341845700.661872 0.042587426 0.051550191 -0.068758555 0.018670833 -0.069660924 -0.002784486 0.997392118
1341845700.693861 0.047485653 0.052557010 -0.070387058 0.018229529 -0.070235409 -0.003118815 0.997358978
1341845700.732394 0.041690998 0.051071800 -0.066738084 0.018099168 -0.070092157 -0.001706417 0.997374833
1341845700.767794 0.042706743 0.051444508 -0.066911235 0.018591220 -0.070285469 -0.001804658 0.997352004
1341845700.799058 0.041137189 0.049764372 -0.064325094 0.018712431 -0.069962837 -0.001897621 0.997372270
1341845700.867749 0.044313442 0.051793832 -0.061245356 0.019030320 -0.070131645 -0.001921642 0.997354329
1341845700.930007 0.045571104 0.051118463 -0.065612413 0.020031326 -0.070886888 -0.001739374 0.997281671
1341845700.961797 0.049003102 0.052775528 -0.065505214 0.020127470 -0.071153633 -0.002699817 0.997258604
1341845700.997752 0.046410874 0.053376570 -0.064819381 0.020027220 -0.070847809 -0.002687132 0.997282445
1341845701.029597 0.049066201 0.050866239 -0.063663103 0.019910289 -0.071851313 -0.002861436 0.997212529
1341845701.061618 0.044964720 0.053472150 -0.066671588 0.020585032 -0.071314573 -0.003243640 0.997236192
1341845701.097561 0.043262448 0.049493950 -0.066249184 0.020274434 -0.071354397 -0.003434605 0.997239053
1341845701.129741 0.045905661 0.052511830 -0.066378668 0.020809500 -0.071298398 -0.002982712 0.997233450
1341845701.165734 0.042219788 0.051759910 -0.067983262 0.020348113 -0.070599064 -0.003043824 0.997292578
1341845701.197714 0.041713949 0.047734920 -0.070954807 0.020426063 -0.070941374 -0.003112941 0.997266471
1341845701.230497 0.042172484 0.051171310 -0.067931116 0.021145882 -0.071441136 -0.003348585 0.997215033
1341845701.265852 0.041082911 0.050099153 -0.064047009 0.021191563 -0.071833476 -0.003152173 0.997186482
1341845701.297730 0.043741893 0.048119210 -0.066019528 0.021919660 -0.073095262 -0.003494738 0.997077942
1341845701.329611 0.041347038 0.050550632 -0.065384611 0.022206729 -0.072423927 -0.004588815 0.997116148
1341845701.365791 0.041546706 0.050159883 -0.064353846 0.021612195 -0.072099887 -0.004887250 0.997151256
1341845701.397757 0.042920634 0.051754270 -0.068612911 0.021637961 -0.071857430 -0.005620688 0.997164309
1341845701.433542 0.048904981 0.050385147 -0.064586870 0.021051595 -0.072459906 -0.004154919 0.997140467
1341845701.465617 0.041103270 0.052164335 -0.064332709 0.021477954 -0.071469985 -0.002707742 0.997207761
1341845701.497704 0.044515058 0.052406408 -0.068006128 0.021265721 -0.071813688 -0.002335800 0.997188628
1341845701.533597 0.041427281 0.050354153 -0.065484986 0.020742146 -0.071603104 -0.002879462 0.997213304
1341845701.597762 0.042604893 0.052033067 -0.069782354 0.020710081 -0.070721410 -0.003955235 0.997273266
1341845701.633825 0.041951407 0.050987907 -0.067749850 0.021130033 -0.071112938 -0.003668262 0.997237682
1341845701.665709 0.041905977 0.049933393 -0.064674899 0.021638284 -0.070902556 -0.004281311 0.997239292
1341845701.701676 0.046405517 0.050053779 -0.063526005 0.022317538 -0.071323268 -0.003433079 0.997197628
1341845701.733527 0.046536177 0.048489369 -0.064100638 0.022569329 -0.071304701 -0.004053561 0.997190952
1341845701.765764 0.047328390 0.048974250 -0.065666355 0.022662165 -0.071315728 -0.004118746 0.997187793
1341845701.801701 0.049450751 0.050123032 -0.065163642 0.022841003 -0.071377471 -0.003972144 0.997179925
1341845701.833700 0.047462508 0.047558483 -0.064458676 0.022636669 -0.071102969 -0.003596457 0.997205615
1341845701.865775 0.047155913 0.050444312 -0.065416180 0.023372656 -0.071061723 -0.003476023 0.997192025
1341845701.901711 0.052926134 0.052185506 -0.065353028 0.023385432 -0.071906134 -0.003659943 0.997130513
1341845701.933585 0.050205871 0.051681735 -0.068685122 0.023022251 -0.070779137 -0.003977798 0.997218370
1341845701.969726 0.049699713 0.050980732 -0.066730402 0.022549473 -0.070928030 -0.003735868 0.997219503
1341845702.002544 0.049715124 0.050446998 -0.065796219 0.022600206 -0.070720538 -0.004417160 0.997230351
1341845702.034379 0.049119096 0.050111216 -0.064709157 0.022809844 -0.070291325 -0.004725962 0.997254491
1341845702.101809 0.047137074 0.046279568 -0.070074767 0.022837088 -0.069994837 -0.005860903 0.997268677
1341845702.137663 0.047636855 0.047424681 -0.066049077 0.023178821 -0.070879571 -0.005246055 0.997201741
1341845702.169629 0.047749761 0.046105053 -0.062581867 0.023538597 -0.071193337 -0.005913991 0.997167230
1341845702.201769 0.048679411 0.046755496 -0.064278699 0.023982618 -0.070817254 -0.006832996 0.997177541
1341845702.237691 0.045558244 0.046662129 -0.063308164 0.023907429 -0.069970392 -0.006822165 0.997239172
1341845702.269760 0.048980948 0.047796275 -0.063987605 0.024398921 -0.070547603 -0.006878662 0.997186244
1341845702.301761 0.045701280 0.049679372 -0.061102681 0.024714455 -0.069710657 -0.007465889 0.997233093
1341845702.337713 0.047268368 0.050461426 -0.064225838 0.024442416 -0.069354691 -0.007896831 0.997261286
1341845702.369720 0.043083653 0.048086580 -0.063521951 0.024082163 -0.069373406 -0.007308358 0.997273266
1341845702.405655 0.040571991 0.049131840 -0.062069904 0.024150573 -0.068893299 -0.007623351 0.997302532
1341845702.469691 0.050277717 0.047393937 -0.063099898 0.023999356 -0.069463134 -0.006724067 0.997273147
1341845702.506265 0.051131651 0.048446067 -0.062267821 0.024226403 -0.069609247 -0.006382817 0.997259676
1341845702.569753 0.048985146 0.049372386 -0.063352779 0.024283227 -0.069543779 -0.005000406 0.997270763
1341845702.605685 0.049826574 0.050545320 -0.065681450 0.023951929 -0.069703147 -0.005141846 0.997266948
1341845702.637718 0.048825100 0.048566762 -0.062391493 0.023120815 -0.069621526 -0.005171521 0.997292101
1341845702.673733 0.049858388 0.048747122 -0.064478762 0.023119802 -0.069439091 -0.005550979 0.997302771
1341845702.705735 0.048798177 0.050754573 -0.067759283 0.022791900 -0.068688184 -0.006064638 0.997359395
1341845702.737648 0.050279710 0.051922578 -0.068137094 0.022154860 -0.068270057 -0.007587256 0.997391999
1341845702.773644 0.054366115 0.057142828 -0.067525707 0.021064680 -0.068383746 -0.008633251 0.997399330
1341845702.805893 0.056048613 0.049763445 -0.070588715 0.018848196 -0.067819357 -0.009277146 0.997476399
1341845702.837969 0.054960340 0.052070759 -0.070308790 0.017879780 -0.067088306 -0.010370001 0.997532904
1341845702.874009 0.049052987 0.050384019 -0.067699179 0.015835367 -0.065077804 -0.010525073 0.997699022
1341845702.908704 0.058455542 0.050123047 -0.064704061 0.015429882 -0.066504061 -0.009937177 0.997617364
1341845702.941673 0.057149693 0.049308289 -0.062100023 0.016211396 -0.066778749 -0.009111038 0.997594535
1341845702.973595 0.051968466 0.040680569 -0.064567365 0.017126102 -0.067270771 -0.007909566 0.997556388
1341845703.005769 0.052512083 0.049538732 -0.062723786 0.019951504 -0.068957105 -0.005956684 0.997402310
1341845703.041648 0.053533185 0.048426762 -0.064291686 0.021136962 -0.069671012 -0.005519913 0.997330785
1341845703.073714 0.059548281 0.058027599 -0.066434629 0.021407025 -0.070408314 -0.006263711 0.997268856
1341845703.109699 0.060723651 0.056379195 -0.064104237 0.019074243 -0.068828307 -0.008349690 0.997411191
1341845703.142006 0.061697491 0.054482479 -0.063094988 0.017329937 -0.067538992 -0.009240684 0.997523308
1341845703.173706 0.060186349 0.054115057 -0.063322939 0.016100548 -0.066789910 -0.010313773 0.997583866
1341845703.209732 0.056594845 0.052285403 -0.059323382 0.015749631 -0.066637322 -0.010075546 0.997602046
1341845703.242050 0.065036267 0.048557766 -0.063702203 0.016253339 -0.067891546 -0.009609198 0.997514009
1341845703.273874 0.051036481 0.048412159 -0.062741302 0.016845524 -0.066543043 -0.009800603 0.997593224
1341845703.309758 0.053135648 0.050515164 -0.067265607 0.018102879 -0.067560218 -0.008616816 0.997513771
1341845703.341850 0.052521139 0.049587283 -0.062732227 0.018535428 -0.067813978 -0.008155450 0.997492433
1341845703.377702 0.052565746 0.051346764 -0.061016262 0.019346679 -0.066989370 -0.008120786 0.997533023
1341845703.409585 0.050401464 0.051157828 -0.067316346 0.019618817 -0.066206843 -0.009030299 0.997572184
1341845703.441629 0.051502429 0.054380458 -0.064600043 0.019878838 -0.066765279 -0.009263312 0.997527659
1341845703.477741 0.054047756 0.051360611 -0.066949569 0.019369833 -0.067185946 -0.010229883 0.997500002
1341845703.509995 0.051260911 0.048513196 -0.063854285 0.019373523 -0.066788584 -0.010887818 0.997519612
1341845703.541800 0.049336951 0.050064228 -0.064983666 0.020352686 -0.066192381 -0.011198633 0.997536421
1341845703.577765 0.048998464 0.049412284 -0.063315466 0.020381765 -0.066286147 -0.012139070 0.997518599
1341845703.609650 0.049536891 0.050377749 -0.065634742 0.020904629 -0.066427454 -0.012319614 0.997496188
1341845703.651761 0.057928249 0.054194648 -0.064519934 0.021673933 -0.068435244 -0.011092482 0.997358441
1341845703.709916 0.060093287 0.053710662 -0.065610759 0.021606913 -0.069905452 -0.011297717 0.997255623
1341845703.745719 0.056408148 0.054062333 -0.067363761 0.020550309 -0.068672486 -0.011914661 0.997356415
1341845703.777733 0.058574539 0.055804353 -0.060824405 0.019476607 -0.068445243 -0.012300104 0.997388899
1341845703.809711 0.058701396 0.052883960 -0.061487213 0.018704815 -0.067808338 -0.012732399 0.997441769
1341845703.845769 0.058711860 0.054103676 -0.061777461 0.018920463 -0.068010889 -0.012286943 0.997429490
1341845703.877728 0.055140201 0.054340482 -0.060405415 0.018858647 -0.067315400 -0.012721790 0.997472405
1341845703.913808 0.059634581 0.054426938 -0.062655583 0.018341878 -0.067888312 -0.012376127 0.997447550
1341845703.945653 0.056065369 0.049205467 -0.060752667 0.017851863 -0.066848770 -0.012428311 0.997525990
1341845703.977870 0.054284517 0.052815426 -0.062393107 0.018765893 -0.066119485 -0.012476284 0.997557223
1341845704.013637 0.057641219 0.049262848 -0.063067824 0.019033337 -0.067227885 -0.012811895 0.997473836
1341845704.045703 0.059291720 0.050676256 -0.061927393 0.020344494 -0.067907006 -0.012272251 0.997408748
1341845704.077666 0.056485228 0.050640330 -0.061363310 0.020826353 -0.067233682 -0.011810597 0.997449994
1341845704.113706 0.055334277 0.053625084 -0.061935108 0.021309949 -0.066937119 -0.011797749 0.997459829
1341845704.145681 0.049404174 0.049873315 -0.064936586 0.020255810 -0.065576464 -0.012215906 0.997567117
1341845704.181785 0.053204644 0.053240027 -0.058429684 0.020481279 -0.065823056 -0.012330583 0.997544885
1341845704.213778 0.061077032 0.053451829 -0.060312431 0.020360807 -0.067104392 -0.012129243 0.997464418
1341845704.245863 0.052065596 0.051917605 -0.058977108 0.020100277 -0.065500297 -0.011856077 0.997579634
1341845704.281578 0.057450734 0.054648221 -0.061144579 0.020077478 -0.065876707 -0.011594193 0.997558415
1341845704.313707 0.062903434 0.056403518 -0.058856245 0.019542137 -0.066507533 -0.011414316 0.997529268
1341845704.349873 0.066286899 0.055005424 -0.056788500 0.018680375 -0.065623827 -0.011341596 0.997605085
1341845704.381729 0.063569672 0.056736585 -0.054758348 0.018129742 -0.063514933 -0.011459748 0.997750401
1341845704.413817 0.059646323 0.052563243 -0.056294430 0.017569147 -0.061139330 -0.011303701 0.997910559
1341845704.449837 0.054319598 0.056326680 -0.056474533 0.018161183 -0.058823682 -0.012066893 0.998030245
1341845704.481600 0.061400216 0.055389974 -0.055592600 0.016873783 -0.058614898 -0.012660556 0.998057723
1341845704.513671 0.059085183 0.045722809 -0.057074044 0.016552642 -0.057495859 -0.011714033 0.998139799
1341845704.549869 0.052772406 0.045906991 -0.051535878 0.021071455 -0.057679266 -0.010247077 0.998060167
1341845704.581901 0.050522629 0.049478281 -0.053217415 0.025633635 -0.059478845 -0.007694687 0.997870743
1341845704.617838 0.051411573 0.051610012 -0.056235313 0.027630949 -0.060478792 -0.008002405 0.997754872
1341845704.650477 0.050743174 0.050125029 -0.055093046 0.027946660 -0.060245827 -0.009471182 0.997747302
1341845704.681708 0.052654982 0.048409075 -0.057837084 0.028850770 -0.061100885 -0.009622749 0.997668147
1341845704.717704 0.053857561 0.048999559 -0.059613578 0.030036332 -0.062401548 -0.009486452 0.997553945
1341845704.749702 0.054348096 0.055608854 -0.056592371 0.031337675 -0.062854826 -0.010722105 0.997472942
1341845704.781791 0.051497933 0.054412834 -0.058022048 0.030221071 -0.061793666 -0.012746925 0.997549891
1341845704.817744 0.047222123 0.047450203 -0.058405902 0.029888960 -0.061814133 -0.013864657 0.997543693
1341845704.849705 0.048617195 0.048791785 -0.061792552 0.031694066 -0.063760377 -0.015046334 0.997348368
1341845704.885675 0.052529462 0.051844060 -0.061871909 0.032098822 -0.065217711 -0.014223981 0.997253239
1341845704.917742 0.047797505 0.053077143 -0.063014485 0.031819895 -0.065068841 -0.014727918 0.997264564
1341845704.949746 0.047362659 0.050383467 -0.065113880 0.030719211 -0.065391660 -0.016219277 0.997254848
1341845704.985761 0.041723378 0.050697163 -0.066076271 0.030020554 -0.064974174 -0.017380672 0.997283816
1341845705.017537 0.047519293 0.054197218 -0.064721093 0.029860493 -0.066262260 -0.017422188 0.997203171
1341845705.049660 0.046763156 0.052871324 -0.064542674 0.028763263 -0.066441342 -0.018026736 0.997212708
1341845705.085710 0.049679786 0.050498802 -0.065592475 0.028130250 -0.067433864 -0.018457102 0.997156322
1341845705.117831 0.047128718 0.054434307 -0.063138552 0.028585453 -0.067824848 -0.018532708 0.997115433
1341845705.154005 0.049894515 0.055132169 -0.064136229 0.027335200 -0.068288870 -0.019183984 0.997106493
1341845705.185648 0.048921574 0.052047092 -0.060776245 0.026143806 -0.067941837 -0.019486504 0.997156322
1341845705.217695 0.049260240 0.050470185 -0.064852156 0.025872625 -0.067477703 -0.018866537 0.997206807
1341845705.253735 0.050048742 0.056078888 -0.063422002 0.026029684 -0.067125969 -0.018896120 0.997225881
1341845705.285554 0.045969613 0.051017676 -0.064269856 0.025079761 -0.066728234 -0.019506196 0.997265220
1341845705.321646 0.046162900 0.052427016 -0.062067900 0.025717085 -0.067214116 -0.018333737 0.997238576
1341845705.353674 0.048961304 0.050052889 -0.063712567 0.025474507 -0.068078339 -0.017143290 0.997207344
1341845705.385774 0.047521550 0.048955459 -0.063216299 0.025751229 -0.067854166 -0.017763851 0.997204661
1341845705.421801 0.051584456 0.051060781 -0.057734367 0.027195442 -0.068255968 -0.018036159 0.997133970
1341845705.453568 0.046209723 0.049103908 -0.060148641 0.029063500 -0.067489803 -0.017314116 0.997146249
1341845705.485749 0.047628634 0.050652392 -0.061903901 0.031114258 -0.068845585 -0.015788047 0.997017026
1341845705.521655 0.052050490 0.050739910 -0.060426682 0.032573126 -0.070042424 -0.015020774 0.996898890
1341845705.553548 0.052903816 0.054625932 -0.058717705 0.033771776 -0.070286222 -0.014137946 0.996854782
1341845705.589775 0.056612596 0.056007605 -0.060060509 0.033628114 -0.070383646 -0.014559439 0.996846676
1341845705.621894 0.049553420 0.053970147 -0.061480109 0.033363953 -0.069757372 -0.013852392 0.996909678
1341845705.653569 0.039547965 0.052336805 -0.064710230 0.033155404 -0.070646353 -0.013424744 0.996859848
1341845705.689868 0.048125356 0.052601516 -0.059336212 0.033803031 -0.073391743 -0.013999346 0.996631801
1341845705.721810 0.053879410 0.056442350 -0.059335306 0.034267392 -0.073323272 -0.013931193 0.996621966
1341845705.753738 0.048636265 0.052396551 -0.059859015 0.033556670 -0.071985431 -0.015821986 0.996715426
1341845705.789861 0.055400126 0.053997558 -0.058149867 0.033611346 -0.071808621 -0.014947280 0.996739864
1341845705.821704 0.048598602 0.057369020 -0.057382789 0.034002230 -0.070307098 -0.014260409 0.996843696
1341845705.863629 0.048842888 0.050166525 -0.061283130 0.033508901 -0.071239062 -0.014578419 0.996789694
1341845705.895623 0.046190422 0.050355926 -0.056187861 0.035270154 -0.072664648 -0.012225742 0.996657610
1341845705.931726 0.042786174 0.051569935 -0.061551578 0.036685620 -0.074466959 -0.010985024 0.996487916
1341845705.963641 0.042874895 0.061158799 -0.057896990 0.037968747 -0.076172933 -0.012477014 0.996293306
1341845705.995677 0.052109834 0.062350132 -0.057938352 0.036501393 -0.076620929 -0.016652504 0.996252775
1341845706.031837 0.050879601 0.062442861 -0.054001577 0.034015365 -0.074644662 -0.017639328 0.996473789
1341845706.063631 0.045877777 0.054869160 -0.055936687 0.032257285 -0.074975245 -0.016912676 0.996520042
1341845706.095737 0.045817960 0.055932824 -0.052929658 0.032706887 -0.076474421 -0.018873461 0.996356189
1341845706.131716 0.050035413 0.062003888 -0.050886933 0.032317474 -0.076335423 -0.019334519 0.996370733
1341845706.163718 0.048270743 0.057656229 -0.046045080 0.031350162 -0.074808381 -0.018753987 0.996528566
1341845706.195662 0.050821837 0.060351990 -0.049839586 0.032170456 -0.075687170 -0.017839830 0.996452868
1341845706.231610 0.051346354 0.061706297 -0.046107702 0.031401142 -0.075242095 -0.017692998 0.996513724
1341845706.263724 0.055565473 0.059949275 -0.045722429 0.030066788 -0.073839031 -0.016376419 0.996682286
1341845706.299838 0.049429916 0.058512915 -0.048795685 0.028775852 -0.072757155 -0.015487732 0.996814191
1341845706.331753 0.049212433 0.061090298 -0.045428280 0.028747458 -0.073460214 -0.016446082 0.996748090
1341845706.363574 0.051632605 0.057631858 -0.045069084 0.027957359 -0.073598519 -0.016065452 0.996766567
1341845706.399690 0.047893099 0.057195663 -0.043245595 0.028107926 -0.073271982 -0.016360912 0.996781528
1341845706.431735 0.053636052 0.058613680 -0.042418193 0.028492397 -0.073954783 -0.015609459 0.996732295
1341845706.463612 0.053466905 0.056699183 -0.039476395 0.028117429 -0.073128380 -0.013991203 0.996827900
1341845706.499655 0.048768185 0.054738291 -0.041663516 0.028693648 -0.072935849 -0.013168546 0.996836782
1341845706.531782 0.056597441 0.060107764 -0.037560362 0.030346811 -0.074986182 -0.012731290 0.996641397
1341845706.563559 0.060522050 0.056478739 -0.038806241 0.030067034 -0.073200069 -0.012924240 0.996780157
1341845706.599529 0.046111230 0.052833088 -0.040439267 0.030552113 -0.069636352 -0.013059272 0.997018933
1341845706.631786 0.050719179 0.052701179 -0.039361034 0.032463271 -0.071708158 -0.014417129 0.996792972
1341845706.667647 0.062616356 0.051294759 -0.041159365 0.032957766 -0.072289713 -0.013958480 0.996741235
1341845706.700732 0.057434581 0.053136792 -0.038025536 0.033292957 -0.069532700 -0.013390989 0.996934056
1341845706.732115 0.059960719 0.052179884 -0.038011644 0.033895738 -0.069495812 -0.012678580 0.996925592
1341845706.768143 0.068329200 0.051260889 -0.037561234 0.034302194 -0.070290215 -0.010564283 0.996880651
1341845706.800357 0.072643369 0.051173944 -0.042217575 0.034613721 -0.069931626 -0.008436251 0.996915400
1341845706.832602 0.066563457 0.054431163 -0.040740918 0.035280336 -0.069374084 -0.009552389 0.996920884
1341845706.869449 0.066379458 0.054770123 -0.043774638 0.034710422 -0.068850964 -0.009630742 0.996976435
1341845706.933651 0.063774206 0.053713452 -0.037294850 0.033789437 -0.069406353 -0.008645521 0.996978581
1341845706.994021 0.067478269 0.052463047 -0.042502426 0.032381743 -0.069492623 -0.006956091 0.997032523
1341845707.029674 0.066505894 0.050146028 -0.038603742 0.032678001 -0.070040502 -0.005867489 0.996991515
1341845707.061864 0.069564417 0.050700959 -0.039962430 0.033410564 -0.069989838 -0.005625166 0.996972203
1341845707.097704 0.068503320 0.049783207 -0.037441678 0.033636101 -0.068629630 -0.005052438 0.997062206
1341845707.129770 0.067943171 0.049139023 -0.036564365 0.035682719 -0.068678983 -0.003834006 0.996993124
1341845707.161817 0.068169564 0.051244475 -0.037799034 0.038379926 -0.069093712 -0.003724448 0.996864676
1341845707.197721 0.074226923 0.047149878 -0.039703816 0.038571853 -0.068684489 -0.004189588 0.996883690
1341845707.229795 0.070912533 0.045637447 -0.039611947 0.039201953 -0.067236148 -0.004781916 0.996955216
1341845707.261851 0.073871382 0.046290249 -0.038351856 0.039670289 -0.067555107 -0.003787664 0.996919394
1341845707.297710 0.076033771 0.047740366 -0.037793908 0.039916016 -0.066839874 -0.003704109 0.996958077
1341845707.329761 0.076076850 0.046324957 -0.037809838 0.039277118 -0.065226406 -0.004370934 0.997087598
1341845707.365850 0.076767839 0.041094422 -0.038866438 0.038847975 -0.063644178 -0.002913417 0.997211993
1341845707.397796 0.075728938 0.042038593 -0.038375631 0.040222760 -0.063717864 -0.001172488 0.997156322
1341845707.429752 0.077395543 0.041864391 -0.035705764 0.041266605 -0.063921466 -0.000056064 0.997101367
1341845707.465767 0.084167205 0.043367755 -0.032548673 0.042488791 -0.063168734 -0.000305643 0.997097909
1341845707.497642 0.085708492 0.040050384 -0.033708721 0.042590890 -0.061588701 0.000098169 0.997192502
1341845707.533665 0.082997538 0.038403597 -0.037016466 0.043385603 -0.060128324 -0.000030013 0.997247338
1341845707.565754 0.083124526 0.038289759 -0.039464563 0.044387110 -0.057799891 -0.001479860 0.997339845
1341845707.597603 0.085672848 0.041239433 -0.037135303 0.045114744 -0.056174699 -0.000709230 0.997400939
1341845707.633748 0.083827496 0.040011540 -0.035171609 0.045298010 -0.055816274 0.000426718 0.997412860
1341845707.665870 0.085241713 0.044534516 -0.034927007 0.046474643 -0.056048986 0.001219754 0.997345030
1341845707.698455 0.090080805 0.043285426 -0.033324223 0.045639928 -0.055940297 0.000853535 0.997390032
1341845707.734303 0.086577781 0.045490295 -0.037002668 0.045366429 -0.055075549 -0.000107231 0.997451007
1341845707.766259 0.083294496 0.042790387 -0.031024715 0.045224417 -0.055038083 -0.000475052 0.997459412
1341845707.836344 0.084995195 0.043956552 -0.033947628 0.046906974 -0.055091403 -0.000586682 0.997378707
1341845707.866230 0.086462416 0.043798041 -0.033426240 0.046712205 -0.055896502 -0.000423443 0.997343123
1341845707.901694 0.089594916 0.041727856 -0.033091146 0.045881938 -0.056667626 0.001200720 0.997337580
1341845707.933640 0.087406330 0.038843341 -0.033269383 0.045700267 -0.056933701 0.000887342 0.997331083
1341845707.965831 0.089823410 0.040680908 -0.033585068 0.046361063 -0.057180341 0.000594168 0.997286677
1341845708.001954 0.083941795 0.043424513 -0.032103844 0.046735987 -0.055915326 0.000884272 0.997340679
1341845708.034393 0.084313452 0.043653082 -0.032612905 0.047082007 -0.056680590 -0.000174269 0.997281611
1341845708.069946 0.085036792 0.043817393 -0.033459403 0.046665240 -0.056726638 -0.000897495 0.997298181
1341845708.101700 0.082312629 0.042137586 -0.029149495 0.045987602 -0.056435701 -0.000632194 0.997346342
1341845708.133697 0.083550096 0.042971991 -0.031190513 0.046505913 -0.057452388 -0.000786158 0.997264147
1341845708.169675 0.088608891 0.041823432 -0.030920899 0.046190429 -0.058704287 -0.000533366 0.997206092
1341845708.201793 0.087492518 0.039154451 -0.033754792 0.045613304 -0.058348913 -0.001415035 0.997252643
1341845708.233744 0.085315585 0.040018048 -0.033198092 0.046076857 -0.058998425 -0.001383974 0.997193158
1341845708.269711 0.087693907 0.039547011 -0.031858779 0.046561830 -0.059968386 -0.001304732 0.997112870
1341845708.301629 0.084904067 0.044012226 -0.033692081 0.047370430 -0.060080308 -0.002356470 0.997066140
1341845708.337612 0.084869310 0.044040568 -0.034000009 0.046887085 -0.059736203 -0.004066484 0.997104108
1341845708.369900 0.088731930 0.042441078 -0.034316111 0.046226636 -0.060095016 -0.004154725 0.997113049
1341845708.401883 0.088426411 0.041277021 -0.031876683 0.046387222 -0.060878716 -0.004745916 0.997055411
1341845708.443610 0.090159439 0.041986834 -0.035435062 0.046611484 -0.060991820 -0.005087312 0.997036338
1341845708.501776 0.084467836 0.044005014 -0.033468071 0.046251085 -0.061780028 -0.003957377 0.997009695
1341845708.543852 0.086178444 0.045244500 -0.036508564 0.046673622 -0.063642375 -0.003723974 0.996873796
1341845708.605675 0.087853312 0.044664890 -0.035018381 0.045731679 -0.065276712 -0.006047669 0.996800363
1341845708.637641 0.083832875 0.045255478 -0.038561720 0.045802198 -0.066664614 -0.006578046 0.996701896
1341845708.669692 0.086698189 0.045746543 -0.037572388 0.046029512 -0.068649456 -0.007928129 0.996546865
1341845708.705736 0.088686153 0.047380071 -0.041280277 0.045187321 -0.068314202 -0.009033450 0.996599078
1341845708.738027 0.083670348 0.046585836 -0.039463468 0.044666409 -0.068665512 -0.009235584 0.996596515
1341845708.773829 0.088772982 0.047422245 -0.041700274 0.044855624 -0.071392201 -0.009460595 0.996394277
1341845708.805763 0.086931787 0.049419042 -0.043058090 0.044158589 -0.071221523 -0.010490484 0.996427357
1341845708.838653 0.083307073 0.048142187 -0.038491596 0.043968946 -0.071491025 -0.011872131 0.996400952
1341845708.873912 0.086901158 0.049918111 -0.037180219 0.044068541 -0.073302917 -0.012349132 0.996259093
1341845708.905735 0.085710213 0.049880836 -0.036218580 0.043687474 -0.073397130 -0.012922261 0.996261656
1341845708.938426 0.084987983 0.047484308 -0.039116103 0.043270860 -0.073829941 -0.014779543 0.996222019
1341845708.973642 0.083494388 0.050100699 -0.036985520 0.043753419 -0.074806973 -0.014401039 0.996133626
1341845709.005742 0.082805157 0.052759305 -0.040556714 0.043670524 -0.075499453 -0.015177586 0.996073484
1341845709.041686 0.082334742 0.052460562 -0.041629314 0.043630667 -0.075855039 -0.015791360 0.996038675
1341845709.073656 0.083195992 0.051648244 -0.041451108 0.043097015 -0.076750442 -0.016925853 0.995974660
1341845709.105658 0.078382917 0.050890159 -0.046389144 0.042981945 -0.076644070 -0.018308757 0.995963335
1341845709.141741 0.080868199 0.051168587 -0.040737677 0.042836692 -0.078476369 -0.018062094 0.995831430
1341845709.173646 0.082242459 0.051611058 -0.040287472 0.042444456 -0.078530982 -0.017837755 0.995847940
1341845709.205765 0.085891999 0.053757649 -0.044260029 0.042029347 -0.079161704 -0.017477768 0.995822012
1341845709.241765 0.083240025 0.053018898 -0.041737702 0.041421577 -0.078760810 -0.017835742 0.995872915
1341845709.273754 0.084576122 0.050768618 -0.040095955 0.040770601 -0.078611150 -0.017307127 0.995920956
1341845709.309890 0.083809040 0.052993752 -0.041867528 0.041125681 -0.078709483 -0.016481385 0.995912611
1341845709.341728 0.082255751 0.055638231 -0.039631993 0.040832259 -0.078814656 -0.015928522 0.995925307
1341845709.373776 0.082339860 0.057070144 -0.043120671 0.039752595 -0.078583822 -0.015275411 0.995997488
1341845709.409657 0.082588069 0.057758398 -0.047610901 0.038033806 -0.078456745 -0.014359956 0.996088207
1341845709.442072 0.078399144 0.058152594 -0.046425302 0.035943620 -0.078492284 -0.012229288 0.996191502
1341845709.473660 0.080609716 0.058012068 -0.046133868 0.034219891 -0.079282887 -0.011763108 0.996195197
1341845709.509632 0.081445649 0.059385572 -0.047039755 0.032412864 -0.079271436 -0.010989772 0.996265352
1341845709.541673 0.077318594 0.059769247 -0.047445975 0.030487863 -0.079719812 -0.010770416 0.996292770
1341845709.578645 0.076267913 0.058342930 -0.046846982 0.029575381 -0.080575205 -0.011314171 0.996245444
1341845709.609672 0.076438054 0.056754742 -0.047331121 0.029021347 -0.081955582 -0.012324432 0.996137142
1341845709.642057 0.075646766 0.058256850 -0.045302883 0.028965132 -0.082943536 -0.011669206 0.996064842
1341845709.709730 0.080334827 0.060433786 -0.042442661 0.028239960 -0.084852032 -0.012497362 0.995914876
1341845709.745593 0.079641014 0.061587557 -0.045647610 0.027772741 -0.084431641 -0.012434981 0.995964527
1341845709.777709 0.076993875 0.058708355 -0.045656666 0.026871664 -0.084553115 -0.011144315 0.995994210
1341845709.809687 0.077609912 0.059899915 -0.046112511 0.027217789 -0.084674068 -0.012608028 0.995957077
1341845709.845686 0.080966540 0.062364589 -0.044164322 0.027526561 -0.083432995 -0.014587983 0.996026337
1341845709.878752 0.080096602 0.058292028 -0.044862278 0.026851069 -0.081497051 -0.015909709 0.996184766
1341845709.909693 0.076003335 0.054256592 -0.047665052 0.027217437 -0.080613866 -0.014633073 0.996266246
1341845709.945663 0.075835913 0.054091953 -0.047613770 0.028815605 -0.081809595 -0.013837155 0.996135235
1341845709.977698 0.078521758 0.055064622 -0.046333026 0.030349014 -0.082290985 -0.013855658 0.996049762
1341845710.013739 0.079035223 0.055641051 -0.045558620 0.031116176 -0.081625625 -0.014879279 0.996066093
1341845710.045754 0.077492453 0.054502156 -0.048560150 0.031616557 -0.080777928 -0.015125115 0.996115744
1341845710.077705 0.075915292 0.057174996 -0.048104037 0.032088425 -0.081138276 -0.015566639 0.996064544
1341845710.113730 0.078068271 0.057128187 -0.046912909 0.032111879 -0.081049599 -0.015660323 0.996069551
1341845710.145759 0.076103672 0.056140240 -0.048745066 0.032091454 -0.080857471 -0.015036362 0.996095419
1341845710.177824 0.075110182 0.056052580 -0.048683338 0.032663800 -0.081563361 -0.014760924 0.996023357
1341845710.213581 0.077633962 0.056162126 -0.049067654 0.032939911 -0.081937909 -0.014939906 0.995980859
1341845710.245636 0.074163958 0.053553477 -0.050203819 0.033461828 -0.081602730 -0.015476549 0.995982826
1341845710.281582 0.074941605 0.054875381 -0.051415011 0.035675015 -0.083588205 -0.016904723 0.995718062
1341845710.313617 0.074553147 0.057067398 -0.054549824 0.036406688 -0.083731756 -0.017591549 0.995667636
1341845710.345643 0.075450070 0.055203862 -0.050639264 0.036123015 -0.083577335 -0.016091995 0.995716333
1341845710.381860 0.071840279 0.056424450 -0.050625708 0.037101544 -0.083640054 -0.016638298 0.995666087
1341845710.413817 0.077637166 0.057158768 -0.050276566 0.037361734 -0.084713340 -0.016423235 0.995569170
1341845710.445824 0.076870419 0.055358093 -0.051173922 0.036544636 -0.083979122 -0.015456454 0.995677173
1341845710.481794 0.073003262 0.055798635 -0.052068137 0.036517199 -0.084266536 -0.016048789 0.995644569
1341845710.513650 0.076387703 0.054985546 -0.049872238 0.036500975 -0.084818900 -0.015212334 0.995611370
1341845710.549635 0.074597463 0.054172572 -0.050086997 0.036950245 -0.084669977 -0.014489153 0.995618284
1341845710.581654 0.072946340 0.057184860 -0.052626636 0.038454004 -0.084799416 -0.015088895 0.995541394
1341845710.613694 0.072541185 0.056840044 -0.051179457 0.038281567 -0.084389150 -0.014009994 0.995598674
1341845710.649564 0.073078863 0.055611860 -0.052056473 0.038515009 -0.084354222 -0.013318240 0.995602131
1341845710.681648 0.076458536 0.053945597 -0.051997863 0.039083261 -0.084974341 -0.013966762 0.995518386
1341845710.713728 0.078705236 0.053773239 -0.049695887 0.039218701 -0.084632114 -0.013208406 0.995552540
1341845710.749785 0.076804526 0.053058509 -0.051308006 0.039344463 -0.083689392 -0.012408627 0.995637536
1341845710.781816 0.077598102 0.053622462 -0.051381953 0.040053450 -0.083915293 -0.012900805 0.995584011
1341845710.817567 0.078377001 0.055576663 -0.050412372 0.040401701 -0.083400488 -0.013508249 0.995605111
1341845710.850205 0.079330526 0.055096276 -0.051375229 0.039758407 -0.082775250 -0.012067970 0.995701671
1341845710.882136 0.077547312 0.054170098 -0.051828440 0.039514471 -0.083107539 -0.011745594 0.995687604
1341845710.917631 0.078666396 0.055444069 -0.049359974 0.039746281 -0.083301298 -0.012367952 0.995654643
1341845710.950281 0.075901672 0.053362664 -0.049264561 0.039216179 -0.081984691 -0.012173350 0.995787323
1341845710.985647 0.076960638 0.050026909 -0.052835859 0.039934747 -0.083090708 -0.011320251 0.995677173
1341845711.017722 0.078138947 0.055399574 -0.052125446 0.042095415 -0.084492549 -0.013436613 0.995443821
1341845711.049965 0.085145578 0.059008621 -0.049996868 0.041206960 -0.083539784 -0.014800976 0.995542049
1341845711.085583 0.079569615 0.051679995 -0.048972532 0.039257020 -0.080545083 -0.014377190 0.995873809
1341845711.117670 0.077842250 0.048767231 -0.053027239 0.039730757 -0.081481680 -0.014072062 0.995783210
1341845711.149770 0.083612673 0.054631274 -0.046752937 0.040596083 -0.082729504 -0.012999204 0.995660007
1341845711.191691 0.083264954 0.052203756 -0.048565574 0.039132521 -0.080880955 -0.013201361 0.995867789
1341845711.253627 0.079118654 0.053757098 -0.051662985 0.040473353 -0.082767144 -0.013133384 0.995660067
1341845711.285627 0.084392011 0.054643344 -0.048138857 0.039455004 -0.083726183 -0.013190038 0.995620012
1341845711.317874 0.083063804 0.053936847 -0.046007656 0.038755942 -0.082691059 -0.014078513 0.995721817
1341845711.353756 0.083580844 0.052073397 -0.054148007 0.037230723 -0.081642121 -0.016287494 0.995832920
1341845711.385687 0.082878761 0.051065959 -0.052332852 0.035482023 -0.079750471 -0.016296262 0.996049821
1341845711.417635 0.082126275 0.049211577 -0.050235808 0.034890410 -0.079517901 -0.014948461 0.996110499
1341845711.485895 0.081773661 0.050829813 -0.050930101 0.037018619 -0.081623413 -0.013619232 0.995882392
1341845711.521704 0.080318838 0.052265983 -0.046977971 0.037671700 -0.080872133 -0.012868020 0.995929182
1341845711.553696 0.082184792 0.053088181 -0.047765251 0.038238287 -0.080785610 -0.012870247 0.995914578
1341845711.585708 0.083059281 0.059200540 -0.047194317 0.038088694 -0.080085874 -0.013437917 0.995969355
1341845711.621659 0.081977844 0.054063935 -0.046773575 0.036756150 -0.078679971 -0.013199621 0.996134639
1341845711.653731 0.081028439 0.053211369 -0.047298994 0.037000541 -0.079037622 -0.013026292 0.996099532
1341845711.685758 0.081654854 0.054156560 -0.045270246 0.037102245 -0.079271287 -0.012503831 0.996083915
1341845711.721850 0.082077645 0.053261925 -0.047645673 0.037354153 -0.079094246 -0.011510943 0.996100545
1341845711.754323 0.078988470 0.053227842 -0.048103176 0.037678272 -0.079594500 -0.010861975 0.996055722
1341845711.789716 0.081230126 0.053668063 -0.048066493 0.037966859 -0.080679029 -0.011256686 0.995953202
1341845711.821820 0.082618862 0.053286403 -0.045213882 0.038095843 -0.080641754 -0.011209679 0.995951772
1341845711.854173 0.085417405 0.054759011 -0.048340332 0.038602617 -0.080687881 -0.012223438 0.995916605
1341845711.889875 0.085863233 0.056911565 -0.045256194 0.038324192 -0.079262093 -0.013347859 0.996027410
1341845711.923959 0.084622651 0.054761544 -0.048296642 0.037144922 -0.076906823 -0.013263673 0.996257842
1341845711.957595 0.080739670 0.056119315 -0.048201941 0.036598749 -0.076294310 -0.014467535 0.996308386
1341845711.989820 0.085125558 0.057006150 -0.044603907 0.036113203 -0.076189436 -0.015538455 0.996317983
1341845712.057899 0.084364057 0.055565882 -0.049932528 0.034711588 -0.075733140 -0.013228564 0.996435940
1341845712.090038 0.089113578 0.059062414 -0.046064895 0.034291696 -0.075268976 -0.016624114 0.996434808
1341845712.127587 0.084488831 0.056989789 -0.047480635 0.032621037 -0.072256126 -0.017012196 0.996707380
1341845712.195638 0.080494046 0.056052011 -0.047916327 0.034531247 -0.076952763 -0.014708666 0.996327996
1341845712.257830 0.084137380 0.055906314 -0.046789035 0.032920383 -0.073892817 -0.017229713 0.996573746
1341845712.289935 0.080114730 0.053352803 -0.048279654 0.032950338 -0.074080497 -0.016648952 0.996568680
