1341846226.817920 0.000000000 0.000000000 0.000000000 0.000000000 0.000000000 0.000000000 1.000000000
1341846226.850323 0.005282582 0.000071717 0.001091293 0.000902835 -0.000794510 -0.001860009 0.999997556
1341846226.881894 0.005106229 0.000821032 0.000107404 0.001314039 0.000738079 -0.003140490 0.999993920
1341846226.917980 -0.003649235 0.000287256 0.000792351 0.000441465 0.000748107 -0.003222023 0.999994457
1341846226.950000 -0.001031117 -0.005050504 0.002740426 0.000664466 -0.001918078 -0.002778962 0.999994099
1341846226.985981 0.004110367 -0.000018312 0.001575417 0.003222769 -0.003383379 -0.003115237 0.999984205
1341846227.017919 0.000771811 0.001549246 0.001565350 0.003027448 -0.003587387 -0.003554231 0.999982655
1341846227.050040 0.003949658 -0.002230055 0.002130826 0.002368713 -0.004451566 -0.004393782 0.999977648
1341846227.085982 0.005026704 -0.002214245 0.001394730 0.003089443 -0.004420190 -0.004866520 0.999973595
1341846227.118052 0.003204772 -0.002395539 0.003066866 0.003477542 -0.004086285 -0.005277426 0.999971688
1341846227.149935 0.004876435 -0.001404056 0.002759110 0.004233824 -0.004592258 -0.005252200 0.999966681
1341846227.186053 0.002870309 0.002680668 0.000222423 0.004459498 -0.005437351 -0.005818367 0.999958336
1341846227.218443 0.006951238 -0.001781237 0.004333534 0.002844484 -0.006430833 -0.007239776 0.999949098
1341846227.253944 0.008559495 -0.006039708 0.004506350 0.003486860 -0.006178273 -0.009423780 0.999930441
1341846227.285981 0.005276048 -0.003229019 0.004194909 0.005156010 -0.006302461 -0.010073563 0.999916077
1341846227.320064 0.004672434 -0.002100832 0.003816659 0.005426288 -0.008059084 -0.011184714 0.999890268
1341846227.353969 0.002917050 -0.002029603 0.003357545 0.005876253 -0.009451153 -0.013211137 0.999850810
1341846227.385846 0.001787462 0.001598850 0.001607760 0.005661566 -0.011680808 -0.014410866 0.999811888
1341846227.418015 -0.002080438 0.003218056 0.000891340 0.004462458 -0.014601759 -0.016450042 0.999748111
1341846227.453997 0.003163360 0.000745026 0.001310598 0.002824769 -0.017980967 -0.019687155 0.999640524
1341846227.485981 0.004820960 -0.000634639 0.004416945 0.001797021 -0.019095164 -0.022878209 0.999554276
1341846227.521976 0.002351094 -0.002464552 0.006268084 0.001606487 -0.020388214 -0.023472741 0.999515295
1341846227.553980 0.003431037 -0.009099200 0.005736954 0.002421646 -0.023014046 -0.024269866 0.999437571
1341846227.586047 0.008594925 -0.001263567 0.004415972 0.005104519 -0.023991466 -0.027135897 0.999330759
1341846227.622081 0.007983080 -0.001382139 0.002024908 0.004466214 -0.023197349 -0.030695751 0.999249578
1341846227.653945 0.005481455 -0.007492096 0.006377933 0.003447964 -0.023348175 -0.030776698 0.999247611
1341846227.686038 0.010702259 -0.012813705 0.006639919 0.006004366 -0.024996853 -0.030610796 0.999200702
1341846227.721966 0.016900044 -0.008236198 0.006380524 0.009003803 -0.023544390 -0.031149909 0.999196827
1341846227.754130 0.015063446 -0.008802019 0.005859230 0.009845659 -0.020331526 -0.031895347 0.999235868
1341846227.789951 0.017184295 -0.011267219 0.004894751 0.011159498 -0.018668987 -0.030318674 0.999303639
1341846227.821920 0.018833799 -0.007691886 0.002665635 0.012114513 -0.016972795 -0.029548323 0.999345839
1341846227.854275 0.018185321 -0.010942129 0.005523702 0.011769408 -0.014769557 -0.030060515 0.999369681
1341846227.889935 0.021947570 -0.009673471 0.004352773 0.012389004 -0.013577068 -0.029021701 0.999409795
1341846227.921967 0.021106763 -0.013436182 0.003986902 0.011896607 -0.012665842 -0.027824100 0.999461770
1341846227.958123 0.022012936 -0.012568255 0.005173872 0.012219641 -0.011461119 -0.028304258 0.999458969
1341846227.989985 0.025314823 -0.009623112 0.003994057 0.011490839 -0.009414559 -0.029483974 0.999454856
1341846228.021937 0.023721378 -0.017407404 0.007552322 0.010710195 -0.008583863 -0.029214878 0.999478936
1341846228.058222 0.025879661 -0.018975621 0.004907854 0.013113372 -0.008781640 -0.027693121 0.999491870
1341846228.090097 0.031237556 -0.008135968 0.002041365 0.014176897 -0.008135389 -0.027873894 0.999477804
1341846228.121845 0.032258544 -0.007640064 0.002657558 0.010848972 -0.006185791 -0.027105339 0.999554574
1341846228.157875 0.029216880 -0.007298240 0.005980711 0.008735490 -0.005829951 -0.023303103 0.999673247
1341846228.189872 0.029892566 -0.005125153 0.004833793 0.006553155 -0.006557432 -0.021678075 0.999722004
1341846228.225994 0.030657208 -0.010117860 0.010646864 0.004228896 -0.006631113 -0.022886276 0.999707162
1341846228.258336 0.029884985 -0.017464716 0.009317955 0.003923805 -0.007311241 -0.023171892 0.999697089
1341846228.289941 0.032178387 -0.015225772 0.010059630 0.004898470 -0.008048181 -0.022258472 0.999707878
1341846228.326018 0.036985062 -0.015968766 0.009357238 0.005262568 -0.007888014 -0.022205021 0.999708474
1341846228.358243 0.036070243 -0.013706736 0.007784277 0.005994039 -0.005943733 -0.022022286 0.999721825
1341846228.389779 0.033491164 -0.012792626 0.009016151 0.005704815 -0.005231429 -0.021041909 0.999748647
1341846228.426073 0.037478376 -0.017261855 0.008260519 0.005394548 -0.005016376 -0.021543592 0.999740779
1341846228.493915 0.032196775 -0.012114374 0.005217321 0.006484238 -0.001906244 -0.020205906 0.999773026
1341846228.525907 0.032159887 -0.015702853 0.004268194 0.005284155 -0.002791526 -0.020025652 0.999781609
1341846228.558208 0.037265237 -0.015658250 0.004248991 0.005376094 -0.003012642 -0.019114213 0.999798298
1341846228.593899 0.033101302 -0.017224388 0.005339290 0.005552404 -0.001900190 -0.018287048 0.999815524
1341846228.626021 0.031438310 -0.014417770 0.001749707 0.005743968 -0.003155517 -0.017210649 0.999830425
1341846228.658069 0.032671608 -0.014994673 0.002178570 0.004753255 -0.004488850 -0.016557427 0.999841571
1341846228.693942 0.034834616 -0.015797591 0.002035297 0.003719475 -0.003965732 -0.017369630 0.999834359
1341846228.726069 0.037407458 -0.013632131 0.002783927 0.003530032 -0.003009774 -0.017518917 0.999835789
1341846228.762090 0.033582292 -0.018748574 0.002253547 0.002688977 -0.002448159 -0.015817652 0.999868274
1341846228.794000 0.033332847 -0.021854417 0.002315401 0.003276976 -0.003041983 -0.014641569 0.999882817
1341846228.825934 0.037135761 -0.019286465 -0.001509015 0.004501576 -0.002890405 -0.013650406 0.999892533
1341846228.862015 0.034841307 -0.019379616 -0.001671832 0.004654270 -0.002516247 -0.012634813 0.999906182
1341846228.893856 0.032977924 -0.021724083 -0.002763552 0.004493791 -0.003534388 -0.011751201 0.999914587
1341846228.926548 0.033462547 -0.019686285 -0.000712822 0.005002898 -0.003537983 -0.012502400 0.999903083
1341846228.961940 0.037521530 -0.014802765 -0.002990702 0.005174212 -0.003351052 -0.012408179 0.999904037
1341846228.994040 0.036871564 -0.014114430 -0.003442072 0.004459726 -0.003182770 -0.011810240 0.999915242
1341846229.029897 0.037516568 -0.020519488 0.002218779 0.003606045 -0.003537379 -0.011531276 0.999920726
1341846229.061870 0.037031215 -0.020216497 -0.002640987 0.004917760 -0.003009058 -0.011800348 0.999913752
1341846229.094829 0.036153030 -0.017666815 -0.003804926 0.005200960 -0.002319415 -0.010404695 0.999929667
1341846229.129930 0.036144778 -0.017656976 -0.003833220 0.004636270 -0.001850130 -0.009453036 0.999942899
1341846229.161882 0.036511995 -0.017428827 -0.004340391 0.004255246 -0.001362771 -0.010338361 0.999936581
1341846229.197882 0.035440303 -0.018757081 -0.004377540 0.004347947 -0.001177430 -0.010637487 0.999933243
1341846229.229812 0.036144763 -0.017656974 -0.003833222 0.005712764 -0.001882649 -0.010058560 0.999931335
1341846229.261994 0.036466349 -0.017624578 -0.004476890 0.006863885 -0.002298493 -0.010489982 0.999918759
1341846229.297920 0.036134154 -0.017667951 -0.003879813 0.006858879 -0.002528588 -0.011409486 0.999908209
1341846229.329933 0.036149167 -0.017639568 -0.003902254 0.006826580 -0.003249787 -0.011744574 0.999902427
1341846229.361996 0.036138181 -0.017653991 -0.003786055 0.006949421 -0.003847834 -0.011521329 0.999902070
1341846229.398029 0.036113590 -0.017648263 -0.003656897 0.009442820 -0.003399441 -0.011345794 0.999885261
1341846229.430182 0.036147431 -0.017639177 -0.003806784 0.012029517 -0.003789241 -0.010632801 0.999863923
1341846229.471963 0.036128797 -0.017638005 -0.003760081 0.012649704 -0.003985129 -0.010580372 0.999856055
1341846229.530149 0.036145195 -0.017620547 -0.003890082 0.014512269 -0.003023548 -0.008654829 0.999852657
1341846229.566064 0.036147226 -0.017621838 -0.003849069 0.014666046 -0.003043828 -0.007294198 0.999861240
1341846229.630063 0.036143772 -0.017654568 -0.003857457 0.017967723 -0.000829710 -0.004355134 0.999828756
1341846229.665946 0.036096625 -0.017643332 -0.003820807 0.017235860 -0.000386156 -0.003192371 0.999846280
1341846229.698150 0.036144760 -0.017656974 -0.003833218 0.018291825 -0.000190594 -0.001938979 0.999830782
1341846229.733828 0.036145207 -0.017653594 -0.003830193 0.021526182 0.001411810 -0.001646664 0.999765933
1341846229.765937 0.036143415 -0.017649723 -0.003833931 0.021718547 0.002852069 -0.001814827 0.999758422
1341846229.798002 0.036144260 -0.017648660 -0.003836344 0.019810712 0.002892588 -0.001672668 0.999798179
1341846229.833857 0.036149070 -0.017652560 -0.003847197 0.019798974 0.003038181 -0.001853589 0.999797642
1341846229.865928 0.036145344 -0.017664654 -0.003832367 0.021435305 0.003974678 -0.002440364 0.999759376
1341846229.897926 0.036143795 -0.017652605 -0.003850367 0.021004574 0.004435668 -0.003148354 0.999764562
1341846229.939857 0.036145829 -0.017655021 -0.003866873 0.019037778 0.004529949 -0.003429224 0.999802649
1341846230.002061 0.036135577 -0.017651733 -0.003839454 0.016241055 0.005682888 -0.004288092 0.999842763
1341846230.033858 0.036142111 -0.017662004 -0.003838562 0.013439763 0.005301524 -0.005262120 0.999881804
1341846230.065938 0.036147762 -0.017664144 -0.003846874 0.013264624 0.006092522 -0.004262510 0.999884367
1341846230.103878 0.036143091 -0.017664881 -0.003830069 0.013203594 0.006821275 -0.003395854 0.999883771
1341846230.144719 0.036144760 -0.017656974 -0.003833232 0.012275046 0.006966915 -0.003378170 0.999894679
1341846230.172747 0.036143165 -0.017656358 -0.003829842 0.012224803 0.007429667 -0.002256824 0.999895155
1341846230.208544 0.036145404 -0.017655734 -0.003833809 0.012991902 0.008137174 -0.000875235 0.999882102
1341846230.271971 0.036144484 -0.017655564 -0.003831906 0.011919829 0.008012869 -0.000347393 0.999896765
1341846230.334051 0.036144469 -0.017655307 -0.003834283 0.016207684 0.008602510 0.001311169 0.999830782
1341846230.370031 0.036143646 -0.017655626 -0.003830175 0.018162040 0.009628564 0.000049274 0.999788702
1341846230.401932 0.036144402 -0.017655440 -0.003831360 0.020068653 0.010610251 -0.001214313 0.999741554
1341846230.437965 0.036144771 -0.017656969 -0.003833219 0.021669673 0.011126656 -0.002247063 0.999700725
1341846230.469920 0.036144685 -0.017657010 -0.003833054 0.023072073 0.011577012 -0.003308132 0.999661326
1341846230.501933 0.036144249 -0.017656887 -0.003834135 0.022803048 0.011752947 -0.004279848 0.999661744
1341846230.537834 0.036144607 -0.017657155 -0.003833338 0.022145815 0.011194377 -0.003989139 0.999684095
1341846230.569803 0.036144640 -0.017657161 -0.003833862 0.023774251 0.010707891 -0.004318336 0.999650657
1341846230.601945 0.036144756 -0.017657079 -0.003833742 0.025568346 0.009864765 -0.004136837 0.999615848
1341846230.637789 0.036144774 -0.017656976 -0.003833217 0.026765609 0.009345772 -0.003508223 0.999591887
1341846230.670057 0.036144752 -0.017656978 -0.003833170 0.026030973 0.009079810 -0.004080589 0.999611557
1341846230.705937 0.036144745 -0.017656956 -0.003833132 0.024914403 0.008330496 -0.005075121 0.999642015
1341846230.737932 0.036144722 -0.017656950 -0.003832754 0.025877189 0.008212608 -0.005272411 0.999617457
1341846230.769960 0.036144737 -0.017656950 -0.003832729 0.026841996 0.008089003 -0.005467435 0.999592006
1341846230.805852 0.036144707 -0.017656950 -0.003832734 0.027332027 0.007534095 -0.004757508 0.999586701
1341846230.837804 0.036144752 -0.017657012 -0.003832605 0.027395247 0.006973088 -0.004486414 0.999590278
1341846230.869829 0.036144756 -0.017656958 -0.003832685 0.028412392 0.007386143 -0.004527497 0.999558747
1341846230.905851 0.036144752 -0.017656963 -0.003832691 0.028967675 0.007049551 -0.004491617 0.999545395
1341846230.937917 0.036144741 -0.017656971 -0.003832681 0.028746823 0.005916158 -0.004896119 0.999557197
1341846230.973933 0.036144726 -0.017656960 -0.003832661 0.029374454 0.005505414 -0.004935591 0.999541104
1341846231.006047 0.036144726 -0.017656948 -0.003832688 0.030605640 0.005626384 -0.004190307 0.999506950
1341846231.037936 0.036144748 -0.017656976 -0.003832608 0.030746708 0.004833571 -0.004035163 0.999507368
1341846231.074310 0.036144767 -0.017656980 -0.003833211 0.030472083 0.004283478 -0.004329498 0.999517083
1341846231.106085 0.036144800 -0.017656963 -0.003833149 0.031839039 0.003851091 -0.003734436 0.999478579
1341846231.138083 0.036144760 -0.017656978 -0.003833200 0.033203058 0.003417540 -0.003139498 0.999437809
1341846231.174011 0.036144760 -0.017656973 -0.003833197 0.034564380 0.002983023 -0.002544728 0.999394774
1341846231.205909 0.036144760 -0.017656960 -0.003833191 0.035924982 0.002548512 -0.001949992 0.999349296
1341846231.241869 0.036144767 -0.017656963 -0.003833221 0.037282828 0.002115146 -0.001355259 0.999301612
1341846231.273832 0.036144763 -0.017656961 -0.003833206 0.038639247 0.001682213 -0.000760604 0.999251544
1341846231.305846 0.036144760 -0.017656961 -0.003833203 0.039995845 0.001249122 -0.000165811 0.999199033
1341846231.341923 0.036144760 -0.017656956 -0.003833207 0.041352291 0.000815983 0.000428998 0.999144197
1341846231.410022 0.036144767 -0.017656939 -0.003833201 0.042708654 0.000382873 0.001023797 0.999086976
1341846231.442103 0.036144767 -0.017656932 -0.003833202 0.044064902 -0.000050216 0.001618594 0.999027371
1341846231.484245 0.036144760 -0.017656930 -0.003833196 0.045420911 -0.000483423 0.002213630 0.998965383
1341846231.516816 0.036144767 -0.017656917 -0.003833198 0.046776943 -0.000916512 0.002808420 0.998901010
1341846231.547853 0.036144767 -0.017656904 -0.003833195 0.048132826 -0.001349550 0.003403127 0.998834193
1341846231.583898 0.036144782 -0.017656881 -0.003833192 0.049488638 -0.001782632 0.003997900 0.998765111
1341846231.615993 0.036144778 -0.017656859 -0.003833184 0.050844323 -0.002215708 0.004592658 0.998693585
1341846231.648015 0.036144774 -0.017656870 -0.003833181 0.052200086 -0.002648598 0.005187203 0.998619676
1341846231.683822 0.036144778 -0.017656883 -0.003833181 0.053555537 -0.003081662 0.005781933 0.998543382
1341846231.716153 0.036144767 -0.017656904 -0.003833185 0.054910932 -0.003514725 0.006376495 0.998464704
1341846231.747846 0.036144763 -0.017656911 -0.003833186 0.056266122 -0.003947774 0.006971191 0.998383641
1341846231.783993 0.036144760 -0.017656911 -0.003833191 0.057621170 -0.004380775 0.007565783 0.998300254
1341846231.817027 0.036144756 -0.017656900 -0.003833188 0.058976091 -0.004813802 0.008160440 0.998214424
1341846231.852317 0.036144760 -0.017656893 -0.003833189 0.060330875 -0.005246818 0.008755075 0.998126268
1341846231.909867 0.036144752 -0.017656879 -0.003833177 0.061685510 -0.005679886 0.009349658 0.998035669
1341846231.945837 0.036144760 -0.017656866 -0.003833174 0.063040003 -0.006112879 0.009944244 0.997942746
1341846231.978027 0.036144752 -0.017656866 -0.003833173 0.064394347 -0.006545858 0.010538805 0.997847378
1341846232.009966 0.036144748 -0.017656859 -0.003833171 0.065748446 -0.006978867 0.011133387 0.997749746
1341846232.045845 0.036144752 -0.017656855 -0.003833165 0.067102484 -0.007411815 0.011727895 0.997649670
1341846232.077961 0.036144748 -0.017656853 -0.003833165 0.068456352 -0.007844747 0.012322376 0.997547209
1341846232.109864 0.036144741 -0.017656840 -0.003833161 0.069810033 -0.008277728 0.012917021 0.997442305
1341846232.145999 0.036144745 -0.017656840 -0.003833159 0.071163572 -0.008710620 0.013511443 0.997335136
1341846232.178314 0.036144748 -0.017656827 -0.003833157 0.072516933 -0.009143491 0.014105831 0.997225523
1341846232.215951 0.036144748 -0.017656820 -0.003833155 0.073870137 -0.009576265 0.014700063 0.997113526
1341846232.252037 0.036144745 -0.017656824 -0.003833156 0.075223163 -0.010009091 0.015294380 0.996999145
1341846232.283944 0.036144756 -0.017656820 -0.003833154 0.076576002 -0.010441894 0.015888661 0.996882439
1341846232.319867 0.036144752 -0.017656816 -0.003833152 0.077928655 -0.010874671 0.016482903 0.996763349
1341846232.351854 0.036144756 -0.017656799 -0.003833151 0.079281062 -0.011307462 0.017077219 0.996641874
1341846232.383877 0.036144752 -0.017656790 -0.003833147 0.080633327 -0.011740186 0.017671378 0.996518016
1341846232.419782 0.036144745 -0.017656775 -0.003833144 0.081985407 -0.012172882 0.018265495 0.996391773
1341846232.451780 0.036144752 -0.017656775 -0.003833138 0.083337292 -0.012605480 0.018859468 0.996263146
1341846232.484170 0.036144760 -0.017656775 -0.003833140 0.084688976 -0.013038116 0.019453490 0.996132195
1341846232.519889 0.036144763 -0.017656775 -0.003833140 0.086040452 -0.013470719 0.020047463 0.995998859
1341846232.551877 0.036144752 -0.017656773 -0.003833135 0.087391712 -0.013903288 0.020641387 0.995863080
1341846232.583846 0.036144756 -0.017656771 -0.003833129 0.088742755 -0.014335826 0.021235259 0.995724976
1341846232.619798 0.036144760 -0.017656771 -0.003833135 0.090093598 -0.014768305 0.021829031 0.995584488
1341846232.651799 0.036144763 -0.017656770 -0.003833138 0.091444194 -0.015200770 0.022422798 0.995441675
1341846232.688092 0.036144771 -0.017656768 -0.003833139 0.092794575 -0.015633198 0.023016509 0.995296478
1341846232.719804 0.036144774 -0.017656773 -0.003833136 0.094144732 -0.016065562 0.023610098 0.995148838
1341846232.751767 0.036144782 -0.017656766 -0.003833135 0.095494665 -0.016497914 0.024203697 0.994998872
1341846232.787894 0.036144778 -0.017656773 -0.003833133 0.096844375 -0.016930224 0.024797233 0.994846523
1341846232.819886 0.036144789 -0.017656771 -0.003833133 0.098193847 -0.017362529 0.025390742 0.994691849
1341846232.855850 0.036144797 -0.017656771 -0.003833128 0.099543087 -0.017794754 0.025984153 0.994534731
1341846232.887989 0.036144797 -0.017656775 -0.003833130 0.100892089 -0.018226916 0.026577469 0.994375288
1341846232.919822 0.036144800 -0.017656770 -0.003833130 0.102240831 -0.018659072 0.027170788 0.994213462
1341846232.955993 0.036144804 -0.017656768 -0.003833129 0.103589341 -0.019091140 0.027763966 0.994049251
1341846232.987965 0.036144797 -0.017656762 -0.003833127 0.104937591 -0.019523179 0.028357117 0.993882716
1341846233.023868 0.036144808 -0.017656747 -0.003833125 0.106285609 -0.019955190 0.028950222 0.993713796
1341846233.055880 0.036144819 -0.017656736 -0.003833123 0.107633382 -0.020387139 0.029543236 0.993542433
1341846233.087872 0.036144815 -0.017656730 -0.003833111 0.108980902 -0.020819031 0.030136226 0.993368804
1341846233.124060 0.036144771 -0.017656727 -0.003833107 0.110328153 -0.021250885 0.030729093 0.993192792
1341846233.155902 0.036144771 -0.017656729 -0.003833101 0.111675136 -0.021682687 0.031321891 0.993014336
1341846233.218177 0.036144800 -0.017656740 -0.003833094 0.113021873 -0.022114445 0.031914610 0.992833555
1341846233.249926 0.036144808 -0.017656727 -0.003833105 0.114368342 -0.022546221 0.032507263 0.992650390
1341846233.286015 0.036144808 -0.017656716 -0.003833095 0.115714528 -0.022977812 0.033099800 0.992464900
1341846233.317870 0.036144808 -0.017656712 -0.003833091 0.117060430 -0.023409409 0.033692289 0.992277026
1341846233.349815 0.036144812 -0.017656710 -0.003833098 0.118406035 -0.023841010 0.034284737 0.992086768
1341846233.385857 0.036144815 -0.017656710 -0.003833098 0.119751349 -0.024272492 0.034877069 0.991894186
1341846233.417990 0.036144808 -0.017656703 -0.003833089 0.121096373 -0.024703857 0.035469294 0.991699219
1341846233.453822 0.036144815 -0.017656706 -0.003833086 0.122441091 -0.025135221 0.036061455 0.991501868
1341846233.485912 0.036144812 -0.017656701 -0.003833090 0.123785518 -0.025566528 0.036653526 0.991302192
1341846233.517954 0.036144804 -0.017656697 -0.003833087 0.125129640 -0.025997773 0.037245508 0.991100132
1341846233.553882 0.036144793 -0.017656684 -0.003833081 0.126473457 -0.026428977 0.037837330 0.990895689
1341846233.585968 0.036144800 -0.017656684 -0.003833082 0.127816990 -0.026860101 0.038429145 0.990688920
1341846233.621898 0.036144800 -0.017656682 -0.003833083 0.129160196 -0.027291162 0.039020859 0.990479767
1341846233.654396 0.036144800 -0.017656676 -0.003833083 0.130503118 -0.027722158 0.039612487 0.990268290
1341846233.685848 0.036144808 -0.017656671 -0.003833080 0.131845713 -0.028153084 0.040204022 0.990054429
1341846233.721879 0.036144812 -0.017656658 -0.003833076 0.133187979 -0.028583935 0.040795367 0.989838183
1341846233.753961 0.036144815 -0.017656656 -0.003833077 0.134529933 -0.029014729 0.041386709 0.989619613
1341846233.822009 0.036144812 -0.017656637 -0.003833074 0.135871559 -0.029445454 0.041977949 0.989398658
1341846233.853971 0.036144819 -0.017656634 -0.003833070 0.137212887 -0.029876111 0.042569093 0.989175379
1341846233.889920 0.036144823 -0.017656619 -0.003833067 0.138553858 -0.030306684 0.043160219 0.988949716
1341846233.922045 0.036144827 -0.017656611 -0.003833066 0.139894485 -0.030737199 0.043751154 0.988721669
1341846233.953967 0.036144819 -0.017656611 -0.003833064 0.141234770 -0.031167641 0.044341985 0.988491356
1341846233.989945 0.036144812 -0.017656606 -0.003833062 0.142574728 -0.031598009 0.044932712 0.988258600
1341846234.021936 0.036144815 -0.017656598 -0.003833062 0.143914342 -0.032028303 0.045523331 0.988023520
1341846234.053904 0.036144812 -0.017656587 -0.003833057 0.145253628 -0.032458521 0.046113838 0.987786055
1341846234.089899 0.036144819 -0.017656574 -0.003833060 0.146592557 -0.032888673 0.046704166 0.987546265
1341846234.158063 0.036144815 -0.017656570 -0.003833056 0.147931144 -0.033318732 0.047294449 0.987304151
1341846234.189961 0.036144823 -0.017656572 -0.003833055 0.149269357 -0.033748716 0.047884624 0.987059653
1341846234.222130 0.036144827 -0.017656561 -0.003833056 0.150607184 -0.034178611 0.048474684 0.986812770
1341846234.257875 0.036144827 -0.017656550 -0.003833055 0.151944682 -0.034608431 0.049064629 0.986563563
1341846234.289820 0.036144834 -0.017656535 -0.003833052 0.153281793 -0.035038151 0.049654514 0.986312032
1341846234.321998 0.036144838 -0.017656537 -0.003833052 0.154618531 -0.035467807 0.050244220 0.986058116
1341846234.357904 0.036144841 -0.017656529 -0.003833050 0.155954927 -0.035897382 0.050833810 0.985801876
1341846234.389919 0.036144838 -0.017656531 -0.003833048 0.157290906 -0.036326867 0.051423267 0.985543251
1341846234.425915 0.036144838 -0.017656537 -0.003833045 0.158626512 -0.036756285 0.052012548 0.985282362
1341846234.457800 0.036144838 -0.017656529 -0.003833047 0.159961745 -0.037185594 0.052601758 0.985019028
1341846234.490016 0.036144841 -0.017656507 -0.003833045 0.161296591 -0.037614807 0.053190846 0.984753370
1341846234.525867 0.036144841 -0.017656496 -0.003833042 0.162631050 -0.038043946 0.053779811 0.984485388
1341846234.557961 0.036144845 -0.017656496 -0.003833042 0.163965106 -0.038472995 0.054368645 0.984215081
1341846234.593900 0.036144838 -0.017656477 -0.003833035 0.165298745 -0.038901962 0.054957345 0.983942389
1341846234.658173 0.036144830 -0.017656475 -0.003833035 0.166631997 -0.039330844 0.055545915 0.983667374
1341846234.694104 0.036144823 -0.017656470 -0.003833035 0.167964846 -0.039759677 0.056134548 0.983390033
1341846234.725911 0.036144819 -0.017656466 -0.003833033 0.169297278 -0.040188365 0.056722857 0.983110309
1341846234.758643 0.036144812 -0.017656464 -0.003833033 0.170629308 -0.040616959 0.057311039 0.982828259
1341846234.793907 0.036144815 -0.017656453 -0.003833033 0.171960950 -0.041045457 0.057899091 0.982543826
1341846234.826106 0.036144819 -0.017656449 -0.003833028 0.173292175 -0.041473854 0.058487013 0.982257128
1341846234.862270 0.036144819 -0.017656444 -0.003833024 0.174622998 -0.041902151 0.059074789 0.981968045
1341846234.893971 0.036144808 -0.017656440 -0.003833024 0.175953418 -0.042330343 0.059662428 0.981676579
1341846234.926031 0.036144815 -0.017656436 -0.003833024 0.177283391 -0.042758431 0.060249902 0.981382847
1341846234.961979 0.036144827 -0.017656434 -0.003833020 0.178612962 -0.043186419 0.060837254 0.981086731
1341846234.994016 0.036144815 -0.017656429 -0.003833020 0.179942101 -0.043614306 0.061424460 0.980788291
1341846235.026311 0.036144819 -0.017656418 -0.003833020 0.181270808 -0.044042088 0.062011525 0.980487525
1341846235.061915 0.036144823 -0.017656406 -0.003833013 0.182599083 -0.044469770 0.062598437 0.980184376
1341846235.094075 0.036144819 -0.017656401 -0.003833008 0.183926895 -0.044897344 0.063185193 0.979878962
1341846235.130068 0.036144819 -0.017656393 -0.003833007 0.185254246 -0.045324784 0.063771717 0.979571164
1341846235.162449 0.036144819 -0.017656393 -0.003833005 0.186581150 -0.045752149 0.064358167 0.979261100
1341846235.193917 0.036144808 -0.017656391 -0.003833007 0.187907621 -0.046179403 0.064944461 0.978948653
1341846235.229939 0.036144823 -0.017656388 -0.003833002 0.189233631 -0.046606548 0.065530613 0.978633881
1341846235.261811 0.036144815 -0.017656382 -0.003833003 0.190559193 -0.047033582 0.066116594 0.978316724
1341846235.294134 0.036144819 -0.017656380 -0.003833000 0.191884309 -0.047460500 0.066702418 0.977997303
1341846235.329890 0.036144815 -0.017656375 -0.003833001 0.193208978 -0.047887310 0.067288078 0.977675557
1341846235.361974 0.036144823 -0.017656358 -0.003833001 0.194533199 -0.048314001 0.067873500 0.977351427
1341846235.398097 0.036144823 -0.017656347 -0.003832991 0.195856988 -0.048740577 0.068458840 0.977024972
1341846235.462163 0.036144827 -0.017656345 -0.003832990 0.197180286 -0.049167033 0.069044016 0.976696193
1341846235.498142 0.036144827 -0.017656328 -0.003832988 0.198503152 -0.049593367 0.069629021 0.976365089
1341846235.529989 0.036144812 -0.017656317 -0.003832975 0.199825525 -0.050019585 0.070213832 0.976031661
1341846235.561921 0.036144815 -0.017656321 -0.003832974 0.201147407 -0.050445672 0.070798509 0.975695908
1341846235.597951 0.036144812 -0.017656311 -0.003832976 0.202468812 -0.050871644 0.071382992 0.975357831
1341846235.630160 0.036144808 -0.017656302 -0.003832974 0.203789771 -0.051297490 0.071967304 0.975017428
1341846235.667679 0.036144819 -0.017656306 -0.003832970 0.205110237 -0.051723205 0.072551444 0.974674702
1341846235.705783 0.036144823 -0.017656304 -0.003832972 0.206430241 -0.052148812 0.073135406 0.974329650
1341846235.730392 0.036144815 -0.017656296 -0.003832963 0.207749754 -0.052574262 0.073719092 0.973982275
1341846235.766032 0.036144815 -0.017656296 -0.003832963 0.209068775 -0.052999631 0.074302785 0.973632574
1341846235.797942 0.036144815 -0.017656300 -0.003832970 0.210387319 -0.053424831 0.074886113 0.973280549
1341846235.833964 0.036144815 -0.017656289 -0.003832969 0.211705372 -0.053849928 0.075469352 0.972926199
1341846235.866037 0.036144819 -0.017656287 -0.003832965 0.213022932 -0.054274894 0.076052412 0.972569525
1341846235.898007 0.036144819 -0.017656285 -0.003832965 0.214340001 -0.054699723 0.076635286 0.972210526
1341846235.934106 0.036144823 -0.017656285 -0.003832962 0.215656549 -0.055124417 0.077217974 0.971849203
1341846235.965921 0.036144834 -0.017656282 -0.003832968 0.216972589 -0.055548992 0.077800483 0.971485615
1341846235.997897 0.036144841 -0.017656278 -0.003832958 0.218288109 -0.055973444 0.078382865 0.971119702
1341846236.034072 0.036144834 -0.017656272 -0.003832951 0.219603121 -0.056397703 0.078964911 0.970751405
1341846236.065823 0.036144845 -0.017656270 -0.003832954 0.220917627 -0.056821853 0.079546854 0.970380843
1341846236.101989 0.036144845 -0.017656257 -0.003832947 0.222231612 -0.057245865 0.080128603 0.970007956
1341846236.134258 0.036144830 -0.017656254 -0.003832935 0.223545060 -0.057669744 0.080710158 0.969632745
1341846236.166269 0.036144834 -0.017656254 -0.003832937 0.224857986 -0.058093484 0.081291527 0.969255209
1341846236.202022 0.036144849 -0.017656244 -0.003832935 0.226170361 -0.058517084 0.081872694 0.968875408
1341846236.233893 0.036144841 -0.017656239 -0.003832922 0.227482215 -0.058940541 0.082453676 0.968493283
1341846236.265924 0.036144845 -0.017656229 -0.003832918 0.228793532 -0.059363857 0.083034463 0.968108833
1341846236.302018 0.036144845 -0.017656220 -0.003832920 0.230104282 -0.059787046 0.083615094 0.967722058
1341846236.333756 0.036144849 -0.017656220 -0.003832913 0.231414512 -0.060210072 0.084195487 0.967333019
1341846236.369949 0.036144845 -0.017656213 -0.003832909 0.232724175 -0.060632948 0.084775686 0.966941655
1341846236.401964 0.036144853 -0.017656209 -0.003832906 0.234033257 -0.061055679 0.085355684 0.966548026
1341846236.433828 0.036144853 -0.017656200 -0.003832900 0.235341802 -0.061478261 0.085935481 0.966152012
1341846236.469948 0.036144845 -0.017656200 -0.003832894 0.236649752 -0.061900690 0.086515076 0.965753734
1341846236.501946 0.036144856 -0.017656196 -0.003832896 0.237957165 -0.062322974 0.087094486 0.965353191
1341846236.534764 0.036144864 -0.017656190 -0.003832891 0.239264011 -0.062745102 0.087673679 0.964950323
1341846236.569956 0.036144864 -0.017656181 -0.003832888 0.240570292 -0.063167050 0.088252679 0.964545131
1341846236.601901 0.036144864 -0.017656183 -0.003832885 0.241875991 -0.063588873 0.088831455 0.964137673
1341846236.637896 0.036144871 -0.017656170 -0.003832883 0.243181139 -0.064010538 0.089410022 0.963727891
1341846236.669818 0.036144868 -0.017656157 -0.003832868 0.244485736 -0.064432047 0.089988388 0.963315785
1341846236.702100 0.036144871 -0.017656157 -0.003832861 0.245789766 -0.064853385 0.090566538 0.962901413
1341846236.738521 0.036144886 -0.017656164 -0.003832866 0.247093216 -0.065274581 0.091144487 0.962484717
1341846236.769905 0.036144894 -0.017656190 -0.003832894 0.248396099 -0.065695614 0.091722190 0.962065756
1341846236.805999 0.036144894 -0.017656190 -0.003832895 0.249698386 -0.066116489 0.092299685 0.961644471
1341846236.844067 0.036144882 -0.017656187 -0.003832889 0.251000106 -0.066537216 0.092876956 0.961220860
1341846236.876573 0.036144890 -0.017656179 -0.003832885 0.252301216 -0.066957802 0.093454011 0.960795045
1341846236.911899 0.036144890 -0.017656153 -0.003832879 0.253601730 -0.067378201 0.094030827 0.960366905
1341846236.944484 0.036144894 -0.017656155 -0.003832870 0.254901648 -0.067798443 0.094607420 0.959936440
1341846236.975811 0.036144890 -0.017656157 -0.003832876 0.256200939 -0.068218522 0.095183797 0.959503710
1341846237.011848 0.036144886 -0.017656149 -0.003832866 0.257499635 -0.068638436 0.095759936 0.959068656
1341846237.043850 0.036144897 -0.017656140 -0.003832857 0.258797705 -0.069058158 0.096335754 0.958631396
1341846237.075882 0.036144894 -0.017656140 -0.003832855 0.260095209 -0.069477744 0.096911445 0.958191812
1341846237.111887 0.036144890 -0.017656149 -0.003832860 0.261392027 -0.069897167 0.097486906 0.957749903
1341846237.143863 0.036144890 -0.017656149 -0.003832861 0.262688220 -0.070316434 0.098062120 0.957305729
1341846237.175838 0.036144894 -0.017656140 -0.003832859 0.263983786 -0.070735544 0.098637104 0.956859350
1341846237.211847 0.036144897 -0.017656131 -0.003832849 0.265278757 -0.071154483 0.099211842 0.956410587
1341846237.243895 0.036144897 -0.017656131 -0.003832840 0.266573042 -0.071573257 0.099786349 0.955959618
1341846237.280228 0.036144901 -0.017656129 -0.003832847 0.267866701 -0.071991861 0.100360595 0.955506325
1341846237.312079 0.036144897 -0.017656123 -0.003832840 0.269159734 -0.072410293 0.100934625 0.955050766
1341846237.343828 0.036144897 -0.017656116 -0.003832836 0.270452082 -0.072828576 0.101508498 0.954592943
1341846237.379983 0.036144897 -0.017656112 -0.003832835 0.271743864 -0.073246665 0.102082051 0.954132855
1341846237.411962 0.036144901 -0.017656101 -0.003832827 0.273034930 -0.073664568 0.102655359 0.953670442
1341846237.443790 0.036144894 -0.017656093 -0.003832819 0.274325401 -0.074082285 0.103228420 0.953205764
1341846237.479911 0.036144886 -0.017656084 -0.003832807 0.275615245 -0.074499816 0.103801243 0.952738822
1341846237.511862 0.036144894 -0.017656071 -0.003832798 0.276904374 -0.074917167 0.104373820 0.952269673
1341846237.547914 0.036144886 -0.017656069 -0.003832792 0.278192908 -0.075334318 0.104946136 0.951798201
1341846237.579956 0.036144879 -0.017656062 -0.003832786 0.279480755 -0.075751297 0.105518207 0.951324463
1341846237.611852 0.036144868 -0.017656060 -0.003832785 0.280767947 -0.076168075 0.106090024 0.950848401
1341846237.647976 0.036144875 -0.017656047 -0.003832777 0.282054454 -0.076584697 0.106661625 0.950370133
1341846237.680417 0.036144871 -0.017656043 -0.003832770 0.283340305 -0.077001125 0.107232951 0.949889541
1341846237.711902 0.036144868 -0.017656039 -0.003832766 0.284625471 -0.077417389 0.107804023 0.949406743
1341846237.747860 0.036144868 -0.017656041 -0.003832767 0.285909921 -0.077833489 0.108374827 0.948921680
1341846237.779848 0.036144864 -0.017656041 -0.003832768 0.287193686 -0.078249417 0.108945362 0.948434353
1341846237.815934 0.036144860 -0.017656032 -0.003832766 0.288476795 -0.078665160 0.109515645 0.947944760
1341846237.847966 0.036144856 -0.017656025 -0.003832764 0.289759189 -0.079080716 0.110085666 0.947452903
1341846237.879781 0.036144856 -0.017656021 -0.003832759 0.291040927 -0.079496093 0.110655420 0.946958780
1341846237.916026 0.036144841 -0.017656015 -0.003832745 0.292321980 -0.079911284 0.111224905 0.946462393
1341846237.978064 0.036144838 -0.017656010 -0.003832737 0.293602407 -0.080326274 0.111794129 0.945963740
1341846238.010069 0.036144838 -0.017656000 -0.003832730 0.294882119 -0.080741078 0.112363100 0.945462823
1341846238.045995 0.036144841 -0.017655993 -0.003832723 0.296161115 -0.081155695 0.112931803 0.944959641
1341846238.077963 0.036144834 -0.017655991 -0.003832715 0.297439396 -0.081570119 0.113500230 0.944454253
1341846238.109791 0.036144838 -0.017655984 -0.003832707 0.298716962 -0.081984363 0.114068374 0.943946600
1341846238.145837 0.036144834 -0.017655984 -0.003832705 0.299993843 -0.082398400 0.114636235 0.943436682
1341846238.177943 0.036144834 -0.017655982 -0.003832704 0.301270008 -0.082812257 0.115203843 0.942924500
1341846238.209943 0.036144838 -0.017655969 -0.003832690 0.302545458 -0.083225928 0.115771182 0.942410052
1341846238.246227 0.036144841 -0.017655959 -0.003832683 0.303820193 -0.083639406 0.116338238 0.941893399
1341846238.278227 0.036144838 -0.017655954 -0.003832676 0.305094212 -0.084052667 0.116905019 0.941374421
1341846238.345918 0.036144841 -0.017655950 -0.003832674 0.306367487 -0.084465742 0.117471524 0.940853298
1341846238.377978 0.036144838 -0.017655952 -0.003832667 0.307639986 -0.084878609 0.118037730 0.940329909
1341846238.413879 0.036144845 -0.017655952 -0.003832670 0.308911800 -0.085291289 0.118603639 0.939804316
1341846238.445979 0.036144838 -0.017655952 -0.003832669 0.310182840 -0.085703753 0.119169243 0.939276397
1341846238.478188 0.036144830 -0.017655946 -0.003832658 0.311453134 -0.086116031 0.119734555 0.938746274
1341846238.515328 0.036144827 -0.017655943 -0.003832650 0.312722683 -0.086528100 0.120299578 0.938213944
1341846238.545906 0.036144830 -0.017655944 -0.003832658 0.313991547 -0.086939923 0.120864257 0.937679410
1341846238.587827 0.036144834 -0.017655935 -0.003832656 0.315259665 -0.087351568 0.121428691 0.937142551
1341846238.645944 0.036144834 -0.017655926 -0.003832647 0.316527039 -0.087762997 0.121992856 0.936603487
1341846238.681933 0.036144838 -0.017655920 -0.003832634 0.317793667 -0.088174216 0.122556746 0.936062157
1341846238.713917 0.036144838 -0.017655924 -0.003832633 0.319059581 -0.088585205 0.123120315 0.935518622
1341846238.745925 0.036144838 -0.017655915 -0.003832637 0.320324719 -0.088995978 0.123683579 0.934972823
1341846238.781932 0.036144834 -0.017655913 -0.003832633 0.321589142 -0.089406535 0.124246567 0.934424818
1341846238.813869 0.036144834 -0.017655902 -0.003832624 0.322852761 -0.089816861 0.124809258 0.933874547
1341846238.849931 0.036144830 -0.017655905 -0.003832611 0.324115664 -0.090226971 0.125371635 0.933322072
1341846238.881927 0.036144827 -0.017655902 -0.003832601 0.325377792 -0.090636872 0.125933737 0.932767332
1341846238.914000 0.036144823 -0.017655905 -0.003832605 0.326639116 -0.091046534 0.126495540 0.932210386
1341846238.949903 0.036144815 -0.017655915 -0.003832610 0.327899724 -0.091455974 0.127057046 0.931651294
1341846239.017941 0.036144819 -0.017655909 -0.003832623 0.329159558 -0.091865167 0.127618223 0.931089878
1341846239.050041 0.036144819 -0.017655903 -0.003832614 0.330418617 -0.092274159 0.128179088 0.930526257
1341846239.081902 0.036144819 -0.017655902 -0.003832610 0.331676900 -0.092682913 0.128739670 0.929960430
1341846239.117866 0.036144819 -0.017655902 -0.003832604 0.332934380 -0.093091451 0.129299924 0.929392397
1341846239.149976 0.036144823 -0.017655894 -0.003832605 0.334191084 -0.093499765 0.129859924 0.928822100
1341846239.181897 0.036144834 -0.017655887 -0.003832595 0.335446954 -0.093907855 0.130419582 0.928249657
1341846239.217929 0.036144819 -0.017655881 -0.003832585 0.336702079 -0.094315715 0.130978957 0.927674949
1341846239.250009 0.036144815 -0.017655874 -0.003832579 0.337956369 -0.094723336 0.131537959 0.927098036
1341846239.285917 0.036144819 -0.017655872 -0.003832569 0.339209855 -0.095130727 0.132096633 0.926518917
1341846239.318442 0.036144812 -0.017655862 -0.003832558 0.340462536 -0.095537923 0.132655069 0.925937593
1341846239.349930 0.036144812 -0.017655859 -0.003832544 0.341714412 -0.095944874 0.133213148 0.925354064
1341846239.386011 0.036144815 -0.017655859 -0.003832542 0.342965543 -0.096351549 0.133770868 0.924768269
1341846239.417983 0.036144815 -0.017655857 -0.003832540 0.344215840 -0.096758030 0.134328276 0.924180329
1341846239.450112 0.036144812 -0.017655851 -0.003832534 0.345465302 -0.097164266 0.134885371 0.923590124
1341846239.485973 0.036144819 -0.017655842 -0.003832522 0.346713960 -0.097570278 0.135442138 0.922997773
1341846239.517913 0.036144815 -0.017655844 -0.003832517 0.347961813 -0.097976051 0.135998562 0.922403216
1341846239.553979 0.036144812 -0.017655838 -0.003832509 0.349208862 -0.098381579 0.136554658 0.921806455
1341846239.585911 0.036144804 -0.017655836 -0.003832495 0.350455046 -0.098786868 0.137110412 0.921207428
1341846239.617967 0.036144808 -0.017655825 -0.003832495 0.351700425 -0.099191926 0.137665853 0.920606256
1341846239.653941 0.036144808 -0.017655823 -0.003832489 0.352944970 -0.099596731 0.138220936 0.920002878
1341846239.685852 0.036144815 -0.017655808 -0.003832485 0.354188681 -0.100001313 0.138775706 0.919397295
1341846239.717923 0.036144808 -0.017655816 -0.003832480 0.355431587 -0.100405656 0.139330134 0.918789506
1341846239.753857 0.036144804 -0.017655816 -0.003832473 0.356673568 -0.100809775 0.139884219 0.918179572
1341846239.785918 0.036144800 -0.017655807 -0.003832468 0.357914716 -0.101213656 0.140437976 0.917567432
1341846239.821950 0.036144797 -0.017655812 -0.003832459 0.359154969 -0.101617292 0.140991390 0.916953146
1341846239.854023 0.036144797 -0.017655803 -0.003832460 0.360394329 -0.102020681 0.141544476 0.916336656
1341846239.891801 0.036144797 -0.017655805 -0.003832455 0.361632824 -0.102423832 0.142097205 0.915718019
1341846239.953963 0.036144793 -0.017655807 -0.003832448 0.362870455 -0.102826752 0.142649591 0.915097177
1341846239.985997 0.036144786 -0.017655797 -0.003832451 0.364107221 -0.103229426 0.143201604 0.914474130
1341846240.022055 0.036144786 -0.017655795 -0.003832443 0.365343183 -0.103631847 0.143753290 0.913848877
1341846240.053998 0.036144786 -0.017655792 -0.003832435 0.366578281 -0.104034014 0.144304663 0.913221478
1341846240.089841 0.036144786 -0.017655797 -0.003832436 0.367812485 -0.104435936 0.144855693 0.912591875
1341846240.121795 0.036144786 -0.017655795 -0.003832431 0.369045794 -0.104837626 0.145406410 0.911960125
1341846240.159862 0.036144778 -0.017655795 -0.003832429 0.370278209 -0.105239056 0.145956770 0.911326170
1341846240.195884 0.036144789 -0.017655790 -0.003832430 0.371509761 -0.105640247 0.146506801 0.910690069
1341846240.227927 0.036144786 -0.017655790 -0.003832421 0.372740358 -0.106041215 0.147056490 0.910051763
1341846240.290031 0.036144782 -0.017655794 -0.003832418 0.373970062 -0.106441937 0.147605851 0.909411371
1341846240.322206 0.036144782 -0.017655782 -0.003832415 0.375198901 -0.106842406 0.148154840 0.908768713
1341846240.357948 0.036144778 -0.017655777 -0.003832407 0.376426846 -0.107242636 0.148703471 0.908123970
1341846240.422212 0.036144786 -0.017655775 -0.003832411 0.377653837 -0.107642584 0.149251744 0.907477021
1341846240.458143 0.036144774 -0.017655773 -0.003832405 0.378879905 -0.108042270 0.149799630 0.906827927
1341846240.490243 0.036144778 -0.017655775 -0.003832402 0.380105078 -0.108441710 0.150347158 0.906176746
1341846240.525976 0.036144771 -0.017655781 -0.003832394 0.381329268 -0.108840868 0.150894344 0.905523360
1341846240.557894 0.036144771 -0.017655775 -0.003832398 0.382552564 -0.109239750 0.151441157 0.904867828
1341846240.590418 0.036144767 -0.017655775 -0.003832387 0.383774936 -0.109638363 0.151987612 0.904210150
1341846240.626172 0.036144767 -0.017655771 -0.003832386 0.384996355 -0.110036716 0.152533710 0.903550327
1341846240.657964 0.036144767 -0.017655762 -0.003832388 0.386216849 -0.110434800 0.153079465 0.902888298
1341846240.689825 0.036144771 -0.017655762 -0.003832385 0.387436420 -0.110832609 0.153624877 0.902224243
1341846240.725903 0.036144767 -0.017655756 -0.003832384 0.388655066 -0.111230150 0.154169902 0.901557982
1341846240.757973 0.036144774 -0.017655758 -0.003832378 0.389872760 -0.111627422 0.154714540 0.900889575
1341846240.794024 0.036144771 -0.017655754 -0.003832378 0.391089559 -0.112024419 0.155258805 0.900218964
1341846240.826068 0.036144771 -0.017655751 -0.003832381 0.392305464 -0.112421177 0.155802697 0.899546206
1341846240.858147 0.036144771 -0.017655743 -0.003832371 0.393520445 -0.112817645 0.156346202 0.898871362
1341846240.894038 0.036144774 -0.017655738 -0.003832366 0.394734442 -0.113213859 0.156889349 0.898194373
1341846240.925975 0.036144767 -0.017655728 -0.003832362 0.395947546 -0.113609776 0.157432064 0.897515178
1341846240.958080 0.036144767 -0.017655725 -0.003832354 0.397159696 -0.114005417 0.157974452 0.896833897
1341846240.994099 0.036144756 -0.017655721 -0.003832348 0.398370862 -0.114400767 0.158516437 0.896150410
1341846241.026041 0.036144763 -0.017655727 -0.003832339 0.399581134 -0.114795849 0.159058049 0.895464897
1341846241.062449 0.036144767 -0.017655719 -0.003832343 0.400790423 -0.115190640 0.159599274 0.894777179
1341846241.094372 0.036144767 -0.017655712 -0.003832344 0.401998758 -0.115585148 0.160140112 0.894087374
1341846241.126068 0.036144763 -0.017655702 -0.003832339 0.403206140 -0.115979388 0.160680562 0.893395424
1341846241.167863 0.036144771 -0.017655706 -0.003832336 0.404412568 -0.116373330 0.161220640 0.892701328
1341846241.230127 0.036144763 -0.017655706 -0.003832323 0.405618012 -0.116767012 0.161760315 0.892005086
1341846241.261868 0.036144767 -0.017655697 -0.003832326 0.406822503 -0.117160425 0.162299603 0.891306758
1341846241.295211 0.036144767 -0.017655699 -0.003832325 0.408026010 -0.117553554 0.162838489 0.890606284
1341846241.329804 0.036144771 -0.017655676 -0.003832319 0.409228534 -0.117946416 0.163376942 0.889903724
1341846241.362000 0.036144763 -0.017655676 -0.003832319 0.410430074 -0.118338980 0.163915008 0.889199018
1341846241.394012 0.036144767 -0.017655669 -0.003832312 0.411630630 -0.118731298 0.164452672 0.888492227
1341846241.430126 0.036144763 -0.017655667 -0.003832310 0.412830204 -0.119123273 0.164989963 0.887783289
1341846241.462018 0.036144767 -0.017655667 -0.003832299 0.414028764 -0.119514972 0.165526852 0.887072265
1341846241.497907 0.036144767 -0.017655659 -0.003832297 0.415226370 -0.119906381 0.166063368 0.886359096
1341846241.529930 0.036144771 -0.017655650 -0.003832291 0.416422904 -0.120297499 0.166599497 0.885643899
1341846241.562493 0.036144763 -0.017655648 -0.003832284 0.417618454 -0.120688312 0.167135209 0.884926558
1341846241.598412 0.036144763 -0.017655637 -0.003832281 0.418812990 -0.121078834 0.167670533 0.884207070
1341846241.629998 0.036144763 -0.017655633 -0.003832273 0.420006514 -0.121469066 0.168205440 0.883485556
1341846241.662234 0.036144760 -0.017655626 -0.003832277 0.421199083 -0.121859029 0.168739960 0.882761896
1341846241.698098 0.036144763 -0.017655624 -0.003832271 0.422390610 -0.122248694 0.169274062 0.882036090
1341846241.729805 0.036144760 -0.017655622 -0.003832264 0.423581183 -0.122638062 0.169807777 0.881308258
1341846241.765805 0.036144763 -0.017655617 -0.003832259 0.424770653 -0.123027146 0.170341089 0.880578279
1341846241.797970 0.036144763 -0.017655607 -0.003832263 0.425959140 -0.123415947 0.170874029 0.879846215
1341846241.830240 0.036144767 -0.017655607 -0.003832258 0.427146554 -0.123804450 0.171406537 0.879112065
1341846241.865867 0.036144760 -0.017655613 -0.003832245 0.428332984 -0.124192677 0.171938643 0.878375828
1341846241.898156 0.036144756 -0.017655613 -0.003832241 0.429518372 -0.124580607 0.172470346 0.877637506
1341846241.929917 0.036144752 -0.017655620 -0.003832229 0.430702776 -0.124968253 0.173001632 0.876897097
1341846241.965882 0.036144737 -0.017655639 -0.003832209 0.431886107 -0.125355586 0.173532516 0.876154602
1341846241.998017 0.036144726 -0.017655659 -0.003832181 0.433068454 -0.125742629 0.174062967 0.875409961
1341846242.034019 0.036144711 -0.017655673 -0.003832170 0.434249729 -0.126129359 0.174593002 0.874663234
1341846242.066365 0.036144700 -0.017655684 -0.003832164 0.435429990 -0.126515821 0.175122604 0.873914480
1341846242.097916 0.036144700 -0.017655682 -0.003832162 0.436609238 -0.126901984 0.175651774 0.873163640
1341846242.133980 0.036144704 -0.017655686 -0.003832158 0.437787473 -0.127287835 0.176180512 0.872410655
1341846242.165895 0.036144704 -0.017655682 -0.003832154 0.438964695 -0.127673388 0.176708832 0.871655583
1341846242.197924 0.036144704 -0.017655676 -0.003832153 0.440140873 -0.128058642 0.177236706 0.870898485
1341846242.234487 0.036144704 -0.017655684 -0.003832147 0.441316038 -0.128443599 0.177764162 0.870139241
1341846242.269588 0.036144704 -0.017655678 -0.003832149 0.442490190 -0.128828257 0.178291187 0.869377911
1341846242.301972 0.036144707 -0.017655669 -0.003832145 0.443663210 -0.129212603 0.178817794 0.868614554
1341846242.333996 0.036144711 -0.017655656 -0.003832144 0.444835216 -0.129596666 0.179343969 0.867849112
1341846242.366000 0.036144711 -0.017655659 -0.003832143 0.446006179 -0.129980430 0.179869726 0.867081583
1341846242.401903 0.036144707 -0.017655646 -0.003832134 0.447176009 -0.130363882 0.180395052 0.866312027
1341846242.433933 0.036144707 -0.017655652 -0.003832129 0.448344767 -0.130747035 0.180919975 0.865540385
1341846242.469883 0.036144711 -0.017655654 -0.003832127 0.449512452 -0.131129846 0.181444407 0.864766717
1341846242.501972 0.036144711 -0.017655648 -0.003832121 0.450679004 -0.131512389 0.181968451 0.863990963
1341846242.534063 0.036144704 -0.017655645 -0.003832114 0.451844454 -0.131894618 0.182492062 0.863213181
1341846242.569931 0.036144704 -0.017655643 -0.003832111 0.453008860 -0.132276520 0.183015257 0.862433374
1341846242.602000 0.036144707 -0.017655641 -0.003832110 0.454172164 -0.132658124 0.183538020 0.861651480
1341846242.634077 0.036144704 -0.017655641 -0.003832099 0.455334365 -0.133039415 0.184060320 0.860867560
1341846242.670215 0.036144704 -0.017655641 -0.003832090 0.456495494 -0.133420393 0.184582189 0.860081553
1341846242.701929 0.036144700 -0.017655635 -0.003832084 0.457655519 -0.133801043 0.185103610 0.859293520
1341846242.737996 0.036144692 -0.017655632 -0.003832079 0.458814472 -0.134181380 0.185624570 0.858503461
1341846242.769937 0.036144689 -0.017655633 -0.003832070 0.459972292 -0.134561390 0.186145082 0.857711315
1341846242.808080 0.036144692 -0.017655632 -0.003832072 0.461129010 -0.134941086 0.186665148 0.856917202
1341846242.869936 0.036144692 -0.017655600 -0.003832072 0.462284625 -0.135320470 0.187184751 0.856121004
1341846242.902131 0.036144696 -0.017655591 -0.003832068 0.463439137 -0.135699525 0.187703922 0.855322778
1341846242.938061 0.036144689 -0.017655594 -0.003832062 0.464592546 -0.136078253 0.188222662 0.854522467
1341846242.969969 0.036144689 -0.017655589 -0.003832058 0.465744793 -0.136456683 0.188740954 0.853720188
1341846243.005810 0.036144689 -0.017655589 -0.003832054 0.466895938 -0.136834785 0.189258799 0.852915883
1341846243.038095 0.036144685 -0.017655589 -0.003832049 0.468045920 -0.137212574 0.189776167 0.852109551
1341846243.070041 0.036144670 -0.017655581 -0.003832042 0.469194829 -0.137590021 0.190293074 0.851301193
1341846243.106059 0.036144670 -0.017655574 -0.003832029 0.470342577 -0.137967125 0.190809473 0.850490868
1341846243.137899 0.036144670 -0.017655568 -0.003832028 0.471489191 -0.138343900 0.191325411 0.849678457
1341846243.169985 0.036144666 -0.017655566 -0.003832025 0.472634673 -0.138720378 0.191840872 0.848864079
1341846243.206007 0.036144670 -0.017655548 -0.003832022 0.473779052 -0.139096513 0.192355856 0.848047614
1341846243.237999 0.036144674 -0.017655544 -0.003832012 0.474922270 -0.139472336 0.192870364 0.847229183
1341846243.274026 0.036144674 -0.017655538 -0.003832013 0.476064354 -0.139847845 0.193384394 0.846408784
1341846243.305879 0.036144678 -0.017655529 -0.003832008 0.477205276 -0.140223026 0.193897977 0.845586300
1341846243.338022 0.036144674 -0.017655529 -0.003832009 0.478345066 -0.140597865 0.194411084 0.844761848
1341846243.374348 0.036144678 -0.017655531 -0.003832005 0.479483694 -0.140972331 0.194923714 0.843935370
1341846243.405837 0.036144674 -0.017655522 -0.003831999 0.480621248 -0.141346470 0.195435897 0.843106866
1341846243.442193 0.036144674 -0.017655516 -0.003831999 0.481757581 -0.141720250 0.195947587 0.842276454
1341846243.473902 0.036144678 -0.017655510 -0.003831993 0.482892781 -0.142093688 0.196458831 0.841443896
1341846243.505839 0.036144674 -0.017655509 -0.003831984 0.484026879 -0.142466784 0.196969599 0.840609431
1341846243.542001 0.036144670 -0.017655501 -0.003831977 0.485159814 -0.142839551 0.197479889 0.839772880
1341846243.574058 0.036144663 -0.017655497 -0.003831970 0.486291617 -0.143211961 0.197989732 0.838934362
1341846243.605841 0.036144670 -0.017655497 -0.003831972 0.487422228 -0.143584058 0.198499069 0.838093877
1341846243.642015 0.036144670 -0.017655492 -0.003831970 0.488551736 -0.143955797 0.199007928 0.837251365
1341846243.673926 0.036144670 -0.017655494 -0.003831962 0.489680052 -0.144327208 0.199516281 0.836406827
1341846243.710095 0.036144670 -0.017655483 -0.003831963 0.490807295 -0.144698262 0.200024173 0.835560262
1341846243.741951 0.036144666 -0.017655481 -0.003831955 0.491933405 -0.145068973 0.200531557 0.834711671
1341846243.774067 0.036144666 -0.017655477 -0.003831951 0.493058383 -0.145439357 0.201038465 0.833861172
1341846243.809881 0.036144666 -0.017655462 -0.003831947 0.494182199 -0.145809367 0.201544881 0.833008528
1341846243.841971 0.036144663 -0.017655451 -0.003831945 0.495304912 -0.146179035 0.202050775 0.832153976
1341846243.874062 0.036144663 -0.017655456 -0.003831943 0.496426433 -0.146548361 0.202556238 0.831297398
1341846243.910022 0.036144666 -0.017655447 -0.003831938 0.497546732 -0.146917343 0.203061223 0.830438852
1341846243.978045 0.036144670 -0.017655447 -0.003831934 0.498665839 -0.147286013 0.203565732 0.829578340
1341846244.009892 0.036144670 -0.017655447 -0.003831927 0.499783844 -0.147654310 0.204069763 0.828715801
1341846244.042105 0.036144670 -0.017655453 -0.003831925 0.500900567 -0.148022249 0.204573318 0.827851355
1341846244.077884 0.036144670 -0.017655445 -0.003831919 0.502016127 -0.148389876 0.205076367 0.826984882
1341846244.115904 0.036144666 -0.017655440 -0.003831911 0.503130436 -0.148757130 0.205578968 0.826116443
1341846244.151850 0.036144670 -0.017655438 -0.003831902 0.504243612 -0.149124071 0.206081077 0.825246036
1341846244.184334 0.036144670 -0.017655440 -0.003831902 0.505355537 -0.149490640 0.206582695 0.824373662
1341846244.215953 0.036144663 -0.017655425 -0.003831900 0.506466269 -0.149856836 0.207083806 0.823499322
1341846244.251877 0.036144666 -0.017655408 -0.003831894 0.507575750 -0.150222674 0.207584471 0.822623074
1341846244.283880 0.036144670 -0.017655410 -0.003831896 0.508684099 -0.150588125 0.208084628 0.821744800
1341846244.316068 0.036144670 -0.017655410 -0.003831890 0.509791255 -0.150953233 0.208584294 0.820864558
1341846244.351999 0.036144663 -0.017655415 -0.003831880 0.510897100 -0.151317954 0.209083453 0.819982409
1341846244.384040 0.036144663 -0.017655404 -0.003831880 0.512001812 -0.151682317 0.209582150 0.819098294
1341846244.419869 0.036144666 -0.017655402 -0.003831876 0.513105214 -0.152046338 0.210080296 0.818212211
1341846244.451888 0.036144655 -0.017655402 -0.003831860 0.514207482 -0.152409986 0.210577905 0.817324162
1341846244.483871 0.036144659 -0.017655397 -0.003831853 0.515308440 -0.152773321 0.211075053 0.816434205
1341846244.519923 0.036144666 -0.017655395 -0.003831849 0.516408265 -0.153136253 0.211571679 0.815542281
1341846244.551942 0.036144663 -0.017655388 -0.003831843 0.517506778 -0.153498814 0.212067768 0.814648449
1341846244.583892 0.036144678 -0.017655378 -0.003831838 0.518604100 -0.153861016 0.212563381 0.813752711
1341846244.619870 0.036144670 -0.017655374 -0.003831841 0.519700110 -0.154222831 0.213058487 0.812854946
1341846244.651850 0.036144666 -0.017655373 -0.003831835 0.520794809 -0.154584318 0.213553086 0.811955333
1341846244.683815 0.036144670 -0.017655365 -0.003831833 0.521888316 -0.154945418 0.214047194 0.811053813
1341846244.719873 0.036144670 -0.017655361 -0.003831828 0.522980571 -0.155306146 0.214540780 0.810150325
1341846244.751827 0.036144670 -0.017655356 -0.003831817 0.524071574 -0.155666545 0.215033844 0.809244931
1341846244.788300 0.036144678 -0.017655360 -0.003831819 0.525161326 -0.156026512 0.215526402 0.808337629
1341846244.820099 0.036144674 -0.017655363 -0.003831807 0.526249886 -0.156386167 0.216018423 0.807428300
1341846244.851973 0.036144678 -0.017655358 -0.003831802 0.527337134 -0.156745449 0.216509983 0.806517124
1341846244.887873 0.036144685 -0.017655361 -0.003831804 0.528423190 -0.157104343 0.217000991 0.805603981
1341846244.920072 0.036144692 -0.017655358 -0.003831791 0.529507935 -0.157462865 0.217491508 0.804688931
1341846244.952621 0.036144692 -0.017655361 -0.003831791 0.530591428 -0.157821015 0.217981532 0.803771913
1341846244.987985 0.036144692 -0.017655360 -0.003831784 0.531673670 -0.158178791 0.218471050 0.802852988
1341846245.020060 0.036144696 -0.017655354 -0.003831776 0.532754660 -0.158536181 0.218960077 0.801932216
1341846245.051869 0.036144689 -0.017655360 -0.003831761 0.533834338 -0.158893198 0.219448581 0.801009476
1341846245.088236 0.036144692 -0.017655356 -0.003831746 0.534912705 -0.159249842 0.219936594 0.800084889
1341846245.119935 0.036144692 -0.017655354 -0.003831741 0.535989821 -0.159606069 0.220424056 0.799158335
1341846245.151835 0.036144689 -0.017655341 -0.003831737 0.537065625 -0.159961939 0.220911011 0.798229933
1341846245.187889 0.036144689 -0.017655339 -0.003831733 0.538140178 -0.160317436 0.221397430 0.797299623
1341846245.219842 0.036144689 -0.017655345 -0.003831731 0.539213479 -0.160672545 0.221883371 0.796367347
1341846245.256030 0.036144689 -0.017655341 -0.003831718 0.540285408 -0.161027327 0.222368762 0.795433223
1341846245.287962 0.036144678 -0.017655343 -0.003831711 0.541356087 -0.161381677 0.222853616 0.794497192
1341846245.319885 0.036144681 -0.017655341 -0.003831711 0.542425454 -0.161735624 0.223337963 0.793559313
1341846245.355859 0.036144670 -0.017655328 -0.003831698 0.543493569 -0.162089199 0.223821700 0.792619526
1341846245.387919 0.036144678 -0.017655322 -0.003831698 0.544560373 -0.162442401 0.224304929 0.791677833
1341846245.423977 0.036144674 -0.017655319 -0.003831692 0.545625865 -0.162795201 0.224787608 0.790734291
1341846245.455822 0.036144670 -0.017655319 -0.003831689 0.546690166 -0.163147599 0.225269750 0.789788783
1341846245.487804 0.036144670 -0.017655311 -0.003831685 0.547753096 -0.163499624 0.225751385 0.788841426
1341846245.523916 0.036144674 -0.017655304 -0.003831679 0.548814774 -0.163851202 0.226232499 0.787892103
1341846245.555797 0.036144663 -0.017655304 -0.003831669 0.549875200 -0.164202452 0.226713017 0.786940932
1341846245.591988 0.036144674 -0.017655298 -0.003831672 0.550934196 -0.164553285 0.227193058 0.785987973
1341846245.623837 0.036144670 -0.017655296 -0.003831673 0.551991880 -0.164903775 0.227672502 0.785033107
1341846245.655890 0.036144678 -0.017655298 -0.003831666 0.553048253 -0.165253848 0.228151441 0.784076333
1341846245.692060 0.036144670 -0.017655296 -0.003831655 0.554103255 -0.165603504 0.228629813 0.783117771
1341846245.724517 0.036144663 -0.017655302 -0.003831642 0.555156946 -0.165952802 0.229107648 0.782157362
1341846245.760068 0.036144670 -0.017655281 -0.003831651 0.556209207 -0.166301683 0.229584962 0.781195104
1341846245.791914 0.036144674 -0.017655265 -0.003831641 0.557260215 -0.166650146 0.230061740 0.780230999
1341846245.824142 0.036144674 -0.017655261 -0.003831635 0.558309853 -0.166998237 0.230537936 0.779264987
1341846245.860005 0.036144685 -0.017655255 -0.003831627 0.559358180 -0.167345926 0.231013626 0.778297186
1341846245.891878 0.036144674 -0.017655276 -0.003831619 0.560405254 -0.167693198 0.231488749 0.777327418
1341846245.927903 0.036144678 -0.017655255 -0.003831607 0.561450899 -0.168040141 0.231963307 0.776355863
1341846245.986182 0.036144670 -0.017655259 -0.003831608 0.562495232 -0.168386653 0.232437328 0.775382459
1341846246.022057 0.036144674 -0.017655255 -0.003831605 0.563538194 -0.168732792 0.232910797 0.774407208
1341846246.053871 0.036144674 -0.017655259 -0.003831607 0.564579904 -0.169078529 0.233383700 0.773430049
1341846246.085916 0.036144666 -0.017655272 -0.003831602 0.565620124 -0.169423878 0.233856082 0.772451103
1341846246.121806 0.036144666 -0.017655259 -0.003831605 0.566659093 -0.169768736 0.234327883 0.771470308
1341846246.153949 0.036144655 -0.017655246 -0.003831600 0.567696691 -0.170113266 0.234799102 0.770487666
1341846246.222002 0.036144663 -0.017655248 -0.003831600 0.568732917 -0.170457333 0.235269830 0.769503295
1341846246.253984 0.036144663 -0.017655240 -0.003831592 0.569767714 -0.170801044 0.235739917 0.768517017
1341846246.289808 0.036144674 -0.017655229 -0.003831590 0.570801139 -0.171144322 0.236209482 0.767529011
1341846246.322001 0.036144666 -0.017655224 -0.003831578 0.571833253 -0.171487182 0.236678496 0.766539097
1341846246.353946 0.036144670 -0.017655218 -0.003831560 0.572863936 -0.171829626 0.237146974 0.765547395
1341846246.389885 0.036144663 -0.017655218 -0.003831550 0.573893309 -0.172171623 0.237614915 0.764553845
1341846246.421855 0.036144663 -0.017655225 -0.003831546 0.574921250 -0.172513232 0.238082275 0.763558507
1341846246.457915 0.036144666 -0.017655212 -0.003831533 0.575947881 -0.172854453 0.238549069 0.762561321
1341846246.489829 0.036144663 -0.017655212 -0.003831528 0.576973200 -0.173195213 0.239015296 0.761562228
1341846246.521912 0.036144663 -0.017655212 -0.003831505 0.577997088 -0.173535630 0.239480957 0.760561407
1341846246.558038 0.036144666 -0.017655211 -0.003831499 0.579019666 -0.173875555 0.239946067 0.759558678
1341846246.589826 0.036144666 -0.017655209 -0.003831494 0.580040812 -0.174215108 0.240410581 0.758554280
1341846246.622033 0.036144644 -0.017655253 -0.003831480 0.581060469 -0.174554199 0.240874559 0.757547975
1341846246.658046 0.036144644 -0.017655268 -0.003831476 0.582078874 -0.174892887 0.241337970 0.756539941
1341846246.689939 0.036144637 -0.017655261 -0.003831472 0.583095849 -0.175231174 0.241800755 0.755530059
1341846246.725903 0.036144637 -0.017655252 -0.003831460 0.584111392 -0.175569057 0.242262989 0.754518390
1341846246.757894 0.036144629 -0.017655252 -0.003831450 0.585125625 -0.175906524 0.242724597 0.753504872
1341846246.789989 0.036144640 -0.017655233 -0.003831452 0.586138427 -0.176243603 0.243185624 0.752489686
1341846246.826059 0.036144633 -0.017655227 -0.003831447 0.587149858 -0.176580265 0.243645996 0.751472592
1341846246.857869 0.036144637 -0.017655199 -0.003831444 0.588159859 -0.176916510 0.244105816 0.750453770
1341846246.893944 0.036144633 -0.017655201 -0.003831438 0.589168608 -0.177252337 0.244565040 0.749433100
1341846246.925896 0.036144625 -0.017655198 -0.003831430 0.590175867 -0.177587777 0.245023668 0.748410583
1341846246.958090 0.036144625 -0.017655201 -0.003831428 0.591181815 -0.177922755 0.245481685 0.747386336
1341846246.993936 0.036144625 -0.017655196 -0.003831419 0.592186332 -0.178257376 0.245939091 0.746360242
1341846247.026204 0.036144625 -0.017655188 -0.003831415 0.593189478 -0.178591534 0.246395916 0.745332420
1341846247.057936 0.036144618 -0.017655194 -0.003831412 0.594191253 -0.178925276 0.246852130 0.744302750
1341846247.093899 0.036144614 -0.017655196 -0.003831409 0.595191538 -0.179258510 0.247307733 0.743271351
1341846247.126028 0.036144614 -0.017655186 -0.003831402 0.596190512 -0.179591343 0.247762740 0.742238164
1341846247.162093 0.036144610 -0.017655186 -0.003831401 0.597187996 -0.179923743 0.248217136 0.741203189
1341846247.194072 0.036144629 -0.017655194 -0.003831406 0.598184168 -0.180255666 0.248670980 0.740166426
1341846247.225977 0.036144625 -0.017655175 -0.003831406 0.599178791 -0.180587173 0.249124184 0.739127934
1341846247.261953 0.036144633 -0.017655179 -0.003831405 0.600171983 -0.180918247 0.249576807 0.738087773
1341846247.293957 0.036144640 -0.017655188 -0.003831408 0.601163745 -0.181248933 0.250028789 0.737045825
1341846247.325987 0.036144640 -0.017655194 -0.003831409 0.602154016 -0.181579143 0.250480175 0.736002207
1341846247.361940 0.036144633 -0.017655203 -0.003831399 0.603142858 -0.181908980 0.250930876 0.734956801
1341846247.430187 0.036144614 -0.017655201 -0.003831378 0.604130268 -0.182238385 0.251381040 0.733909667
1341846247.462223 0.036144603 -0.017655212 -0.003831371 0.605116189 -0.182567358 0.251830578 0.732860804
1341846247.493952 0.036144603 -0.017655201 -0.003831368 0.606100619 -0.182895884 0.252279490 0.731810212
1341846247.530027 0.036144603 -0.017655199 -0.003831365 0.607083678 -0.183223948 0.252727807 0.730757833
1341846247.562209 0.036144610 -0.017655199 -0.003831362 0.608065248 -0.183551595 0.253175497 0.729703784
1341846247.594166 0.036144618 -0.017655186 -0.003831369 0.609045386 -0.183878809 0.253622591 0.728647947
1341846247.630035 0.036144603 -0.017655190 -0.003831356 0.610024035 -0.184205621 0.254069030 0.727590442
1341846247.662701 0.036144599 -0.017655192 -0.003831347 0.611001194 -0.184532017 0.254514843 0.726531267
1341846247.697913 0.036144596 -0.017655209 -0.003831344 0.611976862 -0.184857950 0.254960030 0.725470304
1341846247.730051 0.036144588 -0.017655207 -0.003831339 0.612951040 -0.185183451 0.255404621 0.724407732
1341846247.762180 0.036144588 -0.017655211 -0.003831337 0.613923788 -0.185508475 0.255848616 0.723343372
1341846247.798768 0.036144592 -0.017655211 -0.003831341 0.614894986 -0.185833037 0.256292045 0.722277343
1341846247.830259 0.036144588 -0.017655192 -0.003831326 0.615864635 -0.186157167 0.256734848 0.721209705
1341846247.865875 0.036144584 -0.017655196 -0.003831323 0.616832852 -0.186480790 0.257177114 0.720140338
1341846247.898157 0.036144592 -0.017655199 -0.003831313 0.617799461 -0.186803967 0.257618695 0.719069242
1341846247.930002 0.036144584 -0.017655194 -0.003831321 0.618764758 -0.187126666 0.258059740 0.717996478
1341846247.966006 0.036144573 -0.017655190 -0.003831313 0.619728446 -0.187448949 0.258500129 0.716922045
1341846247.998062 0.036144584 -0.017655199 -0.003831315 0.620690644 -0.187770754 0.258939892 0.715845942
1341846248.030615 0.036144592 -0.017655198 -0.003831310 0.621651351 -0.188092187 0.259378999 0.714768112
1341846248.065891 0.036144581 -0.017655177 -0.003831302 0.622610688 -0.188413113 0.259817481 0.713688612
1341846248.098211 0.036144592 -0.017655177 -0.003831284 0.623568416 -0.188733637 0.260255337 0.712607384
1341846248.133929 0.036144596 -0.017655186 -0.003831279 0.624524713 -0.189053610 0.260692537 0.711524427
1341846248.166050 0.036144592 -0.017655190 -0.003831269 0.625479639 -0.189373106 0.261129111 0.710439742
1341846248.198024 0.036144588 -0.017655190 -0.003831260 0.626432955 -0.189692169 0.261565030 0.709353447
1341846248.233930 0.036144584 -0.017655203 -0.003831262 0.627384841 -0.190010831 0.262000382 0.708265424
1341846248.265968 0.036144588 -0.017655199 -0.003831260 0.628335178 -0.190328985 0.262435108 0.707175791
1341846248.297927 0.036144566 -0.017655214 -0.003831253 0.629284084 -0.190646708 0.262869179 0.706084430
1341846248.333956 0.036144566 -0.017655218 -0.003831247 0.630231380 -0.190963984 0.263302624 0.704991400
1341846248.366013 0.036144570 -0.017655218 -0.003831247 0.631177247 -0.191280752 0.263735473 0.703896701
1341846248.402093 0.036144562 -0.017655218 -0.003831240 0.632121563 -0.191597104 0.264167666 0.702800333
1341846248.433862 0.036144573 -0.017655216 -0.003831238 0.633064389 -0.191913038 0.264599264 0.701702297
1341846248.466804 0.036144581 -0.017655216 -0.003831229 0.634005666 -0.192228541 0.265030175 0.700602531
1341846248.502139 0.036144562 -0.017655214 -0.003831216 0.634945512 -0.192543611 0.265460461 0.699501216
1341846248.534215 0.036144543 -0.017655222 -0.003831210 0.635883629 -0.192858264 0.265890092 0.698398173
1341846248.565971 0.036144547 -0.017655220 -0.003831213 0.636820376 -0.193172425 0.266319156 0.697293520
1341846248.602003 0.036144551 -0.017655211 -0.003831202 0.637755513 -0.193486139 0.266747564 0.696187258
1341846248.640295 0.036144540 -0.017655216 -0.003831196 0.638689101 -0.193799421 0.267175347 0.695079386
1341846248.675831 0.036144540 -0.017655235 -0.003831199 0.639621139 -0.194112167 0.267602533 0.693969846
1341846248.708095 0.036144543 -0.017655227 -0.003831197 0.640551686 -0.194424435 0.268029124 0.692858636
1341846248.740085 0.036144543 -0.017655220 -0.003831185 0.641480684 -0.194736183 0.268455088 0.691745758
1341846248.802167 0.036144543 -0.017655235 -0.003831198 0.642408192 -0.195047468 0.268880457 0.690631211
1341846248.833950 0.036144543 -0.017655229 -0.003831191 0.643334150 -0.195358261 0.269305229 0.689515114
1341846248.869901 0.036144543 -0.017655248 -0.003831183 0.644258499 -0.195668608 0.269729346 0.688397348
1341846248.901932 0.036144547 -0.017655248 -0.003831179 0.645181239 -0.195978478 0.270152867 0.687277913
1341846248.938035 0.036144547 -0.017655231 -0.003831174 0.646102488 -0.196287885 0.270575762 0.686156929
1341846248.969908 0.036144540 -0.017655237 -0.003831163 0.647022128 -0.196596831 0.270997971 0.685034335
1341846249.001964 0.036144540 -0.017655250 -0.003831154 0.647940278 -0.196905315 0.271419585 0.683910191
1341846249.037998 0.036144540 -0.017655224 -0.003831150 0.648856759 -0.197213352 0.271840543 0.682784379
1341846249.069961 0.036144532 -0.017655225 -0.003831143 0.649771690 -0.197520882 0.272260875 0.681657016
1341846249.105888 0.036144536 -0.017655240 -0.003831139 0.650685072 -0.197827935 0.272680610 0.680527985
1341846249.138041 0.036144529 -0.017655235 -0.003831130 0.651596844 -0.198134542 0.273099661 0.679397345
1341846249.169904 0.036144529 -0.017655225 -0.003831123 0.652507067 -0.198440641 0.273518115 0.678265214
1341846249.206013 0.036144536 -0.017655231 -0.003831124 0.653415680 -0.198746279 0.273935944 0.677131414
1341846249.237872 0.036144536 -0.017655242 -0.003831112 0.654322863 -0.199051425 0.274353117 0.675995946
1341846249.306095 0.036144540 -0.017655239 -0.003831105 0.655228376 -0.199356049 0.274769664 0.674858928
1341846249.337853 0.036144540 -0.017655231 -0.003831096 0.656132519 -0.199660093 0.275185555 0.673720241
1341846249.373854 0.036144540 -0.017655242 -0.003831093 0.657035053 -0.199963644 0.275600791 0.672579885
1341846249.405928 0.036144540 -0.017655259 -0.003831084 0.657936096 -0.200266674 0.276015371 0.671437919
1341846249.437945 0.036144543 -0.017655252 -0.003831080 0.658835590 -0.200569198 0.276429325 0.670294285
1341846249.474182 0.036144540 -0.017655242 -0.003831071 0.659733593 -0.200871289 0.276842564 0.669149101
1341846249.505956 0.036144532 -0.017655246 -0.003831059 0.660629988 -0.201172918 0.277255148 0.668002307
1341846249.538288 0.036144525 -0.017655242 -0.003831058 0.661524832 -0.201474130 0.277666986 0.666853964
1341846249.574263 0.036144517 -0.017655253 -0.003831045 0.662418067 -0.201774821 0.278078228 0.665703952
1341846249.606015 0.036144506 -0.017655237 -0.003831030 0.663309813 -0.202075109 0.278488696 0.664552331
1341846249.641995 0.036144514 -0.017655242 -0.003831033 0.664200068 -0.202374876 0.278898537 0.663399041
1341846249.674108 0.036144499 -0.017655242 -0.003831031 0.665088713 -0.202674225 0.279307634 0.662244201
1341846249.706034 0.036144488 -0.017655229 -0.003831015 0.665975809 -0.202973098 0.279716074 0.661087811
1341846249.742012 0.036144480 -0.017655235 -0.003831011 0.666861355 -0.203271538 0.280123830 0.659929752
1341846249.773906 0.036144480 -0.017655235 -0.003831007 0.667745233 -0.203569531 0.280530959 0.658770204
1341846249.806093 0.036144461 -0.017655246 -0.003831012 0.668627560 -0.203867003 0.280937344 0.657608986
1341846249.842148 0.036144447 -0.017655244 -0.003831006 0.669508278 -0.204164028 0.281343073 0.656446338
1341846249.873923 0.036144447 -0.017655253 -0.003831011 0.670387387 -0.204460591 0.281748116 0.655282140
1341846249.909991 0.036144428 -0.017655244 -0.003831009 0.671264887 -0.204756692 0.282152444 0.654116333
1341846249.942024 0.036144417 -0.017655235 -0.003831009 0.672140896 -0.205052271 0.282556087 0.652948916
1341846249.974199 0.036144417 -0.017655237 -0.003831015 0.673015296 -0.205347374 0.282959074 0.651779890
1341846250.010384 0.036144409 -0.017655231 -0.003831016 0.673888206 -0.205642015 0.283361435 0.650609255
1341846250.042022 0.036144394 -0.017655248 -0.003831014 0.674759507 -0.205936134 0.283763021 0.649437070
1341846250.078047 0.036144402 -0.017655237 -0.003831013 0.675629139 -0.206229791 0.284164011 0.648263335
1341846250.109945 0.036144406 -0.017655239 -0.003831001 0.676497281 -0.206522942 0.284564257 0.647087991
1341846250.141849 0.036144398 -0.017655233 -0.003830987 0.677363873 -0.206815600 0.284963846 0.645911098
1341846250.177803 0.036144406 -0.017655239 -0.003830973 0.678228796 -0.207107693 0.285362750 0.644732654
1341846250.210137 0.036144421 -0.017655250 -0.003830957 0.679092228 -0.207399249 0.285761029 0.643552661
1341846250.241903 0.036144421 -0.017655242 -0.003830942 0.679953933 -0.207690284 0.286158621 0.642371058
1341846250.277878 0.036144417 -0.017655244 -0.003830930 0.680814087 -0.207980797 0.286555618 0.641187966
1341846250.309873 0.036144413 -0.017655235 -0.003830913 0.681672513 -0.208270833 0.286951929 0.640003383
1341846250.346142 0.036144409 -0.017655242 -0.003830914 0.682529330 -0.208560303 0.287347674 0.638817370
1341846250.377944 0.036144406 -0.017655252 -0.003830909 0.683384359 -0.208849311 0.287742704 0.637629867
1341846250.410038 0.036144406 -0.017655231 -0.003830906 0.684237838 -0.209137797 0.288137168 0.636440873
1341846250.445984 0.036144413 -0.017655227 -0.003830898 0.685089529 -0.209425777 0.288530916 0.635250390
1341846250.477872 0.036144406 -0.017655237 -0.003830892 0.685939670 -0.209713265 0.288923979 0.634058356
1341846250.509930 0.036144394 -0.017655237 -0.003830888 0.686788201 -0.210000247 0.289316446 0.632864833
1341846250.546119 0.036144387 -0.017655242 -0.003830889 0.687635064 -0.210286736 0.289708227 0.631669760
1341846250.577998 0.036144365 -0.017655250 -0.003830867 0.688480258 -0.210572764 0.290099263 0.630473137
1341846250.613828 0.036144372 -0.017655268 -0.003830873 0.689323902 -0.210858211 0.290489733 0.629275084
1341846250.646114 0.036144372 -0.017655268 -0.003830866 0.690165877 -0.211143315 0.290879399 0.628075480
1341846250.677812 0.036144368 -0.017655268 -0.003830867 0.691006243 -0.211427927 0.291268319 0.626874328
1341846250.713958 0.036144376 -0.017655272 -0.003830854 0.691844881 -0.211712033 0.291656613 0.625671685
1341846250.745904 0.036144372 -0.017655276 -0.003830844 0.692682087 -0.211995706 0.292044103 0.624467492
1341846250.777886 0.036144365 -0.017655279 -0.003830841 0.693517506 -0.212278858 0.292430967 0.623261809
1341846250.814024 0.036144361 -0.017655274 -0.003830840 0.694351315 -0.212561458 0.292817116 0.622054636
1341846250.846025 0.036144350 -0.017655266 -0.003830821 0.695183456 -0.212843627 0.293202579 0.620846033
1341846250.881824 0.036144342 -0.017655279 -0.003830816 0.696013868 -0.213125229 0.293587416 0.619635999
1341846250.913808 0.036144346 -0.017655283 -0.003830817 0.696842551 -0.213406369 0.293971539 0.618424535
1341846250.946118 0.036144350 -0.017655272 -0.003830809 0.697669625 -0.213687018 0.294354945 0.617211580
1341846250.981803 0.036144342 -0.017655276 -0.003830808 0.698494911 -0.213967174 0.294737577 0.615997195
1341846251.014047 0.036144335 -0.017655276 -0.003830801 0.699318647 -0.214246854 0.295119524 0.614781380
1341846251.046033 0.036144339 -0.017655294 -0.003830816 0.700140715 -0.214526027 0.295500785 0.613564134
1341846251.081959 0.036144339 -0.017655294 -0.003830814 0.700961053 -0.214804709 0.295881271 0.612345338
1341846251.114058 0.036144339 -0.017655298 -0.003830815 0.701779723 -0.215082839 0.296261102 0.611125171
1341846251.149920 0.036144346 -0.017655300 -0.003830811 0.702596724 -0.215360448 0.296640188 0.609903514
1341846251.181983 0.036144339 -0.017655300 -0.003830810 0.703412116 -0.215637580 0.297018498 0.608680427
1341846251.214205 0.036144339 -0.017655298 -0.003830804 0.704225838 -0.215914220 0.297396123 0.607455909
1341846251.249978 0.036144339 -0.017655291 -0.003830800 0.705037713 -0.216190323 0.297773004 0.606229901
1341846251.281923 0.036144331 -0.017655296 -0.003830800 0.705848157 -0.216465980 0.298149198 0.605002403
1341846251.318026 0.036144327 -0.017655283 -0.003830795 0.706656814 -0.216741115 0.298524618 0.603773534
1341846251.350003 0.036144305 -0.017655291 -0.003830787 0.707463861 -0.217015743 0.298899263 0.602543175
1341846251.382003 0.036144294 -0.017655298 -0.003830781 0.708269119 -0.217289850 0.299273223 0.601311445
1341846251.417971 0.036144286 -0.017655293 -0.003830779 0.709072769 -0.217563525 0.299646407 0.600078166
1341846251.449878 0.036144275 -0.017655306 -0.003830765 0.709874749 -0.217836723 0.300018847 0.598843634
1341846251.481872 0.036144260 -0.017655302 -0.003830759 0.710674882 -0.218109444 0.300390601 0.597607672
1341846251.517870 0.036144242 -0.017655309 -0.003830755 0.711473346 -0.218381733 0.300761551 0.596370339
1341846251.549884 0.036144234 -0.017655319 -0.003830745 0.712270021 -0.218653560 0.301131815 0.595131636
1341846251.586071 0.036144227 -0.017655324 -0.003830735 0.713065028 -0.218924895 0.301501334 0.593891501
1341846251.618241 0.036144234 -0.017655315 -0.003830734 0.713858247 -0.219195858 0.301870078 0.592649996
1341846251.649917 0.036144238 -0.017655326 -0.003830740 0.714649856 -0.219466224 0.302238137 0.591407061
1341846251.686034 0.036144242 -0.017655322 -0.003830726 0.715439737 -0.219736159 0.302605450 0.590162694
1341846251.718103 0.036144245 -0.017655319 -0.003830714 0.716228008 -0.220005468 0.302972078 0.588916838
1341846251.749907 0.036144238 -0.017655315 -0.003830708 0.717014611 -0.220274240 0.303337902 0.587669492
