1341846226.817920 0.0000000 0.0000000 0.0000000 0.0000000 0.0000000 0.0000000 1.0000000
1341846229.094829 0.0362123 -0.0181038 -0.0040985 0.0051410 -0.0023317 -0.0103720 0.9999303
1341846229.129930 0.0362125 -0.0181043 -0.0041004 0.0045112 -0.0019066 -0.0093337 0.9999444
1341846229.229812 0.0362154 -0.0181054 -0.0040639 0.0056219 -0.0019591 -0.0100039 0.9999322
1341846229.430182 0.0362125 -0.0181043 -0.0041004 0.0119690 -0.0037782 -0.0105346 0.9998657
1341846229.833857 0.0362125 -0.0181043 -0.0041004 0.0197451 0.0030538 -0.0020261 0.9997983
1341846230.370031 0.0362125 -0.0181043 -0.0041004 0.0179236 0.0095892 -0.0002080 0.9997934
1341846230.637789 0.0362125 -0.0181043 -0.0041004 0.0270082 0.0095709 -0.0046103 0.9995788
1341846230.769960 0.0362125 -0.0181043 -0.0041004 0.0235054 0.0070606 -0.0033935 0.9996930
1341846230.837804 0.0362125 -0.0181043 -0.0041004 0.0217360 0.0057987 -0.0027844 0.9997430
1341846230.905851 0.0362125 -0.0181043 -0.0041004 0.0199669 0.0045370 -0.0021750 0.9997880
1341846231.006047 0.0362125 -0.0181043 -0.0041004 0.0173138 0.0026444 -0.0012611 0.9998458
1341846231.138083 0.0362125 -0.0181043 -0.0041004 0.0137759 0.0001209 -0.0000426 0.9999051
1341846231.273832 0.0362125 -0.0181043 -0.0041004 0.0102378 -0.0024024 0.0011757 0.9999440
1341846231.442103 0.0362125 -0.0181043 -0.0041004 0.0066996 -0.0049256 0.0023939 0.9999626
1341846231.547853 0.0362125 -0.0181043 -0.0041004 0.0040458 -0.0068179 0.0033074 0.9999631
1341846233.517954 0.0368609 -0.0179723 -0.0080315 0.0603192 -0.0002633 -0.0233195 0.9979067
1341846233.685848 0.0365080 -0.0181528 -0.0062713 0.0617307 0.0001058 -0.0240766 0.9978024
1341846235.730392 0.0365402 -0.0181759 -0.0060695 0.0489224 -0.0113229 -0.0275886 0.9983573
1341846236.738521 0.0365152 -0.0181990 -0.0060764 0.0558053 0.0013896 -0.0215598 0.9982079
1341846240.490243 0.0365098 -0.0181750 -0.0061555 0.0592296 -0.0106269 -0.0202904 0.9979815
1341846240.757973 0.0365130 -0.0181651 -0.0061949 0.0630588 -0.0131849 -0.0239180 0.9976360
1341846240.925975 0.0365126 -0.0181669 -0.0061896 0.0628894 -0.0132251 -0.0237126 0.9976511
1341846241.062449 0.0365160 -0.0181656 -0.0061831 0.0637846 -0.0131650 -0.0248588 0.9975672
1341846241.167863 0.0365128 -0.0181659 -0.0061922 0.0635303 -0.0131772 -0.0250392 0.9975787
1341846241.362000 0.0365130 -0.0181651 -0.0061949 0.0625310 -0.0127159 -0.0290621 0.9975387
1341846241.598412 0.0365130 -0.0181651 -0.0061949 0.0624841 -0.0133018 -0.0295759 0.9975190
1341846241.998017 0.0365130 -0.0181651 -0.0061949 0.0635506 -0.0128993 -0.0304052 0.9974319
1341846242.197924 0.0365130 -0.0181651 -0.0061949 0.0673581 -0.0124469 -0.0301225 0.9971964
1341846242.401903 0.0365130 -0.0181651 -0.0061949 0.0698875 -0.0118901 -0.0301191 0.9970292
1341846242.634077 0.0365130 -0.0181651 -0.0061949 0.0699051 -0.0109756 -0.0315763 0.9969934
1341846242.769937 0.0365130 -0.0181651 -0.0061949 0.0671624 -0.0098513 -0.0306039 0.9972239
1341846242.902131 0.0365130 -0.0181651 -0.0061949 0.0651046 -0.0090081 -0.0298745 0.9973904
1341846242.969969 0.0365130 -0.0181651 -0.0061949 0.0637327 -0.0084458 -0.0293879 0.9974985
1341846243.038095 0.0365130 -0.0181651 -0.0061949 0.0623612 -0.0078841 -0.0289013 0.9976040
1341846243.237999 0.0365130 -0.0181651 -0.0061949 0.0582454 -0.0061995 -0.0274418 0.9979058
1341846243.405837 0.0365130 -0.0181651 -0.0061949 0.0548148 -0.0047954 -0.0262249 0.9981406
1341846243.809881 0.0365130 -0.0181651 -0.0061949 0.0697085 -0.0121713 -0.0374747 0.9967890
1341846244.009892 0.0365130 -0.0181651 -0.0061949 0.0707854 -0.0095891 -0.0415714 0.9965788
1341846244.115904 0.0365130 -0.0181651 -0.0061949 0.0730859 -0.0060282 -0.0431354 0.9963741
1341846244.151850 0.0365130 -0.0181651 -0.0061949 0.0738520 -0.0048423 -0.0436565 0.9963014
1341846244.184334 0.0365130 -0.0181651 -0.0061949 0.0746181 -0.0036566 -0.0441772 0.9962264
1341846244.251877 0.0365130 -0.0181651 -0.0061949 0.0761494 -0.0012850 -0.0452189 0.9960697
1341846244.316068 0.0365130 -0.0181651 -0.0061949 0.0776803 0.0010862 -0.0462600 0.9959039
1341846244.384040 0.0365130 -0.0181651 -0.0061949 0.0792103 0.0034576 -0.0473007 0.9957291
1341846244.583892 0.0365130 -0.0181650 -0.0061949 0.0837958 0.0105712 -0.0504202 0.9951504
1341846244.851973 0.0365130 -0.0181650 -0.0061949 0.0898993 0.0200542 -0.0545728 0.9942524
1341846245.119935 0.0365130 -0.0181650 -0.0061949 0.0959898 0.0295344 -0.0587172 0.9932099
1341846245.319885 0.0365130 -0.0181650 -0.0061949 0.1005484 0.0366417 -0.0618203 0.9923334
1341846245.523916 0.0365130 -0.0181650 -0.0061949 0.1050989 0.0437461 -0.0649182 0.9913759
1341846245.760068 0.0365129 -0.0181650 -0.0061949 0.1103972 0.0520299 -0.0685255 0.9901564
1341846245.986182 0.0365129 -0.0181650 -0.0061949 0.1149287 0.0591261 -0.0716114 0.9890234
1341846246.222002 0.0365129 -0.0181650 -0.0061949 0.1194509 0.0662172 -0.0746919 0.9878097
1341846246.489829 0.0365129 -0.0181649 -0.0061949 0.1254651 0.0756636 -0.0787890 0.9860658
1341846246.725903 0.0365129 -0.0181649 -0.0061949 0.1307127 0.0839202 -0.0823645 0.9844225
1341846246.993936 0.0365128 -0.0181649 -0.0061949 0.1366921 0.0933445 -0.0864395 0.9824104
1341846247.293957 0.0365128 -0.0181649 -0.0061949 0.1433956 0.1039307 -0.0910095 0.9799762
1341846247.530027 0.0365128 -0.0181649 -0.0061949 0.1478502 0.1109777 -0.0940469 0.9782532
1341846247.730051 0.0365128 -0.0181649 -0.0061949 0.1522928 0.1180154 -0.0970765 0.9764504
1341846247.898157 0.0365127 -0.0181649 -0.0061949 0.1559853 0.1238727 -0.0995951 0.9748871
1341846247.998062 0.0365127 -0.0181649 -0.0061949 0.1581965 0.1273838 -0.1011035 0.9739227
1341846248.366013 0.0365127 -0.0181648 -0.0061949 0.1662757 0.1402346 -0.1066167 0.9702162
1341846248.565971 0.0365127 -0.0181648 -0.0061949 0.1706631 0.1472281 -0.1096117 0.9680822
1341846248.869901 0.0365127 -0.0181648 -0.0061949 0.1764912 0.1565340 -0.1135906 0.9651141
1341846249.069961 0.0365126 -0.0181648 -0.0061949 0.1808454 0.1634985 -0.1165638 0.9627960
1341846249.306095 0.0365126 -0.0181648 -0.0061948 0.1851846 0.1704495 -0.1195275 0.9603993
1341846249.538288 0.0365126 -0.0181647 -0.0061948 0.1902273 0.1785417 -0.1229727 0.9575042
1341846249.773906 0.0365126 -0.0181647 -0.0061948 0.1952487 0.1866145 -0.1264043 0.9545025
1341846249.873923 0.0365126 -0.0181647 -0.0061948 0.1973942 0.1900680 -0.1278707 0.9531835
1341846249.909991 0.0365126 -0.0181647 -0.0061948 0.1981084 0.1912183 -0.1283589 0.9527395
1341846249.942024 0.0365125 -0.0181647 -0.0061948 0.1988222 0.1923682 -0.1288468 0.9522934
1341846249.974199 0.0365125 -0.0181647 -0.0061948 0.1995355 0.1935177 -0.1293344 0.9518451
1341846250.010384 0.0365125 -0.0181647 -0.0061948 0.2002484 0.1946667 -0.1298217 0.9513946
1341846250.042022 0.0365125 -0.0181647 -0.0061948 0.2009608 0.1958153 -0.1303088 0.9509420
1341846250.109945 0.0365125 -0.0181647 -0.0061948 0.2023842 0.1981111 -0.1312820 0.9500303
1341846250.141849 0.0365125 -0.0181646 -0.0061948 0.2030952 0.1992584 -0.1317681 0.9495713
1341846250.210137 0.0365125 -0.0181646 -0.0061948 0.2045158 0.2015515 -0.1327396 0.9486467
1341846250.277878 0.0365125 -0.0181646 -0.0061948 0.2059345 0.2038428 -0.1337098 0.9477134
1341846250.445984 0.0365125 -0.0181646 -0.0061948 0.2094732 0.2095628 -0.1361300 0.9453428
1341846250.777886 0.0365125 -0.0181646 -0.0061947 0.2165140 0.2209667 -0.1409466 0.9404411
1341846251.081959 0.0365125 -0.0181646 -0.0061947 0.2228078 0.2311875 -0.1452543 0.9358473
1341846251.382003 0.0365124 -0.0181645 -0.0061947 0.2290601 0.2413664 -0.1495353 0.9310816
1341846251.517870 0.0365124 -0.0181645 -0.0061947 0.2318254 0.2458763 -0.1514291 0.9289085
1341846251.618241 0.0365124 -0.0181645 -0.0061947 0.2338940 0.2492526 -0.1528458 0.9272566
