1341846226.817920 0.0000000 0.0000000 0.0000000 0.0000000 0.0000000 0.0000000 1.0000000
1341846229.094829 0.0360137 -0.0177174 -0.0043416 0.0051996 -0.0022933 -0.0104070 0.9999297
1341846229.129930 0.0360137 -0.0177174 -0.0043415 0.0045890 -0.0017703 -0.0094640 0.9999431
1341846229.229812 0.0360137 -0.0177173 -0.0043416 0.0057715 -0.0018586 -0.0101053 0.9999306
1341846229.398029 0.0360137 -0.0177173 -0.0043416 0.0095437 -0.0034266 -0.0111926 0.9998859
1341846229.765937 0.0360137 -0.0177174 -0.0043417 0.0218201 0.0027943 -0.0016051 0.9997568
1341846230.469920 0.0360137 -0.0177174 -0.0043417 0.0231157 0.0116915 -0.0036210 0.9996579
1341846230.637789 0.0360136 -0.0177174 -0.0043417 0.0266942 0.0094355 -0.0038858 0.9995915
1341846231.037936 0.0360136 -0.0177174 -0.0043417 0.0306515 0.0049100 -0.0046446 0.9995072
1341846231.547853 0.0360136 -0.0177175 -0.0043419 0.0307340 0.0011574 -0.0046759 0.9995160
1341846231.648015 0.0360112 -0.0177253 -0.0043462 0.0239953 0.0047569 -0.0068564 0.9996772
1341846231.683822 0.0360082 -0.0177174 -0.0043025 0.0216906 0.0060028 -0.0068116 0.9997235
1341846231.747846 0.0360089 -0.0177144 -0.0043017 0.0217971 0.0059404 -0.0066275 0.9997228
1341846231.909867 0.0360095 -0.0177157 -0.0043019 0.0221517 0.0042683 -0.0054539 0.9997306
1341846232.077961 0.0360101 -0.0177162 -0.0043021 0.0224945 0.0020468 -0.0037596 0.9997378
1341846232.351854 0.0360088 -0.0177166 -0.0043022 0.0231597 -0.0012488 -0.0014557 0.9997299
1341846232.484170 0.0360090 -0.0177164 -0.0043029 0.0234960 -0.0026621 -0.0007780 0.9997201
1341846232.619798 0.0360081 -0.0177155 -0.0043023 0.0236622 -0.0045368 0.0005434 0.9997095
1341846232.719804 0.0360079 -0.0177161 -0.0043016 0.0240543 -0.0058732 0.0014682 0.9996923
1341846232.819886 0.0360084 -0.0177167 -0.0043009 0.0243584 -0.0068968 0.0021553 0.9996772
1341846233.286015 0.0369582 -0.0175675 -0.0075517 0.0568929 0.0022261 -0.0250907 0.9980625
1341846233.453822 0.0360136 -0.0177173 -0.0043416 0.0594079 0.0016726 -0.0216586 0.9979974
1341846236.738521 0.0360135 -0.0177173 -0.0043414 0.0556898 0.0014228 -0.0233513 0.9981740
1341846240.525976 0.0360135 -0.0177173 -0.0043415 0.0599728 -0.0109435 -0.0223895 0.9978889
1341846240.925975 0.0360135 -0.0177173 -0.0043416 0.0629285 -0.0130063 -0.0247101 0.9976273
1341846241.062449 0.0360135 -0.0177175 -0.0043415 0.0627350 -0.0131387 -0.0246730 0.9976387
1341846241.230127 0.0360135 -0.0177173 -0.0043415 0.0629597 -0.0128234 -0.0259816 0.9975954
1341846241.898156 0.0360136 -0.0177173 -0.0043416 0.0634058 -0.0127961 -0.0303264 0.9974449
1341846241.965882 0.0360136 -0.0177173 -0.0043416 0.0651374 -0.0121999 -0.0307824 0.9973268
1341846242.097916 0.0360136 -0.0177174 -0.0043416 0.0648765 -0.0125723 -0.0326768 0.9972789
1341846242.165895 0.0360137 -0.0177175 -0.0043418 0.0643534 -0.0128885 -0.0337238 0.9972739
1341846242.234487 0.0360137 -0.0177176 -0.0043418 0.0641064 -0.0131209 -0.0347080 0.9972530
1341846242.333996 0.0360138 -0.0177177 -0.0043419 0.0636729 -0.0134796 -0.0361956 0.9972231
1341846242.469883 0.0360139 -0.0177178 -0.0043421 0.0631087 -0.0139622 -0.0381787 0.9971784
1341846242.938061 0.0360142 -0.0177178 -0.0043423 0.0612560 -0.0154021 -0.0446125 0.9970056
1341846243.169985 0.0360142 -0.0177179 -0.0043423 0.0601431 -0.0164416 -0.0478941 0.9969046
1341846243.442193 0.0360143 -0.0177181 -0.0043425 0.0591306 -0.0173174 -0.0518764 0.9967510
1341846243.642015 0.0360145 -0.0177182 -0.0043427 0.0582663 -0.0179933 -0.0547598 0.9966357
1341846243.978045 0.0360148 -0.0177183 -0.0043429 0.0569087 -0.0190302 -0.0590322 0.9964509
1341846244.184334 0.0360151 -0.0177184 -0.0043431 0.0560008 -0.0197277 -0.0618097 0.9963204
1341846244.419869 0.0360151 -0.0177186 -0.0043431 0.0549666 -0.0207230 -0.0650143 0.9961538
1341846244.583892 0.0360155 -0.0177187 -0.0043432 0.0541922 -0.0211545 -0.0673883 0.9960294
1341846244.751827 0.0360158 -0.0177189 -0.0043433 0.0534079 -0.0217501 -0.0696723 0.9959018
1341846244.952621 0.0360163 -0.0177193 -0.0043437 0.0526571 -0.0222674 -0.0726481 0.9957176
1341846245.151835 0.0360167 -0.0177192 -0.0043438 0.0515978 -0.0229577 -0.0752579 0.9955636
1341846245.623837 0.0360169 -0.0177196 -0.0043439 0.0495381 -0.0245420 -0.0815634 0.9951337
1341846245.824142 0.0360172 -0.0177197 -0.0043440 0.0486176 -0.0251460 -0.0842164 0.9949430
1341846246.053871 0.0360173 -0.0177199 -0.0043441 0.0478077 -0.0258073 -0.0868193 0.9947416
1341846246.253984 0.0360171 -0.0177202 -0.0043442 0.0470867 -0.0262809 -0.0892074 0.9945523
1341846246.521912 0.0360179 -0.0177201 -0.0043442 0.0457982 -0.0270303 -0.0926603 0.9942766
1341846246.757894 0.0360181 -0.0177201 -0.0043442 0.0446062 -0.0278913 -0.0955914 0.9940295
1341846246.993936 0.0360179 -0.0177203 -0.0043442 0.0435736 -0.0287626 -0.0986715 0.9937494
1341846247.225977 0.0360179 -0.0177210 -0.0043441 0.0425866 -0.0293937 -0.1017440 0.9934639
1341846247.562209 0.0360179 -0.0177214 -0.0043444 0.0411597 -0.0301786 -0.1056292 0.9930950
1341846247.762180 0.0360178 -0.0177216 -0.0043443 0.0402480 -0.0310166 -0.1078629 0.9928664
1341846247.798768 0.0364710 -0.0175899 -0.0064476 0.0420181 -0.0302438 -0.1037242 0.9932578
1341846247.998062 0.0363072 -0.0175829 -0.0056776 0.0436889 -0.0323812 -0.1018807 0.9933091
1341846248.265968 0.0363355 -0.0175041 -0.0057976 0.0457219 -0.0240630 -0.1105429 0.9925275
1341846250.177803 0.0363214 -0.0175093 -0.0057328 0.0361478 -0.0356692 -0.0952954 0.9941528
