1341846226.817920 0.0000000 0.0000000 0.0000000 0.0000000 0.0000000 0.0000000 1.0000000
1341846229.094829 0.0357785 -0.0181007 -0.0040663 0.0051398 -0.0022550 -0.0104612 0.9999295
1341846229.129930 0.0360753 -0.0181552 -0.0038495 0.0045548 -0.0018447 -0.0093752 0.9999440
1341846229.229812 0.0360721 -0.0181567 -0.0038217 0.0056447 -0.0018940 -0.0101274 0.9999310
1341846229.329933 0.0360734 -0.0181560 -0.0038303 0.0068140 -0.0033203 -0.0116812 0.9999030
1341846229.630063 0.0360852 -0.0181567 -0.0039461 0.0179189 -0.0008568 -0.0043062 0.9998298
1341846230.172747 0.0360752 -0.0181552 -0.0038493 0.0120935 0.0074379 -0.0022691 0.9998966
1341846230.469920 0.0360752 -0.0181552 -0.0038494 0.0229316 0.0116109 -0.0036143 0.9996631
1341846230.670057 0.0360752 -0.0181552 -0.0038494 0.0259370 0.0089938 -0.0042318 0.9996142
1341846231.037936 0.0360752 -0.0181552 -0.0038494 0.0305102 0.0047959 -0.0045349 0.9995127
1341846231.583898 0.0360752 -0.0181552 -0.0038494 0.0290451 0.0016171 -0.0020579 0.9995747
1341846231.648015 0.0360752 -0.0181552 -0.0038494 0.0243254 0.0056331 -0.0026469 0.9996847
1341846231.683822 0.0360752 -0.0181552 -0.0038494 0.0243196 0.0056361 -0.0026446 0.9996849
1341846231.783993 0.0360752 -0.0181552 -0.0038494 0.0435053 -0.0006346 -0.0126667 0.9989727
1341846231.909867 0.0360752 -0.0181552 -0.0038494 0.0386200 -0.0031752 -0.0108764 0.9991897
1341846232.215951 0.0360752 -0.0181552 -0.0038493 0.0377194 -0.0088473 -0.0063018 0.9992293
1341846232.319867 0.0360752 -0.0181552 -0.0038493 0.0382619 -0.0101420 -0.0043628 0.9992068
1341846232.383877 0.0360753 -0.0181551 -0.0038493 0.0386231 -0.0110019 -0.0030698 0.9991885
1341846232.519889 0.0360753 -0.0181551 -0.0038494 0.0393449 -0.0127208 -0.0004838 0.9991446
1341846232.583846 0.0360753 -0.0181552 -0.0038494 0.0397056 -0.0135799 0.0008091 0.9991188
1341846232.651799 0.0360753 -0.0181552 -0.0038493 0.0400664 -0.0144390 0.0021021 0.9990905
1341846232.719804 0.0360753 -0.0181552 -0.0038493 0.0404270 -0.0152980 0.0033950 0.9990596
1341846232.787894 0.0360753 -0.0181552 -0.0038493 0.0407875 -0.0161569 0.0046878 0.9990262
1341846232.887989 0.0360753 -0.0181553 -0.0038493 0.0413282 -0.0174452 0.0066271 0.9989713
1341846232.987965 0.0360753 -0.0181553 -0.0038493 0.0418686 -0.0187333 0.0085663 0.9989108
1341846233.087872 0.0360754 -0.0181552 -0.0038493 0.0424087 -0.0200213 0.0105054 0.9988444
1341846233.218177 0.0360754 -0.0181552 -0.0038493 0.0429487 -0.0213092 0.0124443 0.9987725
1341846233.317870 0.0360754 -0.0181552 -0.0038493 0.0434883 -0.0225969 0.0143831 0.9986948
1341846233.517954 0.0360754 -0.0181552 -0.0038493 0.0445669 -0.0251720 0.0182605 0.9985223
1341846233.685848 0.0360754 -0.0181552 -0.0038493 0.0454649 -0.0273175 0.0214911 0.9983611
1341846233.822009 0.0360754 -0.0181552 -0.0038493 0.0460033 -0.0286045 0.0234293 0.9982567
1341846233.953967 0.0360754 -0.0181552 -0.0038493 0.0467207 -0.0303203 0.0260132 0.9981088
1341846234.089899 0.0360754 -0.0181552 -0.0038493 0.0474376 -0.0320358 0.0285968 0.9979507
1341846234.257875 0.0360754 -0.0181551 -0.0038493 0.0481540 -0.0337510 0.0311801 0.9977825
1341846234.425915 0.0360755 -0.0181551 -0.0038493 0.0490488 -0.0358945 0.0344085 0.9975579
1341846234.593900 0.0360755 -0.0181551 -0.0038493 0.0499427 -0.0380374 0.0376363 0.9973176
1341846234.793907 0.0360754 -0.0181551 -0.0038493 0.0508358 -0.0401796 0.0408635 0.9970614
1341846234.961979 0.0360754 -0.0181551 -0.0038493 0.0517281 -0.0423213 0.0440899 0.9967895
1341846235.130068 0.0360754 -0.0181551 -0.0038493 0.0526195 -0.0444623 0.0473154 0.9965016
1341846235.294134 0.0360754 -0.0181551 -0.0038493 0.0535101 -0.0466026 0.0505401 0.9961981
1341846235.398097 0.0360755 -0.0181550 -0.0038493 0.0540441 -0.0478863 0.0524744 0.9960083
1341846235.529989 0.0360755 -0.0181550 -0.0038493 0.0545777 -0.0491698 0.0544084 0.9958129
1341846235.597951 0.0360755 -0.0181550 -0.0038493 0.0549333 -0.0500253 0.0556975 0.9956794
1341846235.630160 0.0360755 -0.0181550 -0.0038493 0.0551111 -0.0504530 0.0563420 0.9956118
1341846235.730392 0.0360755 -0.0181550 -0.0038493 0.0556442 -0.0517358 0.0582752 0.9954050
1341846235.766032 0.0360755 -0.0181550 -0.0038493 0.0558218 -0.0521633 0.0589196 0.9953348
1341846235.833964 0.0360755 -0.0181550 -0.0038493 0.0561769 -0.0530183 0.0602081 0.9951925
1341846235.866037 0.0360755 -0.0181550 -0.0038493 0.0563545 -0.0534458 0.0608524 0.9951205
1341846235.934106 0.0360755 -0.0181550 -0.0038493 0.0567094 -0.0543005 0.0621407 0.9949744
1341846235.965921 0.0360755 -0.0181551 -0.0038493 0.0568869 -0.0547278 0.0627848 0.9949004
1341846236.034072 0.0360755 -0.0181550 -0.0038493 0.0572416 -0.0555823 0.0640729 0.9947506
1341846236.065823 0.0360755 -0.0181551 -0.0038493 0.0574189 -0.0560095 0.0647169 0.9946747
1341846236.134258 0.0360755 -0.0181550 -0.0038493 0.0577735 -0.0568638 0.0660047 0.9945210
1341846236.166269 0.0360755 -0.0181550 -0.0038493 0.0579507 -0.0572908 0.0666486 0.9944433
1341846236.202022 0.0360755 -0.0181550 -0.0038493 0.0581279 -0.0577179 0.0672924 0.9943649
1341846236.233893 0.0360755 -0.0181550 -0.0038493 0.0583050 -0.0581449 0.0679362 0.9942859
1341846236.265924 0.0360755 -0.0181550 -0.0038493 0.0584821 -0.0585718 0.0685799 0.9942062
1341846236.333756 0.0360755 -0.0181550 -0.0038493 0.0588362 -0.0594256 0.0698672 0.9940450
1341846236.369949 0.0360755 -0.0181550 -0.0038493 0.0590132 -0.0598524 0.0705108 0.9939635
1341846236.401964 0.0360755 -0.0181550 -0.0038493 0.0591901 -0.0602792 0.0711543 0.9938813
1341846236.433828 0.0360755 -0.0181550 -0.0038493 0.0593670 -0.0607060 0.0717978 0.9937985
1341846236.469948 0.0360755 -0.0181550 -0.0038493 0.0595439 -0.0611327 0.0724413 0.9937150
1341846236.501946 0.0360755 -0.0181550 -0.0038493 0.0597207 -0.0615594 0.0730847 0.9936309
1341846236.534764 0.0360755 -0.0181550 -0.0038493 0.0598975 -0.0619860 0.0737280 0.9935462
1341846236.569956 0.0360755 -0.0181550 -0.0038493 0.0600743 -0.0624125 0.0743713 0.9934610
1341846236.601901 0.0360755 -0.0181550 -0.0038493 0.0602510 -0.0628391 0.0750146 0.9933750
1341846236.637896 0.0360756 -0.0181550 -0.0038493 0.0604277 -0.0632655 0.0756578 0.9932884
1341846236.669818 0.0360756 -0.0181550 -0.0038493 0.0606043 -0.0636920 0.0763009 0.9932012
1341846236.702100 0.0360756 -0.0181550 -0.0038493 0.0607809 -0.0641184 0.0769440 0.9931133
1341846236.738521 0.0360756 -0.0181550 -0.0038493 0.0609575 -0.0645447 0.0775871 0.9930249
1341846236.769905 0.0360756 -0.0181551 -0.0038493 0.0611340 -0.0649710 0.0782301 0.9929358
1341846236.805999 0.0360756 -0.0181551 -0.0038493 0.0613105 -0.0653973 0.0788731 0.9928461
1341846236.844067 0.0360756 -0.0181551 -0.0038493 0.0614870 -0.0658235 0.0795160 0.9927557
1341846236.876573 0.0360756 -0.0181551 -0.0038493 0.0616634 -0.0662497 0.0801588 0.9926647
1341846236.911899 0.0360756 -0.0181550 -0.0038493 0.0618397 -0.0666758 0.0808016 0.9925731
1341846236.944484 0.0360756 -0.0181550 -0.0038493 0.0620160 -0.0671019 0.0814444 0.9924808
1341846236.975811 0.0360756 -0.0181551 -0.0038493 0.0621923 -0.0675279 0.0820870 0.9923880
1341846237.011848 0.0360756 -0.0181550 -0.0038493 0.0623686 -0.0679539 0.0827297 0.9922944
1341846237.043850 0.0360756 -0.0181550 -0.0038493 0.0625448 -0.0683799 0.0833723 0.9922003
1341846237.075882 0.0360756 -0.0181550 -0.0038493 0.0627210 -0.0688058 0.0840148 0.9921055
1341846237.111887 0.0360756 -0.0181551 -0.0038493 0.0628971 -0.0692317 0.0846572 0.9920101
1341846237.143863 0.0360756 -0.0181551 -0.0038493 0.0630732 -0.0696575 0.0852996 0.9919141
1341846237.175838 0.0360756 -0.0181551 -0.0038493 0.0632492 -0.0700833 0.0859420 0.9918175
1341846237.243895 0.0360756 -0.0181551 -0.0038493 0.0636012 -0.0709347 0.0872265 0.9916223
1341846237.280228 0.0360756 -0.0181551 -0.0038493 0.0637771 -0.0713603 0.0878687 0.9915237
1341846237.312079 0.0360756 -0.0181551 -0.0038493 0.0639530 -0.0717859 0.0885108 0.9914246
1341846237.379983 0.0360756 -0.0181550 -0.0038493 0.0643046 -0.0726369 0.0897949 0.9912243
1341846237.411962 0.0360756 -0.0181550 -0.0038493 0.0644804 -0.0730623 0.0904368 0.9911233
1341846237.479911 0.0360756 -0.0181550 -0.0038493 0.0648317 -0.0739131 0.0917205 0.9909193
1341846237.547914 0.0360756 -0.0181550 -0.0038493 0.0651829 -0.0747637 0.0930040 0.9907128
1341846237.579956 0.0360756 -0.0181550 -0.0038493 0.0653584 -0.0751889 0.0936457 0.9906086
1341846237.647976 0.0360756 -0.0181550 -0.0038493 0.0657094 -0.0760392 0.0949288 0.9903983
1341846237.680417 0.0360756 -0.0181550 -0.0038493 0.0658847 -0.0764642 0.0955703 0.9902923
1341846237.747860 0.0360756 -0.0181550 -0.0038493 0.0662354 -0.0773142 0.0968531 0.9900782
1341846237.779848 0.0360756 -0.0181550 -0.0038493 0.0664107 -0.0777392 0.0974944 0.9899703
1341846237.847966 0.0360756 -0.0181550 -0.0038493 0.0667611 -0.0785889 0.0987768 0.9897524
1341846237.916026 0.0360756 -0.0181550 -0.0038493 0.0671113 -0.0794385 0.1000590 0.9895321
1341846237.978064 0.0360756 -0.0181550 -0.0038493 0.0672863 -0.0798631 0.1007000 0.9894210
1341846238.010069 0.0360756 -0.0181550 -0.0038493 0.0674613 -0.0802878 0.1013409 0.9893093
1341846238.077963 0.0360756 -0.0181550 -0.0038493 0.0678112 -0.0811370 0.1026226 0.9890839
1341846238.145837 0.0360756 -0.0181550 -0.0038493 0.0681609 -0.0819859 0.1039040 0.9888561
1341846238.209943 0.0360756 -0.0181550 -0.0038493 0.0685104 -0.0828347 0.1051851 0.9886257
1341846238.246227 0.0360756 -0.0181550 -0.0038493 0.0686851 -0.0832589 0.1058255 0.9885096
1341846238.345918 0.0360756 -0.0181550 -0.0038493 0.0690344 -0.0841074 0.1071062 0.9882755
1341846238.377978 0.0360756 -0.0181550 -0.0038493 0.0692090 -0.0845315 0.1077465 0.9881575
1341846238.445979 0.0360756 -0.0181550 -0.0038493 0.0695580 -0.0853796 0.1090268 0.9879196
1341846238.515328 0.0360756 -0.0181550 -0.0038493 0.0699068 -0.0862275 0.1103067 0.9876792
1341846238.545906 0.0360756 -0.0181550 -0.0038493 0.0700812 -0.0866513 0.1109466 0.9875581
1341846238.645944 0.0360756 -0.0181550 -0.0038493 0.0704298 -0.0874988 0.1122261 0.9873140
1341846238.681933 0.0360756 -0.0181550 -0.0038493 0.0706040 -0.0879225 0.1128658 0.9871910
1341846238.745925 0.0360756 -0.0181550 -0.0038493 0.0709523 -0.0887696 0.1141449 0.9869431
1341846238.813869 0.0360756 -0.0181549 -0.0038493 0.0713005 -0.0896165 0.1154237 0.9866927
1341846238.849931 0.0360756 -0.0181549 -0.0038493 0.0714745 -0.0900399 0.1160630 0.9865665
1341846238.914000 0.0360756 -0.0181550 -0.0038493 0.0718224 -0.0908865 0.1173413 0.9863124
1341846239.017941 0.0360756 -0.0181550 -0.0038493 0.0721701 -0.0917329 0.1186194 0.9860558
1341846239.050041 0.0360756 -0.0181550 -0.0038493 0.0723439 -0.0921560 0.1192583 0.9859265
1341846239.117866 0.0360756 -0.0181550 -0.0038493 0.0726913 -0.0930020 0.1205359 0.9856661
1341846239.181897 0.0360756 -0.0181550 -0.0038493 0.0730386 -0.0938478 0.1218131 0.9854032
1341846239.250009 0.0360756 -0.0181550 -0.0038493 0.0733857 -0.0946933 0.1230900 0.9851378
1341846239.318442 0.0360757 -0.0181549 -0.0038493 0.0737326 -0.0955386 0.1243666 0.9848700
1341846239.386011 0.0360757 -0.0181549 -0.0038493 0.0740793 -0.0963836 0.1256429 0.9845996
1341846239.417983 0.0360757 -0.0181549 -0.0038493 0.0742526 -0.0968060 0.1262810 0.9844635
1341846239.485973 0.0360757 -0.0181549 -0.0038493 0.0745990 -0.0976506 0.1275568 0.9841893
1341846239.553979 0.0360757 -0.0181549 -0.0038493 0.0749452 -0.0984949 0.1288322 0.9839127
1341846239.617967 0.0360757 -0.0181549 -0.0038493 0.0752912 -0.0993390 0.1301073 0.9836336
1341846239.685852 0.0360757 -0.0181549 -0.0038493 0.0756370 -0.1001829 0.1313820 0.9833520
1341846239.753857 0.0360757 -0.0181549 -0.0038493 0.0759826 -0.1010264 0.1326565 0.9830679
1341846239.821950 0.0360757 -0.0181549 -0.0038493 0.0763279 -0.1018698 0.1339305 0.9827814
1341846239.891801 0.0360757 -0.0181549 -0.0038493 0.0766731 -0.1027128 0.1352043 0.9824923
1341846239.953963 0.0360757 -0.0181549 -0.0038493 0.0768456 -0.1031342 0.1358410 0.9823468
1341846240.022055 0.0360757 -0.0181549 -0.0038493 0.0771905 -0.1039769 0.1371143 0.9820541
1341846240.089841 0.0360757 -0.0181549 -0.0038493 0.0775351 -0.1048193 0.1383871 0.9817587
1341846240.195884 0.0360757 -0.0181549 -0.0038493 0.0780518 -0.1060824 0.1402957 0.9813111
1341846240.227927 0.0360757 -0.0181549 -0.0038493 0.0782239 -0.1065032 0.1409318 0.9811607
1341846240.322206 0.0360757 -0.0181549 -0.0038493 0.0785680 -0.1073448 0.1422035 0.9808580
1341846240.422212 0.0360757 -0.0181549 -0.0038493 0.0789118 -0.1081861 0.1434750 0.9805527
1341846240.458143 0.0360757 -0.0181549 -0.0038493 0.0790837 -0.1086066 0.1441106 0.9803991
1341846240.490243 0.0360757 -0.0181549 -0.0038493 0.0792555 -0.1090271 0.1447461 0.9802450
1341846240.557894 0.0360757 -0.0181549 -0.0038493 0.0795990 -0.1098678 0.1460168 0.9799348
1341846240.626172 0.0360757 -0.0181549 -0.0038493 0.0799423 -0.1107082 0.1472872 0.9796221
1341846240.657964 0.0360757 -0.0181549 -0.0038493 0.0801138 -0.1111283 0.1479222 0.9794648
1341846240.725903 0.0360757 -0.0181549 -0.0038493 0.0804569 -0.1119683 0.1491920 0.9791484
1341846240.757973 0.0360757 -0.0181549 -0.0038493 0.0806283 -0.1123881 0.1498268 0.9789892
1341846240.826068 0.0360757 -0.0181549 -0.0038493 0.0809710 -0.1132277 0.1510960 0.9786691
1341846240.894038 0.0360757 -0.0181549 -0.0038493 0.0813136 -0.1140669 0.1523647 0.9783465
1341846240.958080 0.0360757 -0.0181549 -0.0038493 0.0816559 -0.1149059 0.1536332 0.9780214
1341846240.994099 0.0360757 -0.0181549 -0.0038493 0.0818270 -0.1153252 0.1542673 0.9778579
1341846241.062449 0.0360757 -0.0181549 -0.0038493 0.0821690 -0.1161637 0.1555352 0.9775290
1341846241.094372 0.0360757 -0.0181549 -0.0038493 0.0823399 -0.1165828 0.1561689 0.9773637
1341846241.167863 0.0360757 -0.0181549 -0.0038493 0.0826816 -0.1174207 0.1574362 0.9770312
1341846241.230127 0.0360757 -0.0181549 -0.0038493 0.0828523 -0.1178396 0.1580696 0.9768640
1341846241.261868 0.0360757 -0.0181549 -0.0038493 0.0830230 -0.1182583 0.1587030 0.9766963
1341846241.295211 0.0360757 -0.0181549 -0.0038493 0.0831936 -0.1186770 0.1593362 0.9765278
1341846241.329804 0.0360757 -0.0181549 -0.0038493 0.0833642 -0.1190956 0.1599693 0.9763588
1341846241.362000 0.0360757 -0.0181549 -0.0038493 0.0835347 -0.1195141 0.1606023 0.9761891
1341846241.394012 0.0360757 -0.0181549 -0.0038493 0.0837051 -0.1199325 0.1612352 0.9760189
1341846241.430126 0.0360757 -0.0181549 -0.0038493 0.0838755 -0.1203508 0.1618681 0.9758480
1341846241.462018 0.0360757 -0.0181549 -0.0038493 0.0840458 -0.1207690 0.1625007 0.9756765
1341846241.529930 0.0360757 -0.0181549 -0.0038493 0.0843862 -0.1216052 0.1637658 0.9753317
1341846241.562493 0.0360757 -0.0181549 -0.0038493 0.0845563 -0.1220232 0.1643981 0.9751583
1341846241.598412 0.0360757 -0.0181549 -0.0038493 0.0847264 -0.1224411 0.1650304 0.9749844
1341846241.629998 0.0360757 -0.0181549 -0.0038493 0.0848964 -0.1228589 0.1656626 0.9748098
1341846241.698098 0.0360757 -0.0181549 -0.0038493 0.0852361 -0.1236942 0.1669267 0.9744588
1341846241.729805 0.0360757 -0.0181549 -0.0038493 0.0854059 -0.1241117 0.1675586 0.9742824
1341846241.765805 0.0360757 -0.0181549 -0.0038493 0.0855757 -0.1245292 0.1681904 0.9741054
1341846241.797970 0.0360757 -0.0181549 -0.0038493 0.0857453 -0.1249465 0.1688221 0.9739277
1341846241.830240 0.0360758 -0.0181549 -0.0038493 0.0859149 -0.1253637 0.1694536 0.9737495
1341846241.898156 0.0360758 -0.0181549 -0.0038493 0.0862540 -0.1261979 0.1707163 0.9733911
1341846241.929917 0.0360758 -0.0181549 -0.0038493 0.0864234 -0.1266149 0.1713476 0.9732110
1341846241.998017 0.0360757 -0.0181549 -0.0038493 0.0867620 -0.1274485 0.1726097 0.9728490
1341846242.066365 0.0360758 -0.0181549 -0.0038493 0.0871003 -0.1282819 0.1738715 0.9724845
1341846242.097916 0.0360758 -0.0181549 -0.0038493 0.0872694 -0.1286984 0.1745021 0.9723013
1341846242.165895 0.0360758 -0.0181549 -0.0038493 0.0876075 -0.1295311 0.1757632 0.9719331
1341846242.197924 0.0360758 -0.0181549 -0.0038493 0.0877764 -0.1299474 0.1763935 0.9717481
1341846242.269588 0.0360758 -0.0181549 -0.0038493 0.0881141 -0.1307796 0.1776538 0.9713762
1341846242.301972 0.0360758 -0.0181549 -0.0038493 0.0882829 -0.1311955 0.1782839 0.9711893
1341846242.366000 0.0360758 -0.0181549 -0.0038493 0.0886203 -0.1320271 0.1795436 0.9708138
1341846242.433933 0.0360758 -0.0181549 -0.0038493 0.0889575 -0.1328584 0.1808028 0.9704357
1341846242.469883 0.0360758 -0.0181549 -0.0038493 0.0891260 -0.1332738 0.1814323 0.9702458
1341846242.534063 0.0360758 -0.0181549 -0.0038493 0.0894629 -0.1341045 0.1826909 0.9698641
1341846242.602000 0.0360758 -0.0181549 -0.0038493 0.0897996 -0.1349348 0.1839490 0.9694800
1341846242.670215 0.0360758 -0.0181548 -0.0038493 0.0901359 -0.1357647 0.1852066 0.9690934
1341846242.737996 0.0360758 -0.0181548 -0.0038493 0.0904720 -0.1365942 0.1864638 0.9687043
1341846242.808080 0.0360758 -0.0181548 -0.0038493 0.0908078 -0.1374233 0.1877205 0.9683129
1341846242.869936 0.0360758 -0.0181548 -0.0038493 0.0909756 -0.1378376 0.1883486 0.9681162
1341846242.938061 0.0360758 -0.0181548 -0.0038493 0.0913110 -0.1386659 0.1896045 0.9677211
1341846243.005810 0.0360758 -0.0181548 -0.0038493 0.0916462 -0.1394938 0.1908600 0.9673236
1341846243.070041 0.0360758 -0.0181548 -0.0038493 0.0919812 -0.1403212 0.1921149 0.9669236
1341846243.169985 0.0360758 -0.0181548 -0.0038493 0.0924832 -0.1415616 0.1939965 0.9663191
1341846243.237999 0.0360758 -0.0181548 -0.0038493 0.0928176 -0.1423879 0.1952502 0.9659130
1341846243.305879 0.0360758 -0.0181548 -0.0038494 0.0931517 -0.1432138 0.1965035 0.9655045
1341846243.374348 0.0360759 -0.0181548 -0.0038493 0.0934856 -0.1440392 0.1977563 0.9650936
1341846243.442193 0.0360759 -0.0181548 -0.0038493 0.0938192 -0.1448642 0.1990086 0.9646802
1341846243.542001 0.0360758 -0.0181548 -0.0038493 0.0943192 -0.1461009 0.2008861 0.9640556
1341846243.605841 0.0360759 -0.0181548 -0.0038494 0.0946522 -0.1469248 0.2021372 0.9636362
1341846243.710095 0.0360759 -0.0181548 -0.0038494 0.0951513 -0.1481598 0.2040130 0.9630024
1341846243.774067 0.0360759 -0.0181548 -0.0038494 0.0954836 -0.1489827 0.2052629 0.9625769
1341846243.841971 0.0360759 -0.0181548 -0.0038494 0.0958158 -0.1498051 0.2065122 0.9621489
1341846243.978045 0.0360759 -0.0181548 -0.0038493 0.0963136 -0.1510379 0.2083852 0.9615024
1341846244.009892 0.0360759 -0.0181548 -0.0038493 0.0964794 -0.1514485 0.2090093 0.9612857
1341846244.115904 0.0360759 -0.0181548 -0.0038493 0.0969764 -0.1526799 0.2108807 0.9606320
1341846244.184334 0.0360759 -0.0181548 -0.0038494 0.0973074 -0.1535002 0.2121276 0.9601931
1341846244.251877 0.0360759 -0.0181548 -0.0038494 0.0976382 -0.1543201 0.2133740 0.9597518
1341846244.351999 0.0360759 -0.0181548 -0.0038493 0.0981340 -0.1555491 0.2152425 0.9590855
1341846244.419869 0.0360759 -0.0181548 -0.0038493 0.0984641 -0.1563678 0.2164875 0.9586381
1341846244.519923 0.0360759 -0.0181548 -0.0038494 0.0989590 -0.1575953 0.2183540 0.9579626
1341846244.583892 0.0360759 -0.0181548 -0.0038493 0.0992885 -0.1584130 0.2195976 0.9575093
1341846244.683815 0.0360760 -0.0181548 -0.0038494 0.0997823 -0.1596389 0.2214621 0.9568247
1341846244.751827 0.0360760 -0.0181548 -0.0038493 0.1001112 -0.1604555 0.2227044 0.9563653
1341846244.851973 0.0360760 -0.0181548 -0.0038493 0.1006039 -0.1616796 0.2245667 0.9556717
1341846244.952621 0.0360760 -0.0181548 -0.0038493 0.1010961 -0.1629028 0.2264277 0.9549726
1341846245.051869 0.0360760 -0.0181547 -0.0038493 0.1015877 -0.1641251 0.2282873 0.9542682
1341846245.119935 0.0360760 -0.0181547 -0.0038493 0.1019151 -0.1649394 0.2295263 0.9537956
1341846245.219842 0.0360760 -0.0181547 -0.0038493 0.1024057 -0.1661600 0.2313838 0.9530821
1341846245.319885 0.0360760 -0.0181547 -0.0038493 0.1028957 -0.1673796 0.2332400 0.9523632
1341846245.387919 0.0360760 -0.0181547 -0.0038493 0.1032220 -0.1681922 0.2344767 0.9518809
1341846245.487804 0.0360760 -0.0181547 -0.0038493 0.1037110 -0.1694101 0.2363306 0.9511530
1341846245.591988 0.0360760 -0.0181547 -0.0038493 0.1041993 -0.1706269 0.2381831 0.9504198
1341846245.655890 0.0360760 -0.0181547 -0.0038493 0.1045246 -0.1714375 0.2394174 0.9499279
1341846245.760068 0.0360760 -0.0181547 -0.0038493 0.1050120 -0.1726525 0.2412679 0.9491857
1341846245.824142 0.0360760 -0.0181547 -0.0038493 0.1053366 -0.1734620 0.2425007 0.9486878
1341846245.927903 0.0360761 -0.0181547 -0.0038493 0.1058230 -0.1746753 0.2443487 0.9479365
1341846246.022057 0.0360761 -0.0181547 -0.0038493 0.1061470 -0.1754837 0.2455799 0.9474328
1341846246.121806 0.0360761 -0.0181547 -0.0038493 0.1066325 -0.1766954 0.2474253 0.9466726
1341846246.222002 0.0360761 -0.0181547 -0.0038493 0.1069559 -0.1775027 0.2486548 0.9461628
1341846246.289808 0.0360761 -0.0181547 -0.0038493 0.1072790 -0.1783094 0.2498835 0.9456506
1341846246.389885 0.0360761 -0.0181547 -0.0038493 0.1077633 -0.1795186 0.2517254 0.9448780
1341846246.457915 0.0360761 -0.0181546 -0.0038493 0.1080858 -0.1803242 0.2529524 0.9443600
1341846246.558038 0.0360761 -0.0181546 -0.0038493 0.1085690 -0.1815316 0.2547917 0.9435784
1341846246.658046 0.0360761 -0.0181546 -0.0038493 0.1090517 -0.1827380 0.2566294 0.9427915
1341846246.725903 0.0360761 -0.0181546 -0.0038493 0.1093731 -0.1835416 0.2578537 0.9422640
1341846246.826059 0.0360761 -0.0181546 -0.0038494 0.1098548 -0.1847461 0.2596890 0.9414682
1341846246.893944 0.0360761 -0.0181546 -0.0038493 0.1101755 -0.1855484 0.2609118 0.9409347
1341846246.993936 0.0360761 -0.0181546 -0.0038493 0.1106561 -0.1867511 0.2627447 0.9401301
1341846247.093899 0.0360761 -0.0181546 -0.0038493 0.1111360 -0.1879526 0.2645759 0.9393201
1341846247.162093 0.0360761 -0.0181546 -0.0038493 0.1114556 -0.1887529 0.2657958 0.9387771
1341846247.261953 0.0360762 -0.0181546 -0.0038493 0.1119345 -0.1899525 0.2676243 0.9379584
1341846247.325987 0.0360762 -0.0181546 -0.0038493 0.1122535 -0.1907518 0.2688424 0.9374095
1341846247.430187 0.0360762 -0.0181546 -0.0038493 0.1125722 -0.1915506 0.2700598 0.9368584
1341846247.530027 0.0360761 -0.0181546 -0.0038493 0.1130497 -0.1927478 0.2718844 0.9360272
1341846247.630035 0.0360762 -0.0181546 -0.0038493 0.1135266 -0.1939437 0.2737074 0.9351908
1341846247.730051 0.0360762 -0.0181546 -0.0038493 0.1140029 -0.1951385 0.2755289 0.9343491
1341846247.798768 0.0360762 -0.0181546 -0.0038493 0.1143201 -0.1959344 0.2767423 0.9337850
1341846247.898157 0.0360762 -0.0181546 -0.0038493 0.1147953 -0.1971273 0.2785611 0.9329344
1341846248.030615 0.0360762 -0.0181546 -0.0038493 0.1154279 -0.1987160 0.2809836 0.9317921
1341846248.098211 0.0360762 -0.0181546 -0.0038493 0.1157438 -0.1995095 0.2821938 0.9312175
1341846248.198024 0.0360762 -0.0181545 -0.0038493 0.1162171 -0.2006989 0.2840078 0.9303510
1341846248.297927 0.0360762 -0.0181545 -0.0038493 0.1166897 -0.2018870 0.2858204 0.9294794
1341846248.402093 0.0360762 -0.0181545 -0.0038493 0.1171617 -0.2030737 0.2876313 0.9286024
1341846248.502139 0.0360762 -0.0181545 -0.0038493 0.1176330 -0.2042592 0.2894407 0.9277202
1341846248.602003 0.0360762 -0.0181545 -0.0038493 0.1181036 -0.2054435 0.2912484 0.9268327
1341846248.708095 0.0360762 -0.0181545 -0.0038493 0.1185734 -0.2066267 0.2930544 0.9259400
1341846248.833950 0.0360762 -0.0181545 -0.0038493 0.1190426 -0.2078087 0.2948590 0.9250419
1341846248.938035 0.0360762 -0.0181545 -0.0038493 0.1195111 -0.2089894 0.2966619 0.9241387
1341846249.037998 0.0360762 -0.0181545 -0.0038493 0.1199788 -0.2101687 0.2984633 0.9232301
1341846249.138041 0.0360762 -0.0181545 -0.0038493 0.1204457 -0.2113468 0.3002629 0.9223164
1341846249.237872 0.0360763 -0.0181545 -0.0038493 0.1209118 -0.2125235 0.3020609 0.9213974
1341846249.337853 0.0360763 -0.0181545 -0.0038493 0.1212222 -0.2133072 0.3032587 0.9207820
1341846249.437945 0.0360763 -0.0181544 -0.0038493 0.1216872 -0.2144817 0.3050539 0.9198543
1341846249.538288 0.0360763 -0.0181544 -0.0038494 0.1221512 -0.2156549 0.3068476 0.9189215
1341846249.641995 0.0360763 -0.0181544 -0.0038494 0.1226145 -0.2168269 0.3086394 0.9179834
1341846249.742012 0.0360763 -0.0181544 -0.0038494 0.1230769 -0.2179976 0.3104296 0.9170402
1341846249.842148 0.0360762 -0.0181544 -0.0038493 0.1235386 -0.2191670 0.3122178 0.9160917
1341846249.942024 0.0360762 -0.0181544 -0.0038493 0.1239996 -0.2203352 0.3140043 0.9151381
1341846250.042022 0.0360762 -0.0181544 -0.0038493 0.1244599 -0.2215021 0.3157891 0.9141793
1341846250.141849 0.0360762 -0.0181544 -0.0038493 0.1249195 -0.2226676 0.3175721 0.9132153
1341846250.277878 0.0360763 -0.0181543 -0.0038494 0.1255313 -0.2242199 0.3199466 0.9119219
1341846250.377944 0.0360763 -0.0181543 -0.0038494 0.1259892 -0.2253825 0.3217251 0.9109459
1341846250.477872 0.0360763 -0.0181543 -0.0038494 0.1264462 -0.2265436 0.3235018 0.9099648
1341846250.613828 0.0360763 -0.0181543 -0.0038494 0.1270543 -0.2280898 0.3258677 0.9086487
1341846250.713958 0.0360763 -0.0181543 -0.0038494 0.1275094 -0.2292478 0.3276399 0.9076557
1341846250.814024 0.0360763 -0.0181543 -0.0038494 0.1279637 -0.2304044 0.3294101 0.9066576
1341846250.913808 0.0360763 -0.0181543 -0.0038494 0.1284173 -0.2315598 0.3311782 0.9056545
1341846251.046033 0.0360763 -0.0181543 -0.0038494 0.1290209 -0.2330981 0.3335328 0.9043090
1341846251.149920 0.0360763 -0.0181543 -0.0038494 0.1294727 -0.2342501 0.3352965 0.9032939
1341846251.249978 0.0360763 -0.0181543 -0.0038494 0.1299238 -0.2354006 0.3370583 0.9022738
1341846251.350003 0.0360763 -0.0181543 -0.0038494 0.1303741 -0.2365499 0.3388180 0.9012486
