1341845820.751833 0.000000000 0.000000000 0.000000000 0.000000000 0.000000000 0.000000000 1.000000000
1341845820.787768 0.002799409 -0.005886190 0.001115902 -0.000516603 -0.001565739 -0.002401723 0.999995768
1341845820.819654 0.005627804 -0.003424535 -0.000772329 0.000384438 -0.001612388 -0.004265117 0.999989510
1341845820.851997 0.004756154 -0.003534548 -0.000846273 0.000250679 -0.001101506 -0.004829846 0.999987721
1341845820.887882 0.004779553 -0.002275329 -0.002555936 0.000660131 -0.001008287 -0.005699304 0.999983013
1341845820.920082 0.001012345 0.002150948 -0.002572264 0.000335512 -0.000748878 -0.006528137 0.999978364
1341845820.955790 0.002395809 0.001171155 -0.004025646 -0.001215311 -0.001804654 -0.006507946 0.999976456
1341845820.987817 0.001845406 -0.000740632 -0.001846973 -0.002013966 -0.001958638 -0.007321471 0.999969244
1341845821.019783 0.001791414 -0.002348083 -0.002578814 -0.002410073 -0.002225956 -0.006999373 0.999970138
1341845821.055706 0.000263150 -0.002207946 -0.003362858 -0.001791654 -0.002602555 -0.005478890 0.999979973
1341845821.087831 0.000726817 -0.004994679 -0.000900307 -0.001114212 -0.004052347 -0.002983350 0.999986708
1341845821.119871 0.009213935 -0.004837681 -0.002766844 0.000918305 -0.004150769 -0.001802724 0.999989331
1341845821.155881 0.009216135 0.001019963 -0.004852990 0.001639313 -0.001266730 -0.000232923 0.999997795
1341845821.188556 0.004791083 -0.005999919 -0.002489435 0.000595472 0.001091811 0.001511638 0.999998093
1341845821.223751 0.007685946 -0.010453079 -0.001745315 0.003137200 0.001184802 0.003981719 0.999986470
1341845821.256005 0.014364045 0.001892042 -0.005975425 0.005485508 0.001756108 0.003808561 0.999976158
1341845821.287883 0.011959389 -0.002414539 -0.002847493 0.003262105 0.004747382 0.002226157 0.999980927
1341845821.323879 0.015377568 -0.003808163 -0.004093451 0.003535769 0.006446209 0.000618342 0.999972761
1341845821.355690 0.009358307 -0.003636172 -0.000603998 0.004111095 0.009496137 0.000709021 0.999946177
1341845821.388161 0.008741502 -0.004913259 -0.000803588 0.004150220 0.010048109 0.002289305 0.999938250
1341845821.424470 0.011979260 -0.008396003 -0.002198229 0.005668717 0.011330066 0.002525316 0.999916553
1341845821.455778 0.011409694 -0.000141889 -0.002372142 0.006937678 0.013805646 0.001724437 0.999879122
1341845821.488014 0.008912786 -0.006676807 -0.001554916 0.006071336 0.015051814 0.002332059 0.999865592
1341845821.524370 0.011200188 -0.010221872 -0.001251255 0.007455425 0.015541481 0.002814080 0.999847472
1341845821.555644 0.007618981 -0.003708754 -0.002976072 0.010016209 0.017344195 0.002408485 0.999796510
1341845821.587677 0.006006321 -0.001267387 -0.005848310 0.010042612 0.017271426 0.002316654 0.999797702
1341845821.623761 0.008701382 -0.002012942 -0.003313238 0.009483579 0.015984884 0.001052631 0.999826670
1341845821.655725 0.008690128 -0.002392537 -0.003737904 0.009290691 0.015959134 -0.000057644 0.999829471
1341845821.691884 0.006681313 -0.002774526 -0.004027254 0.008075036 0.016268848 -0.000557359 0.999834895
1341845821.724228 0.006129814 -0.005038687 -0.004232430 0.007812122 0.015283581 -0.000195160 0.999852657
1341845821.755681 0.005601350 -0.004799909 -0.007535132 0.008852380 0.014133577 0.000817483 0.999860585
1341845821.791636 0.006780562 -0.003695935 -0.002397846 0.010050146 0.013632280 0.000967534 0.999856055
1341845821.823697 0.004925294 -0.003126820 -0.007449337 0.010858474 0.014542601 -0.001661396 0.999833882
1341845821.855574 0.006633437 -0.004738207 -0.007190604 0.009508695 0.015063027 -0.001990737 0.999839365
1341845821.891741 0.007646040 -0.002983041 -0.004327189 0.010557096 0.014388737 -0.001955113 0.999838829
1341845821.923730 0.006690001 -0.004900979 -0.004001519 0.011667916 0.014621479 -0.002094257 0.999822795
1341845821.955750 0.003810881 -0.002901079 -0.007157218 0.012619955 0.015559813 -0.001883673 0.999797523
1341845821.991786 0.008667028 -0.004577560 -0.003614761 0.011474541 0.015146053 -0.001758623 0.999817908
1341845822.023863 0.005008715 -0.005215322 -0.007808180 0.011824086 0.015936218 -0.002789095 0.999799192
1341845822.059759 0.004547801 -0.004601852 -0.008146286 0.011709888 0.015801581 -0.002413269 0.999803662
1341845822.091719 0.003454065 -0.005616981 -0.004320917 0.011850546 0.016095225 -0.002518678 0.999797046
1341845822.123689 0.004077122 -0.002423758 -0.004182423 0.014212311 0.017101126 -0.002751289 0.999748945
1341845822.185916 0.001736623 -0.004592753 -0.004164186 0.012589624 0.016658919 0.000242220 0.999781907
1341845822.221838 0.000594376 -0.004912816 -0.005478442 0.014436390 0.015037567 0.000434726 0.999782622
1341845822.254004 0.000728675 -0.002904467 -0.006048623 0.013862296 0.014090991 0.000277744 0.999804556
1341845822.289876 -0.011578474 -0.008737804 -0.001060962 0.012548054 0.014783635 -0.002618714 0.999808550
1341845822.321804 -0.009459063 -0.007673298 -0.001638502 0.013721059 0.013780610 -0.002582639 0.999807537
1341845822.353784 -0.009353700 -0.008716160 0.000328806 0.014279058 0.013392534 -0.003295149 0.999802947
1341845822.391662 -0.010836057 -0.007918210 0.001937129 0.015285214 0.013724826 -0.002395900 0.999786079
1341845822.428074 -0.014452402 -0.007811742 -0.000535859 0.015694836 0.013732439 -0.001962536 0.999780595
1341845822.459970 -0.014333336 -0.008243958 -0.003253080 0.014842456 0.012496868 -0.001844570 0.999810040
1341845822.495728 -0.027778011 -0.009947317 0.002566580 0.015028031 0.013645048 -0.003776208 0.999786854
1341845822.527724 -0.031563982 -0.004404537 0.002529440 0.015954955 0.013199338 -0.003766659 0.999778509
1341845822.559648 -0.032936428 -0.005047555 0.004187166 0.014667310 0.012075244 -0.002170278 0.999817133
1341845822.595852 -0.032024648 -0.007748881 0.003798669 0.014308801 0.011314562 -0.001962164 0.999831676
1341845822.627724 -0.037203483 -0.009266749 -0.004358351 0.012789326 0.011934838 -0.000962118 0.999846518
1341845822.663716 -0.046808746 -0.011982973 0.009366091 0.012683793 0.011416049 0.000336270 0.999854326
1341845822.695601 -0.045149505 -0.012468536 0.012420870 0.017092058 0.008142396 0.003106276 0.999815941
1341845822.731816 -0.042323560 -0.008333481 0.010973781 0.019681843 0.007029781 0.005144575 0.999768317
1341845822.789911 -0.054712720 -0.009429350 0.007255989 0.020351855 0.008565422 0.005686910 0.999740005
1341845822.825897 -0.062068127 -0.011667162 0.008511267 0.019251423 0.010400872 0.004280686 0.999751389
1341845822.859721 -0.062350139 -0.016648693 0.008357641 0.019897675 0.008984839 0.007403903 0.999734223
1341845822.889712 -0.068346001 -0.015638208 0.008389696 0.022331821 0.007893602 0.008239109 0.999685466
1341845822.925900 -0.066029459 -0.014861515 0.006268307 0.023250680 0.006334982 0.007622476 0.999680519
1341845822.957708 -0.068227582 -0.016295334 0.007156199 0.023381459 0.007134796 0.005355280 0.999686778
1341845822.989939 -0.069506951 -0.017243590 0.007927367 0.024468675 0.007234480 0.005613099 0.999658644
1341845823.025889 -0.072646879 -0.017191660 0.008504670 0.026714290 0.007025915 0.005355963 0.999604046
1341845823.057775 -0.074482515 -0.017674245 0.008911209 0.028039528 0.008827195 0.004801103 0.999556303
1341845823.093671 -0.080010757 -0.017061006 0.009887474 0.029419780 0.011665949 0.004857252 0.999487281
1341845823.125951 -0.082710572 -0.016713038 0.009503190 0.030140730 0.012390061 0.005815879 0.999451935
1341845823.157773 -0.085925311 -0.018534331 0.007312474 0.030743761 0.013865586 0.005738122 0.999414682
1341845823.193885 -0.092444412 -0.014458283 0.006911897 0.031388294 0.014423817 0.005698548 0.999386907
1341845823.225800 -0.096463352 -0.014701570 0.010038522 0.029378733 0.012981393 0.005252647 0.999470234
1341845823.261842 -0.095529519 -0.018126953 0.008643687 0.028636416 0.011326718 0.004547786 0.999515355
1341845823.293622 -0.096570939 -0.008142947 0.008993549 0.028530708 0.011385427 0.004482143 0.999518037
1341845823.325746 -0.091907263 -0.014671575 0.009920238 0.024305655 0.012679396 0.004200630 0.999615312
1341845823.361852 -0.096071787 -0.019958498 0.011204377 0.024272406 0.016431963 0.004557621 0.999559939
1341845823.394013 -0.101474643 -0.021448253 0.014028210 0.026517605 0.019166265 0.007577016 0.999435902
1341845823.426028 -0.113438345 -0.021829810 0.008882331 0.027636884 0.021603487 0.010313282 0.999331355
1341845823.461869 -0.115056857 -0.021520874 0.008334104 0.028501794 0.020524781 0.011495498 0.999316871
1341845823.493758 -0.115206286 -0.021392571 0.003898992 0.029053997 0.021363124 0.010872995 0.999290347
1341845823.529780 -0.120400913 -0.021807855 0.008270466 0.029115874 0.023141438 0.011636503 0.999240339
1341845823.561916 -0.129160240 -0.022957303 0.007163905 0.029319746 0.022447163 0.012072007 0.999245048
1341845823.593678 -0.131834939 -0.022680946 0.006605302 0.029742241 0.019167811 0.013651869 0.999280572
1341845823.629815 -0.132344186 -0.023127910 0.007367271 0.029586984 0.019323671 0.013778954 0.999280393
1341845823.661750 -0.139495254 -0.025574949 0.011955746 0.028858775 0.020581348 0.013210190 0.999284267
1341845823.695523 -0.145877078 -0.031590287 0.009855430 0.030297697 0.018642737 0.014916810 0.999255717
1341845823.729635 -0.150922969 -0.034139164 0.013772627 0.033938278 0.015929291 0.016649103 0.999158263
1341845823.761810 -0.152711034 -0.029522669 0.014178030 0.036753748 0.013712994 0.016737120 0.999090075
1341845823.797871 -0.158734083 -0.028012211 0.017512118 0.036820218 0.010743828 0.016891344 0.999121368
1341845823.829660 -0.161870450 -0.030566050 0.015182736 0.036169995 0.007203634 0.015024031 0.999206722
1341845823.861808 -0.166711837 -0.032735679 0.014472635 0.036979638 0.004217394 0.012065539 0.999234259
1341845823.929826 -0.175806358 -0.032995470 0.015957695 0.037155364 -0.002811129 0.008676112 0.999267876
1341845823.961797 -0.174781725 -0.031309720 0.014273055 0.035913009 -0.004197325 0.005540261 0.999330759
1341845823.998070 -0.182749227 -0.034872018 0.016559357 0.034629356 -0.003922538 0.002888811 0.999388337
1341845824.029656 -0.181213200 -0.035711545 0.014692599 0.035376277 -0.004863994 0.004394558 0.999352515
1341845824.065768 -0.183181226 -0.037798118 0.007801474 0.035024427 -0.002950455 0.006016179 0.999363959
1341845824.097956 -0.161366418 -0.038102534 -0.052519679 0.033401232 0.000152050 0.005845115 0.999424934
1341845824.130299 -0.160664141 -0.035166763 -0.070081107 0.028671684 0.014708074 0.005020413 0.999468088
1341845824.165751 -0.180017650 -0.034478791 -0.017225521 0.022835048 0.029190280 0.009510932 0.999267757
1341845824.197930 -0.201481447 -0.042442940 0.020026004 0.020662226 0.035384640 0.007382944 0.999132872
1341845824.229907 -0.207080945 -0.045686856 0.018179348 0.024960717 0.035590094 0.008385272 0.999019504
1341845824.265800 -0.212871626 -0.042410616 0.008083448 0.028071482 0.031491492 0.008707885 0.999071777
1341845824.298080 -0.213753328 -0.042256765 0.015094660 0.029367764 0.022528138 0.009632508 0.999268353
1341845824.333783 -0.213532001 -0.044654727 0.018923786 0.032034300 0.019209692 0.007785162 0.999271810
1341845824.365821 -0.214080065 -0.039732262 0.017018732 0.034534395 0.019789021 0.007028825 0.999182880
1341845824.398039 -0.227441281 -0.045467969 0.008773931 0.032998700 0.019763676 0.006286571 0.999240160
1341845824.433843 -0.232555836 -0.047777969 0.007353491 0.032619689 0.016073203 0.006522836 0.999317288
1341845824.465921 -0.231781825 -0.050063457 0.009078606 0.033962056 0.011429087 0.011537937 0.999291182
1341845824.501802 -0.234836698 -0.045443375 0.006305370 0.033988975 0.009486252 0.016707739 0.999237537
1341845824.533723 -0.239263251 -0.043641564 0.007483791 0.032327309 0.006999075 0.020798810 0.999236405
1341845824.565735 -0.242953584 -0.046905745 0.010530578 0.029691828 0.004038274 0.023633629 0.999271512
1341845824.601758 -0.244871661 -0.048513867 0.009355273 0.029262574 0.001571043 0.027403327 0.999194801
1341845824.633861 -0.248399094 -0.041332591 0.009361822 0.029979434 -0.000332130 0.031862158 0.999042511
1341845824.665789 -0.264188856 -0.046903923 0.008525083 0.028704843 -0.000951407 0.032829579 0.999048233
1341845824.701769 -0.266229808 -0.049372822 0.010004212 0.028981868 -0.004376754 0.034965105 0.998958647
1341845824.733585 -0.268053502 -0.046428170 0.009014609 0.030642677 -0.007030109 0.037012182 0.998820186
1341845824.769643 -0.279377073 -0.037336707 0.006643132 0.029712150 -0.007303361 0.036603279 0.998861372
1341845824.801632 -0.284265876 -0.047087975 0.006461069 0.024753308 -0.010738666 0.036467999 0.998970509
1341845824.833654 -0.281559229 -0.052089967 0.013814935 0.026331939 -0.013856301 0.035637777 0.998921692
1341845824.869926 -0.288513541 -0.046968792 0.010190468 0.030458964 -0.013395880 0.036316149 0.998786211
1341845824.902071 -0.290087372 -0.045822881 0.005761461 0.029528078 -0.014515362 0.037533350 0.998753548
1341845824.933752 -0.290207773 -0.051645771 0.006016086 0.029440196 -0.015071796 0.034087945 0.998871386
1341845824.969855 -0.287736028 -0.048551727 -0.001673530 0.030040523 -0.014250331 0.033035759 0.998900950
1341845825.001907 -0.293535978 -0.049084119 -0.000363896 0.028418032 -0.010875924 0.031981617 0.999025166
1341845825.037975 -0.301614493 -0.051010873 0.005265072 0.027777690 -0.007405937 0.030967664 0.999106884
1341845825.075793 -0.310266137 -0.059529468 0.007695796 0.029581495 -0.008298861 0.032283951 0.999006391
1341845825.107881 -0.310346425 -0.057644762 0.005281889 0.035695516 -0.008995358 0.034142464 0.998738825
1341845825.143675 -0.315538406 -0.052921209 0.006234148 0.039133761 -0.006498363 0.032306746 0.998690426
1341845825.175707 -0.321175933 -0.054790221 0.001257050 0.039687343 -0.005173003 0.029022448 0.998777151
1341845825.211865 -0.324803919 -0.054227438 0.005055817 0.040822987 -0.004786316 0.029309317 0.998724937
1341845825.243814 -0.325421810 -0.060826674 0.002415990 0.042335156 -0.003046609 0.031344689 0.998606980
1341845825.275795 -0.331217766 -0.057338003 0.000571643 0.045008473 -0.001897407 0.031095339 0.998500705
1341845825.311665 -0.338087589 -0.060435489 0.001385211 0.045223918 -0.003311531 0.032831565 0.998431742
1341845825.343650 -0.341076672 -0.053136565 -0.004985125 0.045852054 -0.005082381 0.033675704 0.998367548
1341845825.379771 -0.347782612 -0.059215359 0.003672989 0.042846948 -0.004566831 0.034553532 0.998473525
1341845825.411924 -0.349104822 -0.057716347 0.000953945 0.043957256 -0.006451814 0.036386527 0.998349726
1341845825.443786 -0.360248744 -0.044500824 -0.009398734 0.041947208 -0.008467478 0.035180818 0.998464346
1341845825.480278 -0.360525548 -0.053308293 0.001806074 0.037117802 -0.012929689 0.038473170 0.998486340
1341845825.511636 -0.362786591 -0.053207070 -0.003351053 0.035771798 -0.016928270 0.040258322 0.998405278
1341845825.547911 -0.362958997 -0.051519942 -0.006503044 0.033926267 -0.019254101 0.042261612 0.998344779
1341845825.579744 -0.365733474 -0.054820906 -0.002391785 0.033002168 -0.020281628 0.046624705 0.998161137
1341845825.611784 -0.363407940 -0.058214247 -0.004988194 0.034206606 -0.022362990 0.049633116 0.997931063
1341845825.648004 -0.364331424 -0.056670774 -0.001322464 0.035177935 -0.022425951 0.046707831 0.998037040
1341845825.679708 -0.371872157 -0.058633771 0.000905279 0.036485944 -0.019564399 0.046974946 0.998037755
1341845825.711937 -0.375850558 -0.059900008 -0.010841855 0.036471754 -0.023156526 0.047237635 0.997949004
1341845825.747617 -0.381278992 -0.053573839 -0.003596429 0.035590746 -0.024889223 0.044321742 0.998072863
1341845825.779688 -0.384810150 -0.053659249 -0.008792074 0.032789554 -0.027429521 0.041974891 0.998203695
1341845825.815954 -0.388002008 -0.053982567 0.000091730 0.030242646 -0.029741760 0.038873017 0.998343468
1341845825.847829 -0.393381476 -0.055262636 -0.003285867 0.028440423 -0.030598750 0.036713939 0.998452306
1341845825.879767 -0.395854503 -0.058801703 -0.003218586 0.027676642 -0.033821620 0.038500369 0.998302460
1341845825.915646 -0.397469938 -0.055361830 -0.004076476 0.028138556 -0.034836013 0.038657084 0.998248637
1341845825.947881 -0.400514662 -0.055392954 -0.004239810 0.027210051 -0.034889422 0.039807435 0.998227298
1341845825.979700 -0.405747116 -0.057291832 -0.002856291 0.026932234 -0.036156300 0.042834833 0.998064399
1341845826.015845 -0.408136040 -0.053783201 -0.004281417 0.026929369 -0.037227485 0.043626606 0.997990847
1341845826.047945 -0.409982473 -0.058226138 -0.001670524 0.026372664 -0.037411276 0.043196101 0.998017550
1341845826.079731 -0.414081424 -0.057135120 -0.007690108 0.027711390 -0.038418785 0.045572750 0.997837305
1341845826.115655 -0.410978377 -0.059140861 -0.005045571 0.027194083 -0.040991910 0.045757115 0.997740686
1341845826.147949 -0.411240369 -0.055247098 -0.007215461 0.028155204 -0.040356923 0.040480353 0.997967899
1341845826.183767 -0.416507423 -0.055312060 -0.006189067 0.026856372 -0.039767414 0.036303315 0.998188019
1341845826.215780 -0.418656111 -0.057609022 -0.010080222 0.025344158 -0.040793944 0.036093269 0.998193800
1341845826.247732 -0.420872897 -0.056110773 -0.007714658 0.025238773 -0.041541103 0.041345667 0.997961879
1341845826.283763 -0.422509611 -0.059494235 -0.015256594 0.023825683 -0.044491395 0.046161391 0.997658253
1341845826.315658 -0.422025263 -0.056260053 -0.008657351 0.024190234 -0.047856431 0.046858866 0.997461200
1341845826.347773 -0.424828291 -0.054819554 -0.016723409 0.022908878 -0.049525283 0.047215879 0.997393131
1341845826.383718 -0.427572548 -0.058907378 -0.012098851 0.021316554 -0.052061647 0.048873026 0.997219443
1341845826.415712 -0.426097035 -0.062861457 -0.011568226 0.021092668 -0.055109266 0.050695654 0.996969402
1341845826.447806 -0.425432056 -0.058852755 -0.010037631 0.022678638 -0.057417478 0.049265280 0.996876061
1341845826.483677 -0.424833268 -0.056083363 -0.011833800 0.022598857 -0.058172498 0.049788993 0.996808052
1341845826.515677 -0.424384773 -0.056299891 -0.009671848 0.022274267 -0.059871297 0.053520631 0.996521354
1341845826.551684 -0.425448656 -0.056192182 -0.012271074 0.020658428 -0.059635997 0.050835446 0.996710837
1341845826.583716 -0.432842404 -0.060777716 -0.016235650 0.018846627 -0.058327790 0.048552442 0.996937990
1341845826.615875 -0.432100505 -0.061973758 -0.014930751 0.017434284 -0.061735373 0.053192843 0.996521592
1341845826.651722 -0.431763321 -0.057742037 -0.015014579 0.017949704 -0.062055454 0.055658281 0.996357918
1341845826.683753 -0.433574796 -0.050607506 -0.014098077 0.015478333 -0.062547445 0.052240167 0.996553659
1341845826.715643 -0.430805415 -0.052261006 -0.013531334 0.011519356 -0.063383646 0.049221057 0.996708095
1341845826.751884 -0.433362991 -0.056595080 -0.022484953 0.007303732 -0.062678166 0.051636219 0.996670365
1341845826.783713 -0.430793107 -0.051744036 -0.015038042 0.004618186 -0.064499676 0.053216334 0.996487081
1341845826.819713 -0.428194582 -0.046603352 -0.022964152 0.001020380 -0.062393375 0.050054833 0.996795118
1341845826.851701 -0.439692885 -0.050793894 -0.015712455 -0.004359453 -0.057959408 0.051178169 0.996996760
1341845826.884460 -0.438046247 -0.051522333 -0.012598503 -0.005853260 -0.060174033 0.056834720 0.996551394
1341845826.945792 -0.434774995 -0.044188630 -0.013395682 -0.016805923 -0.052480910 0.048399396 0.997306764
1341845826.981873 -0.437520355 -0.049740788 -0.006466442 -0.020807166 -0.054486282 0.053648010 0.996855140
1341845827.013745 -0.432841510 -0.040467106 -0.013296152 -0.021219449 -0.055481724 0.059892975 0.996435821
1341845827.045694 -0.421768337 -0.031681702 -0.022581035 -0.026737800 -0.051792275 0.061020788 0.996433198
1341845827.082458 -0.433213711 -0.041063797 -0.017225118 -0.035830315 -0.047269508 0.056134380 0.996659756
1341845827.113645 -0.432791471 -0.045220599 -0.000741026 -0.036775805 -0.050529353 0.059700750 0.996258080
1341845827.145773 -0.426941991 -0.034268178 -0.006498369 -0.036638491 -0.049696181 0.059336830 0.996326804
1341845827.182474 -0.431199610 -0.037570093 0.002643586 -0.042145807 -0.045438372 0.052587748 0.996691346
1341845827.213974 -0.429079562 -0.044567186 0.011067785 -0.041314088 -0.045882624 0.053498577 0.996657312
1341845827.251751 -0.427706838 -0.036854181 0.008835513 -0.037294224 -0.045671500 0.056532796 0.996658027
1341845827.313888 -0.425559998 -0.042377982 0.015824281 -0.047411617 -0.039262436 0.055289250 0.996570945
1341845827.349700 -0.425987989 -0.044703260 0.009372338 -0.043073922 -0.041950028 0.062387582 0.996239245
1341845827.381963 -0.423532307 -0.033870596 0.012132334 -0.041892387 -0.041573897 0.060080141 0.996447206
1341845827.413850 -0.421385109 -0.036167052 0.016139038 -0.043137733 -0.039409678 0.054093238 0.996824920
1341845827.449725 -0.423347086 -0.040758114 0.018284202 -0.041930497 -0.039143849 0.053487875 0.996919572
1341845827.488394 -0.424557686 -0.038707759 0.016176237 -0.038371678 -0.040935382 0.055667724 0.996871591
1341845827.555964 -0.421119153 -0.033779643 0.021876194 -0.036276195 -0.039059494 0.051848985 0.997231185
1341845827.623688 -0.416020304 -0.037142459 0.020554343 -0.032638311 -0.039749648 0.056051619 0.997102261
1341845827.656212 -0.415158480 -0.034614265 0.007325295 -0.033945113 -0.038718712 0.053886432 0.997218549
1341845827.687624 -0.413042068 -0.037000861 0.018873716 -0.038070820 -0.036102135 0.046155579 0.997555494
1341845827.723697 -0.409882277 -0.042081323 0.023479003 -0.037211668 -0.033950083 0.050161019 0.997470081
1341845827.755778 -0.406934977 -0.037936915 0.017319808 -0.034584444 -0.033269219 0.051255509 0.997531950
1341845827.791657 -0.399099171 -0.037158698 0.017614193 -0.034677025 -0.030853618 0.049983107 0.997670889
1341845827.823845 -0.397520363 -0.041709628 0.023551542 -0.035619006 -0.026873305 0.049934220 0.997755349
1341845827.855606 -0.401734203 -0.042076405 0.026450722 -0.033518210 -0.025198448 0.053187631 0.997703671
1341845827.891685 -0.389540493 -0.040529169 0.026772672 -0.030809699 -0.023499010 0.054134045 0.997781575
1341845827.923824 -0.388454646 -0.038266502 0.022620691 -0.029636208 -0.018549819 0.052127868 0.998028219
1341845827.959777 -0.386482328 -0.040644053 0.027848659 -0.029739955 -0.015598317 0.053008430 0.998029232
1341845827.991672 -0.380812883 -0.038844742 0.028779598 -0.028301494 -0.013399677 0.054843485 0.998003840
1341845828.023726 -0.378830254 -0.036434904 0.024094747 -0.029980225 -0.009349874 0.054818429 0.998002350
1341845828.059622 -0.377493948 -0.037175968 0.034452047 -0.030807408 -0.005883292 0.055091452 0.997988582
1341845828.091720 -0.375431240 -0.034084558 0.041025508 -0.029955324 -0.003795631 0.055329669 0.998011470
1341845828.127612 -0.369659215 -0.032577846 0.040970035 -0.030215541 -0.002758819 0.055939894 0.997973025
1341845828.159638 -0.363153249 -0.036110066 0.038815450 -0.031949710 -0.000457974 0.055567857 0.997943521
1341845828.191711 -0.360320449 -0.038289569 0.042450007 -0.031740699 0.001998121 0.053006012 0.998087645
1341845828.227644 -0.349508762 -0.036690447 0.034656465 -0.030185657 0.002780586 0.053727429 0.998095393
1341845828.259785 -0.354211271 -0.036237046 0.040298041 -0.030034967 0.006393908 0.056743663 0.997916460
1341845828.291687 -0.349108517 -0.036381733 0.045162879 -0.028647490 0.007402541 0.059034891 0.997817338
1341845828.327803 -0.346931845 -0.034435526 0.040752199 -0.027901078 0.009724063 0.057867642 0.997886956
1341845828.359694 -0.342300028 -0.032557175 0.043172032 -0.028889144 0.011401712 0.058177885 0.997823000
1341845828.395928 -0.341128170 -0.032937333 0.052609969 -0.028561030 0.014208178 0.059761092 0.997702837
1341845828.427803 -0.329942465 -0.033024680 0.046924669 -0.028555017 0.015396082 0.060081661 0.997666121
1341845828.459660 -0.329837084 -0.032269999 0.050052531 -0.028199952 0.016966617 0.059869055 0.997663558
1341845828.495761 -0.321572274 -0.031593304 0.045090310 -0.027380774 0.018880378 0.060997002 0.997583687
1341845828.527686 -0.327779412 -0.025766928 0.049087934 -0.028923372 0.020604005 0.059960280 0.997568905
1341845828.595750 -0.315198451 -0.028841265 0.052408677 -0.029379150 0.023286516 0.059763435 0.997508347
1341845828.654055 -0.305456668 -0.029354321 0.049692556 -0.031666178 0.026605267 0.060104050 0.997334898
1341845828.689681 -0.297766507 -0.028862998 0.050566070 -0.030394159 0.027030505 0.061275933 0.997291744
1341845828.721870 -0.298774838 -0.026126919 0.050639134 -0.030835582 0.027877234 0.062201388 0.997197568
1341845828.757706 -0.290899038 -0.027630500 0.050844099 -0.031508442 0.028152309 0.064073294 0.997050285
1341845828.789650 -0.290643126 -0.025796924 0.051757805 -0.030443268 0.028607836 0.067433886 0.996848762
1341845828.821914 -0.292203009 -0.022029197 0.050571602 -0.029880581 0.028012179 0.068249546 0.996827185
1341845828.857781 -0.291818529 -0.023261435 0.054076750 -0.031079262 0.028128671 0.069095202 0.996729016
1341845828.889770 -0.283085108 -0.025679892 0.048926666 -0.031423360 0.027391000 0.070481017 0.996641695
1341845828.931671 -0.281557173 -0.024807036 0.047812048 -0.031336371 0.026209403 0.070633374 0.996665418
1341845828.989696 -0.275871962 -0.025655571 0.054200284 -0.029360980 0.023858037 0.070388660 0.996801972
1341845829.025626 -0.270008773 -0.017091833 0.047970578 -0.028151447 0.022211289 0.068039417 0.997038007
1341845829.063840 -0.270613402 -0.015956199 0.052095838 -0.028960736 0.022807436 0.065704092 0.997157991
1341845829.089737 -0.267812461 -0.015822317 0.048922986 -0.028979626 0.023756307 0.066196062 0.997102737
1341845829.125754 -0.261723220 -0.019143727 0.051297598 -0.030127136 0.023219297 0.067162611 0.997016728
1341845829.158048 -0.243865922 -0.020140816 0.044634696 -0.029573435 0.023209332 0.066329136 0.997089326
1341845829.193669 -0.243567184 -0.020398440 0.047007535 -0.027389770 0.025363300 0.068816505 0.996930659
1341845829.225742 -0.239582926 -0.026775751 0.045397565 -0.025000636 0.025191458 0.071035169 0.996842206
1341845829.257763 -0.238495991 -0.024345394 0.047571246 -0.022010976 0.025112448 0.071206436 0.996902466
1341845829.293851 -0.241022989 -0.022404175 0.042098906 -0.019480579 0.024899758 0.069256380 0.997097790
1341845829.325861 -0.226148635 -0.025895933 0.043034278 -0.017896885 0.023291970 0.068335503 0.997229874
1341845829.357901 -0.234114051 -0.023270603 0.038283102 -0.013885915 0.021183314 0.068586893 0.997323573
1341845829.393704 -0.219327196 -0.018754434 0.036979176 -0.011591960 0.019460896 0.066779397 0.997510612
1341845829.425831 -0.211348176 -0.014712888 0.030448623 -0.011538876 0.018023485 0.063330710 0.997763157
1341845829.461720 -0.216737121 -0.026132302 0.037527062 -0.012432978 0.017061504 0.065065764 0.997657657
1341845829.493662 -0.210187212 -0.027522776 0.030305164 -0.006836781 0.014838001 0.069077656 0.997477472
1341845829.525846 -0.199703276 -0.011347953 0.032746013 -0.004483024 0.011977573 0.066020869 0.997736275
1341845829.561864 -0.195234850 -0.008263434 0.031997290 -0.006911131 0.012672534 0.062847346 0.997918785
1341845829.593763 -0.192368671 -0.018905986 0.039091263 -0.009040079 0.013772549 0.062215414 0.997926772
1341845829.625785 -0.201450378 -0.027365061 0.030865483 -0.004671795 0.013416848 0.065636404 0.997742474
1341845829.661787 -0.186735407 -0.014523562 0.032395430 -0.001115796 0.009891059 0.065365441 0.997811735
1341845829.693835 -0.167993680 0.001475549 0.031098448 -0.002663493 0.010556296 0.060347952 0.998118043
1341845829.729747 -0.180118352 -0.015227103 0.032909166 -0.007083079 0.013546198 0.056775123 0.998269975
1341845829.761817 -0.177838087 -0.023789955 0.024257774 -0.004032765 0.007827960 0.058577094 0.998244047
1341845829.793840 -0.166324943 -0.013367957 0.032761388 0.000146092 0.002239254 0.056233123 0.998415112
1341845829.829803 -0.161429971 -0.008576344 0.025728252 0.001213394 0.003470335 0.051772367 0.998652160
1341845829.861640 -0.165988341 -0.010382952 0.020985711 -0.000079610 0.001721660 0.050647583 0.998715103
1341845829.897840 -0.152628049 -0.018953590 0.030638782 0.000751202 -0.004935875 0.054890271 0.998479903
1341845829.929703 -0.145690694 -0.009283506 0.021714577 0.004996295 -0.004180470 0.054009996 0.998519123
1341845829.962023 -0.148627385 -0.008820297 0.022360822 0.002840612 -0.001869369 0.054971285 0.998482108
1341845829.997954 -0.137640670 -0.022571784 0.022890164 0.004101422 -0.007124296 0.058819834 0.998234749
1341845830.029819 -0.131251261 -0.015157849 0.027442273 0.011321700 -0.007119903 0.057306040 0.998267055
1341845830.061836 -0.134945497 -0.006715540 0.016860444 0.011716505 -0.005196584 0.057597172 0.998257637
1341845830.097885 -0.128040135 -0.016635479 0.025032738 0.009152380 -0.004576252 0.057232253 0.998308420
1341845830.129668 -0.124770284 -0.021181734 0.027479094 0.014759379 -0.003823653 0.058808830 0.998152852
1341845830.165590 -0.132731795 -0.009194062 0.019051747 0.018482814 -0.004936031 0.061172254 0.997943878
1341845830.197779 -0.120085321 -0.012673191 0.023290429 0.017060958 -0.011195414 0.065752968 0.997627258
1341845830.229883 -0.106932983 -0.008810833 0.011586254 0.019923659 -0.010720709 0.066374235 0.997538269
1341845830.265730 -0.114077665 -0.006837273 0.019334110 0.017619485 -0.009021629 0.067039825 0.997553945
1341845830.297873 -0.114105612 -0.014817871 0.021151107 0.017322982 -0.012103122 0.070685066 0.997274816
1341845830.329863 -0.103497528 -0.010572942 0.025396591 0.020551674 -0.013594299 0.071268760 0.997152746
1341845830.365740 -0.096641332 -0.006698836 0.018697757 0.020250354 -0.013508071 0.070354640 0.997224987
1341845830.397779 -0.091088116 -0.004558350 0.021156132 0.019751694 -0.016020890 0.069794551 0.997237146
1341845830.433725 -0.080059387 -0.007475261 0.020364571 0.020158652 -0.015371213 0.067617022 0.997389197
1341845830.465762 -0.086805724 -0.006555489 0.019701993 0.020770755 -0.013020018 0.066787206 0.997466087
1341845830.507859 -0.079797842 -0.010027352 0.025442174 0.021766242 -0.015991617 0.068108685 0.997312248
1341845830.565943 -0.063320614 -0.001254718 0.025709145 0.023796113 -0.010485720 0.066678122 0.997435629
1341845830.597841 -0.063122004 -0.006382112 0.024881855 0.022715654 -0.011206121 0.068877496 0.997303486
1341845830.633627 -0.047504671 -0.007230829 0.021557946 0.024562299 -0.012293716 0.070215546 0.997153640
1341845830.665700 -0.046734210 -0.000303623 0.016901536 0.025486439 -0.009529718 0.068878449 0.997253895
1341845830.701788 -0.042791534 -0.000481521 0.021597467 0.024388948 -0.008768107 0.067100920 0.997409523
1341845830.733901 -0.030923629 0.000551810 0.009778827 0.022950128 -0.006980035 0.063109040 0.997718275
1341845830.765759 -0.025810229 -0.000058241 0.011734731 0.020637199 -0.004665630 0.058933094 0.998037696
1341845830.801839 -0.022619180 -0.005201414 0.013301352 0.019557169 -0.001776850 0.057851166 0.998132050
1341845830.833774 -0.024802215 -0.007263511 0.012328200 0.020970900 0.001477292 0.056888361 0.998159170
1341845830.865751 -0.017175615 0.000364261 0.010582945 0.022103418 0.001628763 0.055894975 0.998190641
1341845830.901883 -0.011267792 -0.001994513 0.010020387 0.020291325 0.004497132 0.051899884 0.998435974
1341845830.933811 -0.008652893 -0.005325082 0.015629135 0.020772677 0.006085909 0.050859436 0.998471200
1341845830.969705 -0.008132700 0.000347673 0.011929501 0.022423137 0.005673011 0.051412411 0.998409629
1341845831.001855 -0.003637990 0.003022658 0.012983300 0.021034442 0.005437084 0.047847383 0.998618364
1341845831.033886 0.005421233 -0.001574478 0.013124055 0.019566871 0.006458338 0.044560999 0.998794138
1341845831.069727 0.008479957 -0.002468112 0.012923101 0.020135919 0.007769168 0.044004880 0.998798132
1341845831.101853 0.013600374 0.001361140 0.009721438 0.020870963 0.007539503 0.045067649 0.998737454
1341845831.137817 0.022471590 0.002059556 0.003913258 0.019655555 0.009197674 0.042955037 0.998841286
1341845831.169942 0.025477057 -0.001753660 0.009394109 0.018307412 0.010887013 0.042359415 0.998875380
1341845831.201715 0.022553280 -0.004406373 0.011601042 0.020141346 0.011099861 0.043571331 0.998785615
1341845831.237723 0.029052027 -0.000091008 0.005787048 0.022967160 0.010969680 0.043604404 0.998724580
1341845831.269903 0.029783407 0.001201980 0.006851444 0.022049149 0.011187109 0.043928463 0.998728693
1341845831.301755 0.032642394 -0.000482238 0.004530510 0.021479212 0.007950414 0.043964889 0.998770475
1341845831.337779 0.036319882 -0.002569418 0.005274415 0.022376524 0.004386253 0.043228179 0.998804986
1341845831.369742 0.042415664 0.000741323 0.001868324 0.023625154 0.001273099 0.042580724 0.998812854
1341845831.405710 0.056147017 0.002822099 -0.004599927 0.022244880 0.000151918 0.041276187 0.998900115
1341845831.437646 0.057540447 -0.003304594 -0.000374367 0.020039901 0.002769429 0.037407983 0.999095261
1341845831.469752 0.058399376 -0.006164751 -0.000690240 0.020943157 0.002913341 0.039169423 0.999008834
1341845831.505745 0.067333989 0.001033160 -0.001810995 0.022446325 0.001717781 0.039058719 0.998983324
1341845831.537844 0.080739141 0.008478012 -0.003789490 0.019898536 0.004034983 0.035777479 0.999153495
1341845831.569610 0.073415413 -0.000161566 -0.000993705 0.016167890 0.008253694 0.033015411 0.999289989
1341845831.605848 0.078354396 -0.001969482 -0.002693035 0.016125930 0.008053007 0.034140497 0.999254525
1341845831.637789 0.085789055 0.008818434 -0.006894298 0.015405074 0.008826043 0.034479659 0.999247670
1341845831.673597 0.101985924 0.011528634 -0.007034485 0.009586533 0.010968803 0.032526013 0.999364734
1341845831.705652 0.097835340 0.003897364 0.002314553 0.006245132 0.016680321 0.033486318 0.999280453
1341845831.737705 0.098382905 0.000098693 -0.000598653 0.005961993 0.019532969 0.037877627 0.999073684
1341845831.773629 0.099107616 0.003141321 -0.006404671 0.005758004 0.021292236 0.040853620 0.998921633
1341845831.805810 0.102507278 0.006525260 -0.005798619 0.003262787 0.023901753 0.040652253 0.998882115
1341845831.837719 0.102515802 0.000508168 -0.008889877 -0.000457203 0.025497003 0.041856937 0.998798132
1341845831.873791 0.110741794 0.004091709 -0.005613470 -0.000877414 0.024144974 0.043758217 0.998749971
1341845831.905728 0.121578388 0.009233908 -0.004238278 -0.003370687 0.025517365 0.041984200 0.998786688
1341845831.941628 0.124639779 0.006606822 -0.002159663 -0.005081520 0.027194578 0.041030329 0.998774827
1341845831.973784 0.130183876 0.004368797 -0.003541797 -0.006032837 0.029087901 0.040630974 0.998732507
1341845832.005729 0.135825694 0.006309215 -0.008672328 -0.005198074 0.031388395 0.038798273 0.998740435
1341845832.041627 0.148800835 0.012227119 -0.008454783 -0.006156128 0.033642683 0.038404249 0.998676777
1341845832.073865 0.148253843 0.012259495 -0.002619968 -0.007893409 0.036801495 0.037137505 0.998601079
1341845832.109730 0.147077620 0.011190481 -0.004511518 -0.007031433 0.037203040 0.038467009 0.998542309
1341845832.141683 0.155235931 0.012110272 -0.004731636 -0.005236459 0.036232818 0.037768155 0.998615682
1341845832.173988 0.158681571 0.014426268 -0.008391521 -0.006617609 0.038750730 0.035381775 0.998600364
1341845832.209956 0.158786431 0.011150216 -0.010097538 -0.007572336 0.037106793 0.036574408 0.998613060
1341845832.241796 0.166010901 0.014503682 -0.008335842 -0.006400139 0.034712482 0.037027750 0.998690665
1341845832.273776 0.175135061 0.023301627 -0.014554679 -0.006907342 0.035042159 0.036229867 0.998705029
1341845832.309916 0.170616522 0.019807210 -0.017901413 -0.010819614 0.037669476 0.034467362 0.998637021
1341845832.341687 0.178762615 0.020676916 -0.014769557 -0.012197967 0.035273757 0.037078366 0.998615146
1341845832.377708 0.184756771 0.027232487 -0.015678752 -0.012371870 0.034178324 0.037091456 0.998650610
1341845832.409802 0.183951512 0.023356317 -0.014717180 -0.015194247 0.034564748 0.037369322 0.998587966
1341845832.442187 0.188924402 0.026559765 -0.013496665 -0.015987955 0.033539150 0.038462479 0.998569012
1341845832.477743 0.194708154 0.025698511 -0.019014886 -0.017216172 0.033552051 0.038419120 0.998549879
1341845832.509635 0.199336424 0.018902814 -0.020191165 -0.019562831 0.033280369 0.038285978 0.998520851
1341845832.541586 0.207239419 0.027762489 -0.020219484 -0.019705223 0.033778433 0.040866934 0.998399019
1341845832.577871 0.209141985 0.026686367 -0.022644555 -0.020283613 0.034076650 0.042305235 0.998317420
1341845832.609738 0.210180342 0.027579362 -0.022237323 -0.020241849 0.033968512 0.041596156 0.998351753
1341845832.645699 0.214217782 0.029255766 -0.028794967 -0.021143133 0.035134062 0.041566741 0.998293936
1341845832.677817 0.217904195 0.033475630 -0.021478297 -0.023284446 0.034685023 0.041926827 0.998246908
1341845832.710177 0.224076360 0.039660092 -0.019776117 -0.023146328 0.035160337 0.043498810 0.998166263
1341845832.745710 0.225578338 0.036908425 -0.022693785 -0.023746325 0.036904577 0.044006195 0.998066962
1341845832.777849 0.231135309 0.043031543 -0.021915510 -0.023821024 0.037803385 0.046785824 0.997905076
1341845832.810110 0.235279486 0.038008582 -0.025559893 -0.026135281 0.039770659 0.047496311 0.997737110
1341845832.845797 0.241755366 0.044701193 -0.028704774 -0.026862638 0.041324370 0.048298165 0.997616112
1341845832.877696 0.242101505 0.045409404 -0.022404717 -0.027145592 0.042998318 0.050289240 0.997439325
1341845832.913787 0.247142375 0.043676149 -0.029272171 -0.027523352 0.043153588 0.050168283 0.997428358
1341845832.945664 0.250688761 0.047119956 -0.026675601 -0.028684866 0.044812977 0.048991136 0.997381032
1341845832.978015 0.252196729 0.040242828 -0.026481908 -0.030229894 0.045785781 0.048903476 0.997295499
1341845833.045857 0.266394913 0.052443292 -0.028260160 -0.029869657 0.045749567 0.049541045 0.997276545
1341845833.077785 0.268795580 0.043527924 -0.037515238 -0.032744296 0.048317634 0.048080608 0.997136652
1341845833.113636 0.272821575 0.044366166 -0.029008897 -0.032431044 0.049727336 0.048545860 0.997054994
1341845833.145767 0.277758092 0.050993498 -0.040528048 -0.032520533 0.051953286 0.048792891 0.996926546
1341845833.181891 0.282255858 0.048441462 -0.039627686 -0.036748979 0.054754369 0.044868261 0.996814072
1341845833.213878 0.281236172 0.051419109 -0.036398940 -0.037585210 0.056625981 0.047434170 0.996559501
1341845833.245714 0.286494970 0.050861929 -0.037616216 -0.035636280 0.054373346 0.049740307 0.996644139
1341845833.281847 0.300602108 0.038906209 -0.043281224 -0.033725031 0.054318856 0.049875122 0.996706843
1341845833.313771 0.302718431 0.041748196 -0.057050310 -0.031875238 0.058139246 0.049709212 0.996560454
1341845833.349756 0.307797492 0.038443465 -0.059861939 -0.033790763 0.059060805 0.049305871 0.996463239
1341845833.381840 0.318291664 0.046062734 -0.051640481 -0.033049017 0.060774986 0.050698813 0.996315122
1341845833.414644 0.318402529 0.047899976 -0.051142976 -0.033774696 0.064381413 0.049551010 0.996121943
1341845833.449819 0.319275230 0.047867548 -0.059355915 -0.034232479 0.063832909 0.052687895 0.995980680
1341845833.488616 0.328900456 0.050417308 -0.051712442 -0.032652881 0.062916256 0.052192140 0.996118128
1341845833.549835 0.327314854 0.047466937 -0.059253503 -0.036539700 0.064856455 0.051174656 0.995911479
1341845833.581733 0.330770373 0.047713779 -0.047837190 -0.033375897 0.062930204 0.052526649 0.996075690
1341845833.617817 0.329633802 0.053155828 -0.052831594 -0.032828547 0.062867217 0.053223342 0.996060848
1341845833.649899 0.330907524 0.052792739 -0.051956471 -0.035359029 0.061726339 0.051502272 0.996136129
1341845833.681671 0.335391968 0.043763258 -0.047859725 -0.035819523 0.061586492 0.050818607 0.996163428
1341845833.717606 0.333518028 0.053373378 -0.050228417 -0.033529624 0.060164668 0.056131102 0.996044815
1341845833.752940 0.337518454 0.054564316 -0.051159184 -0.035751224 0.057620887 0.053326514 0.996272027
1341845833.817827 0.336847067 0.050681934 -0.054984063 -0.039169576 0.059211820 0.051827040 0.996129334
1341845833.849860 0.342729211 0.049497850 -0.046845209 -0.039302591 0.056510545 0.053196665 0.996208787
1341845833.885667 0.350820512 0.052053463 -0.049478993 -0.038459498 0.057309799 0.052058585 0.996256173
1341845833.917724 0.342738360 0.053377990 -0.053966828 -0.040654149 0.059485767 0.052130863 0.996037662
1341845833.949675 0.343587756 0.048807599 -0.045744207 -0.040280849 0.058292989 0.052115094 0.996124208
1341845833.985662 0.344544351 0.051978443 -0.050881330 -0.037731450 0.060112096 0.050558820 0.996196091
1341845834.018158 0.338661999 0.056280226 -0.054090373 -0.039653491 0.061668508 0.048768166 0.996115565
1341845834.049769 0.340590835 0.051394340 -0.050898980 -0.041892923 0.059635282 0.050043579 0.996084452
1341845834.085753 0.340698123 0.052501738 -0.052062102 -0.041136470 0.059690636 0.047014266 0.996260285
1341845834.153871 0.331006318 0.048888970 -0.055414964 -0.043477908 0.062355589 0.045344573 0.996074975
1341845834.185736 0.331621677 0.050306048 -0.047213528 -0.044377532 0.062264852 0.044238795 0.996090710
1341845834.217802 0.326431692 0.053790536 -0.050236322 -0.044705354 0.063240848 0.042846832 0.996075392
1341845834.253824 0.319591820 0.056278955 -0.053336475 -0.048174761 0.061694596 0.040103417 0.996124804
1341845834.285756 0.320676893 0.049019180 -0.042294171 -0.051735554 0.058928438 0.039737504 0.996128380
1341845834.321783 0.318470508 0.047242913 -0.035284620 -0.049591605 0.058717534 0.040596008 0.996215284
1341845834.355135 0.316998452 0.046243075 -0.045190077 -0.043351714 0.058757879 0.044060506 0.996356785
1341845834.385801 0.312426597 0.048095543 -0.047777381 -0.040584076 0.059755366 0.043912165 0.996420562
1341845834.421748 0.304349035 0.048813500 -0.049163561 -0.041239098 0.061091766 0.042351563 0.996380210
1341845834.453840 0.294831097 0.050369278 -0.048448686 -0.041450515 0.060114801 0.041210100 0.996478736
1341845834.485639 0.292620778 0.047456123 -0.044656754 -0.041917007 0.057913460 0.038781941 0.996686995
1341845834.521785 0.290128797 0.043509442 -0.041804660 -0.041781694 0.057764113 0.037216399 0.996761024
1341845834.553727 0.278399110 0.046976484 -0.042892225 -0.041696057 0.058185786 0.037329026 0.996735871
1341845834.589787 0.267804503 0.039944828 -0.046782970 -0.042544447 0.056716330 0.037573174 0.996775568
1341845834.621791 0.268926859 0.045048345 -0.043564782 -0.040209759 0.053594198 0.037208389 0.997058868
1341845834.653808 0.267088205 0.047751479 -0.049060311 -0.042330001 0.053664986 0.033841148 0.997087240
1341845834.689847 0.253922850 0.040665399 -0.041198973 -0.046455853 0.053776298 0.031791035 0.996965051
1341845834.721856 0.246251300 0.033755243 -0.035473663 -0.047301386 0.050637756 0.031076780 0.997112155
1341845834.753919 0.243535817 0.031551920 -0.036327109 -0.044234678 0.048282892 0.030707819 0.997381091
1341845834.789834 0.243117824 0.042423036 -0.041653786 -0.041864589 0.047940973 0.031036505 0.997489691
1341845834.821826 0.226572439 0.039111890 -0.040286966 -0.043661404 0.048528932 0.031463094 0.997370899
1341845834.857804 0.220749199 0.036250453 -0.035456453 -0.044345353 0.045230947 0.030910155 0.997512996
1341845834.889796 0.216793180 0.034828022 -0.035832826 -0.044489946 0.043531504 0.029389462 0.997628152
1341845834.921771 0.208686560 0.031054562 -0.036947113 -0.043951884 0.042240303 0.029803129 0.997695208
1341845834.957942 0.199009672 0.034268584 -0.032475092 -0.042657468 0.039325684 0.029671183 0.997874439
1341845834.989806 0.191632658 0.033250172 -0.034493729 -0.041690491 0.036826849 0.028644346 0.998040676
1341845835.021804 0.183771729 0.033589359 -0.029269982 -0.040481739 0.034190822 0.029765422 0.998151422
1341845835.058003 0.180349991 0.031517867 -0.034436118 -0.038865980 0.031861268 0.029997556 0.998285770
1341845835.089820 0.167904168 0.031910971 -0.034456916 -0.037270285 0.030124888 0.030223314 0.998393714
1341845835.125663 0.162647903 0.035987306 -0.036325749 -0.037157409 0.026579680 0.031235121 0.998467445
1341845835.157750 0.157860294 0.033746190 -0.032800443 -0.038576439 0.023677964 0.030179029 0.998519123
1341845835.189830 0.146968305 0.024815083 -0.031746846 -0.037426677 0.022161467 0.030298678 0.998594046
1341845835.225912 0.143082574 0.027310470 -0.027373418 -0.033157296 0.018230900 0.031812571 0.998777330
1341845835.258001 0.134860516 0.030007765 -0.029629365 -0.032486252 0.016568387 0.030658355 0.998864472
1341845835.290164 0.128119215 0.029850388 -0.026910227 -0.033356853 0.014622889 0.029291974 0.998907149
1341845835.325788 0.121542752 0.022740634 -0.028603584 -0.032337911 0.011235222 0.029795324 0.998969615
1341845835.363902 0.118998766 0.023135563 -0.026477700 -0.030802730 0.008892759 0.027960792 0.999094725
1341845835.431742 0.094975919 0.023302007 -0.022549773 -0.030651050 0.003764590 0.027423559 0.999146760
1341845835.493790 0.081247695 0.013755021 -0.015063342 -0.028271208 -0.000920275 0.026414525 0.999250770
1341845835.527633 0.076469220 0.020279616 -0.021302158 -0.026421772 -0.003677823 0.027829338 0.999256670
1341845835.561788 0.072987847 0.025604963 -0.021790743 -0.026893545 -0.008868139 0.028128326 0.999203146
1341845835.594173 0.074132591 0.018328775 -0.019592734 -0.029125417 -0.010351750 0.025940886 0.999185503
1341845835.625859 0.063445933 0.011650282 -0.019363455 -0.027159287 -0.009605943 0.026796924 0.999225676
1341845835.661923 0.054225583 0.014940866 -0.015980896 -0.022258773 -0.013358010 0.031214591 0.999175549
1341845835.693994 0.053131696 0.013030765 -0.015751058 -0.019827833 -0.014847869 0.031175628 0.999206901
1341845835.725724 0.045713782 0.012424190 -0.018678959 -0.017831957 -0.012023508 0.030510006 0.999303102
1341845835.761816 0.035264596 0.006883230 -0.023031693 -0.015437942 -0.013741558 0.034228630 0.999200284
1341845835.793927 0.030187618 0.014910782 -0.015485050 -0.012636467 -0.016160544 0.035456672 0.999160647
1341845835.829809 0.028976232 0.013720999 -0.020783199 -0.013630275 -0.016027506 0.034483299 0.999183774
1341845835.868224 0.018126607 0.006925676 -0.024746628 -0.013460596 -0.014989752 0.035390209 0.999170482
1341845835.903857 0.012103922 0.011214146 -0.017416736 -0.010246783 -0.019263446 0.039456520 0.998983026
1341845835.935727 0.013345992 0.012976157 -0.019443948 -0.009547425 -0.020422684 0.038752712 0.998994470
1341845835.967812 0.007865352 0.008226176 -0.020034289 -0.009689106 -0.018300280 0.038012091 0.999062717
1341845836.003789 -0.003718981 0.002594315 -0.020466879 -0.006943396 -0.018326441 0.040979981 0.998967767
1341845836.035920 -0.003320340 0.008478086 -0.019629512 -0.003341133 -0.019946100 0.041442044 0.998936236
1341845836.067671 -0.009345159 0.007864535 -0.021871123 -0.003676450 -0.017668648 0.039582305 0.999053299
1341845836.104034 -0.021223243 0.004456342 -0.023823719 -0.002158795 -0.018065648 0.040519282 0.999013066
1341845836.135769 -0.025746673 0.009672889 -0.019744404 0.000614602 -0.022120560 0.041326609 0.998900592
1341845836.172097 -0.024122633 0.011410350 -0.022854900 0.000024463 -0.025501063 0.039500237 0.998894095
1341845836.203642 -0.029008016 0.007104968 -0.021845618 -0.001739296 -0.024150293 0.038685359 0.998958051
1341845836.235687 -0.035744451 0.003645853 -0.024138151 0.000240934 -0.024707034 0.040792864 0.998862088
1341845836.271774 -0.043084599 0.006261723 -0.027130136 0.003585975 -0.028398948 0.043551721 0.998641014
1341845836.303797 -0.046597958 0.008806635 -0.025598349 0.004281442 -0.029931759 0.043389402 0.998600543
1341845836.335742 -0.044837113 0.007341965 -0.025191400 0.002633217 -0.028685583 0.042489603 0.998681545
1341845836.372549 -0.051565606 0.000925535 -0.026107358 0.004138799 -0.026194485 0.046648629 0.998559296
1341845836.403992 -0.055473402 0.006178342 -0.028413318 0.007923237 -0.026100805 0.049973492 0.998377979
1341845836.435705 -0.054274458 0.006555235 -0.025422640 0.008584355 -0.024436222 0.050486494 0.998388827
1341845836.471817 -0.062745884 0.009697741 -0.027638443 0.009173648 -0.020593414 0.050068147 0.998491287
1341845836.503945 -0.072788529 0.011070755 -0.026743805 0.009729489 -0.020535631 0.051965240 0.998390317
1341845836.539832 -0.068564028 0.013400447 -0.027911499 0.010114103 -0.023431627 0.053024545 0.998267055
1341845836.571973 -0.071013913 0.011077592 -0.031498212 0.008622510 -0.023308517 0.052447397 0.998314381
1341845836.604373 -0.077900343 0.012252586 -0.028946852 0.006985998 -0.022373248 0.050377134 0.998455226
1341845836.639724 -0.079278491 0.006042285 -0.029324466 0.005139998 -0.023311587 0.049509466 0.998488307
1341845836.672049 -0.080827810 0.001177641 -0.029162066 0.007129161 -0.023634264 0.049254682 0.998481095
1341845836.704020 -0.082143508 -0.002008326 -0.028588595 0.009442100 -0.023266777 0.048681237 0.998498678
1341845836.739779 -0.084783487 -0.009741287 -0.028450755 0.014677978 -0.024022860 0.051446427 0.998278856
1341845836.771652 -0.079696186 -0.012263488 -0.030210054 0.024174701 -0.024014434 0.053851884 0.997967362
1341845836.803601 -0.088276558 -0.010223637 -0.032878663 0.030021446 -0.021570913 0.053325020 0.997892737
1341845836.839643 -0.089632951 -0.016311184 -0.028338702 0.032317050 -0.023362549 0.055158246 0.997681022
1341845836.871771 -0.088151969 -0.020542022 -0.031768925 0.035796903 -0.024496974 0.055079356 0.997539341
1341845836.907663 -0.082671173 -0.019954765 -0.031030688 0.037335001 -0.023110773 0.057094492 0.997402728
1341845836.939824 -0.090599507 -0.028526960 -0.027964499 0.037895627 -0.020878265 0.059628241 0.997282565
1341845836.971802 -0.085154988 -0.031218341 -0.034981638 0.040319189 -0.022562556 0.060365956 0.997106433
1341845837.007714 -0.078794822 -0.023423286 -0.048786424 0.038237695 -0.019861581 0.060403321 0.997243643
1341845837.039752 -0.084658548 -0.040718585 -0.029506175 0.032515835 -0.013550636 0.060639050 0.997537971
1341845837.071715 -0.084651329 -0.050912615 -0.034427904 0.036931690 -0.013366184 0.059445661 0.997458577
1341845837.107691 -0.078403778 -0.050861858 -0.029133394 0.038290702 -0.012704730 0.061767511 0.997274876
1341845837.139763 -0.077527620 -0.058410931 -0.024416832 0.038399789 -0.009429248 0.061796993 0.997305214
1341845837.171636 -0.086154029 -0.070464276 -0.021970790 0.042406917 -0.005999826 0.056166455 0.997502387
1341845837.207675 -0.091335796 -0.072601929 -0.028283693 0.042335339 -0.007653865 0.053560782 0.997637391
1341845837.239749 -0.084357008 -0.084657036 -0.028001998 0.040015224 -0.008992955 0.048571665 0.997977316
1341845837.275755 -0.080074325 -0.097847216 -0.022324450 0.040643405 -0.007603684 0.045350268 0.998115063
1341845837.307686 -0.082334034 -0.114121169 -0.029473931 0.044441082 -0.007807230 0.051047340 0.997676432
1341845837.339628 -0.082605936 -0.114844359 -0.026516715 0.050227497 -0.010063362 0.050439030 0.997412562
1341845837.375710 -0.076076597 -0.115906961 -0.027699251 0.055311043 -0.009328200 0.046899065 0.997323513
1341845837.407709 -0.078475647 -0.106458284 -0.039391626 0.056407753 -0.005790870 0.044505671 0.997398555
1341845837.439656 -0.082081400 -0.118107148 -0.039191794 0.048791625 -0.002871861 0.042384099 0.997905195
1341845837.475671 -0.075189777 -0.129193306 -0.033969030 0.046407558 -0.002062069 0.040640403 0.998093426
1341845837.507973 -0.067161292 -0.136085734 -0.036936928 0.045008339 0.001193028 0.040320724 0.998171866
1341845837.543708 -0.076566353 -0.138584808 -0.037790462 0.042088225 0.006449826 0.036990933 0.998408079
1341845837.575706 -0.075062513 -0.152150273 -0.034712166 0.041085701 0.008002456 0.033838838 0.998550355
1341845837.607609 -0.070010446 -0.159997568 -0.037573073 0.041766003 0.010048163 0.031761728 0.998571873
1341845837.643704 -0.070832253 -0.165115178 -0.034369137 0.043646555 0.012952057 0.029493498 0.998527586
1341845837.675706 -0.072600946 -0.176955909 -0.032469083 0.045640469 0.014581069 0.026506523 0.998499751
1341845837.711803 -0.069143139 -0.178445220 -0.037341673 0.047142208 0.016202690 0.025399787 0.998433769
1341845837.743935 -0.071488865 -0.186594576 -0.036154706 0.046747841 0.019408258 0.023351999 0.998445094
1341845837.775698 -0.068766482 -0.189631969 -0.034344096 0.049910884 0.021262128 0.022847600 0.998265922
1341845837.811909 -0.063868672 -0.171905681 -0.044841904 0.052193977 0.024153624 0.024469925 0.998044848
1341845837.843915 -0.073129609 -0.186302975 -0.042331271 0.048310988 0.028040450 0.021373650 0.998209834
1341845837.879790 -0.067140445 -0.198101684 -0.038032122 0.049436662 0.029375060 0.021074288 0.998122752
1341845837.911946 -0.070425175 -0.201428071 -0.033448510 0.053435076 0.030446922 0.023321390 0.997834563
1341845837.946188 -0.065300904 -0.199377328 -0.039735544 0.055788398 0.029320832 0.024576265 0.997709394
1341845837.979709 -0.061816394 -0.202450901 -0.038151588 0.054296378 0.031700119 0.021962078 0.997779906
1341845838.041927 -0.070814773 -0.196411893 -0.032004971 0.049703471 0.036949109 0.018646631 0.997906148
1341845838.073905 -0.070056237 -0.212546781 -0.024074482 0.048305385 0.036290687 0.016406426 0.998038292
1341845838.105792 -0.070195772 -0.220426574 -0.027797468 0.049860127 0.037392348 0.016454555 0.997920334
1341845838.141667 -0.066715881 -0.210156783 -0.031751771 0.051169664 0.037173331 0.017974803 0.997835994
1341845838.173678 -0.062890977 -0.214090526 -0.034601897 0.047940042 0.037902322 0.012746748 0.998049438
1341845838.205767 -0.058201317 -0.208617613 -0.027020523 0.043994032 0.039579749 0.008460483 0.998211622
1341845838.241893 -0.067049801 -0.220486850 -0.027648700 0.036858018 0.043095555 0.004928344 0.998378694
1341845838.273791 -0.070710458 -0.236590028 -0.032602161 0.033775974 0.042838115 0.003397555 0.998505175
1341845838.309852 -0.070163369 -0.232838154 -0.030921541 0.035392955 0.040074784 0.003371307 0.998563945
1341845838.341805 -0.072496027 -0.239664778 -0.018027300 0.034837201 0.038598776 0.005041465 0.998634636
1341845838.373872 -0.073101647 -0.241775528 -0.024782090 0.037119407 0.039330285 0.005929277 0.998519003
1341845838.409713 -0.070806123 -0.243436933 -0.022022672 0.036963146 0.038505979 0.008817410 0.998535573
1341845838.441818 -0.066775031 -0.241387233 -0.026282197 0.035202533 0.037503865 0.009961927 0.998626590
1341845838.473754 -0.070022732 -0.249379233 -0.025313376 0.032867551 0.038563717 0.006329212 0.998695433
1341845838.509713 -0.067389429 -0.254792005 -0.026305169 0.031670991 0.039588016 0.005454824 0.998699129
1341845838.541649 -0.075518727 -0.262644619 -0.021721266 0.031900745 0.040165693 0.004110037 0.998675227
1341845838.577804 -0.069301665 -0.265638202 -0.021041548 0.035014424 0.039303325 0.001587306 0.998612404
1341845838.609807 -0.065056100 -0.267365396 -0.022403961 0.037141949 0.040812396 -0.001495343 0.998475134
1341845838.641690 -0.065213770 -0.271697432 -0.026823524 0.038228780 0.042842422 -0.000694119 0.998349965
1341845838.677850 -0.063200846 -0.274553686 -0.040017191 0.039778683 0.043102540 -0.001665636 0.998277009
1341845838.709635 -0.054257825 -0.272097230 -0.045265693 0.039376024 0.043020591 -0.002407948 0.998295009
1341845838.745913 -0.029708439 -0.264604896 -0.058775630 0.034540113 0.044420209 -0.002983178 0.998411179
1341845838.777723 -0.064916521 -0.283105850 -0.036936171 0.026044399 0.052007399 -0.006517880 0.998285711
1341845838.809656 -0.060511559 -0.290638030 -0.029450200 0.023346474 0.049317349 -0.006677220 0.998487949
1341845838.845874 -0.051751010 -0.290817797 -0.029476186 0.024110567 0.048026599 -0.006585535 0.998533309
1341845838.877695 -0.039336503 -0.280143976 -0.046196081 0.021260010 0.050015040 -0.008685241 0.998484373
1341845838.909636 -0.054618310 -0.299026221 -0.035802718 0.015243803 0.055288989 -0.012665847 0.998273671
1341845838.945837 -0.056622207 -0.306883126 -0.033567220 0.014704991 0.055518981 -0.013082579 0.998263597
1341845838.977758 -0.054799650 -0.296900570 -0.028675968 0.017461931 0.055328682 -0.012071109 0.998242497
1341845839.013907 -0.046693716 -0.304701000 -0.034525350 0.017703209 0.057014663 -0.013155776 0.998129666
1341845839.046225 -0.050175771 -0.301531821 -0.033978663 0.016583284 0.059497096 -0.015568769 0.997969270
1341845839.077750 -0.054512352 -0.306295067 -0.037090722 0.013431796 0.058408547 -0.016380768 0.998067975
1341845839.113934 -0.048935190 -0.318723947 -0.031003559 0.013247462 0.055738229 -0.015179302 0.998242140
1341845839.145852 -0.046313543 -0.311162561 -0.033581447 0.017357741 0.055871472 -0.012355899 0.998210609
1341845839.177741 -0.043500744 -0.301114678 -0.031438865 0.017979590 0.055882931 -0.011216667 0.998212397
1341845839.214000 -0.034796800 -0.321831673 -0.030601010 0.016308881 0.057011653 -0.011531956 0.998173714
1341845839.246198 -0.036430631 -0.311777264 -0.032570783 0.020104820 0.059474666 -0.010399479 0.997973144
1341845839.281774 -0.035264529 -0.308641076 -0.034557708 0.020789387 0.061259259 -0.007973110 0.997873485
1341845839.314004 -0.022833072 -0.321747452 -0.038922820 0.019987721 0.062916018 -0.011026185 0.997757733
1341845839.345945 -0.030001998 -0.326107472 -0.035445135 0.020176137 0.065624990 -0.010951549 0.997580230
1341845839.381741 -0.027868941 -0.326866955 -0.036410611 0.022283180 0.064728387 -0.007175395 0.997628272
1341845839.413801 -0.021260887 -0.336310565 -0.039420247 0.023245713 0.065377809 -0.005371302 0.997575343
1341845839.445714 -0.023441456 -0.325896651 -0.040193718 0.025930764 0.068118051 -0.005481355 0.997325182
1341845839.481741 -0.023829544 -0.323330820 -0.042508323 0.024746932 0.069120027 -0.005940407 0.997283697
1341845839.514001 -0.015488279 -0.331822813 -0.038755808 0.022368290 0.069825076 -0.006523005 0.997287095
1341845839.549791 -0.022267183 -0.339212298 -0.040504970 0.023697849 0.072338380 -0.007042314 0.997073710
1341845839.587666 -0.020186892 -0.326222152 -0.039486390 0.026134806 0.071703278 -0.005650186 0.997067511
1341845839.681817 -0.021817852 -0.325226963 -0.038191956 0.025478205 0.074891649 -0.005568606 0.996850610
1341845839.713876 -0.012535608 -0.320186168 -0.045044020 0.025704172 0.072689973 -0.006606991 0.997001410
1341845839.749808 -0.012588212 -0.317503601 -0.039605644 0.026100082 0.074049823 -0.007491807 0.996884763
1341845839.781785 -0.014490348 -0.315174431 -0.044419810 0.024634182 0.074516594 -0.005083014 0.996902525
1341845839.817825 -0.015567493 -0.319250047 -0.044718873 0.022128379 0.073435880 -0.004936703 0.997042179
1341845839.849994 -0.015344186 -0.313732535 -0.043023940 0.021666232 0.073416352 -0.005046338 0.997053206
1341845839.881829 -0.015675694 -0.312271953 -0.045506015 0.019243190 0.072946213 -0.004861319 0.997138381
1341845839.917855 -0.023092248 -0.316138864 -0.037129123 0.016129613 0.071433425 -0.004414657 0.997305214
1341845839.950283 -0.025211316 -0.311789423 -0.035770576 0.014810661 0.069013663 -0.004744894 0.997494459
1341845839.985757 -0.028302787 -0.312061310 -0.037502032 0.011964896 0.067531206 -0.005341317 0.997631133
1341845840.017660 -0.026027964 -0.302939326 -0.034461297 0.008820970 0.065564029 -0.006584221 0.997787654
1341845840.049741 -0.031720277 -0.302119106 -0.033918746 0.004183601 0.064542472 -0.008118251 0.997873187
1341845840.085650 -0.038083099 -0.303157687 -0.031007281 0.001485424 0.062756412 -0.006978254 0.998003364
1341845840.117698 -0.037163522 -0.296125412 -0.023998322 0.000421437 0.061003305 -0.004589498 0.998126924
1341845840.149796 -0.038309243 -0.282025814 -0.023734745 -0.002012368 0.059981998 -0.002538826 0.998194218
1341845840.186069 -0.037155468 -0.284826100 -0.027825378 -0.007395762 0.059027769 -0.004098553 0.998220563
1341845840.217657 -0.038109925 -0.279024303 -0.023421317 -0.011429622 0.059874117 -0.003504077 0.998134375
1341845840.253694 -0.050546631 -0.277098238 -0.025686366 -0.015276758 0.060240980 -0.003758116 0.998059869
1341845840.285914 -0.048080876 -0.277503967 -0.020024670 -0.017751811 0.056888901 -0.001532087 0.998221517
1341845840.317753 -0.044461858 -0.270549148 -0.014631297 -0.020080311 0.054558873 0.000566962 0.998308480
1341845840.353861 -0.044930704 -0.264930636 -0.018108843 -0.021881102 0.054343216 0.000494131 0.998282433
1341845840.385775 -0.047514364 -0.261907786 -0.019274212 -0.025308611 0.055254593 -0.001330182 0.998150587
1341845840.417676 -0.056914799 -0.254650950 -0.019269658 -0.028787125 0.054647740 -0.002824865 0.998086631
1341845840.453598 -0.045019612 -0.257744670 -0.015982978 -0.031554263 0.052371673 -0.001283957 0.998128176
1341845840.485943 -0.055189647 -0.248028114 -0.009886292 -0.031474888 0.053255968 -0.002300257 0.998082101
1341845840.521810 -0.059997447 -0.245240271 -0.010229247 -0.033616066 0.053226288 -0.000529789 0.998016357
1341845840.553677 -0.062134940 -0.241546676 -0.006107344 -0.035752840 0.050815657 0.000277166 0.998067856
1341845840.585765 -0.061273217 -0.233899355 -0.003696434 -0.036486361 0.049426105 -0.001269786 0.998110294
1341845840.621850 -0.060941502 -0.233452871 -0.014260466 -0.037806392 0.049471579 -0.001718806 0.998058259
1341845840.653789 -0.066121325 -0.231769308 -0.006635516 -0.042398885 0.048629139 -0.003982241 0.997908652
1341845840.685850 -0.068311535 -0.235860392 -0.003988520 -0.043944705 0.047547244 -0.007739692 0.997871876
1341845840.721832 -0.071590409 -0.233061716 -0.001556661 -0.042292852 0.047173925 -0.006977685 0.997966588
1341845840.753824 -0.080459327 -0.227556393 -0.004853437 -0.038741834 0.044557691 -0.003802253 0.998248100
1341845840.789783 -0.073240846 -0.226871982 -0.001283461 -0.035845384 0.040796440 -0.003163196 0.998519301
1341845840.821733 -0.069802977 -0.217553690 -0.003574082 -0.033699073 0.041897912 -0.004568952 0.998542964
1341845840.853661 -0.072986074 -0.226013929 0.001395707 -0.034763981 0.043404564 -0.002270465 0.998449981
1341845840.889737 -0.076008409 -0.211369842 0.000938656 -0.033991601 0.040884797 -0.001379515 0.998584569
1341845840.921786 -0.070258252 -0.204803124 -0.004820447 -0.033856340 0.041089348 -0.002294118 0.998579085
1341845840.957782 -0.073793590 -0.201685920 -0.009660428 -0.036554620 0.044725385 -0.003035956 0.998325706
1341845840.989777 -0.075731903 -0.196794838 -0.000709012 -0.039172739 0.045599986 -0.002448704 0.998188436
1341845841.021755 -0.079288512 -0.202683792 0.002482416 -0.039479863 0.046678189 -0.002247364 0.998126984
1341845841.057797 -0.076045968 -0.200676650 0.002095378 -0.035369776 0.047148690 -0.002357335 0.998258710
1341845841.089861 -0.074540287 -0.189131305 0.001955715 -0.030786855 0.048924454 -0.001841174 0.998326182
1341845841.127763 -0.078382313 -0.186475202 0.004713305 -0.029988438 0.049479380 -0.005095511 0.998311818
1341845841.189794 -0.078473575 -0.181208670 0.008247509 -0.026860345 0.048001599 -0.012575017 0.998406827
1341845841.225871 -0.084409177 -0.182278082 0.007395548 -0.024096493 0.048762668 -0.016200354 0.998388231
1341845841.257769 -0.083387956 -0.171833754 0.004514932 -0.020722428 0.048170496 -0.016633999 0.998485625
1341845841.289834 -0.077820450 -0.158963442 0.008938336 -0.018867310 0.046077695 -0.013330370 0.998670697
1341845841.325856 -0.082110316 -0.151502326 0.001592981 -0.020317787 0.046683796 -0.013711320 0.998608947
1341845841.357778 -0.090525933 -0.158869535 0.010494613 -0.023587298 0.046921052 -0.014619679 0.998513043
1341845841.389747 -0.090637513 -0.160295278 0.016480293 -0.021414667 0.043037008 -0.012010595 0.998771727
1341845841.425648 -0.087558329 -0.161706671 0.020657128 -0.016491769 0.040122680 -0.008331624 0.999023914
1341845841.457784 -0.085154168 -0.160008505 0.011184884 -0.008512025 0.039293226 -0.002052031 0.999189377
1341845841.493636 -0.082221635 -0.134867698 0.012354826 -0.002767005 0.038100891 0.001939611 0.999268174
1341845841.525800 -0.080762185 -0.123919435 0.006256583 -0.004917572 0.038260527 0.002422345 0.999252796
1341845841.557776 -0.080662824 -0.124852970 0.011238571 -0.008754235 0.038544673 0.003373667 0.999212861
1341845841.593697 -0.088121116 -0.127583310 0.018667998 -0.010757886 0.037819803 0.003627441 0.999220073
1341845841.625800 -0.083018698 -0.127114683 0.017909015 -0.009033717 0.035630491 0.006491541 0.999303102
1341845841.657778 -0.080909729 -0.121670000 0.013911244 -0.006076389 0.035819534 0.007571033 0.999311149
1341845841.693890 -0.084039465 -0.114914812 0.017039621 -0.005105536 0.035734098 0.010306023 0.999295175
1341845841.725831 -0.079657376 -0.099714719 0.017336799 -0.005107545 0.034537416 0.010771573 0.999332309
1341845841.761977 -0.079718173 -0.094458170 0.020583449 -0.004355414 0.034128264 0.009259481 0.999365091
1341845841.793705 -0.083536416 -0.084396228 0.023135472 -0.005745510 0.033366829 0.009963948 0.999376953
1341845841.825907 -0.085228778 -0.090764113 0.023563115 -0.008842016 0.031678490 0.008432747 0.999423444
1341845841.862456 -0.085948706 -0.093289740 0.025671715 -0.008483557 0.030142646 0.008918826 0.999469817
1341845841.893840 -0.085797690 -0.095723450 0.030864652 -0.004128407 0.027682720 0.013079971 0.999522626
1341845841.925729 -0.085853167 -0.083363228 0.021009116 -0.000130388 0.025978237 0.015567575 0.999541283
1341845841.961799 -0.083350100 -0.094973743 0.023001423 -0.001082397 0.024843112 0.014755601 0.999581873
1341845841.994063 -0.080565155 -0.089985728 0.019960735 -0.001156547 0.026017528 0.012743612 0.999579608
1341845842.030345 -0.089191265 -0.068134911 0.027494442 -0.002743076 0.026579242 0.012736036 0.999561787
1341845842.061842 -0.083718292 -0.075103901 0.030537322 -0.004714240 0.023915755 0.013798901 0.999607623
1341845842.095648 -0.080303311 -0.066315912 0.028471211 -0.003512952 0.023417585 0.014909576 0.999608397
1341845842.130144 -0.082955241 -0.065228000 0.029597932 -0.004400287 0.024201158 0.016521549 0.999560893
1341845842.168651 -0.087852411 -0.063720033 0.029650515 -0.004706424 0.024556998 0.018414531 0.999517739
1341845842.204415 -0.079357520 -0.059100904 0.031342618 -0.004853124 0.024058223 0.018636489 0.999525070
1341845842.236995 -0.094491161 -0.061829440 0.038284361 -0.003602228 0.023809355 0.020723345 0.999495208
1341845842.298056 -0.086240120 -0.055518299 0.036271270 -0.000068014 0.018111065 0.025307467 0.999515653
1341845842.330531 -0.086177558 -0.042421959 0.032400910 0.001777352 0.019298293 0.025697732 0.999481857
1341845842.362365 -0.087001532 -0.030526692 0.037495557 0.000569649 0.017492075 0.026812032 0.999487281
1341845842.399606 -0.083934426 -0.034163028 0.033505209 -0.003470832 0.016829368 0.026372513 0.999504447
1341845842.439754 -0.089291245 -0.040182967 0.036992539 -0.004783837 0.018034071 0.026198898 0.999482632
1341845842.472222 -0.089455202 -0.031032419 0.039202914 -0.004644039 0.018108681 0.027339963 0.999451339
1341845842.506051 -0.086109392 -0.032181486 0.038602479 -0.004826537 0.015252461 0.028583279 0.999463379
1341845842.539739 -0.089581102 -0.037412103 0.036491383 -0.004792685 0.015895722 0.026462562 0.999511957
1341845842.597810 -0.089166261 -0.033368465 0.041878317 -0.003368305 0.016027240 0.025267722 0.999546528
1341845842.671782 -0.090209715 -0.028067263 0.037557662 0.000041424 0.015845517 0.026191724 0.999531329
1341845842.733828 -0.088123642 -0.020097850 0.041037634 0.001751747 0.013999810 0.032350000 0.999377012
1341845842.772554 -0.083826169 -0.009939834 0.037758503 0.003361154 0.013289095 0.034932829 0.999295652
1341845842.803667 -0.089742251 -0.007003072 0.038921379 0.000502218 0.013375040 0.035765089 0.999270618
1341845842.839779 -0.088377230 -0.007854410 0.036702171 -0.001139570 0.014065891 0.036310937 0.999240875
1341845842.871951 -0.087363847 -0.002707131 0.040617108 -0.001068378 0.015287162 0.035041235 0.999268353
1341845842.903766 -0.087044790 0.003037829 0.042438641 -0.002603793 0.014076586 0.035770148 0.999257505
1341845842.939694 -0.082785338 -0.000107024 0.037939053 -0.005614832 0.014217401 0.033619981 0.999317765
1341845842.971703 -0.100372292 -0.002998589 0.042481788 -0.004935363 0.016282175 0.033114105 0.999306738
1341845843.003637 -0.093930081 0.008184531 0.045763731 -0.004323313 0.013737313 0.036930352 0.999214053
1341845843.039687 -0.088210337 0.009676773 0.040226072 -0.004574576 0.012431670 0.038753260 0.999161005
1341845843.071786 -0.088838272 0.014558973 0.043186057 -0.004301684 0.014413073 0.038497925 0.999145448
1341845843.103725 -0.102063358 0.017010197 0.048550915 -0.004091453 0.014670254 0.041657083 0.999015868
1341845843.139742 -0.100042880 0.020769119 0.047481220 -0.002466970 0.011188669 0.043040507 0.999007642
1341845843.171825 -0.094512589 0.028631397 0.043819260 -0.003313973 0.010274938 0.041420609 0.999083459
1341845843.207907 -0.098063022 0.035299644 0.046667788 -0.005983433 0.011500403 0.037055582 0.999229133
1341845843.240014 -0.105218120 0.034810100 0.049783509 -0.010192434 0.011052786 0.033600993 0.999322236
1341845843.281910 -0.108740173 0.035636272 0.045683097 -0.010887630 0.009553364 0.033029590 0.999349415
1341845843.307930 -0.109087631 0.041212469 0.051570393 -0.010519356 0.008284876 0.032563489 0.999379992
1341845843.339844 -0.108266771 0.038207866 0.051032621 -0.010763413 0.007723577 0.033628009 0.999346614
1341845843.407961 -0.107197933 0.055062480 0.052889131 -0.006108268 0.011232249 0.036646623 0.999246478
1341845843.469698 -0.099505424 0.064037390 0.057140686 -0.008066716 0.012609879 0.036745355 0.999212563
1341845843.501755 -0.109113760 0.068766795 0.062837802 -0.010097669 0.016512990 0.035448007 0.999184072
1341845843.537749 -0.112581767 0.069007635 0.062852710 -0.011297387 0.014230337 0.039367765 0.999059558
1341845843.601912 -0.111170515 0.084165767 0.063555181 -0.015815314 0.015340906 0.036265705 0.999099255
1341845843.637854 -0.108207226 0.095428415 0.059235401 -0.018220052 0.014790638 0.036432907 0.999060512
1341845843.669935 -0.107204564 0.093054950 0.062566325 -0.019391933 0.017093780 0.036864165 0.998985887
1341845843.705705 -0.104376078 0.103442781 0.061214171 -0.018257059 0.019331636 0.038307987 0.998912156
1341845843.738087 -0.105505735 0.104486637 0.066595547 -0.020965984 0.021495866 0.040726546 0.998719037
1341845843.769868 -0.106442630 0.105100647 0.067691229 -0.019295122 0.022453086 0.042744026 0.998647332
1341845843.805741 -0.101302706 0.114288568 0.070520274 -0.017499747 0.023337347 0.045630913 0.998532414
1341845843.837731 -0.100539334 0.117224269 0.066191591 -0.018402990 0.026424017 0.043983668 0.998513162
1341845843.869723 -0.099398486 0.117645271 0.070817657 -0.019752484 0.029021459 0.044789352 0.998379409
1341845843.905817 -0.102175333 0.117067739 0.070118822 -0.017261125 0.030588839 0.047427889 0.998256922
1341845843.937846 -0.096968107 0.120753512 0.068672851 -0.013532803 0.032114688 0.049668681 0.998157561
1341845843.973843 -0.098397180 0.134319633 0.069492385 -0.009582884 0.037464932 0.048760444 0.998061597
1341845844.005877 -0.104300909 0.126158178 0.070759594 -0.011226363 0.040735327 0.050355215 0.997837186
1341845844.037839 -0.102693528 0.137618229 0.067176081 -0.007542192 0.039361242 0.049750827 0.997957230
1341845844.073843 -0.096300818 0.148591489 0.069879465 -0.007004570 0.040037144 0.045650691 0.998130262
1341845844.105844 -0.100767389 0.138609588 0.071714930 -0.009255689 0.043616161 0.042114384 0.998117387
1341845844.137727 -0.096528731 0.146806225 0.074477024 -0.008444228 0.043038528 0.044201735 0.998059392
1341845844.173729 -0.097368680 0.149393499 0.073627263 -0.006668380 0.043399915 0.042600039 0.998126864
1341845844.205772 -0.095663376 0.162998512 0.071684219 -0.007206931 0.044236802 0.041496132 0.998132885
1341845844.241826 -0.098492607 0.150102332 0.082493231 -0.008987299 0.043846380 0.044014994 0.998027742
1341845844.273743 -0.094687097 0.156670555 0.074655451 -0.001875660 0.042655516 0.046740510 0.997994125
1341845844.305737 -0.094402261 0.172070339 0.073292576 0.001490486 0.042995237 0.048918657 0.997875810
1341845844.341702 -0.092034295 0.189738631 0.067256339 0.000272983 0.042317897 0.048711859 0.997915983
1341845844.373700 -0.095515259 0.179694995 0.070126086 -0.006058722 0.042663585 0.047148064 0.997958004
1341845844.409780 -0.097900689 0.185990453 0.072347313 -0.006308684 0.042220280 0.049751073 0.997848928
1341845844.441868 -0.092605047 0.190501779 0.070667364 -0.008819629 0.040643442 0.051571280 0.997802973
1341845844.473633 -0.092658862 0.190583616 0.075030498 -0.012027369 0.041969601 0.051821385 0.997701585
1341845844.509732 -0.092110246 0.204660788 0.069364555 -0.011501485 0.043044467 0.053893350 0.997552216
1341845844.541734 -0.099502355 0.218950585 0.070899479 -0.012195677 0.042855006 0.054930855 0.997495532
1341845844.573798 -0.090941958 0.217772111 0.073043361 -0.016487489 0.040057994 0.054622266 0.997566998
1341845844.609774 -0.097566888 0.221392587 0.077034853 -0.018814348 0.041391473 0.055102281 0.997444987
1341845844.641742 -0.102091752 0.214598849 0.080639459 -0.021349931 0.039508753 0.058667686 0.997266948
1341845844.677619 -0.100898206 0.220864132 0.078264855 -0.017930152 0.034305967 0.062367301 0.997302294
1341845844.709820 -0.108150534 0.238431528 0.068445526 -0.016852701 0.033271622 0.061764728 0.997393668
1341845844.741764 -0.117340490 0.244586915 0.076868080 -0.018037785 0.030616306 0.061400786 0.997480452
1341845844.778110 -0.115743019 0.251997411 0.078190483 -0.019383920 0.026636662 0.059673995 0.997674167
1341845844.811162 -0.126094207 0.246118590 0.077919684 -0.021545904 0.023770453 0.059561688 0.997708917
1341845844.842336 -0.125793442 0.274522960 0.075029470 -0.020922430 0.017734293 0.055430848 0.998085737
1341845844.883762 -0.121932700 0.257374555 0.078962833 -0.025985012 0.014485785 0.054228812 0.998085260
1341845844.947016 -0.126657695 0.260115474 0.078290120 -0.026637856 0.005023659 0.053462595 0.998201847
1341845844.977793 -0.122709878 0.279623926 0.075220302 -0.024844693 0.001852330 0.046541415 0.998605609
1341845845.009670 -0.125832528 0.266019434 0.075147428 -0.029450480 0.001196594 0.043728087 0.998608589
1341845845.045698 -0.126263261 0.274894744 0.077927798 -0.027218472 -0.004028883 0.041715045 0.998750627
1341845845.077748 -0.120091029 0.285883337 0.073707074 -0.026472928 -0.006389370 0.036066297 0.998978257
1341845845.109679 -0.118907861 0.296773434 0.076637305 -0.026860166 -0.005176765 0.032604571 0.999093950
1341845845.145640 -0.116342440 0.300256908 0.081759647 -0.027043244 -0.006265394 0.032670096 0.999080598
1341845845.177719 -0.113502204 0.301406264 0.079936132 -0.026514579 -0.006124358 0.031315558 0.999139071
1341845845.213604 -0.108482681 0.310033441 0.076662414 -0.027394986 -0.003728007 0.031372063 0.999125302
1341845845.245741 -0.110243253 0.308593720 0.078183420 -0.030237446 -0.001804080 0.031818558 0.999034584
1341845845.277905 -0.109908573 0.309202403 0.081508465 -0.029110910 -0.001627948 0.033029992 0.999029040
1341845845.314159 -0.112543955 0.320592105 0.075089023 -0.027523430 -0.001129036 0.032074139 0.999105811
1341845845.345748 -0.109586917 0.327361524 0.081643686 -0.028859725 -0.001337113 0.031531472 0.999085128
1341845845.381704 -0.111306794 0.331506908 0.081246875 -0.029755179 -0.001910737 0.031422652 0.999061346
1341845845.413648 -0.110358357 0.332296520 0.083500087 -0.031543057 -0.003631579 0.031468049 0.999000311
1341845845.445777 -0.117263623 0.347359151 0.079117715 -0.029294824 -0.004692540 0.031113498 0.999075413
1341845845.481809 -0.108926952 0.357772917 0.082805738 -0.032213170 -0.006719458 0.025880663 0.999123275
1341845845.514332 -0.111874454 0.349869788 0.086626984 -0.036772259 -0.007025009 0.024157977 0.999006927
1341845845.545717 -0.114511132 0.351620615 0.084129110 -0.038451035 -0.009023312 0.026391380 0.998871148
1341845845.581658 -0.107888274 0.359755427 0.082826272 -0.040312134 -0.012234881 0.025890768 0.998776674
1341845845.613959 -0.109542936 0.367888957 0.080460012 -0.043049138 -0.010541141 0.021637430 0.998782992
1341845845.649696 -0.109200582 0.362028509 0.084632672 -0.048102029 -0.010857074 0.024135636 0.998491764
1341845845.682034 -0.107494324 0.368520916 0.089891322 -0.045896783 -0.014531818 0.026657775 0.998484671
1341845845.714232 -0.105619505 0.386770785 0.085163794 -0.043906569 -0.014827319 0.024836691 0.998616815
1341845845.751971 -0.109048918 0.390271246 0.087436214 -0.049754348 -0.013191062 0.021511035 0.998442650
1341845845.787747 -0.106208213 0.384658128 0.088617526 -0.053012848 -0.013376085 0.020398404 0.998295844
1341845845.820616 -0.109723419 0.390938312 0.089400806 -0.052375369 -0.013250841 0.020610247 0.998326838
1341845845.887653 -0.107321046 0.405982614 0.090391025 -0.053322971 -0.012396957 0.016857440 0.998358071
1341845845.949895 -0.105948791 0.413608789 0.090752922 -0.053171255 -0.010072294 0.019176111 0.998350441
1341845845.981855 -0.106775291 0.423401415 0.088783048 -0.053756930 -0.007598001 0.018185006 0.998359561
1341845846.017822 -0.104132675 0.419750184 0.093267776 -0.056489173 -0.007455793 0.019008739 0.998194396
1341845846.049788 -0.105774187 0.423407853 0.092618845 -0.054856926 -0.006241114 0.019512882 0.998284042
1341845846.081697 -0.110220119 0.433465749 0.089766107 -0.053637467 -0.005927362 0.019304372 0.998356283
1341845846.117753 -0.109639347 0.436405778 0.089561902 -0.055544063 -0.006908223 0.018307386 0.998264492
1341845846.149729 -0.107630573 0.441319019 0.091947809 -0.055908676 -0.008141119 0.020120896 0.998199940
1341845846.185551 -0.106017329 0.443951517 0.091391198 -0.057904139 -0.009931533 0.022748416 0.998013496
1341845846.217670 -0.104579240 0.451560974 0.090955496 -0.058590341 -0.010035597 0.023135129 0.997963548
1341845846.249670 -0.107285827 0.457339555 0.089952745 -0.062108971 -0.009070455 0.025023734 0.997714400
1341845846.285621 -0.106042929 0.456075370 0.090584837 -0.064826280 -0.010167995 0.026756078 0.997485995
1341845846.318706 -0.104642250 0.473144025 0.087410510 -0.065213799 -0.009061482 0.025018489 0.997516453
1341845846.349746 -0.111455940 0.472272933 0.089188591 -0.068962224 -0.006946914 0.026744060 0.997236550
1341845846.385823 -0.111345120 0.473484784 0.087035328 -0.071345896 -0.007166782 0.027835354 0.997037411
1341845846.417804 -0.109202273 0.482293516 0.087662913 -0.073442869 -0.005782443 0.026886420 0.996920168
1341845846.453757 -0.112749837 0.482803524 0.084522329 -0.076870777 -0.004744686 0.030497339 0.996563196
1341845846.485915 -0.104102507 0.489278555 0.085691504 -0.078421406 -0.007808958 0.031607617 0.996388495
1341845846.517804 -0.099669561 0.496388495 0.085823789 -0.079603255 -0.005873068 0.029348040 0.996377170
1341845846.553866 -0.106747642 0.498040229 0.081822611 -0.084443003 -0.003176018 0.029559840 0.995984674
1341845846.585802 -0.101833574 0.494206458 0.086274333 -0.086606376 -0.005125892 0.029911883 0.995780289
1341845846.621952 -0.100072026 0.506950915 0.081558369 -0.085361160 -0.003850747 0.027398417 0.995965838
1341845846.653735 -0.099623203 0.500300348 0.081566632 -0.089759037 -0.003852602 0.027684685 0.995571196
1341845846.687048 -0.099403419 0.499296576 0.081566095 -0.089956433 -0.003246939 0.025604326 0.995611250
1341845846.721930 -0.099202231 0.500554740 0.078844935 -0.089611180 -0.001476858 0.024177276 0.995682240
1341845846.755684 -0.099619918 0.495315850 0.078225918 -0.090354405 -0.001733916 0.024685964 0.995602190
1341845846.785987 -0.101167768 0.492472857 0.077746861 -0.088897377 -0.001075753 0.024993969 0.995726585
1341845846.821760 -0.097211987 0.486716986 0.078423284 -0.088550627 -0.000163868 0.023247955 0.995800316
1341845846.853756 -0.099907845 0.472041130 0.079215936 -0.089074045 0.000237810 0.023104779 0.995756984
1341845846.889724 -0.100023024 0.470571846 0.078649245 -0.082567461 -0.001268708 0.024476433 0.996284068
1341845846.921756 -0.101045452 0.461433023 0.079129621 -0.079958886 -0.000502306 0.021976992 0.996555746
1341845846.953776 -0.103703178 0.453510046 0.078185968 -0.078457221 0.000368801 0.021947121 0.996675789
1341845846.989607 -0.103799716 0.437241286 0.078315929 -0.076325640 -0.001378730 0.024872232 0.996771753
1341845847.021791 -0.102328368 0.437340468 0.080490276 -0.069623537 -0.002702084 0.022451531 0.997317016
1341845847.053671 -0.106020063 0.432946593 0.076976396 -0.068265766 -0.002327606 0.021457596 0.997433662
1341845847.089677 -0.103779398 0.415098280 0.078542270 -0.069802038 -0.006057464 0.021420956 0.997312427
1341845847.121825 -0.102935426 0.416640133 0.081306949 -0.061026797 -0.008121303 0.019268686 0.997917056
1341845847.157737 -0.105667651 0.420477390 0.077271648 -0.055784129 -0.005972252 0.018042276 0.998261988
1341845847.189613 -0.103008963 0.414202094 0.075873762 -0.051568072 -0.005716177 0.020762166 0.998437285
1341845847.221790 -0.094112754 0.390748054 0.079811133 -0.052785765 -0.005269086 0.021515314 0.998360157
1341845847.257718 -0.096106350 0.387627244 0.074387699 -0.049325995 -0.002605610 0.022622455 0.998523116
1341845847.289652 -0.096313395 0.367615104 0.072464719 -0.049632508 -0.002831717 0.023983456 0.998475552
1341845847.321777 -0.093006089 0.356298476 0.070885770 -0.048004553 -0.002324291 0.021377055 0.998615623
1341845847.357899 -0.093614519 0.349874735 0.069462948 -0.046305254 -0.001027799 0.020787831 0.998710454
1341845847.390176 -0.092756219 0.345666975 0.066617727 -0.043873727 -0.001058924 0.019998884 0.998836339
1341845847.425786 -0.089511313 0.339963138 0.064048931 -0.043147519 0.000093932 0.017646540 0.998912871
1341845847.489945 -0.094896205 0.320238352 0.060623985 -0.041762557 0.001073615 0.018739313 0.998951256
1341845847.525805 -0.097231440 0.316885650 0.056033053 -0.041383039 -0.000087984 0.016849974 0.999001265
1341845847.557741 -0.100023568 0.316310227 0.048674967 -0.044018071 -0.001311520 0.011273383 0.998966277
1341845847.593782 -0.095303386 0.296054304 0.053684600 -0.049369954 -0.004030852 0.010030851 0.998722076
1341845847.625656 -0.090280682 0.289005250 0.050852463 -0.045113634 -0.005020832 0.011519492 0.998902857
1341845847.657670 -0.096184835 0.276894957 0.045519322 -0.044573173 -0.003743209 0.012994246 0.998914599
1341845847.693751 -0.092641622 0.269891709 0.041609284 -0.043677669 -0.003988346 0.013939645 0.998940468
1341845847.725684 -0.087039553 0.260920823 0.038686417 -0.044344630 -0.003732736 0.013939478 0.998912036
1341845847.757787 -0.090333082 0.244213954 0.039608397 -0.044845678 -0.003231180 0.018000593 0.998826504
1341845847.793826 -0.090208001 0.252635986 0.033904742 -0.040803473 -0.005215624 0.019171394 0.998969615
1341845847.825684 -0.087935910 0.241853297 0.032898493 -0.042874452 -0.006037533 0.018348875 0.998893738
1341845847.861928 -0.088596940 0.237541020 0.030428873 -0.042840671 -0.007023243 0.019604130 0.998864889
1341845847.893697 -0.096405879 0.216736540 0.029623793 -0.045198843 -0.008087383 0.022883987 0.998683095
1341845847.925644 -0.088730387 0.227043733 0.029992426 -0.039342958 -0.011719474 0.023592398 0.998878479
1341845847.961946 -0.093677483 0.219224900 0.026966909 -0.040835612 -0.009500719 0.023169182 0.998852015
1341845847.993685 -0.099129409 0.206861973 0.023794984 -0.041083112 -0.009520255 0.025284195 0.998790443
1341845848.025620 -0.092677519 0.206847101 0.022314668 -0.039920680 -0.011854467 0.026243942 0.998787820
1341845848.061715 -0.095572196 0.199117288 0.023611505 -0.039533816 -0.011023733 0.026914714 0.998794854
1341845848.093689 -0.096530840 0.206302494 0.020047851 -0.038700160 -0.012437070 0.027602844 0.998792112
1341845848.132119 -0.092907034 0.188190654 0.018875126 -0.040208582 -0.015733501 0.026976168 0.998703182
1341845848.167711 -0.083841577 0.189974502 0.018883212 -0.038790546 -0.017300889 0.023900997 0.998811662
1341845848.200502 -0.088407613 0.180520773 0.014373326 -0.040011428 -0.016127478 0.023888318 0.998783410
1341845848.232265 -0.089522891 0.174240202 0.012905510 -0.040307306 -0.017884467 0.024988819 0.998714685
1341845848.267873 -0.087144420 0.171321377 0.012988870 -0.038762789 -0.018236542 0.024706328 0.998776495
1341845848.301135 -0.089366235 0.171907336 0.004306238 -0.039076999 -0.017057892 0.024625978 0.998787045
1341845848.335735 -0.093006991 0.161788255 0.006950784 -0.044321675 -0.018198274 0.026300877 0.998505235
1341845848.367757 -0.088585474 0.152631745 0.004737569 -0.045811258 -0.020275151 0.023766512 0.998461545
1341845848.399644 -0.089952923 0.148652375 0.001606900 -0.046077702 -0.020771518 0.024056736 0.998432100
1341845848.435802 -0.095238186 0.138894185 -0.000294293 -0.048048660 -0.024253691 0.026933989 0.998187184
1341845848.467705 -0.084626555 0.149741009 -0.000703778 -0.045993868 -0.026162207 0.022063799 0.998355329
1341845848.503759 -0.087288953 0.140704066 -0.005673073 -0.047790769 -0.022338329 0.022244392 0.998359740
1341845848.536036 -0.090230659 0.129993632 -0.005113838 -0.049689379 -0.022773992 0.025539041 0.998178363
1341845848.567958 -0.090049423 0.131732315 -0.007911069 -0.048160024 -0.024254479 0.025842011 0.998210669
1341845848.603657 -0.086024843 0.128027365 -0.007278435 -0.048930272 -0.024084898 0.025183804 0.998194158
1341845848.635797 -0.086672068 0.121663749 -0.007258629 -0.050048415 -0.024795983 0.026591403 0.998084784
1341845848.671815 -0.087580398 0.106745571 -0.005911206 -0.050077531 -0.026120000 0.027439825 0.998026609
1341845848.703677 -0.080845661 0.107621677 -0.005057395 -0.044083267 -0.026170732 0.027898205 0.998295248
1341845848.735781 -0.082856327 0.100818083 -0.010294572 -0.041175347 -0.024503333 0.030621620 0.998381913
1341845848.771647 -0.087981001 0.099450789 -0.011022810 -0.038655806 -0.023599431 0.032670975 0.998439491
1341845848.803783 -0.085096128 0.097644202 -0.015769891 -0.036442704 -0.022264834 0.031938620 0.998577058
1341845848.839757 -0.084591046 0.105447426 -0.015909687 -0.036581714 -0.019352969 0.029702699 0.998701632
1341845848.871829 -0.088024676 0.110549204 -0.011232989 -0.040328950 -0.016176105 0.027226202 0.998684466
1341845848.903622 -0.083983786 0.085939474 -0.004948182 -0.040393945 -0.012758526 0.027376184 0.998727202
1341845848.940608 -0.076702051 0.086988114 0.004832163 -0.030130962 -0.007576390 0.031483371 0.999021232
1341845848.972843 -0.083165020 0.088772796 0.002840297 -0.025901821 -0.003012972 0.033863664 0.999086201
1341845849.008613 -0.079734631 0.089288622 0.005463664 -0.024414562 -0.001470450 0.031486601 0.999204874
1341845849.072005 -0.091230549 0.094634011 0.013447879 -0.020530410 0.004432546 0.030032320 0.999328196
1341845849.133777 -0.067570701 0.099793419 0.032468636 -0.022192758 0.007456772 0.025240939 0.999407232
1341845849.165908 -0.082043953 0.094738550 0.039199606 -0.022591356 0.013683074 0.025407750 0.999328196
1341845849.201651 -0.081739686 0.087917827 0.044955753 -0.021739634 0.013426245 0.027626617 0.999291718
1341845849.233648 -0.078306921 0.094681576 0.047893312 -0.020041354 0.014139705 0.026476037 0.999348521
1341845849.265690 -0.078021288 0.100919493 0.053591214 -0.020910058 0.016291300 0.026085094 0.999308228
1341845849.301701 -0.085032970 0.097209848 0.064345054 -0.023822799 0.017084332 0.025273422 0.999250650
1341845849.333730 -0.083475053 0.095570371 0.069517918 -0.024700208 0.014981859 0.024930913 0.999271691
1341845849.369727 -0.081917860 0.096070714 0.079573728 -0.026162954 0.014034506 0.024671523 0.999254644
1341845849.401811 -0.083453022 0.095792383 0.090093054 -0.025921656 0.013374778 0.024773888 0.999267459
1341845849.433692 -0.080078103 0.100943483 0.095047884 -0.023942655 0.013146753 0.024141634 0.999335349
1341845849.469648 -0.085753992 0.098791048 0.102002747 -0.025481703 0.014125835 0.024712229 0.999269962
1341845849.501641 -0.082455665 0.098676302 0.110024288 -0.025912615 0.012697031 0.024775365 0.999276519
1341845849.533689 -0.081855848 0.097316958 0.118264623 -0.026112035 0.013705191 0.023497377 0.999288857
1341845849.569780 -0.085098855 0.103491209 0.124853231 -0.026638554 0.014458136 0.022880450 0.999278665
1341845849.601759 -0.084327847 0.099130414 0.141251072 -0.029165762 0.014542935 0.022214657 0.999221861
1341845849.637837 -0.083867602 0.094423987 0.150569424 -0.028844891 0.017063735 0.022156348 0.999192655
1341845849.669719 -0.085982226 0.099011861 0.158489838 -0.027866311 0.018909972 0.022279335 0.999184430
1341845849.701927 -0.084553801 0.103627533 0.170758992 -0.027531805 0.020434057 0.021310523 0.999184847
1341845849.737804 -0.084881693 0.099672690 0.178593636 -0.028400280 0.023410043 0.020145087 0.999119401
1341845849.769688 -0.093020007 0.101303667 0.187554508 -0.028496057 0.025225319 0.021790151 0.999037981
1341845849.805874 -0.092497289 0.103868365 0.198508635 -0.027983367 0.022933690 0.022528809 0.999091327
1341845849.838002 -0.084650390 0.110422380 0.210552886 -0.027333651 0.021395687 0.020555282 0.999185979
1341845849.873756 -0.090591967 0.106762022 0.216526836 -0.030757653 0.024018131 0.017650971 0.999082386
1341845849.905773 -0.094794370 0.103743270 0.229716480 -0.032159455 0.024115220 0.018216813 0.999025702
1341845849.942380 -0.086419500 0.100730129 0.233492911 -0.031177334 0.023350643 0.018013129 0.999078691
1341845849.969808 -0.096150339 0.107005969 0.240424752 -0.030521899 0.028247857 0.016162122 0.999004126
1341845850.006040 -0.096684687 0.105974525 0.253764391 -0.031786229 0.027881665 0.015432205 0.998986542
1341845850.038041 -0.094927005 0.104314119 0.259455860 -0.032363914 0.026740646 0.013085683 0.999032676
1341845850.073843 -0.095588870 0.099399187 0.272127569 -0.032032423 0.027378524 0.012344038 0.999035537
1341845850.137727 -0.102385737 0.102591179 0.274830967 -0.033911973 0.026685482 0.010091058 0.999017537
1341845850.173748 -0.095227547 0.101957887 0.282466322 -0.035611294 0.022549702 0.008820307 0.999072373
1341845850.205888 -0.098750807 0.103386447 0.297371268 -0.035514105 0.022074765 0.007957133 0.999093652
1341845850.242190 -0.101848587 0.109920524 0.307336271 -0.034725368 0.021145983 0.008655683 0.999135673
1341845850.276369 -0.103506900 0.107654504 0.310355842 -0.036137115 0.019675810 0.007560765 0.999124527
1341845850.311979 -0.102184422 0.110754214 0.317488194 -0.036161978 0.018359404 0.005765200 0.999160647
1341845850.343827 -0.100566514 0.113984004 0.326670796 -0.037968755 0.016501060 0.006042957 0.999124408
1341845850.380151 -0.098557398 0.099312991 0.336465776 -0.042036496 0.015923101 0.003872446 0.998981714
1341845850.412359 -0.094717629 0.101722620 0.345010012 -0.040471148 0.016023975 0.005019714 0.999039590
1341845850.447279 -0.094973333 0.104127169 0.353517294 -0.039809857 0.017663177 0.007122115 0.999025762
1341845850.511722 -0.089029878 0.104256615 0.368171245 -0.035578597 0.019650612 0.012777687 0.999091983
1341845850.573894 -0.086370848 0.102105334 0.381870478 -0.034423020 0.021129297 0.014865072 0.999073386
1341845850.609794 -0.090571187 0.106336683 0.384268165 -0.031829711 0.022575615 0.014640177 0.999131083
1341845850.641744 -0.093536869 0.109886773 0.391098946 -0.031106647 0.022096343 0.011763345 0.999202549
1341845850.673755 -0.089139126 0.107305065 0.392608106 -0.029659359 0.021518238 0.010562466 0.999272585
1341845850.709784 -0.083328769 0.103269607 0.404151738 -0.030472925 0.022230428 0.010506849 0.999233127
1341845850.741802 -0.090348385 0.098475747 0.411398590 -0.030375509 0.022553086 0.011521067 0.999217629
1341845850.777740 -0.082050547 0.100230224 0.415473461 -0.030059757 0.020123951 0.012105759 0.999272168
1341845850.841900 -0.084654041 0.105026037 0.429490596 -0.029221542 0.020793673 0.011645394 0.999288797
1341845850.877766 -0.080923647 0.103523053 0.435638607 -0.030776389 0.019334242 0.010944095 0.999279380
1341845850.909781 -0.081663720 0.104978502 0.439084440 -0.030880883 0.020643864 0.010647988 0.999253094
1341845850.941758 -0.082442231 0.109813027 0.446665168 -0.030930087 0.021441713 0.011603499 0.999224186
1341845850.977762 -0.083912306 0.109508723 0.452859521 -0.031385474 0.020905543 0.014127752 0.999188840
1341845851.009834 -0.084109262 0.114159226 0.457628042 -0.030605009 0.020285569 0.016424414 0.999190688
1341845851.045751 -0.083900139 0.116908357 0.467074186 -0.032233566 0.020913569 0.017153071 0.999114275
1341845851.077894 -0.091703013 0.117943592 0.474448621 -0.030950554 0.023133924 0.019258432 0.999067545
1341845851.109747 -0.083303556 0.118586577 0.478690505 -0.030735679 0.020788740 0.021071197 0.999089181
1341845851.145889 -0.085665084 0.120560847 0.482877940 -0.033578992 0.019907366 0.018365536 0.999068975
1341845851.177904 -0.086596861 0.119281463 0.485655516 -0.035642315 0.021263292 0.014931634 0.999026775
1341845851.209882 -0.094765604 0.130519360 0.493886083 -0.034808367 0.023269340 0.013063067 0.999037683
1341845851.251733 -0.093038693 0.122538321 0.502617896 -0.039024089 0.019325949 0.013128930 0.998965085
1341845851.313813 -0.087881334 0.124063246 0.507337689 -0.035646122 0.021260876 0.011898039 0.999067426
1341845851.345834 -0.091423608 0.124548368 0.515772760 -0.034546416 0.019433677 0.015461054 0.999094486
1341845851.377718 -0.087728158 0.127251148 0.516741157 -0.031693250 0.016608452 0.017538410 0.999205709
1341845851.413805 -0.085177071 0.130876407 0.522632658 -0.032377355 0.015544122 0.017148755 0.999207675
1341845851.445896 -0.091699854 0.133154139 0.528497815 -0.035056412 0.014483834 0.015762646 0.999156058
1341845851.478163 -0.088026449 0.132516131 0.535075486 -0.035546176 0.010219797 0.016017009 0.999187410
1341845851.514640 -0.086016096 0.137832835 0.529888272 -0.036606990 0.010136209 0.016450187 0.999142885
1341845851.546201 -0.089077480 0.139412105 0.539026856 -0.038932160 0.011606542 0.016776688 0.999033570
1341845851.581975 -0.084131047 0.131978616 0.543362916 -0.041019209 0.010792349 0.020019921 0.998899460
1341845851.616214 -0.083695777 0.132905766 0.542277634 -0.037903842 0.011830903 0.025877731 0.998876214
1341845851.681977 -0.083775707 0.134801447 0.552944720 -0.038940366 0.009808959 0.027687721 0.998809695
1341845851.714139 -0.082241528 0.138129935 0.554148316 -0.036773201 0.010539347 0.028187519 0.998870432
1341845851.745927 -0.093014441 0.141184792 0.560472965 -0.037029035 0.010532985 0.030147733 0.998803794
1341845851.781911 -0.085805602 0.146031544 0.561287224 -0.036559727 0.007541601 0.027392654 0.998927474
1341845851.813848 -0.078885265 0.138030827 0.562890410 -0.037430279 0.007859095 0.025407687 0.998945296
1341845851.849910 -0.079479732 0.139261752 0.565372109 -0.037246581 0.007731075 0.024126424 0.998984873
1341845851.881832 -0.076128691 0.128833011 0.568337977 -0.036422234 0.006493966 0.022559237 0.999060690
1341845851.913735 -0.073933773 0.143009052 0.561174572 -0.029939529 0.009248916 0.020013228 0.999308527
1341845851.949904 -0.074686974 0.137208283 0.569615841 -0.033071458 0.010408897 0.016304856 0.999265790
1341845851.982005 -0.075114645 0.135772184 0.563779175 -0.030384447 0.011745274 0.013852265 0.999373257
1341845852.017909 -0.069653876 0.138103679 0.563584387 -0.029256426 0.013163508 0.013023144 0.999400377
1341845852.050012 -0.067220040 0.134607077 0.552914023 -0.030438948 0.015122867 0.011375833 0.999357462
1341845852.082035 -0.068706580 0.134270579 0.552038074 -0.030390292 0.019391200 0.009375967 0.999306023
1341845852.121076 -0.068914406 0.134202689 0.547857940 -0.029497491 0.022208853 0.010600637 0.999261856
1341845852.163838 -0.067944355 0.132557094 0.539767325 -0.030401142 0.025732821 0.010853504 0.999147534
1341845852.190660 -0.063802071 0.134853438 0.547690809 -0.029033192 0.027315905 0.012148117 0.999131322
1341845852.223981 -0.069561139 0.133778065 0.541781545 -0.029472766 0.028727774 0.013230948 0.999065101
1341845852.286726 -0.067704983 0.133892015 0.534538925 -0.028380899 0.027483301 0.015478548 0.999099433
1341845852.349834 -0.074867912 0.129732624 0.527387500 -0.030642278 0.025952611 0.017039491 0.999048114
1341845852.385657 -0.074048623 0.126780853 0.526074111 -0.030833935 0.023837876 0.020444769 0.999031007
1341845852.417731 -0.070199616 0.131754681 0.518960238 -0.031468444 0.019711860 0.020305393 0.999104023
1341845852.449741 -0.068793856 0.126158521 0.514810503 -0.033445947 0.019882213 0.018817360 0.999065518
1341845852.485861 -0.074572258 0.127934724 0.507129550 -0.033237264 0.019390278 0.017453073 0.999106944
1341845852.517876 -0.073702544 0.127098382 0.500354528 -0.035935286 0.016516032 0.015552531 0.999096572
1341845852.553887 -0.074937560 0.121228248 0.494836003 -0.035302293 0.015266252 0.018437169 0.999089956
1341845852.617891 -0.081821382 0.123982765 0.481528550 -0.035920180 0.012412813 0.019867282 0.999080062
1341845852.653840 -0.080558077 0.123275183 0.473912925 -0.036043160 0.011115835 0.019102812 0.999105811
1341845852.685926 -0.080899902 0.124262936 0.465629905 -0.036709655 0.011441955 0.018389931 0.999091208
1341845852.717821 -0.083521284 0.120463580 0.451322109 -0.037571825 0.009933352 0.021877160 0.999005020
1341845852.753958 -0.083409414 0.122659914 0.449658871 -0.036737531 0.010044629 0.023238625 0.999004185
1341845852.785766 -0.081297666 0.123740420 0.431695461 -0.038284954 0.012083109 0.024145259 0.998902023
1341845852.822784 -0.086945668 0.117659956 0.423959434 -0.039231151 0.012160226 0.026262688 0.998810947
1341845852.885924 -0.086835295 0.119535670 0.407801002 -0.039505236 0.014301844 0.024496207 0.998816669
1341845852.921581 -0.091283962 0.121600986 0.410920888 -0.038964435 0.015089901 0.024642808 0.998822689
1341845852.953977 -0.088969313 0.121806897 0.406434834 -0.037308831 0.016018653 0.023559058 0.998897612
1341845852.989721 -0.093954504 0.125247419 0.393368274 -0.034309596 0.018513335 0.022626463 0.998983562
1341845853.021716 -0.109233230 0.130441397 0.380215287 -0.037373584 0.018166589 0.020151062 0.998933017
1341845853.053750 -0.103976168 0.125776827 0.376218677 -0.037589960 0.015037063 0.019425325 0.998991251
1341845853.089814 -0.109239198 0.135883987 0.362734646 -0.036573049 0.015276959 0.018575720 0.999041557
1341845853.121864 -0.111548826 0.129965469 0.360504597 -0.039907519 0.014179330 0.017596232 0.998947799
1341845853.159690 -0.108483136 0.126492590 0.356482983 -0.038276672 0.013528427 0.018486300 0.999004602
1341845853.195824 -0.116641983 0.130586296 0.342227250 -0.035926554 0.014655592 0.019821301 0.999050319
1341845853.227731 -0.109775282 0.128050655 0.333442509 -0.037141304 0.012300970 0.019913891 0.999035835
1341845853.263703 -0.108902112 0.118670203 0.326086789 -0.037625097 0.012891129 0.019133324 0.999025583
1341845853.296490 -0.113572307 0.118880771 0.314222187 -0.035098523 0.014475626 0.019157503 0.999095380
1341845853.327753 -0.115317158 0.121215604 0.309395939 -0.033591144 0.012805939 0.019887855 0.999155700
1341845853.363891 -0.111363076 0.114651650 0.300377667 -0.034009136 0.011360259 0.019957898 0.999157667
1341845853.395726 -0.113272659 0.118804671 0.288272738 -0.031284686 0.013795302 0.018945873 0.999235690
1341845853.463774 -0.118913248 0.117033772 0.273221463 -0.031463351 0.012210056 0.018680990 0.999255717
1341845853.525799 -0.128554896 0.121583946 0.259408981 -0.032435589 0.013524042 0.015839903 0.999256790
1341845853.557770 -0.131738454 0.116466947 0.249653786 -0.032606732 0.011918747 0.016743775 0.999256909
1341845853.589705 -0.130605236 0.120115630 0.239717826 -0.031339414 0.011548585 0.017256657 0.999293089
1341845853.625908 -0.137536377 0.120336890 0.229637533 -0.031513780 0.011948850 0.017178845 0.999284267
1341845853.657783 -0.136056423 0.120141536 0.224739105 -0.031626880 0.010435536 0.018158920 0.999280274
1341845853.689930 -0.133300275 0.115842402 0.214664012 -0.030552095 0.010738927 0.019409614 0.999287009
1341845853.725779 -0.137942255 0.120804250 0.205172703 -0.029079076 0.012380244 0.019535495 0.999309480
1341845853.757962 -0.142052919 0.119004123 0.198821887 -0.029203735 0.013416856 0.021316862 0.999256074
1341845853.793750 -0.140849963 0.120341852 0.183476537 -0.026813962 0.012694635 0.023374857 0.999286473
1341845853.825783 -0.143617868 0.125524074 0.173509225 -0.026272040 0.013086118 0.022298511 0.999320388
1341845853.857700 -0.150374353 0.121188261 0.169647083 -0.027272413 0.013106831 0.021658996 0.999307394
1341845853.893805 -0.152600661 0.121683486 0.160728335 -0.026023362 0.011047370 0.020415328 0.999391794
1341845853.925836 -0.146855757 0.132925183 0.151763752 -0.025818357 0.009192730 0.016145170 0.999493957
1341845853.957735 -0.150037989 0.122902766 0.147469625 -0.029673291 0.011003461 0.012623432 0.999419332
1341845853.993852 -0.155526027 0.119786009 0.142094120 -0.027787583 0.011475966 0.016114783 0.999418080
1341845854.025830 -0.156426042 0.127855569 0.135698721 -0.025020121 0.010208969 0.016729921 0.999494791
1341845854.061903 -0.156627953 0.138993070 0.129058421 -0.026309012 0.011583976 0.012122500 0.999513209
1341845854.093760 -0.166957095 0.126738161 0.129095346 -0.029216712 0.013826145 0.009852860 0.999428928
1341845854.125736 -0.173782527 0.132805705 0.119478442 -0.026244940 0.011583921 0.010658732 0.999531627
1341845854.161837 -0.165606484 0.138862833 0.115092717 -0.026449973 0.007689631 0.010172473 0.999568820
1341845854.193844 -0.162375435 0.141060576 0.109289050 -0.029222857 0.009703320 0.007437816 0.999498129
1341845854.229884 -0.170502052 0.137289792 0.104346864 -0.031184886 0.011359213 0.010038301 0.999398649
