1341845844.341702 0.0000000 0.0000000 0.0000000 0.0000000 0.0000000 0.0000000 1.0000000
1341845844.641742 -0.0146328 -0.0024565 0.0040774 -0.0275836 -0.0004484 0.0090398 0.9995785
1341845844.677619 -0.0056677 0.0066742 0.0068373 -0.0243529 -0.0071332 0.0133153 0.9995893
1341845844.709820 -0.0132785 0.0324102 -0.0044045 -0.0230164 -0.0078765 0.0125380 0.9996254
1341845844.811162 -0.0335918 0.0340843 -0.0005244 -0.0297730 -0.0171039 0.0106811 0.9993532
1341845844.977793 -0.0206020 0.0778015 0.0010725 -0.0328141 -0.0398468 -0.0019804 0.9986649
1341845845.245741 -0.0057791 0.1093286 0.0094132 -0.0381441 -0.0429052 -0.0166164 0.9982125
1341845845.481809 -0.0012217 0.1741380 0.0070609 -0.0396941 -0.0472521 -0.0231774 0.9978248
1341845845.581658 0.0068087 0.1790686 0.0106369 -0.0465712 -0.0533731 -0.0237488 0.9972053
1341845845.649696 -0.0007906 0.1857885 0.0136370 -0.0536982 -0.0505777 -0.0257953 0.9969418
1341845845.714232 0.0101523 0.2132516 0.0091488 -0.0503110 -0.0552049 -0.0247532 0.9968994
1341845845.787747 0.0091027 0.2160635 0.0171610 -0.0580437 -0.0534748 -0.0298752 0.9964331
1341845846.049788 0.0179142 0.2599891 0.0190726 -0.0598115 -0.0471886 -0.0297001 0.9966512
1341845846.185551 0.0185680 0.2966667 0.0176251 -0.0611500 -0.0503687 -0.0266553 0.9965005
1341845846.249670 0.0187601 0.3102792 0.0147747 -0.0662418 -0.0492708 -0.0240332 0.9962965
1341845846.385823 0.0238434 0.3287820 0.0125705 -0.0756419 -0.0484148 -0.0211896 0.9957336
1341845846.517804 0.0345581 0.3542549 0.0101589 -0.0839729 -0.0454509 -0.0206298 0.9952171
1341845846.621952 0.0368619 0.3667056 0.0053673 -0.0896555 -0.0433913 -0.0226809 0.9947686
1341845846.721930 0.0403863 0.3550219 0.0045577 -0.0941860 -0.0414362 -0.0257889 0.9943576
1341845847.089677 0.0161344 0.2516930 -0.0001295 -0.0746101 -0.0453626 -0.0284496 0.9957741
1341845847.189613 0.0234977 0.2250602 0.0021984 -0.0618449 -0.0471745 -0.0283901 0.9965660
1341845847.321777 0.0287719 0.1829712 -0.0046307 -0.0519750 -0.0436992 -0.0269721 0.9973271
1341845847.557741 0.0191745 0.1190941 -0.0294191 -0.0504116 -0.0434320 -0.0369957 0.9970976
1341845847.693751 0.0276257 0.0612047 -0.0352327 -0.0506716 -0.0466716 -0.0343939 0.9970312
1341845847.825684 0.0222329 0.0245472 -0.0475829 -0.0502411 -0.0472034 -0.0308938 0.9971426
1341845847.925644 0.0190317 0.0044981 -0.0542140 -0.0478616 -0.0525528 -0.0253919 0.9971473
1341845848.167711 0.0173961 -0.0425869 -0.0662405 -0.0478747 -0.0576117 -0.0251165 0.9968742
1341845848.301135 0.0137871 -0.0678675 -0.0821269 -0.0486138 -0.0580674 -0.0247362 0.9968215
1341845848.399644 0.0105758 -0.0901130 -0.0864226 -0.0547693 -0.0614704 -0.0253776 0.9962819
1341845848.671815 0.0127285 -0.1429801 -0.0905958 -0.0596153 -0.0670657 -0.0216527 0.9957306
1341845848.803783 0.0184080 -0.1571350 -0.0987154 -0.0467412 -0.0644304 -0.0163159 0.9966934
1341845848.903622 0.0189227 -0.1737901 -0.0850685 -0.0511776 -0.0549337 -0.0212263 0.9969516
1341845849.008613 0.0230734 -0.1707105 -0.0745591 -0.0341402 -0.0445031 -0.0166992 0.9982861
1341845849.133777 0.0346706 -0.1623701 -0.0521707 -0.0314255 -0.0352000 -0.0230163 0.9986209
1341845849.265690 0.0196838 -0.1532605 -0.0177030 -0.0292101 -0.0265368 -0.0228676 0.9989593
1341845849.533689 0.0008568 -0.1490722 0.0650799 -0.0331307 -0.0281441 -0.0255709 0.9987274
1341845849.942380 -0.0186242 -0.1416283 0.1980640 -0.0374556 -0.0176808 -0.0315777 0.9986427
1341845850.137727 -0.0433710 -0.1324409 0.2540069 -0.0390608 -0.0141760 -0.0396368 0.9983497
1341845850.447279 -0.0420800 -0.1329994 0.3385540 -0.0455371 -0.0225401 -0.0431489 0.9977758
1341845850.841900 -0.0427831 -0.1297338 0.4232338 -0.0348184 -0.0189159 -0.0385601 0.9984703
1341845851.009834 -0.0341765 -0.1211521 0.4611823 -0.0372285 -0.0210905 -0.0335595 0.9985204
1341845851.145889 -0.0371822 -0.1149999 0.4913341 -0.0401596 -0.0214095 -0.0312078 0.9984763
1341845851.377718 -0.0428985 -0.1120053 0.5338175 -0.0398769 -0.0249377 -0.0320001 0.9983807
1341845851.546201 -0.0451622 -0.1019496 0.5563554 -0.0479922 -0.0295474 -0.0329056 0.9978682
1341845851.881832 -0.0390172 -0.1124443 0.5911184 -0.0455120 -0.0334032 -0.0275054 0.9980262
1341845852.082035 -0.0226168 -0.1101699 0.5765303 -0.0391279 -0.0223832 -0.0398600 0.9981880
1341845853.021716 -0.0455479 -0.1094820 0.3666395 -0.0455389 -0.0244782 -0.0297249 0.9982201
1341845853.957735 -0.0874496 -0.1120221 0.0844414 -0.0367167 -0.0293199 -0.0369946 0.9982102
1341845854.561884 -0.0927012 -0.0861257 -0.0282258 -0.0400582 -0.0242352 -0.0287160 0.9984906
1341845854.829779 -0.1020966 -0.0988756 -0.0556097 -0.0369816 -0.0277142 -0.0401641 0.9981238
1341845855.365773 -0.1048942 -0.0980637 -0.1575289 -0.0397822 -0.0425658 -0.0279162 0.9979109
1341845855.601707 -0.1148397 -0.1146030 -0.1876752 -0.0362259 -0.0462363 -0.0279301 0.9978827
1341845856.373714 -0.1077907 -0.1084512 -0.2710321 -0.0436025 -0.0501099 -0.0203967 0.9975830
1341845857.713765 -0.0558905 -0.1275868 -0.3638314 -0.0442841 -0.0371894 -0.0266853 0.9979698
1341845857.982166 -0.0585456 -0.1184868 -0.4008411 -0.0500797 -0.0317718 -0.0305718 0.9977715
1341845859.589783 0.0067082 -0.1536223 -0.4942932 -0.0821010 -0.0227069 -0.0630932 0.9943656
1341845859.789818 0.0079504 -0.1613554 -0.4955587 -0.0744500 -0.0101036 -0.0590692 0.9954225
1341845860.025774 0.0080139 -0.1615055 -0.4995988 -0.0629078 -0.0142614 -0.0614740 0.9960222
1341845860.294553 0.0075472 -0.1621937 -0.4982905 -0.0495156 -0.0445637 -0.0702013 0.9953060
1341845860.493718 0.0082569 -0.1618216 -0.5016276 -0.0420904 -0.0635857 -0.0748922 0.9942718
1341845861.875772 0.0075622 -0.1609346 -0.4902366 -0.0405765 -0.0824297 -0.0827899 0.9923229
1341845862.611759 0.0075397 -0.1608865 -0.4903237 -0.0375438 -0.0515446 -0.0721812 0.9953510
1341845862.815767 0.0075009 -0.1609103 -0.4902907 -0.0342611 -0.0430565 -0.0745858 0.9956954
1341845863.183716 0.0075907 -0.1609883 -0.4904666 -0.0319185 -0.0459887 -0.0756026 0.9955654
