1341845820.751833 0.0000000 0.0000000 0.0000000 0.0000000 0.0000000 0.0000000 1.0000000
1341845821.623761 0.0087014 -0.0020129 -0.0033132 0.0094836 0.0159849 0.0010526 0.9998267
1341845821.724228 0.0061298 -0.0050387 -0.0042324 0.0078121 0.0152836 -0.0001952 0.9998527
1341845822.289876 -0.0115785 -0.0087378 -0.0010610 0.0125481 0.0147836 -0.0026187 0.9998085
1341845822.495728 -0.0277780 -0.0099473 0.0025666 0.0150280 0.0136450 -0.0037762 0.9997869
1341845822.663716 -0.0468087 -0.0119830 0.0093661 0.0126838 0.0114160 0.0003363 0.9998543
1341845822.825897 -0.0620681 -0.0116672 0.0085113 0.0192514 0.0104009 0.0042807 0.9997514
1341845822.889712 -0.0683460 -0.0156382 0.0083897 0.0223318 0.0078936 0.0082391 0.9996855
1341845823.057775 -0.0744825 -0.0176742 0.0089112 0.0280395 0.0088272 0.0048011 0.9995563
1341845823.293622 -0.0965709 -0.0081429 0.0089936 0.0285307 0.0113854 0.0044821 0.9995180
1341845823.629815 -0.1323442 -0.0231279 0.0073673 0.0295870 0.0193237 0.0137790 0.9992804
1341845823.797871 -0.1587341 -0.0280122 0.0175121 0.0368202 0.0107438 0.0168913 0.9991214
1341845824.097956 -0.1613664 -0.0381025 -0.0525197 0.0334012 0.0001521 0.0058451 0.9994249
1341845824.130299 -0.1606641 -0.0351668 -0.0700811 0.0286717 0.0147081 0.0050204 0.9994681
1341845824.197930 -0.2014814 -0.0424429 0.0200260 0.0206622 0.0353846 0.0073829 0.9991329
1341845824.265800 -0.2128717 -0.0424106 0.0080834 0.0280715 0.0314915 0.0087079 0.9990718
1341845824.398039 -0.2274413 -0.0454680 0.0087739 0.0329987 0.0197637 0.0062866 0.9992402
1341845824.665789 -0.2641889 -0.0469039 0.0085251 0.0287048 -0.0009514 0.0328296 0.9990482
1341845824.769643 -0.2793771 -0.0373367 0.0066431 0.0297121 -0.0073034 0.0366033 0.9988614
1341845825.175707 -0.3211760 -0.0547902 0.0012570 0.0396873 -0.0051730 0.0290224 0.9987772
1341845825.443786 -0.3602488 -0.0445008 -0.0093987 0.0419472 -0.0084675 0.0351808 0.9984643
1341845825.648004 -0.3643314 -0.0566708 -0.0013225 0.0351779 -0.0224260 0.0467078 0.9980370
1341845825.979700 -0.4057471 -0.0572918 -0.0028563 0.0269322 -0.0361563 0.0428348 0.9980644
1341845826.347773 -0.4248283 -0.0548196 -0.0167234 0.0229089 -0.0495253 0.0472159 0.9973931
1341845826.819713 -0.4281946 -0.0466033 -0.0229641 0.0010204 -0.0623934 0.0500548 0.9967951
1341845827.045694 -0.4217683 -0.0316817 -0.0225810 -0.0267378 -0.0517923 0.0610208 0.9964332
1341845829.729747 -0.1801184 -0.0152271 0.0329092 -0.0070831 0.0135462 0.0567751 0.9982700
1341845831.069727 0.0084800 -0.0024681 0.0129231 0.0201359 0.0077692 0.0440049 0.9987981
1341845831.505745 0.0673340 0.0010332 -0.0018110 0.0224463 0.0017178 0.0390587 0.9989833
1341845831.673597 0.1019859 0.0115286 -0.0070345 0.0095865 0.0109688 0.0325260 0.9993647
1341845832.041627 0.1488008 0.0122271 -0.0084548 -0.0061561 0.0336427 0.0384043 0.9986768
1341845832.341687 0.1787626 0.0206769 -0.0147696 -0.0121980 0.0352738 0.0370784 0.9986151
1341845832.541586 0.2072394 0.0277625 -0.0202195 -0.0197052 0.0337784 0.0408669 0.9983990
1341845832.810110 0.2352795 0.0380086 -0.0255599 -0.0261353 0.0397707 0.0474963 0.9977371
1341845832.978015 0.2521967 0.0402428 -0.0264819 -0.0302299 0.0457858 0.0489035 0.9972955
1341845833.145767 0.2777581 0.0509935 -0.0405281 -0.0325205 0.0519533 0.0487929 0.9969265
1341845833.281847 0.3006022 0.0389062 -0.0432812 -0.0337250 0.0543189 0.0498751 0.9967068
1341845833.381840 0.3182917 0.0460627 -0.0516405 -0.0330490 0.0607750 0.0506988 0.9963151
1341845833.849860 0.3427292 0.0494979 -0.0468452 -0.0393026 0.0565105 0.0531967 0.9962088
1341845834.253824 0.3195919 0.0562790 -0.0533365 -0.0481748 0.0616946 0.0401034 0.9961249
1341845834.653808 0.2670882 0.0477515 -0.0490603 -0.0423300 0.0536650 0.0338411 0.9970872
1341845836.739779 -0.0847835 -0.0097413 -0.0284508 0.0146780 -0.0240229 0.0514464 0.9982789
1341845837.007714 -0.0787948 -0.0234233 -0.0487864 0.0382377 -0.0198616 0.0604033 0.9972436
1341845837.171636 -0.0861540 -0.0704643 -0.0219708 0.0424069 -0.0059998 0.0561665 0.9975024
1341845837.407709 -0.0784756 -0.1064583 -0.0393916 0.0564078 -0.0057909 0.0445057 0.9973986
1341845837.575706 -0.0750625 -0.1521503 -0.0347122 0.0410857 0.0080025 0.0338388 0.9985504
1341845837.879790 -0.0671404 -0.1981017 -0.0380321 0.0494367 0.0293751 0.0210743 0.9981228
1341845838.677850 -0.0632008 -0.2745537 -0.0400172 0.0397787 0.0431025 -0.0016656 0.9982771
1341845839.314004 -0.0228331 -0.3217475 -0.0389228 0.0199877 0.0629160 -0.0110262 0.9977577
1341845839.713876 -0.0125356 -0.3201862 -0.0450440 0.0257042 0.0726900 -0.0066070 0.9970014
1341845843.103725 -0.1020634 0.0170102 0.0485509 -0.0040915 0.0146703 0.0416571 0.9990159
1341845843.637854 -0.1082072 0.0954284 0.0592354 -0.0182201 0.0147906 0.0364329 0.9990605
1341845843.869723 -0.0993985 0.1176453 0.0708177 -0.0197525 0.0290215 0.0447894 0.9983794
1341845844.137727 -0.0965287 0.1468062 0.0744770 -0.0084442 0.0430385 0.0442017 0.9980594
1341845844.341702 -0.0920343 0.1897386 0.0672563 0.0002730 0.0423179 0.0487119 0.9979160
1341845844.609774 -0.0975669 0.2213926 0.0770349 -0.0188143 0.0413915 0.0551023 0.9974450
1341845844.811162 -0.1260942 0.2461186 0.0779197 -0.0215459 0.0237705 0.0595617 0.9977090
1341845844.977793 -0.1227099 0.2796239 0.0752203 -0.0248447 0.0018523 0.0465414 0.9986056
1341845845.545717 -0.1145111 0.3516207 0.0841291 -0.0384510 -0.0090233 0.0263914 0.9988711
1341845845.820616 -0.1097234 0.3909384 0.0894008 -0.0523754 -0.0132508 0.0206102 0.9983268
1341845845.981855 -0.1067753 0.4234013 0.0887831 -0.0537569 -0.0075980 0.0181850 0.9983596
1341845846.149729 -0.1076306 0.4413190 0.0919478 -0.0559087 -0.0081411 0.0201209 0.9981999
1341845846.318706 -0.1046422 0.4731440 0.0874105 -0.0652138 -0.0090615 0.0250185 0.9975165
1341845846.485915 -0.1041025 0.4892786 0.0856915 -0.0784214 -0.0078090 0.0316076 0.9963885
1341845846.653735 -0.0996232 0.5003003 0.0815667 -0.0897590 -0.0038526 0.0276847 0.9955712
1341845846.853756 -0.0999079 0.4720411 0.0792159 -0.0890740 0.0002378 0.0231048 0.9957570
1341845847.089677 -0.1037794 0.4150983 0.0785423 -0.0698020 -0.0060575 0.0214210 0.9973124
1341845847.289652 -0.0963134 0.3676151 0.0724647 -0.0496325 -0.0028317 0.0239835 0.9984756
1341845847.489945 -0.0948962 0.3202384 0.0606240 -0.0417626 0.0010736 0.0187393 0.9989513
1341845847.693751 -0.0926416 0.2698917 0.0416093 -0.0436777 -0.0039883 0.0139396 0.9989405
1341845847.893697 -0.0964059 0.2167365 0.0296238 -0.0451988 -0.0080874 0.0228840 0.9986832
1341845848.132119 -0.0929070 0.1881907 0.0188751 -0.0402086 -0.0157335 0.0269762 0.9987032
1341845848.367757 -0.0885855 0.1526317 0.0047376 -0.0458113 -0.0202752 0.0237665 0.9984615
1341845848.671815 -0.0875804 0.1067455 -0.0059112 -0.0500775 -0.0261200 0.0274398 0.9980265
1341845848.903622 -0.0839838 0.0859395 -0.0049482 -0.0403939 -0.0127585 0.0273762 0.9987273
1341845849.165908 -0.0820440 0.0947386 0.0391996 -0.0225914 0.0136831 0.0254078 0.9993282
1341845849.601759 -0.0843279 0.0991304 0.1412511 -0.0291658 0.0145429 0.0222147 0.9992219
1341845850.412359 -0.0947176 0.1017226 0.3450100 -0.0404711 0.0160240 0.0050197 0.9990396
1341845850.709784 -0.0833288 0.1032696 0.4041517 -0.0304729 0.0222304 0.0105068 0.9992331
1341845851.045751 -0.0839001 0.1169084 0.4670742 -0.0322336 0.0209136 0.0171531 0.9991143
1341845851.413805 -0.0851771 0.1308764 0.5226327 -0.0323774 0.0155441 0.0171488 0.9992077
1341845853.021716 -0.1092332 0.1304414 0.3802153 -0.0373736 0.0181666 0.0201511 0.9989330
1341845853.793750 -0.1408500 0.1203419 0.1834765 -0.0268140 0.0126946 0.0233749 0.9992865
1341845854.361687 -0.1678035 0.1436850 0.0771992 -0.0361804 0.0105988 0.0187715 0.9991127
1341845855.065777 -0.1782653 0.1344219 -0.0113934 -0.0322769 0.0150705 0.0112410 0.9993021
1341845855.669628 -0.1887665 0.1326258 -0.0864001 -0.0247886 -0.0081082 0.0157185 0.9995363
1341845857.041737 -0.1914813 0.1394178 -0.1772397 -0.0399932 -0.0080777 0.0314828 0.9986712
1341845857.713765 -0.1594146 0.1189407 -0.2307883 -0.0355937 0.0032047 0.0216086 0.9991276
1341845859.353758 -0.1338163 0.1216789 -0.3285228 -0.0753764 0.0065399 -0.0078138 0.9971031
1341845860.294553 -0.1360393 0.1033428 -0.3486947 -0.0408401 -0.0002469 -0.0245900 0.9988630
1341845860.668441 -0.1329134 0.1035722 -0.3595646 -0.0379903 -0.0263725 -0.0272935 0.9985571
1341845862.983749 -0.0932027 0.1024483 -0.3399869 -0.0234011 -0.0057933 -0.0240546 0.9994199
