1341846434.710184 0.0000000 0.0000000 0.0000000 0.0000000 0.0000000 0.0000000 1.0000000
1341846434.810024 0.0249316 -0.0008452 -0.0093560 0.0047135 0.0041127 0.0028531 0.9999763
1341846434.846345 0.0351642 -0.0061854 -0.0166618 0.0027884 0.0029888 -0.0003205 0.9999916
1341846434.878202 0.0482327 -0.0127067 -0.0242392 0.0011258 -0.0000641 -0.0077331 0.9999695
1341846434.914148 0.0534923 -0.0184792 -0.0452731 0.0001160 -0.0067826 -0.0184094 0.9998075
1341846434.946443 0.0682332 -0.0223914 -0.0599829 -0.0021343 -0.0215358 -0.0270085 0.9994009
1341846434.978088 0.0713278 -0.0206363 -0.0388666 -0.0011692 -0.0279786 -0.0289403 0.9991888
1341846435.045942 0.0957063 -0.0242593 -0.0428626 0.0019718 -0.0366545 -0.0284811 0.9989201
1341846435.077985 0.1102585 -0.0293124 -0.0414008 0.0037263 -0.0357606 -0.0285039 0.9989468
1341846435.113961 0.1139765 -0.0300033 -0.0451051 0.0078698 -0.0340436 -0.0293439 0.9989585
1341846435.182052 0.1258756 -0.0355182 -0.0465434 0.0126095 -0.0393390 -0.0247015 0.9988410
1341846435.246495 0.1552441 -0.0480780 -0.0558715 0.0171515 -0.0520386 -0.0140831 0.9983984
1341846435.382078 0.1939159 -0.0577525 -0.0615418 0.0129789 -0.0793306 -0.0099437 0.9967143
1341846435.450323 0.2172907 -0.0557856 -0.0675652 0.0186625 -0.0881053 -0.0067021 0.9959138
1341846435.513983 0.2525441 -0.0543102 -0.0624920 0.0195289 -0.0875742 -0.0096147 0.9959201
1341846435.582003 0.2586313 -0.0682378 -0.0692430 0.0153554 -0.0882711 -0.0128754 0.9958949
1341846435.618180 0.2705519 -0.0758879 -0.0795340 0.0187545 -0.0951742 -0.0128195 0.9952014
1341846435.681920 0.3117143 -0.0676952 -0.0607331 0.0245834 -0.1035196 -0.0158099 0.9941978
1341846435.750187 0.3314019 -0.0719285 -0.0642171 0.0252535 -0.1071391 -0.0176506 0.9937665
1341846435.849992 0.3756887 -0.0790137 -0.0706487 0.0277668 -0.1173406 -0.0190189 0.9925213
1341846435.918077 0.4034204 -0.0769285 -0.0786189 0.0282497 -0.1249628 -0.0183309 0.9915897
1341846435.986080 0.4248337 -0.0855041 -0.0756320 0.0294645 -0.1330418 -0.0144679 0.9905667
1341846436.050565 0.4549350 -0.0793612 -0.0734873 0.0296637 -0.1435694 -0.0102271 0.9891427
1341846436.118116 0.4785957 -0.0923684 -0.0699513 0.0255494 -0.1522900 -0.0056634 0.9879893
1341846436.218096 0.5168039 -0.0931069 -0.0632286 0.0287208 -0.1600804 0.0001703 0.9866861
1341846436.485966 0.5695601 -0.0899464 -0.0515523 0.0271056 -0.1740234 -0.0008150 0.9843681
1341846436.553975 0.5700580 -0.0968997 -0.0403739 0.0233262 -0.1824252 -0.0020318 0.9829409
1341846436.622042 0.5909529 -0.0876454 -0.0238277 0.0208086 -0.1947646 -0.0052186 0.9806154
1341846436.690078 0.5953332 -0.0918009 -0.0039971 0.0205061 -0.2037620 -0.0089014 0.9787652
1341846436.754167 0.6084204 -0.1032286 0.0205504 0.0181122 -0.2170092 -0.0114745 0.9759340
1341846436.822079 0.6382221 -0.0934620 0.0295866 0.0232498 -0.2335318 -0.0134293 0.9719784
1341846436.922139 0.6655455 -0.1091098 0.0470567 0.0170094 -0.2444772 -0.0064144 0.9694846
1341846437.058136 0.7147105 -0.1025370 0.0621995 0.0127617 -0.2618711 0.0022234 0.9650159
1341846437.158050 0.7452058 -0.0748294 0.0946000 0.0044822 -0.2726046 0.0045773 0.9621049
1341846437.258123 0.7735627 -0.0844939 0.1144075 -0.0233465 -0.2814090 0.0026216 0.9593003
1341846437.326061 0.7703053 -0.0489299 0.1303405 -0.0328387 -0.2887641 0.0069439 0.9568117
1341846437.396140 0.8027354 -0.0990641 0.1255498 -0.0455758 -0.2980881 0.0039723 0.9534414
1341846437.500080 0.8206817 -0.0958902 0.1477342 -0.0605108 -0.3121285 0.0011086 0.9481102
1341846437.568842 0.8348449 -0.1142357 0.1750318 -0.0575223 -0.3214668 0.0041724 0.9451629
1341846437.700232 0.8694339 -0.0964177 0.2085519 -0.0459889 -0.3222780 0.0004433 0.9455272
1341846437.795294 0.8934788 -0.1037524 0.2107798 -0.0401323 -0.3033168 -0.0189226 0.9518562
1341846437.930096 0.9258396 -0.1194718 0.2047711 -0.0365852 -0.2924898 -0.0097281 0.9555190
1341846438.030032 0.9423898 -0.0945732 0.2199810 -0.0424892 -0.2962889 -0.0032497 0.9541473
1341846438.262251 0.9342701 -0.1137503 0.2723527 -0.0375767 -0.2965190 -0.0084853 0.9542497
1341846438.398154 0.9144779 -0.0976520 0.2920884 -0.0395746 -0.2730488 -0.0133551 0.9610931
1341846438.634113 0.8415477 -0.0892726 0.3008609 -0.0418554 -0.2508571 0.0011064 0.9671182
1341846438.766996 0.8126327 -0.0649629 0.3106914 -0.0417591 -0.2155252 0.0078778 0.9755732
1341846438.934115 0.7380328 -0.0772476 0.3136580 -0.0444156 -0.1794830 0.0069666 0.9827332
1341846439.070117 0.6929810 -0.0902053 0.3336503 -0.0406604 -0.1561588 0.0002607 0.9868947
1341846439.234198 0.6222284 -0.0896926 0.3276094 -0.0226396 -0.1155621 0.0024503 0.9930392
1341846439.437979 0.5048254 -0.0943662 0.3072250 -0.0024049 -0.0775182 -0.0038206 0.9969807
1341846439.605986 0.4304522 -0.0957170 0.3028070 0.0100251 -0.0616000 -0.0047864 0.9980391
1341846439.774173 0.3791239 -0.0971987 0.3026204 0.0176709 -0.0427905 -0.0023014 0.9989251
1341846439.974174 0.2964487 -0.0752648 0.2887350 0.0164765 0.0005310 -0.0066253 0.9998422
1341846440.142076 0.1963027 -0.0944623 0.3241107 0.0062813 0.0408909 -0.0036447 0.9991372
1341846440.310040 0.1222356 -0.0826524 0.3278961 0.0212657 0.0586514 0.0068325 0.9980286
1341846440.474055 0.0361800 -0.0828749 0.3349727 0.0292029 0.0837093 0.0006235 0.9960620
1341846440.678071 -0.0619877 -0.0698565 0.3276190 0.0268754 0.1067028 -0.0065768 0.9939059
1341846440.846329 -0.1447064 -0.0801559 0.3342040 0.0153393 0.1294224 -0.0046441 0.9914600
1341846441.052118 -0.2587550 -0.0754930 0.3477456 0.0157622 0.1363020 0.0153496 0.9904230
1341846441.214136 -0.3008081 -0.0669791 0.3354102 0.0141927 0.1436363 0.0146560 0.9894202
1341846441.382129 -0.3839249 -0.0826773 0.3332862 0.0161590 0.1629751 0.0055520 0.9864822
1341846441.582260 -0.4637851 -0.0774624 0.3340103 0.0208736 0.1625757 0.0048206 0.9864635
1341846441.818076 -0.5539750 -0.0771514 0.3519306 0.0126517 0.1793723 0.0053874 0.9836851
1341846442.018070 -0.6391443 -0.0887263 0.4023549 -0.0101812 0.1893145 0.0100746 0.9818120
1341846442.254276 -0.7257516 -0.1249706 0.4423948 -0.0126324 0.2070610 0.0167628 0.9781029
1341846442.286112 -0.7384871 -0.1305928 0.3906710 -0.0166020 0.2132185 0.0150775 0.9767471
1341846442.359932 -0.7503513 -0.1221612 0.4763371 -0.0298206 0.2354019 0.0159806 0.9713091
1341846442.455016 -0.7770760 -0.1191321 0.4938262 -0.0387674 0.2566378 0.0207739 0.9655064
1341846442.522074 -0.7696648 -0.1270961 0.5063378 -0.0438098 0.2675087 0.0273187 0.9621713
1341846442.553917 -0.7717837 -0.1352280 0.4896405 -0.0509003 0.2782111 0.0308036 0.9586756
1341846442.686166 -0.8436717 -0.1377736 0.5736184 -0.0580954 0.3265685 0.0245673 0.9430665
1341846442.889944 -0.9096736 -0.1406572 0.6293642 -0.0541935 0.3493811 0.0229314 0.9351310
1341846443.090123 -0.9552166 -0.1424443 0.7015830 -0.0458790 0.3580062 0.0362089 0.9318882
1341846443.289997 -0.9959297 -0.1451129 0.7579805 -0.0379874 0.3543068 0.0526619 0.9328721
1341846443.558139 -1.0580508 -0.1316399 0.8107677 -0.0457597 0.3815195 0.0552238 0.9215744
1341846443.770837 -1.1021041 -0.1323979 0.8888175 -0.0647151 0.4161157 0.0666598 0.9045530
1341846443.993912 -1.1624333 -0.1247695 0.9698920 -0.0742642 0.4132849 0.0667737 0.9051086
1341846444.198431 -1.1941352 -0.1065080 1.0246005 -0.0859366 0.4145937 0.0660755 0.9035270
1341846444.398189 -1.1996728 -0.1066002 1.0541966 -0.0933543 0.3953418 0.0776381 0.9104736
1341846444.630024 -1.1886245 -0.1125949 1.0218364 -0.0951962 0.3691940 0.0718190 0.9216700
1341846444.866116 -1.1372528 -0.1315932 0.9213869 -0.0785996 0.3618794 0.0708633 0.9261985
1341846445.134054 -1.0750684 -0.1339115 0.7963789 -0.0765949 0.3351091 0.0695589 0.9364810
1341846445.401934 -0.9714124 -0.1224941 0.6709617 -0.0716932 0.2792536 0.0404446 0.9566827
1341846445.670085 -0.8724996 -0.1387551 0.5697221 -0.0527604 0.2364442 0.0285053 0.9697927
1341846446.038148 -0.6679114 -0.1169108 0.5065969 -0.0472152 0.1544425 0.0014965 0.9868718
1341846446.710293 -0.3945891 -0.0448280 0.3838039 -0.0588228 0.0600107 0.0093557 0.9964191
1341846447.252104 -0.1621248 -0.0187416 0.2975786 -0.0935498 0.0318251 0.0095327 0.9950601
1341846447.992036 -0.1595158 -0.0542996 0.2521176 -0.1354463 0.0370507 0.0257894 0.9897557
1341846448.686150 -0.1767238 -0.1179221 0.2074319 -0.1614810 0.0294821 0.0083025 0.9864004
1341846449.022043 -0.1676977 -0.1603377 0.2026150 -0.2196024 0.0363902 -0.0024445 0.9749075
1341846449.357984 -0.1534913 -0.2241089 0.2212894 -0.2220515 0.0441734 0.0040682 0.9740253
1341846449.694129 -0.1218917 -0.3162415 0.3164114 -0.2192669 0.0502682 0.0104322 0.9743133
1341846449.794073 -0.1607902 -0.3213948 0.3531206 -0.2309765 0.0562803 0.0123773 0.9712514
1341846449.826150 -0.1574202 -0.3500030 0.3824866 -0.2350730 0.0574356 0.0116880 0.9702089
1341846450.062040 -0.1561367 -0.3907890 0.4654428 -0.2256822 0.0613157 0.0026651 0.9722658
1341846450.294220 -0.1961024 -0.4509515 0.5585749 -0.2451418 0.0626459 -0.0056108 0.9674448
1341846450.630436 -0.1801168 -0.5226738 0.6776191 -0.2576726 0.0389970 -0.0259664 0.9650958
1341846450.698174 -0.1916578 -0.5352893 0.6991594 -0.2628210 0.0295957 -0.0161249 0.9642558
1341846450.866022 -0.1854705 -0.5204492 0.7127163 -0.2668378 0.0121239 -0.0359256 0.9629953
1341846451.202275 -0.2025484 -0.5290233 0.7806427 -0.2900440 -0.0041581 -0.0561941 0.9553530
1341846451.770041 -0.1731778 -0.5077999 0.6727351 -0.2558715 0.0279090 -0.0536305 0.9648184
1341846452.105977 -0.2025918 -0.4570712 0.5365269 -0.2305449 0.0190816 -0.0521336 0.9714767
1341846452.474108 -0.2173478 -0.4096809 0.4045913 -0.1799842 0.0112839 -0.0183646 0.9834333
1341846452.810050 -0.2460087 -0.3008895 0.3287392 -0.1547006 0.0213464 -0.0123902 0.9876530
1341846453.111410 -0.2787954 -0.2552073 0.3079093 -0.1418617 0.0325989 -0.0205675 0.9891357
1341846453.346478 -0.3155752 -0.2025470 0.2985159 -0.1017099 0.0384290 -0.0396873 0.9932790
1341846453.588242 -0.3228865 -0.1626897 0.2963105 -0.0359478 0.0361598 -0.0399967 0.9978980
1341846453.924065 -0.3421910 -0.0459638 0.2902642 -0.0039128 0.0429354 -0.0404588 0.9982506
1341846454.291937 -0.3593810 0.0566141 0.2982717 0.0144920 0.0376246 -0.0515292 0.9978573
1341846454.659990 -0.3766447 0.1387669 0.3359791 0.0391087 0.0313045 -0.0358326 0.9981015
1341846455.054099 -0.3576035 0.2895349 0.3566929 0.0901414 0.0363803 -0.0162109 0.9951323
1341846455.422100 -0.3564435 0.4357999 0.3749332 0.1031067 0.0272159 0.0014431 0.9942968
1341846455.690122 -0.3557968 0.5178447 0.4289965 0.1103294 0.0144180 0.0027392 0.9937867
1341846456.026027 -0.3413045 0.6172646 0.4918322 0.1745430 0.0128253 -0.0021360 0.9845637
1341846456.262012 -0.3404616 0.6965799 0.4991803 0.2036438 0.0164330 -0.0210908 0.9786799
1341846456.462149 -0.3488899 0.7581903 0.5164341 0.2103302 0.0157470 -0.0323562 0.9769679
1341846456.662113 -0.3634221 0.8386284 0.5208393 0.2135969 0.0074448 -0.0253046 0.9765657
1341846456.966238 -0.3757260 0.9108292 0.5127965 0.2155703 0.0043770 -0.0296360 0.9760287
1341846457.066343 -0.3772651 0.9388592 0.5190241 0.2185936 0.0046933 -0.0281712 0.9753980
1341846457.334093 -0.3695011 0.9837272 0.5124202 0.2300940 0.0086259 -0.0285252 0.9727120
1341846457.534037 -0.3589826 0.9894033 0.5011520 0.2178484 0.0193848 -0.0357028 0.9751367
1341846457.870077 -0.3167292 0.8452480 0.5261257 0.2027798 0.0462541 -0.0141466 0.9780290
1341846458.138044 -0.2942167 0.7142989 0.5004094 0.1894020 0.0592637 -0.0083767 0.9800738
1341846458.473980 -0.2858897 0.5268942 0.4677805 0.1511014 0.0587259 -0.0040522 0.9867640
1341846458.773965 -0.2888549 0.3981838 0.4222914 0.0910570 0.0404487 -0.0040320 0.9950157
1341846459.246034 -0.2891758 0.2422478 0.3533033 0.0249558 0.0329227 -0.0193437 0.9989590
1341846459.713908 -0.3091470 0.1534727 0.3181351 -0.0290349 0.0448370 -0.1654785 0.9847657
1341846460.218224 -0.3429645 0.1694196 0.2918124 -0.0784593 -0.0119526 -0.3906525 0.9171106
1341846460.618376 -0.3520094 0.1778163 0.2629168 -0.1350458 -0.0436525 -0.5003940 0.8540860
1341846460.953981 -0.3739665 0.1768550 0.2589910 -0.1851459 -0.0514755 -0.5758968 0.7946157
1341846461.190395 -0.3799924 0.1743485 0.2602983 -0.1888780 -0.0283137 -0.5660836 0.8019182
1341846461.657948 -0.3753712 0.1652408 0.2916708 -0.1379662 0.0040558 -0.4782919 0.8672864
1341846462.058066 -0.3749283 0.1510215 0.2990872 -0.0553134 0.0249451 -0.2977509 0.9527133
1341846462.871842 -0.3575627 0.0743723 0.2651898 0.0426124 0.0120960 0.1042555 0.9935637
1341846465.409986 -0.3874859 0.1482141 0.2515288 0.0473248 0.1259885 0.6750308 0.7254108
1341846465.982097 -0.3683127 0.1476832 0.2211789 0.0315224 0.0867330 0.4983020 0.8620782
1341846466.550013 -0.3826544 0.1496965 0.2381224 0.0328047 0.0738380 0.3033705 0.9494410
1341846467.086519 -0.3544352 0.1521068 0.2945035 -0.0292498 0.0662562 0.1097859 0.9913131
1341846467.558053 -0.2780908 0.1369225 0.2339402 -0.0058084 -0.0038166 0.0006614 0.9999756
1341846468.158486 -0.0924930 0.2177560 0.0463243 0.0122315 -0.0793071 0.0299895 0.9963239
1341846468.762147 0.0038127 0.2188948 -0.0049488 -0.0484581 -0.0171863 0.0057924 0.9986606
1341846469.466076 0.0373023 0.2122758 -0.0214632 -0.0282076 0.0026294 0.0111935 0.9995360
1341846470.470041 0.0603616 0.1932044 -0.0486787 0.0021623 0.0293364 0.0310907 0.9990836
