1341846468.594314 0.0000000 0.0000000 0.0000000 0.0000000 0.0000000 0.0000000 1.0000000
1341846468.730126 0.0124927 -0.0121957 0.0008586 0.0032818 0.0069854 -0.0022865 0.9999676
1341846468.762147 0.0123325 -0.0093203 -0.0017481 0.0077674 0.0064850 0.0013109 0.9999480
1341846468.830113 0.0239490 -0.0055662 -0.0030023 0.0100623 0.0090148 -0.0034264 0.9999028
1341846468.930161 0.0283621 -0.0083084 -0.0082002 0.0181394 0.0119304 0.0006292 0.9997641
1341846469.030028 0.0312379 -0.0103373 -0.0028945 0.0244969 0.0134866 0.0064319 0.9995883
1341846469.198284 0.0358778 -0.0101726 -0.0114228 0.0291987 0.0153096 0.0067103 0.9994339
1341846469.398298 0.0368766 -0.0076485 -0.0197980 0.0307155 0.0214296 0.0069919 0.9992740
1341846469.602391 0.0368943 -0.0067557 -0.0237387 0.0219142 0.0302425 0.0050859 0.9992894
1341846470.038184 0.0360015 -0.0067495 -0.0257921 0.0264757 0.0471064 0.0073070 0.9985122
1341846470.107943 0.0361090 -0.0070678 -0.0271641 0.0310378 0.0506825 0.0100586 0.9981818
1341846470.202144 0.0359804 -0.0068366 -0.0281265 0.0423849 0.0549667 0.0166452 0.9974493
1341846470.438051 0.0359515 -0.0068216 -0.0281810 0.0616358 0.0559225 0.0234227 0.9962555
1341846470.606133 0.0359799 -0.0068349 -0.0281465 0.0667669 0.0520074 0.0258251 0.9960775
