1341846434.710184 0.0000000 0.0000000 0.0000000 0.0000000 0.0000000 0.0000000 1.0000000
1341846434.878202 0.0437081 -0.0070140 -0.0239092 0.0019011 0.0003264 -0.0083515 0.9999633
1341846434.914148 0.0449465 -0.0136405 -0.0494560 0.0004955 -0.0052932 -0.0180766 0.9998225
1341846434.978088 0.0692296 -0.0214431 -0.0415749 -0.0011233 -0.0277548 -0.0289330 0.9991953
1341846435.045942 0.1006854 -0.0268792 -0.0435180 0.0017060 -0.0370953 -0.0276448 0.9989278
1341846435.077985 0.1157764 -0.0305061 -0.0465226 0.0036911 -0.0362742 -0.0279829 0.9989432
1341846435.113961 0.1185026 -0.0402433 -0.0512970 0.0069689 -0.0344254 -0.0280732 0.9989886
1341846435.182052 0.1356610 -0.0363119 -0.0573342 0.0126841 -0.0399998 -0.0244558 0.9988198
1341846435.246495 0.1598290 -0.0487377 -0.0654396 0.0174068 -0.0523389 -0.0143333 0.9983748
1341846435.319946 0.1699773 -0.0430502 -0.0732960 0.0173069 -0.0692873 -0.0135048 0.9973552
1341846435.382078 0.2033817 -0.0563856 -0.0636260 0.0132139 -0.0799173 -0.0093534 0.9966700
1341846435.450323 0.2298608 -0.0564366 -0.0682670 0.0187126 -0.0889117 -0.0057420 0.9958472
1341846435.513983 0.2565607 -0.0514728 -0.0574545 0.0198912 -0.0880260 -0.0090804 0.9958782
1341846435.582003 0.2690710 -0.0683910 -0.0657673 0.0154716 -0.0890096 -0.0120975 0.9958371
1341846435.618180 0.2764447 -0.0690063 -0.0722499 0.0192706 -0.0954585 -0.0123777 0.9951699
1341846435.681920 0.3222679 -0.0700284 -0.0628688 0.0244429 -0.1041130 -0.0144533 0.9941600
1341846435.750187 0.3443114 -0.0749352 -0.0739532 0.0251180 -0.1079004 -0.0165690 0.9937062
1341846435.818082 0.3778989 -0.0751140 -0.0732076 0.0270214 -0.1154458 -0.0185473 0.9927729
1341846435.886101 0.4024970 -0.0795610 -0.0789961 0.0285368 -0.1223615 -0.0190641 0.9918921
1341846435.986080 0.4421795 -0.0969210 -0.0897002 0.0287918 -0.1339242 -0.0134344 0.9904822
1341846436.050565 0.4748545 -0.0842396 -0.0805484 0.0293697 -0.1447391 -0.0090712 0.9889923
1341846436.118116 0.4985747 -0.0856911 -0.0723229 0.0263934 -0.1534510 -0.0054396 0.9877887
1341846436.185994 0.5254436 -0.1000739 -0.0769890 0.0270051 -0.1572350 -0.0016605 0.9871905
1341846436.253965 0.5570760 -0.0723245 -0.0674342 0.0296015 -0.1626347 0.0023716 0.9862394
1341846436.422052 0.5769172 -0.0992104 -0.0631445 0.0244581 -0.1682934 -0.0002198 0.9854335
1341846436.553975 0.5962319 -0.1007687 -0.0278717 0.0228764 -0.1843278 -0.0007180 0.9825983
1341846436.622042 0.6175992 -0.0973921 -0.0234160 0.0199669 -0.1963304 -0.0039802 0.9803264
1341846436.690078 0.6230162 -0.1027236 0.0037242 0.0194445 -0.2055973 -0.0073586 0.9784158
1341846436.754167 0.6352599 -0.1031341 0.0164783 0.0185830 -0.2187437 -0.0112195 0.9755409
1341846436.822079 0.6602446 -0.0944067 0.0104332 0.0241555 -0.2341697 -0.0140789 0.9717936
1341846436.922139 0.6947670 -0.1099155 0.0549289 0.0174275 -0.2460607 -0.0047834 0.9690859
1341846437.058136 0.7458521 -0.1085469 0.0599053 0.0125192 -0.2632669 0.0031353 0.9646367
1341846437.158050 0.7723874 -0.0900685 0.0753463 0.0038897 -0.2733989 0.0048739 0.9618805
1341846437.258123 0.7979684 -0.0879653 0.1036142 -0.0228436 -0.2820405 0.0029482 0.9591260
1341846437.396140 0.8261486 -0.0981274 0.1259363 -0.0450013 -0.2990975 0.0046080 0.9531497
1341846437.500080 0.8529322 -0.0992620 0.1479248 -0.0602178 -0.3134603 0.0017489 0.9476885
1341846437.600736 0.8791772 -0.1070128 0.1906237 -0.0523929 -0.3252324 0.0059052 0.9441631
1341846437.700232 0.8991963 -0.0909236 0.2268932 -0.0450067 -0.3240106 0.0005490 0.9449821
1341846437.795294 0.9257900 -0.1005549 0.2282828 -0.0398620 -0.3053153 -0.0177085 0.9512518
1341846437.930096 0.9525535 -0.1045237 0.2373544 -0.0355183 -0.2948584 -0.0083942 0.9548437
1341846438.030032 0.9760593 -0.0892328 0.2321410 -0.0416493 -0.2980938 -0.0028842 0.9536232
1341846438.298333 0.9639136 -0.1140433 0.3037003 -0.0376360 -0.2907765 -0.0123497 0.9559707
1341846438.634113 0.8684776 -0.0892758 0.3133470 -0.0415644 -0.2520563 0.0018647 0.9668177
1341846438.734146 0.8427931 -0.0940613 0.3340347 -0.0419330 -0.2263825 0.0069220 0.9731108
1341846438.966314 0.7517369 -0.0839921 0.3321484 -0.0457792 -0.1763174 0.0025210 0.9832650
1341846439.101969 0.7092515 -0.0922955 0.3458907 -0.0364784 -0.1486671 0.0007895 0.9882140
1341846439.234198 0.6458473 -0.0878672 0.3371051 -0.0222536 -0.1170586 0.0027312 0.9928719
1341846439.369920 0.5696521 -0.0890684 0.3257501 -0.0115106 -0.0875549 -0.0025611 0.9960899
1341846439.538102 0.4653821 -0.1039624 0.3112723 0.0040896 -0.0660354 -0.0060906 0.9977903
1341846439.774173 0.3966593 -0.0983815 0.3121125 0.0178821 -0.0440920 -0.0013548 0.9988665
1341846439.906194 0.3323864 -0.0998216 0.3122280 0.0158855 -0.0129073 -0.0070204 0.9997659
1341846440.106449 0.2460794 -0.0821698 0.3145934 0.0078935 0.0305157 -0.0020744 0.9995010
1341846440.274220 0.1333048 -0.0958865 0.3389357 0.0177775 0.0537596 0.0064005 0.9983751
1341846440.442063 0.0646940 -0.0852421 0.3385296 0.0279845 0.0779798 0.0047660 0.9965507
1341846440.642042 -0.0503640 -0.0790807 0.3370644 0.0280484 0.1052747 -0.0072644 0.9940210
1341846440.846329 -0.1497107 -0.0807179 0.3369538 0.0155650 0.1296235 -0.0037253 0.9914341
1341846441.052118 -0.2745638 -0.0772383 0.3552293 0.0158502 0.1374895 0.0157330 0.9902514
1341846441.282130 -0.3584067 -0.0733262 0.3428875 0.0164100 0.1525235 0.0115153 0.9880965
1341846441.445996 -0.4305494 -0.0771390 0.3425430 0.0190137 0.1654417 0.0042761 0.9860270
1341846441.614425 -0.5086680 -0.0938658 0.3475727 0.0189612 0.1677373 0.0036030 0.9856428
1341846441.850011 -0.5953528 -0.0793378 0.3695044 0.0090703 0.1853569 0.0042612 0.9826202
1341846442.018070 -0.6710684 -0.0956908 0.4132997 -0.0105616 0.1915418 0.0108525 0.9813676
1341846442.186309 -0.7340987 -0.1238008 0.4518398 -0.0120397 0.2016883 0.0215508 0.9791386
1341846442.286112 -0.7734976 -0.1183541 0.3844350 -0.0162020 0.2148392 0.0144529 0.9764081
1341846442.455016 -0.8184794 -0.1397368 0.5024637 -0.0410262 0.2595355 0.0193293 0.9646681
1341846442.522074 -0.8320013 -0.1413165 0.5016093 -0.0441404 0.2712784 0.0276089 0.9610918
1341846442.585989 -0.8392990 -0.1414202 0.4941961 -0.0566078 0.2928563 0.0330008 0.9539086
1341846442.721990 -0.8657443 -0.1427151 0.5797467 -0.0548766 0.3331069 0.0256891 0.9409401
1341846442.922114 -0.9531376 -0.1400966 0.6480326 -0.0541070 0.3529752 0.0245386 0.9337445
1341846443.090123 -0.9988037 -0.1536992 0.7249948 -0.0469361 0.3606540 0.0367211 0.9307939
1341846443.289997 -1.0387250 -0.1535115 0.7885845 -0.0384949 0.3573929 0.0531338 0.9316465
1341846443.558139 -1.0938214 -0.1254144 0.8433618 -0.0444543 0.3836399 0.0556176 0.9207339
1341846443.770837 -1.1508379 -0.1407924 0.9315346 -0.0654161 0.4199571 0.0668355 0.9027125
1341846443.932086 -1.1946197 -0.1403167 1.0057350 -0.0787907 0.4162873 0.0696056 0.9031345
1341846444.129916 -1.2256875 -0.1320090 1.0628387 -0.0854325 0.4166472 0.0647808 0.9027236
1341846444.335959 -1.2512130 -0.1063706 1.1016645 -0.0955877 0.4080128 0.0741261 0.9049276
1341846444.630024 -1.2389599 -0.1191152 1.0751992 -0.0957958 0.3738083 0.0726296 0.9196823
1341846444.898025 -1.1791296 -0.1369579 0.9434853 -0.0762724 0.3629147 0.0730404 0.9258189
1341846445.134054 -1.1145090 -0.1377745 0.8357320 -0.0768923 0.3380641 0.0700624 0.9353563
1341846445.401934 -1.0123882 -0.1254810 0.7027866 -0.0718302 0.2823573 0.0412210 0.9557278
1341846445.638006 -0.8943627 -0.1282529 0.6160291 -0.0596698 0.2494783 0.0279103 0.9661372
1341846445.906156 -0.7662213 -0.1054515 0.5514287 -0.0407058 0.1758536 0.0197485 0.9833761
1341846446.174003 -0.6376120 -0.1159341 0.5018197 -0.0350244 0.1309300 0.0064440 0.9907518
1341846446.474066 -0.5121796 -0.0735390 0.4508466 -0.0471341 0.0910705 0.0285726 0.9943179
1341846446.810247 -0.3711649 -0.0474135 0.3710352 -0.0719945 0.0444588 0.0110642 0.9963523
1341846447.146292 -0.2071992 -0.0257255 0.3150861 -0.0900757 0.0267099 0.0130032 0.9954917
1341846447.488160 -0.1458099 -0.0138059 0.2884218 -0.1088420 0.0414199 0.0138944 0.9930986
1341846448.024057 -0.1630075 -0.0371231 0.2389854 -0.1346942 0.0374646 0.0243309 0.9898797
1341846448.518032 -0.1743595 -0.1150977 0.2168048 -0.1595777 0.0303496 0.0138103 0.9866221
1341846448.854125 -0.1782282 -0.1641205 0.2159258 -0.1832327 0.0284968 0.0096743 0.9826089
1341846449.357984 -0.1569931 -0.2423957 0.2223731 -0.2237543 0.0437508 0.0054343 0.9736480
1341846449.694129 -0.1451381 -0.3348568 0.3175283 -0.2207775 0.0528075 0.0111978 0.9738292
1341846449.861992 -0.1829378 -0.4038891 0.3977192 -0.2389455 0.0580795 0.0102243 0.9692405
1341846450.130133 -0.1647082 -0.4648083 0.5029135 -0.2376398 0.0625769 -0.0043853 0.9693257
1341846450.398035 -0.1744426 -0.5542216 0.6282206 -0.2573968 0.0534121 -0.0133112 0.9647366
1341846450.666178 -0.1628043 -0.6257616 0.7370728 -0.2743697 0.0291783 -0.0241614 0.9608778
1341846450.866022 -0.1622991 -0.6062055 0.7647756 -0.2799181 0.0066781 -0.0352838 0.9593520
1341846451.302134 -0.1895299 -0.6236532 0.8425888 -0.3012495 -0.0143018 -0.0524913 0.9519920
1341846451.970138 -0.1807997 -0.5684272 0.6392303 -0.2655593 0.0303781 -0.0560139 0.9619864
1341846452.342082 -0.2087812 -0.4688452 0.4616334 -0.1937185 0.0109765 -0.0337324 0.9804156
1341846452.742117 -0.2343103 -0.3568006 0.3515119 -0.1635191 0.0135464 -0.0104819 0.9863915
1341846453.078276 -0.3002790 -0.2964559 0.3110908 -0.1506347 0.0352223 -0.0164028 0.9878256
1341846453.346478 -0.3264301 -0.2531939 0.3089233 -0.1086764 0.0384001 -0.0378018 0.9926157
1341846453.619879 -0.3366173 -0.1554116 0.2938337 -0.0342845 0.0373938 -0.0391491 0.9979447
1341846453.987940 -0.3656909 -0.0476102 0.3010006 0.0056954 0.0427889 -0.0424145 0.9981672
1341846454.392062 -0.3796977 0.0916554 0.3077995 0.0154737 0.0374655 -0.0471104 0.9980669
1341846454.792135 -0.3895071 0.1857797 0.3561881 0.0573077 0.0277913 -0.0337137 0.9974000
1341846455.190190 -0.3725317 0.3469820 0.3753306 0.1020981 0.0417315 -0.0014087 0.9938976
1341846455.558173 -0.3786879 0.5008649 0.4092675 0.1075749 0.0226345 0.0045551 0.9939288
1341846455.826431 -0.3668591 0.5762941 0.4735802 0.1344309 0.0103957 0.0008469 0.9908681
1341846456.162325 -0.3587554 0.6985022 0.5158276 0.1917436 0.0149438 -0.0174114 0.9811768
1341846456.498080 -0.3667805 0.8018807 0.5288403 0.2128876 0.0140272 -0.0283750 0.9765639
1341846456.866247 -0.3850005 0.9315162 0.5361815 0.2192033 0.0031822 -0.0296997 0.9752219
1341846457.234155 -0.3868577 1.0073597 0.5431390 0.2343729 0.0056726 -0.0263252 0.9717737
1341846457.738024 -0.3480724 0.9401780 0.5466248 0.2001235 0.0358791 -0.0179667 0.9789487
1341846458.006046 -0.3260052 0.8305826 0.5406407 0.2034857 0.0538255 -0.0178926 0.9774335
1341846458.205943 -0.3089723 0.7122973 0.5233722 0.1826789 0.0636600 -0.0099874 0.9810587
1341846458.541965 -0.2916459 0.5242789 0.4736253 0.1451734 0.0568747 -0.0007188 0.9877699
1341846458.741981 -0.2954452 0.4225751 0.4451430 0.1012325 0.0485652 0.0012046 0.9936760
1341846459.156583 -0.3037676 0.2726470 0.3804680 0.0337220 0.0320158 -0.0169535 0.9987745
1341846459.646471 -0.3058330 0.1631994 0.3184570 -0.0212610 0.0461668 -0.1264598 0.9906687
1341846460.150105 -0.3475285 0.1691052 0.2958371 -0.0739858 -0.0100213 -0.3685515 0.9266043
1341846460.618376 -0.3567224 0.1897912 0.2666782 -0.1336308 -0.0435431 -0.4981442 0.8556280
1341846460.953981 -0.3824729 0.1878190 0.2661186 -0.1843697 -0.0513204 -0.5753897 0.7951733
1341846461.190395 -0.3899748 0.1833522 0.2589276 -0.1882201 -0.0284299 -0.5658996 0.8021986
1341846461.558036 -0.3853671 0.1779995 0.2952807 -0.1504531 -0.0014705 -0.5080432 0.8480883
1341846462.058066 -0.3787127 0.1527214 0.3012542 -0.0552855 0.0236816 -0.2979175 0.9526951
1341846462.599970 -0.3855431 0.1027652 0.2868024 0.0251794 0.0161355 -0.0356242 0.9989177
1341846463.165917 -0.3665455 0.0620928 0.2576922 0.0713804 0.0229638 0.2045708 0.9759756
1341846463.334210 -0.3586170 0.0467062 0.2635686 0.0763661 0.0298483 0.2713033 0.9589952
1341846465.409986 -0.3974277 0.1502077 0.2471542 0.0471575 0.1255298 0.6765588 0.7240764
1341846465.913915 -0.3896849 0.1501380 0.2385266 0.0430551 0.0974684 0.5313002 0.8404559
1341846466.518064 -0.3981124 0.1497505 0.2389747 0.0351699 0.0734933 0.3164074 0.9451181
1341846467.154292 -0.3618560 0.1499425 0.3020638 -0.0297241 0.0652937 0.0851630 0.9937809
1341846467.589949 -0.2782589 0.1456265 0.2366147 0.0036935 -0.0093600 0.0013087 0.9999485
1341846468.194517 -0.0820648 0.2554841 0.0545761 0.0048233 -0.0742455 0.0224747 0.9969751
1341846468.762147 -0.0032202 0.2243445 -0.0113109 -0.0484106 -0.0164853 0.0066017 0.9986696
