1341845688.561749 0.000000000 0.000000000 0.000000000 0.000000000 0.000000000 0.000000000 1.000000000
1341845688.593654 -0.007261829 -0.003963001 -0.003319943 0.000305697 -0.002031169 0.002969379 0.999993503
1341845688.629688 -0.011900987 0.000263546 -0.004154473 0.002328336 -0.006672126 0.006711825 0.999952495
1341845688.663680 -0.013404732 -0.002605697 -0.006179754 0.003805205 -0.011795418 0.012028097 0.999850869
1341845688.697719 -0.016367912 -0.006756327 -0.011257464 0.006409181 -0.016718740 0.017613057 0.999684513
1341845688.729899 -0.014117415 -0.005375925 -0.017371207 0.010903488 -0.023672933 0.020605490 0.999447882
1341845688.761762 -0.007695718 -0.004078322 -0.021095259 0.013266671 -0.027482733 0.020599250 0.999321938
1341845688.797687 -0.000201832 0.003750965 -0.020591959 0.015587004 -0.027475532 0.020202460 0.999296725
1341845688.829892 0.000726049 0.005278689 -0.021879500 0.015535058 -0.025609853 0.019313581 0.999364674
1341845688.865774 -0.003547966 0.005482011 -0.021730101 0.015073437 -0.024972107 0.019253127 0.999389052
1341845688.929779 -0.008495431 0.009300399 -0.028055390 0.015506085 -0.030822309 0.021971015 0.999163032
1341845688.965631 -0.011626758 0.012515370 -0.032549813 0.015927665 -0.033061363 0.019427272 0.999137521
1341845688.997750 -0.008104531 0.015478721 -0.041893926 0.014635425 -0.033027656 0.015830982 0.999221861
1341845689.029751 -0.004431748 0.025951497 -0.039763384 0.012139118 -0.031139424 0.010490061 0.999386251
1341845689.065755 -0.006357848 0.029279090 -0.040827535 0.008692110 -0.029372450 0.008503903 0.999494553
1341845689.097725 -0.012222313 0.019188074 -0.040368896 0.003184444 -0.027716041 0.010653578 0.999553978
1341845689.133718 -0.007973344 0.019954976 -0.039321478 0.001025275 -0.027216280 0.013331641 0.999540150
1341845689.165884 -0.010769414 0.033888016 -0.043347109 0.000473038 -0.026099045 0.016502824 0.999523044
1341845689.198264 -0.011764302 0.034876112 -0.040901247 -0.002995175 -0.025783241 0.019339744 0.999475956
1341845689.234322 -0.013317579 0.033925939 -0.041555595 -0.005576183 -0.024448274 0.020876212 0.999467552
1341845689.265745 -0.014252884 0.034055971 -0.041701518 -0.006757472 -0.024034960 0.023215558 0.999418676
1341845689.297769 -0.011574243 0.034795944 -0.043619182 -0.008273989 -0.024963414 0.024062978 0.999364436
1341845689.333650 -0.012630840 0.033449989 -0.041823931 -0.009384685 -0.023665270 0.023728929 0.999394238
1341845689.365881 -0.013089824 0.032514453 -0.040757153 -0.009233113 -0.023403807 0.023622025 0.999404311
1341845689.401592 -0.014655628 0.031254228 -0.043584336 -0.008272467 -0.023992030 0.022863256 0.999416471
1341845689.433744 -0.014235605 0.031213244 -0.045403436 -0.007622830 -0.024868110 0.022577930 0.999406695
1341845689.465651 -0.017270720 0.027665826 -0.045696791 -0.005260386 -0.025919823 0.022567999 0.999395430
1341845689.501840 -0.018309282 0.029050147 -0.047720574 -0.001308004 -0.029064072 0.019693637 0.999382675
1341845689.533687 -0.015545656 0.031014260 -0.047838211 0.001023030 -0.031201588 0.015689608 0.999389410
1341845689.565814 -0.015652927 0.030761356 -0.048082612 0.003274370 -0.031078532 0.012681940 0.999431133
1341845689.601682 -0.026877338 0.023525072 -0.058995083 0.005152880 -0.030964531 0.007937542 0.999475658
1341845689.633591 -0.025812233 0.026714899 -0.060565513 0.007666694 -0.034014814 0.003516949 0.999385715
1341845689.669672 -0.026768085 0.029023444 -0.058452625 0.008924342 -0.035644606 0.002219245 0.999322236
1341845689.701700 -0.028084558 0.030273005 -0.061748371 0.010160119 -0.037789501 0.002319637 0.999231398
1341845689.733773 -0.027011605 0.029973570 -0.059602447 0.010373935 -0.040814430 0.000926929 0.999112487
1341845689.769822 -0.026938297 0.031699833 -0.059876654 0.010862870 -0.042310234 -0.000722841 0.999045193
1341845689.802003 -0.026853440 0.029585764 -0.058477715 0.010746067 -0.044195037 -0.001010966 0.998964608
1341845689.833757 -0.026745787 0.029099740 -0.059113923 0.011643910 -0.047146369 -0.002353400 0.998817325
1341845689.869861 -0.030863095 0.030572047 -0.058279049 0.012677251 -0.048617702 -0.004483206 0.998726964
1341845689.901825 -0.029779555 0.028857626 -0.057308454 0.012480237 -0.050437402 -0.004303340 0.998640001
1341845689.937674 -0.032323919 0.030595113 -0.058340240 0.013854043 -0.052287478 -0.003530765 0.998529732
1341845689.969679 -0.028100731 0.029721290 -0.062228777 0.013811991 -0.054175951 -0.003579069 0.998429477
1341845690.003830 -0.025382748 0.032591593 -0.058703143 0.014083316 -0.054558713 -0.003636191 0.998404622
1341845690.037686 -0.027434034 0.029492680 -0.059273705 0.013623311 -0.054720700 -0.005209968 0.998395145
1341845690.069636 -0.025878938 0.030477991 -0.062043671 0.014171721 -0.054643169 -0.004805151 0.998393834
1341845690.106587 -0.028387323 0.029969726 -0.062398601 0.013959584 -0.054528002 -0.004220170 0.998405755
1341845690.138859 -0.026721887 0.030362692 -0.061875410 0.013829988 -0.055324722 -0.005795084 0.998355806
1341845690.169919 -0.026505023 0.029897455 -0.061175067 0.013912700 -0.054629315 -0.005101724 0.998396754
1341845690.206103 -0.023370681 0.034455612 -0.058337603 0.014085518 -0.055207890 -0.004598011 0.998364925
1341845690.237700 -0.028003622 0.029570756 -0.059343718 0.012706417 -0.055111840 -0.005423563 0.998384595
1341845690.269981 -0.030275958 0.029679243 -0.061389837 0.013514041 -0.055957075 -0.005670397 0.998325586
1341845690.306143 -0.028229095 0.031727504 -0.061728958 0.014178338 -0.057540100 -0.006833557 0.998219132
1341845690.338646 -0.027563760 0.032456201 -0.064000100 0.013417182 -0.057788305 -0.006266332 0.998219013
1341845690.373833 -0.029049782 0.031373527 -0.062442724 0.012198295 -0.057996273 -0.005691476 0.998226047
1341845690.405976 -0.027073886 0.029950585 -0.061809961 0.012123716 -0.058264796 -0.007005118 0.998202980
1341845690.437908 -0.027649000 0.031286806 -0.060259819 0.012401965 -0.057814691 -0.007220066 0.998224199
1341845690.473654 -0.029266024 0.030509798 -0.063243836 0.012174410 -0.058220919 -0.005939179 0.998211801
1341845690.505978 -0.028224658 0.028550997 -0.061248709 0.012513584 -0.060109060 -0.005746115 0.998096824
1341845690.537884 -0.026143799 0.031290442 -0.062191382 0.013230870 -0.060319602 -0.008272518 0.998057127
1341845690.573708 -0.025631761 0.031895328 -0.060428958 0.012659168 -0.058963101 -0.007273553 0.998153389
1341845690.605848 -0.028629461 0.031372018 -0.058697738 0.012342425 -0.058156535 -0.005765134 0.998214543
1341845690.641747 -0.027001832 0.030454418 -0.060244475 0.013031390 -0.058960628 -0.006145651 0.998156369
1341845690.673751 -0.024784509 0.030952256 -0.060505442 0.013074095 -0.058396060 -0.006560317 0.998186350
1341845690.706003 -0.024682809 0.029597275 -0.056702502 0.013201952 -0.057373758 -0.006845715 0.998242021
1341845690.741684 -0.024787247 0.031028684 -0.059076302 0.014249501 -0.056694765 -0.007429553 0.998262227
1341845690.773770 -0.024077252 0.029728044 -0.057907362 0.014305084 -0.056024775 -0.007345237 0.998299897
1341845690.805715 -0.021712108 0.029888671 -0.058212020 0.014660338 -0.055503368 -0.005950806 0.998333156
1341845690.841674 -0.021318749 0.030869987 -0.057021540 0.015021092 -0.054923680 -0.005812514 0.998360634
1341845690.873770 -0.017992008 0.026832538 -0.058246903 0.014092125 -0.054541983 -0.005213088 0.998398423
1341845690.909837 -0.022982297 0.031555451 -0.054108765 0.014482767 -0.053138219 -0.005292959 0.998468101
1341845690.941576 -0.023310801 0.031782970 -0.054966565 0.014342763 -0.052934524 -0.005197941 0.998481452
1341845690.973879 -0.021731984 0.030555414 -0.054639731 0.014255515 -0.052695569 -0.005202160 0.998495281
1341845691.011558 -0.019654341 0.031479727 -0.054412540 0.014150072 -0.052112460 -0.003977318 0.998533070
1341845691.077986 -0.018632375 0.029527888 -0.054532781 0.014394920 -0.052260872 -0.005062469 0.998516917
1341845691.109685 -0.018096570 0.030491158 -0.055197749 0.015070550 -0.051664069 -0.005305405 0.998536706
1341845691.141759 -0.015980026 0.031036692 -0.051640760 0.015576626 -0.050912574 -0.004631186 0.998570919
1341845691.177729 -0.020721141 0.031650905 -0.055697881 0.016459497 -0.050471578 -0.005934082 0.998572230
1341845691.209644 -0.017245030 0.031829536 -0.055919301 0.016491896 -0.051092457 -0.007626205 0.998528659
1341845691.241757 -0.017685451 0.031332914 -0.056575131 0.016297312 -0.049696177 -0.007648480 0.998602152
1341845691.277595 -0.023126870 0.031731315 -0.052366387 0.017291944 -0.049103938 -0.006989744 0.998619497
1341845691.310138 -0.019279612 0.032869030 -0.058688831 0.017941641 -0.051609751 -0.007684039 0.998476565
1341845691.345620 -0.015040861 0.030025268 -0.059733227 0.017292745 -0.051549032 -0.008917621 0.998480916
1341845691.378062 -0.016213378 0.030158725 -0.058108933 0.017873434 -0.049291559 -0.010119999 0.998573244
1341845691.451922 -0.012069487 0.036602188 -0.057923935 0.019301912 -0.049481187 -0.011054960 0.998527348
1341845691.509739 -0.015953289 0.032477599 -0.054562408 0.017854044 -0.047373053 -0.011133209 0.998655617
1341845691.545833 -0.013262340 0.035865866 -0.054938097 0.018704491 -0.048121270 -0.012956397 0.998582304
1341845691.578399 -0.008578484 0.028187279 -0.058598176 0.016439030 -0.047654994 -0.014118477 0.998628795
1341845691.613857 -0.009105743 0.031939156 -0.059737023 0.017075984 -0.044461314 -0.018781561 0.998688579
1341845691.645632 -0.013311706 0.030524725 -0.056292050 0.018201951 -0.040926568 -0.021992628 0.998754263
1341845691.677793 -0.018636944 0.034058549 -0.057041001 0.019774420 -0.040116649 -0.020334905 0.998792291
1341845691.713727 -0.018450910 0.033701558 -0.056548920 0.019992035 -0.041872025 -0.017430572 0.998770833
1341845691.746050 -0.017503291 0.033343110 -0.054159559 0.020464947 -0.041859780 -0.019907443 0.998715520
1341845691.778411 -0.018121818 0.033987045 -0.056084000 0.019219074 -0.039062064 -0.021773893 0.998814642
1341845691.813646 -0.017386414 0.033083901 -0.054171436 0.017973203 -0.038324229 -0.019334346 0.998916626
1341845691.845603 -0.017373968 0.032924980 -0.054019112 0.018088309 -0.039489333 -0.017965199 0.998894751
1341845691.881595 -0.017564984 0.033401188 -0.054829344 0.018402068 -0.040139545 -0.020260392 0.998819172
1341845691.913600 -0.016550278 0.032642793 -0.052072842 0.018408865 -0.039334282 -0.020448100 0.998847246
1341845691.945997 -0.015639534 0.035365008 -0.052899055 0.019414714 -0.040163212 -0.016394788 0.998869956
1341845691.981657 -0.021650301 0.030764487 -0.056995396 0.020651001 -0.044037454 -0.014826048 0.998706400
1341845692.013904 -0.010259581 0.033468377 -0.058633097 0.022769930 -0.049637768 -0.011765396 0.998438358
1341845692.049676 -0.010361660 0.034105062 -0.058970682 0.023277855 -0.050243989 -0.010581610 0.998409629
1341845692.081862 -0.010536605 0.033372160 -0.059079632 0.023703979 -0.051239960 -0.010074915 0.998354197
1341845692.113695 -0.008869755 0.034660470 -0.060949672 0.024462514 -0.052520141 -0.011077434 0.998258710
1341845692.149736 -0.008258152 0.032667886 -0.061517823 0.023734748 -0.051703680 -0.012417202 0.998303175
1341845692.182123 -0.009277067 0.032553501 -0.057939511 0.024881605 -0.050706629 -0.011837367 0.998333395
1341845692.213661 -0.007510220 0.034383226 -0.061019056 0.026024302 -0.051401131 -0.010558642 0.998283088
1341845692.249828 -0.008436034 0.033192914 -0.061992053 0.025541471 -0.050917219 -0.011137404 0.998314083
1341845692.282146 -0.008794746 0.033090003 -0.061103430 0.024976522 -0.050056860 -0.011592504 0.998366714
1341845692.317711 -0.009151608 0.033285487 -0.061080780 0.024905438 -0.050813336 -0.011563103 0.998330593
1341845692.349688 -0.004893212 0.032427017 -0.061672911 0.025216388 -0.052749548 -0.011129754 0.998227298
1341845692.381560 -0.003606548 0.030715369 -0.063769214 0.026232764 -0.052958373 -0.012308048 0.998176217
1341845692.417776 -0.004411763 0.030697906 -0.063021809 0.027140353 -0.052301720 -0.013649470 0.998169124
1341845692.449672 -0.006197089 0.032939471 -0.064322025 0.028152989 -0.051981986 -0.014926231 0.998139501
1341845692.481594 -0.004425000 0.030509586 -0.063145950 0.028818179 -0.052875295 -0.015428253 0.998065948
1341845692.517778 -0.003850502 0.029184425 -0.065250359 0.029773135 -0.053128038 -0.015939519 0.998016477
1341845692.549744 -0.007539068 0.033153299 -0.067091174 0.031780027 -0.052496020 -0.016503561 0.997978866
1341845692.585822 -0.002379207 0.030352384 -0.069790088 0.031510815 -0.053324394 -0.017436586 0.997927606
1341845692.617836 -0.001580888 0.030261960 -0.066191100 0.032077905 -0.052648839 -0.016906824 0.997954547
1341845692.649770 -0.004010703 0.030767379 -0.069854133 0.032832235 -0.052193444 -0.016035954 0.997968256
1341845692.685749 -0.007058383 0.032137841 -0.071692958 0.033378027 -0.052678831 -0.016548939 0.997916341
1341845692.717676 -0.001692440 0.029123228 -0.075502381 0.032921288 -0.053099360 -0.016871771 0.997903764
1341845692.749897 -0.004804284 0.029197104 -0.073035955 0.033132207 -0.051182926 -0.016052449 0.998010457
1341845692.785833 -0.006855705 0.030606510 -0.072521612 0.034335632 -0.051759433 -0.016451789 0.997933507
1341845692.817657 -0.004921967 0.030362153 -0.074524067 0.035384193 -0.052667782 -0.020301232 0.997778475
1341845692.853833 -0.004493908 0.029668661 -0.074959755 0.036110539 -0.051307280 -0.021690456 0.997794092
1341845692.885614 -0.008131554 0.030843204 -0.075764701 0.037971925 -0.050762039 -0.021879852 0.997748792
1341845692.917728 -0.008579588 0.027660361 -0.074644715 0.038482223 -0.051275071 -0.023835886 0.997658193
1341845692.953573 -0.003072843 0.030007610 -0.075881734 0.039669000 -0.051666092 -0.023314465 0.997603834
1341845692.985667 -0.002325082 0.029589061 -0.079320319 0.040648498 -0.051230453 -0.022837039 0.997597933
1341845693.017585 -0.002464493 0.030081663 -0.080658354 0.040744916 -0.051231813 -0.023816718 0.997570992
1341845693.053684 -0.002157896 0.029620335 -0.078137055 0.040697102 -0.050670784 -0.023634221 0.997605920
1341845693.086059 -0.002891464 0.030375350 -0.082009114 0.041633155 -0.050451547 -0.022371057 0.997607589
1341845693.121690 -0.003480682 0.030609917 -0.084553584 0.041779298 -0.051492471 -0.020593690 0.997586548
1341845693.153852 -0.003362124 0.030899471 -0.084648557 0.040906068 -0.052388344 -0.021665290 0.997553408
1341845693.185655 -0.002561406 0.029830625 -0.079686828 0.040151961 -0.050805539 -0.023073172 0.997634292
1341845693.221687 -0.008452207 0.031191742 -0.079117157 0.040437311 -0.049441680 -0.020119300 0.997755289
1341845693.254518 -0.009317965 0.033444654 -0.079721957 0.041388609 -0.052575380 -0.018151008 0.997593760
1341845693.289735 -0.002256894 0.031776499 -0.086932369 0.041073721 -0.053455822 -0.019985152 0.997524977
1341845693.321741 0.011834239 0.032441307 -0.084030516 0.040614281 -0.051134463 -0.018268025 0.997698367
1341845693.353715 0.009089314 0.031513847 -0.081642076 0.040645480 -0.047496520 -0.016878149 0.997901380
1341845693.421993 0.004048239 0.028951757 -0.084195413 0.040691901 -0.043611463 -0.018041536 0.998056471
1341845693.453700 0.003539288 0.029990854 -0.083965167 0.041144997 -0.041790530 -0.020286489 0.998072684
1341845693.489783 0.003151809 0.028863043 -0.081479639 0.042065427 -0.040207218 -0.021282032 0.998078585
1341845693.522084 0.002338152 0.026490370 -0.078977302 0.043701049 -0.041053496 -0.020108102 0.997998238
1341845693.557666 -0.000188797 0.027984252 -0.081811935 0.045685854 -0.041947585 -0.021674138 0.997839391
1341845693.589792 0.001656309 0.029352551 -0.080015622 0.046731133 -0.042775571 -0.022937560 0.997727573
1341845693.622158 0.003804053 0.030716537 -0.081226707 0.046978790 -0.042005200 -0.023278950 0.997740746
1341845693.689929 0.003418237 0.034228321 -0.082939431 0.046339981 -0.040647138 -0.022288015 0.997849524
1341845693.721602 0.005506459 0.036820579 -0.085037604 0.044528436 -0.039300524 -0.022846071 0.997973323
1341845693.757636 0.002195018 0.035182200 -0.079461768 0.042555176 -0.038221981 -0.023346247 0.998089731
1341845693.789776 -0.000324998 0.036256175 -0.081072614 0.041880514 -0.038779251 -0.022354305 0.998119473
1341845693.825637 0.002319391 0.038897179 -0.080158494 0.040622305 -0.039594546 -0.022371881 0.998139083
1341845693.857724 0.001346061 0.033619784 -0.078318104 0.039059021 -0.039297082 -0.021600243 0.998230219
1341845693.889741 0.006036586 0.036304478 -0.078194425 0.039951112 -0.039831743 -0.019573683 0.998215497
1341845693.925573 0.004775545 0.036512937 -0.076479763 0.039480109 -0.039366316 -0.018883610 0.998265982
1341845693.957722 0.000681098 0.032760698 -0.077183910 0.039473351 -0.038259163 -0.018351350 0.998319268
1341845693.990410 0.005884108 0.033198755 -0.080697030 0.040356118 -0.037954845 -0.017904343 0.998303652
1341845694.025740 0.004503758 0.035219353 -0.078705899 0.041129183 -0.036373969 -0.018800134 0.998314500
1341845694.057728 0.000537832 0.033351772 -0.078255028 0.041436050 -0.035021283 -0.019308623 0.998340487
1341845694.093631 0.002192369 0.032443143 -0.079227746 0.042796366 -0.035430457 -0.018751271 0.998279274
1341845694.125598 0.002137548 0.030607248 -0.078587390 0.043958627 -0.035600886 -0.019455470 0.998209238
1341845694.157890 0.005124051 0.034243457 -0.081834339 0.044965733 -0.035300616 -0.019226208 0.998179495
1341845694.193528 0.002701339 0.030722626 -0.079582103 0.045476854 -0.034558404 -0.019839790 0.998170316
1341845694.226254 0.001645557 0.030376274 -0.079214670 0.046845466 -0.034472670 -0.019994138 0.998106897
1341845694.261793 0.004722382 0.031171339 -0.079734519 0.047393881 -0.034590390 -0.019162729 0.998093247
1341845694.293655 0.001539799 0.031776473 -0.078834787 0.047979929 -0.034178827 -0.017699318 0.998106420
1341845694.325844 0.001154240 0.029367747 -0.080748312 0.048855644 -0.035733648 -0.014983133 0.998053968
1341845694.361761 -0.000028017 0.030992500 -0.084020980 0.050529242 -0.037807532 -0.013320973 0.997917771
1341845694.393754 0.003972393 0.032528840 -0.082114622 0.051687531 -0.040314756 -0.012951888 0.997765183
1341845694.425809 0.000015877 0.033104949 -0.081095003 0.051599447 -0.041174840 -0.013305195 0.997729957
1341845694.461731 0.005615322 0.034353010 -0.082779981 0.051661633 -0.043267496 -0.013530370 0.997635186
1341845694.493931 0.006393158 0.036294408 -0.084053241 0.050500501 -0.043120284 -0.014504579 0.997687280
1341845694.529694 0.004848677 0.035631031 -0.083423071 0.049144816 -0.042547125 -0.015627455 0.997762620
1341845694.561652 0.003520648 0.032057155 -0.083814859 0.048614528 -0.043532100 -0.016054399 0.997739375
1341845694.595586 0.002608894 0.033209514 -0.083622627 0.049632508 -0.044833079 -0.015063846 0.997647047
1341845694.629850 0.003323454 0.030549064 -0.086852983 0.050506651 -0.046646398 -0.014050769 0.997534871
1341845694.661659 0.007645027 0.032353427 -0.084124833 0.052424517 -0.047902208 -0.012836781 0.997392714
1341845694.693720 0.028277334 0.038655110 -0.081782274 0.052556384 -0.046840239 -0.009917268 0.997469544
1341845694.735664 0.028243244 0.036922920 -0.080906227 0.050463546 -0.039810587 -0.009690133 0.997885108
1341845694.767988 0.022596721 0.038986534 -0.081991225 0.048903294 -0.033218943 -0.007788553 0.998220563
1341845694.803611 0.017820157 0.038899552 -0.074678108 0.047011621 -0.027225683 -0.006548358 0.998501778
1341845694.835585 0.011655415 0.036279589 -0.073271036 0.045740485 -0.022265447 -0.006022029 0.998687029
1341845694.867728 0.014096039 0.038796842 -0.072973460 0.045420334 -0.019985249 -0.005076221 0.998755157
1341845694.903566 0.015471385 0.038633998 -0.071575858 0.043722004 -0.017724274 -0.004923487 0.998874366
1341845694.935679 0.011815343 0.034263358 -0.071529903 0.042930160 -0.015228028 -0.004595648 0.998951435
1341845694.967669 0.015246633 0.034846541 -0.071146376 0.043426897 -0.014532326 -0.002766598 0.998947084
1341845695.003730 0.021663249 0.036094602 -0.068870842 0.043603279 -0.013444585 -0.000875015 0.998958111
1341845695.035689 0.021155074 0.035285015 -0.065512657 0.043533221 -0.010000150 -0.001180223 0.999001265
1341845695.072465 0.021423703 0.034704320 -0.065180942 0.043492284 -0.008410910 -0.001088919 0.999017775
1341845695.103895 0.020741332 0.034088645 -0.069039717 0.043611262 -0.009757931 -0.000134937 0.999000907
1341845695.135680 0.009240780 0.027726075 -0.067407236 0.044050816 -0.011593578 -0.000426957 0.998961926
1341845695.172193 0.007093647 0.027771505 -0.067118473 0.046997808 -0.017140195 -0.000189687 0.998747885
1341845695.203618 0.010569735 0.025891926 -0.078873120 0.049393687 -0.025201172 0.000611771 0.998461246
1341845695.235612 0.010057499 0.026144564 -0.078784265 0.053102385 -0.032690860 0.000755307 0.998053551
1341845695.271738 0.012059566 0.027034396 -0.076406360 0.056137748 -0.038152814 -0.000889237 0.997693360
1341845695.303569 0.012900983 0.031586461 -0.072550952 0.058285635 -0.042584669 -0.001337167 0.997390330
1341845695.335657 0.011335433 0.032131463 -0.071758725 0.059102811 -0.045625620 -0.003555903 0.997202337
1341845695.371706 0.012515244 0.032009460 -0.072531439 0.059334546 -0.048705969 -0.006529350 0.997027814
1341845695.403745 0.011101445 0.030382693 -0.075396895 0.059504624 -0.051461421 -0.009259296 0.996857643
1341845695.435657 0.010286019 0.028874421 -0.076217405 0.060787585 -0.055010311 -0.009482663 0.996588588
1341845695.471720 0.009192327 0.032841958 -0.077433966 0.062765464 -0.058929600 -0.008768672 0.996248424
1341845695.503710 0.009306476 0.032318734 -0.083446316 0.062531009 -0.062291749 -0.009363608 0.996053159
1341845695.539693 0.009246401 0.033014923 -0.078026041 0.062384523 -0.064519785 -0.011219609 0.995901346
1341845695.603908 0.008994241 0.033666249 -0.077094905 0.063096158 -0.066868410 -0.013241898 0.995676696
1341845695.665980 0.022840820 0.036888529 -0.079192378 0.062798522 -0.072145641 -0.013663117 0.995321393
1341845695.701693 0.022723690 0.036983080 -0.080258742 0.062826067 -0.073248535 -0.013027670 0.995247602
1341845695.733686 0.022739712 0.037031945 -0.079642966 0.062642224 -0.074068107 -0.012288949 0.995207906
1341845695.769679 0.022892963 0.037294753 -0.081316382 0.062127337 -0.074250989 -0.012159404 0.995228171
1341845695.801697 0.022667248 0.037245095 -0.080942139 0.060716927 -0.073945716 -0.011973832 0.995340168
1341845695.833635 0.022691218 0.036901586 -0.080685332 0.059783105 -0.073858947 -0.010781240 0.995416820
1341845695.869766 0.022796828 0.037070941 -0.081252337 0.059613179 -0.073380709 -0.010199863 0.995468438
1341845695.901827 0.023112006 0.037631437 -0.083710462 0.058494952 -0.073252037 -0.009266200 0.995553434
1341845695.933900 0.023145607 0.037521206 -0.082524225 0.057111364 -0.073405325 -0.008561892 0.995628774
1341845695.969774 0.022969672 0.037138011 -0.081018940 0.056323797 -0.072603054 -0.008579072 0.995732307
1341845696.001940 0.022927457 0.037071109 -0.080403931 0.055462394 -0.071592793 -0.007961765 0.995858908
1341845696.037778 0.022948921 0.038117465 -0.080933101 0.054781020 -0.070906147 -0.006379756 0.995957136
1341845696.069962 0.022807389 0.037013713 -0.079701297 0.053681251 -0.071075983 -0.003898619 0.996017694
1341845696.102048 0.022822922 0.036897078 -0.079844721 0.053513918 -0.071929082 -0.002147383 0.995970845
1341845696.137759 0.022739081 0.036896445 -0.079250515 0.053036351 -0.072206117 -0.002341772 0.995975852
1341845696.169934 0.022774158 0.036934230 -0.079430528 0.052157994 -0.072530404 -0.002000409 0.995999396
1341845696.201602 0.022918103 0.037380543 -0.081466146 0.051476188 -0.072674923 -0.003210328 0.996021211
1341845696.237582 0.022900414 0.037371948 -0.081878133 0.049789600 -0.072501451 -0.004108476 0.996116281
1341845696.269654 0.022879796 0.037400611 -0.081668444 0.048449520 -0.073314190 -0.004359940 0.996121764
1341845696.305713 0.022862494 0.037563019 -0.082547888 0.048098739 -0.074228339 -0.003938175 0.996072888
1341845696.337790 0.022943106 0.037072424 -0.080425583 0.047760922 -0.074864320 -0.002619178 0.996045828
1341845696.369780 0.022999607 0.037350643 -0.081995942 0.047474734 -0.075419098 -0.002341824 0.996018350
1341845696.406019 0.023031859 0.037708238 -0.083036751 0.046108376 -0.075693518 -0.002644062 0.996060967
1341845696.437910 0.023008980 0.037344828 -0.081357457 0.044396233 -0.075859763 -0.002822889 0.996125638
1341845696.473667 0.022883855 0.037125558 -0.079603195 0.043048479 -0.075050481 -0.003142708 0.996245146
1341845696.505801 0.022699380 0.036896247 -0.079235747 0.041300252 -0.074202210 -0.002575379 0.996384323
1341845696.537879 0.022751518 0.037156541 -0.081355669 0.040630393 -0.074317642 -0.000790187 0.996406257
1341845696.573790 0.023015672 0.037156139 -0.080604441 0.040417533 -0.075344518 0.000158092 0.996338069
1341845696.611644 0.022610364 0.037585050 -0.082142159 0.040307779 -0.075936019 0.000115099 0.996297657
1341845696.648592 0.022518894 0.037487634 -0.082950391 0.039657701 -0.076328076 0.000136607 0.996293783
1341845696.705640 0.023108751 0.037504047 -0.082075216 0.037217803 -0.075325899 -0.000142871 0.996464133
1341845696.741801 0.022907479 0.037207451 -0.080413572 0.036652092 -0.074048385 -0.000116530 0.996580899
1341845696.773765 0.022893561 0.037295040 -0.080524229 0.036383081 -0.072965026 0.000767432 0.996670365
1341845696.805698 0.022824341 0.037345912 -0.081204437 0.035089869 -0.072771251 0.001813234 0.996729553
1341845696.841908 0.022845099 0.036877755 -0.078910939 0.034568924 -0.072464563 0.002925962 0.996767402
1341845696.873637 0.022977594 0.037109517 -0.080208510 0.033777881 -0.071112297 0.002463754 0.996893167
1341845696.905693 0.023047652 0.036965631 -0.078769207 0.032462683 -0.070366323 0.003265444 0.996987462
1341845696.941841 0.022912769 0.036977105 -0.079731941 0.031086868 -0.069494896 0.003868056 0.997090280
1341845696.973560 0.022860756 0.037021987 -0.079538673 0.030345377 -0.069268286 0.006405472 0.997115850
1341845697.009723 0.017768614 0.033499364 -0.080356456 0.028881237 -0.067901790 0.006052975 0.997255504
1341845697.041678 0.022836560 0.036820006 -0.079222761 0.028217366 -0.067499436 0.005977837 0.997302294
1341845697.073636 0.022668933 0.036584046 -0.077723868 0.028566735 -0.066430531 0.005208215 0.997368395
1341845697.109770 0.018699145 0.033676699 -0.078997225 0.028353082 -0.065094262 0.004078427 0.997467875
1341845697.141787 0.017538518 0.033036388 -0.077766210 0.027441258 -0.064420670 0.003385084 0.997539699
1341845697.173791 0.017661614 0.033106010 -0.078776933 0.027582722 -0.064172082 0.004128200 0.997548997
1341845697.209803 0.018545059 0.033393383 -0.078410275 0.027938507 -0.063951418 0.004474669 0.997551799
1341845697.241685 0.017613867 0.032943733 -0.077307925 0.027437638 -0.063447729 0.004045047 0.997599721
1341845697.277780 0.024433091 0.036564879 -0.075484939 0.027586125 -0.064604573 0.005685624 0.997513354
1341845697.309575 0.022658184 0.036885485 -0.075451963 0.027632790 -0.064762779 0.006401321 0.997497499
1341845697.342252 0.022585563 0.035460711 -0.076192446 0.027233142 -0.065022305 0.006190742 0.997492909
1341845697.377604 0.023176067 0.036268953 -0.074147098 0.027668521 -0.065181591 0.006670297 0.997467458
1341845697.409528 0.022913808 0.036546480 -0.075583719 0.027476057 -0.064694911 0.005638953 0.997510791
1341845697.441666 0.024621140 0.035540164 -0.071985103 0.027460756 -0.064892188 0.006020784 0.997496188
1341845697.477718 0.029803542 0.035901587 -0.072858684 0.028388677 -0.065963358 0.006376283 0.997397721
1341845697.509822 0.024070388 0.037251379 -0.074670650 0.028702611 -0.064787671 0.005104311 0.997473121
1341845697.545892 0.022638522 0.036492754 -0.076708153 0.028497450 -0.064925008 0.005232172 0.997469425
1341845697.577742 0.022378568 0.034448314 -0.074439310 0.028754249 -0.065805443 0.005365619 0.997403681
1341845697.609653 0.023832565 0.036876641 -0.075705141 0.029219290 -0.066627100 0.005819621 0.997333050
1341845697.645769 0.023996646 0.037607849 -0.074886456 0.028832190 -0.067062847 0.006429317 0.997311354
1341845697.677795 0.025544606 0.036703669 -0.071031190 0.028467514 -0.067274332 0.006602490 0.997306466
1341845697.713520 0.022799848 0.036580056 -0.074318439 0.027839407 -0.066376150 0.006170825 0.997387111
1341845697.745975 0.022979526 0.037031248 -0.074547157 0.027587147 -0.066849887 0.007165884 0.997355819
1341845697.777683 0.023038691 0.036419049 -0.075298548 0.027193774 -0.067268372 0.007527087 0.997335851
1341845697.813673 0.022942573 0.038137563 -0.075652868 0.026741581 -0.067038693 0.006835828 0.997368515
1341845697.845793 0.022180298 0.039778162 -0.075415261 0.025547309 -0.066284835 0.006561690 0.997452080
1341845697.877887 0.023886468 0.036999404 -0.072999105 0.024221409 -0.066830792 0.007179148 0.997444451
1341845697.913637 0.024178561 0.037492666 -0.073475711 0.024064556 -0.067115560 0.006774541 0.997431934
1341845697.945734 0.022702767 0.036105763 -0.073064923 0.023232542 -0.066753961 0.005583474 0.997483313
1341845697.981763 0.022165036 0.034172036 -0.073060393 0.022467114 -0.066573568 0.005314856 0.997514367
1341845698.013639 0.024417158 0.034847967 -0.071260415 0.022820480 -0.066912629 0.005402151 0.997483194
1341845698.045700 0.024605850 0.035304628 -0.072247088 0.023241619 -0.066954210 0.005318017 0.997471154
1341845698.081804 0.025047606 0.036028747 -0.073719352 0.023213224 -0.067648329 0.005260732 0.997425258
1341845698.113733 0.024430579 0.035400014 -0.071135119 0.023379426 -0.068154342 0.005192359 0.997387290
1341845698.145605 0.024756454 0.035699919 -0.072571658 0.023820920 -0.068451636 0.004309362 0.997360706
1341845698.181637 0.024975367 0.036012258 -0.073583521 0.023828907 -0.068536162 0.003886851 0.997356474
1341845698.213981 0.024832981 0.035796676 -0.072789624 0.024021175 -0.069224484 0.004258702 0.997302771
1341845698.249641 0.025037974 0.036166031 -0.073965497 0.024689052 -0.070445828 0.003754353 0.997202933
1341845698.281737 0.025057767 0.036468197 -0.073879123 0.023457883 -0.070637017 0.003194492 0.997221112
1341845698.313940 0.025096606 0.036177583 -0.074025154 0.023311974 -0.070810989 0.002310526 0.997214615
1341845698.349629 0.024949512 0.035991672 -0.073363863 0.023626693 -0.070787832 0.001544823 0.997210324
1341845698.381667 0.025221633 0.036339059 -0.074442200 0.023641672 -0.071405336 0.001833244 0.997165501
1341845698.413724 0.024967531 0.036094155 -0.073566318 0.023980936 -0.072740197 0.002734827 0.997058809
1341845698.449543 0.025184277 0.036235519 -0.074287988 0.024354085 -0.074276425 0.003152589 0.996935308
1341845698.481693 0.024916505 0.035926823 -0.073274583 0.024018474 -0.075373657 0.002510455 0.996862888
1341845698.517644 0.024909582 0.035609107 -0.073799826 0.024356268 -0.075998582 0.001951585 0.996808529
1341845698.549633 0.026056938 0.033580147 -0.073075518 0.024564132 -0.076972559 0.001003760 0.996730030
1341845698.581773 0.022913339 0.036799937 -0.074788384 0.025963604 -0.076765798 -0.000908761 0.996710598
1341845698.617608 0.022853157 0.036919210 -0.075289741 0.026175508 -0.077008285 -0.001936531 0.996684909
1341845698.649887 0.024914218 0.035866436 -0.073125027 0.026642885 -0.077956960 -0.002055489 0.996598542
1341845698.685838 0.024461899 0.037126981 -0.073385328 0.027768442 -0.078052022 -0.002310013 0.996559799
1341845698.717744 0.024306245 0.037999257 -0.074643403 0.027414663 -0.077687621 -0.002933607 0.996596456
1341845698.749680 0.022867700 0.036751702 -0.075023197 0.026765145 -0.077131614 -0.002157881 0.996659279
1341845698.785826 0.022464652 0.034707788 -0.075886220 0.026249366 -0.076925986 -0.002076976 0.996689022
1341845698.817603 0.022981478 0.037485063 -0.077093251 0.026142394 -0.076914564 -0.002178357 0.996692538
1341845698.849705 0.023536755 0.036996584 -0.074446887 0.025081592 -0.077033088 -0.002316278 0.996710300
1341845698.885714 0.022975253 0.037202556 -0.076443948 0.024851535 -0.076895051 -0.002424324 0.996726453
1341845698.917723 0.022885928 0.037013821 -0.075925484 0.023986332 -0.076618388 -0.002745768 0.996768117
1341845698.953706 0.022803912 0.036803063 -0.075039767 0.023403725 -0.076138623 -0.002930466 0.996818244
1341845698.985694 0.022896066 0.037112854 -0.076064855 0.022920690 -0.076042429 -0.002914999 0.996836841
1341845699.017571 0.023066474 0.037561957 -0.077661425 0.022133226 -0.076569781 -0.002203554 0.996816099
1341845699.053593 0.023003122 0.037378058 -0.076769553 0.020790529 -0.076794602 -0.002010252 0.996828139
1341845699.086340 0.023078049 0.037790012 -0.078312598 0.018991139 -0.076452836 -0.002267256 0.996889770
1341845699.117688 0.023009138 0.037604157 -0.077795200 0.017233551 -0.076239340 -0.002628474 0.996937156
1341845699.153695 0.022955798 0.037354756 -0.077206217 0.015768372 -0.076053001 -0.003003993 0.996974587
1341845699.185845 0.022997694 0.037564214 -0.077656060 0.014585851 -0.075490467 -0.003596392 0.997033358
1341845699.221973 0.022943109 0.037614156 -0.077677101 0.013617575 -0.075026788 -0.003457567 0.997082531
1341845699.253571 0.022818921 0.037150763 -0.076235674 0.013416945 -0.075738817 -0.002763528 0.997033596
1341845699.285622 0.022886388 0.037053570 -0.076043241 0.014475882 -0.076961093 -0.002006680 0.996926963
1341845699.321906 0.023147147 0.037823793 -0.078374490 0.015221572 -0.077856988 -0.001739113 0.996846795
1341845699.354916 0.022793794 0.036727935 -0.074921124 0.015040208 -0.078703500 -0.001253950 0.996783793
1341845699.385859 0.024961308 0.035979167 -0.073652759 0.015125888 -0.079118349 -0.001347251 0.996749580
1341845699.421535 0.024401661 0.037075847 -0.073253289 0.015888283 -0.078478202 -0.002073064 0.996787071
1341845699.454093 0.024828108 0.038160104 -0.074264869 0.015982844 -0.077624038 -0.003382327 0.996848822
1341845699.489836 0.023944633 0.037636247 -0.073644377 0.015580405 -0.076938063 -0.004188226 0.996905327
1341845699.522001 0.024571180 0.038064606 -0.072506160 0.016008142 -0.077888250 -0.002585837 0.996830225
1341845699.556281 0.026204392 0.036653064 -0.070822254 0.016432833 -0.078503795 -0.001555867 0.996777177
1341845699.595416 0.026784187 0.037336640 -0.072605520 0.016793162 -0.078036048 -0.001742588 0.996807575
1341845699.628631 0.024982288 0.038164955 -0.072606370 0.016628057 -0.076615222 -0.002543055 0.996918797
1341845699.663810 0.025313783 0.037497479 -0.069479518 0.016552314 -0.075977162 -0.001577938 0.996970892
1341845699.696113 0.025589138 0.039381720 -0.069438815 0.017739724 -0.075826086 -0.000025660 0.996963263
1341845699.727683 0.035638750 0.050628278 -0.071075022 0.018087171 -0.077171437 0.001215693 0.996852994
1341845699.789808 0.032446764 0.044429310 -0.067081600 0.015519377 -0.075790912 -0.000385401 0.997002900
1341845699.821737 0.026036877 0.037314154 -0.071331590 0.014447452 -0.073834218 -0.002074359 0.997163713
1341845699.857825 0.026468061 0.041263871 -0.073115423 0.014836349 -0.074137419 -0.001145133 0.997137010
1341845699.889686 0.027259255 0.039548595 -0.071555428 0.014799315 -0.074550129 -0.001331431 0.997106552
1341845699.925749 0.024814898 0.036684640 -0.070377707 0.014621357 -0.073539846 -0.002326819 0.997182369
1341845699.957536 0.025641905 0.036797259 -0.071457289 0.015383687 -0.073475257 -0.001535008 0.997177184
1341845699.989671 0.026061188 0.037295800 -0.072600193 0.016458746 -0.073701777 -0.000087161 0.997144520
1341845700.025810 0.025811918 0.036886122 -0.071380921 0.017357098 -0.073938906 0.000383369 0.997111619
1341845700.058133 0.024929877 0.035785064 -0.068545356 0.017836429 -0.073325530 -0.000907997 0.997148156
1341845700.090754 0.025520835 0.036494695 -0.070410684 0.018121129 -0.072789371 -0.001977341 0.997180760
1341845700.125852 0.025100358 0.035973091 -0.069080360 0.018155403 -0.072882570 -0.002340388 0.997172534
1341845700.157773 0.025827859 0.036153559 -0.069415517 0.018894309 -0.072914831 -0.002821394 0.997155190
1341845700.193533 0.028531218 0.038555734 -0.067375988 0.019525606 -0.072847083 -0.002865734 0.997147858
1341845700.225771 0.029987445 0.037887737 -0.068974599 0.019246314 -0.072043762 -0.002902824 0.997211516
1341845700.257669 0.036798935 0.044121023 -0.065470636 0.020493140 -0.073063649 -0.000502099 0.997116566
1341845700.293641 0.039199889 0.045030043 -0.065380014 0.020503046 -0.073206790 0.000893433 0.997105598
1341845700.325714 0.037714791 0.042937770 -0.065669894 0.020439401 -0.072857790 0.000919730 0.997132480
1341845700.357742 0.037330680 0.043993365 -0.067095667 0.020755284 -0.072120681 0.000568138 0.997179747
1341845700.393681 0.037603155 0.045269411 -0.067305781 0.020267922 -0.071123503 -0.000397188 0.997261524
1341845700.425997 0.039620981 0.045307748 -0.064005047 0.020089766 -0.071328297 -0.000362428 0.997250497
1341845700.461682 0.037931569 0.043624867 -0.066237591 0.019701229 -0.070743211 -0.001369117 0.997299075
1341845700.493808 0.039645061 0.047156092 -0.062605284 0.020097213 -0.070845217 -0.001473525 0.997283757
1341845700.526106 0.038615793 0.045361008 -0.063068509 0.019453533 -0.070685737 -0.001499206 0.997307777
1341845700.562458 0.039339922 0.046441626 -0.063115716 0.019524088 -0.070587926 -0.001251413 0.997313678
1341845700.626137 0.035840906 0.045049947 -0.063283473 0.018770598 -0.070161983 -0.001027451 0.997358441
1341845700.661872 0.041720111 0.045949500 -0.068328202 0.018545629 -0.070275351 -0.001325585 0.997354329
1341845700.693861 0.040026478 0.047456551 -0.065348588 0.018314095 -0.069631092 -0.001885597 0.997402906
1341845700.732394 0.031126684 0.041191854 -0.067478567 0.017415816 -0.068783328 -0.002527274 0.997476399
1341845700.767794 0.039832637 0.045188621 -0.063044064 0.018458957 -0.070697673 -0.000160452 0.997326970
1341845700.799058 0.040535651 0.044832643 -0.063632704 0.018772954 -0.070329420 -0.000873646 0.997346759
1341845700.867749 0.042245597 0.046715375 -0.062518306 0.019043319 -0.070254393 -0.001165511 0.997346640
1341845700.930007 0.040628370 0.045680907 -0.063560158 0.020112837 -0.070793696 -0.000782466 0.997287869
1341845700.961797 0.040648744 0.046817172 -0.061549202 0.020177824 -0.070610188 -0.002206182 0.997297406
1341845700.997752 0.039734151 0.046465382 -0.064413950 0.019960318 -0.070512034 -0.002341691 0.997308433
1341845701.029597 0.042063121 0.047640618 -0.060101304 0.020368498 -0.071581438 -0.001944395 0.997224867
1341845701.061618 0.037306275 0.045554951 -0.062967919 0.020249236 -0.070741393 -0.003553037 0.997282803
1341845701.097561 0.039857447 0.044879027 -0.064440414 0.020502036 -0.071587197 -0.002740859 0.997219861
1341845701.129741 0.038693909 0.045865316 -0.065529831 0.020608785 -0.070919186 -0.002829287 0.997265160
1341845701.165734 0.037471049 0.043295369 -0.067529634 0.019925240 -0.070466913 -0.002738023 0.997311354
1341845701.197714 0.037088837 0.041303296 -0.067926548 0.020238999 -0.070950650 -0.002630417 0.997271001
1341845701.230497 0.039690677 0.045889787 -0.065820485 0.021177590 -0.071663037 -0.002703196 0.997200370
1341845701.265852 0.027873483 0.035481598 -0.064628266 0.019840471 -0.069968283 -0.004581260 0.997341335
1341845701.297730 0.038813606 0.042907439 -0.064723819 0.022022754 -0.072807230 -0.002967306 0.997098446
1341845701.329611 0.041657805 0.048060473 -0.061142977 0.022579398 -0.072959162 -0.004135638 0.997070730
1341845701.365791 0.043151096 0.047736254 -0.062871225 0.022128653 -0.073010132 -0.003385691 0.997079909
1341845701.397757 0.041802827 0.047404211 -0.062340710 0.021673223 -0.072473548 -0.004897278 0.997122765
1341845701.433542 0.042678889 0.045123484 -0.064727537 0.021111023 -0.072130620 -0.003685687 0.997164965
1341845701.465617 0.040939465 0.047462419 -0.062535830 0.021635029 -0.072044805 -0.002326727 0.997164011
1341845701.497704 0.039377846 0.046696465 -0.065477870 0.021257395 -0.071764238 -0.002149545 0.997192740
1341845701.533597 0.037839010 0.045520198 -0.065487795 0.020752620 -0.071616814 -0.002256811 0.997213721
1341845701.597762 0.039931417 0.043490969 -0.070844799 0.020244982 -0.070856959 -0.003146909 0.997276068
1341845701.633825 0.036695182 0.040850632 -0.065021969 0.020402532 -0.070839971 -0.003705737 0.997272134
1341845701.665709 0.038354650 0.040103335 -0.067094453 0.020835932 -0.070762508 -0.003602768 0.997269034
1341845701.701676 0.042670675 0.045387421 -0.063595615 0.022479856 -0.071377248 -0.002638676 0.997192562
1341845701.733527 0.043748342 0.046943255 -0.062588021 0.023171201 -0.071571544 -0.002988350 0.997161806
1341845701.765764 0.042345814 0.044742655 -0.065594204 0.022809613 -0.071180739 -0.003282475 0.997197211
1341845701.801701 0.044348888 0.045494959 -0.063041694 0.023001069 -0.071369715 -0.003170560 0.997179627
1341845701.833700 0.041018628 0.042596813 -0.061206426 0.022742972 -0.070710614 -0.003897594 0.997229934
1341845701.865775 0.042333506 0.046092771 -0.063725479 0.023596225 -0.070994385 -0.002299970 0.997194946
1341845701.901711 0.042233750 0.045217648 -0.062169112 0.023037132 -0.070484444 -0.003435576 0.997240901
1341845701.933585 0.039230641 0.044516265 -0.063889630 0.022723418 -0.069781579 -0.003368335 0.997297764
1341845701.969726 0.041856240 0.043320894 -0.067357019 0.022163071 -0.070064381 -0.003196138 0.997291088
1341845702.002544 0.044718821 0.044487346 -0.063611940 0.022502340 -0.070582271 -0.003184720 0.997247040
1341845702.034379 0.040719062 0.043505229 -0.062862352 0.022689065 -0.069677591 -0.003904301 0.997303843
1341845702.101809 0.040669359 0.044543203 -0.061146598 0.023349535 -0.070069246 -0.004550150 0.997258425
1341845702.137663 0.042584162 0.045363095 -0.060437750 0.023676980 -0.070843823 -0.004240208 0.997197390
1341845702.169629 0.038807567 0.041213553 -0.061990801 0.023611773 -0.070246845 -0.005659310 0.997234106
1341845702.201769 0.046399955 0.044222582 -0.061845161 0.024305198 -0.071229868 -0.005424239 0.997148991
1341845702.237691 0.042136986 0.042570554 -0.062686570 0.024266487 -0.070085704 -0.006022322 0.997227609
1341845702.269760 0.044487353 0.043457985 -0.064648241 0.024638114 -0.070562132 -0.005860912 0.997185826
1341845702.301761 0.044596147 0.044297781 -0.064898722 0.024839668 -0.070181206 -0.006176294 0.997205794
1341845702.337713 0.041738272 0.045467738 -0.063963071 0.024667144 -0.069357105 -0.006500850 0.997265697
1341845702.369720 0.045534577 0.045511298 -0.064581186 0.024464730 -0.070441946 -0.005644096 0.997199833
1341845702.405655 0.045506697 0.045266151 -0.063069895 0.024510616 -0.070357218 -0.005872466 0.997203410
1341845702.469691 0.044707283 0.044611331 -0.060710013 0.024461841 -0.069287211 -0.005770992 0.997280121
1341845702.506265 0.044178754 0.043843415 -0.061852638 0.024328390 -0.069041401 -0.005708676 0.997300744
1341845702.569753 0.042910080 0.043578308 -0.060799159 0.024243701 -0.069311939 -0.003941403 0.997292638
1341845702.605685 0.044838775 0.045677748 -0.061218679 0.024169141 -0.069720991 -0.004206477 0.997264802
1341845702.637718 0.042784099 0.043286104 -0.062340640 0.023222690 -0.069320075 -0.004411890 0.997314394
1341845702.673733 0.043949518 0.043882698 -0.062840596 0.023209626 -0.069298908 -0.004488296 0.997315824
1341845702.705735 0.046333868 0.047473412 -0.061150488 0.023057209 -0.068974964 -0.005144236 0.997338653
1341845702.737648 0.042087533 0.046542175 -0.063883446 0.022207133 -0.067683533 -0.006581087 0.997437954
1341845702.773644 0.043978073 0.047628585 -0.064755194 0.020472115 -0.067285649 -0.007722926 0.997493804
1341845702.805893 0.041334711 0.044569142 -0.065234683 0.018951120 -0.066156641 -0.008886542 0.997589707
1341845702.837969 0.044961128 0.050779883 -0.066531740 0.018652514 -0.066013880 -0.008911213 0.997604549
1341845702.874009 0.044625323 0.047295246 -0.064019263 0.016312191 -0.065304518 -0.009375264 0.997687995
1341845702.908704 0.046589531 0.046553236 -0.057540674 0.015787870 -0.065573461 -0.008639714 0.997685432
1341845702.941673 0.044905603 0.044398043 -0.055307545 0.016406739 -0.065750495 -0.008014609 0.997669041
1341845702.973595 0.047095962 0.041289847 -0.058710501 0.018000858 -0.067630373 -0.006223356 0.997528613
1341845703.005769 0.047410380 0.043345019 -0.058715362 0.019840522 -0.069108583 -0.004557715 0.997401416
1341845703.041648 0.047109745 0.041961692 -0.060797304 0.020799993 -0.069769464 -0.004593632 0.997335672
1341845703.073714 0.047748096 0.051726867 -0.061973397 0.021513315 -0.069449089 -0.005685317 0.997337282
1341845703.109699 0.049102142 0.050165184 -0.059585091 0.019182971 -0.067873925 -0.007688577 0.997479856
1341845703.142006 0.047901351 0.050162420 -0.063564852 0.017759044 -0.066241413 -0.008560279 0.997608840
1341845703.173706 0.047366858 0.044556055 -0.065367058 0.015637735 -0.065546721 -0.009742689 0.997679412
1341845703.209732 0.046811942 0.042768653 -0.062794693 0.015241638 -0.065766737 -0.009642523 0.997672021
1341845703.242050 0.046698235 0.042884812 -0.062748991 0.016329328 -0.065929815 -0.009318379 0.997647107
1341845703.273874 0.045990217 0.043482538 -0.062995024 0.017156264 -0.066563815 -0.008681307 0.997596860
1341845703.309758 0.045372959 0.046024978 -0.060081974 0.018465042 -0.067524008 -0.007466604 0.997518778
1341845703.341850 0.047669616 0.043875903 -0.063199565 0.018593770 -0.067721270 -0.007359778 0.997503817
1341845703.377702 0.047892828 0.045432627 -0.061781224 0.019442376 -0.067023903 -0.007862488 0.997530937
1341845703.409585 0.046087220 0.046707198 -0.063825592 0.019909892 -0.066503294 -0.008312185 0.997552931
1341845703.441629 0.045830898 0.049078230 -0.061465912 0.020083165 -0.066889793 -0.008894374 0.997518599
1341845703.477741 0.047826566 0.047629591 -0.062657222 0.019848863 -0.067232884 -0.009499148 0.997494638
1341845703.509995 0.045969807 0.042999346 -0.064212620 0.019524034 -0.066763923 -0.009932431 0.997528315
1341845703.541800 0.047417510 0.043849990 -0.064465247 0.020296086 -0.066938467 -0.010273374 0.997497797
1341845703.577765 0.047582299 0.043928258 -0.064238019 0.020466220 -0.067075774 -0.011117995 0.997475982
1341845703.609650 0.047338851 0.043532718 -0.063157395 0.020818967 -0.067217171 -0.011284617 0.997457325
1341845703.651761 0.045759741 0.046092641 -0.061253686 0.021579113 -0.067354508 -0.011139707 0.997433543
1341845703.709916 0.048284046 0.049718507 -0.062410608 0.022095056 -0.068975553 -0.010722147 0.997316003
1341845703.745719 0.049208000 0.052513890 -0.060659058 0.021396352 -0.068748176 -0.011427806 0.997339129
1341845703.777733 0.050161611 0.049739342 -0.059567168 0.019662367 -0.067966640 -0.011972018 0.997421980
1341845703.809711 0.049158461 0.047187544 -0.061387710 0.018959356 -0.067218609 -0.011913992 0.997487009
1341845703.845769 0.047887228 0.048914537 -0.058554694 0.019279679 -0.067258134 -0.011737701 0.997480273
1341845703.877728 0.048797008 0.049713317 -0.060158495 0.019181889 -0.067338757 -0.011633436 0.997477949
1341845703.913808 0.049549628 0.048711225 -0.060835388 0.018604646 -0.067330599 -0.011414392 0.997491956
1341845703.945653 0.049413148 0.045596842 -0.059063073 0.018256519 -0.066924579 -0.011995568 0.997518897
1341845703.977870 0.050079249 0.046242289 -0.059633490 0.018836336 -0.066625878 -0.012237373 0.997525156
1341845704.013637 0.047302153 0.042795189 -0.060395569 0.019200472 -0.066500872 -0.012506991 0.997523248
1341845704.045703 0.049537722 0.045280941 -0.060744800 0.020536825 -0.067257620 -0.011468044 0.997458339
1341845704.077666 0.050833825 0.045519847 -0.060886353 0.021065414 -0.067517348 -0.010789505 0.997437358
1341845704.113706 0.050937429 0.047543898 -0.059452254 0.021311592 -0.067282483 -0.011066044 0.997444928
1341845704.145681 0.050507598 0.047831755 -0.061450798 0.020947022 -0.066699669 -0.011342139 0.997488737
1341845704.181785 0.050088026 0.048057057 -0.059714995 0.020694237 -0.066273667 -0.011635705 0.997519016
1341845704.213778 0.050178986 0.047336478 -0.059942048 0.020398716 -0.066176482 -0.011454884 0.997533619
1341845704.245863 0.051556140 0.047755603 -0.059991363 0.020436207 -0.066270128 -0.011045652 0.997531295
1341845704.281578 0.053398427 0.048148982 -0.059550703 0.020121248 -0.066443838 -0.010663939 0.997530282
1341845704.313707 0.051372208 0.050072461 -0.056391712 0.019592546 -0.065451533 -0.010575074 0.997607350
1341845704.349873 0.054177396 0.050611611 -0.057739537 0.019134561 -0.064481102 -0.010561653 0.997679591
1341845704.381729 0.054756649 0.048813134 -0.056709394 0.018071268 -0.062913194 -0.010890254 0.997795999
1341845704.413817 0.053768750 0.047181889 -0.056972478 0.017824247 -0.061150141 -0.011025420 0.997908533
1341845704.449837 0.054578666 0.051630333 -0.057641406 0.018447185 -0.059909768 -0.011165654 0.997970879
1341845704.481600 0.056656294 0.049143180 -0.056103181 0.016917586 -0.058799259 -0.010730915 0.998068810
1341845704.513671 0.052031778 0.040411565 -0.054896981 0.016605342 -0.057635300 -0.010502302 0.998144329
1341845704.549869 0.048161723 0.037139826 -0.053983133 0.020589892 -0.058054674 -0.008824080 0.998062015
1341845704.581901 0.047975495 0.039553739 -0.057570163 0.025037605 -0.059949029 -0.006373116 0.997867048
1341845704.617838 0.050473742 0.045532618 -0.058164611 0.027704809 -0.061237849 -0.006922635 0.997714639
1341845704.650477 0.049688742 0.045728941 -0.057153057 0.028227054 -0.061038677 -0.008320889 0.997701466
1341845704.681708 0.048335969 0.043391906 -0.058246981 0.029031856 -0.061391875 -0.008847863 0.997652233
1341845704.717704 0.048066340 0.044768263 -0.058614265 0.030472372 -0.062603056 -0.008741478 0.997534931
1341845704.749702 0.051508386 0.047876637 -0.059497450 0.031193241 -0.063352063 -0.009858768 0.997454941
1341845704.781791 0.050353773 0.047320738 -0.058230739 0.030235717 -0.062642753 -0.011800119 0.997508109
1341845704.817744 0.046266630 0.041271001 -0.060137991 0.029924907 -0.062565923 -0.013332581 0.997503042
1341845704.849705 0.047012392 0.043453649 -0.061392903 0.031645939 -0.064501360 -0.013538503 0.997323811
1341845704.885675 0.049851708 0.046351794 -0.059427571 0.032190274 -0.065970317 -0.013265965 0.997213960
1341845704.917742 0.047609974 0.047471698 -0.061266810 0.031828620 -0.066050850 -0.014099105 0.997208834
1341845704.949746 0.049177650 0.046573680 -0.060801670 0.031084387 -0.066845611 -0.015035944 0.997165620
1341845704.985761 0.048185121 0.047824927 -0.061148491 0.030468103 -0.067132518 -0.015272327 0.997161806
1341845705.017537 0.048302848 0.048122562 -0.061149258 0.029821225 -0.067477904 -0.016279217 0.997142136
1341845705.049660 0.047716185 0.049470071 -0.059796210 0.029220991 -0.067749739 -0.016722165 0.997134149
1341845705.085710 0.046525542 0.045933887 -0.059615009 0.028243287 -0.068169259 -0.017456725 0.997121155
1341845705.117831 0.047781002 0.048464518 -0.061213255 0.028641965 -0.069068864 -0.017673722 0.997044027
1341845705.154005 0.048624534 0.050969303 -0.061244499 0.027714185 -0.069249898 -0.017911145 0.997053444
1341845705.185648 0.048360363 0.049513068 -0.059401028 0.026740637 -0.068926044 -0.017949285 0.997101784
1341845705.217695 0.047682319 0.049833063 -0.059911944 0.026694892 -0.068330765 -0.017804423 0.997146547
1341845705.253735 0.048199948 0.050599914 -0.059593488 0.026205799 -0.068003982 -0.017969655 0.997178912
1341845705.285554 0.046749484 0.047520921 -0.058995727 0.025475595 -0.068040580 -0.018046005 0.997193992
1341845705.321646 0.047721207 0.049423657 -0.057646643 0.026148958 -0.068650819 -0.016841937 0.997155786
1341845705.353674 0.045933906 0.047963854 -0.059222583 0.026137255 -0.068675861 -0.016125597 0.997166216
1341845705.385774 0.049327165 0.048039984 -0.057393119 0.026554957 -0.069429241 -0.016468266 0.997097373
1341845705.421801 0.051393528 0.046221629 -0.057383791 0.027374236 -0.069363609 -0.016673002 0.997076392
1341845705.453568 0.048012681 0.042371199 -0.060037989 0.029019795 -0.068895422 -0.016751850 0.997061014
1341845705.485749 0.047431465 0.046306200 -0.059718397 0.031496342 -0.069975369 -0.014829757 0.996941090
1341845705.521655 0.049836904 0.045210224 -0.057996701 0.032572392 -0.070941560 -0.013975723 0.996850550
1341845705.553548 0.049257018 0.045176774 -0.059882920 0.033196863 -0.070875160 -0.013534277 0.996840775
1341845705.589775 0.050644986 0.048510320 -0.058335394 0.033474691 -0.071058720 -0.013652372 0.996816814
1341845705.621894 0.049007766 0.046150636 -0.060803972 0.033100288 -0.070861444 -0.012925379 0.996852994
1341845705.653569 0.046203952 0.047602769 -0.059690531 0.033401929 -0.073026597 -0.011715998 0.996701658
1341845705.689868 0.048316617 0.047319643 -0.058201220 0.033975285 -0.074618265 -0.012793969 0.996551096
1341845705.721810 0.050508972 0.047776259 -0.057992790 0.033916451 -0.074009202 -0.012969307 0.996596277
1341845705.753738 0.050818600 0.047504049 -0.056814373 0.033813339 -0.073633499 -0.014091287 0.996612370
1341845705.789861 0.051255427 0.047728822 -0.055818606 0.033846632 -0.072630256 -0.013773398 0.996689320
1341845705.821704 0.047845863 0.049096752 -0.056391288 0.033783622 -0.071400546 -0.013083119 0.996789575
1341845705.863629 0.047640081 0.045328192 -0.056063909 0.033731293 -0.072426051 -0.013330571 0.996714115
1341845705.895623 0.046000045 0.044140283 -0.056352057 0.035268459 -0.073741145 -0.011531358 0.996586919
1341845705.931726 0.047574088 0.045361403 -0.059157740 0.036763888 -0.076366723 -0.009355528 0.996357858
1341845705.963641 0.048929848 0.051892567 -0.056456152 0.037628528 -0.078221448 -0.010664516 0.996168554
1341845705.995677 0.052557018 0.053130228 -0.054937873 0.036267862 -0.077984422 -0.015347369 0.996176422
1341845706.031837 0.049263045 0.051776025 -0.055163667 0.033701971 -0.075386256 -0.017077828 0.996438384
1341845706.063631 0.045194946 0.048096411 -0.054438528 0.032298781 -0.075711980 -0.016114196 0.996476173
1341845706.095737 0.047764122 0.050540127 -0.054873213 0.032945048 -0.077656388 -0.017350979 0.996284604
1341845706.131716 0.049014263 0.051656514 -0.050569713 0.031875618 -0.077340752 -0.019040173 0.996313155
1341845706.163718 0.048327848 0.047831133 -0.048262838 0.030746378 -0.075903043 -0.018217472 0.996474504
1341845706.195662 0.048294980 0.050526962 -0.050367370 0.031745788 -0.076424487 -0.016668009 0.996430457
1341845706.231610 0.049166840 0.050963610 -0.048164349 0.030889267 -0.075908035 -0.017228074 0.996487319
1341845706.263724 0.050312262 0.050154809 -0.046344668 0.029627945 -0.074160397 -0.016004475 0.996677637
1341845706.299838 0.048321154 0.049885292 -0.048882026 0.028650928 -0.073604532 -0.014978575 0.996763349
1341845706.331753 0.047803335 0.052305315 -0.045878753 0.028515957 -0.074302815 -0.015739696 0.996703684
1341845706.363574 0.049143109 0.048034899 -0.047035277 0.027466550 -0.074180253 -0.015384247 0.996747792
1341845706.399690 0.049572729 0.049190074 -0.045544971 0.027868394 -0.074706584 -0.015126841 0.996701300
1341845706.431735 0.050372053 0.049338710 -0.044123199 0.028161647 -0.074501410 -0.015084139 0.996709049
1341845706.463612 0.050132684 0.047868639 -0.043164350 0.028006589 -0.073579989 -0.014093959 0.996796370
1341845706.499655 0.048255142 0.045066182 -0.042643048 0.028171428 -0.074110903 -0.012056910 0.996779084
1341845706.531782 0.051458687 0.048028633 -0.042347781 0.029459089 -0.075176544 -0.012330155 0.996658742
1341845706.563559 0.055876922 0.048413351 -0.038595095 0.029805006 -0.073775955 -0.012164799 0.996755123
1341845706.599529 0.051583752 0.046158761 -0.042255953 0.030532517 -0.071715295 -0.011875286 0.996887028
1341845706.631786 0.052068617 0.046730798 -0.042060368 0.032413580 -0.073126443 -0.012858758 0.996712863
1341845706.667647 0.056729630 0.047423262 -0.040584844 0.033318292 -0.072744757 -0.012960458 0.996709645
1341845706.700732 0.053771820 0.047039192 -0.040440604 0.033341415 -0.070068210 -0.012611204 0.996905088
1341845706.732115 0.054031756 0.045382805 -0.040377997 0.033773035 -0.069877781 -0.012114677 0.996910095
1341845706.768143 0.057177041 0.046220452 -0.040704537 0.034531258 -0.069856077 -0.010317580 0.996905863
1341845706.800357 0.058103107 0.045541730 -0.041757621 0.034953374 -0.069300227 -0.008343847 0.996948421
1341845706.832602 0.058902912 0.046708208 -0.043704394 0.035022996 -0.069462545 -0.008509907 0.996933281
1341845706.869449 0.057615563 0.047024347 -0.044735543 0.034489308 -0.069014490 -0.009142794 0.996977389
1341845706.933651 0.057294406 0.046691686 -0.041846715 0.033766948 -0.069664560 -0.007972252 0.996966958
1341845706.994021 0.057400472 0.047753043 -0.043364532 0.032696184 -0.069209121 -0.006581157 0.997044504
1341845707.029674 0.057224460 0.046311941 -0.041400179 0.033087783 -0.069775112 -0.005014813 0.997001231
1341845707.061864 0.058119882 0.046704832 -0.042984061 0.033794984 -0.069408104 -0.005107865 0.997002661
1341845707.097704 0.057842731 0.045509372 -0.040668663 0.034003261 -0.068247825 -0.004405086 0.997079015
1341845707.129770 0.055087745 0.043270629 -0.040148530 0.035826609 -0.067930833 -0.003635542 0.997039914
1341845707.161817 0.057882648 0.042577881 -0.041444037 0.038034379 -0.068882212 -0.003475976 0.996893466
1341845707.197721 0.060128368 0.042519823 -0.039024580 0.038916409 -0.067939833 -0.003989480 0.996922135
1341845707.229795 0.059132412 0.040171839 -0.043314006 0.039193273 -0.066618450 -0.004927764 0.996996284
1341845707.261851 0.064010650 0.042916477 -0.040321682 0.040038299 -0.067542158 -0.003015814 0.996908188
1341845707.297710 0.066357620 0.043048233 -0.041821923 0.040104564 -0.066879541 -0.002856318 0.996950626
1341845707.329761 0.066237263 0.044070102 -0.040455181 0.039707460 -0.065245211 -0.003757694 0.997071862
1341845707.365850 0.065718353 0.040850610 -0.040457606 0.039604783 -0.063616917 -0.002387437 0.997185349
1341845707.397796 0.064773284 0.040507082 -0.041950267 0.040762860 -0.063504755 -0.000168185 0.997148693
1341845707.429752 0.064824507 0.038710330 -0.038776916 0.041653670 -0.063463591 0.000110625 0.997114480
1341845707.465767 0.068313934 0.037670635 -0.039916139 0.042419672 -0.062163610 -0.000890349 0.997163713
1341845707.497642 0.067997947 0.036846776 -0.038052361 0.042891949 -0.060579035 -0.000582136 0.997241259
1341845707.533665 0.075997189 0.038213514 -0.035862710 0.043861523 -0.060959309 0.001263103 0.997175276
1341845707.565754 0.076133981 0.038255550 -0.036480848 0.044941761 -0.058618106 0.000414169 0.997268260
1341845707.597603 0.076732777 0.039323099 -0.035036106 0.045415830 -0.056868307 0.000930273 0.997347713
1341845707.633748 0.074403211 0.040086512 -0.032069724 0.045935649 -0.056427110 0.001837473 0.997347772
1341845707.665870 0.076022424 0.037984766 -0.037371270 0.046149407 -0.056615688 0.002165041 0.997326553
1341845707.698455 0.075597450 0.038816482 -0.035231881 0.045685701 -0.055660397 0.001475329 0.997402906
1341845707.734303 0.076036982 0.038251456 -0.036986478 0.044936638 -0.055290695 0.000712822 0.997458339
1341845707.766259 0.075417921 0.038168330 -0.034488454 0.045138799 -0.055582117 0.000892876 0.997432828
1341845707.836344 0.075822465 0.038310055 -0.036691695 0.046690241 -0.055522580 0.000865963 0.997364759
1341845707.866230 0.075131759 0.038897235 -0.034284435 0.046653144 -0.056092978 0.000585424 0.997334778
1341845707.901694 0.075595431 0.038366344 -0.035524298 0.046056040 -0.056391601 0.001438180 0.997344851
1341845707.933640 0.075362727 0.038492944 -0.034012064 0.046279442 -0.056947924 0.001827624 0.997302234
1341845707.965831 0.075709492 0.037591085 -0.035248529 0.046562955 -0.056991357 0.000984321 0.997287750
1341845708.001954 0.076006792 0.038269240 -0.035417795 0.046590190 -0.056586497 0.001842759 0.997308314
1341845708.034393 0.075916812 0.038157817 -0.035252176 0.046826120 -0.057331037 0.001448184 0.997255385
1341845708.069946 0.076125920 0.038688917 -0.034837857 0.046554532 -0.057280470 0.000444101 0.997272015
1341845708.101700 0.075629614 0.038469736 -0.033298664 0.045977328 -0.057199981 0.000772586 0.997303188
1341845708.133697 0.075630993 0.037998050 -0.036473237 0.046336312 -0.058079090 0.000351192 0.997236013
1341845708.169675 0.075590029 0.038378205 -0.035411779 0.046376374 -0.058552589 0.000102596 0.997206509
1341845708.201793 0.076122537 0.037729226 -0.037387293 0.046004284 -0.058392718 -0.000820763 0.997232795
1341845708.233744 0.075698234 0.038228009 -0.034836609 0.046504796 -0.059321385 -0.000848883 0.997154713
1341845708.269711 0.075840019 0.037819412 -0.035505295 0.046929091 -0.059996825 -0.000707913 0.997094572
1341845708.301629 0.075748734 0.038771935 -0.034783047 0.047323026 -0.060597945 -0.001216649 0.997039080
1341845708.337612 0.076232679 0.038347933 -0.036055218 0.046704572 -0.060403123 -0.003030894 0.997076213
1341845708.369900 0.075718172 0.038466223 -0.034536555 0.046343222 -0.059992801 -0.003585892 0.997115970
1341845708.401883 0.076418318 0.038316458 -0.035469655 0.046572205 -0.060848333 -0.004121925 0.997051418
1341845708.443610 0.076034874 0.038511194 -0.036545906 0.046832841 -0.060730904 -0.004921441 0.997042716
1341845708.501776 0.075493030 0.038628701 -0.034867059 0.046173364 -0.062276114 -0.003166463 0.996985316
1341845708.543852 0.075842135 0.038368471 -0.037152793 0.046472810 -0.064008899 -0.003207162 0.996861517
1341845708.605675 0.076143399 0.040377133 -0.038740482 0.045801062 -0.065365434 -0.005614732 0.996793926
1341845708.637641 0.071288064 0.040787354 -0.039791081 0.045913175 -0.066623047 -0.006166550 0.996702254
1341845708.669692 0.076389603 0.041474000 -0.039290499 0.046102773 -0.069061145 -0.007147072 0.996520936
1341845708.705736 0.076170795 0.045076486 -0.038833681 0.045704804 -0.068534374 -0.007895538 0.996569991
1341845708.738027 0.072740272 0.042684104 -0.041059777 0.045053620 -0.068871751 -0.008808905 0.996568739
1341845708.773829 0.073878817 0.044331327 -0.040820770 0.045361169 -0.071131565 -0.009151185 0.996392965
1341845708.805763 0.074576467 0.046180785 -0.038486604 0.044777486 -0.071417272 -0.009524052 0.996395469
1341845708.838653 0.072078191 0.044949822 -0.040491167 0.044279214 -0.071599655 -0.010935648 0.996390104
1341845708.873912 0.071807742 0.045187943 -0.040676132 0.044339053 -0.072911546 -0.012447185 0.996274590
1341845708.905735 0.072867550 0.045395963 -0.040453978 0.044050973 -0.073250040 -0.012979936 0.996255755
1341845708.938426 0.071835950 0.044844367 -0.044559553 0.043847941 -0.073538087 -0.014680454 0.996219873
1341845708.973642 0.068900265 0.046835493 -0.041771699 0.044356029 -0.074256591 -0.014539948 0.996146142
1341845709.005742 0.071020089 0.046190079 -0.042888533 0.043661397 -0.075305119 -0.014479731 0.996098936
1341845709.041686 0.070336290 0.046584357 -0.044499047 0.043830093 -0.075758055 -0.015635151 0.996039748
1341845709.073656 0.067874558 0.044713713 -0.045335997 0.043127947 -0.075924963 -0.017216837 0.996031582
1341845709.105658 0.067853682 0.044447679 -0.045973498 0.042952772 -0.076788977 -0.017091470 0.995975077
1341845709.141741 0.068293475 0.046021946 -0.045147751 0.043196205 -0.078283966 -0.017790956 0.995835960
1341845709.173646 0.069253109 0.046470631 -0.046804618 0.042828023 -0.078077406 -0.017714914 0.995869398
1341845709.205765 0.070447192 0.048774570 -0.046180032 0.042585850 -0.078552298 -0.017732453 0.995842159
1341845709.241765 0.071180657 0.048679814 -0.045303702 0.041944798 -0.078504443 -0.017970638 0.995868862
1341845709.273754 0.068934843 0.046531949 -0.043379426 0.041231982 -0.077885509 -0.017709307 0.995951891
1341845709.309890 0.068313815 0.045794412 -0.044453938 0.041106090 -0.077967025 -0.016575746 0.995970249
1341845709.341728 0.069707409 0.049675766 -0.045284990 0.041107431 -0.078501783 -0.015774094 0.995941162
1341845709.373776 0.068168409 0.051894657 -0.045298595 0.040242501 -0.078160666 -0.015462673 0.996008217
1341845709.409657 0.070271872 0.052087355 -0.048246980 0.038352348 -0.078309841 -0.014288625 0.996088624
1341845709.442072 0.066554144 0.051998928 -0.049927022 0.036199212 -0.078173287 -0.012196259 0.996207714
1341845709.473660 0.069445856 0.052626666 -0.046607897 0.034712341 -0.079324082 -0.011274286 0.996180534
1341845709.509632 0.067725383 0.053105701 -0.050878234 0.032822303 -0.078632966 -0.010934501 0.996303141
1341845709.541673 0.064473830 0.054101225 -0.047921028 0.031058962 -0.079223275 -0.010610098 0.996316433
1341845709.578645 0.067339234 0.052152574 -0.048575878 0.029935250 -0.080762550 -0.010821919 0.996224940
1341845709.609672 0.066995330 0.054141026 -0.047173500 0.029891590 -0.082180627 -0.011537330 0.996102273
1341845709.642057 0.064623959 0.052497171 -0.046541411 0.029447174 -0.082738459 -0.011284379 0.996072233
1341845709.709730 0.067012213 0.056288872 -0.044969775 0.028893441 -0.084398687 -0.012029860 0.995940447
1341845709.745593 0.066991381 0.054649971 -0.046250243 0.028022300 -0.084132992 -0.012378577 0.995983541
1341845709.777709 0.064425841 0.052369919 -0.046624023 0.027155887 -0.084223673 -0.010794853 0.996018291
1341845709.809687 0.066585876 0.053988788 -0.045684312 0.027625203 -0.084631972 -0.012256349 0.995953858
1341845709.845686 0.069921874 0.053799205 -0.046911404 0.027462712 -0.083403438 -0.014133254 0.996037126
1341845709.878752 0.067283198 0.049529865 -0.046913885 0.026746973 -0.081144921 -0.015772276 0.996218503
1341845709.909693 0.067401960 0.048175517 -0.049956731 0.027337581 -0.080709219 -0.014237407 0.996261001
1341845709.945663 0.062908985 0.048771933 -0.049354918 0.029258117 -0.081252187 -0.013870377 0.996167481
1341845709.977698 0.066167168 0.048602566 -0.049054202 0.030523803 -0.081904657 -0.013378308 0.996082842
1341845710.013739 0.067138292 0.049401067 -0.048356231 0.031364691 -0.081328727 -0.014307652 0.996090949
1341845710.045754 0.065315321 0.048444536 -0.049855746 0.031844623 -0.080478385 -0.014950177 0.996135354
1341845710.077705 0.063937008 0.049866021 -0.049968857 0.032158818 -0.080755517 -0.015376604 0.996096373
1341845710.113730 0.067345373 0.049195495 -0.048947867 0.032114293 -0.080904789 -0.015372260 0.996085763
1341845710.145759 0.064930446 0.049708750 -0.051791649 0.032268874 -0.080567867 -0.014807984 0.996116579
1341845710.177824 0.063179947 0.050175071 -0.049197406 0.032898523 -0.081216022 -0.014558354 0.996047080
1341845710.213581 0.064805619 0.050642040 -0.051121689 0.033315107 -0.081470013 -0.014473439 0.996013701
1341845710.245636 0.062676631 0.048103865 -0.050839648 0.033619564 -0.081489518 -0.014814602 0.995996833
1341845710.281582 0.061834693 0.048323590 -0.052834447 0.035824545 -0.083086669 -0.016867504 0.995755315
1341845710.313617 0.065895997 0.049455993 -0.053396620 0.036460575 -0.084122814 -0.016983381 0.995643318
1341845710.345643 0.064238839 0.048949398 -0.053173069 0.036300786 -0.083372861 -0.015752316 0.995732427
1341845710.381860 0.062796853 0.047540896 -0.052576348 0.036855288 -0.083753847 -0.016046491 0.995675385
1341845710.413817 0.067612261 0.051414791 -0.051593252 0.037654225 -0.084792055 -0.015751116 0.995562315
1341845710.445824 0.064192437 0.050720006 -0.051901627 0.037021954 -0.083610319 -0.015168743 0.995695055
1341845710.481794 0.064025156 0.050036237 -0.052809067 0.036891557 -0.084377371 -0.015545763 0.995629370
1341845710.513650 0.064815119 0.048248116 -0.051141467 0.036669381 -0.084546797 -0.015192615 0.995628655
1341845710.549635 0.067548841 0.047731958 -0.051776707 0.037104413 -0.085237063 -0.013663642 0.995575845
1341845710.581654 0.064516008 0.047588412 -0.053238273 0.038122527 -0.085078597 -0.014188479 0.995543599
1341845710.613694 0.065050453 0.049124446 -0.053410925 0.038260162 -0.084704146 -0.013265208 0.995582938
1341845710.649564 0.064322270 0.045615960 -0.053386897 0.038139116 -0.084567942 -0.012783002 0.995605469
1341845710.681648 0.064943641 0.047856301 -0.053340003 0.039347250 -0.084713638 -0.013513505 0.995536387
1341845710.713728 0.067291707 0.047163766 -0.052971631 0.039402597 -0.084402882 -0.012896064 0.995568812
1341845710.749785 0.066198945 0.046100151 -0.051936217 0.039421063 -0.083774857 -0.012022420 0.995632052
1341845710.781816 0.066343881 0.045606893 -0.053222105 0.039865866 -0.083768256 -0.012427466 0.995609939
1341845710.817567 0.068103239 0.048087128 -0.051995099 0.040458851 -0.083436377 -0.012917621 0.995607674
1341845710.850205 0.069348618 0.046441346 -0.053184658 0.039634746 -0.082828850 -0.011736094 0.995706141
1341845710.882136 0.069096588 0.044667084 -0.052843809 0.039180063 -0.083400220 -0.011008637 0.995684743
1341845710.917631 0.069406196 0.047419716 -0.051993147 0.039676137 -0.083462030 -0.011895874 0.995649755
1341845710.950281 0.067566022 0.046803765 -0.051133376 0.039352506 -0.082257748 -0.011702243 0.995765090
1341845710.985647 0.067977518 0.042675331 -0.054480970 0.039866857 -0.083232522 -0.010957458 0.995672107
1341845711.017722 0.067943409 0.048712946 -0.053554088 0.042305127 -0.084579699 -0.013056391 0.995432615
1341845711.049965 0.074269332 0.051470108 -0.050399993 0.041341431 -0.083634071 -0.014283046 0.995536149
1341845711.085583 0.069131032 0.046066612 -0.051550582 0.039533358 -0.080566607 -0.014121557 0.995864809
1341845711.117670 0.065518275 0.045088906 -0.054501470 0.040245444 -0.081063479 -0.013759218 0.995801032
1341845711.149770 0.070793085 0.048248034 -0.051616926 0.040809304 -0.082347572 -0.012879097 0.995684505
1341845711.191691 0.071027294 0.047742251 -0.049196955 0.039625961 -0.080750771 -0.012831239 0.995863676
1341845711.253627 0.067644089 0.049230468 -0.052830771 0.041005768 -0.082648516 -0.012998103 0.995649934
1341845711.285627 0.071168318 0.050196338 -0.049922124 0.040116686 -0.083445638 -0.013009869 0.995619535
1341845711.317874 0.068900771 0.050267030 -0.050066341 0.039404094 -0.082083061 -0.013952242 0.995748460
1341845711.353756 0.071465746 0.053252131 -0.050460871 0.038561556 -0.081720486 -0.015146960 0.995793819
1341845711.385687 0.071607180 0.051247485 -0.049228594 0.036684066 -0.079934187 -0.015724929 0.996000767
1341845711.417635 0.065976813 0.046363663 -0.050798085 0.035591334 -0.078680180 -0.015110807 0.996149778
1341845711.485895 0.069469310 0.047388732 -0.049208649 0.037554722 -0.081581496 -0.013287107 0.995870233
1341845711.521704 0.069072165 0.046801664 -0.048259582 0.037924070 -0.080810569 -0.012406586 0.995930433
1341845711.553696 0.069650315 0.048785180 -0.049230333 0.038666040 -0.080573700 -0.012475443 0.995920300
1341845711.585708 0.072890922 0.051925745 -0.049053337 0.038254179 -0.080294460 -0.012775673 0.995954931
1341845711.621659 0.069884636 0.048522722 -0.047181774 0.037110310 -0.078691036 -0.013100925 0.996121943
1341845711.653731 0.068928391 0.047998838 -0.049146574 0.037354719 -0.078856833 -0.012874923 0.996102631
1341845711.685758 0.069400594 0.048724718 -0.046940945 0.037465867 -0.079110786 -0.012325702 0.996085286
1341845711.721850 0.069780566 0.047334671 -0.048350006 0.037570335 -0.078940295 -0.011373767 0.996106207
1341845711.754323 0.067322358 0.047376905 -0.049933419 0.038021378 -0.079436660 -0.010692991 0.996057153
1341845711.789716 0.068733230 0.048552420 -0.048031926 0.038405016 -0.080522440 -0.010918465 0.995952785
1341845711.821820 0.069139726 0.047245819 -0.047916800 0.038297448 -0.080184184 -0.011045258 0.995982826
1341845711.854173 0.071129397 0.048563097 -0.049905546 0.038829882 -0.080219753 -0.011688307 0.995952010
1341845711.889875 0.075475477 0.050429065 -0.046704363 0.038502652 -0.079516277 -0.012690959 0.996008873
1341845711.923959 0.073771462 0.050906811 -0.047034819 0.037756894 -0.077135138 -0.012615195 0.996225595
1341845711.957595 0.071188048 0.050501883 -0.049118344 0.036921516 -0.076557681 -0.013919866 0.996284068
1341845711.989820 0.073855035 0.051490527 -0.045329846 0.036453974 -0.076300777 -0.015384082 0.996299446
1341845712.057899 0.070463121 0.050730065 -0.049220398 0.035138238 -0.075472310 -0.012877810 0.996445358
1341845712.090038 0.076973975 0.054222923 -0.046291750 0.034797743 -0.075324781 -0.015941350 0.996424198
1341845712.127587 0.071341097 0.051690359 -0.046550304 0.033022840 -0.072058678 -0.016797980 0.996712029
1341845712.195638 0.068502046 0.050447747 -0.048937559 0.034902465 -0.076665699 -0.014211222 0.996344447
1341845712.257830 0.071995430 0.050831545 -0.046217144 0.033400070 -0.073903933 -0.016878456 0.996563017
1341845712.289935 0.068742089 0.047143906 -0.048617557 0.033167209 -0.074040860 -0.016314395 0.996569991
