1341845688.561749 0.0000000 0.0000000 0.0000000 0.0000000 0.0000000 0.0000000 1.0000000
1341845688.697719 -0.0165965 -0.0061505 -0.0097787 0.0065260 -0.0166949 0.0176560 0.9996834
1341845688.729899 -0.0132572 -0.0042549 -0.0175421 0.0109421 -0.0240318 0.0210961 0.9994287
1341845688.797687 0.0000743 0.0052365 -0.0203770 0.0156803 -0.0275673 0.0202258 0.9992923
1341845688.965631 -0.0135569 0.0154207 -0.0344251 0.0160871 -0.0330116 0.0192559 0.9991400
1341845689.029751 -0.0070934 0.0298766 -0.0438059 0.0121729 -0.0308061 0.0096815 0.9994044
1341845689.133718 -0.0133038 0.0334788 -0.0444943 0.0025211 -0.0267315 0.0126079 0.9995599
1341845689.401592 -0.0206462 0.0351542 -0.0528112 -0.0082279 -0.0232279 0.0224693 0.9994438
1341845689.833757 -0.0365176 0.0315699 -0.0648875 0.0112809 -0.0461593 -0.0032388 0.9988651
1341845691.913600 -0.0038879 0.0416123 -0.0607110 0.0188216 -0.0414054 -0.0181718 0.9987999
1341845692.717676 0.0044976 0.0380227 -0.0774949 0.0335785 -0.0538340 -0.0162337 0.9978531
1341845694.157890 0.0088786 0.0386562 -0.0859398 0.0450160 -0.0357088 -0.0190934 0.9981652
1341845694.693720 0.0355043 0.0436382 -0.0903088 0.0524200 -0.0473238 -0.0102986 0.9974500
1341845695.203618 0.0147641 0.0296285 -0.0882222 0.0493990 -0.0256980 0.0001994 0.9984484
1341845697.073636 0.0343026 0.0432496 -0.0790003 0.0287180 -0.0678639 0.0061583 0.9972622
1341845705.421801 0.0647673 0.0512072 -0.0611875 0.0272182 -0.0702651 -0.0168243 0.9970150
1341845707.297710 0.0858340 0.0481857 -0.0469336 0.0400335 -0.0682643 -0.0031062 0.9968589
1341845708.034393 0.0983592 0.0421531 -0.0388111 0.0466242 -0.0589018 0.0014392 0.9971734
1341845709.473660 0.0874321 0.0590194 -0.0487187 0.0345049 -0.0805428 -0.0110666 0.9960923
