1341846092.023798 0.000000000 0.000000000 0.000000000 0.000000000 0.000000000 0.000000000 1.000000000
1341846092.059891 0.000693270 0.000336045 0.000261639 0.001370733 0.000433249 -0.001612395 0.999997675
1341846092.091861 0.001392063 -0.000562807 0.000555272 0.002601799 0.000749392 -0.001641107 0.999994993
1341846092.123884 0.000714428 -0.000898572 -0.000542568 0.004080184 0.000996527 -0.001918566 0.999989331
1341846092.159881 -0.001311200 -0.001513390 0.000151273 0.005334341 0.001314620 -0.000346790 0.999984860
1341846092.191824 0.000843096 0.000426038 0.000859081 0.007177837 0.000514504 0.000620466 0.999973893
1341846092.227766 0.004096078 0.003049214 -0.001801943 0.008604037 0.000614199 -0.000414563 0.999962687
1341846092.259844 0.001690130 0.005772424 -0.000708604 0.008405679 0.001315978 -0.000864025 0.999963403
1341846092.291754 0.002598256 0.000841146 0.002084631 0.008294444 0.000954774 -0.002097525 0.999962926
1341846092.327827 0.002227353 -0.002607339 0.000618172 0.010078749 0.001410478 -0.002743127 0.999944448
1341846092.359956 0.000971379 -0.002972033 0.000808262 0.012934733 0.001567184 -0.003762185 0.999908030
1341846092.395855 0.001542551 -0.003159006 0.001386696 0.015759740 0.001444018 -0.005892664 0.999857426
1341846092.428016 0.001479597 -0.002313215 0.001757812 0.018512512 0.001958032 -0.008573121 0.999789953
1341846092.459991 0.002486997 -0.005491272 0.001045433 0.020669367 0.002235513 -0.010935445 0.999724030
1341846092.495930 0.002236804 -0.005459934 0.002785133 0.024166621 0.002567277 -0.013105962 0.999618709
1341846092.528072 0.005461591 -0.005961777 0.003989675 0.027786972 0.002362505 -0.015766827 0.999486744
1341846092.559842 0.003677684 -0.009446288 0.000593997 0.031875383 0.004506083 -0.018088872 0.999318004
1341846092.595783 0.002486783 -0.007945430 0.002836724 0.036996692 0.005685963 -0.018612441 0.999125838
1341846092.628121 0.002486528 -0.007944883 0.002835494 0.041497659 0.004797961 -0.018379496 0.998958051
1341846092.659797 0.004590906 -0.006071395 0.000712031 0.046253894 0.005576665 -0.019738363 0.998719096
1341846092.696012 0.003304312 -0.006821611 0.002250398 0.048785757 0.007676707 -0.021123078 0.998556376
1341846092.727906 0.001693948 -0.007814981 0.003217083 0.052045338 0.008286729 -0.021189688 0.998385489
1341846092.760105 0.002486558 -0.007944746 0.002836524 0.059070271 0.007640611 -0.018329589 0.998056293
1341846092.795871 0.002489736 -0.007883327 0.002543183 0.063974917 0.005978443 -0.017110225 0.997786939
1341846092.827857 0.002656980 -0.007325906 0.004813368 0.070196904 0.006210887 -0.021705309 0.997277617
1341846092.863824 0.002485162 -0.007942613 0.002834118 0.074157283 0.009299445 -0.028155295 0.996805668
1341846092.895885 0.002485207 -0.007917257 0.002774949 0.075730875 0.009272403 -0.030834289 0.996608257
1341846092.927920 0.002479695 -0.008037006 0.003090745 0.080670856 0.009020419 -0.031219723 0.996210933
1341846092.963849 0.002496943 -0.007939697 0.002877489 0.086912505 0.010260751 -0.031012122 0.995680273
1341846092.995760 0.002485131 -0.007941298 0.002835105 0.092108563 0.010568702 -0.030688938 0.995219827
1341846093.027860 0.002476543 -0.007923141 0.002848583 0.100277230 0.010247876 -0.029250672 0.994476676
1341846093.063741 0.002460196 -0.007934103 0.003000293 0.108010687 0.010667300 -0.026308296 0.993744314
1341846093.125933 0.002484271 -0.007939704 0.002835064 0.115486696 0.013923061 -0.032977909 0.992663801
1341846093.157795 0.002481045 -0.007939897 0.002841146 0.121595778 0.015154340 -0.029689530 0.992019832
1341846093.189822 0.002484585 -0.007939936 0.002835570 0.126614079 0.013127548 -0.025823448 0.991528988
1341846093.225887 0.002484598 -0.007939800 0.002835941 0.132161483 0.013888907 -0.026007580 0.990789592
1341846093.257900 0.002483982 -0.007939666 0.002836751 0.137017235 0.015791280 -0.025460456 0.990115464
1341846093.289744 0.002484899 -0.007940474 0.002837257 0.142504781 0.017248575 -0.025193887 0.989323080
1341846093.325795 0.002484672 -0.007938308 0.002836195 0.148835778 0.017820727 -0.024305031 0.988402545
1341846093.357904 0.002484919 -0.007940001 0.002838215 0.153316796 0.018715857 -0.025729267 0.987664759
1341846093.393841 0.002483901 -0.007937886 0.002835965 0.156914145 0.019968979 -0.025647918 0.987077177
1341846093.425924 0.002483544 -0.007937711 0.002836053 0.163550153 0.019104319 -0.022053428 0.986103475
1341846093.457796 0.002483720 -0.007936866 0.002836757 0.169798359 0.018682627 -0.021602709 0.985064864
1341846093.493817 0.002483869 -0.007936765 0.002836870 0.175556079 0.019228024 -0.020862119 0.984060526
1341846093.525871 0.002483635 -0.007935965 0.002837273 0.181898624 0.019552626 -0.018394385 0.982950807
1341846093.561833 0.002483604 -0.007935910 0.002836789 0.189094469 0.019263379 -0.014651133 0.981660604
1341846093.593995 0.002483640 -0.007936057 0.002837367 0.194658875 0.019150781 -0.013602759 0.980589688
1341846093.625945 0.002483089 -0.007936139 0.002836995 0.197914287 0.020451320 -0.014274553 0.979901969
1341846093.661809 0.002483120 -0.007936134 0.002837041 0.203926206 0.020388894 -0.015140001 0.978656828
1341846093.693938 0.002483051 -0.007935311 0.002837882 0.209792674 0.020667234 -0.016737787 0.977384150
1341846093.725842 0.002483039 -0.007935314 0.002837892 0.215787023 0.020597827 -0.017604006 0.976064444
1341846093.761995 0.002483174 -0.007935587 0.002838074 0.221808121 0.018691253 -0.017306184 0.974757552
1341846093.794228 0.002482328 -0.007936619 0.002837796 0.227795824 0.017231697 -0.014622943 0.973446608
1341846093.829820 0.002482298 -0.007936561 0.002837718 0.233614147 0.015471406 -0.015553948 0.972081840
1341846093.861841 0.002482361 -0.007936593 0.002837785 0.239423066 0.013710456 -0.016484275 0.970678568
1341846093.893823 0.002483747 -0.007936808 0.002837660 0.245207444 0.013657284 -0.017911451 0.969208956
1341846093.929912 0.002483728 -0.007936846 0.002837671 0.250995487 0.011892337 -0.018850585 0.967731655
1341846093.961968 0.002484601 -0.007938920 0.002836067 0.257611454 0.009268311 -0.016946005 0.966055512
1341846093.994029 0.002484637 -0.007938901 0.002836041 0.263384044 0.007520633 -0.017879922 0.964496017
1341846094.029902 0.002487103 -0.007937853 0.002835826 0.268434882 0.007737292 -0.019836934 0.963062465
1341846094.062046 0.002487142 -0.007937824 0.002835819 0.274184644 0.005982370 -0.020779947 0.961433947
1341846094.097921 0.002492161 -0.007935547 0.002837339 0.280115217 0.005050020 -0.020135611 0.959741890
1341846094.129856 0.002495164 -0.007932592 0.002838584 0.285398453 0.002788911 -0.021928081 0.958154023
1341846094.161786 0.002495208 -0.007932550 0.002838598 0.291116595 0.001037669 -0.022869941 0.956413627
1341846094.197938 0.002492302 -0.007935395 0.002837387 0.297271281 -0.000187201 -0.022972798 0.954516649
1341846094.229967 0.002506711 -0.007922524 0.002846491 0.302498460 -0.000370006 -0.026703123 0.952775657
1341846094.261795 0.002506774 -0.007922358 0.002846589 0.304913163 -0.000315924 -0.028379664 0.951957166
1341846094.297927 0.002506901 -0.007922164 0.002846719 0.307324797 -0.000261898 -0.030055758 0.951129913
1341846094.329846 0.002507027 -0.007921945 0.002846832 0.309733480 -0.000207939 -0.031731356 0.950293779
1341846094.366053 0.002513337 -0.007909886 0.002856236 0.311067373 -0.001377080 -0.031733695 0.949856877
1341846094.397911 0.002513354 -0.007909635 0.002856437 0.310165316 -0.003045846 -0.032212202 0.950131834
1341846094.429746 0.002513604 -0.007909174 0.002856699 0.309261709 -0.004714946 -0.032689039 0.950403273
1341846094.466133 0.002513784 -0.007908709 0.002857143 0.308356345 -0.006384280 -0.033164818 0.950671196
1341846094.497922 0.002513773 -0.007908169 0.002857544 0.307449132 -0.008054389 -0.033637036 0.950935662
1341846094.533970 0.002517050 -0.007896338 0.002867240 0.300687730 -0.011512705 -0.026280332 0.953290999
1341846094.565945 0.002516546 -0.007896662 0.002866576 0.291141391 -0.013320453 -0.021750221 0.956340015
1341846094.597899 0.002516438 -0.007896923 0.002866528 0.283060253 -0.013425006 -0.020061303 0.958798289
1341846094.633912 0.002516676 -0.007896938 0.002866437 0.274720430 -0.014734544 -0.017893527 0.961244702
1341846094.665844 0.002516604 -0.007897087 0.002866462 0.267620206 -0.016938273 -0.014647940 0.963264227
1341846094.697961 0.002515215 -0.007898861 0.002864423 0.259460837 -0.014321401 -0.014531621 0.965538085
1341846094.733999 0.002515217 -0.007898861 0.002864673 0.253676236 -0.010459734 -0.014826190 0.967118979
1341846094.767923 0.002515476 -0.007899133 0.002864436 0.247637585 -0.010360482 -0.010793043 0.968737185
1341846094.801844 0.002515630 -0.007899327 0.002864454 0.241126537 -0.014748268 -0.004710461 0.970370173
1341846094.833846 0.002514848 -0.007899586 0.002863810 0.234252334 -0.014448456 -0.000066892 0.972068489
1341846094.866031 0.002515077 -0.007900910 0.002862677 0.226319298 -0.012607038 0.000637410 0.973971367
1341846094.901923 0.002515266 -0.007901272 0.002862378 0.216282845 -0.012954614 0.001224038 0.976244032
1341846094.966365 0.002515231 -0.007901464 0.002862246 0.199030161 -0.016634420 0.007799807 0.979821146
1341846095.002198 0.002514880 -0.007902417 0.002861185 0.185750097 -0.015319263 0.008108210 0.982444167
1341846095.034722 0.002515397 -0.007901491 0.002862266 0.178158790 -0.013976501 0.004422644 0.983892560
1341846095.075946 0.002514465 -0.007901997 0.002861993 0.173550859 -0.012092995 0.007033757 0.984725535
1341846095.134021 0.002514487 -0.007901678 0.002861915 0.166056603 -0.008598785 0.010426255 0.986023605
1341846095.169946 0.002514527 -0.007902083 0.002861274 0.163184211 -0.008584270 0.015068798 0.986443162
1341846095.201911 0.002514893 -0.007902973 0.002860591 0.158350691 -0.010125501 0.018392581 0.987159669
1341846095.233880 0.002514096 -0.007903044 0.002860212 0.152805790 -0.009520601 0.018672545 0.988033950
1341846095.269927 0.002514479 -0.007903012 0.002860074 0.147691339 -0.008823971 0.017628411 0.988837004
1341846095.301803 0.002514915 -0.007903607 0.002859875 0.141207710 -0.010991856 0.018271731 0.989750326
1341846095.337767 0.002514778 -0.007903275 0.002859425 0.135324016 -0.013289244 0.019631093 0.990517735
1341846095.369772 0.002514341 -0.007903693 0.002859369 0.128921822 -0.012058605 0.019879371 0.991382122
1341846095.401800 0.002514657 -0.007903168 0.002859334 0.124061175 -0.011412463 0.020392051 0.991999388
1341846095.437762 0.002514709 -0.007903408 0.002859114 0.119265333 -0.011997278 0.021209404 0.992563367
1341846095.469900 0.002514516 -0.007903229 0.002859579 0.115605287 -0.011068203 0.023004025 0.992967129
1341846095.501905 0.002514533 -0.007903506 0.002859097 0.111550629 -0.009918323 0.024108613 0.993416786
1341846095.538219 0.002514403 -0.007903650 0.002858392 0.105340712 -0.008646389 0.022850424 0.994136035
1341846095.569934 0.002514355 -0.007903629 0.002858590 0.100020945 -0.007496592 0.021468449 0.994725466
1341846095.606238 0.002514305 -0.007903527 0.002858342 0.095474467 -0.006870129 0.021845112 0.995168447
1341846095.637875 0.002514324 -0.007903597 0.002858845 0.091943577 -0.007036844 0.023470918 0.995462716
1341846095.669890 0.002514341 -0.007903697 0.002858859 0.088757515 -0.006944622 0.023742415 0.995746017
1341846095.705878 0.002514370 -0.007903875 0.002859539 0.084668458 -0.004791028 0.023195351 0.996127665
1341846095.737902 0.002514361 -0.007903880 0.002859653 0.080678292 -0.003438394 0.025580950 0.996405959
1341846095.773812 0.002514393 -0.007903863 0.002859459 0.077361286 -0.003332861 0.027353553 0.996622264
1341846095.838106 0.002514351 -0.007903859 0.002859640 0.068979092 -0.000716628 0.026742753 0.997259319
1341846095.873871 0.002512922 -0.007905751 0.002866775 0.063600421 0.001865810 0.024899509 0.997663021
1341846095.905980 0.002512928 -0.007905765 0.002866812 0.057652287 0.002109976 0.023944525 0.998047292
1341846095.937932 0.002512913 -0.007905777 0.002866834 0.051702484 0.002353050 0.022988643 0.998395145
1341846095.973926 0.002512916 -0.007905832 0.002866886 0.045752700 0.002596339 0.022032384 0.998706460
1341846096.005891 0.002514372 -0.007903878 0.002859457 0.040853865 0.002569134 0.022121480 0.998916924
1341846096.041838 0.002513548 -0.007905027 0.002858277 0.036728840 0.001845400 0.025256107 0.999004364
1341846096.073937 0.002513550 -0.007905032 0.002858266 0.031739511 0.002025845 0.024576401 0.999191940
1341846096.105773 0.002513554 -0.007905010 0.002858263 0.026749505 0.002206102 0.023896078 0.999354064
1341846096.141944 0.002513552 -0.007904981 0.002858280 0.021758830 0.002385964 0.023215136 0.999490798
1341846096.173951 0.002513536 -0.007905021 0.002858275 0.016768085 0.002564736 0.022533514 0.999602199
1341846096.205991 0.002512612 -0.007908446 0.002864398 0.013133671 0.003227505 0.018572561 0.999736011
1341846096.241942 0.002512604 -0.007908474 0.002864387 0.008142851 0.003423233 0.017892590 0.999800920
1341846096.273909 0.002512594 -0.007908491 0.002864378 0.003151866 0.003618863 0.017212169 0.999840379
1341846096.309891 0.002512124 -0.007912633 0.002866018 -0.000482008 0.002887931 0.017732251 0.999838471
1341846096.341861 0.002512590 -0.007908552 0.002864370 -0.006830679 0.004010284 0.015850117 0.999843001
1341846096.374240 0.002512570 -0.007908639 0.002864361 -0.011821350 0.004205573 0.015168463 0.999806225
1341846096.409718 0.002512584 -0.007908705 0.002864340 -0.016811693 0.004400747 0.014486416 0.999744058
1341846096.441905 0.002512583 -0.007908728 0.002864316 -0.021801576 0.004595806 0.013803995 0.999656439
1341846096.473846 0.002510058 -0.007924234 0.002853476 -0.026704274 0.004887264 0.013212283 0.999544084
1341846096.510050 0.002510056 -0.007924275 0.002853483 -0.031692896 0.005081702 0.012529653 0.999406219
1341846096.542063 0.002510076 -0.007924335 0.002853478 -0.036680706 0.005276014 0.011846700 0.999242902
1341846096.577955 0.002510203 -0.007925386 0.002853354 -0.041666891 0.005470368 0.011163454 0.999054193
1341846096.609941 0.002509768 -0.007929906 0.002851319 -0.045268320 0.006339902 0.009539549 0.998909175
1341846096.641875 0.002509680 -0.007929860 0.002851405 -0.050251108 0.006539645 0.008857225 0.998675942
1341846096.677902 0.002509792 -0.007930125 0.002851401 -0.055229276 0.006740318 0.008170840 0.998417556
1341846096.709906 0.002509760 -0.007930069 0.002851287 -0.060204875 0.006941166 0.007483612 0.998133898
1341846096.745991 0.002509643 -0.007928990 0.002853613 -0.061964300 0.006907368 0.004350467 0.998044968
1341846096.777870 0.002509548 -0.007929222 0.002853276 -0.065877981 0.008131582 0.001392718 0.997793555
1341846096.810244 0.002509637 -0.007929015 0.002853364 -0.072675124 0.009026965 -0.000175280 0.997314811
1341846096.845763 0.002509539 -0.007928977 0.002853616 -0.079634316 0.008786186 -0.001269018 0.996784568
1341846096.878199 0.002509817 -0.007928900 0.002854146 -0.083812177 0.008944310 -0.003348274 0.996435821
1341846096.909946 0.002509671 -0.007928970 0.002853560 -0.088085197 0.009757823 -0.002649250 0.996061623
1341846096.945914 0.002509311 -0.007928936 0.002853458 -0.095646627 0.009142612 -0.001985171 0.995371401
1341846096.978058 0.002509421 -0.007929105 0.002853195 -0.104116648 0.009545252 -0.004484254 0.994509220
1341846097.014061 0.002509352 -0.007929293 0.002853821 -0.111295618 0.011359959 -0.007667494 0.993692815
1341846097.045960 0.002509390 -0.007929139 0.002853837 -0.119653247 0.012631761 -0.008217351 0.992701352
1341846097.078464 0.002509548 -0.007929005 0.002854021 -0.125794351 0.013255862 -0.008873164 0.991928101
1341846097.113795 0.002509651 -0.007928987 0.002853645 -0.130369142 0.014060992 -0.011091056 0.991303742
1341846097.146138 0.002509651 -0.007928988 0.002853659 -0.134392947 0.015763776 -0.012628561 0.990722239
1341846097.178019 0.002509637 -0.007928989 0.002853703 -0.138413206 0.017464187 -0.014165683 0.990119219
1341846097.213933 0.002509633 -0.007929006 0.002853570 -0.140731737 0.016330142 -0.015735546 0.989787996
1341846097.246080 0.002509632 -0.007928991 0.002853728 -0.142192811 0.013924037 -0.017002989 0.989594996
1341846097.282030 0.002509658 -0.007928977 0.002853652 -0.144384637 0.014361070 -0.017543651 0.989261866
1341846097.313977 0.002509660 -0.007928980 0.002853635 -0.146575227 0.014797198 -0.018084290 0.988923490
1341846097.345922 0.002509657 -0.007928973 0.002853651 -0.148765057 0.015233247 -0.018624822 0.988579810
1341846097.381852 0.002509657 -0.007928954 0.002853646 -0.150953561 0.015667886 -0.019165343 0.988230824
1341846097.413864 0.002509668 -0.007928949 0.002853642 -0.153141946 0.016104737 -0.019705622 0.987876415
1341846097.445910 0.002509669 -0.007928929 0.002853639 -0.155329049 0.016539913 -0.020246185 0.987516761
1341846097.481979 0.002509669 -0.007928908 0.002853639 -0.157515600 0.016975768 -0.020786053 0.987151742
1341846097.514061 0.002509675 -0.007928892 0.002853638 -0.159701481 0.017411349 -0.021326456 0.986781359
1341846097.550048 0.002509680 -0.007928876 0.002853633 -0.161886245 0.017846819 -0.021866212 0.986405671
1341846097.587812 0.002509680 -0.007928856 0.002853629 -0.164070085 0.018282196 -0.022405963 0.986024737
1341846097.649731 0.002509686 -0.007928832 0.002853628 -0.166254252 0.018716356 -0.022946730 0.985638201
1341846097.681970 -0.000119776 -0.010017094 -0.019461786 -0.171047345 0.017890869 -0.021224206 0.984871686
1341846097.714026 0.001294579 -0.009388186 -0.009282090 -0.175120279 0.018337687 -0.021690441 0.984137237
1341846097.749749 0.001566094 -0.008705297 -0.004566213 -0.175499186 0.018761536 -0.022559837 0.984042227
1341846097.782019 0.001590820 -0.008636566 -0.004704700 -0.179220721 0.018563271 -0.024203476 0.983335972
1341846097.817835 0.001526690 -0.008671139 -0.004207748 -0.182386860 0.018430188 -0.025685266 0.982718527
1341846097.849998 0.001573556 -0.008707276 -0.004086343 -0.179809868 0.018089848 -0.026593354 0.983175457
1341846097.882032 0.001511500 -0.008681233 -0.004565606 -0.178797230 0.017147336 -0.026987931 0.983366251
1341846097.917945 0.001745275 -0.008525554 -0.003116558 -0.178630665 0.016084990 -0.027890647 0.983389318
1341846097.949812 0.001697817 -0.008563264 -0.003275128 -0.175309271 0.016025700 -0.030203322 0.983919501
1341846097.985786 0.001599245 -0.008852456 -0.003853543 -0.170299470 0.016436394 -0.029670682 0.984808385
1341846098.017778 0.001607792 -0.008727824 -0.003760178 -0.164597481 0.016329329 -0.030675000 0.985748470
1341846098.050033 0.001597639 -0.008762134 -0.004276724 -0.157338664 0.016310273 -0.032842509 0.986863673
1341846098.085962 0.001639614 -0.008714853 -0.004221017 -0.152730599 0.018149279 -0.041365195 0.987235010
1341846098.117764 0.001628529 -0.008701588 -0.004165870 -0.151395530 0.021741977 -0.049544506 0.986991405
1341846098.149904 0.001529658 -0.008667321 -0.003983220 -0.150513500 0.023559919 -0.051295917 0.986995101
1341846098.185874 0.001630672 -0.008707278 -0.004228754 -0.146005660 0.022332504 -0.045637775 0.987978160
1341846098.217722 0.001576219 -0.008801843 -0.004312800 -0.137987226 0.021798581 -0.042568434 0.989278674
1341846098.253811 0.001558497 -0.008796503 -0.004258374 -0.128647447 0.024163237 -0.041633643 0.990521371
1341846098.285939 0.001560577 -0.008798620 -0.004214047 -0.118340991 0.024948588 -0.040400729 0.991837084
1341846098.319650 0.001563235 -0.008794835 -0.004284488 -0.107479885 0.026099959 -0.042717211 0.992946148
1341846098.353827 0.001564226 -0.008780298 -0.004298577 -0.096607044 0.028548941 -0.043937705 0.993942440
1341846098.385963 0.001562475 -0.008782643 -0.004300380 -0.087241337 0.030721746 -0.048394926 0.994536579
1341846098.418076 0.001564043 -0.008786389 -0.004345140 -0.080143273 0.034644373 -0.053793982 0.994727612
1341846098.453988 0.001567652 -0.008781395 -0.004383835 -0.076200210 0.037160117 -0.056251522 0.994810760
1341846098.485927 0.001594399 -0.008805403 -0.004391992 -0.070953473 0.037072375 -0.056225821 0.995203435
1341846098.521907 0.001567726 -0.008777626 -0.004336430 -0.062999323 0.036332209 -0.054669227 0.995852590
1341846098.553851 0.001579572 -0.008776684 -0.004386175 -0.055544507 0.036704075 -0.052663587 0.996390581
1341846098.585937 0.001575256 -0.008781204 -0.004369707 -0.047907759 0.036516678 -0.047584135 0.997049212
1341846098.621830 0.001565875 -0.008785941 -0.004300637 -0.038840204 0.035352323 -0.045604289 0.997578025
1341846098.653874 0.001563328 -0.008794628 -0.004285258 -0.030286539 0.035392318 -0.043899801 0.997949362
1341846098.685832 0.001562009 -0.008797514 -0.004283917 -0.021755187 0.033778027 -0.040418513 0.998374701
1341846098.721860 0.001563313 -0.008794546 -0.004285127 -0.012132114 0.032579795 -0.037413806 0.998694956
1341846098.753828 0.001563524 -0.008794256 -0.004286455 -0.000490470 0.030194957 -0.034878604 0.998935163
1341846098.789998 0.001563286 -0.008794406 -0.004285079 0.011959808 0.028800966 -0.031543367 0.999015749
1341846098.827945 0.001563286 -0.008794512 -0.004285035 0.024449594 0.028019993 -0.028506529 0.998901665
1341846098.889904 0.001563202 -0.008794930 -0.004285366 0.043783266 0.023634467 -0.024858629 0.998452067
1341846098.921923 0.001563261 -0.008794754 -0.004285315 0.060416367 0.021604454 -0.021100121 0.997716367
1341846098.957887 0.001563384 -0.008794173 -0.004285337 0.073808357 0.019741861 -0.017672753 0.996920407
1341846098.990630 0.001563365 -0.008794078 -0.004285337 0.083584510 0.016115606 -0.015434708 0.996250808
1341846099.022028 0.001563309 -0.008794284 -0.004285286 0.092386872 0.014246867 -0.014245407 0.995519340
1341846099.058015 0.001563286 -0.008794323 -0.004285337 0.103006668 0.014300726 -0.013795244 0.994482160
1341846099.089878 0.001563254 -0.008794197 -0.004285420 0.113330364 0.013068371 -0.013895402 0.993374288
1341846099.121774 0.001563258 -0.008794201 -0.004285409 0.123554185 0.012067600 -0.013864339 0.992167592
1341846099.157775 0.001563259 -0.008794189 -0.004285407 0.133764759 0.011065528 -0.013831805 0.990854800
1341846099.189822 0.001563292 -0.008793430 -0.004285019 0.143784449 0.010189056 -0.013749870 0.989461005
1341846099.226178 0.001563301 -0.008793411 -0.004285009 0.153965607 0.009185258 -0.013715543 0.987938285
1341846099.264156 0.001563470 -0.008792422 -0.004284573 0.164028138 0.008250165 -0.013516258 0.986328542
1341846099.300270 0.001563481 -0.008792333 -0.004284529 0.174175590 0.007246208 -0.013479630 0.984595656
1341846099.332076 0.001563957 -0.008790838 -0.004283810 0.184293017 0.006180538 -0.013341169 0.982761383
1341846099.363831 0.001564112 -0.008790476 -0.004283550 0.194401830 0.005176191 -0.013300801 0.980818152
1341846099.399799 0.001564276 -0.008790001 -0.004283282 0.204489723 0.004171416 -0.013259131 0.978770018
1341846099.432113 0.001565362 -0.008787610 -0.004281785 0.214540169 0.003147013 -0.013309961 0.976619422
1341846099.463909 0.001565847 -0.008787038 -0.004281275 0.224582195 0.002141533 -0.013267444 0.974362493
1341846099.499765 0.001566392 -0.008786453 -0.004280863 0.234600037 0.001136143 -0.013223923 0.972001374
1341846099.564678 0.001569699 -0.008785359 -0.004279551 0.244600236 0.000163765 -0.013233471 0.969533682
1341846099.626222 0.001572142 -0.008784652 -0.004278936 0.254590124 -0.000795569 -0.013245203 0.966957986
1341846099.657825 0.001573234 -0.008783553 -0.004278398 0.264530092 -0.001794773 -0.013215180 0.964285195
1341846099.693870 0.001574318 -0.008782850 -0.004277716 0.274441898 -0.002793234 -0.013185084 0.961509228
1341846099.725881 0.001576080 -0.008782557 -0.004276087 0.284331530 -0.003769032 -0.013233669 0.958627284
1341846099.761986 0.001577322 -0.008781935 -0.004275532 0.294182390 -0.004766666 -0.013199719 0.955646217
1341846099.793945 0.001579142 -0.008781309 -0.004274835 0.303981453 -0.005798432 -0.012996817 0.952571630
1341846099.825926 0.001580407 -0.008781007 -0.004273924 0.313767910 -0.006792635 -0.012958421 0.949386954
1341846099.862065 0.001581542 -0.008780493 -0.004273152 0.323520452 -0.007785398 -0.012918918 0.946100950
1341846099.894034 0.001583688 -0.008779082 -0.004272244 0.333230615 -0.008767724 -0.012870070 0.942716718
1341846099.925860 0.001584553 -0.008778723 -0.004271422 0.342912555 -0.009757667 -0.012828062 0.939229071
1341846099.961831 0.001585570 -0.008778533 -0.004270570 0.352557510 -0.010746250 -0.012784773 0.935641110
1341846099.993861 0.001587595 -0.008777003 -0.004269592 0.362159818 -0.011730416 -0.012746285 0.931954980
1341846100.029846 0.001588825 -0.008776639 -0.004268468 0.371727318 -0.012713834 -0.012703779 0.928167999
1341846100.069920 0.001590281 -0.008776506 -0.004267386 0.381254524 -0.013694565 -0.012661972 0.924281955
1341846100.099862 0.001591899 -0.008775709 -0.004266405 0.390740693 -0.014664942 -0.012633895 0.920297265
1341846100.132811 0.001592834 -0.008775513 -0.004265271 0.400184005 -0.015638633 -0.012592267 0.916214883
1341846100.168188 0.001593834 -0.008775473 -0.004264160 0.409584284 -0.016610157 -0.012549617 0.912034750
1341846100.199801 0.001595093 -0.008774665 -0.004263086 0.418940961 -0.017590534 -0.012492323 0.907757103
1341846100.235866 0.001595920 -0.008774435 -0.004261850 0.428252250 -0.018557794 -0.012447027 0.903382897
1341846100.267868 0.001596761 -0.008774343 -0.004260501 0.437517464 -0.019522414 -0.012400831 0.898912430
1341846100.299821 0.001597795 -0.008773662 -0.004259298 0.446735114 -0.020485630 -0.012345988 0.894346476
1341846100.335884 0.001598571 -0.008773549 -0.004258090 0.455905110 -0.021445584 -0.012296315 0.889685035
1341846100.367898 0.001599327 -0.008773492 -0.004256698 0.465026081 -0.022402996 -0.012244944 0.884928763
1341846100.400000 0.001599908 -0.008772548 -0.004255570 0.474094599 -0.023361070 -0.012192025 0.880079508
1341846100.435828 0.001600431 -0.008772206 -0.004254400 0.483114690 -0.024312647 -0.012138511 0.875135243
1341846100.467678 0.001601050 -0.008773007 -0.004253203 0.492085427 -0.025257356 -0.012084592 0.870096505
1341846100.503838 0.001601867 -0.008771984 -0.004252090 0.501001596 -0.026192902 -0.012044776 0.864966035
1341846100.535834 0.001602610 -0.008772027 -0.004251104 0.509863079 -0.027132969 -0.011989865 0.859743953
1341846100.568004 0.001603539 -0.008771947 -0.004250165 0.518670142 -0.028068999 -0.011934556 0.854430199
1341846100.604545 0.001604473 -0.008771744 -0.004248984 0.527423501 -0.028993566 -0.011887372 0.849024415
1341846100.635826 0.001605654 -0.008771684 -0.004247967 0.536118984 -0.029921887 -0.011830899 0.843528986
1341846100.672445 0.001606332 -0.008771617 -0.004246661 0.544757009 -0.030846335 -0.011773014 0.837943733
1341846100.733981 0.001607583 -0.008771354 -0.004245623 0.553337336 -0.031768169 -0.011710108 0.832268894
1341846100.765776 0.001608314 -0.008771243 -0.004244217 0.561857641 -0.032684993 -0.011649869 0.826505899
1341846100.798442 0.001608949 -0.008771493 -0.004242834 0.570317745 -0.033597544 -0.011588858 0.820654988
1341846100.833838 0.001609611 -0.008770993 -0.004241609 0.578716934 -0.034487702 -0.011538196 0.814717233
1341846100.866041 0.001609635 -0.008770816 -0.004240177 0.587053835 -0.035393354 -0.011473264 0.808692455
1341846100.897858 0.001609544 -0.008770818 -0.004238843 0.595327497 -0.036295582 -0.011406615 0.802581906
1341846100.933895 0.001609890 -0.008771050 -0.004237673 0.603537321 -0.037194613 -0.011337710 0.796386063
1341846100.965736 0.001609628 -0.008770554 -0.004236232 0.611678123 -0.038125083 -0.011229917 0.790107787
1341846101.001817 0.001609518 -0.008770552 -0.004234971 0.619757295 -0.039017569 -0.011156153 0.783743620
1341846101.033901 0.001609666 -0.008770602 -0.004233759 0.627770066 -0.039905485 -0.011081463 0.777296305
1341846101.065947 0.001609148 -0.008770577 -0.004232333 0.635715663 -0.040788785 -0.011005769 0.770766377
1341846101.102829 0.001608791 -0.008770612 -0.004230927 0.643589973 -0.041687768 -0.010917664 0.764156282
1341846101.134613 0.001608624 -0.008770607 -0.004229642 0.651398480 -0.042562231 -0.010839444 0.757463515
1341846101.169743 0.001607788 -0.008770438 -0.004228053 0.659137249 -0.043431375 -0.010760655 0.750690341
1341846101.202171 0.001607203 -0.008770818 -0.004226751 0.666805446 -0.044294871 -0.010681610 0.743837595
1341846101.234098 0.001606832 -0.008770915 -0.004225392 0.674404144 -0.045120753 -0.010628099 0.736905873
1341846101.269940 0.001606013 -0.008771046 -0.004223931 0.681928873 -0.045972008 -0.010549275 0.729896128
1341846101.301837 0.001605315 -0.008771405 -0.004222714 0.689380765 -0.046817932 -0.010470127 0.722808838
1341846101.333884 0.001604773 -0.008771659 -0.004221404 0.696759045 -0.047658551 -0.010390237 0.715644896
1341846101.369943 0.001604034 -0.008771899 -0.004219942 0.704063892 -0.048487142 -0.010318384 0.708404243
1341846101.402755 0.001603237 -0.008772262 -0.004218697 0.711292565 -0.049315937 -0.010237762 0.701089203
1341846101.437821 0.001602421 -0.008772630 -0.004217324 0.718445361 -0.050138883 -0.010156593 0.693699718
1341846101.469768 0.001601697 -0.008773031 -0.004216074 0.725521386 -0.050956018 -0.010074779 0.686236620
1341846101.501812 0.001600804 -0.008773511 -0.004214851 0.732518017 -0.051765874 -0.009992054 0.678703129
1341846101.537892 0.001600321 -0.008773849 -0.004213717 0.739438295 -0.052572034 -0.009908352 0.671095371
1341846101.569873 0.001599693 -0.008774566 -0.004212650 0.746279776 -0.053372409 -0.009823820 0.663416445
1341846101.601955 0.001598587 -0.008774691 -0.004211109 0.753041506 -0.054166846 -0.009738634 0.655667305
1341846101.637841 0.001597732 -0.008775605 -0.004209909 0.759722710 -0.054955289 -0.009652798 0.647848785
1341846101.670644 0.001596984 -0.008776146 -0.004208779 0.766319335 -0.055740975 -0.009567727 0.639965713
1341846101.705786 0.001596067 -0.008776587 -0.004207651 0.772837698 -0.056518648 -0.009479576 0.632010818
1341846101.738127 0.001595496 -0.008776867 -0.004206609 0.779273689 -0.057291407 -0.009389875 0.623988867
1341846101.769786 0.001594889 -0.008777413 -0.004205517 0.785626411 -0.058059402 -0.009298664 0.615900815
1341846101.805816 0.001594101 -0.008778185 -0.004204669 0.791890264 -0.058824006 -0.009209954 0.607753813
1341846101.837808 0.001594180 -0.008778069 -0.004204442 0.792610466 -0.060036305 -0.013651491 0.606611848
1341846101.869834 0.001594220 -0.008778268 -0.004204339 0.793311417 -0.061256092 -0.018093636 0.605456293
1341846101.905918 0.001593829 -0.008778458 -0.004203991 0.793993950 -0.062480781 -0.022532539 0.604286432
1341846101.937872 0.001593705 -0.008778763 -0.004204022 0.794633448 -0.063688278 -0.027011668 0.603135049
1341846101.973942 0.001593607 -0.008778793 -0.004203982 0.795280039 -0.064920001 -0.031443816 0.601935446
1341846102.005947 0.001592819 -0.008778307 -0.004203693 0.795966864 -0.066708706 -0.035481453 0.600606263
1341846102.037846 0.001592626 -0.008778591 -0.004203530 0.796366751 -0.071784958 -0.041701403 0.599089265
1341846102.073879 0.001592886 -0.008778119 -0.004203538 0.796055377 -0.078662172 -0.048135735 0.598156393
1341846102.105961 0.001592777 -0.008778128 -0.004203467 0.794059753 -0.087035626 -0.057288710 0.598842084
1341846102.137878 0.001592852 -0.008778126 -0.004203495 0.791249514 -0.093082897 -0.064857647 0.600877166
1341846102.173907 0.001593232 -0.008777788 -0.004203632 0.788209438 -0.098953813 -0.072480045 0.603059411
1341846102.205896 0.001593165 -0.008778002 -0.004204002 0.785049140 -0.104275741 -0.080124587 0.605313599
1341846102.242018 0.001593235 -0.008777997 -0.004204044 0.781595409 -0.111833222 -0.090790823 0.606925786
1341846102.274144 0.001593465 -0.008777834 -0.004204163 0.777996957 -0.119369797 -0.101440191 0.608425379
1341846102.305875 0.001593784 -0.008777850 -0.004204755 0.774254739 -0.126883373 -0.112069964 0.609811842
1341846102.341821 0.001593643 -0.008777387 -0.004204607 0.770371258 -0.134372175 -0.122677363 0.611083090
1341846102.374024 0.001593558 -0.008777407 -0.004204989 0.766385496 -0.140891701 -0.133998707 0.612247586
1341846102.409984 0.001593546 -0.008777398 -0.004205156 0.765876055 -0.146643281 -0.140659183 0.610036552
1341846102.441952 0.001593718 -0.008776978 -0.004205032 0.763819814 -0.152738899 -0.150795549 0.608695984
1341846102.473881 0.001593850 -0.008777277 -0.004205067 0.761653960 -0.158808589 -0.160908550 0.607265592
1341846102.509959 0.001594897 -0.008778053 -0.004205641 0.759595573 -0.164627254 -0.171075612 0.605512679
1341846102.541996 0.001596157 -0.008778061 -0.004205882 0.757210910 -0.170636222 -0.181133777 0.603908479
1341846102.574361 0.001596564 -0.008778128 -0.004205498 0.754716337 -0.176620111 -0.191164300 0.602216601
1341846102.610654 0.001597507 -0.008779132 -0.004205716 0.752111733 -0.182582408 -0.201161593 0.600437820
1341846102.642222 0.001598485 -0.008780229 -0.004206766 0.749130487 -0.190173313 -0.209928289 0.598805249
1341846102.677806 0.001598966 -0.008780005 -0.004206803 0.745823860 -0.196057439 -0.218055218 0.598130584
1341846102.709968 0.001598765 -0.008780107 -0.004206762 0.741363943 -0.205875173 -0.226833910 0.597110748
1341846102.741857 0.001598792 -0.008780176 -0.004206929 0.738631487 -0.212980554 -0.229597062 0.596948862
1341846102.777720 0.001598737 -0.008780020 -0.004206751 0.735721231 -0.220043361 -0.232520431 0.596849620
1341846102.809783 0.001598455 -0.008780180 -0.004206707 0.732887626 -0.227121606 -0.235253274 0.596613228
1341846102.841828 0.001598397 -0.008780044 -0.004206959 0.732251406 -0.234900042 -0.237702876 0.593403101
1341846102.877813 0.001598503 -0.008779802 -0.004206798 0.731739223 -0.238781676 -0.238344416 0.592227042
1341846102.909875 0.001598324 -0.008779732 -0.004206152 0.731387258 -0.241882995 -0.239342883 0.590999365
1341846102.945843 0.001597406 -0.008779496 -0.004205989 0.730848610 -0.245762751 -0.239981681 0.589804888
1341846102.977815 0.001596840 -0.008779014 -0.004205802 0.730295658 -0.249641389 -0.240616634 0.588600934
1341846103.009867 0.001595997 -0.008778539 -0.004204898 0.729729474 -0.253516704 -0.241247326 0.587387323
1341846103.045829 0.001594835 -0.008778083 -0.004204146 0.729149520 -0.257390946 -0.241872817 0.586164117
1341846103.077786 0.001593706 -0.008777228 -0.004203876 0.728113353 -0.262721241 -0.241857082 0.585092902
1341846103.110039 0.001593565 -0.008777016 -0.004203915 0.724371612 -0.272735059 -0.246665835 0.583144367
1341846103.145830 0.001593593 -0.008776980 -0.004203908 0.720526338 -0.282710522 -0.251442522 0.581113815
1341846103.177933 0.001593586 -0.008776899 -0.004203844 0.717054069 -0.291055024 -0.257050425 0.578831136
1341846103.213980 0.001593855 -0.008776786 -0.004203961 0.715059936 -0.295509726 -0.262962133 0.576380312
1341846103.246103 0.001593578 -0.008775954 -0.004203807 0.713020265 -0.299944669 -0.268857598 0.573890984
1341846103.277869 0.001592781 -0.008775969 -0.004203553 0.711131692 -0.303557366 -0.276007563 0.570932925
1341846103.314495 0.001592607 -0.008775909 -0.004203515 0.710492730 -0.303073674 -0.283525348 0.568295479
1341846103.345951 0.001591833 -0.008774550 -0.004202877 0.709741771 -0.303687781 -0.289586663 0.565844417
1341846103.382135 0.001590329 -0.008773390 -0.004202575 0.706171930 -0.306911588 -0.298383415 0.563998044
1341846103.413791 0.001589923 -0.008774229 -0.004203171 0.702417791 -0.309793115 -0.307325751 0.562306285
1341846103.445861 0.001590261 -0.008773871 -0.004203354 0.698697507 -0.312956303 -0.316058934 0.560345352
1341846103.482382 0.001589339 -0.008771925 -0.004202665 0.694838166 -0.316242367 -0.324636132 0.558392346
1341846103.513968 0.001588223 -0.008771783 -0.004202448 0.691016495 -0.319329530 -0.333341956 0.556244493
1341846103.545990 0.001588411 -0.008772044 -0.004202468 0.688994050 -0.325149626 -0.340693742 0.550901711
1341846103.582021 0.001588527 -0.008771620 -0.004202267 0.686883509 -0.330937654 -0.348004788 0.545494258
1341846103.614121 0.001587578 -0.008771426 -0.004201851 0.684456289 -0.336998641 -0.355081528 0.540248632
1341846103.650229 0.001587276 -0.008771705 -0.004201785 0.681156933 -0.346991658 -0.361369967 0.533885598
1341846103.714025 0.001586593 -0.008770479 -0.004201076 0.675732851 -0.360641688 -0.366400242 0.528274119
1341846103.749741 0.001586165 -0.008770727 -0.004201090 0.666907847 -0.374027431 -0.372877896 0.525641978
1341846103.813998 0.001586140 -0.008769885 -0.004201287 0.657929301 -0.387285233 -0.379254729 0.522785842
1341846103.849900 0.001586161 -0.008769816 -0.004201057 0.648162246 -0.398517996 -0.386882603 0.520952046
1341846103.883046 0.001586008 -0.008769861 -0.004201159 0.638214290 -0.409632564 -0.394405454 0.518968225
1341846103.917830 0.001586492 -0.008770515 -0.004201623 0.628071845 -0.420569658 -0.401887029 0.516849756
1341846103.949988 0.001587132 -0.008770686 -0.004201874 0.617777169 -0.431435704 -0.409193128 0.514563501
1341846103.981996 0.001587012 -0.008770935 -0.004201339 0.607312918 -0.442133009 -0.416376770 0.512171686
1341846104.017780 0.001586735 -0.008770914 -0.004201122 0.603133559 -0.448065400 -0.418969065 0.509835482
1341846104.049832 0.001586166 -0.008770772 -0.004200969 0.598914921 -0.453968525 -0.421534657 0.507466257
1341846104.082120 0.001585266 -0.008770521 -0.004200674 0.594677389 -0.459939122 -0.424080819 0.504945755
1341846104.117792 0.001585142 -0.008770483 -0.004200560 0.589150846 -0.465888679 -0.427685112 0.502925932
1341846104.150184 0.001585162 -0.008770501 -0.004200498 0.583575130 -0.471799403 -0.431254387 0.500864267
1341846104.185757 0.001585183 -0.008770705 -0.004200139 0.577905715 -0.477623910 -0.434826970 0.498824477
1341846104.217842 0.001585062 -0.008770765 -0.004199953 0.572230935 -0.483454257 -0.438325524 0.496683449
1341846104.250204 0.001585332 -0.008770933 -0.004200016 0.566508591 -0.489243835 -0.441787750 0.494501919
1341846104.286035 0.001585695 -0.008771065 -0.004200011 0.560892284 -0.494825155 -0.445201576 0.492283940
1341846104.317813 0.001585536 -0.008771048 -0.004199783 0.555076182 -0.500532091 -0.448591918 0.490023851
1341846104.349826 0.001585374 -0.008771061 -0.004199763 0.549213767 -0.506196797 -0.451945275 0.487723827
1341846104.385800 0.001585338 -0.008770965 -0.004199837 0.543324351 -0.511824191 -0.455283314 0.485336721
1341846104.417992 0.001585484 -0.008771135 -0.004199659 0.537371516 -0.517404020 -0.458562225 0.482955188
1341846104.453901 0.001585586 -0.008771232 -0.004199699 0.531374097 -0.522940457 -0.461803049 0.480533749
1341846104.485845 0.001586473 -0.008771938 -0.004199605 -0.525322855 0.528432190 0.464997113 -0.478093088
1341846104.517786 0.001587755 -0.008772585 -0.004199424 -0.519238055 0.533880949 0.468160570 -0.475592911
1341846104.553687 0.001588403 -0.008773038 -0.004199508 -0.513100326 0.539276600 0.471273661 -0.473085493
1341846104.585769 0.001589211 -0.008773759 -0.004199496 -0.506930768 0.544635892 0.474358290 -0.470507324
1341846104.621999 0.001590486 -0.008774698 -0.004199362 -0.500745356 0.549958169 0.477398217 -0.467857987
1341846104.653963 0.001591568 -0.008775511 -0.004199256 -0.494492650 0.555226028 0.480403870 -0.465202332
1341846104.691974 0.001592917 -0.008776944 -0.004199093 -0.488192081 0.560442448 0.483373910 -0.462517440
1341846104.754029 0.001594983 -0.008779515 -0.004199064 -0.488172323 0.560449302 0.483393937 -0.462509066
1341846104.785861 0.001595301 -0.008780429 -0.004199234 -0.492097467 0.556341588 0.480449885 -0.466360420
1341846104.822207 0.001595089 -0.008780673 -0.004199281 -0.500381768 0.550137222 0.473754555 -0.471724302
1341846104.889952 0.001595426 -0.008781466 -0.004199193 -0.509691417 0.542408347 0.465226591 -0.479136765
1341846104.921931 0.001595357 -0.008781226 -0.004199296 -0.518886983 0.534554183 0.456580251 -0.486356407
1341846104.954032 0.001595383 -0.008781266 -0.004199249 0.527926981 -0.526543975 -0.447803497 0.493474036
1341846104.989984 0.001595504 -0.008781162 -0.004199315 0.536822915 -0.518389404 -0.438903570 0.500457108
1341846105.021966 0.001595451 -0.008781298 -0.004199632 0.545535147 -0.510117710 -0.429886162 0.507315695
1341846105.053992 0.001595541 -0.008781639 -0.004199805 0.554168999 -0.501658678 -0.420743853 0.514013469
1341846105.089855 0.001595834 -0.008781618 -0.004200144 0.562606812 -0.493076444 -0.411484599 0.520605028
1341846105.121922 0.001596248 -0.008782021 -0.004200641 0.570905745 -0.484354109 -0.402114630 0.527040362
1341846105.158015 0.001596624 -0.008782414 -0.004200889 0.579044580 -0.475526541 -0.392635465 0.533309698
1341846105.189943 0.001596708 -0.008782268 -0.004200805 0.587040484 -0.466564327 -0.383048296 0.539421141
1341846105.222089 0.001596639 -0.008782536 -0.004200924 0.594868302 -0.457465857 -0.373298258 0.545440257
1341846105.258397 0.001597000 -0.008782543 -0.004201054 0.600678325 -0.452537119 -0.365495831 0.548460186
1341846105.289917 0.001596954 -0.008782656 -0.004201235 0.603560686 -0.449056655 -0.358607978 0.552687049
1341846105.321831 0.001597059 -0.008782523 -0.004201161 0.604352474 -0.446573794 -0.352639437 0.557651699
1341846105.357830 0.001596873 -0.008782569 -0.004201171 0.606755018 -0.444456339 -0.345349491 0.561284781
1341846105.389824 0.001596836 -0.008782667 -0.004201234 0.609112203 -0.442304850 -0.338032007 0.564874411
1341846105.425915 0.001596667 -0.008782654 -0.004200971 0.612821937 -0.437657088 -0.328433126 0.570120454
1341846105.457863 0.001596731 -0.008782463 -0.004200864 0.617877841 -0.432702214 -0.318251967 0.574205041
1341846105.489902 0.001596815 -0.008782310 -0.004200719 0.622897625 -0.426049918 -0.309648931 0.578444123
1341846105.525969 0.001596760 -0.008782247 -0.004200795 0.629743636 -0.417130321 -0.300058037 0.582572281
1341846105.557770 0.001597179 -0.008782168 -0.004200815 0.635213494 -0.409719080 -0.292945683 0.585505664
1341846105.594012 0.001597244 -0.008782076 -0.004200637 0.640588164 -0.402246177 -0.285791904 0.588360190
1341846105.626122 0.001597000 -0.008782238 -0.004200826 0.645770729 -0.394363314 -0.277578086 0.591952860
1341846105.657815 0.001597203 -0.008782186 -0.004200893 0.650698900 -0.387353897 -0.269554794 0.594884992
1341846105.693879 0.001596918 -0.008782213 -0.004200808 0.655257404 -0.379499674 -0.260567844 0.598934233
1341846105.726045 0.001596741 -0.008782343 -0.004200840 0.659586072 -0.374487460 -0.252867877 0.600635648
1341846105.758468 0.001596973 -0.008782096 -0.004200730 0.663843632 -0.369435161 -0.245143309 0.602274120
1341846105.793970 0.001596957 -0.008782145 -0.004200649 0.667795360 -0.361428887 -0.237144202 0.605954826
1341846105.825903 0.001596780 -0.008782286 -0.004200759 0.671642482 -0.353362292 -0.229106009 0.609542370
1341846105.861764 0.001596792 -0.008782241 -0.004200880 0.675621867 -0.346297652 -0.221553162 0.611986220
1341846105.893922 0.001597045 -0.008782132 -0.004200835 0.680449128 -0.337190330 -0.212281585 0.615002573
1341846105.925960 0.001596911 -0.008782225 -0.004200900 0.686076641 -0.328212827 -0.201985657 0.617071211
1341846105.963745 0.001597025 -0.008781944 -0.004200779 0.691124499 -0.320118904 -0.192617148 0.618683696
1341846106.025952 0.001596970 -0.008782108 -0.004200292 0.696047604 -0.311965257 -0.183214024 0.620183885
1341846106.061758 0.001596580 -0.008781862 -0.004200213 0.700843990 -0.303757399 -0.173778757 0.621570706
1341846106.093961 0.001596096 -0.008781550 -0.004200135 0.705513000 -0.295494050 -0.164311528 0.622845352
1341846106.130133 0.001595768 -0.008781432 -0.004200102 0.710054278 -0.287176788 -0.154814839 0.624006987
1341846106.161819 0.001595553 -0.008781333 -0.004200042 0.714466691 -0.278807342 -0.145290300 0.625055611
1341846106.193968 0.001595158 -0.008781189 -0.004199987 0.718749464 -0.270387441 -0.135739550 0.625990927
1341846106.229889 0.001594709 -0.008780962 -0.004199880 0.722902000 -0.261918008 -0.126163527 0.626812935
1341846106.261942 0.001594498 -0.008780756 -0.004199574 0.726923287 -0.253401637 -0.116565607 0.627521038
1341846106.293939 0.001594069 -0.008780707 -0.004199514 0.730812609 -0.244839758 -0.106946647 0.628115296
1341846106.329961 0.001593493 -0.008780450 -0.004199426 0.734569490 -0.236233652 -0.097308330 0.628595531
1341846106.361877 0.001592767 -0.008780461 -0.004199392 0.738193214 -0.227584690 -0.087652452 0.628961802
1341846106.398046 0.001591976 -0.008780329 -0.004199306 0.741683125 -0.218894318 -0.077980861 0.629214108
1341846106.429938 0.001591085 -0.008780294 -0.004199211 0.745038390 -0.210164264 -0.068295389 0.629352391
1341846106.461886 0.001590134 -0.008779884 -0.004199039 0.748259127 -0.201395214 -0.058597680 0.629376292
1341846106.497910 0.001589323 -0.008779823 -0.004198865 0.751344144 -0.192589343 -0.048889544 0.629286170
1341846106.529979 0.001588757 -0.008779787 -0.004198872 0.754293084 -0.183748156 -0.039172817 0.629081905
1341846106.561925 0.001587951 -0.008779784 -0.004199106 0.757105112 -0.174873531 -0.029449238 0.628763735
1341846106.597815 0.001587183 -0.008779921 -0.004199168 0.759779692 -0.165967420 -0.019720916 0.628331721
1341846106.632234 0.001586663 -0.008779799 -0.004199136 0.761555851 -0.158331648 -0.010972162 0.628365576
1341846106.665869 0.001586083 -0.008780017 -0.004199412 0.763226807 -0.150675237 -0.002222856 0.628312647
1341846106.697883 0.001585456 -0.008779997 -0.004199553 0.764792502 -0.142998114 0.006526613 0.628172994
1341846106.729896 0.001585058 -0.008780114 -0.004199712 0.765967906 -0.137999251 0.013339310 0.627751112
1341846106.766032 0.001584787 -0.008779873 -0.004199620 0.768440485 -0.135943532 0.016981788 0.625084162
1341846106.797963 0.001584204 -0.008778970 -0.004199266 0.770888209 -0.133885443 0.020622563 0.622399151
1341846106.834113 0.001583743 -0.008778761 -0.004199269 0.771041453 -0.133079037 0.023483576 0.622280955
1341846106.865869 0.001583495 -0.008778697 -0.004199265 0.772173345 -0.130664304 0.026713630 0.621258020
1341846106.897921 0.001583449 -0.008778921 -0.004199284 0.774416387 -0.130008161 0.027704308 0.618554473
1341846106.933929 0.001583333 -0.008778933 -0.004199282 0.776241958 -0.127529502 0.029298613 0.616706014
1341846106.967484 0.001583276 -0.008778946 -0.004199228 0.778055251 -0.125048295 0.030892741 0.614848435
1341846106.999098 0.001583207 -0.008779024 -0.004199191 0.779856622 -0.122565173 0.032486334 0.612981379
1341846107.033909 0.001583112 -0.008779079 -0.004199181 0.781645894 -0.120080180 0.034079395 0.611104786
1341846107.065762 0.001583058 -0.008779041 -0.004199124 0.783423066 -0.117593341 0.035671912 0.609218776
1341846107.101921 0.001583000 -0.008779043 -0.004199046 0.785188258 -0.115104750 0.037263822 0.607323349
1341846107.133974 0.001582871 -0.008779133 -0.004199031 0.786941350 -0.112614475 0.038855106 0.605418563
1341846107.166082 0.001582799 -0.008779143 -0.004198997 0.788682222 -0.110122427 0.040445775 0.603504419
1341846107.202100 0.001582737 -0.008779131 -0.004198931 0.790410876 -0.107628711 0.042035796 0.601580977
1341846107.233799 0.001582644 -0.008779168 -0.004198892 0.792127252 -0.105133325 0.043625165 0.599648356
1341846107.265874 0.001582546 -0.008779197 -0.004198886 0.793831527 -0.102636330 0.045213882 0.597706437
1341846107.301965 0.001582470 -0.008779203 -0.004198859 0.795523465 -0.100137748 0.046801880 0.595755339
1341846107.334002 0.001582372 -0.008779207 -0.004198836 0.797203064 -0.097637601 0.048389167 0.593795121
1341846107.369797 0.001582312 -0.008779156 -0.004198779 0.798870444 -0.095135957 0.049975697 0.591825664
1341846107.401899 0.001582270 -0.008779165 -0.004198759 0.800525486 -0.092632763 0.051561475 0.589847028
1341846107.434304 0.001582190 -0.008779204 -0.004198709 0.802168131 -0.090128168 0.053146418 0.587859333
1341846107.469787 0.001582115 -0.008779170 -0.004198637 0.803798437 -0.087622195 0.054730546 0.585862577
1341846107.502174 0.001582065 -0.008779181 -0.004198605 0.805416226 -0.085114852 0.056313843 0.583856881
1341846107.533946 0.001582006 -0.008779167 -0.004198549 0.807021618 -0.082606263 0.057896230 0.581842244
1341846107.601911 0.001581859 -0.008779299 -0.004198560 0.808614373 -0.080096386 0.059477728 0.579818666
1341846107.637876 0.001581822 -0.008779272 -0.004198515 0.810194790 -0.077585101 0.061058387 0.577786207
1341846107.669757 0.001581769 -0.008779306 -0.004198486 0.811762512 -0.075072683 0.062638074 0.575744927
1341846107.701892 0.001581712 -0.008779337 -0.004198444 0.813317657 -0.072559148 0.064216755 0.573694825
1341846107.737797 0.001581628 -0.008779396 -0.004198425 0.814860284 -0.070044547 0.065794393 0.571635902
1341846107.769837 0.001581565 -0.008779354 -0.004198351 0.816390336 -0.067528829 0.067371048 0.569568157
1341846107.805959 0.001581515 -0.008779390 -0.004198314 0.817907691 -0.065012127 0.068946622 0.567491651
1341846107.837955 0.001581460 -0.008779363 -0.004198202 0.819412470 -0.062494393 0.070521139 0.565406382
1341846107.870011 0.001581427 -0.008779336 -0.004198032 0.820904553 -0.059975713 0.072094545 0.563312471
1341846107.905926 0.001581398 -0.008779244 -0.004197925 0.822384059 -0.057456050 0.073666871 0.561209857
1341846107.938092 0.001581400 -0.008779195 -0.004197827 0.823850632 -0.054935474 0.075238056 0.559098601
1341846107.969943 0.001581325 -0.008779121 -0.004197631 0.825304806 -0.052414022 0.076808117 0.556978762
1341846108.006614 0.001581325 -0.008779198 -0.004197528 0.825304687 -0.052414004 0.076808058 0.556978762
1341846108.073927 0.001581306 -0.008779037 -0.004197258 0.825304687 -0.052414004 0.076808050 0.556978822
1341846108.073927 0.001581306 -0.008779037 -0.004197258 0.825304687 -0.052414004 0.076808050 0.556978822
1341846108.073927 0.001581306 -0.008779037 -0.004197258 0.825304687 -0.052414004 0.076808050 0.556978822
1341846108.073927 0.001581306 -0.008779037 -0.004197258 0.825304687 -0.052414004 0.076808050 0.556978822
1341846108.073927 0.001581306 -0.008779037 -0.004197258 0.825304687 -0.052414004 0.076808050 0.556978822
1341846108.073927 0.001581306 -0.008779037 -0.004197258 0.825304687 -0.052414004 0.076808050 0.556978822
1341846108.073927 0.001581306 -0.008779037 -0.004197258 0.825304687 -0.052414004 0.076808050 0.556978822
1341846108.073927 0.001581306 -0.008779037 -0.004197258 0.825304687 -0.052414004 0.076808050 0.556978822
1341846108.073927 0.001581306 -0.008779037 -0.004197258 0.825304687 -0.052414004 0.076808050 0.556978822
1341846108.073927 0.001581306 -0.008779037 -0.004197258 0.825304687 -0.052414004 0.076808050 0.556978822
1341846108.073927 0.001581306 -0.008779037 -0.004197258 0.825304687 -0.052414004 0.076808050 0.556978822
1341846108.073927 0.001581306 -0.008779037 -0.004197258 0.825304687 -0.052414004 0.076808050 0.556978822
1341846108.073927 0.001581306 -0.008779037 -0.004197258 0.825304687 -0.052414004 0.076808050 0.556978822
1341846108.073927 0.001581306 -0.008779037 -0.004197258 0.825304687 -0.052414004 0.076808050 0.556978822
1341846108.073927 0.001581306 -0.008779037 -0.004197258 0.825304687 -0.052414004 0.076808050 0.556978822
1341846108.073927 0.001581306 -0.008779037 -0.004197258 0.825304687 -0.052414004 0.076808050 0.556978822
1341846108.073927 0.001581306 -0.008779037 -0.004197258 0.825304687 -0.052414004 0.076808050 0.556978822
1341846108.073927 0.001581306 -0.008779037 -0.004197258 0.825304687 -0.052414004 0.076808050 0.556978822
1341846108.073927 0.001581306 -0.008779037 -0.004197258 0.825304687 -0.052414004 0.076808050 0.556978822
1341846108.073927 0.001581306 -0.008779037 -0.004197258 0.825304687 -0.052414004 0.076808050 0.556978822
1341846108.073927 0.001581306 -0.008779037 -0.004197258 0.825304687 -0.052414004 0.076808050 0.556978822
1341846108.073927 0.001581306 -0.008779037 -0.004197258 0.825304687 -0.052414004 0.076808050 0.556978822
1341846108.073927 0.001581306 -0.008779037 -0.004197258 0.825304687 -0.052414004 0.076808050 0.556978822
1341846108.073927 0.001581306 -0.008779037 -0.004197258 0.825304687 -0.052414004 0.076808050 0.556978822
1341846108.073927 0.001581306 -0.008779037 -0.004197258 0.825304687 -0.052414004 0.076808050 0.556978822
1341846108.073927 0.001581306 -0.008779037 -0.004197258 0.825304687 -0.052414004 0.076808050 0.556978822
1341846108.073927 0.001581306 -0.008779037 -0.004197258 0.825304687 -0.052414004 0.076808050 0.556978822
1341846108.073927 0.001581306 -0.008779037 -0.004197258 0.825304687 -0.052414004 0.076808050 0.556978822
1341846108.073927 0.001581306 -0.008779037 -0.004197258 0.825304687 -0.052414004 0.076808050 0.556978822
1341846108.073927 0.001581306 -0.008779037 -0.004197258 0.825304687 -0.052414004 0.076808050 0.556978822
1341846108.073927 0.001581306 -0.008779037 -0.004197258 0.825304687 -0.052414004 0.076808050 0.556978822
1341846108.073927 0.001581306 -0.008779037 -0.004197258 0.825304687 -0.052414004 0.076808050 0.556978822
1341846108.073927 0.001581306 -0.008779037 -0.004197258 0.825304687 -0.052414004 0.076808050 0.556978822
1341846108.073927 0.001581306 -0.008779037 -0.004197258 0.825304687 -0.052414004 0.076808050 0.556978822
1341846108.073927 0.001581306 -0.008779037 -0.004197258 0.825304687 -0.052414004 0.076808050 0.556978822
1341846108.073927 0.001581306 -0.008779037 -0.004197258 0.825304687 -0.052414004 0.076808050 0.556978822
1341846108.073927 0.001581306 -0.008779037 -0.004197258 0.825304687 -0.052414004 0.076808050 0.556978822
1341846108.073927 0.001581306 -0.008779037 -0.004197258 0.825304687 -0.052414004 0.076808050 0.556978822
1341846108.073927 0.001581306 -0.008779037 -0.004197258 0.825304687 -0.052414004 0.076808050 0.556978822
1341846108.073927 0.001581306 -0.008779037 -0.004197258 0.825304687 -0.052414004 0.076808050 0.556978822
1341846108.073927 0.001581306 -0.008779037 -0.004197258 0.825304687 -0.052414004 0.076808050 0.556978822
1341846108.073927 0.001581306 -0.008779037 -0.004197258 0.825304687 -0.052414004 0.076808050 0.556978822
1341846108.073927 0.001581306 -0.008779037 -0.004197258 0.825304687 -0.052414004 0.076808050 0.556978822
1341846108.073927 0.001581306 -0.008779037 -0.004197258 0.825304687 -0.052414004 0.076808050 0.556978822
1341846108.073927 0.001581306 -0.008779037 -0.004197258 0.825304687 -0.052414004 0.076808050 0.556978822
1341846108.073927 0.001581306 -0.008779037 -0.004197258 0.825304687 -0.052414004 0.076808050 0.556978822
1341846108.073927 0.001581306 -0.008779037 -0.004197258 0.825304687 -0.052414004 0.076808050 0.556978822
1341846108.073927 0.001581306 -0.008779037 -0.004197258 0.825304687 -0.052414004 0.076808050 0.556978822
1341846108.073927 0.001581306 -0.008779037 -0.004197258 0.825304687 -0.052414004 0.076808050 0.556978822
1341846108.073927 0.001581306 -0.008779037 -0.004197258 0.825304687 -0.052414004 0.076808050 0.556978822
1341846108.073927 0.001581306 -0.008779037 -0.004197258 0.825304687 -0.052414004 0.076808050 0.556978822
1341846108.073927 0.001581306 -0.008779037 -0.004197258 0.825304687 -0.052414004 0.076808050 0.556978822
1341846108.073927 0.001581306 -0.008779037 -0.004197258 0.825304687 -0.052414004 0.076808050 0.556978822
1341846108.073927 0.001581306 -0.008779037 -0.004197258 0.825304687 -0.052414004 0.076808050 0.556978822
1341846108.073927 0.001581306 -0.008779037 -0.004197258 0.825304687 -0.052414004 0.076808050 0.556978822
1341846108.073927 0.001581306 -0.008779037 -0.004197258 0.825304687 -0.052414004 0.076808050 0.556978822
1341846108.073927 0.001581306 -0.008779037 -0.004197258 0.825304687 -0.052414004 0.076808050 0.556978822
1341846108.073927 0.001581306 -0.008779037 -0.004197258 0.825304687 -0.052414004 0.076808050 0.556978822
1341846110.150254 0.000000000 0.000000000 0.000000000 0.000000000 0.000000000 0.000000000 1.000000000
1341846110.181980 -0.000558554 0.000287804 -0.000286963 0.002013635 0.000962269 0.009685628 0.999950588
1341846110.217907 -0.000629223 0.003619717 -0.001317338 0.002976394 -0.000170060 0.017497400 0.999842465
1341846110.249883 -0.002766032 0.000401609 0.001966129 0.002163438 -0.001625285 0.026623944 0.999641836
1341846110.286020 0.000078034 -0.003360835 0.000075305 0.004507443 -0.003106839 0.038711842 0.999235392
1341846110.356025 0.000190043 0.005828802 -0.007107383 0.006409647 -0.003559495 0.060943656 0.998114288
1341846110.417989 0.002519795 -0.002983384 -0.009989382 0.005163408 -0.004019648 0.071514130 0.997418106
1341846110.449878 0.001378567 -0.002757534 -0.010524796 0.006739417 -0.005107737 0.077904910 0.996924937
1341846110.485899 0.003720592 -0.002417420 -0.013895702 0.007753512 -0.006669297 0.081093438 0.996654034
1341846110.517949 0.003930383 -0.001522692 -0.015922457 0.007691891 -0.006770682 0.082576439 0.996532083
1341846110.554149 0.000666834 -0.004462219 -0.014018673 0.007430260 -0.007757031 0.085564852 0.996274710
1341846110.585896 0.000880257 -0.003735327 -0.015696282 0.008474628 -0.010540384 0.088898428 0.995948851
1341846110.617933 0.002631373 -0.001635331 -0.018907042 0.007859788 -0.012284698 0.093632407 0.995500028
1341846110.653885 0.003786028 -0.002657225 -0.014509080 0.006732841 -0.013803055 0.102147870 0.994650662
1341846110.686533 0.002867487 -0.003436387 -0.014870781 0.008674846 -0.015973395 0.112972118 0.993431866
1341846110.717831 0.003847192 -0.002146479 -0.017492069 0.008386346 -0.014412692 0.123195782 0.992242277
1341846110.753826 0.003253119 -0.002548411 -0.015242436 0.006225709 -0.011414859 0.135015786 0.990758121
1341846110.785789 0.003840210 -0.002208393 -0.016414408 0.007430908 -0.010024372 0.147241235 0.989021897
1341846110.821828 0.003728428 -0.002056471 -0.016447360 0.007861649 -0.009147666 0.159707218 0.987090707
1341846110.853855 0.003816756 -0.002153998 -0.016984535 0.007097224 -0.007323779 0.169786841 0.985428035
1341846110.885864 0.003568840 -0.002408516 -0.015185068 0.007930370 -0.004809421 0.179303125 0.983750165
1341846110.921999 0.003963096 -0.002186526 -0.016629940 0.008840768 -0.004576744 0.187569156 0.982200921
1341846110.953861 0.003871365 -0.002159855 -0.016584268 0.008330695 -0.003686001 0.192607686 0.981233537
1341846110.985986 0.003831754 -0.002199420 -0.016480222 0.008192155 -0.000852146 0.195786297 0.980611980
1341846111.021940 0.003884657 -0.002264929 -0.016698876 0.006165542 -0.000743591 0.199180588 0.979943097
1341846111.053945 0.003840871 -0.002214171 -0.016370278 0.003324464 -0.002752075 0.201326832 0.979514599
1341846111.089856 0.003837686 -0.002216953 -0.016423967 0.002738435 -0.003906338 0.206201777 0.978497863
1341846111.121811 0.003930814 -0.002167581 -0.016690662 0.002159361 -0.006749122 0.214928612 0.976604044
1341846111.153919 0.003795389 -0.002271631 -0.016018189 0.004204759 -0.009160807 0.221300736 0.975153506
1341846111.189911 0.003772551 -0.002222725 -0.016302202 0.004701469 -0.010932962 0.228124872 0.973559141
1341846111.221870 0.003828289 -0.002235304 -0.016545091 0.001597986 -0.012620471 0.234978095 0.971917391
1341846111.258571 0.003800571 -0.002150301 -0.016833005 -0.000712077 -0.014095815 0.238543287 0.971029282
1341846111.289825 0.003787370 -0.002063793 -0.017305311 -0.002385104 -0.014875196 0.240829647 0.970450461
1341846111.321895 0.003664391 -0.002005407 -0.016809104 -0.001145227 -0.014624081 0.243978038 0.969669819
1341846111.357890 0.003845626 -0.002266229 -0.016276842 -0.000747697 -0.015287878 0.250359893 0.968031824
1341846111.390567 0.003794457 -0.002192775 -0.016679427 -0.001436452 -0.017338766 0.254509151 0.966913819
1341846111.421924 0.003810311 -0.002220055 -0.016432002 -0.000030536 -0.015980486 0.256666631 0.966367841
1341846111.457975 0.003792524 -0.002217539 -0.016435577 -0.001096045 -0.015466302 0.264097214 0.964371383
1341846111.490354 0.003831660 -0.002199442 -0.016479854 -0.000637633 -0.017896075 0.272731185 0.961923599
1341846111.525824 0.003835565 -0.002185196 -0.016550280 0.001507993 -0.017721200 0.280911863 0.959568799
1341846111.557829 0.003832651 -0.002199175 -0.016483333 0.001243431 -0.017197082 0.291620493 0.956378698
1341846111.589761 0.003832383 -0.002199264 -0.016481608 -0.000285726 -0.019189341 0.301470220 0.953282416
1341846111.625966 0.003833088 -0.002198359 -0.016484419 -0.001111477 -0.018710107 0.312985152 0.949573040
1341846111.658029 0.003830449 -0.002199444 -0.016473483 -0.001296037 -0.016258877 0.324696153 0.945677757
1341846111.689871 0.003830957 -0.002199582 -0.016474823 -0.001757221 -0.015116694 0.335761994 0.941823900
1341846111.725851 0.003832286 -0.002199209 -0.016483221 -0.003192089 -0.014768044 0.347530931 0.937546790
1341846111.757957 0.003831733 -0.002199428 -0.016479868 -0.003365441 -0.012162792 0.358165264 0.933572888
1341846111.793921 0.003831790 -0.002199322 -0.016480232 -0.003289844 -0.010667137 0.369210750 0.929278612
1341846111.825999 0.003831505 -0.002199405 -0.016479896 -0.002922416 -0.011713315 0.381268501 0.924385488
1341846111.857852 0.003831662 -0.002199596 -0.016480079 -0.001172817 -0.011113276 0.388974845 0.921180606
1341846111.893939 0.003831240 -0.002199910 -0.016478812 0.000432802 -0.009920997 0.394179940 0.918979645
1341846111.925817 0.003830612 -0.002199119 -0.016479190 0.000447411 -0.012895758 0.402637064 0.915268779
1341846111.957857 0.003831317 -0.002199075 -0.016479973 0.004487606 -0.015639745 0.408130109 0.912778735
1341846111.993917 0.003831068 -0.002199122 -0.016479995 0.006475711 -0.015612301 0.414325029 0.909972012
1341846112.025975 0.003831230 -0.002199084 -0.016479928 0.007120831 -0.016466256 0.422551423 0.906161368
1341846112.061964 0.003831735 -0.002199420 -0.016479883 0.009332280 -0.016535601 0.431573123 0.901878119
1341846112.094004 0.003831817 -0.002199423 -0.016480507 0.011280518 -0.015718965 0.442334771 0.896641314
1341846112.125857 0.003831719 -0.002199418 -0.016479896 0.013962589 -0.014884680 0.453436285 0.891054988
1341846112.161882 0.003831736 -0.002199414 -0.016479880 0.018088020 -0.014370685 0.465388447 0.884805024
1341846112.193903 0.003831735 -0.002199414 -0.016479880 0.023468886 -0.013847882 0.478240997 0.877805769
1341846112.230507 0.003831730 -0.002199416 -0.016479881 0.028843932 -0.013321701 0.490977138 0.870592892
1341846112.261848 0.003831692 -0.002199382 -0.016479805 0.034210492 -0.012791554 0.503593564 0.863168299
1341846112.293912 0.003831655 -0.002199330 -0.016479848 0.039568353 -0.012257948 0.516087651 0.855533540
1341846112.329892 0.003831657 -0.002199333 -0.016479837 0.044916645 -0.011721030 0.528455913 0.847690642
1341846112.361751 0.003831647 -0.002199317 -0.016479831 0.050254103 -0.011181046 0.540695488 0.839641511
1341846112.393853 0.003831608 -0.002199284 -0.016479790 0.055579171 -0.010638546 0.552803516 0.831388056
1341846112.429940 0.003831564 -0.002199252 -0.016479772 0.060890757 -0.010093434 0.564777017 0.822932184
1341846112.461839 0.003831559 -0.002199211 -0.016479786 0.066187248 -0.009545664 0.576612949 0.814276159
1341846112.498139 0.003831520 -0.002199174 -0.016479777 0.071468093 -0.008995919 0.588308573 0.805421889
1341846112.530069 0.003831476 -0.002199117 -0.016479807 0.076731347 -0.008444024 0.599861026 0.796371639
1341846112.562160 0.003831414 -0.002199077 -0.016479803 0.081975989 -0.007890007 0.611267626 0.787127435
1341846112.597968 0.003831376 -0.002199062 -0.016479803 0.087200485 -0.007333947 0.622525394 0.777691722
1341846112.630702 0.003831336 -0.002199034 -0.016479826 0.092403702 -0.006776141 0.633631587 0.768066823
1341846112.661861 0.003831276 -0.002198976 -0.016479859 0.097584739 -0.006216670 0.644583642 0.758254886
1341846112.698170 0.003831218 -0.002198929 -0.016479870 0.102741756 -0.005655581 0.655378759 0.748258531
1341846112.729995 0.003831182 -0.002198907 -0.016479870 0.107873850 -0.005093202 0.666014493 0.738079965
1341846112.765875 0.003831154 -0.002198843 -0.016479895 0.112979643 -0.004529432 0.676488042 0.727721810
1341846112.798043 0.003831147 -0.002198731 -0.016479943 0.118058011 -0.003964642 0.686796963 0.717186511
1341846112.829969 0.003831202 -0.002198695 -0.016479937 0.118057832 -0.003964444 0.686797023 0.717186511
1341846112.865900 0.003831218 -0.002198680 -0.016479939 0.118057780 -0.003964746 0.686797202 0.717186332
1341846112.897929 0.003831231 -0.002198675 -0.016479926 0.118057624 -0.003964747 0.686797261 0.717186272
1341846112.935783 0.003831263 -0.002198672 -0.016479904 0.118057847 -0.003964628 0.686797261 0.717186213
1341846112.998277 0.003831299 -0.002198678 -0.016479874 0.118058182 -0.003965064 0.686797321 0.717186153
1341846113.033814 0.003831326 -0.002198674 -0.016479867 0.118058115 -0.003964779 0.686797380 0.717186093
1341846113.072059 0.003831346 -0.002198644 -0.016479872 0.118057847 -0.003964467 0.686797440 0.717186153
1341846113.139948 0.003831393 -0.002198622 -0.016479868 0.118058078 -0.003964494 0.686797500 0.717185974
1341846113.198174 0.003831452 -0.002198558 -0.016479893 0.118057877 -0.003964250 0.686797500 0.717186034
1341846113.233852 0.003831474 -0.002198551 -0.016479891 0.118058085 -0.003964328 0.686797619 0.717185855
1341846113.265850 0.003831503 -0.002198538 -0.016479893 0.118058041 -0.003964100 0.686797619 0.717185855
1341846113.301938 0.003831545 -0.002198508 -0.016479911 0.118058108 -0.003963913 0.686797738 0.717185795
1341846113.333866 0.003831569 -0.002198487 -0.016479919 0.118058048 -0.003963794 0.686797857 0.717185676
1341846113.366028 0.003831579 -0.002198477 -0.016479924 0.118058152 -0.003963951 0.686797857 0.717185616
1341846113.401917 0.003831600 -0.002198468 -0.016479915 0.118058160 -0.003963889 0.686797976 0.717185497
1341846113.433895 0.003831610 -0.002198446 -0.016479930 0.118058145 -0.003963630 0.686798155 0.717185378
1341846113.469984 0.003831615 -0.002198438 -0.016479935 0.118058190 -0.003963786 0.686798155 0.717185378
1341846113.501829 0.003831629 -0.002198434 -0.016479928 0.118058369 -0.003963714 0.686798155 0.717185259
1341846113.533888 0.003831638 -0.002198424 -0.016479937 0.118058242 -0.003963687 0.686798155 0.717185318
1341846113.569800 0.003831645 -0.002198422 -0.016479930 0.118058324 -0.003963708 0.686798155 0.717185318
1341846113.601892 0.003831652 -0.002198421 -0.016479934 0.118058480 -0.003963785 0.686798036 0.717185378
1341846113.634488 0.003831659 -0.002198409 -0.016479937 0.118058361 -0.003963593 0.686798036 0.717185438
1341846113.669776 0.003831665 -0.002198395 -0.016479941 0.118058369 -0.003963457 0.686797917 0.717185557
1341846113.701823 0.003831676 -0.002198387 -0.016479943 0.118058532 -0.003963176 0.686797738 0.717185676
1341846113.737952 0.003831692 -0.002198384 -0.016479941 0.118058622 -0.003963176 0.686797678 0.717185795
1341846113.769790 0.003831689 -0.002198373 -0.016479950 0.118058726 -0.003963139 0.686797559 0.717185855
1341846113.801808 0.003831692 -0.002198373 -0.016479945 0.118058667 -0.003963040 0.686797440 0.717185974
1341846113.837973 0.003831700 -0.002198366 -0.016479945 0.118058681 -0.003962879 0.686797500 0.717185915
1341846113.869842 0.003831701 -0.002198359 -0.016479947 0.118058801 -0.003962936 0.686797440 0.717185974
1341846113.901753 0.003831717 -0.002198362 -0.016479935 0.118058972 -0.003962941 0.686797380 0.717185974
1341846113.937955 0.003831733 -0.002198355 -0.016479932 0.118058987 -0.003962671 0.686797440 0.717185915
1341846113.969840 0.003831733 -0.002198341 -0.016479939 0.118058659 -0.003962686 0.686797380 0.717186034
1341846114.005912 0.003831735 -0.002198335 -0.016479934 0.118058614 -0.003962431 0.686797321 0.717186034
1341846114.043864 0.003831756 -0.002198334 -0.016479915 0.118058734 -0.003962083 0.686797321 0.717186093
1341846114.106082 0.003831765 -0.002198319 -0.016479922 0.118059099 -0.003962259 0.686797321 0.717186093
1341846114.137798 0.003831769 -0.002198320 -0.016479919 0.118059315 -0.003962343 0.686797202 0.717186093
1341846114.170101 0.003831774 -0.002198308 -0.016479921 0.118059166 -0.003961994 0.686797142 0.717186213
1341846114.205882 0.003831773 -0.002198307 -0.016479917 0.118058972 -0.003961932 0.686797202 0.717186153
1341846114.237814 0.003831770 -0.002198309 -0.016479917 0.118059076 -0.003962114 0.686797142 0.717186213
1341846114.273904 0.003831771 -0.002198310 -0.016479919 0.118059337 -0.003962114 0.686797202 0.717186093
1341846114.305813 0.003831771 -0.002198310 -0.016479919 0.118059374 -0.003962156 0.686797321 0.717185974
1341846114.337919 0.003831771 -0.002198311 -0.016479919 0.118059613 -0.003962063 0.686797321 0.717185915
1341846114.374059 0.003831772 -0.002198311 -0.016479919 0.118059561 -0.003961695 0.686797440 0.717185795
1341846114.406296 0.003831771 -0.002198312 -0.016479919 0.118059643 -0.003961462 0.686797559 0.717185736
1341846114.441861 0.003831771 -0.002198316 -0.016479919 0.118060090 -0.003961644 0.686797440 0.717185736
1341846114.473886 0.003831771 -0.002198317 -0.016479921 0.118060134 -0.003961565 0.686797440 0.717185736
1341846114.506009 0.003831768 -0.002198317 -0.016479919 0.118060142 -0.003961114 0.686797440 0.717185736
1341846114.541924 0.003831766 -0.002198322 -0.016479921 0.118060581 -0.003961311 0.686797380 0.717185736
1341846114.573824 0.003831766 -0.002198320 -0.016479924 0.118060693 -0.003961165 0.686797142 0.717185915
1341846114.605897 0.003831760 -0.002198317 -0.016479919 0.118060224 -0.003960774 0.686797023 0.717186093
1341846114.641888 0.003831757 -0.002198318 -0.016479913 0.118060261 -0.003960649 0.686797023 0.717186093
1341846114.673974 0.003831758 -0.002198318 -0.016479917 0.118060321 -0.003960478 0.686796963 0.717186153
1341846114.709730 0.003831759 -0.002198315 -0.016479924 0.118060440 -0.003960259 0.686796904 0.717186153
1341846114.741795 0.003831753 -0.002198313 -0.016479922 0.118060328 -0.003960154 0.686796784 0.717186391
1341846114.773917 0.003831750 -0.002198312 -0.016479924 0.118060522 -0.003960075 0.686796427 0.717186630
1341846114.810044 0.003831745 -0.002198311 -0.016479935 0.118060604 -0.003959758 0.686796367 0.717186689
1341846114.841856 0.003831739 -0.002198307 -0.016479943 0.118060686 -0.003959337 0.686796367 0.717186749
1341846114.873982 0.003831738 -0.002198317 -0.016479926 0.118060730 -0.003959348 0.686796427 0.717186630
1341846114.909807 0.003831740 -0.002198318 -0.016479924 0.118060753 -0.003959343 0.686796486 0.717186570
1341846114.909807 0.003831740 -0.002198318 -0.016479924 0.118060753 -0.003959343 0.686796486 0.717186570
1341846114.909807 0.003831740 -0.002198318 -0.016479924 0.118060753 -0.003959343 0.686796486 0.717186570
1341846114.909807 0.003831740 -0.002198318 -0.016479924 0.118060753 -0.003959343 0.686796486 0.717186570
1341846114.909807 0.003831740 -0.002198318 -0.016479924 0.118060753 -0.003959343 0.686796486 0.717186570
1341846114.909807 0.003831740 -0.002198318 -0.016479924 0.118060753 -0.003959343 0.686796486 0.717186570
1341846114.909807 0.003831740 -0.002198318 -0.016479924 0.118060753 -0.003959343 0.686796486 0.717186570
1341846114.909807 0.003831740 -0.002198318 -0.016479924 0.118060753 -0.003959343 0.686796486 0.717186570
1341846114.909807 0.003831740 -0.002198318 -0.016479924 0.118060753 -0.003959343 0.686796486 0.717186570
1341846114.909807 0.003831740 -0.002198318 -0.016479924 0.118060753 -0.003959343 0.686796486 0.717186570
1341846114.909807 0.003831740 -0.002198318 -0.016479924 0.118060753 -0.003959343 0.686796486 0.717186570
1341846114.909807 0.003831740 -0.002198318 -0.016479924 0.118060753 -0.003959343 0.686796486 0.717186570
1341846114.909807 0.003831740 -0.002198318 -0.016479924 0.118060753 -0.003959343 0.686796486 0.717186570
1341846114.909807 0.003831740 -0.002198318 -0.016479924 0.118060753 -0.003959343 0.686796486 0.717186570
1341846114.909807 0.003831740 -0.002198318 -0.016479924 0.118060753 -0.003959343 0.686796486 0.717186570
1341846114.909807 0.003831740 -0.002198318 -0.016479924 0.118060753 -0.003959343 0.686796486 0.717186570
1341846114.909807 0.003831740 -0.002198318 -0.016479924 0.118060753 -0.003959343 0.686796486 0.717186570
1341846114.909807 0.003831740 -0.002198318 -0.016479924 0.118060753 -0.003959343 0.686796486 0.717186570
1341846114.909807 0.003831740 -0.002198318 -0.016479924 0.118060753 -0.003959343 0.686796486 0.717186570
1341846114.909807 0.003831740 -0.002198318 -0.016479924 0.118060753 -0.003959343 0.686796486 0.717186570
1341846114.909807 0.003831740 -0.002198318 -0.016479924 0.118060753 -0.003959343 0.686796486 0.717186570
1341846114.909807 0.003831740 -0.002198318 -0.016479924 0.118060753 -0.003959343 0.686796486 0.717186570
1341846114.909807 0.003831740 -0.002198318 -0.016479924 0.118060753 -0.003959343 0.686796486 0.717186570
1341846114.909807 0.003831740 -0.002198318 -0.016479924 0.118060753 -0.003959343 0.686796486 0.717186570
1341846115.746144 0.003862708 -0.001980332 -0.017795378 -0.043042444 0.012172827 0.608894229 0.791989267
1341846115.781725 0.004621758 -0.001641563 -0.018455125 -0.046131302 0.009585221 0.601016819 0.797846317
1341846115.813812 0.004104278 -0.002121600 -0.017362677 -0.049690992 0.010317101 0.591528833 0.804685056
1341846115.848050 0.004004479 -0.002205056 -0.017066628 -0.052373424 0.013885896 0.579462230 0.813196003
1341846115.881857 0.003986889 -0.002180784 -0.017283242 -0.055924863 0.014183617 0.572838426 0.817635238
1341846115.913919 0.003985647 -0.002209044 -0.017190160 -0.060382821 0.012269116 0.566800654 0.821547568
1341846115.950006 0.004004362 -0.002205773 -0.016956821 -0.063016862 0.014106261 0.557285070 0.827806294
1341846115.982063 0.004008292 -0.002149069 -0.017240681 -0.064700015 0.017509434 0.549891293 0.832542419
1341846116.014067 0.004084507 -0.002105857 -0.017518120 -0.066082686 0.017059140 0.548648596 0.833262742
1341846116.050272 0.004026747 -0.002140435 -0.017278822 -0.065426499 0.016079560 0.544344425 0.836151898
1341846116.081984 0.004008377 -0.002158597 -0.017055329 -0.064914733 0.018076165 0.535417020 0.841895461
1341846116.113928 0.004047131 -0.002125985 -0.017131634 -0.067348935 0.018776186 0.528224587 0.846221268
1341846116.149901 0.004042633 -0.002194160 -0.017175926 -0.067291059 0.016115738 0.525184989 0.848170340
1341846116.181797 0.003882159 -0.002176445 -0.017301988 -0.064398170 0.016550422 0.516200662 0.853882790
1341846116.219755 0.003913164 -0.002093941 -0.017983390 -0.065813221 0.017856514 0.507476509 0.858962953
1341846116.252587 0.004171155 -0.002108675 -0.017977800 -0.067246884 0.017296975 0.502759993 0.861632824
1341846116.282014 0.003800804 -0.002164428 -0.016768459 -0.064907059 0.018745629 0.497571170 0.864788234
1341846116.319031 0.003996353 -0.002149118 -0.017464606 -0.064713493 0.019922450 0.492974490 0.867404997
1341846116.381987 0.003958209 -0.002149262 -0.017332889 -0.066548437 0.020955540 0.486858994 0.870689690
1341846116.417962 0.003895679 -0.002184948 -0.017303143 -0.067500465 0.021792509 0.482733846 0.872889936
1341846116.449943 0.004064829 -0.002246439 -0.017926773 -0.069205657 0.020665923 0.476034462 0.876455784
1341846116.486079 0.004161709 -0.002315840 -0.018666526 -0.070512906 0.021386003 0.466958195 0.881204128
1341846116.517901 0.003760174 -0.002242710 -0.017791271 -0.072608113 0.020842317 0.458749324 0.885348916
1341846116.549851 0.004133195 -0.002140021 -0.020144967 -0.074111089 0.017929705 0.450827956 0.889348209
1341846116.585719 0.004098553 -0.002339385 -0.018889172 -0.075786620 0.016807986 0.439350873 0.894955158
1341846116.617985 0.003972618 -0.002271656 -0.018576294 -0.078865789 0.017798105 0.432308435 0.898093998
1341846116.653901 0.003949794 -0.002202264 -0.017582325 -0.079790056 0.016962318 0.431859046 0.898244798
1341846116.686079 0.003898219 -0.002206982 -0.017149903 -0.079594247 0.016491316 0.430918366 0.898722529
1341846116.717942 0.003935140 -0.002166140 -0.017515667 -0.079493746 0.019286923 0.427483231 0.900314867
1341846116.753865 0.003927229 -0.002288152 -0.017028064 -0.081415974 0.019450294 0.426093847 0.900798082
1341846116.785839 0.003829887 -0.002165443 -0.016921649 -0.080305085 0.016740594 0.423740894 0.902061284
1341846116.818815 0.003840953 -0.002177183 -0.016818538 -0.078233689 0.016348716 0.415999115 0.905845940
1341846116.853902 0.003850960 -0.002188444 -0.016863745 -0.080594286 0.015691433 0.408573151 0.909024954
1341846116.886435 0.003863724 -0.002177688 -0.016834052 -0.079874791 0.012568595 0.402386308 0.911892176
1341846116.921838 0.003875221 -0.002152052 -0.016929485 -0.078169808 0.011610356 0.394911557 0.915313900
1341846116.953941 0.003865612 -0.002135448 -0.016999312 -0.077644639 0.010692194 0.387753069 0.918425024
1341846116.985759 0.003878490 -0.002175414 -0.016932990 -0.077130817 0.008273935 0.381898165 0.920943081
1341846117.021816 0.003875241 -0.002140247 -0.016962254 -0.075699933 0.005987744 0.375364512 0.923761427
1341846117.054055 0.003836155 -0.002155314 -0.016865557 -0.074648455 0.004036277 0.369438440 0.926243246
1341846117.085953 0.003849814 -0.002187670 -0.016706962 -0.074520439 0.001502226 0.363322318 0.928677201
1341846117.121840 0.003835218 -0.002126449 -0.016956843 -0.072983906 -0.000944793 0.358094335 0.930828094
1341846117.154178 0.003849919 -0.002152313 -0.016880171 -0.071404390 -0.002630483 0.354004860 0.932510078
1341846117.190028 0.003851688 -0.002138735 -0.016924083 -0.069657736 -0.003976019 0.351017982 0.933765709
1341846117.221812 0.003877046 -0.002151403 -0.016940018 -0.069054127 -0.004796686 0.344971716 0.936057210
1341846117.253848 0.003860875 -0.002151178 -0.016925754 -0.069509223 -0.004035125 0.341685355 0.937231719
1341846117.289976 0.003860699 -0.002169998 -0.016825546 -0.069278955 -0.005824150 0.341462940 0.937320411
1341846117.321956 0.003853786 -0.002224451 -0.016673777 -0.067755103 -0.008254362 0.339680463 0.938060939
1341846117.354004 0.003843036 -0.002187420 -0.016701806 -0.066990726 -0.005219157 0.333675593 0.940290153
1341846117.389874 0.003844331 -0.002176688 -0.016845558 -0.068025760 -0.004535677 0.331909716 0.940844238
1341846117.421707 0.003841224 -0.002179552 -0.016711203 -0.067535639 -0.008185162 0.331963658 0.940835834
1341846117.457914 0.003843671 -0.002195315 -0.016766895 -0.065492459 -0.007624609 0.327236593 0.942639291
1341846117.490067 0.003827761 -0.002193525 -0.016744239 -0.066475205 -0.007258044 0.324683011 0.943456054
1341846117.521746 0.003827772 -0.002178856 -0.016870309 -0.067243859 -0.010495752 0.324610829 0.943395913
1341846117.557896 0.003826494 -0.002174627 -0.016871743 -0.064589687 -0.012150223 0.322129458 0.944411516
1341846117.590027 0.003826642 -0.002173973 -0.016878922 -0.064086542 -0.012669101 0.321217120 0.944749653
1341846117.621818 0.003824489 -0.002174803 -0.016861172 -0.062918045 -0.014266303 0.322105467 0.944502950
1341846117.658054 0.003825927 -0.002173438 -0.016859364 -0.058830760 -0.015490846 0.322668940 0.944554746
1341846117.689984 0.003825165 -0.002174395 -0.016866175 -0.056453221 -0.014540631 0.321231216 0.945204794
1341846117.725898 0.003826543 -0.002175424 -0.016854804 -0.053850070 -0.014585095 0.321025461 0.945425868
1341846117.757737 0.003824470 -0.002172167 -0.016866481 -0.048783939 -0.015283751 0.320213825 0.945964932
1341846117.790023 0.003825528 -0.002172371 -0.016865628 -0.046623275 -0.016634546 0.318482310 0.946635425
1341846117.825949 0.003823857 -0.002174469 -0.016861027 -0.044380270 -0.016595991 0.315934271 0.947597206
1341846117.857847 0.003823020 -0.002174614 -0.016866209 -0.042830721 -0.014868356 0.316641778 0.947461069
1341846117.893987 0.003824135 -0.002172212 -0.016868673 -0.042364199 -0.015476200 0.319417745 0.946540058
1341846117.925908 0.003823967 -0.002172893 -0.016867459 -0.041556899 -0.016510282 0.321558565 0.945833266
1341846117.958141 0.003823646 -0.002171836 -0.016880011 -0.041537572 -0.013684153 0.321799338 0.945797324
1341846117.993978 0.003824271 -0.002171921 -0.016877057 -0.043240279 -0.012631970 0.324719399 0.944737017
1341846118.025852 0.003821713 -0.002173542 -0.016866831 -0.044217523 -0.014020288 0.328326225 0.943424702
1341846118.058362 0.003823079 -0.002174871 -0.016861778 -0.044218581 -0.013383051 0.329306632 0.943092108
1341846118.093970 0.003827724 -0.002168284 -0.016883336 -0.044461206 -0.011694713 0.330061406 0.942839265
1341846118.125943 0.003826233 -0.002170046 -0.016873347 -0.045500282 -0.012807447 0.331484884 0.942275703
1341846118.161827 0.003827889 -0.002171638 -0.016866842 -0.044885252 -0.013448328 0.331309825 0.942357779
1341846118.194750 0.003823748 -0.002170711 -0.016885616 -0.043777347 -0.010871057 0.329923183 0.942929506
1341846118.226048 0.003822436 -0.002174003 -0.016862137 -0.044059630 -0.009912142 0.330663234 0.942667663
1341846118.261772 0.003826263 -0.002173530 -0.016863463 -0.042835340 -0.009702632 0.331055850 0.942588449
1341846118.294053 0.003823336 -0.002172082 -0.016867155 -0.041469369 -0.007940006 0.331562668 0.942487895
1341846118.336123 0.003823358 -0.002171254 -0.016875358 -0.041064419 -0.006455307 0.331297398 0.942610264
1341846118.362053 0.003823607 -0.002170574 -0.016873054 -0.041835241 -0.006948848 0.330767721 0.942758858
1341846118.393906 0.003825057 -0.002172544 -0.016864028 -0.042071596 -0.005677422 0.329791665 0.943098724
1341846118.429882 0.003824898 -0.002171572 -0.016872957 -0.042208854 -0.003778154 0.329506397 0.943201780
1341846118.461821 0.003824575 -0.002171240 -0.016890561 -0.043026593 -0.005391309 0.330597013 0.942775309
1341846118.509152 0.003826346 -0.002171385 -0.016877875 -0.043489054 -0.006004159 0.330109596 0.942921162
1341846118.535838 0.003826966 -0.002171017 -0.016894463 -0.043290216 -0.004744725 0.330232650 0.942894399
1341846118.567808 0.003825688 -0.002168322 -0.016892400 -0.044053771 -0.005736517 0.332418650 0.942085028
1341846118.603991 0.003821862 -0.002172622 -0.016858511 -0.043861452 -0.007136400 0.332127571 0.942187071
1341846118.635802 0.003825567 -0.002170466 -0.016879734 -0.042259336 -0.004001280 0.331332833 0.942558587
1341846118.667919 0.003826406 -0.002170725 -0.016885569 -0.043039568 -0.003578845 0.332563430 0.942091465
1341846118.703956 0.003826829 -0.002171670 -0.016872523 -0.042664312 -0.004645887 0.333584547 0.941742837
1341846118.735837 0.003829390 -0.002170290 -0.016878096 -0.041339472 -0.002463566 0.332693636 0.942125201
1341846118.772013 0.003826362 -0.002171469 -0.016885072 -0.042261545 -0.001095128 0.333250046 0.941890240
1341846118.804343 0.003826429 -0.002171823 -0.016869452 -0.042479530 -0.001916660 0.334416151 0.941465735
1341846118.835817 0.003828012 -0.002171084 -0.016874954 -0.041169532 -0.000756023 0.334448725 0.941513956
1341846118.872045 0.003828400 -0.002170562 -0.016886937 -0.041694283 -0.000183277 0.334784657 0.941371739
1341846118.903860 0.003826290 -0.002172615 -0.016859163 -0.041807286 -0.001077467 0.334701747 0.941395640
1341846118.935809 0.003825821 -0.002171307 -0.016882759 -0.041739348 -0.000532178 0.332428545 0.942204237
1341846118.971870 0.003827053 -0.002169346 -0.016882475 -0.041395586 0.000697658 0.333228260 0.941936731
1341846119.003949 0.003829357 -0.002170669 -0.016885415 -0.040923815 0.000340894 0.334917277 0.941358328
1341846119.035768 0.003820188 -0.002174881 -0.016882844 -0.038046055 0.002881660 0.336193293 0.941019833
1341846119.071829 0.003822604 -0.002175314 -0.016882321 -0.035806082 0.007373726 0.337278038 0.940694988
1341846119.103837 0.003820202 -0.002174992 -0.016884828 -0.035018943 0.007953513 0.339086384 0.940069616
1341846119.136478 0.003820642 -0.002174947 -0.016883748 -0.034363873 0.007894653 0.338299423 0.940377772
1341846119.171928 0.003823039 -0.002176960 -0.016875945 -0.032785866 0.010423367 0.338623941 0.940292656
1341846119.203919 0.003822951 -0.002173756 -0.016879726 -0.031416424 0.012048658 0.339581549 0.939974546
1341846119.266059 0.003822728 -0.002174004 -0.016878366 -0.028157610 0.008370631 0.346260071 0.937678516
1341846119.297817 0.003823158 -0.002174678 -0.016878592 -0.027476715 0.008260327 0.346853584 0.937480330
1341846119.334095 0.003823335 -0.002174758 -0.016880400 -0.028151838 0.006381914 0.348748535 0.936771691
1341846119.365757 0.003821938 -0.002173236 -0.016882427 -0.025775354 0.004649905 0.350486100 0.936201632
1341846119.401815 0.003821942 -0.002174322 -0.016881617 -0.023891298 0.004697637 0.351309896 0.935942590
1341846119.434863 0.003821598 -0.002175815 -0.016880054 -0.024173936 0.005638071 0.349283308 0.936688364
1341846119.465868 0.003823124 -0.002174315 -0.016886486 -0.024374139 0.006484273 0.348223925 0.937072039
1341846119.501761 0.003824112 -0.002172651 -0.016888520 -0.023069600 0.007523977 0.348665535 0.936933100
1341846119.533772 0.003822369 -0.002174648 -0.016885828 -0.022030547 0.008030705 0.349058062 0.936807692
1341846119.565854 0.003821774 -0.002174752 -0.016887926 -0.022079531 0.008204188 0.347474545 0.937393546
