1341846092.023798 -0.0077748 -0.0190999 0.0558959 0.0962426 -0.0590148 0.6119473 0.7827995
1341846092.595783 0.0003471 -0.0195653 0.0590842 0.1227570 -0.0299975 0.5995136 0.7903254
1341846092.628121 0.0003450 -0.0197416 0.0592988 0.1267609 -0.0279390 0.5999253 0.7894560
1341846092.727906 0.0003452 -0.0197416 0.0592988 0.1330341 -0.0188195 0.5985428 0.7897432
1341846092.795871 0.0003448 -0.0197417 0.0592982 0.1433917 -0.0134029 0.6020532 0.7853606
1341846092.927920 0.0003455 -0.0197410 0.0592955 0.1553045 0.0005097 0.5911269 0.7914855
1341846092.995760 0.0003455 -0.0197412 0.0592959 0.1630042 0.0086149 0.5925095 0.7888523
1341846093.125933 0.0003451 -0.0197411 0.0592958 0.1792284 0.0259825 0.5904303 0.7865076
1341846093.289744 0.0003444 -0.0197415 0.0592965 0.1974713 0.0446189 0.5966902 0.7765147
1341846093.425924 0.0003431 -0.0197419 0.0592965 0.2119615 0.0586227 0.5994678 0.7695934
1341846093.561833 0.0003435 -0.0197420 0.0592976 0.2308458 0.0736925 0.6048731 0.7585567
1341846093.661809 0.0003435 -0.0197420 0.0592978 0.2420892 0.0842802 0.6028564 0.7555487
1341846093.725842 0.0003433 -0.0197421 0.0592976 0.2506946 0.0913952 0.6008568 0.7535053
1341846093.794228 0.0003433 -0.0197420 0.0592979 0.2654130 0.0957585 0.6049122 0.7446257
1341846093.861841 0.0003432 -0.0197422 0.0592976 0.2761740 0.1005327 0.6069648 0.7383866
1341846093.929912 0.0003432 -0.0197426 0.0592965 0.2841780 0.1066733 0.6088820 0.7328891
1341846094.029902 0.0003433 -0.0197424 0.0592968 0.2987164 0.1175428 0.6081352 0.7260330
1341846094.097921 0.0003438 -0.0197418 0.0592979 0.3057815 0.1220098 0.6037490 0.7260155
1341846094.229967 0.0003432 -0.0197420 0.0592975 0.3042286 0.1354252 0.5994259 0.7278693
1341846094.366053 0.0003428 -0.0197422 0.0592973 0.2947238 0.1359251 0.6000608 0.7311561
1341846094.397911 0.0003423 -0.0197427 0.0592970 0.2912602 0.1361746 0.6003394 0.7322681
1341846094.429746 0.0003418 -0.0197430 0.0592971 0.2877271 0.1364507 0.6005920 0.7334055
1341846094.466133 0.0003412 -0.0197433 0.0592975 0.2841946 0.1366993 0.6008242 0.7345455
1341846094.533970 0.0003397 -0.0197442 0.0592979 0.2772142 0.1372102 0.6013291 0.7367014
1341846094.697961 0.0003362 -0.0197453 0.0592998 0.2595633 0.1384481 0.6023392 0.7420556
1341846094.833846 0.0003345 -0.0197456 0.0593014 0.2454328 0.1394226 0.6030574 0.7460870
1341846095.002198 0.0003308 -0.0197458 0.0593040 0.2312090 0.1403406 0.6035849 0.7500214
1341846095.134021 0.0003308 -0.0197456 0.0593041 0.2085692 0.1296912 0.6058483 0.7567212
1341846095.301803 0.0003303 -0.0197456 0.0593043 0.1980726 0.1178492 0.6168347 0.7525914
1341846095.469900 0.0003298 -0.0197457 0.0593052 0.1875257 0.1058232 0.6275997 0.7481672
1341846095.606238 0.0003292 -0.0197452 0.0593053 0.1789946 0.0962586 0.6359606 0.7444792
1341846095.737902 0.0003289 -0.0197448 0.0593052 0.1704222 0.0867302 0.6441771 0.7405877
1341846095.905980 0.0003281 -0.0197442 0.0593054 0.1617806 0.0770539 0.6522707 0.7365003
1341846096.041838 0.0003275 -0.0197442 0.0593055 0.1531299 0.0673686 0.6601908 0.7322300
1341846096.173951 0.0003269 -0.0197443 0.0593058 0.1444466 0.0576795 0.6679277 0.7277918
1341846096.309891 0.0003268 -0.0197444 0.0593059 0.1357669 0.0480669 0.6754725 0.7231831
1341846096.409718 0.0003269 -0.0197445 0.0593059 0.1292982 0.0408269 0.6810229 0.7195992
1341846096.510050 0.0003267 -0.0197446 0.0593059 0.1226516 0.0335309 0.6865097 0.7159167
1341846096.577955 0.0003269 -0.0197446 0.0593059 0.1183050 0.0290678 0.6901519 0.7133368
1341846096.641875 0.0003267 -0.0197448 0.0593062 0.1137879 0.0239365 0.6936666 0.7108488
1341846096.709906 0.0003265 -0.0197448 0.0593063 0.1094278 0.0191752 0.6971313 0.7082837
1341846096.845763 0.0003256 -0.0197450 0.0593068 0.1008757 0.0095030 0.7039742 0.7029609
1341846096.945914 0.0003251 -0.0197452 0.0593070 0.0940973 0.0023119 0.7089877 0.6989112
1341846096.978058 0.0003248 -0.0197453 0.0593072 0.0915776 -0.0004141 0.7108437 0.6973627
1341846097.045960 0.0003240 -0.0197452 0.0593074 0.0874358 -0.0051462 0.7143210 0.6943154
1341846097.078464 0.0003239 -0.0197452 0.0593075 0.0851428 -0.0081246 0.7160000 0.6928410
1341846097.178019 0.0003235 -0.0197452 0.0593075 0.0786311 -0.0144965 0.7203236 0.6890144
1341846097.282030 0.0003233 -0.0197451 0.0593074 0.0778960 -0.0208095 0.7219460 0.6872359
1341846097.381852 0.0003229 -0.0197448 0.0593074 0.0772328 -0.0291246 0.7253699 0.6833925
1341846097.413864 0.0003226 -0.0197444 0.0593073 0.0770814 -0.0306816 0.7258477 0.6828339
1341846097.481979 0.0003216 -0.0197442 0.0593075 0.0767304 -0.0362352 0.7273267 0.6810252
1341846097.550048 0.0003208 -0.0197437 0.0593076 0.0764478 -0.0409739 0.7285421 0.6794875
1341846097.649731 0.0003197 -0.0197434 0.0593076 0.0761513 -0.0457098 0.7300308 0.6776183
1341846097.749749 0.0003198 -0.0197434 0.0593074 0.0699318 -0.0543925 0.7323495 0.6751409
1341846097.817835 0.0003199 -0.0197434 0.0593073 0.0656239 -0.0606745 0.7339045 0.6733471
1341846097.882032 0.0003208 -0.0197433 0.0593070 0.0611480 -0.0666948 0.7354785 0.6714791
1341846097.985786 0.0003217 -0.0197429 0.0593069 0.0635782 -0.0695622 0.7351635 0.6713074
1341846098.050033 0.0003228 -0.0197426 0.0593067 0.0651990 -0.0714722 0.7349444 0.6711912
1341846098.117764 0.0003234 -0.0197417 0.0593066 0.0668186 -0.0733786 0.7347205 0.6710713
1341846098.217722 0.0003246 -0.0197413 0.0593067 0.0692447 -0.0762399 0.7343783 0.6708808
1341846098.253811 0.0003253 -0.0197408 0.0593068 0.0700538 -0.0771924 0.7342612 0.6708161
1341846098.319650 0.0003271 -0.0197403 0.0593068 0.0716695 -0.0791051 0.7340171 0.6706898
1341846098.353827 0.0003280 -0.0197398 0.0593066 0.0724867 -0.0800573 0.7338957 0.6706219
1341846098.418076 0.0003295 -0.0197389 0.0593063 0.0741063 -0.0819519 0.7336348 0.6705014
1341846098.453988 0.0003299 -0.0197384 0.0593064 0.0749084 -0.0828975 0.7335055 0.6704375
1341846098.621830 0.0003312 -0.0197385 0.0593059 0.0848950 -0.0661936 0.7318839 0.6728724
1341846098.685832 0.0003320 -0.0197385 0.0593057 0.0888826 -0.0595172 0.7311753 0.6737509
1341846098.721860 0.0003326 -0.0197386 0.0593057 0.0908800 -0.0561753 0.7307858 0.6741937
1341846098.753828 0.0003333 -0.0197387 0.0593055 0.0928730 -0.0528277 0.7303900 0.6746216
1341846098.789998 0.0003340 -0.0197388 0.0593054 0.0948692 -0.0494840 0.7299883 0.6750321
1341846098.827945 0.0003348 -0.0197386 0.0593051 0.0968588 -0.0461325 0.7295783 0.6754299
1341846098.889904 0.0003364 -0.0197387 0.0593046 0.0988414 -0.0427822 0.7291490 0.6758267
1341846098.921923 0.0003372 -0.0197388 0.0593045 0.1008311 -0.0394333 0.7287158 0.6762037
1341846098.957887 0.0003379 -0.0197387 0.0593042 0.1028152 -0.0360792 0.7282749 0.6765671
1341846098.990630 0.0003384 -0.0197391 0.0593040 0.1048097 -0.0327220 0.7278031 0.6769393
1341846099.022028 0.0003390 -0.0197392 0.0593041 0.1067990 -0.0293613 0.7273144 0.6773077
1341846099.089878 0.0003401 -0.0197393 0.0593036 0.1107772 -0.0226347 0.7263148 0.6779991
1341846099.157775 0.0003410 -0.0197394 0.0593034 0.1147374 -0.0159309 0.7253077 0.6786090
1341846099.264156 0.0003415 -0.0197396 0.0593032 0.1207229 -0.0058647 0.7237006 0.6794476
1341846099.499765 0.0003399 -0.0197383 0.0593039 0.1344853 0.0176278 0.7195172 0.6811005
1341846099.564678 0.0003396 -0.0197365 0.0593041 0.1364477 0.0209791 0.7188811 0.6812869
1341846099.626222 0.0003394 -0.0197348 0.0593045 0.1384064 0.0243309 0.7182337 0.6814631
1341846099.761986 0.0003395 -0.0197350 0.0593042 0.1059500 0.0591221 0.7119354 0.6916843
1341846099.825926 0.0003398 -0.0197347 0.0593036 0.0896208 0.0764680 0.7081472 0.6961669
1341846099.862065 0.0003397 -0.0197346 0.0593037 0.0814394 0.0851272 0.7060966 0.6982468
1341846099.894034 0.0003398 -0.0197347 0.0593036 0.0732452 0.0937723 0.7039396 0.7002220
1341846099.925860 0.0003398 -0.0197347 0.0593036 0.0667853 0.1015946 0.7018085 0.7019139
1341846099.961831 0.0003398 -0.0197346 0.0593036 0.0603201 0.1094083 0.6995997 0.7035280
1341846099.993861 0.0003398 -0.0197346 0.0593036 0.0538460 0.1172103 0.6973145 0.7050637
1341846100.029846 0.0003398 -0.0197346 0.0593036 0.0473657 0.1250008 0.6949524 0.7065215
1341846100.069920 0.0003398 -0.0197346 0.0593036 0.0408821 0.1327759 0.6925129 0.7079019
1341846100.099862 0.0003398 -0.0197346 0.0593036 0.0343948 0.1405351 0.6899971 0.7092044
1341846100.132811 0.0003398 -0.0197346 0.0593037 0.0279020 0.1482796 0.6874052 0.7104285
1341846100.168188 0.0003398 -0.0197346 0.0593037 0.0214068 0.1560086 0.6847377 0.7115738
1341846100.199801 0.0003398 -0.0197346 0.0593037 0.0149091 0.1637207 0.6819946 0.7126406
1341846100.235866 0.0003398 -0.0197346 0.0593037 0.0084099 0.1714128 0.6791763 0.7136291
1341846100.267868 0.0003398 -0.0197346 0.0593037 0.0019098 0.1790872 0.6762829 0.7145387
1341846100.299821 0.0003398 -0.0197347 0.0593037 -0.0045909 0.1867425 0.6733152 0.7153690
1341846100.335884 0.0003398 -0.0197347 0.0593037 -0.0110914 0.1943768 0.6702731 0.7161205
1341846100.400000 0.0003398 -0.0197347 0.0593037 -0.0240873 0.2095791 0.6639674 0.7173867
1341846100.435828 0.0003398 -0.0197348 0.0593037 -0.0305836 0.2171469 0.6607044 0.7179008
1341846100.535834 0.0003398 -0.0197348 0.0593038 -0.0500410 0.2396996 0.6504785 0.7189699
1341846100.635826 0.0003398 -0.0197348 0.0593037 -0.0694492 0.2620158 0.6396074 0.7193239
1341846100.672445 0.0003398 -0.0197349 0.0593038 -0.0759052 0.2693985 0.6358424 0.7192825
1341846100.798442 0.0003398 -0.0197349 0.0593038 -0.0952191 0.2913616 0.6241273 0.7186842
1341846100.897858 0.0003398 -0.0197350 0.0593039 -0.1144369 0.3130355 0.6117924 0.7173723
1341846101.033901 0.0003397 -0.0197352 0.0593040 -0.1398836 0.3414492 0.5944022 0.7145146
1341846101.065947 0.0003397 -0.0197353 0.0593040 -0.1462081 0.3484601 0.5898896 0.7136028
1341846101.169743 0.0003396 -0.0197355 0.0593042 -0.1650820 0.3692591 0.5759633 0.7103956
1341846101.269940 0.0003396 -0.0197357 0.0593043 -0.1837922 0.3896915 0.5614648 0.7064829
1341846101.369943 0.0003395 -0.0197359 0.0593045 -0.2023199 0.4097371 0.5464088 0.7018686
1341846101.469768 0.0003394 -0.0197361 0.0593047 -0.2206469 0.4293760 0.5308102 0.6965571
1341846101.569873 0.0003394 -0.0197362 0.0593049 -0.2387547 0.4485885 0.5146844 0.6905538
1341846101.601955 0.0003393 -0.0197364 0.0593050 -0.2447388 0.4548945 0.5091947 0.6884000
1341846101.670644 0.0003393 -0.0197365 0.0593052 -0.2566254 0.4673554 0.4980475 0.6838647
1341846101.738127 0.0003393 -0.0197365 0.0593054 -0.2683986 0.4796100 0.4866805 0.6790276
1341846101.769786 0.0003392 -0.0197366 0.0593055 -0.2742411 0.4856582 0.4809161 0.6764965
1341846101.805816 0.0003392 -0.0197366 0.0593056 -0.2800533 0.4916528 0.4750987 0.6738908
1341846101.837808 0.0003392 -0.0197367 0.0593056 -0.2858347 0.4975931 0.4692288 0.6712108
1341846101.869834 0.0003392 -0.0197367 0.0593057 -0.2915845 0.5034785 0.4633072 0.6684567
1341846101.905918 0.0003392 -0.0197367 0.0593058 -0.2973021 0.5093083 0.4573344 0.6656288
1341846101.937872 0.0003392 -0.0197367 0.0593059 -0.3029869 0.5150820 0.4513112 0.6627275
1341846101.973942 0.0003392 -0.0197367 0.0593060 -0.3086382 0.5207988 0.4452381 0.6597530
1341846102.005947 0.0003392 -0.0197367 0.0593062 -0.3142555 0.5264581 0.4391160 0.6567058
1341846102.037846 0.0003392 -0.0197367 0.0593063 -0.3198381 0.5320593 0.4329454 0.6535861
1341846102.073879 0.0003392 -0.0197367 0.0593064 -0.3253853 0.5376018 0.4267271 0.6503943
1341846102.105961 0.0003392 -0.0197366 0.0593065 -0.3308967 0.5430849 0.4204617 0.6471307
1341846102.137878 0.0003391 -0.0197366 0.0593066 -0.3363715 0.5485081 0.4141498 0.6437958
1341846102.173907 0.0003392 -0.0197366 0.0593067 -0.3418092 0.5538708 0.4077923 0.6403897
1341846102.205896 0.0003391 -0.0197365 0.0593068 -0.3472092 0.5591724 0.4013898 0.6369131
1341846102.242018 0.0003391 -0.0197365 0.0593070 -0.3525709 0.5644123 0.3949430 0.6333661
1341846102.274144 0.0003392 -0.0197364 0.0593071 -0.3578936 0.5695899 0.3884526 0.6297493
1341846102.305875 0.0003392 -0.0197364 0.0593072 -0.3631769 0.5747046 0.3819194 0.6260629
1341846102.341821 0.0003392 -0.0197363 0.0593073 -0.3684202 0.5797559 0.3753440 0.6223075
1341846102.374024 0.0003392 -0.0197363 0.0593074 -0.3736228 0.5847433 0.3687271 0.6184833
1341846102.409984 0.0003392 -0.0197362 0.0593075 -0.3787841 0.5896661 0.3620696 0.6145909
1341846102.441952 0.0003392 -0.0197362 0.0593076 -0.3839038 0.5945239 0.3553722 0.6106307
1341846102.473881 0.0003392 -0.0197361 0.0593077 -0.3889810 0.5993161 0.3486355 0.6066031
1341846102.509959 0.0003392 -0.0197361 0.0593078 -0.3940154 0.6040422 0.3418603 0.6025085
1341846102.541996 0.0003392 -0.0197361 0.0593078 -0.3990062 0.6087015 0.3350474 0.5983475
1341846102.574361 0.0003392 -0.0197360 0.0593079 -0.4039530 0.6132936 0.3281975 0.5941205
1341846102.610654 0.0003392 -0.0197360 0.0593079 -0.4088553 0.6178182 0.3213115 0.5898280
1341846102.642222 0.0003393 -0.0197360 0.0593080 -0.4137123 0.6222743 0.3143900 0.5854705
1341846102.677806 0.0003393 -0.0197360 0.0593081 -0.4185237 0.6266619 0.3074339 0.5810484
1341846102.709968 0.0003393 -0.0197359 0.0593081 -0.4232889 0.6309803 0.3004439 0.5765621
1341846102.741857 0.0003393 -0.0197358 0.0593082 -0.4280074 0.6352289 0.2934207 0.5720123
1341846102.777720 0.0003393 -0.0197358 0.0593082 -0.4326786 0.6394076 0.2863653 0.5673994
1341846102.809783 0.0003393 -0.0197357 0.0593083 -0.4373021 0.6435156 0.2792783 0.5627240
1341846102.841828 0.0003394 -0.0197357 0.0593083 -0.4418773 0.6475526 0.2721605 0.5579864
1341846102.877813 0.0003394 -0.0197356 0.0593084 -0.4464037 0.6515180 0.2650127 0.5531874
1341846102.909875 0.0003394 -0.0197356 0.0593084 -0.4508809 0.6554116 0.2578356 0.5483273
1341846102.945843 0.0003394 -0.0197356 0.0593084 -0.4553084 0.6592330 0.2506301 0.5434067
1341846102.977815 0.0003394 -0.0197355 0.0593085 -0.4596856 0.6629815 0.2433969 0.5384260
1341846103.009867 0.0003394 -0.0197355 0.0593085 -0.4640121 0.6666569 0.2361369 0.5333861
1341846103.045829 0.0003394 -0.0197354 0.0593085 -0.4682874 0.6702588 0.2288508 0.5282872
1341846103.077786 0.0003394 -0.0197354 0.0593086 -0.4682874 0.6702588 0.2288508 0.5282872
1341846103.110039 0.0003394 -0.0197354 0.0593086 -0.4682874 0.6702588 0.2288509 0.5282872
1341846103.145830 0.0003394 -0.0197354 0.0593086 -0.4682873 0.6702588 0.2288509 0.5282872
1341846103.177933 0.0003394 -0.0197354 0.0593086 -0.4682873 0.6702588 0.2288509 0.5282872
1341846103.246103 0.0003394 -0.0197353 0.0593087 -0.4682874 0.6702587 0.2288509 0.5282873
1341846103.277869 0.0003394 -0.0197353 0.0593087 -0.4682874 0.6702586 0.2288509 0.5282873
1341846103.314495 0.0003394 -0.0197353 0.0593087 -0.4682874 0.6702587 0.2288509 0.5282873
1341846103.345951 0.0003394 -0.0197353 0.0593087 -0.4682874 0.6702586 0.2288509 0.5282874
1341846103.382135 0.0003394 -0.0197353 0.0593088 -0.4682874 0.6702585 0.2288510 0.5282874
1341846103.413791 0.0003394 -0.0197353 0.0593088 -0.4682874 0.6702585 0.2288511 0.5282875
1341846103.445861 0.0003394 -0.0197353 0.0593088 -0.4682874 0.6702583 0.2288511 0.5282876
1341846103.482382 0.0003394 -0.0197352 0.0593089 -0.4682874 0.6702582 0.2288512 0.5282877
1341846103.513968 0.0003394 -0.0197352 0.0593089 -0.4682874 0.6702582 0.2288513 0.5282878
1341846103.545990 0.0003394 -0.0197352 0.0593089 -0.4682874 0.6702580 0.2288514 0.5282879
1341846103.582021 0.0003394 -0.0197352 0.0593089 -0.4682874 0.6702579 0.2288514 0.5282880
1341846103.614121 0.0003394 -0.0197352 0.0593090 -0.4682874 0.6702579 0.2288515 0.5282881
1341846103.650229 0.0003394 -0.0197352 0.0593090 -0.4682874 0.6702577 0.2288516 0.5282882
1341846103.714025 0.0003394 -0.0197352 0.0593090 -0.4682874 0.6702576 0.2288516 0.5282883
1341846103.749741 0.0003394 -0.0197351 0.0593090 -0.4682874 0.6702575 0.2288517 0.5282884
1341846103.813998 0.0003394 -0.0197351 0.0593091 -0.4682874 0.6702574 0.2288519 0.5282885
1341846103.849900 0.0003394 -0.0197351 0.0593091 -0.4682874 0.6702572 0.2288520 0.5282887
1341846103.883046 0.0003394 -0.0197351 0.0593091 -0.4682874 0.6702570 0.2288520 0.5282888
1341846103.917830 0.0003394 -0.0197350 0.0593091 -0.4682874 0.6702569 0.2288522 0.5282890
1341846103.949988 0.0003394 -0.0197350 0.0593091 -0.4682874 0.6702568 0.2288523 0.5282891
1341846103.981996 0.0003394 -0.0197350 0.0593091 -0.4682874 0.6702566 0.2288524 0.5282893
1341846104.017780 0.0003394 -0.0197350 0.0593091 -0.4682874 0.6702565 0.2288525 0.5282894
1341846104.049832 0.0003394 -0.0197350 0.0593091 -0.4682873 0.6702564 0.2288526 0.5282896
1341846104.082120 0.0003394 -0.0197350 0.0593091 -0.4682873 0.6702562 0.2288527 0.5282897
1341846104.117792 0.0003394 -0.0197350 0.0593092 -0.4682873 0.6702561 0.2288528 0.5282899
1341846104.150184 0.0003394 -0.0197350 0.0593092 -0.4682873 0.6702559 0.2288529 0.5282900
1341846104.185757 0.0003394 -0.0197350 0.0593092 -0.4682873 0.6702558 0.2288530 0.5282902
1341846104.217842 0.0003394 -0.0197350 0.0593092 -0.4682873 0.6702556 0.2288531 0.5282903
1341846104.250204 0.0003394 -0.0197350 0.0593092 -0.4682873 0.6702555 0.2288533 0.5282905
1341846104.286035 0.0003394 -0.0197350 0.0593092 -0.4682873 0.6702552 0.2288534 0.5282906
1341846104.317813 0.0003394 -0.0197350 0.0593092 -0.4682873 0.6702551 0.2288534 0.5282909
1341846104.349826 0.0003394 -0.0197349 0.0593092 -0.4682873 0.6702549 0.2288535 0.5282910
1341846104.385800 0.0003394 -0.0197349 0.0593092 -0.4682872 0.6702548 0.2288536 0.5282912
1341846104.417992 0.0003394 -0.0197349 0.0593092 -0.4682872 0.6702546 0.2288537 0.5282914
1341846104.453901 0.0003394 -0.0197349 0.0593092 -0.4682872 0.6702545 0.2288537 0.5282915
1341846104.485845 0.0003394 -0.0197349 0.0593092 -0.4682872 0.6702544 0.2288538 0.5282917
1341846104.517786 0.0003394 -0.0197349 0.0593092 -0.4682872 0.6702542 0.2288539 0.5282919
1341846104.553687 0.0003394 -0.0197349 0.0593092 -0.4682872 0.6702541 0.2288539 0.5282921
1341846104.585769 0.0003394 -0.0197349 0.0593092 -0.4682872 0.6702539 0.2288540 0.5282923
1341846104.621999 0.0003394 -0.0197349 0.0593092 -0.4682872 0.6702537 0.2288541 0.5282925
1341846104.691974 0.0003394 -0.0197349 0.0593092 -0.4682871 0.6702533 0.2288543 0.5282928
1341846104.754029 0.0003394 -0.0197350 0.0593092 -0.4682871 0.6702533 0.2288543 0.5282928
1341846104.785861 0.0003394 -0.0197350 0.0593092 -0.4682871 0.6702534 0.2288543 0.5282928
1341846104.822207 0.0003394 -0.0197350 0.0593092 -0.4682871 0.6702534 0.2288543 0.5282928
1341846104.889952 0.0003394 -0.0197350 0.0593091 -0.4682871 0.6702535 0.2288543 0.5282928
1341846104.921931 0.0003394 -0.0197350 0.0593091 -0.4682871 0.6702535 0.2288542 0.5282927
1341846104.954032 0.0003394 -0.0197350 0.0593091 -0.4682871 0.6702536 0.2288542 0.5282927
1341846104.989984 0.0003394 -0.0197350 0.0593091 -0.4682871 0.6702536 0.2288542 0.5282927
1341846105.021966 0.0003394 -0.0197350 0.0593091 -0.4682870 0.6702536 0.2288541 0.5282926
1341846105.053992 0.0003394 -0.0197351 0.0593091 -0.4682871 0.6702538 0.2288540 0.5282925
1341846105.089855 0.0003394 -0.0197351 0.0593090 -0.4682871 0.6702538 0.2288539 0.5282925
1341846105.121922 0.0003394 -0.0197351 0.0593090 -0.4682871 0.6702538 0.2288538 0.5282925
1341846105.158015 0.0003394 -0.0197351 0.0593090 -0.4682871 0.6702539 0.2288537 0.5282925
1341846105.189943 0.0003394 -0.0197352 0.0593090 -0.4682871 0.6702540 0.2288536 0.5282924
1341846105.222089 0.0003394 -0.0197352 0.0593089 -0.4682871 0.6702541 0.2288535 0.5282924
1341846105.258397 0.0003394 -0.0197352 0.0593089 -0.4682871 0.6702541 0.2288534 0.5282922
1341846105.289917 0.0003394 -0.0197352 0.0593089 -0.4682871 0.6702542 0.2288533 0.5282922
1341846105.321831 0.0003394 -0.0197352 0.0593089 -0.4682871 0.6702543 0.2288533 0.5282921
1341846105.357830 0.0003394 -0.0197352 0.0593089 -0.4682871 0.6702544 0.2288532 0.5282920
1341846105.389824 0.0003394 -0.0197352 0.0593089 -0.4682871 0.6702544 0.2288532 0.5282919
1341846105.425915 0.0003394 -0.0197353 0.0593089 -0.4682871 0.6702545 0.2288532 0.5282919
1341846105.457863 0.0003394 -0.0197353 0.0593088 -0.4682871 0.6702545 0.2288532 0.5282918
1341846105.489902 0.0003394 -0.0197353 0.0593088 -0.4682871 0.6702545 0.2288532 0.5282918
1341846105.525969 0.0003394 -0.0197353 0.0593088 -0.4682871 0.6702546 0.2288532 0.5282918
1341846105.594012 0.0003394 -0.0197353 0.0593087 -0.4682871 0.6702546 0.2288533 0.5282916
1341846105.626122 0.0003394 -0.0197353 0.0593087 -0.4682872 0.6702546 0.2288533 0.5282916
1341846105.657815 0.0003394 -0.0197353 0.0593087 -0.4682872 0.6702546 0.2288534 0.5282915
1341846105.726045 0.0003394 -0.0197354 0.0593087 -0.4682873 0.6702546 0.2288534 0.5282914
1341846105.758468 0.0003394 -0.0197354 0.0593086 -0.4682874 0.6702547 0.2288534 0.5282913
1341846105.793970 0.0003394 -0.0197354 0.0593086 -0.4682874 0.6702548 0.2288535 0.5282912
1341846105.861764 0.0003394 -0.0197354 0.0593086 -0.4682876 0.6702548 0.2288536 0.5282910
1341846105.893922 0.0003394 -0.0197354 0.0593085 -0.4682876 0.6702547 0.2288536 0.5282910
1341846105.963745 0.0003394 -0.0197355 0.0593085 -0.4682876 0.6702546 0.2288539 0.5282910
1341846106.025952 0.0003394 -0.0197355 0.0593085 -0.4682877 0.6702545 0.2288540 0.5282910
1341846106.061758 0.0003394 -0.0197355 0.0593084 -0.4682877 0.6702544 0.2288541 0.5282910
1341846106.093961 0.0003394 -0.0197355 0.0593084 -0.4682878 0.6702543 0.2288542 0.5282910
1341846106.130133 0.0003394 -0.0197355 0.0593084 -0.4682878 0.6702543 0.2288544 0.5282910
1341846106.193968 0.0003394 -0.0197355 0.0593084 -0.4682879 0.6702542 0.2288546 0.5282909
1341846106.229889 0.0003394 -0.0197356 0.0593084 -0.4682879 0.6702542 0.2288547 0.5282909
1341846106.261942 0.0003394 -0.0197356 0.0593084 -0.4682880 0.6702542 0.2288548 0.5282908
1341846106.329961 0.0003394 -0.0197356 0.0593084 -0.4682881 0.6702542 0.2288550 0.5282906
1341846106.361877 0.0003394 -0.0197355 0.0593084 -0.4682882 0.6702542 0.2288550 0.5282905
1341846106.398046 0.0003394 -0.0197355 0.0593084 -0.4682882 0.6702543 0.2288551 0.5282904
1341846106.461886 0.0003393 -0.0197355 0.0593084 -0.4682883 0.6702543 0.2288552 0.5282901
1341846106.497910 0.0003393 -0.0197355 0.0593084 -0.4682884 0.6702544 0.2288552 0.5282900
1341846106.529979 0.0003393 -0.0197355 0.0593084 -0.4682884 0.6702545 0.2288553 0.5282898
1341846108.641701 0.0000000 0.0000000 0.0000000 0.0000000 0.0000000 0.0000000 1.0000000
1341846108.673868 0.0189719 0.0086450 -0.0187995 0.0015252 -0.0026802 0.0038906 0.9999877
1341846108.710024 0.0065204 -0.0020109 -0.0077674 -0.0025319 0.0124846 0.0063041 0.9998990
1341846108.773793 0.0109339 -0.0008223 -0.0098448 -0.0033875 0.0230797 0.0103576 0.9996742
1341846108.841885 0.0004794 0.0002404 -0.0017141 -0.0025624 0.0392700 0.0117540 0.9991562
1341846108.909950 0.0033781 -0.0000631 -0.0042154 0.0008828 0.0447540 0.0157570 0.9988734
1341846108.977902 0.0011830 0.0000699 -0.0022158 0.0006933 0.0456463 0.0258643 0.9986225
1341846109.077854 0.0012080 0.0001668 -0.0022468 0.0000666 0.0531699 0.0345093 0.9979890
1341846109.145865 0.0012627 -0.0006817 0.0005290 0.0036768 0.0598819 0.0394536 0.9974187
1341846109.245810 0.0021139 -0.0014304 0.0043833 0.0242021 0.0651789 0.0604849 0.9957447
1341846109.345968 -0.0002133 -0.0100630 0.0156353 0.0588505 0.0682254 0.1027106 0.9906222
1341846109.377812 -0.0025334 -0.0120877 0.0194194 0.0669206 0.0670357 0.1170862 0.9885943
1341846109.413820 0.0011809 -0.0072241 0.0168442 0.0771066 0.0627291 0.1335565 0.9860438
1341846109.445954 0.0026081 0.0010608 0.0079957 0.0825008 0.0614546 0.1456108 0.9839789
1341846109.581855 0.0022534 -0.0082994 0.0125481 0.0906518 0.0568685 0.1906888 0.9758002
1341846109.645963 0.0015147 -0.0108264 0.0159533 0.1113396 0.0462148 0.2352314 0.9644345
1341846109.713847 0.0020907 -0.0077731 0.0110358 0.1249861 0.0404167 0.2706734 0.9536671
1341846109.913863 0.0020493 -0.0076793 0.0107079 0.1409522 0.0335255 0.3279188 0.9335297
1341846110.049982 0.0020461 -0.0076617 0.0106709 0.1488611 0.0349675 0.3350299 0.9297164
1341846110.150254 0.0020460 -0.0076617 0.0106709 0.1572294 0.0339169 0.3556826 0.9206620
1341846110.286020 0.0020461 -0.0076617 0.0106709 0.1641946 0.0269176 0.3902315 0.9055578
1341846110.485899 0.0020461 -0.0076617 0.0106709 0.1688617 0.0185625 0.4271572 0.8880754
1341846110.653885 0.0020461 -0.0076617 0.0106709 0.1709056 0.0087420 0.4406312 0.8812258
1341846110.753826 0.0020462 -0.0076618 0.0106710 0.1702952 0.0016186 0.4522166 0.8754982
1341846110.785789 0.0020462 -0.0076618 0.0106710 0.1700852 -0.0007580 0.4560567 0.8735461
1341846110.853855 0.0020462 -0.0076618 0.0106710 0.1696496 -0.0055104 0.4637045 0.8695785
1341846110.885864 0.0020463 -0.0076618 0.0106710 0.1694258 -0.0078854 0.4675120 0.8675628
1341846110.953861 0.0020463 -0.0076617 0.0106710 0.1689652 -0.0126308 0.4750926 0.8634688
1341846110.985986 0.0020463 -0.0076617 0.0106710 0.1687289 -0.0150062 0.4788649 0.8613906
1341846111.221870 0.0020463 -0.0076617 0.0106710 0.1669622 -0.0316154 0.5049444 0.8462595
1341846111.321895 0.0020463 -0.0076617 0.0106710 0.1661441 -0.0387232 0.5159395 0.8394659
1341846111.457975 0.0020463 -0.0076617 0.0106709 0.1649971 -0.0481869 0.5304242 0.8301229
1341846111.557829 0.0020464 -0.0076616 0.0106709 0.1640947 -0.0552726 0.5411532 0.8229041
1341846111.625966 0.0020464 -0.0076616 0.0106709 0.1634732 -0.0599898 0.5482405 0.8179915
1341846111.658029 0.0020464 -0.0076616 0.0106709 0.1631566 -0.0623462 0.5517642 0.8155054
1341846111.725851 0.0020464 -0.0076615 0.0106709 0.1625113 -0.0670546 0.5587716 0.8104740
1341846111.757957 0.0020465 -0.0076615 0.0106709 0.1621828 -0.0694063 0.5622549 0.8079288
1341846111.825999 0.0020465 -0.0076615 0.0106709 0.1615139 -0.0741047 0.5691806 0.8027797
1341846111.893939 0.0020466 -0.0076615 0.0106709 0.1608294 -0.0787958 0.5760511 0.7975527
1341846111.925817 0.0020466 -0.0076615 0.0106709 0.1604812 -0.0811386 0.5794653 0.7949103
1341846111.957857 0.0020466 -0.0076616 0.0106709 0.1601292 -0.0834794 0.5828655 0.7922484
1341846112.061964 0.0020466 -0.0076616 0.0106710 0.1590499 -0.0904893 0.5929813 0.7841479
1341846112.125857 0.0020467 -0.0076616 0.0106709 0.1583112 -0.0951517 0.5996536 0.7786522
1341846112.161882 0.0020468 -0.0076616 0.0106709 0.1579360 -0.0974795 0.6029680 0.7758760
1341846112.193903 0.0020468 -0.0076616 0.0106709 0.1575571 -0.0998048 0.6062676 0.7730811
1341846112.230507 0.0020468 -0.0076616 0.0106709 0.1571744 -0.1021278 0.6095526 0.7702673
1341846112.261848 0.0020469 -0.0076616 0.0106709 0.1567878 -0.1044483 0.6128229 0.7674348
1341846112.293912 0.0020469 -0.0076616 0.0106709 0.1563975 -0.1067662 0.6160783 0.7645838
1341846112.329892 0.0020469 -0.0076616 0.0106709 0.1560033 -0.1090816 0.6193187 0.7617142
1341846112.361751 0.0020470 -0.0076616 0.0106709 0.1556054 -0.1113942 0.6225441 0.7588262
1341846112.393853 0.0020470 -0.0076616 0.0106709 0.1552036 -0.1137042 0.6257544 0.7559198
1341846112.429940 0.0020470 -0.0076616 0.0106709 0.1547981 -0.1160114 0.6289495 0.7529950
1341846112.461839 0.0020470 -0.0076616 0.0106709 0.1543889 -0.1183158 0.6321294 0.7500519
1341846112.498139 0.0020471 -0.0076616 0.0106709 0.1539759 -0.1206174 0.6352940 0.7470906
1341846112.630702 0.0020471 -0.0076616 0.0106709 0.1522868 -0.1297936 0.6477978 0.7350649
1341846112.698170 0.0020471 -0.0076615 0.0106709 0.1514201 -0.1343630 0.6539559 0.7289446
1341846112.729995 0.0020471 -0.0076615 0.0106709 0.1509813 -0.1366429 0.6570112 0.7258579
1341846112.765875 0.0020471 -0.0076615 0.0106709 0.1505388 -0.1389194 0.6600506 0.7227535
1341846112.798043 0.0020472 -0.0076615 0.0106710 0.1500926 -0.1411925 0.6630740 0.7196317
1341846112.829969 0.0020472 -0.0076614 0.0106710 0.1496428 -0.1434622 0.6660812 0.7164925
1341846112.865900 0.0020472 -0.0076614 0.0106710 0.1491894 -0.1457284 0.6690723 0.7133359
1341846112.897929 0.0020473 -0.0076614 0.0106710 0.1487323 -0.1479911 0.6720471 0.7101619
1341846112.935783 0.0020473 -0.0076614 0.0106710 0.1482716 -0.1502501 0.6750057 0.7069708
1341846112.998277 0.0020473 -0.0076613 0.0106710 0.1478074 -0.1525055 0.6779479 0.7037625
1341846113.033814 0.0020473 -0.0076613 0.0106710 0.1473396 -0.1547571 0.6808736 0.7005373
1341846113.072059 0.0020473 -0.0076613 0.0106710 0.1468681 -0.1570050 0.6837828 0.6972950
1341846113.139948 0.0020474 -0.0076613 0.0106711 0.1463932 -0.1592491 0.6866754 0.6940358
1341846113.198174 0.0020475 -0.0076612 0.0106711 0.1459147 -0.1614893 0.6895514 0.6907597
1341846113.233852 0.0020475 -0.0076612 0.0106711 0.1454326 -0.1637256 0.6924107 0.6874669
1341846113.265850 0.0020475 -0.0076612 0.0106711 0.1449470 -0.1659580 0.6952531 0.6841574
1341846113.301938 0.0020475 -0.0076611 0.0106711 0.1444579 -0.1681863 0.6980787 0.6808314
1341846113.333866 0.0020475 -0.0076611 0.0106711 0.1439653 -0.1704105 0.7008874 0.6774889
1341846113.366028 0.0020476 -0.0076611 0.0106712 0.1434692 -0.1726306 0.7036791 0.6741298
1341846113.401917 0.0020476 -0.0076611 0.0106712 0.1429696 -0.1748465 0.7064537 0.6707545
1341846113.433895 0.0020476 -0.0076610 0.0106712 0.1424665 -0.1770582 0.7092111 0.6673629
1341846113.469984 0.0020476 -0.0076610 0.0106712 0.1419599 -0.1792656 0.7119514 0.6639551
1341846113.501829 0.0020476 -0.0076610 0.0106712 0.1414499 -0.1814687 0.7146744 0.6605313
1341846113.533888 0.0020477 -0.0076610 0.0106712 0.1409365 -0.1836673 0.7173800 0.6570914
1341846113.569800 0.0020477 -0.0076610 0.0106712 0.1404196 -0.1858614 0.7200683 0.6536357
1341846113.634488 0.0020477 -0.0076610 0.0106712 0.1393756 -0.1902360 0.7253922 0.6466768
1341846113.669776 0.0020477 -0.0076609 0.0106712 0.1388486 -0.1924164 0.7280278 0.6431738
1341846113.701823 0.0020477 -0.0076609 0.0106712 0.1383181 -0.1945921 0.7306458 0.6396552
1341846113.737952 0.0020477 -0.0076609 0.0106712 0.1377843 -0.1967630 0.7332460 0.6361212
1341846113.769790 0.0020477 -0.0076609 0.0106712 0.1372472 -0.1989292 0.7358284 0.6325718
1341846113.801808 0.0020477 -0.0076609 0.0106713 0.1367067 -0.2010906 0.7383929 0.6290070
1341846113.837973 0.0020477 -0.0076609 0.0106713 0.1361630 -0.2032471 0.7409394 0.6254270
1341846113.869842 0.0020477 -0.0076608 0.0106713 0.1356160 -0.2053986 0.7434680 0.6218320
1341846113.901753 0.0020477 -0.0076608 0.0106713 0.1350656 -0.2075452 0.7459786 0.6182218
1341846113.937955 0.0020478 -0.0076608 0.0106713 0.1345120 -0.2096867 0.7484710 0.6145967
1341846113.969840 0.0020478 -0.0076608 0.0106713 0.1339552 -0.2118232 0.7509453 0.6109567
1341846114.005912 0.0020478 -0.0076608 0.0106713 0.1333951 -0.2139545 0.7534014 0.6073019
1341846114.043864 0.0020478 -0.0076608 0.0106713 0.1328318 -0.2160807 0.7558392 0.6036323
1341846114.106082 0.0020478 -0.0076607 0.0106714 0.1322652 -0.2182016 0.7582588 0.5999480
1341846114.137798 0.0020478 -0.0076607 0.0106714 0.1316955 -0.2203173 0.7606599 0.5962492
1341846114.170101 0.0020478 -0.0076607 0.0106714 0.1311225 -0.2224276 0.7630427 0.5925359
1341846114.205882 0.0020478 -0.0076607 0.0106714 0.1305463 -0.2245325 0.7654069 0.5888082
1341846114.237814 0.0020478 -0.0076607 0.0106714 0.1299669 -0.2266319 0.7677525 0.5850663
1341846114.273904 0.0020478 -0.0076607 0.0106714 0.1293845 -0.2287260 0.7700796 0.5813102
1341846114.337919 0.0020478 -0.0076607 0.0106714 0.1282101 -0.2328974 0.7746776 0.5737557
1341846114.374059 0.0020478 -0.0076607 0.0106714 0.1276183 -0.2349745 0.7769483 0.5699577
1341846114.406296 0.0020478 -0.0076607 0.0106714 0.1270233 -0.2370460 0.7792004 0.5661458
1341846114.473886 0.0020478 -0.0076607 0.0106714 0.1258241 -0.2411716 0.7836477 0.5584807
1341846114.506009 0.0020478 -0.0076607 0.0106714 0.1252200 -0.2432256 0.7858430 0.5546280
1341846114.541924 0.0020478 -0.0076607 0.0106714 0.1246127 -0.2452737 0.7880190 0.5507618
1341846114.573824 0.0020478 -0.0076607 0.0106714 0.1240024 -0.2473159 0.7901761 0.5468821
1341846114.605897 0.0020478 -0.0076607 0.0106714 0.1233891 -0.2493520 0.7923138 0.5429894
1341846114.641888 0.0020478 -0.0076607 0.0106714 0.1227728 -0.2513820 0.7944325 0.5390834
1341846114.673974 0.0020477 -0.0076607 0.0106714 0.1221535 -0.2534060 0.7965319 0.5351645
1341846114.709730 0.0020477 -0.0076607 0.0106714 0.1215312 -0.2554238 0.7986119 0.5312325
1341846114.741795 0.0020477 -0.0076607 0.0106714 0.1209060 -0.2574354 0.8006725 0.5272877
1341846114.773917 0.0020477 -0.0076607 0.0106714 0.1202778 -0.2594407 0.8027138 0.5233301
1341846114.810044 0.0020477 -0.0076607 0.0106714 0.1196468 -0.2614398 0.8047355 0.5193599
1341846114.841856 0.0020476 -0.0076607 0.0106713 0.1190128 -0.2634326 0.8067377 0.5153771
1341846114.873982 0.0020476 -0.0076607 0.0106713 0.1183760 -0.2654190 0.8087202 0.5113819
1341846116.381987 0.0011831 -0.0003883 -0.0105740 0.0845877 -0.0515735 0.7644500 0.6370253
1341846116.853902 0.0008161 -0.0013298 -0.0116311 0.0772146 -0.0474068 0.7058897 0.7025028
1341846117.993978 0.0013478 -0.0011043 -0.0091735 0.1242159 -0.0464129 0.6358792 0.7603117
1341846118.903860 0.0012629 -0.0009218 -0.0094069 0.1218055 -0.0366609 0.6447009 0.7537773
1341846119.136478 0.0012640 -0.0009375 -0.0094027 0.1252505 -0.0264824 0.6497546 0.7492862
1341846119.401815 0.0012595 -0.0009399 -0.0093917 0.1359847 -0.0272868 0.6585517 0.7396441
