1341846111.321895 0.0000000 0.0000000 0.0000000 0.0000000 0.0000000 0.0000000 1.0000000
1341846111.857852 0.0143939 -0.0004026 0.0043322 0.0022458 -0.0000849 0.1532714 0.9881816
1341846111.893939 0.0128155 -0.0006627 0.0024601 0.0042279 0.0011401 0.1595493 0.9871802
1341846111.925817 0.0126048 -0.0008296 0.0002778 0.0037697 -0.0019659 0.1679408 0.9857879
1341846112.094004 0.0129029 -0.0007648 0.0039258 0.0139027 -0.0073026 0.2112237 0.9773116
1341846112.161882 0.0129038 -0.0007736 0.0039762 0.0213290 -0.0080438 0.2393244 0.9706720
1341846112.361751 0.0129020 -0.0007767 0.0039909 0.0474836 -0.0070053 0.2983233 0.9532573
1341846112.562160 0.0129019 -0.0007748 0.0039873 0.0560372 -0.0069384 0.3324413 0.9414321
1341846112.765875 0.0129024 -0.0007762 0.0039962 0.0545994 -0.0067612 0.3856574 0.9210003
1341846112.935783 0.0129023 -0.0007762 0.0039964 0.0575722 0.0144462 0.4308546 0.9004671
1341846113.033814 0.0129016 -0.0007759 0.0039962 0.0575717 0.0181901 0.4625393 0.8845406
1341846113.139948 0.0129012 -0.0007759 0.0039964 0.0592704 0.0278726 0.4894242 0.8695827
1341846113.265850 0.0129009 -0.0007758 0.0039966 0.0615548 0.0417450 0.5304912 0.8444214
1341846113.333866 0.0129005 -0.0007756 0.0039959 0.0634678 0.0509039 0.5566347 0.8267639
1341846113.401917 0.0128994 -0.0007762 0.0039964 0.0653362 0.0599848 0.5821827 0.8082056
1341846113.469984 0.0128977 -0.0007770 0.0039966 0.0671126 0.0690397 0.6070997 0.7887708
1341846113.533888 0.0128961 -0.0007777 0.0039966 0.0688197 0.0780198 0.6313537 0.7684851
1341846113.601892 0.0128939 -0.0007791 0.0039964 0.0704532 0.0869117 0.6549224 0.7473683
1341846113.701823 0.0128917 -0.0007804 0.0039964 0.0727591 0.1000656 0.6889411 0.7141801
1341846113.769790 0.0128900 -0.0007819 0.0039963 0.0741976 0.1086993 0.7106893 0.6910860
1341846113.869842 0.0128873 -0.0007841 0.0039968 0.0762096 0.1214349 0.7418575 0.6550520
1341846113.969840 0.0128853 -0.0007860 0.0039967 0.0780310 0.1338716 0.7712240 0.6174166
1341846114.043864 0.0128839 -0.0007871 0.0039968 0.0791421 0.1419821 0.7897566 0.5914914
1341846114.170101 0.0128824 -0.0007896 0.0039973 0.0806420 0.1538600 0.8159592 0.5513934
1341846114.237814 0.0128805 -0.0007924 0.0039980 0.0815352 0.1615723 0.8323224 0.5239140
1341846114.305813 0.0128793 -0.0007951 0.0039981 0.0823412 0.1691082 0.8477840 0.4958675
1341846114.337919 0.0128789 -0.0007966 0.0039984 0.0827107 0.1728086 0.8551713 0.4816412
1341846114.441861 0.0128772 -0.0008013 0.0039985 0.0837064 0.1843588 0.8756847 0.4383849
1341846114.473886 0.0128769 -0.0008027 0.0039986 0.0843526 0.1869885 0.8815956 0.4250990
1341846114.573824 0.0129593 -0.0010238 0.0034871 0.0858998 0.1940485 0.9003343 0.3799533
1341846114.605897 0.0129194 -0.0017045 0.0012320 0.0820329 0.1931817 0.9002303 0.3814928
1341846114.641888 0.0213481 -0.0118727 0.0052714 0.0791588 0.1930844 0.9017197 0.3786211
1341846114.841856 0.0129424 -0.0011335 0.0029595 0.0684539 0.1887977 0.8827229 0.4248175
1341846114.909807 0.0129186 -0.0010722 0.0032078 0.0672671 0.1916621 0.8686353 0.4518998
1341846115.009784 0.0128647 -0.0010901 0.0031848 0.0716607 0.1998417 0.8535379 0.4758163
1341846115.177979 0.0129571 -0.0011126 0.0030052 0.0517232 0.1924505 0.8271296 0.5254942
1341846115.245960 0.0128975 -0.0012529 0.0027106 0.0348057 0.1834972 0.8167796 0.5458832
1341846115.377811 0.0129517 -0.0011144 0.0029889 0.0028669 0.1738342 0.7911242 0.5864264
1341846115.577954 0.0129562 -0.0011133 0.0030049 -0.0319729 0.1606073 0.7368748 0.6558952
1341846115.681882 0.0129561 -0.0011132 0.0030044 -0.0456631 0.1509245 0.7079438 0.6884419
1341846115.813812 0.0129561 -0.0011132 0.0030047 -0.0675507 0.1473296 0.6697764 0.7246589
1341846116.149901 0.0129562 -0.0011132 0.0030049 -0.0963755 0.1492794 0.6105997 0.7717483
1341846116.252587 0.0129562 -0.0011132 0.0030049 -0.0996362 0.1514111 0.5858764 0.7898709
1341846116.381987 0.0129562 -0.0011132 0.0030049 -0.1061544 0.1539827 0.5605960 0.8066925
1341846116.449943 0.0129562 -0.0011132 0.0030049 -0.1104430 0.1556141 0.5434384 0.8174725
1341846116.486079 0.0129562 -0.0011132 0.0030049 -0.1125696 0.1564046 0.5347711 0.8227305
1341846116.549851 0.0129562 -0.0011132 0.0030049 -0.1167860 0.1579347 0.5172644 0.8329797
1341846116.585719 0.0129561 -0.0011132 0.0030049 -0.1188755 0.1586742 0.5084268 0.8379697
1341846116.653901 0.0129562 -0.0011132 0.0030052 -0.1230156 0.1601017 0.4905881 0.8476779
1341846116.686079 0.0129561 -0.0011132 0.0030049 -0.1250659 0.1607896 0.4815888 0.8523951
1341846116.717942 0.0129561 -0.0011132 0.0030049 -0.1271026 0.1614601 0.4725376 0.8570203
1341846116.753865 0.0129561 -0.0011132 0.0030049 -0.1291257 0.1621132 0.4634354 0.8615530
1341846116.785839 0.0129561 -0.0011132 0.0030049 -0.1311348 0.1627488 0.4542832 0.8659927
1341846116.818815 0.0129561 -0.0011133 0.0030049 -0.1331297 0.1633668 0.4450820 0.8703389
1341846116.853902 0.0129561 -0.0011133 0.0030049 -0.1351102 0.1639672 0.4358328 0.8745912
1341846116.886435 0.0129561 -0.0011133 0.0030049 -0.1370762 0.1645499 0.4265365 0.8787491
1341846116.921838 0.0129561 -0.0011133 0.0030049 -0.1390274 0.1651149 0.4171941 0.8828123
1341846116.953941 0.0129561 -0.0011133 0.0030049 -0.1409636 0.1656620 0.4078068 0.8867801
1341846116.985759 0.0129561 -0.0011133 0.0030049 -0.1428845 0.1661912 0.3983754 0.8906524
1341846117.021816 0.0129561 -0.0011133 0.0030049 -0.1447900 0.1667026 0.3889010 0.8944284
1341846117.054055 0.0129561 -0.0011133 0.0030049 -0.1466799 0.1671959 0.3793846 0.8981079
1341846117.085953 0.0129561 -0.0011133 0.0030049 -0.1485540 0.1676712 0.3698273 0.9016905
1341846117.121840 0.0129561 -0.0011133 0.0030049 -0.1504120 0.1681283 0.3602301 0.9051759
1341846117.154178 0.0129561 -0.0011133 0.0030049 -0.1522539 0.1685674 0.3505939 0.9085636
1341846117.190028 0.0129561 -0.0011133 0.0030049 -0.1540792 0.1689883 0.3409200 0.9118531
1341846117.221812 0.0129561 -0.0011133 0.0030049 -0.1558880 0.1693909 0.3312092 0.9150443
1341846117.253848 0.0129561 -0.0011133 0.0030049 -0.1576799 0.1697752 0.3214628 0.9181368
1341846117.289976 0.0129561 -0.0011133 0.0030049 -0.1594549 0.1701413 0.3116816 0.9211301
1341846117.321956 0.0129561 -0.0011133 0.0030049 -0.1612126 0.1704889 0.3018668 0.9240240
1341846117.354004 0.0129561 -0.0011133 0.0030049 -0.1629529 0.1708182 0.2920194 0.9268183
1341846117.389874 0.0129561 -0.0011133 0.0030049 -0.1646756 0.1711291 0.2821405 0.9295125
1341846117.421707 0.0129561 -0.0011133 0.0030049 -0.1663805 0.1714214 0.2722311 0.9321064
1341846117.457914 0.0129561 -0.0011133 0.0030049 -0.1680675 0.1716953 0.2622924 0.9345998
1341846117.490067 0.0129561 -0.0011133 0.0030049 -0.1697363 0.1719506 0.2523253 0.9369923
1341846117.521746 0.0129561 -0.0011133 0.0030049 -0.1713868 0.1721874 0.2423310 0.9392836
1341846117.557896 0.0129561 -0.0011133 0.0030049 -0.1730189 0.1724056 0.2323105 0.9414737
1341846117.590027 0.0129561 -0.0011133 0.0030049 -0.1746322 0.1726052 0.2222650 0.9435620
1341846117.621818 0.0129561 -0.0011133 0.0030049 -0.1762267 0.1727861 0.2121954 0.9455487
1341846117.658054 0.0129561 -0.0011133 0.0030049 -0.1778022 0.1729484 0.2021030 0.9474332
1341846117.689984 0.0129561 -0.0011133 0.0030049 -0.1793585 0.1730921 0.1919888 0.9492155
1341846117.725898 0.0129561 -0.0011133 0.0030049 -0.1808954 0.1732170 0.1818538 0.9508953
1341846117.757737 0.0129561 -0.0011133 0.0030049 -0.1824128 0.1733233 0.1716993 0.9524726
1341846117.790023 0.0129561 -0.0011133 0.0030049 -0.1839105 0.1734108 0.1615262 0.9539470
1341846117.825949 0.0129561 -0.0011133 0.0030049 -0.1853884 0.1734797 0.1513357 0.9553185
1341846117.857847 0.0129561 -0.0011133 0.0030049 -0.1868462 0.1735298 0.1411289 0.9565870
1341846117.893987 0.0129561 -0.0011133 0.0030049 -0.1882839 0.1735611 0.1309068 0.9577521
1341846117.925908 0.0129561 -0.0011133 0.0030049 -0.1897013 0.1735738 0.1206706 0.9588139
1341846117.958141 0.0129561 -0.0011133 0.0030049 -0.1910982 0.1735677 0.1104214 0.9597723
1341846117.993978 0.0129561 -0.0011133 0.0030049 -0.1924745 0.1735429 0.1001602 0.9606271
1341846118.025852 0.0129561 -0.0011133 0.0030049 -0.1938300 0.1734993 0.0898883 0.9613782
1341846118.058362 0.0129561 -0.0011133 0.0030049 -0.1951646 0.1734370 0.0796066 0.9620256
1341846118.093970 0.0129561 -0.0011133 0.0030049 -0.1964782 0.1733560 0.0693164 0.9625691
1341846118.125943 0.0129561 -0.0011133 0.0030049 -0.1964782 0.1733560 0.0693164 0.9625691
1341846118.226048 0.0129561 -0.0011133 0.0030049 -0.1964782 0.1733560 0.0693164 0.9625691
1341846118.336123 0.0129561 -0.0011133 0.0030049 -0.1964782 0.1733560 0.0693163 0.9625691
1341846118.429882 0.0129561 -0.0011133 0.0030049 -0.1964783 0.1733560 0.0693162 0.9625691
1341846118.772013 0.0129561 -0.0011133 0.0030049 -0.1964780 0.1733564 0.0693159 0.9625691
1341846118.971870 0.0129561 -0.0011133 0.0030049 -0.1964775 0.1733568 0.0693157 0.9625691
1341846119.203919 0.0129561 -0.0011133 0.0030049 -0.1964769 0.1733571 0.0693155 0.9625692
1341846119.266059 0.0129561 -0.0011133 0.0030049 -0.1964768 0.1733572 0.0693155 0.9625692
1341846119.365757 0.0129561 -0.0011133 0.0030049 -0.1964767 0.1733574 0.0693155 0.9625692
