1341846434.710184 0.000000000 0.000000000 0.000000000 0.000000000 0.000000000 0.000000000 1.000000000
1341846434.746225 0.005648977 0.000349018 -0.001713412 0.003268659 0.001370384 0.003188381 0.999988616
1341846434.778203 0.016931435 0.000382684 -0.006055307 0.005055886 0.002095731 0.003928031 0.999977291
1341846434.810024 0.023929533 0.002353948 -0.012767094 0.005101161 0.003295186 0.002188722 0.999979138
1341846434.846345 0.027982090 -0.000041317 -0.016392769 0.003310723 0.002804838 -0.001785377 0.999988973
1341846434.878202 0.033983130 -0.004577313 -0.017926928 0.001842858 0.000140758 -0.008984120 0.999957919
1341846434.914148 0.024752690 -0.001403698 -0.035871986 0.001739061 -0.004031128 -0.018135257 0.999825895
1341846434.946443 0.040245935 -0.009319452 -0.046527844 -0.000712654 -0.018573478 -0.027538216 0.999447942
1341846434.978088 0.047715269 -0.009762333 -0.036360137 -0.000404460 -0.027252153 -0.030811204 0.999153554
1341846435.014019 0.061361566 -0.017284663 -0.045567747 0.000732120 -0.032009430 -0.028573398 0.999078810
1341846435.045942 0.068162926 -0.019814014 -0.057871655 0.002338334 -0.034182303 -0.028926287 0.998994231
1341846435.077985 0.093267307 -0.026817860 -0.045884393 0.003842690 -0.034610152 -0.028160648 0.998996675
1341846435.113961 0.094515212 -0.028439518 -0.047079969 0.007756839 -0.033101272 -0.029074606 0.998998880
1341846435.146181 0.076945126 -0.023352224 -0.065793671 0.012023813 -0.031563457 -0.029482711 0.998994470
1341846435.182052 0.104198270 -0.032755863 -0.061759178 0.012763108 -0.037842724 -0.025187047 0.998884678
1341846435.213955 0.109937884 -0.035912778 -0.066340774 0.014400615 -0.044177152 -0.020090554 0.998717844
1341846435.246495 0.085725196 -0.028300285 -0.080392294 0.018947417 -0.046994131 -0.017612742 0.998560131
1341846435.281968 0.111417115 -0.033989280 -0.071944073 0.019370170 -0.056915466 -0.014139447 0.998090923
1341846435.319946 0.138364494 -0.034589808 -0.078702867 0.017766580 -0.067296967 -0.013853364 0.997478604
1341846435.382078 0.158024758 -0.043190807 -0.059697315 0.013440412 -0.077973627 -0.009347969 0.996820986
1341846435.414309 0.167182595 -0.047922827 -0.055712827 0.016236788 -0.081595242 -0.005436524 0.996518433
1341846435.450323 0.185793310 -0.053191423 -0.076074913 0.018737953 -0.086127907 -0.006510031 0.996086597
1341846435.482273 0.203834459 -0.055354968 -0.068427339 0.019080782 -0.088086382 -0.006940692 0.995905876
1341846435.513983 0.211354271 -0.053068105 -0.071911909 0.019320793 -0.085765794 -0.008744741 0.996089578
1341846435.550153 0.213433951 -0.050517216 -0.071937025 0.017585423 -0.084290482 -0.010816613 0.996227324
1341846435.582003 0.226913750 -0.060781151 -0.076625802 0.015732311 -0.086331040 -0.012843682 0.996059477
1341846435.618180 0.231200680 -0.067645408 -0.085216329 0.018664220 -0.092645921 -0.012997137 0.995439351
1341846435.650183 0.234763727 -0.061999585 -0.075894669 0.022016877 -0.100209013 -0.014827451 0.994612277
1341846435.681920 0.247403920 -0.060334999 -0.072033256 0.024731237 -0.100966938 -0.014884176 0.994470954
1341846435.717877 0.256399959 -0.060809091 -0.087975934 0.025786506 -0.102041595 -0.016290417 0.994312406
1341846435.750187 0.261924416 -0.066106647 -0.094210468 0.025285723 -0.104320712 -0.017623510 0.994066000
1341846435.782022 0.302375555 -0.062545270 -0.078992762 0.027037574 -0.108961731 -0.018068574 0.993513882
1341846435.818082 0.316726029 -0.063593380 -0.077918738 0.027095351 -0.112142876 -0.018491784 0.993150473
1341846435.849992 0.320892006 -0.067037769 -0.078285612 0.028081222 -0.114557751 -0.018829091 0.992841065
1341846435.886101 0.328284472 -0.065590389 -0.080141559 0.028851435 -0.118717588 -0.019348327 0.992320180
1341846435.918077 0.336297482 -0.067226537 -0.084492609 0.028508781 -0.121954747 -0.018009352 0.991962671
1341846435.950077 0.362498760 -0.072478071 -0.077598728 0.028019397 -0.126105353 -0.015614836 0.991498113
1341846435.986080 0.369581848 -0.077929743 -0.074620545 0.029284639 -0.130568370 -0.013819393 0.990910351
1341846436.018119 0.378263265 -0.073016614 -0.082281418 0.030872172 -0.136175096 -0.012870546 0.990119994
1341846436.050565 0.389805138 -0.070935495 -0.082984671 0.029846104 -0.140810385 -0.010635780 0.989529431
1341846436.085970 0.398664087 -0.070145197 -0.083039872 0.027874056 -0.144116104 -0.007893936 0.989136636
1341846436.118116 0.403580129 -0.072019883 -0.082233913 0.026604898 -0.149133876 -0.005753846 0.988442302
1341846436.153952 0.441923589 -0.072457395 -0.056615897 0.027632680 -0.152873427 -0.004340183 0.987849832
1341846436.185994 0.444164127 -0.075039230 -0.059613205 0.028426168 -0.153536052 -0.003279469 0.987728655
1341846436.218096 0.448610395 -0.074135810 -0.063051417 0.029980043 -0.157091469 -0.001067558 0.987128317
1341846436.253965 0.463133335 -0.060939688 -0.063203759 0.030307518 -0.158506095 0.001187545 0.986891985
1341846436.286007 0.464744151 -0.071030870 -0.065246187 0.026465585 -0.157332510 0.000392707 0.987190902
1341846436.318164 0.463315398 -0.077477455 -0.066712253 0.026610168 -0.159801602 0.001160436 0.986789763
1341846436.354084 0.489267886 -0.063311279 -0.054962635 0.027801245 -0.162619099 -0.000248834 0.986297131
1341846436.385958 0.490891844 -0.068055376 -0.052510109 0.026169987 -0.162274718 -0.002891871 0.986394286
1341846436.422052 0.489071637 -0.074649811 -0.052840561 0.025930334 -0.164400607 -0.002472279 0.986049652
1341846436.453972 0.496622950 -0.075287379 -0.048447456 0.027416820 -0.169365451 -0.002439864 0.985168874
1341846436.485966 0.504860640 -0.068031050 -0.042400423 0.028682388 -0.171730742 -0.001726337 0.984724760
1341846436.522075 0.502543390 -0.066770539 -0.037940923 0.026583150 -0.174375921 -0.004017300 0.984312057
1341846436.553975 0.502639830 -0.081899427 -0.040326037 0.024341550 -0.179732561 -0.003074856 0.983409464
1341846436.590103 0.505407095 -0.080094494 -0.045005683 0.024012778 -0.186305568 -0.003611395 0.982191682
1341846436.622042 0.516923130 -0.078032166 -0.042004377 0.021542586 -0.191486150 -0.006416732 0.981237888
1341846436.654125 0.523030877 -0.090024889 -0.034468189 0.018868031 -0.194793105 -0.008385932 0.980627000
1341846436.690078 0.512398303 -0.083019175 -0.012612965 0.020641230 -0.199229509 -0.010864132 0.979675233
1341846436.722015 0.513921499 -0.072091468 -0.007867130 0.021350764 -0.205907881 -0.014414628 0.978232265
1341846436.754167 0.540136516 -0.088797897 0.005766926 0.019065097 -0.214245006 -0.012642390 0.976512015
1341846436.790021 0.532925963 -0.090019323 0.011260134 0.023308085 -0.220963746 -0.015206172 0.974884868
1341846436.822079 0.556507885 -0.083810240 -0.005103820 0.024699155 -0.229176879 -0.016170418 0.972936988
1341846436.858129 0.555429578 -0.066534884 0.006328573 0.022050777 -0.231892630 -0.015789624 0.972363234
1341846436.889894 0.554292858 -0.075877920 0.024214501 0.018333819 -0.233990490 -0.012933530 0.971979916
1341846436.922139 0.585474849 -0.093208246 0.024677435 0.018563107 -0.240357205 -0.008323381 0.970471323
1341846436.958108 0.598492146 -0.086477131 0.012495510 0.018553145 -0.245345891 -0.004822223 0.969246030
1341846436.990096 0.604513526 -0.091514416 0.009399813 0.016307846 -0.249024019 -0.003995970 0.968351781
1341846437.058136 0.618186474 -0.093839243 -0.005563028 0.014275468 -0.256783098 -0.000944059 0.966363132
1341846437.096585 0.644480407 -0.086998992 0.051155284 0.012086279 -0.262379408 0.003099324 0.964884102
1341846437.126102 0.655431747 -0.081818886 0.079104014 0.008789341 -0.267055511 0.004887255 0.963628650
1341846437.158050 0.658783436 -0.083902501 0.040191799 0.004166625 -0.267905772 0.002769931 0.963432133
1341846437.226114 0.676013350 -0.052307360 0.059143312 -0.008585774 -0.274307013 -0.001026101 0.961603284
1341846437.258123 0.679404020 -0.062862732 0.062414944 -0.020583784 -0.275469214 -0.001839886 0.961087763
1341846437.290095 0.676969767 -0.083601631 0.039168809 -0.027659882 -0.278290421 0.003114292 0.960093558
1341846437.326061 0.679934859 -0.082593516 0.035861086 -0.034507480 -0.282449394 0.004463462 0.958650947
1341846437.364153 0.683743656 -0.085927933 0.040090222 -0.039482407 -0.287083864 0.001042071 0.957090855
1341846437.396140 0.705228508 -0.085845798 0.103635378 -0.044514380 -0.293555021 0.002932436 0.954900682
1341846437.431962 0.706320882 -0.086338028 0.099971034 -0.048421063 -0.298899531 0.003643929 0.953048408
1341846437.464061 0.719372571 -0.084133267 0.092963353 -0.054446142 -0.303840995 -0.000038416 0.951165736
1341846437.500080 0.721436799 -0.090222426 0.092956096 -0.059343185 -0.306396991 -0.000523911 0.950052083
1341846437.536428 0.723286986 -0.102445945 0.092828140 -0.060276061 -0.310014784 0.000439438 0.948818982
1341846437.568842 0.738839805 -0.093971856 0.156649381 -0.055881802 -0.317190140 0.002663824 0.946710348
1341846437.600736 0.743861079 -0.092519835 0.155564576 -0.051170409 -0.318671167 0.003339058 0.946477234
1341846437.632742 0.750723720 -0.091977991 0.153506190 -0.048392728 -0.318338364 0.002031541 0.946738958
1341846437.669713 0.755975604 -0.093908027 0.152918205 -0.046858214 -0.318098634 0.001302896 0.946898043
1341846437.700232 0.759989262 -0.091001049 0.148631573 -0.043892249 -0.316024214 -0.003059081 0.947730362
1341846437.739652 0.822613418 -0.103933223 0.131414324 -0.042634413 -0.310108900 -0.007533417 0.949714720
1341846437.795294 0.820614874 -0.107251957 0.130210996 -0.038884681 -0.297216833 -0.021699589 0.953771114
1341846437.830422 0.758856297 -0.092847615 0.159996182 -0.033653095 -0.294659644 -0.022671571 0.954740345
1341846437.863213 0.771361411 -0.095733024 0.152254835 -0.031892296 -0.293963522 -0.019451756 0.955086350
1341846437.930096 0.788892269 -0.101570778 0.134084329 -0.032259326 -0.284888804 -0.015176617 0.957897365
1341846437.961942 0.820003510 -0.099233203 0.195786893 -0.035841525 -0.289965242 -0.007305226 0.956337929
1341846437.994103 0.832850993 -0.097809568 0.183500186 -0.035966355 -0.291922003 -0.004931185 0.955752969
1341846438.030032 0.834921062 -0.095102921 0.184526995 -0.042046294 -0.290850759 -0.004965048 0.955831230
1341846438.068074 0.830631614 -0.102049589 0.189335614 -0.046264715 -0.291068584 -0.005676423 0.955566049
1341846438.130017 0.840503812 -0.107351363 0.185711920 -0.038155306 -0.294902027 -0.004767371 0.954753518
1341846438.164374 0.852396369 -0.105869778 0.171599969 -0.037408490 -0.293336898 -0.007013946 0.955251217
1341846438.198015 0.827342987 -0.098556392 0.214730278 -0.039475597 -0.291894406 -0.009798700 0.955585301
1341846438.229906 0.818447888 -0.100733869 0.222758681 -0.037655376 -0.291818917 -0.009836338 0.955681443
1341846438.262251 0.826556087 -0.093839400 0.247735441 -0.036107220 -0.291509271 -0.009462867 0.955839455
1341846438.298333 0.823105514 -0.094726644 0.258645654 -0.037120212 -0.283772856 -0.013057218 0.958083808
1341846438.329987 0.811722875 -0.095719427 0.255208343 -0.034388933 -0.276879340 -0.015203224 0.960168779
1341846438.366126 0.808566928 -0.088826455 0.252979308 -0.034748707 -0.273140043 -0.013076448 0.961257517
1341846438.398154 0.808528662 -0.085855000 0.264963478 -0.039021999 -0.267449319 -0.015050336 0.962663770
1341846438.430136 0.798181713 -0.092103571 0.269015878 -0.040516406 -0.258458853 -0.015814435 0.965042651
1341846438.465965 0.785026014 -0.089114361 0.270099521 -0.038753897 -0.253148705 -0.011996649 0.966576397
1341846438.530106 0.771550655 -0.083019465 0.274706811 -0.042682361 -0.248319685 -0.006866598 0.967712998
1341846438.566686 0.745674789 -0.093743645 0.266520798 -0.043828972 -0.246067762 -0.004341123 0.968251407
1341846438.598145 0.739528954 -0.091333121 0.267725259 -0.041966274 -0.247417480 -0.000842890 0.967999339
1341846438.634113 0.741021991 -0.080306977 0.272385418 -0.040891752 -0.245725736 0.000289841 0.968476474
1341846438.665920 0.741724133 -0.076798007 0.274244517 -0.045090184 -0.236018986 0.000177403 0.970701754
1341846438.697986 0.729400814 -0.090472229 0.283478260 -0.045850743 -0.227911979 0.000206393 0.972601533
1341846438.734146 0.728134274 -0.081697986 0.292915642 -0.041556902 -0.221101224 0.007023896 0.974339724
1341846438.766996 0.719366252 -0.057019953 0.279626906 -0.041462857 -0.210438788 0.006977641 0.976702452
1341846438.801972 0.711539686 -0.068861462 0.284132123 -0.047664020 -0.198438749 0.006705046 0.978930712
1341846438.834118 0.699193239 -0.077042162 0.282656819 -0.050709248 -0.190863594 0.007883414 0.980274200
1341846438.865936 0.690886080 -0.087306596 0.294289231 -0.049202126 -0.185884073 0.011394259 0.981272876
1341846438.902045 0.679696858 -0.072021350 0.282649517 -0.042852975 -0.180042312 0.012056934 0.982651055
1341846438.934115 0.671728671 -0.067131296 0.285641015 -0.043125469 -0.175418332 0.006715343 0.983526051
1341846438.966314 0.660857975 -0.070326522 0.289512396 -0.044123024 -0.170386538 0.001351217 0.984387994
1341846439.001871 0.668400586 -0.077905558 0.297846407 -0.044512749 -0.167572781 0.002826387 0.984850228
1341846439.034612 0.652248263 -0.078662306 0.299568206 -0.042661242 -0.159488410 0.000937910 0.986277163
1341846439.070117 0.616207242 -0.078977585 0.301319629 -0.039963827 -0.152550951 0.000202661 0.987487257
1341846439.101969 0.607779086 -0.079693407 0.302381814 -0.035769369 -0.143460065 -0.000461783 0.989009380
1341846439.134146 0.598240256 -0.079528689 0.303798944 -0.030993352 -0.136509329 0.001106652 0.990153253
1341846439.170111 0.585682392 -0.079064071 0.300435573 -0.026222331 -0.128093451 0.003185801 0.991410255
1341846439.202174 0.572314799 -0.076961137 0.294646472 -0.022932673 -0.120092891 0.001872528 0.992496014
1341846439.234198 0.565528512 -0.075350545 0.294283748 -0.021259481 -0.112871923 0.002096906 0.993379891
1341846439.269869 0.549987853 -0.078998506 0.297681063 -0.018201409 -0.103254303 0.001591281 0.994487166
1341846439.302022 0.537556887 -0.084502861 0.288349897 -0.013502168 -0.096330233 0.000835626 0.995257497
1341846439.338209 0.530021131 -0.073541470 0.284190357 -0.010069044 -0.092037305 -0.000584970 0.995704472
1341846439.369920 0.492668152 -0.077744827 0.288403064 -0.011141625 -0.084271476 -0.002728305 0.996376812
1341846439.402179 0.467434913 -0.087991908 0.286622822 -0.007544379 -0.077236630 -0.005456013 0.996969283
1341846439.437979 0.460312009 -0.080585882 0.279686362 -0.001570508 -0.075762972 -0.003368031 0.997118950
1341846439.470001 0.452975124 -0.078248478 0.280337930 0.000162741 -0.072311260 -0.002410786 0.997379184
1341846439.502101 0.439020813 -0.081178188 0.278676748 0.001402346 -0.067201331 -0.004864266 0.997726619
1341846439.538102 0.426028877 -0.086484291 0.282115281 0.004610788 -0.065298662 -0.006399342 0.997834563
1341846439.570087 0.413118303 -0.085305236 0.277177244 0.008464279 -0.063638538 -0.005886445 0.997919798
1341846439.605986 0.407651633 -0.084285527 0.273987830 0.010487082 -0.061174620 -0.004836505 0.998060286
1341846439.638201 0.398240119 -0.081878744 0.278512329 0.012513223 -0.057719748 -0.004651227 0.998243570
1341846439.670177 0.359256834 -0.087984152 0.270626485 0.013353238 -0.052587610 -0.004856304 0.998515248
1341846439.706034 0.348313034 -0.086706616 0.269579321 0.014550309 -0.049537186 -0.004537808 0.998655975
1341846439.737939 0.343614966 -0.090182967 0.268124431 0.016036868 -0.046950877 -0.003093188 0.998763680
1341846439.774173 0.343491614 -0.088201836 0.271431208 0.018024208 -0.041527111 -0.001215752 0.998974025
1341846439.806288 0.326396942 -0.084123895 0.271339417 0.019522784 -0.034060128 -0.001386871 0.999228120
1341846439.846398 0.318330765 -0.078543827 0.268289357 0.018742649 -0.028453616 -0.002702901 0.999415755
1341846439.906194 0.297990322 -0.087996900 0.272834003 0.016324157 -0.011423806 -0.007205338 0.999775529
1341846439.938149 0.279180080 -0.083381064 0.273746341 0.018668339 -0.004834404 -0.006335791 0.999793947
1341846439.974174 0.279178470 -0.069256343 0.268511742 0.017058153 0.000601902 -0.007480070 0.999826312
1341846440.006174 0.266735882 -0.069290429 0.269581050 0.010656348 0.010596906 -0.009479946 0.999842167
1341846440.042214 0.220569715 -0.079694301 0.287075907 0.007206248 0.020476928 -0.007058852 0.999739468
1341846440.073971 0.212517068 -0.076837666 0.288142949 0.009355512 0.025037013 -0.002801183 0.999638855
1341846440.106449 0.211811751 -0.068865202 0.287441880 0.008456449 0.032368563 -0.002132460 0.999437988
1341846440.142076 0.183466598 -0.082456797 0.292432427 0.007124509 0.040840458 -0.003077590 0.999135554
1341846440.173898 0.170713007 -0.079725221 0.293253124 0.011727996 0.045027249 0.002331247 0.998914182
1341846440.206048 0.154932246 -0.070349999 0.290153831 0.013806450 0.049812779 0.006393785 0.998642683
1341846440.242218 0.133872792 -0.081340805 0.293411672 0.013457503 0.052445490 0.006965658 0.998508811
1341846440.274220 0.128942862 -0.084323682 0.292656183 0.018145578 0.053389769 0.006388707 0.998388469
1341846440.310040 0.125081599 -0.070971191 0.291619718 0.022306321 0.057655547 0.007433773 0.998059630
1341846440.341908 0.107654311 -0.071461178 0.291994452 0.021999538 0.063763671 0.008216233 0.997688711
1341846440.374065 0.093936943 -0.077856377 0.293364018 0.023217911 0.067737065 0.009006955 0.997392356
1341846440.410065 0.069904700 -0.076375499 0.300251454 0.025842160 0.072145559 0.007767843 0.997029006
1341846440.442063 0.063763209 -0.073520236 0.303595364 0.028341562 0.077227987 0.005657567 0.996594489
1341846440.474055 0.037290126 -0.074239545 0.301990181 0.029598985 0.083149828 0.001602934 0.996096075
1341846440.510034 0.028100749 -0.069597371 0.298714101 0.030837685 0.085094906 -0.000442503 0.995895445
1341846440.542081 0.017983129 -0.062500395 0.296092153 0.029612038 0.089500569 -0.001936905 0.995544612
1341846440.578060 0.003695421 -0.070171833 0.297058672 0.026876347 0.094763435 -0.005398849 0.995122313
1341846440.610154 -0.012482597 -0.074933298 0.297051162 0.027531868 0.100145243 -0.007277903 0.994565189
1341846440.642042 -0.037553258 -0.069128782 0.291889817 0.028503826 0.104604714 -0.006903087 0.994081318
1341846440.678071 -0.047904115 -0.063405953 0.290385097 0.027238926 0.105820261 -0.005869685 0.993994772
1341846440.710213 -0.052958827 -0.061334454 0.280343771 0.024930306 0.109875619 -0.004720504 0.993621469
1341846440.742033 -0.075795390 -0.058186676 0.280674279 0.022011997 0.116209000 -0.005063835 0.992967904
1341846440.778145 -0.108158991 -0.059546601 0.291625172 0.018912546 0.120626092 -0.004180341 0.992509007
1341846440.810360 -0.113907576 -0.061897937 0.288239181 0.016911522 0.122746848 -0.003327089 0.992288351
1341846440.846329 -0.123855248 -0.071062349 0.291912884 0.015977904 0.127756432 -0.002654325 0.991673291
1341846440.878141 -0.157573745 -0.067449167 0.292098910 0.018915853 0.132799506 -0.000144631 0.990962386
1341846440.920960 -0.174392909 -0.051122375 0.288400203 0.018827809 0.133447275 0.001422075 0.990876019
1341846440.952308 -0.176275760 -0.052152298 0.290796041 0.012987582 0.135276571 0.004345064 0.990713239
1341846440.986714 -0.193545058 -0.066541336 0.293816835 0.010122224 0.139225706 0.006642934 0.990186632
1341846441.052118 -0.225344911 -0.068385534 0.296198964 0.016467812 0.134189367 0.017411947 0.990665853
1341846441.114116 -0.253173947 -0.063735746 0.296952575 0.018158559 0.139073953 0.017614922 0.989958763
1341846441.146132 -0.279718399 -0.059863266 0.302043319 0.018461039 0.138224900 0.017712921 0.990070343
1341846441.178054 -0.266307443 -0.057169139 0.294536501 0.017183252 0.135727748 0.018289106 0.990428269
1341846441.214136 -0.273493856 -0.061530113 0.295367688 0.014534426 0.142414227 0.015262678 0.989582777
1341846441.246039 -0.295359462 -0.071482316 0.297677785 0.014744502 0.147720903 0.013543925 0.988826394
1341846441.282130 -0.303291351 -0.063355058 0.294585943 0.017021433 0.149288267 0.012390081 0.988569558
1341846441.314084 -0.305558026 -0.058559008 0.283018738 0.015918311 0.153001800 0.010338091 0.988043606
1341846441.346088 -0.327199221 -0.073147081 0.292952836 0.013667701 0.159328520 0.007957233 0.987098932
1341846441.382129 -0.338977009 -0.079995774 0.288375497 0.015899274 0.161261916 0.007573460 0.986754477
1341846441.414517 -0.361039490 -0.071689509 0.291651219 0.018729353 0.161668167 0.005778470 0.986650467
1341846441.445996 -0.365190566 -0.066889405 0.288921416 0.019506695 0.161859825 0.004956858 0.986608505
1341846441.482023 -0.388599902 -0.068317793 0.293404639 0.017982634 0.165222630 0.002434172 0.986089349
1341846441.514114 -0.411117703 -0.077121638 0.299640775 0.017939335 0.164485201 0.003112034 0.986211479
1341846441.582260 -0.418165237 -0.068194091 0.292804301 0.021680344 0.160746261 0.006318412 0.986737370
1341846441.614425 -0.430935889 -0.079574645 0.298294157 0.019956231 0.163665265 0.005500539 0.986298740
1341846441.650563 -0.447509825 -0.087395810 0.299993217 0.023230517 0.163672403 0.006800271 0.986217737
1341846441.681977 -0.450227201 -0.070209071 0.296185851 0.027308339 0.163497254 0.007911307 0.986134052
1341846441.714170 -0.456536353 -0.061434265 0.291452616 0.024216887 0.167662069 0.005959425 0.985529006
1341846441.750023 -0.474520624 -0.065806486 0.299030989 0.019338207 0.172165856 0.005098266 0.984864950
1341846441.781910 -0.489127457 -0.066699401 0.302991629 0.016625941 0.174863517 0.007438161 0.984424233
1341846441.818076 -0.497670978 -0.068788476 0.301827103 0.013564981 0.177208424 0.006966004 0.984055221
1341846441.850011 -0.513495386 -0.070314206 0.311591774 0.009548062 0.181273088 0.005397033 0.983371615
1341846441.882149 -0.531684995 -0.066954039 0.317689627 0.005783331 0.184446558 0.004576522 0.982814908
1341846441.918074 -0.538909495 -0.067119673 0.323363721 0.000884271 0.184538215 0.004763849 0.982813418
1341846441.950113 -0.548925877 -0.070100024 0.331321895 -0.004512193 0.186456665 0.004591709 0.982442081
1341846441.986157 -0.569908679 -0.078578249 0.337757468 -0.008486510 0.187971383 0.007542507 0.982108891
1341846442.018070 -0.577007711 -0.082414761 0.346863508 -0.009582995 0.186762989 0.011899576 0.982286215
1341846442.050044 -0.579259872 -0.079306744 0.349843323 -0.010829956 0.187747836 0.015504544 0.982035160
1341846442.086050 -0.593111634 -0.081545465 0.352839261 -0.014535588 0.191592366 0.018104209 0.981199920
1341846442.118273 -0.607207656 -0.095101945 0.366371423 -0.017454635 0.193879291 0.019856798 0.980669081
1341846442.150914 -0.614047468 -0.109427787 0.373671174 -0.015104016 0.193182349 0.022459527 0.980789483
1341846442.186309 -0.623599589 -0.107832499 0.379491627 -0.011404227 0.195795417 0.023040436 0.980307758
1341846442.254276 -0.636731267 -0.102744572 0.387052178 -0.010568189 0.203166425 0.019360021 0.978895783
1341846442.286112 -0.652711153 -0.098425314 0.380748928 -0.014467335 0.211510986 0.017023847 0.977120221
1341846442.318240 -0.668350935 -0.102705419 0.382219017 -0.022416439 0.223091736 0.017471429 0.974383056
1341846442.359932 -0.683686852 -0.106967181 0.417995512 -0.028855730 0.233148783 0.016590301 0.971871257
1341846442.417971 -0.694144070 -0.115669154 0.416227490 -0.036050756 0.247078806 0.018710414 0.968143761
1341846442.455016 -0.693851054 -0.108861372 0.441172361 -0.037558101 0.253665835 0.022841001 0.966292560
1341846442.486191 -0.714537621 -0.124518268 0.435149014 -0.041008230 0.258448035 0.025386987 0.964820385
1341846442.522074 -0.718053102 -0.125903085 0.453141510 -0.044421237 0.267526299 0.030299213 0.962049067
1341846442.553917 -0.729840815 -0.139799103 0.467739224 -0.053909209 0.280212849 0.029843586 0.957958221
1341846442.585989 -0.738364995 -0.155412972 0.492846400 -0.063392334 0.292386353 0.029635601 0.953736544
1341846442.627895 -0.746616721 -0.157876968 0.509082794 -0.066636138 0.303447276 0.028886164 0.950076282
1341846442.686166 -0.754128277 -0.124171764 0.525340438 -0.058045223 0.323116541 0.027636517 0.944172978
1341846442.721990 -0.760419726 -0.129717752 0.497226208 -0.054881841 0.330009520 0.026487369 0.942008555
1341846442.754276 -0.760287583 -0.118742064 0.496203572 -0.050559625 0.333157539 0.029565895 0.941050291
1341846442.790054 -0.779916048 -0.124921985 0.498924851 -0.051178865 0.338406771 0.025748068 0.939254284
1341846442.822072 -0.783652723 -0.116285294 0.501221061 -0.052947514 0.341173589 0.023768259 0.938206911
1341846442.854093 -0.788496792 -0.122494169 0.506943762 -0.054338124 0.342419207 0.027568983 0.937569380
1341846442.889944 -0.810349345 -0.137308806 0.520090699 -0.054081399 0.343856156 0.028411247 0.937033057
1341846442.922114 -0.819250107 -0.128509775 0.527745247 -0.053458959 0.346087933 0.028057022 0.936257482
1341846442.954040 -0.827359378 -0.136126950 0.545368612 -0.054739811 0.352735460 0.028979747 0.933670938
1341846442.989997 -0.860616267 -0.138012633 0.577200532 -0.050216425 0.354327440 0.029436346 0.933308005
1341846443.022264 -0.873256981 -0.129505366 0.580071688 -0.046633609 0.350666881 0.035424054 0.934667408
1341846443.058071 -0.846105695 -0.136511162 0.579085886 -0.047745038 0.348698497 0.038826726 0.935212433
1341846443.090123 -0.859905064 -0.144044593 0.582211852 -0.046077888 0.353455871 0.040995866 0.933415830
1341846443.122143 -0.905723214 -0.147745371 0.607331872 -0.044126436 0.353296220 0.042845920 0.933487475
1341846443.158076 -0.882254243 -0.146923065 0.598073661 -0.041645925 0.349915296 0.049321994 0.934554577
1341846443.190201 -0.898107171 -0.141285509 0.628027499 -0.040128019 0.352644861 0.047522411 0.933687806
1341846443.226121 -0.915771008 -0.135399923 0.644171059 -0.039058682 0.353129059 0.049112763 0.933467865
1341846443.257975 -0.915157735 -0.135007381 0.662644982 -0.039352771 0.351239771 0.050762758 0.934079826
1341846443.289997 -0.915138960 -0.138208911 0.665756285 -0.038173888 0.351620317 0.053132650 0.933853745
1341846443.326118 -0.932924926 -0.143378794 0.660987020 -0.037061282 0.353543878 0.053643029 0.933142900
1341846443.358067 -0.934428930 -0.142161205 0.675814450 -0.035671078 0.353828400 0.055407159 0.932986081
1341846443.390137 -0.919253588 -0.133902416 0.669513285 -0.034263622 0.354107112 0.056531172 0.932865679
1341846443.426198 -0.928956568 -0.129848540 0.672381639 -0.036414109 0.359065622 0.054564998 0.931004047
1341846443.458405 -0.942406714 -0.141464353 0.677118897 -0.039146870 0.363259941 0.054072134 0.929293275
1341846443.494173 -0.936368287 -0.140825018 0.678025126 -0.038367901 0.364465028 0.054671284 0.928818703
1341846443.558139 -0.963484824 -0.121637024 0.714437485 -0.045301866 0.377560526 0.055758666 0.923193753
1341846443.594027 -0.966778338 -0.125563562 0.733310461 -0.049525805 0.383609056 0.058917038 0.920282602
1341846443.626290 -0.976286709 -0.123648576 0.723290503 -0.052663557 0.389716566 0.060941271 0.917405963
1341846443.658166 -0.985195935 -0.122924186 0.708473980 -0.058445897 0.396503597 0.066546336 0.913750827
1341846443.694065 -0.992290020 -0.140524566 0.723454356 -0.063962005 0.403049141 0.069081992 0.910322964
1341846443.726282 -1.003549099 -0.130357519 0.757700384 -0.064476028 0.409611195 0.067142509 0.907498419
1341846443.770837 -1.010087967 -0.131576985 0.769031346 -0.064489536 0.411807269 0.070835985 0.906221926
1341846443.800403 -1.030065417 -0.122057855 0.784955084 -0.066004820 0.413146019 0.068758011 0.905663311
1341846443.831984 -1.023161173 -0.106243484 0.803057671 -0.071657635 0.412006676 0.067995988 0.905810237
1341846443.868057 -1.029007077 -0.114570946 0.837172508 -0.077467926 0.412655950 0.066513382 0.905146301
1341846443.900439 -1.051555276 -0.127048522 0.832561910 -0.079480514 0.411644101 0.067015477 0.905395448
1341846443.932086 -1.055625319 -0.133759633 0.838931739 -0.078520335 0.408538669 0.070131749 0.906648934
1341846443.993912 -1.063917518 -0.129346356 0.852445424 -0.075106539 0.409512728 0.068544604 0.906620085
1341846444.029924 -1.075901151 -0.126388371 0.859570622 -0.078092225 0.410356551 0.066783763 0.906117558
1341846444.061948 -1.076194167 -0.124621548 0.883378506 -0.082548574 0.409676135 0.062982097 0.906302631
1341846444.093984 -1.081268072 -0.122117646 0.888611555 -0.084234677 0.409648895 0.064124964 0.906079650
1341846444.129916 -1.073251724 -0.120648816 0.891907692 -0.084554985 0.408315271 0.064774208 0.906605422
1341846444.162326 -1.084470510 -0.117444843 0.901402712 -0.084842883 0.411073089 0.065876320 0.905251861
1341846444.198431 -1.079195619 -0.103928879 0.910348654 -0.086817317 0.409845829 0.066173688 0.905599356
1341846444.229953 -1.082679152 -0.105700262 0.917689264 -0.090742737 0.407767683 0.068875924 0.905951083
1341846444.261919 -1.089500427 -0.117954925 0.930678308 -0.090385988 0.406182826 0.072682574 0.906401217
1341846444.298029 -1.096333504 -0.103770420 0.922272801 -0.088031426 0.402697325 0.076321073 0.907887876
1341846444.335959 -1.097043633 -0.107411183 0.929246426 -0.096920721 0.399119765 0.073982432 0.908755362
1341846444.398189 -1.098483205 -0.109614439 0.935230434 -0.094505243 0.391144663 0.078059725 0.912130117
1341846444.429979 -1.098433375 -0.106426537 0.929114103 -0.096252523 0.387089789 0.077478960 0.913725317
1341846444.466022 -1.096559644 -0.111583531 0.929936111 -0.099104136 0.385259420 0.075391158 0.914368451
1341846444.498181 -1.104286551 -0.110983253 0.930581748 -0.098014317 0.382265180 0.076027423 0.915688992
1341846444.530364 -1.095835805 -0.110719778 0.927137136 -0.097630158 0.374910027 0.076407023 0.918734372
1341846444.566040 -1.089822292 -0.109654941 0.917121589 -0.096906267 0.371873319 0.075729467 0.920100272
1341846444.598132 -1.091576576 -0.111789308 0.911103308 -0.097287349 0.369348973 0.072677851 0.921322107
1341846444.630024 -1.091040015 -0.116537891 0.903668880 -0.096155062 0.364831716 0.073278345 0.923191369
1341846444.666108 -1.083128929 -0.119019680 0.898710966 -0.094720975 0.362223834 0.072712921 0.924410462
1341846444.697995 -1.075533509 -0.123452105 0.883709908 -0.092639096 0.362902254 0.071820401 0.924425066
1341846444.734205 -1.073727489 -0.125462845 0.876782238 -0.089873508 0.362924218 0.070535161 0.924788415
1341846444.766262 -1.063277960 -0.130330056 0.855998755 -0.084705815 0.360910773 0.072057165 0.925946057
1341846444.798037 -1.053854227 -0.122343257 0.835049927 -0.079799272 0.360380501 0.073196538 0.926498890
1341846444.833972 -1.051371813 -0.122427687 0.822336495 -0.079369970 0.360088825 0.072176859 0.926729143
1341846444.866116 -1.042551160 -0.125220343 0.816060424 -0.078377068 0.358425975 0.072407380 0.927440047
1341846444.898025 -1.034231901 -0.121233478 0.803158998 -0.075562537 0.355756253 0.073205069 0.928638160
1341846444.934155 -1.029610395 -0.115358308 0.787124395 -0.075551927 0.352972001 0.074099332 0.929630041
1341846444.972057 -1.018905282 -0.123715371 0.777484119 -0.078103796 0.349674761 0.074276291 0.930650532
1341846445.034071 -1.004047871 -0.117790058 0.752591908 -0.076403789 0.344092578 0.073678806 0.932916999
1341846445.065987 -0.994381964 -0.120966062 0.740458965 -0.079031572 0.340174913 0.072789669 0.934203744
1341846445.102399 -0.983471990 -0.127140865 0.732735336 -0.078935988 0.336688191 0.072082847 0.935528874
1341846445.134054 -0.979371727 -0.119726874 0.719916880 -0.075988226 0.331815034 0.070716172 0.937615991
1341846445.170198 -0.974908471 -0.116608962 0.716327012 -0.076824702 0.324319065 0.068003550 0.940367281
1341846445.202068 -0.960561752 -0.134735718 0.691244900 -0.076543093 0.317085683 0.062783778 0.943215787
1341846445.234202 -0.955955446 -0.127033904 0.669051230 -0.072878957 0.312269598 0.058082055 0.945411444
1341846445.270262 -0.948546231 -0.123679951 0.663649082 -0.073148720 0.303724825 0.052463543 0.948497772
1341846445.334212 -0.912246525 -0.125380367 0.627906442 -0.071616039 0.290627569 0.044590775 0.953109860
1341846445.370095 -0.909312665 -0.118051291 0.619289756 -0.070152119 0.285173178 0.043670919 0.954907238
1341846445.401934 -0.885863781 -0.115406506 0.597170949 -0.071244821 0.276283115 0.042814936 0.957475185
1341846445.437937 -0.868543327 -0.122880660 0.591486156 -0.071914375 0.273151487 0.041497756 0.958381236
1341846445.469984 -0.867689729 -0.134810627 0.587689221 -0.067254722 0.268515706 0.042183347 0.959998250
1341846445.502004 -0.847576797 -0.123177186 0.573289514 -0.060865775 0.258438706 0.039237592 0.963309526
1341846445.537946 -0.824602008 -0.115222603 0.555014610 -0.059055191 0.253696322 0.036611397 0.964785099
1341846445.570063 -0.818406284 -0.113037847 0.547437549 -0.059087403 0.250519186 0.032629680 0.965755761
1341846445.602021 -0.790760398 -0.109702580 0.534665406 -0.059658132 0.244632944 0.028696233 0.967353165
1341846445.638006 -0.782132089 -0.115386501 0.533617437 -0.059089649 0.243877396 0.028013740 0.967598796
1341846445.670085 -0.794791877 -0.124243379 0.534114718 -0.053412843 0.236352473 0.027106633 0.969819486
1341846445.706037 -0.772284806 -0.113966703 0.513076782 -0.046323039 0.220009714 0.031519406 0.973887265
1341846445.738075 -0.756515145 -0.103550367 0.508095324 -0.044091307 0.212085068 0.032009661 0.975731134
1341846445.770102 -0.746100068 -0.096696846 0.500907242 -0.045413446 0.202782303 0.029705636 0.977719009
1341846445.806006 -0.704650700 -0.095025785 0.486120671 -0.048103843 0.193838567 0.027925735 0.979455352
1341846445.838049 -0.692353308 -0.108238079 0.475397348 -0.047249120 0.188372403 0.027049435 0.980587423
1341846445.870081 -0.686344683 -0.106847294 0.473879188 -0.042283665 0.179890141 0.024039589 0.982483447
1341846445.906156 -0.664821327 -0.090886518 0.467274666 -0.039914243 0.171422049 0.019648205 0.984192729
1341846445.938036 -0.649506867 -0.085837267 0.461936444 -0.042921044 0.165360391 0.013789431 0.985202312
1341846445.974028 -0.630457580 -0.082510814 0.456218690 -0.048317108 0.159271255 0.005485676 0.986036539
1341846446.006089 -0.610426784 -0.096082143 0.454131693 -0.052428860 0.156146631 0.000327686 0.986341417
1341846446.038148 -0.602867484 -0.108334936 0.456084907 -0.047969434 0.152493894 0.000598621 0.987139404
1341846446.073973 -0.588857591 -0.111695252 0.447872370 -0.036218353 0.143427163 0.008924790 0.988957644
1341846446.106021 -0.572702646 -0.089142472 0.436336935 -0.030185912 0.135549843 0.008185459 0.990276754
1341846446.138290 -0.553818762 -0.082416900 0.430164248 -0.032357205 0.130824402 0.006476771 0.990856230
1341846446.174003 -0.549958169 -0.097692080 0.439971536 -0.033954334 0.126700252 0.006331715 0.991339505
1341846446.206154 -0.527143538 -0.094739728 0.424252242 -0.028190305 0.118686020 0.010820196 0.992472589
1341846446.242005 -0.502902746 -0.070939176 0.410357237 -0.027297076 0.117368847 0.013245717 0.992624819
1341846446.273991 -0.512661040 -0.076419279 0.418930024 -0.033861890 0.117369510 0.014160411 0.992409825
1341846446.306170 -0.496666998 -0.080224194 0.413450062 -0.034561656 0.108957894 0.019040290 0.993262887
1341846446.342032 -0.475141406 -0.069214880 0.401512891 -0.034281950 0.104797661 0.025576537 0.993573368
1341846446.373966 -0.478046447 -0.067782827 0.403017342 -0.038530122 0.102380916 0.027855091 0.993608415
1341846446.410081 -0.460570008 -0.066381134 0.397296965 -0.041071542 0.094230555 0.029303117 0.994271100
1341846446.441987 -0.443952352 -0.064394161 0.394937366 -0.043806229 0.090969540 0.030570030 0.994419932
1341846446.474066 -0.451166093 -0.066508718 0.391909808 -0.047140650 0.088238835 0.028781325 0.994566917
1341846446.510038 -0.432086140 -0.061211035 0.386587173 -0.048997514 0.079170041 0.026434354 0.995305240
1341846446.542120 -0.407305151 -0.065970249 0.378709584 -0.051441755 0.075320706 0.023972929 0.995543003
1341846446.574035 -0.401089072 -0.070754156 0.376589954 -0.051573101 0.074721351 0.019979972 0.995669484
1341846446.610113 -0.386787981 -0.057352770 0.366128147 -0.049894672 0.069322616 0.017282221 0.996195853
1341846446.642107 -0.367150217 -0.048229475 0.356844693 -0.053167414 0.067412578 0.014483239 0.996202290
1341846446.678096 -0.374587864 -0.054934774 0.356232584 -0.057452761 0.066640183 0.009757163 0.996073842
1341846446.710293 -0.363336861 -0.047273874 0.339674771 -0.059367754 0.059062824 0.009601470 0.996441126
1341846446.742013 -0.334823668 -0.039317455 0.334494978 -0.064501345 0.053539593 0.013009613 0.996395409
1341846446.778116 -0.339306742 -0.046414584 0.335147142 -0.070163518 0.052308511 0.011814821 0.996093035
1341846446.810247 -0.331312597 -0.043401126 0.328890890 -0.071927600 0.043391872 0.010821206 0.996406794
1341846446.842072 -0.304211229 -0.037862610 0.320274144 -0.074502379 0.036963835 0.014383859 0.996431708
1341846446.877989 -0.297020197 -0.040602885 0.316913903 -0.079362065 0.034955848 0.014464406 0.996127784
1341846446.910210 -0.279432535 -0.038290277 0.310889482 -0.081929497 0.030733028 0.014069225 0.996064782
1341846446.979416 -0.253689408 -0.038459968 0.301404595 -0.087571919 0.027413558 0.015151169 0.995665669
1341846447.048442 -0.225641444 -0.036162958 0.292828649 -0.084164247 0.023532275 0.016309360 0.996040463
1341846447.110128 -0.200047925 -0.020162744 0.279738694 -0.087580681 0.023068123 0.014879744 0.995779157
1341846447.146292 -0.174244106 -0.025922040 0.278207213 -0.090607263 0.024534253 0.013307064 0.995495558
1341846447.179789 -0.173439935 -0.029082822 0.274574459 -0.091141745 0.028836221 0.011822640 0.995350122
1341846447.216160 -0.169508696 -0.023520818 0.268945187 -0.091004498 0.029904395 0.010965003 0.995341003
1341846447.252104 -0.151607186 -0.017589506 0.265703678 -0.093370192 0.031508375 0.010458898 0.995077848
1341846447.284847 -0.159222767 -0.024428895 0.264341027 -0.096867524 0.036753286 0.008031663 0.994586051
1341846447.320107 -0.156830847 -0.024430629 0.263879478 -0.098071054 0.036577027 0.009553408 0.994461119
1341846447.352050 -0.138790607 -0.013888787 0.260278553 -0.098760068 0.035346914 0.012135423 0.994409263
1341846447.383924 -0.133699462 -0.015949620 0.258210868 -0.103137322 0.039330132 0.010224205 0.993836641
1341846447.420069 -0.140299380 -0.018091436 0.261009783 -0.106104314 0.042312805 0.009351262 0.993410349
1341846447.452015 -0.140583202 -0.020709239 0.259519368 -0.108049080 0.041166030 0.013003952 0.993207753
1341846447.488160 -0.132069752 -0.018547887 0.254030079 -0.109676875 0.041106578 0.014277812 0.993014276
1341846447.520057 -0.143959448 -0.020028487 0.257549256 -0.112364687 0.043869663 0.012302070 0.992621899
1341846447.551976 -0.155722380 -0.032011047 0.255562097 -0.115083218 0.041708723 0.013979832 0.992381394
1341846447.588058 -0.147892997 -0.032824527 0.254125386 -0.116526209 0.036927156 0.015951425 0.992372692
1341846447.620036 -0.145895302 -0.022505851 0.247316331 -0.118778482 0.034849886 0.015973376 0.992180407
1341846447.656059 -0.146706492 -0.030119525 0.247987911 -0.126488551 0.034147769 0.014084770 0.991280079
1341846447.688035 -0.153293595 -0.037026230 0.250455946 -0.129708797 0.034165651 0.015716219 0.990838706
1341846447.719948 -0.156233802 -0.038971115 0.245988026 -0.129659414 0.031182129 0.019878950 0.990868747
1341846447.756116 -0.151140660 -0.036229011 0.240780771 -0.130431086 0.028489692 0.023430439 0.990770936
1341846447.787990 -0.147166207 -0.032267451 0.235603541 -0.132600799 0.029361853 0.025594836 0.990403831
1341846447.823997 -0.151916131 -0.039330885 0.234911591 -0.136260912 0.031517081 0.025969407 0.989830911
1341846447.856048 -0.149451211 -0.043032970 0.232916683 -0.136790961 0.031561367 0.026729209 0.989736199
1341846447.888261 -0.145126238 -0.041814707 0.228853136 -0.135675043 0.033763595 0.026978271 0.989810348
1341846447.924141 -0.148267552 -0.044213850 0.226629034 -0.136136472 0.037481043 0.025944687 0.989640832
1341846447.956316 -0.155995041 -0.052996088 0.226200163 -0.137044787 0.039067812 0.025365343 0.989469051
1341846447.992036 -0.149950489 -0.052939977 0.225399837 -0.135814860 0.037029285 0.026434246 0.989689052
1341846448.024057 -0.145976633 -0.047581501 0.216629103 -0.137139454 0.037329603 0.024453593 0.989546001
1341846448.092100 -0.148559824 -0.052720930 0.216799468 -0.146065935 0.037545677 0.016890470 0.988417804
1341846448.150222 -0.149696052 -0.055853885 0.214899406 -0.153233945 0.038135335 0.014571548 0.987346292
1341846448.186133 -0.152340189 -0.067273170 0.217229232 -0.153823704 0.038261719 0.013114654 0.987270117
1341846448.218203 -0.154146239 -0.072437115 0.215216130 -0.148193985 0.036881950 0.013935179 0.988172114
1341846448.250175 -0.152578950 -0.072477452 0.209514961 -0.143010154 0.034435589 0.013843398 0.989025116
1341846448.286053 -0.148242012 -0.065513745 0.205182135 -0.140173137 0.034496546 0.013112812 0.989439011
1341846448.318080 -0.155408606 -0.067134276 0.205669388 -0.140127659 0.036606047 0.012980266 0.989371419
1341846448.350345 -0.157619953 -0.068028919 0.203369573 -0.139357775 0.034450848 0.014692497 0.989533603
1341846448.385982 -0.150238797 -0.062305532 0.196950704 -0.139395833 0.031685937 0.015722509 0.989604771
1341846448.417971 -0.149863303 -0.059760459 0.191762120 -0.143960193 0.032143500 0.015883433 0.988933742
1341846448.454017 -0.154275611 -0.066468656 0.195425212 -0.150407612 0.032216221 0.015188272 0.987982273
1341846448.486068 -0.156175151 -0.071410976 0.197230950 -0.153720930 0.029884180 0.013457508 0.987570643
1341846448.518032 -0.150342181 -0.067913592 0.192818299 -0.153742954 0.029093018 0.012790592 0.987599671
1341846448.553970 -0.160814300 -0.074888997 0.192536846 -0.157350674 0.031682745 0.012737363 0.986952245
1341846448.586105 -0.165164366 -0.097982958 0.195177346 -0.161075190 0.029102838 0.012151021 0.986438155
1341846448.621936 -0.155507803 -0.106567651 0.192660630 -0.159281582 0.026028702 0.012186240 0.986814737
1341846448.653943 -0.153663844 -0.097437114 0.187194452 -0.156620756 0.027263885 0.009368866 0.987237990
1341846448.686150 -0.158347666 -0.096817501 0.182979867 -0.159241617 0.028348139 0.008597386 0.986795127
1341846448.722086 -0.152893022 -0.095985711 0.179290652 -0.163679972 0.027245495 0.009350832 0.986092865
1341846448.753983 -0.142706454 -0.077400193 0.173733205 -0.166330174 0.028692983 0.008321512 0.985617459
1341846448.786053 -0.158565715 -0.093253136 0.178597063 -0.177662134 0.034284741 0.004182777 0.983485222
1341846448.822019 -0.167728573 -0.122156993 0.185858160 -0.184240893 0.033183057 0.004351907 0.982311130
1341846448.854125 -0.159186944 -0.117416769 0.183424503 -0.178154007 0.028190477 0.008638970 0.983560741
1341846448.890063 -0.152650282 -0.102381803 0.176922247 -0.174442872 0.027827624 0.006999007 0.984249115
1341846448.922419 -0.147743791 -0.077248134 0.170579329 -0.176057264 0.028330427 0.002373600 0.983969331
1341846448.954059 -0.155055210 -0.074227713 0.163984179 -0.187260285 0.031733014 -0.000490559 0.981797516
1341846448.990056 -0.156326801 -0.077538125 0.167326778 -0.199875951 0.034425266 -0.003334999 0.979210615
1341846449.022043 -0.158115655 -0.103826299 0.175624460 -0.212001234 0.036725827 -0.003511862 0.976572752
1341846449.054021 -0.159307778 -0.116243549 0.181490004 -0.216391295 0.037606563 -0.004316044 0.975572646
1341846449.090060 -0.160767272 -0.135680825 0.183233172 -0.216134086 0.038141299 -0.004421051 0.975608408
1341846449.121998 -0.161073342 -0.132218495 0.184838742 -0.209558234 0.037668392 -0.005534976 0.977054656
1341846449.158114 -0.155551866 -0.132674903 0.178277701 -0.205213338 0.036437392 -0.007156279 0.978012562
1341846449.190066 -0.151154459 -0.129766941 0.173313990 -0.204259112 0.038120564 -0.009492778 0.978128254
1341846449.222044 -0.154056132 -0.133790150 0.177379459 -0.207044691 0.042114604 -0.009146096 0.977381825
1341846449.258032 -0.162879348 -0.140748948 0.182695538 -0.209447905 0.043512341 -0.006138026 0.976831913
1341846449.290278 -0.152911097 -0.157715917 0.186840996 -0.210950881 0.041400038 -0.001179854 0.976618826
1341846449.321912 -0.145912036 -0.161955044 0.187148929 -0.211099043 0.042201258 0.001612067 0.976551890
1341846449.357984 -0.151883811 -0.146160290 0.183086634 -0.211366385 0.045516044 0.002896286 0.976342201
1341846449.390027 -0.148065656 -0.169336990 0.196737126 -0.215986773 0.047730189 0.007037817 0.975203574
1341846449.426101 -0.148318514 -0.152715325 0.199889168 -0.205135435 0.050538920 0.013335088 0.977336884
1341846449.458035 -0.141348094 -0.174912468 0.203094766 -0.205172211 0.049986064 0.013217946 0.977359176
1341846449.490185 -0.138519362 -0.184423730 0.210598767 -0.208647862 0.051131263 0.011957409 0.976580083
1341846449.525989 -0.135152966 -0.204732731 0.221945390 -0.213280335 0.053616837 0.013974643 0.975418568
1341846449.558288 -0.151179761 -0.241640106 0.233362436 -0.217962012 0.055409003 0.013957004 0.974283099
1341846449.594265 -0.150280446 -0.223093003 0.238195494 -0.208139390 0.053104490 0.014727842 0.976545453
1341846449.626133 -0.149309009 -0.229607925 0.249207899 -0.202895597 0.053044911 0.012670604 0.977680445
1341846449.658161 -0.152293012 -0.228311315 0.253731191 -0.203237474 0.053808454 0.011669018 0.977580190
1341846449.694129 -0.146355167 -0.232572019 0.265607536 -0.208799094 0.054963596 0.009538334 0.976366222
1341846449.725937 -0.162466541 -0.227303147 0.281924754 -0.210043013 0.059693869 0.008942895 0.975827098
1341846449.757969 -0.157258898 -0.229549170 0.282100528 -0.214202657 0.058332346 0.013066563 0.974958360
1341846449.794073 -0.162205309 -0.224025309 0.295266271 -0.217957109 0.057834629 0.012161764 0.974167287
1341846449.826150 -0.163300559 -0.221486241 0.314122885 -0.217016086 0.059667259 0.010964094 0.974281073
1341846449.861992 -0.161708176 -0.221464053 0.315262139 -0.213372827 0.056981947 0.008443929 0.975271165
1341846449.894052 -0.168028504 -0.224758774 0.335279286 -0.212732151 0.054732502 0.006833817 0.975552499
1341846449.925963 -0.164144054 -0.218541384 0.345896065 -0.206112787 0.056499418 0.007864855 0.976864100
1341846449.962133 -0.173727348 -0.213221893 0.354508281 -0.203700423 0.062554024 0.007557441 0.977003574
1341846449.994047 -0.184584931 -0.222668603 0.373840898 -0.205628559 0.066326827 0.004889352 0.976367652
1341846450.026443 -0.183207989 -0.230333269 0.391067892 -0.205396622 0.065752238 0.003199921 0.976462305
1341846450.062040 -0.183384567 -0.217804849 0.395418137 -0.201049000 0.066526301 0.002592665 0.977316141
1341846450.094160 -0.176841840 -0.214139506 0.399988353 -0.200851262 0.066264533 -0.001066497 0.977377415
1341846450.130133 -0.182229832 -0.202970415 0.403794378 -0.200142279 0.067558900 -0.004925097 0.977422416
1341846450.161911 -0.184294015 -0.201777980 0.407742262 -0.200572968 0.068573222 -0.005784812 0.977258801
1341846450.194126 -0.184503645 -0.204586372 0.422069401 -0.203501865 0.069160551 -0.005887164 0.976611078
1341846450.230042 -0.183933452 -0.200846151 0.417460561 -0.205243558 0.068639137 -0.005870525 0.976283371
1341846450.262009 -0.185511366 -0.199315324 0.419870645 -0.206896260 0.066310570 -0.006801291 0.976089418
1341846450.294220 -0.186483443 -0.196619660 0.424911499 -0.203195184 0.063029043 -0.008356301 0.977071762
1341846450.330052 -0.188598275 -0.195545211 0.426146388 -0.200704232 0.059197757 -0.011801112 0.977790475
1341846450.361929 -0.189323232 -0.194359809 0.429724723 -0.199554950 0.058613524 -0.015588206 0.978007793
1341846450.398035 -0.190563306 -0.193374723 0.434757471 -0.198794603 0.059893671 -0.016205316 0.978075087
1341846450.429941 -0.193086773 -0.191296116 0.440582216 -0.198439866 0.058870286 -0.014918635 0.978229702
1341846450.461928 -0.192150295 -0.190848112 0.443043768 -0.197244897 0.054714948 -0.018390531 0.978653431
1341846450.498062 -0.192784891 -0.191069096 0.448826909 -0.197122201 0.053773224 -0.023754168 0.978614867
1341846450.529969 -0.194186777 -0.190388143 0.455465972 -0.196907520 0.052593969 -0.030266482 0.978542387
1341846450.561983 -0.194613487 -0.188613668 0.457983613 -0.198142633 0.050452873 -0.032630980 0.978329778
1341846450.598097 -0.195759997 -0.186921149 0.461214453 -0.197758019 0.049316671 -0.032805618 0.978459716
1341846450.630436 -0.196697459 -0.186393842 0.465233594 -0.198096842 0.046648014 -0.032862063 0.978520155
1341846450.666178 -0.197270632 -0.185773671 0.466342479 -0.199114114 0.041635331 -0.030984811 0.978601038
1341846450.698174 -0.197562724 -0.185669780 0.467066020 -0.199999034 0.035881877 -0.024127627 0.978841484
1341846450.730214 -0.197117463 -0.186268210 0.465389997 -0.201657727 0.028944490 -0.019527147 0.978833497
1341846450.765977 -0.196614653 -0.186133936 0.465912104 -0.203382969 0.023203788 -0.023961006 0.978530943
1341846450.798042 -0.197583050 -0.185404211 0.468085378 -0.203782871 0.020948185 -0.030645523 0.978312075
1341846450.834020 -0.197652429 -0.185261309 0.468650758 -0.203867659 0.020358346 -0.035662733 0.978136837
1341846450.866022 -0.197271615 -0.185721681 0.467297077 -0.206408590 0.021105992 -0.041126188 0.977373362
1341846450.898067 -0.197552860 -0.185393795 0.468141049 -0.211682722 0.021990476 -0.043836698 0.976107180
1341846450.934091 -0.197593704 -0.185350507 0.468298793 -0.212483913 0.019112559 -0.042133346 0.976068676
1341846450.966100 -0.197589934 -0.185305491 0.468419701 -0.209849194 0.014294653 -0.042783931 0.976692617
1341846450.998096 -0.197592840 -0.185340971 0.468310952 -0.211064011 0.010748439 -0.048392061 0.976214468
1341846451.034057 -0.197597876 -0.185363367 0.468225062 -0.215692759 0.010448096 -0.054476734 0.974884450
1341846451.068370 -0.197597891 -0.185339287 0.468311876 -0.219815478 0.011722664 -0.056349345 0.973842144
1341846451.102153 -0.197597250 -0.185335085 0.468326867 -0.220337853 0.008947019 -0.057756566 0.973671079
1341846451.133979 -0.197596118 -0.185335800 0.468321711 -0.221480757 0.006893607 -0.060144871 0.973283768
1341846451.165987 -0.197598487 -0.185332119 0.468332469 -0.223817572 0.006974806 -0.061185427 0.972683609
1341846451.202275 -0.197594985 -0.185334638 0.468327224 -0.223942757 0.005666294 -0.060027719 0.972735465
1341846451.234790 -0.197595432 -0.185335696 0.468322992 -0.226642743 0.004562174 -0.058308180 0.972220361
1341846451.302134 -0.197604463 -0.185331836 0.468344212 -0.220026657 -0.000350549 -0.057421770 0.973802269
1341846451.334095 -0.197596386 -0.185336158 0.468324184 -0.218102425 0.001943553 -0.061133999 0.974007249
1341846451.370064 -0.197599024 -0.185335308 0.468331754 -0.219295800 0.004309999 -0.061255138 0.973724127
1341846451.402007 -0.197596222 -0.185336530 0.468326002 -0.215677381 0.004426433 -0.059001099 0.974670470
1341846451.434004 -0.197599649 -0.185335815 0.468331367 -0.210359126 0.006486143 -0.058356132 0.975859404
1341846451.470107 -0.197596192 -0.185338140 0.468321860 -0.206881240 0.009921493 -0.057931792 0.976598978
1341846451.502266 -0.197596177 -0.185337946 0.468322694 -0.204805776 0.014082172 -0.057959564 0.976983607
1341846451.534027 -0.197589204 -0.185342357 0.468302935 -0.203176945 0.019479616 -0.056116059 0.977338552
1341846451.570038 -0.197587326 -0.185343578 0.468298465 -0.202232987 0.023324516 -0.057217065 0.977386296
1341846451.601887 -0.197584838 -0.185345769 0.468291909 -0.202644840 0.026892021 -0.057784133 0.977176011
1341846451.637996 -0.197583973 -0.185346812 0.468288660 -0.204028144 0.030159496 -0.056382511 0.976874590
1341846451.669951 -0.197584197 -0.185351208 0.468277127 -0.202488244 0.033518862 -0.054824520 0.977174103
1341846451.702077 -0.197581291 -0.185357690 0.468259394 -0.200483322 0.036336571 -0.055561624 0.977445126
1341846451.737995 -0.197580054 -0.185360193 0.468249172 -0.199502259 0.036860742 -0.056670416 0.977562606
1341846451.770041 -0.197578937 -0.185361281 0.468244165 -0.199310273 0.038704101 -0.058485433 0.977423608
1341846451.806071 -0.197580874 -0.185360417 0.468245685 -0.200052887 0.042670265 -0.060195554 0.977002859
1341846451.838004 -0.197578862 -0.185367242 0.468231648 -0.203299850 0.042610608 -0.059311263 0.976389110
1341846451.870027 -0.197571382 -0.185367718 0.468223333 -0.207941368 0.040925156 -0.061751049 0.975331903
1341846451.905961 -0.197571442 -0.185364544 0.468226314 -0.208877921 0.042392541 -0.061264649 0.975099742
1341846451.937970 -0.197570220 -0.185369223 0.468217731 -0.208843261 0.042991161 -0.058692880 0.975239158
1341846451.970138 -0.197571412 -0.185369417 0.468213469 -0.205565602 0.039952144 -0.060172416 0.975974321
1341846452.006080 -0.197570816 -0.185372680 0.468206614 -0.198745474 0.036256108 -0.065182202 0.977208734
1341846452.037935 -0.197570637 -0.185374260 0.468201429 -0.194222480 0.031473115 -0.062976964 0.978427827
1341846452.073949 -0.197570279 -0.185377046 0.468189418 -0.191294402 0.025782822 -0.057232775 0.979523420
1341846452.105977 -0.197570905 -0.185374960 0.468195468 -0.189824343 0.022409393 -0.056310117 0.979945779
1341846452.138008 -0.197570741 -0.185377419 0.468189061 -0.189469457 0.021797333 -0.054737948 0.980117321
1341846452.174074 -0.197571695 -0.185378432 0.468186229 -0.185440376 0.020255376 -0.052128263 0.981062829
1341846452.206235 -0.197571754 -0.185379967 0.468181282 -0.177373588 0.015450815 -0.048546918 0.982824028
1341846452.238073 -0.197570264 -0.185380355 0.468172431 -0.170385242 0.012332272 -0.046439003 0.984205365
1341846452.274106 -0.197568968 -0.185380638 0.468167812 -0.166745931 0.011907295 -0.046099495 0.984849632
1341846452.306097 -0.197568163 -0.185379088 0.468168885 -0.160469130 0.012108460 -0.043394633 0.986012161
1341846452.342082 -0.197568640 -0.185379699 0.468159378 -0.155227691 0.011320018 -0.037683941 0.987094820
1341846452.374034 -0.197564051 -0.185375512 0.468158126 -0.155142903 0.011721552 -0.036443919 0.987150013
1341846452.406041 -0.197562903 -0.185375929 0.468161851 -0.156115219 0.014599436 -0.034006532 0.987045288
1341846452.442053 -0.197564632 -0.185380921 0.468156040 -0.154042780 0.013980623 -0.026603216 0.987607002
1341846452.474108 -0.197564080 -0.185379624 0.468153268 -0.150775462 0.007451193 -0.020555113 0.988326192
1341846452.506073 -0.197562888 -0.185378671 0.468154043 -0.151478261 0.006115411 -0.021132547 0.988215744
1341846452.542118 -0.197561920 -0.185379252 0.468153417 -0.153333023 0.007136066 -0.020873066 0.987928331
1341846452.574108 -0.197561890 -0.185381770 0.468149990 -0.151204810 0.005290130 -0.013458673 0.988396645
1341846452.610038 -0.197561607 -0.185380399 0.468150645 -0.145849943 0.001759289 -0.013858365 0.989208102
1341846452.642126 -0.197561353 -0.185377762 0.468150169 -0.142080858 0.001568933 -0.015287283 0.989735782
1341846452.674053 -0.197560892 -0.185376704 0.468148947 -0.141507760 0.002688476 -0.014509195 0.989827156
1341846452.709891 -0.197560906 -0.185376242 0.468148708 -0.142584309 0.003554769 -0.013511886 0.989684045
1341846452.742117 -0.197560504 -0.185376242 0.468148082 -0.142777130 0.004783936 -0.013666390 0.989648938
1341846452.774020 -0.197560102 -0.185376137 0.468147337 -0.141623095 0.007424324 -0.013783092 0.989796817
1341846452.810050 -0.197559759 -0.185375825 0.468145221 -0.140678510 0.009554653 -0.013974058 0.989910603
1341846452.842060 -0.197559997 -0.185376227 0.468147337 -0.140185907 0.010195698 -0.013295636 0.989983439
1341846452.910212 -0.197560102 -0.185376257 0.468147576 -0.139472395 0.013865348 -0.012774867 0.990046442
1341846452.942284 -0.197560042 -0.185376406 0.468147516 -0.138427541 0.012815782 -0.010433067 0.990234673
1341846452.978269 -0.197559580 -0.185376257 0.468146116 -0.133906126 0.012048716 -0.011465367 0.990854442
1341846453.010078 -0.197559178 -0.185376495 0.468145519 -0.134552836 0.014252175 -0.015050000 0.990689635
1341846453.046005 -0.197558925 -0.185376391 0.468144834 -0.138609365 0.016718956 -0.015934234 0.990077794
1341846453.078276 -0.197559536 -0.185376406 0.468146682 -0.139629409 0.015884794 -0.015990240 0.989947259
1341846453.111410 -0.197559744 -0.185376525 0.468146652 -0.136604428 0.015068191 -0.018491605 0.990338445
1341846453.152099 -0.197559565 -0.185376316 0.468146265 -0.132961646 0.016685335 -0.020205770 0.990774691
1341846453.210744 -0.197559655 -0.185376391 0.468146682 -0.126882985 0.016503468 -0.025520692 0.991451979
1341846453.246368 -0.197559416 -0.185376614 0.468146056 -0.120988511 0.015130234 -0.028608773 0.992126167
1341846453.281016 -0.197559282 -0.185376540 0.468146145 -0.115527540 0.014977109 -0.033252575 0.992634535
1341846453.346478 -0.197560787 -0.185376570 0.468150198 -0.105007984 0.015190167 -0.034963492 0.993740499
1341846453.413993 -0.197559118 -0.185376853 0.468146086 -0.093393549 0.015830927 -0.040209875 0.994691014
1341846453.447282 -0.197559103 -0.185376957 0.468146324 -0.083134070 0.016312791 -0.046046589 0.995340288
1341846453.489022 -0.197559088 -0.185376972 0.468146324 -0.070073158 0.012867275 -0.047902137 0.996307969
1341846453.520074 -0.197558984 -0.185377121 0.468146086 -0.056971442 0.011817571 -0.049723718 0.997066796
1341846453.552202 -0.197559074 -0.185377270 0.468146563 -0.046760641 0.012237070 -0.048695758 0.997643411
1341846453.588242 -0.197558850 -0.185377300 0.468145967 -0.041499641 0.011300623 -0.043160666 0.998141885
1341846453.619879 -0.197558999 -0.185377404 0.468146145 -0.041834105 0.011766266 -0.040334225 0.998240769
1341846453.656024 -0.197559014 -0.185377374 0.468146235 -0.042510323 0.012886622 -0.038444102 0.998272955
1341846453.687999 -0.197559074 -0.185377434 0.468146294 -0.040267404 0.014287476 -0.036605068 0.998416007
1341846453.720025 -0.197559118 -0.185377583 0.468146294 -0.038016807 0.015687203 -0.034765840 0.998548925
1341846453.756055 -0.197559237 -0.185377628 0.468146265 -0.035760675 0.017081954 -0.032924809 0.998671830
1341846453.787935 -0.197559118 -0.185377613 0.468146265 -0.032533653 0.015772525 -0.030205596 0.998889565
1341846453.824011 -0.197559044 -0.185377613 0.468146294 -0.029307526 0.014465091 -0.027486090 0.999087751
1341846453.855942 -0.197559014 -0.185377479 0.468146265 -0.026081888 0.013158473 -0.024766486 0.999266326
1341846453.888038 -0.197558984 -0.185377389 0.468146235 -0.022855755 0.011851849 -0.022046451 0.999425352
1341846453.924065 -0.197558954 -0.185377285 0.468146265 -0.019629268 0.010545108 -0.019326022 0.999564886
1341846453.955921 -0.197558925 -0.185377255 0.468146324 -0.016402518 0.009238317 -0.016605217 0.999684870
1341846453.987940 -0.197558954 -0.185377359 0.468146294 -0.013175514 0.007931511 -0.013884150 0.999785304
1341846454.024255 -0.197558925 -0.185377464 0.468146354 -0.009948152 0.006624674 -0.011162931 0.999866247
1341846454.056313 -0.197558910 -0.185377359 0.468146294 -0.006720590 0.005317826 -0.008441642 0.999927640
1341846454.088076 -0.197558969 -0.185377240 0.468146265 -0.003492965 0.004010926 -0.005720232 0.999969482
1341846454.124105 -0.197558880 -0.185377106 0.468146145 -0.000265407 0.002704022 -0.002998724 0.999991775
1341846454.156054 -0.197558910 -0.185376987 0.468146205 0.002962004 0.001397250 -0.000277214 0.999994576
1341846454.191955 -0.197558925 -0.185376838 0.468146205 0.006189329 0.000090722 0.002444258 0.999977887
1341846454.224008 -0.197558880 -0.185376704 0.468146235 0.009416449 -0.001215824 0.005165692 0.999941587
1341846454.256124 -0.197558835 -0.185376585 0.468146235 0.012643104 -0.002522134 0.007887050 0.999885798
1341846454.291937 -0.197558865 -0.185376540 0.468146324 0.015868763 -0.003827570 0.010608329 0.999810457
1341846454.323981 -0.197558895 -0.185376465 0.468146503 0.019094002 -0.005132897 0.013329413 0.999715686
1341846454.355934 -0.197558939 -0.185376391 0.468146533 0.022318710 -0.006438159 0.016050277 0.999601364
1341846454.392062 -0.197558746 -0.185376197 0.468146324 0.025542850 -0.007743346 0.018770814 0.999467492
1341846454.423951 -0.197558656 -0.185376108 0.468146175 0.028766382 -0.009048313 0.021490773 0.999314129
1341846454.456041 -0.197558701 -0.185376063 0.468146116 0.031989306 -0.010353095 0.024210233 0.999141335
1341846454.492065 -0.197558671 -0.185376003 0.468146086 0.035211515 -0.011657718 0.026929209 0.998948932
1341846454.524037 -0.197558597 -0.185375944 0.468146026 0.038433041 -0.012962074 0.029647607 0.998737156
1341846454.555946 -0.197558597 -0.185375929 0.468146116 0.041653764 -0.014266153 0.032365348 0.998505831
1341846454.591893 -0.197558656 -0.185375944 0.468146086 0.044873584 -0.015570016 0.035082404 0.998255074
1341846454.624115 -0.197558627 -0.185375914 0.468146026 0.048092503 -0.016873622 0.037798714 0.997984827
1341846454.659990 -0.197558641 -0.185375869 0.468146145 0.051310454 -0.018176867 0.040514167 0.997695088
1341846454.691970 -0.197558701 -0.185376033 0.468145996 0.054527372 -0.019479821 0.043228835 0.997385859
1341846454.723925 -0.197558627 -0.185376003 0.468145847 0.057743188 -0.020782463 0.045942705 0.997057199
1341846454.759924 -0.197558597 -0.185375869 0.468146056 0.060957827 -0.022084696 0.048655633 0.996709108
1341846454.792135 -0.197558567 -0.185375825 0.468145996 0.064171240 -0.023386396 0.051367521 0.996341527
1341846454.823976 -0.197558478 -0.185375899 0.468145937 0.067383423 -0.024687517 0.054078337 0.995954573
1341846454.859970 -0.197558463 -0.185375988 0.468146026 0.070594355 -0.025987934 0.056788012 0.995548189
1341846454.892266 -0.197558403 -0.185375944 0.468145937 0.073803894 -0.027287681 0.059496500 0.995122373
1341846454.959988 -0.197558299 -0.185375839 0.468145847 0.077011988 -0.028586801 0.062203784 0.994677126
1341846455.022227 -0.197558135 -0.185375839 0.468145698 0.080218486 -0.029885324 0.064909786 0.994212508
1341846455.054099 -0.197557971 -0.185375661 0.468145728 0.083423384 -0.031183217 0.067614511 0.993728518
1341846455.090050 -0.197557911 -0.185375556 0.468145609 0.086626589 -0.032480448 0.070317931 0.993225157
1341846455.122055 -0.197557867 -0.185375512 0.468145579 0.089828074 -0.033777039 0.073020004 0.992702425
1341846455.153946 -0.197557792 -0.185375512 0.468145609 0.093027793 -0.035072967 0.075720631 0.992160320
1341846455.190190 -0.197557673 -0.185375452 0.468145460 0.096225679 -0.036368202 0.078419790 0.991598845
1341846455.222061 -0.197557703 -0.185375407 0.468145430 0.099421650 -0.037662752 0.081117488 0.991018057
1341846455.258176 -0.197557747 -0.185375258 0.468145341 0.102615602 -0.038956594 0.083813712 0.990417898
1341846455.289996 -0.197557732 -0.185375080 0.468145549 0.105807565 -0.040249672 0.086508267 0.989798486
1341846455.322654 -0.197557807 -0.185374960 0.468145549 0.108997442 -0.041541953 0.089201145 0.989159703
1341846455.358098 -0.197557941 -0.185374841 0.468145639 0.112185203 -0.042833414 0.091892272 0.988501668
1341846455.390002 -0.197557971 -0.185374677 0.468145370 0.115370728 -0.044124097 0.094581574 0.987824380
1341846455.422100 -0.197557896 -0.185374439 0.468145311 0.118553944 -0.045413963 0.097268850 0.987127781
1341846455.458125 -0.197557911 -0.185374260 0.468145400 0.121734716 -0.046702996 0.099954151 0.986411989
1341846455.490042 -0.197558105 -0.185374215 0.468145639 0.124913037 -0.047991302 0.102637336 0.985677004
1341846455.525978 -0.197558105 -0.185374156 0.468145460 0.128088847 -0.049278796 0.105318278 0.984922767
1341846455.558173 -0.197557986 -0.185374022 0.468145400 0.131262079 -0.050565377 0.107997015 0.984149396
1341846455.590092 -0.197558090 -0.185373992 0.468145549 0.134432688 -0.051850978 0.110673562 0.983356833
1341846455.625973 -0.197558165 -0.185373992 0.468145609 0.137600660 -0.053135578 0.113347895 0.982545137
1341846455.658077 -0.197558165 -0.185373873 0.468145579 0.140765935 -0.054419156 0.116019942 0.981714249
1341846455.690122 -0.197558254 -0.185373798 0.468145698 0.143928468 -0.055701673 0.118689626 0.980864286
1341846455.726004 -0.197558224 -0.185373709 0.468145519 0.147088200 -0.056983110 0.121356912 0.979995131
1341846455.758157 -0.197558179 -0.185373768 0.468145430 0.150245130 -0.058263406 0.124021731 0.979106903
1341846455.826431 -0.197558105 -0.185373783 0.468145192 0.153399140 -0.059542555 0.126684114 0.978199661
1341846455.858084 -0.197557971 -0.185373828 0.468144983 0.156550467 -0.060820580 0.129344121 0.977273226
1341846455.893948 -0.197557792 -0.185373917 0.468144804 0.159698755 -0.062097427 0.132001579 0.976327717
1341846455.926012 -0.197557673 -0.185373828 0.468144804 0.162843466 -0.063370913 0.134656280 0.975363433
1341846455.958115 -0.197557613 -0.185373932 0.468144804 0.165985525 -0.064642735 0.137308568 0.974380016
1341846455.994972 -0.197557539 -0.185373902 0.468144536 0.169124439 -0.065912962 0.139958143 0.973377705
1341846456.026027 -0.197557539 -0.185373932 0.468144804 0.172259688 -0.067181766 0.142604694 0.972356439
1341846456.061926 -0.197557524 -0.185373858 0.468144745 0.175391659 -0.068449281 0.145248368 0.971316278
1341846456.093945 -0.197557494 -0.185373813 0.468144745 0.178519964 -0.069715507 0.147888958 0.970257282
1341846456.126153 -0.197557539 -0.185373813 0.468144923 0.181644797 -0.070980445 0.150526538 0.969179392
1341846456.162325 -0.197557598 -0.185373738 0.468144953 0.184766054 -0.072243854 0.153161079 0.968082666
1341846456.194021 -0.197557524 -0.185373768 0.468144953 0.187883750 -0.073505856 0.155792594 0.966967046
1341846456.229852 -0.197557479 -0.185373738 0.468144864 0.190997779 -0.074766241 0.158421084 0.965832651
1341846456.262012 -0.197557420 -0.185373619 0.468144923 0.194108084 -0.076025173 0.161046460 0.964679360
1341846456.293900 -0.197557405 -0.185373485 0.468144953 0.197214544 -0.077282667 0.163668692 0.963507354
1341846456.330221 -0.197557345 -0.185373381 0.468144834 0.200317070 -0.078538604 0.166287705 0.962316573
1341846456.362093 -0.197557300 -0.185373366 0.468144774 0.203415737 -0.079793163 0.168903410 0.961107016
1341846456.394095 -0.197557479 -0.185373321 0.468144983 0.206510201 -0.081046268 0.171515584 0.959878862
1341846456.429930 -0.197557628 -0.185373247 0.468145132 0.209600538 -0.082297929 0.174124286 0.958632052
1341846456.462149 -0.197557643 -0.185373187 0.468145251 0.212686732 -0.083547987 0.176729560 0.957366586
1341846456.498080 -0.197557718 -0.185373157 0.468145341 0.215768754 -0.084796511 0.179331318 0.956082463
1341846456.529977 -0.197557732 -0.185373053 0.468145370 0.218846515 -0.086043477 0.181929484 0.954779744
1341846456.562074 -0.197557658 -0.185372785 0.468145192 0.221919909 -0.087288797 0.184524015 0.953458488
1341846456.598113 -0.197557673 -0.185372680 0.468145221 0.224988878 -0.088532463 0.187114894 0.952118695
1341846456.629868 -0.197557896 -0.185372859 0.468145341 0.228053272 -0.089774445 0.189702228 0.950760365
1341846456.662113 -0.197558016 -0.185372844 0.468145609 0.231112838 -0.091014646 0.192286000 0.949383616
1341846456.697989 -0.197558090 -0.185372725 0.468145698 0.234167799 -0.092253044 0.194866017 0.947988451
1341846456.730098 -0.197558179 -0.185372621 0.468145758 0.237218156 -0.093489647 0.197442263 0.946574807
1341846456.766110 -0.197558209 -0.185372546 0.468145728 0.240263805 -0.094724424 0.200014681 0.945142686
1341846456.798062 -0.197558269 -0.185372412 0.468145788 0.243304744 -0.095957316 0.202583209 0.943692267
1341846456.830204 -0.197558284 -0.185372353 0.468145818 0.246340901 -0.097188234 0.205147743 0.942223430
1341846456.866247 -0.197558299 -0.185372233 0.468145818 0.249372259 -0.098417237 0.207708254 0.940736294
1341846456.898128 -0.197558299 -0.185372144 0.468145847 0.252398759 -0.099644355 0.210264727 0.939230859
1341846456.929870 -0.197558269 -0.185371950 0.468145698 0.255420327 -0.100869507 0.212817103 0.937707126
1341846456.966238 -0.197558284 -0.185371980 0.468145818 0.258436859 -0.102092706 0.215365306 0.936165154
1341846456.997966 -0.197558299 -0.185371935 0.468145877 0.261448264 -0.103313841 0.217909366 0.934605002
1341846457.034139 -0.197558343 -0.185371831 0.468145996 0.264454544 -0.104532920 0.220449254 0.933026671
1341846457.066343 -0.197558403 -0.185371637 0.468145996 0.267455608 -0.105749838 0.222984910 0.931430221
1341846457.098123 -0.197558269 -0.185371548 0.468145907 0.270451367 -0.106964521 0.225516289 0.929815590
1341846457.133984 -0.197558343 -0.185371518 0.468145877 0.273441881 -0.108177111 0.228043333 0.928182900
1341846457.165966 -0.197558373 -0.185371563 0.468145996 0.276426941 -0.109387502 0.230565906 0.926532209
1341846457.198024 -0.197558329 -0.185371488 0.468145996 0.279406667 -0.110595644 0.233083948 0.924863458
1341846457.234155 -0.197558299 -0.185371354 0.468145907 0.282380968 -0.111801550 0.235597402 0.923176706
1341846457.266029 -0.197558314 -0.185371280 0.468145937 0.285349786 -0.113005206 0.238106236 0.921472013
1341846457.302162 -0.197558299 -0.185371131 0.468145937 0.288313061 -0.114206597 0.240610451 0.919749439
1341846457.302162 -0.197558299 -0.185371131 0.468145937 0.288313061 -0.114206597 0.240610451 0.919749439
1341846457.302162 -0.197558299 -0.185371131 0.468145937 0.288313061 -0.114206597 0.240610451 0.919749439
1341846457.302162 -0.197558299 -0.185371131 0.468145937 0.288313061 -0.114206597 0.240610451 0.919749439
1341846457.302162 -0.197558299 -0.185371131 0.468145937 0.288313061 -0.114206597 0.240610451 0.919749439
1341846457.302162 -0.197558299 -0.185371131 0.468145937 0.288313061 -0.114206597 0.240610451 0.919749439
1341846457.302162 -0.197558299 -0.185371131 0.468145937 0.288313061 -0.114206597 0.240610451 0.919749439
1341846457.302162 -0.197558299 -0.185371131 0.468145937 0.288313061 -0.114206597 0.240610451 0.919749439
1341846457.302162 -0.197558299 -0.185371131 0.468145937 0.288313061 -0.114206597 0.240610451 0.919749439
1341846457.302162 -0.197558299 -0.185371131 0.468145937 0.288313061 -0.114206597 0.240610451 0.919749439
1341846457.302162 -0.197558299 -0.185371131 0.468145937 0.288313061 -0.114206597 0.240610451 0.919749439
1341846457.302162 -0.197558299 -0.185371131 0.468145937 0.288313061 -0.114206597 0.240610451 0.919749439
1341846457.302162 -0.197558299 -0.185371131 0.468145937 0.288313061 -0.114206597 0.240610451 0.919749439
1341846457.302162 -0.197558299 -0.185371131 0.468145937 0.288313061 -0.114206597 0.240610451 0.919749439
1341846457.302162 -0.197558299 -0.185371131 0.468145937 0.288313061 -0.114206597 0.240610451 0.919749439
1341846457.302162 -0.197558299 -0.185371131 0.468145937 0.288313061 -0.114206597 0.240610451 0.919749439
1341846457.302162 -0.197558299 -0.185371131 0.468145937 0.288313061 -0.114206597 0.240610451 0.919749439
1341846457.302162 -0.197558299 -0.185371131 0.468145937 0.288313061 -0.114206597 0.240610451 0.919749439
1341846457.302162 -0.197558299 -0.185371131 0.468145937 0.288313061 -0.114206597 0.240610451 0.919749439
1341846457.302162 -0.197558299 -0.185371131 0.468145937 0.288313061 -0.114206597 0.240610451 0.919749439
1341846457.302162 -0.197558299 -0.185371131 0.468145937 0.288313061 -0.114206597 0.240610451 0.919749439
1341846457.302162 -0.197558299 -0.185371131 0.468145937 0.288313061 -0.114206597 0.240610451 0.919749439
1341846457.302162 -0.197558299 -0.185371131 0.468145937 0.288313061 -0.114206597 0.240610451 0.919749439
1341846457.302162 -0.197558299 -0.185371131 0.468145937 0.288313061 -0.114206597 0.240610451 0.919749439
1341846457.302162 -0.197558299 -0.185371131 0.468145937 0.288313061 -0.114206597 0.240610451 0.919749439
1341846457.302162 -0.197558299 -0.185371131 0.468145937 0.288313061 -0.114206597 0.240610451 0.919749439
1341846457.302162 -0.197558299 -0.185371131 0.468145937 0.288313061 -0.114206597 0.240610451 0.919749439
1341846457.302162 -0.197558299 -0.185371131 0.468145937 0.288313061 -0.114206597 0.240610451 0.919749439
1341846457.302162 -0.197558299 -0.185371131 0.468145937 0.288313061 -0.114206597 0.240610451 0.919749439
1341846457.302162 -0.197558299 -0.185371131 0.468145937 0.288313061 -0.114206597 0.240610451 0.919749439
1341846457.302162 -0.197558299 -0.185371131 0.468145937 0.288313061 -0.114206597 0.240610451 0.919749439
1341846457.302162 -0.197558299 -0.185371131 0.468145937 0.288313061 -0.114206597 0.240610451 0.919749439
1341846457.302162 -0.197558299 -0.185371131 0.468145937 0.288313061 -0.114206597 0.240610451 0.919749439
1341846457.302162 -0.197558299 -0.185371131 0.468145937 0.288313061 -0.114206597 0.240610451 0.919749439
1341846457.302162 -0.197558299 -0.185371131 0.468145937 0.288313061 -0.114206597 0.240610451 0.919749439
1341846457.302162 -0.197558299 -0.185371131 0.468145937 0.288313061 -0.114206597 0.240610451 0.919749439
1341846457.302162 -0.197558299 -0.185371131 0.468145937 0.288313061 -0.114206597 0.240610451 0.919749439
1341846457.302162 -0.197558299 -0.185371131 0.468145937 0.288313061 -0.114206597 0.240610451 0.919749439
1341846457.302162 -0.197558299 -0.185371131 0.468145937 0.288313061 -0.114206597 0.240610451 0.919749439
1341846457.302162 -0.197558299 -0.185371131 0.468145937 0.288313061 -0.114206597 0.240610451 0.919749439
1341846457.302162 -0.197558299 -0.185371131 0.468145937 0.288313061 -0.114206597 0.240610451 0.919749439
1341846457.302162 -0.197558299 -0.185371131 0.468145937 0.288313061 -0.114206597 0.240610451 0.919749439
1341846457.302162 -0.197558299 -0.185371131 0.468145937 0.288313061 -0.114206597 0.240610451 0.919749439
1341846457.302162 -0.197558299 -0.185371131 0.468145937 0.288313061 -0.114206597 0.240610451 0.919749439
1341846457.302162 -0.197558299 -0.185371131 0.468145937 0.288313061 -0.114206597 0.240610451 0.919749439
1341846457.302162 -0.197558299 -0.185371131 0.468145937 0.288313061 -0.114206597 0.240610451 0.919749439
1341846457.302162 -0.197558299 -0.185371131 0.468145937 0.288313061 -0.114206597 0.240610451 0.919749439
1341846457.302162 -0.197558299 -0.185371131 0.468145937 0.288313061 -0.114206597 0.240610451 0.919749439
1341846457.302162 -0.197558299 -0.185371131 0.468145937 0.288313061 -0.114206597 0.240610451 0.919749439
1341846457.302162 -0.197558299 -0.185371131 0.468145937 0.288313061 -0.114206597 0.240610451 0.919749439
1341846457.302162 -0.197558299 -0.185371131 0.468145937 0.288313061 -0.114206597 0.240610451 0.919749439
1341846457.302162 -0.197558299 -0.185371131 0.468145937 0.288313061 -0.114206597 0.240610451 0.919749439
1341846457.302162 -0.197558299 -0.185371131 0.468145937 0.288313061 -0.114206597 0.240610451 0.919749439
1341846457.302162 -0.197558299 -0.185371131 0.468145937 0.288313061 -0.114206597 0.240610451 0.919749439
1341846457.302162 -0.197558299 -0.185371131 0.468145937 0.288313061 -0.114206597 0.240610451 0.919749439
1341846457.302162 -0.197558299 -0.185371131 0.468145937 0.288313061 -0.114206597 0.240610451 0.919749439
1341846457.302162 -0.197558299 -0.185371131 0.468145937 0.288313061 -0.114206597 0.240610451 0.919749439
1341846459.346071 0.000000000 0.000000000 0.000000000 0.000000000 0.000000000 0.000000000 1.000000000
1341846459.378112 -0.000229269 -0.013396377 -0.001533920 -0.005029405 0.001460958 -0.001324956 0.999985397
1341846459.409983 0.009404223 -0.026686333 -0.004589061 -0.005382087 0.003934399 -0.001200226 0.999977052
1341846459.446124 0.001983546 -0.033326581 -0.012552040 -0.004338354 0.009270506 -0.006738148 0.999924898
1341846459.478285 -0.003364198 -0.037919007 -0.015949169 -0.004796067 0.011216738 -0.011145949 0.999863446
1341846459.514102 -0.003534261 -0.041558050 -0.023194300 -0.007663379 0.011255181 -0.020826697 0.999690354
1341846459.546042 0.001883479 -0.037160307 -0.022431418 -0.012414592 0.012977072 -0.039221518 0.999069154
1341846459.578086 -0.002722366 -0.043183293 -0.018565986 -0.016353492 0.013974253 -0.058223423 0.998071790
1341846459.614088 -0.006810863 -0.049886141 -0.020870768 -0.015703272 0.011825695 -0.075018749 0.996988356
1341846459.646471 -0.005808812 -0.053683523 -0.027706204 -0.014819059 0.009282416 -0.093280055 0.995486319
1341846459.682060 -0.004509124 -0.048550695 -0.032233626 -0.017336726 0.009151989 -0.114122048 0.993273258
1341846459.713908 -0.006177781 -0.050082143 -0.027787309 -0.019259166 0.006914386 -0.131176829 0.991147757
1341846459.746062 -0.005882433 -0.052614748 -0.026437461 -0.020922136 0.003733958 -0.149338916 0.988557637
1341846459.782130 -0.003309801 -0.047744326 -0.028405728 -0.022103379 0.000865090 -0.164168760 0.986184239
1341846459.814161 -0.002432241 -0.047476411 -0.024615491 -0.021525146 -0.002416090 -0.179441795 0.983530104
1341846459.845917 -0.001349849 -0.046903528 -0.020769974 -0.017837875 -0.008187019 -0.195120648 0.980582833
1341846459.881966 -0.001355789 -0.046838611 -0.021163324 -0.016697703 -0.015225178 -0.211885124 0.977033317
1341846459.914201 0.000098154 -0.046654556 -0.030999573 -0.021072401 -0.019946130 -0.232908919 0.972065628
1341846459.950366 -0.000979611 -0.046627250 -0.031643767 -0.028408023 -0.023166848 -0.256032705 0.965972841
1341846459.982150 -0.002193003 -0.047254689 -0.029852463 -0.034599535 -0.028632831 -0.273506939 0.960820973
1341846460.014318 -0.002387735 -0.047569785 -0.034402184 -0.039646771 -0.034944292 -0.291135609 0.955220938
1341846460.050064 -0.000692490 -0.047094379 -0.036557540 -0.043789785 -0.038233977 -0.308626860 0.949405134
1341846460.082470 -0.001350182 -0.046539675 -0.030645445 -0.048211068 -0.041009441 -0.321000814 0.944961548
1341846460.113981 -0.002001442 -0.048070021 -0.031022051 -0.051959649 -0.046819810 -0.328297347 0.941981435
1341846460.150105 -0.002149033 -0.047669366 -0.030513152 -0.054668069 -0.051514365 -0.338642925 0.937911868
1341846460.181998 -0.001535049 -0.049289133 -0.034124114 -0.057232771 -0.053014331 -0.353060633 0.932342291
1341846460.218224 -0.002192711 -0.047653168 -0.030346947 -0.058656123 -0.053886745 -0.360149890 0.929487884
1341846460.250207 -0.002187395 -0.047680963 -0.030409420 -0.058621030 -0.056903791 -0.365850359 0.927080929
1341846460.282079 -0.002098475 -0.047837697 -0.030843548 -0.059620749 -0.057497114 -0.374362826 0.923575640
1341846460.318118 -0.002125680 -0.047704168 -0.030731749 -0.064549312 -0.058898848 -0.383313239 0.919475555
1341846460.350039 -0.002043334 -0.047741681 -0.030877750 -0.070573010 -0.061835039 -0.391488105 0.915386736
1341846460.382034 -0.002152256 -0.047657877 -0.030662950 -0.075974032 -0.064604335 -0.399828553 0.911148369
1341846460.417986 -0.002166109 -0.047660861 -0.030640295 -0.081777856 -0.066796422 -0.408024013 0.906844556
1341846460.450206 -0.002175598 -0.047667440 -0.030647034 -0.087569825 -0.069621362 -0.417395860 0.901812136
1341846460.486901 -0.002165394 -0.047655497 -0.030648965 -0.092450887 -0.073102646 -0.426943272 0.896564722
1341846460.550003 -0.002134623 -0.047710169 -0.030871432 -0.101336181 -0.079908215 -0.452046514 0.882609546
1341846460.585983 -0.002176838 -0.047684483 -0.030760583 -0.106333129 -0.082713880 -0.466022134 0.874457002
1341846460.618376 -0.002127358 -0.047707979 -0.030797191 -0.109383069 -0.089564681 -0.481002688 0.865245581
1341846460.654440 -0.002137678 -0.047711767 -0.030866638 -0.114090055 -0.092451878 -0.489300489 0.859663367
1341846460.685981 -0.002152909 -0.047707647 -0.030867139 -0.117237575 -0.092923760 -0.500698447 0.852596998
1341846460.719720 -0.002134630 -0.047714319 -0.030792376 -0.117948227 -0.099065810 -0.518144786 0.841308594
1341846460.754596 -0.002132616 -0.047721934 -0.030817932 -0.122213811 -0.102649227 -0.527399421 0.834491909
1341846460.818048 -0.002140154 -0.047717150 -0.030773906 -0.134173006 -0.104327746 -0.553621829 0.815239966
1341846460.854135 -0.002137865 -0.047718950 -0.030764675 -0.138590783 -0.106158040 -0.560748041 0.809373021
1341846460.886066 -0.002125055 -0.047723915 -0.030801104 -0.142473176 -0.107495978 -0.562886655 0.807034492
1341846460.922118 -0.002122331 -0.047724180 -0.030811546 -0.145047531 -0.105227061 -0.571351051 0.800903559
1341846460.953981 -0.002114026 -0.047724575 -0.030837789 -0.146554589 -0.102101527 -0.578775406 0.795685887
1341846460.986060 -0.002124409 -0.047720533 -0.030812738 -0.147024736 -0.100779653 -0.583718538 0.792148888
1341846461.022018 -0.002122825 -0.047720753 -0.030815748 -0.147552088 -0.099108666 -0.589047551 0.788307607
1341846461.053987 -0.002123705 -0.047720153 -0.030809406 -0.149267793 -0.096031964 -0.594668210 0.784134388
1341846461.086024 -0.002124531 -0.047720246 -0.030811101 -0.151687235 -0.093400702 -0.595556080 0.783313632
1341846461.122172 -0.002124462 -0.047719792 -0.030811490 -0.152034700 -0.091843911 -0.590674400 0.787117422
1341846461.153999 -0.002124702 -0.047719866 -0.030807054 -0.149894074 -0.088059127 -0.585454583 0.791846156
1341846461.190395 -0.002122935 -0.047714993 -0.030819409 -0.146640107 -0.079959437 -0.581398964 0.796290398
1341846461.222053 -0.002122113 -0.047719240 -0.030809656 -0.142292902 -0.076586716 -0.573331833 0.803229630
1341846461.254158 -0.002123627 -0.047720082 -0.030814873 -0.139776498 -0.074093580 -0.564698815 0.809992552
1341846461.289936 -0.002129322 -0.047736187 -0.030821102 -0.136395380 -0.071394920 -0.557396829 0.815847933
1341846461.322044 -0.002124663 -0.047718655 -0.030812118 -0.132696852 -0.071055263 -0.553035557 0.819447577
1341846461.354118 -0.002125044 -0.047719538 -0.030810421 -0.131815970 -0.072697632 -0.551368117 0.820568562
1341846461.390065 -0.002124198 -0.047718894 -0.030813722 -0.129417583 -0.071108274 -0.556676507 0.817499816
1341846461.422073 -0.002123669 -0.047718659 -0.030811340 -0.126329362 -0.067784704 -0.560133994 0.815901995
1341846461.458072 -0.002123914 -0.047719050 -0.030811166 -0.125138998 -0.067547008 -0.548451185 0.824001789
1341846461.490119 -0.002124027 -0.047717419 -0.030815288 -0.119562931 -0.063720427 -0.546457231 0.826455653
1341846461.522406 -0.002123577 -0.047719214 -0.030812686 -0.116670221 -0.058394443 -0.531012714 0.837259591
1341846461.558036 -0.002124547 -0.047718991 -0.030810036 -0.112406969 -0.053942744 -0.512990952 0.849290967
1341846461.622229 -0.002124452 -0.047718477 -0.030811951 -0.102787971 -0.050020196 -0.491961867 0.863079488
1341846461.657948 -0.002124736 -0.047718596 -0.030810235 -0.099788986 -0.048369005 -0.480406493 0.870007038
1341846461.726030 -0.002124673 -0.047718633 -0.030809909 -0.086427025 -0.047472309 -0.450906962 0.887107432
1341846461.758483 -0.002124870 -0.047718309 -0.030809920 -0.079887629 -0.045029107 -0.436051935 0.895236850
1341846461.789933 -0.002125532 -0.047717355 -0.030809997 -0.073761158 -0.042652842 -0.420782626 0.903151155
1341846461.826110 -0.002125320 -0.047718141 -0.030809604 -0.066900425 -0.040106829 -0.404239357 0.911321223
1341846461.858118 -0.002125339 -0.047717683 -0.030809049 -0.057583246 -0.037077520 -0.390224874 0.918168843
1341846461.894127 -0.002125587 -0.047717270 -0.030809382 -0.050516173 -0.033806134 -0.374002129 0.925433815
1341846461.926026 -0.002125610 -0.047717206 -0.030809393 -0.045182232 -0.030724753 -0.358336955 0.931992054
1341846461.958215 -0.002125745 -0.047717199 -0.030809229 -0.038934316 -0.028727464 -0.343231410 0.938003778
1341846461.994132 -0.002125741 -0.047717240 -0.030808505 -0.032852162 -0.028165961 -0.324859351 0.944771826
1341846462.026102 -0.002125746 -0.047717273 -0.030808715 -0.027507151 -0.028841708 -0.306945592 0.950892210
1341846462.058066 -0.002125892 -0.047717124 -0.030808637 -0.023914563 -0.030732619 -0.287746102 0.956914723
1341846462.094057 -0.002125835 -0.047716960 -0.030808475 -0.021169670 -0.033753999 -0.269049585 0.962301850
1341846462.126029 -0.002125893 -0.047717102 -0.030808693 -0.017458290 -0.036190182 -0.250264078 0.967343450
1341846462.162124 -0.002125868 -0.047717128 -0.030808643 -0.012923790 -0.039748780 -0.231269166 0.971991599
1341846462.194292 -0.002125887 -0.047717184 -0.030808883 -0.009686742 -0.041924082 -0.213701859 0.975950837
1341846462.226092 -0.002125921 -0.047717221 -0.030808853 -0.005718924 -0.044036984 -0.197175965 0.979361892
1341846462.262203 -0.002125897 -0.047717195 -0.030808836 -0.001067394 -0.047579177 -0.179960966 0.982521832
1341846462.293934 -0.002125859 -0.047717229 -0.030809013 0.002228749 -0.050096296 -0.165051445 0.985009372
1341846462.325983 -0.002125890 -0.047717202 -0.030808818 0.004211119 -0.050369054 -0.154398024 0.986715019
1341846462.362050 -0.002125903 -0.047717229 -0.030808810 0.006388788 -0.051391520 -0.140192509 0.988768995
1341846462.400267 -0.002125889 -0.047717310 -0.030808961 0.011823395 -0.052079078 -0.123459078 0.990911603
1341846462.431940 -0.002125870 -0.047717307 -0.030809045 0.019405084 -0.051678009 -0.105313994 0.992905736
1341846462.468003 -0.002125870 -0.047717258 -0.030809034 0.025658464 -0.051777884 -0.086215749 0.994599164
1341846462.500020 -0.002125852 -0.047717262 -0.030809047 0.030259755 -0.051279865 -0.067592442 0.995934725
1341846462.535930 -0.002125832 -0.047717314 -0.030809069 0.033959545 -0.048982680 -0.051235609 0.996906400
1341846462.567947 -0.002125863 -0.047717378 -0.030809090 0.040826090 -0.046081733 -0.035488397 0.997471929
1341846462.599970 -0.002125860 -0.047717322 -0.030809024 0.047728710 -0.044207480 -0.019554647 0.997689962
1341846462.635989 -0.002125893 -0.047717318 -0.030808972 0.054615714 -0.042321179 -0.003614547 0.997603595
1341846462.668003 -0.002125951 -0.047717214 -0.030809043 0.061482523 -0.040426914 0.012327527 0.997212946
1341846462.704029 -0.002126068 -0.047716875 -0.030809121 0.068328373 -0.038521122 0.028265312 0.996518135
1341846462.735984 -0.002126305 -0.047716502 -0.030809365 0.075152948 -0.036604442 0.044194713 0.995519459
1341846462.768046 -0.002126601 -0.047716167 -0.030809790 0.081954382 -0.034676868 0.060110394 0.994217157
1341846462.768046 -0.002126601 -0.047716167 -0.030809790 0.081954382 -0.034676868 0.060110394 0.994217157
1341846462.768046 -0.002126601 -0.047716167 -0.030809790 0.081954382 -0.034676868 0.060110394 0.994217157
1341846462.871842 -0.038789462 -0.092913762 -0.077400759 0.047085244 -0.025742309 0.141291872 0.988512456
1341846462.904097 -0.031620700 -0.096520826 -0.083030909 0.049621612 -0.024516607 0.152383864 0.986770391
1341846462.966029 -0.033070002 -0.101231255 -0.079818338 0.057329886 -0.018084621 0.165594786 0.984359980
1341846462.998172 -0.033434730 -0.100025825 -0.083844438 0.064984955 -0.017943190 0.175118327 0.982236505
1341846463.029970 -0.034881938 -0.098350331 -0.084459536 0.069871411 -0.016382089 0.181933686 0.980688393
1341846463.066067 -0.035590388 -0.096347041 -0.083861426 0.071266696 -0.016628532 0.192038834 0.978654981
1341846463.098088 -0.033663653 -0.097737983 -0.087044358 0.071274891 -0.017696938 0.206471786 0.975692630
1341846463.134111 -0.035556175 -0.093007542 -0.084275760 0.072439745 -0.016781760 0.221293345 0.972368300
1341846463.165917 -0.033296403 -0.095007755 -0.085989110 0.072589025 -0.015166803 0.240846202 0.967726171
1341846463.198310 -0.033392329 -0.094274215 -0.087482296 0.073267400 -0.012611207 0.259767413 0.962805152
1341846463.234037 -0.034295149 -0.093427718 -0.087452732 0.070791863 -0.010397649 0.273917556 0.959087908
1341846463.265874 -0.034586262 -0.092251621 -0.087727666 0.070015512 -0.009235601 0.284964383 0.955932975
1341846463.298219 -0.035490561 -0.092662245 -0.084632225 0.072945297 -0.008997801 0.293823212 0.953029871
1341846463.334210 -0.035074834 -0.091911271 -0.086479820 0.077448830 -0.007703674 0.304472297 0.949336052
1341846463.365995 -0.034845799 -0.091399267 -0.087210439 0.085008837 -0.007599628 0.312426090 0.946100235
1341846463.402065 -0.035016086 -0.090668656 -0.088359125 0.091119647 -0.005686654 0.322469085 0.942166984
1341846463.434179 -0.036123790 -0.085266873 -0.089075096 0.095087282 -0.003365657 0.331080705 0.938793182
1341846463.466070 -0.033669107 -0.081007488 -0.090528965 0.100740299 -0.000890169 0.338698804 0.935485840
1341846463.501955 0.016410820 -0.067619830 -0.069607638 0.104175620 -0.006172670 0.347927690 0.931695044
1341846463.534089 0.037114706 -0.059419468 -0.060355850 0.106412269 -0.007458410 0.359100401 0.927182674
1341846463.566060 0.004171318 -0.050942741 -0.069550537 0.111273013 -0.001375434 0.364775181 0.924421668
1341846463.601907 -0.005814162 -0.053333797 -0.079591982 0.113095745 0.001677222 0.372561932 0.921088576
1341846463.634009 -0.012509101 -0.061331272 -0.084709667 0.113660805 0.002669835 0.379380435 0.918229043
1341846463.670261 -0.019994639 -0.071418904 -0.083595604 0.111748613 0.004937835 0.387540162 0.915041208
1341846463.702198 -0.014083744 -0.076068737 -0.080860965 0.110235624 0.007985763 0.395216644 0.911914587
1341846463.734494 -0.015991434 -0.078372963 -0.086400449 0.112312317 0.010311355 0.405709445 0.907016814
1341846463.770159 -0.014099982 -0.077542581 -0.088091373 0.113882758 0.009360700 0.415518701 0.902378678
1341846463.804734 -0.012716683 -0.076235540 -0.088490747 0.112449020 0.010092138 0.425130397 0.898063242
1341846463.836811 -0.015487286 -0.076645769 -0.084040791 0.111712418 0.013965503 0.433815628 0.893940330
1341846463.902572 -0.015821502 -0.077125981 -0.086506478 0.109724894 0.020692047 0.456941307 0.882460713
1341846463.938656 -0.015224610 -0.076759376 -0.082690991 0.111823477 0.023804272 0.470000803 0.875230312
1341846464.006721 -0.016975878 -0.077690728 -0.091329403 0.110778749 0.027181480 0.493586034 0.862184465
1341846464.070293 -0.016343983 -0.077579036 -0.089800090 0.107997335 0.033405993 0.517210424 0.848359585
1341846464.106086 -0.021691628 -0.084574252 -0.119401097 0.105122283 0.034851450 0.529645026 0.840958297
1341846464.138960 -0.016066454 -0.080665201 -0.099522389 0.101824634 0.037661355 0.543549955 0.832326174
1341846464.170247 -0.014366988 -0.076211020 -0.081403293 0.101729997 0.043626394 0.559037924 0.821720362
1341846464.206089 -0.015056125 -0.076496460 -0.083135709 0.105843209 0.050472934 0.579005122 0.806847453
1341846464.238124 -0.023088703 -0.076140493 -0.104515933 0.106179595 0.054992139 0.594463825 0.795182109
1341846464.270037 -0.015683560 -0.078549445 -0.094855048 0.100783028 0.059521742 0.606003881 0.786803186
1341846464.306089 -0.014329186 -0.077829443 -0.082103908 0.098934710 0.066016018 0.619214654 0.776161730
1341846464.337963 -0.039704893 -0.063786186 -0.087848179 0.111303903 0.073264658 0.631081820 0.764185488
1341846464.374148 -0.039098918 -0.064610071 -0.089781798 0.125262037 0.077865735 0.643669963 0.750956237
1341846464.406125 -0.034245532 -0.064672187 -0.079705991 0.132343531 0.084729098 0.651039600 0.742599189
1341846464.438109 -0.035258319 -0.058939468 -0.072870314 0.137523592 0.094487406 0.657276273 0.734947145
1341846464.474154 -0.029241296 -0.063190207 -0.081119351 0.135384023 0.100510217 0.664570391 0.727952659
1341846464.506083 -0.034342021 -0.063240230 -0.082566194 0.133129120 0.105661847 0.671683252 0.721078217
1341846464.538050 -0.035096943 -0.064582236 -0.082720168 0.127374440 0.110177293 0.675934553 0.717460275
1341846464.573969 -0.035197210 -0.063690275 -0.083058134 0.119697250 0.115070365 0.679997742 0.714166939
1341846464.606003 -0.035733555 -0.064492904 -0.083760679 0.115058482 0.119349979 0.686521709 0.707958341
1341846464.642006 -0.036056347 -0.065103605 -0.085199602 0.109600313 0.121989921 0.690359175 0.704634905
1341846464.674030 -0.037040435 -0.065754034 -0.086414292 0.101383090 0.125897601 0.694317758 0.701280355
1341846464.706178 -0.036948673 -0.065542288 -0.087691255 0.093526140 0.129354209 0.699156225 0.696922421
1341846464.741977 -0.036567718 -0.065144025 -0.086879708 0.085503012 0.129994646 0.704884291 0.692046762
1341846464.774027 -0.034870096 -0.063929200 -0.082475647 0.082619995 0.131163329 0.707675934 0.689321995
1341846464.806072 -0.038239568 -0.064854123 -0.088349417 0.078630552 0.132797882 0.709282696 0.687822700
1341846464.842191 -0.036466479 -0.064784154 -0.086963430 0.071930632 0.132348418 0.712516606 0.685295522
1341846464.873987 -0.036093161 -0.063987911 -0.085122347 0.070500843 0.131535485 0.713122129 0.684970796
1341846464.910024 -0.048265308 -0.066305451 -0.105239294 0.066511214 0.131727874 0.712798119 0.685669661
1341846464.941952 -0.040936444 -0.064531811 -0.093146458 0.055695537 0.129604146 0.717292249 0.682343483
1341846464.974022 -0.038437627 -0.064818025 -0.088831022 0.049548820 0.128596559 0.721544564 0.678514063
1341846465.010148 -0.038469616 -0.064801395 -0.088917740 0.045338508 0.125564441 0.726921797 0.673619092
1341846465.042073 -0.038747448 -0.064747117 -0.089371018 0.041596763 0.123411678 0.731095433 0.669730365
1341846465.078033 -0.038813703 -0.064698890 -0.089645632 0.037640747 0.120948493 0.733670235 0.667594731
1341846465.110007 -0.038879607 -0.064636841 -0.089835383 0.033827297 0.115871012 0.734032750 0.668300509
1341846465.142010 -0.038643651 -0.064700104 -0.089285918 0.032436155 0.112780482 0.733550489 0.669426739
1341846465.177973 -0.038984969 -0.064667836 -0.090229765 0.030784424 0.109882563 0.733426511 0.670122206
1341846465.210092 -0.039121464 -0.064822093 -0.090674847 0.026567662 0.105504878 0.731390178 0.673224509
1341846465.241909 -0.038696948 -0.064764298 -0.089767247 0.023117313 0.102432102 0.729694486 0.675662100
1341846465.278006 -0.038997166 -0.064722039 -0.090267956 0.020964872 0.100431867 0.728219748 0.677620828
1341846465.310248 -0.038743082 -0.064696290 -0.089553542 0.020711275 0.098442055 0.726775944 0.679468215
1341846465.346076 -0.038847730 -0.064663045 -0.089757226 0.020600136 0.096308604 0.722189367 0.684648037
1341846465.377895 -0.038813781 -0.064658135 -0.089720130 0.019130368 0.094173804 0.715536296 0.691934347
1341846465.409986 -0.038646441 -0.064737633 -0.089455113 0.017168891 0.093384191 0.706275284 0.701541007
1341846465.446399 -0.038833685 -0.064691253 -0.089764923 0.014554579 0.092454553 0.697247267 0.710694373
1341846465.478000 -0.038725652 -0.064722128 -0.089502424 0.015151979 0.092532277 0.688830614 0.718832791
1341846465.510268 -0.038588267 -0.064756714 -0.089198656 0.017836757 0.093853526 0.679518342 0.727411926
1341846465.545952 -0.038613368 -0.064753443 -0.089318410 0.018115276 0.093452930 0.670379043 0.735887408
1341846465.578109 -0.038623054 -0.064752854 -0.089343041 0.017846493 0.091971196 0.661506057 0.744064867
1341846465.614033 -0.038627401 -0.064752653 -0.089311391 0.018770112 0.089024529 0.652066767 0.752682626
1341846465.646071 -0.038686935 -0.064731829 -0.089514159 0.018488394 0.086318873 0.642638326 0.761067152
1341846465.678057 -0.038633358 -0.064746022 -0.089427143 0.016770067 0.081254683 0.636886537 0.766480207
1341846465.713982 -0.038581967 -0.064747587 -0.089225620 0.017468913 0.079452179 0.629150331 0.773014903
1341846465.745991 -0.038580205 -0.064747646 -0.089233920 0.019363856 0.078458123 0.622224331 0.778656662
1341846465.778260 -0.038556468 -0.064748049 -0.089203805 0.019745084 0.074643940 0.612961113 0.786331415
1341846465.814116 -0.038517475 -0.064757124 -0.089159139 0.019339383 0.072464690 0.601490438 0.795351565
1341846465.845994 -0.038546372 -0.064753331 -0.089135394 0.022310315 0.071653798 0.590754271 0.803353786
1341846465.882074 -0.038532086 -0.064767420 -0.089207843 0.023262793 0.067879729 0.580183506 0.811318815
1341846465.913915 -0.038491111 -0.064747870 -0.089235440 0.021369316 0.062485620 0.566077530 0.821702600
1341846465.946253 -0.038468409 -0.064683370 -0.089180246 0.018480539 0.058463842 0.548837602 0.833677232
1341846465.982097 -0.038418785 -0.064675748 -0.089170113 0.012487546 0.052026495 0.533752978 0.843946159
1341846466.014088 -0.038365938 -0.064666703 -0.088935070 0.007188976 0.046291374 0.521503270 0.851962328
1341846466.046055 -0.038331572 -0.064675853 -0.088833280 0.006490380 0.045026988 0.510941505 0.858410895
1341846466.082006 -0.038339160 -0.064655453 -0.088816762 0.008529650 0.043007605 0.501520157 0.864034176
1341846466.114092 -0.038344502 -0.064732686 -0.088881575 0.007760821 0.040305909 0.490266830 0.870605350
1341846466.149988 -0.038584482 -0.064723901 -0.089332417 0.007007143 0.040491890 0.478655696 0.877040505
1341846466.182235 -0.038592961 -0.064736769 -0.089348331 0.008770096 0.039410558 0.470867038 0.881279826
1341846466.227775 -0.038631164 -0.064732224 -0.089492068 0.005732168 0.032894865 0.456822425 0.888930976
1341846466.282054 -0.038572863 -0.064747147 -0.089318141 -0.003810702 0.031041855 0.420832634 0.906598985
1341846466.318013 -0.038575325 -0.064751610 -0.089291260 -0.002389743 0.027706658 0.404550970 0.914092541
1341846466.350104 -0.038558085 -0.064747080 -0.089261696 -0.001918895 0.026476212 0.388358027 0.921126127
1341846466.418103 -0.038562231 -0.064749330 -0.089239441 0.000408759 0.028217705 0.370047450 0.928584099
1341846466.450241 -0.038546059 -0.064737760 -0.089200988 0.009961720 0.029859571 0.368027359 0.929282010
1341846466.482241 -0.038545113 -0.064743049 -0.089176573 0.019564999 0.032031011 0.361942023 0.931444705
1341846466.518064 -0.038573656 -0.064732842 -0.089281052 0.022948835 0.033194270 0.352837682 0.934813917
1341846466.550013 -0.038561579 -0.064741321 -0.089268453 0.020920269 0.034062970 0.340470254 0.939405203
1341846466.586129 -0.038540825 -0.064742014 -0.089163952 0.020180568 0.035206180 0.326841474 0.944207549
1341846466.617891 -0.038538154 -0.064745851 -0.089157656 0.020812422 0.034723207 0.312066525 0.949197352
1341846466.650067 -0.038560096 -0.064741544 -0.089257859 0.019734846 0.031514250 0.296334684 0.954360068
1341846466.686119 -0.038556080 -0.064740621 -0.089244999 0.013882310 0.031195084 0.280840933 0.959146798
1341846466.718096 -0.038543303 -0.064740255 -0.089158759 0.012021926 0.032014422 0.272830218 0.961454213
1341846466.750165 -0.038547233 -0.064735554 -0.089176290 0.012282426 0.029974261 0.264407009 0.963867009
1341846466.786075 -0.038548630 -0.064731330 -0.089218959 0.009238353 0.031142820 0.251542270 0.967301011
1341846466.817996 -0.038555577 -0.064738646 -0.089237571 0.005838607 0.033891145 0.239601523 0.970262051
1341846466.854152 -0.038561173 -0.064739347 -0.089249462 0.004786803 0.032339960 0.233677015 0.971764505
1341846466.886138 -0.038560502 -0.064739086 -0.089251533 0.001483361 0.030453321 0.225725874 0.973713636
1341846466.918000 -0.038558707 -0.064736374 -0.089248396 -0.006017175 0.031639714 0.212476596 0.976635277
1341846466.954116 -0.038556010 -0.064739682 -0.089246020 -0.012140488 0.029462148 0.200502396 0.979174852
1341846466.986117 -0.038555045 -0.064738348 -0.089242592 -0.019192856 0.026511690 0.188268125 0.981572151
1341846467.018002 -0.038556308 -0.064740598 -0.089237913 -0.026856506 0.028295582 0.171183616 0.984466493
1341846467.054121 -0.038555056 -0.064737603 -0.089232214 -0.031389885 0.028625844 0.157928705 0.986536264
1341846467.086519 -0.038554356 -0.064738244 -0.089234918 -0.031563658 0.024777818 0.147753984 0.988209784
1341846467.122117 -0.038555551 -0.064739786 -0.089214019 -0.033048604 0.023158912 0.132417321 0.990372241
1341846467.154292 -0.038554963 -0.064741313 -0.089218728 -0.031076025 0.024522936 0.119233042 0.992076814
1341846467.221944 -0.038554769 -0.064739071 -0.089237109 -0.019096274 0.016464552 0.104446232 0.994210839
1341846467.254128 -0.038554095 -0.064738914 -0.089236796 -0.023264823 0.013815611 0.091626160 0.995425761
1341846467.290073 -0.038554240 -0.064738534 -0.089236706 -0.027202921 0.010320092 0.079454727 0.996413767
1341846467.322189 -0.038554184 -0.064738296 -0.089236520 -0.029459737 0.004306303 0.070763081 0.997048736
1341846467.354092 -0.038553774 -0.064738423 -0.089238130 -0.031469334 -0.002612770 0.062030055 0.997574627
1341846467.390082 -0.038554363 -0.064738467 -0.089236595 -0.031681731 -0.007966407 0.051462427 0.998140454
1341846467.422206 -0.038554750 -0.064738445 -0.089236200 -0.030008176 -0.013485825 0.044593532 0.998463333
1341846467.454073 -0.038555015 -0.064738572 -0.089235850 -0.026570966 -0.019332338 0.038270857 0.998726964
1341846467.490150 -0.038554575 -0.064737722 -0.089237437 -0.018158730 -0.025899719 0.035626683 0.998864472
1341846467.522115 -0.038555238 -0.064738579 -0.089235149 -0.010140014 -0.030622927 0.033003207 0.998934507
1341846467.558053 -0.038555790 -0.064738914 -0.089233555 -0.001230722 -0.033944312 0.029464321 0.998988509
1341846467.589949 -0.038555481 -0.064738318 -0.089235999 0.008520651 -0.038305018 0.030607967 0.998760879
1341846467.622077 -0.038555592 -0.064738244 -0.089235514 0.019943850 -0.043475341 0.031221421 0.998367310
1341846467.658139 -0.038555834 -0.064738490 -0.089235671 0.031774070 -0.045987874 0.037386812 0.997736335
1341846467.690047 -0.038555704 -0.064738348 -0.089236200 0.044416763 -0.051769916 0.044519890 0.996676981
1341846467.721985 -0.038555816 -0.064738527 -0.089235991 0.054311026 -0.059681159 0.052036017 0.995379686
1341846467.758049 -0.038556047 -0.064738683 -0.089236163 0.056410626 -0.064647593 0.055195998 0.994782388
1341846467.789943 -0.038556244 -0.064738803 -0.089236327 0.054154579 -0.067320883 0.056646969 0.994648814
1341846467.826009 -0.038556311 -0.064738877 -0.089236930 0.048539359 -0.072425239 0.057701640 0.994519472
1341846467.858121 -0.038556430 -0.064738669 -0.089236952 0.047166921 -0.078005083 0.058762647 0.994101346
1341846467.890215 -0.038556542 -0.064738818 -0.089236744 0.047726016 -0.081865899 0.060055938 0.993686795
1341846467.926038 -0.038556758 -0.064738847 -0.089236885 0.047245663 -0.082353301 0.060717214 0.993629277
1341846467.957994 -0.038556911 -0.064738855 -0.089236982 0.046764649 -0.082840353 0.061377652 0.993570983
1341846467.990124 -0.038557131 -0.064738788 -0.089237213 0.046281308 -0.083330676 0.062038105 0.993511617
