1341846092.023798 0.000000000 0.000000000 0.000000000 0.000000000 0.000000000 0.000000000 1.000000000
1341846092.059891 0.000349264 0.000816268 0.000380060 0.001557974 0.000556528 -0.001813164 0.999996960
1341846092.091861 0.000121654 -0.000127019 0.000467635 0.002736219 0.001021224 -0.001940284 0.999993861
1341846092.123884 0.000511445 0.000788998 0.000162406 0.004385213 0.001083987 -0.002032999 0.999987721
1341846092.159881 0.000483758 -0.001402684 0.000674037 0.005430688 0.001051800 -0.000612207 0.999984503
1341846092.191824 0.001182630 0.000067106 0.000057924 0.007135160 0.000487924 0.000551652 0.999974251
1341846092.227766 0.003274661 0.003427503 -0.001012544 0.008825167 0.000702131 -0.000596849 0.999960661
1341846092.259844 0.002325492 0.005871694 -0.000027972 0.008515703 0.001208313 -0.001053994 0.999962449
1341846092.291754 0.002634892 0.001444021 0.002445090 0.008453924 0.000974300 -0.002357359 0.999961019
1341846092.327827 0.003908248 -0.002728000 0.000590927 0.010172036 0.001132176 -0.003100171 0.999942839
1341846092.359956 0.001361455 -0.002418252 0.000735575 0.013101515 0.001530277 -0.003891574 0.999905407
1341846092.395855 0.001594476 -0.002782017 0.002376160 0.015898803 0.001395518 -0.005830464 0.999855638
1341846092.428016 0.000348100 -0.001833285 0.002175627 0.018705461 0.002165566 -0.008616216 0.999785542
1341846092.459991 0.003375829 -0.003442445 0.002362155 0.021112794 0.002039143 -0.010917507 0.999715388
1341846092.495930 0.002298489 -0.004103611 0.002401852 0.024432164 0.002676442 -0.013187959 0.999610901
1341846092.528072 0.003368970 -0.006858913 0.002146961 0.027660130 0.002785535 -0.016020589 0.999485135
1341846092.559842 0.004324573 -0.007463110 -0.000492929 0.032327179 0.004437429 -0.018457934 0.999297023
1341846092.595783 0.005532159 -0.006795740 -0.000564941 0.037452776 0.005058461 -0.018551884 0.999113381
1341846092.628121 0.005245132 -0.007133594 -0.001688041 0.041391902 0.004221688 -0.017613851 0.998978794
1341846092.659797 0.009256238 -0.002466718 0.000406397 0.046780892 0.004540456 -0.018605497 0.998721540
1341846092.696012 0.008115008 -0.002008723 -0.000463432 0.049601920 0.006811906 -0.020244788 0.998540640
1341846092.727906 0.005368421 -0.007667870 0.003104503 0.051994450 0.007291322 -0.020029824 0.998419881
1341846092.760105 0.003237300 -0.007623686 0.000664004 0.058866490 0.007532883 -0.017819710 0.998078406
1341846092.795871 0.005250954 -0.007133291 0.003484396 0.064024948 0.005149696 -0.016409589 0.997800112
1341846092.827857 0.006350826 -0.007219899 0.005267361 0.070061967 0.005363042 -0.021093655 0.997305155
1341846092.863824 0.003036009 -0.004082180 -0.002976493 0.074633330 0.009131026 -0.027495984 0.996790051
1341846092.895885 0.003001431 -0.004494220 -0.001472306 0.076155253 0.009098165 -0.029821092 0.996608377
1341846092.927920 0.005247451 -0.007128708 0.003528794 0.080897026 0.008239911 -0.030562660 0.996219695
1341846092.963849 0.004897213 -0.007067404 0.001188263 0.086850211 0.009746840 -0.030092966 0.995719075
1341846092.995760 0.005402337 -0.008199307 0.004678939 0.091624878 0.009608436 -0.028458126 0.995340526
1341846093.027860 0.005463250 -0.008991354 0.003557347 0.099650241 0.009338455 -0.026973851 0.994612992
1341846093.063741 0.005162259 -0.006931026 0.003342943 0.107986368 0.009812496 -0.025530972 0.993776083
1341846093.125933 0.005243296 -0.007124688 0.003528976 0.115698494 0.013266608 -0.031601317 0.992692888
1341846093.157795 0.005179276 -0.006916051 0.003866809 0.121865928 0.014566882 -0.028354879 0.992034554
1341846093.189822 0.005266520 -0.007173002 0.003528493 0.126764432 0.012447414 -0.024368100 0.991555333
1341846093.225887 0.005236174 -0.007120780 0.003547292 0.132049561 0.013155914 -0.023872966 0.990868270
1341846093.257900 0.005224167 -0.007106229 0.003567240 0.137268111 0.015217647 -0.024342692 0.990117848
1341846093.289744 0.005246984 -0.007099196 0.003556416 0.142722607 0.016590655 -0.023715617 0.989339471
1341846093.325795 0.005245589 -0.007147994 0.003617964 0.148883685 0.017092394 -0.022693878 0.988446534
1341846093.357904 0.005251285 -0.007138161 0.003593360 0.153388277 0.018084725 -0.023547169 0.987719834
1341846093.393841 0.005234923 -0.007128895 0.003594254 0.157092243 0.019464344 -0.023911117 0.987102509
1341846093.425924 0.005225426 -0.007037084 0.003613050 0.163715884 0.018641910 -0.020249518 0.986123502
1341846093.457796 0.005223536 -0.007036839 0.003564455 0.170014843 0.018091502 -0.019491157 0.985082626
1341846093.493817 0.005225814 -0.007097027 0.003642200 0.175456956 0.018646382 -0.017704394 0.984151244
1341846093.525871 0.005211632 -0.007054362 0.003659714 0.181641832 0.018772153 -0.014774618 0.983074546
1341846093.561833 0.005212170 -0.007063259 0.003667805 0.189059615 0.018631767 -0.010724462 0.981730282
1341846093.593995 0.005207635 -0.007052673 0.003654888 0.194160163 0.018442791 -0.010048215 0.980745018
1341846093.625945 0.005211695 -0.007055794 0.003663457 0.197735220 0.019637143 -0.012523649 0.979978740
1341846093.661809 0.005213721 -0.007051623 0.003659575 0.203869879 0.019705879 -0.013087177 0.978712142
1341846093.693938 0.005213023 -0.007052775 0.003657833 0.209679201 0.019931115 -0.013519699 0.977473557
1341846093.725842 0.005211641 -0.007055813 0.003663518 0.215187535 0.018711146 -0.013262109 0.976303399
1341846093.761995 0.005213077 -0.007053748 0.003668808 0.223091185 0.016994346 -0.010529761 0.974592566
1341846093.794228 0.005211606 -0.007055906 0.003663687 0.230356738 0.013866794 -0.005585023 0.972991407
1341846093.829820 0.005210874 -0.007053776 0.003660305 0.237225220 0.011031976 -0.004826100 0.971380055
1341846093.861841 0.005211400 -0.007055075 0.003662145 0.241884947 0.012441193 -0.008066134 0.970191658
1341846093.893823 0.005211665 -0.007055855 0.003663684 0.248700470 0.011905728 -0.007869297 0.968475282
1341846093.929912 0.005211706 -0.007055952 0.003663750 0.256641179 0.008812464 -0.006572264 0.966444254
1341846093.961968 0.005211685 -0.007055918 0.003663691 0.265189767 0.008719368 -0.003543120 0.964150310
1341846093.994029 0.005211569 -0.007055765 0.003662871 0.270740420 0.009474091 -0.001832935 0.962604046
1341846094.029902 0.005211487 -0.007055870 0.003663645 0.274040461 0.009972464 -0.004304424 0.961656809
1341846094.062046 0.005211604 -0.007055838 0.003663329 0.277747929 0.011588949 -0.004904091 0.960571527
1341846094.097921 0.005211471 -0.007055819 0.003663620 0.282982856 0.012341253 -0.002628986 0.959041953
1341846094.129856 0.005211479 -0.007055871 0.003663659 0.284571648 0.013458094 -0.002838349 0.958556116
1341846094.161786 0.005211467 -0.007055827 0.003663612 0.287015975 0.015364616 -0.003096373 0.957797587
1341846094.197938 0.005211471 -0.007055818 0.003663620 0.289456099 0.017271621 -0.003354397 0.957029581
1341846094.229967 0.005211478 -0.007055813 0.003663632 0.291892886 0.019177821 -0.003612303 0.956251919
1341846094.261795 0.005211471 -0.007055816 0.003663622 0.294324934 0.021083543 -0.003869765 0.955464959
1341846094.297927 0.005211472 -0.007055816 0.003663624 0.296757728 0.022988996 -0.004127901 0.954667091
1341846094.329846 0.005211579 -0.007056233 0.003664602 0.296757728 0.022988996 -0.004127900 0.954667091
1341846094.366053 0.005181367 -0.006966800 0.003796654 0.288125038 0.023285925 0.002669884 0.957305908
1341846094.397911 0.005179493 -0.006953100 0.003770612 0.284622431 0.021554761 0.003020379 0.958392560
1341846094.429746 0.005178989 -0.006957554 0.003769544 0.274994045 0.021448998 0.006821015 0.961182415
1341846094.466133 0.005189018 -0.006994757 0.003734197 0.264755219 0.021426842 0.000393209 0.964077473
1341846094.497922 0.005208911 -0.007000123 0.003669502 0.257017940 0.017733837 0.001686502 0.966242433
1341846094.533970 0.005198362 -0.006976946 0.003719650 0.250519574 0.015408382 0.006781005 0.967965186
1341846094.565945 0.005203802 -0.007011217 0.003680845 0.241285980 0.013947919 0.005091619 0.970340431
1341846094.597899 0.005211289 -0.007056972 0.003664551 0.232571036 0.014345237 0.005224338 0.972459555
1341846094.633912 0.005215582 -0.007052351 0.003654304 0.223756120 0.013488531 0.007195811 0.974525273
1341846094.665844 0.005214901 -0.007053104 0.003653652 0.217101976 0.010882660 0.010423902 0.976032615
1341846094.697961 0.005211722 -0.007055631 0.003662848 0.209805295 0.012214215 0.010720060 0.977608085
1341846094.733999 0.005211691 -0.007055658 0.003663100 0.203556404 0.015877416 0.010894531 0.978873849
1341846094.767923 0.005211691 -0.007055648 0.003663051 0.197888464 0.016693342 0.012371595 0.980004311
1341846094.801844 0.005211688 -0.007055641 0.003662930 0.191816345 0.014572898 0.014455586 0.981216133
1341846094.833846 0.005211694 -0.007055627 0.003662788 0.185622081 0.014096277 0.018134851 0.982352734
1341846094.866031 0.005211709 -0.007055626 0.003662878 0.178892478 0.014718978 0.022147035 0.983509183
1341846094.901923 0.005211719 -0.007055611 0.003662829 0.169432983 0.014168524 0.025480025 0.985110402
1341846094.966365 0.005211684 -0.007055594 0.003662938 0.159955904 0.013616551 0.028810360 0.986609697
1341846095.002198 0.005211683 -0.007055593 0.003662929 0.149208784 0.015165806 0.031376973 0.988191426
1341846095.034722 0.005211681 -0.007055595 0.003662945 0.138442740 0.016713087 0.033939566 0.989647567
1341846095.075946 0.005211677 -0.007055625 0.003662933 0.127659142 0.018258221 0.036497850 0.990978122
1341846095.134021 0.005211676 -0.007055616 0.003662942 0.116859324 0.019801050 0.039051492 0.992182851
1341846095.169946 0.005211686 -0.007055684 0.003662900 0.106044792 0.021341348 0.041600186 0.993261516
1341846095.201911 0.005211676 -0.007055715 0.003662909 0.095216744 0.022878930 0.044143595 0.994214118
1341846095.201911 0.005211676 -0.007055715 0.003662909 0.095216744 0.022878930 0.044143595 0.994214118
1341846095.201911 0.005211676 -0.007055715 0.003662909 0.095216744 0.022878930 0.044143595 0.994214118
1341846095.201911 0.005211676 -0.007055715 0.003662909 0.095216744 0.022878930 0.044143595 0.994214118
1341846095.201911 0.005211676 -0.007055715 0.003662909 0.095216744 0.022878930 0.044143595 0.994214118
1341846095.369772 0.005248103 -0.007128574 0.003528990 0.079013385 0.016585087 0.035082985 0.996117949
1341846095.401800 0.005240844 -0.007119855 0.003521074 0.073275022 0.017702978 0.036008723 0.996504307
1341846095.437762 0.005247425 -0.007127284 0.003521220 0.068807542 0.016728589 0.038039029 0.996764123
1341846095.469900 0.005247683 -0.007120554 0.003497384 0.064918891 0.017766906 0.039813597 0.996937692
1341846095.501905 0.005249023 -0.007120709 0.003496124 0.061403446 0.018943176 0.040577028 0.997107983
1341846095.538219 0.005248971 -0.007128001 0.003519043 0.055134818 0.019837676 0.038783766 0.997528195
1341846095.569934 0.005249018 -0.007124693 0.003508496 0.049099594 0.020915875 0.037845299 0.997857451
1341846095.606238 0.005246431 -0.007123328 0.003512282 0.045230895 0.021430956 0.039202113 0.997976959
1341846095.637875 0.005248466 -0.007121741 0.003503723 0.041703988 0.021095801 0.040302213 0.998093903
1341846095.669890 0.005248041 -0.007127001 0.003522776 0.038039189 0.021251103 0.044538911 0.998056948
1341846095.705878 0.005247370 -0.007128212 0.003524067 0.033490546 0.023522088 0.044466477 0.998172224
1341846095.737902 0.005247501 -0.007128338 0.003522024 0.029249979 0.025062481 0.046967257 0.998153508
1341846095.773812 0.005247634 -0.007128153 0.003525575 0.026567603 0.025187917 0.047778536 0.998186827
1341846095.838106 0.005247716 -0.007128274 0.003523290 0.017111383 0.027732251 0.047808044 0.998324871
1341846095.873871 0.005247521 -0.007127247 0.003516630 0.011350125 0.029589592 0.049037520 0.998293996
1341846095.905980 0.005248812 -0.007126723 0.003518569 0.005050560 0.029071435 0.051415119 0.998241365
1341846095.937932 0.005248668 -0.007124604 0.003511118 0.000657624 0.028028229 0.052193228 0.998243392
1341846095.973926 0.005247948 -0.007125582 0.003513770 -0.003839340 0.029264241 0.053621631 0.998125017
1341846096.005891 0.005247263 -0.007129849 0.003525837 -0.009855052 0.029331123 0.054690525 0.998023808
1341846096.041838 0.005248091 -0.007126561 0.003516114 -0.014598291 0.027706057 0.054623984 0.998015761
1341846096.073937 0.005248443 -0.007126644 0.003519406 -0.019194033 0.027551159 0.054022606 0.997974992
1341846096.105773 0.005248037 -0.007127739 0.003523177 -0.024873329 0.028013714 0.052784834 0.997902930
1341846096.141944 0.005248039 -0.007128116 0.003523710 -0.031588614 0.028371459 0.048977733 0.997896969
1341846096.173951 0.005248248 -0.007126507 0.003520881 -0.034139246 0.027539868 0.047787558 0.997893989
1341846096.205991 0.005248165 -0.007127300 0.003512450 -0.035163298 0.027892200 0.046485852 0.997910142
1341846096.241942 0.005247802 -0.007127482 0.003525177 -0.037770499 0.026701365 0.049917579 0.997681618
1341846096.273909 0.005247277 -0.007128912 0.003525870 -0.041388638 0.025762999 0.050685160 0.997524083
1341846096.309891 0.005248618 -0.007127004 0.003521403 -0.045103084 0.026491204 0.046502627 0.997547686
1341846096.341861 0.005248189 -0.007126407 0.003522229 -0.048609808 0.025425920 0.049591891 0.997261882
1341846096.374240 0.005134511 -0.007289309 0.003713482 -0.049838345 0.024676874 0.048343521 0.997281373
1341846096.409718 0.005247948 -0.007127840 0.003525594 -0.050988909 0.025756765 0.044749826 0.997363627
1341846096.441905 0.005247585 -0.007128662 0.003529035 -0.054041080 0.026102394 0.043099880 0.997266591
1341846096.473846 0.005248279 -0.007127038 0.003521310 -0.057325792 0.025260001 0.040258098 0.997223616
1341846096.510050 0.005247837 -0.007127620 0.003524695 -0.059536494 0.025710370 0.038294408 0.997159898
1341846096.542063 0.005247700 -0.007127988 0.003525536 -0.061030261 0.026685972 0.037984286 0.997055829
1341846096.577955 0.005247879 -0.007127943 0.003524251 -0.063486725 0.027036088 0.037808236 0.996899724
1341846096.609941 0.005248138 -0.007128056 0.003522155 -0.068299845 0.026208371 0.037481960 0.996615946
1341846096.641875 0.005247870 -0.007128923 0.003525915 -0.073597439 0.025659775 0.034622703 0.996356487
1341846096.677902 0.005248317 -0.007127264 0.003522327 -0.076314315 0.026442269 0.032174241 0.996213675
1341846096.709906 0.005247935 -0.007127918 0.003519982 -0.081891283 0.026258361 0.034026839 0.995714068
1341846096.745991 0.005248595 -0.007127915 0.003522065 -0.087351181 0.025489476 0.033005174 0.995304346
1341846096.777870 0.005248709 -0.007127723 0.003520728 -0.090843268 0.026662137 0.029820606 0.995061457
1341846096.810244 0.005249039 -0.007126997 0.003520109 -0.098405048 0.027280830 0.029158499 0.994345009
1341846096.845763 0.005248048 -0.007127658 0.003525167 -0.105274945 0.026661023 0.028220156 0.993685067
1341846096.878199 0.005247598 -0.007128009 0.003528447 -0.109510303 0.027026664 0.025376810 0.993294060
1341846096.909946 0.005247675 -0.007127988 0.003527463 -0.114033543 0.027629156 0.026875658 0.992728889
1341846096.945914 0.005248083 -0.007127969 0.003526950 -0.121457018 0.026524609 0.027163962 0.991870344
1341846096.978058 0.005247736 -0.007128007 0.003526783 -0.129728377 0.026815355 0.023637028 0.990905046
1341846097.014061 0.005248516 -0.007127682 0.003526843 -0.137013510 0.028093606 0.021679573 0.989933372
1341846097.045960 0.005248452 -0.007127871 0.003527625 -0.145636603 0.029186107 0.020702975 0.988690794
1341846097.078464 0.005247520 -0.007127831 0.003527287 -0.151243776 0.029688090 0.019991053 0.987848282
1341846097.113795 0.005247479 -0.007127900 0.003528437 -0.156426817 0.030664951 0.017191550 0.987063706
1341846097.146138 0.005247981 -0.007127765 0.003525943 -0.160914272 0.032434639 0.016413717 0.986298740
1341846097.178019 0.005248039 -0.007127803 0.003524908 -0.164343774 0.032841865 0.016971553 0.985710144
1341846097.213933 0.005248010 -0.007127720 0.003526012 -0.165718868 0.030794460 0.017888855 0.985529780
1341846097.246080 0.005247964 -0.007127789 0.003526233 -0.168409631 0.029443411 0.016897872 0.985132337
1341846097.282030 0.005247997 -0.007127749 0.003526038 -0.171410173 0.030595288 0.015778257 0.984598160
1341846097.313977 0.005247980 -0.007127799 0.003526105 -0.173470750 0.030840931 0.017343288 0.984203219
1341846097.345922 0.005247993 -0.007127818 0.003525969 -0.177483559 0.029413359 0.021711156 0.983444512
1341846097.381852 0.005247986 -0.007127804 0.003525880 -0.182109684 0.031007459 0.026240250 0.982438862
1341846097.413864 0.005247927 -0.007127804 0.003525548 -0.185325474 0.033847235 0.026393045 0.981739402
1341846097.445910 0.005247828 -0.007127769 0.003525307 -0.193056434 0.034655966 0.027530678 0.980188906
1341846097.481979 0.005247873 -0.007127775 0.003525417 -0.201349571 0.034705568 0.027339503 0.978522599
1341846097.514061 0.005247923 -0.007127742 0.003525613 -0.208336741 0.036145944 0.026099650 0.977040470
1341846097.550048 0.005247970 -0.007127624 0.003525604 -0.215467423 0.037403539 0.024596328 0.975484371
1341846097.587812 0.005247971 -0.007127628 0.003525608 -0.224097967 0.037104562 0.023211390 0.973583400
1341846097.649731 0.005248329 -0.007127791 0.003525523 -0.232789934 0.037524428 0.021659775 0.971561432
1341846097.681970 0.005248488 -0.007128537 0.003525632 -0.240993515 0.037025735 0.020418959 0.969605207
1341846097.714026 0.005248512 -0.007129772 0.003526143 -0.249478757 0.036731884 0.019217940 0.967492521
1341846097.749749 0.005248521 -0.007129914 0.003526164 -0.258033007 0.036424294 0.017830513 0.965284586
1341846097.782019 0.005248634 -0.007132931 0.003526947 -0.266590923 0.035849918 0.016426785 0.963002682
1341846097.817835 0.005248636 -0.007133264 0.003527144 -0.275101870 0.035536841 0.015034189 0.960640430
1341846097.849998 0.005248676 -0.007136981 0.003528655 -0.283422202 0.035304651 0.013442850 0.958250880
1341846097.882032 0.005248560 -0.007137580 0.003528869 -0.287403554 0.034903910 0.011200630 0.957107842
1341846097.917945 0.005248289 -0.007139185 0.003529602 -0.291399151 0.034496538 0.009372371 0.955933452
1341846097.949812 0.005248352 -0.007140476 0.003530122 -0.295363545 0.034095600 0.007136366 0.954749703
1341846097.985786 0.005248598 -0.007143361 0.003531065 -0.299392939 0.033708241 0.004952042 0.953521371
1341846098.017778 0.005248494 -0.007143559 0.003531243 -0.295380354 0.033927169 0.002432722 0.954774022
1341846098.050033 0.005248378 -0.007144245 0.003531338 -0.290823072 0.034218878 -0.000048292 0.956164718
1341846098.085962 0.005248585 -0.007143997 0.003531219 -0.284566283 0.034726940 -0.003732707 0.958019912
1341846098.117764 0.005248906 -0.007143472 0.003530558 -0.280815244 0.036805704 -0.009625373 0.959007561
1341846098.149904 0.005248705 -0.007143103 0.003530544 -0.279587686 0.038354717 -0.014575005 0.959243059
1341846098.185874 0.005248370 -0.007143500 0.003531191 -0.277857065 0.038695268 -0.014799705 0.959728658
1341846098.217722 0.005248491 -0.007143710 0.003531151 -0.271033049 0.038343582 -0.012083931 0.961730123
1341846098.253811 0.005248656 -0.007144063 0.003531241 -0.262626857 0.040588930 -0.009433578 0.963997245
1341846098.285939 0.005248378 -0.007143503 0.003531083 -0.251268059 0.043089416 -0.008715895 0.966918647
1341846098.319650 0.005248543 -0.007144271 0.003530352 -0.241877139 0.043587763 -0.007716326 0.969296634
1341846098.353827 0.005248462 -0.007144281 0.003529770 -0.230653837 0.046340488 -0.008976429 0.971890330
1341846098.385963 0.005248518 -0.007143924 0.003530087 -0.221206427 0.048160341 -0.012912350 0.973951519
1341846098.418076 0.005248447 -0.007144121 0.003529774 -0.214576215 0.051547952 -0.019946694 0.975142002
1341846098.453988 0.005248297 -0.007143697 0.003529924 -0.209470943 0.054454722 -0.023585817 0.976012468
1341846098.485927 0.005248371 -0.007143904 0.003529965 -0.204556793 0.054984216 -0.023710923 0.977021515
1341846098.521907 0.005248456 -0.007144092 0.003529859 -0.197702214 0.054182351 -0.023785584 0.978474498
1341846098.553851 0.005248401 -0.007143978 0.003530036 -0.189446121 0.055261515 -0.022178799 0.980083883
1341846098.585937 0.005248309 -0.007144021 0.003529873 -0.182035118 0.056033604 -0.018447040 0.981520832
1341846098.621830 0.005248384 -0.007143978 0.003529849 -0.172860831 0.055474721 -0.015238977 0.983264685
1341846098.653874 0.005248352 -0.007143913 0.003529816 -0.164174244 0.056218263 -0.012523629 0.984748423
1341846098.685832 0.005248314 -0.007143709 0.003529602 -0.155722082 0.055322628 -0.010927659 0.986189961
1341846098.721860 0.005248314 -0.007143853 0.003529802 -0.146768093 0.054532472 -0.009085217 0.987624824
1341846098.753828 0.005248344 -0.007143763 0.003529622 -0.134869531 0.052236896 -0.006627554 0.989463270
1341846098.789998 0.005248457 -0.007143647 0.003529921 -0.122828208 0.051556647 -0.004224483 0.991078854
1341846098.827945 0.005248446 -0.007143662 0.003529853 -0.110029049 0.051635589 -0.001872320 0.992584467
1341846098.889904 0.005247687 -0.007145995 0.003529954 -0.097271174 0.051460642 0.000481349 0.993926466
1341846098.921923 0.005247675 -0.007146028 0.003529924 -0.084434800 0.051521201 0.002836751 0.995092094
1341846098.957887 0.005247396 -0.007145961 0.003529974 -0.071482174 0.051370520 0.005175809 0.996104717
1341846098.990630 0.005247138 -0.007145644 0.003529853 -0.058619246 0.051410481 0.007532293 0.996927261
1341846099.022028 0.005246336 -0.007144536 0.003530066 -0.045734473 0.051529989 0.009702898 0.997576535
1341846099.058015 0.005246340 -0.007144492 0.003529949 -0.032853484 0.051549211 0.012053967 0.998057127
1341846099.089878 0.005246082 -0.007143260 0.003529960 -0.019873757 0.051587973 0.014187093 0.998369873
1341846099.121774 0.005246004 -0.007142914 0.003529961 -0.006984435 0.051583629 0.016528802 0.998507440
1341846099.157775 0.005245750 -0.007141591 0.003529789 0.005655195 0.051602274 0.018853588 0.998473704
1341846099.189822 0.005245698 -0.007140559 0.003529725 0.018543936 0.051581133 0.021187054 0.998271823
1341846099.226178 0.005246009 -0.007140318 0.003529492 0.031678949 0.051519100 0.023528909 0.997892082
1341846099.264156 0.005245563 -0.007136701 0.003530035 0.044495091 0.051490713 0.025848085 0.997346878
1341846099.300270 0.005245301 -0.007136562 0.003530343 0.049759787 0.052159082 0.028354459 0.996995211
1341846099.332076 0.005245445 -0.007136601 0.003530082 0.051397551 0.053763561 0.029435655 0.996795535
1341846099.363831 0.005245539 -0.007136444 0.003530021 0.053031523 0.055368051 0.030514956 0.996589601
1341846099.399799 0.005245766 -0.007135584 0.003529563 0.054639872 0.057035126 0.031583142 0.996375382
1341846099.432113 0.005245733 -0.007135484 0.003529502 0.053886432 0.062569618 0.031016657 0.996102035
1341846099.463909 0.005245668 -0.007135740 0.003529792 0.053132974 0.068099238 0.030447654 0.995797336
1341846099.499765 0.005245908 -0.007135817 0.003529117 0.052423712 0.073518917 0.029781718 0.995469630
1341846099.564678 0.005246355 -0.007135811 0.003528415 0.054601762 0.093658261 0.023737388 0.993822575
1341846099.626222 0.005246370 -0.007135945 0.003529218 0.056648817 0.113821328 0.017715283 0.991726637
1341846099.657825 0.005246267 -0.007136014 0.003529747 0.055500824 0.125302136 0.012529870 0.990485728
1341846099.693870 0.005246243 -0.007136043 0.003529735 0.054351252 0.136771888 0.007345177 0.989083171
1341846099.725881 0.005246234 -0.007135967 0.003529163 0.055709030 0.147257879 0.005343204 0.987513542
1341846099.761986 0.005246675 -0.007136136 0.003529744 0.058657132 0.156061232 0.006953623 0.985979676
1341846099.793945 0.005247072 -0.007136588 0.003529800 0.061601508 0.164857194 0.008568584 0.984354615
1341846099.825926 0.005246566 -0.007135899 0.003529558 0.065096311 0.178507060 0.014782028 0.981671631
1341846099.862065 0.005246487 -0.007135819 0.003529399 0.065352365 0.189764872 0.017633121 0.979493439
1341846099.894034 0.005246583 -0.007135989 0.003529717 0.066658348 0.199413747 0.020808116 0.977424085
1341846099.925860 0.005246410 -0.007135900 0.003529498 0.068462849 0.207372606 0.024245717 0.975562215
1341846099.961831 0.005246461 -0.007135909 0.003529466 0.070261054 0.215307802 0.027681673 0.973621905
1341846099.993861 0.005246643 -0.007135942 0.003529579 0.072022244 0.223236620 0.031108946 0.971601963
1341846100.029846 0.005246656 -0.007135940 0.003529593 0.073808655 0.231136367 0.034539819 0.969502568
1341846100.069920 0.005246748 -0.007135969 0.003529650 0.075589053 0.239017352 0.037967879 0.967323840
1341846100.099862 0.005247070 -0.007135979 0.003529793 0.077365510 0.246899650 0.041387543 0.965060711
1341846100.132811 0.005247063 -0.007135981 0.003529791 0.079133503 0.254740804 0.044809099 0.962723851
1341846100.168188 0.005246934 -0.007135994 0.003529708 0.080895014 0.262560636 0.048226822 0.960308313
1341846100.199801 0.005246788 -0.007135988 0.003529578 0.082644410 0.270352632 0.051643465 0.957816422
1341846100.235866 0.005246877 -0.007135993 0.003529684 0.084391408 0.278127760 0.055052858 0.955244601
1341846100.267868 0.005246717 -0.007135967 0.003529619 0.086130090 0.285881519 0.058457393 0.952594399
1341846100.299821 0.005246704 -0.007135963 0.003529662 0.087864622 0.293608189 0.061860319 0.949867010
1341846100.335884 0.005246663 -0.007135954 0.003529701 0.089585558 0.301310599 0.065254979 0.947062910
1341846100.367898 0.005246670 -0.007135960 0.003529727 0.091303833 0.308990508 0.068644695 0.944180310
1341846100.400000 0.005246570 -0.007135952 0.003529826 0.093016565 0.316642821 0.072023720 0.941221476
1341846100.435828 0.005246539 -0.007135949 0.003529850 0.094719812 0.324271500 0.075401910 0.938184798
1341846100.467678 0.005246454 -0.007135970 0.003529884 0.096420251 0.331865311 0.078760572 0.935074985
1341846100.503838 0.005246432 -0.007135988 0.003529945 0.098107971 0.339440376 0.082126155 0.931885362
1341846100.535834 0.005246372 -0.007136028 0.003530000 0.099787548 0.346987844 0.085485041 0.928619504
1341846100.568004 0.005246351 -0.007136029 0.003529987 0.101459078 0.354506731 0.088836871 0.925277829
1341846100.604545 0.005246263 -0.007136021 0.003529956 0.103122436 0.361996293 0.092181273 0.921860635
1341846100.635826 0.005246283 -0.007136044 0.003529973 0.104777195 0.369456679 0.095518231 0.918367982
1341846100.672445 0.005246230 -0.007136012 0.003530024 0.106423683 0.376886964 0.098847680 0.914800167
1341846100.733981 0.005246232 -0.007136024 0.003530026 0.108061217 0.384286433 0.102168657 0.911157668
1341846100.765776 0.005246159 -0.007135981 0.003530036 0.109689899 0.391654432 0.105481252 0.907440722
1341846100.798442 0.005246132 -0.007135978 0.003530122 0.111309454 0.398990542 0.108784847 0.903649569
1341846100.833838 0.005246040 -0.007135967 0.003530134 0.112920024 0.406293929 0.112079926 0.899784625
1341846100.866041 0.005245921 -0.007135953 0.003530273 0.114521280 0.413563967 0.115365744 0.895846248
1341846100.897858 0.005245852 -0.007135972 0.003530396 0.116113231 0.420800269 0.118642233 0.891834557
1341846100.933895 0.005245802 -0.007135998 0.003530482 0.117695689 0.428002179 0.121909007 0.887750030
1341846100.965736 0.005245705 -0.007136030 0.003530631 0.119268514 0.435169071 0.125165820 0.883592904
1341846101.001817 0.005245438 -0.007136017 0.003530724 0.120831721 0.442300111 0.128412768 0.879363656
1341846101.033901 0.005245379 -0.007136045 0.003530831 0.122384928 0.449395210 0.131648824 0.875062585
1341846101.065947 0.005245178 -0.007136055 0.003530998 0.123928092 0.456453562 0.134874061 0.870689929
1341846101.102829 0.005245116 -0.007136101 0.003531163 0.125461161 0.463474631 0.138088316 0.866246104
1341846101.134613 0.005244948 -0.007136124 0.003531298 0.126983896 0.470457911 0.141290963 0.861731589
1341846101.169743 0.005244856 -0.007136164 0.003531529 0.128496334 0.477402687 0.144482344 0.857146561
1341846101.202171 0.005244798 -0.007136233 0.003531729 0.129998267 0.484308422 0.147661850 0.852491498
1341846101.234098 0.005244570 -0.007136258 0.003531907 0.131489336 0.491174787 0.150828838 0.847766817
1341846101.269940 0.005244493 -0.007136318 0.003532122 0.132969901 0.498000830 0.153983891 0.842972815
1341846101.301837 0.005244483 -0.007136417 0.003532351 0.134439602 0.504786193 0.157126352 0.838109910
1341846101.333884 0.005244275 -0.007136458 0.003532570 0.135898247 0.511530399 0.160255820 0.833178461
1341846101.369943 0.005244256 -0.007136543 0.003532799 0.137345836 0.518232703 0.163372293 0.828179002
1341846101.402755 0.005244249 -0.007136642 0.003533026 0.138782173 0.524892688 0.166475415 0.823111832
1341846101.437821 0.005244093 -0.007136706 0.003533294 0.140207067 0.531509817 0.169564858 0.817977428
1341846101.469768 0.005244081 -0.007136800 0.003533522 0.141620576 0.538083434 0.172640502 0.812776148
1341846101.501812 0.005244009 -0.007136901 0.003533787 0.143022567 0.544613004 0.175702229 0.807508469
1341846101.537892 0.005243995 -0.007136992 0.003534016 0.144412801 0.551098049 0.178749397 0.802174866
1341846101.569873 0.005244034 -0.007137099 0.003534210 0.145791247 0.557538092 0.181781977 0.796775699
1341846101.601955 0.005243973 -0.007137192 0.003534489 0.147157758 0.563932538 0.184799671 0.791311383
1341846101.637841 0.005244021 -0.007137279 0.003534719 0.148512200 0.570280910 0.187802270 0.785782456
1341846101.670644 0.005243959 -0.007137373 0.003534970 0.149854451 0.576582611 0.190789461 0.780189395
1341846101.705786 0.005244017 -0.007137490 0.003535200 0.151184469 0.582837224 0.193761185 0.774532497
1341846101.738127 0.005244026 -0.007137605 0.003535417 0.152502224 0.589044094 0.196717262 0.768812358
1341846101.769786 0.005244075 -0.007137707 0.003535637 0.153807431 0.595202863 0.199657097 0.763029397
1341846101.805816 0.005244184 -0.007137795 0.003535796 0.155100048 0.601312935 0.202580437 0.757184148
1341846101.837808 0.005244200 -0.007137917 0.003536036 0.156380087 0.607373893 0.205487460 0.751276970
1341846101.869834 0.005244262 -0.007137999 0.003536210 0.157647356 0.613385201 0.208377600 0.745308459
1341846101.905918 0.005244339 -0.007138100 0.003536452 0.158901721 0.619346440 0.211250767 0.739279032
1341846101.937872 0.005244444 -0.007138205 0.003536653 0.160143137 0.625256896 0.214106664 0.733189166
1341846101.973942 0.005244507 -0.007138314 0.003536838 0.161371440 0.631116331 0.216945112 0.727039337
1341846102.005947 0.005244781 -0.007138446 0.003536986 0.162586614 0.636924148 0.219765827 0.720830202
1341846102.037846 0.005244852 -0.007138566 0.003537274 0.163788468 0.642679930 0.222568616 0.714562118
1341846102.073879 0.005244961 -0.007138695 0.003537436 0.164976925 0.648383021 0.225353196 0.708235800
1341846102.105961 0.005245069 -0.007138811 0.003537696 0.166151911 0.654033184 0.228119418 0.701851606
1341846102.137878 0.005245206 -0.007138891 0.003537902 0.167313322 0.659629822 0.230866954 0.695410073
1341846102.173907 0.005245293 -0.007138968 0.003538070 0.168461025 0.665172577 0.233595669 0.688911736
1341846102.205896 0.005245370 -0.007139077 0.003538291 0.169594929 0.670661092 0.236305326 0.682357073
1341846102.242018 0.005245496 -0.007139176 0.003538524 0.170714855 0.676094711 0.238995731 0.675746560
1341846102.274144 0.005245568 -0.007139283 0.003538741 0.171820834 0.681473196 0.241666600 0.669080853
1341846102.305875 0.005245707 -0.007139406 0.003538914 0.172912687 0.686796010 0.244317740 0.662360370
1341846102.341821 0.005245810 -0.007139508 0.003539150 0.173990488 0.692062676 0.246948898 0.655585825
1341846102.374024 0.005245917 -0.007139628 0.003539348 0.175053999 0.697273016 0.249559894 0.648757577
1341846102.409984 0.005245980 -0.007139747 0.003539496 0.176103234 0.702426136 0.252150416 0.641876340
1341846102.441952 0.005246067 -0.007139853 0.003539650 0.177138031 0.707522094 0.254720360 0.634942651
1341846102.473881 0.005246168 -0.007139943 0.003539807 0.178158343 0.712560117 0.257269531 0.627957046
1341846102.509959 0.005246216 -0.007140015 0.003539882 0.179164052 0.717539966 0.259797662 0.620920181
1341846102.541996 0.005246240 -0.007140086 0.003539962 0.180155128 0.722461164 0.262304544 0.613832474
1341846102.574361 0.005246294 -0.007140133 0.003540105 0.181131437 0.727323353 0.264790028 0.606694639
1341846102.610654 0.005246353 -0.007140181 0.003540190 0.182093039 0.732126117 0.267253816 0.599507153
1341846102.642222 0.005246399 -0.007140266 0.003540262 0.183039725 0.736869037 0.269695848 0.592270672
1341846102.677806 0.005246399 -0.007140345 0.003540406 0.183971524 0.741551757 0.272115827 0.584985852
1341846102.709968 0.005246511 -0.007140432 0.003540560 0.184888229 0.746173918 0.274513543 0.577653229
1341846102.741857 0.005246595 -0.007140484 0.003540650 0.185789794 0.750734985 0.276888847 0.570273399
1341846102.777720 0.005246689 -0.007140533 0.003540763 0.186676130 0.755234778 0.279241502 0.562846899
1341846102.809783 0.005246769 -0.007140602 0.003540875 0.187547147 0.759673059 0.281571358 0.555374324
1341846102.841828 0.005246811 -0.007140715 0.003540940 0.188402906 0.764048994 0.283878118 0.547856331
1341846102.877813 0.005246799 -0.007140761 0.003541018 0.189243197 0.768362761 0.286161780 0.540293574
1341846102.909875 0.005246811 -0.007140805 0.003541130 0.190068111 0.772613585 0.288421988 0.532686710
1341846102.945843 0.005246894 -0.007140885 0.003541237 0.190877393 0.776801288 0.290658683 0.525036275
1341846102.977815 0.005246927 -0.007140967 0.003541343 0.191671103 0.780925512 0.292871654 0.517342985
1341846103.009867 0.005246955 -0.007141023 0.003541481 0.192449078 0.784985840 0.295060635 0.509607434
1341846103.045829 0.005247025 -0.007141093 0.003541615 0.193211317 0.788981974 0.297225565 0.501830280
1341846103.077786 0.005247081 -0.007141184 0.003541732 0.193957806 0.792913914 0.299366206 0.494011939
1341846103.110039 0.005247142 -0.007141277 0.003541834 0.194688410 0.796780884 0.301482379 0.486153215
1341846103.145830 0.005247189 -0.007141366 0.003541945 0.195403099 0.800582826 0.303573877 0.478254795
1341846103.177933 0.005247258 -0.007141439 0.003542042 0.196101785 0.804319322 0.305640578 0.470317245
1341846103.213980 0.005247325 -0.007141511 0.003542124 0.196784452 0.807990134 0.307682306 0.462341279
1341846103.246103 0.005247382 -0.007141604 0.003542252 0.197450995 0.811594903 0.309698850 0.454327494
1341846103.277869 0.005247456 -0.007141670 0.003542368 0.198101416 0.815133333 0.311690092 0.446276605
1341846103.314495 0.005247543 -0.007141726 0.003542438 0.198735610 0.818605065 0.313655823 0.438189268
1341846103.345951 0.005247605 -0.007141823 0.003542602 0.199353576 0.822009981 0.315595984 0.430066109
1341846103.382135 0.005247716 -0.007141881 0.003542689 0.199353561 0.822010040 0.315595984 0.430066109
1341846103.413791 0.005247753 -0.007141918 0.003542741 0.199353531 0.822010040 0.315595984 0.430066079
1341846103.445861 0.005247797 -0.007141962 0.003542791 0.199353471 0.822010040 0.315595984 0.430066049
1341846103.482382 0.005247866 -0.007142036 0.003542905 0.199353382 0.822010100 0.315595955 0.430066049
1341846103.513968 0.005247967 -0.007142069 0.003542947 0.199353263 0.822010159 0.315595925 0.430066019
1341846103.545990 0.005248012 -0.007142109 0.003542967 0.199353129 0.822010219 0.315595925 0.430066019
1341846103.582021 0.005248050 -0.007142162 0.003543008 0.199352980 0.822010219 0.315595895 0.430066049
1341846103.614121 0.005248145 -0.007142211 0.003543055 0.199352816 0.822010279 0.315595895 0.430066019
1341846103.650229 0.005248213 -0.007142265 0.003543070 0.199352622 0.822010338 0.315595925 0.430065989
1341846103.714025 0.005248297 -0.007142344 0.003543156 0.199352458 0.822010398 0.315595895 0.430065960
1341846103.749741 0.005248429 -0.007142351 0.003543179 0.199352250 0.822010517 0.315595865 0.430065960
1341846103.813998 0.005248514 -0.007142422 0.003543219 0.199352056 0.822010577 0.315595806 0.430065930
1341846103.849900 0.005248588 -0.007142440 0.003543268 0.199351892 0.822010636 0.315595686 0.430065930
1341846103.883046 0.005248668 -0.007142454 0.003543294 0.199351758 0.822010696 0.315595597 0.430065960
1341846103.917830 0.005248690 -0.007142473 0.003543316 0.199351609 0.822010756 0.315595448 0.430065989
1341846103.949988 0.005248738 -0.007142491 0.003543346 0.199351475 0.822010815 0.315595329 0.430066019
1341846103.981996 0.005248772 -0.007142509 0.003543393 0.199351296 0.822010934 0.315595180 0.430066019
1341846104.017780 0.005248797 -0.007142519 0.003543408 0.199351162 0.822010994 0.315595061 0.430066049
1341846104.049832 0.005248811 -0.007142548 0.003543442 0.199351013 0.822011054 0.315594912 0.430066079
1341846104.082120 0.005248853 -0.007142565 0.003543483 0.199350849 0.822011113 0.315594852 0.430066079
1341846104.117792 0.005248886 -0.007142573 0.003543503 0.199350670 0.822011232 0.315594703 0.430066079
1341846104.150184 0.005248910 -0.007142591 0.003543528 0.199350491 0.822011352 0.315594614 0.430066049
1341846104.185757 0.005248916 -0.007142591 0.003543565 0.199350312 0.822011411 0.315594494 0.430066019
1341846104.217842 0.005248943 -0.007142599 0.003543589 0.199350148 0.822011530 0.315594375 0.430065989
1341846104.250204 0.005248956 -0.007142610 0.003543598 0.199350014 0.822011590 0.315594286 0.430065989
1341846104.286035 0.005248965 -0.007142627 0.003543615 0.199349880 0.822011650 0.315594196 0.430065960
1341846104.317813 0.005248996 -0.007142634 0.003543646 0.199349746 0.822011709 0.315594137 0.430065989
1341846104.349826 0.005249008 -0.007142646 0.003543665 0.199349627 0.822011769 0.315594077 0.430065960
1341846104.385800 0.005249031 -0.007142679 0.003543693 0.199349523 0.822011828 0.315594047 0.430065960
1341846104.417992 0.005249038 -0.007142681 0.003543717 0.199349433 0.822011828 0.315594018 0.430065989
1341846104.453901 0.005249055 -0.007142696 0.003543731 0.199349329 0.822011888 0.315593988 0.430065989
1341846104.485845 0.005249046 -0.007142695 0.003543733 0.199349195 0.822011948 0.315593928 0.430065960
1341846104.517786 0.005249049 -0.007142685 0.003543732 0.199349061 0.822012007 0.315593868 0.430065930
1341846104.553687 0.005249058 -0.007142692 0.003543732 0.199348956 0.822012067 0.315593809 0.430065930
1341846104.585769 0.005249049 -0.007142692 0.003543729 0.199348852 0.822012126 0.315593660 0.430065960
1341846104.621999 0.005249047 -0.007142690 0.003543730 0.199348748 0.822012186 0.315593481 0.430065989
1341846104.653963 0.005249043 -0.007142683 0.003543727 0.199348658 0.822012305 0.315593302 0.430066019
1341846104.691974 0.005249032 -0.007142666 0.003543713 0.199348539 0.822012365 0.315593123 0.430066019
1341846104.754029 0.005248976 -0.007142624 0.003543672 0.199348465 0.822012484 0.315592945 0.430065989
1341846104.785861 0.005248924 -0.007142588 0.003543623 0.199348375 0.822012603 0.315592796 0.430065930
1341846104.822207 0.005248906 -0.007142553 0.003543566 0.199348256 0.822012663 0.315592647 0.430065870
1341846104.889952 0.005248851 -0.007142500 0.003543507 0.199348167 0.822012782 0.315592468 0.430065840
1341846104.921931 0.005248827 -0.007142473 0.003543464 0.199348047 0.822012961 0.315592259 0.430065781
1341846104.954032 0.005248785 -0.007142438 0.003543419 0.199347913 0.822013080 0.315592051 0.430065751
1341846104.989984 0.005248734 -0.007142409 0.003543378 0.199347779 0.822013199 0.315591842 0.430065751
1341846105.021966 0.005248699 -0.007142378 0.003543328 0.199347630 0.822013319 0.315591544 0.430065781
1341846105.053992 0.005248628 -0.007142345 0.003543275 0.199347496 0.822013497 0.315591276 0.430065721
1341846105.089855 0.005248564 -0.007142327 0.003543220 0.199347362 0.822013676 0.315590978 0.430065691
1341846105.121922 0.005248471 -0.007142292 0.003543152 0.199347228 0.822013795 0.315590680 0.430065662
1341846105.158015 0.005248358 -0.007142270 0.003543109 0.199347094 0.822013974 0.315590382 0.430065602
1341846105.189943 0.005248254 -0.007142231 0.003543060 0.199346989 0.822014153 0.315590054 0.430065513
1341846105.222089 0.005248148 -0.007142200 0.003543019 0.199346930 0.822014332 0.315589756 0.430065513
1341846105.258397 0.005248081 -0.007142188 0.003542976 0.199346825 0.822014511 0.315589428 0.430065364
1341846105.289917 0.005248031 -0.007142173 0.003542945 0.199346751 0.822014749 0.315589100 0.430065244
1341846105.321831 0.005247986 -0.007142145 0.003542925 0.199346676 0.822014987 0.315588772 0.430065066
1341846105.357830 0.005247939 -0.007142126 0.003542898 0.199346617 0.822015285 0.315588474 0.430064857
1341846105.389824 0.005247887 -0.007142109 0.003542872 0.199346542 0.822015464 0.315588146 0.430064678
1341846105.425915 0.005247819 -0.007142063 0.003542850 0.199346453 0.822015703 0.315587819 0.430064470
1341846105.457863 0.005247783 -0.007142021 0.003542795 0.199346393 0.822016001 0.315587550 0.430064261
1341846105.489902 0.005247731 -0.007141979 0.003542738 0.199346334 0.822016180 0.315587223 0.430064082
1341846105.525969 0.005247665 -0.007141928 0.003542681 0.199346289 0.822016418 0.315586925 0.430063903
1341846105.557770 0.005247641 -0.007141876 0.003542617 0.199346244 0.822016597 0.315586627 0.430063695
1341846105.594012 0.005247610 -0.007141820 0.003542570 0.199346229 0.822016835 0.315586358 0.430063546
1341846105.626122 0.005247526 -0.007141792 0.003542503 0.199346215 0.822017074 0.315586060 0.430063307
1341846105.657815 0.005247489 -0.007141753 0.003542442 0.199346215 0.822017312 0.315585762 0.430063099
1341846105.693879 0.005247431 -0.007141701 0.003542387 0.199346244 0.822017491 0.315585464 0.430062890
1341846105.726045 0.005247412 -0.007141667 0.003542323 0.199346289 0.822017729 0.315585136 0.430062681
1341846105.758468 0.005247384 -0.007141639 0.003542272 0.199346334 0.822017968 0.315584838 0.430062443
1341846105.793970 0.005247344 -0.007141584 0.003542221 0.199346423 0.822018206 0.315584540 0.430062205
1341846105.825903 0.005247321 -0.007141524 0.003542150 0.199346527 0.822018385 0.315584213 0.430061966
1341846105.861764 0.005247270 -0.007141507 0.003542098 0.199346632 0.822018683 0.315583885 0.430061668
1341846105.893922 0.005247201 -0.007141454 0.003542017 0.199346766 0.822018921 0.315583616 0.430061340
1341846105.925960 0.005247186 -0.007141401 0.003541918 0.199346900 0.822019160 0.315583348 0.430061013
1341846105.963745 0.005247121 -0.007141364 0.003541878 0.199347064 0.822019398 0.315583080 0.430060685
1341846106.025952 0.005247111 -0.007141246 0.003541856 0.199347213 0.822019637 0.315582812 0.430060327
1341846106.061758 0.005247131 -0.007141218 0.003541827 0.199347407 0.822019875 0.315582514 0.430059969
1341846106.093961 0.005247136 -0.007141202 0.003541817 0.199347571 0.822020173 0.315582186 0.430059612
1341846106.130133 0.005247153 -0.007141175 0.003541792 0.199347749 0.822020411 0.315581858 0.430059254
1341846106.161819 0.005247127 -0.007141154 0.003541763 0.199347928 0.822020710 0.315581530 0.430058837
1341846106.193968 0.005247147 -0.007141140 0.003541756 0.199348047 0.822021067 0.315581232 0.430058479
1341846106.229889 0.005247115 -0.007141131 0.003541750 0.199348152 0.822021365 0.315580934 0.430057973
1341846106.261942 0.005247064 -0.007141084 0.003541726 0.199348211 0.822021663 0.315580636 0.430057526
1341846106.293939 0.005247091 -0.007141056 0.003541706 0.199348241 0.822022021 0.315580428 0.430057049
1341846106.329961 0.005247078 -0.007141040 0.003541725 0.199348226 0.822022319 0.315580249 0.430056572
1341846106.361877 0.005247113 -0.007141009 0.003541764 0.199348167 0.822022676 0.315580070 0.430056125
1341846106.398046 0.005247105 -0.007140988 0.003541835 0.199348062 0.822023034 0.315579951 0.430055588
1341846106.429938 0.005247140 -0.007140968 0.003541887 0.199347928 0.822023392 0.315579861 0.430055052
1341846106.461886 0.005247116 -0.007140978 0.003541980 0.199347824 0.822023690 0.315579742 0.430054605
1341846106.461886 0.005247116 -0.007140978 0.003541980 0.199347824 0.822023690 0.315579742 0.430054605
1341846106.461886 0.005247116 -0.007140978 0.003541980 0.199347824 0.822023690 0.315579742 0.430054605
1341846106.461886 0.005247116 -0.007140978 0.003541980 0.199347824 0.822023690 0.315579742 0.430054605
1341846106.461886 0.005247116 -0.007140978 0.003541980 0.199347824 0.822023690 0.315579742 0.430054605
1341846106.461886 0.005247116 -0.007140978 0.003541980 0.199347824 0.822023690 0.315579742 0.430054605
1341846106.665869 0.022918036 0.009176793 -0.075587079 0.055771161 0.013185243 -0.112388261 0.992010355
1341846106.665869 0.022918036 0.009176793 -0.075587079 0.055771161 0.013185243 -0.112388261 0.992010355
1341846106.665869 0.022918036 0.009176793 -0.075587079 0.055771161 0.013185243 -0.112388261 0.992010355
1341846106.665869 0.022918036 0.009176793 -0.075587079 0.055771161 0.013185243 -0.112388261 0.992010355
1341846106.665869 0.022918036 0.009176793 -0.075587079 0.055771161 0.013185243 -0.112388261 0.992010355
1341846106.665869 0.022918036 0.009176793 -0.075587079 0.055771161 0.013185243 -0.112388261 0.992010355
1341846106.665869 0.022918036 0.009176793 -0.075587079 0.055771161 0.013185243 -0.112388261 0.992010355
1341846106.665869 0.022918036 0.009176793 -0.075587079 0.055771161 0.013185243 -0.112388261 0.992010355
1341846106.665869 0.022918036 0.009176793 -0.075587079 0.055771161 0.013185243 -0.112388261 0.992010355
1341846106.665869 0.022918036 0.009176793 -0.075587079 0.055771161 0.013185243 -0.112388261 0.992010355
1341846106.665869 0.022918036 0.009176793 -0.075587079 0.055771161 0.013185243 -0.112388261 0.992010355
1341846106.665869 0.022918036 0.009176793 -0.075587079 0.055771161 0.013185243 -0.112388261 0.992010355
1341846106.665869 0.022918036 0.009176793 -0.075587079 0.055771161 0.013185243 -0.112388261 0.992010355
1341846106.665869 0.022918036 0.009176793 -0.075587079 0.055771161 0.013185243 -0.112388261 0.992010355
1341846106.665869 0.022918036 0.009176793 -0.075587079 0.055771161 0.013185243 -0.112388261 0.992010355
1341846107.166082 0.018062463 -0.005526369 -0.072210565 0.024621051 0.003713518 -0.296122432 0.954825401
1341846107.166082 0.018062463 -0.005526369 -0.072210565 0.024621051 0.003713518 -0.296122432 0.954825401
1341846107.166082 0.018062463 -0.005526369 -0.072210565 0.024621051 0.003713518 -0.296122432 0.954825401
1341846107.166082 0.018062463 -0.005526369 -0.072210565 0.024621051 0.003713518 -0.296122432 0.954825401
1341846107.166082 0.018062463 -0.005526369 -0.072210565 0.024621051 0.003713518 -0.296122432 0.954825401
1341846107.166082 0.018062463 -0.005526369 -0.072210565 0.024621051 0.003713518 -0.296122432 0.954825401
1341846107.166082 0.018062463 -0.005526369 -0.072210565 0.024621051 0.003713518 -0.296122432 0.954825401
1341846107.166082 0.018062463 -0.005526369 -0.072210565 0.024621051 0.003713518 -0.296122432 0.954825401
1341846107.166082 0.018062463 -0.005526369 -0.072210565 0.024621051 0.003713518 -0.296122432 0.954825401
1341846107.166082 0.018062463 -0.005526369 -0.072210565 0.024621051 0.003713518 -0.296122432 0.954825401
1341846107.166082 0.018062463 -0.005526369 -0.072210565 0.024621051 0.003713518 -0.296122432 0.954825401
1341846107.533946 0.018350411 -0.002822637 -0.073787168 -0.001575800 -0.017518355 -0.410243243 0.911806464
1341846107.533946 0.018350411 -0.002822637 -0.073787168 -0.001575800 -0.017518355 -0.410243243 0.911806464
1341846107.533946 0.018350411 -0.002822637 -0.073787168 -0.001575800 -0.017518355 -0.410243243 0.911806464
1341846107.533946 0.018350411 -0.002822637 -0.073787168 -0.001575800 -0.017518355 -0.410243243 0.911806464
1341846107.533946 0.018350411 -0.002822637 -0.073787168 -0.001575800 -0.017518355 -0.410243243 0.911806464
1341846107.533946 0.018350411 -0.002822637 -0.073787168 -0.001575800 -0.017518355 -0.410243243 0.911806464
1341846107.533946 0.018350411 -0.002822637 -0.073787168 -0.001575800 -0.017518355 -0.410243243 0.911806464
1341846107.533946 0.018350411 -0.002822637 -0.073787168 -0.001575800 -0.017518355 -0.410243243 0.911806464
1341846107.533946 0.018350411 -0.002822637 -0.073787168 -0.001575800 -0.017518355 -0.410243243 0.911806464
1341846107.533946 0.018350411 -0.002822637 -0.073787168 -0.001575800 -0.017518355 -0.410243243 0.911806464
1341846107.533946 0.018350411 -0.002822637 -0.073787168 -0.001575800 -0.017518355 -0.410243243 0.911806464
1341846107.533946 0.018350411 -0.002822637 -0.073787168 -0.001575800 -0.017518355 -0.410243243 0.911806464
1341846107.533946 0.018350411 -0.002822637 -0.073787168 -0.001575800 -0.017518355 -0.410243243 0.911806464
1341846107.533946 0.018350411 -0.002822637 -0.073787168 -0.001575800 -0.017518355 -0.410243243 0.911806464
1341846107.533946 0.018350411 -0.002822637 -0.073787168 -0.001575800 -0.017518355 -0.410243243 0.911806464
1341846107.533946 0.018350411 -0.002822637 -0.073787168 -0.001575800 -0.017518355 -0.410243243 0.911806464
1341846107.533946 0.018350411 -0.002822637 -0.073787168 -0.001575800 -0.017518355 -0.410243243 0.911806464
1341846107.533946 0.018350411 -0.002822637 -0.073787168 -0.001575800 -0.017518355 -0.410243243 0.911806464
1341846107.533946 0.018350411 -0.002822637 -0.073787168 -0.001575800 -0.017518355 -0.410243243 0.911806464
1341846107.533946 0.018350411 -0.002822637 -0.073787168 -0.001575800 -0.017518355 -0.410243243 0.911806464
1341846107.533946 0.018350411 -0.002822637 -0.073787168 -0.001575800 -0.017518355 -0.410243243 0.911806464
1341846107.533946 0.018350411 -0.002822637 -0.073787168 -0.001575800 -0.017518355 -0.410243243 0.911806464
1341846107.533946 0.018350411 -0.002822637 -0.073787168 -0.001575800 -0.017518355 -0.410243243 0.911806464
1341846107.533946 0.018350411 -0.002822637 -0.073787168 -0.001575800 -0.017518355 -0.410243243 0.911806464
1341846107.533946 0.018350411 -0.002822637 -0.073787168 -0.001575800 -0.017518355 -0.410243243 0.911806464
1341846107.533946 0.018350411 -0.002822637 -0.073787168 -0.001575800 -0.017518355 -0.410243243 0.911806464
1341846108.506142 0.000000000 0.000000000 0.000000000 0.000000000 0.000000000 0.000000000 1.000000000
1341846108.541923 0.002210200 -0.001033119 -0.003910473 -0.002442260 0.000840650 -0.001800966 0.999995053
1341846108.573967 0.014663909 0.002276603 -0.013136510 -0.004998858 0.003094903 -0.006247603 0.999963224
1341846108.609979 0.000425123 -0.001331683 -0.000750708 -0.010358364 0.016643189 -0.007876185 0.999776781
1341846108.641701 -0.000344823 -0.001118681 0.001773004 -0.007337593 0.017351994 0.002264585 0.999819934
1341846108.673868 0.011467014 0.001146061 -0.010985951 -0.007524743 0.016411418 0.006776438 0.999814034
1341846108.710024 0.001922266 -0.001783849 -0.001054101 -0.009349985 0.031211657 0.008038177 0.999436736
1341846108.742835 0.001705520 0.000365768 -0.000948178 -0.008762740 0.036678240 0.011870719 0.999218166
1341846108.773793 0.005975483 -0.002289791 -0.006862083 -0.010931363 0.041718543 0.012081306 0.998996556
1341846108.810032 0.002428046 -0.001175371 -0.003999455 -0.010077114 0.052040372 0.010757867 0.998536170
1341846108.841885 0.001135670 -0.001785779 0.001102944 -0.010306579 0.056469258 0.013996387 0.998253047
1341846108.877944 0.001135761 -0.001785768 0.001103107 -0.008949721 0.057786152 0.016223537 0.998157024
1341846108.909950 0.001173706 -0.001648675 0.000515641 -0.006657117 0.063073099 0.017572075 0.997832000
1341846108.941882 0.001134485 -0.001878062 0.001215741 -0.006698436 0.065214790 0.025927886 0.997511864
1341846108.977902 0.001129139 -0.001882876 0.001181471 -0.006891903 0.063331775 0.028611956 0.997558475
1341846109.009916 0.000809217 -0.001683769 0.000877736 -0.006289078 0.067657478 0.027251393 0.997316539
1341846109.045986 0.001135371 -0.001785663 0.001102439 -0.006349242 0.070814960 0.035343777 0.996842921
1341846109.077854 0.001131317 -0.001822182 0.001114194 -0.007111092 0.071029738 0.036452547 0.996782541
1341846109.109839 0.001119459 -0.001793176 0.001081088 -0.007384150 0.073794968 0.036149781 0.996590674
1341846109.145865 0.001135694 -0.001785750 0.001103292 -0.003317786 0.077450350 0.040658962 0.996161282
1341846109.178396 0.001159468 -0.001814257 0.001171679 0.002100575 0.078399308 0.049405709 0.995694816
1341846109.209809 0.001140650 -0.001813028 0.001177320 0.007409910 0.079666741 0.052715104 0.995399117
1341846109.245810 0.001135689 -0.001785704 0.001103288 0.017879551 0.083420239 0.060725283 0.994501770
1341846109.277797 0.001143743 -0.001787267 0.001152591 0.032701142 0.083466314 0.079421781 0.992802203
1341846109.313909 0.001151948 -0.001790154 0.001201809 0.047504026 0.083464630 0.098072834 0.990534604
1341846109.313909 0.001151948 -0.001790154 0.001201809 0.047504026 0.083464630 0.098072834 0.990534604
1341846109.313909 0.001151948 -0.001790154 0.001201809 0.047504026 0.083464630 0.098072834 0.990534604
1341846109.413820 0.001135594 -0.001785722 0.001103287 0.073579714 0.080798775 0.134779796 0.984830916
1341846109.445954 0.001300606 -0.001876290 0.000356656 0.076836012 0.080838196 0.145436257 0.983061373
1341846109.490348 0.001135580 -0.001785728 0.001103147 0.075800627 0.080513105 0.154463947 0.981790602
1341846109.545959 0.001087401 -0.001700966 0.001207933 0.083768226 0.077146545 0.176481277 0.977694035
1341846109.581855 0.001163142 -0.001868103 0.001128547 0.088074222 0.075990230 0.191291317 0.974615872
1341846109.613999 0.001135635 -0.001785708 0.001103276 0.098172277 0.070829026 0.214216918 0.969255686
1341846109.645963 0.001127275 -0.001782593 0.001122854 0.109765545 0.064396523 0.236957014 0.963149011
1341846109.681808 0.001135569 -0.001785676 0.001103316 0.119432002 0.061719254 0.257227123 0.956954002
1341846109.713847 0.001147787 -0.001775196 0.001055571 0.124226429 0.059249222 0.272866994 0.952155948
1341846109.745831 0.001143058 -0.001781106 0.001067944 0.127004877 0.057409223 0.284923017 0.948363245
1341846109.781814 0.001149354 -0.001798538 0.001087419 0.128812835 0.055912100 0.297105610 0.944462478
1341846109.813956 0.001135470 -0.001785633 0.001103217 0.130235404 0.056290872 0.306170911 0.941344500
1341846109.850256 0.001130572 -0.001757816 0.001064615 0.133667603 0.054135904 0.317324340 0.937287331
1341846109.913863 0.001134979 -0.001759330 0.001055752 0.141539991 0.052510686 0.328052998 0.932518244
1341846109.949976 0.001135165 -0.001756508 0.001026160 0.141751528 0.052025162 0.328146368 0.932480514
1341846109.981998 0.001135509 -0.001785588 0.001103321 0.143492311 0.052646309 0.328996211 0.931879699
1341846110.017884 0.001137326 -0.001796389 0.001128699 0.146306962 0.052887369 0.331030011 0.930707455
1341846110.049982 0.001134350 -0.001805222 0.001142425 0.149131924 0.054017246 0.335678220 0.928526759
1341846110.117943 0.001135502 -0.001785607 0.001103309 0.156063914 0.053998418 0.349386126 0.922310948
1341846110.150254 0.001133714 -0.001785182 0.001104172 0.157966390 0.053055525 0.355757117 0.919602394
1341846110.181980 0.001133443 -0.001784863 0.001100226 0.159814969 0.052902445 0.364598215 0.915821314
1341846110.217907 0.001134858 -0.001787446 0.001104417 0.160841510 0.050681185 0.372293830 0.912665784
1341846110.249883 0.001135539 -0.001787346 0.001105062 0.161738783 0.047407683 0.380650103 0.909229696
1341846110.286020 0.001135198 -0.001786725 0.001105210 0.165744931 0.045914017 0.391324848 0.904038370
1341846110.356025 0.001134368 -0.001784717 0.001097141 0.166618645 0.042077530 0.410239309 0.895640254
1341846110.417989 0.001134439 -0.001786539 0.001104189 0.167695522 0.040254992 0.419642001 0.891155601
1341846110.449878 0.001135387 -0.001787039 0.001104068 0.169451520 0.038724892 0.424643070 0.888518333
1341846110.485899 0.001135451 -0.001785580 0.001103286 0.170948774 0.037426662 0.426938891 0.887185931
1341846110.517949 0.001135559 -0.001785322 0.001103550 0.171204403 0.036980134 0.428165436 0.886564076
1341846110.554149 0.001135489 -0.001785706 0.001103750 0.171969444 0.034890816 0.431408465 0.884927034
1341846110.585896 0.001135416 -0.001785511 0.001102956 0.173878342 0.032044075 0.434081048 0.883353353
1341846110.617933 0.001135544 -0.001785392 0.001102646 0.173538059 0.029653216 0.438150525 0.881492674
1341846110.653885 0.001135441 -0.001785515 0.001103484 0.173510805 0.026590036 0.445826203 0.877739131
1341846110.686533 0.001134789 -0.001785441 0.001103284 0.176664636 0.024112558 0.454212964 0.872868121
1341846110.717831 0.001135287 -0.001784534 0.001098777 0.175962299 0.023666456 0.461917847 0.868970096
1341846110.753826 0.001135166 -0.001785377 0.001100214 0.173711628 0.023656869 0.473249435 0.863307357
1341846110.785789 0.001135432 -0.001785627 0.001103262 0.174255028 0.022787185 0.485988647 0.856113851
1341846110.821828 0.001135371 -0.001785643 0.001103196 0.174634710 0.022095731 0.495919317 0.850340247
1341846110.853855 0.001135346 -0.001785588 0.001102642 0.173570797 0.021378929 0.506057501 0.844583929
1341846110.885864 0.001135465 -0.001785617 0.001103450 0.173721418 0.022240549 0.514888108 0.839176118
1341846110.921999 0.001135402 -0.001785650 0.001103181 0.174528956 0.021538449 0.521923900 0.834668338
1341846110.953861 0.001135418 -0.001785562 0.001103047 0.173859388 0.020930329 0.526762664 0.831778765
1341846110.985986 0.001135402 -0.001785693 0.001103248 0.172875345 0.022960519 0.529977024 0.829886317
1341846111.021940 0.001135440 -0.001785618 0.001103247 0.171335891 0.022279760 0.531839550 0.829032183
1341846111.053945 0.001135514 -0.001785709 0.001103420 0.169440702 0.019094922 0.533728361 0.828286946
1341846111.089856 0.001135505 -0.001785757 0.001103473 0.169239566 0.017108144 0.536798418 0.826385379
1341846111.121811 0.001135468 -0.001785647 0.001103341 0.169681415 0.013438105 0.541886628 0.823034942
1341846111.153919 0.001135501 -0.001785679 0.001103392 0.172339320 0.010298570 0.547840357 0.818574369
1341846111.189911 0.001135473 -0.001785622 0.001103323 0.174313754 0.007564993 0.553964257 0.814052284
1341846111.221870 0.001135427 -0.001785644 0.001103296 0.173003182 0.004116281 0.560249984 0.810045004
1341846111.258571 0.001135482 -0.001785747 0.001103366 0.170510426 0.000150752 0.566211045 0.806431174
1341846111.289825 0.001135526 -0.001785741 0.001103250 0.167988956 -0.003728067 0.572071373 0.802807689
1341846111.321895 0.001135664 -0.001785742 0.001103217 0.165481403 -0.007686909 0.577951372 0.799080133
1341846111.357890 0.001135781 -0.001785772 0.001103177 0.167350918 -0.008899958 0.583564520 0.794586003
1341846111.390567 0.001135743 -0.001785781 0.001103197 0.169179663 -0.010092640 0.589137971 0.790058792
1341846111.421924 0.001135819 -0.001785713 0.001103454 0.170931533 -0.011290400 0.594690084 0.785492659
1341846111.457975 0.001135799 -0.001785690 0.001103450 0.172739357 -0.012480675 0.600196898 0.780877113
1341846111.490354 0.001135607 -0.001785615 0.001103412 0.174501091 -0.013709483 0.605665267 0.776228726
1341846111.525824 0.001135627 -0.001785603 0.001103903 0.176288381 -0.014897924 0.611104488 0.771525621
1341846111.557829 0.001135583 -0.001785590 0.001103441 0.177112937 -0.015514242 0.616738975 0.766826808
1341846111.589761 0.001135322 -0.001785576 0.001103469 0.177879736 -0.016123269 0.622341990 0.762095332
1341846111.625966 0.001135231 -0.001785550 0.001103584 0.178719983 -0.016756345 0.627903640 0.757307947
1341846111.658029 0.001135233 -0.001785370 0.001103708 0.179489031 -0.017320152 0.633447289 0.752481341
1341846111.689871 0.001135218 -0.001785251 0.001103815 0.180296212 -0.017969798 0.638940930 0.747612774
1341846111.725851 0.001135143 -0.001785176 0.001103953 0.181056544 -0.018597808 0.644417703 0.742696762
1341846111.757957 0.001135150 -0.001785030 0.001104114 0.181846946 -0.019140856 0.649860084 0.737731099
1341846111.793921 0.001135146 -0.001785017 0.001104115 0.182602257 -0.019750500 0.655251086 0.732743025
1341846111.825999 0.001135047 -0.001784831 0.001104198 0.183376104 -0.020413727 0.660626590 0.727687418
1341846111.857852 0.001134989 -0.001784827 0.001104285 0.184149012 -0.020992013 0.665951312 0.722604573
1341846111.893939 0.001135025 -0.001784791 0.001104252 0.185020998 -0.020982973 0.671357334 0.717360616
1341846111.925817 0.001134976 -0.001784847 0.001104269 0.185882404 -0.020972874 0.676724851 0.712075412
1341846111.957857 0.001134914 -0.001784905 0.001104200 0.186733171 -0.020961652 0.682053447 0.706749201
1341846111.993917 0.001134843 -0.001785272 0.001104083 0.187581554 -0.020993074 0.687315345 0.701405764
1341846112.025975 0.001134828 -0.001785281 0.001104090 0.188410565 -0.020979695 0.692565560 0.695998788
1341846112.061964 0.001134822 -0.001785291 0.001104096 0.189228788 -0.020965114 0.697776020 0.690551698
1341846112.094004 0.001134665 -0.001785319 0.001104150 0.190034375 -0.020928867 0.702958822 0.685053170
1341846112.125857 0.001134661 -0.001785305 0.001104177 0.190830991 -0.020911885 0.708088636 0.679526806
1341846112.161882 0.001134769 -0.001785304 0.001104471 0.191589385 -0.020869294 0.713138461 0.674011528
1341846112.193903 0.001135157 -0.001785516 0.001104508 0.192347556 -0.020883294 0.718206465 0.668390393
1341846112.230507 0.001135180 -0.001785553 0.001104441 0.193111971 -0.020862594 0.723213553 0.662747800
1341846112.261848 0.001135366 -0.001785569 0.001104410 0.193911582 -0.020829815 0.728178203 0.657054722
1341846112.293912 0.001135419 -0.001785591 0.001104461 0.194626227 -0.020800855 0.733137786 0.651304066
1341846112.329892 0.001135749 -0.001785683 0.001104380 0.195343643 -0.020794105 0.738029122 0.645539701
1341846112.361751 0.001135968 -0.001785648 0.001104293 0.196104035 -0.020812238 0.742876947 0.639721632
1341846112.393853 0.001135966 -0.001785631 0.001104284 0.196812630 -0.020785602 0.747672975 0.633891106
1341846112.429940 0.001135963 -0.001785615 0.001104286 0.197509900 -0.020757671 0.752425909 0.628024101
1341846112.461839 0.001135986 -0.001785633 0.001104288 0.198195845 -0.020728501 0.757135510 0.622121036
1341846112.498139 0.001136155 -0.001785610 0.001104277 0.198820010 -0.020625750 0.761758208 0.616254628
1341846112.530069 0.001136106 -0.001785583 0.001104204 0.198789015 -0.022004424 0.766168058 0.610725284
1341846112.562160 0.001136035 -0.001785593 0.001104158 0.198456675 -0.024864441 0.770542085 0.605195522
1341846112.597968 0.001135523 -0.001784115 0.001100130 0.198130786 -0.027719216 0.774895370 0.599594057
1341846112.630702 0.001135572 -0.001784113 0.001100125 0.197775900 -0.030576494 0.779179513 0.593994141
1341846112.661861 0.001136281 -0.001785605 0.001104180 0.197489962 -0.033420086 0.783432841 0.588314354
1341846112.698170 0.001136206 -0.001785633 0.001104246 0.195806488 -0.034549799 0.789525568 0.580616474
1341846112.729995 0.001136121 -0.001785434 0.001103468 0.194985941 -0.035712663 0.795598030 0.572476089
1341846112.765875 0.001136281 -0.001785590 0.001104236 0.194184050 -0.036851868 0.801596284 0.564249873
1341846112.798043 0.001136427 -0.001785092 0.001104524 0.193309888 -0.037923336 0.807500124 0.556000531
1341846112.829969 0.001136229 -0.001785205 0.001104412 0.192388907 -0.039234973 0.813341558 0.547651947
1341846112.865900 0.001136315 -0.001785141 0.001104405 0.191457957 -0.040311702 0.819041729 0.539341807
1341846112.897929 0.001136354 -0.001785112 0.001104385 0.190615892 -0.041447714 0.824700892 0.530863464
1341846112.935783 0.001136392 -0.001785036 0.001104434 0.189673632 -0.042585917 0.830261827 0.522374928
1341846112.998277 0.001136558 -0.001784452 0.001104745 0.188699752 -0.043721117 0.835739076 0.513829827
1341846113.033814 0.001136591 -0.001784390 0.001104779 0.187716439 -0.044847436 0.841124833 0.505232930
1341846113.072059 0.001136553 -0.001784210 0.001104841 0.186713338 -0.045968767 0.846421957 0.496583194
1341846113.139948 0.001136744 -0.001783898 0.001104984 0.185690284 -0.047078162 0.851627469 0.487886727
1341846113.198174 0.001136894 -0.001783434 0.001105177 0.184648007 -0.048189700 0.856746554 0.479132801
1341846113.233852 0.001136989 -0.001783248 0.001105334 0.183587775 -0.049310375 0.861780882 0.470316678
1341846113.265850 0.001136559 -0.001782377 0.001104047 0.182506412 -0.050411351 0.866719782 0.461461723
1341846113.301938 0.001137106 -0.001782958 0.001105465 0.181405470 -0.051494360 0.871562719 0.452569187
1341846113.333866 0.001137165 -0.001782609 0.001105537 0.180285349 -0.052597582 0.876322925 0.443608850
1341846113.366028 0.001137154 -0.001782535 0.001105486 0.179146007 -0.053682569 0.880987823 0.434609383
1341846113.401917 0.001137276 -0.001782420 0.001105631 0.177987725 -0.054761786 0.885560274 0.425563693
1341846113.433895 0.001137278 -0.001782309 0.001105612 0.176810667 -0.055835448 0.890039921 0.416472465
1341846113.469984 0.001137276 -0.001782341 0.001105569 0.175614968 -0.056903284 0.894426167 0.407336771
1341846113.501829 0.001137380 -0.001782257 0.001105670 0.174397409 -0.057959836 0.898720682 0.398154885
1341846113.533888 0.001137332 -0.001782235 0.001105610 0.173164874 -0.059015770 0.902918398 0.388933659
1341846113.569800 0.001137345 -0.001782355 0.001105597 0.171914458 -0.060065668 0.907021165 0.379671156
1341846113.601892 0.001137406 -0.001782399 0.001105562 0.170646250 -0.061109222 0.911028326 0.370368659
1341846113.634488 0.001137361 -0.001782382 0.001105613 0.169360295 -0.062146228 0.914939463 0.361027330
1341846113.669776 0.001137296 -0.001782422 0.001105675 0.168059960 -0.063182123 0.918752730 0.351649404
1341846113.701823 0.001137444 -0.001782394 0.001105744 0.166740149 -0.064201608 0.922470331 0.342234403
1341846113.737952 0.001137490 -0.001782342 0.001105638 0.165401533 -0.065218791 0.926091373 0.332781523
1341846113.769790 0.001137356 -0.001782498 0.001105601 0.164045721 -0.066229261 0.929614961 0.323293567
1341846113.801808 0.001137319 -0.001782617 0.001105622 0.162672743 -0.067232765 0.933040559 0.313771755
1341846113.837973 0.001137236 -0.001782567 0.001105566 0.161278799 -0.068228438 0.936369777 0.304213226
1341846113.869842 0.001137085 -0.001782662 0.001105463 0.159882471 -0.069214314 0.939594507 0.294633776
1341846113.901753 0.001137146 -0.001782686 0.001105482 0.158459246 -0.070195526 0.942724049 0.285016805
1341846113.937955 0.001137104 -0.001782561 0.001105518 0.157019287 -0.071168862 0.945754290 0.275370151
1341846113.969840 0.001136903 -0.001782553 0.001105393 0.155562654 -0.072134450 0.948684931 0.265694797
1341846114.005912 0.001136833 -0.001782675 0.001105461 0.154077888 -0.073089823 0.951516330 0.255997151
1341846114.043864 0.001136788 -0.001782572 0.001105609 0.152585521 -0.074037887 0.954247236 0.246268749
1341846114.106082 0.001136857 -0.001782557 0.001105543 0.151076809 -0.074978337 0.956877828 0.236514077
1341846114.137798 0.001136814 -0.001782630 0.001105510 0.149551988 -0.075910784 0.959407687 0.226734698
1341846114.170101 0.001136615 -0.001782606 0.001105447 0.148014724 -0.076830409 0.961835146 0.216937572
1341846114.205882 0.001136453 -0.001782811 0.001105289 0.146458700 -0.077746205 0.964162648 0.207112849
1341846114.237814 0.001136423 -0.001783141 0.001105407 0.144890830 -0.078658208 0.966388702 0.197262138
1341846114.273904 0.001136292 -0.001783253 0.001105270 0.144318014 -0.078826360 0.968185782 0.188613370
1341846114.305813 0.001136205 -0.001783336 0.001105068 0.143729344 -0.078997895 0.969906807 0.179949969
1341846114.337919 0.001136057 -0.001783450 0.001104848 0.143126816 -0.079147227 0.971552730 0.171276852
1341846114.374059 0.001135986 -0.001783559 0.001104683 0.142514989 -0.079298370 0.973121524 0.162590697
1341846114.406296 0.001136031 -0.001783671 0.001104735 0.141895667 -0.079445392 0.974613547 0.153890967
1341846114.441861 0.001135979 -0.001783908 0.001104446 0.141257688 -0.079582371 0.976030350 0.145181611
1341846114.473886 0.001136020 -0.001784025 0.001104416 0.140616298 -0.079716861 0.977369606 0.136458829
1341846114.506009 0.001135922 -0.001784113 0.001104360 0.139959961 -0.079846978 0.978632510 0.127726361
1341846114.541924 0.001135887 -0.001784385 0.001104122 0.139293090 -0.079963222 0.979819417 0.118984327
1341846114.573824 0.001135843 -0.001784474 0.001103963 0.138620898 -0.080074072 0.980928719 0.110232979
1341846114.605897 0.001135863 -0.001784583 0.001103727 0.135499373 -0.079813071 0.982211173 0.102620706
1341846114.641888 0.001135932 -0.001784858 0.001103841 0.134398624 -0.080312155 0.983092308 0.094955064
1341846114.673974 0.001136037 -0.001784946 0.001103852 0.133282959 -0.080777623 0.983916402 0.087287426
1341846114.709730 0.001135703 -0.001785105 0.001103385 0.132861108 -0.080868185 0.984516799 0.080839187
1341846114.741795 0.001135459 -0.001785454 0.001102993 0.132442191 -0.080960952 0.985074222 0.074384697
1341846114.773917 0.001135447 -0.001785722 0.001102670 0.129670560 -0.079506435 0.985906482 0.069661088
1341846114.810044 0.001135347 -0.001786056 0.001102121 0.126898885 -0.078056537 0.986705661 0.064929783
1341846114.841856 0.001135003 -0.001786324 0.001101617 0.130325779 -0.077599749 0.986486495 0.061950013
1341846114.873982 0.001135336 -0.001786581 0.001102052 0.133752853 -0.077142194 0.986246288 0.058970109
1341846114.909807 0.001135266 -0.001786441 0.001101524 0.133754715 -0.077143691 0.986245930 0.058970001
1341846114.909807 0.001135266 -0.001786441 0.001101524 0.133754715 -0.077143691 0.986245930 0.058970001
1341846114.909807 0.001135266 -0.001786441 0.001101524 0.133754715 -0.077143691 0.986245930 0.058970001
1341846114.909807 0.001135266 -0.001786441 0.001101524 0.133754715 -0.077143691 0.986245930 0.058970001
1341846114.909807 0.001135266 -0.001786441 0.001101524 0.133754715 -0.077143691 0.986245930 0.058970001
1341846114.909807 0.001135266 -0.001786441 0.001101524 0.133754715 -0.077143691 0.986245930 0.058970001
1341846114.909807 0.001135266 -0.001786441 0.001101524 0.133754715 -0.077143691 0.986245930 0.058970001
1341846114.909807 0.001135266 -0.001786441 0.001101524 0.133754715 -0.077143691 0.986245930 0.058970001
1341846114.909807 0.001135266 -0.001786441 0.001101524 0.133754715 -0.077143691 0.986245930 0.058970001
1341846114.909807 0.001135266 -0.001786441 0.001101524 0.133754715 -0.077143691 0.986245930 0.058970001
1341846114.909807 0.001135266 -0.001786441 0.001101524 0.133754715 -0.077143691 0.986245930 0.058970001
1341846114.909807 0.001135266 -0.001786441 0.001101524 0.133754715 -0.077143691 0.986245930 0.058970001
1341846114.909807 0.001135266 -0.001786441 0.001101524 0.133754715 -0.077143691 0.986245930 0.058970001
1341846114.909807 0.001135266 -0.001786441 0.001101524 0.133754715 -0.077143691 0.986245930 0.058970001
1341846114.909807 0.001135266 -0.001786441 0.001101524 0.133754715 -0.077143691 0.986245930 0.058970001
1341846114.909807 0.001135266 -0.001786441 0.001101524 0.133754715 -0.077143691 0.986245930 0.058970001
1341846114.909807 0.001135266 -0.001786441 0.001101524 0.133754715 -0.077143691 0.986245930 0.058970001
1341846115.513951 0.001135281 -0.001785601 0.001103239 0.121786423 -0.056074493 0.898054957 0.418952256
1341846115.545891 0.001135340 -0.001785748 0.001103037 0.119497634 -0.058354761 0.897388756 0.420723796
1341846115.577954 0.001135435 -0.001786140 0.001103131 0.114997953 -0.060096089 0.896418631 0.423789561
1341846115.613954 0.001135482 -0.001786418 0.001102943 0.110483944 -0.061844915 0.895423293 0.426832110
1341846115.645824 0.001135514 -0.001786555 0.001102446 0.105974473 -0.063578837 0.894392669 0.429870874
1341846115.645824 0.001135514 -0.001786555 0.001102446 0.105974473 -0.063578837 0.894392669 0.429870874
1341846115.645824 0.001135514 -0.001786555 0.001102446 0.105974473 -0.063578837 0.894392669 0.429870874
1341846115.746144 0.001128155 -0.001778675 0.001085057 0.112960428 -0.058780715 0.848019361 0.514439344
1341846115.781725 0.001135139 -0.001785692 0.001103013 0.112317584 -0.060138550 0.847526610 0.515234709
1341846115.813812 0.001142801 -0.001798367 0.001138401 0.110690467 -0.061206739 0.847065568 0.516218305
1341846115.848050 0.001128913 -0.001776579 0.001082440 0.105691746 -0.054878950 0.829930186 0.545007706
1341846115.881857 0.001135223 -0.001785511 0.001102869 0.102829725 -0.055498537 0.829273343 0.546490252
1341846115.913919 0.001136953 -0.001789573 0.001111759 0.099337384 -0.057324491 0.822305977 0.557367742
1341846115.950006 0.001136251 -0.001788070 0.001108915 0.096963339 -0.054775175 0.815937757 0.567312360
1341846115.982063 0.001135935 -0.001787312 0.001107218 0.094505705 -0.050984886 0.810902774 0.575244248
1341846116.014067 0.001135649 -0.001786588 0.001105719 0.093920298 -0.050614238 0.808036506 0.579391241
1341846116.050272 0.001135588 -0.001786093 0.001104846 0.094912827 -0.050645854 0.805763602 0.582384408
1341846116.081984 0.001135484 -0.001786021 0.001104416 0.094688624 -0.048050202 0.802237988 0.587485671
1341846116.113928 0.001135456 -0.001785959 0.001104391 0.092532977 -0.046448778 0.796550870 0.595639884
1341846116.149901 0.001135493 -0.001785836 0.001104495 0.094516963 -0.047393996 0.791290760 0.602228582
1341846116.181797 0.001135634 -0.001786077 0.001104771 0.097032249 -0.044644490 0.786347270 0.608481348
1341846116.219755 0.001135519 -0.001785868 0.001104421 0.095286541 -0.042185776 0.780746937 0.616096556
1341846116.252587 0.001135491 -0.001785887 0.001104677 0.094688833 -0.041955508 0.776180267 0.621946871
1341846116.282014 0.001135464 -0.001785811 0.001104566 0.096712165 -0.038911015 0.772791207 0.626040280
1341846116.319031 0.001135373 -0.001785799 0.001104195 0.096793607 -0.036968164 0.769919217 0.629673541
1341846116.381987 0.001135342 -0.001785745 0.001103836 0.094605573 -0.035890061 0.766724288 0.633952320
1341846116.417962 0.001135323 -0.001785485 0.001103091 0.093634821 -0.034532644 0.763598800 0.637931764
1341846116.449943 0.001135537 -0.001785504 0.001103110 0.092530601 -0.035048455 0.759674311 0.642732143
1341846116.486079 0.001135501 -0.001785558 0.001102993 0.090926789 -0.033894122 0.754856765 0.648671567
1341846116.517901 0.001135487 -0.001785543 0.001102935 0.089343317 -0.033911005 0.749162078 0.655457079
1341846116.549851 0.001135437 -0.001785557 0.001103013 0.089587785 -0.035262525 0.742826104 0.662525415
1341846116.585719 0.001135519 -0.001785535 0.001102984 0.088399246 -0.035586625 0.735578358 0.670703888
1341846116.617985 0.001135590 -0.001785556 0.001103042 0.085539825 -0.034060869 0.728545904 0.678780973
1341846116.653901 0.001135595 -0.001785516 0.001103243 0.085664652 -0.033021074 0.722647607 0.685092449
1341846116.686079 0.001135561 -0.001785496 0.001103271 0.086961031 -0.032178260 0.718728483 0.689080298
1341846116.717942 0.001135504 -0.001785519 0.001103197 0.085991390 -0.028973781 0.716972649 0.691170216
1341846116.753865 0.001135480 -0.001785503 0.001103160 0.084455118 -0.028849887 0.715902209 0.692473173
1341846116.785839 0.001135509 -0.001785455 0.001103173 0.086098365 -0.031406455 0.715181410 0.692904234
1341846116.818815 0.001135530 -0.001785517 0.001103015 0.087045506 -0.031698830 0.714460850 0.693515599
1341846116.853902 0.001135594 -0.001785598 0.001103028 0.084976457 -0.032740150 0.712496161 0.695741594
1341846116.886435 0.001135519 -0.001785642 0.001103008 0.086693667 -0.034404062 0.708310425 0.699712038
1341846116.921838 0.001135527 -0.001785604 0.001102972 0.089002401 -0.033231121 0.701975226 0.705836415
1341846116.953941 0.001135506 -0.001785634 0.001103068 0.090184815 -0.032177128 0.695531726 0.712086320
1341846116.985759 0.001135544 -0.001785611 0.001103155 0.091866039 -0.032535296 0.689138234 0.718046367
1341846117.021816 0.001135466 -0.001785527 0.001102955 0.094008207 -0.032875117 0.683111846 0.723491490
1341846117.054055 0.001135480 -0.001785603 0.001103079 0.095811136 -0.033062462 0.677071691 0.728904009
1341846117.085953 0.001135444 -0.001785572 0.001103038 0.097600758 -0.033251096 0.670984089 0.734267533
1341846117.121840 0.001135438 -0.001785593 0.001102961 0.099273652 -0.034135181 0.665386677 0.739080548
1341846117.154178 0.001135555 -0.001785473 0.001103000 0.101472743 -0.034309957 0.660477996 0.743165493
1341846117.190028 0.001135535 -0.001785447 0.001103013 0.103969112 -0.034031294 0.656654835 0.746214926
1341846117.221812 0.001135527 -0.001785471 0.001102994 0.104945578 -0.033603903 0.653120697 0.749193251
1341846117.253848 0.001135531 -0.001785448 0.001103033 0.104254164 -0.032290000 0.650004566 0.752052188
1341846117.289976 0.001135522 -0.001785442 0.001102983 0.105284363 -0.033201918 0.647543669 0.753989458
1341846117.321956 0.001135541 -0.001785438 0.001103059 0.107535325 -0.034723110 0.645827770 0.755074143
1341846117.354004 0.001135556 -0.001785497 0.001103071 0.106831267 -0.031902023 0.644998848 0.756006539
1341846117.389874 0.001135554 -0.001785476 0.001103013 0.105572477 -0.030937143 0.643995821 0.757077754
1341846117.421707 0.001135538 -0.001785479 0.001102921 0.107279196 -0.033765573 0.642464399 0.758017540
1341846117.457914 0.001135556 -0.001785540 0.001102941 0.108665027 -0.032812957 0.641211092 0.758922637
1341846117.490067 0.001135603 -0.001785543 0.001102914 0.107681006 -0.032180592 0.639650881 0.760405123
1341846117.521746 0.001135559 -0.001785487 0.001102901 0.108451195 -0.035133082 0.637205064 0.762216330
1341846117.557896 0.001135586 -0.001785507 0.001103000 0.110936418 -0.035624336 0.635019183 0.763658702
1341846117.590027 0.001135548 -0.001785471 0.001102934 0.112165511 -0.035168771 0.633112252 0.765082359
1341846117.621818 0.001135520 -0.001785466 0.001102984 0.114093527 -0.035451088 0.631687164 0.765961647
1341846117.658054 0.001135588 -0.001785443 0.001103168 0.118019685 -0.035307765 0.631165385 0.765803456
1341846117.689984 0.001135569 -0.001785458 0.001103142 0.120261393 -0.033762809 0.631294370 0.765417933
1341846117.725898 0.001135556 -0.001785485 0.001103171 0.122502200 -0.032217581 0.631418645 0.765026629
1341846117.757737 0.001135542 -0.001785488 0.001103115 0.126699328 -0.031701930 0.631541371 0.764262915
1341846117.790023 0.001135497 -0.001785501 0.001103073 0.129924864 -0.032030337 0.631424963 0.763803720
1341846117.825949 0.001135518 -0.001785523 0.001103110 0.131745905 -0.031592112 0.631061018 0.763810813
1341846117.857847 0.001135552 -0.001785526 0.001103259 0.132273316 -0.029625198 0.630638123 0.764147699
1341846117.893987 0.001135539 -0.001785495 0.001103251 0.133199424 -0.029270403 0.630253196 0.764318049
1341846117.925908 0.001135431 -0.001785499 0.001103230 0.134130836 -0.028927928 0.629867911 0.764485776
1341846117.958141 0.001135431 -0.001785496 0.001103249 0.133465737 -0.027134923 0.630163670 0.764424205
1341846117.993978 0.001135364 -0.001785450 0.001103263 0.132798478 -0.025347121 0.630457520 0.764359415
1341846118.025852 0.001135361 -0.001785412 0.001103387 0.132733703 -0.026305322 0.630752206 0.764095187
1341846118.058362 0.001135352 -0.001785406 0.001103373 0.132669225 -0.027264545 0.631047368 0.763828993
1341846118.093970 0.001135395 -0.001785377 0.001103390 0.131935120 -0.027049165 0.632120609 0.763076067
1341846118.125943 0.001135447 -0.001785374 0.001103358 0.131184414 -0.028359527 0.633694291 0.761851668
1341846118.161827 0.001135458 -0.001785438 0.001103321 0.130435720 -0.029669153 0.635265470 0.760620832
1341846118.194750 0.001135493 -0.001785497 0.001103246 0.129954681 -0.028140064 0.637515068 0.758877099
1341846118.226048 0.001135484 -0.001785527 0.001103247 0.129472867 -0.026611213 0.639757812 0.757125199
1341846118.261772 0.001135458 -0.001785566 0.001103203 0.130208641 -0.026504477 0.641590357 0.755450249
1341846118.294053 0.001135511 -0.001785546 0.001103193 0.130942270 -0.026392804 0.643419027 0.753770173
1341846118.336123 0.001135578 -0.001785515 0.001103246 0.131671980 -0.026277220 0.645243824 0.752085447
1341846118.362053 0.001135486 -0.001785556 0.001103165 0.130965635 -0.025868926 0.646690428 0.750979602
1341846118.393906 0.001135566 -0.001785685 0.001103197 0.129459783 -0.024927761 0.647603631 0.750485361
1341846118.429882 0.001135593 -0.001785670 0.001103121 0.127950490 -0.023995012 0.648515940 0.749986649
1341846118.461821 0.001135588 -0.001785657 0.001103106 0.127546519 -0.025352588 0.648848474 0.749723136
1341846118.509152 0.001135593 -0.001785670 0.001103121 0.127142280 -0.026709922 0.649179518 0.749458075
1341846118.535838 0.001135653 -0.001785611 0.001103090 0.126737446 -0.028064756 0.649509311 0.749191284
1341846118.567808 0.001135781 -0.001785594 0.001103227 0.126331538 -0.029415321 0.649838388 0.748922646
1341846118.603991 0.001135702 -0.001785618 0.001103137 0.125926882 -0.030761342 0.650166273 0.748652101
1341846118.635802 0.001135995 -0.001785524 0.001103180 0.125525042 -0.032093260 0.650493681 0.748379230
1341846118.667919 0.001136050 -0.001785439 0.001103166 0.125119939 -0.033434961 0.650819540 0.748104990
1341846118.703956 0.001136083 -0.001785453 0.001103149 0.124714941 -0.034775808 0.651144266 0.747828841
1341846118.735837 0.001136281 -0.001785377 0.001103178 0.124308020 -0.036112819 0.651468575 0.747550666
1341846118.772013 0.001136341 -0.001785250 0.001103156 0.123891443 -0.037441749 0.651793778 0.747271001
1341846118.804343 0.001136374 -0.001785230 0.001103160 0.123483807 -0.038775902 0.652115226 0.746989846
1341846118.835817 0.001136472 -0.001785245 0.001103174 0.123085000 -0.040117394 0.652432621 0.746707618
1341846118.872045 0.001136544 -0.001785142 0.001103136 0.122667931 -0.041443311 0.652754247 0.746422708
1341846118.903860 0.001136592 -0.001785151 0.001103167 0.122259595 -0.042776570 0.653071702 0.746136785
1341846118.935809 0.001136710 -0.001785101 0.001103195 0.121858373 -0.044109173 0.653379858 0.745855033
1341846118.971870 0.001136815 -0.001785024 0.001103209 0.121450774 -0.045445178 0.653694510 0.745565474
1341846119.003949 0.001136895 -0.001785028 0.001103214 0.121041924 -0.046777137 0.654007494 0.745275080
1341846119.035768 0.001137176 -0.001784955 0.001103253 0.120638333 -0.048119001 0.654319286 0.744981349
1341846119.071829 0.001137447 -0.001784792 0.001103374 0.120229095 -0.049450342 0.654629707 0.744687617
1341846119.103837 0.001137611 -0.001784686 0.001103212 0.119816072 -0.050779268 0.654943287 0.744388878
1341846119.136478 0.001137681 -0.001784674 0.001103172 0.119406641 -0.052109648 0.655251026 0.744091868
1341846119.171928 0.001137909 -0.001784579 0.001103220 0.118997902 -0.053438313 0.655549765 0.743799925
1341846119.203919 0.001138080 -0.001784491 0.001103194 0.118587919 -0.054759718 0.655859232 0.743496418
1341846119.266059 0.001138244 -0.001784669 0.001103075 0.118181653 -0.056100711 0.656171918 0.743185163
1341846119.297817 0.001138341 -0.001784669 0.001103101 0.117772430 -0.057425924 0.656474471 0.742881715
1341846119.334095 0.001138347 -0.001784675 0.001102993 0.117367648 -0.058753680 0.656777799 0.742573738
1341846119.365757 0.001138463 -0.001784779 0.001102942 0.116959400 -0.060083903 0.657078624 0.742265522
1341846119.401815 0.001138626 -0.001784774 0.001102879 0.116554938 -0.061403017 0.657377183 0.741956770
1341846119.434863 0.001138683 -0.001784721 0.001102863 0.116146088 -0.062726207 0.657674491 0.741646647
1341846119.465868 0.001138776 -0.001784662 0.001102936 0.115730211 -0.064040333 0.657961130 0.741345048
1341846119.501761 0.001138918 -0.001784610 0.001102973 0.115321942 -0.065361910 0.658255398 0.741032004
1341846119.533772 0.001139049 -0.001784574 0.001102935 0.114911288 -0.066676565 0.658549845 0.740716994
1341846119.565854 0.001139107 -0.001784554 0.001102950 0.114502810 -0.067996696 0.658837676 0.740404248
