1341846092.023798 0.000000000 0.000000000 0.000000000 0.000000000 0.000000000 0.000000000 1.000000000
1341846092.059891 0.000352435 0.000809598 0.000309005 0.001550776 0.000557908 -0.001804507 0.999997020
1341846092.091861 0.000650949 -0.000816946 -0.000069474 0.002621754 0.000952082 -0.002011558 0.999994099
1341846092.123884 0.000818340 0.000394964 -0.000241590 0.004302394 0.001013033 -0.002086797 0.999988019
1341846092.159881 -0.000716520 -0.001139211 0.000695008 0.005460372 0.001268330 -0.000590625 0.999984086
1341846092.191824 0.001061100 0.000329352 0.000025271 0.007190145 0.000542368 0.000533712 0.999973834
1341846092.227766 0.003073436 0.003462286 -0.001060159 0.008823289 0.000738339 -0.000526032 0.999960661
1341846092.259844 0.001855610 0.005714326 -0.000084334 0.008512202 0.001303757 -0.001064089 0.999962330
1341846092.291754 0.002641907 0.001757417 0.002272417 0.008538494 0.000991491 -0.002366137 0.999960244
1341846092.327827 0.004389958 -0.002588926 0.000470950 0.010210996 0.001058795 -0.003065229 0.999942601
1341846092.359956 0.001391624 -0.002477915 0.000560852 0.013085721 0.001522491 -0.003843166 0.999905825
1341846092.395855 0.001568350 -0.002876862 0.002166858 0.015886517 0.001401460 -0.005841448 0.999855757
1341846092.428016 0.000392264 -0.001804576 0.002248643 0.018715154 0.002159361 -0.008622109 0.999785364
1341846092.459991 0.002256365 -0.002855114 0.001775598 0.021208435 0.002311875 -0.010983745 0.999712050
1341846092.495930 0.002597732 -0.003578719 0.002487275 0.024552025 0.002585515 -0.013290111 0.999606848
1341846092.528072 0.004783914 -0.007425993 0.001621021 0.027534120 0.002525632 -0.016000181 0.999489605
1341846092.559842 0.005665708 -0.007692414 -0.000337366 0.032297377 0.004211121 -0.018554127 0.999297202
1341846092.595783 0.006039228 -0.003194385 0.003357413 0.037929453 0.004985674 -0.018540727 0.999095976
1341846092.628121 0.006039794 -0.003190921 0.003349290 0.042390428 0.004028881 -0.018218674 0.998926878
1341846092.659797 0.007307123 0.001112452 0.003706855 0.047809057 0.005032578 -0.019957419 0.998644412
1341846092.696012 0.006080089 -0.002639625 0.002301512 0.049643241 0.007044285 -0.020214172 0.998537600
1341846092.727906 0.006182390 -0.004218049 0.005422997 0.052797001 0.007176290 -0.020137237 0.998376429
1341846092.760105 0.006042961 -0.003192165 0.003366987 0.059983801 0.006885294 -0.018904105 0.997996569
1341846092.795871 0.006334628 -0.002944288 0.002671953 0.064954422 0.005072498 -0.017323112 0.997724950
1341846092.827857 0.007084437 -0.001893976 0.004904628 0.071281873 0.005366322 -0.021643147 0.997206926
1341846092.863824 0.007699836 -0.000085622 0.003725771 0.075795084 0.008076894 -0.028043821 0.996696234
1341846092.895885 0.006041569 -0.002299894 0.003674441 0.076849386 0.008413605 -0.030006183 0.996555567
1341846092.927920 0.006039609 -0.003182572 0.003369432 0.081675850 0.008182829 -0.030858222 0.996147513
1341846092.963849 0.005916539 -0.003134194 0.003525486 0.087701567 0.009539848 -0.030323092 0.995639443
1341846092.995760 0.006040223 -0.003181673 0.003370055 0.092902333 0.009723171 -0.029775491 0.995182395
1341846093.027860 0.006187405 -0.003160551 0.003778448 0.101155534 0.009293336 -0.028595801 0.994416118
1341846093.063741 0.006029559 -0.003213466 0.003530366 0.108696222 0.009829880 -0.026236285 0.993680120
1341846093.125933 0.006032205 -0.003176187 0.003377234 0.116410613 0.013295445 -0.031075699 0.992625833
1341846093.157795 0.006034116 -0.003225772 0.003450103 0.122357562 0.014589256 -0.027558276 0.991996109
1341846093.189822 0.006023456 -0.003163163 0.003429192 0.127607256 0.012383271 -0.024299731 0.991449714
1341846093.225887 0.006030889 -0.003170479 0.003373489 0.132926255 0.013044843 -0.023278534 0.990766644
1341846093.257900 0.006044686 -0.003175767 0.003398938 0.138009474 0.015004948 -0.023757024 0.990032256
1341846093.289744 0.006033736 -0.003170076 0.003399967 0.143596366 0.016477738 -0.023048740 0.989230692
1341846093.325795 0.006031896 -0.003171963 0.003404661 0.149735510 0.017002381 -0.021956675 0.988336027
1341846093.357904 0.006028418 -0.003165164 0.003375169 0.153983071 0.018034382 -0.022836087 0.987644911
1341846093.393841 0.006041043 -0.003176718 0.003390395 0.157778218 0.019255726 -0.023057016 0.987017512
1341846093.425924 0.006030345 -0.003154710 0.003383198 0.164514378 0.018536378 -0.020423003 0.985989034
1341846093.457796 0.006031990 -0.003175501 0.003397611 0.170805633 0.018023439 -0.019049127 0.984955728
1341846093.493817 0.006029273 -0.003171972 0.003395915 0.176263407 0.018499771 -0.017349014 0.984016240
1341846093.525871 0.006025941 -0.003155302 0.003385470 0.182506934 0.018848121 -0.014432570 0.982917905
1341846093.561833 0.006021739 -0.003141682 0.003387299 0.189792514 0.018721053 -0.010731660 0.981587052
1341846093.593995 0.006025422 -0.003152088 0.003389891 0.195214540 0.018480122 -0.010711256 0.980527937
1341846093.625945 0.006023110 -0.003148549 0.003379610 0.198805228 0.019852057 -0.011457920 0.979770958
1341846093.661809 0.006023854 -0.003142700 0.003396536 0.204979181 0.019848542 -0.012855250 0.978480637
1341846093.693938 0.006025343 -0.003150685 0.003391434 0.210438058 0.019979799 -0.013839932 0.977304995
1341846093.725842 0.006026383 -0.003148928 0.003392932 0.216127157 0.018816249 -0.012822689 0.976099670
1341846093.761995 0.006025315 -0.003140777 0.003393118 0.224513188 0.017182197 -0.011859969 0.974247396
1341846093.794228 0.006031357 -0.003134978 0.003391704 0.232190236 0.013601393 -0.007240352 0.972548306
1341846093.829820 0.006026857 -0.003147410 0.003400513 0.238459915 0.011112212 -0.005809117 0.971071362
1341846093.861841 0.006025359 -0.003147270 0.003394623 0.242855176 0.012694818 -0.008887205 0.969938755
1341846093.893823 0.006025964 -0.003131019 0.003405981 0.251702875 0.012327219 -0.011102016 0.967662334
1341846093.929912 0.006024930 -0.003127456 0.003398207 0.259506553 0.009395525 -0.010545864 0.965638041
1341846093.961968 0.006019276 -0.003127147 0.003405371 0.267696589 0.009488895 -0.006774385 0.963432729
1341846093.994029 0.006021002 -0.003130379 0.003406956 0.273276418 0.009997110 -0.006586638 0.961861014
1341846094.029902 0.006018135 -0.003129173 0.003397805 0.276429296 0.010561773 -0.008643749 0.960937321
1341846094.062046 0.006012976 -0.003123816 0.003391635 0.280697346 0.012422469 -0.009075741 0.959673047
1341846094.097921 0.006018292 -0.003126945 0.003402849 0.285643458 0.013143928 -0.007199209 0.958218813
1341846094.129856 0.006016552 -0.003125250 0.003399689 0.287352920 0.014030873 -0.006854762 0.957697451
1341846094.161786 0.006017025 -0.003127004 0.003400781 0.289888144 0.015900020 -0.008033802 0.956894696
1341846094.197938 0.006017140 -0.003127018 0.003400349 0.289162368 0.019810956 -0.009606085 0.957026839
1341846094.229967 0.006017254 -0.003127143 0.003400736 0.290389001 0.021631956 -0.008126718 0.956629634
1341846094.261795 0.006017069 -0.003128767 0.003397138 0.288803309 0.022466941 -0.007957670 0.957091689
1341846094.297927 0.006017068 -0.003128892 0.003397455 0.286518872 0.024613161 -0.009210153 0.957714081
1341846094.329846 0.006017039 -0.003126761 0.003399972 0.284561247 0.026794378 -0.010812920 0.958222330
1341846094.366053 0.006017056 -0.003126678 0.003399780 0.281242460 0.025752774 -0.009550347 0.959243596
1341846094.397911 0.006018119 -0.003126513 0.003401607 0.278023422 0.023397265 -0.007878716 0.960256994
1341846094.429746 0.006018088 -0.003131227 0.003394455 0.271028399 0.024056800 -0.008401593 0.962234020
1341846094.466133 0.006018248 -0.003131377 0.003394735 0.263656497 0.023217337 -0.008078444 0.964303374
1341846094.497922 0.006018549 -0.003127457 0.003401781 0.258197427 0.020211311 -0.005695427 0.965863943
1341846094.533970 0.006018245 -0.003126588 0.003401215 0.251727164 0.017890982 -0.000770388 0.967632532
1341846094.565945 0.006019009 -0.003126688 0.003403104 0.244341910 0.014792119 0.002718320 0.969572484
1341846094.597899 0.006019271 -0.003126847 0.003403423 0.236515716 0.014640708 0.004085418 0.971508741
1341846094.633912 0.006018837 -0.003141904 0.003391235 0.225917205 0.013910953 0.007845979 0.974015594
1341846094.665844 0.006018938 -0.003141586 0.003391057 0.218783766 0.011670482 0.010362281 0.975648522
1341846094.697961 0.006022216 -0.003141757 0.003387527 0.211028367 0.013025999 0.009659856 0.977345407
1341846094.733999 0.006022377 -0.003142197 0.003387752 0.205055490 0.016363924 0.011689818 0.978543699
1341846094.767923 0.006022411 -0.003142167 0.003387987 0.199663684 0.016838586 0.015377991 0.979599118
1341846094.801844 0.006019181 -0.003142146 0.003391747 0.193705350 0.013241129 0.021832624 0.980727434
1341846094.833846 0.006022245 -0.003141920 0.003387918 0.187718406 0.012948054 0.021533910 0.981901407
1341846094.866031 0.006022242 -0.003142217 0.003387821 0.178866446 0.016321661 0.021283252 0.983507693
1341846094.901923 0.006018719 -0.003159435 0.003387965 0.168047100 0.016426060 0.022455990 0.985386252
1341846094.966365 0.006018971 -0.003159513 0.003387359 0.150243968 0.012897293 0.027100071 0.988193333
1341846095.002198 0.006018845 -0.003160489 0.003387166 0.138431698 0.015208879 0.022912310 0.989990056
1341846095.034722 0.006014139 -0.003168810 0.003379897 0.127464786 0.015706981 0.025736468 0.991384685
1341846095.075946 0.006014454 -0.003168508 0.003381619 0.122963436 0.017062068 0.027859407 0.991873324
1341846095.134021 0.006013961 -0.003168488 0.003384346 0.114971563 0.020621039 0.031281807 0.992661953
1341846095.169946 0.006014689 -0.003168844 0.003383572 0.112468265 0.020593297 0.034884442 0.992829263
1341846095.201911 0.006015286 -0.003167447 0.003380702 0.108221054 0.019643907 0.037779886 0.993214488
1341846095.233880 0.006014696 -0.003168565 0.003381108 0.102236763 0.019353064 0.038103420 0.993841648
1341846095.269927 0.006012443 -0.003185007 0.003376866 0.096738353 0.020318825 0.040039003 0.994296610
1341846095.301803 0.006012365 -0.003183489 0.003376693 0.090595230 0.017766140 0.042700592 0.994813323
1341846095.337767 0.005995452 -0.003197518 0.003331222 0.084251367 0.015932869 0.045203079 0.995291173
1341846095.369772 0.006002561 -0.003200828 0.003361621 0.077675939 0.016797418 0.045764763 0.995786071
1341846095.401800 0.006008375 -0.003198970 0.003360862 0.072756968 0.017620524 0.046104133 0.996127665
1341846095.437762 0.006009091 -0.003200439 0.003349854 0.067853518 0.016711997 0.047899134 0.996404707
1341846095.469900 0.005999787 -0.003201365 0.003368411 0.064021133 0.017753055 0.050976641 0.996487617
1341846095.501905 0.006001027 -0.003201434 0.003363754 0.060230885 0.018873358 0.052022658 0.996649265
1341846095.538219 0.006001539 -0.003209328 0.003358823 0.053613037 0.019699812 0.051091485 0.997059286
1341846095.569934 0.006000340 -0.003206374 0.003362853 0.048518445 0.020776270 0.049414881 0.997382820
1341846095.606238 0.006000247 -0.003205158 0.003362486 0.044066042 0.021150025 0.050109778 0.997546911
1341846095.637875 0.005996902 -0.003206317 0.003366786 0.040608149 0.021251179 0.052765548 0.997554600
1341846095.669890 0.005998796 -0.003206389 0.003359883 0.037318990 0.021000439 0.053843178 0.997630775
1341846095.705878 0.005998560 -0.003205475 0.003359748 0.033019733 0.023485171 0.051358312 0.997857988
1341846095.737902 0.005999818 -0.003206474 0.003362264 0.029204581 0.024773376 0.053773321 0.997818530
1341846095.773812 0.005999075 -0.003205603 0.003358699 0.025930248 0.024995755 0.055703465 0.997797549
1341846095.838106 0.006000365 -0.003206403 0.003362546 0.017040949 0.027065506 0.053869072 0.998035669
1341846095.873871 0.006001472 -0.003206650 0.003354157 0.012068620 0.029212203 0.051516518 0.998171866
1341846095.905980 0.006000399 -0.003205989 0.003361141 0.005643697 0.028970864 0.055047456 0.998047411
1341846095.937932 0.006000211 -0.003206144 0.003362796 0.001066797 0.027613742 0.056089044 0.998043299
1341846095.973926 0.006000441 -0.003206057 0.003362373 -0.002959816 0.028860260 0.056443561 0.997984171
1341846096.005891 0.006000522 -0.003206213 0.003361879 -0.008793575 0.028597368 0.058243793 0.997853935
1341846096.041838 0.006000397 -0.003205957 0.003361844 -0.013642918 0.027321612 0.057621814 0.997871280
1341846096.073937 0.006000296 -0.003206244 0.003362354 -0.018408256 0.027344242 0.055509914 0.997913837
1341846096.105773 0.006000364 -0.003206325 0.003362207 -0.024401939 0.027841760 0.053262372 0.997894049
1341846096.141944 0.006000427 -0.003206119 0.003362224 -0.030933050 0.027709264 0.052655574 0.997748852
1341846096.173951 0.006000475 -0.003205763 0.003361496 -0.033772852 0.026952483 0.050690196 0.997779250
1341846096.205991 0.006000251 -0.003206030 0.003362390 -0.035027206 0.027182290 0.050165638 0.997756302
1341846096.241942 0.006000322 -0.003205903 0.003361576 -0.037349861 0.026416529 0.051743567 0.997612000
1341846096.273909 0.006000386 -0.003206366 0.003362564 -0.040438365 0.025252867 0.051926401 0.997512221
1341846096.309891 0.006000407 -0.003206420 0.003362308 -0.044400748 0.025833761 0.050205741 0.997416914
1341846096.341861 0.006000399 -0.003206359 0.003362430 -0.047974799 0.025368085 0.050075199 0.997269928
1341846096.374240 0.006000443 -0.003206362 0.003361939 -0.048987843 0.024258042 0.050011761 0.997251511
1341846096.409718 0.006000414 -0.003206349 0.003362209 -0.050299693 0.024961023 0.049432378 0.997197747
1341846096.441905 0.006000403 -0.003206348 0.003362383 -0.053472728 0.025262436 0.047903761 0.997099638
1341846096.473846 0.006000411 -0.003206359 0.003362334 -0.056605384 0.024438016 0.045239065 0.997071743
1341846096.510050 0.006000398 -0.003206361 0.003362582 -0.058928072 0.024654638 0.042456549 0.997054160
1341846096.542063 0.006000412 -0.003206364 0.003362247 -0.060189608 0.025907582 0.040356722 0.997034252
1341846096.577955 0.006000411 -0.003206355 0.003362369 -0.062346432 0.026188290 0.039830495 0.996915519
1341846096.609941 0.006000453 -0.003206382 0.003361924 -0.067165770 0.025261562 0.039640468 0.996633947
1341846096.641875 0.006000379 -0.003206372 0.003362566 -0.072712176 0.024723843 0.038049534 0.996320188
1341846096.677902 0.006000360 -0.003206398 0.003362790 -0.075965248 0.025794793 0.035654716 0.996138871
1341846096.709906 0.006000401 -0.003206406 0.003362403 -0.080883220 0.025751520 0.034894161 0.995779693
1341846096.745991 0.006000364 -0.003206370 0.003362704 -0.086303651 0.024979031 0.034622937 0.995353699
1341846096.777870 0.006000391 -0.003206368 0.003362550 -0.090256035 0.025753349 0.033431999 0.995024085
1341846096.810244 0.006000369 -0.003206389 0.003362856 -0.097657822 0.026336344 0.032158785 0.994351625
1341846096.845763 0.006000369 -0.003206370 0.003362764 -0.104986958 0.026544636 0.030856423 0.993640304
1341846096.878199 0.006000369 -0.003206455 0.003362557 -0.111300826 0.026581567 0.029496603 0.992993176
1341846096.909946 0.006000371 -0.003206475 0.003362585 -0.117771067 0.026654359 0.028146781 0.992283821
1341846096.945914 0.006000368 -0.003206454 0.003362622 -0.123141207 0.025951015 0.027519137 0.991668046
1341846096.978058 0.006000383 -0.003206390 0.003362571 -0.129215226 0.026138745 0.026968537 0.990905106
1341846097.014061 0.006000398 -0.003206359 0.003362639 -0.135744750 0.026985159 0.026313912 0.990026653
1341846097.045960 0.006000389 -0.003206364 0.003362528 -0.143872172 0.027861804 0.025490815 0.988875449
1341846097.078464 0.006000377 -0.003206374 0.003362491 -0.150730535 0.028505977 0.024496404 0.987860143
1341846097.113795 0.006000394 -0.003206405 0.003362565 -0.157578692 0.029149199 0.023500685 0.986796319
1341846097.146138 0.006000385 -0.003206494 0.003362586 -0.162995115 0.030789407 0.022350015 0.985893011
1341846097.178019 0.006000355 -0.003206532 0.003362612 -0.168404728 0.032428119 0.021199048 0.984956264
1341846097.213933 0.006000249 -0.003206650 0.003362665 -0.173809037 0.034064960 0.020047674 0.983985782
1341846097.246080 0.006000161 -0.003206735 0.003362644 -0.179206625 0.035701014 0.018895356 0.982981920
1341846097.282030 0.006000147 -0.003206803 0.003362695 -0.184598148 0.037335645 0.017742144 0.981944382
1341846097.313977 0.006000109 -0.003206891 0.003362740 -0.189983130 0.038969226 0.016589398 0.980873406
1341846097.345922 0.006000017 -0.003206898 0.003362801 -0.195361733 0.040601272 0.015435484 0.979768872
1341846097.381852 0.006000021 -0.003206881 0.003362801 -0.200733781 0.042231787 0.014280433 0.978630900
1341846097.413864 0.006000031 -0.003206932 0.003362740 -0.206098482 0.043861002 0.013126247 0.977459610
1341846097.445910 0.006000013 -0.003206884 0.003362733 -0.211456448 0.045488540 0.011971079 0.976254940
1341846097.481979 0.005999958 -0.003206752 0.003362727 -0.216807395 0.047114618 0.010815708 0.975016832
1341846097.514061 0.005999958 -0.003206720 0.003362714 -0.222150952 0.048738722 0.009659886 0.973745465
1341846097.550048 0.005999949 -0.003206671 0.003362689 -0.227487490 0.050360810 0.008503754 0.972440720
1341846097.587812 0.005999896 -0.003206599 0.003362668 -0.232815802 0.051981427 0.007347405 0.971102834
1341846097.649731 0.005999906 -0.003206489 0.003362666 -0.238136023 0.053600330 0.006190566 0.969731867
1341846097.681970 0.005999864 -0.003206487 0.003362656 -0.243448317 0.055217028 0.005033765 0.968327761
1341846097.714026 0.005999816 -0.003206530 0.003362717 -0.248752192 0.056831680 0.003876950 0.966890633
1341846097.749749 0.005999780 -0.003206642 0.003362763 -0.254047662 0.058444478 0.002719912 0.965420425
1341846097.782019 0.005999713 -0.003206696 0.003362751 -0.259334445 0.060055353 0.001562770 0.963917255
1341846097.817835 0.005999669 -0.003206751 0.003362801 -0.264612347 0.061664030 0.000405594 0.962381244
1341846097.849998 0.005999605 -0.003206968 0.003362865 -0.269881219 0.063270584 -0.000751661 0.960812390
1341846097.882032 0.005999526 -0.003207123 0.003362915 -0.275140882 0.064874962 -0.001908843 0.959210634
1341846097.917945 0.005999452 -0.003207270 0.003362993 -0.280391097 0.066477098 -0.003065892 0.957576215
1341846097.949812 0.005999416 -0.003207471 0.003363112 -0.285631776 0.068076968 -0.004222919 0.955909073
1341846097.985786 0.005999376 -0.003207777 0.003363200 -0.290862650 0.069674559 -0.005379745 0.954209328
1341846098.017778 0.005999335 -0.003208021 0.003363336 -0.296083629 0.071269743 -0.006536457 0.952476978
1341846098.050033 0.005999336 -0.003208230 0.003363517 -0.301294655 0.072862469 -0.007693170 0.950712025
1341846098.085962 0.005999280 -0.003208678 0.003363569 -0.306495190 0.074452706 -0.008849417 0.948914707
1341846098.117764 0.005999317 -0.003208890 0.003363580 -0.311685354 0.076040387 -0.010005427 0.947084963
1341846098.149904 0.005999342 -0.003208940 0.003363747 -0.316864908 0.077625468 -0.011160962 0.945222914
1341846098.185874 0.005999234 -0.003209289 0.003363787 -0.322033614 0.079207860 -0.012316396 0.943328559
1341846098.217722 0.005999191 -0.003209598 0.003363986 -0.327191293 0.080787592 -0.013471299 0.941402018
1341846098.253811 0.005999198 -0.003209948 0.003364160 -0.332337767 0.082364529 -0.014625741 0.939443350
1341846098.285939 0.005999201 -0.003210269 0.003364440 -0.337472916 0.083938643 -0.015779691 0.937452555
1341846098.319650 0.005999208 -0.003210721 0.003364674 -0.342596471 0.085509919 -0.016933013 0.935429811
1341846098.353827 0.005999243 -0.003211048 0.003364964 -0.347708374 0.087078251 -0.018085836 0.933375180
1341846098.385963 0.005999272 -0.003211354 0.003365209 -0.352808356 0.088643618 -0.019238044 0.931288600
1341846098.418076 0.005999312 -0.003211793 0.003365305 -0.357896388 0.090205774 -0.020390272 0.929170251
1341846098.453988 0.005999336 -0.003212022 0.003365424 -0.362972111 0.091765024 -0.021541154 0.927020192
1341846098.485927 0.005999301 -0.003212245 0.003365616 -0.368035287 0.093321271 -0.022691278 0.924838483
1341846098.521907 0.005999235 -0.003212542 0.003365800 -0.373086095 0.094874211 -0.023840616 0.922625244
1341846098.553851 0.005999221 -0.003212790 0.003366067 -0.378124297 0.096423775 -0.024989089 0.920380354
1341846098.585937 0.005999174 -0.003213080 0.003366287 -0.383149415 0.097970188 -0.026136622 0.918104172
1341846098.621830 0.005999102 -0.003213450 0.003366570 -0.388161361 0.099513501 -0.027282899 0.915796578
1341846098.653874 0.005999058 -0.003213779 0.003366804 -0.393160194 0.101053223 -0.028428474 0.913457751
1341846098.685832 0.005998986 -0.003214097 0.003367049 -0.398145229 0.102589794 -0.029572532 0.911087871
1341846098.721860 0.005998925 -0.003214457 0.003367299 -0.403117299 0.104122348 -0.030715920 0.908686697
1341846098.753828 0.005998826 -0.003214841 0.003367589 -0.408075303 0.105651654 -0.031858105 0.906254590
1341846098.789998 0.005998764 -0.003215226 0.003367900 -0.413019329 0.107177302 -0.032999467 0.903791487
1341846098.827945 0.005998708 -0.003215613 0.003368236 -0.417949229 0.108699284 -0.034139704 0.901297629
1341846098.889904 0.005998557 -0.003216210 0.003368826 -0.422864884 0.110217735 -0.035278790 0.898772955
1341846098.921923 0.005998500 -0.003216591 0.003369184 -0.427766055 0.111732252 -0.036416769 0.896217585
1341846098.957887 0.005998454 -0.003216969 0.003369391 -0.432652622 0.113242768 -0.037553556 0.893631637
1341846098.990630 0.005998279 -0.003217249 0.003369813 -0.437524706 0.114749894 -0.038688317 0.891015053
1341846099.022028 0.005998207 -0.003217505 0.003370196 -0.442381680 0.116252758 -0.039822489 0.888368130
1341846099.058015 0.005998176 -0.003217853 0.003370525 -0.447223604 0.117751628 -0.040955313 0.885690868
1341846099.089878 0.005998088 -0.003218055 0.003370926 -0.452050298 0.119246460 -0.042086795 0.882983327
1341846099.121774 0.005998017 -0.003218349 0.003371279 -0.456861347 0.120736666 -0.043218557 0.880245745
1341846099.157775 0.005997953 -0.003218584 0.003371563 -0.461656988 0.122223265 -0.044347219 0.877478004
1341846099.189822 0.005997905 -0.003218754 0.003371829 -0.466436863 0.123705663 -0.045474403 0.874680281
1341846099.226178 0.005997885 -0.003218919 0.003372143 -0.471200973 0.125182658 -0.046601437 0.871852756
1341846099.264156 0.005997800 -0.003219121 0.003372333 -0.475948811 0.126656562 -0.047725495 0.868995488
1341846099.300270 0.005997763 -0.003219259 0.003372567 -0.480680346 0.128126144 -0.048847876 0.866108537
1341846099.332076 0.005997769 -0.003219324 0.003372808 -0.485395223 0.129593372 -0.049964517 0.863192081
1341846099.363831 0.005997772 -0.003219429 0.003372954 -0.490093857 0.131054178 -0.051083416 0.860246062
1341846099.399799 0.005997796 -0.003219521 0.003373032 -0.494775742 0.132510513 -0.052200582 0.857270658
1341846099.432113 0.005997881 -0.003219603 0.003373150 -0.499440342 0.133961737 -0.053317968 0.854266226
1341846099.463909 0.005997992 -0.003219703 0.003373262 -0.504088342 0.135409027 -0.054431610 0.851232409
1341846099.499765 0.005998106 -0.003219854 0.003373348 -0.508719027 0.136851683 -0.055543445 0.848169506
1341846099.564678 0.005998736 -0.003220041 0.003373585 -0.513332665 0.138289392 -0.056653224 0.845077515
1341846099.626222 0.005999268 -0.003220325 0.003373682 -0.517928481 0.139722571 -0.057761725 0.841956854
1341846099.657825 0.005999513 -0.003220502 0.003373806 -0.522507131 0.141149700 -0.058872119 0.838806987
1341846099.693870 0.005999794 -0.003220600 0.003373913 -0.527067423 0.142573223 -0.059976920 0.835628867
1341846099.725881 0.006000084 -0.003220737 0.003374077 -0.531609714 0.143991917 -0.061079696 0.832422197
1341846099.761986 0.006000329 -0.003221092 0.003374176 -0.536133587 0.145405859 -0.062181067 0.829187214
1341846099.793945 0.006000645 -0.003221210 0.003374424 -0.540639400 0.146814838 -0.063279420 0.825923800
1341846099.825926 0.006000961 -0.003221522 0.003374484 -0.545126379 0.148220450 -0.064371347 0.822632551
1341846099.862065 0.006001227 -0.003221631 0.003374599 -0.549594998 0.149619475 -0.065465145 0.819312930
1341846099.894034 0.006001492 -0.003221930 0.003374693 -0.554045439 0.151012793 -0.066556491 0.815965116
1341846099.925860 0.006001673 -0.003222109 0.003374812 -0.558476448 0.152401581 -0.067645684 0.812589645
1341846099.961831 0.006001888 -0.003222235 0.003374950 -0.562888324 0.153785244 -0.068732530 0.809186399
1341846099.993861 0.006002104 -0.003222433 0.003375045 -0.567281008 0.155163646 -0.069817029 0.805755556
1341846100.029846 0.006002442 -0.003222595 0.003375266 -0.571654081 0.156536877 -0.070901111 0.802297175
1341846100.069920 0.006002694 -0.003222774 0.003375400 -0.576007843 0.157904714 -0.071980849 0.798811495
1341846100.099862 0.006003025 -0.003222977 0.003375574 -0.580342054 0.159266740 -0.073060296 0.795298278
1341846100.132811 0.006003194 -0.003223132 0.003375711 -0.584656239 0.160623848 -0.074135065 0.791758239
1341846100.168188 0.006003370 -0.003223276 0.003375897 -0.588950396 0.161975518 -0.075207211 0.788191140
1341846100.199801 0.006003566 -0.003223452 0.003376048 -0.593224108 0.163323328 -0.076271988 0.784597516
1341846100.235866 0.006003708 -0.003223558 0.003376196 -0.597477853 0.164664075 -0.077338740 0.780976772
1341846100.267868 0.006003866 -0.003223665 0.003376327 -0.601711214 0.165999249 -0.078402840 0.777329266
1341846100.299821 0.006004038 -0.003223780 0.003376468 -0.605923951 0.167329341 -0.079463556 0.773655355
1341846100.335884 0.006004168 -0.003223872 0.003376617 -0.610116065 0.168653205 -0.080522180 0.769954979
1341846100.367898 0.006004308 -0.003223976 0.003376752 -0.614287317 0.169971347 -0.081578031 0.766228318
1341846100.400000 0.006004349 -0.003224047 0.003376920 -0.618436873 0.171284422 -0.082629636 0.762476087
1341846100.435828 0.006004416 -0.003224109 0.003377084 -0.622565806 0.172590926 -0.083679870 0.758697450
1341846100.467678 0.006004560 -0.003224323 0.003377275 -0.626673818 0.173890650 -0.084730119 0.754892588
1341846100.503838 0.006004636 -0.003224407 0.003377449 -0.630760074 0.175185308 -0.085774757 0.751062274
1341846100.535834 0.006004765 -0.003224535 0.003377688 -0.634824812 0.176473290 -0.086818025 0.747206271
1341846100.568004 0.006004934 -0.003224690 0.003377905 -0.638867915 0.177755877 -0.087856986 0.743324757
1341846100.604545 0.006005060 -0.003224832 0.003378075 -0.642889202 0.179032385 -0.088893041 0.739417911
1341846100.635826 0.006005327 -0.003225028 0.003378315 -0.646889150 0.180301070 -0.089929409 0.735485375
1341846100.672445 0.006005462 -0.003225021 0.003378469 -0.650866330 0.181565315 -0.090959638 0.731528163
1341846100.733981 0.006005651 -0.003225194 0.003378674 -0.654820800 0.182824001 -0.091985986 0.727546334
1341846100.765776 0.006005745 -0.003225282 0.003378788 -0.658753395 0.184075847 -0.093010031 0.723539352
1341846100.798442 0.006005869 -0.003225339 0.003378930 -0.662663460 0.185321420 -0.094030917 0.719507694
1341846100.833838 0.006005971 -0.003225377 0.003379118 -0.666550636 0.186561033 -0.095048420 0.715451658
1341846100.866041 0.006005912 -0.003225368 0.003379253 -0.670415342 0.187793940 -0.096062675 0.711371005
1341846100.897858 0.006005862 -0.003225344 0.003379404 -0.674257159 0.189020470 -0.097073540 0.707266092
1341846100.933895 0.006005892 -0.003225365 0.003379625 -0.678075910 0.190240622 -0.098080985 0.703137100
1341846100.965736 0.006005737 -0.003225440 0.003379784 -0.681871057 0.191456422 -0.099081464 0.698984325
1341846101.001817 0.006005681 -0.003225363 0.003379992 -0.685643315 0.192663640 -0.100081868 0.694807589
1341846101.033901 0.006005655 -0.003225408 0.003380171 -0.689392090 0.193864331 -0.101078779 0.690607131
1341846101.065947 0.006005474 -0.003225410 0.003380302 -0.693117321 0.195058450 -0.102072082 0.686383188
1341846101.102829 0.006005345 -0.003225386 0.003380502 -0.696818829 0.196246296 -0.103060529 0.682135940
1341846101.134613 0.006005244 -0.003225404 0.003380669 -0.700496614 0.197427064 -0.104046687 0.677865267
1341846101.169743 0.006005002 -0.003225317 0.003380769 -0.704150558 0.198601112 -0.105029188 0.673571467
1341846101.202171 0.006004832 -0.003225251 0.003380956 -0.707780361 0.199767604 -0.106008440 0.669254839
1341846101.234098 0.006004692 -0.003225242 0.003381124 -0.711386144 0.200928047 -0.106983602 0.664915144
1341846101.269940 0.006004466 -0.003225150 0.003381260 -0.714967608 0.202081591 -0.107955091 0.660552859
1341846101.301837 0.006004295 -0.003225037 0.003381451 -0.718524575 0.203228235 -0.108922906 0.656167984
1341846101.333884 0.006004102 -0.003224995 0.003381630 -0.722056985 0.204367936 -0.109886713 0.651760936
1341846101.369943 0.006003884 -0.003224941 0.003381772 -0.725564837 0.205500692 -0.110846959 0.647331595
1341846101.402755 0.006003670 -0.003224832 0.003381941 -0.729047775 0.206626445 -0.111803398 0.642880082
1341846101.437821 0.006003480 -0.003224658 0.003382111 -0.732505858 0.207745105 -0.112755872 0.638406754
1341846101.469768 0.006003295 -0.003224515 0.003382272 -0.735938966 0.208856776 -0.113704585 0.633911610
1341846101.501812 0.006003092 -0.003224341 0.003382456 -0.739346981 0.209961340 -0.114649341 0.629394829
1341846101.537892 0.006002901 -0.003224322 0.003382667 -0.742729485 0.211059257 -0.115589172 0.624856770
1341846101.569873 0.006002748 -0.003224233 0.003382841 -0.746086836 0.212149531 -0.116525866 0.620297253
1341846101.601955 0.006002451 -0.003224151 0.003382943 -0.749418855 0.213232145 -0.117459469 0.615716398
1341846101.637841 0.006002239 -0.003223943 0.003383090 -0.752725005 0.214308262 -0.118387416 0.611114919
1341846101.670644 0.006002035 -0.003223874 0.003383267 -0.756005585 0.215376839 -0.119311824 0.606492400
1341846101.705786 0.006001854 -0.003223526 0.003383409 -0.759260416 0.216437936 -0.120232627 0.601849079
1341846101.738127 0.006001671 -0.003223496 0.003383667 -0.762489319 0.217492014 -0.121148534 0.597185314
1341846101.769786 0.006001493 -0.003223472 0.003383893 -0.765692115 0.218538716 -0.122060239 0.592501283
1341846101.805816 0.006001291 -0.003223295 0.003384062 -0.768868744 0.219578087 -0.122967660 0.587796986
1341846101.837808 0.006001188 -0.003223166 0.003384236 -0.772019207 0.220609903 -0.123870812 0.583072662
1341846101.869834 0.006001102 -0.003222985 0.003384411 -0.775143266 0.221634284 -0.124769621 0.578328371
1341846101.905918 0.006000808 -0.003222929 0.003384549 -0.778240860 0.222651154 -0.125664100 0.573564291
1341846101.937872 0.006000662 -0.003222736 0.003384698 -0.781311989 0.223660558 -0.126554161 0.568780720
1341846101.973942 0.006000516 -0.003222563 0.003384887 -0.784356356 0.224662349 -0.127439842 0.563977778
1341846102.005947 0.006000092 -0.003222633 0.003385122 -0.787373960 0.225656569 -0.128321081 0.559155643
1341846102.037846 0.005999937 -0.003222259 0.003385254 -0.790364683 0.226643160 -0.129197851 0.554314435
1341846102.073879 0.005999719 -0.003222249 0.003385489 -0.793328404 0.227622002 -0.130070090 0.549454331
1341846102.105961 0.005999386 -0.003221933 0.003385594 -0.796265066 0.228593007 -0.130937919 0.544575512
1341846102.137878 0.005999070 -0.003221867 0.003385644 -0.799174607 0.229556277 -0.131801173 0.539678097
1341846102.173907 0.005998938 -0.003221739 0.003385764 -0.802056730 0.230511636 -0.132659867 0.534762204
1341846102.205896 0.005998659 -0.003221540 0.003385841 -0.804911673 0.231459215 -0.133514002 0.529828072
1341846102.242018 0.005998338 -0.003221380 0.003385900 -0.807739079 0.232398853 -0.134363547 0.524875939
1341846102.274144 0.005998060 -0.003221147 0.003385983 -0.810538828 0.233330533 -0.135208517 0.519905925
1341846102.305875 0.005997791 -0.003220992 0.003386119 -0.813311100 0.234254301 -0.136048838 0.514918149
1341846102.341821 0.005997414 -0.003220759 0.003386164 -0.816055417 0.235170066 -0.136884421 0.509912968
1341846102.374024 0.005997172 -0.003220455 0.003386247 -0.818771958 0.236077830 -0.137715399 0.504890382
1341846102.409984 0.005996975 -0.003220234 0.003386428 0.821460426 -0.236977443 0.138541594 -0.499850661
1341846102.441952 0.005996702 -0.003220041 0.003386540 0.824120939 -0.237869024 0.139363036 -0.494793892
1341846102.473881 0.005996456 -0.003219894 0.003386667 0.826753259 -0.238752455 0.140179724 -0.489720255
1341846102.509959 0.005996403 -0.003219824 0.003386867 0.829357445 -0.239627749 0.140991628 -0.484629929
1341846102.541996 0.005996327 -0.003219703 0.003387004 0.831933320 -0.240494832 0.141798690 -0.479523003
1341846102.574361 0.005996085 -0.003219635 0.003387090 0.834480822 -0.241353691 0.142600819 -0.474399865
1341846102.610654 0.005996042 -0.003219425 0.003387192 0.836999774 -0.242204383 0.143397957 -0.469260514
1341846102.642222 0.005995983 -0.003219331 0.003387453 0.839490175 -0.243046924 0.144190103 -0.464105189
1341846102.677806 0.005995759 -0.003219273 0.003387612 0.841951907 -0.243881196 0.144977316 -0.458934069
1341846102.709968 0.005995429 -0.003219015 0.003387690 0.844384909 -0.244707376 0.145759419 -0.453747302
1341846102.741857 0.005995339 -0.003218823 0.003387797 0.846789062 -0.245525286 0.146536440 -0.448545069
1341846102.777720 0.005995160 -0.003218587 0.003387848 0.849164307 -0.246334851 0.147308439 -0.443327546
1341846102.809783 0.005995023 -0.003218366 0.003387871 0.851510644 -0.247136027 0.148075417 -0.438094884
1341846102.841828 0.005994943 -0.003218103 0.003388061 0.853827834 -0.247928798 0.148837313 -0.432847261
1341846102.877813 0.005994914 -0.003217941 0.003388150 0.856115997 -0.248713046 0.149594009 -0.427584946
1341846102.909875 0.005994781 -0.003217862 0.003388219 0.858374894 -0.249488816 0.150345534 -0.422307998
1341846102.945843 0.005994642 -0.003217639 0.003388274 0.860604525 -0.250256091 0.151091889 -0.417016715
1341846102.977815 0.005994487 -0.003217470 0.003388371 0.862804830 -0.251014829 0.151833087 -0.411711156
1341846103.009867 0.005994281 -0.003217396 0.003388424 0.864975691 -0.251765043 0.152569070 -0.406391561
1341846103.045829 0.005994065 -0.003217255 0.003388467 0.867116988 -0.252506703 0.153299838 -0.401058108
1341846103.077786 0.005993885 -0.003217079 0.003388550 0.869228780 -0.253239721 0.154025316 -0.395710975
1341846103.110039 0.005993693 -0.003216873 0.003388656 0.871310890 -0.253964156 0.154745519 -0.390350372
1341846103.145830 0.005993514 -0.003216730 0.003388763 0.873363197 -0.254679888 0.155460447 -0.384976506
1341846103.177933 0.005993348 -0.003216584 0.003388852 0.875385761 -0.255386949 0.156170070 -0.379589498
1341846103.213980 0.005993207 -0.003216460 0.003388968 0.877378404 -0.256085306 0.156874359 -0.374189556
1341846103.246103 0.005992961 -0.003216275 0.003389049 0.879341185 -0.256774932 0.157573283 -0.368776858
1341846103.277869 0.005992797 -0.003216101 0.003389077 0.881273925 -0.257455796 0.158266827 -0.363351524
1341846103.314495 0.005992678 -0.003215958 0.003389105 0.883176684 -0.258127838 0.158954918 -0.357913792
1341846103.345951 0.005992355 -0.003215773 0.003389160 0.885049284 -0.258791089 0.159637615 -0.352463841
1341846103.382135 0.005992045 -0.003215490 0.003389128 0.886891723 -0.259445488 0.160314843 -0.347001821
1341846103.413791 0.005991919 -0.003215295 0.003389103 0.888703883 -0.260090977 0.160986573 -0.341527969
1341846103.445861 0.005991843 -0.003215008 0.003389085 0.890485823 -0.260727584 0.161652759 -0.336042494
1341846103.482382 0.005991588 -0.003214771 0.003388783 0.890485823 -0.260727584 0.161652759 -0.336042494
1341846103.482382 0.005991588 -0.003214771 0.003388783 0.890485823 -0.260727584 0.161652759 -0.336042494
1341846103.482382 0.005991588 -0.003214771 0.003388783 0.890485823 -0.260727584 0.161652759 -0.336042494
1341846103.482382 0.005991588 -0.003214771 0.003388783 0.890485823 -0.260727584 0.161652759 -0.336042494
1341846103.482382 0.005991588 -0.003214771 0.003388783 0.890485823 -0.260727584 0.161652759 -0.336042494
1341846103.482382 0.005991588 -0.003214771 0.003388783 0.890485823 -0.260727584 0.161652759 -0.336042494
1341846103.482382 0.005991588 -0.003214771 0.003388783 0.890485823 -0.260727584 0.161652759 -0.336042494
1341846103.482382 0.005991588 -0.003214771 0.003388783 0.890485823 -0.260727584 0.161652759 -0.336042494
1341846103.482382 0.005991588 -0.003214771 0.003388783 0.890485823 -0.260727584 0.161652759 -0.336042494
1341846103.482382 0.005991588 -0.003214771 0.003388783 0.890485823 -0.260727584 0.161652759 -0.336042494
1341846103.482382 0.005991588 -0.003214771 0.003388783 0.890485823 -0.260727584 0.161652759 -0.336042494
1341846103.482382 0.005991588 -0.003214771 0.003388783 0.890485823 -0.260727584 0.161652759 -0.336042494
1341846103.482382 0.005991588 -0.003214771 0.003388783 0.890485823 -0.260727584 0.161652759 -0.336042494
1341846103.482382 0.005991588 -0.003214771 0.003388783 0.890485823 -0.260727584 0.161652759 -0.336042494
1341846103.482382 0.005991588 -0.003214771 0.003388783 0.890485823 -0.260727584 0.161652759 -0.336042494
1341846103.482382 0.005991588 -0.003214771 0.003388783 0.890485823 -0.260727584 0.161652759 -0.336042494
1341846103.482382 0.005991588 -0.003214771 0.003388783 0.890485823 -0.260727584 0.161652759 -0.336042494
1341846103.482382 0.005991588 -0.003214771 0.003388783 0.890485823 -0.260727584 0.161652759 -0.336042494
1341846103.482382 0.005991588 -0.003214771 0.003388783 0.890485823 -0.260727584 0.161652759 -0.336042494
1341846103.482382 0.005991588 -0.003214771 0.003388783 0.890485823 -0.260727584 0.161652759 -0.336042494
1341846103.482382 0.005991588 -0.003214771 0.003388783 0.890485823 -0.260727584 0.161652759 -0.336042494
1341846103.482382 0.005991588 -0.003214771 0.003388783 0.890485823 -0.260727584 0.161652759 -0.336042494
1341846103.482382 0.005991588 -0.003214771 0.003388783 0.890485823 -0.260727584 0.161652759 -0.336042494
1341846103.482382 0.005991588 -0.003214771 0.003388783 0.890485823 -0.260727584 0.161652759 -0.336042494
1341846103.482382 0.005991588 -0.003214771 0.003388783 0.890485823 -0.260727584 0.161652759 -0.336042494
1341846103.482382 0.005991588 -0.003214771 0.003388783 0.890485823 -0.260727584 0.161652759 -0.336042494
1341846103.482382 0.005991588 -0.003214771 0.003388783 0.890485823 -0.260727584 0.161652759 -0.336042494
1341846103.482382 0.005991588 -0.003214771 0.003388783 0.890485823 -0.260727584 0.161652759 -0.336042494
1341846103.482382 0.005991588 -0.003214771 0.003388783 0.890485823 -0.260727584 0.161652759 -0.336042494
1341846103.482382 0.005991588 -0.003214771 0.003388783 0.890485823 -0.260727584 0.161652759 -0.336042494
1341846103.482382 0.005991588 -0.003214771 0.003388783 0.890485823 -0.260727584 0.161652759 -0.336042494
1341846103.482382 0.005991588 -0.003214771 0.003388783 0.890485823 -0.260727584 0.161652759 -0.336042494
1341846103.482382 0.005991588 -0.003214771 0.003388783 0.890485823 -0.260727584 0.161652759 -0.336042494
1341846103.482382 0.005991588 -0.003214771 0.003388783 0.890485823 -0.260727584 0.161652759 -0.336042494
1341846103.482382 0.005991588 -0.003214771 0.003388783 0.890485823 -0.260727584 0.161652759 -0.336042494
1341846103.482382 0.005991588 -0.003214771 0.003388783 0.890485823 -0.260727584 0.161652759 -0.336042494
1341846103.482382 0.005991588 -0.003214771 0.003388783 0.890485823 -0.260727584 0.161652759 -0.336042494
1341846103.482382 0.005991588 -0.003214771 0.003388783 0.890485823 -0.260727584 0.161652759 -0.336042494
1341846103.482382 0.005991588 -0.003214771 0.003388783 0.890485823 -0.260727584 0.161652759 -0.336042494
1341846103.482382 0.005991588 -0.003214771 0.003388783 0.890485823 -0.260727584 0.161652759 -0.336042494
1341846103.482382 0.005991588 -0.003214771 0.003388783 0.890485823 -0.260727584 0.161652759 -0.336042494
1341846103.482382 0.005991588 -0.003214771 0.003388783 0.890485823 -0.260727584 0.161652759 -0.336042494
1341846103.482382 0.005991588 -0.003214771 0.003388783 0.890485823 -0.260727584 0.161652759 -0.336042494
1341846103.482382 0.005991588 -0.003214771 0.003388783 0.890485823 -0.260727584 0.161652759 -0.336042494
1341846103.482382 0.005991588 -0.003214771 0.003388783 0.890485823 -0.260727584 0.161652759 -0.336042494
1341846103.482382 0.005991588 -0.003214771 0.003388783 0.890485823 -0.260727584 0.161652759 -0.336042494
1341846103.482382 0.005991588 -0.003214771 0.003388783 0.890485823 -0.260727584 0.161652759 -0.336042494
1341846103.482382 0.005991588 -0.003214771 0.003388783 0.890485823 -0.260727584 0.161652759 -0.336042494
1341846103.482382 0.005991588 -0.003214771 0.003388783 0.890485823 -0.260727584 0.161652759 -0.336042494
1341846103.482382 0.005991588 -0.003214771 0.003388783 0.890485823 -0.260727584 0.161652759 -0.336042494
1341846103.482382 0.005991588 -0.003214771 0.003388783 0.890485823 -0.260727584 0.161652759 -0.336042494
1341846103.482382 0.005991588 -0.003214771 0.003388783 0.890485823 -0.260727584 0.161652759 -0.336042494
1341846103.482382 0.005991588 -0.003214771 0.003388783 0.890485823 -0.260727584 0.161652759 -0.336042494
1341846103.482382 0.005991588 -0.003214771 0.003388783 0.890485823 -0.260727584 0.161652759 -0.336042494
1341846103.482382 0.005991588 -0.003214771 0.003388783 0.890485823 -0.260727584 0.161652759 -0.336042494
1341846103.482382 0.005991588 -0.003214771 0.003388783 0.890485823 -0.260727584 0.161652759 -0.336042494
1341846105.525969 0.000000000 0.000000000 0.000000000 0.000000000 0.000000000 0.000000000 1.000000000
1341846105.557770 -0.000826692 0.000976173 -0.011424651 0.002501190 0.011133883 -0.000551246 0.999934733
1341846105.594012 0.003379523 0.000729882 -0.006769781 0.002741273 0.022567896 -0.000677969 0.999741316
1341846105.626122 0.000666020 -0.000289889 -0.004140947 0.005565075 0.036191333 -0.001846350 0.999327660
1341846105.657815 0.000404238 0.000453517 -0.010424501 0.008863196 0.047756553 -0.002319578 0.998816967
1341846105.693879 0.001863490 -0.000794438 -0.003897275 0.009559118 0.060975138 -0.002668689 0.998089910
1341846105.726045 0.002176744 -0.000921545 -0.002301998 0.013011022 0.070849992 -0.002012633 0.997400105
1341846105.758468 0.000714453 -0.000037617 -0.005892285 0.015268175 0.080431633 -0.003190281 0.996638060
1341846105.793970 0.000277331 0.000116828 -0.007525033 0.015516764 0.093520157 -0.008969398 0.995456040
1341846105.825903 0.002064037 -0.000980604 -0.001198118 0.016897706 0.105652913 -0.010075281 0.994208455
1341846105.861764 0.001911242 -0.000925019 -0.002765891 0.020350760 0.115434229 -0.009850329 0.993057787
1341846105.893922 0.001788929 -0.000757305 -0.003484926 0.022407623 0.130442947 -0.010709969 0.991144717
1341846105.925960 0.001750744 -0.000867249 -0.003045701 0.027154472 0.144498870 -0.011052172 0.989070535
1341846105.963745 0.001911266 -0.000925011 -0.002765914 0.028342940 0.154211774 -0.009877916 0.987581789
1341846106.025952 0.001911357 -0.000924866 -0.002765640 0.020101603 0.172221214 -0.025810840 0.984514892
1341846106.061758 0.001911289 -0.000924917 -0.002765860 0.019594708 0.175109655 -0.026898680 0.983986378
1341846106.093961 0.001919491 -0.000927000 -0.002758645 0.018487198 0.175604478 -0.031335339 0.983788252
1341846106.130133 0.001886336 -0.000919819 -0.002795714 0.018006988 0.183821723 -0.038753953 0.982030272
1341846106.161819 0.001911305 -0.000924865 -0.002765758 0.018211430 0.190130010 -0.040756773 0.980743527
1341846106.193968 0.001912710 -0.000925265 -0.002762719 0.018204197 0.192087546 -0.038198102 0.980465114
1341846106.229889 0.001909360 -0.000924887 -0.002767524 0.018100297 0.197004139 -0.039631374 0.979434073
1341846106.261942 0.001911051 -0.000925034 -0.002765487 0.016858144 0.205643937 -0.039903868 0.977667689
1341846106.293939 0.001911329 -0.000924919 -0.002765780 0.015419902 0.207904682 -0.039054558 0.977247477
1341846106.329961 0.001911239 -0.000924880 -0.002767237 0.012453830 0.207411021 -0.042647500 0.977244496
1341846106.361877 0.001911300 -0.000924853 -0.002765845 0.006576709 0.206464112 -0.052292660 0.977033675
1341846106.398046 0.001911258 -0.000924873 -0.002765905 -0.001479702 0.204496935 -0.062890418 0.976843715
1341846106.429938 0.001911332 -0.000924882 -0.002765781 -0.008796828 0.200039312 -0.073233180 0.977007568
1341846106.461886 0.001911185 -0.000924796 -0.002766192 -0.016587157 0.193691939 -0.083948836 0.977323353
1341846106.497910 0.001911378 -0.000924881 -0.002765687 -0.023093836 0.194011375 -0.095815733 0.976035655
1341846106.529979 0.001911351 -0.000924517 -0.002766457 -0.023070790 0.195382863 -0.104938120 0.974823713
1341846106.561925 0.001911429 -0.000924511 -0.002766272 -0.025278332 0.192681327 -0.115530245 0.974108636
1341846106.597815 0.001911298 -0.000924904 -0.002765819 -0.031884674 0.192443117 -0.132233813 0.971834958
1341846106.632234 0.001911244 -0.000924709 -0.002767299 -0.038759902 0.193769276 -0.154099271 0.968093276
1341846106.665869 0.001911341 -0.000924495 -0.002766555 -0.041988142 0.193640485 -0.168100163 0.965651393
1341846106.697883 0.001911295 -0.000924865 -0.002765890 -0.046230320 0.192112193 -0.181992769 0.963241577
1341846106.729896 0.001911271 -0.000924850 -0.002765919 -0.050038043 0.193738818 -0.197250426 0.959715426
1341846106.766032 0.001911300 -0.000924875 -0.002765839 -0.053831622 0.195311263 -0.212456003 0.955938339
1341846106.797963 0.001911154 -0.000924867 -0.002765834 -0.057611939 0.196826562 -0.227605924 0.951911628
1341846106.834113 0.001911231 -0.000924837 -0.002764770 -0.064399458 0.191745266 -0.239367560 0.949626029
1341846106.865869 0.001911280 -0.000924862 -0.002765394 -0.069167890 0.188661560 -0.251339853 0.946810901
1341846106.897921 0.001911250 -0.000925039 -0.002765876 -0.073920213 0.185544133 -0.263266146 0.943822086
1341846106.933929 0.001911236 -0.000925080 -0.002765917 -0.078436121 0.183219135 -0.275299907 0.940472484
1341846106.967484 0.001911262 -0.000925081 -0.002765897 -0.082937405 0.180863604 -0.287283391 0.936951458
1341846106.999098 0.001911276 -0.000925081 -0.002765896 -0.087423906 0.178473324 -0.299214929 0.933260322
1341846107.033909 0.001911231 -0.000925086 -0.002765846 -0.091893971 0.176049098 -0.311091959 0.929399788
1341846107.065762 0.001911232 -0.000925094 -0.002765879 -0.096347712 0.173594415 -0.322912544 0.925369978
1341846107.101921 0.001911241 -0.000925080 -0.002765876 -0.100783929 0.171108156 -0.334674418 0.921171904
1341846107.133974 0.001911211 -0.000925014 -0.002765849 -0.105202742 0.168590143 -0.346375376 0.916806340
1341846107.166082 0.001911215 -0.000925011 -0.002765846 -0.109601535 0.166042030 -0.358013332 0.912274063
1341846107.202100 0.001911214 -0.000925005 -0.002765853 -0.113980390 0.163463742 -0.369586170 0.907575965
1341846107.233799 0.001911165 -0.000924940 -0.002765846 -0.118338592 0.160855755 -0.381091803 0.902712822
1341846107.265874 0.001911138 -0.000924918 -0.002765826 -0.122675240 0.158218443 -0.392528147 0.897685587
1341846107.301965 0.001911048 -0.000924900 -0.002765843 -0.126989692 0.155551478 -0.403892875 0.892495334
1341846107.334002 0.001911028 -0.000924864 -0.002765827 -0.131280929 0.152857065 -0.415184408 0.887142599
1341846107.369797 0.001911010 -0.000924872 -0.002765833 -0.135548338 0.150134876 -0.426400423 0.881628513
1341846107.401899 0.001910974 -0.000924894 -0.002765841 -0.139791206 0.147384569 -0.437539399 0.875954032
1341846107.434304 0.001910980 -0.000924856 -0.002765844 -0.144008577 0.144608229 -0.448598355 0.870120406
1341846107.469787 0.001910963 -0.000924786 -0.002765874 -0.148199558 0.141806528 -0.459575176 0.864128709
1341846107.502174 0.001910945 -0.000924774 -0.002765975 -0.152363807 0.138978213 -0.470468998 0.857979774
1341846107.533946 0.001911037 -0.000924758 -0.002765867 -0.156500027 0.136125371 -0.481276870 0.851674914
1341846107.601911 0.001910926 -0.000924688 -0.002766115 -0.160608128 0.133247048 -0.491997600 0.845215142
1341846107.637876 0.001910991 -0.000924676 -0.002765869 -0.164688051 0.130343109 -0.502628028 0.838602185
1341846107.669757 0.001911007 -0.000924668 -0.002765885 -0.168737024 0.127416939 -0.513167739 0.831836283
1341846107.701892 0.001911025 -0.000924643 -0.002765897 -0.172755346 0.124467589 -0.523614168 0.824919164
1341846107.737797 0.001911074 -0.000924568 -0.002765859 -0.176741973 0.121495388 -0.533965290 0.817852199
1341846107.769837 0.001911100 -0.000924558 -0.002765883 -0.180696696 0.118501380 -0.544219315 0.810636401
1341846107.805959 0.001911086 -0.000924559 -0.002765925 -0.184618503 0.115486510 -0.554374337 0.803273261
1341846107.837955 0.001911170 -0.000924553 -0.002765930 -0.188506797 0.112450019 -0.564428568 0.795764148
1341846107.870011 0.001911310 -0.000924577 -0.002765940 -0.192360833 0.109392799 -0.574380100 0.788110375
1341846107.905926 0.001911378 -0.000924659 -0.002765924 -0.196179867 0.106316037 -0.584227204 0.780313373
1341846107.938092 0.001911441 -0.000924751 -0.002766006 -0.199963570 0.103219934 -0.593968093 0.772374332
1341846107.969943 0.001911616 -0.000924756 -0.002766046 -0.203710258 0.100105330 -0.603600919 0.764295101
1341846108.006614 0.001911686 -0.000924747 -0.002766103 -0.207420260 0.096972376 -0.613124132 0.756076753
1341846108.073927 0.001911917 -0.000924724 -0.002766176 -0.211092710 0.093822107 -0.622535884 0.747720778
1341846108.106110 0.001911955 -0.000924762 -0.002766223 -0.214726597 0.090654641 -0.631834507 0.739228964
1341846108.137977 0.001911951 -0.000924791 -0.002766238 -0.218321010 0.087470561 -0.641018033 0.730602980
1341846108.173901 0.001912002 -0.000924797 -0.002766178 -0.221876144 0.084270738 -0.650085211 0.721843898
1341846108.205882 0.001912133 -0.000924876 -0.002766157 -0.225390926 0.081055589 -0.659034193 0.712953627
1341846108.237836 0.001912168 -0.000924911 -0.002766188 -0.228864864 0.077825822 -0.667863190 0.703933775
1341846108.273872 0.001912218 -0.000924923 -0.002766244 -0.232297227 0.074581936 -0.676570892 0.694785893
1341846108.305866 0.001912317 -0.000924983 -0.002766262 -0.235687345 0.071324505 -0.685155451 0.685511708
1341846108.341858 0.001912359 -0.000925025 -0.002766281 -0.239034742 0.068054207 -0.693615377 0.676112950
1341846108.373928 0.001912395 -0.000925046 -0.002766381 -0.242338702 0.064771518 -0.701949358 0.666591108
1341846108.406059 0.001912457 -0.000925063 -0.002766435 -0.245598644 0.061477162 -0.710155547 0.656948209
1341846108.441881 0.001912447 -0.000925066 -0.002766442 -0.248814091 0.058171488 -0.718232572 0.647185922
1341846108.473918 0.001912375 -0.000925105 -0.002766594 -0.251984268 0.054855220 -0.726179063 0.637305856
1341846108.506142 0.001912300 -0.000925155 -0.002766711 -0.255108654 0.051528990 -0.733993530 0.627309978
1341846108.541923 0.001912299 -0.000925187 -0.002766782 -0.258186668 0.048193485 -0.741674602 0.617200017
1341846108.573967 0.001912295 -0.000925211 -0.002766844 -0.258186668 0.048193485 -0.741674602 0.617200017
1341846108.609979 0.001912289 -0.000925260 -0.002766922 -0.258186668 0.048193485 -0.741674542 0.617200017
1341846108.641701 0.001912288 -0.000925267 -0.002766907 -0.258186668 0.048193499 -0.741674542 0.617200017
1341846108.673868 0.001912280 -0.000925285 -0.002766938 -0.258186638 0.048193507 -0.741674483 0.617200077
1341846108.710024 0.001912269 -0.000925349 -0.002767018 -0.258186638 0.048193548 -0.741674423 0.617200136
1341846108.742835 0.001912261 -0.000925384 -0.002767042 -0.258186638 0.048193589 -0.741674364 0.617200255
1341846108.773793 0.001912251 -0.000925428 -0.002767068 -0.258186579 0.048193622 -0.741674244 0.617200434
1341846108.810032 0.001912236 -0.000925483 -0.002767048 -0.258186549 0.048193663 -0.741674185 0.617200494
1341846108.841885 0.001912236 -0.000925504 -0.002767040 -0.258186430 0.048193738 -0.741674125 0.617200613
1341846108.877944 0.001912229 -0.000925508 -0.002767035 -0.258186251 0.048193827 -0.741674185 0.617200732
1341846108.909950 0.001912208 -0.000925538 -0.002767038 -0.258186042 0.048193969 -0.741674066 0.617200792
1341846108.941882 0.001912207 -0.000925550 -0.002767039 -0.258185863 0.048194077 -0.741674185 0.617200792
1341846108.977902 0.001912211 -0.000925536 -0.002767031 -0.258185655 0.048194245 -0.741674185 0.617200851
1341846109.009916 0.001912207 -0.000925555 -0.002767021 -0.258185387 0.048194427 -0.741674244 0.617200911
1341846109.045986 0.001912194 -0.000925581 -0.002767033 -0.258185118 0.048194624 -0.741674185 0.617201030
1341846109.077854 0.001912196 -0.000925581 -0.002767036 -0.258184850 0.048194822 -0.741674185 0.617201149
1341846109.109839 0.001912194 -0.000925595 -0.002767036 -0.258184582 0.048195004 -0.741674125 0.617201269
1341846109.145865 0.001912176 -0.000925609 -0.002767022 -0.258184314 0.048195198 -0.741674066 0.617201447
1341846109.178396 0.001912150 -0.000925610 -0.002767004 -0.258184046 0.048195366 -0.741674125 0.617201626
1341846109.209809 0.001912126 -0.000925611 -0.002767000 -0.258183748 0.048195533 -0.741674006 0.617201746
1341846109.245810 0.001912098 -0.000925614 -0.002766973 -0.258183420 0.048195653 -0.741674006 0.617201924
1341846109.277797 0.001912087 -0.000925566 -0.002766819 -0.258183092 0.048195790 -0.741673946 0.617202044
1341846109.313909 0.001912076 -0.000925518 -0.002766663 -0.258182764 0.048195917 -0.741674006 0.617202103
1341846109.313909 0.001912076 -0.000925518 -0.002766663 -0.258182764 0.048195917 -0.741674006 0.617202103
1341846109.313909 0.001912076 -0.000925518 -0.002766663 -0.258182764 0.048195917 -0.741674006 0.617202103
1341846109.313909 0.001912076 -0.000925518 -0.002766663 -0.258182764 0.048195917 -0.741674006 0.617202103
1341846109.313909 0.001912076 -0.000925518 -0.002766663 -0.258182764 0.048195917 -0.741674006 0.617202103
1341846109.313909 0.001912076 -0.000925518 -0.002766663 -0.258182764 0.048195917 -0.741674006 0.617202103
1341846109.313909 0.001912076 -0.000925518 -0.002766663 -0.258182764 0.048195917 -0.741674006 0.617202103
1341846109.313909 0.001912076 -0.000925518 -0.002766663 -0.258182764 0.048195917 -0.741674006 0.617202103
1341846109.313909 0.001912076 -0.000925518 -0.002766663 -0.258182764 0.048195917 -0.741674006 0.617202103
1341846109.313909 0.001912076 -0.000925518 -0.002766663 -0.258182764 0.048195917 -0.741674006 0.617202103
1341846109.313909 0.001912076 -0.000925518 -0.002766663 -0.258182764 0.048195917 -0.741674006 0.617202103
1341846109.313909 0.001912076 -0.000925518 -0.002766663 -0.258182764 0.048195917 -0.741674006 0.617202103
1341846109.313909 0.001912076 -0.000925518 -0.002766663 -0.258182764 0.048195917 -0.741674006 0.617202103
1341846109.313909 0.001912076 -0.000925518 -0.002766663 -0.258182764 0.048195917 -0.741674006 0.617202103
1341846109.313909 0.001912076 -0.000925518 -0.002766663 -0.258182764 0.048195917 -0.741674006 0.617202103
1341846109.313909 0.001912076 -0.000925518 -0.002766663 -0.258182764 0.048195917 -0.741674006 0.617202103
1341846109.313909 0.001912076 -0.000925518 -0.002766663 -0.258182764 0.048195917 -0.741674006 0.617202103
1341846109.313909 0.001912076 -0.000925518 -0.002766663 -0.258182764 0.048195917 -0.741674006 0.617202103
1341846109.981998 0.001911303 -0.000924910 -0.002765947 -0.068352036 0.176163927 -0.374419540 0.907801926
1341846110.017884 0.001911244 -0.000924938 -0.002765956 -0.068350375 0.176163986 -0.374419749 0.907801926
1341846110.049982 0.001911181 -0.000925050 -0.002765931 -0.068348542 0.176164106 -0.374420106 0.907801926
1341846110.117943 0.001911088 -0.000925108 -0.002765844 -0.068346612 0.176164269 -0.374420345 0.907801926
1341846110.150254 0.001911050 -0.000925079 -0.002765846 -0.068344645 0.176164433 -0.374420583 0.907801926
1341846110.181980 0.001911014 -0.000925053 -0.002765850 -0.068342678 0.176164567 -0.374420822 0.907801926
1341846110.217907 0.001910959 -0.000925006 -0.002765876 -0.068340704 0.176164702 -0.374421000 0.907801986
1341846110.249883 0.001910932 -0.000924954 -0.002765876 -0.068338729 0.176164821 -0.374421239 0.907802045
1341846110.286020 0.001911033 -0.000924880 -0.002765742 -0.068336703 0.176164955 -0.374421418 0.907802105
1341846110.356025 0.001911064 -0.000924809 -0.002765748 -0.068334676 0.176165074 -0.374421537 0.907802105
1341846110.356025 0.001911064 -0.000924809 -0.002765748 -0.068334676 0.176165074 -0.374421537 0.907802105
1341846110.356025 0.001911064 -0.000924809 -0.002765748 -0.068334676 0.176165074 -0.374421537 0.907802105
1341846110.356025 0.001911064 -0.000924809 -0.002765748 -0.068334676 0.176165074 -0.374421537 0.907802105
1341846110.517949 0.001911248 -0.000924865 -0.002765988 -0.031236570 0.169713229 -0.276277721 0.945458770
1341846110.554149 0.001911224 -0.000924949 -0.002765898 -0.031236745 0.169712991 -0.276277691 0.945458829
1341846110.585896 0.001911148 -0.000924902 -0.002765891 -0.031237016 0.169712380 -0.276277661 0.945458949
1341846110.617933 0.001911127 -0.000924854 -0.002765894 -0.031237360 0.169711620 -0.276277721 0.945459068
1341846110.653885 0.001911101 -0.000924818 -0.002765884 -0.031237751 0.169710800 -0.276277751 0.945459187
1341846110.686533 0.001910951 -0.000924810 -0.002765958 -0.031238163 0.169709936 -0.276277751 0.945459306
1341846110.717831 0.001910991 -0.000924776 -0.002765951 -0.031238502 0.169709042 -0.276277721 0.945459425
1341846110.753826 0.001911048 -0.000924723 -0.002765960 -0.031238806 0.169708177 -0.276277691 0.945459604
1341846110.785789 0.001911051 -0.000924732 -0.002765939 -0.031239094 0.169707313 -0.276277602 0.945459783
1341846110.821828 0.001911081 -0.000924695 -0.002765879 -0.031239362 0.169706449 -0.276277512 0.945459962
1341846110.821828 0.001911081 -0.000924695 -0.002765879 -0.031239362 0.169706449 -0.276277512 0.945459962
1341846110.885864 0.001911276 -0.000924847 -0.002766314 -0.012658313 0.172722712 -0.180380598 0.968230069
1341846110.921999 0.001911270 -0.000924877 -0.002765920 -0.012657965 0.172721848 -0.180380464 0.968230247
1341846110.953861 0.001911248 -0.000924895 -0.002765985 -0.012657541 0.172721103 -0.180380195 0.968230426
1341846110.985986 0.001911317 -0.000924961 -0.002765922 -0.012657002 0.172720850 -0.180379957 0.968230546
1341846111.021940 0.001911342 -0.000924928 -0.002765949 -0.012656450 0.172720730 -0.180379644 0.968230605
1341846111.053945 0.001911342 -0.000924873 -0.002765893 -0.012655955 0.172720641 -0.180379331 0.968230724
1341846111.089856 0.001911326 -0.000924827 -0.002765850 -0.012655506 0.172720551 -0.180378988 0.968230784
1341846111.121811 0.001911281 -0.000924771 -0.002765819 -0.012655075 0.172720477 -0.180378601 0.968230844
1341846111.153919 0.001911170 -0.000924770 -0.002765852 -0.012654634 0.172720358 -0.180378228 0.968230963
1341846111.189911 0.001911093 -0.000924717 -0.002765895 -0.012654152 0.172720239 -0.180377826 0.968231082
1341846111.221870 0.001911085 -0.000924622 -0.002765907 -0.012653697 0.172720075 -0.180377424 0.968231201
1341846111.258571 0.001911076 -0.000924565 -0.002765943 -0.012653253 0.172719896 -0.180377021 0.968231320
1341846111.289825 0.001911072 -0.000924533 -0.002765935 -0.012652829 0.172719687 -0.180376634 0.968231380
1341846111.321895 0.001911061 -0.000924535 -0.002765956 -0.012652379 0.172719419 -0.180376202 0.968231559
1341846111.357890 0.001911034 -0.000924509 -0.002765966 -0.012651944 0.172719106 -0.180375755 0.968231738
1341846111.390567 0.001911042 -0.000924470 -0.002765910 -0.012651511 0.172718793 -0.180375263 0.968231857
1341846111.457975 0.000000000 0.000000000 0.000000000 0.000000000 0.000000000 0.000000000 1.000000000
1341846111.490354 -0.003486820 -0.002867015 0.002071280 -0.000714994 -0.001640403 0.008486198 0.999962389
1341846111.525824 0.002981740 -0.005284857 0.000532628 0.001221878 -0.003255235 0.017632293 0.999838471
1341846111.557829 0.002462576 0.000669006 -0.001833862 0.002312269 -0.002668848 0.028898085 0.999576151
1341846111.589761 -0.000073516 0.001486591 0.000025071 0.000681047 -0.003834121 0.038818803 0.999238670
1341846111.625966 0.007366446 0.001815337 0.002006687 0.000084998 -0.004521961 0.051686365 0.998653114
1341846111.658029 0.009586727 -0.002572176 -0.002428367 -0.000179839 -0.002519235 0.064040415 0.997944117
1341846111.689871 0.009905476 0.001821853 0.001306550 0.000534886 -0.001525943 0.076164894 0.997093916
1341846111.725851 0.012255530 0.003148257 0.003772688 -0.000326241 -0.001216437 0.088457659 0.996079147
1341846111.757957 0.017315211 -0.000708733 0.004962906 -0.000498321 0.000319526 0.100757383 0.994910836
1341846111.793921 0.016796518 -0.001245425 0.005634923 -0.000132940 0.001969385 0.113002218 0.993592739
1341846111.825999 0.018227480 -0.000019139 0.005942661 0.000231361 0.000441923 0.125795260 0.992056072
1341846111.857852 0.018101690 -0.000789668 0.003197023 0.001933676 0.000313715 0.133313239 0.991071999
1341846111.893939 0.012803417 -0.000103903 -0.002822082 0.004165659 0.002289004 0.139348373 0.990231991
1341846111.925817 0.013194959 -0.000345980 -0.002161607 0.003646958 -0.000825801 0.148254499 0.988942206
1341846111.957857 0.018389270 -0.002150032 0.011200377 0.005923951 -0.005650541 0.154889658 0.987897873
1341846111.993917 0.017616944 -0.001732026 0.008576185 0.008271817 -0.006000223 0.160988167 0.986903429
1341846112.025975 0.016788371 -0.001232032 0.005772160 0.008844011 -0.007074580 0.169220418 0.985513151
1341846112.061964 0.016750755 -0.001096238 0.005762203 0.011225748 -0.007438015 0.180082440 0.983559370
1341846112.094004 0.016696071 -0.001207200 0.005696359 0.013536895 -0.007178664 0.191938773 0.981287301
1341846112.125857 0.016787214 -0.001232401 0.005768129 0.016393865 -0.007203301 0.205499649 0.978493333
1341846112.161882 0.016744211 -0.001194280 0.005885966 0.020867556 -0.007890775 0.218912736 0.975489378
1341846112.193903 0.016752644 -0.001210617 0.005964676 0.026383135 -0.008936114 0.233070478 0.972060800
1341846112.230507 0.016734051 -0.001101420 0.005754195 0.030757645 -0.010202922 0.241868228 0.969767809
1341846112.261848 0.016770374 -0.001214142 0.006028152 0.032578819 -0.008709997 0.248807281 0.967965782
1341846112.293912 0.016787684 -0.001230718 0.005763032 0.034491125 -0.008303581 0.259839833 0.964999795
1341846112.329892 0.016775122 -0.001227636 0.005764093 0.042092416 -0.008371711 0.270455450 0.961775422
1341846112.361751 0.016790135 -0.001238709 0.005764038 0.047225527 -0.007638211 0.278003365 0.959388137
1341846112.393853 0.016788451 -0.001232086 0.005771500 0.048937954 -0.006421383 0.282971561 0.957857490
1341846112.429940 0.016786344 -0.001231684 0.005773486 0.051508609 -0.004997740 0.289093971 0.955900908
1341846112.461839 0.016785605 -0.001225803 0.005770744 0.054715212 -0.005043689 0.297145039 0.953250051
1341846112.498139 0.016786464 -0.001226974 0.005766958 0.056852031 -0.004723347 0.302610070 0.951405644
1341846112.530069 0.016788887 -0.001224429 0.005750269 0.056787532 -0.005304980 0.307118714 0.949960589
1341846112.562160 0.016787231 -0.001226229 0.005759169 0.055831596 -0.007570461 0.313266009 0.947992563
1341846112.597968 0.016781943 -0.001218646 0.005746546 0.057478033 -0.009646026 0.323767453 0.944339931
1341846112.630702 0.016790152 -0.001227567 0.005764904 0.057965454 -0.011300024 0.331232548 0.941699147
1341846112.661861 0.016788462 -0.001232330 0.005769250 0.054970536 -0.011416824 0.339319110 0.938994348
1341846112.698170 0.016786950 -0.001230008 0.005777604 0.053305794 -0.010639931 0.348240942 0.935827732
1341846112.729995 0.016786054 -0.001227124 0.005786833 0.054090988 -0.010398890 0.359170675 0.931645036
1341846112.765875 0.016785579 -0.001232018 0.005783396 0.054163959 -0.007394142 0.366436243 0.928835869
1341846112.798043 0.016782694 -0.001230945 0.005777305 0.056116007 0.001562566 0.375666767 0.925053000
1341846112.829969 0.016791951 -0.001229869 0.005780470 0.058105756 0.007375490 0.387576938 0.919974685
1341846112.865900 0.016789259 -0.001230523 0.005764352 0.056575466 0.008537779 0.397114366 0.915983915
1341846112.897929 0.016786527 -0.001229379 0.005777801 0.056009971 0.010243496 0.404794872 0.912633061
1341846112.935783 0.016788432 -0.001232063 0.005771650 0.057575177 0.013770672 0.411920905 0.909294546
1341846112.998277 0.016789338 -0.001231820 0.005773437 0.057429310 0.013963525 0.429629683 0.901068926
1341846113.033814 0.016789196 -0.001231767 0.005773786 0.058441553 0.016830051 0.434425235 0.898652315
1341846113.072059 0.016788702 -0.001231854 0.005771108 0.058254704 0.021021802 0.441852242 0.894947529
1341846113.139948 0.016789328 -0.001231829 0.005774341 0.060533181 0.025703806 0.459387243 0.885798156
1341846113.198174 0.016788436 -0.001232066 0.005771659 0.061179813 0.034204524 0.479324579 0.874834239
1341846113.233852 0.016788309 -0.001232053 0.005771812 0.062339276 0.036343530 0.488661885 0.869484067
1341846113.265850 0.016788635 -0.001232042 0.005771892 0.063372992 0.040472962 0.494413197 0.865968466
1341846113.301938 0.016788555 -0.001231993 0.005771649 0.065133817 0.045360904 0.504438758 0.859791517
1341846113.333866 0.016788317 -0.001232058 0.005771383 0.065774433 0.048389945 0.516283154 0.852516174
1341846113.366028 0.016788429 -0.001232068 0.005771649 0.066025987 0.049694121 0.527563274 0.845486820
1341846113.401917 0.016788505 -0.001232096 0.005771999 0.068151705 0.052935589 0.537885129 0.838589787
1341846113.433895 0.016788503 -0.001232061 0.005771627 0.068872690 0.054521952 0.548234701 0.831698596
1341846113.469984 0.016788404 -0.001232060 0.005771521 0.069181025 0.053963445 0.557206511 0.825725675
1341846113.501829 0.016788473 -0.001232083 0.005771840 0.071611583 0.056434810 0.564795852 0.820178330
1341846113.533888 0.016788425 -0.001232065 0.005771635 0.072096251 0.056432124 0.572368801 0.814868987
1341846113.569800 0.016788425 -0.001232060 0.005771638 0.072846211 0.054613657 0.580255687 0.809329391
1341846113.601892 0.016788444 -0.001232064 0.005771683 0.073589072 0.052790649 0.588086367 0.803711534
1341846113.634488 0.016788453 -0.001232033 0.005771664 0.074317150 0.051024213 0.595862210 0.798011065
1341846113.669776 0.016788451 -0.001232030 0.005771661 0.073731750 0.050995160 0.603755176 0.792112887
1341846113.701823 0.016788468 -0.001232044 0.005771664 0.073139176 0.050961189 0.611589313 0.786137521
1341846113.737952 0.016788488 -0.001232068 0.005771642 0.072617866 0.051014196 0.619363546 0.780072451
1341846113.769790 0.016788475 -0.001232065 0.005771635 0.072012007 0.050969560 0.627077639 0.773944438
1341846113.801808 0.016788455 -0.001232066 0.005771647 0.071396537 0.050916292 0.634727955 0.767743766
1341846113.837973 0.016788453 -0.001232066 0.005771650 0.070776694 0.050861761 0.642319083 0.761465609
1341846113.869842 0.016788464 -0.001232067 0.005771635 0.070154294 0.050793719 0.649845004 0.755115807
1341846113.901753 0.016788475 -0.001232069 0.005771643 0.069520682 0.050729226 0.657310307 0.748689890
1341846113.937955 0.016788498 -0.001232068 0.005771627 0.068886854 0.050665993 0.664712787 0.742188931
1341846113.969840 0.016788490 -0.001232064 0.005771628 0.068239808 0.050591655 0.672049224 0.735617876
1341846114.005912 0.016788486 -0.001232055 0.005771636 0.067586087 0.050512422 0.679320157 0.728975117
1341846114.043864 0.016788503 -0.001232032 0.005771643 0.066908889 0.050431591 0.686527848 0.722259879
1341846114.106082 0.016788507 -0.001232055 0.005771639 0.066245958 0.050343502 0.693666160 0.715474844
1341846114.137798 0.016788512 -0.001232052 0.005771639 0.065572739 0.050249748 0.700736284 0.708621085
1341846114.170101 0.016788518 -0.001232037 0.005771615 0.064889401 0.050150890 0.707737625 0.701699138
1341846114.205882 0.016788501 -0.001232027 0.005771665 0.064206898 0.050044160 0.714667737 0.694710732
1341846114.237814 0.016788503 -0.001232021 0.005771621 0.063517891 0.049930349 0.721531332 0.687651753
1341846114.273904 0.016788516 -0.001232031 0.005771615 0.062818773 0.049820047 0.728324056 0.680526078
1341846114.305813 0.016788514 -0.001232042 0.005771618 0.062117163 0.049696021 0.735046983 0.673333228
1341846114.337919 0.016788539 -0.001232048 0.005771646 0.061404474 0.049574580 0.741697311 0.666075826
1341846114.374059 0.016788537 -0.001232055 0.005771650 0.060690958 0.049446870 0.748274148 0.658754349
1341846114.406296 0.016788550 -0.001232066 0.005771668 0.059970863 0.049312729 0.754779518 0.651367545
1341846114.441861 0.016788550 -0.001232082 0.005771682 0.059247091 0.049175080 0.761209488 0.643918991
1341846114.473886 0.016788552 -0.001232097 0.005771693 0.058518175 0.049034316 0.767565310 0.636407614
1341846114.506009 0.016788552 -0.001232105 0.005771695 0.057780378 0.048887208 0.773847580 0.628833294
1341846114.541924 0.016788561 -0.001232119 0.005771715 0.057037100 0.048735257 0.780054450 0.621197760
1341846114.573824 0.016788563 -0.001232137 0.005771724 0.056288105 0.048578653 0.786185384 0.613501668
1341846114.605897 0.016788550 -0.001232137 0.005771692 0.055533402 0.048417393 0.792239845 0.605745733
1341846114.641888 0.016788542 -0.001232149 0.005771704 0.054773521 0.048251342 0.798217058 0.597930908
1341846114.673974 0.016788559 -0.001232161 0.005771738 0.054009922 0.048081439 0.804115653 0.590058565
1341846114.709730 0.016788555 -0.001232172 0.005771737 0.053237867 0.047906537 0.809936643 0.582128286
1341846114.741795 0.016788542 -0.001232182 0.005771734 0.052461222 0.047725264 0.815679371 0.574140429
1341846114.773917 0.016788542 -0.001232199 0.005771742 0.051682282 0.047539044 0.821342170 0.566097200
1341846114.810044 0.016788548 -0.001232218 0.005771761 0.050896600 0.047351994 0.826925039 0.557998478
1341846114.841856 0.016788537 -0.001232235 0.005771751 0.050105881 0.047158003 0.832427442 0.549845576
1341846114.873982 0.016530115 -0.001098636 0.005345637 0.055790752 0.039241068 0.671648502 0.737723410
1341846114.909807 0.016792756 -0.001229140 0.005806713 0.062642723 0.042470843 0.661229193 0.746356547
1341846114.941865 0.016744141 -0.001158642 0.005305658 0.069356591 0.044424802 0.651719272 0.753974795
1341846114.977980 0.016770406 -0.001239239 0.005677002 0.073205493 0.045132764 0.646689415 0.757889688
1341846115.009784 0.016784960 -0.001240212 0.005720169 0.072108299 0.046357684 0.636945724 0.766127586
1341846115.041927 0.016785687 -0.001233608 0.005759515 0.069369830 0.047765926 0.628862321 0.772941411
1341846115.077974 0.016785128 -0.001232983 0.005760599 0.068354703 0.046552673 0.623872399 0.777138174
1341846115.109710 0.016784281 -0.001232159 0.005758438 0.067848124 0.044603847 0.615050614 0.784295797
1341846115.177979 0.016783681 -0.001231751 0.005755644 0.058771949 0.043374788 0.595512152 0.800018609
1341846115.209893 0.016787048 -0.001235456 0.005767771 0.050049026 0.038699970 0.582864225 0.810102940
1341846115.245960 0.016790107 -0.001239192 0.005779543 0.041306909 0.034004055 0.570005774 0.819896877
1341846115.245960 0.016790107 -0.001239192 0.005779543 0.041306909 0.034004055 0.570005774 0.819896877
1341846115.245960 0.016790107 -0.001239192 0.005779543 0.041306909 0.034004055 0.570005774 0.819896877
1341846115.245960 0.016790107 -0.001239192 0.005779543 0.041306909 0.034004055 0.570005774 0.819896877
1341846115.245960 0.016790107 -0.001239192 0.005779543 0.041306909 0.034004055 0.570005774 0.819896877
1341846115.245960 0.016790107 -0.001239192 0.005779543 0.041306909 0.034004055 0.570005774 0.819896877
1341846115.245960 0.016790107 -0.001239192 0.005779543 0.041306909 0.034004055 0.570005774 0.819896877
1341846115.245960 0.016790107 -0.001239192 0.005779543 0.041306909 0.034004055 0.570005774 0.819896877
1341846115.513951 0.016402544 0.001734182 -0.014149886 -0.002901015 0.038902950 0.471674412 0.880909443
1341846115.545891 0.016783006 -0.001237002 0.005742134 -0.007354987 0.036259860 0.460491657 0.886892617
1341846115.577954 0.019820951 0.000834425 -0.004925979 -0.011285918 0.034456957 0.448002279 0.893296897
1341846115.613954 0.018202603 -0.000259177 -0.000005475 -0.014119627 0.034872726 0.437402397 0.898478508
1341846115.645824 0.021209385 0.002520835 -0.010433841 -0.016031764 0.031167451 0.424330086 0.904829025
1341846115.681882 0.019502319 0.001299877 -0.010197827 -0.021509109 0.028426422 0.408914626 0.911876202
1341846115.714384 0.019388752 0.002258415 -0.010077148 -0.025859345 0.029685723 0.391266823 0.919434845
1341846115.746144 0.019194255 0.001569045 -0.006840085 -0.029849045 0.031292249 0.377990991 0.924798727
1341846115.781725 0.019577853 0.002077387 -0.009133351 -0.033143304 0.029834246 0.369545072 0.928142190
1341846115.813812 0.018836113 0.001298734 -0.006463687 -0.036837786 0.031480227 0.357625484 0.932607114
1341846115.848050 0.019225294 0.001780931 -0.007755291 -0.038315322 0.035824329 0.346195906 0.936694682
1341846115.881857 0.019307123 0.001828646 -0.008325634 -0.041619975 0.036925796 0.336144298 0.940165579
1341846115.913919 0.018815951 0.000355546 -0.003538893 -0.046815764 0.036319893 0.329979748 0.942126572
1341846115.950006 0.017918771 -0.001048624 0.002085082 -0.049171712 0.039200731 0.320325553 0.945217967
1341846115.982063 0.017672960 -0.001045254 0.002763298 -0.050431855 0.043025464 0.311832637 0.947821617
1341846116.014067 0.018783502 0.000273822 -0.002410307 -0.051528800 0.042827919 0.309975415 0.948380649
1341846116.050272 0.017224938 -0.001526760 0.003437794 -0.051601235 0.042085920 0.304908365 0.950051010
1341846116.081984 0.017945338 -0.001082741 0.002505842 -0.050332807 0.043734174 0.294556528 0.953305006
1341846116.113928 0.017818512 -0.001086208 0.001152159 -0.052702248 0.045133591 0.286524951 0.955556870
1341846116.149901 0.017689658 -0.001154866 0.002659732 -0.053519547 0.042513795 0.282674760 0.956777513
1341846116.181797 0.020721825 0.000477347 -0.008397531 -0.050142389 0.041779321 0.272093952 0.960054755
1341846116.219755 0.018898275 -0.000533044 -0.002198244 -0.051576987 0.043860115 0.262097210 0.962663591
1341846116.252587 0.018693581 -0.001144308 0.000471726 -0.053479146 0.043864995 0.258254170 0.963597715
1341846116.282014 0.018119512 -0.001628970 -0.002326468 -0.050777446 0.044902533 0.252444386 0.965234280
1341846116.319031 0.020160917 -0.000335371 -0.003622669 -0.050333600 0.045458049 0.247676879 0.966465890
1341846116.381987 0.018090170 -0.001066858 0.001242882 -0.052066579 0.047435399 0.240419775 0.968110144
1341846116.417962 0.017331650 -0.000802258 0.002578858 -0.052271049 0.048551798 0.235522851 0.969246864
1341846116.449943 0.016694495 -0.000755587 0.004428722 -0.054232784 0.048173819 0.228686571 0.970793784
1341846116.486079 0.017247645 -0.001736348 -0.009783339 -0.055539005 0.049247801 0.218515873 0.973006129
1341846116.517901 0.017753337 -0.001814502 -0.009954312 -0.057790305 0.049261156 0.210184306 0.974708259
1341846116.549851 0.017545536 -0.001858920 -0.006264199 -0.060015921 0.047117315 0.200655818 0.976685882
1341846116.585719 0.017514216 -0.001855252 -0.005830652 -0.062368475 0.046551321 0.187689096 0.979140401
1341846116.617985 0.017096553 -0.001241178 -0.004423195 -0.064728260 0.048333004 0.181769416 0.980017364
1341846116.653901 0.017614713 -0.001758124 -0.004764824 -0.066436090 0.047659099 0.181838199 0.979923308
1341846116.686079 0.017443430 -0.001934519 -0.003990764 -0.066058964 0.047213737 0.179313421 0.980435491
1341846116.717942 0.017516401 -0.001901613 -0.005605749 -0.065528922 0.049890492 0.176201299 0.980902612
1341846116.753865 0.017581679 -0.001849604 -0.006173682 -0.067230523 0.050396536 0.174936518 0.980988026
1341846116.785839 0.017468147 -0.001864529 -0.005613426 -0.066823773 0.047618844 0.172606900 0.981567025
1341846116.818815 0.017639704 -0.001702091 -0.005440986 -0.065006137 0.046635594 0.162828565 0.983405411
1341846116.853902 0.017580358 -0.001714335 -0.005506709 -0.067468993 0.046705879 0.155755475 0.984381378
1341846116.886435 0.017309606 -0.001706565 -0.002910843 -0.067812726 0.043582480 0.148992509 0.985547185
1341846116.921838 0.017795637 -0.001506768 -0.003024583 -0.066251524 0.042151179 0.141366974 0.986838102
1341846116.953941 0.017545177 -0.001296388 -0.002369008 -0.066481069 0.041079994 0.133752018 0.987928689
1341846116.985759 0.017479481 -0.001252916 -0.002971619 -0.066027530 0.038949888 0.127780437 0.988835394
1341846117.021816 0.017542074 -0.001335669 -0.001731100 -0.065584362 0.036145944 0.120997354 0.989824116
1341846117.054055 0.017696954 -0.001347368 -0.001897121 -0.065367952 0.033892751 0.114403911 0.990701795
1341846117.085953 0.017685046 -0.001282522 -0.002082926 -0.065657422 0.031653713 0.106345840 0.991654038
1341846117.121840 0.017636346 -0.001272224 -0.002058875 -0.064843334 0.028761895 0.100648604 0.992390037
1341846117.154178 0.017899636 -0.001409503 -0.000507743 -0.064265721 0.026620070 0.097168341 0.992834091
1341846117.190028 0.017831178 -0.001498118 0.000028731 -0.063238211 0.024784595 0.094855607 0.993171215
1341846117.221812 0.017264748 -0.001446433 0.000608411 -0.062703088 0.024103589 0.087898098 0.993861794
1341846117.253848 0.017069846 -0.001589204 0.002809344 -0.063328899 0.025016308 0.084555306 0.994089544
1341846117.289976 0.016808527 -0.001263942 0.005750306 -0.064055339 0.023188969 0.085525148 0.994004369
1341846117.321956 0.016799642 -0.001254810 0.005928736 -0.062438168 0.020527706 0.081219874 0.994526744
1341846117.354004 0.016804453 -0.001232423 0.005788795 -0.061075673 0.023437077 0.075275511 0.995014608
1341846117.389874 0.016806647 -0.001229931 0.005773889 -0.062050652 0.024252383 0.075455010 0.994921148
1341846117.421707 0.016806750 -0.001229770 0.005780685 -0.062310800 0.020519873 0.073470049 0.995137393
1341846117.457914 0.016805675 -0.001230776 0.005785603 -0.060477551 0.020540725 0.069173656 0.995557904
1341846117.490067 0.016807906 -0.001230486 0.005779219 -0.061014146 0.021433605 0.065502793 0.995754600
1341846117.521746 0.016807422 -0.001228780 0.005781934 -0.062295042 0.018280491 0.064894646 0.995778024
1341846117.557896 0.016804785 -0.001226679 0.005777085 -0.060343053 0.015930302 0.062856868 0.996069252
1341846117.590027 0.016804397 -0.001228288 0.005774881 -0.060188785 0.015330637 0.062170569 0.996131063
1341846117.621818 0.016805412 -0.001224911 0.005765471 -0.059115659 0.013542000 0.062660314 0.996190548
1341846117.658054 0.016808674 -0.001221677 0.005752354 -0.055620544 0.011233747 0.062770002 0.996413589
1341846117.689984 0.016808953 -0.001221812 0.005749336 -0.053075142 0.011351758 0.060791362 0.996673763
1341846117.725898 0.016806772 -0.001224338 0.005727292 -0.050853807 0.010740517 0.060006276 0.996843934
1341846117.757737 0.016800005 -0.001218579 0.005797296 -0.045989178 0.008923683 0.059654456 0.997119188
1341846117.790023 0.016799033 -0.001216546 0.005788216 -0.044191666 0.007104862 0.058405582 0.997289062
1341846117.825949 0.016799107 -0.001216515 0.005786975 -0.041927628 0.006422168 0.054870322 0.997592151
1341846117.857847 0.016798720 -0.001217028 0.005789621 -0.040074404 0.007253603 0.051494952 0.997842491
1341846117.893987 0.016798181 -0.001216408 0.005791721 -0.039863233 0.006932697 0.060556475 0.997344375
1341846117.925908 0.016798839 -0.001216564 0.005789137 -0.039479204 0.005720672 0.061867006 0.997286916
1341846117.958141 0.016798981 -0.001216551 0.005788644 -0.038838595 0.008574968 0.063087970 0.997215092
1341846117.993978 0.016798157 -0.001216413 0.005791889 -0.040074639 0.009948876 0.065766998 0.996980309
1341846118.025852 0.016799033 -0.001216526 0.005788407 -0.041311413 0.008950619 0.069810033 0.996664345
1341846118.058362 0.016799426 -0.001216695 0.005786804 -0.040960994 0.009405654 0.069561645 0.996692002
1341846118.093970 0.016797906 -0.001216406 0.005792714 -0.040849399 0.011013155 0.070963837 0.996581256
1341846118.125943 0.016795447 -0.001215845 0.005802170 -0.041837372 0.010709230 0.072533011 0.996430635
1341846118.161827 0.016791847 -0.001215108 0.005815985 -0.042824235 0.010404032 0.074101925 0.996276438
1341846118.194750 0.016798904 -0.001218801 0.005811389 -0.039704006 0.011937547 0.071277432 0.996594489
1341846118.226048 0.016796215 -0.001227009 0.005808346 -0.040053796 0.012717382 0.071442656 0.996559024
1341846118.261772 0.016780822 -0.001244426 0.005884404 -0.039094612 0.012719228 0.071520172 0.996591508
1341846118.294053 0.016802967 -0.001220607 0.005773149 -0.036968842 0.014032329 0.070567504 0.996722937
1341846118.336123 0.016801307 -0.001224276 0.005787067 -0.036300048 0.015215144 0.071377292 0.996672511
1341846118.362053 0.016788034 -0.001233869 0.005783026 -0.037258901 0.014825967 0.071411856 0.996640503
1341846118.393906 0.016787805 -0.001233683 0.005783208 -0.036955271 0.016400095 0.069391020 0.996769905
1341846118.429882 0.016787292 -0.001233346 0.005779926 -0.036785923 0.018105671 0.070066206 0.996699393
1341846118.461821 0.016788257 -0.001233006 0.005778498 -0.038032871 0.016678456 0.071769260 0.996556342
1341846118.509152 0.016788006 -0.001233217 0.005778944 -0.038616933 0.016325248 0.070746511 0.996612847
1341846118.535838 0.016787898 -0.001232217 0.005776764 -0.037982188 0.017522808 0.071191579 0.996585190
1341846118.567808 0.016788024 -0.001233925 0.005782005 -0.039105020 0.016566804 0.073563986 0.996385813
1341846118.603991 0.016787872 -0.001232150 0.005777362 -0.038929682 0.015352016 0.072424501 0.996495605
1341846118.635802 0.016787944 -0.001230959 0.005772848 -0.036761891 0.017838309 0.071824074 0.996580005
1341846118.667919 0.016787848 -0.001232210 0.005779862 -0.037436377 0.018447133 0.073923327 0.996390283
1341846118.703956 0.016787589 -0.001231692 0.005775985 -0.037135698 0.017551892 0.074362196 0.996385038
1341846118.735837 0.016788041 -0.001231659 0.005774487 -0.035463251 0.019306200 0.073407285 0.996484280
1341846118.772013 0.016787620 -0.001231068 0.005777283 -0.036033880 0.020685645 0.074247852 0.996373892
1341846118.804343 0.016787631 -0.001231277 0.005777061 -0.036340408 0.020087715 0.075239174 0.996300638
1341846118.835817 0.016787687 -0.001231357 0.005777305 -0.034690984 0.020834589 0.075133897 0.996352017
1341846118.872045 0.016788293 -0.001231069 0.005775856 -0.035249162 0.021389050 0.075374231 0.996302485
1341846118.903860 0.016788004 -0.001232565 0.005777889 -0.035667449 0.020614168 0.075149760 0.996320963
1341846118.935809 0.016788743 -0.001232226 0.005774228 -0.035341065 0.021137197 0.073097840 0.996474266
1341846118.971870 0.016788028 -0.001233134 0.005776932 -0.034695078 0.022331968 0.073604643 0.996433556
1341846119.003949 0.016788336 -0.001233361 0.005777312 -0.034284309 0.021822551 0.075335696 0.996329725
1341846119.035768 0.016788362 -0.001233370 0.005776790 -0.030612154 0.023744451 0.076189771 0.996340394
1341846119.071829 0.016788354 -0.001233176 0.005775696 -0.027403584 0.027530191 0.078940853 0.996122181
1341846119.103837 0.016788870 -0.001232179 0.005772944 -0.026581813 0.027680457 0.080572337 0.996009707
1341846119.136478 0.016788907 -0.001231712 0.005766568 -0.025631459 0.027839374 0.081468359 0.995957315
1341846119.171928 0.016788779 -0.001231870 0.005764883 -0.023134859 0.029988542 0.080130354 0.996064544
1341846119.203919 0.016789651 -0.001232576 0.005766901 -0.021584136 0.031111065 0.082098685 0.995904624
1341846119.266059 0.016788946 -0.001232706 0.005770165 -0.019364653 0.026667405 0.088317230 0.995547056
1341846119.297817 0.016789386 -0.001233704 0.005769707 -0.019112738 0.026246119 0.088953376 0.995506465
1341846119.334095 0.016789639 -0.001232844 0.005768561 -0.019842107 0.024490247 0.090859823 0.995364785
1341846119.365757 0.016789284 -0.001232277 0.005770109 -0.017901156 0.022311997 0.092123397 0.995336652
1341846119.401815 0.016789190 -0.001232524 0.005771073 -0.016322406 0.021845223 0.093108341 0.995282471
1341846119.434863 0.016789189 -0.001232585 0.005771491 -0.016198587 0.022736400 0.091171712 0.995443821
1341846119.465868 0.016789209 -0.001232619 0.005770826 -0.016291752 0.023732405 0.089954033 0.995529830
1341846119.501761 0.016789235 -0.001232677 0.005770030 -0.015273510 0.024463220 0.088993974 0.995614529
1341846119.533772 0.016789302 -0.001232488 0.005769443 -0.013450192 0.024648719 0.090080298 0.995538592
1341846119.565854 0.016789515 -0.001232347 0.005768527 -0.013500183 0.024651835 0.089789703 0.995564103
