1341846092.023798 0.000000000 0.000000000 0.000000000 0.000000000 0.000000000 0.000000000 1.000000000
1341846092.059891 0.000357211 0.000819220 0.000369069 0.001556771 0.000556230 -0.001815680 0.999996960
1341846092.091861 0.000648246 -0.000550736 -0.000051689 0.002653906 0.000947806 -0.001983044 0.999994040
1341846092.123884 0.000833716 0.000531226 -0.000001134 0.004324186 0.001003145 -0.002039891 0.999988079
1341846092.159881 -0.000130857 -0.001272581 0.000209982 0.005405562 0.001210782 -0.000536259 0.999984503
1341846092.191824 0.000705685 0.000342006 0.000401948 0.007208659 0.000621037 0.000536899 0.999973655
1341846092.227766 0.002906562 0.004772064 -0.001261676 0.009066834 0.000842866 -0.000398215 0.999958456
1341846092.259844 0.001599906 0.006341527 -0.000330162 0.008572483 0.001410056 -0.000942150 0.999961793
1341846092.291754 0.002705281 0.002002346 0.002554340 0.008567055 0.000983900 -0.002289776 0.999960184
1341846092.327827 0.004395970 -0.002332720 0.000601043 0.010234877 0.001053986 -0.003001478 0.999942541
1341846092.359956 0.001686824 -0.002519564 0.000687760 0.013070477 0.001469923 -0.003807123 0.999906242
1341846092.395855 0.001738943 -0.002490456 0.002591156 0.015953269 0.001358074 -0.005817244 0.999854922
1341846092.428016 0.000633103 -0.001981786 0.002242920 0.018706586 0.002144808 -0.008697199 0.999784887
1341846092.459991 0.003284805 -0.003433310 0.002532929 0.021115566 0.002057099 -0.010904413 0.999715447
1341846092.495930 0.002390646 -0.004238023 0.002297170 0.024414778 0.002668784 -0.013194129 0.999611259
1341846092.528072 0.004802395 -0.006640678 0.003214810 0.027788803 0.002497787 -0.016050220 0.999481857
1341846092.559842 0.005667728 -0.008250424 -0.000730187 0.032158978 0.004310228 -0.018429730 0.999303520
1341846092.595783 0.004690301 -0.005151507 0.001950957 0.037539504 0.005270264 -0.018542701 0.999109209
1341846092.628121 0.004250600 -0.008468238 -0.002081281 0.041112702 0.004488187 -0.017786976 0.998986125
1341846092.659797 0.008455204 -0.005248227 -0.005764360 0.046099432 0.004945796 -0.019297380 0.998738229
1341846092.696012 0.008989000 -0.002879110 -0.002689375 0.049222957 0.006746357 -0.020590203 0.998552740
1341846092.727906 0.005774460 -0.008978300 0.002209697 0.051827133 0.007209889 -0.020280337 0.998424113
1341846092.760105 0.004605572 -0.009223006 0.001021279 0.058777951 0.007220516 -0.018201984 0.998079002
1341846092.795871 0.005465808 -0.009049488 0.001094923 0.063610874 0.005172376 -0.016545689 0.997824192
1341846092.827857 0.005823920 -0.008807797 0.000939627 0.069831833 0.005603349 -0.021374775 0.997313976
1341846092.863824 0.005032540 -0.007880383 -0.000256271 0.074119054 0.008614540 -0.027964165 0.996820033
1341846092.895885 0.005775486 -0.008463656 0.001619870 0.075587101 0.008419768 -0.030421257 0.996639490
1341846092.927920 0.005751646 -0.008967367 0.002299823 0.080376700 0.008092905 -0.030169765 0.996275008
1341846092.963849 0.005612290 -0.008955728 0.000768171 0.086289428 0.009390409 -0.029681239 0.995783627
1341846092.995760 0.005744830 -0.008962785 0.002310647 0.091701709 0.009675141 -0.029215630 0.995310843
1341846093.027860 0.005906222 -0.008733443 0.002957687 0.100007206 0.009319027 -0.027881626 0.994552314
1341846093.063741 0.005742917 -0.008946413 0.002316000 0.107658103 0.009797099 -0.026409201 0.993788838
1341846093.125933 0.005711694 -0.008954327 0.002381057 0.115126356 0.013062846 -0.031278975 0.992772341
1341846093.157795 0.005731806 -0.008925226 0.002307535 0.121148333 0.014437969 -0.028266978 0.992126822
1341846093.189822 0.005742438 -0.008942041 0.002328622 0.126329005 0.012344624 -0.024083817 0.991619170
1341846093.225887 0.005738555 -0.008912346 0.002266964 0.131574079 0.013110051 -0.023993395 0.990929246
1341846093.257900 0.005729600 -0.008919801 0.002302907 0.136627838 0.015087450 -0.024613850 0.990201712
1341846093.289744 0.005730993 -0.008928166 0.002321383 0.142129630 0.016466029 -0.023328302 0.989436090
1341846093.325795 0.005731278 -0.008927483 0.002322619 0.148441479 0.016996419 -0.021859039 0.988533497
1341846093.357904 0.005724212 -0.008922329 0.002312188 0.152792081 0.018022384 -0.022690963 0.987833440
1341846093.393841 0.005728927 -0.008926005 0.002324822 0.156684518 0.019298997 -0.022937147 0.987193704
1341846093.425924 0.005729761 -0.008930677 0.002329038 0.163044095 0.018505206 -0.018989332 0.986262441
1341846093.457796 0.005723512 -0.008915455 0.002328823 0.169399887 0.017899621 -0.019085092 0.985199988
1341846093.493817 0.005725703 -0.008920001 0.002340974 0.175203413 0.018536899 -0.016852474 0.984213471
1341846093.525871 0.005722787 -0.008914855 0.002329331 0.181372494 0.018851925 -0.014109558 0.983132482
1341846093.561833 0.005720728 -0.008918111 0.002334534 0.188709125 0.018600438 -0.009967456 0.981806278
1341846093.593995 0.005722799 -0.008914933 0.002329416 0.193891719 0.018436670 -0.009836093 0.980800331
1341846093.625945 0.005723210 -0.008914337 0.002331286 0.197682142 0.019805413 -0.010959134 0.980004787
1341846093.661809 0.005722008 -0.008914803 0.002330002 0.203686893 0.019895306 -0.011567174 0.978765547
1341846093.693938 0.005722713 -0.008914462 0.002329830 0.209319472 0.019967748 -0.012843505 0.977559030
1341846093.725842 0.005722501 -0.008914656 0.002330337 0.214833230 0.018967489 -0.012221375 0.976390064
1341846093.761995 0.005722732 -0.008914495 0.002330126 0.222815216 0.017003242 -0.009403045 0.974667013
1341846093.794228 0.005722167 -0.008913741 0.002327941 0.230519012 0.013826516 -0.004794001 0.972957790
1341846093.829820 0.005722642 -0.008914541 0.002330139 0.236769497 0.011339432 -0.004141942 0.971490860
1341846093.861841 0.005722940 -0.008914888 0.002330843 0.241523564 0.012856984 -0.007124035 0.970283628
1341846093.893823 0.005723032 -0.008914782 0.002330782 0.248181179 0.011893511 -0.007495108 0.968611658
1341846093.929912 0.005722538 -0.008913992 0.002328997 0.256364286 0.009231459 -0.006027109 0.966517389
1341846093.961968 0.005722010 -0.008913765 0.002330236 0.265108973 0.009394654 -0.003598942 0.964165986
1341846093.994029 0.005722115 -0.008914216 0.002331732 0.270460218 0.009638378 -0.003268363 0.962677360
1341846094.029902 0.005721844 -0.008913769 0.002329289 0.273835599 0.010219600 -0.004452672 0.961711943
1341846094.062046 0.005721946 -0.008913876 0.002329411 0.277936637 0.011997660 -0.004869001 0.960512102
1341846094.097921 0.005721622 -0.008913785 0.002329412 0.281777591 0.012897109 -0.003764454 0.959385693
1341846094.129856 0.005721599 -0.008913772 0.002329427 0.283935487 0.013481772 -0.003157585 0.958743393
1341846094.161786 0.005721360 -0.008913795 0.002329008 0.286156863 0.015473283 -0.003435114 0.958051682
1341846094.197938 0.005721356 -0.008913799 0.002328990 0.285456240 0.019334253 -0.004784953 0.958184779
1341846094.229967 0.005720970 -0.008913890 0.002328428 0.285464615 0.022612132 -0.005600950 0.958106101
1341846094.261795 0.005719195 -0.008913266 0.002327931 0.284650683 0.026590124 -0.006234289 0.958242178
1341846094.297927 0.005719020 -0.008913130 0.002327640 0.283932537 0.030449236 -0.007581885 0.958330691
1341846094.329846 0.005717484 -0.008911930 0.002328463 0.282996893 0.034291789 -0.009147833 0.958463967
1341846094.366053 0.005717469 -0.008911915 0.002328474 0.282269150 0.038147822 -0.010496626 0.958519042
1341846094.397911 0.005713037 -0.008908906 0.002330099 0.281607598 0.041701175 -0.011252885 0.958557010
1341846094.429746 0.005712958 -0.008908781 0.002330176 0.280868530 0.045554612 -0.012601063 0.958581686
1341846094.466133 0.005710045 -0.008904029 0.002333475 0.279685080 0.049421486 -0.014604767 0.958707690
1341846094.497922 0.005709847 -0.008903814 0.002333602 0.278938264 0.053272910 -0.015954114 0.958697498
1341846094.533970 0.005709706 -0.008903606 0.002333707 0.278186709 0.057123348 -0.017303037 0.958670795
1341846094.565945 0.005703347 -0.008895174 0.002340061 0.277630955 0.060962368 -0.018453810 0.958573997
1341846094.597899 0.005703251 -0.008894934 0.002340228 0.276869208 0.064810663 -0.019801149 0.958514988
1341846094.633912 0.005703171 -0.008894667 0.002340458 0.276102632 0.068657808 -0.021148143 0.958439469
1341846094.665844 0.005699563 -0.008885997 0.002347937 0.275218099 0.072594739 -0.022766342 0.958366692
1341846094.697961 0.005699429 -0.008885842 0.002347975 0.269285679 0.076483965 -0.024017183 0.959717989
1341846094.733999 0.005699547 -0.008885865 0.002348105 0.263332218 0.080363899 -0.025266865 0.961019993
1341846094.767923 0.005700231 -0.008884676 0.002348755 0.258293331 0.080446362 -0.024626434 0.962396264
1341846094.801844 0.005700431 -0.008884573 0.002348911 0.253796726 0.076481178 -0.023098420 0.963952482
1341846094.833846 0.005700321 -0.008884425 0.002348916 0.249498874 0.076281168 -0.020209728 0.965154409
1341846094.866031 0.005701546 -0.008882482 0.002349668 0.245073617 0.076362737 -0.016931809 0.966344118
1341846094.901923 0.005701461 -0.008882455 0.002349466 0.235862851 0.075976402 -0.013836324 0.968712986
1341846094.966365 0.005701314 -0.008881699 0.002349854 0.226622462 0.075578585 -0.010738146 0.970986545
1341846095.002198 0.005701291 -0.008880035 0.002351060 0.217309400 0.075150140 -0.008359838 0.973169684
1341846095.034722 0.005701217 -0.008879978 0.002351122 0.208224252 0.076662607 -0.005480455 0.975056648
1341846095.075946 0.005700910 -0.008881213 0.002351143 0.199218661 0.078229479 -0.003622933 0.976820827
1341846095.134021 0.005700971 -0.008881213 0.002351070 0.191160306 0.081715263 -0.001200216 0.978150785
1341846095.169946 0.005700916 -0.008881517 0.002350795 0.185248181 0.082721248 0.001743988 0.979202390
1341846095.201911 0.005700984 -0.008881187 0.002350108 0.184797868 0.081139989 0.006670895 0.979398549
1341846095.233880 0.005701178 -0.008881158 0.002350361 0.179896295 0.080765523 0.006234638 0.980344534
1341846095.269927 0.005701226 -0.008881031 0.002350149 0.174869105 0.081723839 0.006086722 0.981175303
1341846095.301803 0.005701336 -0.008880854 0.002349770 0.169373378 0.079704382 0.007151128 0.982297659
1341846095.337767 0.005701168 -0.008881008 0.002350140 0.163796186 0.077444308 0.008473880 0.983413100
1341846095.369772 0.005701030 -0.008881305 0.002350638 0.157165438 0.079053514 0.008325303 0.984367907
1341846095.401800 0.005701128 -0.008881266 0.002350458 0.151757345 0.079367958 0.009091482 0.985184133
1341846095.437762 0.005701183 -0.008881069 0.002350289 0.147689953 0.078799017 0.010405263 0.985834718
1341846095.469900 0.005701083 -0.008881145 0.002350615 0.143933117 0.079761967 0.012934968 0.986282885
1341846095.501905 0.005701064 -0.008881194 0.002350104 0.140116498 0.080964379 0.015279393 0.986700892
1341846095.538219 0.005701087 -0.008881144 0.002349986 0.133862764 0.082501687 0.013667783 0.987465143
1341846095.569934 0.005701044 -0.008881259 0.002350183 0.127606899 0.084034696 0.012055676 0.988184869
1341846095.606238 0.005701059 -0.008881628 0.002350035 0.122779369 0.084812060 0.011230598 0.988739610
1341846095.637875 0.005701044 -0.008881658 0.002350039 0.117859200 0.085875452 0.009837237 0.989261270
1341846095.669890 0.005701032 -0.008881688 0.002350056 0.112935983 0.086936384 0.008443628 0.989755630
1341846095.705878 0.005701066 -0.008882757 0.002350177 0.108721100 0.087854892 0.008073966 0.990149498
1341846095.737902 0.005701108 -0.008882740 0.002350161 0.105672322 0.088666566 0.007957872 0.990408123
1341846095.773812 0.005701100 -0.008882763 0.002350192 0.102622785 0.089477114 0.007842041 0.990656793
1341846095.838106 0.005701154 -0.008882578 0.002349806 0.093522698 0.092027307 0.011696823 0.991285861
1341846095.873871 0.005701046 -0.008882385 0.002349983 0.089867651 0.093980126 0.014726870 0.991400361
1341846095.905980 0.005701145 -0.008882224 0.002349797 0.083920546 0.093281113 0.017326670 0.991945446
1341846095.937932 0.005701158 -0.008882246 0.002349922 0.079078421 0.092212014 0.018411772 0.992423594
1341846095.973926 0.005701124 -0.008882446 0.002349860 0.074500576 0.093817227 0.018917045 0.992617846
1341846096.005891 0.005701193 -0.008882297 0.002349764 0.069282308 0.093551636 0.020605283 0.992987156
1341846096.041838 0.005701163 -0.008882269 0.002349880 0.064386718 0.092609234 0.021120843 0.993394077
1341846096.073937 0.005701086 -0.008882198 0.002349976 0.059909511 0.093019947 0.019918896 0.993660629
1341846096.105773 0.005701161 -0.008881765 0.002349858 0.055416696 0.093431585 0.018714353 0.993906081
1341846096.141944 0.005701085 -0.008882106 0.002350119 0.047702577 0.093910389 0.017678486 0.994280040
1341846096.173951 0.005701153 -0.008882320 0.002350176 0.043974884 0.093410693 0.014975096 0.994543314
1341846096.205991 0.005701162 -0.008882398 0.002350206 0.042539056 0.093921311 0.013997040 0.994571924
1341846096.241942 0.005701152 -0.008882259 0.002350108 0.040496953 0.092913009 0.015698383 0.994726419
1341846096.273909 0.005701121 -0.008882250 0.002350032 0.037195139 0.092358753 0.015631132 0.994908035
1341846096.309891 0.005701097 -0.008882253 0.002349852 0.033127513 0.092991196 0.015032924 0.995002091
1341846096.341861 0.005701122 -0.008882249 0.002350101 0.029867550 0.092572272 0.014617253 0.995150566
1341846096.374240 0.005701143 -0.008882233 0.002350054 0.028936239 0.091666244 0.014035280 0.995270312
1341846096.409718 0.005701125 -0.008882231 0.002350028 0.027375959 0.092453398 0.013334958 0.995251298
1341846096.441905 0.005701104 -0.008882212 0.002349956 0.024164423 0.093140826 0.012124589 0.995285809
1341846096.473846 0.005701094 -0.008882227 0.002350006 0.020680049 0.092643075 0.010276035 0.995431542
1341846096.510050 0.005701123 -0.008882237 0.002349971 0.017930763 0.093036972 0.008052586 0.995468616
1341846096.542063 0.005701108 -0.008882239 0.002350009 0.016751060 0.094354615 0.006133945 0.995378792
1341846096.577955 0.005701116 -0.008882225 0.002349985 0.014765566 0.095099486 0.005117935 0.995345056
1341846096.609941 0.005701065 -0.008882058 0.002349705 0.010122358 0.094591498 0.005082599 0.995451748
1341846096.641875 0.005701095 -0.008882081 0.002349816 0.004340368 0.094444551 0.004279778 0.995511472
1341846096.677902 0.005701186 -0.008882420 0.002349737 0.000142339 0.094976678 0.002803389 0.995475531
1341846096.709906 0.005701175 -0.008882399 0.002349702 -0.004480667 0.095419571 0.002014908 0.995425045
1341846096.745991 0.005701150 -0.008882368 0.002349710 -0.009103692 0.095858373 0.001226258 0.995352566
1341846096.777870 0.005701157 -0.008882391 0.002349686 -0.013726390 0.096294962 0.000437526 0.995258093
1341846096.810244 0.005701262 -0.008881671 0.002349758 -0.018899806 0.096684195 -0.000138727 0.995135605
1341846096.845763 0.005701244 -0.008881636 0.002349755 -0.023524703 0.097115003 -0.000927956 0.994994700
1341846096.878199 0.005701192 -0.008881493 0.002349880 -0.028912224 0.097369887 -0.002043603 0.994826138
1341846096.909946 0.005701193 -0.008881493 0.002349842 -0.033536464 0.097796746 -0.002833973 0.994637132
1341846096.945914 0.005701271 -0.008881564 0.002349821 -0.041309133 0.096589439 -0.001182762 0.994466007
1341846096.978058 0.005701242 -0.008881728 0.002349757 -0.050642233 0.097373955 -0.001531097 0.993957400
1341846097.014061 0.005701206 -0.008881839 0.002349881 -0.058358304 0.099361010 -0.003582534 0.993332207
1341846097.045960 0.005701192 -0.008881819 0.002349738 -0.067048959 0.100952484 -0.004631006 0.992618561
1341846097.078464 0.005701146 -0.008881952 0.002349989 -0.073504709 0.102035441 -0.005725842 0.992044866
1341846097.113795 0.005701195 -0.008881886 0.002350030 -0.078091733 0.102999203 -0.007740768 0.991581023
1341846097.146138 0.005701159 -0.008881939 0.002349957 -0.082682163 0.104816340 -0.008870339 0.991008818
1341846097.178019 0.005701180 -0.008881912 0.002350160 -0.086026743 0.105371848 -0.008148883 0.990671337
1341846097.213933 0.005701162 -0.008882014 0.002350366 -0.087999843 0.103708915 -0.007495295 0.990678668
1341846097.246080 0.005701158 -0.008881986 0.002350286 -0.089883544 0.102122337 -0.007064863 0.990677595
1341846097.282030 0.005701174 -0.008882013 0.002350283 -0.092897795 0.103031464 -0.006686337 0.990307927
1341846097.313977 0.005701116 -0.008882124 0.002350217 -0.095882736 0.103774562 -0.006021423 0.989950061
1341846097.345922 0.005701115 -0.008882117 0.002350229 -0.099411495 0.102683060 -0.005143824 0.989720702
1341846097.381852 0.005701423 -0.008881835 0.002350064 -0.102993146 0.102134250 -0.003891201 0.989416957
1341846097.413864 0.005701425 -0.008881828 0.002350052 -0.105880484 0.103813037 -0.002800951 0.988941014
1341846097.445910 0.005701509 -0.008880876 0.002349835 -0.109062821 0.105138823 -0.001939401 0.988457084
1341846097.481979 0.005701375 -0.008879838 0.002350070 -0.111977972 0.106652789 -0.000957548 0.987970233
1341846097.514061 0.005701372 -0.008879812 0.002350063 -0.114861444 0.108328924 0.000130760 0.987457156
1341846097.550048 0.005701317 -0.008878498 0.002349921 -0.117688067 0.110246398 0.000899605 0.986911535
1341846097.587812 0.005701306 -0.008878459 0.002349921 -0.120567821 0.111920670 0.001988699 0.986373782
1341846097.649731 0.005701100 -0.008876571 0.002349927 -0.123452902 0.113667458 0.002708080 0.985815287
1341846097.681970 0.005701060 -0.008876513 0.002349871 -0.127286538 0.114243098 0.003776604 0.985257506
1341846097.714026 0.005700999 -0.008876433 0.002350066 -0.131121278 0.114808358 0.004841769 0.984684110
1341846097.749749 0.005701056 -0.008876671 0.002349889 -0.132988930 0.114116855 0.003547138 0.984519541
1341846097.782019 0.005701080 -0.008876439 0.002349895 -0.134943590 0.113702901 0.002420631 0.984304845
1341846097.817835 0.005701118 -0.008876111 0.002349820 -0.136931598 0.113294624 0.001305167 0.984079421
1341846097.849998 0.005701074 -0.008876451 0.002349992 -0.136502385 0.113538809 -0.001248216 0.984111011
1341846097.882032 0.005701077 -0.008876461 0.002350062 -0.136390939 0.112877600 -0.002944014 0.984198928
1341846097.917945 0.005701003 -0.008876489 0.002349917 -0.136264592 0.112210691 -0.004646748 0.984286070
1341846097.949812 0.005701048 -0.008876797 0.002349938 -0.134648889 0.111967243 -0.006521253 0.984525502
1341846097.985786 0.005701053 -0.008876968 0.002349959 -0.130724728 0.112660766 -0.008098521 0.984963477
1341846098.017778 0.005700958 -0.008877211 0.002350244 -0.126796737 0.113355599 -0.009664983 0.985382974
1341846098.050033 0.005700978 -0.008877358 0.002350136 -0.120531052 0.113409072 -0.012244336 0.986134231
1341846098.085962 0.005701113 -0.008876977 0.002350099 -0.113433413 0.114433661 -0.016548226 0.986794770
1341846098.117764 0.005701203 -0.008876663 0.002349702 -0.110076353 0.117587589 -0.021024480 0.986718953
1341846098.149904 0.005701116 -0.008876500 0.002349766 -0.109438531 0.120088898 -0.025291465 0.986388445
1341846098.185874 0.005700971 -0.008876950 0.002350325 -0.108809583 0.120649695 -0.027872650 0.986320078
1341846098.217722 0.005700893 -0.008877981 0.002350632 -0.108174957 0.121206820 -0.030448634 0.986245394
1341846098.253811 0.005701083 -0.008879312 0.002350726 -0.107541867 0.121765196 -0.033025499 0.986162901
1341846098.285939 0.005701080 -0.008880933 0.002350564 -0.106910765 0.122321136 -0.035597339 0.986073256
1341846098.319650 0.005701029 -0.008881188 0.002350496 -0.097804978 0.124165267 -0.040251389 0.986608863
1341846098.353827 0.005701009 -0.008881043 0.002350354 -0.087032922 0.126639143 -0.043810461 0.987151682
1341846098.385963 0.005701063 -0.008880893 0.002350418 -0.076787308 0.128213212 -0.046691488 0.987666428
1341846098.418076 0.005701161 -0.008880751 0.002350121 -0.067850180 0.131187081 -0.049074754 0.987814724
1341846098.453988 0.005701239 -0.008880529 0.002350170 -0.062314842 0.133640528 -0.050710816 0.987767935
1341846098.485927 0.005701137 -0.008880634 0.002350361 -0.058601014 0.134477407 -0.052148402 0.987806797
1341846098.521907 0.005700856 -0.008881196 0.002350431 -0.054886494 0.135309011 -0.053585123 0.987829745
1341846098.553851 0.005700698 -0.008881889 0.002350213 -0.051167995 0.136136115 -0.055016223 0.987837076
1341846098.585937 0.005700750 -0.008881926 0.002350235 -0.044617064 0.135955006 -0.053678025 0.988253117
1341846098.621830 0.005700491 -0.008882389 0.002350422 -0.038056187 0.135757089 -0.052333873 0.988626778
1341846098.653874 0.005700628 -0.008882444 0.002349994 -0.028887583 0.134490386 -0.049178470 0.989272118
1341846098.685832 0.005700564 -0.008882312 0.002349969 -0.019710058 0.133198157 -0.046015758 0.989824355
1341846098.721860 0.005700520 -0.008882462 0.002349940 -0.010535589 0.131890148 -0.042844374 0.990281940
1341846098.753828 0.005700673 -0.008882688 0.002350072 -0.000043929 0.128467709 -0.039276540 0.990935624
1341846098.789998 0.005700952 -0.008882971 0.002349441 0.010455259 0.125038788 -0.035702534 0.991454124
1341846098.827945 0.005700996 -0.008882994 0.002349542 0.024214456 0.123899259 -0.033319287 0.991439581
1341846098.889904 0.005700805 -0.008882898 0.002349302 0.047048692 0.119637109 -0.030163692 0.991243422
1341846098.921923 0.005700860 -0.008882869 0.002349140 0.062146008 0.117696039 -0.027846603 0.990711927
1341846098.957887 0.005700877 -0.008882592 0.002349059 0.074605621 0.116175726 -0.026208317 0.990075946
1341846098.990630 0.005700756 -0.008882497 0.002348873 0.082990512 0.112644985 -0.026821861 0.989800155
1341846099.022028 0.005700888 -0.008882905 0.002349333 0.092483014 0.110786080 -0.028775876 0.989113390
1341846099.058015 0.005700788 -0.008882967 0.002349171 0.103815094 0.110609606 -0.030331841 0.987961531
1341846099.089878 0.005700883 -0.008882875 0.002349274 0.113443829 0.108929954 -0.032425091 0.987022460
1341846099.121774 0.005700900 -0.008882911 0.002349350 0.123567477 0.107947662 -0.033881120 0.985865355
1341846099.157775 0.005700916 -0.008882571 0.002349373 0.132352605 0.106669173 -0.033708498 0.984869659
1341846099.189822 0.005700962 -0.008882107 0.002349377 0.139164105 0.106078953 -0.034114618 0.983980060
1341846099.226178 0.005701128 -0.008882137 0.002349448 0.145967826 0.105498523 -0.034519345 0.983042121
1341846099.264156 0.005700983 -0.008882233 0.002349541 0.150357693 0.104917340 -0.033500936 0.982477784
1341846099.300270 0.005701036 -0.008881995 0.002349271 0.154743955 0.104336612 -0.032482922 0.981892586
1341846099.332076 0.005700880 -0.008882166 0.002349451 0.156240284 0.106619403 -0.031363994 0.981446683
1341846099.363831 0.005700754 -0.008882032 0.002349419 0.157727495 0.108894840 -0.030246958 0.980993927
1341846099.399799 0.005700723 -0.008882053 0.002349152 0.156009629 0.111625746 -0.030492477 0.980954111
1341846099.432113 0.005700605 -0.008882168 0.002349177 0.154548720 0.117338449 -0.030715432 0.980511606
1341846099.463909 0.005700545 -0.008882483 0.002349250 0.153100818 0.123043969 -0.030938005 0.980032206
1341846099.499765 0.005700580 -0.008882414 0.002349494 0.155167878 0.129267439 -0.030984228 0.978903890
1341846099.564678 0.005700754 -0.008882810 0.002350250 0.157642066 0.150779024 -0.032320119 0.975381970
1341846099.626222 0.005701030 -0.008883077 0.002350755 0.159581840 0.170888707 -0.033038605 0.971719682
1341846099.657825 0.005700685 -0.008882955 0.002351319 0.159451440 0.182731435 -0.034925744 0.969517708
1341846099.693870 0.005701105 -0.008882912 0.002352156 0.160566509 0.193135843 -0.035551116 0.967291594
1341846099.725881 0.005701102 -0.008882832 0.002351500 0.162392363 0.203644738 -0.035016008 0.964847863
1341846099.761986 0.005701183 -0.008883344 0.002351481 0.164743528 0.213219121 -0.031738482 0.962491512
1341846099.793945 0.005701332 -0.008883523 0.002352534 0.170070603 0.222472027 -0.024327314 0.959682405
1341846099.825926 0.005701614 -0.008883164 0.002353158 0.174103856 0.232079312 -0.016403262 0.956847906
1341846099.862065 0.005700979 -0.008882973 0.002353055 0.174138129 0.244546503 -0.013070863 0.953783035
1341846099.894034 0.005702343 -0.008883321 0.002354003 0.176951066 0.251255542 -0.011922283 0.951533973
1341846099.925860 0.005701999 -0.008883371 0.002353241 0.178597599 0.258617073 -0.007638042 0.949295402
1341846099.961831 0.005701977 -0.008883546 0.002353857 0.180169538 0.269576013 -0.006958689 0.945948899
1341846099.993861 0.005701847 -0.008883086 0.002353776 0.181541696 0.279337585 -0.007257121 0.942847013
1341846100.029846 0.005701602 -0.008883406 0.002353280 0.180859298 0.289374679 -0.007814443 0.939942062
1341846100.069920 0.005701909 -0.008883046 0.002353705 0.184074298 0.299547434 -0.006047064 0.936136425
1341846100.099862 0.005701908 -0.008882957 0.002353778 0.186247587 0.309802413 -0.003640950 0.932373881
1341846100.132811 0.005702031 -0.008883067 0.002354041 0.188227460 0.316170275 -0.000927755 0.929841876
1341846100.168188 0.005701707 -0.008882951 0.002353828 0.190757945 0.323692411 0.001700675 0.926731765
1341846100.199801 0.005701757 -0.008882936 0.002353922 0.193269014 0.331185818 0.004328632 0.923549831
1341846100.235866 0.005701751 -0.008882854 0.002354124 0.195761308 0.338650376 0.006955556 0.920296192
1341846100.267868 0.005701304 -0.008882838 0.002353664 0.194734186 0.344746649 0.008721523 0.918233216
1341846100.299821 0.005701560 -0.008882978 0.002354236 0.192807868 0.349412948 0.010108539 0.916860700
1341846100.335884 0.005701800 -0.008883047 0.002353856 0.191982791 0.353683561 0.011489253 0.915378928
1341846100.367898 0.005701750 -0.008882971 0.002353807 0.192197144 0.358820170 0.013068775 0.913311303
1341846100.400000 0.005701878 -0.008883066 0.002354035 0.192545801 0.362388760 0.014190609 0.911810875
1341846100.435828 0.005701782 -0.008883025 0.002353896 0.192892551 0.365952462 0.015311782 0.910294890
1341846100.467678 0.005701925 -0.008883124 0.002353874 0.193237871 0.369512230 0.016433243 0.908762753
1341846100.503838 0.005701893 -0.008883099 0.002353810 0.193582609 0.373070389 0.017555682 0.907213330
1341846100.535834 0.005702504 -0.008883435 0.002353875 0.196310163 0.377807915 0.018916592 0.904635668
1341846100.568004 0.005702689 -0.008883466 0.002353969 0.199030593 0.382534951 0.020278068 0.902021408
1341846100.604545 0.005702948 -0.008883613 0.002354028 0.201742575 0.387249738 0.021639960 0.899371624
1341846100.635826 0.005706521 -0.008885711 0.002355634 0.204446003 0.391949296 0.023001140 0.896687508
1341846100.672445 0.005704956 -0.008883966 0.002355193 0.205216557 0.399161667 0.024974905 0.893270612
1341846100.733981 0.005704438 -0.008883929 0.002354743 0.206709355 0.406257451 0.027497301 0.889646053
1341846100.765776 0.005704578 -0.008883871 0.002354928 0.206202880 0.411969215 0.028097592 0.887114584
1341846100.798442 0.005704400 -0.008883905 0.002354817 0.205714241 0.416368067 0.029342061 0.885131776
1341846100.833838 0.005704613 -0.008883997 0.002354981 0.205542639 0.419153124 0.030755438 0.883808255
1341846100.866041 0.005705148 -0.008884144 0.002355324 0.204987451 0.417369395 0.032767300 0.884708583
1341846100.897858 0.005704632 -0.008884015 0.002354959 0.204758763 0.417205781 0.034248129 0.884782612
1341846100.933895 0.005704738 -0.008884018 0.002355049 0.206499919 0.417838603 0.035670511 0.884022772
1341846100.965736 0.005704843 -0.008884006 0.002355165 0.207010046 0.414039582 0.037832391 0.885599673
1341846101.001817 0.005704626 -0.008883936 0.002355029 0.208001032 0.413980842 0.038573101 0.885362923
1341846101.033901 0.005704642 -0.008883880 0.002355094 0.208990440 0.413920015 0.039313309 0.885125756
1341846101.065947 0.005704589 -0.008883849 0.002354966 0.207014069 0.409280062 0.039262656 0.887746274
1341846101.102829 0.005704554 -0.008883895 0.002354974 0.206646338 0.407767624 0.037852008 0.888588786
1341846101.134613 0.005704714 -0.008883921 0.002355129 0.206280425 0.405830532 0.037269179 0.889584720
1341846101.169743 0.005704511 -0.008883834 0.002354977 0.203451410 0.400895625 0.036077786 0.892518103
1341846101.202171 0.005704802 -0.008883971 0.002355095 0.201610729 0.397155762 0.034204137 0.894678950
1341846101.234098 0.005705316 -0.008884116 0.002355362 0.199765906 0.393407613 0.032329664 0.896815956
1341846101.269940 0.005704734 -0.008883867 0.002355053 0.197916627 0.389649212 0.030453987 0.898929954
1341846101.301837 0.005704406 -0.008883890 0.002354864 0.197051451 0.385876656 0.028028183 0.900824249
1341846101.333884 0.005704580 -0.008883932 0.002354956 0.196182251 0.382094800 0.025600763 0.902696371
1341846101.369943 0.005704257 -0.008883794 0.002354798 0.195303425 0.378299356 0.023170935 0.904549241
1341846101.402755 0.005704415 -0.008883829 0.002354956 0.193383187 0.372990221 0.020421159 0.907228887
1341846101.437821 0.005704525 -0.008883856 0.002354973 0.191453770 0.367664099 0.017670332 0.909866095
1341846101.469768 0.005704880 -0.008884054 0.002355275 0.189518809 0.362328470 0.014921597 0.912457108
1341846101.501812 0.005704459 -0.008883952 0.002355088 0.188876331 0.357351780 0.012310009 0.914589465
1341846101.537892 0.005704718 -0.008883911 0.002355083 0.189568982 0.353554010 0.010126805 0.915947914
1341846101.569873 0.005704544 -0.008883929 0.002355178 0.188841686 0.350157350 0.009517553 0.917408347
1341846101.601955 0.005703048 -0.008883551 0.002354318 0.185265049 0.344786108 0.008571589 0.920177102
1341846101.637841 0.005703155 -0.008883574 0.002354374 0.182911381 0.339760244 0.005355202 0.922538757
1341846101.670644 0.005702663 -0.008883466 0.002354130 0.180553257 0.334720463 0.002139385 0.924855769
1341846101.705786 0.005702401 -0.008883405 0.002354132 0.180966645 0.329197735 -0.000870909 0.926757336
1341846101.738127 0.005702373 -0.008883277 0.002354087 0.182888165 0.324465007 -0.003162283 0.928043306
1341846101.769786 0.005702158 -0.008883146 0.002354101 0.184016943 0.320077986 -0.003841589 0.929340184
1341846101.805816 0.005702022 -0.008883118 0.002353973 0.184160814 0.313389540 -0.004013655 0.931587756
1341846101.837808 0.005701895 -0.008883113 0.002353852 0.184295505 0.306685537 -0.004185502 0.933788836
1341846101.869834 0.005702216 -0.008883204 0.002353930 0.183472037 0.301691294 -0.003325694 0.935579658
1341846101.905918 0.005701970 -0.008883134 0.002353918 0.182642698 0.296684206 -0.002465887 0.937344134
1341846101.937872 0.005702028 -0.008883201 0.002354063 0.181808203 0.291668266 -0.001606130 0.939080834
1341846101.973942 0.005701920 -0.008883238 0.002353881 0.183347598 0.284590811 -0.001276862 0.940951705
1341846102.005947 0.005701219 -0.008882989 0.002353503 0.184900820 0.274624079 -0.001243253 0.943605721
1341846102.037846 0.005701970 -0.008883147 0.002353957 0.185196102 0.263713300 -0.000707157 0.946655810
1341846102.073879 0.005702080 -0.008883202 0.002354039 0.186555639 0.255565256 0.000817698 0.948621511
1341846102.105961 0.005701721 -0.008883103 0.002353898 0.186303660 0.244764656 0.001725071 0.951513648
1341846102.137878 0.005701929 -0.008883121 0.002353910 0.183476090 0.234702244 0.002148931 0.954592466
1341846102.173907 0.005701816 -0.008883087 0.002353775 0.181210533 0.226891696 0.003041177 0.956908345
1341846102.205896 0.005700999 -0.008882874 0.002353263 0.179418832 0.218524426 0.003409550 0.959189415
1341846102.242018 0.005699270 -0.008882198 0.002351829 0.175213456 0.208338469 0.002443723 0.962231457
1341846102.274144 0.005699295 -0.008882062 0.002351708 0.171831280 0.197285116 -0.001182376 0.965169013
1341846102.305875 0.005699380 -0.008882008 0.002351665 0.170059487 0.188445240 -0.007153305 0.967221260
1341846102.341821 0.005698703 -0.008880703 0.002349482 0.166409478 0.174301729 -0.010917276 0.970467746
1341846102.374024 0.005699346 -0.008880677 0.002350010 0.166244075 0.159630567 -0.013409433 0.972985685
1341846102.409984 0.005699659 -0.008880586 0.002349762 0.168148056 0.149707288 -0.016802121 0.974182546
1341846102.441952 0.005698937 -0.008879788 0.002348111 0.166837990 0.140547752 -0.021751655 0.975673258
1341846102.473881 0.005699693 -0.008880553 0.002349392 0.165396109 0.127383888 -0.022703284 0.977702439
1341846102.509959 0.005700514 -0.008881036 0.002349090 0.166049212 0.122441389 -0.025362512 0.978157699
1341846102.541996 0.005701272 -0.008880726 0.002348180 0.166694328 0.117509268 -0.028019153 0.978580356
1341846102.574361 0.005700838 -0.008880531 0.002347841 0.162848845 0.110158473 -0.029157171 0.980048597
1341846102.610654 0.005701207 -0.008880937 0.002348482 0.163838714 0.105245173 -0.025323378 0.980529964
1341846102.642222 0.005701214 -0.008880781 0.002348213 0.168280959 0.099788129 -0.019755561 0.980476201
1341846102.677806 0.005700801 -0.008880583 0.002347852 0.167648137 0.092790991 -0.019125562 0.981283903
1341846102.709968 0.005700322 -0.008880411 0.002347165 0.165721357 0.078294203 -0.017669700 0.982900918
1341846102.741857 0.005700776 -0.008880259 0.002347552 0.166505128 0.070261464 -0.015624091 0.983410001
1341846102.777720 0.005700752 -0.008880340 0.002346785 0.163342074 0.061849020 -0.015263090 0.984510601
1341846102.809783 0.005700890 -0.008880666 0.002347506 0.161776111 0.053623904 -0.014643661 0.985260606
1341846102.841828 0.005700971 -0.008880698 0.002347538 0.168147922 0.044856645 -0.012830884 0.984657049
1341846102.877813 0.005701074 -0.008880496 0.002347408 0.168019533 0.041541491 -0.010679621 0.984850049
1341846102.909875 0.005700982 -0.008880582 0.002347434 0.165042549 0.036680829 -0.009495338 0.985558391
1341846102.945843 0.005700912 -0.008880743 0.002347262 0.163979381 0.026557818 -0.009007048 0.986065090
1341846102.977815 0.005700976 -0.008880908 0.002346976 0.162909761 0.016445627 -0.008514881 0.986467123
1341846103.009867 0.005701009 -0.008880567 0.002347281 0.159169614 0.006336222 -0.005126824 0.987217605
1341846103.045829 0.005700716 -0.008880429 0.002346903 0.155570969 -0.005411487 -0.004818076 0.987798154
1341846103.077786 0.005700890 -0.008880510 0.002347481 0.156365618 -0.017601067 -0.005081799 0.987529337
1341846103.110039 0.005700945 -0.008880562 0.002347456 0.156228304 -0.030762736 -0.004490019 0.987231612
1341846103.145830 0.005700968 -0.008880553 0.002347395 0.155872211 -0.041910909 -0.002959002 0.986883283
1341846103.177933 0.005701056 -0.008880600 0.002347471 0.155497909 -0.053051814 -0.001428006 0.986409605
1341846103.213980 0.005701071 -0.008880616 0.002347142 0.156512767 -0.059725884 -0.000627100 0.985868216
1341846103.246103 0.005700937 -0.008880546 0.002347197 0.156667843 -0.073064454 -0.002620562 0.984941542
1341846103.277869 0.005700995 -0.008880549 0.002347308 0.154011220 -0.083882667 -0.006297791 0.984481871
1341846103.314495 0.005701000 -0.008880580 0.002347309 0.152963385 -0.091100812 -0.010272345 0.983970165
1341846103.345951 0.005700724 -0.008880506 0.002347150 0.151751354 -0.101234339 -0.015067527 0.983105361
1341846103.382135 0.005700289 -0.008880725 0.002347826 0.149026424 -0.112742104 -0.020232257 0.982176661
1341846103.382135 0.005700289 -0.008880725 0.002347826 0.149026424 -0.112742104 -0.020232257 0.982176661
1341846103.382135 0.005700289 -0.008880725 0.002347826 0.149026424 -0.112742104 -0.020232257 0.982176661
1341846103.382135 0.005700289 -0.008880725 0.002347826 0.149026424 -0.112742104 -0.020232257 0.982176661
1341846103.382135 0.005700289 -0.008880725 0.002347826 0.149026424 -0.112742104 -0.020232257 0.982176661
1341846103.382135 0.005700289 -0.008880725 0.002347826 0.149026424 -0.112742104 -0.020232257 0.982176661
1341846103.382135 0.005700289 -0.008880725 0.002347826 0.149026424 -0.112742104 -0.020232257 0.982176661
1341846103.382135 0.005700289 -0.008880725 0.002347826 0.149026424 -0.112742104 -0.020232257 0.982176661
1341846103.382135 0.005700289 -0.008880725 0.002347826 0.149026424 -0.112742104 -0.020232257 0.982176661
1341846103.382135 0.005700289 -0.008880725 0.002347826 0.149026424 -0.112742104 -0.020232257 0.982176661
1341846103.382135 0.005700289 -0.008880725 0.002347826 0.149026424 -0.112742104 -0.020232257 0.982176661
1341846103.382135 0.005700289 -0.008880725 0.002347826 0.149026424 -0.112742104 -0.020232257 0.982176661
1341846103.382135 0.005700289 -0.008880725 0.002347826 0.149026424 -0.112742104 -0.020232257 0.982176661
1341846103.382135 0.005700289 -0.008880725 0.002347826 0.149026424 -0.112742104 -0.020232257 0.982176661
1341846103.382135 0.005700289 -0.008880725 0.002347826 0.149026424 -0.112742104 -0.020232257 0.982176661
1341846103.382135 0.005700289 -0.008880725 0.002347826 0.149026424 -0.112742104 -0.020232257 0.982176661
1341846103.382135 0.005700289 -0.008880725 0.002347826 0.149026424 -0.112742104 -0.020232257 0.982176661
1341846103.382135 0.005700289 -0.008880725 0.002347826 0.149026424 -0.112742104 -0.020232257 0.982176661
1341846103.382135 0.005700289 -0.008880725 0.002347826 0.149026424 -0.112742104 -0.020232257 0.982176661
1341846103.382135 0.005700289 -0.008880725 0.002347826 0.149026424 -0.112742104 -0.020232257 0.982176661
1341846103.382135 0.005700289 -0.008880725 0.002347826 0.149026424 -0.112742104 -0.020232257 0.982176661
1341846103.382135 0.005700289 -0.008880725 0.002347826 0.149026424 -0.112742104 -0.020232257 0.982176661
1341846103.382135 0.005700289 -0.008880725 0.002347826 0.149026424 -0.112742104 -0.020232257 0.982176661
1341846103.382135 0.005700289 -0.008880725 0.002347826 0.149026424 -0.112742104 -0.020232257 0.982176661
1341846103.382135 0.005700289 -0.008880725 0.002347826 0.149026424 -0.112742104 -0.020232257 0.982176661
1341846103.382135 0.005700289 -0.008880725 0.002347826 0.149026424 -0.112742104 -0.020232257 0.982176661
1341846103.382135 0.005700289 -0.008880725 0.002347826 0.149026424 -0.112742104 -0.020232257 0.982176661
1341846103.382135 0.005700289 -0.008880725 0.002347826 0.149026424 -0.112742104 -0.020232257 0.982176661
1341846103.382135 0.005700289 -0.008880725 0.002347826 0.149026424 -0.112742104 -0.020232257 0.982176661
1341846103.382135 0.005700289 -0.008880725 0.002347826 0.149026424 -0.112742104 -0.020232257 0.982176661
1341846103.382135 0.005700289 -0.008880725 0.002347826 0.149026424 -0.112742104 -0.020232257 0.982176661
1341846103.382135 0.005700289 -0.008880725 0.002347826 0.149026424 -0.112742104 -0.020232257 0.982176661
1341846103.382135 0.005700289 -0.008880725 0.002347826 0.149026424 -0.112742104 -0.020232257 0.982176661
1341846103.382135 0.005700289 -0.008880725 0.002347826 0.149026424 -0.112742104 -0.020232257 0.982176661
1341846103.382135 0.005700289 -0.008880725 0.002347826 0.149026424 -0.112742104 -0.020232257 0.982176661
1341846103.382135 0.005700289 -0.008880725 0.002347826 0.149026424 -0.112742104 -0.020232257 0.982176661
1341846103.382135 0.005700289 -0.008880725 0.002347826 0.149026424 -0.112742104 -0.020232257 0.982176661
1341846103.382135 0.005700289 -0.008880725 0.002347826 0.149026424 -0.112742104 -0.020232257 0.982176661
1341846103.382135 0.005700289 -0.008880725 0.002347826 0.149026424 -0.112742104 -0.020232257 0.982176661
1341846103.382135 0.005700289 -0.008880725 0.002347826 0.149026424 -0.112742104 -0.020232257 0.982176661
1341846103.382135 0.005700289 -0.008880725 0.002347826 0.149026424 -0.112742104 -0.020232257 0.982176661
1341846103.382135 0.005700289 -0.008880725 0.002347826 0.149026424 -0.112742104 -0.020232257 0.982176661
1341846103.382135 0.005700289 -0.008880725 0.002347826 0.149026424 -0.112742104 -0.020232257 0.982176661
1341846103.382135 0.005700289 -0.008880725 0.002347826 0.149026424 -0.112742104 -0.020232257 0.982176661
1341846103.382135 0.005700289 -0.008880725 0.002347826 0.149026424 -0.112742104 -0.020232257 0.982176661
1341846103.382135 0.005700289 -0.008880725 0.002347826 0.149026424 -0.112742104 -0.020232257 0.982176661
1341846103.382135 0.005700289 -0.008880725 0.002347826 0.149026424 -0.112742104 -0.020232257 0.982176661
1341846103.382135 0.005700289 -0.008880725 0.002347826 0.149026424 -0.112742104 -0.020232257 0.982176661
1341846103.382135 0.005700289 -0.008880725 0.002347826 0.149026424 -0.112742104 -0.020232257 0.982176661
1341846103.382135 0.005700289 -0.008880725 0.002347826 0.149026424 -0.112742104 -0.020232257 0.982176661
1341846103.382135 0.005700289 -0.008880725 0.002347826 0.149026424 -0.112742104 -0.020232257 0.982176661
1341846103.382135 0.005700289 -0.008880725 0.002347826 0.149026424 -0.112742104 -0.020232257 0.982176661
1341846103.382135 0.005700289 -0.008880725 0.002347826 0.149026424 -0.112742104 -0.020232257 0.982176661
1341846103.382135 0.005700289 -0.008880725 0.002347826 0.149026424 -0.112742104 -0.020232257 0.982176661
1341846103.382135 0.005700289 -0.008880725 0.002347826 0.149026424 -0.112742104 -0.020232257 0.982176661
1341846103.382135 0.005700289 -0.008880725 0.002347826 0.149026424 -0.112742104 -0.020232257 0.982176661
1341846105.425915 0.000000000 0.000000000 0.000000000 0.000000000 0.000000000 0.000000000 1.000000000
1341846105.457863 0.002350678 0.000402072 0.003386274 0.002552101 0.010565505 -0.002486796 0.999937832
1341846105.489902 0.006928460 -0.000461587 0.003114081 0.003590552 0.021963779 -0.003740483 0.999745309
1341846105.525969 0.007983464 -0.002556337 0.001636248 0.006219641 0.036980338 -0.005658831 0.999280572
1341846105.557770 0.007693333 -0.002581181 0.001300017 0.008565443 0.048778959 -0.005626562 0.998757005
1341846105.594012 0.007041822 -0.002222350 -0.000474825 0.008703554 0.060579516 -0.006225495 0.998106003
1341846105.626122 0.008483459 -0.002583747 0.001977338 0.011804233 0.073297687 -0.007711901 0.997210443
1341846105.657815 0.007889060 -0.002564127 0.001531265 0.014977929 0.085276447 -0.007504817 0.996216476
1341846105.693879 0.008246574 -0.002514920 0.002147086 0.016130913 0.098434597 -0.008295083 0.994978189
1341846105.726045 0.007984927 -0.002561237 0.001664533 0.019628378 0.108287290 -0.007753813 0.993895590
1341846105.758468 0.007683638 -0.002666670 0.001216942 0.021578003 0.117710672 -0.009629494 0.992766738
1341846105.793970 0.007785683 -0.002556713 0.001396916 0.021557374 0.130785599 -0.015223874 0.991059363
1341846105.825903 0.008004819 -0.002564182 0.001650477 0.023526177 0.143061653 -0.015376691 0.989314616
1341846105.861764 0.007973283 -0.002561990 0.001640694 0.027038369 0.152514830 -0.015086313 0.987816036
1341846105.893922 0.007965608 -0.002557586 0.001642843 0.029061113 0.168576807 -0.015939403 0.985131085
1341846105.925960 0.007953810 -0.002560243 0.001635279 0.033677258 0.181684390 -0.016427586 0.982642770
1341846105.963745 0.007976907 -0.002562730 0.001642606 0.035242431 0.191034257 -0.015362825 0.980830193
1341846106.025952 0.007970803 -0.002559833 0.001643087 0.026343198 0.209116459 -0.031315215 0.977034152
1341846106.061758 0.007974771 -0.002561618 0.001641414 0.025681486 0.211810231 -0.034308601 0.976370752
1341846106.093961 0.007974502 -0.002561927 0.001640728 0.024313616 0.212662131 -0.038162723 0.976077497
1341846106.130133 0.007964363 -0.002558253 0.001633087 0.023836568 0.220726699 -0.044589836 0.974024296
1341846106.161819 0.007974631 -0.002561593 0.001641499 0.024087744 0.226532832 -0.047445871 0.972548962
1341846106.193968 0.007975286 -0.002561998 0.001642562 0.023968026 0.228590995 -0.045258533 0.972174525
1341846106.229889 0.007971914 -0.002560847 0.001639189 0.024174443 0.233841747 -0.044534687 0.970953286
1341846106.261942 0.007973942 -0.002561459 0.001641011 0.022761298 0.242593706 -0.044605423 0.968834639
1341846106.293939 0.007974644 -0.002562011 0.001641558 0.021089599 0.244882181 -0.045364473 0.968261361
1341846106.329961 0.007972871 -0.002561358 0.001639367 0.017942864 0.244805142 -0.049219698 0.968155921
1341846106.361877 0.007974628 -0.002561828 0.001641593 0.010990991 0.244206682 -0.059061255 0.967860520
1341846106.398046 0.007976057 -0.002561948 0.001642399 0.002567811 0.241997600 -0.069182672 0.967803836
1341846106.429938 0.007976677 -0.002562218 0.001642398 -0.004383995 0.237067387 -0.078004949 0.968346536
1341846106.461886 0.007974384 -0.002561564 0.001640302 -0.012820994 0.231488332 -0.089442544 0.968632460
1341846106.497910 0.007974490 -0.002561626 0.001640486 -0.019776002 0.231666401 -0.101134770 0.967321754
1341846106.529979 0.007974549 -0.002562098 0.001640842 -0.019797254 0.232988402 -0.110552333 0.965972424
1341846106.561925 0.007973976 -0.002561992 0.001640342 -0.022827063 0.230581507 -0.121438064 0.965175569
1341846106.597815 0.007974552 -0.002561680 0.001640666 -0.030236010 0.230306119 -0.138777837 0.962697029
1341846106.632234 0.007974422 -0.002561543 0.001640453 -0.037809737 0.232063010 -0.159196392 0.958839774
1341846106.665869 0.007974736 -0.002561627 0.001640716 -0.041508198 0.231468454 -0.172490999 0.956528246
1341846106.697883 0.007974675 -0.002561826 0.001642056 -0.045724262 0.230405942 -0.185384974 0.954177558
1341846106.729896 0.007974338 -0.002561549 0.001641796 -0.050421052 0.232258514 -0.202167526 0.950074732
1341846106.766032 0.007974698 -0.002561838 0.001642487 -0.053399689 0.232622817 -0.213227585 0.947401226
1341846106.797963 0.007974864 -0.002561409 0.001642091 -0.058141638 0.229070306 -0.224061370 0.945485532
1341846106.834113 0.007974803 -0.002561404 0.001642052 -0.065714873 0.224514842 -0.237325177 0.942842185
1341846106.865869 0.007974745 -0.002561788 0.001642311 -0.070252471 0.225595474 -0.249588698 0.939082921
1341846106.897921 0.007974563 -0.002561557 0.001641530 -0.071748339 0.223168343 -0.257342696 0.937455475
1341846106.933929 0.007974509 -0.002561420 0.001641530 -0.073424399 0.221703947 -0.264885366 0.935570419
1341846106.967484 0.007974590 -0.002561959 0.001642191 -0.076861694 0.221456170 -0.272660702 0.933116078
1341846106.999098 0.007974657 -0.002561499 0.001641875 -0.081797346 0.220776603 -0.285058200 0.929144084
1341846107.033909 0.007976891 -0.002562610 0.001644950 -0.085465223 0.215389907 -0.296671361 0.926438868
1341846107.065762 0.007974803 -0.002561977 0.001642308 -0.090295568 0.213079408 -0.310715258 0.921900153
1341846107.101921 0.007975134 -0.002561590 0.001642386 -0.096363470 0.211963892 -0.319206417 0.918636322
1341846107.133974 0.007974604 -0.002561600 0.001641962 -0.102774084 0.206128582 -0.328575492 0.915962100
1341846107.166082 0.007974871 -0.002561385 0.001641095 -0.109063864 0.202087179 -0.344102293 0.910417199
1341846107.202100 0.007974363 -0.002561626 0.001640432 -0.114804730 0.200115487 -0.354509056 0.906144023
1341846107.233799 0.007974358 -0.002561650 0.001640414 -0.119889788 0.195116028 -0.361538082 0.903795540
1341846107.265874 0.007975443 -0.002562047 0.001642330 -0.124405630 0.188898370 -0.371506184 0.900457561
1341846107.301965 0.007974209 -0.002562418 0.001640843 -0.127288073 0.184839621 -0.378942579 0.897794306
1341846107.334002 0.007974450 -0.002561943 0.001641067 -0.132314071 0.178708836 -0.387501299 0.894650161
1341846107.369797 0.007974646 -0.002561914 0.001640846 -0.137961403 0.174235150 -0.402916193 0.887844205
1341846107.401899 0.007974112 -0.002561859 0.001640205 -0.141025349 0.172089979 -0.415204912 0.882100761
1341846107.434304 0.007974765 -0.002562446 0.001641468 -0.146289811 0.168865860 -0.422081977 0.878595710
1341846107.469787 0.007974137 -0.002562521 0.001639882 -0.152134225 0.166160643 -0.427986920 0.875256002
1341846107.502174 0.007974607 -0.002562530 0.001640706 -0.155990899 0.165391624 -0.434991568 0.871260405
1341846107.533946 0.007974586 -0.002562240 0.001641180 -0.159190729 0.165218920 -0.439407349 0.868494213
1341846107.601911 0.007974098 -0.002562253 0.001639535 -0.169300407 0.155092835 -0.452610910 0.861642003
1341846107.637876 0.007973777 -0.002562398 0.001639130 -0.171667665 0.154179350 -0.460710913 0.857032299
1341846107.669757 0.007973762 -0.002562038 0.001640661 -0.176998422 0.152023807 -0.472676724 0.849786460
1341846107.701892 0.007973864 -0.002562072 0.001640716 -0.181588665 0.149786457 -0.478176057 0.846130729
1341846107.737797 0.007973936 -0.002562210 0.001640955 -0.185228869 0.146787211 -0.480554372 0.844518363
1341846107.769837 0.007973545 -0.002562167 0.001640354 -0.190538973 0.145664603 -0.488783538 0.838789225
1341846107.805959 0.007973756 -0.002562105 0.001640749 -0.193722919 0.144194439 -0.495674193 0.834258080
1341846107.837955 0.007973238 -0.002562325 0.001640087 -0.200687274 0.143255427 -0.504599571 0.827394545
1341846107.870011 0.007973484 -0.002562205 0.001640526 -0.208691135 0.145401716 -0.515790284 0.818087280
1341846107.905926 0.007974124 -0.002562252 0.001641085 -0.213486701 0.146219641 -0.530892551 0.806967378
1341846107.938092 0.007973695 -0.002562109 0.001640490 -0.217739865 0.148493156 -0.544942021 0.795975745
1341846107.969943 0.007973835 -0.002561931 0.001640834 -0.228627741 0.153472811 -0.554260254 0.785475016
1341846108.006614 0.007973733 -0.002562053 0.001640603 -0.237299696 0.153968632 -0.561895311 0.777339160
1341846108.073927 0.007973768 -0.002562071 0.001640532 -0.253490895 0.158950195 -0.570875645 0.764577150
1341846108.106110 0.007973727 -0.002562064 0.001640610 -0.258519143 0.159021378 -0.581100643 0.755117297
1341846108.137977 0.007973704 -0.002562058 0.001640643 -0.263490200 0.159057885 -0.591198146 0.745491982
1341846108.173901 0.007973680 -0.002562052 0.001640667 -0.268402874 0.159058616 -0.601166189 0.735703349
1341846108.205882 0.007973676 -0.002562075 0.001640663 -0.273256510 0.159025341 -0.611002386 0.725753307
1341846108.237836 0.007973679 -0.002562070 0.001640666 -0.278050095 0.158956960 -0.620704412 0.715644360
1341846108.273872 0.007973686 -0.002562066 0.001640668 -0.282784015 0.158853456 -0.630269468 0.705378711
1341846108.305866 0.007973695 -0.002562067 0.001640659 -0.287455887 0.158716902 -0.639697015 0.694957316
1341846108.341858 0.007973692 -0.002562063 0.001640653 -0.292063594 0.158543319 -0.648984194 0.684384644
1341846108.373928 0.007973690 -0.002562057 0.001640641 -0.296607345 0.158335492 -0.658129156 0.673661590
1341846108.406059 0.007973690 -0.002562053 0.001640633 -0.301086426 0.158093050 -0.667129695 0.662790716
1341846108.441881 0.007973681 -0.002562045 0.001640625 -0.305499315 0.157815948 -0.675983906 0.651774526
1341846108.473918 0.007973679 -0.002562043 0.001640624 -0.309845120 0.157504275 -0.684689999 0.640615284
1341846108.506142 0.007973681 -0.002562041 0.001640625 -0.314123034 0.157158166 -0.693245828 0.629315674
1341846108.541923 0.007973685 -0.002562041 0.001640625 -0.318332106 0.156777635 -0.701649666 0.617878020
1341846108.573967 0.007973685 -0.002562046 0.001640623 -0.322471261 0.156362891 -0.709899485 0.606304884
1341846108.609979 0.007973702 -0.002562058 0.001640637 -0.326539725 0.155913785 -0.717993677 0.594598770
1341846108.641701 0.007973695 -0.002562057 0.001640633 -0.326539785 0.155913681 -0.717993617 0.594598889
1341846108.673868 0.007973699 -0.002562061 0.001640635 -0.326539814 0.155913755 -0.717993617 0.594598889
1341846108.710024 0.007973706 -0.002562071 0.001640647 -0.326540023 0.155913651 -0.717993498 0.594598949
1341846108.742835 0.007973707 -0.002562076 0.001640649 -0.326540172 0.155913621 -0.717993498 0.594598949
1341846108.773793 0.007973708 -0.002562082 0.001640653 -0.326540262 0.155913547 -0.717993379 0.594598949
1341846108.810032 0.007973708 -0.002562090 0.001640657 -0.326540440 0.155913457 -0.717993379 0.594598889
1341846108.841885 0.007973709 -0.002562093 0.001640660 -0.326540560 0.155913472 -0.717993259 0.594599009
1341846108.877944 0.007973708 -0.002562094 0.001640662 -0.326540649 0.155913427 -0.717993140 0.594599128
1341846108.909950 0.007973706 -0.002562098 0.001640663 -0.326540679 0.155913606 -0.717993081 0.594599187
1341846108.941882 0.007973705 -0.002562100 0.001640665 -0.326540798 0.155913725 -0.717992783 0.594599366
1341846108.977902 0.007973706 -0.002562098 0.001640663 -0.326541007 0.155913740 -0.717992485 0.594599545
1341846109.009916 0.007973705 -0.002562102 0.001640663 -0.326540887 0.155913949 -0.717992604 0.594599426
1341846109.045986 0.007973706 -0.002562104 0.001640664 -0.326541036 0.155913904 -0.717992425 0.594599605
1341846109.077854 0.007973706 -0.002562106 0.001640664 -0.326540947 0.155913979 -0.717992425 0.594599664
1341846109.109839 0.007973708 -0.002562107 0.001640664 -0.326540738 0.155914053 -0.717992544 0.594599605
1341846109.145865 0.007973704 -0.002562109 0.001640667 -0.326540440 0.155913889 -0.717992604 0.594599724
1341846109.178396 0.007973701 -0.002562109 0.001640669 -0.326540411 0.155913725 -0.717992604 0.594599783
1341846109.209809 0.007973699 -0.002562109 0.001640671 -0.326540142 0.155913651 -0.717992544 0.594599903
1341846109.245810 0.007973695 -0.002562111 0.001640675 -0.326539874 0.155913606 -0.717992723 0.594599962
1341846109.277797 0.007973701 -0.002562107 0.001640691 -0.326539874 0.155913606 -0.717992783 0.594599903
1341846109.277797 0.007973701 -0.002562107 0.001640691 -0.326539874 0.155913606 -0.717992783 0.594599903
1341846109.277797 0.007973701 -0.002562107 0.001640691 -0.326539874 0.155913606 -0.717992783 0.594599903
1341846109.377812 0.007973934 -0.002561979 0.001640722 -0.168131784 0.235376149 -0.557064295 0.778465927
1341846109.413820 0.007973883 -0.002561769 0.001640019 -0.159569845 0.230690435 -0.549866259 0.786744237
1341846109.445954 0.007974067 -0.002561748 0.001640286 -0.153774902 0.230227575 -0.539860606 0.794920802
1341846109.490348 0.007974084 -0.002561730 0.001640215 -0.151556253 0.233003542 -0.528977871 0.801824450
1341846109.545959 0.007974423 -0.002561508 0.001641718 -0.146165654 0.231866643 -0.517586291 0.810541689
1341846109.581855 0.007974470 -0.002561545 0.001641858 -0.139558107 0.232124910 -0.505926847 0.818950295
1341846109.613999 0.007974406 -0.002561501 0.001641738 -0.132915288 0.232324541 -0.494140774 0.827153981
1341846109.645963 0.007974112 -0.002561490 0.001642058 -0.132915273 0.232324556 -0.494140804 0.827153981
1341846109.645963 0.007974112 -0.002561490 0.001642058 -0.132915273 0.232324556 -0.494140804 0.827153981
1341846109.713847 0.007974390 -0.002561770 0.001641059 -0.102047697 0.217780396 -0.430356026 0.870029688
1341846109.745831 0.007974070 -0.002561957 0.001640536 -0.099261686 0.217241228 -0.426012516 0.872620583
1341846109.781814 0.007974208 -0.002561580 0.001641299 -0.096472636 0.216694504 -0.421649843 0.875184476
1341846109.813956 0.007974273 -0.002561612 0.001641350 -0.093680471 0.216141075 -0.417273372 0.877718568
1341846109.850256 0.007974248 -0.002561611 0.001641346 -0.090885073 0.215580329 -0.412882775 0.880223155
1341846109.913863 0.007974279 -0.002561582 0.001641629 -0.088086374 0.215012714 -0.408478916 0.882697761
1341846109.913863 0.007974279 -0.002561582 0.001641629 -0.088086374 0.215012714 -0.408478916 0.882697761
1341846109.981998 0.007980324 -0.002563459 0.001651350 -0.076088659 0.213267565 -0.376942515 0.898132384
1341846110.017884 0.007974029 -0.002561683 0.001640364 -0.073001571 0.212829545 -0.374326110 0.899585664
1341846110.049982 0.007974689 -0.002562095 0.001641296 -0.068945244 0.212166995 -0.372066051 0.900998652
1341846110.117943 0.007974414 -0.002562178 0.001641027 -0.060006972 0.210920826 -0.361304075 0.906295180
1341846110.150254 0.007974462 -0.002561881 0.001641738 -0.054574791 0.210549146 -0.350239307 0.911055982
1341846110.181980 0.007974123 -0.002562023 0.001641176 -0.051719330 0.211202860 -0.340846330 0.914626837
1341846110.217907 0.007973949 -0.002562086 0.001640951 -0.049866308 0.211066857 -0.331673682 0.918126702
1341846110.249883 0.007973718 -0.002562190 0.001639669 -0.048008483 0.210909262 -0.322467864 0.921535134
1341846110.286020 0.007973759 -0.002562277 0.001639777 -0.046145461 0.210729763 -0.313230097 0.924851596
1341846110.356025 0.007973505 -0.002562463 0.001639790 -0.041382350 0.209555238 -0.301573992 0.929207861
1341846110.417989 0.007973689 -0.002562393 0.001639968 -0.036611427 0.208342746 -0.289864033 0.933397949
1341846110.449878 0.007973599 -0.002562418 0.001639899 -0.034424357 0.207838103 -0.278422564 0.937069416
1341846110.485899 0.007967093 -0.002557272 0.001622709 -0.032232564 0.207301781 -0.266940773 0.940600693
1341846110.517949 0.007974200 -0.002562255 0.001640013 -0.030036243 0.206734911 -0.255419701 0.943991125
1341846110.554149 0.007973923 -0.002562044 0.001640823 -0.027835442 0.206138477 -0.243860602 0.947240293
1341846110.554149 0.007973923 -0.002562044 0.001640823 -0.027835442 0.206138477 -0.243860602 0.947240293
1341846110.554149 0.007973923 -0.002562044 0.001640823 -0.027835442 0.206138477 -0.243860602 0.947240293
1341846110.554149 0.007973923 -0.002562044 0.001640823 -0.027835442 0.206138477 -0.243860602 0.947240293
1341846110.554149 0.007973923 -0.002562044 0.001640823 -0.027835442 0.206138477 -0.243860602 0.947240293
1341846110.717831 0.007973362 -0.002561084 0.001638998 -0.027665038 0.200156286 -0.240879953 0.949288666
1341846110.753826 0.007974399 -0.002561556 0.001641126 -0.025946764 0.203877509 -0.229198962 0.951434970
1341846110.785789 0.007974484 -0.002561549 0.001641269 -0.021754416 0.205478162 -0.216767997 0.954105377
1341846110.821828 0.007974460 -0.002561578 0.001641309 -0.018518224 0.206933811 -0.205650076 0.956317663
1341846110.853855 0.007974505 -0.002561535 0.001641343 -0.016263753 0.209064066 -0.194979101 0.958128810
1341846110.885864 0.007974352 -0.002561629 0.001640813 -0.014002760 0.211167932 -0.184284613 0.959818304
1341846110.921999 0.007974159 -0.002561686 0.001640158 -0.009820494 0.210688680 -0.177905351 0.961178184
1341846110.953861 0.007974104 -0.002561759 0.001640145 -0.008900786 0.211523548 -0.173491344 0.961810410
1341846110.985986 0.007974216 -0.002561727 0.001640344 -0.007149093 0.214343652 -0.169882879 0.961844802
1341846111.021940 0.007974528 -0.002561419 0.001641068 -0.006201156 0.216336280 -0.166182145 0.962051809
1341846111.053945 0.007974110 -0.002561552 0.001640989 -0.008570574 0.215930164 -0.162009105 0.962836325
1341846111.089856 0.007973705 -0.002561595 0.001639977 -0.010350033 0.214928269 -0.157623500 0.963770509
1341846111.121811 0.007974487 -0.002562043 0.001640517 -0.010654890 0.212352842 -0.149183840 0.965679526
1341846111.153919 0.007974082 -0.002562089 0.001640297 -0.008140756 0.209205061 -0.142687768 0.967371285
1341846111.189911 0.007973885 -0.002562062 0.001640956 -0.006310345 0.207174018 -0.136056200 0.968776464
1341846111.221870 0.007973885 -0.002562052 0.001639857 -0.004479978 0.205131680 -0.129417002 0.970129967
1341846111.258571 0.007973803 -0.002562004 0.001640627 -0.002649662 0.203078881 -0.122770928 0.971431553
1341846111.289825 0.007973703 -0.002560731 0.001640538 -0.011327990 0.206308380 -0.121097200 0.970898509
1341846111.321895 0.007973945 -0.002561123 0.001641043 -0.010820799 0.206612632 -0.121126398 0.970835984
1341846111.357890 0.007974443 -0.002561584 0.001641291 -0.008650165 0.205269203 -0.115558349 0.971821010
1341846111.390567 0.007973940 -0.002561830 0.001640178 -0.008640157 0.203917146 -0.108918399 0.972872019
1341846111.421924 0.007974268 -0.002561419 0.001640100 -0.006316117 0.204584211 -0.106398180 0.973028719
1341846111.457975 0.007974197 -0.002561374 0.001640023 -0.005224146 0.205309555 -0.103307307 0.973215461
1341846111.490354 0.007973855 -0.002561291 0.001639719 -0.004885820 0.204162240 -0.099586077 0.973846257
1341846111.525824 0.007974197 -0.002561284 0.001640461 -0.004547132 0.203011379 -0.095863238 0.974461854
1341846111.557829 0.007973966 -0.002561534 0.001640498 -0.001502746 0.202872396 -0.087114275 0.975321293
1341846111.589761 0.007974615 -0.002561097 0.001641368 0.000408792 0.201538280 -0.072511747 0.976792812
1341846111.625966 0.007974384 -0.002561412 0.001640882 0.003651406 0.201683804 -0.054640334 0.977918565
1341846111.658029 0.007974497 -0.002561407 0.001640526 0.007767266 0.203880951 -0.038349636 0.978213429
1341846111.689871 0.007973983 -0.002561897 0.001639910 0.011244826 0.205070928 -0.022246707 0.978429615
1341846111.725851 0.007974210 -0.002561574 0.001639792 0.013459037 0.205812544 -0.006641568 0.978476346
1341846111.757957 0.007986538 -0.002549542 0.001638729 0.015460690 0.206598252 0.001009843 0.978303194
1341846111.793921 0.007975800 -0.002561267 0.001642311 0.018587396 0.208121374 0.009681872 0.977878451
1341846111.825999 0.007975072 -0.002562065 0.001641785 0.021356452 0.207085103 0.022768740 0.977824748
1341846111.857852 0.007974456 -0.002561729 0.001640573 0.025119947 0.206686839 0.030794468 0.977599740
1341846111.893939 0.007973546 -0.002561813 0.001640237 0.028221872 0.207213998 0.037294988 0.977177024
1341846111.925817 0.007973766 -0.002561208 0.001640580 0.030668996 0.206728637 0.043920062 0.976930737
1341846111.957857 0.007974416 -0.002561467 0.001640991 0.033463445 0.201406330 0.049897771 0.977663517
1341846111.993917 0.007973332 -0.002561826 0.001639439 0.036585163 0.200040385 0.056064457 0.977497876
1341846112.025975 0.007973902 -0.002561394 0.001640069 0.039012037 0.198339820 0.062437739 0.977364302
1341846112.061964 0.007974149 -0.002561340 0.001640539 0.041437060 0.196630374 0.068808019 0.977182150
1341846112.094004 0.007974213 -0.002561341 0.001640654 0.043860495 0.194912210 0.075174965 0.976951480
1341846112.125857 0.007973671 -0.002561728 0.001640164 0.046281833 0.193185419 0.081538223 0.976672351
1341846112.161882 0.007974190 -0.002561296 0.001641470 0.048701145 0.191448197 0.087897249 0.976345181
1341846112.193903 0.007971771 -0.002560583 0.001631728 0.068819672 0.190869987 0.124997221 0.971189082
1341846112.230507 0.007974466 -0.002560574 0.001643134 0.075173013 0.189533770 0.133180201 0.969891250
1341846112.261848 0.007968227 -0.002555899 0.001626051 0.078558110 0.190247566 0.140137941 0.968501806
1341846112.293912 0.007975120 -0.002561125 0.001644134 0.082645215 0.189959511 0.151107892 0.966566920
1341846112.329892 0.007975226 -0.002561296 0.001644986 0.092473432 0.189008415 0.159737572 0.964473128
1341846112.361751 0.007975590 -0.002561451 0.001646740 0.099854723 0.189131945 0.168588519 0.962203741
1341846112.393853 0.007976170 -0.002561718 0.001648331 0.102872252 0.189183652 0.176500574 0.960455298
1341846112.429940 0.007976060 -0.002561535 0.001646564 0.106575891 0.189829350 0.181666389 0.958959699
1341846112.461839 0.007975996 -0.002561472 0.001645798 0.110720649 0.188696429 0.186696678 0.957746804
1341846112.498139 0.007975474 -0.002560845 0.001645476 0.114152178 0.188761204 0.191221267 0.956437647
1341846112.530069 0.007975711 -0.002561513 0.001646122 0.114837468 0.188096568 0.196075156 0.955503285
1341846112.562160 0.007977217 -0.002561375 0.001648639 0.114874221 0.186009988 0.201240450 0.954833210
1341846112.597968 0.007979317 -0.002561907 0.001652239 0.117095321 0.182729527 0.206655934 0.954039812
1341846112.630702 0.007976980 -0.002561234 0.001647553 0.120367460 0.180599064 0.217940941 0.951523721
1341846112.661861 0.007975834 -0.002561500 0.001646202 0.120303251 0.180527672 0.228680551 0.949021637
1341846112.698170 0.007975699 -0.002561459 0.001646058 0.120002240 0.181015342 0.238835812 0.946462035
1341846112.729995 0.007975423 -0.002561391 0.001645721 0.122679718 0.180173218 0.248368159 0.943822324
1341846112.765875 0.007974843 -0.002561057 0.001643659 0.125497371 0.182398468 0.256218970 0.940921366
1341846112.798043 0.007968157 -0.002555707 0.001625782 0.130085707 0.189681768 0.265190691 0.936361253
1341846112.829969 0.007968202 -0.002555761 0.001625740 0.133750200 0.193835661 0.274764508 0.932224810
1341846112.865900 0.007976055 -0.002560877 0.001645464 0.134881511 0.194934368 0.285923749 0.928469241
1341846112.897929 0.007975143 -0.002561189 0.001644642 0.136241555 0.195788279 0.295115769 0.925209105
1341846112.935783 0.007987603 -0.002548640 0.001642635 0.138606533 0.196735278 0.304190665 0.921711206
1341846112.998277 0.007987998 -0.002548784 0.001643148 0.142852455 0.196053937 0.319540471 0.915996671
1341846113.033814 0.007974369 -0.002560639 0.001643045 0.145464450 0.198114812 0.326202989 0.912788153
1341846113.072059 0.007975235 -0.002561213 0.001643531 0.147179589 0.202199906 0.332369566 0.909386516
1341846113.139948 0.007975495 -0.002561219 0.001644839 0.153473362 0.204033837 0.350666970 0.901026487
1341846113.198174 0.007973622 -0.002560817 0.001642118 0.159884200 0.211544186 0.369456530 0.890610993
1341846113.233852 0.007974843 -0.002560478 0.001644436 0.163219005 0.212390229 0.379645675 0.885505021
1341846113.265850 0.007975749 -0.002560428 0.001645517 0.166638762 0.215628043 0.387219459 0.880793512
1341846113.301938 0.007974624 -0.002561386 0.001643336 0.170690879 0.219458535 0.395849973 0.875217319
1341846113.333866 0.007972886 -0.002561732 0.001641018 0.174007162 0.221580699 0.404857665 0.869892955
1341846113.366028 0.007974968 -0.002561861 0.001643044 0.176212907 0.220553920 0.418601573 0.863178849
1341846113.401917 0.007974620 -0.002561411 0.001643378 0.180694178 0.221907258 0.427931458 0.857310593
1341846113.433895 0.007974657 -0.002561355 0.001643123 0.183713883 0.221964404 0.438321173 0.851384521
1341846113.469984 0.007974522 -0.002561240 0.001643202 0.186654985 0.220336348 0.448502243 0.845847249
1341846113.501829 0.007974407 -0.002561270 0.001643182 0.190377742 0.220730484 0.457669914 0.839983702
1341846113.533888 0.007974463 -0.002561290 0.001643127 0.192439824 0.219896793 0.464101881 0.836194813
1341846113.569800 0.007974600 -0.002561299 0.001643390 0.194502696 0.216861859 0.470707417 0.832810998
1341846113.601892 0.007974559 -0.002561196 0.001643441 0.196392402 0.216054171 0.475142807 0.830054164
1341846113.634488 0.007974539 -0.002561212 0.001643277 0.197050795 0.216710001 0.481635660 0.825975060
1341846113.669776 0.007974513 -0.002561217 0.001643352 0.198170930 0.215902776 0.490853637 0.820473611
1341846113.701823 0.007974573 -0.002561264 0.001643733 0.203235745 0.214261070 0.501789451 0.813015878
1341846113.737952 0.007974356 -0.002561168 0.001643406 0.207088292 0.212876961 0.510843456 0.806744576
1341846113.769790 0.007974156 -0.002560947 0.001643129 0.206387654 0.209336504 0.520044446 0.801957726
1341846113.801808 0.007974300 -0.002561122 0.001643394 0.206602499 0.207648784 0.526540875 0.798092842
1341846113.837973 0.007974249 -0.002561157 0.001643402 0.207695603 0.208473742 0.530825615 0.794748664
1341846113.869842 0.007974361 -0.002561193 0.001643506 0.208715826 0.206792757 0.536881089 0.790843308
1341846113.901753 0.007974523 -0.002561297 0.001643689 0.211146012 0.205618411 0.543643594 0.785869002
1341846113.937955 0.007974528 -0.002561298 0.001643615 0.213192061 0.206433669 0.551223040 0.779799640
1341846113.969840 0.007974323 -0.002561109 0.001643255 0.212421238 0.204858601 0.560158014 0.774036944
1341846114.005912 0.007974369 -0.002561319 0.001643515 0.212914079 0.204083860 0.566848993 0.769220114
1341846114.043864 0.007974458 -0.002561310 0.001643494 0.213835284 0.205770731 0.574882388 0.762524188
1341846114.106082 0.007974370 -0.002561220 0.001643360 0.216923714 0.201582953 0.587874293 0.752802908
1341846114.137798 0.007974283 -0.002561242 0.001643660 0.218658209 0.200958550 0.594821513 0.746988356
1341846114.170101 0.007974087 -0.002561177 0.001643310 0.218581796 0.202178493 0.598770678 0.743518353
1341846114.205882 0.007973745 -0.002561158 0.001642891 0.217782006 0.201088592 0.602576196 0.740969837
1341846114.237814 0.007973912 -0.002561230 0.001643140 0.217511192 0.198649600 0.605623066 0.739221156
1341846114.273904 0.007974191 -0.002561359 0.001643524 0.217767328 0.196306497 0.608352661 0.737528443
1341846114.305813 0.007974267 -0.002561321 0.001643448 0.218977526 0.194170907 0.610462785 0.735990286
1341846114.337919 0.007974206 -0.002561233 0.001643375 0.219642743 0.193515301 0.610186458 0.736193895
1341846114.374059 0.007974340 -0.002561264 0.001643384 0.219903827 0.193247437 0.610482395 0.735940933
1341846114.406296 0.007974228 -0.002561163 0.001643151 0.220809624 0.190866306 0.613104105 0.734109402
1341846114.441861 0.007974213 -0.002561220 0.001643172 0.222316563 0.187894434 0.615311146 0.732572973
1341846114.473886 0.007974267 -0.002561258 0.001643338 0.222697586 0.186795905 0.616936088 0.731370628
1341846114.506009 0.007974322 -0.002561293 0.001643442 0.223076344 0.185696125 0.618558109 0.730164170
1341846114.541924 0.007974335 -0.002561317 0.001643471 0.223454461 0.184593096 0.620176733 0.728954256
1341846114.573824 0.007974329 -0.002561282 0.001643431 0.223830774 0.183487475 0.621791542 0.727741301
1341846114.605897 0.007974315 -0.002561258 0.001643425 0.224204317 0.182383075 0.623403668 0.726523757
1341846114.641888 0.007974499 -0.002561301 0.001643798 0.223316595 0.180954978 0.625211060 0.725600541
1341846114.673974 0.007974431 -0.002561196 0.001643750 0.225107923 0.181101426 0.624942601 0.725241661
1341846114.709730 0.007974265 -0.002561128 0.001643495 0.223529577 0.181314707 0.624676704 0.725905299
1341846114.741795 0.007974170 -0.002561063 0.001643510 0.221946418 0.181525081 0.624409199 0.726568341
1341846114.773917 0.007974148 -0.002561052 0.001643512 0.221002296 0.182158649 0.621361196 0.729305446
1341846114.810044 0.007974047 -0.002560991 0.001643531 0.220054224 0.182788894 0.618301868 0.732029498
1341846114.841856 0.007973799 -0.002560890 0.001643477 0.219101787 0.183415473 0.615230918 0.734740794
1341846114.873982 0.007973704 -0.002560863 0.001643505 0.218145594 0.184038579 0.612148821 0.737438917
1341846114.909807 0.008200832 -0.002687623 0.002124995 0.219077870 0.183623418 0.611884773 0.737485170
1341846114.909807 0.008200832 -0.002687623 0.002124995 0.219077870 0.183623418 0.611884773 0.737485170
1341846114.909807 0.008200832 -0.002687623 0.002124995 0.219077870 0.183623418 0.611884773 0.737485170
1341846114.909807 0.008200832 -0.002687623 0.002124995 0.219077870 0.183623418 0.611884773 0.737485170
1341846114.909807 0.008200832 -0.002687623 0.002124995 0.219077870 0.183623418 0.611884773 0.737485170
1341846114.909807 0.008200832 -0.002687623 0.002124995 0.219077870 0.183623418 0.611884773 0.737485170
1341846114.909807 0.008200832 -0.002687623 0.002124995 0.219077870 0.183623418 0.611884773 0.737485170
1341846114.909807 0.008200832 -0.002687623 0.002124995 0.219077870 0.183623418 0.611884773 0.737485170
1341846114.909807 0.008200832 -0.002687623 0.002124995 0.219077870 0.183623418 0.611884773 0.737485170
1341846114.909807 0.008200832 -0.002687623 0.002124995 0.219077870 0.183623418 0.611884773 0.737485170
1341846114.909807 0.008200832 -0.002687623 0.002124995 0.219077870 0.183623418 0.611884773 0.737485170
1341846114.909807 0.008200832 -0.002687623 0.002124995 0.219077870 0.183623418 0.611884773 0.737485170
1341846114.909807 0.008200832 -0.002687623 0.002124995 0.219077870 0.183623418 0.611884773 0.737485170
1341846114.909807 0.008200832 -0.002687623 0.002124995 0.219077870 0.183623418 0.611884773 0.737485170
1341846114.909807 0.008200832 -0.002687623 0.002124995 0.219077870 0.183623418 0.611884773 0.737485170
1341846115.445793 0.007974758 -0.002561609 0.001641835 0.098389432 0.220231935 0.390851498 0.888286293
1341846115.478059 0.007974487 -0.002561525 0.001641943 0.097229205 0.221609741 0.389635593 0.888605475
1341846115.513951 0.007974348 -0.002561381 0.001641829 0.096741118 0.222199365 0.386317879 0.889959037
1341846115.545891 0.007974245 -0.002561356 0.001642065 0.094518304 0.221956640 0.382238358 0.892017603
1341846115.577954 0.007974221 -0.002561423 0.001642537 0.088895783 0.222118393 0.377694815 0.894487321
1341846115.613954 0.007974281 -0.002561413 0.001642813 0.084352784 0.222270772 0.371972084 0.897283137
1341846115.645824 0.007974135 -0.002561454 0.001642533 0.079804681 0.222406730 0.366225868 0.900025010
1341846115.681882 0.007974014 -0.002561362 0.001642893 0.072628900 0.221906602 0.360199600 0.903182566
1341846115.714384 0.007960781 -0.002568856 0.001605224 0.054113965 0.225142002 0.295204878 0.926950276
1341846115.714384 0.007960781 -0.002568856 0.001605224 0.054113965 0.225142002 0.295204878 0.926950276
1341846115.714384 0.007960781 -0.002568856 0.001605224 0.054113965 0.225142002 0.295204878 0.926950276
1341846115.813812 0.007974240 -0.002561745 0.001640844 0.038197394 0.230804577 0.264388472 0.935611546
1341846115.848050 0.007974577 -0.002561660 0.001641493 0.034508668 0.235272810 0.253973186 0.937525213
1341846115.881857 0.007974559 -0.002561601 0.001641357 0.029748648 0.238013878 0.243657216 0.939731658
1341846115.913919 0.007974634 -0.002561638 0.001641341 0.022810129 0.238526195 0.235064477 0.941981792
1341846115.950006 0.007974588 -0.002561692 0.001641345 0.018496444 0.241673753 0.226627186 0.943340778
1341846115.982063 0.007974551 -0.002561686 0.001641295 0.016104467 0.245694354 0.218471229 0.944269657
1341846116.014067 0.007974636 -0.002561649 0.001641241 0.014258072 0.246550262 0.212486371 0.945441306
1341846116.050272 0.007974687 -0.002561643 0.001641326 0.013365681 0.245573103 0.207454950 0.946825027
1341846116.081984 0.007974707 -0.002561632 0.001641270 0.012472491 0.244590223 0.202417657 0.948180974
1341846116.113928 0.007974578 -0.002561581 0.001641058 0.009439249 0.247048095 0.197349608 0.948647082
1341846116.149901 0.007974584 -0.002561583 0.001640870 0.006406139 0.249494866 0.192273334 0.949074388
1341846116.181797 0.007974464 -0.002561465 0.001641044 0.009218573 0.246409193 0.190392345 0.950235903
1341846116.219755 0.007974438 -0.002561473 0.001641313 0.008062415 0.248779282 0.187983960 0.950108349
1341846116.252587 0.007974388 -0.002561428 0.001641309 0.005928245 0.249409020 0.185226440 0.950500488
1341846116.282014 0.007974465 -0.002561722 0.001642042 0.003799683 0.250038505 0.182463735 0.950880229
1341846116.319031 0.007974400 -0.002561824 0.001642237 0.003911309 0.251489341 0.178780556 0.951196790
1341846116.381987 0.007974417 -0.002561786 0.001642343 0.001590922 0.253244489 0.174160868 0.951594830
1341846116.417962 0.007974390 -0.002561818 0.001642207 -0.000729110 0.254992157 0.169535831 0.951964319
1341846116.449943 0.007974396 -0.002561813 0.001642302 -0.003049102 0.256732136 0.164905712 0.952305317
1341846116.486079 0.007974210 -0.002561701 0.001641957 -0.005181579 0.257350802 0.159639031 0.953026295
1341846116.517901 0.007974260 -0.002561699 0.001642412 -0.007315988 0.257960379 0.154366493 0.953715861
1341846116.549851 0.007974378 -0.002561820 0.001643248 -0.009451330 0.258558095 0.149088949 0.954374611
1341846116.585719 0.007974253 -0.002561737 0.001643445 -0.011587990 0.259146303 0.143806621 0.955001891
1341846116.617985 0.007972928 -0.002561746 0.001638232 -0.023972187 0.258647650 0.095667168 0.960923791
1341846116.653901 0.007974712 -0.002561935 0.001642510 -0.025891764 0.257888556 0.095760062 0.961068749
1341846116.686079 0.007974617 -0.002561762 0.001642066 -0.026219366 0.257172883 0.093964703 0.961428761
1341846116.717942 0.007974586 -0.002561820 0.001641720 -0.025568238 0.259651870 0.091022663 0.961062968
1341846116.753865 0.007974559 -0.002561732 0.001641411 -0.027185066 0.260699421 0.088623628 0.960959196
1341846116.785839 0.007974597 -0.002561755 0.001641369 -0.028014543 0.257979006 0.086113803 0.961897314
1341846116.818815 0.007974595 -0.002561750 0.001641277 -0.027650764 0.256872684 0.082438864 0.962525666
1341846116.853902 0.007974599 -0.002561746 0.001641278 -0.029956378 0.256948978 0.078546479 0.962761819
1341846116.886435 0.007974690 -0.002561751 0.001641446 -0.032013047 0.254527777 0.073715001 0.963720322
1341846116.921838 0.007974642 -0.002561812 0.001641308 -0.034065939 0.252101898 0.068879396 0.964644909
1341846116.953941 0.007974653 -0.002561790 0.001641270 -0.035545580 0.250950158 0.063171372 0.965282321
1341846116.985759 0.007974654 -0.002561774 0.001641316 -0.037023939 0.249789223 0.057461016 0.965884447
1341846117.021816 0.007974576 -0.002561809 0.001641249 -0.038496830 0.248617411 0.051744286 0.966452241
1341846117.054055 0.007974547 -0.002561772 0.001641089 -0.039319728 0.246205762 0.044324677 0.967404783
1341846117.085953 0.007974599 -0.002561770 0.001641295 -0.040140495 0.243778571 0.036902256 0.968296945
1341846117.121840 0.007974689 -0.002561769 0.001641401 -0.040959354 0.241335899 0.029477539 0.969128668
1341846117.154178 0.007974599 -0.002561796 0.001641314 -0.041779187 0.238878220 0.022050425 0.969899714
1341846117.190028 0.007974609 -0.002561793 0.001641325 -0.042596437 0.236405835 0.014621946 0.970610142
1341846117.221812 0.007974816 -0.002561784 0.001641647 -0.043411035 0.233918786 0.007192550 0.971259892
1341846117.253848 0.007975081 -0.002561773 0.001642063 -0.044222925 0.231417090 -0.000237291 0.971848965
1341846117.289976 0.007970751 -0.002565368 0.001634195 -0.046048313 0.237123296 -0.001915979 0.970385730
1341846117.321956 0.007974533 -0.002561626 0.001641449 -0.044367820 0.235130116 -0.004326718 0.970941126
1341846117.354004 0.007974189 -0.002561966 0.001640856 -0.045559134 0.236709327 -0.011956970 0.970438123
1341846117.389874 0.007973716 -0.002562100 0.001640465 -0.046967670 0.238306820 -0.017903559 0.969888330
1341846117.421707 0.007973829 -0.002561951 0.001640622 -0.048039351 0.234683037 -0.019544907 0.970687389
1341846117.457914 0.007973484 -0.002562013 0.001640015 -0.046650190 0.234383270 -0.021246638 0.970791817
1341846117.490067 0.007973535 -0.002561953 0.001640275 -0.046788175 0.235220671 -0.022717090 0.970549345
1341846117.521746 0.007973460 -0.002561961 0.001640306 -0.048063602 0.234040692 -0.024104862 0.970738769
1341846117.557896 0.007973324 -0.002562025 0.001640167 -0.048696224 0.231876150 -0.025688380 0.971185982
1341846117.590027 0.007973424 -0.002561927 0.001640264 -0.048658904 0.230115548 -0.027317263 0.971562088
1341846117.621818 0.007973404 -0.002561940 0.001640261 -0.048620660 0.228353649 -0.028945880 0.971932471
1341846117.658054 0.007973374 -0.002562046 0.001640121 -0.047094453 0.225839049 -0.030742956 0.972539842
1341846117.689984 0.007973478 -0.002562011 0.001640231 -0.044527374 0.224679843 -0.032616183 0.972868145
1341846117.725898 0.007974183 -0.002561987 0.001641037 -0.041958645 0.223518670 -0.034488935 0.973185182
1341846117.757737 0.007973725 -0.002562274 0.001640602 -0.037021436 0.221922085 -0.035398878 0.973718107
1341846117.790023 0.007973558 -0.002562023 0.001640565 -0.034506917 0.219808802 -0.033366140 0.974361360
1341846117.825949 0.007973617 -0.002562036 0.001640563 -0.032678600 0.219152048 -0.033758279 0.974558830
1341846117.857847 0.007973622 -0.002562041 0.001640564 -0.030850140 0.218494996 -0.034150273 0.974752247
1341846117.893987 0.007973831 -0.002562049 0.001640804 -0.029021593 0.217837051 -0.034542128 0.974941850
1341846117.925908 0.007973796 -0.002562056 0.001640781 -0.029846098 0.217053324 -0.033041351 0.975143731
1341846117.958141 0.007973787 -0.002562058 0.001640760 -0.030670498 0.216268852 -0.031540453 0.975342155
1341846117.993978 0.007973786 -0.002562059 0.001640756 -0.031494789 0.215483591 -0.030039448 0.975537062
1341846118.058362 0.000000000 0.000000000 0.000000000 0.000000000 0.000000000 0.000000000 1.000000000
1341846118.093970 -0.001317846 0.001279830 -0.001966347 0.000437551 0.001781215 0.000696785 0.999998093
1341846118.125943 -0.006178613 0.001074308 -0.002958419 -0.000595935 0.002175334 0.002089822 0.999995291
1341846118.161827 -0.001227817 -0.005522191 -0.000385096 -0.001480432 0.000314641 0.002285638 0.999996245
1341846118.194750 0.002935965 -0.003992176 -0.001077710 0.000538482 0.001649754 0.001141009 0.999997854
1341846118.226048 -0.001068173 -0.003506461 -0.002268219 0.000687957 0.003320940 0.001783963 0.999992669
1341846118.261772 0.000512560 -0.007153312 -0.000208880 0.001308542 0.002902242 0.001999093 0.999992907
1341846118.294053 0.004929261 -0.008097254 -0.000806104 0.003046499 0.003403233 0.002237028 0.999987066
1341846118.336123 0.002092828 -0.000639294 -0.002957270 0.005062961 0.005058166 0.002420231 0.999971449
1341846118.362053 0.000155860 -0.000478520 -0.000992724 0.004319543 0.005285733 0.001837003 0.999975026
1341846118.393906 0.007584251 -0.005198439 0.001266623 0.003712908 0.005353298 0.000891923 0.999978364
1341846118.429882 0.003821484 -0.001580288 -0.001811571 0.004718173 0.007798034 0.001111987 0.999957860
1341846118.461821 -0.002453041 -0.000933840 -0.001738702 0.003550494 0.007640668 0.002063218 0.999962389
1341846118.509152 0.003693536 -0.002760758 0.001870387 0.002656808 0.006167224 0.002008624 0.999975443
1341846118.535838 0.004940795 -0.003236057 0.001274629 0.003167429 0.006975302 0.002332390 0.999967933
1341846118.567808 -0.001876694 0.000900435 -0.002025096 0.002765036 0.007338936 0.004086949 0.999960899
1341846118.603991 0.006087274 -0.006215291 0.002148354 0.001548540 0.004622654 0.004104759 0.999979675
1341846118.635802 0.008333502 -0.006918302 -0.000752415 0.003756389 0.006662939 0.003143047 0.999965787
1341846118.667919 -0.001267871 -0.002754650 -0.005285633 0.004040222 0.009111501 0.004241807 0.999941349
1341846118.703956 0.000830393 -0.007672636 -0.001066692 0.003275872 0.007496725 0.005087073 0.999953568
1341846118.735837 0.010027000 -0.005473241 -0.001528441 0.005476315 0.007557206 0.004985122 0.999944031
1341846118.772013 0.003497770 -0.000933119 -0.004425886 0.005706703 0.010208293 0.005643244 0.999915719
1341846118.804343 0.002392876 -0.006516804 0.000078446 0.004366329 0.009778547 0.006880380 0.999918997
1341846118.835817 0.005833682 -0.003718532 -0.001301697 0.006540405 0.009792222 0.006651683 0.999908566
1341846118.872045 0.004931443 -0.000155163 -0.003754065 0.006705993 0.010574429 0.007611633 0.999892652
1341846118.903860 0.006281846 -0.004167560 -0.001562493 0.005602274 0.009573124 0.006957704 0.999914289
1341846118.935809 0.010559225 -0.003966887 -0.001547497 0.005961381 0.009376695 0.005636110 0.999922395
1341846118.971870 0.010974847 -0.005633950 -0.004289370 0.006436416 0.010462565 0.005392990 0.999909997
1341846119.003949 0.010927461 -0.005672480 -0.004166199 0.006784878 0.009846054 0.007756130 0.999898434
1341846119.035768 0.010918166 -0.007866242 -0.003411115 0.010034492 0.011314048 0.007374972 0.999858439
1341846119.071829 0.010783406 -0.005393039 -0.005330961 0.013699795 0.014643474 0.010332378 0.999745548
1341846119.103837 0.010965166 -0.005671917 -0.004641228 0.014578652 0.014790859 0.012142441 0.999710560
1341846119.136478 0.010946712 -0.005680936 -0.004246328 0.015351825 0.014680756 0.011098587 0.999712765
1341846119.171928 0.011042440 -0.005643926 -0.004548663 0.017956322 0.016551023 0.010642980 0.999645114
1341846119.203919 0.011035320 -0.005694844 -0.004562855 0.019571714 0.017536169 0.013072126 0.999569178
1341846119.266059 0.011038930 -0.005704727 -0.004426656 0.021545961 0.012736824 0.019423541 0.999498010
1341846119.297817 0.011068476 -0.005738317 -0.004461427 0.021833427 0.012361189 0.019767849 0.999489725
1341846119.334095 0.011047302 -0.005721799 -0.004449951 0.020791734 0.010652005 0.022093900 0.999482930
1341846119.365757 0.011045833 -0.005717378 -0.004544250 0.022609714 0.008357367 0.023375621 0.999436140
1341846119.401815 0.011068952 -0.005693462 -0.004388039 0.024366748 0.007734252 0.023789339 0.999390066
1341846119.434863 0.011029167 -0.005689857 -0.004443343 0.024473185 0.008630437 0.021943998 0.999422371
1341846119.465868 0.011038603 -0.005703047 -0.004512110 0.024551617 0.009697345 0.021254424 0.999425590
1341846119.501761 0.011018738 -0.005681321 -0.004560302 0.026063796 0.010174490 0.021863887 0.999369323
1341846119.533772 0.011027540 -0.005689225 -0.004525209 0.027162811 0.010409828 0.022187363 0.999330521
1341846119.565854 0.011020893 -0.005723555 -0.004639201 0.027149443 0.010549833 0.020236949 0.999370873
