1341846320.931889 0.0000000 0.0000000 0.0000000 0.0000000 0.0000000 0.0000000 1.0000000
1341846320.967866 0.0024980 0.0241776 -0.0118080 0.0003712 0.0050670 -0.0040141 0.9999790
1341846321.000017 0.0083569 0.0055815 -0.0120406 -0.0076378 0.0050870 -0.0041582 0.9999492
1341846321.031860 0.0232791 0.0007804 -0.0109804 -0.0093083 0.0055199 -0.0064563 0.9999206
1341846321.099840 0.0329470 -0.0062985 -0.0231872 -0.0122592 0.0105199 -0.0076246 0.9998404
1341846321.131821 0.0551580 -0.0045171 -0.0073262 -0.0108567 0.0114672 -0.0064322 0.9998546
1341846321.200042 0.0630165 -0.0041454 -0.0182616 -0.0081647 0.0180264 -0.0071091 0.9997789
1341846321.267939 0.0770698 -0.0071287 -0.0338071 -0.0081264 0.0208465 -0.0145822 0.9996433
1341846321.367913 0.1090937 -0.0060090 -0.0113100 -0.0073862 0.0290442 -0.0299171 0.9991030
1341846321.435994 0.1238180 -0.0070181 0.0121647 -0.0047402 0.0372242 -0.0310567 0.9988130
1341846321.499882 0.1238188 -0.0070147 0.0121620 -0.0015591 0.0449684 -0.0337685 0.9984163
1341846321.536109 0.1237765 -0.0070277 0.0121346 -0.0035032 0.0528875 -0.0387333 0.9978428
1341846321.603938 0.1238097 -0.0070226 0.0121850 -0.0095293 0.0619325 -0.0439314 0.9970675
1341846321.668306 0.1238034 -0.0070236 0.0121821 -0.0167904 0.0799019 -0.0416237 0.9957918
1341846321.836152 0.1237981 -0.0070274 0.0121887 -0.0307223 0.0905879 -0.0172613 0.9952648
1341846322.166164 0.1237959 -0.0070153 0.0121935 -0.0500002 0.1030318 -0.0315784 0.9929186
1341846322.333949 0.1237970 -0.0070043 0.0121949 -0.0478191 0.0928676 -0.0312966 0.9940370
1341846322.433955 0.1237963 -0.0069901 0.0121987 -0.0322716 0.0897874 -0.0450737 0.9944170
1341846322.534002 0.1237929 -0.0069810 0.0121996 -0.0033396 0.0836728 -0.0384293 0.9957464
1341846322.638119 0.1237924 -0.0069761 0.0122015 0.0216147 0.0772008 -0.0340658 0.9961990
1341846322.738006 0.1237921 -0.0069743 0.0122018 0.0329719 0.0792467 -0.0318987 0.9957988
1341846322.838063 0.1237941 -0.0069667 0.0122043 0.0439567 0.0749006 -0.0289754 0.9958003
1341846323.011820 0.1237885 -0.0069599 0.0122066 0.0489601 0.0723340 -0.0236264 0.9958978
1341846323.342027 0.1237856 -0.0069466 0.0122123 0.0340891 0.0749022 -0.0268343 0.9962467
1341846323.541972 0.1237887 -0.0069390 0.0122123 0.0463189 0.0697946 -0.0250278 0.9961711
1341846323.642014 0.1237910 -0.0069331 0.0122132 0.0490373 0.0804499 -0.0347095 0.9949464
1341846323.742111 0.1237929 -0.0069265 0.0122179 0.0608033 0.0751090 -0.0279418 0.9949276
1341846324.015934 0.1237931 -0.0069182 0.0122198 0.0848724 0.0625395 -0.0473990 0.9932969
1341846324.755922 0.1237942 -0.0069635 0.0122070 0.0167205 0.0528090 -0.0481895 0.9973010
1341846325.317988 0.1237885 -0.0069962 0.0122019 -0.0341650 0.0375488 -0.0275884 0.9983295
1341846325.485954 0.1237881 -0.0070018 0.0122018 -0.0134230 0.0650007 -0.0197980 0.9975985
1341846325.653982 0.1237896 -0.0070130 0.0121980 -0.0174651 0.0763623 -0.0242874 0.9966313
1341846325.853827 0.1237904 -0.0070241 0.0121962 0.0002055 0.0816816 -0.0065395 0.9966370
1341846326.021991 0.1237897 -0.0070325 0.0121964 0.0035184 0.0808684 0.0155251 0.9965976
1341846326.222162 0.1237879 -0.0070501 0.0121916 0.0019403 0.0877226 0.0221967 0.9958957
1341846326.423985 0.1237856 -0.0070604 0.0121927 -0.0171206 0.0913784 0.0303270 0.9952071
1341846326.591828 0.1237826 -0.0070750 0.0121895 -0.0327102 0.0987019 0.0371496 0.9938852
1341846326.826821 0.1237801 -0.0071015 0.0121860 -0.0833325 0.1174047 0.0271116 0.9892102
1341846326.994594 0.1237812 -0.0071087 0.0121874 -0.0934786 0.1139133 0.0376046 0.9883680
1341846327.128901 0.1237814 -0.0071206 0.0121878 -0.1079305 0.1188246 0.0311663 0.9865396
1341846327.294023 0.1237727 -0.0071354 0.0121819 -0.1174896 0.1381900 0.0159549 0.9832829
1341846327.497931 0.1237785 -0.0071630 0.0121954 -0.1513034 0.1464785 0.0037183 0.9775671
1341846327.697919 0.1237758 -0.0071901 0.0121934 -0.1618078 0.1338180 0.0238539 0.9774160
1341846327.797917 0.1237720 -0.0072076 0.0121907 -0.1833027 0.1329823 0.0334554 0.9734457
1341846327.998073 0.1237667 -0.0072266 0.0121891 -0.2225028 0.1333684 0.0331765 0.9651967
1341846328.198018 0.1237744 -0.0072173 0.0121941 -0.2287712 0.1280565 0.0341632 0.9644160
1341846328.402010 0.1237742 -0.0071802 0.0121903 -0.1841562 0.1272288 0.0247452 0.9743136
1341846328.602804 0.1237792 -0.0071328 0.0121903 -0.1461759 0.1225098 0.0004799 0.9816434
1341846328.838051 0.1237762 -0.0070960 0.0121820 -0.0994827 0.0977435 -0.0107339 0.9901688
1341846329.038243 0.1237743 -0.0070767 0.0121867 -0.0793977 0.0879435 -0.0038678 0.9929487
1341846329.306052 0.1237736 -0.0070635 0.0121896 -0.0648531 0.0803097 -0.0097579 0.9946101
1341846331.149989 0.1237966 -0.0070101 0.0121937 -0.0884951 0.0154347 0.0044907 0.9959469
1341846331.853849 0.1237861 -0.0070158 0.0122011 -0.0678054 0.0660351 -0.0087303 0.9954726
1341846332.190165 0.1237890 -0.0070211 0.0122070 -0.0545389 0.0818793 -0.0147544 0.9950395
1341846332.458114 0.1237905 -0.0070207 0.0122122 -0.0513400 0.0895785 -0.0253241 0.9943332
1341846332.789937 0.1237924 -0.0070179 0.0122171 -0.0591673 0.0804779 0.0010074 0.9949983
1341846333.057998 0.1237941 -0.0070156 0.0122206 -0.0727915 0.0907257 -0.0116562 0.9931437
1341846333.326100 0.1237959 -0.0070141 0.0122234 -0.0845504 0.0988291 -0.0074210 0.9914782
1341846333.594090 0.1237961 -0.0070134 0.0122242 -0.0902655 0.0996163 -0.0092328 0.9908801
1341846333.897987 0.1237955 -0.0070144 0.0122228 -0.0885150 0.0999448 -0.0124191 0.9909702
1341846334.166115 0.1237939 -0.0070153 0.0122199 -0.0719030 0.1032004 -0.0127750 0.9919760
1341846334.540153 0.1237912 -0.0070164 0.0122155 -0.0727567 0.0973065 -0.0137822 0.9924958
1341846334.833908 0.1237884 -0.0070173 0.0122111 -0.0854608 0.0810843 -0.0209628 0.9928154
1341846335.406025 0.1237854 -0.0070212 0.0122014 -0.0709803 0.0693674 -0.0201559 0.9948586
1341846336.042129 0.1237812 -0.0070216 0.0121893 -0.0699460 0.0749563 -0.0248070 0.9944213
1341846336.410032 0.1237789 -0.0070226 0.0121836 -0.0653456 0.0675475 -0.0194378 0.9953841
1341846336.778014 0.1237765 -0.0070230 0.0121793 -0.0606723 0.0607458 -0.0119955 0.9962354
1341846337.214073 0.1237755 -0.0070222 0.0121758 -0.0584725 0.0314567 -0.0213099 0.9975657
1341846337.585971 0.1237749 -0.0070232 0.0121743 -0.0667618 0.0231050 -0.0169769 0.9973569
1341846338.154089 0.1237771 -0.0070215 0.0121786 -0.0966049 0.0481083 -0.0173123 0.9940088
1341846338.489894 0.1237790 -0.0070199 0.0121844 -0.1051527 0.0531058 -0.0110933 0.9929751
1341846338.826048 0.1237813 -0.0070184 0.0121904 -0.1104440 0.0529444 -0.0085191 0.9924346
1341846339.157969 0.1237834 -0.0070158 0.0121966 -0.1140418 0.0606509 -0.0156508 0.9914994
1341846339.462186 0.1237855 -0.0070144 0.0122013 -0.1347252 0.0607372 -0.0083986 0.9889841
1341846339.797873 0.1237883 -0.0070134 0.0122064 -0.1261857 0.0753313 -0.0174823 0.9889877
1341846340.229904 0.1237916 -0.0070126 0.0122113 -0.1212293 0.0844940 -0.0156814 0.9888975
1341846341.170048 0.1237950 -0.0070130 0.0122109 -0.1052795 0.0652168 -0.0146115 0.9921943
1341846342.247920 0.1237943 -0.0070151 0.0122078 -0.0710950 0.0548453 0.0055757 0.9959450
