1341846333.462115 0.0000000 0.0000000 0.0000000 0.0000000 0.0000000 0.0000000 1.0000000
1341846333.562063 -0.0000515 0.0034266 0.0029017 0.0029235 0.0046906 0.0003703 0.9999847
1341846333.594090 -0.0064205 0.0072809 0.0014306 0.0018130 0.0047996 0.0008558 0.9999865
1341846333.629994 -0.0060863 0.0073064 0.0012926 -0.0020166 0.0023222 -0.0004912 0.9999952
1341846333.762089 -0.0013106 -0.0004261 -0.0042521 -0.0033802 0.0012878 0.0025612 0.9999902
1341846333.930099 -0.0030409 -0.0057389 -0.0231527 0.0063482 0.0044372 -0.0026756 0.9999664
1341846333.997985 -0.0026174 -0.0089283 -0.0321469 0.0110871 0.0056814 -0.0027076 0.9999187
1341846334.066000 -0.0081194 -0.0073066 -0.0435672 0.0162614 0.0068282 -0.0002349 0.9998444
1341846334.133884 -0.0094441 -0.0078729 -0.0540167 0.0196446 0.0074814 -0.0000526 0.9997790
1341846334.198072 -0.0096277 -0.0080800 -0.0655333 0.0202698 0.0037617 0.0005551 0.9997873
1341846334.297946 -0.0146940 -0.0109249 -0.0842600 0.0216040 0.0041139 0.0016601 0.9997568
1341846334.466105 -0.0147780 -0.0127397 -0.1134029 0.0203303 -0.0009373 0.0011824 0.9997922
1341846334.602351 -0.0274761 -0.0110209 -0.1413829 0.0136335 -0.0065495 -0.0072579 0.9998593
1341846334.702085 -0.0312407 -0.0196034 -0.1592242 0.0067271 -0.0118271 -0.0128213 0.9998252
1341846334.833908 -0.0280189 -0.0217965 -0.1897144 0.0051270 -0.0220685 -0.0091107 0.9997018
1341846334.970032 -0.0208973 -0.0260679 -0.2183964 0.0009409 -0.0308092 -0.0095432 0.9994793
1341846335.106038 -0.0171874 -0.0311795 -0.2501333 0.0045961 -0.0370216 -0.0069978 0.9992794
1341846335.206091 -0.0174107 -0.0328215 -0.2776000 0.0052495 -0.0414765 -0.0095163 0.9990804
1341846335.338012 -0.0138820 -0.0388242 -0.3056703 0.0100030 -0.0437101 -0.0095605 0.9989485
1341846335.438079 -0.0112760 -0.0393269 -0.3309149 0.0260891 -0.0394067 -0.0026063 0.9988792
1341846335.538040 -0.0097161 -0.0323175 -0.3529146 0.0288531 -0.0335494 -0.0064125 0.9989999
1341846335.706178 -0.0076283 -0.0344369 -0.3915536 0.0248341 -0.0354495 -0.0074796 0.9990349
1341846335.842031 -0.0040493 -0.0345822 -0.4180219 0.0213754 -0.0356960 -0.0083182 0.9990994
1341846335.974198 -0.0044569 -0.0329663 -0.4550976 0.0206927 -0.0378033 -0.0083885 0.9990357
1341846336.110739 -0.0054000 -0.0308863 -0.4841335 0.0206824 -0.0419150 -0.0115598 0.9988402
1341846336.241891 -0.0058091 -0.0294505 -0.5140516 0.0181407 -0.0459244 -0.0097165 0.9987329
1341846336.377975 -0.0061463 -0.0295570 -0.5382015 0.0234630 -0.0501657 -0.0029639 0.9984609
1341846336.645982 -0.0047762 -0.0267108 -0.5839115 0.0210206 -0.0491211 -0.0000794 0.9985716
1341846336.820006 -0.0091124 -0.0275847 -0.6095731 0.0269593 -0.0636586 0.0094800 0.9975625
1341846336.981980 -0.0089057 -0.0231830 -0.6431141 0.0406953 -0.0812006 0.0117959 0.9957968
1341846337.250087 -0.0092102 -0.0231928 -0.6434009 0.0267467 -0.0906067 -0.0026505 0.9955240
1341846337.585971 -0.0087835 -0.0231097 -0.6439490 0.0214938 -0.0980705 -0.0020252 0.9949453
1341846338.121875 -0.0051804 -0.0247595 -0.6208043 -0.0090029 -0.0719699 -0.0075771 0.9973374
1341846338.389969 -0.0076419 -0.0107037 -0.5666369 -0.0133211 -0.0645827 -0.0000815 0.9978235
1341846338.657984 -0.0134485 -0.0036512 -0.5084059 -0.0183320 -0.0623719 -0.0007884 0.9978843
1341846338.889902 -0.0150720 0.0020118 -0.4516390 -0.0252231 -0.0610937 -0.0027994 0.9978094
1341846339.093927 -0.0146560 0.0090344 -0.4014406 -0.0214794 -0.0547941 -0.0033696 0.9982609
1341846339.257998 -0.0117582 0.0167755 -0.3578692 -0.0344445 -0.0522563 -0.0043827 0.9980299
1341846339.496743 -0.0090518 0.0251710 -0.3005921 -0.0437092 -0.0469324 -0.0074480 0.9979135
1341846339.664568 -0.0039374 0.0253501 -0.2640645 -0.0389795 -0.0364716 -0.0100601 0.9985235
1341846339.862015 0.0002024 0.0254194 -0.2237496 -0.0388029 -0.0326378 -0.0118994 0.9986429
1341846340.166041 0.0069976 0.0216497 -0.1741238 -0.0333876 -0.0218306 -0.0098906 0.9991551
1341846340.366064 0.0062355 0.0235347 -0.1457046 -0.0344558 -0.0174063 -0.0099884 0.9992047
1341846340.901955 0.0100869 0.0241228 -0.1511940 -0.0223443 -0.0151255 -0.0289298 0.9992172
1341846342.147954 0.0153366 0.0147624 -0.1998229 0.0136672 -0.0447271 0.0121068 0.9988324
