1341846226.817920 0.0000000 0.0000000 0.0000000 0.0000000 0.0000000 0.0000000 1.0000000
1341846229.398029 0.0389664 -0.0314985 0.0014033 0.0074599 -0.0037912 -0.0112313 0.9999019
1341846229.471963 0.0390997 -0.0249767 -0.0050567 0.0116853 -0.0042997 -0.0102799 0.9998696
1341846229.698150 0.0404225 -0.0296665 -0.0033710 0.0165741 -0.0006718 -0.0017553 0.9998609
1341846229.897926 0.0410555 -0.0253879 -0.0107303 0.0199694 0.0037765 -0.0025433 0.9997903
1341846230.469920 0.0410627 -0.0253126 -0.0113368 0.0218836 0.0108639 -0.0028984 0.9996973
1341846230.670057 0.0410526 -0.0253472 -0.0108506 0.0248810 0.0082826 -0.0042633 0.9996470
1341846230.769960 0.0410526 -0.0253472 -0.0108505 0.0257329 0.0070952 -0.0040343 0.9996355
1341846231.205909 0.0410526 -0.0253472 -0.0108506 0.0324021 0.0020445 -0.0047351 0.9994616
1341846231.341923 0.0410526 -0.0253472 -0.0108506 0.0347343 0.0013491 -0.0044547 0.9993857
1341846231.648015 0.0410526 -0.0253472 -0.0108505 0.0258558 0.0039205 -0.0091815 0.9996158
1341846231.817027 0.0410527 -0.0253471 -0.0108505 0.0469399 -0.0034267 -0.0239031 0.9986058
1341846231.852317 0.0410527 -0.0253471 -0.0108505 0.0511609 -0.0048993 -0.0268475 0.9983175
1341846231.978027 0.0410528 -0.0253468 -0.0108504 0.0638091 -0.0093170 -0.0356729 0.9972808
1341846232.009966 0.0410528 -0.0253468 -0.0108504 0.0680172 -0.0107832 -0.0386173 0.9968781
1341846232.178314 0.0410530 -0.0253465 -0.0108502 0.0890485 -0.0181251 -0.0532913 0.9944355
1341846232.215951 0.0410530 -0.0253464 -0.0108502 0.0932475 -0.0195956 -0.0562206 0.9938613
1341846232.383877 0.0410532 -0.0253462 -0.0108500 0.1141943 -0.0269143 -0.0708623 0.9905624
1341846232.619798 0.0410535 -0.0253459 -0.0108498 0.1433913 -0.0371433 -0.0912313 0.9847518
1341846232.987965 0.0410540 -0.0253457 -0.0108494 0.1888283 -0.0530892 -0.1230535 0.9728223
1341846233.286015 0.0410543 -0.0253455 -0.0108490 0.2214759 -0.0645776 -0.1459117 0.9620228
1341846233.654396 0.0410547 -0.0253453 -0.0108485 0.2656891 -0.0801755 -0.1768954 0.9442930
1341846234.021936 0.0410550 -0.0253452 -0.0108479 0.3050856 -0.0941146 -0.2045326 0.9253278
1341846234.389919 0.0410554 -0.0253452 -0.0108473 0.3436058 -0.1077829 -0.2315829 0.9037075
1341846234.758643 0.0410557 -0.0253452 -0.0108467 0.3811388 -0.1211423 -0.2579690 0.8794940
1341846235.094075 0.0410559 -0.0253454 -0.0108461 0.4175782 -0.1341536 -0.2836154 0.8527564
1341846235.361974 0.0410560 -0.0253456 -0.0108457 0.4458712 -0.1442864 -0.3035494 0.8296011
1341846235.398097 0.0410561 -0.0253456 -0.0108456 0.4493513 -0.1455347 -0.3060027 0.8265987
1341846235.630160 0.0410562 -0.0253455 -0.0108453 0.4699567 -0.1529355 -0.3205357 0.8080893
1341846235.667679 0.0410563 -0.0253455 -0.0108453 0.4733442 -0.1541538 -0.3229261 0.8049227
1341846235.898007 0.0410564 -0.0253456 -0.0108450 0.4966709 -0.1625562 -0.3393951 0.7821153
1341846236.034072 0.0410566 -0.0253456 -0.0108449 0.5096889 -0.1672560 -0.3485929 0.7685868
1341846236.065823 0.0410566 -0.0253457 -0.0108448 0.5129071 -0.1684191 -0.3508675 0.7651492
1341846236.101989 0.0410567 -0.0253457 -0.0108448 0.5161106 -0.1695773 -0.3531319 0.7616897
1341846236.134258 0.0410567 -0.0253457 -0.0108447 0.5192992 -0.1707306 -0.3553863 0.7582084
1341846236.166269 0.0410567 -0.0253457 -0.0108447 0.5224729 -0.1718790 -0.3576305 0.7547053
1341846236.202022 0.0410568 -0.0253457 -0.0108446 0.5256316 -0.1730225 -0.3598643 0.7511806
1341846236.233893 0.0410568 -0.0253457 -0.0108446 0.5287752 -0.1741610 -0.3620878 0.7476344
1341846236.265924 0.0410568 -0.0253457 -0.0108445 0.5319036 -0.1752946 -0.3643009 0.7440667
1341846236.302018 0.0410569 -0.0253457 -0.0108445 0.5350167 -0.1764231 -0.3665036 0.7404776
1341846236.333756 0.0410569 -0.0253457 -0.0108444 0.5381145 -0.1775466 -0.3686957 0.7368674
1341846236.369949 0.0410569 -0.0253457 -0.0108444 0.5411968 -0.1786650 -0.3708773 0.7332360
1341846236.433828 0.0410570 -0.0253458 -0.0108443 0.5473146 -0.1808865 -0.3752085 0.7259100
1341846236.469948 0.0410570 -0.0253458 -0.0108442 0.5503500 -0.1819894 -0.3773580 0.7222158
1341846236.501946 0.0410571 -0.0253458 -0.0108442 0.5533696 -0.1830872 -0.3794966 0.7185009
1341846236.569956 0.0410571 -0.0253458 -0.0108441 0.5593610 -0.1852670 -0.3837411 0.7110093
1341846236.601901 0.0410572 -0.0253458 -0.0108441 0.5623327 -0.1863490 -0.3858468 0.7072328
1341846236.669818 0.0410572 -0.0253459 -0.0108440 0.5682278 -0.1884970 -0.3900249 0.6996190
1341846236.702100 0.0410573 -0.0253459 -0.0108439 0.5711508 -0.1895629 -0.3920972 0.6957819
1341846236.769905 0.0410573 -0.0253460 -0.0108439 0.5769477 -0.1916784 -0.3962079 0.6880479
1341846236.844067 0.0410573 -0.0253460 -0.0108439 0.5826784 -0.1937718 -0.4002731 0.6802352
1341846236.911899 0.0410574 -0.0253459 -0.0108437 0.5883423 -0.1958429 -0.4042922 0.6723442
1341846236.944484 0.0410574 -0.0253460 -0.0108437 0.5911490 -0.1968700 -0.4062844 0.6683697
1341846237.011848 0.0410575 -0.0253461 -0.0108436 0.5967115 -0.1989072 -0.4102337 0.6603632
1341846237.075882 0.0410575 -0.0253462 -0.0108435 0.6022056 -0.2009215 -0.4141359 0.6522809
1341846237.143863 0.0410575 -0.0253462 -0.0108435 0.6076306 -0.2029128 -0.4179904 0.6441238
1341846237.211847 0.0410576 -0.0253462 -0.0108434 0.6129858 -0.2048809 -0.4217969 0.6358927
1341846237.280228 0.0410577 -0.0253463 -0.0108433 0.6182709 -0.2068253 -0.4255550 0.6275885
1341846237.343828 0.0410577 -0.0253464 -0.0108432 0.6234848 -0.2087460 -0.4292644 0.6192123
1341846237.411962 0.0410577 -0.0253464 -0.0108431 0.6286274 -0.2106426 -0.4329244 0.6107649
1341846237.511862 0.0410578 -0.0253466 -0.0108430 0.6362058 -0.2134421 -0.4383213 0.5979624
1341846237.579956 0.0410578 -0.0253466 -0.0108429 0.6411670 -0.2152776 -0.4418564 0.5893414
1341846237.647976 0.0410578 -0.0253467 -0.0108428 0.6460547 -0.2170882 -0.4453408 0.5806527
1341846237.711902 0.0410579 -0.0253468 -0.0108427 0.6508682 -0.2188739 -0.4487742 0.5718972
1341846237.779848 0.0410579 -0.0253468 -0.0108426 0.6556071 -0.2206343 -0.4521562 0.5630760
1341846237.879781 0.0410579 -0.0253469 -0.0108425 0.6625742 -0.2232275 -0.4571316 0.5497231
1341846237.978064 0.0410580 -0.0253469 -0.0108423 0.6671243 -0.2249241 -0.4603830 0.5407420
1341846238.045995 0.0410580 -0.0253470 -0.0108423 0.6715977 -0.2265947 -0.4635816 0.5316987
1341846238.109791 0.0410579 -0.0253472 -0.0108422 0.6759940 -0.2282393 -0.4667269 0.5225945
1341846238.177943 0.0410579 -0.0253473 -0.0108422 0.6803126 -0.2298578 -0.4698187 0.5134302
1341846238.278227 0.0410580 -0.0253474 -0.0108421 0.6866443 -0.2322363 -0.4743549 0.4995731
1341846238.377978 0.0410580 -0.0253475 -0.0108420 0.6907669 -0.2337886 -0.4773112 0.4902632
1341846238.478188 0.0410580 -0.0253476 -0.0108419 0.6968020 -0.2360666 -0.4816426 0.4761932
1341846238.545906 0.0410580 -0.0253477 -0.0108419 0.7007254 -0.2375514 -0.4844612 0.4667446
1341846238.681933 0.0410580 -0.0253479 -0.0108419 0.7064596 -0.2397275 -0.4885847 0.4524716
1341846238.745925 0.0410580 -0.0253480 -0.0108418 0.7101809 -0.2411439 -0.4912638 0.4428911
1341846238.849931 0.0410580 -0.0253481 -0.0108417 0.7156098 -0.2432166 -0.4951769 0.4284252
1341846238.914000 0.0410581 -0.0253482 -0.0108416 0.7191263 -0.2445636 -0.4977146 0.4187196
1341846239.050041 0.0410581 -0.0253482 -0.0108415 0.7242462 -0.2465314 -0.5014139 0.4040715
1341846239.117866 0.0410580 -0.0253483 -0.0108416 0.7275556 -0.2478079 -0.5038083 0.3942479
1341846239.181897 0.0410580 -0.0253485 -0.0108416 0.7307813 -0.2490560 -0.5061448 0.3843791
1341846239.285917 0.0410580 -0.0253487 -0.0108415 0.7354624 -0.2508743 -0.5095406 0.3694937
1341846239.386011 0.0410580 -0.0253488 -0.0108414 0.7399533 -0.2526277 -0.5128050 0.3545128
1341846239.450112 0.0410580 -0.0253489 -0.0108413 0.7428412 -0.2537602 -0.5149077 0.3444745
1341846239.553979 0.0410580 -0.0253491 -0.0108413 0.7470130 -0.2554044 -0.5179510 0.3293432
1341846239.653941 0.0410580 -0.0253492 -0.0108412 0.7509919 -0.2569824 -0.5208603 0.3141268
1341846239.753857 0.0410579 -0.0253494 -0.0108412 0.7547768 -0.2584938 -0.5236353 0.2988294
1341846239.854023 0.0410579 -0.0253496 -0.0108411 0.7583666 -0.2599382 -0.5262752 0.2834548
1341846239.985997 0.0410578 -0.0253497 -0.0108411 0.7617605 -0.2613154 -0.5287793 0.2680070
1341846240.089841 0.0410578 -0.0253498 -0.0108411 0.7649574 -0.2626251 -0.5311468 0.2524901
1341846240.159862 0.0410578 -0.0253499 -0.0108411 0.7669790 -0.2634604 -0.5326489 0.2421092
1341846240.290031 0.0410578 -0.0253501 -0.0108410 0.7698464 -0.2646565 -0.5347873 0.2264861
1341846240.357948 0.0410578 -0.0253502 -0.0108410 0.7716475 -0.2654159 -0.5361362 0.2160382
1341846240.458143 0.0410578 -0.0253502 -0.0108410 0.7733601 -0.2661447 -0.5374234 0.2055653
1341846240.525976 0.0410578 -0.0253503 -0.0108409 0.7749839 -0.2668429 -0.5386491 0.1950690
1341846240.590418 0.0410578 -0.0253504 -0.0108409 0.7765186 -0.2675104 -0.5398131 0.1845503
1341846240.689825 0.0410577 -0.0253505 -0.0108409 0.7786536 -0.2684540 -0.5414428 0.1687329
1341846240.794024 0.0410577 -0.0253507 -0.0108409 0.7805874 -0.2693282 -0.5429326 0.1528720
1341846240.858147 0.0410576 -0.0253507 -0.0108409 0.7817646 -0.2698723 -0.5438480 0.1422758
1341846240.958080 0.0410576 -0.0253509 -0.0108409 0.7833620 -0.2706305 -0.5451041 0.1263513
1341846241.062449 0.0410575 -0.0253510 -0.0108410 0.7847570 -0.2713187 -0.5462194 0.1103944
1341846241.167863 0.0410574 -0.0253512 -0.0108410 0.7859492 -0.2719368 -0.5471938 0.0944091
1341846241.261868 0.0410576 -0.0253513 -0.0108407 0.7866312 -0.2723099 -0.5477650 0.0837385
1341846241.329804 0.0410575 -0.0253514 -0.0108408 0.7872229 -0.2726518 -0.5482733 0.0730582
1341846241.394012 0.0410574 -0.0253515 -0.0108408 0.7877241 -0.2729623 -0.5487188 0.0623696
1341846243.473902 0.0404364 -0.0233630 -0.0122577 0.6046532 -0.1869108 -0.4352972 0.6402931
1341846243.710095 0.0413047 -0.0250708 -0.0109485 0.6055478 -0.1868722 -0.4345992 0.6399330
1341846243.774067 0.0413189 -0.0249440 -0.0109680 0.6048778 -0.1864161 -0.4356408 0.6399914
1341846244.215953 0.0410857 -0.0253217 -0.0108518 0.6064936 -0.1874632 -0.4320759 0.6405728
1341846245.051869 0.0410579 -0.0253456 -0.0108441 0.6138535 -0.1866496 -0.4193841 0.6422327
1341846245.487804 0.0410575 -0.0253461 -0.0108436 0.6149341 -0.1832827 -0.4216269 0.6406983
1341846246.389885 0.0410575 -0.0253461 -0.0108436 0.6206763 -0.1791178 -0.4232822 0.6352242
1341846246.993936 0.0410574 -0.0253462 -0.0108436 0.6171859 -0.1799502 -0.4187101 0.6413902
1341846247.261953 0.0410574 -0.0253462 -0.0108436 0.6230938 -0.1856727 -0.4141222 0.6370106
1341846247.430187 0.0410575 -0.0253461 -0.0108435 0.6276950 -0.1889452 -0.4132503 0.6320783
1341846247.462223 0.0410575 -0.0253462 -0.0108434 0.6282631 -0.1896058 -0.4135632 0.6311105
1341846247.493952 0.0410575 -0.0253462 -0.0108434 0.6288295 -0.1902654 -0.4138761 0.6301422
1341846247.730051 0.0410575 -0.0253462 -0.0108434 0.6327623 -0.1948806 -0.4160393 0.6233335
1341846248.065891 0.0410575 -0.0253464 -0.0108433 0.6382869 -0.2014431 -0.4190676 0.6135086
1341846248.802167 0.0410576 -0.0253465 -0.0108432 0.6495121 -0.2151087 -0.4251828 0.5925215
1341846248.833950 0.0410576 -0.0253465 -0.0108432 0.6500338 -0.2157558 -0.4254656 0.5915104
1341846248.869901 0.0410576 -0.0253465 -0.0108432 0.6505543 -0.2164025 -0.4257477 0.5904981
1341846248.901932 0.0410576 -0.0253465 -0.0108432 0.6510736 -0.2170489 -0.4260289 0.5894848
1341846248.938035 0.0410576 -0.0253466 -0.0108432 0.6515917 -0.2176949 -0.4263095 0.5884703
1341846249.001964 0.0410576 -0.0253466 -0.0108431 0.6526244 -0.2189858 -0.4268682 0.5864386
1341846249.069961 0.0410576 -0.0253466 -0.0108431 0.6536523 -0.2202751 -0.4274238 0.5844027
1341846249.169904 0.0410577 -0.0253466 -0.0108431 0.6551853 -0.2222064 -0.4282511 0.5813412
1341846249.306095 0.0410577 -0.0253467 -0.0108431 0.6567077 -0.2241344 -0.4290713 0.5782703
1341846249.405928 0.0410577 -0.0253467 -0.0108430 0.6582193 -0.2260592 -0.4298844 0.5751903
1341846249.505956 0.0410577 -0.0253467 -0.0108430 0.6597199 -0.2279802 -0.4306906 0.5721017
1341846249.606015 0.0410578 -0.0253468 -0.0108429 0.6612094 -0.2298976 -0.4314896 0.5690043
1341846249.742012 0.0410578 -0.0253468 -0.0108429 0.6631787 -0.2324487 -0.4325438 0.5648606
1341846249.842148 0.0410578 -0.0253468 -0.0108428 0.6646433 -0.2343580 -0.4333261 0.5617419
1341846249.942024 0.0410578 -0.0253467 -0.0108427 0.6660974 -0.2362634 -0.4341013 0.5586143
1341846250.078047 0.0410578 -0.0253467 -0.0108426 0.6680196 -0.2387979 -0.4351241 0.5544298
1341846250.177803 0.0410578 -0.0253468 -0.0108426 0.6694489 -0.2406944 -0.4358827 0.5512809
1341846250.309873 0.0410578 -0.0253469 -0.0108426 0.6713380 -0.2432177 -0.4368830 0.5470683
1341846250.445984 0.0410578 -0.0253469 -0.0108426 0.6732078 -0.2457340 -0.4378709 0.5428399
1341846250.546119 0.0410578 -0.0253469 -0.0108426 0.6745974 -0.2476167 -0.4386036 0.5396584
1341846250.713958 0.0410579 -0.0253470 -0.0108425 0.6768898 -0.2507455 -0.4398088 0.5343361
1341846250.814024 0.0410579 -0.0253470 -0.0108424 0.6782513 -0.2526170 -0.4405226 0.5311306
1341846250.981803 0.0410579 -0.0253471 -0.0108424 0.6804955 -0.2557269 -0.4416969 0.5257694
1341846251.114058 0.0410579 -0.0253471 -0.0108424 0.6822689 -0.2582068 -0.4426221 0.5214634
1341846251.249978 0.0410579 -0.0253471 -0.0108424 0.6840231 -0.2606800 -0.4435340 0.5171421
